0.0219793,0.014859179,0.013656436,-0.103024736,0.029804215,0.2442521,-0.12301407,0.053466264,-0.15493156,-0.0138835795,0.011848839,-0.16777828,0.009269969,0.00087544107,0.04885543,-0.019909736,0.012063124,0.15110762,-0.14130026,0.09135321,-0.09819065,-0.121033594,0.025233831,-0.051256996,0.100974075,-0.08007789,-0.031232003,-0.14040017,-0.046266694,0.039796073,0.10303035,-0.09863151,-0.055433586,-0.15631245,0.10160064,-0.011584726,-0.08918615,-0.1606201,-0.23193163,-0.03047737,0.02948053,0.004416781,0.103612624,0.12867455,-0.06960405,-0.1304193,0.03510739,-0.09267637,-0.07884483,-0.2995001,0.016961455,0.03035836,-0.4026155,0.066434555,-0.21267763,-0.047413364,-0.3756406,0.10629776,-0.039237402,-0.24914676,-0.12287358,0.067767404,-0.042775672,-0.2961615,-0.053566396,-0.080326706,0.12863733,0.12743887,0.22151041,-0.08489866,-0.76230997,0.06973778,0.045245666,-0.005072488,-0.14231642,-0.4274229,-0.027629465,0.037198976,-0.1418815,-0.39442688,-0.0062285974,-0.040130395,0.05617111,0.20595121,-0.0017808627,0.15052922,-0.13570006,0.051685713,0.039107185,0.0013021799,0.004656048,0.012432055,-0.07389062,-0.0078253485,0.012376882,0.2973578,-0.015996149,-0.1140308,0.07640059,0.041657258,0.034426,-0.11375868,0.08507695,0.1342173,0.05097846,-0.017677395,0.09657058,0.14222598,-0.06370729,-0.06637475,-0.078197725,-0.005697971,0.04543266,-0.13990554,-0.2158119,-0.23710576,0.2569151,-0.10564174,0.031982493,-0.04706993,0.119305655,0.056590907,-0.2154601,-0.14357917,-0.19710705,-0.07010195,-0.096117415,0.23109446,0.010357519,0.013797219,-0.027605617,0.073493205,0.3777278,0.096992865,-0.020597845,-0.008782129,-0.24376354,-0.13883567,-0.27845836,0.38942325,-0.18743329,-0.07400596,-0.082309306,-0.3227977,-0.09884675,-0.1312119,0.05918486,0.030709403,0.09789698,-0.16899437,0.055566102,-0.018895142,-0.3442023,0.018662132,0.0046531954,-0.13574752,-0.07966064,0.015537214,0.033216212,-0.076518625,0.002446542,0.06966039,-0.07318367,-0.113140844,-0.06414573,0.03339024,-0.065061666,0.022485537,0.08603476,-0.021931982,0.03262094,-0.08905997,-0.0928288,0.021370873,0.033399355,-0.016888238,0.04006694,0.20090316,-0.14070675,-0.4777863,-0.39872497,-0.3068283,0.015557972,0.11315083,0.07989481,-0.06269763,0.06793141,-0.0688769,0.38673463,-0.013010147,-0.00039144087,0.059777476,-0.06071803,0.02971685,-0.22442415,-0.10167585,-0.002150734,-0.28755414,0.2094228,0.02964088,0.1545749,-0.08920899,-0.15722525,0.044526808,-0.14113846,0.1019408,-0.049860384,0.11209727,0.0065005156,0.29540268,0.073081285,-0.085732624,-0.122479595,0.05235131,-0.04947927,-0.030345052,-0.07220897,0.11169961,-0.009100911,0.016389176,0.022729887,0.0048343586,0.049751636,-0.13881494,0.0038410514,-0.1369162,0.23808798,-0.10504657,-0.12132419,0.41884276,0.22098257,-0.13057876,0.016417181,0.09607764,0.15005043,0.5537429,-0.06051763,0.016914643,0.13220808,0.0795426,-0.07954121,0.09698753,0.091677085,-0.023319524,-0.16283207,-0.029394086,0.041460488,0.036169875,0.06772779,-0.031263478,0.03928301,0.12212797,0.022716224,0.063755855,0.021506561,-0.036591627,0.01186667,-0.08105132,0.08606304,0.14555667,-0.008790742,0.40479738,0.09309331,0.18404858,0.015415978,0.024670742,0.083863355,-0.16220461,0.012044807,0.0025378403,-0.065570675,0.5742278,0.03624003,-0.39667693,0.071622685,-0.15148346,0.26397896,0.0381346,0.015139289,0.020517964,0.06661997,-0.1908967,0.08948616,-0.04476796,0.23087396,-0.06115045,-0.07430646,0.037314083,0.08902939,0.08048094,0.033587236,0.035302226,0.5655684,0.103049144,0.024031166,-0.013123082,-0.08823186,-0.11570604,0.02610556,0.14785062,0.005477103,0.049799953,0.11193141,0.055916827,0.04992393,0.35344988,0.14132658,-0.1728258,0.3466329,0.18378584,-0.103998,0.091801085,-0.053010255,0.22787324,-0.011525465,-0.22375995,0.091580555,-0.10732489,-0.123083174,0.022842947,-0.00946033,-0.14695393,-0.0807692,0.12381902,0.21893142,-0.29620975,-0.13021903,-0.07643715,-0.033768035,0.050429408,-0.0073752454,-0.1421598,0.087909915,0.03894116,-0.025293639,-0.08893604,-0.031000853,0.003238015,-0.04110829,0.079686396,-0.19494775,0.058758337,-0.0056382488,-0.031757183,-0.1035575,-0.10269819,-0.048445974,0.0040919227,-0.00027571438,-0.035019595,0.028367192,0.0041803927,0.03646466,0.09691724,-0.01788689,0.019384313,-0.16231745,0.18125477,-0.04461432,0.0843566,0.061565097,-0.0007531709,-0.036416877,-0.037970293,0.0061797025,0.003102055,-0.106285654,-0.13712181,0.087561615,0.12185361,-0.0038035822,-0.11268317,0.053779278,-0.1702709,0.46934822,0.07146283,-0.030967053,-0.032809503,0.04331578,-0.42719176,0.13942069,-0.012528576,-0.042423964,-1.1691083,0.01832663,-0.13968505,0.056390617,-0.19405404,0.04021366,0.018823802,-0.14498663,0.09107039,0.02105163,-0.10796043,0.008678568,-0.022210378,0.23024784,0.07064341,-0.0874499,0.037915893,0.0075137974,0.06139086,0.13545273,0.1000244,0.29095387,0.088632345,-0.054981045,-0.049783226,0.10699221,0.08197152,-0.038738273,0.0068339934,-0.0035273212,-0.006077906,-0.061699994,-0.04578016,0.02701505,-0.03082646,-0.046130378,0.062854886,-0.041409623,-0.0021026959,0.05692596,0.10410317,-0.15038969,-0.17576662,0.0955638,0.13620962,-0.07016262,-0.011142074,-0.056955393,-0.12179212,-0.065597095,0.14522131,0.012205437,0.09949713,0.040310092,0.027338611,0.052843373,-0.029096754,-0.0010965529,0.10385098,-0.0141376965,0.014170232,-0.001504315,0.0085716685,-0.02772469,0.022814142,-0.017649692,0.14446975,-0.09583296,0.020700015,0.09961999,-0.008555304,0.075128265,-0.069265865,0.36088613,0.05246854,-0.16615042,0.0927056,-0.10575822,-0.0630844,-0.048669025,0.12474142,-0.05522438,-0.25911596,0.007536414,0.3406608,0.37824678,0.08203524,0.08448592,-0.09700697,0.25630122,0.05625147,-0.15941118,-0.23409718,-0.38309893,-0.07750278,-0.055029992,-0.42220414,-0.0074682985,0.0011225686,0.0044353297,-0.0064198077,0.00018105884,0.005972271,-0.0047454676,-0.0022057137,-0.003640001,-0.0024665091,0.0014029528,-0.009358877,0.0018650464,0.0072955433,-0.007619795,0.001027202,-0.0061840946,-0.029027583,-0.060684677,0.01445653,0.033399496,0.0030072867,-0.025078993,0.03223656,-0.04150772,0.024148602,0.012237435,0.032435566,-0.037052643,0.0036987548,0.00015728542,0.020936346
