-0.019421712,0.16814888,0.02549009,-0.03413972,-0.15442756,-0.11257184,-0.025584744,0.03179162,-0.047431663,-0.021114575,0.03889645,-0.0046757767,-0.05159028,-0.02017541,-0.01624497,-0.0024294488,0.01420729,-0.04667048,-0.00013367865,-0.0010175892,0.006213978,0.040583465,0.06586347,0.01126989,-0.01945123,-0.006524752,-0.0067065298,-0.008972453,-0.037562262,-0.015012806,0.013230226,0.04908342,0.06101538,0.0012623118,-0.0040097088,-0.0058370014,-0.012777807,-0.035326086,0.01016723,0.015732259,-0.021692103,0.02205258,0.018436933,-0.020409662,0.014049064,-0.029618237,-0.03250469,-0.016355323,0.004606222,0.016148081,-0.0058674007,0.0110973315,0.0003348542,0.025001453,0.023147183,-0.0039824303,-0.009081433,-0.02918112,0.007196038,-0.03237229,0.012499325,0.01912517,0.0004993293,-0.029107906,-0.011340676,0.016962145,0.01653965,0.054954436,-0.068696596,0.008609446,-0.021403441,0.025623227,-0.09241559,-0.11620235,-0.054289304,-0.04465383,0.014268254,-0.058557734,0.0075008315,0.085184254,0.060359485,0.057883374,-0.071807526,0.039346855,0.015908767,0.16231197,-0.008666797,0.020062048,-0.11694241,0.015068955,0.046224844,0.01682879,-0.007818695,-0.03758815,0.027005972,0.0167078,0.0005175927,0.0065700086,0.008650505,0.013462151,0.024638824,0.0144360475,-0.0060079745,-0.024319941,-0.007814605,-0.04170391,-0.043548606,-0.020276034,-0.009506699,-0.01405388,-0.078324795,-0.04599216,0.047192987,0.04068822,0.017020952,-0.00036530982,0.014646302,-0.016289804,0.12731746,0.008384529,-0.00857867,-0.16493599,0.019558353,0.00033498445,0.08559412,-0.014784856,-0.0641114,-0.057735324,-0.014883396,0.0016237912,0.051756307,-0.07220734,-0.0012606931,-0.050101392,0.06027788,-0.008879903,-0.008280406,0.010892986,0.0002721382,0.012260355,0.029897718,-0.004486273,-0.0036447973,0.005525397,0.0,0.0,-0.0,0.0,0.0,0.0,-0.0,-0.0,-0.0,-0.0,-0.0,-0.0,0.0,0.0,-0.0,0.0,0.0,-0.0,-0.0,-0.0,0.0,-0.0,-0.0,-0.0,0.0,0.0,0.0,-0.0,-0.0,-0.0,0.0,0.0,0.0,0.0,0.0,0.0,-0.0,-0.0,0.0,-0.0,-0.0,0.0,-0.0,0.0,-0.0,-0.0,-0.0,-0.0,-0.0,0.0,0.0,0.0,-0.0,-0.0,0.0,0.0,0.0,0.0,0.0,0.0,-0.0,-0.0,-0.0,-0.0,-0.0,-0.0,-0.0,0.0,0.0,-0.0,-0.0,0.0,-0.0,-0.0,0.0,0.0,-0.0,-0.0,0.0,0.0,-0.0,0.0,-0.0,-0.0,-0.0,-0.0,-0.0,-0.0,-0.0,0.0,0.0,-0.0,0.0,-0.0,-0.0,0.0,-0.0,0.0,0.0,0.0,0.0,-0.0,0.0,-0.0,-0.0,0.0,0.0,0.0,0.0,-0.0,-0.0,-0.0,-0.0,0.0,-0.0,0.0,0.0,0.0,0.0,0.0,0.0,0.0,-0.0,0.0,0.0,0.0,-0.0,0.0,0.0,-0.0,-0.0,-0.0,-0.0,0.0,0.0,-0.0,-0.0,-0.0,-0.0,0.0,-0.0,-0.0,0.0,0.0,0.005536619,-0.099512644,-0.004647642,-0.106957085,0.036823083,0.10396967,-0.029389532,0.13240688,-0.089579076,-0.081228614,0.04400734,-0.027700784,0.02292508,-0.004492835,-0.0036986156,-0.024657726,0.035916854,-0.016099555,-0.012130113,0.0077262674,0.017024891,-0.024122737,-0.026367633,-0.030445104,0.0030959174,-0.0040131,0.0111456625,0.02177182,0.04036021,0.029400738,0.010523374,-0.05061574,-0.09219274,0.052074227,0.06352626,0.0811222,0.0639494,0.022769844,0.0049640206,0.03303456,-0.051468372,0.0113261435,0.014917988,-0.031753384,0.018374357,0.05593716,-0.020642657,0.0033419922,-0.02169984,-0.03879423,0.035517953,-0.03414627,0.05394889,0.027911874,0.039660342,-0.00076779735,-0.015074967,0.010282727,-0.05594922,-0.02526748,-0.04433341,0.015577649,0.081989884,0.040291984,0.006818014,-0.15580814,-0.065872826,-0.067782864,0.11126875,-0.0344247,0.09529092,0.025893824,-0.05263165,0.06966231,-0.015904732,-0.014358742,0.114681005,-0.03265048,-0.037736706,-0.100691795,-0.05712508,0.043160602,0.11348237,-0.06051766,0.08994902,-0.050931282,-0.06319093,-0.025900645,-0.016435217,0.079921804,-0.02215145,-0.0123527115,0.048345294,0.007860618,0.003882778,0.028204573,-0.026398117,-0.008382096,-0.03677314,-0.017623728,-0.03222976,0.006849948,-0.029824782,0.025070114,0.05284868,0.00992391,0.054960605,0.004043008,-0.012271899,0.006668466,-0.00595891,0.007662199,0.045952175,-0.09733704,-0.043993898,-0.023717204,-0.06330526,-0.09350463,-0.100531176,0.10452572,-0.083684824,0.22134957,-0.037769683,0.10797455,-0.058236104,-0.08352977,0.038095266,-0.09748565,-0.11973993,0.0088990675,-0.1057228,0.011716612,-0.04731468,0.044080984,0.13775592,0.07414476,0.06744753,-0.024521109,0.04184605,-0.03123845,-0.047969054,-0.0036590418,-0.048707347,0.0025339515,0.01306647,-0.024692884,0.050597087,-0.0024234592,-0.0055014044,0.07597595,0.055841077,-0.06807631,-0.022212183,-0.1016774,-0.067542076,-0.09528465,-0.06592906,0.027261129,0.0060804104,-0.08622853,-0.005623081,0.016661003,0.03111727,-0.023841908,-0.067117244,0.05706456,0.05111316,0.0326144,-0.004472445,0.020243093,0.025180835,-0.003941533,0.051703367,0.015092935,0.1060404,0.14359601,0.13250685,0.0021744503,0.045929562,0.031444296,0.009602926,0.008489206,0.0771922,-0.025224686,-0.039431643,0.039841663,-0.04061165,-0.041149944,0.045755457,0.045718014,0.014207854,0.011633863,0.036500048,0.020712888,0.029806433,0.058612205,0.029707482,0.045718968,-0.002594236,-0.06369358,-0.05412052,0.02533885,-0.0345865,0.0015702981,0.027837247,-0.051249765,0.012751744,-0.026635794,0.1166633,-0.12509856,-0.06761277,0.12862545,-0.11034962,-0.07669545,0.1253031,-0.0024098032,0.050653383,0.02048404,0.04588234,-0.017804127,0.021673853,0.04037181,-0.04682331,0.014783983,-0.0012888937,0.100765474,0.11215728,0.054309115,0.042360563,0.034813203,-0.015826873,-0.04474487,0.0077216798,0.0011684268,0.015041966,0.062179573,-0.05516836,-0.025240093,0.058398936,-0.110837094,-0.043987673,0.015024382,-0.07406167,0.026347412,-0.00900185,-0.0029351788,0.06777333,0.039382648,0.00888043,0.028020188,0.0140685495,-0.0025021937,-0.04748044,-0.04861557,-0.058942307,-0.015177357,0.016898207,-0.021627199,0.04060082,0.04071483,0.0309752,-0.032145906,0.05976477,-0.0151036475,-0.023851715,0.07158239,-0.0028256862,0.017989453,0.14750949,0.046069507,0.0079734605,0.0030844465,0.054488845,0.052074265,0.0072790263,0.011155017,0.047171827,0.009652305,-0.0042757415,0.006903259,0.040104285,-0.014717535,-0.016187161,0.011011849,-0.04506361,-0.0042919517,0.036656957,0.012724922,-0.016156312,0.028139617,-0.017354771,0.07776394,-0.0023496016,-0.03346168,0.04439666,-0.04396323,-0.013016343,-0.0071694884,-0.03346852,-0.013714095,-0.028411122,-0.03296898,0.008970924,0.004816354,-0.0009596282,-0.043165248,-0.0025780236,-0.018438745,-0.0040315003,0.01940555,-0.012474478,-0.020869575,0.027933946,-0.038654864,-0.03923942,0.020308033,0.04519814,0.0012744265,-0.005386657,0.04115082,0.00898949,-0.0014025037,0.025278823,0.022742964,0.032506328,0.03124588,0.08395744,0.0203136,0.015762389,0.073545836,0.01990641,0.016770918,0.045152217,-0.0014508772,-0.02342316,0.024518317,0.00397184,0.006814658,0.04715227,0.02434578,0.0075995824,0.03699554,0.016972154,0.06792626,-0.0020793967,0.010372835,0.043999482,-0.0015126453,-0.037679743,0.00072711246,0.016242435,0.01572488,-0.038522944,-0.0637849,0.11297216,0.01603409,-0.10248162,0.06375003,-0.01208903,-0.103119545,-0.056473073,-0.049347173,-0.008059104,0.017156618,0.0059114173,0.024562959,-0.0024210894,0.015957627,-0.0010131757,-0.018025482,0.02390307,0.008729009,0.0035726358,0.048149485,0.07488266,-0.025261011,0.02458309,0.053081613,-0.0057506883,-0.0029266726,-0.062245734,0.023998212,-0.034030687,-0.07956433,0.018871738,-0.018735545,-0.044779204,-0.025559241,-0.015771056,-0.040099163,-0.007936986,-0.030256437,-0.024956401,-0.004288078,-0.02624564,-0.013224272,-0.039719224,-0.0072963755,0.027873712,-0.03556424,0.037386596,0.09662772,-0.1286442,-0.033589542,0.042483244,-0.03730867,-0.0023853336,-0.024346562,-0.023343096,-0.0586567,0.023246024,-0.039164368,-0.079980865,-0.06010347,0.012830189,0.036718946,0.01997993,-0.010460018,0.14116305,-0.04619485,-0.03678081,-0.059631344,-0.02955992,0.04233542,-0.0055869017,0.0012205597,0.031897075,0.0015217977,-0.006627842,0.035911474,0.034117434,0.021617655,0.0,0.0,0.0,-0.0,0.0,0.0,0.0,-0.0,-0.0,-0.0,-0.0,-0.0,0.0,0.0,-0.0,-0.0,-0.0,0.0,-0.0,0.0,-0.0,-0.0,-0.0,0.0,-0.0,0.0,0.0,-0.0,-0.0,0.0,-0.0,-0.0,0.0,0.0,-0.0,-0.0,0.0,-0.0,-0.0,-0.0,-0.0,-0.0,-0.0,0.0,0.0,0.0,-0.0,0.0,0.0,0.0,-0.0,0.0,0.0,0.0,-0.0,-0.0,-0.0,0.0,0.0,0.0,-0.0,-0.0,0.0,-0.0,-0.0,-0.0,-0.0,0.0,-0.0,-0.0,-0.0,-0.0,0.0,-0.0,-0.0,-0.0,-0.0,-0.0,-0.0,-0.0,-0.0,0.0,0.0,0.0,-0.0,0.0,0.0,-0.0,0.0,-0.0,-0.0,-0.0,-0.0,0.0,-0.0,0.0,0.0,0.0,0.0,-0.0,-0.0,-0.0,-0.0,-0.0,0.0,-0.0,0.0,0.0,-0.0,-0.0,0.0,-0.0,-0.0,-0.0,0.0,-0.0,0.0,-0.0,0.0,0.0,-0.0,0.0,0.0,-0.0,0.0,-0.0,-0.0,-0.0,-0.0,-0.0,-0.0,-0.0,0.0,-0.0,-0.0,-0.0,-0.0,-0.0,-0.0,-0.0,-0.0,-0.0,-0.0,-0.0,0.0069945147,-0.039836217,0.022534465,-0.05009501,-0.03263505,0.063584626,-0.03452558,0.041341174,-0.046305098,-0.013910519,-0.030355232,0.017619794,0.052528962,-0.0010909009,0.019325102,0.028474214,-0.0006291142,-0.04025894,-0.0131562725,0.027952883,0.008582169,-0.02938557,0.06632287,-0.0088686235,-0.023118362,0.055496007,0.0003101652,0.041806757,0.015072449,0.010901209,0.045743443,0.0022767568,0.013078183,0.031516243,0.028181616,0.047544003,0.03126614,0.0117199235,0.021169094,0.04655369,-0.0038744733,0.020562712,0.052802287,-0.013137779,0.055549666,-0.016231598,0.007709696,0.0011179013,0.004573812,0.0015620709,0.005229955,-0.017896367,-0.027093433,-0.0032249673,-0.02057133,-0.013684085,0.020792032,0.0031746952,-0.0070696617,0.028283281,0.014827897,-0.012804315,0.0041533913,-0.070778295,-0.027506841,0.05558634,-0.021755883,-0.0636165,0.16410874,-0.043200526,-0.035610657,0.011597671,-0.027370246,-0.018618586,-0.015001748,-0.005693431,-0.012620002,-0.015589169,0.055040237,-0.017555242,-0.0066226497,-0.004658382,-0.04973747,0.014946167,0.02365273,-0.007969265,0.020475272,0.009435966,-0.011118318,0.018151011,0.0014613179,0.05017421,0.0013479774,-0.04862973,0.061936,0.008919644,-0.038944393,0.013728013,0.0045118676,-0.043834783,0.019212924,0.031850774,-0.0417176,0.014646852,0.041239783,-0.032318093,0.018515022,0.021485072,-0.01920289,-0.03148649,-0.09343074,0.08833559,0.009946941,-0.034951143,0.045046236,0.007852367,-0.010172516,-0.036939025,0.061249703,-0.011314477,-0.046760697,0.18252176,-0.12582554,-0.05938291,0.08955279,-0.09777038,0.0021187495,0.018004688,-0.029096873,0.043451305,-0.110931285,0.055206724,0.013615728,-0.07355704,0.026774604,0.023057204,-0.042119082,0.04383393,0.045776702,-0.026877068,0.024365118,0.025226524,-0.0149088,-0.034025405,0.08895886,0.067319855,0.036788344,0.06472223,-0.03239664,0.023214215,-0.050034724,0.0055168914,-0.055429257,0.0002815481,-0.092058875,0.001185856,-0.04557167,0.0022581117,0.108283155,0.02884005,0.043817803,0.03408272,-0.0014415698,0.00043617695,-0.028024036,0.032951754,-0.018742455,-0.016223794,0.023748057,-0.06717807,-0.062067702,0.015485473,0.015375806,0.023984727,-0.034045227,0.011118266,0.053721413,-0.0009269236,0.019373743,0.0030369316,0.021998575,0.013690073,-0.025918908,0.01797667,-0.0017409412,-0.008252569,0.027937053,0.0030657449,0.034844037,0.06600551,0.05568221,-0.028622607,0.13636316,-0.035002697,-0.12598747,-0.0043066144,-0.10274029,-0.09605007,-0.08394192,-0.09748669,0.004345747,-0.08328718,-0.011733848,0.12821636,-0.08132526,0.048352756,0.09416295,-0.01057981,0.02415152,0.014456428,-0.00474814,0.039990574,-0.031008776,-0.082941405,0.0019228662,0.01945731,-0.031994678,-0.018312365,0.011736753,0.007615609,0.08047147,0.124596834,-0.025458328,-0.0031520922,-0.01952124,-0.009054077,-0.0454928,0.052062254,0.009561371,0.017840339,0.062296502,-0.00888447,0.0033333204,-0.020597193,-0.114216186,0.14621314,-0.01984053,0.023082713,0.16943385,-0.08000171,0.10935542,0.0035036986,-0.12543349,-0.04638421,0.022140587,0.011836877,-0.0071226223,-0.028260663,-0.064546466,-0.05355878,-0.06232807,-0.02895988,0.071457714,0.09852821,-0.06249223,0.03701357,-0.009422518,-0.048228215,-0.051348705,-0.04648446,-0.09430916,0.042816743,-0.06715733,-0.03961634,-0.043004178,-0.11971258,0.008234631,-0.019027222,0.009678735,0.011709236,0.040443238,0.02811208,0.043003216,-0.023198476,-0.017330818,-0.03998689,0.076107934,-0.036950823,-0.063624166,-0.1469203,-0.12537365,0.019718906,-0.085167885,0.03589819,0.12014828,-0.051151596,0.05939498,0.049144134,-0.048278887,-0.06380449,-0.06623789,-0.06773776,0.029512454,-0.0023754104,-0.018935489,0.013349772,0.01878074,-0.023814185,-0.046263225,-0.060955543,-0.09777159,-0.056006916,-0.0734859,-0.019932993,-0.056487337,-0.016979337,0.048669316,0.047210436,0.022418872,0.08839788,0.09745784,0.046324063,-0.013110223,0.005711248,-0.011187569,-0.0019050692,-0.026253168,-0.034298528,0.06534177,0.03188113,0.009305251,0.037736803,0.053385887,0.06398369,0.019503433,-0.0030206353,-0.026199406,0.019710971,0.033553515,-0.038217865,-0.031108197,0.027906425,-0.027459834,-0.030514803,-0.031963035,0.0034040092,-0.0063637136,-0.0035016593,-0.020649666,-0.07769421,-0.010372186,-0.037813142,-0.04969111,-0.017024338,-0.0010108487,-0.057010278,-0.024845656,-0.004188585,0.01266769,0.049978793,-0.022391893,0.08673665,0.07015942,0.056339707,0.045669712,-0.05800843,0.031129748,-0.026225481,-0.092493095,-0.06835395,-0.008474186,0.1549594,0.04998409,0.008227582,0.11040656,0.10687747,-0.002047177,-0.0845961,-0.01925766,0.09617745,0.087740466,-0.00064013957,0.034333803,0.010225349,-0.03139654,0.0925269,0.05618345,0.06811647,-0.036900166,0.01325831,0.08490542,0.07026911,0.0018172521,0.023189507,0.08249103,-0.09418784,-0.046984643,-0.042071022,0.0019288169,-0.020706626,-0.01663695,0.012745007,-0.040100366,-0.036045983,-0.014059993,-0.047447775,0.05699019,0.08506207,0.042500954,0.023122834,-0.049607627,0.0046931063,-0.045248043,-0.09977455,0.0052044163,0.047280505,0.03263945,0.084480196,-0.00800474,-0.07769769,-0.03204044,0.050073136,-0.111069225,0.002560313,0.052999396,0.13479678,0.097952165,0.019367535,-0.07516646,-0.010462362,0.011332063,-0.018525846,-0.011381116,0.05594962,0.056363788,0.021010462,-0.022746624,0.02412062,0.05205952,-0.07402277,-0.04697653,0.020152764,0.0,0.0,0.0,0.0,0.0,0.0,0.0,0.0,0.0,0.0,0.0,-0.0,0.0,0.0,0.0,-0.0,0.0,0.0,-0.0,0.0,0.0,-0.0,-0.0,-0.0,0.0,-0.0,-0.0,0.0,0.0,-0.0,-0.0,-0.0,-0.0,-0.0,-0.0,-0.0,-0.0,-0.0,-0.0,-0.0,-0.0,-0.0,-0.0,-0.0,-0.0,-0.0,-0.0,0.0,-0.0,0.0,0.0,0.0,0.0,-0.0,0.0,-0.0,-0.0,-0.0,-0.0,-0.0,-0.0,-0.0,-0.0,-0.0,0.0,0.0,0.0,0.0,-0.0,-0.0,0.0,0.0,0.0,0.0,0.0,-0.0,-0.0,0.0,0.0,-0.0,-0.0,-0.0,-0.0,-0.0,-0.0,-0.0,-0.0,0.0,-0.0,-0.0,-0.0,-0.0,0.0,-0.0,-0.0,-0.0,-0.0,0.0,0.0,0.0,-0.0,-0.0,-0.0,-0.0,-0.0,-0.0,-0.0,-0.0,0.0,-0.0,-0.0,0.0,-0.0,-0.0,-0.0,-0.0,-0.0,0.0,0.0,-0.0,-0.0,0.0,0.0,0.0,0.0,0.0,0.0,0.0,0.0,0.0,0.0,-0.0,0.0,0.0,-0.0,0.0,0.0,0.0,-0.0,-0.0,0.0,-0.0,-0.0,-0.0,-0.0017906434,-0.043265983,0.019265577,0.032705955,-0.051675458,-0.09548889,0.013610415,0.0495464,-0.07710881,-0.09876979,-0.02333823,-0.025825033,-0.0027912196,-0.008647974,0.055217057,-0.011946089,0.0106073925,-0.078074515,0.0310741,0.029006176,0.07023848,-0.013756223,0.018212732,0.043624498,-0.03369908,0.02585251,-0.002043156,0.019423218,0.064777926,0.071059324,-0.034393158,-0.02803221,-0.022818519,0.06079697,0.024538007,0.033768218,0.026069514,-0.02086122,0.053138867,0.022159772,-0.08905768,-0.03423088,0.04431695,0.041726194,0.03829332,0.009129775,0.02942798,-0.0021259645,-0.024438992,-0.034811046,0.00067299174,0.028311426,-0.05884585,0.040620983,-0.039219484,-0.044892814,0.008741462,-0.009277111,-0.009086185,-0.016948137,0.056190636,0.013231807,-0.02593868,0.05459156,0.07407427,-0.1335233,-0.032092556,0.0647495,0.10788279,-0.10534357,-0.078085065,0.038116284,-0.0053842324,0.015881842,-0.027936332,0.0057369336,0.08568931,0.04832669,-0.10336642,-0.11744316,0.050022595,-0.05673096,0.051293794,-0.060414046,-0.092808254,0.060163178,-0.05904269,0.013344524,0.0056232014,-0.019772116,0.0038591307,-0.024955384,0.006235174,-0.020410724,0.04403282,-0.02960818,-0.004641737,0.021853741,0.01869792,0.032800604,-0.020066801,-0.013735403,0.01632816,-0.016719813,-0.0018799105,0.01748085,0.046081144,0.044405617,-0.06168822,-0.019821113,-0.085929394,0.036968358,0.06801298,-0.022809893,-0.064464174,0.003934004,-0.017162923,-0.04537309,-0.104785345,-0.05292454,0.21729921,-0.052973326,-0.034830425,-0.039108478,0.14880158,-0.015270172,0.03508159,0.054074563,-0.12338464,-0.08059064,0.038426753,0.14274335,-0.04548104,-0.09845536,0.093625225,0.033283316,0.006894389,0.035697192,-0.028055772,-0.032108057,0.015879935,-0.04278851,0.0118422555,0.071058966,0.07136641,0.09728051,-0.0069495006,-0.058653098,0.041570432,0.048717283,-0.074306056,-0.05320264,0.05979582,-0.052983377,0.003496559,-0.032079853,-0.11549563,0.02834795,0.004148122,-0.06922645,-0.095331945,0.015374604,-0.02614106,0.022422105,0.01575378,0.034131877,0.020282771,-0.044461384,0.027945645,-0.009819294,0.009510289,0.026249526,-0.0108097,-0.04392465,0.057636913,0.052511718,-0.013505428,0.056162782,0.08650716,-0.0037607215,0.008454088,0.015555481,0.022060525,-0.018540295,-0.015291893,0.0241775,0.027040662,-0.012965463,0.00512084,0.065010644,-0.016867109,-0.073977426,0.01480153,0.004492072,-0.024435574,-0.029894356,0.03993462,0.045905426,-0.027752355,-0.014066093,0.0050538215,0.02973934,-0.015009941,-0.005658034,0.02782867,0.022732725,0.03189009,-0.077448234,-0.0830606,0.008007413,-0.038075108,-0.02696529,-0.060137816,0.12518394,0.036044758,-0.10060037,-0.109108746,-0.0044765933,0.0431496,-0.03637699,-0.020403663,-0.053492993,0.039523013,0.033078652,-0.08464104,-0.06070262,-0.07597413,-0.026392946,0.07513983,-0.022376072,-0.0129607925,-0.047746453,0.037806805,0.02500997,0.0684558,-0.02441865,-0.010119453,0.060572296,0.035577428,0.057574913,-0.048258375,0.01761557,0.02314606,0.014165797,0.0053032814,-0.013262083,-0.023098433,0.01946653,0.037103195,-0.005401114,0.017432263,0.06092128,0.017162958,-0.011430994,-0.006557378,-0.0010864129,0.052650906,-0.06011894,-0.047188584,0.058857687,-0.041241843,-0.029024363,0.14479782,-0.03805595,-0.09868588,0.042681307,0.13335194,-0.04068802,-0.14653769,-0.02581969,-0.001510552,-0.07890914,0.03254976,0.061907142,-0.080775924,-0.05557609,-0.042162165,0.17047812,-0.06510927,-0.009961805,0.006346682,0.042333458,0.016404547,-0.013353484,-0.00507492,0.020656716,-0.010532463,-0.03668055,0.010818798,0.058340956,-0.027543953,0.020507842,0.034516837,-0.0111595085,0.045677617,-0.020988526,0.015398388,-0.04911181,-0.01438337,-0.016870517,-0.024947997,0.0213695,0.0028471218,0.009720656,-0.020227827,-0.02143382,0.012711074,0.008327653,0.03374086,0.029455312,-0.021747569,0.013904212,0.012845584,-0.008986389,0.0052906745,-0.028580071,0.0014729638,-0.00015960277,-0.009919915,0.003401029,0.0120247975,-0.016936524,0.03066452,-0.015915811,0.06457739,-0.0070402864,0.03872485,0.060595445,-0.004201086,0.048571415,0.014981239,0.0137191005,0.030181283,0.0193378,-0.0105141215,-0.02729816,0.0099497195,0.03376112,0.0005585863,0.01720974,0.024085239,-0.004484835,0.0072842916,0.023630524,0.048398066,-0.03354841,-0.008688252,0.0015195727,0.0068663214,0.018598368,0.016777303,0.044969663,-0.03826395,-0.05761262,-0.00682844,0.07955733,-0.08079539,0.0011893341,0.030581513,0.019661639,0.015023486,0.004471317,0.0109335715,-0.012462215,-0.025347337,-0.040156744,-0.021554029,0.004934861,-0.012598813,-0.049767584,0.005493414,-0.0074189543,0.049316194,-0.011495791,0.06318583,0.041748006,-0.031656716,0.006948271,0.012523537,-0.033419237,0.025489349,0.030208748,-0.033716276,-0.015465801,-0.019548263,0.0025896204,0.023202525,0.016535128,-0.029490925,-0.03201264,0.030685272,0.017921213,-0.014016256,0.03817637,0.012062451,-0.027353596,-0.024779052,-0.029944256,-0.043178532,-0.026809786,0.019660754,0.012543576,0.008748733,0.0058570993,0.017826192,0.014734295,-0.060957137,-0.02791225,0.07576561,-0.17895941,0.12835026,0.03476008,-0.096791245,0.06797797,0.010146103,0.017165571,-0.0045598866,-0.12022793,0.16938491,-0.104695864,-0.078476205,0.1097397,-0.059259407,-0.016863741,0.032593098,0.0033279918,-0.012454699,0.011293677,0.011024797,-0.009778782,-0.03726394,0.017138653,-0.009361288,0.0028878078,-0.030797888,-0.07166521,0.02047404,-0.042912446,0.0017118608,0.051138986,-0.04275997,0.012332111,-0.04280618,-0.041229434,-0.0072975024,-0.009294884,-0.016520577,-0.022716973,0.004156787,0.030380497,0.034763634,0.0354338,-0.01992108,0.023789091,0.043256637,-0.0053077717,0.025136964,0.042823646,0.011137284,0.08244227,0.08342031,0.06966543,0.013094692,-0.0032640542,0.04554042,0.049276955,0.032952353,0.08851941,-0.0058945343,-0.015006719,0.03391176,0.011300049,0.0047032526,0.020359702,-0.014771318,-0.011132964,-0.02036826,-0.07694955,-0.059228405,-0.02483378,-0.06868454,-0.05688864,-0.018159896,-0.055353716,-0.022093797,-0.009947492,-0.054276615,-0.044585098,0.0004276096,-0.050005775,-0.03664649,0.022715561,-0.07260312,-0.057305876,-0.018892612,0.05089329,0.0053365673,0.07358274,-0.043134544,-0.06830234,-0.03403882,-0.069116786,-0.02795879,-0.055258613,-0.027583642,-0.049419336,-0.06996333,-0.012345049,-0.017731924,-0.035561476,-0.0013992838,-0.010242247,0.0022857615,0.0029012463,0.10717018,0.015820734,-0.04681902,-0.04635083,-0.001336654,0.07594782,-0.005725883,0.07162448,-0.036066215,-0.016012562,0.039245035,-0.031999562,-0.014076641,0.039440896,-0.025393276,-0.04717376,0.0072885347,0.0033232863,0.046893064,0.06016034,-0.0037056103,0.034530852,0.009940287,0.04451692,0.040762108,-0.013121587,0.027420152,0.053171188,-0.009085064,-0.031424195,-0.043858018,-0.009666805,-0.07815174,-0.04337015,-0.023241878,0.02103759,-0.0027425236,0.048591383,-0.02606709,-0.12821725,-0.094338335,0.04691157,-0.036822088,0.0035426263,0.027754558,0.028201124,-0.05320586,-0.0732623,-0.050249577,-0.04407302,-0.055298064,-0.043655958,-0.10249357,-0.03408915,-0.08725054,-0.03702471,-0.0004988716,-0.043504626,-0.01673684,-0.0007300584,-0.009922885,0.0077346135,-0.09124116,-0.0960291,-0.030651074,0.002970859,0.076061554,0.036221754,-0.0032542904,-0.042466052,-0.021608755,-0.10092863,-0.03158477,-0.06855055,0.09107033,0.10315178,0.055850197,-0.01505025,-0.020812199,-0.10891574,0.07628811,0.05780241,0.053456433,0.055580024,0.024047406,0.02134418,-0.020447593,-0.026345111,-0.02021092,0.06496826,0.059713855,0.04386988,-0.018168995,-0.030091561,-0.0075714155,0.008434387,0.0072304024,0.0077157854,-0.0005214663,-0.054412175,-0.0102076195,-0.00898482,-0.046567377,-0.014130188,0.06724295,0.008973887,0.02241771,0.0021241207,-0.014562646,-0.013915665,-0.039487977,-0.06250766,-0.046666052,0.06890765,0.074931,0.05322334,-0.024395352,-0.023779277,-0.026151745,-0.026617773,-0.03278475,-0.010556856,0.019119367,0.046039972,0.03890928,0.02689841,-0.021062735,0.009207076,0.016993249,-0.033060335,-0.0404664,-0.001518631,-0.0033898833,-0.017155064,-0.012714484,0.13008066,0.062458966,-0.084532894,-0.014868208,-0.064300366,-0.07305675,-0.047168303,-0.05168906,0.06593642,0.08588634,0.05538918,-0.11222235,-0.15645054,-0.10870288,0.024015972,0.038824666,0.03635136,-0.023856485,-0.0051970975,-0.0021236201,-0.01720378,-0.033527136,-0.016474042,0.03589002,0.019047657,-0.01115537,-0.0594021,-0.021240925,-0.034839995,-0.007707265,0.05352739,0.024823569,0.017146835,0.042081177,0.00021354156,-0.012115892,0.000972146,0.033410802,0.02197648,-0.024797954,0.011555133,0.01069902,-0.0401613,-0.012190451,0.013439765,-0.052885137,0.004060389,0.0033709437,0.0352883,0.016500344,-0.039669767,-0.0076580653,-0.012629692,-0.016593741,0.005626128,0.045296285,0.020151244,-0.016532058,0.0046878657,-0.042337067,0.0039399066,-0.071732365,0.018262764,0.022408983,-0.013151896,-0.029213384,-0.034798842,-0.05501869,0.040048912,0.032474346,0.01774606,0.0,0.0,0.0,-0.0,0.0,0.0,-0.0,-0.0,-0.0,-0.0,0.0,0.0,-0.0,-0.0,-0.0,0.0,-0.0,-0.0,-0.0,-0.0,0.0,0.0,0.0,-0.0,0.0,0.0,-0.0,-0.0,0.0,0.0,-0.0,-0.0,-0.0,-0.0,0.0,-0.0,0.0,0.0,0.0,0.0,0.0,0.0,0.0,0.0,0.0,0.0,-0.0,0.0,0.0,0.0,0.0,0.0,0.0,0.0,-0.0,0.0,0.0,0.0,0.0,0.0,-0.0,0.0,0.0,-0.0,-0.0,-0.0,-0.0,-0.0,0.0,0.0,0.0,0.0,0.0,-0.0,-0.0,0.0,0.0,0.0,0.0,-0.0,-0.0,-0.0,-0.0,-0.0,-0.0,-0.0,-0.0,-0.0,-0.0,0.0,0.0,-0.0,0.0,-0.0,0.0,-0.0,-0.0,-0.0,-0.0,0.0,0.0,0.0,-0.0,0.0,0.0,0.0,0.0,-0.0,0.0,-0.0,-0.0,0.0,-0.0,-0.0,-0.0,-0.0,-0.0,0.0,0.0,0.0,0.0,-0.0,0.0,0.0,-0.0,0.0,0.0,-0.0,-0.0,-0.0,-0.0,-0.0,-0.0,0.0,-0.0,0.0,-0.0,-0.0,0.0,0.0,0.0,0.0,0.0,0.0
