-0.018946782,0.05000246,0.0003003901,-0.07808097,-0.020640124,0.013094641,-0.030414889,0.026635146,-0.022113776,0.031053284,-0.033061765,-0.025781846,-0.012466643,0.021862833,-0.0142072495,0.019303143,-0.008451503,-0.0188964,0.027991282,0.047736898,0.08828933,0.0039084014,0.04679869,0.05704252,-0.042212315,0.06236512,0.019329838,0.005989181,0.0046433294,0.015934462,-0.0035087373,-0.0067381114,0.011476838,-0.0013926678,-0.029981017,-0.019401127,0.0006942808,-0.0073980144,-0.0030618662,-0.026670324,-0.016816052,-0.002991212,-0.06073167,-0.042850733,-0.034067873,-0.02010358,0.047517564,0.03117933,-0.008616148,-0.019729627,0.03817104,-0.03686928,-0.08122126,-0.024114585,-0.005060079,-0.0610508,-0.03811231,0.05176671,-0.04304725,-0.0007880029,0.08703984,0.032806106,0.061609533,0.028956164,0.008100789,-0.080353424,0.0005443356,0.004998589,0.008704636,0.08640245,0.0029177393,0.05153863,0.032273233,0.009514701,-0.0686942,0.0703377,0.06891919,0.032425903,0.053010527,0.079466715,0.099791996,-0.021942224,-0.025811713,-0.024452252,0.010509508,0.044094782,0.024066003,0.027806256,0.027944641,0.015170646,0.0596681,0.030296134,0.030991504,0.06877647,-0.0035919975,-0.038029455,0.024586523,-0.065443456,-0.03409071,-0.029754588,-0.047907963,-0.0882363,-0.009875509,-0.027776675,-0.004500687,0.0028590793,-0.011328641,0.04833115,-0.014034495,-0.050669447,0.022351667,-0.009558305,0.011776765,0.0665709,-0.040844183,0.007612395,0.0950788,0.046514943,0.022069998,-0.016859256,-0.050994933,-0.048788663,-0.07086089,-0.063498564,0.12397709,0.016829995,0.0074731493,0.008439814,-0.06501778,-0.032177832,-0.01688856,0.034360085,0.019083122,-0.018677698,0.074711636,-0.0009989624,-0.0049721925,0.008834605,-0.014497898,-0.020796208,-0.057219055,-0.06352278,-0.008558387,-0.07371895,-0.0026196255,-0.011444693,-0.09065926,-0.03391846,0.04454913,-0.0056556696,0.026539061,-0.05964453,-0.07181665,-0.05968609,-0.06465715,0.0012068148,-0.04874598,-0.019788539,0.013561737,-0.14903083,-0.016612396,0.032030728,0.028615957,0.030840108,-0.030644435,0.0024918073,-0.059463266,-0.044031225,0.070292085,-0.04246812,0.006677544,-0.04600767,-0.03739818,-0.054753873,-0.055714097,-0.07389988,-0.07795051,-0.0050350716,-0.022431491,-0.006282285,-0.0025681194,-1.1067561e-05,-0.017481428,-0.024456646,-0.026401345,-0.028886108,0.016504847,0.0026372643,-0.003970198,-0.0042722574,-0.0054233163,-0.0050346456,-0.0044182236,-0.048757747,-0.0114351,-0.025298176,0.033649642,0.04630135,-0.0009065519,-0.012077085,-0.016644688,0.04133389,-0.042773735,-0.047431283,0.01401542,0.014146854,-0.012885928,0.009922031,0.023428522,0.0431109,-0.029521892,-0.033182178,-0.037098862,-0.0019340852,0.043107685,-0.014526702,-0.04152531,-0.05923821,0.0039962097,-0.079522125,-0.0013229917,0.11638561,-0.096430294,-0.038183805,0.07649358,-0.09118439,0.0397972,0.085647225,-0.0682413,-0.12562484,-0.17991139,-0.10318468,0.10582848,0.06485548,-0.026860053,0.030202005,-0.02018755,0.030052565,0.021112783,0.017645542,-0.018373996,0.049438205,-0.014765137,-0.015611587,0.04362775,0.028213974,-0.02646948,0.046146307,0.062989675,-0.017616304,0.085512,0.09579297,-0.0022418774,0.0038090015,-0.00017096363,0.07363608,0.034128316,-0.06127123,0.00066914974,0.06068464,0.05568667,-0.02665626,0.013436191,0.008575769,0.049762223,-0.043498088,0.033901498,0.00052240916,0.030223541,0.0064141443,0.04298882,0.023738736,0.009551475,0.013335347,-0.027156929,-0.014535589,-0.026483843,0.010860081,0.0066685434,-0.017738074,-0.042193025,-0.04973577,0.034150187,-0.01259751,-0.0131407995,0.0348216,0.014383287,0.014762423,-0.047999803,-0.031489182,0.04748222,0.12884074,-0.28565797,0.12135771,0.020939216,0.0043071196,-0.031317305,-0.030895626,-0.031009957,-0.02353583,-0.041638225,-0.020747254,-0.042090356,-0.017922666,-0.055063475,0.04205886,0.027666524,0.0013308413,-0.08749734,0.00086913013,0.024898857,-0.026180452,-0.036483802,0.05717539,0.036580645,0.010554943,-0.004999285,0.032929175,0.018546551,0.018539805,0.033514246,0.038612705,0.06274739,0.055527586,-0.0028130095,-0.030394837,-0.010072345,-0.029884161,-0.020075025,-0.0338691,-0.012823958,-0.016544499,-0.020176802,0.010972476,0.04482332,-0.03864054,0.012608585,0.035688642,-0.04235257,0.0011920546,-0.0025752822,0.016335055,-0.02347264,0.0760481,0.025453225,-0.02407414,0.012892223,0.008470182,0.00133214,-0.02030038,-0.008370512,-0.029628275,0.034123816,-0.093309656,-0.017300444,0.100879736,-0.06733644,0.026246961,-0.15734622,0.08380908,-0.05384851,0.033904776,0.007667116,-0.011900476,-0.0016505133,-0.022246439,-0.054682005,-0.0008804405,-0.030466467,0.008033299,-0.016775856,0.004819338,-0.041126527,0.122644685,-0.11369892,0.05493028,-0.014975478,0.07241209,-0.004780858,-0.062064376,0.069166906,-0.022397652,-0.0629651,0.042474117,-0.041668594,0.09006151,-0.07463169,-0.008586265,-0.04050029,0.004407519,-0.017697535,0.033860914,0.0015045258,0.0011672447,0.00069540803,-0.0006615371,-0.08719465,-0.028104305,0.01572061,0.005730546,-0.0045634024,0.00489137,-0.060519267,-0.048269562,-0.050004262,0.027056655,-0.026778314,0.03149364,0.118632816,-0.12229248,0.18898149,-0.10322516,0.21126576,-0.17547162,0.010281153,0.033604454,0.017383184,0.012782437,0.118770495,-0.0762072,-0.037256036,-0.11233945,0.10059502,-0.01998708,-0.0074442625,0.0216201,-0.009256839,-0.036084235,0.032595873,0.01015347,0.044902954,0.0073041944,0.012414721,0.03326868,0.04463334,0.060642738,-0.020603292,0.0023766712,0.005130153,-0.021624388,0.02692585,0.035742037,0.022611236,-0.029119011,0.0050465413,0.005862613,-0.018733958,0.025829893,0.023623405,0.047132872,0.00512303,-0.030494079,-0.026193447,0.047067206,0.01834437,0.0071760225,0.05103649,0.0062462618,-0.011185213,-0.012403707,-0.02563477,-0.031292718,0.0046420265,-0.005544494,-0.0016947017,0.017378854,0.0065241638,-0.001989235,-0.007525009,0.015373668,0.01659866,-0.006975532,0.021211153,0.01956396,-0.020513663,-0.019496208,-0.016003387,0.03240891,-0.010955537,-0.015986782,0.070324235,0.050927974,0.026965125,-0.0024947166,-0.014185939,0.013678364,-0.007267832,0.037239593,-0.0035839025,-0.030015893,0.051294256,0.012695213,-0.0337809,0.009389571,-0.021755764,-0.010203553,-0.01762866,-0.014535916,0.017341042,0.0048288903,-0.08616428,-0.058798645,-0.0423496,-0.0017481763,-0.014987302,0.0029890311,0.0061045545,0.008388753,0.03077415,0.07213479,0.008502248,-0.025278877,-0.04371638,-0.068088315,-0.05144513,-0.02396308,-0.024489256,0.048533566,0.026325015,0.0047698165,-0.012028786,0.04138326,0.0039917533,-0.054707132,-0.06927031,-0.03696487,-0.05414883,-0.069215186,0.0061745113,-0.04104831,-0.0446334,-0.044250842,-0.049382135,-0.042183626,-0.025214689,-0.017515222,0.003251202,-0.014326406,-0.025908561,0.030065339,-0.024939114,-0.037462942,-0.0067968187,-0.036279056,-0.04010397,-0.037347246,-0.051365994,-0.053597353,-0.09919708,-0.047939975,0.11477621,-0.059401993,-0.14029673,-0.102807544,-0.061796825,-0.0030174921,-0.05418874,-0.05762208,-0.01770723,-0.021636588,-0.005172307,0.02669902,-0.009973221,-0.058627732,-0.016292563,0.015894683,-0.035189062,-0.031178322,-0.0013802892,-0.027462412,-0.008822424,-4.8048256e-05,-0.016702747,0.010425706,-0.0070327693,-0.052843228,-0.005789917,-0.010055051,-0.01380054,0.17406827,0.06252336,-0.14352067,-0.035984665,0.0057386504,-0.025535166,0.041666534,-0.027953167,-0.0669623,0.03460155,-0.07394082,-0.092528164,0.027392741,0.011652194,0.001331686,0.047827344,0.044924736,-0.0034587292,-0.025402488,-0.010013641,0.034782134,-0.066072404,-0.030298265,0.041606415,0.0719151,0.012974586,-0.017700484,0.036202677,-0.004630222,-0.04689627,0.028142566,0.0384577,0.062842414,0.01993571,0.0015133094,-0.032089505,-0.002273272,0.008752192,-0.023100846,0.0020881689,0.018091056,-0.006903789,0.04650341,-0.022713874,-0.089996435,0.020882806,0.04622511,0.04687045,0.0059110243,0.01146898,0.0003312716,0.024566634,-0.011402415,-0.050288003,-0.025765091,-0.00999566,0.02201516,-0.024708064,0.014722756,0.038904425,0.09012076,0.015546387,0.11121673,0.03194281,0.033251762,0.08071411,-0.09228751,-0.20497759,-0.17918718,-0.015273535,-0.02450693,-0.018812723,-0.061536398,0.000643179,0.01989815,-0.013873182,-0.02784576,-0.013947858,0.019230966,-0.018093934,0.005076515,-0.057366014,0.057585236,0.13375323,0.060498327,-0.026319599,-0.05820088,0.052367628,0.044128392,0.009508305,-0.03262701,-0.09659829,-0.05200111,0.0051077274,-0.025262874,0.00745629,-0.0004405395,-0.01927664,-0.042986583,0.012825498,0.016597774,-0.036313403,-0.030121937,0.0008942613,-0.0029550046,-0.024817,-0.11501802,-0.02538713,-0.0050781853,-0.019177089,0.004528428,0.016776288,0.028850641,0.014953932,-0.01656564,-0.06720018,-0.029152784,-0.027081164,-0.09714877,-0.049953632,-0.0057377946,0.13574442,0.084626846,-0.020962164,0.0097254235,0.044080682,-0.058353104,0.026523167,0.07549829,-0.004364163,-0.0521295,-0.05926031,-0.032279637,0.009580109,0.06096793,-0.028211314,-0.008067997,0.015377868,0.017959654,-0.010972862,-0.00496117,0.07233545,-0.035324212,-0.004067727,0.034100387,0.08772673,-0.032314856,-0.044997778,-0.045630462,0.06260866,0.04536219,0.031494945,-0.037492815,0.04195938,0.06754952,0.0029108399,-0.029493943,-0.007668827,0.04633128,0.03204001,0.048333813,0.05783325,-0.002148416,0.01632009,0.0135258725,-0.06369593,0.0037915132,-0.015521842,-0.016811969,0.03587368,0.0011163758,-0.019306153,0.01984394,-0.0048286226,0.0053784205,0.04435306,-0.03050072,0.013696141,0.036500182,0.019259963,0.018641407,0.02063183,0.0031430582,0.007124258,0.013302635,-0.010034846,-0.04906298,-0.028795669,0.025418324,-0.036111094,-0.043843977,0.023911687,-0.031116564,-0.0728604,-0.03604594,-5.938417e-05,0.037350815,0.032936852,-0.0017600388,0.008325845,0.03885885,-0.04721265,-0.023698553,0.026406685,0.023309102,0.15298527,-0.01081105,-0.06509073,0.04561865,0.09056448,-0.05400303,0.04039166,0.054557614,-0.021497725,-0.025334401,-0.07435012,-0.039579447,-0.024280217,-0.0031799013,-0.06251187,-0.011054928,-0.026854299,-0.013679725,0.021504765,-0.010711072,-0.01289073,-0.010324535,-0.04956834,0.043436486,0.03740636,-0.020628044,0.048767302,0.09152537,-0.056307368,0.057341214,0.031018134,-0.0013321635,0.044797286,0.094527185,0.07396135,0.011621492,-0.005352371,-0.037138022,-0.057690226,-0.03856333,-0.034715798,-0.045977157,-0.023310212,-0.056412827,0.04689635,0.02330668,-0.012049506,0.0024141779,0.04264191,0.018418146,0.016976498,0.045972947,-0.026480313,-0.011392161,0.037606735,-0.0846098,0.027383797,0.074533924,-0.022094557,-0.046065193,0.15011282,0.05070959,0.02201374,0.118422374,-0.033772334,-0.048971847,-0.051672336,0.10640083,0.08511536,0.018204058,-0.016165162,-0.007006223,-0.015989102,-0.018612305,-0.00329159,-0.026653059,-0.08922171,-0.024323633,-0.022958027,-0.07748086,0.029191978,-0.044394493,-0.012005983,0.019556135,0.06278359,-0.030815382,0.046657905,-0.035345934,-0.021265252,-0.028989723,-0.05240697,-0.016288048,0.009468408,0.015995314,-0.05033263,-0.032713745,0.009825326,-0.10713381,0.018691624,-0.0072168326,-0.008991707,-3.383984e-05,0.048732977,0.008612492,0.034952227,0.033288762,-0.025426276,-0.0038834622,0.004234305,0.02296847,0.007744556,-0.027713733,-0.0032116235,0.01470421,-0.007866642,0.019931972,0.012681866,-0.00040408818,-0.022017887,0.012528607,0.006184064,0.014649667,0.016495757,0.026629075,0.053379025,-0.031155739,0.003213925,-0.016226642,-0.035738915,-0.024954202,0.02953363,-0.014654108,0.013023797,0.007037261,-0.03635374,0.0065684207,0.026205042,-0.02149232,-0.007586741,0.001652054,-0.018261116,-0.0037016468,0.0041626743,-0.033404008,-0.026361493,0.009019897,-0.08676451,0.026908364,0.10211967,-0.026955266,-0.011342811,-0.0549749,-0.03664231,-0.02396063,0.049973525,0.024525363,-0.0007555528,-0.018507551,-0.01076636,0.009375356,0.05794307,-0.00089224434,0.038075946,-0.02417296,0.01758556,-0.019735519,0.063607626,-0.019289017,0.009576132,-0.021596331,-0.004202217,0.005551329,0.01960643,-0.013034623,0.04971499,-0.01896216,0.004334553,0.0021500152,-0.026320752,0.02597972,-0.0022504174,0.023501102,0.062859505,0.040494833,0.04091791,0.044581123,0.017940989,-0.03214031,-0.034480292,0.007871549,-0.026842805,0.031402938,0.05377532,0.007213135,0.027932974,0.05876158,-0.02495118,-0.061456613,-0.13055976,-0.08697911,-0.037235633,0.051380623,-0.1770255,-0.03606013,-0.06368646,-0.08979489,-0.012655542,-0.15596889,-0.016083997,-0.011182174,-0.058571354,0.05164058,-0.054866664,-0.041262712,-0.08072645,0.0277358,0.014450864,0.05135708,-0.028887033,-0.04065214,0.032897253,-0.0004686951,-0.03194247,0.0059744543,-0.055419583,-0.013866551,-0.010687987,-0.03983988,-0.016431306,-0.058478035,0.057628542,0.034076933,-0.030410951,-0.041764162,-0.03003543,-0.033735376,-0.022305535,0.013038935,0.008183449,-0.028754627,-0.040579136,0.018888088,-0.03201426,0.00039214792,0.00082014094,-0.008946456,0.06223884,0.10410021,-0.028271247,-0.040973827,0.04681414,-0.05051482,-0.019808818,0.007861658,-0.023653913,-0.012384551,0.00129777,-0.036709998,-0.014425767,-0.008515283,0.010904484,0.0039726957,-0.016251814,0.01791095,0.011410764,0.012005669,0.027918706,0.02209867,0.018961122,0.009108152,0.02456728,0.0552736,-0.012858448,-0.029433148,0.013642295,-0.006820194,-0.057022933,0.003198045,0.075380504,0.0034598014,-0.0065549235,0.059102528,-0.004372727,-0.080853276,0.018728556,0.019455077,-0.078079574,-0.010764528,0.07022552,0.029113842,0.02047253,0.080714025,0.083461635,-0.014143388,0.0017081737,0.05082751,-0.015961263,-0.02297481,0.0038899113,-0.06394751,-0.03172102,-0.03725981,-0.021346388,0.0049563833,0.031298045,-0.015216315,-0.035716917,-0.03040953,0.07084612,0.06557801,0.020128421,-0.022989742,-0.00054876786,-0.019279638,-0.0354957,0.0137400245,0.0009674553,-0.005309257,0.021553453,-0.034824856,0.10402374,0.060748946,-0.013684573,0.011557422,0.035381205,0.00868308,-0.0031844708,0.023542866,-0.0029384505,-0.028489335,-0.011523647,-0.018028539,0.040592466,0.0009334931,-0.024908554,0.01387206,0.017152583,-0.0010768083,-0.0144609865,0.037163824,0.0009915369,0.05791604,-0.06069637,-0.051728234,-0.011933038,-0.14868383,-0.05641007,0.015421222,-0.05677736,-0.075791426,-0.046621673,-0.022838896,0.023026953,-0.035698693,0.018276082,0.054254778,0.0040687565,-0.004371761,0.01803998,0.008625657,-0.022428885,-0.010579319,-0.0027473962,-0.016660217,-0.012289517,-0.01791903,0.00024492916,-0.0013545137,0.009880702,-0.07885457,0.023932274,-0.061196804,-0.060189415,-0.047542606,0.036421806,0.018256305,-0.045216303,-0.00712227,0.0059102946,0.019763814,-0.022927422,0.06451296,-0.06639775,-0.09082649,0.020529564,-0.034904752,-0.038509756,-0.08754306,0.03650175,0.02346836,-0.0507156,-0.07829868,0.08334595,0.07291946,-0.06470538,0.0050055995,0.0035281132,-0.0111342715,-0.022571744,-0.018113293,-0.011096788,-0.005871141,-0.015175751,-0.012822901,-0.0045946687,-0.0185399,0.024996761,-0.039618492,-0.044829886,0.0011101635,-0.012187519,-0.04572461,-0.026448453,-0.034426596,-0.18102385,-0.053548846,0.15652095,-0.15192968,-0.20786786,0.21403427,0.13166103,-0.033408284,-0.02517089,0.11493738,0.029905902,-0.12705325,-0.0184306,0.05344338,-0.056738995,-0.020846717,0.059823964,0.032855194,-0.09264927,0.009696648,-0.009552866,0.050948918,0.01283803,0.045308314,0.011021568,0.106077485,-0.07628195,-0.0270437,-0.0029651227,0.015806817,0.07083012,-0.027880486,-0.05845117,0.026967807,0.07901992,-0.04640302,0.02402856,0.04792987,-0.12249415,-0.045145273,0.07498037,0.02088763,-0.011644501,-0.09182291,0.08420524,-0.052923918,-0.119466834,0.059060115,0.092127934,0.017573902,-0.04909486,0.04297485,0.012426681,-0.078068554,-0.08729249,-0.033168852,-0.026382748,-0.09075763,-0.09387327,-0.025241576,-0.06344521,-0.03729882,-0.059599902,-0.05373833,0.109256566,-0.043767855,-0.12431446,0.035703626,0.03195453,-0.078670435,-0.081482366,-0.040587034,0.0029148944,-0.004780285,-0.0019422986,-0.0027250221,-0.05431457,0.12533206,0.008132544,-0.06312283,-0.012233554,-0.028698703,-0.15103891,-0.06816225,0.076627776,-0.011416517,0.06743044,0.025939802,0.031365585,0.06767113,0.122628406,-0.060525127,-0.14342676,0.120441936,0.061667573,-0.23396213,-0.051538847,0.009672259,0.016649585,-0.0038366255,-0.032057784,0.055283204,0.021760093,-0.004811794,-0.0012894883,0.028341543,-0.010852806,0.006769431,0.025539242,-0.010249102,-0.03440893,-0.009008445,-0.013003271,0.010965326,-0.003337707,0.0014643711,0.04832793,0.024776598,0.07156022,0.054712053,-0.008426843,-0.0044027125,0.029771117,-0.03864336,-0.018986784,-0.006740838,-0.0027056758,-0.021642143,0.009007169,-0.00041552784,-0.018236656,0.01297391,-0.0004122217,-0.017960949,-0.0011562814,0.01461347,0.01591733,0.01466148,0.01668091,0.015790662,0.0064633177,0.011276795,0.019224316,0.0007163729,-0.0462142,-0.029509071,0.06201806,-0.0060963747,-0.04947835,0.06859433,-0.0029841156,-0.047534365,0.0013535895,-0.01947893,0.01366079,-0.02403606,-0.048222844,0.0036845938,-0.035999004,-0.043676592,0.00639818,-0.019887771,-0.0016061993,-0.047281347,0.07735867,-0.009624615,-0.049131025,-0.022161448,0.036571626,-0.0895054,0.007903577,-0.0051681083,0.045578115,-0.0015637089,-0.009835439,-0.01297269,-0.00450625,-0.004121051,0.005994746,-0.009113831,0.01620666,0.00411198,-0.057258688,0.012038668,0.009979227,-0.019679556,-0.029386546,-0.05395283,0.032945886,-0.029249856,-0.019197913,-0.03871917,0.012865955,0.045330916,0.017574275,0.05279237,0.031912293,0.0015300745,0.0048625357,-0.024512537,0.017206509,-0.0159368,-0.041207567,0.045027014,-0.0102478,-0.030263903,-0.014080796,-0.0009921298,0.034036674,-0.0077193202,0.03732217,0.008043017,-1.0237018e-05,0.0091369385,-0.030922724,-0.013333997,0.010221862,0.0002691584,-0.16184528,0.026477061,0.11855715,-0.12135898,-0.03138973,0.052815758,-0.029884452,0.0042589023,-0.06124579,0.08360372,0.027436813,-0.016778482,-0.01943699,0.019913053,-0.017007316,-0.016109262,0.016104627,0.016338632,-0.044821903,-0.006493054,0.019968307,-0.053315844,0.01492771,0.0726795,0.020476507,-0.090508796,-0.02409122,-0.014247097,0.0052850465,0.05242945,0.042319633,0.01853132,-0.0020238168,-0.0036378824,-0.009577064,0.04229362,0.022269974,-0.008213202,-0.01603359,-0.017733065,-0.028763715,-0.06604777,0.012564867,0.013612158,-0.014345904,-0.006420289,0.014996496,-0.03632965,0.013798285,-0.016233882,-0.023473343,0.0009935324,-0.003954105,0.051236607,-0.003975994,0.003471114,0.04263546,0.012142478,0.014466174,0.050290916,0.023314359,0.017441286,0.028694138,0.007313939,-0.01935727,0.0040687295,-0.02923259,-0.033322882,-0.0018089658,0.0016713503,-0.06765765,-0.03403881,-0.04345726,-0.048608296,-0.0073455805,-0.09564457,-0.047170527,-0.006683132,0.010388096,0.03415962,0.09417369,0.08268309,0.054137625,0.04326289,0.06777861,-0.008844938,-0.05698266,0.040037453,-0.022904333,-0.05227719,0.059087142,0.033547383,-0.021429423,-0.049243044,0.120775625,0.12382311,-0.09935566,-0.064263575,0.014644668,0.025085572,0.04519012,0.060963664,-0.04384263,-0.036753744,0.022615187,-0.013548666,0.036792677,-0.03331565,-0.024029152,-0.06277514,-0.073678635,0.0016968963,-0.051739328,0.061111152,0.011157727,-0.010901578,0.038179386,0.006147702,0.085729524,0.057145912,-0.010543057,0.04337219,0.017999662,-0.08093305,-0.050160643,-0.028877292,-0.020440381,-0.019548006,-0.0059761745,0.0056414665,-0.021423504,0.007188245,0.061324585,-0.0013972913,0.046378788,0.03316884,-0.0063800463,0.0872848,-0.0117253065,0.04362196,0.071226515,0.03948748,-0.08993777,0.069787726,-0.040962435,0.088236675,0.042846296,-0.016772076,0.07913241,0.02866949,0.09179299,0.013921594,-0.019580938,0.05100958,-0.050313365,-0.07806541,-0.023744596,0.008939166,-0.01053478,0.038226977,0.055544414,0.0030822451,-0.0002748177,-0.005284907,-0.059799835,-0.009218499,-0.022653526,-0.077159,-0.028581288,0.10270571,0.039689075,0.0035268383,0.053817514,-0.10440595,0.043879595,0.040005337,-0.09294773,0.013870755,-0.0039332276,-0.01942069,0.025852341,-0.029707214,-0.028291976,-0.010932109,-0.006857458,0.039460234,0.008656566,-0.05133559,-0.075915076,0.0076807295,-0.06992732,-0.034995645,0.017764006,0.049661048,0.03860534,0.01092494,0.009714543,0.003173589,0.011991122,-0.008154424,-0.0043128077,-0.03464671,-0.023542183,-0.016601102,-0.0015300249,0.015168362,0.009668765,0.0014805306,0.0070791584,-0.0031007326,-0.016639905,-0.012384887,-0.0004929283,-0.05154562,-0.07779245,0.027173253,-0.020715486,0.0017785324,0.11356168,0.026719226,0.04425588,0.04081696,0.08102585,0.023161348,-0.04157656,0.12254254,-0.046912663,-0.07514903,0.012771807,-0.06517658,-0.042120658,0.0004253959,0.11290136,0.048305936,-0.06849241,0.05660116,0.016621053,-0.02710933,-0.031742997,-0.1301413,-0.019199044,-0.05427795,-0.06607848,-0.1037127,-0.041518953,-0.0017143444,-0.043257866,0.059390783,0.048827723,-0.08505403,-0.043141704,0.006067532,0.044424847,0.10294519,0.17719524,0.06453066,0.050062053,-0.016328294,0.020851081,0.044526927,-0.009403677,-0.012366812,-0.06585035,-0.018422863,-0.04084663,-0.031962387,0.016200885,0.020492043,-0.005241267,0.0013552055,0.006462053,0.038846567,-0.018956676,0.048407555,-0.009336847,-0.093818754,-0.07775754,-0.020535342,-0.0031235935,-0.018684406,0.019269135,-0.014315927,-0.015449944,0.0026535364,0.03097807,0.016180502,0.043852404,-0.05790633,0.06174492,-0.06168996,-0.056897387,-0.036429513,-0.106490456,0.061515532,0.025572428,-0.017483812,0.029873442,-0.044460885,-0.0152846575,0.047464468,-0.013361369,0.008234033,-0.03140968,-0.024686065,0.0363568,-0.040354848,0.024129417,0.02749709,-0.09392176,0.023859242,0.017229818,-0.061052162,0.01483939,0.008998237,-0.018439578,0.08978092,0.10259302,0.0924176,0.03711963,-0.0041289167,0.08161985,-0.055850837,-0.09609577,-0.11394392,-0.03105968,-0.07307188,0.008254713,0.027421214,-0.042397257,0.0168622,0.039633658,-0.01680653,-0.03583802,0.11940538,0.12819412,0.100837894,0.08154075,0.06296503,0.06555348,0.017608026,0.015618106,-0.005619486,0.06341666,0.06318425,0.036840152,0.047874503,0.03916317,0.012781672,0.018955287,0.06508019,0.07389282,-0.01584697,0.020878939,0.03204299,-0.04845815,-0.022953747,-0.016855458,0.0020594944,0.0023775764,-0.027589843,0.06374001,0.077355236,0.006515738,0.0875389,0.02130442,-0.055694487,-0.055104427,-0.05141206,-0.05861456,-0.12995374,-0.08342592,-0.085477054,-0.09114198,-0.019483037,0.008034931,-0.019171447,-0.041674834,-0.055787086,-0.020444576,-0.078633524,-0.11523419,0.01112865,-0.023557764,-0.014627872,-0.053459544,-0.009471636,0.048238978,-0.0011081102,0.058711912,0.07590921,0.08511418,0.062164728,0.085044235,-0.011990442,-0.014667249,-0.07511738,-0.0015234433,0.0070665623,0.048911262,-0.0008930572,0.012411727,0.04017289,0.09093667,-0.039336625,0.04049221,0.06389802,-0.0053600688,0.07998664,0.022270327,0.025024118,0.035062086,-0.0259683,0.04070343,0.063569464,0.015495496,0.047865763,0.06288114,0.04835775,0.06476919,0.04409825,0.0045869066,0.007957666,0.013572335,-0.01155508,-0.051257797,-0.08532485,0.017988758,-0.02610297,-0.02984801,-0.003349979,0.065644674,-0.027965423,-0.048474252,0.005484681,-0.010448821,-0.0020914355,-0.06572813,-0.02928184,-0.08445047,-0.00042415597,-0.016689632,-0.012073546,0.00077809923,0.036573626,-0.036217276,-0.017097985,0.0010613876,0.060351904,0.06419708,-0.098126255,0.094512455,0.13818945,-0.0006711063,0.07013198,0.12398009,0.0051349457,0.0,-0.0,0.0,-0.0,0.0,0.0,-0.0,0.0,0.0,-0.0,-0.0,0.0,0.0,-0.0,-0.0,0.0,0.0,-0.0,0.0,0.0,0.0,0.0,-0.0,0.0,-0.0,0.0,-0.0,-0.0,-0.0,-0.0,-0.0,-0.0,-0.0,-0.0,-0.0,-0.0,-0.0,0.0,0.0,0.0,0.0,-0.0,-0.0,-0.0,-0.0,0.0,0.0,0.0,-0.0,0.0,0.0,0.0,-0.0,0.0,-0.0,0.0,-0.0,-0.0,-0.0,-0.0,-0.0,0.0,-0.0,-0.0,-0.0,0.0,-0.0,-0.0,0.0,-0.0,-0.0,0.0,0.0,-0.0,0.0,-0.0,0.0,0.0,-0.0,0.0,0.0,0.0,0.0,0.0,-0.0,0.0,0.0,0.0,-0.0,-0.0,0.0,0.0,0.0,-0.0,0.0,-0.0,0.0,-0.0,0.0,-0.0,-0.0,0.0,-0.0,-0.0,-0.0,-0.0,0.0,0.0,0.0,0.0,0.0,0.0,-0.0,0.0,-0.0,0.0,-0.0,-0.0,-0.0,-0.0,-0.0,-0.0,-0.0,-0.0,-0.0,-0.0,0.0,-0.0,-0.0,-0.0,-0.0,0.0,0.0,-0.0,0.0,-0.0,0.0,-0.0,0.0,-0.0,-0.0,-0.0,-0.0,0.0,-0.028972955,-0.025934549,-0.020391544,-0.0053118025,-0.054271188,-0.029371118,-0.04845664,-0.068111405,0.013981888,-0.04998552,-0.06242222,-0.034110803,-0.051954623,-0.112500064,-0.049049206,0.015741901,-0.06817531,-0.022042582,0.039341774,-0.031402297,-0.0056663994,0.038927738,0.021748168,-0.032706626,-0.028707488,0.051557865,-0.017392125,-0.0062558004,-0.007506958,-0.055426694,-3.2172837e-05,-0.0074415673,-0.027059106,0.012796579,0.0029433495,-0.029573712,0.051666584,0.071539976,0.0063273814,-0.0023784207,0.042154085,-0.008840188,0.009325221,0.031590383,0.022035114,-0.01717608,0.027492959,-0.025689367,-0.05484705,-0.0079688225,-0.04436407,-0.047769703,0.002690059,-0.04010304,-0.06862525,-0.03780411,-0.057748955,-0.020969823,0.055977453,0.013596813,-0.08322293,0.03965234,-0.008337549,0.045871988,0.034294445,0.023171104,0.007215682,0.07373074,0.015206925,-0.009940715,-0.006314797,0.01039706,0.092319444,-0.009195243,-0.07665348,-0.004539411,-0.12508917,-0.1270912,-0.008763388,-0.10488175,-0.1490807,0.13714087,0.024840053,0.009080203,-0.08288538,-0.09810923,-0.04365081,0.06944925,-0.07411172,-0.018654222,0.033666223,0.067436814,-0.067226045,0.018604314,-0.0455963,-0.044436183,-0.06184359,0.014318447,0.053279325,0.014035843,0.0045734392,-0.045397766,0.0006151347,-0.020103494,-0.06698516,0.05891091,0.013830476,-0.02597188,0.0059566814,0.05730358,0.030719914,0.0356289,0.051080998,0.023287004,-0.008628189,-0.03260188,-0.05336915,0.040576898,0.098831475,-0.0084779775,0.06717635,-0.07836216,0.00029693768,0.040501513,-0.013752893,0.030234013,0.07540293,-0.06328867,0.011733916,0.0002478592,-0.0014101474,0.055416573,-0.05654907,-0.013228981,-0.03497605,-0.06568929,-0.08836147,-0.071144596,-0.0011962729,-0.041658726,0.01694365,0.05442153,-0.021142464,0.04974613,0.07617872,0.015250429,0.03153109,0.027904052,0.024586648,-0.02933193,0.009396097,0.038739935,-0.0042924695,-0.014347271,0.00074929424,0.060387306,-0.030823383,-0.07270619,-0.031727377,-0.0207065,-0.042925254,-0.05506069,0.005367685,0.047636226,-0.07765176,-0.03311048,-0.0074593783,0.008717688,-0.07393083,-0.10743085,-0.02070626,-0.034121465,-0.009433333,-0.010522199,-0.028768599,-0.0046057506,-0.014066465,-0.0421454,0.006713957,-0.03901909,0.048311017,0.08137468,0.026611147,0.04190689,0.0624403,0.03278391,-0.0010314685,0.02780003,0.055795603,-0.107159056,0.103059255,0.034120824,-0.14226332,0.003942507,0.13350601,-0.13319975,-0.11887409,-0.01284928,0.0032755614,0.0073540714,0.106882,-0.03407507,-0.08759938,0.03355317,0.035592493,-0.10394645,-0.033795018,-0.032380607,-0.00837679,0.056931924,0.0065672975,-0.0333431,0.008994015,0.06566106,-0.014317043,-0.00026137082,-0.01644185,-0.0017201895,0.006746803,0.03575874,0.013425599,-0.045330156,0.0046863877,0.01919133,0.03415143,0.03687081,-0.030146576,-0.025182787,0.09000633,0.00039423906,-0.1702482,0.047860812,0.03612372,-0.04904757,-0.03275787,-0.064426325,0.13719334,-0.05520631,-0.08293656,0.034312934,-0.046574347,-0.08975856,-0.06573257,-0.00548966,0.008147072,-0.037259296,-0.044979114,-0.016913522,-0.049925715,-0.023648992,0.05378965,0.031651367,-0.0071960366,0.049392782,0.027049163,-0.005187795,0.012386906,-0.010010108,-0.055753607,-0.029675743,-0.04831446,-0.006231228,-0.015888333,-0.033237427,0.03212109,-0.020008355,-0.058527727,-0.012896316,-0.018881138,0.03182548,0.07529646,-0.012619236,-0.037921242,0.03839375,0.16333364,-0.007483538,-0.07919062,0.10054187,0.14203137,0.038734186,-0.21836433,-0.15892956,0.19767012,-0.10539459,-0.19845837,0.21515378,0.06725095,-0.05305306
