0.0,-0.0,0.0,-0.0,-0.0,-0.0,0.0,-0.0,-0.0,-0.0,0.0,0.0,0.0,0.0,0.0,-0.0,-0.0,0.0,0.0,-0.0,-0.0,0.0,0.0,-0.0,0.0,-0.0,0.0,-0.0,-0.0,0.0,-0.0,0.0,-0.0,0.0,0.0,-0.0,-0.0,0.0,-0.0,-0.0,0.0,-0.0,0.0,0.0,0.0,-0.0,0.0,0.0,0.0,0.0,-0.0,-0.0,-0.0,-0.0,-0.0,-0.0,0.0,0.0,0.0,0.0,-0.0,0.0,0.0,-0.0,-0.0,-0.0,-0.0,0.0,0.0,0.0,-0.0,0.0,0.0,-0.0,0.0,0.0,0.0,0.0,0.0,-0.0,-0.0,-0.0,-0.0,-0.0,0.0,0.0,-0.0,-0.0,-0.0,0.0,0.0,0.0,0.0,0.0,-0.0,0.0,0.0,0.0,-0.0,0.0,0.0,0.0,0.0,-0.0,-0.0,0.0,-0.0,-0.0,-0.0,0.0,-0.0,0.0,-0.0,0.0,0.0,-0.0,-0.0,-0.0,0.0,-0.0,-0.0,-0.0,-0.0,0.0,-0.0,0.0,0.0,0.0,0.0,-0.0,-0.0,0.0,-0.0,-0.0,0.0,-0.0,-0.0,-0.0,0.0,-0.0,0.0,0.0,0.0,-0.0,0.0,0.0,0.0,-0.0,-0.0,-0.0,0.0,0.0,0.0,-0.0,-0.0,0.0,0.0,0.0,-0.0,0.0,0.0,0.0,-0.0,0.0,-0.0,-0.0,0.0,-0.0,-0.0,-0.0,-0.0,-0.0,-0.0,-0.0,-0.0,0.0,0.0,-0.0,-0.0,0.0,-0.0,0.0,0.0,0.0,-0.0,-0.0,0.0,0.0,0.0,0.0,0.0,0.0,-0.0,0.0,-0.0,0.0,0.0,-0.0,0.0,0.0,-0.0,-0.0,0.0,0.0,-0.0,-0.0,-0.0,0.0,-0.0,-0.0,0.0,0.0,0.0,-0.0,0.0,-0.0,-0.0,0.0,0.0,-0.0,-0.0,-0.0,0.0,0.0,0.0,0.0,0.0,0.0,-0.0,-0.0,-0.0,-0.0,0.0,0.0,-0.0,-0.0,-0.0,-0.0,-0.0,0.0,-0.0,-0.0,-0.0,0.0,-0.0,-0.0,0.0,-0.0,0.0,-0.0,-0.0,0.0,-0.0,0.0,-0.0,0.0,-0.0,-0.0,-0.0,-0.0,0.0,0.0,-0.0,-0.0,-0.0,0.0,0.0,0.0,-0.0,0.0,0.0,0.0,-0.0,-0.0,-0.0,-0.0,-0.0,-0.0,0.0,-0.0,0.0,0.0,0.0,0.0,-0.0,0.0,-0.0,-0.0,0.0,-0.0,0.0,-0.0,0.0,-0.0,0.0,0.0,0.0,-0.0,0.0,0.0,-0.0,0.0,0.0,-0.0,0.0,0.0,-0.0,-0.0,0.0,0.0,0.0,0.0,-0.0,0.0,0.0,0.0,-0.0,-0.0,-0.0,0.0,0.0,0.0,-0.0,0.0,-0.0,-0.0,0.0,0.0,0.0,-0.0,0.0,0.0,0.0,-0.0,0.0,-0.0,-0.0,0.0,-0.0,-0.0,0.0,-0.0,-0.0,-0.0,0.0,-0.0,-0.0,-0.0,0.0,-0.0,0.0,-0.0,-0.0,-0.0,0.0,-0.0,-0.0,0.0,-0.0,-0.0,-0.0,-0.0,0.0,0.0,-0.0,-0.0,0.0,0.0,-0.0,0.0,-0.0,-0.0,0.0,0.0,0.0,-0.0,-0.0,-0.0,-0.0,-0.0,-0.0,0.0,0.0,0.0,0.0,0.0,0.0,-0.0,0.0,-0.0,0.0,0.0,-0.0,-0.0,-0.0,0.0,0.0,0.0,0.0,-0.0,0.0,-0.0,0.0,0.0,0.0,-0.0,0.0,-0.0,-0.0,0.0,0.0,-0.0,-0.0,0.0,-0.0,-0.0,-0.0,-0.0,-0.0,-0.0,0.0,-0.0,0.0,0.0,-0.0,-0.0,0.0,0.0,-0.0,0.0,-0.0,0.0,-0.0,0.0,-0.0,-0.0,0.0,-0.0,-0.0,-0.0,-0.0,0.0,-0.0,0.0,0.0,0.0,0.0,-0.0,-0.0,-0.0,0.0,0.0,-0.0,0.0,0.0,0.0,-0.0,-0.0,-0.0,-0.0,-0.0,-0.0,0.0,0.0,0.0,-0.0,0.0,0.0,-0.0,0.0,0.0,0.0,-0.0,0.0,-0.0,0.0,-0.0,0.0,-0.0,0.0,-0.0,0.0,-0.0,0.0,-0.0,-0.0,-0.0,-0.0,-0.0,-0.0,-0.0,-0.0,-0.0,-0.0,0.0,-0.0,-0.0,0.0,0.0,0.0,0.0,-0.0,-0.0,0.0,-0.0,-0.0,-0.0,0.0,-0.0,0.0,0.0,-0.0,0.0,0.0,0.0,0.0,-0.0,0.0,-0.0,-0.0,-0.0,0.0,0.0,0.0,-0.0,-0.0,0.0,-0.0,-0.0,-0.0,-0.0,0.0,0.0,-0.0,0.0,0.0,-0.0,0.0,0.0,0.0,-0.0,-0.0,-0.0,0.0,-0.0,-0.0,-0.0,-0.0,-0.0,0.0,0.0,0.0,-0.0,-0.0,-0.0,-0.0,0.0,-0.0,0.0,0.0,0.0,0.0,-0.0,-0.0,-0.0,0.0,-0.0,0.0,-0.0,0.0,0.0,0.0,-0.0,-0.0,-0.0,-0.0,-9.21539e-40,1.77009e-40,3.096483e-39,1.818721e-39,1.212654e-39,1.103912e-39,1.207034e-39,-6.07443e-40,-3.157745e-39,0.0007809877,0.00083922845,-8.765426e-05,0.0010989787,0.0021092456,0.0011384274,-3.1310203e-05,0.0011481976,0.0014568518,-0.0005477986,-0.00020058267,1.2510764e-05,-0.0004138614,9.684102e-06,-0.00077049894,-0.00038193277,0.00023945096,-0.0004721572,0.00012429377,0.00094046554,0.002398674,0.00020670758,-0.0003786534,0.00010786697,-1.7315426e-05,-0.0006162827,-0.0007377501,-0.0005788038,-0.0012395148,-0.0019950876,-0.0006169216,-0.0015443384,-0.0018178758,-0.0009217121,-0.0012281568,-0.0017824337,0.00073214294,0.000720177,0.00066749746,0.00088160974,0.00065261463,0.00021570935,0.0010340912,0.0020882864,0.0021175789,0.00070571114,0.0010339194,0.0015995123,-0.00043138477,-5.21728e-05,0.0010514561,-0.0005927081,-0.00031982787,-6.8580404e-05,-0.0016034833,-0.0007479141,-0.00020206838,-0.0009181458,-0.00011082417,-0.00016084415,-0.0010985354,-0.00024550408,-0.0005806705,-0.0012845779,-0.0007062015,-0.0010355358,-0.0019220703,-0.0011549745,-0.0006077542,-0.0017193924,-0.0012836166,-0.0008933086,-6.64515e-40,3.330811e-39,-1.207454e-39,3.949086e-39,1.6864e-40,-9.4096e-40,3.98507e-40,-1.920502e-39,1.154229e-39,-0.0010763896,-0.00073016074,-0.0006881219,-0.00037978907,-5.1370334e-06,-0.00021245042,0.0005806413,-7.781578e-05,-0.00072760065,-0.0020405923,-0.0017501395,-0.0009223067,-0.0022938903,-0.0026196137,-0.0016038897,-0.00057531544,-0.0019449713,-0.002150462,-0.001054402,-0.0012572211,-0.00038147316,0.00029119436,-1.1255208e-05,0.0002185851,0.00017052582,-0.0005555067,0.00013241266,0.0015574243,0.0014930998,0.0010532758,0.0019888047,0.0020224692,0.0020912674,0.0004558481,0.0002975564,0.0010427288,-0.00024343682,-0.00047691085,7.9117504e-05,-0.00013030606,-0.0011840721,-0.0008472556,0.000490873,0.00012955426,0.0006362451,2.202799e-39,-2.287971e-39,-9.59438e-40,-2.165342e-39,5.83313e-40,8.28088e-40,4.521084e-39,2.660469e-39,-4.361847e-39,-0.00015277267,-0.00019783263,-0.00030965416,-1.1124827e-05,0.00019369842,0.00053028564,-0.0006414416,-9.413951e-05,7.446419e-05,0.00029246413,-0.0002220599,-0.00039630305,-0.00036511812,-0.0002806598,-0.00027269303,-0.00089519034,-0.00035666965,-0.0006022493,-1.075029e-39,-2.675622e-39,-3.115323e-39,3.20667e-39,-5.290129e-39,-1.566226e-39,2.94239e-40,2.001365e-39,-1.820756e-39,-0.0008604476,-0.000496117,-0.0003001665,-0.0005774728,-0.0005007467,-0.0010045288,-0.0011074896,-0.00089818536,-0.0017054258,-0.0007363321,-0.00033156583,-0.001513371,-0.0012209326,-0.0007662848,-0.0008744651,-0.0018340917,-0.00049525074,-0.00054400356,0.0017554626,0.0016913228,0.0026665465,0.0012576773,0.0006350583,0.00092662446,0.0018223932,0.00078135217,0.00113902,-3.083635e-05,-3.6558213e-05,-0.00014925984,0.0004039266,-0.00016118411,0.00013347034,0.0008258032,6.405139e-05,-0.00026708702,4.418637e-38,-5.28884e-38,-4.3836458e-38,5.3522186e-38,1.551425e-39,-3.024739e-39,3.9596437e-38,-4.7009536e-38,-3.3855105e-38,0.002183455,0.001909732,0.00072617235,0.0012527268,0.0013157019,0.00066831475,0.0008839891,0.0014652793,0.0010618556,-1.164015e-39,8.45018e-40,-9.32706e-40,-3.28415e-40,1.87547e-40,5.2912e-41,1.3145e-40,1.450684e-39,-3.041913e-39,-0.0005475933,-0.0005725331,-9.484472e-05,-0.0010838717,-0.0013135441,-0.0014140573,-0.0010209652,-0.0007211643,-0.0009867426,-0.0009494911,6.387258e-05,0.00034267592,-0.00075633684,-6.2776458e-06,-0.00053745287,-0.0007865042,0.00045298575,-0.0005295982,1.266498e-39,-1.345719e-39,-3.22093e-40,1.493476e-39,-1.922402e-39,1.84509e-39,4.85906e-40,1.799753e-39,-6.93063e-40,0.0008864625,0.0009865934,0.0012082348,0.00085420324,0.00021516332,2.3711045e-05,0.0002731064,-0.00028936274,-0.0010614338,0.00011461479,-0.0013823417,-0.001277473,-0.00019788013,-0.00020072662,-0.00051759765,-0.0011777624,-0.000485051,0.00014764263,0.00044047393,0.0011418875,0.000714791,-0.0001470259,0.000497812,0.00091258524,-0.00047933697,-0.00018892938,0.0007022854,0.0011970056,0.0019942056,0.0021903894,0.0005202281,0.0013755496,0.0012760726,0.00015809867,0.0007541754,0.00036480883,0.00033089574,-0.00011974143,0.0005845382,-0.00033215526,-0.0019425794,-0.001275918,0.001339604,0.0003752121,0.00022700908,-0.0005342731,-0.00032928478,0.00033973597,-0.00047512178,9.169839e-05,0.0003519222,-0.00089136104,-0.00011171773,-0.000614998,-0.0014268684,-0.00034388583,9.170574e-05,0.0008163562,0.0021296048,0.0019980846,-0.0003188632,0.0006678046,0.0003382513,1.165177e-39,3.801574e-39,-2.99548e-39,4.05952e-40,6.53098e-40,1.361116e-39,3.171141e-39,-2.277e-41,-1.952614e-39,0.00243061,0.0020895516,0.0013505644,0.001417002,0.0011675747,0.00033509827,0.0005738592,0.00014131695,-0.0002781996,3.378308e-38,1.781394e-39,6.556964e-38,6.1319027e-38,-2.95045e-40,-8.0330634e-38,-4.7829046e-38,2.5539595e-38,-7.801649e-38,7.31259e-40,6.57247e-40,-1.913564e-39,-2.812051e-39,2.256711e-39,-2.283695e-39,4.364749e-39,2.871116e-39,3.092055e-39,-0.00058816856,-0.0007795328,-0.0019091778,-0.001012564,-0.0010792817,-0.001651855,-0.0015079074,-0.0014584964,-0.0015311813,0.0005942025,0.00014635792,-5.0775194e-05,-0.00028958273,-0.0005230817,-0.0007709971,-0.000686607,-0.000115411065,0.0002734904,-8.179421e-05,-0.00022435078,0.0005476651,0.000441293,-0.00042101525,0.0004057968,0.0005711418,-0.0017501946,-0.0013557193,2.439295e-39,4.065566e-39,-1.205389e-39,3.348972e-39,1.480632e-39,-1.073257e-39,1.908419e-39,-1.844428e-39,8.524e-41,-7.71846e-40,-3.36767e-39,2.21782e-39,2.887008e-39,-6.90722e-40,-4.224751e-39,1.80343e-39,6.375417e-38,-3.87057e-39,0.0008985117,0.0005966486,0.00042011114,0.0007418782,0.0006905672,0.0004973663,0.00072896155,0.0005235204,0.00030407088,-4.60437e-40,-3.040884e-39,-3.749694e-39,1.147689e-39,2.940614e-39,-3.350433e-39,-2.533332e-39,5.36039e-40,8.1213385e-38,0.00019895239,0.0007374688,0.0007054466,4.7088117e-05,0.00025637107,0.00055374065,0.00010405491,-0.0005533246,0.000119971526,3.9535607e-38,3.3676747e-38,-2.4440187e-38,-8.757088e-38,2.624768e-39,8.7843797e-38,-3.705545e-39,-4.39882e-40,-2.6919843e-38,0.00037415855,-0.00016018662,0.000291964,-8.064066e-06,-0.0007283739,-0.0006287219,0.00034574972,-0.00010727374,1.1069386e-05,3.42278e-40,-6.129172e-39,-2.25801e-40,1.502078e-39,1.24447e-40,3.551667e-39,6.2071154e-38,5.244734e-38,8.400558e-38,-9.29963e-40,2.7993e-40,6.35852e-40,-3.04794e-40,-9.57804e-40,3.144138e-39,6.31403e-40,-3.17345e-40,-2.082185e-39,-3.53738e-40,1.217059e-39,2.843798e-39,-1.46878e-40,1.679865e-39,1.620093e-39,1.663692e-39,1.18068e-39,-1.302626e-39,-0.002149469,-0.0025868064,-0.0020574683,-0.00080673094,-0.0013028758,-0.0013674839,-0.0010070759,-0.0015453388,-0.0013225662,-3.142493e-39,4.039683e-39,1.227944e-39,-2.156698e-39,1.030975e-39,3.212788e-39,3.636353e-39,1.658965e-39,8.52476e-40,-8.15705e-05,1.2382653e-05,-0.00017390233,0.00062327774,0.0006763409,0.0008623264,0.0005589135,0.00020698401,0.0007812009,-1.0790618e-38,-1.9271507e-38,8.1177977e-38,5.9222634e-38,4.071146e-38,5.1162775e-38,-5.4982445e-38,-3.24272e-38,-3.8106882e-38,0.00043998883,0.0003533236,0.00026679333,-0.00011471393,-0.0009054469,-0.0010919468,0.00012485277,0.00012931823,-0.00048576543,-0.0018089267,-0.0018241404,-0.00025820202,-0.002297764,-0.0019121742,-0.00035201068,-0.0015419107,-0.0015225027,-0.0002452219,0.0028243656,0.003174544,0.0028058647,0.0021037683,0.002119446,0.0026193438,0.0022387882,0.0020405552,0.0022751442,0.0004138151,0.00022622378,0.0006744605,0.00032331195,0.00064118044,0.0007254723,-0.00041995323,0.00039946337,0.0007970758,-0.0004136178,-4.7945714e-06,-4.9240312e-05,0.00086441287,0.0014011802,0.0013600631,0.0007878371,0.0013626057,0.0020923868,0.0012700065,0.0020523004,0.0028167723,0.0019780973,0.0022021926,0.0025827629,0.0014362758,0.001962763,0.0025633192,-0.000764844,-0.0006051473,0.00021445185,-0.0016929059,-0.0019898943,-0.0012473281,-0.0007502704,-0.0012951157,-0.0010219252,-2.258216e-39,-1.983129e-39,3.586237e-39,9.5746e-40,-1.685664e-39,3.97043e-40,-6.617098e-38,-2.539556e-39,1.772008e-39,-0.0012901579,-0.0014991276,-0.0016246515,-0.0012910303,-0.0016269742,-0.0020696376,-0.00049521954,-0.00052594236,-0.0021612227,-0.0009990059,-0.00031104012,-0.00018513178,0.00024572137,0.001171363,0.0010995484,-4.4838784e-05,6.325663e-05,-0.0005962986,0.0011383528,0.0006657948,-0.00039715425,-0.00020426004,-0.00028233166,-0.0008317764,0.00027900527,9.414597e-05,-0.00074212515,-0.00056193606,-0.0012683718,-0.0014550544,-0.00016858985,-0.0012686445,-0.0011505518,0.0018713031,0.0011530529,-0.0004360145,-0.0014362633,-0.0013518346,-0.0013375225,-0.00029281512,0.0008673518,0.0013011723,-0.00040755045,-0.0006718482,-0.0007281188,1.03671255e-05,5.4481756e-05,0.00016774658,-0.0004517191,3.1696993e-05,-6.840518e-05,6.8511974e-05,0.00072191213,0.00027759044,0.0015219762,0.00092544936,0.0003102481,-0.00039104838,-0.00036522222,-0.0011729948,-0.00045083257,-0.00018548711,-0.00059877767,0.00039825364,0.00012811644,4.5546436e-05,0.0011541828,0.00037174634,-0.0003319221,0.0013052177,0.0012449587,-0.00017042222,7.45225e-38,-3.207092e-39,-2.815183e-39,2.859258e-39,1.40603e-39,1.133613e-39,3.192965e-39,-1.025058e-39,-1.230116e-39,-0.000725954,-0.0010008838,-0.0006237649,-0.00027204593,-0.0002409493,-9.5287265e-05,-7.1929615e-05,0.00010474983,0.00023703845,-0.0013172772,-0.0029131651,-0.0011256991,-0.003366331,-0.0053289765,-0.0033268053,-0.0012202947,-0.0021872483,-0.00089808466,-0.0022186418,-0.0017032181,-0.0014316408,-0.002198537,-0.0017320755,-0.0013398466,-8.066981e-05,0.00026188922,0.000190927,-0.00048182785,-0.00085621775,-0.0010512476,-0.0010288319,-0.0010298537,-0.0012194776,-0.00024515868,-0.00034387218,-0.0014108764,0.0023672949,0.0026715216,0.002880505,0.0022844612,0.00199481,0.0019190556,0.0015877824,0.0013322545,0.001313297,-6.94331e-40,6.230321e-38,1.40689e-39,2.320732e-39,-2.211588e-39,1.058752e-39,-7.728462e-38,-5.692146e-38,-2.41088e-39,0.00056029146,0.00076495763,0.0006038655,0.0006495277,0.0010930492,0.0005550386,0.0012617955,0.0014903082,0.0015088688,-2.7386617e-05,0.00011900166,0.00021892946,-0.0012004604,-0.000999273,-0.00044584487,-0.0017783747,-0.002360849,-0.0016106305,4.45055e-39,-1.249699e-39,-3.089112e-39,-6.1670686e-38,-7.6969266e-38,1.561764e-39,9.143093e-39,2.882472e-39,5.745084e-38,1.4109116e-05,0.00033650958,6.343796e-05,-0.000360709,0.00043250102,0.0012630452,0.00046985547,0.001759985,0.0025668687,0.00082560966,0.0004932574,0.00016155688,0.00077627436,0.0014190865,0.00096360873,0.00021972439,0.0014008805,0.001499447,-0.0029541145,-0.002752029,-0.0033500434,-0.0011433638,-0.0011232382,-0.0021029026,-0.001384266,-0.0014930778,-0.0023778896,-9.542734e-05,-0.00027007348,-0.00028984057,-0.00032300552,-0.00035363363,-0.0010910091,-0.00029468295,-0.0008816458,-0.0018701168,-8.33819e-40,3.5263356e-38,3.443426e-38,-2.390281e-38,1.535449e-39,2.3951282e-38,-2.3577982e-38,6.117691e-38,4.0944554e-38,0.0005707375,0.00062449666,-0.0004885007,0.00058172893,0.00093884725,-2.0694311e-05,0.00029900772,1.6511187e-05,-0.0008146121,3.361995e-39,-2.00208e-40,-1.36439e-40,-2.70984e-40,2.174319e-39,1.016537e-39,1.789696e-39,-2.472056e-39,-6.725456e-38,0.00016897498,0.0003706637,0.0008843624,-3.3088993e-06,0.00019767277,0.00067392684,-0.00038998917,-0.00042790823,3.224396e-05,-0.00069312454,0.0005293327,0.0009675471,-0.0006040601,8.056408e-05,0.0008275985,0.0003771066,0.00095899927,0.0010639782,3.560912e-39,-5.39124e-40,-1.132102e-39,-2.580942e-39,5.85828e-40,-1.21428e-39,-2.297486e-39,3.141997e-39,1.867331e-39,4.1749805e-05,0.00033286383,-0.00022993311,-0.00021052841,-0.0004265336,-0.00082103803,0.00035278007,-8.978801e-05,-0.0011572778,-0.001656507,-0.0013089636,-0.0011041459,-0.0012451336,-0.0010176406,-0.0011264912,-0.0022839112,-0.0025067697,-0.0027972972,-0.00046645585,-0.0007985342,-0.0011619525,-0.0005212603,-0.00050170626,-0.0010270568,-0.000111171685,0.00027588432,0.00015699299,0.00085726526,0.0003324981,-0.0015080057,0.000528814,-0.0002503928,-0.00083762937,0.0002291524,-0.00078016747,-0.0015308493,-0.0011302085,-0.0011065148,-0.0015899808,0.0005552437,0.00012591656,-0.00078621716,0.00030012647,0.0002564111,-0.0005212709,0.0009738601,0.0006544093,-2.1012143e-05,0.001851636,0.001842488,0.00073047605,0.002321168,0.0022993218,0.0014084314,0.002847803,0.003712085,0.003018443,-0.0011687741,-0.0002972927,-0.00031489212,0.00063722115,0.0012287508,0.0005680107,-2.027421e-39,-5.65567e-40,-6.34467e-40,1.651995e-39,7.92591e-40,2.908368e-39,-2.39097e-40,7.58512e-40,-1.392568e-39,0.0006514151,0.000538826,0.00050411373,-0.00022984968,-0.0007550879,-0.00063754973,0.0008736018,-0.00028459675,-0.0010226925,-4.1203926e-38,-2.0819237e-38,-5.140491e-38,-1.397795e-38,1.292944e-39,-2.5853065e-38,-2.965403e-39,1.946765e-39,-1.8720341e-38,2.279204e-39,-2.594165e-39,-2.47187e-39,1.463722e-39,1.1516e-41,1.392074e-39,2.658594e-39,3.75959e-39,1.090311e-39,0.00084668375,0.0008889276,-8.8512e-05,0.0010470762,0.00089385017,0.00036439457,-9.899276e-05,-0.00047969408,-0.0006255765,-0.0004864751,-0.0012047049,-0.0010231856,-0.00037294466,-0.0007358228,-0.00083407445,-0.00093017763,-0.0007722941,-0.0012651589,-0.0019243556,-0.0026704536,-0.002240904,-0.0016193368,-0.0022152113,-0.001797897,-0.00041440953,-0.0010252731,-0.0010850709,-2.858384e-39,-2.237565e-39,-1.309963e-39,7.93055e-40,2.908918e-39,2.684105e-39,3.042118e-39,4.181482e-39,-1.040142e-39,-4.4509746e-38,-1.644878e-39,-3.136633e-39,5.7412386e-38,1.383027e-39,5.7794795e-38,8.91301e-40,-7.669723e-38,9.26178e-40,0.0017322515,0.0016101424,0.0013178705,0.0016569094,0.0012123218,0.00032125067,0.0011808941,0.0009846976,0.00036775743,2.258215e-39,-1.182155e-39,-2.291833e-39,8.63177e-40,1.965541e-39,-8.81324e-40,1.97136e-39,3.090104e-39,7.023085e-38,1.9838862e-05,0.00031348428,0.00018588822,-9.3369796e-05,-0.000119928474,3.318357e-05,0.0013992545,0.0011092701,0.00047398166,-7.02069e-40,2.959193e-39,-3.991076e-39,-2.183493e-39,-3.46563e-39,3.71627e-40,3.903586e-39,1.398402e-39,1.703881e-39,-0.0017032924,-0.0010762352,-0.00066661235,-0.000527185,-2.1494343e-05,0.0010223725,-0.0006278556,-0.00062531926,-0.0010806625,5.92213e-40,-3.083955e-39,-6.909094e-38,4.167215e-39,2.62263e-40,7.6464866e-38,-1.168781e-39,-6.696781e-38,2.929702e-39,-2.792533e-39,2.629465e-39,-2.048159e-39,1.921402e-39,1.731634e-39,3.085839e-39,-4.398375e-39,2.990298e-39,-2.712722e-39,-3.07143e-39,3.05153e-39,-1.66635e-39,2.79497e-40,1.680992e-39,2.43885e-39,-3.079348e-39,3.17416e-39,2.472316e-39,-0.00045988106,-1.5446323e-05,-0.00016288235,-0.00051199424,-0.0007159384,-0.0001717411,0.0006835999,-4.2211855e-06,-0.00022801873,-7.233326e-38,-3.22932e-39,-6.19821e-38,-4.6841843e-38,-1.6671e-40,-6.61244e-38,7.0838e-40,-3.945698e-39,-3.922278e-39,-0.0017289981,-0.0016582352,-0.0016712369,-0.00064512726,-0.0006693268,-0.00036686557,0.0002519695,0.00015908948,0.00052255514,-5.6831016e-38,-1.902902e-39,7.227899e-38,-5.22718e-40,-6.788424e-38,-6.114776e-38,5.135075e-38,8.53466e-40,6.81098e-38,0.000119326454,0.0001480091,-8.1380516e-05,0.0006309047,0.00044861293,-0.00019455166,-0.00068796024,-0.0010348249,-0.0014476584,0.0005487114,0.0006088168,-5.3072963e-05,0.0013914137,0.0014493861,0.0005253167,0.0005387514,0.00075701415,0.00049625663,-0.00066115544,-0.0005955751,-8.246926e-05,0.0004884155,0.0005347581,-0.00046492074,-0.0009237811,-0.0002695226,-0.0009144626,0.0002768277,0.0010033636,0.0005285589,-7.158667e-05,0.0004266117,0.00054517563,-0.0005709684,-0.00032815457,5.6530404e-05,-0.0003679131,-0.0002099602,-0.00049799256,0.00029826353,0.00039698556,0.00048775878,0.00055876863,0.0007864327,0.0008315975,0.00088747166,0.0011602096,0.0010283043,0.0006018152,0.0011082175,0.0011614652,0.00091931457,0.0015266533,0.00064778375,-0.0002120341,0.0003451786,0.000113761664,0.00031718134,0.0006541895,0.0014553032,-0.0014009252,-0.0012108533,-0.0007849196,4.92449e-40,7.51462e-40,-2.7011555e-38,2.065096e-38,-1.38758e-40,4.88128e-40,-1.96247e-39,9.90232e-40,-1.5659473e-38,-0.00080346316,-0.00078377634,-0.0007934192,-0.0009196282,-0.0008806225,-0.0010586993,-0.0013457293,-0.0011140887,-0.0015219881,-0.00013817873,-0.00039149186,-1.845527e-05,0.00047976375,-0.00027726914,-5.635552e-05,0.0015064492,0.00096125493,0.0013650575,4.1779527e-05,0.00041769122,0.00035581973,0.00015747758,0.00018283186,0.00027247527,-0.00081231014,-0.0011050625,-0.001395015,-0.00090362213,-0.0011673676,-0.0014505917,0.00024920667,0.00033576062,0.0001311657,0.00040274978,0.0002543291,0.00028394474,-0.00023944296,-0.0005552528,-0.00047257624,-0.00032392668,-0.0006291769,-0.0011221663,-8.577638e-05,-8.872343e-05,-0.00030712434,-0.00014859473,-0.00058548857,-0.0011050199,-0.00018799241,-0.00028799014,-0.00032032238,-0.001064451,-0.00081262924,-0.00044344037,-0.0007956914,-0.0010496523,-0.0011893234,-0.00041434367,-0.0008110353,-0.0012043722,-0.00016501978,-0.00055373926,-0.00081155536,-0.00072700216,-0.0007909971,-0.00011204449,-0.00023983173,0.0003457445,0.0003050793,0.0004594727,0.00091681065,0.00044536815,-1.527597e-39,-2.23092e-40,-1.272179e-39,-4.62407e-40,-5.811e-42,-1.219333e-39,1.647739e-39,1.048754e-39,-6.71265e-40,-0.00047016435,-0.0003097736,-0.00029026173,0.0004335192,0.00056144095,0.0006148974,0.0007796479,0.00068064965,0.0008937134,0.0016171767,0.001187553,0.0008265134,0.00045386024,-0.00023572308,-0.00022401183,-0.0009071455,-0.0019136511,-0.0014549898,8.667735e-05,-0.00027801172,-0.00028380041,-0.00015653494,-0.0008494268,-0.00089358795,-0.00072371546,-0.0011408608,-0.0009438281,-0.0008154577,-0.00066659186,-0.0005777655,0.00015309305,2.250961e-05,-0.00016515172,1.0216847e-05,2.669208e-05,-3.8264083e-05,0.0005731758,0.00068295107,0.00070657325,0.00027229404,0.00023032738,0.0004568961,0.0004530973,5.0426104e-05,-4.3259373e-05,-3.9185047e-38,-1.3157733e-38,3.4307e-40,1.6925383e-38,-6.90637e-40,-3.883003e-38,2.0340736e-38,-2.3844105e-38,-3.920306e-38,-0.0005030098,-0.0007194427,-0.0003850271,-0.00013036259,-0.00022892091,5.3633248e-05,0.000104496656,0.0002957153,0.0002844904,-0.0012947117,-0.001350444,-0.0007820294,9.8383985e-05,-2.2475379e-05,0.00032017066,0.0001895601,0.0004166164,0.0006018871,2.9448573e-38,-2.852995e-39,-3.801358e-38,-2.2283123e-38,-1.605989e-39,-1.849816e-39,3.7241735e-38,-4.27825e-40,2.847918e-39,-0.0002641044,-0.0004561069,-0.00017437628,0.00020412201,-0.00040007074,-0.00034762314,0.00014282326,-0.0003831807,-0.0003757476,0.0001161344,0.00015849028,-1.5636382e-05,0.00014914686,-7.203634e-05,-0.00022120247,0.00057948666,0.0008282304,0.0003628818,0.0007571917,0.00085997744,0.0008305009,-7.585254e-05,4.571932e-05,6.916885e-05,-0.0010273319,-0.0010299364,-0.0010325961,0.0003129504,0.00033926868,1.5726401e-06,-6.502435e-05,9.962334e-05,-5.423643e-05,-0.00037481257,-0.0005444587,-0.0007629351,-1.1159606e-38,-4.254824e-39,-5.847525e-39,-5.916536e-39,1.177238e-39,-2.60664e-40,-8.884077e-39,-9.12053e-40,-4.0498e-40,0.000107395506,-0.00026359328,-0.00014439959,2.432218e-05,-0.0002892508,-4.2115968e-05,-6.5557826e-05,-0.00011672223,4.3770076e-05,1.252335e-39,-6.76174e-40,-6.43293e-40,1.437602e-39,-1.499489e-39,4.38201e-40,-9.56906e-40,6.70615e-40,5.87138e-40,8.092091e-06,0.0005892553,0.0008476568,-0.0003035522,0.00025510846,0.0005228355,-0.0013925561,-0.0009687988,-0.0003959109,-0.00046443145,0.00027038084,0.00038221217,-0.0005267728,0.00012045134,0.0001092522,-0.0005285157,-0.00020926652,-0.00042286896,-5.48732e-40,7.2834e-41,-9.5877e-41,-5.00558e-40,8.21946e-40,3.56981e-40,8.31281e-40,-1.1053e-40,1.866294e-39,-0.0009108557,0.00019151942,0.00034170228,0.00037720424,0.0009848869,0.0009514243,0.00013089189,5.0791e-06,-0.0005418589,-0.0023251756,-0.001723261,-0.000930026,-0.0015720793,-0.0012572827,-0.0003157213,-0.0010647465,-0.00079847587,-0.00053933135,0.0006162142,8.920798e-05,-0.0004951797,0.00023385655,-0.00038354177,-0.00090870867,0.0010658898,0.0007656568,0.00029626646,-0.00072566123,-0.0006802044,-0.0011621366,6.563035e-05,-0.00024776714,-0.0008097745,0.0007445243,0.00013548545,-0.00037928452,-0.00011311342,-9.672955e-05,-0.00014135875,-0.0008257664,-0.0008668988,-0.00084648083,-0.0002539458,-0.00068270054,-0.00071173126,-0.00025664747,9.765999e-05,2.8894015e-05,0.00086924067,0.0010886957,0.0005742237,0.0009869881,0.00075729494,-2.1523565e-05,-0.0012737514,-0.0015883236,-0.0017428442,-0.0004497498,-0.00060658966,-0.00032798058,-0.00067366747,-0.00063941645,-0.000469682,1.740495e-39,1.780367e-39,-2.18792e-40,-1.35987e-39,5.64967e-40,4.3428e-40,3.4503813e-38,1.025518e-39,3.2738306e-38,0.00022022836,-0.00026852236,-0.00017170183,0.0007836808,0.00033261915,-6.660627e-05,-1.29209875e-05,-0.00039453397,-0.0007303463,1.00417e-40,1.73928e-39,-1.491897e-39,2.5162e-40,-2.48285e-40,1.280183e-39,1.320644e-39,1.160197e-39,8.67185e-40,3.0697895e-38,3.277301e-38,-1.936241e-39,1.77982e-40,4.28308e-40,8.93322e-40,-3.08834e-40,1.700271e-39,2.9115213e-38,0.0006655189,0.0006344323,9.6268064e-05,0.00031214292,0.0005679892,1.0189775e-06,0.0006477281,0.0007053795,0.00035148478,0.00069550786,0.0002976991,0.0006306643,0.00083143695,1.2782793e-05,0.00023212339,0.00023008863,-0.00032691215,-0.00019361654,0.00066679926,0.0002978223,-0.00016531644,0.000612431,0.00017082183,0.00032550568,1.8452121e-05,-0.0006359729,-0.0002933552,-1.487637e-39,-8.05812e-40,-1.654335e-39,4.38786e-40,2.019518e-39,4.45945e-40,-2.125226e-39,-2.10768e-40,9.53529e-40,7.29747e-40,3.4972707e-38,-9.6772e-40,7.55692e-40,9.68458e-40,1.023553e-39,-1.278354e-39,6.30483e-40,1.857502e-39,0.0003635428,0.00021942175,0.00044329237,0.0007214226,0.00055142713,0.000512476,0.0007646138,0.0002335637,1.4020873e-05,-2.3309861e-38,1.573646e-39,-5.7885e-40,-3.8964284e-38,-1.166259e-39,3.042692e-38,3.5455208e-38,-1.624248e-39,3.9274018e-38,-5.0252205e-05,-1.8781371e-05,-0.00033475008,0.00078269537,0.0007657569,0.0004252943,-0.00028386185,-2.2854618e-05,6.630154e-05,1.29473e-40,-2.801378e-39,-3.070381e-39,1.7683e-41,-6.85672e-40,1.545955e-39,-5.69465e-40,1.8164e-41,-3.6902e-40,0.00020108564,0.00068554154,0.00097526197,-0.0008164431,-0.00049344,-1.13942215e-05,-0.0015100926,-0.0011133438,-0.0008685313,2.2369105e-38,-3.7288902e-38,-2.592914e-38,-1.93117e-39,-1.268765e-39,-3.81173e-40,-2.6312417e-38,-3.6164047e-38,1.3324e-39,2.332262e-39,4.9297e-40,3.88719e-40,-6.63492e-40,-1.3826e-39,-2.05837e-40,1.28037e-40,1.070086e-39,-1.591725e-39,2.6091622e-38,-2.89271e-40,-2.807161e-38,3.0389242e-38,-1.810464e-39,3.417058e-38,1.714302e-39,-3.2335517e-38,1.730633e-39,-0.0010786285,-0.0008099453,-0.0008324454,-0.00021740515,-0.00067267974,-0.0005075887,0.00019412451,-0.0002576765,0.00041789102,1.3801819e-38,1.650285e-39,-3.0341537e-38,-2.70889e-40,6.99733e-40,2.6093133e-38,-6.4084e-41,-1.378498e-39,-9.81771e-40,-0.00059134065,-0.0009918871,-0.000990003,-0.0008835724,-0.0011445973,-0.0009828745,8.0750535e-05,0.00015687465,7.660896e-05,-3.63416e-40,-1.8588338e-38,-3.7836695e-38,-2.8135918e-38,-2.2324209e-38,-1.9214997e-38,4.196481e-39,1.9418129e-38,-1.7876321e-38,0.00050911173,0.00064532144,0.0010294948,0.0002430234,0.000118861986,0.00020103069,-0.000359085,-0.0007376198,-0.0011773768,-0.0001874787,-0.00044643442,-0.0001250732,-0.00022994533,-0.00021738469,0.0004953098,-4.4182438e-05,0.0004409219,0.00080727966,0.00033499332,0.00013058778,-0.00013043519,0.00072497467,0.00054623274,0.0004895757,0.00058839854,2.4294784e-05,0.00016516547,-0.00012158931,4.5332068e-05,0.00029785337,0.00020200582,0.00017815789,-0.00023677002,0.00021177415,0.00011211184,4.0828356e-05,0.00010738174,0.0005525207,0.00069957174,-0.00015265086,-0.00014626294,4.831733e-05,8.2014296e-05,0.00030152214,0.00050182047,-0.00038530777,-0.0003358012,-2.5764279e-05,0.0003400472,0.00054914685,0.00044585767,0.00052982284,0.00076963194,0.00020418812,-0.00084699166,-0.0007125498,-0.00046973268,-0.0010791756,-0.00093303365,-0.00049602,-0.00077290833,-0.00068055216,-0.0004106358,1.832565e-39,2.102327e-39,-2.369653e-39,-8.4679e-41,1.315397e-39,-1.991447e-39,-2.262769e-39,-5.58427e-40,-5.96177e-40,0.0007127933,0.0010149811,0.0009164704,0.0014657974,0.0016274892,0.0011770746,0.0011178111,0.0013415439,0.00095992815,8.7924076e-05,3.192896e-05,1.0154721e-05,0.0004150176,0.00063311966,0.0009873437,0.0007830925,0.00059987576,0.0006432208,-0.00059824606,-0.00029065885,0.0003822464,-0.00032906854,-0.00028804125,4.530773e-05,-0.00071638694,-0.00045423178,-0.0003019126,-0.00056554633,-0.0007841904,-0.000351591,-5.503846e-05,-0.00026321443,-0.00041369197,-0.00022091108,-0.00047167423,-0.0008706399,-0.0004801706,-0.00031538095,-0.00055029464,-0.0007190067,-0.0005894119,-0.0005113002,-0.00040366474,-0.00056154054,-0.00085385254,-0.00088695815,-0.0006941731,-0.0006668315,-0.0016179802,-0.0009014185,-0.000626225,-0.0016660198,-0.0008048982,-0.0008114607,-0.0012286693,-0.00016609207,-0.0010046444,-0.0010989114,-0.00078092323,-0.0010746502,-0.0006362181,-0.00039315477,-0.0008217305,0.00022109537,0.0004067388,0.00033469498,0.0004121637,0.00070851634,2.2696744e-05,0.0006315776,0.00090555754,0.00050053664,1.914254e-39,-6.13752e-40,-7.78826e-40,1.154261e-39,-1.093278e-39,-2.303674e-39,2.168968e-39,-6.9555e-41,1.00902e-40,-0.00039508851,-0.0008994594,-0.00043714273,-0.0002835806,0.00025967203,0.00056367443,4.8602582e-05,0.000119432625,0.00016758188,-0.00048602655,-0.0011552273,-0.00036711068,-0.0013100116,-0.0022335511,-0.0011568434,-0.00096175855,-0.0016865581,-0.00053054723,-0.0012292064,-0.001876056,-0.0014208569,-0.0013917716,-0.0014976431,-0.0011119305,-0.0013589573,-0.0015041938,-0.0014162179,0.0008972378,0.00013730416,-0.00026491043,0.0011711103,0.00048429848,-8.5577594e-05,0.0005801941,0.0001969979,-0.00034858048,0.00051476277,0.00039981693,0.0004895119,0.0007934554,0.00082355255,0.00066511903,0.00075866224,0.00039661652,0.00042785745,-4.51543e-40,1.49273e-40,-2.262213e-39,2.185675e-39,4.58882e-40,-1.47285e-40,1.014272e-39,1.13863e-39,1.4827e-41,-0.0005900414,-0.00082476024,-0.00024377325,-0.00020724989,-0.0002533003,-0.0006477222,-0.00092764676,-0.00096551265,-0.0009695751,-0.0006299561,-0.0010282141,-0.0010141246,-0.0007548545,-0.0012392865,-0.0013806854,-0.00041785062,-0.00078526995,-0.0006632739,3.3317513e-38,5.03024e-40,-3.648229e-38,-3.2292466e-38,8.95217e-40,2.3010045e-38,4.623579e-38,3.157196e-39,5.450381e-38,-0.00018070282,0.00012246116,0.00042276134,-0.0011601897,-0.0007211323,-0.00067536294,-0.0005761804,-0.00022321075,-0.0008949178,-0.00047402334,-0.00028194522,-0.0004702403,-0.0010990916,-0.00090504397,-0.00067805575,-0.0013845068,-0.001368102,-0.00064215146,-0.0006679223,-0.000659229,-0.0007139523,-0.00090966077,-0.00082913187,-0.0014544822,-0.0009154986,-0.0012927899,-0.001463634,-0.000311048,-2.8671142e-05,-0.0004678726,-0.0009019516,-0.00089657225,-0.0006223565,-0.0007778548,-0.00095705927,-0.0011487232,-3.2617e-41,2.2670064e-38,-4.345541e-38,-2.9584634e-38,2.087754e-39,-7.39436e-40,2.7574095e-38,-2.469496e-39,2.587169e-38,0.00033826655,0.00021513055,-0.00034220953,-0.00020901719,-0.00028051774,-0.0003916675,0.00026089122,0.0005725843,0.0003325857,-2.1751e-40,-2.076081e-39,-4.07622e-40,1.294417e-39,-1.37578e-40,-4.5787e-41,-2.676714e-39,-4.75266e-40,6.06897e-40,-0.0011843988,-0.00055623497,-0.0009704435,-0.00085267023,-0.0005670012,-0.0006337579,-0.0004151642,-0.0004967028,-0.00070622185,-0.0005678115,-0.00017880525,-0.00028736223,-0.00031930432,-0.0006286648,-0.0009781122,-0.0008779672,-0.00090083975,-0.0008231264,-1.478e-41,-1.44138e-40,1.146195e-39,6.24498e-40,3.9936e-41,9.8325e-40,-1.231238e-39,-6.7294e-40,-2.397767e-39,-0.00020390126,-0.00030318397,-0.00035115477,0.00043458593,6.5115266e-05,-0.00067121827,-0.00015999046,-0.0005497974,-0.0010432221,0.0015317845,0.0013348957,0.0015661645,0.0016220906,0.0011842344,0.0011274791,0.0012501699,0.00088607124,0.00026455405,-0.0010625635,-0.00096362655,-0.0010067908,-0.0006066104,-0.0007748293,-0.00034248785,8.596361e-05,-0.00024087701,0.00042623625,0.00038357833,0.0009308631,0.00037821717,0.0009138956,0.0009349134,0.00041425278,0.00094663387,0.00065714034,0.00040023352,-6.8041714e-05,-0.00033762702,-0.0005427776,5.40184e-05,-0.00036821023,-0.0009069486,-0.00044888852,-0.0011036644,-0.0014168441,-0.00042683206,-9.734765e-05,-9.822651e-05,0.00016195049,-0.00023923318,-0.0005941215,0.0004511964,6.662391e-05,-0.00014404063,-0.00026803758,-0.00023011696,0.00015046528,-0.0007149366,0.00032519348,0.0005280256,0.00042755253,0.0011896712,0.00080948736,9.71185e-40,1.920439e-39,6.4021e-41,-1.551207e-39,-3.76303e-40,9.5292e-40,-7.9931e-41,1.41646e-40,2.120694e-39,-8.32337e-05,0.00014265208,0.0004295701,-0.0003491771,-0.00027044013,-0.0002653844,-0.00054224685,-0.00078826223,-0.0009986893,-7.1406e-40,-4.704566e-38,-4.1987e-41,7.9443e-40,2.287066e-39,-4.5896594e-38,2.1202051e-38,-1.413257e-39,-2.1565377e-38,-1.088529e-39,1.718153e-39,6.24683e-40,-1.67794e-39,-1.178844e-39,-2.50402e-40,-4.16975e-40,-2.6277e-41,-2.712046e-39,-0.0010039365,-0.0011659337,-0.0013428247,-2.7397122e-05,-0.00020138457,-0.0002909197,-0.00090507895,-0.00077989255,-0.00041454664,-0.0014279481,-0.0024230024,-0.00086610304,-0.0015181012,-0.0014857964,-0.0010875145,-0.0015624673,-0.0012837853,-0.0011791879,0.00041599944,-0.00093940273,-0.0009584841,0.0005372413,-0.0007904956,-0.00041507042,0.0004659936,-0.00054490974,-0.00039491843,-1.3428982e-38,1.886795e-39,-3.3712253e-38,-3.9377429e-38,9.94349e-40,3.6381926e-38,-4.033683e-38,-4.971068e-38,4.7585344e-38,-2.763103e-39,-1.24e-42,1.42304e-39,-2.305678e-39,9.34785e-40,4.6549616e-38,6.674e-42,3.6493192e-38,1.233619e-39,0.0012077984,0.0012368477,0.0009914876,0.00012494877,-0.00021220949,-0.00022895329,0.0005930599,0.000360238,-0.00028550404,1.265269e-39,-9.8326e-40,1.324668e-39,-3.83925e-40,8.89787e-40,1.732635e-39,2.683956e-39,-7.64826e-40,-4.72041e-40,0.0010748501,0.0012879325,0.0013174512,0.0011447677,0.0013830895,0.0014606257,0.0013898197,0.0015048559,0.0014782621,1.816789e-39,-3.66222e-40,-3.987807e-38,4.0676656e-38,-1.101143e-39,3.559994e-38,3.6042644e-38,-2.7165098e-38,-3.976546e-38,0.0022031644,0.0015016601,0.0017507453,0.0011817456,0.0009499742,0.0017493372,0.0012088262,0.00064569665,0.00089680584,2.867742e-39,-2.2028312e-38,-4.823241e-38,-1.64135e-39,-1.16526e-39,-4.939892e-38,-1.817586e-39,-3.2706707e-38,-2.849151e-39,2.855716e-39,-2.5887013e-38,2.3211907e-38,-4.5417042e-38,1.268562e-39,-1.46097e-40,2.7433214e-38,-4.487352e-38,-5.329172e-38,-1.383182e-39,1.071748e-39,-2.257259e-39,1.61001e-40,-5.00751e-40,2.545513e-39,9.88075e-40,4.82948e-40,4.836831e-38,-0.00045693174,-0.0010399068,-0.0011345464,-0.00074691087,-0.0011002262,-0.00065976253,-0.0009633648,-0.00076438836,-0.00038179298,-1.463887e-39,-2.323696e-39,2.427272e-39,-4.367976e-38,3.8973e-40,-2.76961e-39,2.619869e-39,1.880254e-39,5.07608e-40,-6.359678e-05,-0.0006627501,-0.00026630601,1.3994837e-05,-0.00078056566,-0.00075202645,0.0005324964,0.00072711945,0.00023271985,-4.3391582e-38,-3.7916754e-38,4.733669e-38,5.2028166e-38,-4.88405e-38,-2.220444e-39,1.724724e-39,3.9707277e-38,1.021278e-39,0.00032261264,0.00035336995,0.0005311156,-0.00025366156,-0.0002208552,-0.00016032298,-0.0006724116,-0.0002643062,-0.0002818649,0.0003824312,0.0004437209,0.00036408613,-0.0001906914,-0.0003144221,-0.000110122215,-0.00066054333,-0.00038115893,-0.00011866735,0.0019058893,0.002147808,0.0011963203,0.0015635014,0.0013409451,4.9271337e-05,0.0011697715,0.0006029982,-0.00023546212,-0.00073163223,4.86219e-05,-0.00015924436,-0.00011485204,0.0005567721,1.7435084e-05,-0.00020627382,1.3362776e-05,-0.0002647092,-0.00045103944,-0.00025873183,-0.00047046528,-0.00037148528,-0.00022925224,-0.00026911503,-6.413292e-05,0.00027815602,0.00035929627,-0.00047197205,-9.183188e-05,0.00020013982,-0.0005767114,-0.000618275,-0.0007624153,-0.000516162,-0.00031516553,-0.00042000017,-4.1014544e-05,0.00012197507,0.00039934428,-0.00039185892,-0.00043056105,-0.00015478516,-0.00027838224,-2.69845e-05,-0.00026389986,4.171879e-39,6.866784e-39,3.7686406e-38,-1.875947e-38,3.047071e-38,-3.157533e-39,1.3714951e-38,-1.3475347e-38,1.62264e-39,-0.5977675,-0.11046222,-0.19429833,-0.28874752,-0.069693685,-0.36718413,-0.8562964,-0.49885488,-0.57441056,0.92712736,0.40888408,0.7206976,1.1493092,0.7430363,1.3434602,0.26674,0.6532516,1.4320847,0.76850665,0.7591428,0.8614847,1.4157894,0.22331037,0.70832556,1.4072481,0.5897361,0.99956155,0.7443323,0.9932268,0.66528606,0.67469925,0.6315073,0.7144609,1.2232821,0.92547894,0.92973936,0.8376907,1.1421194,0.92024136,0.11201601,1.1497617,0.9334863,-0.6886649,0.22629763,0.708812,-0.4703147,-1.1132164,-0.7675523,-0.35188323,-0.32075953,-0.39058405,0.3494281,-0.43252558,-0.524727,0.10268815,-0.115643755,-0.2511932,-0.34931058,-0.24194463,-0.2967377,-0.24537078,-0.0034988895,0.019372005,1.1337999,0.79624635,0.5201895,1.4077389,1.0196551,0.6166514,1.194998,0.6579412,0.07125127,-4.951696e-39,1.945162e-39,-8.83924e-39,1.3587756e-38,1.412325e-38,3.1488468e-38,1.2351532e-38,1.0207296e-38,-2.8227462e-38,1.147989,1.2862414,1.063907,1.1875905,0.352607,0.36201048,1.2035956,0.8623876,1.2144952,0.017443784,-0.5685112,0.5821593,-1.331446,-1.3180891,-1.0170835,-0.12097127,-0.46579978,-0.03641251,-0.3030602,-0.46526775,-0.4239646,-0.66064155,-0.32113108,-0.7982103,-0.7829355,-0.6011349,-0.7925897,-1.056226,-0.8353985,-0.6616879,-1.1747254,-0.80580705,-0.5879192,-1.0568687,-0.4134926,-0.8708583,0.6343288,0.32383528,0.54094464,0.60808575,0.56360555,0.20293877,0.30721653,0.49296442,-0.009094316,-6.917574e-39,8.59823e-39,-1.0484617e-38,1.071354e-38,2.3706803e-38,-3.139343e-38,-4.137961e-38,-2.5948144e-38,-1.091672e-39,-0.14684168,-0.42816976,-0.5560935,-0.100543275,-0.24989073,-0.2916707,-0.7335186,-0.89446986,-0.65046734,0.6346742,0.6388971,0.7777631,0.6610871,0.76409197,1.0447803,0.9218107,0.93106776,0.7575222,3.2520104e-38,8.093585e-37,-4.643169e-39,1.4637557e-38,2.146063e-39,-1.6738502e-38,-7.302877e-39,6.384256e-37,-4.536219e-38,1.1246226,1.3848113,1.6444882,0.789653,1.0171585,1.0072072,0.7941923,0.6481813,0.9837424,-0.3263776,0.15891114,-0.024067065,0.18124874,-0.14425395,-0.427182,0.52635014,0.48110616,-0.12999481,1.7444179,1.485771,1.0913857,0.9260441,0.6906756,1.5963148,1.1595317,0.7765169,1.4112556,-1.0470401,-0.6590615,-0.91365224,-1.158744,-0.8513713,-1.2487786,-1.1784549,-1.2386664,-1.4574744,-4.05775e-37,-3.3303e-39,7.7028305e-37,-4.2552744e-37,-1.456742e-39,5.8062145e-37,5.3415825e-37,1.6046029e-38,-4.403615e-37,0.16915937,-0.13511048,-0.41793385,0.23739465,-0.33919522,-0.73413455,-0.8004967,-1.0565479,-1.2896538,1.5912984e-38,9.949448e-39,2.0650738e-38,-1.9472561e-38,7.671309e-39,-5.177888e-39,-1.1255449e-38,1.4832317e-38,-1.0635729e-38,-1.1677637,-0.51485443,-0.7840879,-1.1126444,-0.7678216,-0.6669727,-0.90083563,-1.1027149,-1.0092769,-1.1628044,-0.8757307,0.01096175,-0.8776946,-0.45008427,0.062421992,-0.9834564,-0.49011067,0.68611294,1.8399522e-38,-9.174447e-39,-2.047112e-38,7.92321e-39,1.9805409e-38,3.7979126e-38,3.0321022e-38,-3.3921352e-38,-1.567018e-38,-0.18364474,-0.4445453,-0.23928702,-0.32564887,-0.4220076,-0.31031898,-0.54002976,-0.6496846,-0.6797677,0.48814547,-0.30912027,-0.018437674,-0.03419388,0.1602297,-0.068318084,0.0070205717,-0.097976014,-0.22049622,-0.23916544,-0.39245674,-0.8051349,0.46635357,0.3015642,-0.1659391,0.31739092,0.39504972,0.2591073,1.3501176,1.0864437,1.486078,0.6891899,0.25437155,0.83005655,0.93281925,0.37887478,0.85200423,1.2658669,0.321109,0.78746796,0.67107934,0.2232442,0.42725068,0.5183758,1.0069423,0.92585146,-1.4231001,-1.1182742,-1.4529159,-1.3795589,-0.7246404,-0.7108656,-1.1227475,-0.5310513,-0.3119412,-0.42902136,-0.6211158,-1.0866357,-0.5113142,-0.20802568,-1.0200815,-0.20045042,-0.2245306,-0.36597162,-5.078164e-39,4.63436e-40,2.1200226e-38,-4.067276e-39,-1.309688e-38,1.160743e-38,-3.414252e-38,5.309946e-39,4.840046e-39,-1.0786132,-0.9322558,-0.922589,-0.9074658,-0.5815935,-0.5228145,-0.77870476,-0.58348405,-1.0588143,1.7641926e-38,-3.620452e-38,-3.9797353e-38,7.878239e-37,-1.0788085e-38,1.1779049e-38,2.4764943e-38,3.5915142e-38,2.9525367e-38,1.1534856e-38,-9.078892e-39,-1.9147761e-38,3.354603e-39,1.5253528e-38,1.6285585e-38,-9.493574e-39,-2.771115e-39,-2.6155233e-38,1.3070612,0.6559764,0.15106612,0.30670634,-0.018485855,0.35171157,0.16920103,-0.17443945,0.59474975,-1.0131168,-0.61903685,-0.73483765,-0.8676567,-0.6506114,-0.6363619,-0.72693384,-0.50435764,-0.18349884,-0.8610998,-0.9455945,-1.0866338,-0.90723956,-1.2364299,-1.317854,-0.8597656,-1.1208991,-1.5334997,-1.4093789e-38,-2.6906158e-38,4.1886874e-37,-5.8249497e-37,-3.874439e-39,3.3276458e-38,3.965863e-37,-4.657363e-37,-3.928364e-39,2.2264361e-38,8.08145e-39,1.0711149e-38,2.4361442e-38,2.544594e-38,1.4387772e-38,-3.021691e-39,-2.1415994e-38,3.403879e-38,-0.5220943,-0.44732112,-0.37812263,-0.61573786,-0.87663746,-0.67920464,0.23676279,-0.1375577,-0.2924617,-2.6882207e-38,-2.4909865e-38,1.9236884e-38,-3.3298775e-38,2.3381017e-38,1.477e-41,2.3387869e-38,-2.1188139e-38,-3.665278e-38,-0.28682432,-0.27536806,-0.22011521,-0.34999803,-0.18303768,-0.0012899045,-0.94360435,-0.58898616,-0.24179505,2.2219032e-38,-7.130538e-37,-1.1492646e-38,6.425745e-39,4.109696e-39,-1.5424468e-38,3.384705e-38,-7.0348586e-37,7.3874235e-37,-0.25826645,-0.43487576,-0.21934922,-0.0029722038,0.072035156,0.6293952,-0.001787368,0.23106322,0.3454336,-7.34378e-37,-6.5602395e-37,4.7907485e-38,3.9782793e-38,6.501326e-39,4.84887e-39,-6.578595e-37,6.465291e-37,1.4613511e-38,-2.910044e-38,-3.1630044e-38,4.822141e-37,3.8146772e-38,1.1513605e-38,1.47589e-40,3.5487306e-38,1.388304e-39,2.8027628e-38,-2.9453004e-38,6.27702e-40,-2.645035e-39,-6.065684e-39,1.174976e-39,6.115118e-39,-2.4723442e-38,-2.0711322e-38,3.6811892e-38,-0.5393772,-0.99514425,-0.47752273,-0.2567261,-0.8295878,0.014017685,-0.16067947,0.46485412,-0.4446671,2.5980222e-38,3.07873e-38,-1.788054e-39,-4.1095533e-38,1.8798157e-38,1.2495534e-38,8.586207e-39,-2.622044e-38,-2.7809015e-38,0.29821908,0.7537491,0.6324544,0.71198,0.289308,0.5598993,1.1995763,0.2615431,0.965997,4.094957e-39,1.3331264e-38,3.4547198e-38,-3.117368e-37,-3.3883957e-37,4.4384225e-37,7.455663e-37,-3.972146e-37,1.0438659e-38,-0.24531814,-0.27463442,-0.36897513,-0.14609179,-0.049399737,-0.14386772,-0.046407476,0.039615545,-0.14201955,1.6796463,1.4634039,0.659271,0.7180501,0.670302,0.38284615,-0.42366794,-0.15720575,-0.09353797,-0.99667674,-1.0554271,-0.9071228,-0.8917664,-0.67560977,-0.57350785,-1.1021746,-0.7506687,-0.65315115,-0.63326526,-0.6813446,-0.8227303,-0.74432904,-0.6236346,-1.0721221,-1.0936137,-0.99270165,-1.2885417,-0.3003993,-0.08303036,-0.16404656,-0.20395878,-0.09395076,-0.41373393,0.5224221,1.1430321,0.15340641,-0.53427863,-0.47471341,-0.45111412,-0.96197957,-0.55168253,-0.78258497,-1.0170958,-0.72859126,-0.68869096,0.216037,0.9032317,-0.5116076,1.4495081,1.7059709,0.9634502,1.5547966,1.0409893,1.0755682,2.7143835e-38,3.674291e-39,-4.310702e-39,1.423365e-39,1.6016952e-38,1.4518923e-38,2.3447107e-38,-2.970788e-38,1.0730237e-38,1.8278612,1.8456278,1.0454519,1.3448094,1.7756517,1.2191111,-0.34077978,0.8666041,0.3672487,-0.5592535,0.14806741,0.21472558,0.061854705,0.5709123,0.35198283,-0.029795108,0.22767113,0.08620729,0.08342766,0.718505,0.36650795,0.5236915,0.48551396,0.19935612,0.24351358,0.20806281,0.612139,-0.3661839,-0.45309868,-0.5118343,-0.77193147,-0.8822326,-0.7432296,-1.089622,-1.1459372,-0.7937622,0.562966,0.9884412,1.2368944,1.102802,0.84135,0.7329864,-0.035597924,0.85273844,1.0598536,-0.9573039,-0.5278285,0.063066736,-0.46927974,-0.3944151,-0.35002142,-0.0115870945,0.014623618,-0.050229184,0.6455443,0.022996455,-0.50131655,0.73973477,0.2201199,0.2083065,1.4350281,0.8967577,0.41034967,-0.6245168,-0.46251485,-0.27288672,-0.59327835,-0.92704093,-0.69156677,0.06340568,-0.54028976,-0.6430455,3.1257691e-38,1.7155541e-38,-4.87715e-40,-2.8454388e-38,-2.8127743e-38,-3.6282498e-38,2.2994802e-38,1.5483642e-38,-1.727543e-38,-1.1519645,-1.2713021,-1.4553876,-0.9341203,-1.1483229,-0.8080591,-0.95086884,-0.88526565,-0.83722657,0.7686335,-0.67144716,0.47519195,-1.3054459,-2.8629923,-0.92151904,-1.1205269,-1.8106846,-0.58810586,-0.42901278,-0.35585445,-0.7220897,-0.5587177,-0.21526532,-0.8489905,-0.61689293,0.50952405,-0.76162547,0.5823411,0.054792747,0.64945334,0.49141613,-0.53294754,0.20025589,0.402503,-0.42101514,-0.63396585,-0.78034204,-0.67790145,-0.91819906,-0.9841947,-1.1866947,-1.3491291,-0.0621529,-0.75517404,-0.9630362,3.18547e-39,-4.809712e-39,1.9612178e-38,1.8092546e-38,8.559759e-39,-5.759656e-39,-4.55816e-39,-2.693523e-39,1.883625e-39,-0.16608582,-0.7347413,-0.61345536,-1.0862476,-1.2291133,-1.1798896,-1.7063569,-1.2012691,-1.8247232,-0.43125528,-0.2502155,-0.06567892,0.38444042,0.4360934,0.3712845,1.4164085,1.0799472,1.3498073,5.213775e-39,2.2602863e-38,-2.7892902e-38,2.9197701e-38,2.0908836e-38,2.973981e-38,2.4303507e-38,3.5753452e-38,4.667201e-39,-0.2913458,-0.7307161,-0.99848825,-0.84655875,-0.79616475,-0.8996629,-1.3650541,-1.2681289,-0.7913089,-0.8655484,-0.42249057,0.08008116,-0.74014306,0.08018531,-0.016149739,-0.5450239,-0.057441734,0.5214581,1.1773232,1.043899,0.33189827,0.9205332,0.6296233,1.2523546,1.0193853,0.89186925,1.7301276,0.1822168,-0.56665426,-0.5957716,-0.055150215,-0.36512408,-0.65634984,0.3344955,0.19143601,-0.900819,-8.32071e-40,-2.5034326e-38,-3.678083e-38,-1.0648094e-38,-3.618447e-39,-1.9588373e-38,-6.1093053e-37,-7.1480387e-37,-2.8767876e-38,0.61454463,-0.032485466,0.43280596,-0.07893511,-0.40314633,-0.33907223,-0.583272,-0.77680326,-1.5332623,-5.240813e-39,7.826249e-39,-5.256154e-39,-6.942288e-39,1.3184226e-38,-1.2804045e-38,2.8049186e-38,-1.4823148e-38,-1.7141277e-38,-0.6197799,-0.20155294,0.27992585,-1.5037733,-0.8325831,-0.23360652,-2.0113516,-1.2037891,-0.21442652,-0.63094485,-0.9193683,-0.42943424,-0.8585834,0.27755314,1.0737145,-1.2561144,-0.15342984,1.7330478,-8.679156e-39,8.093219e-39,-2.0028121e-38,2.8244415e-38,-1.5124881e-38,1.5152764e-38,2.503628e-38,-2.237481e-38,-6.345056e-39,2.6388621,2.201568,1.3483427,1.6936028,1.0932243,1.1951686,0.9435949,0.8017746,0.7171579,0.003089114,0.015420473,-0.110599495,-1.5060087,-0.5322437,-0.18433242,-1.515866,-0.79824024,-0.75735235,-0.7653684,-0.16994494,-0.5196301,-0.39963043,0.3906252,-0.19897538,-0.54074967,0.12673521,-0.6953374,0.055955607,-0.5201214,-0.5755186,0.22074795,-0.0013528733,0.18259491,0.128599,-0.18458745,-0.5075681,0.7215306,0.37004474,0.51529366,0.9024191,0.310134,0.37297654,1.5019076,1.0636207,0.8292499,-0.17124991,-1.0437126,-1.3795666,-0.91108024,-1.2707615,-1.7570591,-1.2222631,-2.0940664,-2.2488523,-0.77261317,-0.19099094,-0.13346036,-0.3877758,-0.20505916,-0.53403413,0.064565234,-0.7105683,-0.561208,1.6444005e-38,-2.921068e-39,1.0155225e-38,-4.460538e-39,3.0820203e-38,3.6825103e-38,-2.5297832e-38,1.3986415e-38,7.55006e-39,-0.8542243,-0.5348136,-0.8094494,-0.9128107,-0.7310265,-1.0785234,-0.9425751,-0.7988598,-1.358381,3.1315812e-38,7.116763e-37,2.1796043e-38,1.0040552e-38,-7.73136e-40,-2.4992593e-38,3.3885922e-38,2.1911947e-38,3.3117464e-38,3.470275e-39,-2.1668075e-38,7.241019e-39,-2.3585725e-38,-2.7571657e-38,-3.4172897e-38,3.743077e-39,-2.0650175e-38,3.3375325e-38,-0.15823373,0.5966143,0.37690008,0.04081505,-0.34093857,-0.24573204,-0.36506116,-0.4801543,-0.4305438,-1.4960426,-1.388036,-1.950934,-1.9694895,-1.4404104,-1.6577485,-2.4203124,-2.094429,-1.5703292,0.65492284,0.07907121,0.14649709,0.8398472,0.6579903,0.82331055,0.91747344,1.4505893,1.7368939,-4.4239993e-38,-6.116197e-37,1.4216145e-38,1.0834138e-38,-1.0910094e-38,1.94753e-38,-2.6825544e-38,-1.2507176e-38,2.5254162e-38,2.76482e-38,-3.574071e-38,-3.7815796e-38,3.908731e-39,-2.2468062e-38,-2.534646e-38,-1.9262757e-38,3.5396937e-38,-3.151455e-38,-0.59711504,-0.6535343,-0.65160435,-0.13339345,-0.2254997,-0.39149842,0.74243534,1.0155166,1.0274079,-2.760324e-39,2.05071e-39,2.6545663e-38,-3.8673612e-38,8.346324e-39,-3.113923e-38,-3.452984e-38,-3.877369e-39,1.7817066e-38,1.9801018,0.82292604,1.1509279,1.3099797,0.6310577,1.3549662,1.8876982,1.2746547,2.0192263,6.139102e-37,2.953424e-38,-7.715414e-37,-6.3027342e-37,7.288307e-39,2.0485106e-38,-1.2639484e-38,2.56449e-38,-4.677373e-39,-0.07360929,-0.31259745,-0.62710035,-0.4759578,-0.576364,-0.47492826,-0.36404982,-0.43629757,0.06168057,4.768723e-38,-1.5248156e-38,-1.8241272e-38,4.0202493e-38,-1.641969e-39,-2.049095e-39,-1.4938329e-38,-1.9690766e-38,2.3182106e-38,9.24575e-39,7.73707e-37,-1.6650639e-38,-1.3232869e-38,1.0549332e-38,-1.1781005e-38,-3.713102e-38,7.304726e-39,-2.452759e-38,6.96937e-39,3.907191e-39,4.323028e-39,2.892927e-38,-8.555866e-39,1.3012787e-38,-1.4226963e-38,1.4918017e-38,2.1110483e-38,-0.27682763,-0.4277281,0.4558274,-0.60981506,-0.41064608,0.3145053,-0.6473724,-0.23878603,-0.39097348,-1.0562766e-38,-8.379901e-39,3.6855786e-38,1.3283111e-38,1.2882141e-38,2.1842916e-38,7.075241e-39,-1.553749e-39,1.8179659e-38,-1.0155265,-0.83174783,-0.86231977,-0.6294309,-1.0112399,-0.58709157,-0.07187961,-0.07768008,-0.23582032,5.7372845e-37,-3.307984e-38,3.1978228e-38,-1.1186312e-38,6.0452487e-37,3.120797e-38,-2.5733812e-38,6.447339e-37,-4.4283094e-38,1.9329962,1.2324271,1.705072,1.1707383,0.42582622,1.50561,1.3963487,1.2103184,1.8339893,-0.74229795,-0.7925892,-0.03082806,-1.1152147,-0.7738928,-0.69195503,-1.4873666,-1.0669725,-1.1109415,0.55379856,0.846183,0.99296314,-0.07834014,0.48940775,0.7865462,1.405963,0.7132773,1.2685386,-1.2044473,-1.0575521,-1.2383814,-0.9183608,-1.0627401,-1.3708543,-0.57249606,-0.45379332,-0.5505207,-0.7112477,-0.71991974,-0.57015127,-0.637642,-0.5728741,-0.64538395,-0.013395749,-0.5432152,-0.6749279,-0.16036728,-0.29163,-0.16900739,-0.6378196,-0.6860694,-1.0568926,-0.6767817,-1.112365,-0.66522884,0.001883621,0.43923375,0.22476354,0.42721128,0.15312366,0.18437605,-0.089625776,-0.2262919,0.36887625,2.6252172e-38,-2.2899624e-38,-1.441258e-39,4.427175e-39,-2.3414962e-38,-3.4412496e-38,1.279749e-38,-3.2986703e-38,-1.359248e-38,-1.3357354,-1.6034881,-1.6629835,-1.0701817,-1.2944083,-1.3940479,-0.39633676,-0.7292115,-0.7202554,-0.155484,-0.17720294,-0.5709412,0.08829375,-0.14897808,-0.7990225,-0.52728564,-0.55133295,-0.9834487,1.1052815,-0.06671818,0.59761524,0.39447138,-0.731015,0.2710984,0.6827028,-0.5708296,-0.30746132,-1.3420306,-1.7072153,-1.261549,-1.1929821,-1.425871,-1.1149414,-0.86144334,-0.92452085,-0.82066345,1.0662193,1.2956127,1.2710097,1.0831629,1.2994848,0.5854398,0.06029328,0.41785342,-0.03445718,-1.32288,-0.5016361,-0.032350235,-0.72808117,-0.29248995,-0.24700797,-1.0077528,-0.98817956,-0.7536503,-0.841501,-0.9256978,-1.2252095,-1.2433167,-0.75080043,-1.3653702,-1.5722483,-1.2902904,-1.3128382,-1.105694,-1.1948493,-1.1632007,-0.8880861,-0.7980666,-0.9409538,-0.26176527,-0.59666324,-0.6162468,-3.238206e-39,1.9122173e-38,2.8395657e-38,-1.030473e-38,-4.601759e-39,3.59807e-40,1.494078e-38,-1.6295829e-38,-1.8826757e-38,-0.24089074,-0.4910351,-0.27681395,-0.44673017,-0.5690177,-0.3707352,-0.49326652,-0.56502813,-0.44015732,-0.19224685,-0.44161162,-0.5374353,-0.7258998,-0.84173393,-1.1179054,-0.14601889,-0.7793177,-0.65779734,0.51413935,1.0796064,1.0452949,0.26122868,0.2542063,-0.05933849,0.082633995,0.2878609,-0.459242,-0.10576166,-0.13309401,0.087561406,0.49199384,-0.057061598,-0.07077757,1.0972624,0.67852896,0.8361219,0.09972069,0.09079025,-0.22255452,0.4842091,0.32297513,0.86962354,1.1310753,0.5149235,1.4484617,-2.8685092e-38,1.5538526e-38,1.156096e-38,-1.3613578e-38,3.866786e-39,1.9086303e-38,3.0200224e-38,3.5843312e-38,2.7461983e-38,0.63237053,0.5847504,0.7092299,0.64215153,0.376241,0.6768914,1.2520015,0.7271251,0.6882104,-0.19388346,-0.21695787,-0.16975169,-0.57890505,-0.3608995,-0.66019464,-0.30640745,-0.10615133,-0.0017967295,-2.240513e-38,-2.613863e-39,-6.388123e-37,-5.0246366e-37,-1.101599e-38,2.8673913e-38,4.338062e-38,-3.0507722e-38,1.0715284e-38,-0.65464103,-1.0049185,-1.1301409,-0.42271626,-1.0062002,-1.192144,-0.04416562,-0.46420392,-1.0669186,1.0935596,0.5426996,0.30183762,0.45194358,0.8132306,0.44574443,-0.14371437,0.057682734,0.14880942,1.4195092,0.77352375,1.3521681,1.1218711,0.56153905,0.8660271,1.0812546,0.55372936,1.2958499,1.1466784,0.74963325,1.0510625,1.1248606,0.72833014,0.65862906,1.7578216,1.0382191,0.28667855,3.1452427e-37,-2.6473143e-38,-1.6668063e-38,-1.823381e-39,1.8446362e-38,-6.2049635e-37,-2.473253e-38,2.1955896e-38,-6.0583935e-37,0.08050771,0.34172082,0.6110796,-0.2702657,0.38975435,0.37881944,-0.114782706,0.36218908,0.13894889,1.7404222e-38,-2.787721e-38,-2.25781e-40,4.35237e-39,1.4362028e-38,2.4559014e-38,2.5401777e-38,-2.229802e-39,-3.603426e-38,0.8197163,0.847924,0.8901331,0.19615602,0.34360904,0.36810133,-0.1875059,0.08040126,0.13146038,-0.7551471,0.41901922,0.62663066,0.30572852,0.49008787,0.6409252,0.33709526,0.40686387,1.0624403,5.127165e-39,1.3547699e-38,1.3013368e-38,1.2309292e-38,-1.6092513e-38,1.673624e-38,-4.693544e-39,-1.746406e-38,-8.778855e-39,0.29931092,0.40931308,-0.26602456,0.33963114,0.29251367,0.27904528,1.0997597,1.0200155,0.6362929,0.5843154,1.1245908,1.5623316,-0.47732624,-0.048584018,-0.43022496,-1.1787547,-1.1226466,-1.420211,0.6213892,0.2755419,0.10942475,-0.082742095,-0.11076504,-0.031132717,-0.37770995,-0.2103842,-0.29774284,-0.60931724,0.10762315,0.08157162,-0.2424083,0.4887837,0.6344877,0.17650299,0.117650785,0.8721388,0.6125468,0.4442647,0.8428877,-0.073596604,-0.36791393,0.060645256,0.4552505,-0.07444493,0.13272741,0.71228504,0.6372706,0.87778425,0.32101575,0.51835215,0.98994255,0.3090606,0.46805066,0.9323645,0.1341986,0.47926432,-0.2928028,1.2381407,1.4856822,0.9507931,1.1812403,0.8868396,0.87952554,-5.491766e-39,1.7000987e-38,9.532445e-39,-2.528119e-39,-1.5921971e-38,-1.5928839e-38,3.5291082e-38,2.47925e-39,4.369981e-39,0.94709903,0.6479784,0.49056047,0.97247463,0.41886634,0.05566879,0.70295364,0.53673315,-0.41514084,6.1702884e-37,3.6280764e-38,-2.1406944e-38,5.8813846e-37,1.7129739e-38,-5.9820248e-37,3.791956e-37,7.5009906e-37,-1.6600457e-38,2.2137483e-38,-6.676436e-39,2.5749277e-38,1.0983096e-38,-8.364003e-39,-3.5372153e-38,-8.52332e-39,-1.8929331e-38,-1.84179e-38,-1.0189275,-0.65918094,-0.7269157,-0.9206957,-0.79596925,-1.0362166,-1.1016032,-0.7223165,-1.2491622,0.988125,0.5284827,1.4047889,0.736431,0.631962,1.1769007,0.6585699,0.8333794,0.46785852,-1.241201,-0.6265827,-0.8456993,-1.1372119,-0.5758237,-0.98014814,-0.3645567,0.06026506,-0.34301487,-5.5943467e-37,-3.602717e-39,7.505623e-37,-6.4966076e-37,7.67886e-39,5.630546e-37,-2.672378e-39,-7.0527217e-37,1.9349381e-38,-2.8487173e-38,2.9604372e-38,1.1262027e-38,-3.342423e-38,-1.1704078e-38,-3.416957e-38,-1.8977943e-38,-1.4907195e-38,8.350869e-39,0.76359814,0.4859225,0.71234673,0.8652996,0.8593106,1.2560669,1.2427382,1.376906,1.5966814,4.402726e-39,-3.5416995e-38,2.4534687e-38,-1.4453048e-38,-7.632982e-39,-8.729776e-39,-1.09389e-38,2.0286438e-38,2.3012643e-38,0.15839964,0.21862516,0.75133014,-0.039627653,0.156934,0.64932996,0.43015328,0.6252231,1.2949201,2.3017272e-38,3.9940434e-38,-1.5850111e-38,5.794699e-37,-4.661461e-39,1.7139416e-38,-1.12807e-40,5.976067e-37,-3.35154e-38,0.9316194,0.047910232,0.67208403,0.7361763,0.26046354,0.4190776,1.2675173,0.92740667,0.54783386,-1.7259241e-38,-3.577637e-39,2.642013e-38,-3.531774e-38,-2.489051e-38,-1.7810058e-38,-2.7008316e-38,4.6866228e-38,-5.426052e-39,-4.583056e-37,-2.9020017e-38,5.4090596e-37,-3.095674e-39,-1.0747756e-38,6.2213634e-37,-5.492071e-37,-2.376796e-39,7.4789263e-37,2.18824e-40,-1.7226242e-38,2.910616e-39,1.6383316e-38,-5.825591e-39,3.849325e-39,1.5195053e-38,2.667706e-38,-9.812473e-39,-0.56097096,0.08496828,-0.05133902,0.5229884,0.5410817,0.91001236,0.40883616,0.54407203,1.2986164,3.219542e-39,1.5598318e-38,-3.100704e-38,1.0593173e-38,-3.3176733e-38,1.34371e-38,-1.430724e-39,3.2458997e-38,1.4354005e-38,-0.049897734,-0.3019524,-0.12823422,-0.9428012,-0.73358554,-0.5777497,-1.58226,-0.99011487,-0.41166502,-2.8042328e-38,-2.759954e-38,1.5012595e-38,-4.9117897e-37,1.1135755e-38,-6.44768e-37,-1.0917187e-38,4.1612687e-38,-7.060616e-37,1.1900355,1.1578112,1.7281086,-0.59660435,0.20145045,-0.47002444,-0.44536418,0.13971801,-0.2404938,-0.34329122,-0.57663596,-0.33679605,-0.94299984,-0.5645381,-0.10699995,-0.79102206,-0.13968407,0.52797884,-1.0886265,-1.0739286,-1.1475364,-1.3356594,-1.0286144,-1.1501527,-1.0764868,-1.0380651,-0.8707359,0.5745942,0.40989262,0.4481028,0.45903367,0.4932786,0.8905921,-0.34324786,0.4590026,0.8709586,-0.56151867,-0.42184055,-0.35383606,-0.39272115,-0.27170077,-0.3354777,1.1384877,1.631723,1.4738958,0.1338294,0.37383872,0.47613794,0.46225226,0.35688806,0.9867158,0.9285137,0.9443103,0.96998566,-0.18040264,0.0257401,-0.05042136,-0.04113636,0.6175103,0.9154748,-0.84396476,-0.22442168,-0.14098427,1.888303e-37,8.015402e-39,-5.139701e-39,5.417236e-39,8.811844e-39,-5.847592e-39,-6.16193e-40,9.072085e-39,6.840977e-39,-0.0023217816,-0.00070310134,0.003218853,-0.0046943473,0.0013104103,-0.000509557,0.005042373,0.0014877247,-0.0071449922,-0.007502653,-0.009010924,-0.0030426423,0.00422791,-0.0011019616,0.005136653,0.0051510273,0.00028695635,0.002910777,-0.0023804717,-0.008574639,-0.00925841,-0.0018049699,-9.826357e-05,0.0024730507,0.00046948955,0.003162903,0.0018484247,0.01278084,0.011189605,0.015549335,0.009620585,0.008314635,0.011083745,0.010783415,0.0090620695,0.005784175,-0.0071619176,-0.0023681938,0.0029793775,-0.0019376924,-0.0071665146,-0.004631013,0.0042715347,-0.0028544685,-0.0061370633,-0.003268073,-0.006047149,-0.008112601,-0.007572683,-0.0054090936,-0.0045682346,-0.0028909268,-0.0033132061,-0.004943006,-0.015997972,-0.011757148,-0.008578845,-0.010893744,-0.010659325,0.0036563666,-0.0045825276,-0.008550435,0.0005407775,0.004763279,0.011610479,0.0061690663,0.00647697,0.0076218685,0.0028698226,0.01063676,0.0034785275,0.004676144,-5.555221e-39,4.336663e-39,-9.961035e-39,8.728119e-39,-9.341071e-39,-2.103405e-39,1.1017116e-38,1.573134e-39,4.306923e-39,0.009498019,0.0012521549,0.004848636,0.0055469177,0.0068914113,0.012789604,0.0065049706,0.014852655,0.015624295,0.011030599,0.005850248,0.001477219,0.0011892854,-0.00024333205,-0.0033060657,-0.0053450866,-0.0046335733,-0.008625931,-0.0052170926,-0.0063332436,-0.0047472175,-0.0019283385,-0.0011074925,-0.0016321535,0.000858051,-0.0037993556,-0.0021991169,0.0018069043,0.003908185,0.0035604392,0.0038503578,0.0009835004,-0.0005687371,-0.00854867,-0.010442605,-0.005959689,-0.003598345,-4.4836444e-05,0.001863772,0.00029426065,-0.0018076628,-0.0002983194,0.0058616735,0.0068643144,0.0028871149,-1.0491094e-38,1.033431e-39,-6.243068e-39,5.5675e-41,-4.250561e-39,5.355377e-39,5.5061e-40,7.811428e-39,8.138875e-39,0.012423589,0.0067705777,0.0014221994,0.009912278,0.010099723,0.0019098398,-0.0003700935,-0.0016164181,-0.0036700466,0.00024743335,0.0054843826,0.0050025526,8.0870865e-05,-0.0023878585,-0.0034874585,-0.0036055683,-0.002811812,-0.005789713,7.169891e-38,2.1691042e-37,-1.9611226e-37,-1.3252587e-38,-1.2218447e-38,2.194763e-39,-9.976227e-38,9.868758e-38,-1.7919322e-37,-0.0055305036,-0.005114494,-0.005378736,0.0036229028,-0.0038510119,-0.0016156805,0.005044409,0.006941126,0.00072545075,0.0008609639,-0.0025392568,-0.0073648593,-0.00027668857,-0.0014266326,0.0016283102,0.0093404865,0.017314263,0.019235602,-0.0050288257,-0.0046332236,-0.014954293,-0.0016396017,-0.00084258174,-0.0036351276,0.0030417184,-0.004430065,-0.0065205316,0.00033685908,0.0012956053,0.003948277,0.0021252097,0.0051564937,-0.0001777584,0.0033092601,0.0028731339,-0.0007917756,-2.3377243e-37,9.484488e-38,7.879907e-38,-1.1801516e-37,-6.489549e-39,-1.4310308e-37,2.2239095e-37,1.8810858e-37,-1.1843141e-37,-0.0021825163,-0.0005286789,-0.0038161604,-0.011015145,-0.007025769,-0.005214409,-0.008840461,-0.010335196,-0.012568274,4.212002e-39,-9.80477e-40,-1.39772e-39,2.296975e-39,-5.536696e-39,1.795554e-39,3.022332e-39,5.01829e-40,-8.31619e-40,0.00094902737,7.9307814e-05,0.0020390542,0.0041217776,0.00658404,0.0053780307,1.7912027e-05,0.0058705737,0.004244803,-0.005509656,-0.006052872,-0.005905663,-0.0077420264,-0.008944055,-0.004413962,-0.008810836,-0.0066580735,-0.0008214908,-2.789677e-39,-1.0308435e-38,9.07404e-39,-2.617372e-39,-5.275334e-39,6.269594e-39,4.701316e-39,-1.1042285e-38,6.03346e-40,0.0035653836,0.0013238452,0.0013464533,-0.0010506008,-0.00800162,-0.005683226,-0.0018656175,-0.0067452323,-0.0010199867,0.013291134,0.015267211,0.007961808,0.013763038,0.021101566,0.017838728,0.014817229,0.012874677,0.013147274,0.0020026814,0.0006511864,-0.0015480508,-0.002529511,-0.0010482325,0.004772353,-0.0018050272,0.0037890386,0.0015873509,0.005112135,0.00411492,0.0032631056,-0.004946881,-0.00998242,-0.0050973413,-0.005167122,-0.0051267636,-0.004893028,-0.0032901103,-0.0041911826,-0.012168757,-0.0074876985,-0.008131541,-0.003664854,-0.0075127864,-0.0061728535,0.001117456,0.0037492607,0.009641599,0.0010815952,0.0075263265,0.0032688356,-0.0060751415,0.012070023,0.012941992,0.0150328735,0.010875902,0.01124305,0.012791336,0.004075663,0.003709073,0.0028560762,0.003191087,0.0005363099,0.0050205365,-1.1038883e-38,8.250655e-39,1.011007e-39,-1.1173337e-38,1.0732137e-38,7.315267e-39,7.92008e-40,4.895003e-39,6.35315e-39,-0.0005761474,0.0029503938,0.0028157753,-0.00315204,-0.003235212,-0.0065927454,-0.005159345,-0.0047205784,-0.011972775,9.033804e-39,-1.2903487e-37,1.2897718e-37,2.1619107e-37,-1.073954e-39,-1.8853648e-37,-9.584091e-38,2.3772741e-37,-5.364983e-39,-5.567642e-39,-6.89163e-40,-6.566947e-39,2.951727e-39,6.17959e-39,-1.1300785e-38,1.0830049e-38,-5.06234e-40,-1.1615238e-38,-0.00457595,-0.0069567068,9.879657e-05,0.0021966607,-0.0041487226,-0.00055547204,-0.009121148,-0.008437895,-0.0066689374,0.002908045,0.0023901938,0.003480315,0.0061890297,0.011391101,0.001981546,0.007647869,0.012294503,0.0013973532,0.0050443164,0.005503458,-3.1013085e-05,-0.00013494513,0.0041671447,0.0012171669,-0.00616304,-0.005971553,-0.007969314,1.1423235e-38,6.1303047e-38,1.1517478e-37,-6.2356543e-38,-3.141104e-39,4.274826e-39,2.21548e-39,9.24131e-38,5.99784e-38,4.340476e-39,1.0285108e-38,9.48189e-39,-7.462171e-39,-4.511196e-39,6.075547e-39,4.703076e-39,1.962189e-39,7.84162e-40,0.012555173,0.008912784,0.005986984,0.009954951,0.0023438483,0.0009133977,-0.00081761717,0.0009614202,0.0046622725,3.6876e-40,6.342158e-39,-5.746586e-39,-2.484994e-39,-1.315e-41,-1.32623e-40,-3.08207e-40,-6.451344e-39,5.00965e-39,0.0059290165,0.009020633,0.004292327,-0.0012777973,-0.0032083904,-0.005263709,0.008679599,0.0059519233,0.0011030855,-1.9461222e-37,3.313802e-39,-1.1931622e-38,-1.5942183e-37,4.308162e-39,2.953312e-39,7.59387e-38,-3.385613e-39,-1.1755719e-37,0.0005970631,-0.0021910672,-0.0030879506,0.008107862,0.010364968,0.0130152935,0.017610863,0.019543981,0.019801399,1.3305234e-38,4.921164e-38,1.0922615e-37,8.419283e-39,-8.180164e-39,1.0080854e-38,5.5996055e-38,7.4336843e-38,4.8805006e-38,-2.30421e-40,-4.91016e-39,-5.69796e-38,1.3652663e-38,-7.65374e-39,-9.3347357e-38,1.493232e-39,2.28888e-39,-5.720801e-38,2.01129e-39,1.0601885e-38,6.904279e-39,3.288822e-39,-9.726913e-39,1.306505e-39,4.35099e-39,2.584874e-39,-3.046274e-39,0.011198153,0.0125341825,0.0066516474,-0.0024731222,0.0031336166,0.0041724658,-0.0037507345,0.0061295247,0.004954321,-7.257211e-39,-9.480537e-39,-2.138066e-39,4.733132e-39,-6.426464e-39,1.119626e-39,-1.921282e-39,7.899618e-39,1.558195e-39,0.008154416,0.0032682223,0.0008361992,0.0015927391,-0.0006276548,-0.0039337,-0.0019706355,-0.00012713892,-4.641494e-05,-4.715511e-39,-6.603888e-39,-2.2358937e-37,-1.5761767e-37,-2.0943565e-37,2.444757e-38,-1.8319089e-37,-1.8028297e-37,3.395006e-38,-0.005217667,-0.00067728397,-6.2076186e-05,-0.0018267838,-0.0050148866,-0.0028978577,-0.0012449614,-0.0022719572,-0.00923898,-0.0005454058,-0.0013703592,-0.00040608336,0.002832876,0.006869327,0.01120144,0.013526726,0.01111192,0.011386449,-0.008486098,0.00015018073,0.0034633132,-0.0065488177,-0.0028075785,-0.00074365776,-0.00022908713,-0.0045008995,-0.0029757675,0.0053260396,0.011910508,0.01272024,-0.0039586234,0.0012443885,0.0053317514,-0.012792118,-0.0077969637,-0.010102467,-0.00481159,-0.006317337,-0.0020610692,-0.0017575398,-0.004099369,-0.0027824498,-0.0038691652,0.001098029,-0.00076273433,0.0036641995,0.010033552,0.007855093,-0.007834417,-0.0026643744,-0.005752167,-0.013176079,-0.010717586,-0.015871191,-0.0035935503,-0.0061041736,-0.011370674,-0.001909759,-7.7881195e-05,-0.0070811203,0.0050918274,0.006201775,0.0042124284,3.110328e-38,-4.046414e-38,2.9383132e-38,-1.5585415e-38,8.078099e-39,2.0726111e-38,-2.1029942e-38,1.5637381e-38,-3.228227e-38,0.64334935,0.22930095,0.08483696,-0.03923041,-0.014968235,-0.20166175,-0.35379222,-0.1616512,-0.22330457,-0.060331903,0.013092512,-0.3805203,0.43206134,0.27031046,0.104192115,0.042816766,-0.0025312484,-0.1679021,0.46738392,0.32923344,0.90382427,0.4166167,0.30649224,0.83408546,-0.35384974,-0.23851478,-0.26206717,-0.19346957,-0.12431656,-0.08567986,-0.58431125,-0.26695672,-0.27252427,-0.74796516,-0.5661566,-0.6448707,-0.30046558,-0.28910902,-0.18761168,-0.45429447,-0.2795428,-0.26397228,0.026536021,-0.08632941,-0.042183425,-0.5600192,-0.47716904,-0.51137483,-0.5045707,-0.4035895,-0.03583306,-0.35796338,-0.1619979,0.21291222,0.39226454,0.19794126,0.2065537,0.11830705,0.01994192,0.051949006,-0.24310969,-0.32797003,-0.20538825,0.33412036,0.39097124,0.2707392,0.3574945,0.12765794,-0.03183493,0.3829171,0.25055256,0.11395512,3.1297696e-38,3.3651207e-38,-3.7347054e-38,2.8677954e-38,-2.9298547e-38,-5.63349e-39,1.3947516e-38,3.9211697e-38,-4.998937e-39,-0.18494034,0.0002490599,-0.18402256,-0.436504,-0.09294642,-0.33913997,-0.18118392,-0.13809645,-0.10350178,-0.6897246,-0.9548104,-0.73800766,-0.61982214,-1.2298737,-0.8125273,0.07310834,-0.27117345,-0.11098842,-0.1052226,-0.11090636,-0.12489529,-0.21321951,-0.11593631,0.03402559,-0.07463279,0.03890205,0.03642959,-0.14985843,-0.37034205,-0.3675355,-0.47461864,-0.2861912,-0.30065337,-0.4061252,-0.5020294,-0.4987436,0.826903,0.5731958,0.8875585,0.6565504,0.25464252,0.5231475,0.41121948,0.2784047,0.46087912,-1.0396694e-38,-3.3770562e-38,-2.8857864e-38,5.3618643e-37,-2.76521e-40,2.4458628e-38,4.0334625e-37,-6.332829e-37,4.066139e-37,-0.7501014,-0.38077417,-0.56004435,-0.36802825,-0.16754009,-0.17324704,-0.49692288,-0.47102532,-0.52521235,-0.6594325,-0.5275768,-0.5815196,-0.41066438,-0.54516965,-0.46075356,-0.048360944,-0.26212943,-0.22874528,-5.8340077e-37,-5.522783e-37,1.501476e-38,-3.697182e-39,-9.848508e-39,2.276248e-39,-3.3855061e-37,3.5520474e-37,-4.0277937e-37,-0.19385533,-0.24958088,-0.49162212,-0.17822066,-0.15924387,-0.6305973,-0.0037501506,0.11738355,-0.14041139,0.35890457,0.4369397,0.24887289,0.12675054,0.056717373,-0.2260008,0.11481202,-0.14154786,-0.55964404,0.1796049,0.036525704,0.07881555,0.00782727,0.14511201,0.06799187,0.268337,0.15243252,-0.01001868,-0.0053306753,-0.0054270998,0.408871,-0.050624777,-0.06030362,0.24271768,-0.20294093,0.28304568,0.23008904,-4.8732156e-37,-7.1361127e-37,7.15195e-40,4.333308e-37,-7.3575e-39,5.243244e-39,-2.57342e-38,2.679783e-37,1.372105e-39,-0.23052089,-0.276649,0.074125096,-0.21342106,-0.21622555,-0.33126074,-0.19792573,-0.12623724,-0.3180465,1.6425546e-38,1.263069e-38,2.6008004e-38,3.705823e-38,8.529318e-39,-5.870093e-39,2.6863253e-38,-3.6795522e-38,1.0449415e-38,0.40604156,0.27734077,0.3274859,-0.0836112,0.0063512144,0.35947347,-0.1892062,-0.095071696,0.035336256,0.27167085,0.24137418,0.3427026,-0.025445295,-0.06839265,0.20448203,0.017953537,0.17344405,0.020639665,2.1289978e-38,2.313722e-39,-3.9543174e-38,9.569928e-39,-9.848572e-39,-6.462734e-39,-1.19797e-39,2.63941e-38,-7.572164e-39,0.7322762,0.5912019,0.62653697,0.5257693,0.3712533,0.5860168,-0.123683944,0.080609314,0.112310916,0.1683236,0.19966753,0.47445408,0.015889803,0.05086042,0.25540483,0.14319426,0.12661035,0.31804928,-0.36334395,-0.336081,-0.71808636,-0.548069,-0.28269398,-0.24995248,-0.6617831,-0.61236227,-0.24818775,0.6698782,0.42835867,0.28460458,0.6047201,0.33558494,0.25485972,0.14238805,0.20692639,0.40484616,-0.3968152,-0.453212,-0.7120347,-0.47403812,-0.13295908,-0.63394856,-0.5434387,-0.22088394,-0.44192708,-0.7026325,-0.66454715,-0.54873574,-0.4142662,-0.48188156,-0.52861667,-0.13927943,-0.09118699,0.028595755,0.32663366,0.15947135,0.18385537,0.15152009,-0.11187528,0.050229676,0.4067683,0.15933177,0.21744415,-2.968672e-38,-3.1095415e-38,-2.1574397e-38,-3.0849067e-38,-2.079424e-38,8.046804e-37,7.259991e-37,1.8435742e-38,-3.1108605e-38,-0.29123816,-0.21977969,0.033929568,-0.32412407,-0.4842404,-0.28822106,-0.1914171,-0.43330175,-0.23732038,3.5306735e-38,-2.9532596e-37,-3.1520758e-37,5.186952e-37,-1.0143365e-38,-1.8349858e-38,-3.9804827e-37,-2.6269423e-37,-2.3318523e-37,4.0434145e-38,-3.6546055e-38,1.2978992e-38,-6.008073e-39,-2.9114652e-38,-2.0942546e-38,-7.833375e-39,4.197952e-39,4.059379e-38,-0.5691414,-0.39748213,-0.42685568,-0.3462426,-0.61741567,-0.6810544,-0.269217,-0.42376682,-0.37843883,-1.1452473,-1.1183236,-0.743832,-0.44183844,-0.54498047,-0.2345379,-0.038727872,-0.1417672,0.14321454,0.11193774,0.17013314,0.23266916,-0.18214406,-0.083154805,-0.2232599,0.09926479,-0.09996633,-0.19399755,6.4827775e-37,6.303004e-37,-2.4198707e-37,-1.8860161e-37,-2.7384048e-38,2.3363941e-37,5.420354e-39,1.4014439e-38,4.3390415e-37,-3.7656965e-38,-2.8653765e-38,-1.6046992e-38,1.0615717e-38,2.4366422e-38,7.576371e-37,-8.726628e-39,-2.2810645e-38,6.795755e-37,0.578866,0.42965665,0.51011753,0.60819244,0.04053917,0.47766298,0.45486146,0.52142894,0.74013686,3.34377e-38,-2.1368884e-38,-1.8082504e-38,3.99379e-39,-1.1185792e-38,1.6623982e-38,7.4028526e-37,3.3126682e-38,5.3606576e-37,0.28995967,0.33443454,0.5057789,0.34207588,0.3474375,0.57498795,0.3684172,0.3301613,0.016625902,2.541672e-37,-3.5028972e-38,-3.6710515e-37,8.0697635e-37,-1.393354e-38,-5.9761384e-37,2.3877554e-37,6.7635906e-37,-3.7411564e-38,-0.13856794,-0.2976487,-0.37518862,0.18280827,0.1130606,0.33155432,-0.24768414,-0.07863057,0.01740655,3.806237e-37,-3.1955833e-37,5.365387e-37,4.476113e-37,-5.124886e-39,7.542217e-37,-3.5976155e-38,1.3961493e-38,2.484607e-39,-2.4869732e-37,4.5244457e-37,-7.4525276e-37,2.8295798e-38,-1.6364012e-38,-3.5961295e-38,-5.560799e-37,2.2560114e-38,4.0318877e-37,-2.873703e-38,-3.9283348e-38,7.0187296e-37,3.6266058e-38,3.44633e-39,-1.1178201e-38,-7.513885e-37,9.7389e-39,-8.867519e-39,0.35508484,0.31802547,0.60167056,-0.0592345,-0.09567407,-0.10252857,-0.429536,-0.37939858,-0.4717253,-1.0425628e-38,-1.752638e-39,3.155395e-38,-6.1995197e-37,-2.6228378e-38,-2.4184004e-38,7.547025e-37,-6.4078164e-37,7.220791e-39,-0.33668962,-0.4593578,-0.66904444,-0.7624844,-0.6895676,-0.75227153,-0.8903617,-0.5371559,-0.78817856,6.943867e-39,3.542382e-37,1.5246811e-38,-5.3213495e-37,2.1420634e-37,-4.794688e-38,2.3505963e-37,7.544105e-37,-1.5831587e-38,1.0654333,0.8638716,0.9474621,-0.2530409,-0.18439603,-0.25260216,-0.412826,-0.17207511,-0.3548835,-0.532,-0.5077219,-0.15716112,-0.19209743,-0.2735978,-0.022074638,-0.11152091,-0.1120917,0.19897147,0.94460577,0.7555682,1.0823095,0.10141882,-0.05633851,0.1716907,-0.12298594,-0.32464072,-0.097992614,-0.04415599,-0.22159539,-0.16207367,-0.04684979,-0.31838983,-0.2185111,0.07330606,-0.07257922,0.21338871,-0.41946527,-0.3354866,-0.04381466,-0.5578241,-0.9045083,-0.2935599,-0.4286607,-0.45019814,-0.27786243,-0.10352544,-0.38979438,-0.37944716,-0.23287024,-0.31987533,-0.2884308,0.042979714,-0.12320834,-0.0656129,1.34347,1.2769297,1.5390689,1.0864482,0.5020499,0.9317312,0.9894459,0.68046683,0.91421574,-4.884088e-39,-1.8948864e-38,5.758497e-39,-9.960773e-39,-8.305696e-39,3.3238096e-38,-1.4633614e-38,-1.5739191e-38,8.169983e-39,-0.8083975,-0.8024246,-0.19271152,-0.47408712,-0.7699126,-0.21172278,-0.7853706,-1.1340864,-0.73877615,-0.31720084,-0.64284945,-0.45579842,-0.47090906,-0.5425313,-0.45084387,-0.28856245,-0.2368892,0.040596265,-0.22248322,-0.039551258,-0.095541455,-0.5413639,-0.61440736,-0.27149495,-0.93310744,-1.1810534,-0.8204172,-0.36755872,0.38491923,0.5830487,-0.21230772,0.76982445,0.9169748,0.5431153,0.30494076,0.9775208,-0.13311824,0.10758573,0.27048692,0.5131004,0.6258683,0.5813071,0.22841072,0.58407116,0.39360029,-0.09212625,-0.048595242,0.09175237,0.08723931,0.1352579,0.20319675,-0.18705162,-0.26406103,-0.1641084,0.19515075,-0.07634365,-0.46309212,0.06456595,-0.04709759,-0.63031113,-0.102987364,-0.06610898,-0.5124154,0.02500373,0.51445436,0.3975818,-0.24060318,0.060224097,0.34099984,-0.6159389,-0.29652143,0.82764876,-2.4822842e-38,-7.861119e-39,-1.4848828e-38,-2.988242e-39,4.482632e-39,-2.3916362e-38,1.865066e-38,-2.427264e-38,-3.6164285e-38,0.24113362,0.74708235,0.7268847,0.54426676,0.27957797,0.36820012,1.0117588,0.8301682,1.2037486,-0.27040726,-0.3604041,-0.049394175,-0.7801512,-0.23731335,-0.47408178,-0.2849505,-0.52391285,-0.42200148,0.25826883,0.06039517,-0.50767255,-0.0306384,0.35337487,-0.30279154,-1.0768914,-0.31665003,-0.33262178,-0.5740688,-0.6808935,-0.6625489,-1.3692654,-1.1794611,-1.1636214,-1.2134151,-1.576101,-0.8752132,-0.2781537,-0.2266977,-0.2909724,-0.44152945,-0.4067236,-0.16438204,-0.5673474,-0.51237994,-0.30016524,-3.506953e-39,-3.5038414e-38,-2.324694e-39,3.545432e-38,4.743352e-39,-7.759833e-39,1.1434422e-38,1.4873728e-38,-9.71564e-40,0.5772276,-0.06681052,0.31041867,1.4926487,0.5941228,0.68805164,1.3852649,0.78209704,0.45553392,0.5252968,0.116642,0.106244095,0.6346621,0.20019785,0.038384326,0.5109798,0.6354158,0.46364248,-2.763899e-38,-1.3377877e-38,7.414337e-37,2.217813e-38,2.1516132e-38,-3.456035e-39,2.606759e-38,3.440946e-39,-3.775155e-38,0.75613487,0.8906218,0.92647374,1.135542,0.62505245,0.42194533,1.0083466,1.1299542,0.9337265,0.74027336,0.7348198,1.1828673,0.65027297,0.83002394,1.0122637,0.715253,0.27401596,0.447291,0.08870641,0.12162205,0.15439552,0.05040016,0.15658355,0.6896879,0.08451757,-0.08532976,0.52802277,1.0338336,-0.3198473,-1.3187082,1.3388035,0.66170263,-0.42736375,1.7152684,1.0579854,0.32015246,-6.5196763e-37,4.0771687e-37,-4.797768e-37,5.6286617e-37,4.472209e-39,-1.73746e-38,3.0361578e-38,5.8374978e-37,-1.4414717e-38,-0.3044533,-0.24143557,0.033637114,-0.3047337,0.014744251,-0.29506037,0.03761139,0.026361315,-0.5837817,9.98893e-40,-2.0953093e-38,6.027671e-39,-2.5944164e-38,2.4797181e-38,9.9257e-41,-1.5493515e-38,-7.594927e-39,-7.525043e-39,0.2774902,0.06943006,-0.22809513,0.61535573,0.5261385,0.41918123,0.6480127,0.81135684,1.526937,-1.8540496,-1.2768043,-0.40553036,0.49399552,0.44449726,0.6182526,0.80555683,1.2598708,1.8122344,-2.2333121e-38,-1.994485e-38,-2.7066556e-38,-2.3624328e-38,-9.597262e-39,7.90345e-39,-2.4926527e-38,-2.8182525e-38,-1.3221171e-38,0.83370805,0.70609236,0.338932,0.5587182,0.5277726,0.40621382,1.7719043,1.0989649,0.74562114,-0.008922494,0.6012269,1.0765646,-0.010310977,0.22690816,0.022219347,0.072292216,-0.38969576,-0.5458538,0.39721587,0.15433094,0.21863672,0.77338237,-0.052708488,0.91304916,0.7330749,0.49816915,1.4724157,-1.1300874,-0.42671603,-0.77717626,-1.1832772,-0.39532927,-0.96037567,-1.2771872,-0.24933897,-0.9031008,0.81273353,0.89919215,0.6327019,1.4297799,1.1113644,0.8983136,0.54170346,0.4303267,0.7590338,-0.6164049,0.002170391,-0.07418631,0.8091413,0.71725214,0.15959823,1.1664122,0.6677046,0.36772692,0.501098,-0.39994365,0.09908716,-0.1240596,-0.50262713,-0.3163119,-0.24567617,-0.34073627,-0.5324122,-2.9079107e-38,1.69797e-40,7.342676e-39,1.9404132e-38,-3.3860673e-38,2.6946e-39,7.702132e-39,-1.6544192e-38,-1.9984035e-38,-0.98213863,-0.9832632,-1.1716582,-0.99627405,-1.1590419,-0.77833927,-0.74643683,-0.759518,-0.8617024,-7.4757547e-37,7.526891e-39,-4.971833e-37,-2.8148277e-38,-2.916137e-39,3.0071509e-37,-1.029093e-38,3.617647e-39,3.2504486e-38,3.2260584e-38,1.0177552e-38,4.238418e-39,6.005754e-39,-9.077553e-39,1.555626e-39,-2.617097e-39,3.0829399e-38,-9.257653e-39,0.2832958,-0.37873292,0.1618232,0.22806296,-0.31228483,0.17911623,0.5988501,-0.124741405,0.67068046,0.7393409,0.6847463,0.91455156,0.34087643,0.67619044,0.8423464,0.5524315,0.7928747,0.8092187,-0.24608621,0.18190263,0.20266302,0.14102277,-0.11920639,0.47614256,0.29658172,-0.12841485,0.5506039,4.3444322e-38,-5.028764e-37,-1.0884639e-38,2.8512928e-37,-1.2185762e-38,-4.3308423e-37,-3.4462582e-38,-6.593783e-37,-4.1702512e-37,9.058348e-39,-3.3984517e-38,-2.2683108e-38,1.0125322e-38,4.5074e-41,8.696314e-39,-6.6052e-41,-9.797924e-39,-3.228839e-38,-0.16571349,0.0025271757,-0.29217505,0.6399936,0.3960583,-0.11619796,0.809712,0.89903355,0.07379181,-1.9629769e-38,-1.9996201e-38,-1.1928948e-38,-2.2571311e-38,-1.2038762e-38,2.8075323e-38,-1.2919672e-38,8.724881e-39,1.067868e-39,0.82330203,0.15698451,0.65515125,0.8619671,0.58427787,0.48694235,0.85518926,0.29455844,0.77908766,-1.0603313e-38,2.3945495e-38,-4.687361e-37,1.3898064e-38,-4.20569e-39,2.7216986e-38,-3.5871313e-38,-7.4621408e-37,-3.5526638e-37,-0.046967607,0.076111,0.037960045,-0.45009974,-0.3540628,-0.4616609,-0.45744756,-0.2567395,-0.5871108,-2.231222e-39,-2.293597e-38,-1.5620103e-38,2.2907969e-38,1.870142e-39,2.2966238e-38,1.1191e-39,1.1021053e-38,1.0889007e-38,3.6777686e-37,3.73073e-38,-2.7767783e-38,2.998286e-37,-1.6960037e-38,3.071371e-38,-3.5639608e-38,4.0130158e-38,7.986766e-39,5.81692e-40,-2.56623e-38,-5.697112e-39,-1.2261625e-38,-1.0327877e-38,6.470982e-39,-1.5524558e-38,-1.8652331e-38,-1.244614e-39,0.30728987,0.84191704,0.70799285,0.18535234,0.29806325,0.74491507,1.0605268,0.15507402,0.38900337,-2.9919847e-38,6.831763e-39,9.171263e-39,-2.84432e-38,-1.1590651e-38,1.1336238e-38,-1.936551e-39,-1.3978908e-38,-8.247308e-39,-0.44747597,-0.42074332,-0.22547035,0.06610849,-0.11581797,-0.2327324,0.22682127,0.64500767,-0.032167412,7.486642e-37,1.1523854e-38,-6.665197e-37,6.640182e-39,-3.267972e-37,-1.4167521e-38,-7.33036e-39,-3.0361399e-38,-5.9896294e-37,1.5292976,0.9553019,1.4464972,0.9803444,0.750645,1.2478424,0.4374882,1.0960846,0.58768344,1.0732377,1.0803845,1.1069175,0.15916014,0.91593605,0.88600254,0.73761714,0.23022516,-0.56934583,-1.2750133,-1.7096158,-1.609193,-1.4297476,-1.616736,-1.9539512,-1.2829484,-0.9541878,-1.0227139,-1.0478029,-1.0785502,-0.7841204,-1.1129106,-1.0613236,-1.0322943,-1.182098,-0.8738232,-1.1794095,0.8585847,1.370186,0.58458805,0.9612239,1.009092,0.46749032,0.78297025,0.2993229,0.067799784,-1.308218,-1.4112217,-1.4529611,-1.0604607,-1.0046036,-0.6826754,-0.83882636,-0.9673693,-0.6174479,-0.12273758,-0.34989634,-0.49864477,-0.6870833,-0.79463565,-0.8016347,-1.10622,-0.692101,-0.6427983,0.0,0.0,-0.0,0.0,0.0,0.0,0.0,0.0,-0.0,0.0,-0.0,0.0,0.0,-0.0,-0.0,-0.0,-0.0,-0.0,0.0,0.0,0.0,-0.0,0.0,0.0,-0.0,0.0,-0.0,0.0,0.0,0.0,-0.0,0.0,-0.0,-0.0,-0.0,-0.0,-0.0,-0.0,-0.0,-0.0,0.0,0.0,-0.0,0.0,-0.0,0.0,-0.0,-0.0,-0.0,-0.0,-0.0,0.0,-0.0,-0.0,0.0,-0.0,-0.0,-0.0,-0.0,-0.0,0.0,-0.0,-0.0,0.0,-0.0,0.0,0.0,-0.0,-0.0,0.0,0.0,0.0,0.0,0.0,0.0,0.0,0.0,-0.0,-0.0,0.0,0.0,0.0,-0.0,-0.0,-0.0,-0.0,0.0,-0.0,0.0,0.0,0.0,-0.0,0.0,-0.0,-0.0,-0.0,-0.0,-0.0,0.0,-0.0,-0.0,-0.0,0.0,0.0,-0.0,-0.0,0.0,-0.0,0.0,0.0,0.0,-0.0,0.0,0.0,0.0,-0.0,0.0,0.0,-0.0,-0.0,0.0,-0.0,0.0,0.0,0.0,-0.0,0.0,0.0,-0.0,-0.0,0.0,-0.0,-0.0,0.0,0.0,-0.0,-0.0,-0.0,0.0,-0.0,-0.0,-0.0,-0.0,0.0,-0.0,0.0,-0.0,-0.0,0.0,-0.0,-0.0,0.0,-0.0,-0.0,-0.0,0.0,-0.0,0.0,-0.0,0.0,-0.0,0.0,0.0,0.0,0.0,0.0,-0.0,0.0,-0.0,0.0,0.0,-0.0,0.0,0.0,-0.0,-0.0,0.0,0.0,0.0,0.0,-0.0,0.0,0.0,-0.0,0.0,0.0,-0.0,-0.0,-0.0,-0.0,-0.0,-0.0,-0.0,-0.0,-0.0,0.0,0.0,0.0,-0.0,-0.0,0.0,-0.0,-0.0,0.0,-0.0,-0.0,0.0,0.0,-0.0,-0.0,-0.0,-0.0,-0.0,0.0,0.0,-0.0,-0.0,0.0,-0.0,-0.0,0.0,-0.0,-0.0,0.0,-0.0,0.0,-0.0,0.0,-0.0,-0.0,-0.0,0.0,-0.0,0.0,0.0,0.0,0.0,-0.0,-0.0,-0.0,-0.0,-0.0,0.0,-0.0,-0.0,-0.0,-0.0,0.0,-0.0,-0.0,-0.0,-0.0,-0.0,-0.0,-0.0,-0.0,-0.0,-0.0,0.0,0.0,0.0,0.0,-0.0,0.0,0.0,0.0,-0.0,0.0,-0.0,-0.0,-0.0,-0.0,0.0,0.0,-0.0,-0.0,-0.0,-0.0,0.0,0.0,-0.0,0.0,0.0,-0.0,-0.0,0.0,0.0,0.0,0.0,0.0,-0.0,-0.0,0.0,0.0,0.0,0.0,0.0,0.0,-0.0,-0.0,-0.0,-0.0,-0.0,-0.0,0.0,-0.0,0.0,0.0,-0.0,-0.0,-0.0,-0.0,0.0,0.0,-0.0,-0.0,0.0,-0.0,0.0,-0.0,-0.0,0.0,0.0,-0.0,0.0,-0.0,-0.0,0.0,0.0,-0.0,0.0,-0.0,-0.0,0.0,-0.0,0.0,-0.0,-0.0,0.0,0.0,0.0,-0.0,-0.0,0.0,-0.0,0.0,0.0,0.0,-0.0,-0.0,0.0,0.0,0.0,-0.0,-0.0,-0.0,-0.0,0.0,-0.0,0.0,0.0,-0.0,-0.0,0.0,0.0,0.0,0.0,0.0,0.0,0.0,0.0,0.0,-0.0,0.0,-0.0,-0.0,-0.0,-0.0,0.0,0.0,-0.0,0.0,-0.0,-0.0,-0.0,-0.0,-0.0,0.0,-0.0,-0.0,0.0,-0.0,0.0,-0.0,-0.0,-0.0,0.0,0.0,0.0,-0.0,-0.0,-0.0,-0.0,0.0,-0.0,0.0,0.0,0.0,0.0,-0.0,0.0,0.0,-0.0,0.0,0.0,-0.0,-0.0,-0.0,-0.0,-0.0,-0.0,0.0,0.0,-0.0,0.0,-0.0,0.0,0.0,-0.0,-0.0,0.0,-0.0,-0.0,0.0,0.0,0.0,-0.0,-0.0,0.0,-0.0,0.0,0.0,-0.0,-0.0,0.0,0.0,-0.0,0.0,0.0,0.0,-0.0,-0.0,0.0,0.0,0.0,0.0,0.0,0.0,-0.0,0.0,0.0,-0.0,-0.0,-0.0,-0.0,0.0,0.0,0.0,0.0,-0.0,0.0,-0.0,0.0,0.0,0.0,0.0,-0.0,-0.0,-0.0,0.0,-0.0,-0.0,-0.0,-0.0,-0.0,-0.0,0.0,0.0,0.0,0.0,-0.0,-0.0,-0.0,-0.0,0.0,-0.0,-0.0,0.0,-0.0,-0.0,-0.0,0.0,-0.0,-0.0,-0.0,-0.0,0.0,-0.0,0.0,-0.0,-0.0,-0.0,0.0,0.0,0.0,0.0,0.0,-0.0,-0.0,0.0,-0.0,-0.0,-0.0,0.0,0.0,-0.0,-0.0,0.0,-0.0,0.0,0.0,0.0,0.0,0.0,-0.0,-0.0,0.0,0.0,-0.0,0.0,-0.0,0.0,-0.0,-0.0,0.0,0.0,-0.0,0.0,0.0,0.0,0.0,-0.0,-0.0,-0.0,0.0,-0.0,0.0,-0.0,0.0,-0.0,0.0,0.0,-0.0,0.0,0.0,-0.0,0.0,-0.0,0.0,-0.0,-0.0,-0.0,-0.0,0.0,-0.0,-0.0,-2.843034e-38,-3.2892068e-38,-3.933951e-38,2.7961927e-38,1.561049e-39,-2.325791e-39,4.366672e-39,3.8538527e-38,3.79061e-39,0.64291924,0.37794313,0.5044849,0.5262444,0.4835963,0.650504,0.530713,0.28836873,0.2551522,0.25504026,0.2188726,-0.14342964,0.3637604,0.34018838,0.22138928,0.38478822,0.14798994,0.04293474,-1.0488534,-0.5954494,-1.0824845,-1.7165127,-0.9546871,-1.343545,-1.6777117,-1.4914101,-1.3470796,-0.27221444,-0.54890025,-0.12523864,-0.5399883,-0.5886075,-0.30325958,-0.5837421,-0.39928743,-0.16079721,0.24672687,0.3615387,0.3032431,0.21995918,0.12148643,0.08240999,0.4694682,-0.017361488,0.04781652,0.0963798,0.05118471,0.0002883069,-0.1591482,-0.08532796,-0.28207052,-0.6478906,-0.4011684,-0.2255574,-0.277041,-0.34998396,-0.3786357,-0.20612839,-0.2188115,-0.21984085,-0.5450475,-0.5389225,-0.4352995,0.0009558405,0.0074274265,-0.03311505,-0.084068716,-0.17690817,-0.2690252,0.24671473,0.08723812,-0.1447411,2.55314e-39,2.5295878e-38,6.89437e-39,1.139449e-39,-3.182202e-39,1.770244e-38,-2.2834195e-38,2.3167237e-38,1.343739e-38,-0.043060664,-0.039279316,0.18481094,-0.09506039,-0.102637,0.079702884,-0.26848662,0.061578985,0.15579328,-0.5616252,-1.8636206,-0.3781335,-1.5324383,-3.5589464,-1.7724144,0.5806295,-1.1097121,-1.291791e-05,-0.38300568,-0.026093006,-0.38939148,-0.2075146,-0.2591055,-0.15271538,0.085090734,-0.31265137,0.0641604,0.3053943,0.403148,-0.014738146,0.46975538,0.20608431,0.19592772,0.32101867,0.09073822,0.44583508,-0.7953512,-0.5272968,-0.40362167,-0.47603458,-0.4725838,-0.4415548,-0.5918191,-0.39535505,-0.3498781,-2.741332e-39,-1.0232433e-38,2.7073411e-38,3.1774984e-38,-2.1052719e-38,-2.1887125e-38,-3.4317682e-38,1.4350564e-38,1.3347952e-38,-0.42912653,-0.3150404,-0.31586975,-0.28826284,-0.35393372,-0.26464042,-0.44176626,-0.5926426,-0.3895554,-0.5675205,-0.91201115,-0.6094089,-0.64356005,-0.94231945,-0.78919274,-0.8162817,-0.99978215,-0.80989486,7.041125e-39,-3.5737923e-38,3.1722258e-38,4.3255295e-38,-5.466638e-39,8.23232e-40,6.5783622e-37,8.156366e-37,-2.2892637e-38,0.5249921,0.45584247,0.31948256,-0.0034109466,0.20386635,0.0044232015,-0.9908781,-0.30690533,0.069883086,-0.52526003,-0.3891137,-0.5265185,-0.2588833,-0.1968272,-0.40397877,-0.27475628,-0.14590453,-0.20980899,0.33604157,0.18403511,0.38450217,0.2731694,0.30281833,0.3707813,0.18693735,0.18179724,0.23055017,0.044962227,0.11266989,0.60939837,-0.3572874,-0.35198182,0.2601978,0.31138018,0.09565058,0.27841774,-3.1965867e-37,6.8704323e-37,-3.7808517e-37,2.4342292e-38,3.6782428e-38,-4.919305e-37,-2.9493723e-38,-1.0211552e-38,-2.0987583e-38,0.23107408,0.001893282,0.53346306,0.03352873,-0.037592433,0.26128283,0.18822569,-0.047480986,0.06456605,-3.4769693e-38,-3.528697e-38,-2.530399e-38,5.789093e-39,1.6840882e-38,-1.8650715e-38,-1.8812684e-38,1.4504276e-38,3.3090197e-38,0.6100603,0.2624985,-0.13398552,0.44723633,0.3091586,0.09183077,0.3731644,0.7055637,0.74921036,1.0456713,1.516346,1.4952743,1.5454971,1.1739205,0.96447074,2.083492,1.6730652,1.8312496,-3.4619874e-38,4.272087e-39,-1.9947736e-38,1.0144103e-38,1.1759652e-38,-1.0764467e-38,8.865602e-39,-1.6090246e-38,-7.308071e-39,0.53710616,0.41122466,0.41250855,0.44084144,0.15964152,0.15225257,0.5412393,0.28703636,0.5750331,0.9466674,0.6907824,0.8267031,0.58980006,0.6048833,0.44735283,-0.043324012,-0.05960919,-0.24498405,0.38479468,0.20482703,0.23848392,-0.5554106,-0.95514786,-0.24501038,-0.5301599,-0.8244454,-0.6341429,0.60429114,0.6936365,0.85330963,0.18250312,0.24216132,0.6114031,0.19562271,0.306712,0.49048805,-0.9506276,-0.52592325,-0.37474003,-0.7130448,-0.25759625,-0.7044268,-0.97700375,-0.56192,-0.9851886,-0.46408865,-0.16084988,-0.05255418,-0.4371666,-0.33203363,-0.18679121,-0.6407824,-0.2745613,-0.1640499,-0.30368456,-0.50709325,-0.32717803,-0.59979886,-0.5666456,-0.503734,-0.95612544,-0.53227615,-0.02191348,3.946822e-38,2.516958e-38,-3.9419126e-38,-3.519395e-38,7.87479e-40,2.571844e-38,-1.5807045e-38,-3.425152e-38,3.8397374e-38,-0.15445514,-0.30294353,0.032024894,-0.2832327,-0.36947894,-0.006121743,-0.34984484,-0.041241586,0.64242965,4.82642e-39,-7.781305e-39,-3.3871976e-38,4.1210354e-37,-1.39377e-39,-1.56087e-39,2.7764254e-38,-6.8982027e-37,-4.593614e-37,1.1437685e-38,-1.5141562e-38,-4.69276e-39,2.488542e-39,1.117297e-39,-2.98699e-39,-1.7879573e-38,-2.3382485e-38,3.4158533e-38,-1.0400405,-1.2279123,-1.1266531,-0.5891121,-0.6593544,-0.7264676,-0.5774535,-0.48411608,-0.69588184,-0.49318478,0.07162374,-0.029329013,-0.13205005,0.024392799,-0.07270873,-0.059995286,0.052272342,-0.36897382,1.2806095,1.459602,1.7210885,0.5052307,0.34708992,1.0591394,1.0414478,0.95349944,1.5880979,-1.5796148e-38,7.539927e-37,4.5618924e-38,7.5132714e-37,-1.4501343e-38,-5.961899e-37,6.925134e-37,6.5214063e-37,7.325694e-39,3.5212175e-38,2.5531647e-38,-2.5528668e-38,-3.5367075e-38,2.1598842e-38,2.4917556e-38,1.104332e-38,-7.256698e-39,-7.071356e-39,1.4927131,1.1481792,0.9396551,1.459455,0.7022018,1.0798111,1.0271821,0.6838679,1.1402183,2.4619385e-38,-2.1557178e-38,1.4226401e-38,-2.000406e-38,-6.9809e-40,1.7674831e-38,1.9885564e-38,-2.5685097e-38,-6.478014e-39,0.15400234,0.13747294,0.044377778,-0.14865641,-0.089548126,0.18510064,0.09269544,-0.06208272,0.22896369,5.3446613e-37,-1.6516228e-38,-8.096335e-37,1.5290061e-38,-8.185429e-39,-3.0648466e-38,4.0062894e-37,-4.0581505e-37,-3.202169e-37,-0.2648284,0.06587719,-0.42470488,-0.41499788,-0.19019537,-0.738734,-0.27664986,-0.29424548,-0.6417259,-7.710485e-37,1.6693018e-38,2.1507499e-38,1.6739424e-38,3.2459537e-38,-3.1827628e-38,4.8689163e-38,3.1047003e-38,4.25129e-38,6.496935e-37,7.854067e-37,4.1326167e-38,4.0579863e-38,1.2350877e-38,-3.21152e-40,4.8846157e-37,-3.916733e-38,-4.145705e-37,1.9307044e-38,1.9184086e-38,-8.526534e-39,3.176653e-38,-2.75386e-38,-3.670356e-38,7.549347e-39,-3.705136e-38,-2.661922e-38,-0.86174303,-0.38373247,-0.26412657,-0.46501207,-0.22324213,0.0012915032,-1.0300335,-0.92020774,-0.45694196,-1.3281627e-38,8.69441e-40,1.7778391e-38,7.351414e-39,3.5097995e-38,1.6862463e-38,-2.231555e-38,4.0492363e-38,2.721256e-38,0.4254,0.47295296,0.24950258,0.40545776,0.13683951,0.29590532,0.11487348,-0.044949267,0.23133054,-5.07983e-38,7.4456575e-37,-4.9567464e-38,5.0417833e-38,-6.8772392e-37,3.5092866e-38,-9.94643e-39,-7.2344e-39,-1.3186097e-38,0.10335144,0.16708907,0.47443464,-0.15847507,-0.09612367,0.10120197,-0.061272815,0.42099258,0.5628947,0.287621,0.54411656,1.111185,0.3070164,0.20302123,0.4133103,0.06529428,-0.22739343,-0.39869648,0.50134015,-0.056398313,0.16724002,0.10920836,-0.104000635,0.17098513,0.05862383,-0.0724945,-0.15351376,0.24439687,0.20438083,0.6822875,-0.17902628,-0.28511816,0.1656039,-0.24429314,-0.18614042,0.14645416,0.5681049,1.0193033,0.36588982,0.7746864,1.0344145,0.8019044,1.0784118,1.0928441,1.2869685,0.021795547,-0.23821548,-0.15591879,0.13035661,-0.47961998,-0.36384088,0.6539225,0.18977296,0.21136333,-0.95626277,-1.1355032,-1.0669914,-1.4008111,-1.7127755,-1.2190472,-1.2149909,-1.2234056,-0.7950196,-2.9596e-40,5.1868e-40,-2.89256e-40,8.91146e-40,4.90405e-40,3.95456e-40,3.32204e-40,1.27424e-40,4.4249e-41,0.00029015602,0.00032724746,0.000325016,0.00019096283,0.0001735722,0.00032946767,0.00013262146,7.993751e-05,0.00030220926,0.00022735138,0.0002098265,0.00026324298,0.00044832664,0.000352809,0.00036682768,0.0004022631,0.00034860044,0.00034945674,-0.00011986897,-0.00020015464,-0.0001913361,-0.00017295465,-0.00022560942,-0.00024957288,-9.311133e-05,-2.5259273e-05,-0.00015666809,0.00015535254,0.00014606856,0.00026825073,-0.00013622433,-0.0002374965,-4.7149784e-05,5.247487e-05,6.6816715e-06,0.00022039033,8.325848e-05,0.00018547362,0.000118234544,-4.7653113e-05,-2.0663645e-06,7.0636044e-05,-2.585101e-05,1.882192e-05,-2.951094e-05,-4.860651e-05,-1.7319477e-05,-0.00011431261,-0.00013812156,-0.00010330789,-0.0001426249,-4.418825e-05,-2.7081194e-06,-0.00013010696,7.81647e-05,0.000111099405,0.00015183806,-0.00013278682,-1.7891678e-06,0.00014700653,-2.6875403e-05,9.485172e-05,0.00016736491,-1.1375516e-06,0.00016563255,0.00017569483,-0.00022459966,2.3234454e-05,0.00012874293,-0.0001464783,2.9582208e-05,0.00020005292,1.3837e-40,4.54131e-40,-3.36058e-40,2.6884e-41,1.49904e-40,1.070455e-39,3.58748e-40,-2.6914e-40,-4.49286e-40,9.220973e-05,4.551739e-05,8.8092704e-05,3.0517986e-05,1.7714749e-05,-6.028447e-08,5.0147286e-05,2.3902996e-05,9.938562e-07,7.913277e-05,-0.000103472135,-0.00014666072,-3.7583868e-06,-0.00020007722,-0.00020267896,7.458233e-05,-0.00010362794,-0.000113656126,9.1934606e-05,-8.230587e-05,-0.0002042455,4.851405e-06,-0.00020266457,-0.00033314756,2.4045941e-05,-9.497896e-05,-0.00029829843,0.000111500805,-6.884443e-05,4.4455086e-05,0.00013248324,-0.00012717563,-0.00010792845,0.00020452416,-6.686547e-05,-0.0001475764,-0.00036741674,-0.00032451111,-0.00037341355,-0.00037734935,-0.00030558585,-0.0003272144,-0.0004159025,-0.00036684243,-0.00037718838,-4.9281e-41,4.63698e-40,1.00694e-39,-9.50698e-40,-9.73855e-40,-3.543e-41,-2.23259e-40,-6.26074e-40,-9.40787e-40,-1.1254738e-06,-9.222876e-05,-5.9113834e-05,-9.134582e-06,-0.00010449843,-2.9289336e-05,7.799776e-05,-1.5182115e-05,-6.2776235e-05,0.00010801465,0.00021418586,0.00016224304,0.00017851507,0.00017743172,0.00026830303,0.00029718707,0.00019869053,0.00025090916,-1.4477382e-38,-1.255598e-39,-8.12812e-40,-1.1226633e-38,-7.83477e-40,2.137836e-39,-1.7162963e-38,-5.758942e-39,-5.398331e-39,-0.00022328588,-0.00021093489,-0.00025002664,-0.0001577168,-0.0001603484,-0.0002742812,-0.00015299486,-0.00024150679,-0.0002838326,-0.00021144128,-0.00040649655,-0.0002359349,-0.00029985336,-0.00035990324,-0.00021418589,-0.00042201704,-0.00039370076,-0.00029821848,0.00020980679,0.0002652411,0.00015925312,0.00014094298,9.903423e-05,1.958929e-05,8.573403e-05,0.00010403981,4.926656e-06,5.2912117e-05,0.00020895491,0.00025391165,4.610918e-05,0.00021829462,0.00017374712,-9.260008e-05,9.18384e-05,0.00016330747,4.79764e-40,6.513352e-39,9.94241e-40,7.32893e-39,-6.61086e-40,-1.7425588e-38,1.4348306e-38,-1.057256e-39,1.02965e-39,4.3081607e-05,5.7135927e-05,0.0001830949,-1.0460497e-05,0.00016233193,0.00042700896,-9.501895e-05,0.00012979226,0.00033216793,3.44565e-40,1.965e-40,-4.51905e-40,-7.31391e-40,-4.74917e-40,6.96119e-40,4.61593e-40,-4.50969e-40,-5.03765e-40,-4.334568e-05,-7.4116266e-05,-0.00015616919,-4.1107192e-05,2.1215437e-05,-0.00011601568,1.3936693e-05,0.00015520977,0.00013898875,-0.00028469064,-0.0003236614,-0.000430951,-0.0002720884,-0.00034170778,-0.0004354955,-0.00025092132,-0.00032765762,-0.00036591064,-4.84006e-40,5.42281e-40,-4.74987e-40,6.07359e-40,-2.44527e-40,-6.77734e-40,-1.36922e-40,1.46077e-40,-4.16288e-40,-0.00027949322,-6.836427e-05,-0.000109172644,-0.00022487929,-0.00010466854,-0.00016354001,-7.135643e-05,4.9590897e-05,-1.4793804e-05,9.669114e-05,0.00019274309,0.00014920773,0.00019221607,0.0002019557,0.00029512306,0.00025258973,0.00036572068,0.00049383397,0.0005222655,0.00061371137,0.0004275398,0.000528967,0.0006416152,0.0005013435,0.0003760745,0.00050938874,0.00036493843,-0.00028947994,-0.00023113741,-0.00010968857,-0.00032770095,-0.000301737,-0.0002752825,-0.00033814705,-0.00036652706,-0.00023399534,0.00010069789,-6.622342e-05,0.00014706099,-0.0002695891,-0.00045841592,-0.00032671387,-0.00040325426,-0.000537924,-0.00049858296,-9.157641e-05,-0.00018961832,-0.00021277188,-6.970259e-05,-0.00022868715,-0.0002084764,-0.00019137778,-0.00027102337,-0.00030132153,0.00028897825,0.00043734623,0.00032148758,0.00018022364,0.00046196923,0.00045174258,1.4509131e-06,0.00020285185,7.364278e-05,1.04084e-40,-3.19454e-40,-4.19084e-40,1.9828e-40,-1.95708e-40,-6.03116e-40,-9.45183e-40,-4.07697e-40,-5.4963e-41,-0.000103114086,-4.3657215e-05,-0.00014075241,-0.00014544545,-8.407508e-05,-0.00013815948,-0.00019339238,-0.000108488544,-0.00014051501,-1.5690068e-38,-1.1189403e-38,-1.7269961e-38,1.0623221e-38,2.7742e-41,-1.6714778e-38,1.74956e-40,-9.83874e-40,-9.66264e-40,-5.23824e-40,-6.65905e-40,-4.48585e-40,-7.46776e-40,-1.508e-40,-3.83594e-40,-1.38608e-40,5.55339e-40,-9.37109e-40,-0.00016524864,-0.00018608579,-0.0002096573,-0.00015644034,-6.504974e-05,-0.00015258763,-0.00020557464,-0.00020463423,-0.00022718731,-4.3545355e-05,-0.00016052437,-4.6965335e-05,-0.00017611192,-0.00034626434,-0.00030050718,-6.7163695e-05,-0.00016926459,-0.00011345272,3.3029708e-05,-2.5270747e-05,5.6080346e-05,-3.401943e-06,-0.00024522378,-0.0001563433,0.00018781704,-2.3614026e-05,3.7491343e-05,3.48284e-40,-4.28488e-40,-9.01209e-40,-9.29941e-40,5.08512e-40,2.3875e-40,1.76456e-40,1.4161e-40,3.9914e-40,-8.7859e-41,-7.49232e-40,-3.26522e-40,-4.93257e-40,7.4656e-40,-2.4968e-41,6.18563e-40,2.92472e-40,-3.92494e-40,-0.00013577536,-0.00014170405,-0.00022950348,-0.00012877969,-0.00012561884,-0.00024934212,-6.817145e-05,1.1797667e-05,-0.00022690323,-8.4877e-41,1.00746e-40,5.30365e-40,-8.42428e-40,-3.07406e-40,-2.39943e-40,4.02037e-40,2.3077e-40,-3.57425e-40,0.00032391684,0.00021850166,-4.94369e-05,0.0002906345,0.00024514878,0.00012787664,0.00014555272,0.00013447969,8.033646e-05,-8.95074e-40,-4.41176e-40,7.62773e-40,-8.47571e-40,-1.137185e-39,-4.6146e-40,-5.05069e-40,-7.37666e-40,1.603e-40,0.00023478025,0.00017737848,0.00031056147,-1.9058696e-05,-9.539974e-05,1.2537338e-05,7.6403114e-05,4.2419193e-05,6.150673e-05,1.1348644e-38,-5.503055e-39,-1.0009902e-38,1.6794778e-38,5.56537e-40,-8.855932e-39,1.8488754e-38,8.362547e-39,-4.000647e-39,7.2131e-40,1.55508e-40,-6.0871e-40,-7.58837e-40,1.164207e-39,1.082765e-39,-7.9375e-41,9.80784e-40,1.137071e-39,1.09334e-40,-6.99092e-40,-4.93624e-40,-6.48986e-40,4.1263e-41,-8.36488e-40,5.94975e-40,1.57035e-40,-9.69425e-40,0.00014630902,0.00015510802,0.00026862536,8.208468e-05,9.943327e-06,3.2247493e-07,-1.06440375e-05,1.6766187e-05,-0.00013246562,4.93026e-40,-3.29272e-40,8.04268e-40,4.66648e-40,5.3262e-41,1.6517e-40,2.20201e-40,-1.044351e-39,-6.78772e-40,0.00020178588,0.00019056711,0.00019409746,6.033279e-05,4.9272454e-05,0.00015138867,-4.3058835e-06,-6.483814e-05,3.885303e-06,4.44882e-39,-1.9722061e-38,1.4542499e-38,1.3341017e-38,1.0103005e-38,1.2561213e-38,-1.0638836e-38,1.045804e-39,2.0878834e-38,-0.0001422642,-5.6442254e-06,-8.297146e-05,1.1956845e-05,0.00011735675,7.349464e-05,-0.00012075715,2.0666144e-05,0.00013889534,2.8789564e-05,1.7175234e-05,0.0002799197,-0.000133464,-0.00015249141,3.1008633e-05,-0.00014793703,-0.00020380503,7.5086326e-05,-0.00013923625,-0.0005196698,-8.149638e-06,-0.00027284274,-0.0006028042,-0.00014297524,-0.00027388113,-0.00069431326,-0.0004408797,3.7299055e-06,6.504012e-05,-3.3604992e-05,-5.257918e-05,2.8111583e-05,-0.0002027049,-2.3667551e-05,-9.5213494e-05,-0.00023636677,0.0001411749,0.00035190646,0.00024006111,0.00025111815,0.00038967704,0.00029097378,0.0002291555,0.00027489447,0.00022858866,-0.000128631,-0.00028578268,-0.00034548552,-0.00029931206,-0.00033032618,-0.00046952773,-0.00036687593,-0.00050720543,-0.00039378862,0.0001764947,3.7992733e-05,0.00016165046,-6.051574e-05,-0.00020707415,-2.392283e-05,6.9923124e-05,-6.5106746e-05,3.901725e-05,-6.813259e-39,-1.990759e-38,3.6361725e-38,-1.1293395e-38,-1.6535343e-38,1.5189974e-38,-2.6094672e-38,-2.4174173e-38,-1.6834508e-38,0.34321386,0.24260488,0.17742603,0.535861,0.44666106,0.22024275,0.5475086,0.38254854,0.047465213,-0.60767365,-0.6416874,-0.74891204,-0.6651205,-0.60261875,-0.62783724,-0.61451393,-0.23655762,-0.3665944,1.0439804,0.54009783,0.89073414,0.6283757,0.43255416,0.8383582,0.8605426,0.84872043,1.1594975,-0.008004589,-0.104394935,-0.15750386,-0.21576545,-0.40841916,-0.265789,-0.41418633,-0.4262558,-0.40072113,-0.5348695,-0.45231593,-0.34601328,-0.7011289,-0.48998356,-0.34559634,-0.49795592,-0.40359,-0.41977802,0.20770712,-0.1208392,0.008355121,0.18507974,-0.021650558,0.017393045,0.39514202,0.22639336,0.13035642,0.09383232,0.2895025,0.16732489,0.35393423,0.13606767,-0.021969682,0.5216155,0.11751336,-0.20442925,-0.27842072,-0.5515538,-0.42594787,-0.2577689,-0.44492593,-0.53802395,-0.46985006,-0.48338518,-0.5102352,-5.97196e-40,2.9077072e-38,-3.678384e-38,1.4618941e-38,-3.9069e-40,2.5828052e-38,-2.2425917e-38,-7.45126e-40,2.3163706e-38,-0.5580293,-0.51843846,-0.5460187,-0.7302637,-0.5673899,-0.4931,-1.1536331,-0.90598667,-0.8242962,0.056401428,-0.54634446,-0.021502972,-0.7978485,-1.316228,-0.49446124,-0.4181633,-1.1376384,-0.2790762,-0.4335207,-0.16766687,-0.059581786,0.17467768,0.11522559,0.20389836,0.17037654,0.08359763,0.13514468,0.244774,0.29926488,0.28431147,1.0404143,1.0014639,0.6771246,1.0855689,0.8065165,1.2145387,0.975535,0.46390295,0.6602927,0.69254893,0.21503417,0.5213945,0.6796722,0.45720795,0.6128209,1.3111712e-38,-2.5776182e-38,3.4569e-41,-1.434247e-38,1.9467476e-38,-3.0752237e-38,-2.0737729e-38,-3.971808e-39,1.125093e-39,0.22040932,0.30893815,0.110384636,0.6343514,0.5765248,0.49440745,0.6685798,0.6211114,0.58327705,0.3393699,0.27928418,0.23268977,-0.23995376,-0.11614219,-0.044785354,-0.57614315,-0.23132183,-0.21075512,-1.9277088e-38,-6.075398e-37,-4.2467118e-38,7.6357126e-37,2.701443e-39,3.5540578e-38,4.047421e-37,-3.4896048e-38,4.439097e-37,-0.42612386,-0.45823413,-0.72963643,-0.31275856,-0.4751935,-0.5911633,-0.47743344,-0.40230888,-0.3366478,-0.39779037,-0.36964652,-0.19096182,-0.3249189,-0.3130195,-0.14491649,-0.41630545,-0.43322688,-0.5287171,-0.48858064,-0.6044691,-0.63567924,-0.8017435,-0.7116378,-0.9030342,-0.7613601,-0.5716449,-0.7866331,0.10479081,0.51394165,0.49754092,-0.11201859,0.31079134,0.15134184,0.0025846432,0.24660128,0.0032815095,-3.5550765e-38,-7.501807e-37,-5.665675e-37,2.7715669e-38,-8.927761e-39,-1.9633841e-38,-8.08147e-37,3.2135398e-38,2.0596375e-38,-0.037414476,-0.22750704,-0.009122162,0.06803181,0.022014832,0.16510902,0.3435763,0.13816501,0.5737452,-3.9955624e-38,-1.2802843e-38,1.4426641e-38,-1.0348762e-38,-1.966425e-39,-2.107211e-38,9.599358e-39,-7.545977e-39,-1.5098806e-38,0.26703775,0.30334714,0.10323799,0.39790288,0.38937604,0.25795525,0.38636366,0.18388706,0.2971144,-0.4127439,-0.20552234,-0.120256625,-0.40631917,0.42866263,0.50124043,0.010791974,0.22954151,0.43652552,-4.114181e-39,3.594353e-39,-9.807095e-39,1.8918959e-38,1.4372244e-38,-3.5931753e-38,1.832e-41,-2.4118676e-38,3.247174e-38,-0.28248236,-0.8001127,-0.81544745,-0.3604145,-0.41148984,-0.26473227,-0.64183325,-0.58320206,-0.28739074,-0.000692083,0.18574551,0.11644688,-0.21589807,0.12646836,-0.46282262,-0.5021237,-0.4317616,-0.33793783,0.31822428,0.12105334,-0.11071321,-0.37728813,-0.26273713,0.062981695,-0.39405313,-0.3343976,-0.23237541,-0.57289284,-0.46871585,-0.5972842,-0.6612846,-0.3028722,-0.7119559,-0.55327064,-0.14970712,-0.42192852,-0.48616502,-0.44698584,-0.3860457,-0.72758627,-0.56904304,-0.858075,-0.94201934,-0.54497975,-0.71874547,0.2569783,0.38549095,0.3451491,0.36378875,0.42102388,0.32684496,0.2540364,-0.111888215,0.036446027,-0.07031074,0.1742185,0.122228585,0.21915309,0.28073195,0.12821174,-0.060449842,-0.13411309,-0.42703396,-1.0969835e-38,3.7147965e-38,2.2309074e-38,3.6178642e-38,7.008038e-39,1.5776026e-38,3.6412446e-38,-2.8535196e-38,1.7123338e-38,0.78574735,0.6513535,0.66349757,0.7465523,0.3405642,0.64607406,0.5469297,0.6524291,1.004538,-5.312381e-39,4.9905404e-37,7.628624e-37,-8.139333e-37,4.688974e-39,1.7006849e-38,-5.9049444e-37,-6.3927702e-37,-3.7600826e-38,-5.12264e-40,-2.2022884e-38,-2.6059667e-38,2.2496238e-38,2.8772934e-38,1.44018e-39,-3.448096e-38,-2.465973e-39,2.0582946e-38,-0.39562586,-0.23215011,-0.102873154,-0.13902801,-0.12197289,-0.08602739,-0.3974106,-0.22951591,-0.026963035,0.09905681,0.25783312,0.37178582,0.19776179,0.3798921,0.48455164,0.45208663,0.6012732,0.2646402,-0.24008949,0.22175947,-0.20719685,0.118535265,0.4517316,0.22965837,0.21353516,0.5134698,0.33249265,4.108376e-37,-2.646641e-38,3.066471e-37,-4.1753888e-38,-1.712115e-39,-6.4861783e-37,2.439693e-37,4.0520843e-38,4.547053e-37,5.99817e-39,3.575972e-38,-5.7983e-40,-3.145476e-38,-1.8576428e-38,-3.0843033e-38,-3.0542329e-38,-3.4307648e-38,-6.864125e-39,-0.20995098,-0.3277337,-0.25005805,-0.37517592,-0.3869984,-0.40125003,-0.3530022,-0.62777746,-0.44288126,3.976246e-39,-3.063297e-39,-6.010497e-39,-3.156524e-39,5.716645e-39,-2.3799633e-38,-1.84681e-39,3.7723745e-38,-1.3834305e-38,-1.1168859,-0.7659608,-0.7520122,-0.9743158,-0.83841467,-0.8960834,-0.7589084,-0.5876262,-0.67568475,-5.4068287e-37,3.1881023e-38,5.384277e-37,-2.9480203e-38,2.0906053e-38,-3.7698637e-38,7.2391254e-37,-3.591835e-37,-8.107256e-37,0.12035095,0.04793243,0.1607525,0.18233629,-0.010754739,0.055060003,-0.0362495,-0.07634504,-0.18119414,-5.940139e-37,1.0221533e-38,-8.018237e-37,4.5079758e-38,-3.501775e-39,5.0855106e-38,-5.4311324e-37,1.5629699e-38,-4.5098563e-38,8.074871e-37,-5.3877836e-37,4.5071042e-38,2.9184117e-38,1.62542e-40,1.5980604e-38,4.013779e-37,-1.9084432e-38,1.5758401e-38,4.0133816e-38,1.4516789e-38,1.1089691e-38,-3.380994e-39,-9.451331e-39,4.615933e-39,1.7277796e-38,7.742974e-39,2.656093e-38,0.24569044,0.35728255,0.047048833,0.5118569,0.38966817,0.5062875,0.51742166,0.39007995,0.52672416,3.742316e-39,-2.638956e-38,3.2573082e-38,-1.4505563e-38,-2.52869e-40,3.2869412e-38,3.1768358e-38,-1.9894355e-38,-2.2572374e-38,-0.32522497,-0.4493495,-0.5146285,-0.2580359,-0.29051843,-0.24782151,-0.33619946,-0.4057932,-0.16838896,5.4082955e-37,7.3190424e-37,-3.0106654e-38,5.840288e-37,1.9071495e-37,-5.375353e-37,-1.284373e-38,-4.82094e-37,-3.2204745e-38,-0.7967214,-0.6471405,-0.7945835,-0.63386035,-0.63811094,-0.57598746,-0.6938373,