-0.0,-0.0,0.0,-0.0,0.0,-0.0,-0.0,0.0,-0.0,0.0,0.0,0.0,0.0,0.0,0.0,0.0,0.0,0.0,-0.0,-0.0,0.0,-0.0,-0.0,0.0,0.0,-0.0,0.0,-0.0,-0.0,-0.0,0.0,-0.0,0.0,0.0,-0.0,0.0,0.0,0.0,0.0,0.0,-0.0,-0.0,-0.0,0.0,0.0,0.0,0.0,-0.0,-0.0,0.0,0.0,0.0,0.0,0.0,-0.0,-0.0,0.0,0.0,0.0,-0.0,0.0,0.0,0.0,-0.0,0.0,0.0,0.0,0.0,-0.0,-0.0,-0.0,0.0,-0.0,0.0,-0.0,-0.0,-0.0,0.0,0.0,-0.0,-0.0,-0.0,-0.0,0.0,0.0,-0.0,0.0,0.0,-0.0,0.0,0.0,-0.0,0.0,0.0,0.0,0.0,0.0,-0.0,0.0,-0.0,-0.0,0.0,-0.0,0.0,0.0,-0.0,0.0,-0.0,-0.0,-0.0,0.0,-0.0,0.0,-0.0,-0.0,0.0,-0.0,-0.0,0.0,-0.0,-0.0,0.0,-0.0,0.0,0.0,-0.0,0.0,0.0,-0.0,0.0,0.0,0.0,0.0,-0.0,0.0,-0.0,0.0,-0.0,0.0,-0.0,-0.0,0.0,0.0,-0.0,-0.0,0.0,-0.0,-0.0,0.0,-0.0,0.0,-0.0,0.0,0.0,-0.0,-0.0,0.0,-0.0,-0.0,-0.0,0.0,-0.0,0.0,-0.0,-0.0,-0.0,0.0,-0.0,0.0,0.0,0.0,0.0,-0.0,-0.0,0.0,-0.0,0.0,-0.0,-0.0,0.0,-0.0,0.0,-0.0,-0.0,-0.0,0.0,-0.0,-0.0,-0.0,0.0,-0.0,0.0,0.0,0.0,-0.0,-0.0,-0.0,-0.0,-0.0,0.0,-0.0,-0.0,-0.0,0.0,-0.0,-0.0,0.0,-0.0,-0.0,0.0,0.0,-0.0,-0.0,0.0,0.0,-0.0,0.0,0.0,0.0,0.0,0.0,-0.0,0.0,0.0,-0.0,0.0,-0.0,-0.0,-0.0,-0.0,-0.0,0.0,-0.0,0.0,0.0,0.0,0.0,0.0,0.0,0.0,-0.0,0.0,0.0,-0.0,0.0,0.0,0.0,-0.0,-0.0,-0.0,0.0,-0.0,0.0,0.0,-0.0,-0.0,0.0,0.0,-0.0,0.0,0.0,0.0,-0.0,0.0,0.0,0.0,-0.0,0.0,-0.0,0.0,0.0,-0.0,0.0,-0.0,-0.0,0.0,0.0,0.0,-0.0,0.0,-0.0,0.0,-0.0,0.0,-0.0,-0.0,0.0,0.0,0.0,-0.0,0.0,0.0,0.0,-0.0,-0.0,0.0,0.0,0.0,0.0,0.0,-0.0,-0.0,0.0,0.0,0.0,-0.0,0.0,-0.0,-0.0,-0.0,-0.0,-0.0,0.0,0.0,0.0,-0.0,0.0,-0.0,0.0,-0.0,0.0,0.0,-0.0,0.0,-0.0,-0.0,0.0,-0.0,-0.0,0.0,0.0,-0.0,0.0,0.0,-0.0,0.0,0.0,0.0,0.0,-0.0,0.0,-0.0,-0.0,0.0,0.0,0.0,0.0,-0.0,0.0,-0.0,-0.0,0.0,-0.0,0.0,0.0,0.0,0.0,0.0,-0.0,0.0,0.0,0.0,-0.0,0.0,-0.0,0.0,0.0,0.0,-0.0,0.0,-0.0,-0.0,0.0,-0.0,-0.0,-0.0,-0.0,-0.0,-0.0,0.0,0.0,-0.0,0.0,-0.0,-0.0,-0.0,0.0,0.0,-0.0,-0.0,-0.0,0.0,-0.0,0.0,0.0,0.0,0.0,0.0,-0.0,-0.0,0.0,0.0,-0.0,-0.0,-0.0,0.0,0.0,0.0,0.0,0.0,0.0,0.0,-0.0,0.0,-0.0,0.0,0.0,0.0,-0.0,0.0,0.0,-0.0,0.0,0.0,0.0,-0.0,-0.0,0.0,-0.0,-0.0,0.0,-0.0,0.0,-0.0,-0.0,0.0,-0.0,0.0,0.0,-0.0,-0.0,-0.0,0.0,-0.0,-0.0,-0.0,-0.0,-0.0,-0.0,-0.0,-0.0,0.0,-0.0,0.0,0.0,0.0,-0.0,-0.0,-0.0,0.0,0.0,0.0,0.0,-0.0,-0.0,-0.0,-0.0,-0.0,-0.0,-0.0,-0.0,-0.0,-0.0,-0.0,-0.0,-0.0,-0.0,-0.0,0.0,0.0,0.0,0.0,0.0,0.0,-0.0,-0.0,0.0,-0.0,-0.0,-0.0,-0.0,0.0,-0.0,0.0,-0.0,-0.0,0.0,-0.0,0.0,-0.0,-0.0,0.0,-0.0,-0.0,-0.0,-0.0,0.0,-0.0,-0.0,0.0,-0.0,0.0,0.0,0.0,0.0,-0.0,0.0,0.0,-0.0,-0.0,0.0,-0.0,-0.0,0.0,-0.0,-0.0,-0.0,-0.0,0.0,-0.0,-0.0,-0.0,-0.0,-0.0,0.0,-0.0,0.0,0.0,-0.0,-0.0,0.0,-0.0,-0.0,0.0,0.0,-0.0,-0.0,0.0,-0.0,-0.0,0.0,0.0,0.0,0.0,0.0,0.0,0.0,0.0,-0.0,-0.0,-0.0,-0.0,0.0,0.0,-0.0,0.0,-0.0,0.0,0.0,-0.0,-0.0,0.0,-0.0,-0.0,-0.0,-0.0,-8.8506e-41,1.170876e-39,-7.02886e-40,-2.4670187e-38,-2.2496e-41,6.54024e-40,-9.20018e-40,-6.02092e-40,1.4913965e-38,8.38353e-40,3.31362e-40,1.30785e-40,2.77882e-40,3.76228e-40,-5.73872e-40,-1.008712e-39,7.37816e-40,6.43304e-40,7.85127e-40,-1.100856e-39,1.6497073e-38,1.4762557e-38,3.72077e-40,-2.2047317e-38,-3.06203e-40,-2.99886e-40,1.720206e-38,-9.879893e-39,-2.3157246e-38,1.9715727e-38,1.2922316e-38,4.5843e-41,-1.246879e-38,-9.08376e-40,1.1406983e-38,1.8066816e-38,-6.06586e-40,1.8955e-40,-5.86354e-40,-5.21971e-40,-3.99175e-40,1.099855e-39,-5.2888e-41,-1.22028e-40,-1.158769e-39,-8.29801e-40,7.73833e-40,2.04908e-40,7.7619e-40,-3.75534e-40,-9.08299e-40,6.0079e-40,-9.4368e-41,-8.39473e-40,1.14332e-40,7.1337e-41,6.22605e-40,8.49823e-40,4.5295e-40,4.86178e-40,-3.1774e-41,3.31762e-40,-2.87004e-40,5.7424e-40,2.2771e-40,1.028291e-39,3.39183e-40,-6.68513e-40,6.0784e-40,-1.161899e-39,-5.36573e-40,-6.04747e-40,-7.30507e-40,8.60197e-40,1.4449e-40,4.28687e-40,1.33734e-40,1.190375e-39,1.002727e-39,-9.81441e-40,-1.168551e-39,0.0003637692,0.00036729814,0.00031900595,0.00031956536,0.00034161145,0.00029464843,0.00015944966,0.00018736665,0.00014050462,-1.093992e-39,-7.34139e-40,5.97481e-40,1.12505e-40,3.57998e-40,-3.19975e-40,-1.16888e-39,-5.71637e-40,-1.144218e-39,6.5557e-41,1.64826e-40,-8.58154e-40,-6.17135e-40,3.416e-42,-1.49306e-40,3.80514e-40,-3.61269e-40,3.3885e-40,9.22528e-40,-3.40101e-40,4.83601e-40,5.19826e-40,-1.1572e-40,1.02948e-40,5.7661e-40,1.169e-42,-9.67696e-40,1.38113e-40,-1.009791e-39,3.56488e-40,-5.13954e-40,-4.32819e-40,2.7725e-40,-8.14307e-40,-4.21579e-40,6.41244e-40,-8.34759e-40,5.27866e-40,1.03996e-40,-1.67431e-40,2.32805e-40,3.38587e-40,7.68943e-40,-6.24957e-40,-7.25292e-40,4.08956e-40,-6.11649e-40,-3.88277e-40,5.98263e-40,2.10852e-40,5.36113e-40,-2.08447e-40,1.049594e-39,9.40804e-40,5.6674e-41,-5.4004e-40,-1.11099e-40,-2.96264e-40,5.5615e-40,-4.3859e-40,9.94045e-40,2.76176e-40,3.36085e-40,3.50447e-40,1.106094e-39,6.78048e-40,1.26513e-40,-1.82195e-40,7.83557e-40,7.59146e-40,5.82129e-40,1.06402e-39,1.68687e-40,4.05061e-40,-6.10121e-40,-4.06845e-40,-1.071075e-39,-2.97894e-40,-3.46646e-40,-7.59581e-40,1.32903e-40,6.3263e-41,-3.77195e-40,6.46783e-40,-1.107397e-39,4.91399e-40,-5.31405e-40,1.22885e-39,-1.239308e-39,-5.71501e-40,3.92858e-40,-8.94013e-40,9.15527e-40,3.835e-41,6.27218e-40,-1.98174e-40,5.17619e-40,4.57845e-40,-2.08597e-40,1.151647e-39,-3.26864e-40,-9.44081e-40,-2.461329e-38,-3.71292e-40,2.30801e-40,-1.039604e-39,-7.407e-42,-1.111892e-39,1.011627e-39,-2.91526e-40,5.48942e-40,4.56233e-40,-1.51288e-40,-3.74776e-40,3.48963e-40,-5.99407e-40,-4.42893e-40,-6.89713e-40,-6.5497e-40,-7.0543e-41,8.4509e-40,-7.14666e-40,-1.190404e-39,9.637325e-39,2.0813189e-38,1.0069439e-38,6.61082e-40,-3.06037e-40,-4.26325e-40,-4.3419e-41,-3.16317e-40,-7.7873e-41,1.25888e-40,-1.95973e-40,5.22321e-40,5.6319e-40,-5.02457e-40,4.90163e-40,2.70291e-40,1.99764e-40,4.23355e-40,-1.75527e-40,-6.72039e-40,5.3621e-40,-2.0881e-41,-5.9079e-41,-5.55976e-40,-1.22712e-40,-2.29915e-40,-2.11271e-40,-4.72626e-40,-3.99149e-40,7.465e-41,1.205274e-39,-8.4983e-41,-4.53878e-40,-3.34702e-40,-3.95529e-40,-7.2028e-41,-8.33962e-40,-5.89776e-40,4.31904e-40,1.141248e-39,8.01314e-40,-9.18602e-40,1.53697e-40,-3.65328e-40,2.39272e-40,5.6371e-40,3.89432e-40,5.8649e-41,-7.76046e-40,2.98685e-40,-1.40585e-40,-1.045844e-39,-4.99127e-40,-2.01218e-40,-2.65854e-40,4.29131e-40,-6.48877e-40,3.6474e-41,-1.52952e-40,6.42898e-40,-1.75287e-40,3.9162e-41,-3.38551e-40,-6.28945e-40,-4.32905e-40,6.21644e-40,2.77603e-40,9.2474e-40,-8.36745e-40,3.45843e-40,9.26998e-40,-2.5928e-40,4.67672e-40,-1.34228e-40,-6.60698e-40,1.40689e-40,-6.74888e-40,3.03579e-40,-7.07083e-40,-4.36999e-40,-4.77372e-40,-1.22754e-40,-1.76608e-40,5.08995e-40,-7.18932e-40,-2.03138e-40,-1.085194e-39,4.84697e-40,-3.82095e-40,6.97317e-40,8.49307e-40,5.83e-41,2.61122e-40,4.68524e-40,3.9886e-40,-8.32702e-40,6.21631e-40,-3.98169e-40,-4.02303e-40,-7.549e-41,5.184e-40,5.62432e-40,-1.019546e-39,3.52355e-40,4.09689e-40,-6.81708e-40,4.16645e-40,-4.70696e-40,1.0036e-41,5.3447e-40,-2.0102e-40,1.053021e-39,-1.201234e-39,-9.9746e-40,-6.30447e-40,8.4203e-41,2.09762e-40,1.970696e-38,-2.4634236e-38,-2.1142962e-38,-6.409e-40,-4.83176e-40,4.25084e-40,-6.18442e-40,-5.72499e-40,4.667e-40,-3.70484e-40,2.92175e-40,-5.55472e-40,-1.26599e-40,1.025438e-39,-4.84612e-40,5.21932e-40,5.9639e-40,-2.02891e-40,-5.0989e-41,-4.53966e-40,1.147991e-39,-9.7584e-40,5.1193e-40,1.9993222e-38,1.118596e-39,-3.47027e-40,-2.0765123e-38,-1.2290352e-38,-1.0046796e-38,-5.56625e-40,4.5593e-40,7.17574e-40,-7.04398e-40,1.00662e-40,-6.87634e-40,6.83797e-40,-2.51017e-40,-9.49915e-40,-7.34598e-40,-3.50029e-40,5.9481e-41,-3.99477e-40,4.45669e-40,-6.39803e-40,-5.97287e-40,2.31618e-40,6.22457e-40,-1.7978e-40,5.93656e-40,1.36526e-40,-6.7451e-40,9.47167e-40,-6.62387e-40,3.70486e-40,-3.08095e-40,7.14316e-40,-3.80895e-40,-1.065514e-39,1.2227516e-38,3.8842e-40,2.4565712e-38,-7.79419e-40,-7.50601e-40,-1.7004615e-38,9.522211e-39,-6.95439e-40,1.130814e-39,6.4035e-41,9.9379e-41,-5.249e-40,6.0669e-41,-7.26996e-40,-3.44836e-40,-6.29808e-40,9.275e-41,-7.120415e-39,1.3963e-40,-1.328266e-39,-9.288671e-39,9.39655e-40,-6.1789e-40,-1.024024e-39,1.165136e-39,-1.91815e-40,7.37583e-40,4.38733e-40,-5.04575e-40,-1.83234e-40,-6.35849e-40,8.29548e-40,-5.32255e-40,-5.57815e-40,1.97776e-40,1.06725e-39,7.89028e-40,-8.87575e-40,-2.02412e-40,-3.78812e-40,3.1971e-40,-6.7596e-40,2.13339e-40,2.68549e-40,2.41468e-38,-2.3799236e-38,2.5501e-40,-2.2531402e-38,5.36545e-40,7.00456e-40,1.071221e-39,8.13032e-40,1.6461616e-38,-1.225966e-38,1.013825e-39,1.8302945e-38,1.8131206e-38,-1.15524e-40,8.99872e-40,2.1197135e-38,1.145151e-39,6.27983e-40,-7.4218e-41,7.12216e-40,1.69404e-40,1.19356e-40,9.17034e-40,-1.79183e-40,1.081371e-39,-3.27803e-40,2.04924e-40,-3.47006e-40,6.92962e-40,7.66557e-40,-4.88935e-40,3.02884e-40,1.96329e-40,1.08779e-40,7.42153e-40,1.205973e-39,-5.42605e-40,-1.29612e-40,-4.25905e-40,-1.1316e-40,-2.09872e-40,-1.112446e-39,-9.5256e-40,3.92291e-40,1.31802e-40,1.091404e-39,4.069e-40,3.44548e-40,5.7623e-41,-4.49137e-40,-5.3712e-40,-6.65753e-40,5.0232e-41,-4.96511e-40,3.92e-40,1.57248e-40,7.79185e-40,1.121529e-39,6.35025e-40,7.30308e-40,-4.34906e-40,1.045482e-39,-3.77932e-40,1.071005e-39,2.23162e-40,6.34253e-40,-1.64877e-40,9.70992e-40,1.91787e-40,-4.67905e-40,7.0659e-40,-1.23267e-39,-1.20105e-40,-8.76086e-40,-3.67385e-40,4.72316e-40,1.79712e-40,-6.18177e-40,5.70293e-40,9.15335e-40,-4.84771e-40,9.55299e-40,-3.42271e-40,-7.39642e-40,-4.01472e-40,-2.9209e-40,2.24477e-40,-1.185316e-39,-6.09014e-40,-9.7436e-41,-5.60505e-40,-4.68789e-40,-8.72563e-40,1.58406e-40,1.8097e-40,7.47995e-40,-4.76315e-40,-1.119649e-39,-3.96636e-40,3.7259e-41,2.87765e-40,-4.10477e-40,2.11753e-40,6.80939e-40,-5.1792e-40,3.2e-41,1.14678e-40,1.83202e-40,-9.21519e-40,-9.95317e-40,-2.57206e-40,7.791e-42,-2.43624e-40,3.8258e-40,-2.55911e-40,-2.44316e-40,-2.13666e-40,-8.06997e-40,-8.3597e-41,-1.051398e-39,7.49601e-40,4.9044e-41,-5.31482e-40,-6.64601e-40,-6.27175e-40,-2.13942e-40,-7.15645e-40,1.153047e-39,1.087511e-39,2.8793e-40,4.69024e-40,5.619e-42,7.68993e-40,1.1144e-40,-4.39205e-40,-3.05358e-40,6.80262e-40,9.6119e-41,-1.93652e-40,5.86386e-40,6.44073e-40,-6.15618e-40,1.62611e-40,-4.91875e-40,-4.3019e-40,1.6719514e-38,-2.7810864e-38,-9.199014e-39,-1.63493e-39,6.002217e-39,-2.3328168e-38,9.16291e-40,-3.4672154e-38,3.81313e-40,8.50503e-40,-1.484491e-39,-1.497632e-39,-1.156447e-39,-4.6798e-40,4.516e-41,1.325959e-39,-5.4986e-40,-2.0435143e-38,2.0700631e-38,-3.7513567e-38,3.80468e-40,-6.61756e-40,1.298194e-39,2.3265296e-38,-3.002573e-38,-3.497996e-38,-1.664347e-39,5.014495e-39,-8.311578e-39,-7.240222e-39,4.97737e-40,-6.914651e-39,-1.135448e-39,-1.76892e-39,-6.982478e-39,2.8629e-40,3.09261e-40,-6.94303e-40,-3.26176e-40,-5.16848e-40,-5.99122e-40,7.4888e-41,3.24532e-40,-1.457335e-39,2.07497e-40,1.366412e-39,8.523174e-39,-1.749141e-39,-1.172663e-39,-1.752873e-39,7.241161e-39,8.150018e-39,-3.68647e-40,9.2511e-40,1.772944e-39,-1.031458e-39,1.478835e-39,2.22767e-40,9.62723e-40,9.2886e-41,-1.641372e-39,-8.59681e-40,9.2941e-40,6.53124e-40,-9.61235e-40,-4.65123e-40,4.64172e-40,-1.377511e-39,-1.098509e-39,-2.8745e-41,-1.23962e-40,-1.418924e-39,6.42694e-40,5.6752e-40,9.74148e-40,-7.8911e-40,8.08416e-40,-2.4714524e-38,1.294151e-39,-1.629637e-39,4.78156e-06,3.68808e-05,-0.00016314717,-0.00038147785,-0.0004959661,-0.0006767628,-0.0004167544,-0.0005260162,-0.0005632933,-1.47618e-40,1.668872e-39,2.0988676e-38,1.275634e-39,-8.71413e-40,-1.78787e-40,1.8656253e-38,-9.51306e-40,-1.21967e-39,-6.7791e-40,1.167174e-39,-2.6292e-40,-8.29001e-40,-1.130112e-39,1.801574e-39,-1.794021e-39,-1.2065e-40,-4.98537e-40,-9.462566e-39,-6.575896e-39,1.5227287e-38,-1.4941562e-38,1.020298e-39,1.5059408e-38,5.435211e-39,-1.20138e-40,3.5107355e-38,-8.50839e-40,1.508925e-39,1.49639e-40,1.498294e-39,-4.21082e-40,1.71522e-40,3.2083e-41,4.52367e-40,4.12409e-40,8.1867e-41,-1.33841e-40,-1.056798e-39,1.825736e-39,2.70403e-40,1.128939e-39,2.20578e-40,-5.77301e-40,6.42635e-40,-1.44318e-40,1.697537e-39,7.01005e-40,-5.10293e-40,-9.7296e-41,8.2754e-40,-1.093576e-39,-1.250632e-39,-7.34828e-40,-3.361e-40,-2.39003e-40,-1.325494e-39,1.236224e-39,4.71838e-40,-4.10893e-40,-7.78741e-40,5.53547e-40,1.572167e-39,3.9302e-40,-1.382996e-39,-2.0422e-40,-2.34008e-40,1.71956e-40,1.249794e-39,-3.51199e-40,-1.134693e-39,-5.76947e-40,-1.31068e-40,-1.17043e-40,-1.302197e-39,-9.20168e-40,8.86543e-40,1.55895e-39,2.36073e-40,7.28288e-40,1.45956e-40,8.8565e-40,-3.06996e-40,-5.6045e-40,-5.53811e-40,6.54242e-40,1.785708e-39,7.78686e-40,8.729e-40,3.31903e-40,-2.3575656e-38,-3.7911488e-38,2.07221e-40,-1.555282e-39,-2.25976e-40,3.5321628e-38,-1.735867e-39,1.162783e-39,-1.439079e-39,-3.5111122e-38,-1.2498447e-38,2.7870946e-38,1.8705624e-38,9.5098e-41,-1.0559616e-38,-3.1795625e-38,-5.399902e-39,1.3373981e-38,8.45399e-40,-9.28921e-40,1.52978e-40,1.663263e-39,-1.65158e-40,5.80579e-40,-7.72313e-40,6.775e-40,-1.137152e-39,2.930475e-38,-3.653162e-38,-2.934616e-38,2.9614896e-38,2.9198e-40,5.542584e-39,3.6071087e-38,2.1023232e-38,2.60247e-38,-1.367338e-39,-3.03963e-40,-1.773217e-39,-5.4602e-41,2.28679e-40,-1.502342e-39,-4.2841e-40,5.36222e-40,-7.21557e-40,-1.329371e-39,-1.263856e-39,1.49356e-40,4.05602e-40,-6.23638e-40,1.717364e-39,7.1913e-40,-1.29366e-40,-2.15532e-40,-1.622802e-39,1.349417e-39,-1.435507e-39,-2.0289e-40,-1.755645e-39,1.176691e-39,-5.77192e-40,-1.570972e-39,-1.114639e-39,-9.27214e-40,7.39258e-40,-1.555067e-39,1.896387e-39,-1.52671e-40,-1.11873e-40,7.74373e-40,3.81485e-40,-4.15048e-40,-7.65496e-40,6.61538e-40,1.79128e-39,6.6148e-40,8.51709e-40,6.38087e-40,-1.019027e-39,1.246388e-39,1.53791e-39,-1.211088e-39,5.57958e-40,-1.582199e-39,7.44186e-40,-5.72645e-40,1.02984e-40,1.705016e-39,7.0334e-41,4.08841e-40,1.71017e-40,1.017788e-39,5.8427e-41,1.320196e-39,-1.93811e-40,-2.33107e-40,-1.881159e-39,2.3207e-40,-1.208041e-39,1.051586e-39,-1.372278e-39,-3.56472e-40,-2.04815e-40,1.263643e-39,1.862082e-39,-1.568042e-39,8.59513e-40,-1.494206e-39,2.43114e-40,-6.98708e-40,3.11799e-40,2.21775e-40,2.49634e-40,1.190023e-39,-5.4556e-40,1.4266e-40,1.42899e-40,-3.84463e-40,-6.28295e-40,2.4711e-40,-8.24874e-40,4.09871e-40,-1.100692e-39,-1.392895e-39,-9.9903e-41,4.46082e-40,1.672203e-39,5.72254e-40,1.601513e-39,1.533836e-39,-7.34837e-40,-1.44371e-39,1.73894e-40,1.587786e-39,-6.29539e-40,-7.1051e-41,-1.008729e-39,-1.002919e-39,-1.514571e-39,1.309321e-39,6.46558e-40,-3.4589004e-38,-1.697696e-39,-4.0984e-41,-2.736386e-38,-1.439268e-39,-1.0741297e-38,-5.95534e-40,1.086773e-39,1.968978e-39,1.1040741e-38,1.8898993e-38,3.013475e-38,7.23499e-40,-5.62886e-40,4.98728e-40,2.28857e-40,-1.239994e-39,3.50968e-40,8.4774e-41,-4.39541e-40,-6.3933e-40,2.383e-40,-4.8522e-40,-5.78707e-40,6.51444e-40,9.20719e-40,1.215503e-39,-3.44363e-40,-1.378562e-39,-1.616897e-39,-2.9871e-40,-1.639442e-39,2.188562e-39,1.600797e-39,2.73306e-40,4.78047e-40,-3.7880217e-38,1.299304e-39,6.06895e-40,4.85924e-40,6.43476e-40,-1.141007e-39,-1.632272e-39,-1.520487e-39,-7.35273e-40,-1.655547e-39,-9.50153e-40,1.260893e-39,-1.21858e-40,-7.8288e-40,-1.52172e-39,4.7712e-40,-1.158341e-39,-1.119368e-39,-7.28077e-40,-3.3859922e-38,-6.43866e-40,3.94247e-40,4.6414e-40,1.594631e-39,-1.357484e-39,5.45146e-40,1.130296e-39,4.26513e-40,1.652448e-39,-1.889786e-39,-3.19307e-40,1.188317e-39,1.448676e-39,1.8313e-40,-1.427113e-39,-1.906151e-39,-7.06976e-40,1.61655e-40,-8.30545e-40,-3.4438933e-38,-1.8892103e-38,3.750418e-38,-7.577037e-39,-9.85423e-40,-1.8265885e-38,3.2613874e-38,-3.2938748e-38,2.6414465e-38,1.225152e-39,-1.694872e-39,-6.61201e-40,-6.24817e-40,-1.594783e-39,9.18903e-40,-1.421268e-39,1.316912e-39,-2.136138e-39,4.02906e-40,-8.22442e-40,-1.072624e-39,-7.06123e-40,-6.36295e-40,-1.26418e-39,7.74301e-40,1.377446e-39,-8.03432e-40,7.59942e-40,-4.25754e-40,7.14208e-40,-6.48014e-40,-5.08605e-40,2.93659e-40,-2.8494e-41,1.34926e-39,-9.44764e-40,8.6669e-41,-2.2282413e-38,2.3885e-41,2.7372603e-38,7.12804e-40,-3.423073e-38,-2.8571436e-38,-3.30273e-40,1.511219e-39,2.0407512e-38,1.0799697e-38,-9.202356e-39,1.5591948e-38,-1.671452e-39,-2.9048088e-38,-2.03576e-40,-3.3110015e-38,-4.62287e-39,2.70312e-40,-6.74599e-40,1.701535e-39,3.99736e-40,1.007122e-39,-1.601411e-39,-9.62025e-40,2.05003e-40,-1.645555e-39,1.028804e-39,8.9616e-40,-1.42988e-39,1.741503e-39,-1.487613e-39,6.93875e-40,9.51808e-40,-9.52936e-40,2.56723e-40,1.08586e-39,1.83366e-40,-1.46516e-40,2.12353e-40,-2.27995e-40,1.256352e-39,-4.2369e-40,5.75669e-40,-9.721e-41,-2.63517e-40,7.75871e-40,9.156e-41,-6.19178e-40,5.1786e-41,-6.86034e-40,-8.76051e-40,5.3021e-40,-9.76318e-40,5.00433e-40,1.265506e-39,-5.82727e-40,7.09756e-40,3.0543e-40,6.04845e-40,1.221152e-39,5.5616e-40,1.58801e-40,2.13803e-40,1.345954e-39,-1.332241e-39,1.69975e-40,5.86551e-40,1.031141e-39,-2.8832e-41,-3.81746e-40,4.14378e-40,-1.360825e-39,1.293375e-39,-2.27607e-40,-5.80171e-40,8.42448e-40,8.2863e-41,-2.3722e-40,1.218393e-39,-5.041e-40,-1.285009e-39,5.82287e-40,-5.99162e-40,-3.08913e-40,-7.80691e-40,-1.016764e-39,-6.93367e-40,7.22683e-40,-7.8806e-40,-1.19364e-39,4.99801e-40,1.009917e-39,-1.103046e-39,-5.42549e-40,-9.68834e-40,8.15725e-40,-8.9917e-41,6.5349e-40,-1.66707e-40,-4.92783e-40,-1.065525e-39,-2.68375e-40,7.38624e-40,1.531684e-39,-9.22342e-40,5.9808e-40,4.01727e-40,1.0291e-39,-2.83264e-40,-6.362e-41,5.3419e-41,-3.66398e-40,2.10343e-40,-7.28308e-40,9.07978e-40,8.03612e-40,-9.59993e-40,-6.49087e-40,1.78556e-40,5.38421e-40,7.21768e-40,4.81637e-40,7.57955e-40,-7.48087e-40,-6.32854e-40,-1.56019e-40,-1.182452e-39,1.586371e-39,-5.75645e-40,-3.8416e-40,-3.27657e-40,1.889829e-39,1.79438e-40,5.16855e-40,6.9671e-41,-9.33307e-40,1.37571e-40,1.457313e-39,-2.60077e-40,-1.621583e-39,-1.313626e-39,1.667834e-39,4.98855e-40,1.8882243e-38,7.004148e-39,8.118095e-39,7.246524e-39,-2.672e-40,4.4125e-40,-6.365918e-39,-1.6752604e-38,-1.1360003e-38,-7.60869e-40,1.066104e-39,1.836893e-39,9.817e-40,-3.68946e-40,8.60689e-40,1.010017e-39,1.373979e-39,5.52218e-40,3.2833676e-38,-1.4392978e-38,3.657594e-38,-2.2348391e-38,-8.76291e-40,3.1840853e-38,1.1151389e-38,3.558861e-38,3.2019482e-38,1.840213e-39,-7.64749e-40,1.0972289e-38,-1.779901e-39,-2.65e-42,9.862975e-39,-1.520039e-38,-8.123956e-39,5.684264e-39,1.643348e-39,-1.288466e-39,-9.02467e-40,1.86269e-40,3.08319e-40,-7.18957e-40,-9.29864e-40,-2.11704e-40,-1.39759e-39,1.6657179e-38,1.2257477e-38,1.3041916e-38,-1.068416e-39,9.77358e-40,2.28151e-40,1.615732e-39,-6.2211e-40,-6.014992e-39,-8.8279e-41,-1.242561e-39,-1.68121e-40,5.36511e-40,3.14458e-40,-8.39022e-40,-1.203148e-39,1.325491e-39,9.64693e-40,6.25041e-40,-1.567e-42,1.465e-41,7.88156e-40,-5.4283e-40,1.234561e-39,-8.5383e-41,-7.4884e-40,1.603629e-39,1.478498e-38,1.5577738e-38,-1.400236e-39,-2.3959785e-38,5.89893e-40,1.044328e-38,2.2417145e-38,1.88981e-38,-2.013835e-39,-0.0011896007,-0.0011758116,-0.0012149166,-0.00035408215,-0.00047549975,-0.00048695895,0.0009977927,0.0010062526,0.001034153,1.80105e-40,1.358988e-39,1.8867e-39,-1.88019e-39,-3.3264e-41,1.483557e-39,4.86675e-40,2.61692e-40,1.600912e-39,6.81463e-40,-6.44817e-40,-2.01613e-40,-1.207675e-39,-9.01637e-40,-1.278353e-39,8.14306e-40,1.24372e-40,3.1246e-41,1.6120952e-38,-4.035559e-38,1.9834853e-38,-3.6579697e-38,-1.56077e-39,-1.087189e-39,-3.637775e-38,-2.4214524e-38,2.48157e-40,1.03954e-40,1.329488e-39,1.244346e-39,-7.56391e-40,-1.885495e-39,-1.257993e-39,-6.85665e-40,-1.77914e-39,-3.22776e-40,1.005122e-39,8.82633e-40,8.48256e-40,6.81688e-40,8.10099e-40,6.85185e-40,1.80734e-40,1.560224e-39,8.50637e-40,4.3076e-40,-1.205009e-39,-1.246007e-39,2.0832e-40,1.002608e-39,1.213289e-39,-1.771372e-39,1.703424e-39,-8.5736e-41,-1.346756e-39,-7.274e-41,6.88409e-40,-6.32919e-40,8.2102e-40,2.35466e-40,-1.916973e-39,-5.826e-41,1.293879e-39,-1.075094e-39,2.26192e-40,-1.864805e-39,1.92554e-40,-1.459151e-39,7.12522e-40,2.96275e-40,5.12846e-40,-8.67498e-40,-2.0057455e-38,1.062512e-38,-8.435238e-39,2.6799082e-38,5.86163e-40,-1.3443823e-38,2.2133686e-38,-3.5641466e-38,-1.3364e-41,1.48944e-39,-2.3222e-41,-1.09084e-39,-5.2835e-41,-9.7483e-40,-1.06634e-39,1.193766e-39,-8.25157e-40,7.178e-40,3.553457e-38,1.8906111e-38,-3.536864e-38,1.3312831e-38,1.64414e-40,2.1460337e-38,-2.8805102e-38,-3.17168e-38,1.6850383e-38,3.6478596e-38,1.0982579e-38,4.24996e-39,-6.767577e-39,9.65255e-40,-1.5708972e-38,-4.722765e-39,-3.3380793e-38,1.8402521e-38,2.46644e-40,2.56805e-40,-8.41467e-40,1.319262e-39,2.69296e-40,-3.25799e-40,-7.5461e-40,1.002989e-39,-5.67509e-40,-4.582252e-39,6.276067e-39,2.5755501e-38,1.8088192e-38,1.2680156e-38,2.2679768e-38,-2.0117223e-38,1.4664649e-38,-6.591267e-39,-7.09312e-40,1.32467e-39,9.0535e-41,8.95875e-40,-2.97162e-40,-1.528185e-39,-1.537296e-39,-4.70751e-40,9.67716e-40,2.6079e-40,1.141858e-39,4.72175e-40,-1.786507e-39,5.81281e-40,-2.23098e-40,-6.08042e-40,2.2751e-40,-4.64963e-40,-8.68533e-40,-1.496193e-39,-3.28788e-40,8.56624e-40,1.17324e-40,7.6721e-40,8.0554e-40,2.39396e-40,1.24596e-39,-1.233846e-39,2.61973e-40,-9.22827e-40,4.30168e-40,3.64275e-40,-2.8858e-41,-9.21917e-40,-1.448723e-39,8.4975e-41,-9.11902e-40,1.364734e-39,1.28294e-40,7.10741e-40,5.13085e-40,1.095105e-39,-2.82336e-40,1.561533e-39,2.28777e-40,-5.18431e-40,-4.98934e-40,-1.669172e-39,-4.1398e-40,3.71786e-40,2.62039e-40,-9.44984e-40,1.690805e-39,5.02426e-40,-1.789098e-39,6.29826e-40,1.358545e-39,-5.73224e-40,-1.298216e-39,-1.964019e-39,-2.003404e-39,2.56062e-40,3.24168e-40,1.27028e-40,-1.798475e-39,7.11918e-40,-5.52208e-40,-9.31555e-40,-1.78385e-39,2.1594e-41,-1.926306e-39,5.2979e-41,-8.9663e-40,6.03765e-40,9.6097e-40,4.69875e-40,-6.98493e-40,2.79687e-40,2.1178e-40,3.5508e-41,1.30258e-40,-1.73602e-39,-5.32896e-40,-4.98693e-40,-3.00567e-40,-1.672977e-39,8.93542e-40,-4.51982e-40,7.75694e-40,-6.4883e-40,-2.934655e-38,1.433441e-39,2.4673758e-38,1.9163615e-38,-4.58006e-40,2.6877703e-38,-4.07144e-40,-1.1621896e-38,3.2108097e-38,-5.030848e-39,1.184629e-38,7.118777e-39,-7.79185e-39,-5.71447e-40,3.6374e-41,1.90472e-39,1.3706102e-38,6.71834e-39,-2.0047242e-38,-1.9794294e-38,1.321053e-39,1.5985213e-38,5.82723e-40,-2.6177208e-38,1.8050539e-38,1.008608e-39,-3.8003405e-38,1.295412e-39,3.34211e-40,-1.159719e-39,1.767972e-39,-3.72088e-40,-7.6382e-40,1.413082e-39,1.115875e-39,-1.062808e-39,5.60107e-40,1.32155e-40,8.03339e-40,-8.89424e-40,4.5974e-41,-8.5717e-40,-1.693825e-39,1.194795e-39,1.063479e-39,-1.0840708e-38,-2.1338394e-38,-1.5935286e-38,1.1383155e-38,1.8439e-40,-2.92145e-39,1.893135e-38,6.280393e-39,-6.72644e-40,6.01793e-40,-5.7672e-41,2.7989e-40,-7.27338e-40,9.556e-41,-1.533399e-39,2.91306e-40,-4.79175e-40,-5.86547e-40,8.1822e-40,3.6512496e-38,1.136407e-39,2.691596e-38,8.5775e-41,-3.1956065e-38,2.1494484e-38,3.95393e-38,-1.414501e-38,-1.166654e-39,2.63263e-40,9.97432e-40,1.516838e-39,1.4589e-39,1.747021e-39,4.26439e-40,1.474099e-39,1.919915e-39,5.47099e-40,7.91357e-40,3.939362e-39,2.14117e-40,4.1435e-41,1.221837e-39,-1.885823e-39,-5.8342e-41,1.29225e-40,-1.2594037e-38,3.69424e-38,7.376403e-39,1.59791e-40,-5.46473e-40,1.2881757e-38,3.4120197e-38,-2.263848e-38,-9.02747e-40,-6.3542e-40,2.77066e-40,4.930303e-39,1.320781e-39,-6.0024e-40,3.934455e-39,-4.017383e-39,9.04481e-40,-9.0063e-41,1.743327e-39,1.63379e-40,-3.70845e-40,1.23912e-39,-2.81444e-40,-1.288886e-39,4.4643e-40,-3.26654e-40,1.195162e-39,8.07554e-40,-1.25468e-40,-1.96221e-40,-1.620271e-39,4.23952e-40,1.236308e-39,9.3064e-40,-3.29426e-40,9.072e-40,7.32548e-40,1.68216e-40,-3.216222e-39,1.940703e-39,6.89023e-40,-1.988409e-39,1.6919e-41,-9.1016e-41,-6.31956e-40,2.7554903e-38,1.4394628e-38,2.3668943e-38,1.6798627e-38,1.041515e-39,1.878726e-39,3.3102557e-38,1.7422062e-38,1.727831e-38,-3.91521e-40,3.98783e-40,-1.47583e-40,-2.17735e-40,-9.15496e-40,-4.5735e-40,-7.57361e-40,-1.432592e-39,8.67471e-40,-1.080837e-39,-6.6174e-40,1.092968e-39,-3.96006e-40,8.4504e-41,7.88668e-40,4.23171e-40,-8.15459e-40,-4.05089e-40,-1.583806e-39,-2.05739e-40,-9.5924e-40,-2.65039e-40,2.64773e-40,-1.930818e-39,-2.34387e-40,1.50111e-40,-1.012714e-39,1.774e-41,9.5604e-41,-3.63711e-40,3.1955e-41,6.60938e-40,1.249594e-39,1.25195e-39,-8.50734e-40,1.234222e-39,1.07806e-40,8.63647e-40,3.15249e-40,1.944236e-39,9.5918e-40,-2.40362e-40,-1.24001e-39,-8.6065e-41,1.26174e-39,-6.52125e-40,2.5945e-41,-7.03446e-40,-8.24157e-40,1.113102e-39,-1.782121e-39,-1.28824e-40,2.28154e-40,3.8205e-41,-2.0508e-41,-1.845767e-39,1.622697e-39,-1.58252e-39,5.03753e-40,-1.010958e-39,-7.43281e-40,-1.005827e-39,-5.06777e-40,-1.584293e-39,3.29364e-40,-1.131958e-39,7.2851e-41,1.30909e-39,9.118e-40,-5.55319e-40,-1.106446e-39,3.94897e-40,1.11064e-40,-3.2591e-40,2.80976e-40,4.21058e-40,1.119702e-39,9.5462e-41,8.58414e-40,-6.31289e-40,2.3829e-41,-4.9785e-40,-7.8911e-41,9.46244e-40,-1.509714e-39,3.04759e-40,-5.70066e-40,-3.60422e-40,-6.48297e-40,5.36278e-40,1.065344e-39,1.50232e-40,-8.30856e-40,5.20117e-40,-2.81491e-40,-1.176759e-39,1.314873e-39,2.25385e-40,-2.43843e-40,-1.079415e-39,5.53301e-40,3.53115e-40,9.91581e-40,-2.94371e-40,3.60284e-40,-8.86187e-40,4.43255e-40,-1.133087e-39,9.1124e-41,-1.304291e-39,6.9406e-41,-6.63107e-40,-1.332558e-39,-1.786527e-39,4.95533e-40,-3.96289e-40,-9.82492e-40,-3.2111334e-38,4.11744e-40,-6.73217e-40,-2.935446e-38,4.0511e-40,1.076183e-39,-9.29223e-40,2.970219e-38,-1.027803e-39,3.805296e-39,-8.30992e-40,3.89973e-40,-2.1429077e-38,-1.03108e-39,-2.1361408e-38,-2.9424516e-38,-2.7971257e-38,1.6256712e-38,2.1311e-41,6.62957e-40,5.51135e-40,-5.8786e-40,4.98227e-40,1.333864e-39,-1.8125e-40,1.110546e-39,-1.55716e-40,2.0152907e-38,-1.812319e-38,-1.4459197e-38,-2.363898e-38,6.626e-40,-1.01317e-39,-3.857787e-39,1.4815343e-38,1.6262772e-38,-1.174106e-39,-1.580851e-39,-2.8904216e-38,1.1872501e-38,-2.36123e-40,-1.013788e-39,1.060667e-39,1.1182002e-38,2.3672681e-38,6.93489e-40,-1.438244e-39,7.42579e-40,1.153476e-39,-7.30294e-40,1.372677e-39,8.24195e-40,9.84247e-40,9.19703e-40,-6.233453e-39,-4.333473e-39,-3.79827e-39,-9.9037e-40,-5.2926e-40,3.06875e-40,-1.3250317e-38,-1.0167219e-38,-1.5433304e-38,1.321661e-39,4.36586e-40,-1.572e-40,-6.468e-42,-9.2109e-41,-3.19219e-40,6.12988e-40,-2.63865e-40,2.52768e-40,2.9791625e-38,-2.894111e-38,9.8064e-41,1.24028e-39,1.202035e-39,-9.82247e-40,9.0668e-40,2.898658e-38,1.12811e-39,1.3808717e-38,1.997998e-38,2.5779623e-38,-2.0164246e-38,1.207062e-39,2.9917635e-38,-1.4616451e-38,-3.793253e-39,-6.683548e-39,0.0007649941,0.00076953246,0.0005138717,0.000588045,0.0006186668,0.00035364274,7.5346594e-05,0.0001514621,7.2362946e-06,-4.6726e-40,9.8765e-41,-8.809012e-39,-1.042643e-39,-1.164318e-39,-4.0872e-41,1.263762e-39,7.3481e-41,8.12508e-40,-5.83655e-40,-8.26459e-40,-3.14353e-40,5.32308e-40,1.97981e-40,3.58643e-40,5.12337e-40,8.67793e-40,1.83908e-40,9.139603e-39,-9.19277e-40,-8.784564e-39,-2.7298443e-38,-1.168824e-39,1.8256957e-38,2.5136663e-38,-2.4949766e-38,1.24614e-39,-4.42083e-40,-4.79746e-40,5.32e-43,-1.08851e-40,6.22185e-40,-7.02355e-40,-1.1021e-39,-4.07712e-40,4.30885e-40,2.2833e-41,2.6686e-40,-2.58257e-40,-3.63423e-40,6.47069e-40,-8.97096e-40,-2.55031e-40,1.713e-40,1.83611e-40,2.70546e-40,-3.2182e-40,5.40568e-40,1.016744e-39,-5.18878e-40,5.8901e-40,1.415693e-39,-3.51495e-40,3.9592e-40,-8.05787e-40,-1.263007e-39,-4.6576e-40,-4.72002e-40,-1.39387e-40,6.72105e-40,4.52172e-40,6.95366e-40,6.8356e-40,1.085244e-39,1.248626e-39,-4.59051e-40,-1.153742e-39,-7.0606e-41,8.18413e-40,-1.047312e-39,1.106881e-39,-1.2358e-39,2.747179e-38,2.5329075e-38,-1.21904e-38,-2.998664e-38,1.161849e-39,-2.2567011e-38,1.842474e-38,-2.3477506e-38,-2.6594184e-38,-5.76011e-40,-2.86001e-40,-4.83484e-40,-1.181328e-39,3.4728e-41,1.70132e-40,8.91018e-40,2.97961e-38,-2.97342e-40,-2.1663013e-38,1.9835142e-38,1.7747189e-38,-1.9463809e-38,-2.01826e-40,-3.840875e-39,2.8705195e-38,1.9368794e-38,-1.1988258e-38,1.4345773e-38,-1.6562948e-38,1.5358116e-38,-9.75201e-40,-1.11356e-40,-1.1440044e-38,1.246186e-39,-1.02012e-40,-2.9444145e-38,-4.94803e-40,2.82367e-40,3.3295e-41,4.9061e-40,2.48667e-40,6.4966e-41,-6.6976e-41,2.2757e-40,2.50355e-40,-4.369434e-39,-5.02716e-39,9.122223e-39,-1.3119151e-38,1.145238e-39,-1.1896874e-38,1.2927473e-38,2.385427e-38,1.6233177e-38,9.80676e-40,-1.37117e-40,-7.23743e-40,-1.036947e-39,-2.26916e-40,3.84223e-40,7.49273e-40,1.076314e-39,1.206969e-39,-6.95354e-40,-4.18732e-40,9.593e-40,-1.47076e-40,-5.01316e-40,8.2024e-41,4.1377e-40,-3.65324e-40,1.20754e-39,9.08651e-40,8.16007e-40,-1.235324e-39,-1.020658e-39,-4.93955e-40,6.1825e-41,-5.22177e-40,-1.008938e-39,-1.018629e-39,2.38179e-40,-2.66523e-40,5.68545e-40,-1.91684e-40,2.08139e-40,-2.28639e-40,9.62953e-40,3.33222e-40,-4.438e-40,-5.78526e-40,-1.12578e-40,-1.01741e-40,-9.92618e-40,-7.6393e-40,-6.26575e-40,-1.3322e-40,-4.7447e-40,3.91384e-40,-8.32555e-40,-6.23447e-40,-4.57314e-40,-2.2522e-41,-3.38027e-40,-1.23365e-40,9.2218e-41,-6.5639e-40,-2.5504e-40,2.564304e-38,-1.9921773e-38,-5.65574e-40,1.43406e-40,-1.61465e-40,-1.478188e-39,-2.1948793e-38,1.17279e-40,2.3212261e-38,-6.62946e-40,3.86132e-40,-7.16656e-40,-5.41261e-40,-1.35329e-40,-8.8196e-41,-1.276803e-39,8.10277e-40,8.82185e-40,-8.70652e-40,-7.29345e-40,-3.89225e-40,1.297672e-39,-2.3810992e-38,-2.7736464e-38,1.00214e-40,-7.89733e-40,5.89914e-40,-2.06851e-40,-9.48423e-40,-2.91843e-40,4.41473e-40,-3.4246e-40,-2.1758e-40,-3.96416e-40,7.8366e-40,9.8511e-41,1.1733389e-38,-5.40709e-40,1.9649076e-38,-2.8419516e-38,1.268136e-39,2.6574625e-38,2.988646e-38,-7.51588e-40,1.8219178e-38,-2.767853e-38,-1.1493812e-38,-1.4912959e-38,-2.9672582e-38,-4.19029e-40,9.33189e-40,1.524632e-39,-2.0541144e-38,1.8135912e-38,-1.6519061e-38,-7.80857e-40,-2.94791e-40,-1.059464e-39,-3.63067e-40,9.25203e-40,2.7999793e-38,1.9560273e-38,1.052552e-39,5.3037e-40,-1.006417e-39,-8.71002e-40,1.034206e-39,5.89159e-40,-7.21994e-40,-5.5832e-41,-4.44743e-40,-3.42596e-40,5.11872e-40,-8.09833e-40,9.0374e-41,1.43248e-39,7.75146e-40,7.00474e-40,2.76183e-40,1.188892e-39,4.80654e-40,2.1058811e-38,1.54385e-39,-2.28894e-40,-2.3398966e-38,9.80552e-40,-7.4995e-41,1.6096238e-38,-1.7664885e-38,-1.042275e-39,-4.10918e-40,7.65556e-40,-9.2134e-41,-3.5343e-40,9.72009e-40,-5.22208e-40,-6.86136e-40,4.10772e-40,3.99688e-40,-2.0922729e-38,1.7297935e-38,-1.1238875e-38,1.040733e-39,9.6122e-40,2.3496544e-38,1.172241e-39,-2.262437e-38,3.70076e-40,8.30764e-40,5.22198e-40,4.5612e-40,1.67614e-40,-5.14558e-40,1.302705e-39,5.6101e-40,-1.06657e-40,1.345197e-39,-2.5116358e-38,2.1911004e-38,-2.9438705e-38,1.00449e-40,6.62343e-40,2.8709772e-38,1.092479e-39,2.6306568e-38,-7.891265e-39,-1.408889e-39,1.30596e-38,-1.4735468e-38,1.498664e-38,-6.85892e-40,-7.24342e-40,-2.3911782e-38,2.3675778e-38,-1.4430441e-38,-1.2354951e-38,1.364032e-39,-1.5353352e-38,2.4393375e-38,-1.313834e-39,1.6693942e-38,1.509249e-39,1.4022443e-38,-1.7606353e-38,2.5745104e-38,-1.99377e-40,1.335543e-39,-1.3742458e-38,-6.3431e-40,1.019795e-39,-1.264376e-39,-1.1708768e-38,2.6950632e-38,5.15674e-40,-1.61133e-40,1.59871e-40,-4.69868e-40,-4.15066e-40,-6.66156e-40,-2.3264e-40,-5.121e-41,-2.28333e-40,2.7805245e-38,2.1329831e-38,1.4710132e-38,1.297548e-39,7.74803e-40,-8.761124e-39,-5.804295e-39,-1.0612939e-38,-1.3573313e-38,-2.3211231e-38,-7.84706e-40,1.301627e-39,-3.0033128e-38,2.93669e-40,-1.302817e-39,-1.9901287e-38,1.318455e-39,-2.7665143e-38,-5.81634e-40,8.76752e-40,-5.33331e-40,2.13458e-40,4.85352e-40,-1.010298e-39,3.96581e-40,-1.019613e-39,5.98967e-40,5.57582e-40,1.25332e-39,1.0995e-40,1.126994e-39,-2.76131e-40,-6.74933e-40,-6.21532e-40,5.6288e-40,-1.43985e-40,5.14e-43,8.69902e-40,-9.61309e-40,-1.221307e-39,-6.6895e-40,9.7882e-40,4.7286e-40,-3.8041e-40,-7.34303e-40,3.78401e-40,3.59947e-40,-1.507885e-39,1.16087e-39,-6.86818e-40,1.271739e-39,8.03448e-40,9.40786e-40,2.43272e-40,-1.352746e-39,-1.00102e-40,-1.67678e-40,-5.93583e-40,-5.2867e-40,-3.71409e-40,9.2484e-41,5.04016e-40,-2.1392e-41,-1.26802e-40,4.80952e-40,1.074577e-39,-2.11363e-40,-4.97132e-40,2.34554e-40,4.69309e-40,1.344843e-39,-8.9239e-41,2.39754e-40,6.15107e-40,-1.167772e-39,-8.7691e-40,-3.47935e-40,1.857e-40,-7.1641e-41,4.19009e-40,-8.35369e-40,9.34747e-40,3.89923e-40,-1.80318e-40,-1.460844e-39,-3.84813e-40,-1.136725e-39,-5.64942e-40,4.87502e-40,-9.65339e-40,1.276305e-39,-2.9736714e-38,5.04801e-40,1.48923e-40,-1.13411e-40,1.99025e-40,-6.61717e-40,-3.37877e-40,5.53367e-40,-1.058464e-39,6.2208e-40,2.6755e-41,-4.52e-42,-1.30088e-40,4.70164e-40,-1.05315e-40,7.92729e-40,-5.57026e-40,6.11824e-40,9.39149e-40,-1.200002e-39,3.79083e-40,5.61032e-40,-5.8654e-40,-4.34094e-40,-4.66258e-40,-9.5588e-41,-5.5192e-41,-6.34888e-40,-3.79704e-40,-8.5858e-40,6.05732e-40,-2.37572e-40,-2.89178e-40,-6.68588e-40,-1.64302e-40,1.74766e-40,-8.2305e-41,1.1715e-41,-3.342e-42,-3.72933e-40,-6.15575e-40,1.81273e-40,-1.09266e-40,-4.9003e-41,-1.1607216e-38,2.7313664e-38,-2.707022e-38,2.7581427e-38,1.101041e-39,-2.5348225e-38,-7.378058e-39,-1.236942e-39,3.006405e-38,1.9336021e-38,-1.9395962e-38,4.441948e-38,-4.3410192e-38,1.4826985e-38,4.43978e-40,1.1644503e-38,1.7191439e-38,3.3040877e-38,-3.152171e-38,1.5165284e-38,2.3209467e-38,3.2175427e-38,-1.913656e-38,1.0700636e-38,3.4966023e-38,-3.9485732e-38,-2.4352028e-38,1.3408019e-38,3.4599987e-38,2.3731926e-38,-1.0235046e-38,1.6559626e-38,-3.4886172e-38,4.5459226e-38,-2.3318572e-38,2.0696025e-38,-1.1207523e-38,-3.143927e-39,2.845012e-38,1.8970857e-38,-2.0243e-40,3.8703645e-38,2.554529e-38,2.3478752e-38,1.572815e-39,-1.0377328e-38,3.0206762e-38,2.832121e-39,3.3594665e-38,2.4587928e-38,1.4177483e-38,3.286228e-38,1.1402604e-38,1.7520789e-38,-3.2600388e-38,3.9641136e-38,-3.9934901e-38,3.9887252e-38,1.6322232e-38,-2.022217e-38,2.1188419e-38,2.9042006e-38,-2.291496e-39,-1.9683518e-38,-1.6599988e-38,-3.5185335e-38,-3.650703e-38,1.5772182e-38,2.436403e-38,1.2586128e-38,-7.122325e-39,-1.450899e-39,-1.8092142e-38,6.828208e-39,2.5281756e-38,3.9323123e-38,-1.5542138e-38,7.675137e-39,3.0434213e-38,-2.1164542e-38,1.5530655e-38,3.247025e-38,-4.837282e-38,-2.882444e-38,-6.063892e-39,1.3468062e-38,8.989837e-39,-3.2405327e-38,1.9944643e-38,-2.11238e-39,1.6545297,1.7646451,1.1638919,0.8579068,0.50549966,0.20298982,0.00827178,0.3180417,-0.20949654,-2.397044e-38,3.1266315e-38,3.913496e-39,4.530814e-38,6.495723e-39,4.4877264e-38,5.062555e-39,3.4776963e-38,1.3719658e-38,1.5668724e-38,-3.7723028e-38,8.015158e-39,5.278813e-39,1.434621e-39,1.090749e-38,-3.2822376e-38,-2.4741317e-38,5.885919e-39,-1.3147453e-38,2.7073465e-38,-3.4890076e-38,1.759682e-38,4.4737078e-38,-2.917781e-38,4.4937994e-38,-9.455657e-39,-4.503271e-38,-4.3348672e-38,-1.8649916e-38,-1.858599e-38,5.605277e-39,-7.393644e-39,-1.9251956e-38,2.9450129e-38,-5.522624e-39,5.437146e-39,1.0322807e-38,-2.938527e-39,8.30236e-40,-2.546978e-38,2.240782e-38,4.0162744e-38,3.9770837e-38,3.4456562e-38,3.87286e-38,-2.0115286e-38,4.0555708e-38,-2.4413276e-38,-3.7347e-40,-1.2719027e-38,4.0268713e-38,1.5508564e-38,2.98495e-39,4.502239e-38,-3.232695e-38,3.3519673e-38,-1.6109379e-38,2.4796422e-38,1.4552759e-38,-4.2093725e-38,-5.0033227e-38,-4.4827768e-38,-7.092033e-39,-1.925698e-38,5.005916e-39,-1.0382187e-38,2.4759237e-38,-3.775116e-39,3.070852e-38,1.007046e-39,-2.0585611e-38,-3.448814e-38,-1.489062e-38,-3.8591216e-38,-2.1272547e-38,-4.332745e-39,1.4968313e-38,-3.0306025e-38,1.0530698e-38,2.0219575e-38,-2.8061161e-38,-3.0730195e-38,1.5229293e-38,4.284627e-38,-1.176673e-38,4.501714e-38,2.731634e-38,-3.457809e-39,5.64597e-39,-2.631019e-39,2.5460125e-38,-4.1412332e-38,8.614436e-39,-2.1121357e-38,2.7149976e-38,4.0883667e-38,5.4817e-39,-3.680806e-38,-1.9399907e-38,1.9218321e-38,1.5229293e-38,-4.5086234e-38,1.5474535e-38,2.0095791e-38,1.6104189e-38,1.2971639e-38,1.2947889e-38,2.417813e-39,-5.200188e-39,1.2511593e-38,3.588996e-38,-4.2957575e-38,-9.849887e-39,5.245214e-38,-2.75804e-40,2.0527582e-38,-3.25708e-38,-4.287068e-39,2.8341886e-38,-4.3352307e-38,-4.9905457e-38,-6.494997e-39,-1.424407e-39,1.9664437e-38,2.1019644e-38,-2.5471834e-38,1.5645097e-38,2.1239474e-38,7.54363e-39,-7.971827e-39,-5.61325e-40,-1.0665653e-38,4.5756478e-38,3.300284e-38,4.976267e-39,3.4723543e-38,2.1818176e-38,2.829359e-39,-1.3906081e-38,7.42842e-39,3.4511997e-38,-3.522316e-39,1.1865662e-38,3.951181e-38,4.4186405e-38,-1.0920196e-38,2.4088744e-38,-4.425494e-38,1.5329554e-38,-2.7583095e-38,1.818286e-39,-7.044383e-39,2.8555405e-38,1.8031413e-38,-1.6365148e-38,2.2458875e-38,2.137154e-38,-1.1613526e-38,-4.0170903e-38,-3.724436e-39,-2.0271128e-38,4.3960594e-38,-1.0702318e-38,2.941917e-38,3.3504287e-38,-1.958928e-39,9.122258e-39,1.2908668e-38,3.1741624e-38,3.938541e-38,2.623509e-38,2.8626286e-38,-2.0536779e-38,-6.850278e-39,-1.2872916e-38,-4.228513e-38,2.3029708e-38,4.880585e-38,-1.9507019e-38,4.441597e-38,8.214952e-39,2.8758148e-38,4.17294e-39,-3.4689057e-38,-3.424699e-38,3.7129292e-38,-3.0378194e-38,4.240763e-38,-2.7734782e-38,-2.679791e-38,2.2840213e-38,-4.5853748e-38,-4.0492985e-38,2.64875e-39,5.547994e-39,2.4988285e-38,-2.3784432e-38,-2.1009865e-38,-2.2373313e-38,4.2394404e-38,-8.547811e-39,-3.6152766e-38,3.798899e-38,2.2460598e-38,-4.9560866e-38,3.1358832e-38,-1.5906845e-38,1.4894089e-38,-1.5059563e-38,-3.0986818e-38,6.324145e-39,1.521636e-39,-1.8099304e-38,-3.709529e-39,-2.207656e-38,2.5882322e-38,3.0540078e-38,1.2901235e-38,9.904408e-39,4.901769e-38,1.8572391e-38,-3.5947846e-38,-2.7786997e-38,3.3860544e-38,2.8259877e-38,-4.4831588e-38,7.398647e-39,1.2935991e-38,-7.640588e-39,-8.146023e-39,-4.2376942e-38,2.8197155e-38,3.586166e-38,1.5427821e-38,-1.7016082e-38,4.294929e-38,-1.0485478e-38,9.371797e-39,-1.8220203e-38,-3.10994e-39,3.6081076e-38,1.257176e-38,-2.20433e-38,4.1478067e-38,9.333866e-39,3.095758e-39,2.8433324e-38,-1.3084233e-38,-1.4343684e-38,3.4262395e-38,1.6209535e-38,1.3540377e-38,4.8858547e-38,-5.193508e-38,-3.3370892e-38,9.460162e-39,-1.8556944e-38,1.8588087e-38,2.0846239e-38,-5.13484e-38,1.892987e-39,-1.0096085e-38,6.266489e-39,1.543926e-38,-4.0978572e-38,3.868234e-39,-2.9278133e-38,4.5701914e-38,4.3869305e-38,5.3607906e-38,1.020166e-38,-8.036419e-39,2.4142394e-38,-3.581426e-39,-8.434013e-39,-1.5774942e-38,2.0884836e-38,-1.311191e-39,2.2969873e-38,-8.676536e-39,-2.4354873e-38,-3.3568e-39,3.276449e-38,-2.2013942e-38,-4.6650016e-38,5.466628e-39,2.7986273e-38,-1.4399722e-38,-3.07865e-39,2.0378384e-38,4.0011138e-38,-8.294887e-39,-3.4997311e-38,-1.4048758e-38,4.639543e-38,-3.78149e-39,-1.1235095e-38,4.226505e-39,-1.3454131e-38,-2.8201431e-38,-4.211534e-38,2.6712308e-38,1.608897e-38,3.3451074e-38,-2.7808964e-38,4.755888e-38,-2.5094918e-38,-1.1121796e-38,-2.9660553e-38,-3.8812063e-38,-9.297157e-39,-8.093e-41,-9.632715e-39,1.7902147e-38,-4.6886707e-38,-9.559093e-39,4.307914e-39,-1.272291e-38,1.1227683e-38,-2.3811693e-38,-3.7424716e-38,-4.4272192e-38,-4.8960034e-38,-2.718572e-39,-1.4116028e-38,2.295026e-39,4.644765e-38,4.602757e-39,-4.1836172e-38,-2.3444018e-38,2.4975348e-38,2.1390144e-38,2.0863658e-38,-2.7738084e-38,-3.4419088e-38,-7.266828e-39,-3.47883e-38,2.4329523e-38,4.095596e-38,4.5278e-40,-3.470087e-38,3.873653e-38,-3.049822e-38,2.487048e-38,-2.2581475e-38,-4.3173566e-38,1.1321216e-38,-2.3371577e-38,1.0174773e-38,-1.6778128e-38,4.255475e-38,-1.4968396e-38,4.5717278e-38,-1.9869172e-38,1.171443e-38,1.6792785e-38,-2.6513988e-38,3.7196686e-38,-6.135709e-39,7.692307e-39,1.8318303e-38,2.1554954e-38,3.8113522e-38,9.623808e-39,-2.5094918e-38,1.690733e-38,-3.4881875e-38,3.313906e-38,3.6246404e-38,-8.59058e-39,3.5088937e-38,1.68686e-39,-1.3299743e-38,-2.855339e-38,3.94713e-39,-4.242156e-38,4.143372e-38,2.6969012e-38,-4.799728e-39,1.6625692e-38,4.308055e-38,-2.7160272e-38,8.699956e-39,3.051782e-38,-3.261166e-38,1.8479605e-38,2.510148e-38,3.3301567e-38,2.3190678e-38,-6.439001e-39,-2.2194386e-38,1.4928262e-38,1.9057663e-38,3.7002312e-38,-2.374835e-39,4.1315707e-38,3.6998637e-38,3.0983328e-38,3.668004e-39,2.570466e-38,-3.6295194e-38,-1.487191e-39,2.3019577e-38,-2.5263632e-38,-1.6043044e-38,1.9622768e-38,-1.613238e-39,-6.78359e-39,-2.4809106e-38,3.9666217e-38,-2.7848164e-38,-3.6349635e-38,-4.8809737e-38,5.1005185e-38,1.921581e-38,4.3360446e-38,1.6598473e-38,1.072333e-38,2.8537757e-38,4.2707973e-38,-4.73491e-38,-3.2387264e-38,-2.0634257e-38,1.6001976e-38,-2.6620955e-38,-2.7389942e-38,2.2745309e-38,-1.0537155e-38,4.5954134e-38,3.407025e-39,-4.4124386e-38,-2.0656161e-38,4.719749e-38,-3.7971509e-38,-7.95879e-39,-3.103295e-39,8.679256e-39,3.777192e-39,1.2107935e-38,-1.8742598e-38,-1.0171286e-38,4.7624053e-38,3.927614e-38,2.1923399e-38,2.9728113e-38,-6.032395e-39,2.190978e-38,1.3483135e-38,-2.1962785e-38,-3.808161e-38,-8.351484e-39,-2.2438652e-38,-4.7278925e-38,-2.1691777e-38,-3.016418e-38,-1.7150102e-38,-1.7149769e-38,-3.5734305e-38,-1.6656108e-38,5.24306e-40,2.765827e-39,-4.27201e-38,3.034593e-39,2.204544e-39,4.200947e-39,-2.4004988e-38,3.222968e-38,-3.1074348e-38,9.544559e-39,1.0983603e-38,2.222316e-39,-9.966612e-39,2.389057e-38,-1.0848254e-38,-4.9334685e-38,4.2246245e-38,-1.5187312e-38,-1.9343371e-38,5.16748e-40,8.73631e-39,-5.08299e-40,1.0507091e-38,-3.9300452e-38,4.1274888e-38,1.696754e-38,-1.2862411e-38,-4.397748e-37,4.123136e-37,7.076188e-37,1.8574852e-38,-2.0007302e-38,-8.100759e-37,4.0387076e-37,4.1197143e-37,1.8582309e-38,1.9084557e-38,2.83562e-38,1.4749956e-38,-5.029487e-39,4.600454e-39,1.367838e-38,-1.1393647e-38,2.6729953e-38,1.3623541e-38,-1.7119436e-38,4.1205036e-38,-2.5669266e-38,8.788947e-39,-9.109525e-39,9.208123e-39,-6.934504e-37,7.1106175e-37,5.942731e-37,-2.7873068e-38,-8.136431e-37,6.6142996e-37,1.568106e-39,1.994691e-39,-4.505518e-37,7.1437895e-37,5.400491e-39,-4.203181e-38,-3.0563143e-38,-5.239744e-39,-8.5552e-41,2.3381375e-38,-6.947789e-39,1.5053994e-38,6.018585e-39,3.1617068e-38,-1.5925684e-38,6.4486195e-37,6.0918574e-37,-1.504731e-39,-2.9889195e-38,-1.3463952e-38,-9.966801e-39,2.6794503e-38,-2.5414252e-38,2.519802e-38,7.660326e-39,3.147756e-38,-6.76348e-40,-9.302242e-39,-1.05948e-39,1.903967e-38,8.554758e-39,1.4611143e-38,-1.8017297e-38,-2.9056722e-38,-7.83948e-40,2.405616e-38,-6.435893e-39,1.1238084e-38,5.001753e-39,5.50144e-39,-2.865029e-39,-3.331252e-38,1.3147883e-38,2.0158983e-38,2.7094274e-38,-8.735315e-39,-2.3713325e-38,3.3330977e-38,-7.0943477e-37,-8.022746e-39,4.859172e-39,1.034962,0.7515449,0.94226176,0.8533674,0.84174854,0.7622114,0.00692824,0.34330437,0.27259123,1.331741e-38,-7.221002e-39,1.3364179e-38,9.709517e-39,-8.098667e-39,1.8652737e-38,1.6894363e-38,-3.572347e-39,2.636282e-39,2.1545e-38,-2.896466e-39,-2.2657467e-38,3.9208623e-38,6.9886e-39,1.1268411e-38,-1.015538e-38,-3.5775926e-38,-2.9813323e-38,4.0323344e-38,2.7716024e-38,-5.114298e-39,-7.370299e-39,-6.960158e-39,-2.667993e-38,2.0392721e-38,2.71313e-38,-2.2024476e-38,-1.2055113e-38,-3.7663484e-38,-3.414014e-39,7.94457e-39,2.41063e-39,2.1169856e-38,-4.57045e-39,5.399026e-39,5.994846e-39,3.484582e-38,-6.50497e-39,-6.561726e-39,-1.7183712e-38,3.768979e-39,5.31608e-40,-2.7690723e-38,-2.585422e-38,-1.7916027e-38,-2.0019816e-38,4.661059e-39,3.2322661e-38,6.324461e-39,-3.966253e-39,-2.4671614e-38,-2.97776e-38,-1.1519043e-38,-2.9625162e-38,1.2463482e-38,-1.225044e-38,-3.139482e-39,1.5860377e-38,-3.0136622e-38,-1.402107e-39,2.6507197e-38,3.316419e-38,2.8203197e-38,1.5831741e-38,-1.3717646e-38,-9.818921e-39,-1.8981756e-38,-1.43603e-38,1.4699947e-38,-5.827576e-39,1.0455779e-38,-1.677091e-39,-3.6592037e-38,-1.4239123e-38,1.4665949e-38,1.997154e-39,-8.877269e-39,-3.074235e-38,2.2280842e-38,8.81093e-39,-1.94304e-39,-3.2924315e-38,1.7462675e-38,9.484718e-39,-2.171013e-39,6.402555e-39,-6.668569e-39,2.7005485e-38,-1.181197e-38,-3.4174948e-38,5.358941e-37,6.8629985e-37,1.693535e-39,1.075505e-38,-2.1128191e-38,3.0812746e-38,3.97918e-38,3.0391798e-38,7.024789e-39,6.377199e-37,7.3355715e-37,6.622391e-37,3.978842e-37,-7.944652e-39,-3.1400218e-37,-4.431026e-37,1.8009149e-38,-3.1728794e-37,1.8486965e-38,-6.323655e-39,4.290536e-39,1.225234e-38,9.510164e-39,1.098299e-38,-1.5772393e-38,3.7067693e-38,1.4983049e-38,-4.414178e-39,-7.097857e-37,8.048084e-37,-6.80598e-37,-1.5251543e-38,3.2836333e-37,4.4026856e-37,4.0408103e-37,-3.282554e-38,-1.2202365e-38,6.315666e-39,1.823409e-39,2.9547936e-38,-1.5761715e-38,2.5377515e-38,-1.9442049e-38,-2.7300102e-38,-1.0343459e-38,-2.6483636e-38,3.5177673e-38,3.0102803e-38,2.1338335e-38,1.1400363e-38,2.0690269e-38,1.321261e-38,1.4431938e-38,-2.26959e-40,9.518265e-39,6.017781e-39,7.128976e-39,2.1360851e-38,1.7913177e-38,3.78784e-40,-2.132972e-39,2.4847516e-38,-1.2309933e-38,9.474201e-39,1.0929182e-38,-6.897686e-39,1.5327303e-38,-2.0378983e-38,-2.7505816e-38,1.398515e-39,2.532878e-38,-3.839666e-39,-3.482543e-39,-1.0202714e-38,3.4909744e-38,-2.686337e-38,-3.014387e-38,3.8840855e-38,2.2292712e-38,-2.591993e-39,9.62639e-40,2.3499943e-38,-1.9301481e-38,-7.208424e-39,8.629857e-39,-2.268541e-38,-1.8220323e-38,-3.2740744e-38,3.6391105e-38,-2.01269e-38,6.542464e-39,-1.70278e-39,-2.8314648e-38,1.8097261e-38,2.1847461e-38,-2.8127953e-38,-1.8140955e-38,2.1953982e-38,-2.5322113e-38,-1.8759034e-38,4.506092e-39,1.4017432e-38,5.792755e-39,-1.8933037e-38,-1.9267756e-38,2.4253096e-38,-2.5575353e-38,-2.594101e-38,-3.001909e-39,-1.3918432e-38,1.547987e-38,-3.7375068e-38,-6.31156e-39,2.7099717e-38,-5.346104e-39,-3.1318135e-38,-2.691729e-38,-2.7915698e-38,-3.4618493e-38,-6.149056e-39,-5.916623e-39,-2.6058824e-38,-8.314223e-39,-1.9235513e-38,-1.3197311e-38,1.6225873e-38,-1.9534542e-38,-2.7776275e-38,3.32416e-40,-1.3979391e-38,3.592704e-39,-1.420049e-39,6.213607e-39,1.427272e-38,2.75068e-39,1.2517774e-38,-1.2036061e-38,-1.1160408e-38,3.129132e-38,-2.30099e-40,1.444727e-38,-2.0469012e-38,7.979229e-39,-1.1074533e-38,3.2622497e-38,8.047435e-37,-3.2734108e-38,-1.0063403e-38,-6.899199e-39,5.923741e-39,1.2166547e-38,1.494633e-39,-2.2672042e-38,2.0877785e-38,-2.0078375e-38,-1.3852689e-38,1.432205e-38,-2.8035024e-38,-1.1806332e-38,-1.1934596e-38,3.1348927e-38,-3.124611e-38,-2.1581045e-38,1.6152482e-38,9.948489e-39,1.5254909e-38,2.995492e-38,2.9127715e-38,2.3997295e-38,2.6121683e-38,1.3926323e-38,1.2364756e-38,-7.565844e-37,-9.717924e-39,-8.470751e-39,-1.9110792e-38,-3.4019225e-38,3.1219374e-38,9.13473e-39,-4.705413e-39,-2.062952e-38,2.8974407e-38,1.1331786e-38,-2.0295492e-38,-7.599431e-39,-3.374669e-39,-2.3061505e-38,-2.538225e-38,2.9635276e-38,-1.1400589e-38,1.237231e-38,3.5623165e-38,1.7002558e-38,6.136671e-39,-8.053798e-39,-3.4873103e-38,-1.7221238e-38,3.8798513e-38,-1.7028311e-38,8.683423e-39,2.6109893e-38,4.590823e-39,-1.4928387e-38,-1.7578408e-38,-2.810785e-39,4.35884e-39,3.6626775e-38,1.0852311e-38,2.7037084e-38,-4.794815e-39,2.087867e-38,2.401079e-39,-6.8887725e-37,-3.8242635e-38,-3.4432266e-38,-3.3376956e-38,1.4718244e-38,1.0032448e-38,-2.088086e-39,-6.624521e-39,6.454416e-39,-2.1854337e-38,-1.0534453e-38,1.725411e-38,2.607295e-38,-1.6814044e-38,-6.242081e-37,4.1695714e-37,3.043926e-38,-1.5214855e-38,-6.548365e-37,7.713844e-39,-1.2327778e-38,4.541598e-38,1.9193816e-38,1.5631277e-38,2.630855e-39,1.5712593e-38,-8.821238e-39,-2.4737985e-38,-8.687128e-39,2.5918545e-38,1.9323593e-38,2.5588175e-38,-1.295747e-39,-2.5501222e-38,-1.4597615e-38,-2.8733984e-38,1.6160937e-38,-2.6503638e-38,5.8933e-40,-3.8672763e-38,-3.1258866e-38,3.641436e-38,-6.367284e-39,-6.030592e-37,3.333004e-39,4.057966e-38,3.9127532e-38,3.0752818e-38,-3.9457258e-38,3.544823e-39,-8.247208e-39,-5.875645e-37,-3.541212e-38,-8.27718e-39,-1.471973e-39,2.2238678e-38,-1.921427e-38,3.6787493e-38,-2.513434e-38,-1.0123556e-38,2.96762e-39,1.7046574e-38,1.632382e-39,-3.000889e-38,-1.7247586e-38,-1.8164872e-38,1.0636707e-38,-2.313498e-39,-1.4671683e-38,1.2512104e-38,2.335014e-39,-1.0280438e-38,1.8689426e-38,-2.5271106e-38,-2.1602239e-38,-8.762501e-39,-5.413135e-39,2.3540592e-38,-2.0914601e-38,1.7707703e-38,-1.5864404e-38,8.55198e-40,1.5724721e-38,-2.1795054e-38,-2.0237883e-38,1.065502e-38,2.5076584e-38,2.3320335e-38,9.898435e-39,1.3201498e-38,-4.0946432e-38,6.685463e-39,1.8163342e-38,2.0147435e-38,1.14959e-38,8.833945e-39,1.216589e-39,1.7632603e-38,3.566169e-38,9.326128e-39,-1.6529043e-38,-2.004e-39,-9.942419e-39,1.3862723e-38,8.74477e-39,2.879873e-38,-6.767602e-39,1.664223e-39,1.5996758e-38,8.374392e-39,-6.278495e-39,2.0455323e-38,-2.7256827e-38,1.664083e-38,1.8370764e-38,-2.4498753e-38,-1.8203638e-38,7.19293e-39,1.9483617e-38,1.1496963e-38,2.967678e-38,1.4125129e-38,-1.6587973e-38,-4.63901e-40,-2.0021314e-38,-1.1241659e-38,3.548746e-38,-2.2039904e-38,-2.6917935e-38,2.6908756e-38,-4.024298e-38,1.4745188e-38,-2.3771512e-38,-2.7524515e-38,-1.166372e-39,-1.6774587e-38,-2.549982e-38,-2.4925386e-38,-1.9715649e-38,4.65189e-40,-1.341459e-38,-1.1590085e-38,-3.6649437e-38,1.2312446e-38,1.0739572e-38,6.893707e-39,-1.6809567e-38,-1.7525953e-38,-7.357173e-39,-7.233386e-39,1.8313267e-38,-4.378811e-39,-1.7265077e-38,-1.3218521e-38,2.8289685e-38,1.9372828e-38,-8.308586e-39,-1.8277304e-38,-5.997665e-39,2.1895922e-38,2.4877585e-38,-1.5521728e-38,1.7329306e-38,3.9251833e-38,2.727794e-39,-3.135005e-39,5.413296e-39,1.1745357e-38,-3.012833e-38,-4.981267e-39,-2.2200749e-38,-2.4330064e-38,2.709385e-39,8.60127e-40,-2.8708023e-38,-1.585999e-38,-3.1898542e-38,-8.784534e-39,-1.2328407e-38,-1.719336e-39,-2.919352e-39,1.9398903e-38,-3.8520436e-38,1.8772321e-38,-5.1862633e-38,-3.2697074e-38,6.713701e-37,-8.989002e-37,-3.471482e-39,1.8026858e-38,4.4783767e-38,3.5830975e-38,-1.0803688e-36,-3.308058e-38,-2.383479e-38,5.22455e-39,-4.8498985e-38,3.5502048e-38,3.0752627e-38,4.154836e-39,-4.8361545e-38,-5.072923e-39,3.55136e-38,-1.235351e-38,-5.566012e-38,-1.1491756e-38,-1.6290678e-38,-5.015555e-38,5.348865e-38,1.6115441e-38,7.2225116e-37,-3.4312133e-38,5.3138415e-38,-2.5443435e-38,1.4817123e-38,2.029419e-39,2.198836e-38,-3.963046e-38,1.8875566e-38,-1.2646881e-38,-4.4071223e-38,3.2821271e-38,5.202768e-38,3.2682865e-38,1.1204094e-38,-5.460736e-38,4.6978848e-38,2.1044688e-38,4.4496192e-38,1.201092e-39,-4.5099715e-38,-7.208463e-39,2.5002477e-38,6.085161e-39,-2.1149997e-38,1.4402696e-38,-1.628082e-39,1.0879076e-38,-3.6892343e-38,-1.249811e-38,-1.4530912e-38,-3.0607853e-38,-4.1774173e-38,-5.158011e-38,-7.506974e-39,2.0554755e-38,2.6519517e-38,-4.3538178e-38,-9.80754e-39,-3.9482108e-38,-5.02465e-39,-1.504195e-38,2.477284e-38,-7.334856e-39,-1.1529664e-38,5.23684e-38,-5.159036e-39,-4.2793197e-38,-1.0700567e-36,5.0323806e-38,-3.1588423e-38,-2.9467507e-38,2.0021203e-38,8.399344e-39,-2.7344792e-38,2.4287684,0.38304496,2.1871538,0.9764622,-0.17677675,0.44765052,-0.78996754,0.2337318,-0.389663,8.837929e-39,1.690305e-38,-1.2952507e-38,-2.7797698e-38,1.134766e-39,-5.802442e-39,2.458518e-39,-8.47619e-39,-4.3133043e-38,6.958424e-39,2.6967613e-38,1.7250999e-38,-3.9571604e-38,-2.3185873e-38,1.2448408e-38,5.274121e-38,-8.501116e-39,-2.3632363e-38,-1.7914257e-38,-4.8002835e-38,-2.0012068e-38,4.4267545e-38,-2.74026e-38,1.7823971e-38,-3.01594e-39,1.9802152e-38,-3.6597435e-38,2.3054912e-38,-3.6280038e-38,-2.4441826e-38,1.07637e-40,3.658753e-38,4.839157e-39,3.544936e-38,-1.4493158e-38,3.2755604e-38,-3.8798224e-38,2.820378e-38,-4.5489172e-38,-3.5563058e-38,2.1222032e-38,2.836444e-39,3.180822e-38,-9.501539e-39,3.9486677e-38,5.148911e-39,-1.6707477e-38,1.244446e-39,-4.246102e-38,-8.958018e-39,3.5189306e-38,-4.027771e-38,-2.356964e-39,-3.2120874e-38,-3.4440284e-38,-7.601301e-39,5.2435316e-38,4.1967858e-38,-3.6103306e-38,-8.487763e-39,4.549767e-38,-2.0495192e-38,-1.5264888e-38,2.0320989e-38,2.2883958e-38,1.4539915e-38,1.1957378e-38,-2.6719617e-38,2.8867368e-38,-5.175649e-38,-4.1420998e-38,-1.1705296e-38,-8.824181e-39,7.136208e-39,-3.9855795e-38,-2.8287368e-38,1.1739358e-38,7.968379e-39,1.265705e-39,6.27175e-40,2.5099243e-38,-2.263596e-38,-4.9027526e-38,-1.573242e-39,3.4453944e-38,4.43878e-40,3.3823783e-38,-4.4547715e-38,-2.4093878e-38,-4.5837975e-38,-2.0719888e-38,9.545399e-39,1.973049e-38,-1.2624963e-38,-3.548657e-39,-4.1984396e-38,2.0340799e-38,1.194898e-39,7.937061e-39,8.01027e-37,-1.320962e-39,5.0220715e-38,2.7323095e-38,4.2600765e-38,-3.6168402e-38,1.6866418e-38,4.396992e-39,-1.165465e-38,2.0852474e-38,-4.933263e-38,1.4698131e-38,-5.508357e-38,-1.5128965e-38,5.057604e-38,1.3168023e-38,-1.6097038e-38,-8.58275e-39,3.437543e-38,4.635198e-38,8.682177e-37,-5.148174e-38,7.363186e-37,4.3993236e-38,-4.8543395e-38,2.6633987e-38,2.1130582e-38,7.119978e-39,3.549425e-38,7.309819e-39,2.4983655e-38,4.653927e-39,-2.9676214e-38,-2.9902316e-38,-3.4440943e-38,3.5813296e-38,-3.435371e-38,-4.326383e-39,-1.9086667e-38,-7.189994e-39,-1.0685105e-38,-3.930953e-39,3.1734228e-38,-3.0978443e-38,-1.6014173e-38,-4.997175e-39,-5.047029e-39,-1.5765299e-38,3.4015424e-38,-1.552468e-38,-1.5518003e-38,6.959829e-39,-2.635467e-39,1.9741867e-38,-2.6662032e-38,-3.1856514e-38,-5.088608e-38,-1.5133115e-38,-2.3681692e-38,1.0962686e-38,2.401196e-38,-2.3999333e-38,-6.700522e-39,1.6382063e-38,1.189782e-39,-2.4791882e-38,-3.8501735e-38,1.189496e-39,2.772619e-38,1.419412e-38,-9.44727e-40,-3.663591e-38,3.115658e-38,-3.205892e-39,2.092126e-38,-1.351599e-39,-1.4220102e-38,1.2499581e-38,1.95589e-39,-1.1507876e-38,3.5448877e-38,-2.0881464e-38,-4.748778e-38,-2.6159843e-38,2.190486e-38,3.0516315e-38,4.823465e-38,3.5051996e-38,-6.441873e-39,-1.06675e-39,-5.226805e-38,1.1148794e-38,-2.0559125e-38,-4.9554555e-38,3.7301038e-38,4.6548915e-38,-1.6422079e-38,-1.7254314e-38,-4.203739e-38,-1.9214816e-38,2.2928893e-38,-4.0552437e-38,-3.586183e-38,3.6476643e-38,3.2367136e-38,-3.091271e-38,-2.992351e-38,-2.8442488e-38,2.636967e-38,3.537831e-38,-3.6146923e-38,-1.900765e-39,6.718223e-39,-2.8158098e-38,3.7622675e-38,-2.303653e-38,9.444504e-39,-7.222058e-39,-3.5292e-38,4.7906774e-38,-4.7119053e-38,1.8026682e-38,3.459259e-38,2.7192286e-38,4.1115372e-38,4.277475e-38,-2.1145978e-38,-2.506658e-39,4.754031e-38,-4.74294e-38,5.152251e-39,1.933928e-39,5.5634335e-38,3.1559125e-38,-4.1929776e-38,6.937955e-39,-3.1852232e-38,-5.3450456e-38,-5.590573e-39,2.896332e-38,4.2369503e-38,-5.076555e-38,-3.777336e-38,-5.894287e-39,2.879775e-39,8.240535e-39,-3.5447515e-38,-1.7697996e-38,-3.0378413e-38,-3.4759043e-38,4.3261192e-38,-4.60614e-40,1.2428116e-38,1.9798726e-38,-4.8768964e-38,-1.8203807e-38,-2.502064e-38,1.8640592e-38,3.598873e-38,-3.1867848e-38,2.4957675e-38,-2.1657785e-38,-1.899645e-39,8.083197e-39,-8.92088e-39,3.91297e-38,-2.6004308e-38,-4.6718374e-38,5.049245e-38,2.6265305e-38,-6.268964e-39,3.87126e-39,-4.1534674e-38,-9.48744e-39,-1.8003974e-38,-1.6590506e-38,-1.5851038e-38,-1.4911363e-38,-2.1404429e-38,3.5355164e-38,-4.1240687e-38,1.9048673e-38,5.6305876e-38,4.7316956e-38,3.8956156e-38,2.909907e-39,-4.0520087e-38,-3.9317918e-38,-3.84109e-38,-2.498137e-39,-4.993786e-38,-2.020707e-38,1.8311993e-38,3.553835e-38,3.80626e-38,3.9909053e-38,1.5265964e-38,-1.868746e-38,-9.724685e-37,3.763469e-38,-4.3980234e-38,-9.526848e-37,5.2256785e-38,-2.1952649e-38,1.0229461e-36,4.875212e-38,-1.2049443e-38,-7.06e-39,-1.1509195e-38,8.242906e-39,3.125247e-39,-1.4047039e-38,6.693427e-39,2.91802e-38,3.3201724e-38,-5.0121487e-38,-2.7785047e-38,6.83146e-39,4.781286e-39,-2.199604e-39,1.9639653e-38,1.1027493e-36,6.035999e-38,-6.011195e-38,-1.8652299e-38,2.5536117e-38,-2.8125066e-38,-7.254563e-39,2.711577e-38,-2.0407475e-38,-3.4062225e-38,-3.6412183e-38,5.417556e-38,9.638958e-39,-4.272004e-39,3.8548558e-38,1.1484574e-38,3.3571897e-38,2.6697522e-38,1.2956614e-38,2.4794892e-38,-2.8991697e-38,3.028962e-38,2.094331e-38,-5.751644e-39,2.1589263e-38,2.1621196e-38,9.07053e-39,4.0797622e-38,2.5140424e-38,-4.8697807e-38,2.2103025e-38,8.718148e-39,4.1207877e-38,3.3173306e-38,4.1430398e-38,-1.7899082e-38,4.2771236e-38,-1.5857319e-38,4.354714e-39,-3.7054205e-38,-3.1517442e-38,1.378701e-39,-2.7748064e-38,-3.8707894e-38,-1.8379593e-38,-1.2028271e-38,6.895546e-39,1.0251506e-38,3.1367262e-38,-3.7537e-38,-7.317243e-39,-2.7726386e-38,-2.97933e-39,4.855101e-39,3.8645172e-38,-3.4405627e-38,-3.206083e-38,1.45671e-39,3.6129112e-38,-4.045156e-39,-3.97143e-40,4.166186e-38,-2.1802736e-38,2.2011728e-38,3.4298187e-38,2.741062e-39,1.6473427e-38,-3.226186e-39,2.851606e-38,3.3131115e-38,4.685993e-39,-2.767346e-38,2.279165e-38,2.9687394e-38,2.3379052e-38,1.8178463e-38,-4.1231927e-38,1.7223546e-38,-3.2826148e-38,-3.873939e-39,-9.3757e-41,-3.0968077e-38,-4.6746092e-38,-1.1123538e-38,3.3276856e-38,-3.8164593e-38,1.081991e-38,3.5812615e-38,1.10885e-39,-3.6148966e-38,8.72954e-40,-8.683139e-39,-1.6148847e-38,2.7785795e-38,1.4550436e-38,1.6615434e-38,4.090247e-38,9.657933e-39,-1.414062e-38,2.595935e-38,-2.2021457e-38,1.382689e-38,6.56583e-40,-4.0554763e-38,-2.3225646e-38,1.3515026e-38,-3.6764304e-38,-2.8450041e-38,1.4503064e-38,2.8935143e-38,-2.9130675e-38,1.388122e-39,3.262291e-39,3.7148313e-38,-4.918396e-39,1.1254147e-38,1.5994628e-38,3.15494e-39,9.645524e-39,3.2411392e-38,-1.846081e-38,3.8496794e-38,7.501308e-39,-2.92583e-39,-2.9911386e-38,2.5367028e-38,-8.19079e-39,2.553328e-39,2.838655e-38,1.3874482e-38,4.5226678e-38,3.3100654e-38,2.6192566e-38,-3.828677e-38,3.6478663e-38,4.766946e-39,-3.0418098e-38,3.676213e-39,-4.1407184e-38,2.6579958e-38,2.9401862e-38,1.202546e-38,-3.793087e-38,-2.0051335e-38,4.7959967e-38,4.840343e-39,4.160223e-38,4.4087848e-38,5.111554e-39,-2.2134738e-38,-4.6760102e-38,-2.0513575e-38,-2.224266e-38,3.4767784e-38,5.088164e-39,2.1016949e-38,8.735672e-39,-1.2915084e-38,1.1065887e-38,-4.6789883e-38,2.3961315e-38,2.544785e-39,3.703863e-39,-3.4284418e-38,2.6235724e-38,1.6568984e-38,-1.6092396e-37,-7.8848027e-38,-1.4051996e-37,1.733042e-37,4.82544e-40,-4.7198484e-38,-6.935706e-39,1.6918692e-37,-1.9087156e-37,-3.431512e-39,-3.374666e-39,-5.92965e-39,-4.04096e-39,-2.384043e-39,5.387139e-39,4.213849e-39,-7.8355e-40,-7.016102e-39,6.687946e-38,1.865588e-37,-2.31641e-39,1.0031373e-37,-3.357476e-39,1.878132e-39,9.478663e-39,7.776618e-39,6.00091e-38,7.720126e-39,5.519128e-38,9.57818e-39,-1.5784177e-37,1.30369e-39,-5.4015914e-38,-1.829607e-37,-1.971206e-37,1.9845823e-37,-2.272177e-39,-2.839465e-39,2.085795e-39,-8.343314e-39,-3.905265e-39,-1.532332e-39,1.080953e-39,-7.781419e-39,9.901359e-39,6.131156e-39,1.829739e-37,1.950555e-37,-1.6319341e-37,-1.123232e-39,-1.7639751e-37,-6.3529973e-38,8.101614e-38,-1.4610109e-37,8.749277e-39,-8.636099e-39,9.656905e-39,-7.50945e-39,-1.475354e-39,-4.360702e-39,-3.3316e-39,4.671881e-39,3.426528e-39,-9.003898e-39,-8.166905e-39,9.37875e-40,4.846028e-39,4.120637e-39,-5.331649e-39,-1.327774e-39,2.491825e-39,-5.958074e-39,-1.6284956e-37,1.0318073e-37,1.0082265e-37,1.4382469e-37,-4.579005e-39,2.0048104e-37,-4.694382e-39,-1.7878117e-37,5.275405e-39,-0.018973444,-0.007805464,-0.00091817556,0.0007747944,0.006290868,0.0070170863,0.013871648,0.017881323,0.01569871,2.756095e-39,-1.9587442e-37,4.38731e-39,1.5109235e-37,-7.53435e-40,2.881262e-39,-2.873779e-39,-1.019568e-39,1.19603e-39,-5.67755e-39,7.788826e-39,2.226826e-39,7.125797e-39,-7.1e-39,1.987506e-39,-6.781067e-39,4.789194e-39,-4.278662e-39,5.874916e-39,-8.74545e-39,-1.2914843e-37,-1.9739482e-37,7.153522e-39,4.617445e-39,-1.473008e-37,1.0908261e-37,-9.71506e-40,7.396013e-39,7.60538e-39,-3.809136e-39,-4.750203e-39,7.5272e-40,-3.343624e-39,-2.244776e-39,-2.652476e-39,5.256314e-39,4.736299e-39,-5.891657e-39,6.017264e-39,4.766417e-39,2.219585e-39,-4.596405e-39,2.465126e-39,-5.40861e-39,-6.825135e-39,1.602245e-39,2.68052e-39,-1.973035e-39,-2.593422e-39,9.167164e-39,1.324454e-39,-5.13946e-39,8.872121e-39,-1.8581e-41,4.799523e-39,-1.382948e-39,-4.346818e-39,-5.008187e-39,-3.318426e-39,-1.006083e-39,-6.119494e-39,-8.162199e-39,5.111e-40,-2.550987e-39,-2.155923e-39,-8.75393e-40,-3.297465e-39,5.76131e-40,-2.68637e-39,-1.944157e-39,3.058737e-39,8.845877e-39,3.71782e-39,4.449309e-39,-1.452414e-39,6.65008e-39,-5.38505e-40,-3.836502e-39,5.542912e-39,-5.258856e-39,-6.902889e-39,2.941676e-39,-3.679782e-39,-1.084305e-39,-7.746734e-39,2.806093e-39,-2.102657e-39,-4.363025e-39,3.297135e-39,6.503706e-39,-7.095486e-39,8.269586e-39,2.15948e-39,2.55317e-39,5.38585e-39,-2.579139e-39,1.8649447e-37,7.978562e-39,-4.23946e-40,1.0733403e-37,-7.86299e-38,-3.4751877e-38,-2.534432e-39,8.535804e-39,3.3168603e-38,9.240867e-38,-2.807394e-39,-5.6999194e-38,-8.775438e-39,-3.923323e-39,-5.10137e-40,-3.076027e-39,3.040502e-39,1.849645e-39,2.375068e-39,1.321232e-39,-6.046341e-39,1.8942894e-37,-1.7442651e-37,1.1208147e-37,1.545942e-37,-1.788795e-39,1.3513562e-37,-3.872985e-38,7.582126e-38,1.5110269e-37,-6.419446e-39,-2.72906e-40,6.624137e-39,-4.01661e-39,-3.388757e-39,5.561138e-39,8.641064e-39,-2.06052e-39,-4.95415e-39,9.22e-43,-4.303948e-39,-1.446607e-39,-4.917015e-39,5.617842e-39,-4.466074e-39,-1.047234e-39,-4.596126e-39,2.399655e-39,-7.172578e-39,-1.024082e-39,4.13921e-40,5.927644e-39,-2.859268e-39,2.197836e-39,-6.767837e-39,-9.072e-42,-5.819115e-39,1.0052e-40,9.876297e-39,8.006738e-39,6.03448e-40,-2.33027e-39,1.427343e-39,7.809994e-39,1.833174e-39,-2.626039e-39,-5.751652e-39,2.771473e-39,-5.945327e-39,-4.503768e-39,-2.642242e-39,-4.645522e-39,2.4424e-40,5.802676e-39,-1.359202e-39,-1.0077902e-38,4.837599e-39,-4.800672e-39,7.541259e-39,6.078991e-39,2.445539e-39,3.102881e-39,-5.087047e-39,-2.372027e-39,6.872179e-39,7.222393e-39,2.379126e-39,4.266294e-39,-4.162e-40,7.895256e-39,-5.444249e-39,9.86319e-39,1.7565474e-37,1.770469e-39,-4.865217e-39,-5.964851e-39,-7.184005e-39,-1.613822e-39,-4.455015e-39,3.256527e-39,-7.746526e-39,3.619145e-39,4.30222e-39,-3.310268e-39,-2.114833e-39,-8.331618e-39,5.000029e-39,1.80908e-40,-3.869794e-39,-9.475873e-39,1.422015e-39,2.322463e-39,-5.254099e-39,-5.254582e-39,-2.512482e-39,-1.917283e-39,1.920735e-39,4.892223e-39,3.513944e-39,-5.322933e-39,-7.333616e-39,6.770962e-39,-5.049904e-39,2.333602e-39,-1.593237e-39,3.1452e-39,7.21855e-40,5.888349e-39,8.663828e-39,5.057854e-39,-1.6924988e-37,1.443702e-37,2.851107e-39,9.79492e-40,-1.602592e-39,8.60076e-39,-3.199509e-39,-8.75235e-39,-1.3277339e-37,7.755299e-38,-2.46252e-39,1.1074066e-37,-2.675132e-39,-7.748797e-39,-1.20863e-37,2.73565e-39,-1.1796375e-37,5.807023e-39,4.503269e-39,-5.378914e-39,1.122467e-39,-3.994868e-39,9.384402e-39,1.593373e-39,-6.514774e-39,-1.382294e-39,3.4793e-39,9.463965e-39,9.384335e-39,5.05237e-40,2.889898e-39,-3.475209e-39,-4.493883e-39,-4.897994e-39,-1.510234e-39,7.210167e-38,7.0853636e-38,-1.2229117e-37,7.7461744e-38,-4.406187e-39,-1.1617749e-37,-1.9519121e-37,-1.9583296e-37,3.6175767e-38,5.3779e-40,-3.32624e-39,-1.641927e-39,-1.136146e-39,-3.476194e-39,7.437727e-39,-2.844661e-39,1.357874e-39,-4.819817e-39,-3.01538e-39,-8.834371e-39,-8.30771e-40,-7.638308e-39,-3.088965e-39,1.9868605e-37,-1.889602e-39,-2.812494e-39,4.81762e-40,3.780373e-39,-5.54187e-39,3.281597e-39,1.920419e-39,-2.101662e-39,9.685583e-39,3.815206e-39,7.919887e-39,-8.055259e-39,-1.4286183e-37,6.804525e-39,-1.8214178e-37,-1.6063004e-37,-6.020093e-39,-1.9676313e-37,5.238526e-38,-1.425541e-37,5.116583e-38,1.3946796e-37,3.750825e-39,-7.508489e-38,1.3431356e-37,-6.12648e-40,6.118192e-38,-1.860318e-37,1.4716797e-37,6.548796e-39,-1.3104434e-37,-9.929155e-38,-6.428339e-38,-5.806552e-39,4.354337e-39,3.7682412e-38,-6.059586e-38,-5.1131475e-38,-6.088189e-39,-4.268017e-39,-6.04915e-39,1.117381e-39,8.824461e-39,-2.089274e-39,2.462643e-39,-2.966899e-39,5.847965e-39,-2.138998e-39,5.936472e-39,-2.457316e-39,2.801372e-39,4.389612e-39,1.821409e-39,4.994118e-39,-3.527924e-39,2.738667e-39,-8.38274e-40,-7.6745423e-38,-1.076782e-37,1.3834067e-37,7.570753e-38,-7.55395e-40,-1.3268783e-37,1.3247851e-37,-1.429382e-39,-5.736295e-39,6.314365e-38,-4.60415e-40,-1.2242654e-37,-3.82405e-39,-2.236551e-39,-3.08593e-40,8.789642e-39,9.448133e-39,-5.478898e-39,-8.57142e-40,1.838403e-39,8.66287e-39,-7.209039e-39,2.063489e-39,-2.803228e-39,-6.685165e-39,-9.166482e-39,6.18323e-39,5.299566e-39,-4.973246e-39,4.676799e-39,-2.280891e-39,-4.464107e-39,9.220404e-39,6.313169e-39,5.917248e-39,-7.250265e-39,5.71398e-40,1.227299e-39,-4.538888e-39,3.104704e-39,5.32862e-40,3.443018e-39,-3.058742e-39,-2.102428e-39,-1.56722e-39,2.50233e-39,-5.335059e-39,4.41626e-39,6.08526e-39,-2.693545e-39,3.288043e-39,-1.128939e-39,9.179154e-39,-2.255376e-39,-2.423246e-39,-4.955982e-39,-3.474678e-39,5.382319e-39,4.142432e-39,4.29156e-39,9.366268e-39,1.107464e-39,-7.06239e-39,6.269066e-39,-4.718571e-39,-3.163838e-39,-1.39044e-39,5.43422e-39,-6.25706e-40,-6.142347e-39,-6.142457e-39,4.433708e-39,8.544927e-39,-3.1654e-40,-2.371576e-39,3.904801e-39,-1.17217e-39,-2.075118e-39,-5.47413e-40,-7.570172e-39,-3.63267e-39,-3.848593e-39,-5.99841e-40,6.156609e-39,2.543966e-39,5.114428e-39,9.731662e-39,2.685919e-39,6.03072e-39,5.496398e-39,-8.840541e-39,9.42054e-40,9.813767e-39,5.892268e-39,1.401862e-39,5.273673e-39,9.19871e-40,2.06511e-39,8.08406e-40,-9.549909e-39,2.397884e-39,-9.31619e-39,-1.179523e-39,7.079147e-39,-7.182018e-39,-1.405912e-39,2.781241e-39,-2.141735e-39,3.856228e-39,-3.422217e-39,-7.326847e-39,1.903043e-39,6.303466e-39,-5.832683e-39,8.24245e-40,4.445657e-39,1.442983e-39,-7.731887e-39,1.629993e-39,-7.527725e-39,-9.221125e-39,-2.899508e-39,-2.034296e-39,6.002333e-39,-7.846543e-39,8.726844e-39,6.771628e-39,7.236664e-39,8.10298e-40,-3.24919e-40,-5.782211e-39,-2.333103e-39,-4.925137e-39,2.274354e-39,-3.59489e-40,-7.397822e-39,2.192033e-39,6.467573e-39,-1.9252e-41,-2.613595e-39,-5.706452e-39,5.12585e-39,1.610315e-39,-7.631616e-39,5.306776e-37,2.0619738e-38,2.634039e-39,-3.027414e-37,2.8594125e-37,-3.195353e-37,4.882457e-37,7.4758627e-37,-2.3050236e-37,-2.0191366e-38,7.180492e-39,-3.0757204e-38,3.4183715e-38,-8.932699e-39,1.1075942e-38,-7.423781e-39,-1.2107425e-38,-2.197303e-38,-5.970204e-37,-2.9679185e-37,2.9958965e-38,4.06728e-37,2.2414478e-38,-4.3262617e-37,6.0789744e-37,6.5039804e-37,-4.3662016e-37,-3.3737973e-38,2.8894018e-38,1.2579379e-38,-3.290058e-38,-1.784345e-38,-3.712162e-38,3.8674677e-38,-3.3513376e-38,-4.9536676e-37,-2.00156e-40,-2.476927e-38,5.54679e-40,3.5144532e-38,-1.1901668e-38,-2.2571082e-38,-1.43519e-38,3.65091e-40,1.9944234e-38,1.092587e-38,-2.050205e-39,-3.096838e-38,-4.972171e-37,1.3173032e-38,-6.272597e-39,1.7698481e-38,-3.263715e-37,-5.9165866e-37,2.485002e-39,-4.666258e-39,-3.7889802e-38,2.6890024e-38,8.286395e-39,-2.7183172e-38,3.4463156e-38,-1.190928e-38,-3.7799948e-38,-5.8499e-39,-1.8995803e-38,3.085096e-39,5.212364e-39,2.1854606e-38,1.9368942e-38,-1.0043407e-38,7.794503e-39,6.193387e-39,-5.987456e-37,-1.7245518e-38,1.5773426e-38,5.0069582e-37,1.7222067e-38,-3.1358512e-38,6.473714e-39,6.6670203e-37,4.231767e-37,0.6501541,0.45961392,0.7890152,0.097029254,0.22859639,0.046754003,-0.6830907,-0.3177278,-0.5973727,-1.6808888e-38,-1.1219482e-38,3.8142475e-38,-5.74184e-37,6.655974e-39,-3.7156487e-37,5.4811263e-37,-7.517928e-39,-3.1996005e-38,1.5044249e-38,-2.7591923e-38,-2.8609218e-38,7.075369e-39,-1.34759e-40,-1.8773187e-38,-2.3900516e-38,3.597365e-38,6.959557e-39,-1.888367e-38,4.333881e-37,6.6471963e-37,-2.4428937e-38,-5.067006e-39,6.0195217e-37,-3.7044482e-38,6.3845907e-37,2.2744289e-38,-8.268394e-39,3.726416e-39,3.038019e-38,2.149457e-39,-1.3304097e-38,-2.834404e-38,-1.823226e-38,-1.31723e-39,2.9529212e-38,3.2112492e-38,-2.5166597e-38,-2.5534842e-38,-2.629415e-38,-1.0738009e-38,2.2849861e-38,1.046735e-38,2.8097057e-38,3.7407127e-38,-2.001653e-39,2.2602008e-38,-2.6598136e-38,2.0477923e-38,2.550762e-38,-1.4480053e-38,2.9762741e-38,-1.868846e-39,-4.340921e-39,2.0870114e-38,-8.975352e-39,-4.453582e-39,1.4699907e-38,1.5076047e-38,-1.6955297e-38,-3.253609e-38,1.4885304e-38,1.7044146e-38,-1.6499241e-38,-2.0056307e-38,3.0347088e-38,-1.2026022e-38,-1.7267287e-38,2.036549e-38,1.6496388e-38,-4.256188e-39,-1.2449815e-38,-2.2159464e-38,-3.5748917e-38,-2.372575e-38,2.35092e-40,5.7499204e-37,-3.1127323e-38,-6.5973087e-37,-3.4792759e-37,-5.007929e-37,-3.296383e-38,-1.7368716e-38,-1.319899e-38,-6.01395e-39,2.8070287e-38,-2.7698455e-38,-5.425266e-39,-1.0197923e-38,1.0351854e-38,-3.0166357e-38,-3.7462302e-38,3.264428e-39,5.20884e-40,1.7734257e-38,2.0655455e-38,-3.292891e-38,-3.3209238e-38,-5.184499e-39,-6.0033303e-37,6.445931e-37,9.237047e-39,1.6085462e-38,1.5866764e-38,-2.9719444e-37,4.12053e-37,3.2270656e-38,-5.676587e-39,-8.349435e-39,-2.965984e-38,-2.2523579e-38,7.039427e-39,4.30204e-40,1.3730247e-38,-1.9006328e-38,-8.718446e-39,2.1395832e-38,4.5411693e-37,1.7694758e-38,-3.0185935e-37,3.2263117e-37,2.035312e-39,-6.4406247e-37,-4.301073e-37,4.784816e-37,1.6227319e-37,-6.57708e-39,-1.8105715e-38,1.2580626e-38,-2.146902e-38,4.346762e-39,-2.769728e-39,-2.2658518e-38,-1.229093e-38,3.1143404e-38,-1.0810628e-38,-2.790642e-39,-1.6926291e-38,-1.1552941e-38,-5.062486e-39,-6.212514e-39,-1.9269149e-38,3.672428e-39,-6.840127e-39,-1.7938633e-38,5.805762e-39,-1.7679234e-38,8.248487e-39,2.0164853e-38,5.143994e-39,6.723925e-39,1.43377e-40,-9.519446e-39,1.186403e-38,-1.4400183e-38,1.731599e-38,5.692502e-39,1.3256041e-38,-2.7713003e-38,-1.7124302e-38,2.59804e-40,-9.265632e-39,-1.327244e-39,8.998306e-39,-2.2844382e-38,-1.3892075e-38,-1.1566033e-38,-4.91219e-39,-2.326914e-39,-2.6739816e-38,-4.685715e-39,-1.3483476e-38,-1.7395289e-38,-3.2957705e-38,-2.0612292e-38,-1.4938872e-38,-6.977198e-39,-1.0276547e-38,-3.249685e-39,1.0182475e-38,-3.5773886e-38,8.976763e-39,-5.146606e-39,4.018843e-39,1.8234724e-38,3.322449e-38,-4.669524e-37,7.43971e-39,3.2757745e-38,-3.0801986e-38,3.7572077e-38,-1.1367738e-38,2.517927e-39,2.972361e-39,2.7390368e-38,3.342527e-39,-3.399608e-39,-3.734314e-38,-1.444348e-38,-4.580532e-39,-2.6328935e-38,-5.174876e-39,1.2004824e-38,-1.0259132e-38,2.379574e-38,2.0358328e-38,4.561211e-39,-1.44154e-39,-3.4493859e-38,2.1267364e-38,2.4594486e-38,1.7073526e-38,2.5853e-41,-1.2077098e-38,-2.1853224e-38,2.2620009e-38,4.4334e-41,-3.4317827e-38,-2.2738254e-38,-1.951312e-39,-3.2874518e-38,-5.61799e-39,6.578984e-37,-6.79918e-40,1.6695493e-38,6.646262e-39,-1.1998999e-38,-1.015494e-39,-9.228534e-39,-2.9684569e-38,-2.0989514e-38,1.095605e-39,-3.7388004e-37,6.960743e-39,-2.388196e-38,-3.4011815e-38,-3.468328e-38,4.287924e-37,-3.5110194e-38,7.375094e-37,4.614967e-37,-3.9614385e-38,4.135029e-37,3.4147247e-38,1.151154e-39,-2.2301278e-38,3.4071235e-38,2.8909496e-38,2.6990057e-38,1.2019521e-38,1.4273366e-38,-2.980935e-39,-1.1568735e-38,2.8609548e-38,-2.41408e-39,-2.0452866e-38,-3.456852e-38,-7.256593e-39,-2.3545665e-38,-5.211959e-39,2.8235463e-38,-2.0687208e-38,1.4536293e-38,2.5802706e-38,3.2932417e-37,8.93875e-39,7.081349e-37,-5.871388e-37,-3.0321942e-37,-4.465517e-37,2.4008808e-38,2.6669434e-38,-3.0006197e-38,-3.7517925e-38,3.113981e-39,-3.5578458e-38,1.0766249e-38,-1.1027133e-38,-1.3077293e-38,-1.789831e-39,-7.4020517e-37,7.0567364e-37,1.2032598e-38,-3.0476215e-38,-9.31886e-40,4.2432734e-37,2.0029884e-38,1.574828e-38,1.70337e-39,1.7762408e-38,-7.189499e-39,-9.1998e-40,1.900223e-38,3.229133e-39,2.0839172e-38,-1.6813543e-38,1.3151909e-38,-3.1247454e-37,2.4203334e-38,3.478262e-38,3.10378e-38,-2.0214516e-38,1.9224335e-38,-4.1002513e-37,3.7096242e-37,-2.1772228e-38,1.4384884e-38,5.40864e-37,-5.886541e-37,-1.0199935e-38,-2.70301e-39,-5.7033027e-37,2.331192e-39,2.1669748e-38,-5.393089e-37,6.7952366e-37,9.843026e-39,-4.159547e-39,-4.005781e-37,1.6427733e-38,4.9222454e-37,2.958709e-38,-1.1654175e-38,-7.1884217e-37,-7.152477e-39,1.456627e-39,2.933985e-38,1.6795931e-38,-3.40228e-39,-2.0438859e-38,-7.4127747e-37,-2.2628522e-38,-2.9522545e-38,9.0261e-40,-1.6231721e-38,-1.4571034e-38,-5.01476e-39,8.159293e-39,-1.2289235e-38,-3.393603e-39,2.625617e-39,3.099345e-38,6.083404e-37,1.0367993e-38,7.522195e-37,5.9973095e-37,1.2395288e-38,-1.3209109e-38,6.7075436e-37,-2.0802164e-38,3.9058927e-38,-6.662831e-37,-2.3232518e-38,-3.8287067e-38,-7.494626e-37,1.9030168e-38,-7.213139e-37,-5.021357e-37,-6.400281e-37,-3.370811e-37,-1.0921154e-38,-1.1904025e-38,-6.624717e-39,-1.6244197e-38,2.6193816e-38,1.779352e-39,1.1498233e-38,5.49048e-40,1.7100505e-38,-9.226973e-39,3.558253e-39,3.0900896e-38,-6.040418e-39,1.0008952e-38,4.52653e-39,5.564168e-39,1.7518864e-38,3.5947333e-38,1.2575611e-38,6.865995e-39,5.527356e-39,7.171513e-39,-6.55929e-39,-1.0897974e-38,-5.313163e-39,-1.0749268e-38,-6.552519e-39,-1.422067e-38,-1.0284174e-38,3.552977e-38,1.5241373e-38,-1.2666606e-38,-1.5059188e-38,-2.3843887e-38,1.986004e-38,-7.629717e-39,1.8027661e-38,-1.647055e-39,2.5501496e-38,1.214272e-38,9.95076e-40,2.170087e-38,-2.7569718e-38,-2.6807406e-38,-3.4306298e-38,4.12856e-39,-3.8065426e-38,-3.5091773e-38,-2.239296e-39,-6.78313e-40,1.2277629e-38,-3.2221067e-38,-3.470553e-38,-2.825944e-38,-8.299966e-39,-3.4969025e-38,2.290551e-39,-1.4122859e-38,1.9874557e-38,6.130647e-39,5.165612e-39,2.0319774e-38,-8.798345e-39,-6.568162e-39,2.0857533e-38,1.7061636e-38,3.3952467e-38,-1.3366688e-38,-2.0964501e-38,7.194213e-39,1.3034986e-38,-1.499376e-38,5.24715e-39,-9.815116e-39,1.4455176e-38,1.0251025e-38,9.119643e-39,7.121835e-39,-1.66456e-39,-7.6102e-39,7.950684e-39,-1.339224e-39,1.562246e-39,-2.6068546e-38,-2.5038202e-38,1.0179832e-38,-1.949684e-38,1.9294612e-38,2.2759737e-38,-9.125019e-39,-3.473083e-39,-1.592211e-39,1.9326515e-38,1.3760559e-38,5.084586e-39,-1.0734616e-38,-7.1589e-40,5.61706e-39,-2.1007755e-38,-1.1252631e-38,9.870605e-39,-1.6500472e-38,2.8919045e-38,-1.705831e-39,4.396425e-39,-1.7450793e-38,2.678448e-38,8.884686e-39,1.44786e-39,3.029238e-38,1.3293198e-38,1.5755246e-38,1.0418602e-38,-6.20662e-40,1.1481884e-38,6.635527e-39,-1.929319e-39,-3.45545e-40,3.1836744e-38,-3.86395e-40,-2.160958e-39,-3.226767e-38,-4.310325e-39,1.123346e-38,-2.4292392e-38,-1.130231e-38,3.7119508e-38,-1.2883478e-38,1.5764867e-38,-2.7828686e-38,8.859019e-39,1.839951e-38,-3.8496822e-38,2.8639012e-38,3.5203597e-38,-1.9455698e-38,1.8002043e-38,1.1266534e-38,-3.3120395e-38,3.305216e-38,1.981457e-38,2.7421074e-38,-2.6299076e-38,-3.3943515e-38,3.82253e-38,-9.578738e-39,-7.413121e-39,8.6507585e-37,-5.336397e-39,-2.985354e-38,-2.8338022e-38,-3.3266405e-38,8.389752e-37,-2.7547555e-38,1.5827302e-38,3.5131102e-38,-4.47198e-39,-9.097506e-39,-5.865087e-39,-9.246581e-39,1.0762376e-38,2.4968406e-38,2.0875398e-38,2.7024646e-38,-3.8587463e-38,-4.1826615e-38,5.61657e-40,-2.4102328e-38,3.379534e-38,2.9790585e-38,-3.6123642e-38,3.91199e-40,-4.560942e-39,9.363678e-39,9.906289e-39,1.0409009e-38,-5.794791e-39,-2.0882636e-38,1.5982507e-38,-1.8344278e-38,-8.841358e-39,-6.737241e-39,-1.14669e-39,9.464706e-39,6.167239e-39,-1.2605619e-38,-4.1769616e-38,-1.8047043e-38,-3.529339e-38,-1.5213268e-38,-1.7378071e-38,1.7875528e-38,-2.6612723e-38,-3.837739e-38,1.1282843e-38,-3.8415844e-38,-1.3134967e-38,-1.8432649e-38,4.004635e-39,9.047415e-39,-3.275406e-38,-1.861388e-39,-1.4026999e-38,9.924677e-39,1.0801039e-38,-2.480494e-39,-2.4710993e-38,1.0288423,0.63888115,1.0388325,1.2664511,0.44778687,0.52136105,0.2271337,0.23429836,0.1300029,-1.8074243e-38,-2.0625606e-38,2.8810338e-38,-2.9253877e-38,-1.361923e-39,-9.710812e-39,9.851212e-39,-2.2391748e-38,2.4788768e-38,-2.52857e-40,2.2595952e-38,-1.1851946e-38,-3.3931136e-38,9.677828e-39,-5.256768e-39,-4.43221e-39,3.1973066e-38,-2.5249658e-38,-3.194304e-38,-3.6988265e-38,-4.1410104e-38,1.389401e-39,-2.9506405e-38,3.373564e-39,-3.9610302e-38,3.4853449e-38,6.957116e-39,1.1419851e-38,3.076974e-38,2.5655003e-38,-2.69753e-38,-5.575489e-39,1.2689298e-38,2.9672414e-38,-2.1059675e-38,1.2079697e-38,-1.3532607e-38,9.602373e-39,2.4358976e-38,-3.1474811e-38,-8.057248e-39,1.8210905e-38,-3.8373805e-38,2.7451445e-38,3.0380154e-38,-3.0685213e-38,3.3915587e-38,-3.3170383e-38,1.5509136e-38,1.457155e-38,-1.339972e-38,-3.8726427e-38,2.6406665e-38,-3.4853e-38,2.7022345e-38,3.6951453e-38,-2.3833178e-38,9.741372e-39,3.4157883e-38,-1.3214163e-38,3.7183724e-38,1.6055781e-38,-1.2647744e-38,3.8214045e-38,1.8457945e-38,-3.3538882e-38,1.303592e-39,-3.737804e-39,-9.909857e-39,1.6118302e-38,3.4783465e-38,2.538362e-38,2.1934062e-38,3.1021284e-38,1.7555872e-38,-2.0880299e-38,2.4506286e-38,-1.9152369e-38,-7.090556e-39,8.963459e-39,-1.8640421e-38,1.1068405e-38,4.0973524e-38,1.1371561e-38,1.0754827e-38,-1.5731761e-38,1.1260734e-38,-3.331542e-39,-3.212382e-38,-1.3949137e-38,2.7697272e-38,-7.514029e-39,3.9096743e-38,1.8133891e-38,-1.413743e-38,1.835013e-38,3.6623176e-38,-5.865468e-39,4.86635e-40,-2.3950845e-38,1.9853319e-38,-6.700276e-39,-5.382331e-39,3.367037e-39,-2.4510285e-38,-1.9640926e-38,-2.1270406e-38,3.3898862e-38,1.4600569e-38,3.4305297e-38,-1.7538748e-38,-3.2739186e-38,-8.420379e-39,-8.538393e-39,1.1996398e-38,-1.2435281e-38,-3.055991e-38,2.4492228e-38,-3.8776916e-38,3.2900574e-38,-3.7154532e-38,-1.3255943e-38,-4.1731767e-38,-3.4134717e-38,1.1149922e-38,-3.4486076e-38,-2.5050147e-38,-4.2362615e-38,-2.8839857e-38,-2.4123294e-38,2.9045207e-38,2.0812046e-38,1.3774575e-38,-2.6853912e-38,-7.89219e-39,1.9155398e-38,1.3434973e-38,3.093336e-38,-1.6450113e-38,6.43762e-40,2.0336284e-38,-3.519194e-39,-1.188677e-39,1.1239505e-38,-1.8406955e-38,-1.7127846e-38,-3.97103e-40,-2.4691863e-38,-1.8464143e-38,1.667262e-38,3.321206e-39,2.9699703e-38,3.0172745e-38,-3.750893e-39,2.6538463e-38,1.604115e-39,-1.429589e-38,1.3202406e-38,-1.4705337e-38,3.055972e-38,-2.033284e-39,-2.102579e-38,-4.688981e-39,-2.9765757e-38,3.207309e-38,4.39547e-39,-2.2472034e-38,-3.42737e-40,3.0686822e-38,-4.0540218e-38,9.317276e-39,-1.1734884e-38,-2.3160674e-38,-2.7117592e-38,-1.0115567e-38,6.656332e-39,2.417488e-39,-2.0023779e-38,8.302347e-39,-1.622141e-38,2.28753e-38,6.055371e-39,-3.9989053e-38,-3.579656e-39,-1.7908495e-38,-3.371053e-39,-4.53949e-39,2.6442765e-38,9.580591e-39,7.168038e-39,-1.9469809e-38,-3.1055806e-38,-1.8464352e-38,-2.4318705e-38,-1.804441e-39,1.038857e-39,-3.0396773e-38,-2.6734443e-38,-1.0474249e-38,-5.55582e-39,-2.5738302e-38,-2.6080847e-38,-8.18184e-39,7.26628e-40,2.9182335e-38,2.2110252e-38,3.457746e-39,-1.9637654e-38,-1.2909812e-38,-1.9799282e-38,2.592689e-38,-6.015912e-39,-3.665327e-39,-2.2644986e-38,-2.5057938e-38,3.625711e-39,-7.483815e-39,1.3002133e-38,-3.2586164e-38,-2.0655092e-38,3.0433117e-38,-1.300994e-39,2.0513322e-38,-3.4795864e-38,2.735758e-39,2.893462e-38,1.4534982e-38,-2.3496606e-38,-1.3841407e-38,-1.7340898e-38,3.8874256e-38,-1.771977e-38,-8.091114e-39,2.031097e-38,2.678218e-38,3.4358364e-38,3.209655e-38,3.4840013e-38,-2.322195e-38,-1.5178017e-38,-1.2589083e-38,3.2009875e-38,-3.6992662e-38,-1.1963035e-38,2.389731e-38,-2.1184631e-38,-3.62544e-40,-3.744679e-39,-3.1103092e-38,3.5794897e-38,1.4374773e-38,4.980484e-39,-2.6109968e-38,-7.77272e-40,2.280684e-38,-4.173698e-38,-2.680872e-38,9.244261e-39,-2.6965346e-38,1.7627362e-38,-1.6882122e-38,-1.6574638e-38,-1.6303497e-38,-8.204488e-39,-3.090649e-39,1.1877416e-38,5.86585e-39,-1.8316056e-38,-4.1686508e-38,-1.8184968e-38,3.6140715e-38,-3.553634e-38,-1.2781532e-38,2.9690577e-38,-2.62822e-39,-3.6595907e-38,-4.331771e-39,3.0392342e-38,1.7592474e-38,1.0866885e-38,1.5706137e-38,7.944461e-39,-1.289539e-38,3.293174e-38,-5.483602e-39,-6.182424e-39,1.4233714e-38,3.6545245e-38,-3.2059066e-38,-2.931761e-38,-3.0063197e-38,9.383052e-39,3.2501307e-38,2.8326836e-38,2.433244e-39,2.1742012e-38,-4.3803368e-38,1.9983298e-38,-2.828057e-38,2.1756297e-38,1.2345957e-38,-2.089505e-38,-2.791415e-38,-4.2351948e-38,6.056376e-39,-1.4700956e-38,2.8096348e-38,3.0188778e-38,4.080904e-38,2.392625e-39,2.5750628e-38,2.032934e-38,7.788253e-39,-2.8003647e-38,-2.7422702e-38,-1.8700328e-38,3.0220498e-38,-7.33526e-39,3.3718257e-38,1.0753476e-38,8.040768e-37,-1.9960996e-38,1.7283882e-38,4.1662632e-38,3.4931761e-38,2.438086e-38,-1.2747993e-38,3.4014037e-38,-1.4902668e-38,-3.075511e-38,1.2709365e-38,-3.5828763e-38,2.4071284e-38,-4.603501e-39,2.452779e-38,4.313116e-38,1.9147105e-38,-1.3959958e-38,-5.220529e-39,3.7908016e-38,6.768563e-39,-2.9014266e-38,-2.912693e-39,-2.2506039e-38,3.3983702e-38,-5.341296e-39,1.5582513e-38,4.33381e-38,1.14234e-38,3.1341873e-38,2.930265e-38,-3.1996024e-38,-1.3600255e-38,-4.765155e-38,3.767654e-38,3.539208e-38,-1.0486595e-38,-2.4018855e-38,4.213673e-38,4.362971e-39,3.275894e-39,-4.180426e-39,-1.3089795e-38,1.4686793e-38,3.2880524e-38,-2.3051732e-38,-1.886774e-38,-3.1202458e-38,8.720401e-39,-8.19531e-39,-7.59975e-40,-7.774592e-39,-2.769106e-39,1.5965244e-38,5.347945e-39,3.3799582e-38,3.932503e-39,1.4590786e-38,-2.463204e-38,1.825658e-38,-3.45868e-39,-1.742802e-39,1.6395488e-38,2.3402225e-38,-2.7985416e-38,-8.63203e-40,-1.9667503e-38,1.7785667e-38,-5.509781e-39,2.9619503e-38,8.55376e-40,1.420364e-38,1.7799743e-38,3.063971e-38,-2.15211e-38,2.3690007e-38,-6.844261e-39,-5.850613e-39,2.912606e-39,-6.433203e-39,-1.3263838e-38,2.1595828e-38,5.55814e-39,-1.750023e-39,1.3045003e-38,-3.5243054e-38,-2.3654703e-38,-3.1662706e-38,-3.524915e-38,2.2618461e-38,-4.322438e-39,1.5438856e-38,-4.1642633e-38,3.6012485e-38,4.11057e-38,-6.676433e-39,3.567501e-39,3.651805e-39,3.0344468e-38,-6.423837e-39,-7.930644e-39,2.0293275e-38,5.91974e-40,-2.6955268e-38,2.259976e-38,-2.6309673e-38,-2.8775796e-38,1.5323786e-38,-9.220575e-39,-1.4168717e-38,-1.6600107e-38,-4.443464e-39,-1.7884896e-38,-8.89798e-40,-2.0830243e-38,8.375725e-39,-7.698686e-39,-3.7138378e-38,-3.5550124e-38,1.115167e-38,-2.761903e-38,-2.8507682e-38,1.9645358e-38,1.5057995e-38,1.0821833e-38,-3.0844244e-38,-1.3527638e-38,1.9160073e-38,-1.4442974e-38,1.190962e-39,-2.910338e-38,-1.6432193e-38,4.843909e-39,-3.155489e-38,2.8939053e-38,-7.355326e-39,8.909507e-39,-2.5512542e-38,2.944499e-38,-3.8078372e-38,3.3053284e-38,2.1252486e-38,-2.555877e-38,3.0176797e-38,8.052434e-39,1.3883066e-38,-3.781412e-38,-2.0442645e-38,-2.710869e-38,8.433087e-39,2.7693133e-38,7.663624e-39,2.7675594e-38,2.7518e-38,-7.631784e-39,-4.782755e-39,-3.3045406e-38,2.5241158e-38,3.8489499e-38,2.2171215e-38,2.024147e-38,3.6622725e-38,-1.8318323e-38,2.651249e-38,1.4972237e-38,2.118115e-38,0.0,0.0,-0.0,-0.0,-0.0,-0.0,0.0,-0.0,-0.0,-0.0,0.0,-0.0,0.0,-0.0,-0.0,-0.0,-0.0,0.0,0.0,-0.0,-0.0,-0.0,-0.0,0.0,-0.0,0.0,0.0,0.0,0.0,0.0,-0.0,0.0,0.0,-0.0,0.0,-0.0,-0.0,0.0,-0.0,-0.0,-0.0,0.0,0.0,-0.0,0.0,-0.0,0.0,0.0,0.0,-0.0,-0.0,0.0,-0.0,-0.0,-0.0,-0.0,0.0,-0.0,0.0,0.0,-0.0,0.0,-0.0,-0.0,-0.0,-0.0,0.0,0.0,0.0,-0.0,-0.0,0.0,-0.0,-0.0,0.0,-0.0,0.0,-0.0,-0.0,0.0,0.0,0.0,-0.0,0.0,0.0,0.0,0.0,-0.0,-0.0,-0.0,0.0,-0.0,0.0,0.0,0.0,0.0,-0.0,-0.0,-0.0,-0.0,-0.0,0.0,-0.0,0.0,0.0,0.0,0.0,-0.0,0.0,0.0,0.0,-0.0,0.0,-0.0,-0.0,-0.0,0.0,0.0,-0.0,-0.0,-0.0,0.0,0.0,0.0,0.0,-0.0,-0.0,0.0,-0.0,-0.0,0.0,-0.0,0.0,-0.0,-0.0,-0.0,0.0,-0.0,-0.0,0.0,0.0,0.0,-0.0,0.0,-0.0,-0.0,0.0,0.0,-0.0,-0.0,-0.0,0.0,-0.0,-0.0,0.0,-0.0,-0.0,-0.0,0.0,-0.0,-0.0,0.0,0.0,-0.0,-0.0,-0.0,-0.0,0.0,0.0,0.0,-0.0,-0.0,-0.0,0.0,-0.0,0.0,0.0,-0.0,0.0,0.0,0.0,-0.0,0.0,0.0,0.0,-0.0,0.0,0.0,-0.0,0.0,0.0,-0.0,0.0,-0.0,0.0,-0.0,0.0,-0.0,0.0,0.0,0.0,0.0,0.0,0.0,-0.0,0.0,0.0,0.0,-0.0,-0.0,-0.0,-0.0,-0.0,0.0,-0.0,0.0,0.0,-0.0,-0.0,-0.0,-0.0,0.0,0.0,-0.0,-0.0,-0.0,-0.0,0.0,0.0,-0.0,0.0,-0.0,-0.0,0.0,-0.0,-0.0,-0.0,-0.0,-0.0,-0.0,-0.0,-0.0,-0.0,0.0,0.0,-0.0,0.0,-0.0,0.0,-0.0,-0.0,-0.0,0.0,0.0,0.0,-0.0,-0.0,0.0,0.0,0.0,-0.0,-0.0,0.0,0.0,0.0,0.0,-0.0,0.0,0.0,0.0,-0.0,-0.0,-0.0,0.0,-0.0,-0.0,0.0,0.0,0.0,0.0,-0.0,0.0,0.0,-0.0,0.0,-0.0,-0.0,0.0,0.0,0.0,0.0,0.0,0.0,0.0,0.0,0.0,0.0,0.0,-0.0,0.0,-0.0,-0.0,0.0,0.0,0.0,-0.0,0.0,0.0,0.0,-0.0,0.0,-0.0,0.0,-0.0,-0.0,0.0,0.0,-0.0,0.0,0.0,0.0,-0.0,0.0,-0.0,-0.0,-0.0,-0.0,-0.0,-0.0,-0.0,-0.0,-0.0,0.0,0.0,-0.0,-0.0,-0.0,-0.0,-0.0,-0.0,-0.0,-0.0,-0.0,-0.0,0.0,0.0,-0.0,0.0,0.0,0.0,0.0,0.0,0.0,-0.0,0.0,0.0,0.0,-0.0,0.0,-0.0,0.0,0.0,0.0,-0.0,0.0,0.0,-0.0,0.0,0.0,-0.0,0.0,-0.0,0.0,0.0,0.0,0.0,0.0,-0.0,0.0,-0.0,0.0,0.0,0.0,-0.0,0.0,-0.0,-0.0,-0.0,0.0,-0.0,-0.0,0.0,-0.0,-0.0,0.0,-0.0,-0.0,-0.0,0.0,-0.0,-0.0,0.0,0.0,0.0,0.0,-0.0,0.0,-0.0,-0.0,0.0,-0.0,0.0,-0.0,-0.0,-0.0,0.0,-0.0,-0.0,-0.0,-0.0,-0.0,0.0,-0.0,0.0,0.0,-0.0,0.0,0.0,-0.0,-0.0,0.0,-0.0,0.0,0.0,0.0,0.0,0.0,0.0,0.0,0.0,0.0,-0.0,0.0,-0.0,0.0,-0.0,-0.0,0.0,-0.0,-0.0,-0.0,0.0,-0.0,-0.0,-0.0,-0.0,-0.0,-0.0,0.0,0.0,0.0,-0.0,-0.0,0.0,-0.0,-0.0,-0.0,0.0,-0.0,0.0,0.0,0.0,-0.0,-0.0,-0.0,0.0,0.0,0.0,-0.0,0.0,-0.0,-0.0,0.0,0.0,0.0,0.0,0.0,0.0,0.0,0.0,-0.0,0.0,0.0,-0.0,-0.0,-0.0,-0.0,0.0,0.0,0.0,0.0,-0.0,-0.0,-0.0,-0.0,0.0,0.0,0.0,0.0,-0.0,-0.0,-0.0,0.0,0.0,-0.0,0.0,-0.0,-0.0,0.0,0.0,0.0,0.0,-0.0,-0.0,0.0,-0.0,-0.0,-0.0,0.0,0.0,-0.0,0.0,-0.0,0.0,0.0,0.0,0.0,0.0,-0.0,-0.0,-0.0,-0.0,-0.0,0.0,-0.0,-0.0,0.0,-0.0,0.0,-0.0,-0.0,-0.0,-0.0,-0.0,-0.0,-0.0,0.0,-0.0,-0.0,-0.0,0.0,0.0,0.0,0.0,-0.0,-0.0,0.0,-0.0,-0.0,-0.0,-0.0,0.0,0.0,-0.0,-0.0,0.0,-1.8501423e-38,3.2875137e-38,-1.0903244e-38,3.4423642e-38,1.5373056e-38,-8.882537e-39,-3.13338e-39,4.160733e-39,2.4322396e-38,9.545519e-39,-4.4592265e-38,-3.1955462e-38,4.6823713e-38,2.0181601e-38,-3.5069613e-38,2.43876e-38,-4.846262e-38,-4.308596e-39,3.5920736e-38,-3.2924774e-38,3.6358205e-38,-1.991919e-39,-4.3472962e-38,-2.115919e-39,6.097361e-39,5.6864546e-38,8.8176255e-37,-2.2913039e-38,-2.7526235e-38,5.291593e-38,-5.143197e-39,-5.32373e-40,-1.3065693e-38,1.3473422e-38,-2.846966e-39,-3.338243e-39,-2.2944378e-38,-4.073589e-38,-2.4313966e-38,-3.1863066e-38,-9.582935e-39,-1.6211381e-38,-4.534201e-38,2.0186502e-38,-3.2554215e-38,-1.4509823e-38,-5.41364e-39,-3.9442415e-38,3.286523e-39,-1.3376769e-38,1.2390578e-38,-3.377399e-38,-1.7321372e-38,2.2470356e-38,-3.5595842e-38,3.3935937e-38,-6.97802e-40,3.0305114e-38,-1.1261071e-38,2.4365932e-38,-3.2456118e-38,-2.3045422e-38,4.290293e-38,-3.093667e-38,3.0226936e-38,3.4141597e-38,-1.8278551e-38,-4.5856352e-38,-5.3808746e-38,-2.8513047e-38,3.5235796e-38,-3.0444462e-38,-1.9259596e-38,-9.55927e-39,-2.432714e-38,-2.426746e-38,-1.1148494e-38,3.0160046e-38,4.3133475e-38,2.1669047e-38,-5.3983644e-38,1.1127692,1.2051625,1.0482359,0.11417587,0.14567369,0.22922425,-0.16014035,0.108218715,-0.91935223,-2.8410648e-38,4.716854e-38,-9.13599e-40,-2.8644365e-38,5.47056e-40,1.2452301e-38,9.780522e-39,-1.147536e-38,1.5484703e-38,7.004882e-39,4.1220624e-38,5.118465e-38,4.3670284e-38,-3.1707483e-38,1.5778502e-38,3.139186e-38,1.4823783e-38,4.310859e-38,4.6513945e-38,-5.475379e-38,-3.1159673e-38,2.2541017e-38,2.9119408e-38,-2.4101187e-38,-3.8171855e-38,-2.763043e-38,4.0816708e-38,-3.161542e-38,2.62882e-40,4.3304626e-38,2.6042583e-38,1.7248782e-38,2.9867267e-38,-1.1747291e-38,3.5265338e-38,-2.0360204e-38,7.528117e-39,1.739882e-39,4.894695e-38,8.595348e-39,-2.9181508e-38,2.4557355e-38,5.017557e-38,-8.069075e-39,-3.7955326e-38,-5.071986e-38,-2.4773396e-38,1.4142371e-38,3.3414763e-38,-1.388663e-39,2.6754467e-38,4.9597115e-38,4.507822e-38,4.296809e-38,5.108939e-38,4.49228e-39,5.5265474e-38,-4.1262985e-38,-2.6200938e-38,-1.5822725e-38,-1.8631257e-38,5.246815e-39,2.594848e-38,-1.3145624e-38,-2.961055e-38,2.5674487e-38,2.6310808e-38,1.4695214e-38,6.123154e-39,-1.3862034e-38,4.1703427e-38,-5.350237e-38,-2.4033454e-38,-1.1498049e-38,-1.4223144e-38,2.2670584e-38,4.2225598e-38,-3.746172e-39,-5.22698e-38,3.3821185e-38,-5.5315775e-38,-1.4478486e-38,-3.105792e-38,8.545757e-39,-1.2752909e-38,-2.3202403e-38,2.0941858e-38,-7.93292e-39,3.3784168e-38,2.379998e-39,7.92527e-40,1.361339e-39,-3.58228e-40,-6.52447e-40,1.1678116e-38,-2.670847e-39,5.51403e-40,5.5601813e-38,7.152858e-39,-2.0794238e-38,-1.2604933e-38,-2.1678473e-38,-1.26158e-39,2.1552321e-38,7.61925e-39,1.9747922e-38,-1.3211694e-38,3.3004903e-38,-1.8257016e-38,4.982003e-39,-1.567998e-39,-5.363473e-39,-8.848737e-39,-3.4770203e-38,-1.7356791e-38,1.8958035e-38,-4.9019786e-38,-5.733455e-38,-4.490352e-38,1.6332299e-38,1.9425003e-38,1.622159e-39,-3.29613e-38,-4.2691634e-38,-4.5275452e-38,-1.1061709e-38,-2.2147371e-38,-1.485539e-39,-3.8221932e-38,-4.1055416e-38,3.061166e-39,4.122945e-38,-4.1295187e-38,4.4989262e-38,1.8339188e-38,-3.4055146e-38,-4.2013638e-38,5.136279e-38,-4.5447624e-38,1.0253347e-38,-3.7522067e-38,1.3565774e-38,-2.4776543e-38,4.407249e-38,-6.542393e-39,-2.1051397e-38,2.0651785e-38,-9.674975e-39,1.2031553e-38,-7.10555e-40,5.28239e-39,5.1562195e-38,-1.2196938e-38,3.272654e-38,-5.4190616e-38,1.377159e-38,-2.651573e-39,-1.2679342e-38,2.5971058e-38,4.1438128e-38,4.717924e-39,-8.241024e-39,1.0219724e-38,-2.803825e-38,5.685904e-39,4.8470247e-38,-9.077065e-39,-1.2413268e-38,2.2333227e-38,3.499516e-38,1.0180424e-38,-3.5545186e-38,2.0948378e-38,3.6987234e-38,2.9448848e-38,-4.5983147e-38,-7.906438e-39,4.974804e-38,-2.5799505e-38,-8.8738e-39,-7.535436e-39,5.3125226e-38,-2.539761e-38,-6.563774e-39,-4.1994875e-38,3.5294614e-38,2.3759548e-38,3.7855854e-38,-3.0292805e-38,-2.5177886e-38,-1.0000756e-38,-5.109347e-38,2.4810676e-38,8.85189e-40,1.3270511e-38,-1.2296674e-38,-3.563982e-38,-4.280164e-38,2.208692e-39,4.914886e-38,9.44184e-40,6.306526e-39,1.5000656e-38,-3.731467e-39,3.465057e-38,-1.5119e-40,2.2800195e-38,2.0778203e-38,3.689353e-38,-2.4647355e-38,1.5201506e-38,-1.2391598e-38,-1.6062298e-38,-3.1193562e-38,-2.6173725e-38,4.6152547e-38,-3.5703675e-38,2.4718636e-38,3.3739058e-38,-2.937914e-38,3.1726157e-38,-2.5993677e-38,-5.713517e-39,4.801246e-38,2.3145582e-38,-4.958363e-38,-2.7447146e-38,3.0428538e-38,-4.6960266e-38,-1.2381264e-38,-1.7966633e-38,3.2630465e-38,-4.4505393e-38,-1.7781265e-38,2.4895312e-38,-2.777051e-38,1.710429e-39,-7.058932e-39,-5.890368e-39,-4.0933523e-38,3.1510892e-38,2.4479218e-38,-3.86638e-39,-5.435487e-39,-2.2059743e-38,-3.565659e-38,-3.696601e-38,2.772753e-38,1.4016196e-38,-2.1761665e-38,-1.0698402e-38,1.7747043e-38,4.345857e-39,-2.960687e-38,-1.8096444e-38,3.0989898e-38,-1.169739e-38,3.143349e-38,-3.0554156e-38,-2.51023e-39,-2.5129715e-38,2.5132865e-38,1.7340267e-38,3.0617744e-38,-1.5341341e-38,-4.876367e-39,-4.1815472e-38,-3.485579e-38,4.443573e-38,5.169613e-38,-1.1289726e-38,1.38748e-40,-3.149262e-38,3.629713e-39,-6.38018e-39,2.242003e-39,9.37707e-40,8.145878e-39,1.8962116e-38,2.3956627e-38,1.6646457e-38,3.44387e-38,-4.822117e-39,-1.5069077e-38,2.5188665e-38,-1.5192124e-38,1.566426e-38,-3.7639726e-38,-1.993915e-39,8.551878e-39,-2.691382e-38,5.3167584e-38,-4.2051165e-38,3.686381e-38,3.7322904e-38,4.5360752e-38,3.6857866e-38,5.4699523e-38,1.5335973e-38,5.70952e-38,-2.71496e-39,-3.196267e-38,-7.146448e-39,-1.7902581e-38,-7.765806e-39,-4.9065227e-38,-2.76016e-39,-2.3309e-41,-4.1039335e-38,2.1272739e-38,-2.905961e-39,-7.2262e-40,-2.155629e-38,-1.7618031e-38,-8.550192e-39,-9.071631e-39,-4.455352e-38,-2.837461e-38,-1.3012242e-38,8.81121e-39,1.1097839e-36,4.7015024e-38,3.9251258e-38,-2.1748268e-38,1.1602177e-38,-1.2911308e-38,2.360492e-38,6.227104e-39,1.4864414e-38,-1.7380432e-38,-1.9895232e-38,-5.38938e-40,1.70797e-40,2.1234348e-38,1.7686629e-38,2.8024876e-38,1.0440223e-38,-1.0349646e-38,2.062242e-38,-3.9786117e-38,-2.2520946e-38,5.808773e-39,-2.0278077e-38,3.4265242e-38,-2.3660277e-38,2.5970548e-38,4.46643e-38,3.779799e-38,-3.2826302e-38,-2.6820914e-38,1.9544147e-38,-5.426254e-38,-2.8038292e-38,2.731849e-38,2.5960035e-38,1.9382133e-38,5.189505e-38,1.0572917e-38,2.4789497e-38,2.4718347e-38,3.964096e-38,-3.7725424e-38,-2.676782e-38,7.63686e-39,-2.282366e-38,4.0941617e-38,-6.055088e-39,5.136765e-39,2.5447067e-38,-1.2873826e-38,4.03813e-39,2.2745636e-38,-2.759674e-38,-3.486109e-38,1.4678181e-38,-5.2326777e-38,-3.5682493e-38,5.736738e-39,-4.3281827e-38,-3.7917976e-38,-3.1377488e-38,-3.3923073e-38,-1.2151029e-38,2.4933435e-38,-2.4243862e-38,-4.916732e-39,-1.6260418e-38,-2.118668e-39,-2.0936557e-38,-1.4228978e-38,1.7471476e-38,-2.8395943e-38,3.605689e-38,2.2976714e-38,3.5380533e-38,4.5291334e-38,2.2479449e-38,3.6518867e-38,2.3501946e-38,-2.641006e-38,3.209492e-38,-2.7927934e-38,5.2871994e-38,1.086228e-38,8.297048e-39,8.128602e-39,2.8704669e-38,-4.5575063e-38,1.8947832e-38,4.0676606e-38,1.5060605e-38,-1.3712927e-38,-2.8947146e-38,-4.0962687e-38,-2.3452575e-38,5.820484e-39,-7.831431e-39,-5.979171e-39,-1.9164383e-38,-6.28346e-39,5.876795e-39,-5.05009e-39,-9.575749e-39,-2.1175331e-38,-3.8081586e-38,9.97922e-40,2.0490037e-38,2.2032752e-38,-3.3411748e-38,2.42828e-39,1.0399636e-38,3.61465e-40,5.218867e-38,-2.781894e-39,-5.3723866e-38,7.434103e-39,-1.8285405e-38,-4.0730144e-38,1.5155595e-38,-3.1522848e-38,-3.8616246e-38,-2.59068e-40,-3.59228e-38,-3.4898063e-38,1.6136107e-38,-1.3718251e-38,-1.2902059e-38,-1.71174e-40,-1.2670538e-38,3.8136702e-38,2.4869805e-38,4.1149163e-38,3.7368283e-38,-5.432504e-38,3.258225e-38,5.258675e-38,1.8583684e-38,5.320203e-39,1.8906026e-38,-4.810053e-38,1.25642e-40,-9.769966e-39,2.8452233e-38,-1.8536621e-38,-4.6983354e-38,2.5913702e-38,-2.1631055e-38,5.635781e-39,1.9058791e-38,3.489917e-38,-3.3288857e-38,1.7776296e-38,-1.5067125e-38,-9.656324e-39,1.021287e-38,-2.0647815e-38,-1.758494e-38,2.3566062e-38,-3.163607e-38,3.894453e-38,-1.6199627e-38,-3.3381407e-38,2.7296223e-38,-2.4378773e-38,2.5197602e-38,-2.4509405e-38,-2.280351e-39,-2.203046e-39,-1.072789e-39,-1.73646e-40,-1.79893e-40,9.24442e-40,-1.32788e-40,-1.59412e-40,-2.07164e-40,3.2806e-41,-7.0903e-41,1.12828e-40,-8.487e-41,2.81e-41,1.38192e-40,1.82626e-40,2.37805e-40,-9.3013e-41,1.297197e-39,-2.357005e-39,-2.24229e-40,-2.631575e-39,-3.0278e-41,-3.67874e-39,-3.478848e-39,-4.2136e-41,-1.230358e-39,-1.741964e-39,-1.23265e-40,-2.47607e-40,-1.10159e-39,-2.8106e-41,-1.05352e-40,-2.6246e-40,-1.59602e-40,7.2978e-41,2.36772e-40,8.0317e-41,-2.00492e-40,-7.2956e-41,-8.8618e-41,-1.2553e-41,-5.9935e-41,-2.06556e-40,2.48058e-40,-5.111329e-39,-2.011745e-39,-4.49269e-39,-3.033329e-39,1.7513e-41,9.65598e-40,-1.162832e-39,-1.059729e-39,1.723233e-39,1.1879e-41,6.2738e-41,-7.3897e-41,2.6503e-41,3.2879e-41,-2.09039e-40,-2.10696e-40,-6.0332e-41,1.35763e-40,-2.17002e-40,1.91934e-40,-2.43312e-40,1.10906e-40,7.948e-41,-1.91182e-40,2.814e-41,-2.54364e-40,-2.61338e-40,1.31404e-40,-3.037654e-39,3.901236e-39,2.645179e-39,9.324e-41,3.0253e-41,2.15883e-40,-4.8862e-41,-4.561683e-39,1.0260516e-07,2.8761187e-06,2.7120732e-06,-1.2713563e-05,-8.718065e-06,-6.285225e-06,-2.9088857e-05,-2.466454e-05,-2.056025e-05,2.0004e-41,-9.869e-41,2.08498e-40,1.67506e-40,4.9526e-41,1.12331e-40,7.78266e-40,-1.71316e-40,-9.544e-42,-2.7058e-41,-7.0833e-41,8.173e-41,9.3251e-41,-8.167e-41,-8.4699e-41,2.9497e-41,1.5059e-40,-2.0187e-41,-4.336664e-39,-2.531891e-39,-1.9525e-40,-4.296615e-39,-8.4627e-41,-2.482473e-39,-4.258274e-39,-3.4492e-41,-3.432266e-39,-4.2384e-41,9.1492e-41,8.07e-42,-1.2606e-40,-1.5532e-40,-1.20671e-40,1.38723e-40,1.3799e-40,9.3391e-41,1.05645e-40,2.19256e-40,1.0724e-40,2.03967e-40,5.2658e-41,-1.5473e-41,1.25343e-40,1.80934e-40,5.3916e-41,-1.36976e-40,1.17507e-40,-1.86765e-40,2.1141e-41,1.22267e-40,2.35222e-40,1.39355e-40,9.7039e-41,-1.47393e-40,-1.1083e-40,2.034e-41,-1.6572e-41,-1.78593e-40,4.4619e-41,-1.64081e-40,4.6348e-41,-5.5207e-41,-8.6403e-41,-2.17266e-40,-2.09116e-40,-1.8832e-41,-2.00031e-40,-4.2625e-41,-7.011e-41,-6.4562e-41,-7.0819e-41,-2.27816e-40,-3.726012e-39,2.56695e-40,4.933966e-39,-2.98502e-39,3.0509e-41,3.08467e-39,-5.086617e-39,9.0476e-41,2.038777e-39,-2.727e-42,2.60365e-40,5.109e-42,-2.42397e-40,1.94907e-40,-9.6866e-41,-1.44437e-40,5.902e-41,-1.55159e-40,-1.52967e-40,2.34149e-40,-2.319344e-39,4.098947e-39,5.3458e-41,2.21495e-40,6.5909e-41,-1.98324e-40,-1.77294e-40,-2.33317e-39,1.157907e-39,-2.779701e-39,4.095834e-39,-2.5413e-40,1.194299e-39,-2.948586e-39,3.153942e-39,4.038654e-39,3.0998e-41,-1.18637e-40,-1.78993e-40,8.7148e-41,-1.5549e-41,-1.27262e-40,-5.415e-41,-1.15219e-40,-7.056e-41,-4.397849e-39,-2.64293e-39,-6.13624e-40,4.592555e-39,-4.142668e-39,-4.480597e-39,1.6613e-39,-3.401635e-39,3.938188e-39,1.7507e-40,1.3378e-41,-4.9756e-41,2.41141e-40,1.33027e-40,-2.8893e-41,-1.60653e-40,-2.08907e-40,-7.4392e-41,-2.2067e-40,-1.92435e-40,1.32664e-40,-1.81632e-40,1.4646e-41,-1.22144e-40,-1.78e-43,-7.2066e-41,9.043e-42,1.2268e-41,-3.296e-41,-1.1963e-40,-1.08001e-40,-1.2587e-40,1.31655e-40,-1.25775e-40,-1.36044e-40,-8.7961e-41,3.0543e-41,-9.494e-41,-5.106e-41,-1.55459e-40,-3.0113e-41,1.66467e-40,1.58853e-40,1.16096e-40,2.237e-41,-1.12894e-40,-7.8247e-41,-1.212e-42,1.41022e-40,-1.29308e-40,-1.4586e-40,2.713e-42,-5.1453e-41,-1.74336e-40,1.60735e-40,1.55007e-40,-1.65227e-40,-9.57e-43,1.01356e-40,-1.90306e-40,-1.80169e-40,-1.31038e-40,-2.04072e-40,-1.787e-41,-1.21878e-40,1.26312e-40,-2.20999e-40,1.95617e-40,-7.744e-41,2.15256e-40,9.9241e-41,5.159168e-39,1.46074e-40,-2.06547e-40,2.52999e-40,2.31256e-40,-2.37215e-40,-2.16407e-40,9.1594e-41,2.32234e-40,1.31864e-40,-7.6166e-41,-1.8783e-41,-1.13048e-40,2.52754e-40,-9.1338e-41,9.875e-42,1.29392e-40,6e-42,-1.454e-40,-8.4278e-41,-1.63707e-40,-5.4393e-41,8.3418e-41,1.06862e-40,8.1394e-41,-5.6188e-41,-9.8367e-41,1.04208e-40,3.08144e-39,4.948075e-39,4.692381e-39,-1.724141e-39,1.53257e-40,2.371527e-39,7e-41,4.5729e-41,-4.328633e-39,2.815071e-39,1.7522e-41,2.573936e-39,8.6125e-41,-1.25867e-40,4.644e-41,2.570704e-39,-1.05623e-40,1.73803e-40,1.13707e-40,3.080584e-39,1.185298e-39,2.34787e-39,-8.5342e-41,-2.622767e-39,-1.9184e-41,2.444157e-39,-1.416748e-39,1.49988e-40,-1.2641e-40,-1.69522e-40,-1.47652e-40,6.9898e-41,-1.88826e-40,-9.9239e-41,-4.6599e-41,1.39928e-40,1.85888e-40,-1.76761e-40,-1.09509e-40,1.33809e-40,-5.2491e-41,-8.0392e-41,4.6356e-41,-4.0276e-41,-2.5815e-41,-4.8451e-41,-1.950075e-39,4.550362e-39,1.991513e-39,4.1986e-41,3.135869e-39,-2.603035e-39,-2.678641e-39,-1.15054e-40,1.43082e-40,9.452e-41,-1.16418e-40,-5.546e-42,2.1672e-40,-1.65863e-40,-9.45e-41,-8.7e-41,7.44e-42,-1.479714e-39,4.840746e-39,-4.674505e-39,2.431265e-39,-1.79847e-40,-4.688477e-39,-2.934327e-39,5.143273e-39,-1.25022e-40,2.61852e-40,7.9922e-41,1.1664e-40,9.167e-42,-1.49119e-40,1.18907e-40,1.66045e-40,4.3004e-41,-8.398e-41,4.284718e-39,3.480586e-39,1.24124e-39,7.90062e-40,1.39334e-40,-2.774514e-39,3.9427e-41,-1.17332e-39,-3.151111e-39,-2.18506e-40,-2.03052e-40,2.892161e-39,5.0189e-41,4.6976e-41,3.121947e-39,2.358687e-39,-3.600203e-39,-2.602679e-39,1.58037e-40,1.43791e-40,5.3157e-41,1.97684e-40,1.39069e-40,1.06326e-40,-8.2511e-41,-2.37435e-40,2.24143e-40,4.4025e-41,1.52108e-40,1.98802e-40,8.2047e-41,-2.06769e-40,-1.0574e-41,-1.534e-42,1.99936e-40,2.59165e-40,1.65223e-40,1.9881e-40,1.497e-40,-2.4205e-41,5.4021e-41,2.3473e-40,2.01655e-40,-2.13572e-40,1.85804e-40,1.15606e-40,1.73009e-40,8.509e-42,4.8408e-41,9.7872e-41,-1.30223e-40,1.26596e-40,-1.77332e-40,6.3661e-41,3.1516e-39,-2.274264e-39,1.638463e-39,-5.201609e-39,-1.30394e-40,4.804938e-39,-4.45516e-39,-1.549015e-39,1.024442e-39,6.549e-41,4.7629e-41,1.13221e-40,1.2455e-41,2.8044e-41,-1.78013e-40,1.3156e-40,-7.1993e-41,8.8058e-41,2.6584e-41,1.04932e-40,1.41823e-40,3.54e-41,-9.3233e-41,7.7915e-41,1.89552e-40,-1.77337e-40,9.1216e-41,-6.6356e-41,-2.00261e-40,-2.2103e-41,-1.7997e-41,6.5002e-41,8.4884e-41,-1.21205e-40,-1.33314e-40,2.0001e-41,-5.241e-41,-5.073e-42,-1.58932e-40,-1.01098e-40,-8.3669e-41,-5.4648e-41,1.85738e-40,2.31433e-40,-1.95e-41,2.4666e-41,-5.0812e-41,-2.23478e-40,9.449e-42,-1.19088e-40,-1.19776e-40,-1.3399e-40,-5.0996e-41,-6.3363e-41,1.62797e-40,1.3668e-40,2.2325e-41,1.17454e-40,1.4013e-41,-8.541e-41,-1.46864e-40,-1.84216e-40,1.1258e-41,-1.03112e-40,-1.5847e-41,-1.92728e-40,1.8597e-41,-1.59304e-40,-5.6335e-41,2.232e-42,-1.33048e-40,-8.0622e-41,-1.93662e-40,5.1128e-41,-1.63169e-40,1.8252e-40,-1.25273e-40,-1.7342e-40,3.8687e-41,-1.41104e-40,1.27342e-40,-2.4566e-41,-7.1601e-41,-3.6124e-41,-2.4017e-41,7.3972e-41,1.62304e-40,2.4718e-41,-1.99232e-40,-2.16976e-40,4.208e-41,1.44782e-40,6.8205e-41,1.62538e-40,-4.6899e-41,-1.07197e-40,-1.6574e-40,1.5142e-41,-2.0449e-41,1.33736e-40,-1.84998e-40,-1.58364e-40,1.65234e-40,-9.3968e-41,-5.23e-41,-1.2632e-40,-4.865e-41,-2.2051e-41,1.25846e-40,1.6635e-41,-9.4358e-41,-7.3589e-41,-6.2124e-41,9.0281e-41,-8.9474e-41,1.4692e-40,8.1198e-41,1.41446e-40,-8.2476e-41,1.9081e-41,3.685e-41,-4.4092e-41,9.1348e-41,-1.39017e-40,-2.54895e-40,9.7804e-41,-6.3046e-41,-5.5477e-41,-2.39228e-40,2.57053e-40,1.2708e-41,2.2091e-40,-5.7902e-41,1.3118e-41,-1.48032e-40,6.354129e-37,4.879823e-37,-8.183444e-39,3.102242e-37,-9.290686e-39,-3.4064604e-38,8.0212755e-37,7.771461e-37,4.5373286e-37,-9.876981e-39,-7.582835e-39,-2.1170774e-38,-2.8935364e-38,2.7523265e-38,1.1819486e-38,-1.2512459e-38,2.316896e-39,4.858285e-39,-5.7824395e-37,4.2015296e-37,2.897542e-38,3.419969e-38,2.604668e-38,-4.7390233e-37,-7.6666595e-37,-2.5840417e-38,5.3255418e-37,-3.818149e-38,-1.0329e-39,-6.170022e-37,-1.2165981e-38,-6.281057e-39,-3.20043e-38,3.7046688e-37,3.6664517e-37,2.9796226e-37,3.2227323e-38,-3.5212812e-38,2.3300194e-38,2.3594794e-38,1.3130499e-38,1.5543193e-38,3.9925434e-38,1.7052545e-38,3.7820104e-38,-7.710536e-37,-7.956939e-37,-3.156675e-38,-5.245434e-37,-2.5007965e-38,-2.7004697e-38,5.316881e-37,-5.4908188e-37,6.023938e-37,3.0542783e-38,-4.0001914e-38,-2.5039345e-38,2.75491e-38,2.2903533e-38,-2.458903e-38,2.1937575e-38,2.8131975e-38,-9.965477e-39,-1.1657894e-38,-3.3096666e-38,-6.07415e-40,-1.6263502e-38,-1.3080603e-38,-2.674143e-39,2.4362126e-38,8.761287e-39,1.8844243e-38,-6.261038e-39,-3.595456e-38,2.0760499e-38,7.897162e-37,2.3296248e-38,4.428934e-39,-3.0409822e-38,3.23885e-38,1.0669219e-38,0.54484284,0.7069134,0.68671757,0.2769898,0.22535694,-0.067369,0.17068338,0.07637776,-0.084276445,-1.4797321e-38,-3.056587e-38,1.29734e-40,1.1246725e-38,4.3432167e-37,2.9398763e-38,5.5253467e-37,3.1898996e-38,-1.3194071e-38,3.037146e-38,6.151675e-39,4.556606e-39,-1.4430663e-38,-1.75012e-40,5.579857e-39,-1.3446301e-38,-3.69217e-38,-3.6418374e-38,-5.3592034e-37,-7.997606e-37,-4.4586757e-37,2.408604e-39,6.197306e-39,-2.2917174e-37,8.069595e-37,3.4062967e-37,-5.2470215e-37,-4.187537e-39,-2.5615988e-38,-7.01081e-39,2.7252548e-38,-6.419291e-39,1.8479423e-38,-8.511742e-39,2.2364897e-38,6.492514e-39,-1.9367572e-38,-3.258449e-38,-1.1113716e-38,3.0744348e-38,9.223087e-39,-1.4003149e-38,-1.2911933e-38,1.1619182e-38,1.4101552e-38,3.725741e-38,1.219493e-38,-9.715261e-39,1.549535e-39,-1.5339758e-38,-2.2210927e-38,1.7388382e-38,2.2574101e-38,1.4660572e-38,3.1977474e-38,-5.675655e-39,2.771478e-38,-4.58382e-40,2.7706697e-38,1.9425232e-38,2.2024586e-38,2.3373402e-38,2.2848698e-38,3.7928287e-38,8.273412e-39,4.922753e-39,3.5707635e-38,5.64725e-40,2.3391008e-38,2.7122591e-38,2.8976024e-38,-2.1381958e-38,-1.0482894e-38,-4.084114e-38,-2.3720583e-38,-1.590995e-39,-2.7103755e-38,9.692493e-39,2.533187e-38,2.5103046e-38,2.676613e-38,-1.0604671e-38,-2.5986065e-38,3.0660452e-38,3.2342742e-38,2.0547763e-38,-6.791557e-39,2.8726784e-38,-1.928079e-39,