0.0,0.0,0.0,0.0,0.0,0.0,0.0,0.0,0.0,-0.0,-0.0,-0.0,0.0,-0.0,0.0,0.0,0.0,0.0,-0.0,0.0,-0.0,0.0,-0.0,-0.0,0.0,-0.0,-0.0,-0.0,-0.0,0.0,0.0,0.0,-0.0,-0.0,-0.0,0.0,-0.0,-0.0,0.0,-0.0,-0.0,-0.0,-0.0,-0.0,-0.0,-0.0,-0.0,-0.0,-0.0,-0.0,-0.0,-0.0,-0.0,-0.0,0.0,0.0,0.0,0.0,0.0,-0.0,0.0,0.0,0.0,-0.0,0.0,0.0,0.0,0.0,0.0,-0.0,-0.0,-0.0,-0.0,0.0,-0.0,-0.0,-0.0,-0.0,-0.0,-0.0,-0.0,-0.0,-0.0,0.0,0.0,0.0,-0.0,0.0,0.0,0.0,0.0,0.0,0.0,0.0,0.0,0.0,0.0,0.0,0.0,-0.0,-0.0,-0.0,-0.0,-0.0,-0.0,-0.0,-0.0,-0.0,-0.0,-0.0,-0.0,-0.0,-0.0,0.0,0.0,0.0,0.0,0.0,0.0,-0.0,0.0,0.0,-0.0,-0.0,-0.0,-0.0,-0.0,0.0,-0.0,0.0,-0.0,0.0,0.0,0.0,0.0,0.0,0.0,0.0,0.0,0.0,0.0,0.0,0.0,0.0,0.0,-0.0,-0.0,-0.0,-0.0,0.0,-0.0,-0.0,-0.0,0.0,0.0,-0.0,0.0,0.0,-0.0,0.0,-0.0,0.0,-0.0,0.0,-0.0,-0.0,-0.0,-0.0,-0.0,0.0,0.0,0.0,0.0,0.0,0.0,0.0,0.0,0.0,0.0,0.0,0.0,0.0,0.0,0.0,0.0,0.0,0.0,-0.0,0.0,-0.0,-0.0,-0.0,-0.0,-0.0,-0.0,-0.0,-0.0,-0.0,0.0,0.0,0.0,0.0,0.0,0.0,0.0,0.0,-0.0,0.0,0.0,-0.0,0.0,0.0,-0.0,0.0,0.0,0.0,-0.0,0.0,0.0,0.0,0.0,0.0,0.0,0.0,0.0,0.0,0.0,0.0,-0.0,0.0,0.0,-0.0,0.0,0.0,0.0,0.0,0.0,0.0,0.0,0.0,0.0,0.0,-0.0,0.0,0.0,0.0,0.0,0.0,0.0,0.0,0.0,0.0,0.0,0.0,0.0,-0.0,-0.0,0.0,-0.0,-0.0,-0.0,-0.0,0.0,0.0,0.0,0.0,0.0,-0.0,-0.0,-0.0,-0.0,-0.0,0.0,-0.0,0.0,0.0,-0.0,-0.0,-0.0,-0.0,0.0,0.0,-0.0,-0.0,0.0,-0.0,-0.0,0.0,0.012320912,0.06247109,0.0040365253,-0.006292686,0.010295276,-0.034860324,-0.027389659,0.02120695,-0.0018353452,0.0046520284,-0.016858812,-0.015496641,0.0145820845,0.010461803,0.013553831,0.026878655,0.023240281,0.0056812274,-0.019137288,-0.018330881,0.016043628,0.0065700947,-0.012379508,0.023269389,0.013377643,-0.007265183,0.013942049,-0.009411376,0.10270267,0.032764733,0.029372854,0.0560544,0.023008075,0.0638295,0.0765294,0.03882145,-0.016957467,0.006315415,-0.024130344,-0.0057119513,0.0033964505,-0.028712858,-0.009191941,0.010056581,-0.0033497354,0.0005105599,-0.017150547,-0.013701716,-0.00041272043,-0.0055279983,-0.016337568,0.011173721,0.0005637619,0.0034234677,0.0020643484,-0.059634116,-0.03847468,0.013775562,-0.030637741,-0.011775412,0.045616943,0.015764961,0.00828376,0.018387763,-0.011268646,-0.049334757,0.031834736,0.02161127,0.0032040898,-0.0019804642,-0.00910335,-0.0067784265,0.015785964,0.021046283,0.020710224,0.03544611,0.037531804,0.042069674,0.0154136345,0.025283644,0.035394907,0.012136829,0.014869642,0.0063248607,-0.005235235,0.04864606,0.0023843541,0.033453524,0.047404207,0.0023723925,0.011043501,0.024328507,-0.0043236604,0.01332296,0.032551,-0.022450432,0.034306694,0.022016386,-0.019453779,-0.0014397871,-0.022814918,-0.011840257,-0.04632053,-0.053042613,-0.035763063,0.0046572774,-0.0009879756,0.035605337,0.015494779,0.016448785,0.036322787,-0.013244227,0.019300073,0.057784215,-0.009714152,0.005907211,0.012893474,-0.061585136,-0.037801597,0.05523651,-0.031024043,-0.013152222,0.04126093,-0.033888742,-0.026788434,0.023439934,-0.0028809865,0.0064017624,-0.046811536,0.0027191546,0.016576441,-0.008446995,-0.053013023,-0.0146621205,0.011177603,0.02619669,5.7441048e-05,0.019687714,-0.009631203,-0.019762827,-0.0049662166,-0.027311087,-0.018037912,-0.021963999,0.0016957466,0.00038996598,-0.026888208,0.014320655,-0.010731811,-0.02659405,0.046500854,0.020330194,0.009381716,-0.020257058,-0.0044040857,-0.09952219,-0.04682669,-0.035892908,-0.07705555,0.011511298,-0.009311385,-0.009549981,0.058152243,0.039157767,0.02632365,0.010242095,-0.01346556,-0.0073250835,-0.05524967,-0.06610923,-0.07971226,-0.052626163,-0.038749613,-0.054202985,-0.06451427,-0.024099536,-0.03448319,-0.02214196,0.023748625,-0.0015459079,-0.051097218,-0.004872803,-0.00598283,0.020578127,0.003943119,0.006716334,-0.0056317286,-0.018207034,0.023684146,0.055191815,0.057030134,0.06822264,-0.019119058,0.024831785,0.014011012,0.0047043283,0.054670572,0.020772025,0.020289542,0.00409914,0.012622987,0.05413908,0.025145637,0.007544295,-0.0014078881,0.01418638,0.0033250903,-0.048103448,-0.004986251,-0.031098569,0.017436614,0.05136159,0.024366073,-0.028274888,0.055673283,0.027009698,-0.02913044,0.00955691,0.008311872,-0.040440433,-0.02292182,-0.025434036,-0.011317189,-0.0038133797,0.011527313,-0.036891203,-0.0066596894,0.0044328617,-0.020073986,-0.04782829,0.013257958,-0.04326779,-0.055431362,-0.022832466,0.0015488398,-0.023477556,-0.030347552,0.030465025,0.007690462,0.024490671,0.0030047903,-0.008329627,-0.013019572,-0.0068615223,-0.003984947,0.03493639,-0.04512121,-0.035802994,0.013189891,-0.04260142,-0.033790454,0.020980975,-0.019422492,-0.030350951,-0.04540825,0.054106183,0.020436715,0.057954427,0.06417226,0.043325696,0.049349546,0.0046904315,0.010510461,0.014558192,0.039872527,0.0023527872,0.030280236,0.016044023,-0.023580654,-0.017340846,0.044210725,-0.02591003,-0.022449307,0.026663287,-0.014545569,-0.03155972,-0.020451082,-0.024394428,-0.034361977,-0.0070868265,-0.0034327223,0.018191302,0.008092133,-0.018154738,0.008429037,0.062660754,0.009093185,0.014185063,-0.0,-0.0,-0.0,0.0,0.0,-0.0,-0.0,0.0,-0.0,0.0,0.0,0.0,-0.0,0.0,0.0,-0.0,0.0,-0.0,0.0,0.0,-0.0,0.0,0.0,0.0,0.0,-0.0,0.0,-0.0,-0.0,-0.0,0.0,0.0,0.0,0.0,0.0,0.0,-0.0,-0.0,-0.0,-0.0,0.0,-0.0,-0.0,-0.0,-0.0,0.0,0.0,-0.0,0.0,0.0,0.0,0.0,0.0,0.0,-0.0,-0.0,-0.0,0.0,0.0,0.0,0.0,0.0,-0.0,-0.0,0.0,0.0,-0.0,0.0,0.0,0.0,-0.0,-0.0,0.0,0.0,0.0,-0.0,-0.0,-0.0,-0.0,-0.0,-0.0,-0.0,-0.0,0.0,-0.0,0.0,0.0,-0.0,-0.0,0.0,0.0,-0.0,-0.0,-0.0,-0.0,-0.0,-0.0,-0.0,-0.0,-0.0,-0.0,0.0,0.0,-0.0,-0.0,0.0,-0.0,-0.0,0.0,0.0,0.0,-0.0,-0.0,0.0,-0.0,-0.0,-0.0,0.0,0.0,0.0,0.0,0.0,0.0,0.0,0.0,0.0,0.0,-0.0,0.0,0.0,0.0,0.0,0.0,0.0,0.0,-0.0,0.0,0.0,-0.0,-0.0,-0.0,0.0,-0.0,-0.0,-0.0,0.0,0.0,-0.0,-0.0,-0.0,-0.0,-0.0,-0.0,0.0,-0.0,-0.0,-0.0,-0.0,-0.0,0.0,-0.0,0.0,0.0,0.0,0.0,0.0,0.0,0.0,0.0,0.0,-0.0,-0.0,0.0,0.0,-0.0,-0.0,0.0,0.0,-0.0,-0.0,0.0,0.0,0.0,0.0,0.0,-0.0,0.0,-0.0,-0.0,0.0,0.0,0.0,0.0,0.0,0.0,-0.0,-0.0,-0.0,-0.0,-0.0,-0.0,-0.0,0.0,0.0,-0.0,0.0,0.0,0.0,0.0,0.0,-0.0,0.0,0.0,0.0,0.0,0.0,-0.0,0.0,0.0,-0.0,-0.0,0.0,0.0,0.0,0.0,-0.0,-0.0,-0.0,0.0,0.0,0.0,-0.0,-0.0,-0.0,0.0,-0.0,-0.0,-0.0,0.0,0.0,-0.0,-0.0,0.0,-0.0,-0.0,-0.0,-0.0,-0.0,0.0,-0.0,-0.0,0.0,0.0,0.0,0.0,-0.0,0.0,-0.0,-0.0,-0.0,0.0,0.0,0.0,0.0,-0.0,-0.0,-0.0,-0.0,-0.0,-0.0,-0.0,-0.0,-0.0,-0.0,0.0,-0.0,0.0,-0.0,0.0,-0.0,0.0,0.0,-0.0,-0.0,0.0,-0.0,-0.0,-0.0,-0.06443697,0.003316234,-0.0053515797,0.014337824,0.022854827,0.05722857,0.027251087,0.025203178,-0.043624043,0.012142758,-0.014530168,-0.07214953,0.00794664,-0.055991303,-0.091106124,0.007581274,0.02957521,-0.026483351,-0.09772935,-0.03461663,-0.04737393,0.007940337,0.015678594,-0.0025333606,0.05899241,-0.0059083076,0.027359568,0.049689613,-0.041918345,0.05601709,0.122213885,-0.024451457,0.05310874,0.004916792,-0.06278658,0.007808116,0.032686155,0.14585619,-0.023702357,0.0568924,0.1072605,-0.040678956,0.009884185,-0.010248336,-0.081840545,0.013796603,-0.015260672,-0.03453684,-0.0023135797,-0.0306246,-0.05191554,0.019272245,-0.025093831,-0.04361789,0.059530627,-0.024627998,-0.021552954,-0.0023187522,0.017121496,-0.0174686,0.018601049,0.045951556,0.03432413,-0.02920809,-0.031530995,-0.07731806,-0.03915631,0.07562285,0.03651719,-0.032751348,0.10499866,0.04986767,-0.0041029784,-0.02164484,-0.03860449,-0.06299507,-0.056715123,-0.03453837,0.01992721,0.03856377,-0.011186723,-0.05749195,-0.061634794,-0.12580763,0.007291664,0.0046123345,-0.03495729,0.10700375,-0.03287652,-0.015561594,0.023611335,0.017565243,0.13140295,-0.044248108,-0.038070124,-0.017580802,-0.006116082,-0.010613316,-0.059140973,-0.054666154,-0.13685405,-0.040955253,0.0063437843,-0.09875089,-0.061697952,0.11502864,0.110374704,0.034123972,-0.013572198,-0.069682285,-0.05637217,-0.03279331,-0.055379752,0.004280139,-0.020111054,-0.083323695,1.4272588e-05,0.03504127,0.0072988593,-0.004875954,0.003637478,0.017958464,-0.02103921,-0.060546264,-0.039801374,0.016880576,0.048248064,0.062470946,0.09387476,-0.02561892,-0.05763612,0.0003656352,-0.06136436,-0.059088137,-0.09710805,0.028788684,0.045800656,-0.015792517,0.06074794,0.09170801,0.014237515,-0.04982163,-0.016969375,-0.056261774,0.053673714,0.0010533617,0.05284136,0.011867321,-0.11879547,-0.010193061,0.037371308,0.04648892,0.020640777,0.026286412,-0.00063186267,0.14961897,0.015513329,-0.09918131,-0.031863388,-0.112814724,-0.07465992,0.07911105,0.069961004,0.04615465,-0.028860934,0.03681238,0.017237836,0.012809224,-0.007884565,-0.1034402,-0.07405889,-0.019255485,-0.08476249,0.027948715,-0.041857667,-0.005043527,0.016921835,0.06247783,-0.05248668,-0.0673843,0.029142149,-0.104409106,-0.02614817,0.062425368,-0.030263742,0.03489792,-0.012371446,-0.045900892,0.13703166,0.008766189,-0.0121418135,0.03891685,-0.012018678,-0.039860178,-0.039247926,-0.041367404,0.012232728,0.017460817,-0.0032477195,-0.078008115,-0.051581055,-0.07088104,-0.061484016,-0.003092835,-0.015087451,0.028909251,-0.023868298,-0.0020909708,0.047072433,-0.09896825,-0.05295999,0.0740884,-0.07818186,-0.026281225,0.07824513,0.013799862,-0.014145971,0.10734724,0.0038549555,0.0110681215,-0.06484899,-0.0498791,-0.0112752495,-0.033748638,-0.026938483,-0.07407475,-0.022689508,0.00011051107,0.026251797,-0.054195024,-0.01985581,-0.010319542,0.0007635774,0.0004917876,-0.05196195,0.01723015,-0.097614504,0.062073693,0.052009746,-0.011249682,0.06258241,0.009136456,-0.0048515494,-0.012491312,-0.0411959,0.05622113,-0.01162497,0.004312734,-0.02272908,0.080881275,0.015966186,0.016403668,0.10468252,0.15184762,-0.008074583,0.01693255,0.04533289,-0.0071608946,-0.06302675,-0.06620697,-0.02916832,-0.019120313,0.01982899,-0.07918034,-0.016517695,0.034941196,-0.004914248,-0.056541614,-0.03736849,-0.022679837,-0.062266026,-0.059526477,-0.020709423,-0.023525404,-0.02514622,0.04784505,-0.06373012,0.14526103,0.08470642,-0.06842642,-0.06368861,-0.04163212,0.017936407,0.015941825,0.033176538,-0.019784337,-0.0007787913,-0.00425388,-0.0,0.0,-0.0,-0.0,0.0,-0.0,-0.0,0.0,0.0,-0.0,-0.0,0.0,0.0,-0.0,0.0,0.0,0.0,0.0,-0.0,0.0,-0.0,0.0,0.0,-0.0,0.0,-0.0,-0.0,0.0,-0.0,0.0,0.0,-0.0,-0.0,-0.0,0.0,-0.0,-0.0,-0.0,-0.0,-0.0,-0.0,-0.0,0.0,0.0,-0.0,-0.0,-0.0,-0.0,0.0,-0.0,0.0,0.0,-0.0,-0.0,0.0,0.0,0.0,0.0,0.0,0.0,-0.0,0.0,0.0,-0.0,-0.0,-0.0,-0.0,-0.0,-0.0,-0.0,-0.0,0.0,-0.0,-0.0,-0.0,-0.0,0.0,0.0,0.0,0.0,0.0,0.0,-0.0,0.0,-0.0,0.0,-0.0,0.0,-0.0,0.0,0.0,0.0,-0.0,-0.0,-0.0,0.0,0.0,-0.0,-0.0,0.0,-0.0,0.0,-0.0,0.0,0.0,-0.0,-0.0,0.0,-0.0,0.0,0.0,0.0,-0.0,0.0,0.0,-0.0,0.0,-0.0,0.0,0.0,-0.0,0.0,0.0,0.0,0.0,0.0,-0.0,0.0,0.0,0.0,0.0,0.0,-0.0,-0.0,0.0,0.0,-0.0,-0.0,0.0,0.0,0.0,-0.0,-0.0,-0.0,0.0,0.0,0.0,0.0,0.0,0.0,-0.0,0.0,0.0,-0.0,0.0,0.0,-0.0,-0.0,-0.0,0.0,-0.0,-0.0,0.0,0.0,0.0,-0.0,0.0,-0.0,0.0,0.0,-0.0,0.0,-0.0,-0.0,-0.0,-0.0,-0.0,-0.0,-0.0,-0.0,0.0,-0.0,-0.0,0.0,0.0,-0.0,-0.0,0.0,-0.0,0.0,-0.0,0.0,-0.0,-0.0,0.0,0.0,-0.0,0.0,-0.0,-0.0,0.0,-0.0,-0.0,0.0,0.0,0.0,-0.0,-0.0,-0.0,-0.0,0.0,0.0,-0.0,0.0,-0.0,-0.0,0.0,-0.0,-0.0,0.0,-0.0,-0.0,-0.0,0.0,-0.0,0.0,0.0,0.0,-0.0,0.0,0.0,0.0,0.0,-0.0,0.0,0.0,-0.0,0.0,0.0,0.0,0.0,-0.0,-0.0,0.0,-0.0,0.0,0.0,0.0,-0.0,0.0,0.0,0.0,-0.0,0.0,-0.0,-0.0,-0.0,0.0,0.0,0.0,-0.0,-0.0,0.0,-0.0,-0.0,0.0,-0.0,-0.0,0.0,0.0,-0.0,0.0,0.0,0.0,0.0,0.0,-0.0,0.0,-0.0,-0.0,0.0,-0.0,0.0,0.0,-0.0,0.0,-0.0,0.0,0.027435495,-0.031375803,0.023201376,-0.011043058,-0.0063370336,0.0054865354,0.009542008,0.010595201,-0.03176103,-0.027841907,-0.006043054,-0.020745708,0.020991718,0.015063061,-0.015977902,-0.014061813,-0.025302686,-0.060148895,-0.03176292,-0.06277762,-0.02948246,0.07352601,0.0003448795,0.008102543,0.053843398,0.012101014,0.023495905,0.004863031,-0.05432693,0.03741824,-0.014425917,0.05037456,0.04394384,-0.041088495,-0.03299378,-0.06622946,0.02153461,0.05308371,-0.025873296,0.08448405,0.08502264,-0.06638617,0.008362415,-0.0046328753,-0.089422666,-0.00873923,-0.03100954,-0.014281324,0.0020233293,-0.024616638,-0.012851493,0.017549055,0.0005483381,0.017038766,-0.004420942,0.0022032275,0.0034047004,0.013555793,0.04003582,0.013450911,0.019995013,-0.012298752,-0.03543164,0.034408774,0.019241627,-0.05726174,0.0075608687,-0.025177723,-0.0578503,-0.016764011,0.00390119,-0.018517692,-0.053616874,-0.031468116,-0.025974307,-0.036477737,-0.0066435714,0.005341625,0.028176727,0.013528631,0.008011053,-0.0738681,-0.04560019,0.050162587,0.009784557,0.019372892,-0.010934103,0.066206716,0.0023452342,-0.105712585,0.007983874,0.0544421,0.024688523,0.030581841,0.021351406,-0.034361754,-0.002238793,0.032594256,0.007390528,-0.015846374,-0.008918868,-0.030008588,0.06472735,0.031040626,-0.034175012,-0.019285116,0.0059119593,-0.011848308,-0.021849824,0.02349132,-0.01868717,0.013219885,-0.022744145,-0.0183831,-0.020722233,-0.00396363,-0.014269042,-0.0027114255,-0.0006694273,-0.016515996,-0.018483326,0.010461632,-0.0064684185,0.050766785,-0.011832224,0.0105695715,0.023319537,0.015524416,0.034355264,0.038358126,-0.03278143,0.022307029,-0.04071127,-0.04854095,-0.0086694285,-0.0015209746,-0.018022032,0.0036876684,-0.036228843,-0.009313175,0.047226857,-0.01646293,0.018013574,0.07344388,0.063059814,-0.007459279,-0.009147422,-0.078484535,-0.0493186,0.04325503,-0.0714596,-0.011848576,-0.01752698,0.0152407335,-0.06996191,-0.043473184,0.016407363,-0.0044324445,0.0029233447,0.034976512,0.09078436,0.029508084,0.0014830021,-0.04531301,-0.051936094,-0.028767904,-0.00750492,-0.010989032,0.002217011,0.0011494881,-0.0120724,-0.015772466,0.05508894,0.026774622,0.00031486468,-0.02920082,-0.06885471,0.04844486,-0.07871571,-0.021305593,-0.05148782,-0.0031560538,0.012318283,-0.028332781,-0.006197966,0.008764816,-0.007976799,0.010664327,-0.05341292,0.05004347,-0.005927245,0.05944776,0.01378656,0.012404212,0.07199931,0.030604247,-0.024969824,0.027436845,0.0152603835,-0.02056392,-0.06285982,0.025059583,-0.019118095,-0.0525307,0.013470819,-0.02439403,-0.00889342,0.029627502,0.039369874,-0.014605662,-0.0010602137,-0.008530426,-0.0153190335,-0.062132616,-0.03516733,-0.006544715,0.0568135,-0.010319947,0.0070507317,0.045817673,-0.020873759,0.047829222,-0.014808711,0.0024899258,0.03679396,0.066070355,0.065761164,-0.07100343,0.019981662,0.014881612,-0.052441165,0.016797962,0.002711521,0.013330757,0.05576011,-0.010928587,-0.047047533,0.0019607304,-0.0073104715,-0.019861897,0.0040979045,0.013863887,0.033204146,0.009508493,-0.07411376,-0.034345638,-0.012458646,-0.059791055,0.033271126,-0.018544938,-0.035236407,0.04115474,0.02405943,0.024654053,-0.020359796,-0.017584777,0.014485631,0.027755223,0.015091631,0.0087524075,0.04406484,0.03890487,0.0080473265,-0.03701783,-0.030842382,0.01745697,0.01974785,-0.04291385,-0.041111164,-0.024692511,-0.016663129,0.004555252,0.015984327,0.031540606,0.05423733,-0.007350006,-0.007307206,0.005943058,-0.08288553,-0.021517297,-0.040972147,0.027111711,0.007955927,0.0046024257,0.071934216,-0.07338775,0.033865735,0.048749827,-0.040717676,-0.025181677,-0.03632933,-0.012182514,0.0076806913,0.0062226644,-0.004126761,0.012488243,-0.0016277498,-0.018599253,-0.025056213,-0.030209847,-0.0059688007,-0.0059826383,-0.01774634,0.0003857963,-0.0072119352,-0.015123572,-0.020320233,-0.023814969,-0.018715916,0.004526852,-0.009721259,-0.031157918,0.03397967,0.019418415,-0.0030737317,0.04663563,0.008282957,0.009130223,0.035316385,0.0029131828,0.007754705,-0.004661748,-0.013526602,0.00064448063,0.02060784,0.05575537,-0.030463062,0.017447932,0.031889793,0.0061455183,-0.00064152695,0.017323898,-0.018143173,-0.009425782,-0.010505624,0.008580676,0.009973738,0.003233255,0.011088059,0.042401876,0.029074015,0.036433738,0.00726382,0.042269424,-0.016155109,-0.0077240607,0.042498603,-0.0037678313,0.005370761,0.027397212,0.028315626,-0.013680402,0.064258,0.0010350631,-0.013397555,0.06040364,0.016502628,-0.047958802,0.010204201,0.0068285144,0.0034202484,0.0066399076,0.010638199,-0.0041868133,0.013967611,0.011123545,-0.022966256,-0.0140720075,-0.018546006,0.0042279386,0.018583318,-0.02123219,0.026061147,0.034789216,0.0016551657,0.01389764,0.04492524,0.031533852,0.023010202,-0.010844422,-0.02257863,-0.015344721,-0.034838434,-0.027897108,-0.0044953343,-0.020283842,-0.022513686,0.044013347,0.036360767,0.033022176,0.030164948,0.04773821,0.03671323,0.011743118,0.02126144,0.02466278,-0.02655662,-0.042357948,-0.029294733,-0.000406279,0.0003063648,-0.01142876,0.00190786,0.006588293,0.008471623,-0.012966242,-0.008815198,0.0059875785,-0.028518537,-0.027011853,-0.0032783141,-0.04168121,-0.0351849,-0.019640094,-0.04241658,-0.020167628,-0.03662353,-0.018163323,-0.0072264797,-0.041498955,-0.025655126,-0.013268708,-0.025452951,-0.019999394,-0.01981271,-0.025883855,-0.021412771,-0.014186219,-0.011649589,-0.02047143,-0.0075490484,-0.007909991,-0.027410608,-0.04900027,0.0006319735,-0.011310168,-0.045365,-0.024413627,-0.029337201,-0.056592718,-0.053701818,0.030844474,0.017003786,-0.0152017325,0.02171413,0.035277583,0.004482876,-0.0083948495,-0.0059277033,-0.021689868,-0.0081468355,0.024965405,0.046492323,0.009940175,0.029477289,0.020501973,-0.009422187,-0.0062774783,-0.005134949,-0.0131201865,-0.0053708935,0.045707617,0.018680086,0.023463193,0.031179236,0.010432753,0.0028662293,-0.029878397,-0.03815501,0.02618724,0.018269615,-0.03880538,-0.0037310524,-0.008588779,-0.025351953,-0.007861692,0.00818366,0.018338807,-0.027062071,-0.050688248,0.00029468216,-0.013200532,-0.018212557,-0.010319448,0.018684322,0.023916656,-0.0067065447,-0.035795674,-0.022224868,0.027294993,0.0071948348,-0.0003739368,0.012422282,0.002194608,-0.016167333,0.020558503,0.0797774,0.016105272,0.012540135,0.052943543,0.031785365,-0.024231164,0.018858038,-0.018517945,-0.015128009,-0.034803014,-0.02416971,0.019205842,0.023596965,-0.022736367,-0.0031604012,-0.009735723,-0.04894876,-0.029965146,-0.020938607,-0.04373476,-0.008984274,-0.00084268785,0.010704285,-0.03484705,0.003574001,0.015204285,-0.034196697,-0.046476346,-0.011213906,-0.05072885,-0.0449669,-0.053264838,-0.01813373,-0.02502325,-0.058595177,-0.018631482,0.0105764,-0.0022509776,0.0023360492,-0.006071674,-0.0067880163,0.035859063,-0.0131796505,-0.012681714,-0.019138884,-0.024554964,-0.012617026,-0.005928763,-0.00855952,-0.006441581,-0.0013636835,-0.023156859,-0.014911056,-0.00035223903,-0.0109827025,-0.008092148,0.004536175,-0.010049255,-0.011179311,0.01758091,0.0072357473,-0.020557879,-0.01910323,-0.021960316,-0.030409798,-0.01800978,-0.006259202,-0.010901916,-0.025857246,-0.015048824,-0.044742722,0.009820692,0.026268361,0.007285611,0.005771557,0.0029357707,0.0056188474,-0.009913791,-0.026608167,0.0041676024,7.149921e-05,-0.0036186338,0.089550294,-0.035989348,-0.017125178,0.0098872,0.04124723,0.026947787,0.037179284,0.036273386,0.030710638,0.021605467,0.060394313,-0.010579979,-0.054401163,-0.014659677,-0.015053134,-0.03644924,-0.0728713,-0.045696683,-0.02538766,0.10872999,-0.012540101,-0.007886891,0.14505512,-0.030485218,0.012536397,-0.04644077,-0.027716327,-0.015586707,0.06061962,0.04257369,-0.033628523,0.04815088,0.032705802,-0.0073995595,-0.04056728,-0.014614355,0.0028098328,-0.02567566,-0.029632518,-0.010233349,0.0015295614,-0.025856271,0.05708707,0.03629336,0.0117116505,0.068020046,0.013762978,-0.00034506834,0.04110899,0.004840628,-0.014256014,-0.01275568,-0.055497296,-0.041688528,0.08473084,-0.08101192,-0.060850777,0.07263591,-0.03746522,0.004514048,-0.011247598,0.012234673,0.005496753,-0.012794801,-0.046452615,-0.09896385,0.05612565,-0.036954597,0.016962815,0.03688667,0.04989724,0.031864762,0.04662598,-0.046958063,-0.00954305,0.013849301,0.016526654,0.019634338,0.01233527,-0.013256746,0.012542358,-0.055473175,-0.0004827827,-0.010776128,0.017742418,-0.03644865,-0.020772908,-0.0012774634,0.0985917,0.007952983,-0.022826038,-0.0006260493,0.1114353,-0.051702514,-0.043738827,-0.020716043,-0.021635951,0.0054621478,-0.03309498,-0.023508163,0.112577304,0.04053268,-0.036843497,-0.05303205,-0.036112625,-0.03493729,0.06230893,0.0006890567,-0.04887609,0.12277785,-0.030467562,-0.0076582036,-0.06969587,-0.050954092,0.008673893,-0.03188373,0.049308777,-0.02027631,-0.033209454,0.1559064,-0.0484201,-0.011465461,-0.0058922484,-0.021060523,0.028386336,-0.07396717,-0.0143222995,0.13795722,-0.035513896,-0.010434026,-0.017860461,-0.0100934245,-0.07485191,-0.02184638,-0.005814323,0.0042916583,-0.012003287,-0.03927875,0.03314121,0.023147346,-0.0035210126,-0.019135598,-0.059683558,0.06751207,0.017751722,-0.08488346,-0.010764391,0.06520195,-0.061767466,-0.026221724,0.02837364,0.075001806,-0.095007524,0.027575368,0.042387962,-0.11187752,0.031182142,-0.015662652,0.0074855206,0.035478014,0.017071314,-0.032194115,0.04705063,-0.07533354,-0.06059293,0.046388235,-0.029253786,-0.017116096,0.02480712,-0.104023494,0.023685602,-0.0067820423,-0.04698679,0.052314155,-0.022564463,0.046470854,0.017781828,0.034655795,-0.039244987,-0.020292992,0.045242555,-0.00489946,-0.021772964,0.02076811,-0.0299889,-0.004316779,-0.030045506,-0.014201744,-0.0070461654,0.07493222,-0.02235622,0.017498564,0.041324016,-0.051412247,0.057801582,0.008885236,0.0328439,-0.022360398,-0.037117284,0.0097790295,-0.04885619,0.0064325943,0.017606175,-0.0119034415,-0.021866381,-0.0020487076,0.03269196,0.009313662,-0.04085677,0.034800917,-0.026857872,-0.013607498,0.011300102,0.010681385,-0.04886724,-0.031445596,0.017040916,0.07663213,-0.03401592,0.018501572,0.01859524,0.046435483,0.076290675,0.023376279,-0.020966494,-0.055509914,0.073443785,0.10967828,-0.1162961,0.04243177,0.030683331,-0.02979832,-0.016024264,-0.1010243,-0.08488827,0.08970052,-0.049190704,-0.07025469,0.010041969,-0.010771139,0.027726619,-0.062090185,-0.0109374635,0.0027164163,-0.057614822,-0.015616821,0.040894706,0.0095696505,-0.019400135,0.076124854,0.0024292127,0.07150289,0.044710845,0.029018143,0.033306655,0.014440732,-0.0049659843,-0.047318686,0.00829583,-0.061210178,-0.075785466,-0.0056083533,-0.05716528,-0.037967738,-0.005574864,0.023013689,0.017529517,-0.03783714,-0.0809441,-0.039132982,0.029276427,-0.048219528,0.025046602,-0.027761037,-0.06531747,0.010974528,-0.06654074,-0.09833344,-0.061406083,-0.06318723,-0.015256186,-0.021942386,0.01363949,0.026869737,0.11941948,-0.014503242,-0.044755727,-0.059099972,-0.047677252,-0.022834463,-0.026423957,0.02944691,0.03176526,-0.0065385825,0.021520864,0.06388749,0.048145704,0.00014055229,0.019451303,0.09007646,0.042282168,-0.03652799,0.002810958,-0.043841872,-0.018128894,-0.0006746336,-0.0072140633,-0.0094371885,-0.009091971,-0.04254009,-0.0042313337,-0.0050047045,-0.016441345,-0.0012971481,0.014673079,0.013458629,0.03182523,0.023908867,0.06519394,0.00169052,-0.0199505,-0.014252607,0.0083868345,-0.008889537,0.0329081,0.012021132,-0.0001593225,0.030177567,-0.02395006,-0.04326236,-0.027550785,0.009687548,0.017171675,-0.024304464,0.008905173,0.016059533,-0.02837209,0.027297873,0.03260663,-0.023518652,-0.031179545,-0.030696196,0.013717652,-0.011384385,-0.0009343301,0.0056413,-0.014237628,0.015227056,-0.013318191,0.06361414,0.08923232,-0.0020745108,-0.017862808,-0.024672579,-0.059372194,0.043130986,0.023158485,-0.018042497,-0.013200073,-0.0008818357,0.01522859,-0.013405844,0.002006877,0.006859723,0.009736899,-0.00040112037,-0.023992585,-0.075721756,-0.050413843,0.020112056,0.029542157,0.039049115,0.102446266,-0.04009409,-0.031021876,0.014923628,-0.059990507,0.018073728,0.05049968,-0.0019459152,0.03138907,-0.0041944426,-0.06416358,-0.0030513327,0.024002371,-0.026608082,0.0016918648,-0.009769902,-0.036616255,0.0048848838,-0.015650041,0.018143434,0.008542408,9.4756135e-05,-0.009071083,0.01678172,0.010398203,-0.021035032,0.0014958589,-0.0031522508,-0.024438627,0.01569848,-0.008258369,-0.02084265,-0.018318042,0.037043583,-0.052969906,-0.014148642,0.008092644,-0.072422124,-0.0147741325,0.022018785,0.022014566,0.00542193,0.079681754,-0.03008361,-0.04945343,0.016596591,-0.0034435906,-0.013647704,0.031130757,0.015874349,0.025856612,-0.028159333,-0.008581482,0.01938609,-0.025900578,0.020728236,0.017957088,-0.04089333,0.0013066552,0.008468723,0.03837485,-0.017704142,-0.044868432,-0.023507113,0.02054568,-0.010247393,0.0025192602,-0.035339616,-0.021472603,-0.06333493,-0.02598475,0.017285982,0.008328827,-0.016263738,0.010602354,-0.0035188473,-0.011043666,-0.039316982,-0.044138793,-0.022552937,-0.02622306,-0.049821828,0.013361358,0.007433859,-0.06174217,-0.03443313,-0.0050510447,-0.027966995,-0.04679698,0.034791663,-0.006000702,-0.041419532,0.017840529,-0.02258975,-0.028981509,-0.0011085998,0.047440317,-0.013868718,0.038051486,0.079440884,-0.037924323,-0.0074864402,0.021040892,-0.013953289,0.008426685,-0.0038007067,-0.0037411114,-0.0044325334,-0.007893647,0.0056464556,0.0062120133,-0.0035209316,-0.04208842,-0.008342712,-0.013669366,-0.014847738,-0.018739454,-0.03977803,0.016945155,0.033835955,0.017528862,-0.0043211416,-0.015839659,0.031435575,-0.027315183,-0.06419178,-0.032611843,-0.007793072,-0.023943765,-0.002068305,0.015606224,-0.032151226,-0.05099739,-0.04398899,-0.031005284,-0.016772935,0.062017374,-0.033578504,0.01990562,0.022379328,0.059224587,0.07478597,-0.0139213605,0.041286558,-0.011888818,-0.013497822,0.02307264,-0.022100631,-0.029634075,0.01300542,-0.048801966,-0.027707173,-1.5249308e-06,-0.009223985,0.029742604,0.028348524,-0.041106347,0.047398023,0.0015770351,-0.024505656,0.04541181,0.0291302,0.0013746737,-0.018982925,-0.009659923,0.0002648698,0.044666074,0.0949499,0.046053804,-0.010816152,-0.025956934,-0.0052257045,-0.03387976,-0.002252283,0.0072863246,-0.0063536996,-0.0029797493,-0.009234894,-0.031189995,0.0071809115,0.039657123,-0.0294477,0.006289768,-0.014593468,0.018120723,0.028282268,-0.01964041,0.027249316,0.021133369,-0.041219346,0.03196766,0.047316335,-0.012442708,0.0870447,-0.029286157,-0.04532176,0.033455573,-0.034965556,-0.009338979,0.02430867,-0.045063157,-0.0043135546,-0.016583955,-0.0139185265,-0.03111364,-0.013893169,0.00870802,-3.0980744e-05,0.013667913,0.024068529,0.030408062,0.0015808888,0.025286835,0.015140613,0.012146022,-0.0033216444,0.014664102,-0.01799417,-0.004701126,0.016811322,0.032294236,0.043226972,-0.0044672205,0.010873335,0.018789938,-0.00892267,-0.033757128,-0.028979268,-0.011472119,-0.0012039954,-0.033983212,-0.011119922,-0.00815719,-0.02636857,9.855424e-05,0.036132917,-0.015297795,0.04610174,-0.03852997,-0.053234786,-0.042053428,0.049212925,0.101078905,0.012732953,0.007050365,0.06783801,0.011891902,-0.024276571,-0.042376224,-0.01042965,0.00040170734,-0.014365668,0.013183289,0.024114285,0.014584678,0.028420819,-0.030580467,0.012361529,0.010773346,-0.017672475,0.0073432755,-0.008957981,0.012796777,0.019427748,-0.005694483,0.019465547,0.054245826,0.007179233,-0.041462995,0.018287355,-0.0016653857,-0.054313082,-0.015141751,-0.0076280693,-0.00633043,0.023543285,0.032796603,0.007114033,0.04333729,0.02449853,-0.030532774,-0.0040757777,-0.019639987,0.012976089,0.016265502,0.02225853,-0.028887391,-0.053757206,-0.045335054,0.030247398,0.011227733,-0.0014327965,-0.020787664,0.0063715423,-0.028815972,-0.0052473224,-0.0107365595,-0.027313892,-0.024107559,-0.00862038,-0.02286689,0.056616627,0.06464232,0.07399708,-0.023718609,-0.07606639,-0.034664087,-0.0032143795,-0.034278926,-0.015128441,-0.003963912,0.007878114,0.010142703,-0.023064734,-0.0017856058,0.021320743,-0.01050415,0.008782809,-0.00473854,0.048098207,0.023376578,-0.012013832,-0.0043065967,-0.010131042,0.005482395,-0.054175783,-0.023606947,-0.01911083,0.00706199,0.014587391,0.016297316,0.013244202,-0.0075711356,0.010964391,-0.008058071,-0.03740503,-0.01613948,0.057483897,0.023352409,0.04054938,-0.023385584,-0.028350716,-0.00975483,-0.017439622,-0.018766018,-0.029140687,0.032388084,0.0061783907,0.03203793,-0.004850193,0.0040017464,-0.005807098,-0.033865318,-0.031902235,0.01275409,-0.0016169603,-0.037039597,-0.02774734,0.0014968271,0.019475207,0.0055740117,0.0060557243,0.046134233,0.017975576,0.033001237,0.057836983,0.031362854,-0.008165851,0.0048989123,-0.010285607,-0.036305573,-0.020669574,-0.06600475,-0.025388507,0.0013239668,0.0037592382,-0.015615127,0.004473352,0.018938448,0.025210593,0.027653037,0.049226865,-0.010006315,-0.007740789,0.013359662,-0.014773221,0.004954466,-0.0072403727,-0.026366187,0.012453492,0.017419789,0.036117595,0.0136298835,0.00045785305,0.012777376,-0.026323752,-0.0357319,0.015457321,-0.011500097,-0.00624695,0.017919648,0.03663349,-0.007764651,0.032089338,0.04781167,0.028158573,0.0036701115,-0.005783005,-0.0069137504,-0.022709465,-0.038761437,-0.0269486,0.0023373098,0.051522143,0.0072828457,-0.0068454067,0.053646974,0.03879635,-0.01326656,0.021186436,-0.00795371,0.009871935,0.0290319,-0.0054731322,0.0082055945,0.030204896,-0.007885225,-0.016860932,0.037759364,-0.012130388,-0.0010088017,0.011596883,-0.00015816443,0.0075071664,-0.029045949,-0.045127116,-0.014691713,0.011843383,0.0016466301,0.002374523,0.018499166,-0.026958968,-0.005220958,0.015802544,-0.039982606,-0.037598822,-0.010200547,-0.009662324,0.017403418,0.02230306,0.00082304975,-0.006651727,0.0024375448,-0.01110097,0.0016628834,0.032687746,0.018910885,-0.03913365,-0.0034749147,0.020532245,-0.029199548,-0.011277246,-0.016420843,0.010517924,0.020910319,0.005218905,0.013238733,-0.013150702,-0.03504758,0.013415713,-0.014933276,-0.027219847,-0.03444337,0.00828653,0.021904962,-0.007929057,0.014482837,0.024916604,-0.021632211,-0.0146988295,-0.010946355,0.0031552766,0.04463636,0.046328045,-0.013079411,0.015163644,0.0074470434,-0.021512423,-0.01798791,-0.035977084,0.008617644,-0.044074234,-0.018114176,-0.0061179185,-0.057647567,-0.02509025,0.02086291,0.06691576,0.043202683,-0.044091176,-0.016441654,0.013714126,0.013371131,-0.022330942,0.010874083,-0.012903629,-0.04632226,0.020374866,-0.008955079,-0.008822938,0.050286997,-0.0021260981,0.040688988,0.02554142,0.0022624393,-0.009912631,-0.017464971,-0.010057384,0.009574457,-0.027971366,0.028797217,0.0043257955,0.018353758,0.037809834,0.009045452,0.0330884,-0.00019746306,-0.06823947,-0.049972247,-0.050225995,-0.13737956,0.019861195,-0.11247189,-0.07569343,0.1448778,0.014355299,-0.005093117,-0.027076373,0.017870227,-0.006182604,-0.0043063397,0.003535853,-0.0051826113,0.0020848056,-0.037457056,0.025476908,0.014387424,-0.013953617,0.015057295,0.0015306004,0.01262011,-0.0058674794,0.019439524,0.039932787,0.050365128,0.023898365,0.091439314,0.034398258,-0.016983515,0.079780035,-0.036912743,-0.09863732,0.068583444,0.06053648,0.01153248,-0.008761304,-0.024032876,0.009195799,-6.89702e-05,-0.029392742,-0.013106551,-0.019805556,0.0689977,0.03140796,0.061413974,0.05095184,0.006584066,-0.019695416,-0.042284336,0.010081515,0.0012816932,0.011386758,-0.0074139014,0.013685048,-0.0049239052,-0.08069741,-0.003973728,-0.019523688,-0.062329795,0.03477763,-0.004992444,0.010256507,0.07160637,0.050483987,0.045813482,-0.0269861,0.0054913033,-0.03395242,-0.061551485,-0.046423584,-0.043253373,0.023049645,0.038706254,0.027749076,-0.014341209,0.02483264,-0.0036074617,-0.059963785,-0.030635005,0.05061587,-0.032830287,0.00039380198,0.07379629,-0.043825947,0.034696702,0.062936425,-0.053537615,0.0012377783,-0.06201137,-0.02133944,0.029931944,0.015956465,-0.0035353296,0.07634763,0.0852992,-0.01944439,-0.034027494,-0.074417144,0.030573692,0.0310199,-0.014472619,-0.004079693,-0.03710995,-0.025237454,0.034582786,-0.0012964492,-0.012027515,-0.022290163,-0.0082764,0.037138373,-0.009727896,0.043107416,0.060247906,-0.050647244,-0.04634453,-0.030590208,-0.001833365,-0.02309882,0.04980372,-0.04057836,-0.054629195,-0.012170669,-0.044555165,-0.03461882,-0.037677813,-0.013685919,0.011832316,0.007370066,-0.019011121,-0.0145588275,-0.009151206,-0.0034409598,-0.008593818,-0.018853512,-0.07468534,-0.017673189,-0.019853586,-0.066853315,-0.016338302,-0.048183244,-0.04107176,-0.010272635,-0.019979674,0.024117025,0.020477358,0.004596511,0.00021852338,0.028377598,0.027856192,0.012351086,-0.010685687,0.026133265,0.04482801,0.041951537,0.037762713,-0.0108614685,0.012936362,-0.027134592,0.042796552,0.00358071,0.026800497,0.016778553,-0.07665517,0.00011313617,0.0036978533,-0.0301141,0.039286908,0.034047265,0.10093397,-0.022532796,0.07642261,-0.0035279195,-0.08604303,0.10966182,-0.01561452,-0.064665586,-0.01602474,-0.025943082,0.023871196,-0.05324022,0.010792041,0.050234023,-0.014352558,0.0941722,-0.022635661,-0.06488497,-0.05027029,-0.033235174,-0.024108494,-0.05806853,-0.048652336,0.020044398,-0.03104433,0.038574297,-0.090401106,-0.049486134,-0.011577811,-0.021672323,-0.013040318,0.092457876,-0.025314666,0.00032055908,0.017447634,0.06206158,0.0040528253,-0.044061523,0.008825499,-0.03310191,-0.040543232,-0.026247673,-0.018237827,-0.04649928,-0.043802418,-0.009355892,0.026610939,-0.019981388,-0.005635817,-0.036988508,0.061815303,0.062063597,-0.0073877987,0.012392969,0.009889698,-0.078499675,-0.031686727,-0.055090982,-0.032176472,0.0004641855,0.023457164,0.027519349,0.034281537,0.0006175192,-0.022055065,0.04831998,0.03662694,-0.016724825,-0.0405451,-0.022602042,0.0035754608,-0.025041586,-0.022205517,-0.040229134,-0.038157742,-0.020592222,-0.030492108,-0.017236078,0.019280266,-0.030379577,0.028784445,0.012500776,0.01308484,-0.018071948,-0.02290373,0.029724445,-0.012354175,-0.005761999,0.08506972,0.018250879,-0.0025638253,0.0111302,-0.0057078027,-0.01423091,-0.001686401,-0.026018558,-0.01302572,-0.0032013592,-0.02360024,-0.019778455,0.030294906,0.009357726,-0.012427226,0.03603654,-0.009311735,-0.018797765,0.023066672,-0.016024472,-0.010150259,0.00985697,-0.014752204,-0.021367827,0.06740987,-0.029765489,-0.05166226,0.015593683,-0.02073578,0.0007743232,0.026463399,-0.010585756,-0.033449575,0.040545605,-0.020224756,-0.050366204,0.028721198,0.0159836,-0.0036272684,-0.018205635,0.003371709,-0.00837697,-0.020927507,0.004156867,-0.016333118,-0.021975335,0.00531955,0.001181553,-0.04899725,-0.005503955,0.022873063,0.0011121249,-0.02972331,0.040151473,0.045132373,0.048200697,-0.00029375227,-0.027021544,0.028853593,-0.0024746873,-0.053527743,0.060622748,-0.006230006,-0.06684051,-0.010367392,-0.01677421,-0.015777588,-0.01571743,-0.02644395,-0.033537373,0.029041523,-0.00057601393,-0.023935156,-0.035597466,-0.019653752,-0.04854135,-0.0071912734,0.0032259768,0.019926488,-0.028987,-0.005291062,0.06007128,0.011696076,-0.024260556,-0.011819331,0.011678187,0.012354341,0.011416218,0.016045904,0.076944575,0.031057982,-0.022608291,-0.008156639,0.025539093,0.03731696,-0.0035863784,-0.03885691,0.040411364,0.035193548,-0.031754155,0.022410246,0.030240001,0.00032502212,0.0006081653,0.006645429,-0.006897161,-0.01872349,-0.012228794,-0.021392308,-0.028150575,-0.024690462,-0.001583664,-0.024160072,0.0058107837,-0.0058453367,-0.037884258,0.020884473,0.014765314,-0.009764186,-0.0006617596,0.0022576442,-0.0124684395,0.020795377,0.021329574,0.006492398,-0.024308456,-0.008155127,0.033184007,0.0024296942,-0.03741947,-0.017216729,0.009973387,-0.033945937,-0.021832127,0.0042103673,0.0041748504,-0.015644398,0.0023384874,0.058967844,0.008688437,-0.03212924,-0.003938739,0.019534795,-0.013557848,-0.033537872,-0.005229966,0.004054841,-0.026979495,-0.02183627,0.008954527,0.014439018,-0.035628255,0.01691561,0.033196706,0.07151187,-0.008542551,-0.035833173,0.04233772,-0.022769488,-0.035832923,0.049233004,0.008364963,-0.005958447,0.010311475,0.0057211947,0.018650278,0.011320464,0.018764952,0.010570444,-0.03135648,-0.014791153,-0.008261859,-0.026374921,0.005285834,0.009994585,-0.012169827,0.019642547,0.020921906,-0.041403413,0.013553687,0.024813024,0.027707815,0.02026944,0.025182668,0.024040498,-0.015625428,-0.010112445,0.01754489,-0.032152224,-0.024168639,-0.022989346,0.0014029118,0.021139722,0.0058594355,0.0149163455,0.012262164,0.025666295,0.0017970686,-0.01549523,-0.0187149,0.024206815,-0.017474234,0.0070665316,0.04024987,-0.035798196,0.030645786,0.020196516,-0.06711973,-0.0083788065,-0.019813864,0.012355937,0.013557966,-0.01908891,-0.016772967,0.0010241683,-0.030492214,-0.02440044,-0.0038515583,1.0489613e-05,-0.025871282,0.013368961,-0.00021708444,-0.028460294,-0.0011768697,0.0036410943,-0.0047535514,-0.02313065,-0.026457887,-0.052218426,-0.017140172,-0.0034191539,-0.028257838,-0.0060598818,-0.0014951192,-0.013813402,-0.005318546,-0.034375012,0.018444747,-0.00322155,-0.027595047,0.017905772,-0.042250212,-0.04924126,-0.002724954,-0.007424241,-0.012190693,-0.009307304,0.0091740815,-0.0033867233,-0.013896546,0.02840063,0.0060229828,-0.028522072,0.014963246,-0.00301388,0.004609671,-0.0074399076,-0.008421327,-0.009993157,-0.0025902493,-0.0077167717,0.006266085,0.0028372793,0.060387418,0.01701163,0.010673489,0.04635753,-0.012278421,-0.003999251,0.024489667,-0.01585228,-0.018278755,-0.014387941,-0.0022550356,0.031889826,0.017038912,0.019640187,0.01689615,-0.00046254825,0.017997527,0.0,0.0,0.0,-0.0,-0.0,0.0,0.0,-0.0,-0.0,-0.0,-0.0,-0.0,0.0,0.0,-0.0,0.0,0.0,0.0,-0.0,-0.0,-0.0,-0.0,-0.0,0.0,0.0,-0.0,-0.0,-0.0,-0.0,-0.0,-0.0,0.0,-0.0,-0.0,-0.0,-0.0,0.0,-0.0,0.0,0.0,-0.0,0.0,0.0,0.0,-0.0,-0.0,-0.0,0.0,-0.0,-0.0,0.0,0.0,-0.0,0.0,0.0,-0.0,-0.0,0.0,0.0,0.0,0.0,-0.0,-0.0,0.0,-0.0,0.0,0.0,-0.0,-0.0,0.0,-0.0,-0.0,0.0,0.0,-0.0,-0.0,0.0,-0.0,-0.0,0.0,0.0,-0.0,0.0,0.0,0.0,0.0,0.0,0.0,0.0,0.0,0.0,-0.0,0.0,-0.0,0.0,0.0,-0.0,-0.0,-0.0,-0.0,0.0,0.0,-0.0,-0.0,-0.0,0.0,-0.0,-0.0,-0.0,-0.0,-0.0,-0.0,0.0,0.0,-0.0,-0.0,0.0,0.0,0.0,0.0,-0.0,0.0,0.0,-0.0,-0.0,-0.0,0.0,0.0,0.0,-0.0,-0.0,-0.0,0.0,0.0,-0.0,0.0,-0.0,-0.0,0.0,0.0,0.0,0.0,0.0,-0.0,-0.0,0.0,0.0,-0.0,0.0,0.0,0.0,-0.0,0.0,0.0,0.0,-0.0,0.0,0.0,-0.0,0.0,-0.0,-0.0,-0.0,0.0,-0.0,-0.0,0.0,-0.0,-0.0,-0.0,-0.0,0.0,0.0,0.0,-0.0,-0.0,0.0,0.0,0.0,0.0,0.0,-0.0,-0.0,-0.0,0.0,0.0,-0.0,0.0,0.0,-0.0,-0.0,-0.0,-0.0,0.0,0.0,-0.0,0.0,0.0,0.0,-0.0,0.0,-0.0,-0.0,-0.0,0.0,-0.0,0.0,-0.0,0.0,0.0,0.0,0.0,0.0,-0.0,-0.0,0.0,0.0,0.0,-0.0,-0.0,0.0,-0.0,0.0,0.0,-0.0,0.0,-0.0,-0.0,0.0,-0.0,0.0,0.0,-0.0,-0.0,0.0,0.0,-0.0,-0.0,0.0,0.0,0.0,0.0,0.0,0.0,0.0,0.0,0.0,0.0,-0.0,0.0,0.0,0.0,0.0,0.0,0.0,0.0,-0.0,-0.0,-0.0,0.0,-0.0,0.0,0.0,0.0,-0.0,0.0,0.0,-0.0,-0.0,-0.0,0.0,-0.0,-0.0,-0.0,-0.0,-0.0,0.0,-0.0,-0.0,0.0,0.0,0.0,-0.0,0.0,0.0,0.0,-0.0,-0.0,0.0003886476,-0.026298866,-0.009450666,-0.053014413,-0.009833886,0.004572854,-0.041499365,0.04042817,0.0126182325,-0.008847224,-0.0032931422,0.0061475486,0.015365252,-0.008460323,0.00314526,-0.009999586,0.004562981,-0.011123862,0.049614143,0.047186773,0.032427914,0.013357928,0.040364496,0.018493943,0.02749656,0.032115087,-0.0153454095,-0.0027210289,0.022851573,0.024786098,0.019818624,0.02761915,0.010877296,0.020008454,0.0005009734,-0.032767676,0.0066092354,0.031531442,0.009725001,-0.038029257,-0.024399651,-0.033412457,-0.017729312,-0.02078442,-0.010053713,0.008919937,0.0032001315,0.01875762,0.010280577,0.004710332,0.017333375,0.007442938,0.0068566003,0.017016869,-0.020239053,-0.025098957,0.023859194,0.020077163,0.030592328,-0.015318355,0.008880584,0.02971484,-0.013047138,0.01272946,0.028241804,-0.012852893,0.0074089724,-0.016533442,-0.0017804161,-0.0073798485,-0.0070409956,-0.003215036,-0.030901536,0.0082511185,0.013280667,0.007403211,0.019331932,-0.011208202,0.0046580415,0.0016317896,-0.020810721,-0.008211356,-0.029251963,0.0015547122,0.019230697,-0.003010035,-0.011748857,0.012244453,-0.04209099,-0.03441997,-0.00726935,-0.009877784,-0.019930586,0.004054773,0.002056003,-0.06707063,-0.036327235,0.026984707,0.014016997,-0.010401797,0.0025616304,-0.012940619,-0.049333677,-0.005279886,-0.010277992,0.013535298,0.0021297778,0.046364997,0.035939347,0.018449835,0.0019821953,0.025185857,0.008155567,0.016843414,0.0037157459,-0.0043596127,-0.0009961016,0.021657143,0.010626808,-0.0025594893,0.0029850828,0.046429913,0.033269912,-0.00564183,-0.011545521,0.031727564,-0.00040654215,0.0044825883,-0.008148997,0.024041628,-0.006373141,0.0017014983,-0.002607723,0.023167668,0.002053655,0.0035817218,0.036514383,0.023554124,-0.00731011,0.0042472645,0.011279163,-0.018962624,0.014890179,-0.009920766,-0.024174532,-0.027240278,-0.016348634,0.01452634,-0.016430771,0.017688029,-0.0050270143,0.020500071,0.024831746,-0.017337466,-0.041339867,-0.014263636,0.005488719,-0.01639808,-0.009853788,0.0653138,0.027590051,0.009072895,0.044649467,0.053277764,0.05058039,-0.0040417225,0.0054034595,0.019667447,-0.030367743,-0.029220503,-0.032655958,0.014531595,-0.009826157,-0.021826625,0.010114472,0.034720164,-0.00096274714,-0.019886833,0.025625227,0.040277086,0.07766315,0.046909235,0.03428397,0.027660143,-0.0144967735,0.033111412,0.022901028,-0.022086576,0.00040239588,0.0058012414,-0.023332939,-0.035052024,-0.01129752,-0.0007060629,0.0009823786,-0.017103795,0.017395904,-0.0077187642,0.008875898,0.022002567,0.028438998,0.010756472,0.013970405,-0.0010478675,0.034701906,0.011294233,0.006072569,-0.027083462,-0.022803448,-0.0632878,0.021955468,0.011164722,-0.025986856,0.01561857,0.004109363,0.011179322,-0.003882756,-0.0008517414,0.07960139,-0.019417519,0.020653069,0.025595846,0.029588787,-0.00010428061,-0.048556227,-0.0030825036,0.00032763873,-0.004175203,0.03167058,-0.007981913,-0.013912916,-0.02308208,0.033515595,0.009857665,-0.021870116,-0.0065848245,0.012851719,0.012698644,0.045797717,0.05602966,0.02292835,0.02677837,-0.03892474,-0.008312325,-0.00013313048,0.0015251926,-0.03937371,-0.047925767,0.029466297,-0.020140732,-0.013008038,0.04247658,-0.006529245,-0.0029351627,0.012233898,0.012850429,0.0046539707,0.0090586385,-0.019559454,-0.026021378,-0.009921476,0.019215723,-0.006257194,0.008602334,-0.0005971449,-0.0101128165,-0.00075964537,0.01142272,0.0017632035,0.02228768,-0.0068169464,0.009514893,0.049949188,0.011819313,0.046331495,0.053911272,0.02357411,0.020380484,0.013289432,0.011536185,0.03146295,0.0040471414,-0.021802409,0.007770074,0.07187503,-0.02651122,-0.022363981,0.050216157,-0.040116675,-0.020856282,-0.002516991,-0.018421788,0.006295104,0.015473183,-0.010458161,0.026216168,0.02366721,0.023911363,0.0015907247,0.002082079,0.01671321,0.005313715,0.009243396,0.008847668,-0.0065948553,0.007785268,0.012148008,-0.011199341,-0.010370376,-0.009078576,-0.02353015,0.0035611107,-0.007179779,-0.0148323225,0.012340672,0.0039559365,-0.0037996892,0.012293847,0.016672373,0.03133578,0.03433339,0.036664166,0.054426357,0.041106258,-0.0022039742,-0.028669117,-0.024826875,-0.018600762,-0.030906135,-0.009204121,0.025995275,0.01656825,0.019610185,0.0016483695,0.0041339626,0.011160122,0.0134003665,0.012432991,0.019940479,0.009531078,0.014978473,0.027175853,-0.00054890406,-0.01806957,-0.033630993,0.008830776,-0.004796017,-0.014467992,0.0159391,0.03963416,0.015977936,0.014850574,0.0064533143,0.021877721,0.0041101966,-0.007166854,-7.8168145e-05,0.0026251846,-0.03432045,-0.018935194,0.023086717,-0.005800467,0.0032165071,-0.0020114472,-0.026680179,-0.01963997,-0.008408355,-0.015578495,-0.009702869,-0.041804764,-0.021487577,-0.008286248,-0.011462387,0.0012626525,0.01708947,0.028846001,0.019008474,-0.02195875,0.019306388,-0.0123320855,-0.028107483,0.0067289798,-0.0006134315,0.025549978,-0.016508454,-0.02892058,0.021893106,0.0062333117,0.018541452,0.0075583705,0.003895317,0.046608217,-0.004576866,-0.030884808,-0.02810438,-0.04440332,0.00037550958,0.010621876,0.012533521,0.015832523,0.042041637,0.022868285,-0.011221816,-0.023229213,0.0026771477,0.016966378,0.009074638,-0.0014261892,0.021539813,0.045072496,0.003394161,-0.024608055,0.021037519,-0.0033904565,-0.019290544,0.0041879034,-0.004746861,-0.0024321824,-0.0146531,-0.001355915,0.010266731,0.007983409,-0.0113612665,-0.046237778,-0.05380271,-0.051037062,-0.018308936,-0.010387249,-0.029792244,0.02619333,0.0008204657,0.0014720702,-0.04597283,-0.052278735,-0.054260314,0.0041721137,0.00040420756,-0.0013042333,-0.015170788,-0.01703645,-0.009791789,-0.017270567,-0.0044414517,-0.014823009,0.031801198,0.061477628,0.022694547,-0.0098410025,0.041199077,0.027778685,0.05658647,0.03217496,0.005822963,0.024372298,0.0023368264,-0.017303929,0.027725758,0.018173497,-0.016973296,0.057502996,0.060777836,0.0017412356,0.055597577,0.114018455,0.015779562,0.0013276221,0.055058956,0.0013827988,0.0015415275,0.0056440854,0.010098096,0.022506345,-0.0073557124,-0.01300789,0.0036425171,-0.03361421,-0.04113817,0.012647555,-0.028902227,-0.01276191,-0.003514582,-0.014775315,-0.0043433653,0.040158734,0.017396735,0.011518072,0.042810276,0.01922775,-0.0014941586,-0.010518505,-0.015832972,-0.0139758475,0.011746816,0.020898217,0.03325039,0.020117668,0.01513384,-0.010358791,0.026179068,-0.0029328156,0.015346037,0.039777037,-0.013645265,-0.017913485,-0.028753335,0.020891614,0.024124037,0.020519003,0.026043931,0.006710625,0.003925282,0.014248952,0.006974323,-0.021779489,-0.010358052,0.0047965283,0.013156965,0.0377883,0.024909873,0.028357737,0.024775011,0.035556264,0.026646717,0.00810425,0.037906542,0.02930617,0.022971572,0.052295484,0.0055374624,0.01604169,0.015549021,-0.017237658,-0.017947039,0.019342035,-0.01700521,-0.014358633,-0.025615554,-0.03065794,-0.030693954,-0.015903566,0.0059874817,0.0044317213,-0.0018833576,0.015900077,0.0073229866,0.009566502,-0.009342107,-0.02495064,0.018209567,0.019264335,-0.024609752,-0.029068999,-0.0073509337,-0.000113915616,0.008594032,0.037306167,0.010836431,0.011322748,0.012347487,-0.016458165,-0.02135121,0.00858523,-0.0022971004,-0.036940068,0.0028529754,0.03659727,0.001396297,-0.04504916,-0.022083923,0.022613218,-0.003890772,0.008371887,0.035959385,-0.003794257,-0.01820959,0.016912647,-0.011282096,0.006226039,0.02794202,-0.015757885,0.0067053004,0.013851188,-0.0036150499,-0.021034818,0.0014880503,-0.028202835,-0.010359236,-0.008604274,-0.03073618,-0.01992557,-0.0016489316,-0.051572878,-0.029333683,-0.01120419,-0.012432728,-0.01198739,-0.011435897,0.017658236,-0.007893109,0.013227772,0.026485711,0.01633601,0.026590157,-0.004867923,-0.02019257,-0.021951022,-0.006764773,-0.021706216,-0.02017003,0.019410927,-0.011645211,-0.0085173,-0.029257895,0.007835431,-0.04755529,0.04039533,0.07279249,0.021390997,-0.02190756,-0.025957393,-0.058765188,-0.0066577136,0.008970849,0.01938643,-0.016415596,-0.009565271,-0.004981141,-0.032942247,-0.028994272,-0.025681367,-0.026674245,-0.004248732,-0.015140763,-0.011133479,0.005288182,-0.023250908,-0.016570643,0.010350333,-0.021007901,0.006007552,0.029314755,0.07392144,0.014242737,0.04007515,0.05617127,0.013022842,0.077182405,0.058676958,-0.0024398633,0.015888056,0.0033549187,-0.008700003,0.0014288216,-0.011966884,0.018588865,0.01899697,0.011733875,-0.0046487125,-0.024016995,-0.017806903,0.024304697,0.00019898996,0.0021702275,0.03786426,0.04855928,0.055746242,-0.015046798,-0.009852638,0.020110505,-0.0152748525,-0.0010864539,0.008629946,-0.02483881,-0.027779086,-0.017503541,0.036974136,0.02948493,0.012151276,0.037199866,0.018681336,0.025514023,-0.020445978,-0.029099202,-0.0041961684,-0.02003972,-0.02456171,0.008061074,-0.017064964,-0.0527668,-0.015588321,0.00023671082,-0.0069396934,0.0035330185,-0.038963437,-0.01899437,-0.018434031,-0.023244202,-0.022160975,-0.015795948,0.00040262743,0.011610588,0.014553646,-0.011587108,-0.025731102,-0.020223776,-0.002942402,-0.006633426,-0.0019217706,-0.026629549,-0.043791063,-0.020243708,0.0021004064,-0.026655499,-0.031055659,0.002054156,-0.0033481307,-0.029281724,-0.027432559,-0.0059398497,0.004027219,-0.020483313,-0.0047672847,0.028489478,-0.032179683,-0.008174524,3.1678857e-05,-0.05452707,-0.022783598,-0.0024550294,0.004879598,-0.0026093998,-0.04125268,-0.0137268,-0.015918018,-0.034740094,-0.0105709005,-0.0046330895,-0.050777406,-0.038315676,-0.0039206827,-0.011188465,-0.03997674,-0.049617317,-0.041356057,0.013620858,0.017639816,0.025698598,-0.039667033,0.0085988995,-0.040823616,-0.039603274,0.0035891612,-0.029729217,-0.0160464,0.006729471,0.019932576,-0.009007061,-0.010942399,0.0019882258,-0.020049833,-0.019670479,-0.0063243117,-0.025285687,-0.017695842,-0.022566738,-0.031224607,0.010534213,-0.007940831,-0.01453246,0.03627832,0.03282935,0.023394011,0.033900898,0.02130859,0.004512132,0.041962147,0.03227138,-0.006321534,0.010370937,-0.0138059035,-0.027280075,-0.022934347,-0.04255579,-0.0210199,0.036249094,0.006237701,-0.0030872033,0.02491613,0.005159933,-0.004551323,0.03439037,0.026752446,-0.021628736,0.0036920412,-0.022166936,-0.020818098,-0.0005224661,0.0054634814,-0.018140739,-0.043228306,-0.0011444262,-0.017861728,-0.025865838,-0.054552127,-0.012247861,0.0004503209,-0.017383391,-0.04216794,-0.021287382,-0.032477707,-0.026992822,-0.05217263,-0.07030075,-0.008579489,-0.017072981,0.009429018,0.009645497,0.0030173669,0.013652026,0.04114652,0.007857722,-0.032607753,0.03544988,-0.0072947773,-0.023377689,0.03309867,-0.013366785,0.014657952,-0.026202952,-0.006345314,-0.0056486023,-0.014454328,-0.007342956,-0.0008867621,0.022270968,0.01083301,0.00039613285,0.043464184,-0.00079401606,-0.006270361,0.025278378,0.013859517,-0.0107148,-0.0009099901,-0.010453457,-0.036728866,0.009667633,0.0062407246,0.009924655,0.026854895,0.016211985,0.0014359946,0.053247456,0.045130815,0.011145803,-0.0014452476,-0.058444206,-0.03553192,-0.0030018548,-0.035260864,-0.020147087,0.03226403,-0.0008649348,-0.03150893,-0.013674486,-0.02436969,-0.047524147,0.040947735,0.06146098,-0.025061348,0.018181872,0.069113806,0.059051223,-0.005022305,-0.025825808,0.008690662,0.010239448,-0.043488856,-0.02722375,0.010077793,-0.026816497,-0.044564787,-0.0061280285,-0.006762566,-0.046878126,0.013932939,0.0170676,0.008561039,0.023551054,0.018743522,0.020496516,0.043619413,-0.017180823,0.022524567,0.039425023,-0.032453924,-0.009051211,0.012968768,-0.06942115,0.01294989,-0.032459237,-0.002298527,0.05810374,0.04039016,-0.0019071345,0.003940308,0.055597294,-0.016978519,-0.07575456,-0.02195938,0.0017278406,0.015781771,-0.035373896,-0.007890808,0.038471926,-0.0428112,-0.026121072,0.030570494,-0.013382971,-0.009187046,-0.017526275,-0.014427718,-0.07573703,-0.04117624,-0.019021353,-0.007909152,0.0028351182,-0.028079437,0.049667865,-0.044480227,0.024105746,0.0045210104,0.05210434,0.06430503,-0.012670299,-0.003374138,-0.052337915,-0.029884862,0.02632175,-0.033624616,-0.013297232,0.044485185,-0.015898863,-0.002118952,0.051172484,-0.044025652,0.028186843,-0.010523163,-0.002364063,0.08474902,0.056793794,-0.10922031,-0.037062746,0.066265285,0.00013956211,-0.056079045,0.011959945,0.025505632,0.0150937475,-0.06342888,0.003918298,0.11255606,0.026008781,0.06432208,-0.03754754,-0.047574792,0.033406008,0.021152826,-0.07334576,0.00087801885,0.06640949,-0.033285677,0.022680277,0.025919134,-0.012908369,0.00251168,0.016559163,0.015976952,-0.045015737,-0.04479982,-0.047529917,0.015690846,-0.017339205,-0.040130317,-0.057454046,-0.014445198,0.0021300311,-0.017513458,0.009761247,0.013259317,-0.060669985,-0.04160529,-0.03481215,-0.048789203,-0.042603772,-0.03928224,0.037513275,-0.015030376,-0.03080924,-0.0048859036,0.02645725,0.015471421,0.006655543,0.015512559,0.037380967,0.028023234,0.0395036,0.02104487,-0.025425225,0.024192676,-0.038846962,0.0025608744,0.014677734,0.006834438,-0.022500958,-0.015718713,-0.04903318,-0.007118439,0.06396384,-0.00024999442,-0.06857368,-0.020007597,0.010802583,-0.072959594,-0.06359339,-0.021044316,0.029548535,0.066437975,0.0076730326,-0.00260074,0.023338266,0.04403651,0.015789004,-0.035554074,-0.0024175907,0.0066984394,-0.0230217,-0.022638507,0.065555416,-0.033407982,-0.02602322,0.049575634,0.016382454,0.03186313,-0.004610731,0.015616167,-0.05775815,-0.020348193,-0.023156807,-0.029616652,0.018868307,-0.013651535,-0.026510417,0.024130564,-0.0018615057,0.0060575246,0.05312091,0.014078729,0.020016856,0.025856249,0.0014525332,-0.008331749,0.022026246,-0.035640977,0.020252818,0.018933784,-0.04042537,-0.020439586,0.07150732,0.008984344,-0.060187865,-0.01726178,-0.015514608,0.0028951683,-0.05110198,0.048088714,0.06464017,-0.03973382,-0.040572282,0.006995428,-0.012254949,-0.017538426,0.01214957,-0.0297885,0.012632801,0.0010225279,0.020791963,0.059602685,0.024354002,0.0017283018,-0.035318647,0.00345957,0.004271296,0.0030479468,-0.053649057,0.05357128,0.12358195,0.004262882,-0.00013663796,0.02353691,0.024587538,-0.032320876,0.033126093,0.054373577,-0.030676506,-0.010059562,0.005454819,-0.016402844,0.034864873,-0.056426678,0.015611879,0.052819904,-0.004462814,-0.031693906,0.03379463,0.07701217,0.02980916,0.016072992,-0.0037212376,0.014280818,-0.030031841,-0.013794848,-0.017207483,0.0033574835,0.016094217,0.00011309903,0.026486062,-0.018287148,-0.06983626,-0.013832005,0.037248753,-0.0017327303,-0.031771112,0.00654093,-0.05061122,-0.022421384,0.0013929579,-0.00048807604,-0.024987131,-0.022194086,-0.0063919746,0.03434415,-0.01143517,-0.014678971,0.03735675,-0.053215556,-0.03626524,0.04396941,0.018535985,-0.06038696,-0.013386704,0.08390016,0.0,0.0,0.0,0.0,-0.0,-0.0,0.0,-0.0,-0.0,-0.0,0.0,0.0,-0.0,-0.0,0.0,-0.0,-0.0,-0.0,0.0,-0.0,0.0,0.0,0.0,-0.0,-0.0,-0.0,-0.0,-0.0,-0.0,-0.0,-0.0,0.0,-0.0,-0.0,0.0,0.0,-0.0,-0.0,-0.0,-0.0,-0.0,-0.0,-0.0,-0.0,-0.0,0.0,0.0,-0.0,0.0,0.0,0.0,-0.0,0.0,-0.0,-0.0,-0.0,0.0,-0.0,-0.0,0.0,-0.0,-0.0,0.0,-0.0,-0.0,-0.0,-0.0,-0.0,-0.0,0.0,0.0,0.0,-0.0,-0.0,0.0,-0.0,0.0,0.0,-0.0,0.0,-0.0,0.0,0.0,0.0,0.0,0.0,0.0,0.0,0.0,0.0,-0.0,0.0,0.0,-0.0,-0.0,-0.0,-0.0,-0.0,-0.0,0.0,0.0,-0.0,-0.0,-0.0,-0.0,0.0,-0.0,0.0,-0.0,-0.0,0.0,-0.0,0.0,-0.0,-0.0,0.0,0.0,0.0,0.0,-0.0,0.0,0.0,-0.0,0.0,0.0,0.0,-0.0,0.0,0.0,0.0,0.0,0.0,-0.0,-0.0,0.0,0.0,0.0,0.0,0.0,-0.0,0.0,0.0,0.0,-0.0,-0.0,-0.0,-0.0,-0.0,0.0,0.0,-0.0,-0.0,-0.0,0.0,-0.0,-0.0,-0.0,-0.0,-0.0,-0.0,-0.0,-0.0,-0.0,-0.0,0.0,0.0,0.0,-0.0,-0.0,-0.0,0.0,-0.0,0.0,0.0,-0.0,-0.0,-0.0,-0.0,-0.0,-0.0,-0.0,-0.0,0.0,0.0,0.0,0.0,0.0,0.0,-0.0,0.0,-0.0,0.0,-0.0,-0.0,0.0,-0.0,-0.0,-0.0,-0.0,-0.0,-0.0,-0.0,-0.0,-0.0,-0.0,0.0,0.0,0.0,0.0,-0.0,-0.0,-0.0,-0.0,-0.0,-0.0,-0.0,-0.0,0.0,0.0,-0.0,0.0,0.0,-0.0,0.0,-0.0,0.0,0.0,0.0,-0.0,-0.0,0.0,0.0,-0.0,-0.0,-0.0,-0.0,-0.0,-0.0,0.0,0.0,0.0,0.0,0.0,-0.0,-0.0,0.0,0.0,0.0,0.0,-0.0,-0.0,-0.0,-0.0,-0.0,0.0,0.0,0.0,0.0,-0.0,0.0,0.0,0.0,-0.0,0.0,0.0,-0.0,-0.0,0.0,-0.0,-0.0,-0.0,-0.0,-0.0,0.0,-0.0,-0.0,0.0,0.0,0.0,-0.0,0.0,-0.0,-0.0,-0.0,-0.0,-0.0,-0.0,0.0,0.01653553,0.0012986708,-0.015011719,-0.018045168,-0.010705673,0.020919878,-0.0032237621,-0.006438103,-0.0009277858,0.019522164,0.0126392795,0.015190957,-0.01846229,0.010740806,0.025297599,0.02811231,-0.029625759,0.014890318,-0.012529972,-0.010848575,0.018987117,0.0069451635,0.01130763,0.037116475,0.0068392074,-0.0047865016,0.015053492,0.027260866,-0.043424297,0.01180245,0.0029798322,-0.007659171,0.038070183,0.010877926,-0.009890372,-0.03730246,-0.019898785,-0.049807135,0.02867536,0.017059006,-0.062295765,0.04840103,0.013813013,0.011140691,0.031994008,0.054538447,0.0055824853,-0.019127112,0.008231028,-0.02143479,-0.051158443,0.0075622965,-0.019307517,-0.050067868,-0.020796627,-0.007890727,0.023075912,-0.0064480067,0.042756755,0.028143665,-0.024771791,0.010207827,-0.011645909,-0.031255454,0.0083953375,-0.0071109086,0.11276268,0.04901151,-0.09099802,0.05284812,0.02887718,-0.029627899,0.024538098,0.015783638,-0.025940552,0.043374933,-0.019276842,-0.041387826,0.023859933,0.0056499857,0.0004999824,-0.009385592,0.007884817,-0.029805455,0.005379471,0.046422698,0.0029363628,-0.06161169,0.017884972,0.04551706,0.029258143,0.02074284,-0.008970498,-0.001245656,0.018867271,-0.001692842,0.0041231993,0.01514234,-0.0109483395,-0.051805012,-0.026261833,0.040770188,-0.10999608,-0.023464674,0.1555801,-0.094280176,-0.033122238,0.07952368,0.015466735,-0.0070367223,-0.038446575,-0.021872817,0.03282993,0.0017710625,-0.018615521,-0.004688098,-0.013601584,-0.0048733307,0.03793281,-0.02037187,0.007439767,0.016812606,0.023936255,0.02333976,-0.03507941,0.00272848,-0.005889462,-0.016514542,0.026437815,-0.005705651,0.008677232,0.01777141,0.0071577225,0.012672753,-0.001029288,0.0015769324,-0.034059152,-0.032337237,-6.410236e-06,-0.0022905783,0.03166173,0.007874028,-0.03909399,0.030450257,0.051354825,0.010955744,-0.031000398,0.01218397,-0.0052057756,-0.021571957,-0.03960406,-0.034889754,-0.021969719,-0.03184221,-0.029293513,0.012154305,0.0075887423,0.055276047,-0.005436097,0.05791544,0.010433866,-0.05920609,0.03342281,0.0075142574,-0.02006035,0.11457661,-0.0071825814,-0.11228188,0.05077101,-0.03533779,-0.047796577,0.006537641,0.021166274,-0.013723414,0.052795585,-0.010010736,-0.11777844,0.02838857,-0.014935894,-0.01501362,-0.017070957,0.009985943,0.0100460965,0.03414521,0.017291868,-0.006800377,0.0020079447,-0.038197435,-0.04556143,0.058531605,-0.004600112,-0.029254016,0.021059718,-0.022431491,0.005489441,0.0073084515,-0.024217134,0.01660021,0.011689549,0.0067663644,0.018465532,0.01890103,-0.010981305,0.008822549,-0.047309138,-0.054078784,0.022214875,-0.0032116023,0.02817659,-0.03594715,0.0007088504,0.031766932,-0.04621908,0.030490996,0.027811985,-0.012360478,0.025395446,-0.041053496,0.0047229333,-0.031750876,0.010524437,0.055012114,0.006347162,0.020804802,0.009659758,-0.018916737,0.016483799,-0.060450297,-0.034956053,0.0049010143,-0.022829425,-0.0048522926,-0.007555801,0.023436883,0.0020223958,-0.019590786,0.0065273787,-0.03756101,-0.020343833,0.047128566,0.02186485,0.01805355,-0.024325063,0.003774906,-0.018557658,-0.015420727,0.030634718,0.005085427,-0.04346299,-0.0034165361,-0.013981905,-0.050342508,-0.017515715,-0.00040133946,0.002898906,0.00042642216,0.039251562,-0.00085822964,0.028215593,0.0047410782,0.008122888,-0.017198771,0.0046263523,-0.029540326,0.03508267,0.046343118,-0.07325694,0.0364323,0.036074854,-0.07139364,0.011428915,-0.012155007,-0.027702332,-0.012131334,-0.0047090235,0.016328573,-0.005384319,-0.008505028,0.0020933787,-0.0038992797,0.011000891,0.013912657,0.012274883,-0.0050987517,-0.009736544,-0.028797183,-0.040867656,0.007960235,0.014607622,-0.04816987,-0.057707656,-0.0072306693,0.07098947,0.022100369,0.022921847,0.06570885,-0.0030444837,-0.038696066,0.049815685,0.0029245021,0.014458505,-0.010774474,-0.035064608,-0.0056765527,-0.030677969,0.01570726,0.008203846,0.020394381,-0.052236743,-0.02123504,-0.006916992,-0.032006316,0.014137203,-0.025444124,-0.047682382,0.054976463,0.007065072,0.011279439,-0.027190452,-0.013191957,0.030677633,-0.04248628,-0.026917884,-0.07860533,-0.053987604,-0.019430619,0.033217195,-0.026895836,0.023282262,-0.049394652,0.10962566,-0.030922702,-0.08779704,-0.02900809,-0.078632414,-0.027235651,0.0021980442,-0.031272627,0.010066494,0.036809307,0.0123738805,0.04905352,0.00781671,-0.022685554,0.0052494677,-0.038170207,0.03383899,0.056316376,-0.06627457,-0.011980134,-0.06130398,0.021946518,0.063484766,0.08456669,0.017149214,-0.014958345,-0.034154866,-0.025923071,-0.0016985328,-0.045873128,-0.025213303,0.07822916,0.04136125,-0.00060745154,0.028418863,-0.028002359,-0.01900717,-0.028260019,-0.025167001,0.04036814,0.0089623155,-0.045094825,-0.06151731,-0.07725143,0.00025217785,-0.039127618,0.05496386,0.064509235,-0.12971978,0.10526772,0.120366275,-0.06708826,0.12208443,-0.019657042,0.0364989,-0.00045494182,-0.105553806,-0.06970947,-0.023621537,-0.14444935,0.011114144,0.08670006,-0.0155388005,-0.01873425,-0.032972198,-0.029186718,0.04076984,0.018487955,0.008903973,0.07185667,0.015709853,-0.024288245,0.030323511,-0.023896752,-0.019941434,0.12065234,-0.040209457,-0.016061613,0.0009988544,-0.05575306,-0.054637425,-0.018840794,0.0041922037,0.04372153,-0.006087101,0.09323265,-0.00022475152,-0.02417164,0.058956396,-0.0013161465,0.0031396302,-0.006509922,-0.004687439,0.020269293,-0.015761528,-0.008705865,-0.0039871833,0.0264206,0.07940672,-0.038373996,-0.025563134,0.0807853,-0.014479839,-0.05022366,-0.06568417,0.01659902,-0.0057758177,-0.004725691,0.06801841,0.014343145,-0.059984125,-0.005929438,0.045412894,-0.06449067,-0.039052993,0.17390527,0.1184508,-0.08380914,-0.016363984,-0.0216375,0.01800725,0.022973191,-0.115045644,0.12198589,0.0149601335,-0.06667454,-0.02192119,0.00073562504,-0.00012237612,0.062029842,0.0118702315,-0.03397753,-0.08740631,-0.07338762,-0.05783638,-0.03817899,0.038758527,0.12081589,-0.01855524,-0.10915339,-0.0258656,-0.016794346,0.045724086,0.057140127,0.013597048,0.0008311529,-0.07231484,0.027892632,0.017002722,-0.044368435,-0.057200335,-0.023812776,0.0028494734,-0.06659318,-0.0091254935,-0.019004814,-0.04056795,0.03967947,-0.017838823,0.03824725,-0.05232527,-0.060230095,0.026893603,-0.04224672,-0.0134183075,0.026679175,0.0027570203,0.094849385,-0.0032081483,-0.06107721,-0.08381508,0.04357694,0.03825437,-0.07245263,-0.08694635,0.03889024,-0.027666155,0.08979258,0.08027284,-0.059357516,-0.012088758,-0.022351583,-0.0215775,-0.035076287,0.004543323,0.04732681,-0.047581878,-0.032015037,-0.028121697,-0.0067416583,-0.030385587,0.0417227,-0.023959316,0.0048542987,-0.066027015,0.0983373,-0.02019691,-0.06273876,0.098970495,-0.041441843,-0.01344825,0.021099715,-0.025392793,-0.05818141,-0.052811287,-0.064325385,0.055653896,-0.041695815,-0.011329874,0.12962177,-0.075930916,-0.008437568,-0.010765098,0.08676964,0.0062948843,-0.094334215,0.0599215,-0.041499343,0.018383758,0.038049757,0.003638433,-0.023087105,0.01640321,-0.014089674,-0.05036671,-0.05665814,-0.02710465,-0.050571926,-0.06189074,-0.074356385,-0.0074182227,-0.04350108,0.0015516934,-0.001051475,0.03448432,0.01438137,0.0106663285,-0.003018381,-0.04528087,-0.036674373,-0.04703747,-0.07009443,0.045009416,0.032931045,0.051901694,0.10865326,-0.0036192057,0.0003714762,-0.0057322835,0.027148597,0.032691218,0.0492243,-0.00018197665,-0.031237105,-0.002703721,0.009351623,-0.012079562,-0.011596333,-0.050502,-0.025478397,-0.031229792,-0.028742086,0.0830862,-0.030793149,0.054808255,-0.0012216533,-0.068747714,0.024881823,0.0033897276,-0.019465607,-0.01322387,0.010161404,-0.02159767,-0.016103739,-0.003548882,0.01432571,0.016465874,-0.02098477,0.016965933,0.13520584,0.0054256455,0.1345595,0.07836919,0.03793222,0.031167133,0.0036118992,0.033331502,0.048724927,-0.06334333,-0.10196005,0.013632138,-0.0012145392,0.0027805495,0.0031348711,0.016651591,0.010413211,0.011399517,0.0063738725,0.0040789214,-0.0025617783,0.0002897773,-0.006944152,0.042718668,-0.056322295,-0.030509776,0.03878565,-0.038002852,-0.04718446,-0.0103215,-0.0045708856,0.029197466,-0.03195484,-0.08669135,-0.012655711,-0.063506216,0.019685676,0.041990355,0.0004117521,0.038617563,0.012249909,0.0010432332,-0.023115942,0.0059775896,-0.016869912,-0.0010744075,-0.0034825439,0.011505019,-0.036585983,-0.0109186,-0.043639157,-0.02420204,-0.008942746,0.014344429,-0.046508387,-0.044295784,0.011120823,-0.04026866,0.0022601534,0.018207429,-0.060658522,0.050015334,-0.011448484,-0.07906178,0.03300506,-0.037108194,-0.02045156,0.0074284724,-0.027482511,0.029205011,0.048297808,0.010048636,0.036182094,0.072061,0.04196846,-0.011998562,0.026660556,0.014211127,-0.015671128,0.019288588,-0.03165749,0.034665436,0.084640846,-0.007227436,-0.020649835,-0.04413787,-0.03887971,-0.011367385,-0.008286949,-0.015350733,-0.04638789,0.025797576,0.09330464,0.034087878,-0.015976958,0.08629988,0.043838467,-0.022281863,-0.0057268105,0.026534503,0.08091267,-0.02708351,0.040163238,0.032015808,0.020228889,0.040255226,0.003248048,0.028644728,-0.020690285,-0.0026846086,-0.0348617,-0.0238024,-0.016894715,0.0027722532,0.028775005,0.013804582,0.0016446789,0.026192937,0.034830138,-0.0025359855,-0.019697623,-0.052060973,-0.030869251,0.028565584,-0.005404353,-0.015665395,0.06362616,-0.006959338,-0.06540863,0.019440446,-0.04816869,-0.046025697,0.022852372,-0.034696452,0.007598802,0.008618023,0.0018847634,0.037201393,-0.04991694,-0.058287602,-0.017863762,-0.038933575,-0.008638846,0.029020917,-0.0013189747,0.001310998,0.06364842,-0.047271077,-0.017836558,0.03853345,-0.05684898,-0.024386402,0.044994842,-0.023967749,-0.031137208,-0.02000299,-0.0033716392,0.015476815,-0.04285495,0.021085046,0.0069383183,-0.025353162,0.05224504,0.0022792623,-0.020677555,-0.0014550115,0.03216489,0.015184426,0.028434712,0.085077405,0.05615293,-0.04031463,-0.039293703,-0.066170804,0.011301647,-0.047034577,0.02562691,-0.0059356275,-0.009495435,0.03984004,0.03645716,0.015037202,-0.0077102617,-0.0057914294,-0.033742696,0.009061298,0.06292561,0.00961266,0.045887925,0.09019895,0.006776242,-0.017211642,-0.02202141,0.052955832,0.03639463,-0.0218471,0.006681276,-0.022611547,-0.0055478984,0.14614762,0.03871054,-0.071458355,0.043625295,-0.075903274,-0.02444116,0.033912215,-0.081378445,0.0606887,0.07418213,-0.016200995,0.0045354776,-0.025805557,-0.005157446,-0.004284173,0.009054337,-0.00053427386,-0.014044653,0.05823187,-0.021640586,-0.026582433,0.041310664,-0.0060919095,-0.0075030853,0.037310127,0.01351369,-0.024932785,0.012996601,-0.0068880045,0.026751677,0.04304864,0.09474174,0.00044961527,-0.006387274,0.058716897,0.0120614,-0.05901072,-0.05054974,-0.0035706232,-0.022500774,0.043639824,-0.018809397,0.016811708,0.010312029,-0.008553314,0.027409462,0.00012402984,0.093404084,-0.017933624,-0.0743236,0.039316345,-0.036446944,-0.09564148,0.032343518,-0.018615134,-0.07099079,-0.0086449925,0.034276877,-0.026341096,-0.008880026,-0.031337045,0.0116066225,0.06361343,-0.009549468,0.03133928,-0.063885026,0.039943293,-0.061196953,0.06673196,0.2200598,-0.08625699,0.015711365,-0.06932083,-0.08165263,0.02322026,0.007610909,0.032392297,-0.03701721,-0.0502613,0.00061695033,0.0022265106,-0.03769067,-0.032918043,-0.004974078,-0.016989352,0.016485507,0.01016802,-0.015393697,-0.01239927,0.0023356848,0.004214829,-0.035581928,0.026920633,0.035970557,-0.017213834,0.047300432,-0.027548237,-0.039521895,-0.03179869,-0.0049384283,0.009813909,0.025644043,0.02422633,0.010720602,-0.006973201,0.0009035443,-0.004751381,-0.022048116,-0.02530124,-0.044693753,-0.028818633,-0.036212508,0.056144617,-0.008051034,-0.06193636,0.038328297,-0.009133042,0.038950156,0.03167127,0.065933645,0.015034645,-0.039581068,0.0091450745,-0.049256757,0.02971391,0.023657065,0.032089666,0.045210846,-0.0010461409,-0.041463245,-0.018035596,-0.0047525135,-0.08389805,0.0016719081,0.0019210327,-0.09774588,-0.03437903,0.046046995,0.01744357,-0.071436524,0.07057293,0.031488836,0.016705208,-0.053231936,-0.06571778,-0.055480704,-0.049155023,0.057876367,0.086606,-0.0989631,-0.0022160145,-0.020239433,-0.1213027,-0.06706701,-0.04815473,-0.08557806,0.009896825,-0.059076156,-0.042020038,0.030163845,-0.03835807,0.0064858156,0.0027602173,0.056533195,-0.01581859,0.060456973,-0.028059885,0.036079053,0.08341466,-0.050957274,-0.034936894,0.010678011,-0.03107087,0.11040185,-0.024431981,-0.02069259,0.122543834,-0.025205461,-0.09964824,0.015941776,-0.057325676,-0.07472742,0.0747936,0.04330228,0.0077413744,-0.0007489238,-0.06360011,-0.03244816,0.05781829,-0.0050682863,-0.06254308,-0.0052031293,0.16311556,-0.059168257,0.0061770556,0.13733493,0.009894533,-0.08560494,-0.105406135,-0.08612854,-0.020308493,-0.010411591,-0.06258368,-0.059122965,-0.04465497,0.0037750762,-0.088463545,-0.09006582,-0.033129945,-0.011869921,0.064106144,0.04562873,0.003232165,-0.05201515,0.050635494,0.040729396,0.03372353,-0.0144420685,-0.0182765,0.031190323,-0.066364504,-0.045172434,0.08499698,-0.009675823,-0.03133583,0.027452545,0.051828127,-0.025586689,0.009468953,0.091063075,-0.03606498,-0.065083556,-0.07985273,0.024242695,0.09823182,0.012439151,0.02532419,-0.038597237,-0.03346069,0.018563705,0.0030718036,-0.044969738,0.019586857,0.04207657,-0.06078506,-0.056777332,-0.03215965,-0.046844892,-0.048526254,-0.02788639,-0.025345704,0.04875906,0.018243296,0.00013476069,-0.009817782,0.046443257,0.029734362,-0.019431334,0.05431213,-0.045510363,0.0490637,0.0727713,0.02934915,0.014258001,0.00024497445,-0.002146099,0.04117609,-0.05845025,-0.022575632,9.628347e-05,0.047313854,0.008467658,0.015017279,-0.038646623,-0.046121918,-0.042769678,-0.05912793,-0.014729124,-0.04165802,0.0332541,0.03260286,0.010486359,0.085463405,0.0103418045,-0.031250857,-0.002501788,-0.018367259,0.015726633,-0.001954072,0.037745293,0.106313854,0.041536063,0.033661358,0.010054187,-0.01693899,0.07586327,-0.06722838,0.0017938816,0.03049236,0.0642073,0.053160418,0.016602753,0.054079633,-0.016243905,-0.06279592,0.014040543,0.00036547126,-0.0096642235,-0.051380325,-0.04890143,-0.0007911513,-0.048654903,0.026127031,0.02723578,0.020973945,0.011334759,-0.046944413,-0.08196927,-0.07965127,-0.078471586,0.017548075,-0.029961579,-0.02480495,0.033353806,-0.005155787,0.06144401,-0.060959883,0.040990636,-0.042950798,-0.044220082,0.14090516,0.070742406,-0.06116776,-0.0232749,0.0069512143,-0.09072894,0.013157302,0.063302726,0.0065917517,-0.03928259,0.01781685,-0.037862755,-0.03044342,0.058815952,-0.014571412,-0.024634888,0.015584845,-0.002993941,-0.019732488,0.002013408,0.033003516,-0.050559238,-0.026193134,-0.01557925,-0.0072218725,-0.03034637,0.010363401,0.01783946,0.012418527,0.06219627,0.054143902,0.038093973,-0.010250774,0.020292781,0.012262983,-0.015352072,0.0034732895,-0.018164141,0.022386326,0.009293916,-0.025734793,0.025324741,-0.008111731,-0.02651571,-0.023764282,-0.02620709,0.021906547,0.011387561,-0.014340061,0.0040692864,-0.06926174,-0.079738386,0.027457519,-0.06259095,0.06330223,0.02542623,0.09043595,0.10174928,0.008980721,-0.022587044,5.9861686e-05,0.02604687,-0.01968115,0.017797712,0.04646087,-0.02012664,0.021323014,0.02681987,0.084264055,-0.011137406,-0.033574194,0.006390874,-0.018879406,0.04428561,-0.03993554,0.01895254,0.011402582,-0.05360569,-0.056476098,0.02127644,-0.03584021,0.06257182,0.11224849,-0.03386048,0.036647134,0.009003014,0.05630812,0.031392444,0.018913662,0.046008717,0.02468202,0.015999645,0.010323779,-0.036794685,-0.032493882,-0.014515559,-0.012816649,0.03267149,-0.048406262,0.0538953,0.047201715,-0.024826154,0.049098816,0.012712299,0.0387335,-0.025296139,0.0027110039,-0.020901365,-0.04757537,0.009699264,-0.023583714,-0.0013392293,-0.02198358,-0.036798634,0.016566662,-0.03884274,0.052770913,-0.046399496,-0.05353341,0.04781151,-0.0072132275,-0.011154068,-0.0071516386,0.010075565,-0.011279124,0.024216808,-0.052177608,-0.07434488,-0.026022065,-0.020367844,-0.04382278,0.05755246,-0.012402802,-0.009635934,-0.029335225,-0.06714578,-0.091384105,-0.029721731,-0.031108173,0.002666323,0.053221393,-0.040492043,-0.03736474,-0.043914024,-0.052031018,-0.036925085,-0.031058304,-0.02694686,-0.0040900293,0.06613845,0.0489187,-0.0068178084,-0.0028046893,-0.03329774,-0.058941673,-0.0075013945,0.0073004668,-0.015002902,0.08882183,0.050866656,-0.0443599,0.03272918,-0.025901776,-0.04436679,-0.0015164333,-0.03578226,0.00016273929,-0.031938154,0.026663072,-0.03552392,0.07859215,0.061072577,-0.040549483,0.012286708,-0.064226024,-0.0432348,0.036621783,0.019616881,0.051591676,-0.017896745,0.02954338,-0.035704732,-0.0024960514,0.0270294,-0.054287914,-0.03572732,-0.04994997,-0.03950389,-0.045468748,-0.023125637,0.0011971558,0.014668554,0.036976486,0.009784769,0.005082058,0.016341576,-0.02533534,0.0037410213,0.04736424,-0.019999862,-0.004395924,0.018425833,-0.04939858,0.019079324,0.00997423,-0.012149946,-0.0024325834,-0.02574964,-0.016317021,0.01014514,-0.017607564,-0.018035648,-0.002232854,-0.057429977,-0.015249119,-0.061329693,-0.040038288,-0.0056277816,-0.0349553,0.026962733,0.06600496,0.033754233,-0.016011469,0.041607603,-0.035859708,7.0564856e-05,0.019465564,-0.008980275,0.06531166,0.05748728,-0.10286458,0.10831893,-0.015441181,0.0469949,0.015653139,-0.03602909,0.020997752,-0.040291723,-0.03324059,0.0012566623,-0.077126816,-0.0683287,0.013355452,0.01950535,0.013070338,0.027259618,0.017893618,-0.088894725,-0.020782152,0.008773286,0.02981318,0.06871367,0.035705827,0.00063881517,0.07068915,-0.036356755,-0.043518323,-0.046085935,0.0161154,0.013767392,-0.012752754,-0.019616146,-0.060458105,-0.01469197,-0.008495025,-0.011074902,0.020217333,0.022199944,-0.028823499,0.017948383,-0.024772258,-0.058518205,0.007841916,-0.004946231,0.0004914968,0.010548445,-0.0381993,-0.021383898,-0.022010943,0.0054219957,-0.017650357,0.0028969697,-0.03100312,-0.056954894,0.030265901,-0.0012544674,-0.02005585,0.017484931,-0.012203122,-0.055743124,-0.043162216,-0.0051644556,0.027430095,-0.031214722,0.020617563,0.120602146,0.014847418,0.013431541,0.009762448,0.04425167,-0.0018332448,-0.0029839582,-0.0,0.0,-0.0,0.0,-0.0,-0.0,-0.0,-0.0,-0.0,-0.0,0.0,-0.0,-0.0,0.0,-0.0,0.0,-0.0,-0.0,-0.0,0.0,0.0,-0.0,0.0,-0.0,-0.0,0.0,-0.0,0.0,-0.0,-0.0,-0.0,0.0,-0.0,-0.0,0.0,0.0,-0.0,-0.0,-0.0,-0.0,-0.0,-0.0,0.0,0.0,0.0,0.0,-0.0,0.0,-0.0,0.0,-0.0,-0.0,0.0,-0.0,-0.0,0.0,-0.0,-0.0,-0.0,0.0,0.0,0.0,0.0,-0.0,-0.0,0.0,0.0,-0.0,0.0,-0.0,-0.0,0.0,-0.0,0.0,-0.0,-0.0,0.0,0.0,0.0,0.0,0.0,0.0,-0.0,-0.0,-0.0,-0.0,-0.0,-0.0,0.0,0.0,-0.0,-0.0,-0.0,0.0,0.0,-0.0,-0.0,0.0,0.0,0.0,0.0,-0.0,0.0,-0.0,-0.0,0.0,-0.0,0.0,0.0,0.0,-0.0,0.0,-0.0,0.0,-0.0,-0.0,0.0,0.0,0.0,0.0,0.0,0.0,-0.0,0.0,0.0,0.0,-0.0,-0.0,0.0,0.0,-0.0,-0.0,-0.0,0.0,-0.0,0.0,0.0,0.0,0.0,0.0,-0.0,-0.0,-0.0,-0.0,-0.0,-0.0,-0.0,-0.0,0.0,0.0,0.0,-0.0,-0.0,-0.0,0.0,0.0,-0.0,0.0,0.0,-0.0,0.0,0.0,-0.0,0.0,0.0,0.0,0.0,0.0,0.0,0.0,0.0,0.0,-0.0,0.0,0.0,0.0,0.0,-0.0,-0.0,0.0,0.0,-0.0,0.0,0.0,0.0,-0.0,0.0,0.0,-0.0,0.0,-0.0,0.0,0.0,0.0,0.0,0.0,0.0,-0.0,0.0,-0.0,-0.0,-0.0,-0.0,-0.0,0.0,-0.0,-0.0,-0.0,-0.0,0.0,-0.0,0.0,0.0,-0.0,-0.0,0.0,-0.0,-0.0,-0.0,-0.0,0.0,-0.0,-0.0,0.0,0.0,-0.0,0.0,-0.0,-0.0,0.0,0.0,0.0,-0.0,-0.0,-0.0,-0.0,0.0,0.0,0.0,-0.0,0.0,0.0,0.0,-0.0,0.0,-0.0,0.0,0.0,0.0,-0.0,0.0,-0.0,-0.0,0.0,-0.0,0.0,0.0,0.0,-0.0,-0.0,-0.0,-0.0,-0.0,0.0,0.0,0.0,0.0,-0.0,-0.0,0.0,-0.0,-0.0,-0.0,-0.0,0.0,-0.0,0.0,0.0,-0.0,-0.0,-0.0,0.0,0.0,0.0,-0.0,-0.0,-0.0,0.0,0.038888723,0.0034328434,-0.08027696,0.05882594,0.006816391,-0.0308576,0.016907707,0.01490623,-0.000180298,0.030410523,0.017715804,-0.010032052,-0.050295196,0.010215758,0.042661276,-0.037841354,0.0025118315,0.012283548,0.0076955725,-0.07318854,-0.022368647,0.0009512158,0.028413882,0.049822308,-0.02377498,-0.03140219,0.054251857,0.021747282,0.005796389,-0.10039607,-0.010310254,0.0226928,-0.02774758,-0.078503296,-0.015954992,0.044254325,0.047798775,-0.04298036,-0.017326968,-0.028458621,-0.05003402,0.050988354,-0.018288767,-0.014039025,0.0701932,0.0038396427,-0.007047325,0.007798574,0.012160644,-0.028675137,0.0014153302,0.014049966,-0.017056327,0.018122226,0.063071385,-0.0044519636,-0.05818386,0.059552506,0.005674361,-0.09187513,0.016876273,0.012754072,-0.030174727,0.030066106,0.027892144,0.03622083,0.048965782,-0.06329991,-0.029626928,0.06690179,-0.021779705,0.03494861,0.039236523,0.02037244,-0.006883617,-0.0010811263,-0.035712395,-0.0046510035,-0.016040362,0.0052828523,-0.010190597,0.030329892,0.026185183,-0.041924786,-0.031576417,0.047841813,-0.04070549,-0.066897094,-0.027793761,0.042816,0.032826383,-0.024592688,0.015772963,0.0515402,-0.058307894,0.06872489,0.07372348,-0.0036065315,-0.036625303,-0.050718267,0.038074147,-0.050710857,-0.027763989,0.092799075,-0.0044889096,-0.038999673,0.019664802,-0.04418941,-0.038637135,0.02453426,0.011075935,0.0014799654,0.024440818,0.0073200916,-0.010597145,0.04537364,-0.01818272,-0.050512977,-0.019055992,-0.06032684,-0.017744083,-0.035687003,-0.0020264315,-0.0027799115,0.06042658,0.01449762,-0.03750536,0.023074191,-0.02498723,-0.02744848,0.070075005,0.11149385,-0.113487184,-0.06478856,0.0074049663,-0.053776655,-0.05046456,-0.066024244,0.001694577,-0.03596621,-0.043929424,0.020685662,-0.037589047,0.07775071,-0.04054624,0.039561305,0.07500265,0.0526988,0.026529593,-0.1144064,0.07480732,0.046811093,-0.11902737,-0.0500131,0.07531042,-0.014889665,-0.1066171,0.0114258155,0.052647814,-0.00081638707,-0.031274453,-0.013883311,0.00036487408,0.007871435,-0.023348244,0.06417329,-0.041542925,-0.10102653,0.035127643,-0.044790003,-0.09088478,0.056678828,-0.09565831,0.08610394,0.04120349,-0.09324214,0.048691932,-0.021740671,0.002394924,0.034872025,0.0835413,0.04456456,-0.009254615,0.060821813,0.024418995,-0.04365408,0.045948222,0.053560268,-0.060599893,0.030968541,0.021814518,-0.037283488,0.007127904,-0.056524485,-0.026441855,0.013970809,-0.04439164,-0.009196849,-0.0027748588,-0.021076716,-0.011293955,0.032241363,-0.018211853,0.015248507,0.0069601857,-0.048090298,0.040799767,0.023274431,0.022305997,0.01682487,-0.012643331,0.016636,0.028244123,0.030454652,0.036315445,-0.010172588,-0.009602674,0.091600694,0.016175965,-0.020981858,0.063896164,0.046533525,-0.06318941,-0.052508537,-0.05157016,-0.007833512,-0.06553036,0.043162446,-0.0072025624,-0.022692183,0.14518625,-0.014035561,-0.049951863,-0.035137646,-0.07802676,-0.013809848,0.007907565,-0.044276696,0.039977647,8.6035994e-05,-0.01423816,0.024922768,-0.026909241,0.011554612,-0.011094929,0.037771128,0.027608218,0.009204606,0.0045935116,-0.012863048,-0.04678046,-0.009017348,-0.0010228679,-0.028844995,0.025402732,-0.019906444,-0.049355492,0.053959012,0.020014415,0.0071674455,0.00541571,0.01633676,-0.054284446,-0.038691606,0.008729044,-0.016190453,-0.011330432,-0.0075920834,-0.033935647,-0.025411261,0.04444779,0.0459645,-0.025287734,-0.032406796,0.07822733,-0.005260834,-0.012757707,0.044150524,-0.008734829,-0.05733043,-0.069377944,-0.0053967666,-0.026816517,0.027007278,0.043788586,-0.08075939,-0.00994284,0.03460701,-0.0,-0.0,0.0,-0.0,-0.0,-0.0,-0.0,-0.0,-0.0,-0.0,0.0,0.0,0.0,-0.0,0.0,-0.0,-0.0,0.0,-0.0,0.0,0.0,0.0,-0.0,0.0,-0.0,-0.0,-0.0,0.0,-0.0,0.0,0.0,-0.0,0.0,-0.0,0.0,0.0,0.0,0.0,0.0,-0.0,-0.0,0.0,-0.0,-0.0,0.0,-0.0,-0.0,0.0,-0.0,0.0,-0.0,0.0,0.0,-0.0,-0.0,-0.0,-0.0,-0.0,0.0,0.0,-0.0,0.0,-0.0,-0.0,-0.0,-0.0,-0.0,-0.0,-0.0,-0.0,-0.0,-0.0,0.0,0.0,-0.0,0.0,-0.0,0.0,-0.0,-0.0,-0.0,-0.0,0.0,0.0,0.0,0.0,0.0,-0.0,0.0,-0.0,-0.0,-0.0,-0.0,0.0,-0.0,0.0,0.0,0.0,0.0,-0.0,-0.0,0.0,-0.0,0.0,-0.0,0.0,-0.0,-0.0,0.0,0.0,-0.0,-0.0,-0.0,-0.0,0.0,0.0,0.0,0.0,0.0,0.0,-0.0,0.0,0.0,-0.0,-0.0,0.0,-0.0,-0.0,-0.0,-0.0,-0.0,-0.0,-0.0,-0.0,0.0,0.0,0.0,-0.0,-0.0,-0.0,-0.0,0.0,-0.0,-0.0,-0.0,-0.0,-0.0,-0.0,-0.0,-0.0,0.0,-0.0,0.0,0.0,-0.0,-0.0,0.0,0.0,-0.0,-0.0,-0.0,-0.0,-0.0,-0.0,-0.0,-0.0,-0.0,0.0,-0.0,-0.0,0.0,-0.0,0.0,0.0,-0.0,-0.0,0.0,-0.0,-0.0,-0.0,0.0,-0.0,0.0,0.0,-0.0,0.0,-0.0,0.0,-0.0,-0.0,0.0,-0.0,0.0,-0.0,0.0,0.0,0.0,-0.0,-0.0,-0.0,-0.0,0.0,0.0,-0.0,-0.0,0.0,-0.0,0.0,0.0,0.0,0.0,0.0,-0.0,0.0,-0.0,-0.0,0.0,0.0,-0.0,0.0,0.0,0.0,0.0,0.0,-0.0,-0.0,-0.0,0.0,-0.0,0.0,-0.0,0.0,-0.0,-0.0,0.0,-0.0,-0.0,0.0,0.0,-0.0,-0.0,-0.0,0.0,0.0,0.0,-0.0,0.0,0.0,-0.0,0.0,0.0,-0.0,-0.0,-0.0,0.0,-0.0,-0.0,-0.0,-0.0,-0.0,-0.0,0.0,0.0,-0.0,-0.0,0.0,0.0,0.0,-0.0,-0.0,-0.0,-0.0,-0.0,0.0,0.0,0.0,0.0,-0.0,0.0,-0.0,-0.0,0.0,0.0,-0.0,0.0,0.0,-0.0,-0.0,0.003872781,-0.00539747,-0.027232358,0.018386036,0.03764657,0.030774316,-0.03367208,-0.008686334,0.04353543,0.016145108,0.004905877,-0.018630521,0.004788245,-0.011109712,0.012049611,-0.024769051,0.02072798,0.019560479,-0.002154144,-0.02642922,-0.0045342883,-0.011366427,-0.004712014,0.038894095,-0.005483141,-0.00022139355,0.061585516,-0.0057676453,0.02775906,0.03419638,-0.026232867,0.021198923,0.014968885,-0.0139584085,0.01002996,-0.002463728,0.018325618,0.025021508,-0.008730645,0.049500365,0.017295606,-0.030504545,0.02734777,-0.05397339,-0.021780739,0.013297421,-0.00444696,0.004318755,-0.0025902707,-0.019968785,-0.015961215,-0.0005650041,-0.023778137,-0.019658398,-0.0071304874,-0.001312728,0.0057478943,0.0034017223,0.019904682,-0.011894146,-0.04603252,0.012586002,-0.011877293,-0.010609,-0.01457601,-0.005289309,-0.005895786,-0.039218176,-0.02932312,-0.013353079,-0.017448593,-0.041245304,-0.029921679,-0.014244039,0.012524383,-0.021015408,-0.010517108,0.013764303,-0.0046777343,0.011953204,0.015830072,-0.01075639,0.024390575,0.029704988,0.04174294,0.036764324,0.017958501,-0.0043314854,-0.020721553,-0.009377568,-0.002233897,-0.0006950593,-0.049440958,-0.015223306,-0.03603763,-0.05968664,0.014506283,0.0016297747,-0.018299988,0.031172784,-0.027736291,-0.033903446,-0.009627845,-0.0033789591,-0.011154549,-0.052345324,0.0013907126,-0.03626441,0.022474954,-0.029823938,0.024039982,-0.012912694,-0.07552596,-0.012335884,-0.005217516,-0.014246354,0.0016648296,-0.003792353,-0.007487963,-0.031018207,0.0042470344,0.0012162976,-0.027536694,0.00059582805,-0.006348164,-0.027035592,-0.004279865,0.007074,-0.009064017,-0.0059587313,-0.013132026,-0.007525425,-0.006159335,-0.007931653,0.018458277,0.0026366634,0.014277164,-0.03952516,0.009014758,0.05598849,0.038237236,-0.0169518,0.031750463,0.0028263847,-0.054852866,-0.0082566915,0.007676443,-0.023856452,0.018005483,-0.013339101,-0.004691932,0.0095476275,-0.011081353,0.033663407,0.023909554,0.054495763,0.0101310555,0.00950789,0.05964479,-0.029936966,-0.030441046,0.022913715,-0.06878331,-0.049810205,-0.04908975,-0.0057706535,-0.01399889,0.0019907753,0.043813486,0.024331989,0.032516718,0.03030066,0.00924656,-0.012817809,0.022042383,-0.008309433,-0.046859927,0.03954302,0.016633347,-0.030861152,0.031850107,0.05060175,-0.0251738,0.063461624,0.03939473,-0.0059288754,0.047298703,0.015821477,0.003394807,-0.00189503,0.014817052,0.064503394,0.010188029,0.03583544,0.06693202,-0.00038337248,0.034239706,0.021853771,-0.007391265,-0.013198983,-0.0328041,-0.010150987,0.0031636837,-0.015930558,0.009759981,0.028918725,0.02999474,-0.013202858,-0.022383833,-0.005797715,-0.029895898,-0.020113265,-0.019401617,-0.04301884,-0.01741669,0.007924245,-0.028440569,-0.027247649,0.006452257,-0.04595593,-0.008092191,0.028192358,-0.021968957,0.029939568,0.0040421495,-0.03643139,0.026882611,0.01060499,0.0060618655,0.0020058479,-0.013789788,0.033931877,0.012612064,0.018484075,-0.034844834,0.022660743,-0.009677256,-0.047594912,-0.0034476006,0.0132373,-0.072164245,-0.011844468,0.024382597,0.010692103,0.028465314,0.048758153,-0.03383734,-0.02240996,0.021071328,-0.015504484,0.017690131,0.015734857,0.03279094,0.023391902,0.013334095,-0.0008480332,-0.0036004612,0.006720525,-0.011404288,0.009899872,0.032625392,-0.019716041,-0.01087124,-0.01714313,-0.013357273,-0.0073813377,0.0049862326,0.021230219,0.026154915,0.011962584,-0.032859396,-0.022548579,-0.025542507,-0.011027207,0.035086095,0.000974569,-0.036456008,0.010334586,0.0070959046,-0.056397434,-0.028128508,-0.018315054,-0.015822057,-0.0012087179,0.029599486,-0.015376533,-0.0060515883,0.04704901,-0.038365677,0.027194105,-0.0033235955,-0.005676989,0.07080081,0.0018295083,-0.0072751488,-0.014956539,-0.0046729436,0.023767903,0.0010296523,-0.0074353484,-0.050615992,-0.090479374,-0.024393762,-0.02880716,-0.009595944,-0.0155221075,-0.0055903406,0.0118742455,-0.012932534,0.0013194965,0.07519853,0.0340595,0.022906613,0.029340593,0.028255923,7.263417e-06,-0.033390004,0.020873023,-0.008607826,-0.004552444,0.049228635,-0.033966374,0.009734834,0.009640401,0.061801877,0.0026059812,-0.017997757,-0.017348137,0.034767285,-0.05055398,-0.1090767,-0.041737027,0.060094003,0.04752799,0.023757853,-0.005028785,0.04997648,0.0207433,-0.007378368,0.00483451,0.015715728,0.013329979,0.0296775,6.821891e-05,0.010809327,0.008538033,-0.052464608,-0.10482518,0.05089464,0.037412327,-0.093868755,0.022084553,0.100797705,-0.012632632,0.0851235,0.058910593,-0.008757196,0.068104565,-0.028497076,-0.044463716,0.08601943,0.07058709,0.07445327,0.021761987,0.0124037955,-0.0054316493,-0.004964109,0.007286156,0.0439824,-0.03987846,-0.030126693,0.010804903,0.09766963,-0.012294388,-0.05506196,0.07078397,-0.012836889,-0.13664564,-0.05451323,0.0052403472,-0.019311655,-0.10338593,0.06918266,0.12440515,-0.0927684,-0.013997694,0.0071915477,-0.10217497,-0.020119544,0.057592213,-0.0735847,-0.010512605,0.069366544,-0.02997894,0.06808061,-0.010162774,-0.041455377,0.002456488,0.01128543,0.028094329,0.019301878,0.005145177,0.03767681,-0.018657796,-0.055389237,-0.02450619,-0.021218482,-0.017018514,0.039148092,-0.0059742844,0.023844054,0.03868665,0.057564393,0.018558156,-0.035589617,0.06361942,0.0026486095,0.006403035,0.03073029,-0.045146976,-0.01974187,0.053600967,-0.07167009,0.0075128544,-0.0113322865,-0.013346987,0.037787974,0.013964306,0.034467917,9.3308285e-05,0.024181575,0.0051109698,0.0071458537,0.023943847,0.05380094,0.08474195,-0.03509749,-0.06956534,-0.0028203935,-0.07979695,-0.05749481,0.013409388,0.049866155,-0.03559327,0.06773887,0.026112195,-0.019192962,-0.021077355,0.016087422,-0.030953757,-0.046146795,-0.027364807,-0.04010347,-0.036202878,-0.073652945,-0.0016826174,-0.043356027,-0.04001899,0.013499626,-0.047705673,-0.011050329,-0.04749227,-0.045160707,0.029880047,-0.010038716,0.037167612,0.03295101,-0.009494687,-0.020020152,-0.06089502,-0.02006781,-0.01344702,-0.028260991,-0.061075408,-0.02465747,0.021719346,-0.029393753,0.043183316,0.0047664763,0.013662209,-0.02905301,-0.053991772,-0.00038675684,0.0018905142,-0.029147862,0.008803992,-0.015203139,0.007656035,-0.034729153,-0.07270921,-0.009198886,0.075913094,-0.00835334,-0.06697291,0.13440832,-0.035127856,-0.025871307,0.072374605,0.03730159,-0.07621079,0.0477167,0.048095506,-0.05078778,0.023414908,-0.013480872,0.006132475,-0.03613394,-0.054107446,0.0031307472,0.039719235,-0.007495964,0.07875655,0.09956251,0.0045327237,-0.0058669387,0.032780226,0.0098855365,0.011191375,-0.016723441,0.05054036,-0.0114998575,0.0054420833,-0.046921927,0.046371944,0.020559981,-0.046060767,0.021314355,-0.043922514,-0.07891138,-0.06463206,-0.017737765,-0.0033354552,-0.07548696,-0.090387434,0.021458488,0.038091183,0.05299021,0.0660387,0.05257526,0.011770088,0.018407326,-0.009300644,-0.026611077,-0.065014035,-0.019671133,0.05549206,-0.07065616,-0.055990182,0.1427048,-0.033636622,0.021083673,0.022859972,0.0043194573,-0.020703353,0.029922958,-0.0010129592,-0.060887128,0.0055637327,-0.035517275,-0.03597657,-0.0047799996,0.012722011,0.009727495,-0.034369666,0.0070648636,-0.015222385,-0.025023362,0.03377171,-0.05973507,-0.012652955,-0.041064844,-0.0073693413,-0.01068062,-0.049716674,0.04473055,0.0040626074,-0.004705881,-0.027024087,-0.008641304,0.009441658,-0.025654247,-0.015202514,0.002890774,-0.055071138,-0.052324116,0.041798744,0.03488934,-0.000343617,-0.0002594912,5.739356e-05,-0.008924112,-0.021330733,-0.014005839,-0.014001081,-0.01468037,0.004624466,0.0030085803,-0.026661478,-0.01088726,-0.009190101,0.004435196,-0.01719097,-0.005095726,0.0059475615,-0.010365925,-0.02034371,-0.02099534,-0.027209768,-0.031460218,0.0022914866,0.035655882,0.018301044,-0.043039683,-0.047243517,-0.059501823,-0.020562163,-0.014750028,-0.010493408,-0.007101756,0.011112675,0.013670564,-0.027478818,0.058987435,-0.022202041,0.03418977,0.13492298,0.05915846,-0.027623162,0.06666185,-0.02227086,-0.029550154,-0.012674158,-0.0250592,-0.01756084,-0.00015474194,-0.0060446598,0.006175879,0.010723093,0.009702356,-0.0052791433,-0.033452235,-0.011938259,-0.013306702,-0.028867744,-0.026449677,0.00075452856,-0.039979756,-0.04868802,0.0004986338,-0.0076320632,-0.0016248092,-0.02587621,-0.027586676,-0.017064212,0.009753604,0.008906298,0.021416362,-0.021815425,0.028135937,0.023705041,-0.043567415,0.0076388875,-0.008008771,-0.047725733,0.011309312,0.024843737,0.01317603,-0.013089898,0.0075561954,0.008413388,-0.02169803,-0.023145279,0.009027304,-0.009517198,-0.01136109,-0.032324445,-0.030124623,0.0055234055,-0.0678878,-0.07050924,-0.02822797,-0.005138005,-0.03235124,0.0193391,-0.033832286,-0.023669254,-0.013886544,-0.023993272,-0.022946473,0.005683318,0.00048751675,-0.02038361,0.0059964494,0.020513933,-0.007674517,0.008711885,0.011382769,-0.02565372,-0.029625637,0.0014340186,-0.006222394,-0.03602084,-0.023406614,-0.03949907,-0.0017371466,-0.019588664,-0.022738721,-0.010816928,-0.0047965995,-0.003957446,0.01925009,-0.006854763,0.0017247346,0.017397411,-0.0078657735,-0.017285196,-0.006003131,7.206306e-06,-0.019038292,-0.0047815917,-0.004016883,0.015595745,-0.0125884935,-0.029571835,0.00896664,-0.0051726266,-0.009013285,0.027009388,-0.0020655617,0.030787822,-0.0011808466,-0.007309077,-0.047580387,-0.047467485,-0.023145648,-0.010251026,0.0039249584,0.011773708,-0.01363546,-0.02933634,-0.00022499521,-0.018083267,-0.019943941,0.009758963,-0.013204502,-0.015529639,0.0038689715,-0.019565377,-0.020963818,0.0030515317,-0.027654717,-0.036217697,-0.019560413,-0.036937293,-0.06229086,-0.051409185,0.008698885,0.019775279,-0.017434482,0.017741866,0.024660408,-0.018147511,0.041099414,0.02831879,-0.01926637,-0.010823537,0.019318324,0.0090712495,0.010685884,0.04439094,0.037893284,-0.0122528495,0.02707583,0.009194552,0.020376354,0.025553368,-0.008413285,-0.006244057,-0.013028803,-0.02641329,-0.018938685,-0.005836386,-0.01126284,0.008149111,-0.011083595,0.0010177648,0.035629675,0.012342648,0.0057413285,0.034770537,-0.025913015,-0.03135387,-0.013786567,-0.014431093,-0.012302596,-0.028424203,-0.025872078,0.006335625,-0.01089974,-0.02003766,0.032099333,0.0027152635,-0.024846911,-0.0075363345,0.014243352,-0.01221973,0.012309841,0.03591042,0.0045709563,-0.019636726,-0.020089136,-0.0045580114,0.019129222,-0.024288394,-0.012043619,0.014165573,-0.019634286,-0.004429171,0.005283286,-0.033156745,-0.0063703777,0.0148474965,-0.055484008,-0.028596083,-0.0021195884,-0.023848308,-0.012252807,0.013051829,-0.03649868,-0.023572378,-0.04448827,-0.0035107564,0.032992076,0.022074195,-0.0035974246,0.014311535,-0.0024865635,-0.014797341,0.008235779,0.01785633,0.0170163,0.027712625,0.05045048,-0.0065537384,-0.027722599,-0.0007385274,-0.05767091,-0.04429516,-0.041394837,-0.016610293,-0.018450787,-0.026502352,-0.012906401,-0.01767062,-0.037295464,0.003868175,0.011276855,0.006204437,-0.017970618,0.021472396,0.043368123,-0.029860659,0.0034742954,0.032061663,0.05863581,0.065827474,0.048801914,0.026638124,0.14332555,-0.004388672,0.022498023,0.047611784,0.024438905,0.06773336,-0.032344036,0.09172597,0.084475085,0.004452127,0.09729167,-0.0015360612,-0.018170634,-0.04076864,0.034997094,0.07157194,-0.038500063,-0.022302123,0.022781525,0.00077989657,-0.008351877,-0.02634873,-0.010663489,0.056891233,0.14596693,0.13677214,-0.032552708,-0.08493872,-0.011945752,-0.07969263,-0.13743617,-0.038604505,-0.001328864,0.030620124,0.018221255,-0.0065458994,0.013910494,-0.018607795,0.0021665655,-0.072593376,-0.065901116,-0.027106024,-0.03750313,-0.036829237,-0.029260637,-0.02816831,-0.017578693,0.0022579671,-0.0098498445,0.011743142,0.030665483,-0.046306565,-0.037986293,0.042312756,-0.046516888,-0.04092527,0.018976973,-0.021578232,-0.0074473973,-0.03142219,-0.012040063,0.018769912,-0.07526439,0.0423534,0.08188501,-0.084086,-0.046383,0.015223029,0.0029824402,0.007605758,-0.015610663,0.008912472,-0.021126539,-0.019522175,0.049925897,-0.034141093,-0.063682966,-0.0076175067,-0.011636705,0.008644965,0.05320215,0.04142379,0.052531466,-0.017164273,-0.021210361,0.0058766534,-0.020343387,0.07473701,-0.019597389,-0.06997239,0.027141625,-0.04102462,-0.042226903,0.05753071,-0.035694484,-0.046179455,-0.099900804,-0.12110984,0.07539744,0.039341737,0.06554467,0.028857293,-0.0013032801,-0.039990243,0.05921209,0.043889318,0.04152888,0.0011949042,0.051529564,0.032311544,-0.023158541,-0.073148035,-0.016438765,-0.021009577,0.059694584,0.056654375,-0.045007017,-0.02586935,0.020759394,0.05442274,0.05148802,-0.06519681,0.047450423,0.020669242,-0.021452412,-0.078942716,-0.04117672,0.016455712,-0.024494683,0.10029545,-0.026196081,-0.018476848,0.025549479,0.04791546,0.022459801,0.0023517031,0.14220574,-0.040795498,0.046419453,0.013143966,-0.040354438,-0.011649208,-0.045580894,-0.0026938934,0.034059968,-0.029514698,0.09616524,0.0150289945,0.032971863,-0.0120241335,-0.0048336075,-0.108799756,-0.041001774,0.01742368,-0.04125031,-0.008873577,0.029718176,0.0049723005,0.015638784,0.06888233,0.043927,-0.005851607,-0.06368576,-0.054486904,-0.020620672,-0.11987411,-0.0042605544,-0.03366279,0.028534193,-0.052912924,-0.0046458445,0.0006140833,-0.012377688,0.03668696,-0.026143162,-0.038574792,0.007713578,-0.027376408,0.011689159,0.039572246,-0.07132977,-0.049822696,0.03773726,-0.088052034,0.0006585715,-0.08549164,-0.03157226,0.013301451,-0.06877156,-0.023332052,-0.025470147,-0.01960207,-0.020607293,0.03901624,-0.014838162,0.08533443,-0.008583314,0.008235382,0.16767281,-0.04223255,0.0364983,0.17261064,-0.0055213766,-0.055140898,-0.08513477,-0.022326479,0.03329407,0.08487975,0.11010914,-0.009600804,0.051971428,0.025831845,-0.046566054,-0.00663927,0.07457612,-0.02914861,0.12392668,0.030067198,-0.018470258,0.14144725,0.080567285,-0.020771468,-0.016818617,-0.01344083,0.048687827,-0.04924422,-0.021285012,-0.0016276579,0.00024467742,-0.020994136,0.046398927,0.12285532,-0.00963747,0.07095325,0.029549785,-0.06204222,-0.04648805,-0.028566735,-0.048094805,-0.080421075,-0.052242305,0.04568366,-0.066667266,-0.04133196,-0.030308707,0.01587735,-0.02269608,-0.038977124,-0.011114667,0.014057406,0.03274842,-0.05195742,-0.02171495,0.013968036,-0.043371502,-0.030976498,0.08008591,0.063746706,0.06828062,0.05527965,0.016517753,0.09525942,0.004383086,-0.049173295,-0.03053482,-0.04921042,0.05861637,-0.020139838,-0.023238158,0.104763135,0.04285086,0.08175628,-0.09097343,0.030512651,0.1140337,0.057509836,-0.04496569,0.04910492,0.00983449,-0.010167905,-0.011575887,0.018470388,-0.002272178,-0.09822056,0.013693082,0.026929438,-0.01158793,-0.10911404,-0.04074908,0.0062100366,-0.010829673,0.050381027,0.052732773,-0.038436916,-0.050358772,-0.028595623,4.521541e-05,-0.02720164,0.0639713,-0.036179274,-0.031041617,0.05739834,-0.017174115,-0.025042232,-0.048159532,-0.01614973,0.08947073,0.001586136,0.07990252,0.0926632,0.02978012,0.032204527,-0.00066546426,0.038226206,0.039177626,-0.0021345231,-0.016286528,0.027036214,-0.11153193,-0.07885093,0.06094675,-0.054461684,-0.002902755,0.037733883,0.0012246569,-0.017069628,0.021508405,0.096503064,0.07948936,0.00055385916,-0.008029782,0.016135758,-0.029350553,-0.045207467,-0.028996166,0.006645673,-0.015249935,-0.0069005154,-0.020876326,-0.032375243,-0.06925441,0.0856572,-0.024641033,-0.07821854,-0.0056440784,-0.043789927,-0.11583328,0.011707928,0.005315514,-0.019872308,-0.005928007,0.005710859,0.07225026,0.08399407,-0.08378751,-0.06571723,-0.021130528,-0.05225411,-0.046432313,0.020187283,0.0047622537,0.011617017,0.008364209,0.051927157,0.025883649,0.06046661,-0.046428442,-0.021732228,0.09040313,-0.0060042166,0.018311167,0.040557995,0.053643234,0.027757011,0.027189096,-0.012550273,0.019054642,-0.031690348,-0.05681839,0.103293434,-0.029853413,0.04940382,0.1273862,-0.14397864,0.02614294,0.041674316,-0.112442575,0.11005126,0.12994334,-0.07916273,0.04367086,0.028510295,-0.024219288,-0.10006381,-0.0037429377,-0.06877052,0.05708639,0.13938704,-0.122594714,0.08639453,0.099245414,0.048383415,0.054468203,-0.045026373,0.09218941,0.021533458,-0.07975486,-0.0054382416,-0.0039143357,-0.06832521,0.0716725,0.046977323,-0.040623598,0.0046297056,-0.034009285,-0.13765319,0.0590936,0.031160085,-0.018997949,0.00072383357,0.06980375,-0.009003931,-0.027309358,-0.07308993,-0.08785554,-0.028973766,-0.0016036086,0.0019868822,-0.0935328,0.15191437,0.032059766,-0.091905735,0.0048127715,0.039366595,0.087714456,0.008707959,0.011250694,0.11390046,-0.049845412,0.09520388,-0.040537253,-0.017195543,-0.017691536,0.008813587,-0.030824348,-0.028225979,0.042772606,-0.0056933574,-0.011957228,-0.031809293,-0.00969032,-0.016094644,-0.08572406,0.033841018,0.095333695,-0.09855184,0.022756908,-0.08168995,-0.011279521,0.039252393,-0.030566603,0.016868692,-0.08338695,-0.06982363,-0.038002945,-0.046313394,0.052341685,-0.12123244,-0.046791997,-0.035742816,0.0010158572,0.036764335,0.011784283,-0.090299405,0.060386594,0.071198605,0.010826937,0.020294376,-0.018768767,-0.13028571,-0.06385136,-0.04730686,-0.10189654,0.066495195,0.13057296,0.04997739,0.028472742,0.061322432,-0.03901349,-0.07762128,-0.022696229,-0.03934245,0.0045001386,0.046527863,0.038349446,0.008297484,0.042331338,0.027215488,-0.049018964,-0.0042598173,0.09392135,-0.016069198,-0.03810516,0.038269155,0.007242591,-0.005872969,-0.023541316,-0.11628786,-0.04780019,0.041800383,-0.0139850825,-0.009116066,-0.04324937,-0.10544309,-0.07066518,0.025731975,0.009096896,0.016306484,0.025194485,0.003064423,0.030806735,-0.042349976,-0.07184986,-0.06266727,0.106293894,0.0626648,-0.04578357,-0.017573955,-0.07433397,0.003653614,-0.016811436,0.01072757,0.025677698,0.0642407,-0.05294257,-0.085124426,0.053600915,-0.02452509,-0.03994676,0.011031292,-0.07705141,-0.098538615,-0.052353512,-0.057709686,-0.03541036,-0.043536853,0.059951738,0.14011185,-0.062254738,-0.011928594,0.08276618,-0.014732794,-0.03783249,-0.021085313,-0.06755653,-0.05598756,0.02712814,0.012315141,0.027634565,0.113926336,-0.07716821,0.0100406315,0.079646,0.04869252,-0.009607847,0.011170585,0.006883453,0.0288393,-0.055111792,-0.025346098,0.05115061,0.040736597,0.007512714,-0.021621197,0.02197563,0.010343789,0.01686841,0.021936823,0.013126502,0.033182845,0.01735819,-0.022902355,-0.0061729085,-0.036259253,-0.019814085,-0.008600355,-0.0036854066,0.0077368715,-0.008337838,0.0074757994,-0.008079383,-0.010485842,-0.017739965,0.012670015,0.001391388,0.0019085621,0.0017403158,-0.011328948,0.0061117937,-0.015650118,0.030425403,0.029189885,-0.01664111,0.011836641,0.016560115,-0.026040839,0.00053962803,0.017775433,0.052555382,0.01726364,0.03052283,0.03272508,-0.002482196,0.006505692,-0.015178508,0.006402831,-0.04535404,-0.0327802,-0.025356872,-0.021907615,0.007953637,0.014673308,0.010650214,0.0046080034,0.012390728,0.004313671,-0.0042100437,0.0038765168,0.023343656,-0.0030452348,-0.01692496,-0.017789498,0.02429113,0.008205957,-0.0056122374,-0.020707276,-0.022749063,-0.031901248,0.047493167,0.038230922,0.04307206,0.003697955,0.039036028,0.010934922,0.02045858,-0.0047891606,-0.03244713,0.018077292,0.027243234,0.010415132,0.004972405,0.023034196,-0.011320249,-0.013150288,-0.034662474,0.016807895,0.021383766,0.0017091905,0.016964102,-0.0032445425,-0.00506907,-0.024003534,-0.052387778,-0.011517538,-0.018858764,-0.022241624,-0.014901273,-0.016928324,-0.019844957,-0.005666693,-0.005165321,0.0077240323,0.055545613,-0.006537504,0.003923078,0.008785183,-0.030159006,0.0073200283,-0.054474264,-0.06430846,-0.05430376,-0.011686275,-0.010637601,-0.030285768,-0.010044728,0.004159461,-0.019418063,-0.009993587,-0.0050806403,-0.008367577,0.0074872216,-0.015834646,0.002036644,0.028104017,0.011857145,-0.010371932,-0.012030512,0.024846947,-0.009108831,0.0059412285,-0.03046451,0.00076495385,0.019580372,0.016514424,-0.021096226,-0.008917413,0.010696472,0.023025481,0.09997852,0.010242443,-0.01223293,0.04319137,-0.017937295,-0.01668351,-0.017785797,-0.01954357,0.04290628,0.017954981,0.0006914742,-0.0033526947,-0.0032455055,-0.015379581,-0.018682463,0.01562359,0.0041904245,0.0010051093,0.015421707,0.011309986,0.0018692435,0.035382684,0.026959931,0.026116839,0.041926567,-0.01522514,-0.028425608,-0.037187427,-0.012947621,0.028688636,0.061514772,0.055472136,0.03662813,0.060951572,0.04157118,0.041194346,0.017344292,0.0049621286,0.05161626,0.054193124,0.04749586,0.0016796163,0.016113894,0.059977964,-0.008755736,0.009098848,0.012366208,-0.015317946,-0.020787602,0.011955463,-0.013850338,0.0076346323,0.014763138,-0.0008310235,-0.0027309544,0.007010319,0.0082526235,0.011588214,-0.00533912,0.043860767,0.026849259,0.0030607076,0.0090567395,0.039332684,-0.00193188,-0.012960763,0.025044976,0.008281029,-0.025042906,-0.00948967,-0.0040646447,0.018397864,0.02967939,0.024616297,-0.007778593,-0.0031112498,-0.02171656,-0.0019520422,-0.0010376899,-0.03608122,0.011925701,0.043053403,0.011651595,0.016966572,0.013223803,0.0027011635,0.016426688,-0.01991348,-0.049175944,-0.026938211,-0.00086385634,0.002315574,-0.034566473,-0.025113273,-0.029630642,-0.031340975,-0.022806767,-0.024462394,-0.018074645,-0.009965294,-0.025473606,-0.02043404,0.022079393,-0.015545394,2.6211128e-05,0.017179053,0.0054186704,0.011191475,-0.037913386,-0.05373417,0.022413587,0.002152848,-0.027132045,-0.019283734,-0.031165123,-0.008236271,-0.014126116,-0.017987903,-0.024680449,0.015582799,0.035521515,0.015197484,0.018564552,-0.0025949155,-0.009460259,0.014174963,0.016553633,0.0062214634,0.013769808,0.020733213,0.016312154,-0.0029178567,0.003952933,-0.006076154,-0.03473326,0.023924049,0.014695878,0.0049866573,0.036232565,-0.0002617261,0.0047798716,-0.0036555207,-0.019717943,0.0016198893,0.008827639,0.025330683,0.002666862,0.023796825,0.01599311,-0.023876945,-0.020040082,-0.013100708
