0.027192034,0.006925756,-0.039089065,0.075014435,0.08024293,-0.0518468,0.07491022,0.06568646,-0.053249992,0.12479135,0.0376885,-0.06957821,0.12675405,-0.024989905,-0.06082824,-0.02213266,-0.03667508,-0.0688289,-0.07744925,-0.0031364246,0.0824921,-0.10358556,-0.0069176103,0.06992722,-0.042408165,0.029375428,0.078653656,-0.02398517,-0.047512416,-0.008429502,-0.03269047,-0.06521415,-0.0064763525,-0.013657339,-0.010572258,0.01264819,-0.031602364,0.012111675,0.020115098,-0.0017469795,0.006011648,-0.052422725,0.082881555,0.028000833,-0.02090365,-0.07996538,-0.082502246,-0.03908292,-0.020653447,-0.0577597,-0.06983068,0.014212736,-0.0038171203,-0.027228804,-0.01737024,-0.046214543,-0.10285153,0.0043185013,-0.053738676,-0.08980236,0.08807824,-0.011209199,-0.05525968,-0.004017095,-0.011982501,0.0023251667,0.012869591,-0.062832154,-0.078565896,0.011312888,-0.08842705,-0.05692105,0.047029506,-0.050220713,-0.12177973,0.064641304,0.01638212,-0.14752063,0.118731156,0.030668829,-0.14515889,0.010854233,0.04822704,0.07472058,-0.02296757,-0.018555883,0.054109428,-0.048943955,0.0051434264,0.06853897,0.00836513,0.08614644,0.03432422,0.03470458,0.11776009,0.069724165,0.018717613,0.1141579,0.08129348,-0.06333301,-0.05954808,-0.06149722,-0.031142673,-0.07254126,-0.04826138,-0.023405146,-0.10350141,-0.07976126,-0.026086189,-0.017565947,-0.059835333,-0.0015245632,-0.023123875,-0.0041507776,0.0039603203,-1.4103134e-05,0.010137549,-0.015220992,-0.041877236,-0.0067186034,0.0078106285,-0.059812643,0.018129071,-0.008360498,-0.008083651,-0.0023219371,0.09329766,0.019702302,-0.04992025,0.09652506,-0.027011195,-0.005930347,-0.010850051,0.015003383,-0.00031359977,0.00908787,0.008851145,-0.023977814,-0.0019947274,-0.010791131,-0.06799939,-0.006978307,-0.063143656,-0.107922636,-0.010159199,0.0061057634,-0.010418003,-0.0023746113,0.010708198,-0.0046835816,0.00420565,0.0050531104,0.008691581,-0.014001,0.003493578,-0.051906437,-0.053152215,-0.04046983,-0.03605931,0.023953851,0.006620991,-0.003027549,-0.046408415,-0.010581644,-0.007938974,-0.011636832,-0.049937442,-0.009228032,0.0095424885,-0.003391428,0.034470346,-0.01835276,-0.03367507,-0.024492959,-0.017825048,-0.045911465,-0.039400127,-0.0045682737,-0.007626535,0.010359014,0.008100565,-0.0037376261,-0.04820575,0.048599042,0.0002454642,-0.04586204,0.03139492,0.016975243,-0.017384991,0.010287186,-0.012642129,0.0048183673,0.024290454,-0.033435717,-0.049008287,0.033504203,-0.001930676,0.0024939133,-0.0042587947,-0.037826646,-0.07270292,0.017407885,-0.018644536,-0.06354429,-0.0057910685,-0.0037101426,-0.01578473,0.022542663,0.07191143,0.070548594,0.10072239,0.121190295,0.15132533,0.08152074,0.106253274,0.122810304,0.034072038,0.0025789484,-0.00011828068,0.0039851535,0.031096205,0.05648059,-0.044829287,-0.00494054,0.042522658,0.025603099,0.02195453,0.01904302,0.012549605,0.041435383,0.05591181,0.02589399,0.032069374,0.043982986,0.03910158,0.041441865,0.069630936,0.036055062,0.03480686,0.124925666,-0.003310804,0.033291254,0.06745516,0.038762,0.023447014,0.03428963,0.021258162,0.019571958,0.07194666,-0.025397597,0.011214437,0.05160042,-0.0300648,-0.028120898,-0.010545615,-0.05048157,-0.066036314,-0.053927843,-0.041066103,-0.016916724,-0.06166853,-0.030431308,-0.03840022,-0.009851167,-0.045900516,-0.024680214,-0.0149248345,-0.02336186,-0.002198206,0.011925755,0.0061677275,0.011354335,0.0069374386,-0.029162683,-0.0049746926,0.01794407,-0.03687446,0.009421981,-0.018000908,0.017954221,0.009442035,0.004461017,-0.052718006,-0.038378716,0.008345569,-0.023335157,-0.014192164,0.014332582,0.032873977,-0.089016154,-0.07803435,-0.01711832,-0.08689506,-0.13526897,0.015211579,-0.016566617,-0.09046216,-0.018037748,0.10519399,0.10389509,-0.048351128,-0.0011870181,0.0010564717,-0.058260776,-0.110349074,-0.20312075,-0.009612628,0.030623721,0.056230705,0.010290709,0.024150874,0.06742642,-0.020727538,0.025386836,0.008090962,-0.07458935,0.018836347,0.099305354,-0.07511411,-0.033928093,0.0642721,-0.07242941,-0.051725052,0.01951038,0.0050250576,0.0016031876,0.04898751,-0.019684488,-0.03326297,0.049650222,-0.065631665,-0.1020099,-0.026204884,-0.03499811,0.026775273,0.105136596,-0.038852584,-0.064389475,-0.003430325,0.02142539,-0.028184596,-0.007246838,0.0046096505,-0.047022898,-0.04756551,-0.006233584,-0.026757563,-0.030860325,0.005412041,-0.0044893767,-0.03297959,0.016185474,0.00537549,-0.03199219,0.13408919,0.108076036,0.027315686,0.07444863,0.11348963,0.018492145,0.075156644,-0.005110481,-0.0543713,0.12453367,0.057915203,-0.0269375,0.11530401,0.053247,-0.040735643,-0.0010308649,0.065133736,0.042059097,-0.03041991,0.044312015,0.07073487,-0.06571049,-0.08533756,0.026749156,-0.000102728365,-0.01989647,-0.009944173,0.013499094,0.077179246,0.015194191,0.03456635,0.056230582,0.06044785,-0.06807151,-0.097023085,-0.13846454,-0.010083766,-0.05476365,-0.09348835,0.046277504,-0.0031790938,-0.07437366,-0.005894187,-0.031837735,-0.052809965,-0.025123632,-0.023770396,-0.10178963,-0.031788807,-0.026189141,-0.071805336,6.369462e-05,0.00097566034,-0.06953093,0.06682137,-0.0062801028,-0.052883208,0.09411467,0.06578398,-0.047540247,0.04490079,0.026702294,0.013339006,0.06978485,0.09928108,0.021241214,0.07931216,0.121913925,-0.0029186674,0.041614335,-0.03933344,-0.09934433,0.056842856,-0.011103898,-0.050185774,0.057196077,-0.0123971095,-0.016871965,-0.06718225,-0.02962061,-0.020885646,-0.028870335,-0.033368044,-0.03676995,0.0050054556,-0.011148997,-0.03562087,0.02447323,-0.0048597874,0.03360238,0.002984563,-0.0010821242,0.016865373,-0.0002680368,0.007418444,0.005777611,-0.03727801,-0.056846537,-0.11871752,-0.023416812,-0.051109463,-0.073899664,-0.005472865,-0.018318214,-0.027524488,-0.040220402,-0.015292448,0.01767996,-0.06168067,-0.029000325,0.018674593,-0.014149422,0.019817034,0.05070646,0.00879097,-0.029634526,-0.020260524,-0.0032956614,-0.018659929,0.056607597,0.019237924,0.07140542,0.15323505,-0.023401905,-0.066465855,-0.08770975,-0.005832352,-0.04445514,-0.038217463,-0.037522066,-0.016385082,0.013172225,-0.036148522,-0.06284162,-0.010078731,-0.027153147,-0.042951826,0.0039584814,-0.0016356441,-0.017767368,0.03692646,-0.03715814,-0.04056064,-0.016172525,-0.11299321,-0.12250616,-0.07384288,-0.08514676,-0.123730086,-0.07310191,0.02943206,0.03521062,0.0142512405,0.045693707,0.036887787,0.025687836,0.049270254,0.026248071,0.04936486,-0.0051681097,-0.027521223,0.010829743,0.012224646,0.00038363438,0.021297486,0.016057659,0.01687847,0.034174267,0.047546167,0.058481865,0.046774283,0.08591349,0.03576746,0.020672232,0.10711356,0.01749207,-0.029777048,-0.080446556,-0.06162757,-0.047042888,-0.04381605,-0.03141037,-0.0066888453,-0.065727115,-0.02740375,0.0045308257,-0.0092704445,0.038666174,0.04756132,0.07776873,0.05068291,0.08049383,0.072604276,0.03547541,0.04440633,0.017204968,0.04969134,0.06885876,0.058887996,0.039744582,0.061151672,0.091361046,0.07126137,0.028696375,-0.0022274537,0.011440836,0.012678148,0.0038139017,-0.03332816,-0.024287045,0.023771588,-0.0077845054,-0.068895765,-0.05646092,0.0076687736,0.046760026,-0.012734863,0.01258477,0.0011465637,0.0088534355,0.0412511,0.027368017,0.021021497,0.055296395,0.035613425,0.026255049,0.058168728,0.036804613,-0.009659146,0.018014384,0.023862453,-0.037835337,-0.031528246,0.007951303,-0.061585363,-0.020838298,-0.021272508,-0.04151937,-0.0517808,-0.027641485,0.012282565,-0.0010284088,-0.007366091,-0.014997716,-0.009647216,-0.01054973,-0.021456495,-0.018954689,0.011834087,-0.020334862,-0.03634745,-0.038176846,-0.033116847,-0.006403985,-0.026662555,-0.007406775,0.007040785,0.0056830025,-0.009420528,-0.012472069,-0.01805504,-0.03397446,0.007827766,-0.005570869,-0.040103193,0.005003193,0.0073943944,-0.0062777777,-0.010343594,-0.0032830266,0.017040312,0.020323802,0.021603325,-0.0009799906,0.0030775627,0.005605412,-0.012156831,-0.036347017,-0.03275976,-0.032310814,-0.038708955,-0.034679443,-0.045015287,-0.02340399,-0.032249495,-0.009932617,-0.010402019,-0.0018158926,0.009652136,-0.006197914,-0.0068153013,0.01983151,0.011850886,0.011949252,0.00064614916,0.07397272,0.08774305,0.029450703,0.06597146,0.074226774,0.024115307,0.03297767,-0.014001122,-0.030458784,-0.06237994,-0.030590868,-0.043434136,-0.0017789679,-0.032715008,-0.008747663,-0.035138145,-0.025197782,0.009971328,0.014741479,0.010772392,0.056600023,0.040466033,0.03965168,0.051880073,0.06536869,0.041268766,0.035331313,0.021215344,0.0036484061,0.052833907,0.032750763,0.03434988,0.029619258,0.039267693,0.014503534,0.04096293,0.037053097,0.016316421,0.048776265,0.025367329,0.011824076,0.020447528,0.01161324,0.0015399661,0.024870075,0.046984944,0.014785676,0.048407692,0.046822928,0.01640182,0.030060736,0.032720324,0.0024741564,-0.003321307,0.015056195,0.009296207,0.01733644,0.041105494,0.019112865,0.0076644947,0.03626018,0.019821903,-0.007419413,-0.016151575,0.004615284,-0.0014395883,-0.03965959,-0.02422485,-0.0021071064,-0.040480502,-0.036864575,-0.013905608,0.02118943,-0.07668619,0.023656799,0.00037078199,-0.056420397,0.03754295,-0.03156315,-0.05595784,0.09313115,0.00487835,0.046380654,0.051082812,-0.010277691,-0.055322606,-0.02083523,-0.055907942,-0.028092956,-0.022040617,-0.083028406,-0.04072376,-0.08678117,-0.048546266,0.004459598,-0.082457624,-0.03779828,0.03767978,-0.021046085,0.0024526417,-0.046104256,-0.012700331,0.0049523883,-0.049722806,0.02027836,0.029019864,0.006864914,0.05020246,0.025281394,-0.017290676,-0.026675228,0.017761396,-0.034777608,-0.053055324,-0.016541427,-0.036122628,-0.12077399,-0.15696506,-0.08391394,-0.14451659,-0.08689227,0.1013085,-0.0037842474,0.115963966,0.16112937,0.20419918,0.15419018,-0.05677806,0.14460938,-0.036542345,-0.1262815,-0.08231883,-0.14442451,-0.115902536,0.023287797,0.079789214,0.035408493,0.02903833,-0.0035157197,-0.035030086,0.046063848,-0.035566196,-0.056283273,-0.10030857,-0.06064869,0.00070182804,-0.016857332,0.028087502,0.097203806,0.09306012,0.11604547,0.060725007,0.03481259,-0.01612373,-0.020703569,-0.012384425,-0.054205485,-0.01264605,-0.02956509,-0.0020014013,0.07133127,-0.0052590505,-0.020407557,-0.04635265,-0.009921084,-0.028268458,0.00028467065,-0.08016385,-0.054296196,0.0098300055,0.006577682,-0.0067922887,-0.062832355,-0.018152343,-0.03960798,-0.024177292,0.049892325,0.033287574,-0.021168271,-0.069751136,-0.032797396,0.09469145,-0.053080253,-0.021621034,0.06380411,-0.034723226,0.0548659,0.070335336,0.03743428,-0.022782318,0.022236263,0.03230249,-0.010521053,0.03264247,0.032681923,-0.0067127086,0.04565733,-0.038497888,-0.0049668504,-0.044552486,-0.04450664,0.005570852,-0.043961298,-0.034084614,-0.042038575,0.0035297454,-0.051860683,-0.012322063,0.0056256014,0.03435614,0.0057834373,-0.047290236,0.039837673,-0.030356696,-0.103127725,-0.0034102567,0.031347264,0.029280014,0.023768334,0.026666068,0.027915835,0.03235645,0.013676334,0.031201236,0.005466644,0.029893553,0.008228483,-0.039644636,-0.03234518,-0.004337253,-0.01601403,-0.03400639,-0.006892209,0.019872246,-0.0066839014,-0.031735584,0.023183726,0.006746968,0.008188879,0.026991932,0.030507226,0.02317681,0.009905447,-0.0013218761,-0.0071244636,-0.014313073,0.011753857,0.017137533,-0.026808662,0.0074094613,0.0010623978,-0.041411076,-0.087900855,-0.094608344,0.106137924,0.10207424,0.13332283,0.12673062,0.18788028,0.24699764,-0.016848635,-0.017015206,-0.006611597,-0.035752874,-0.017647462,-0.022347901,-0.020058064,0.0013016432,-0.028756035,0.029580826,0.008191067,0.011778815,-0.0032716282,-0.004092451,0.014500067,0.0017209876,0.008965401,0.022582924,0.009441392,0.013899152,0.018537916,-0.0065921405,0.019444326,-0.007947073,-0.028509693,0.0014580189,-0.015142989,-0.009574101,-0.0071642464,0.0012034845,0.030406483,0.033560205,0.035343893,-0.00489677,0.015146081,0.022206338,-0.0077822427,-0.012702614,-0.054725166,0.025187075,0.019328104,-0.015064213,0.027759183,0.021983001,0.022880914,0.019273175,0.007249254,0.0025660635,0.003949189,-0.018136168,-0.021591324,-0.0143429665,-0.001255361,0.0010396602,-0.036844052,-0.014755168,-4.1752006e-05,-0.024158018,-0.02171957,-0.015241274,-0.021729356,-0.0152072245,0.008825606,0.025985297,0.06449967,0.046647698,-0.09642898,-0.024708448,-0.019145055,-0.111805916,-0.13878772,-0.12728943,-0.036634725,-0.021354863,0.004216803,0.024265574,0.04707108,0.046327647,0.07242395,0.07605884,0.04363467,0.017140428,0.04458626,0.02167017,-0.020879919,0.015609505,0.022831941,-0.007962217,0.0073642256,-0.0035734058,0.01551894,0.04990036,0.015349251,0.011540966,0.042813767,0.034650587,-0.033400673,0.0019926073,0.014471006,-0.013828193,0.016947523,0.023554185,-0.02893605,0.004208116,-0.019904183,-0.012863635,-0.033929452,-0.037969906,-0.00024277189,-0.052584615,-0.037633684,0.02841003,-0.028495528,-0.073033914,0.03701859,0.018855033,-0.07418179,-0.044597924,-0.041053306,0.00018561888,-0.06762248,-0.07898969,-0.037419505,-0.04990158,-0.05574103,-0.028543357,-0.08541466,-0.02550815,0.0094606485,-0.0357967,-0.0010748872,0.031004397,0.032225743,0.04645463,0.06511049,-0.09894188,0.062125128,0.13860121,-0.22380595,-0.000816996,0.13334659,-0.18137354,-0.0547964,0.101528235,-0.026321799,0.0071051447,0.02244408,-0.011051726,0.009666111,0.019915331,0.021467784,0.05537385,0.041619815,-0.0026919404,0.05739764,0.06987564,-0.06486551,0.00769181,0.09284287,-0.06762541,-0.008805219,0.045328453,0.013163268,-0.0060117957,-0.04458057,0.039577596,0.012728958,-0.05080445,0.03784531,-0.022845747,-0.060948905,0.021917176,0.050154246,0.04018662,-0.028885124,0.028116126,0.009566263,-0.067818515,-0.019927815,0.0029035807,-0.0117009925,0.027965106,0.06883207,-0.0028906139,0.0069747535,0.06810804,0.010425251,0.017701976,0.018845884,0.03538578,-0.018902794,-0.052529424,0.045441423,0.011409372,-0.0065624574,0.017206354,0.044100244,0.015602479,0.039731078,0.029368846,-0.027079621,0.009581452,-0.0031310963,-0.0365907,0.0068969475,-0.015053113,-0.04257096,-0.0022608656,-0.064236864,-0.122851305,0.07465855,-0.000283391,-0.094979115,0.06799277,-0.01661182,-0.08193752,8.0052334e-05,-0.019648787,0.023160344,0.05383178,0.025632814,-0.013207756,0.06646496,0.053550914,-0.013824008,-0.023416651,-0.0023670662,-0.017443705,-0.022775007,-0.024881033,-0.049273573,-0.009169694,0.002098505,-0.030316252,0.020327125,-0.0016565083,-0.015156793,0.05657306,0.039878167,0.047553997,0.036099486,0.0148680555,0.034898747,0.061268512,0.0742325,0.03302355,0.064194106,0.09740706,0.071000054,0.027238924,0.069648564,0.057144657,0.016447216,0.019681063,0.056262787,0.033084024,0.023436813,0.033843745,0.010367813,0.0011995203,-0.01924068,-0.010705403,-0.036657844,-0.001364467,-0.046811905,-0.06160088,-0.03478859,-0.036469728,-0.07461869,-0.024163675,-0.0038820764,-0.012271715,-0.022997994,0.01292853,-0.018054226,-0.023775907,-0.0016347445,-0.051280793,-0.04524468,0.034294147,0.01524772,-0.059426073,0.043489546,0.043792397,-0.036995135,0.027985938,-0.018141042,-0.08150212,0.02518969,0.020742036,0.042434257,0.041834068,0.02696287,0.03311828,0.051615488,0.030784601,0.012278782,0.039182607,0.033605553,-0.020471675,0.05379834,-0.0018079379,-0.059304066,0.061846793,0.0099945925,-0.049381886,-0.01244765,-0.0056059537,0.056375172,-0.03931243,0.000148241,0.035185836,-0.0150596695,-0.0023652809,0.02088295,-0.07214425,-0.09533243,-0.059191674,-0.046323612,-0.01691923,-0.014576098,0.0072674262,0.034042604,0.026208479,0.028284006,-0.005876874,0.015870158,0.022110965,0.0033758662,0.0242121,0.030442217,-0.03363307,-0.008336136,-0.045908898,-0.0058581894,0.014204522,-0.030624077,-0.033466615,0.04312481,-0.018603211,-0.03405525,0.034546606,-0.042250916,-0.02538958,0.0145294415,-0.039041445,-0.03195067,0.007385941,-0.08738923,-0.05826844,-0.028702524,-0.08713107,-0.07621459,-0.03022969,-0.05484793,-0.05192019,0.006035066,0.030207409,0.019256765,0.07712801,-0.0074210484,0.019794885,0.033327293,-0.00033435266,0.024653623,0.005942752,0.021369888,0.006600785,0.016404659,0.020555371,0.0102345,0.001171197,0.012576565,0.00728832,0.066503055,0.000104441766,0.033912107,0.076199174,0.0018895965,0.028953686,0.068443,0.009832786,0.036346186,0.071727775,0.012838433,0.05378142,0.074050136,-0.0074144653,0.00051585137,0.024104293,0.00805968,0.08343899,0.07692698,0.013461783,0.055867873,0.047611304,0.019467074,0.08259489,0.064193174,0.12237192,0.032474983,-0.041401487,0.07751349,-0.035303567,-0.03877144,-0.010550987,0.021470431,0.030205308,-0.03244708,-0.021489624,-0.0228662,-0.007178355,0.013398194,-0.019344032,0.010504129,0.025431797,0.015319585,-0.029790027,-0.010901352,-0.025329426,-0.0414363,-0.044323105,-0.04845333,-0.039881844,-0.021753462,-0.03826413,-0.029815912,-0.019087918,0.010320578,0.06157867,0.10672038,0.09337201,-0.097808465,-0.11040012,-0.10412621,-0.070692,-0.047873594,-0.05687028,-0.029269265,-0.028768418,-0.031510625,-0.037762742,-0.02345201,-0.010752323,-0.075765364,-0.03007606,-0.021170847,-0.022071645,0.004148077,-0.0035064772,0.03056162,0.017014578,0.024392819,0.04630796,0.019631535,0.0027116856,0.059226517,0.058233593,-0.032225095,-0.020410419,-0.02958743,-0.08763658,-0.024947189,-0.08183688,-0.055838656,-0.09086599,-0.09809536,-0.015074064,-0.05477963,-0.0087501565,0.0394227,-0.06589599,-0.044978622,-0.09061271,-0.021302141,-0.038289856,-0.033221245,-0.013963924,-0.012901892,0.0031255882,-0.0581979,-0.043785248,-0.050603688,-0.05108054,-0.07107603,-0.03731845,-0.028372414,-0.025056317,0.0021532124,0.008804826,0.02576826,0.046094332,0.052545086,0.044300504,0.016604947,0.033473134,0.019639578,0.015308352,-0.0141585255,-0.015699562,0.017155578,0.0023342462,0.022322053,0.052068207,0.04514305,0.11885321,0.08767989,0.099419475,0.09755462,0.062357455,0.004144061,-0.013707201,-0.01419537,-0.044895936,-0.0016773,0.043724738,0.008453452,0.013696769,0.004103127,-0.0022149363,0.00179684,-0.054544345,-0.008118617,-0.017775305,-0.005969455,0.024268376,-0.012864535,-0.011447791,0.05977839,0.021459807,-0.008382405,-0.036502957,-0.08256399,-0.059115004,-0.053248055,-0.086039506,-0.08716037,-0.0409856,-0.060937908,-0.040655356,-0.041457016,0.0026747733,0.040015213,-0.046576712,-0.011034886,0.0044682436,-0.04028667,-0.06282562,-0.022620717,0.0416123,0.047497153,0.025042722,0.054993425,0.038647596,0.06667143,0.035124782,0.08057181,0.07858958,-0.011870959,0.0038736342,0.018620938,-0.035159346,-0.028766917,-0.0014216196,-0.03975794,-0.04517011,-0.015226574,-0.027320785,-0.02640596,-0.007232783,-0.0522396,-0.040060446,-0.044737257,-0.074213386,-0.07921919,-0.04648946,-0.034724165,-0.07168831,-0.01932679,-0.03607604,-0.084090166,-0.025571544,0.007152439,-0.03242217,-0.011467144,0.0011351266,0.0010594304,-0.034115214,-0.018831624,-0.010377251,-0.045245703,-0.027987704,-0.04390559,-0.03754361,0.033485107,0.026226101,-0.00022167512,0.00022476363,-0.011871785,-0.009887724,-0.0072314027,-0.020015083,-0.02191847,-0.0023649018,-0.02896101,-0.013486918,-0.035851907,-0.06541711,-0.073843665,-0.049594257,-0.11802706,-0.078776345,-0.0060878033,0.01191854,0.016447924,0.018086338,0.015561063,0.03922517,0.030175796,0.032988574,0.04171503,0.023349218,0.017777778,0.00085019437,0.047872823,0.04896889,0.032727122,0.040673885,0.083621,0.045387246,0.0046992004,-0.030190941,-0.015152457,0.016750954,-0.011006418,-0.0068893894,-0.0069735954,-0.02925413,-0.0133097265,0.038474917,0.024312068,0.0034177082,0.020996556,-0.00557521,0.00030535884,0.03393334,0.03638321,0.043140527,0.023132756,0.020547291,0.03210204,0.034730006,0.036974337,0.02347857,0.02277125,0.030808674,0.018777005,-0.017172541,-0.007085403,0.002261174,-0.017924376,-0.0005991512,0.0006940905,-0.021354362,-0.028186645,-0.01523575,0.033221643,0.019932048,-0.008079195,0.029572034,0.024881572,0.004854936,0.014232459,0.011483424,-0.020697596,0.04130854,0.06367129,0.023710558,0.08764089,0.11013616,0.06771699,0.03058782,0.083115615,0.03235806,-0.060377292,-0.013743828,0.0035768244,-0.047009375,0.029176813,0.06273246,-0.02469765,0.07788001,0.05069793,0.043860797,0.012294843,0.03931563,-0.010164952,0.0061077895,0.026271777,-0.03637949,-0.06052782,0.021545356,0.0332748,0.0019673726,-0.013040176,-0.05494218,-0.056530688,-0.0844292,-0.01283038,-0.042614102,-0.06829482,0.17745212,0.12734012,0.16076048,0.05860556,0.00865511,0.023679454,-0.17379953,-0.23555568,-0.22102936,0.005706947,0.034813076,0.0515065,-0.054744255,-0.019215742,0.04745961,-0.074414074,-0.012162279,0.057340335,-0.014029275,-0.024568116,-0.012490623,0.0025137626,-0.028830944,-0.026825013,0.03256286,-0.018462032,-0.06130429,-0.014152642,-0.04140608,-0.039734606,-0.0039688754,-0.018195044,-0.011164858,-0.0016677433,-0.016930528,-0.013827606,-0.014818972,0.03469118,-0.02264781,0.017301893,0.020855185,-0.028309707,0.06357149,0.12692758,0.027753823,0.022683285,0.03102935,0.049195286,-0.034472134,-0.021242395,0.06416887,-0.09920665,-0.041104257,0.017883634,0.020295408,-0.011196925,0.031949528,0.01340242,-0.027626293,-0.0029080326,-0.029555371,-0.03872723,0.019037245,-0.049000252,-0.03853209,-0.012234506,0.01900713,0.006411715,0.017038984,0.033958435,0.02781839,-0.015173162,-0.061740223,-0.08598665,-0.073588684,-0.049843814,-0.03734655,-0.05990779,0.029386995,0.043840516,0.014222233,-0.036211967,-0.052749008,-0.029609801,-0.031357918,-0.022380497,-0.053429462,0.018199438,0.0165124,0.011887192,-0.019041564,-0.03646467,-0.06993473,-0.03740802,-0.030303976,-0.028877461,-0.014144333,-0.032520793,-0.03089272,0.013083994,-0.006772275,-0.0067553446,0.0066756136,-0.011476851,-0.020053834,-0.024528116,-0.03696515,-0.03859309,-0.021216767,-0.020060152,-0.026889917,-0.012272286,-0.046554476,-0.05996999,0.012606037,-0.010833777,-0.057472248,-0.034305867,0.016990993,-0.016726663,-0.07587637,-0.014201658,0.002810116,-0.021796802,0.03700165,0.042286064,0.044511206,0.037700135,0.06096807,-0.04087992,-0.006074892,-0.017239025,-0.11914862,-0.043884154,-0.07767245,-0.0031618422,0.032207917,0.012185492,-0.021990554,0.012565419,0.014168056,-0.037038285,0.016843434,0.030341014,-0.012894744,0.0369375,0.09126853,-0.009536601,0.030316938,0.07112379,0.020725083,0.04886151,0.03803245,-0.023330383,-0.0164068,0.0149601195,-0.012398365,-0.031245535,-0.015257582,0.053687934,0.0499648,0.024997018,-0.02121347,0.016249657,0.043326434,-0.053327713,-0.02421978,0.018413035,-0.032252263,-0.013581444,-0.0022040587,0.079948604,0.038842656,-0.07543216,0.13042404,0.023588471,-0.09113843,0.08566644,0.0207786,-0.06888835,-0.012350248,-0.07129016,-0.068236016,-0.01367938,-0.057268072,-0.06321362,0.0091174,0.0044400943,0.004841801,0.016533338,0.0326366,0.006181955,0.0026834023,0.0066710687,-0.044061873,-0.04123925,-0.0064256396,-0.031066723,0.025020488,0.013953361,0.0072799246,0.008800644,-0.015674038,-0.016010972,0.014304163,-0.0022421884,-0.017602082,-0.004996634,-0.020485519,-0.04148393,-0.008627178,-0.02272561,-0.028160745,0.008648447,0.011158812,-0.011638338,-0.018521367,0.043598488,0.012089238,-0.012179144,0.036882304,-0.0002935235,-0.003666228,0.027238408,-0.019852592,-0.029466812,-0.0055562225,0.012055755,-0.05064459,-0.013752616,0.06844296,-0.06194792,0.042088993,0.072956756,0.108174734,0.10928697,-0.03036711,0.10665043,0.03900673,-0.037599422,0.051194165,0.031759966,-0.027459519,0.0071205324,0.007999981,-0.0036850872,0.058898255,0.061911758,0.025850873,0.10420972,0.11031599,0.08152673,-0.013638653,0.0054489784,-0.018611526,0.017415319,0.033753105,0.033895854,0.024007563,0.036308173,0.03778794,-0.035738453,0.045709573,0.047812473,-0.01041501,0.008391282,0.024326704,-0.022730086,0.038960565,0.034102835,-0.05656832,-0.08352997,-0.10199937,-0.054271944,-0.04062332,-0.093393385,0.0030709151,-0.016779983,-0.07326758,-0.01760844,-0.035080023,-0.017168064,-0.010971714,-0.02076913,-0.06786213,-0.008469255,-0.035809144,-0.05117254,-0.07592738,-0.07917663,-0.029590702,-0.04405416,-0.004802356,-0.0032449656,-0.014389728,-0.014738322,-0.025039818,0.08596979,-0.0056247627,-0.098382786,0.10409423,0.06605586,-0.021055765,0.08264446,0.052238345,-0.010094949,-0.03810596,0.055826586,0.057682727,-0.069306806,0.009220503,-0.006572798,-0.10908877,-0.10657515,-0.080761485,0.050765976,0.034696642,-0.039067596,0.04328024,0.016152818,0.016602872,0.055688154,0.043131147,0.025816761,-0.021568153,0.025734164,0.06983623,-0.042643756,-0.018201318,-0.033006206,-0.01117922,-0.093238264,-0.1318968,0.019578794,-0.06435669,-0.07148978,0.038466923,-0.013540914,-0.06705638,0.06906673,0.07579388,0.001148875,-0.035100397,-0.041063998,-0.07863127,-0.05886667,-0.0339882,-0.052004877,-0.012591239,-0.016138492,-0.005511268,0.09986244,0.0712017,0.023642635,0.05352151,0.03911038,0.03973299,0.07042588,0.058637995,0.02480616,-0.01989633,-0.019513959,-0.037240207,-0.042229626,-0.055066817,-0.027648702,-0.013773791,-0.044699084,-0.015052307,-0.0006964012,0.055371348,0.07170554,-0.0035781597,0.05092311,0.109883144,0.0063244468,0.027422642,0.048109878,-0.006596562,-0.0244923,-0.0107642,-0.03634006,-0.073645905,-0.04576113,-0.042938475,-0.11446903,-0.114848256,-0.05050132,-0.04173655,0.0032115232,-0.08014023,-0.07683785,-0.029409703,-0.07967855,-0.08152494,-0.03555793,0.06688589,0.04713087,0.047752876,0.010783622,0.057296783,0.07480293,0.02094595,0.014410977,0.03450981,-0.10390351,-0.05487912,0.03233656,-0.08328372,0.026664833,0.03714432,-0.022579225,0.024032984,0.029134188,-0.10990141,-0.10340894,-0.081121035,-0.0865944,-0.11146212,-0.094015785,-0.04518503,-0.036231756,-0.02863998,-0.02268802,-0.06325829,-0.025084738,-0.011544839,-0.028059993,0.0033693907,0.037267104,0.047348782,0.05780164,0.049903043,0.052506555,0.07069513,-0.0890749,-0.072983,-0.023606442,-0.07367362,-0.040846065,0.020739168,-0.058943752,-0.036981672,-0.0024521572,-0.0066174064,0.03683607,0.02790062,0.024298681,0.04787925,0.045973916,-0.0117317485,-0.042811245,-0.003304114,-0.02805011,0.0023788135,0.03893699,-0.010171207,-0.00984291,-0.016746603,-0.0023690686,0.047845565,0.06782242,0.0017973376,0.053571638,0.07348445,0.07157472,0.07494567,0.056600835,0.007752418,0.02535477,-0.01964092,0.009187295,0.030213244,0.0124703,-0.013561201,-0.013727387,0.004955194,-0.001079892,-0.023773763,0.0472748,0.015493253,0.035137597,0.028370487,0.05573421,0.098565444,0.028727783,-0.015170739,-0.026459718,-0.061798662,-0.0012327508,-0.04302142,-0.06093477,-0.041207526,-0.042636357,-0.025494903,0.022082593,0.029525748,-0.00261458,0.040270843,0.043902162,0.001236672,0.006071473,-0.0018739499,-0.04116536,0.060642187,0.013452656,-0.024777647,0.07919349,0.03857688,0.042290755,0.058200523,0.04967531,0.07188795,-0.014715672,-0.04111142,-0.021246491,-0.0069246865,-0.06702615,-0.042649597,-0.030897802,-0.05018245,-0.017309265,0.0034584547,-0.01778425,-0.014304086,0.030337488,0.03909971,-0.036078315,0.043094203,-0.018040534,-0.052967485,6.208638e-05,-0.011676573,-0.020268898,-0.04913538,-0.042701274,-0.059149172,-0.07837106,-0.081572704,-0.102942646,0.015454212,0.0019222571,-0.028298592,-0.0072985226,-0.023284454,-0.0324253,-0.017021548,-0.014344252,-0.048533387,-0.017239215,0.0212491,-0.021772347,0.016953686,0.033427265,-0.0050419685,0.066334546,0.04574757,-0.014687283,-0.058448143,-0.025150614,-0.0037527878,-0.050956152,-0.025220437,-0.021180445,-0.024577467,0.020830022,0.031233178,-0.04326122,0.045343004,0.095125206,0.006402838,0.07607916,0.12762532,0.048739955,0.13405043,0.1674156,-0.0075291926,-0.054551885,-0.009128665,0.014943897,-0.032024182,0.02521277,-0.019355832,-0.05691321,0.004880769,-0.050062265,-0.058076084,-0.08089899,-0.079521514,-0.0589012,-0.077595904,-0.07579823,-0.05862965,-0.0651299,-0.0017529714,-0.018884163,-0.020891326,0.035341874,0.029714515,0.02627397,-0.008491653,-0.01959574,-0.02456748,0.0030697607,0.010796446,-0.006658211,-0.023348108,-0.010799649,-0.001350902,-0.028299958,-0.03292909,-0.020171776,0.000904605,-0.013593203,-0.050137356,0.020893978,0.038598597,0.0046440293,-0.01074279,0.030230384,0.0019896843,-0.02577053,-0.030409558,-0.017763143,0.007964084,-0.0153827695,-0.012579864,0.011740653,-0.021468045,-0.021194585,-0.032289475,0.0057460647,0.0058838003,-0.005815051,-0.007119504,-0.0057086046,-0.020333888,-0.009266735,0.01308449,0.018635161,0.025467366,0.07821932,0.048545882,0.055496737,0.09097222,0.026850905,0.032903586,0.07890882,-0.0370403,0.016335381,0.0018782188,-0.05384368,-0.0036424755,-0.0074779578,0.0050040726,0.047659196,0.024280196,0.00030352976,0.024372363,0.026185723,-0.043324538,-0.027150221,-0.017115546,-0.030809851,0.009880265,0.015868872,-0.005905878,-0.006130014,-0.029321048,-0.0034786914,0.011019582,-0.025172148,-0.0194065,-0.019885685,-0.014393464,-0.07289547,-0.0549594,-0.040361468,-0.032032337,-0.017112216,-0.010988718,-0.0010757833,0.025202226,0.018864045,0.04428346,0.03668647,0.06110016,0.025371024,0.04234602,0.03931034,-0.029209962,-0.05186034,-0.047692176,-0.0622791,-0.074441075,0.051744044,-0.09250834,-0.11696474,-0.05287157,-0.066729,-0.1560042,-0.08980451,-0.054989427,-0.06409197,-0.053765673,0.024549838,0.024680411,-0.034704495,-0.019202642,-0.00712125,0.0006480784,0.037141982,0.037376016,0.017995046,0.0771123,0.061953314,0.04707518,0.070290096,0.0654469,0.05807993,0.0031514287,0.008139988,-0.08196321,0.016541153,0.0279886,-0.06469233,-0.023008587,0.0042029717,-0.092957795,0.00049148686,-0.002132823,-0.019569162,0.028049922,0.025672993,-0.051589314,0.07346016,0.05607027,0.0028639566,0.032349896,0.025543896,0.031652756,-0.012181572,-0.014314231,0.037676856,-0.045400728,-0.044257928,0.05103311,0.034283236,0.002566663,-0.032113973,-0.0040508606,0.016489586,-0.02341852,-0.04407756,-0.030153856,-0.0067530195,0.054375146,0.011297395,0.026647972,-0.03737383,-0.05171135,-0.076826006,-0.065269135,-0.15359055,-0.11390574,0.005860458,0.059155293,0.043090142,0.05379646,0.08250706,0.08543936,0.051953964,0.082468376,0.0818224,-0.008059365,-0.05006235,-0.0478482,-0.011904018,-0.030236606,-0.018567473,-0.01848588,-0.02860861,0.006901311,-0.048211843,-0.055774145,-0.021215074,-0.053651907,-0.07148552,-0.03207172,-0.0105938,-0.036863293,-0.0018035915,-0.10858367,-0.06870578,0.0020434305,-0.09067614,-0.07605752,-0.032725036,-0.045764808,-0.10238021,-0.03169012,0.017539715,0.03477757,0.026681319,0.06473959,0.06741813,0.06616492,0.059747778,0.07366336,0.0688054,0.026459053,0.04812397,0.07839045,0.006737172,-0.048445493,0.05174581,0.020626754,-0.013013342,0.014512576,-0.048812926,-0.05809678,-0.080952115,0.03512513,0.023433585,0.0060486705,0.055335656,0.040462434,0.021971613,-0.044451658,-0.061179217,-0.028064191,-0.033858873,-0.032432523,-0.016390745,-0.013448038,0.0015980317,0.01832687,-0.078927055,0.038138743,0.055959024,0.048617907,0.07395032,0.07963237,0.063960485,0.02632644,0.011348852,-0.019432506,0.00888404,-0.042169422,-0.015608096,-0.022905225,-0.069837295,-0.05419742,-0.08389091,-0.07971961,0.013637627,-0.0019463481,0.0026403673,0.0030925882,-0.03128278,-0.031432282,0.03646737,0.0114924,0.0065676556,-0.013198429,0.022976702,-0.015039252,-0.04121955,-0.010528948,-0.04176986,-0.002814136,-0.0026220602,0.010114483,0.029023359,0.0516054,0.0018865843,0.08322152,0.096009895,0.06360212,0.05508746,0.02543008,0.07513788,-0.07685031,-0.02425362,-0.0024027403,-0.09909591,-0.015990814,-0.06212477,-0.060146455,-0.08366894,-0.14370489,0.046079095,0.023726972,-0.015867451,0.059926067,0.013325333,0.024445692,0.02118531,0.027286477,0.0057883332,0.045909368,0.09332343,0.02644412,-0.011865299,0.050364573,0.05387432,-0.057690535,-0.044951953,0.004041351,-0.0079127895,0.026721217,0.04616779,-0.0006391109,-0.013846945,-0.027080808,-0.0010389972,-0.07323537,-0.07753697,-0.018397722,-0.03511874,0.0052979984,0.008194203,-0.014249482,-0.03868777,0.04256806,-0.013791896,-0.049044855,-0.083537124,-0.105863735,-0.09438667,-0.035297338,-0.0481949,-0.054995548,-0.010720519,-0.0371023,-0.024435775,-0.050535064,0.015965218,0.040948268,0.02187598,0.059535123,0.07408438,0.020624124,0.054130767,0.04931404,0.008426943,0.030037077,0.025408883,0.07401428,0.092687465,0.043988038,0.07015499,0.08270939,0.05603644,0.002432199,-0.022106368,-0.026116489,0.04833457,0.089193724,0.032104243,0.06395986,0.11371117,0.043743026,-0.07717072,-0.063353054,-0.07614144,-0.020924924,0.014947925,-0.007624628,-0.012470751,0.024386792,0.023064014,-0.041822016,-0.020850284,0.029314658,-0.02206858,-0.010102373,0.016608328,-0.018981103,-0.038545582,0.0014570751,0.016893663,-0.022335932,-0.0070724026,0.0069431406,-0.045270346,0.008592463,-0.013401593,0.011178038,0.057618253,-0.018182464,0.012813769,0.004163215,-0.011823603,0.036999393,0.022719037,-0.016329324,0.07511396,0.014324748,-0.026157213,0.020033797,0.05699218,-0.035284784,0.008786832,0.046548348,-0.028078718,0.009255103,0.043819793,0.07618283,-0.02011924,0.034496903,0.047497407,-0.020149,-0.017140748,0.044738192,-0.030312039,-0.013683402,-0.05623077,0.042204745,0.015471961,-0.046975017,0.032615654,0.017635554,-0.030855823,0.0002942518,0.0013514499,-0.035485636,-0.021903882,0.009032713,-0.022780584,-0.013655127,0.009739884,0.008435137,0.017962394,0.035457194,-0.10879549,0.060774952,0.09759981,-0.13825054,0.033452176,0.13420518,-0.13102531,0.03505463,0.120167695,-0.043328967,-0.026438514,0.048463967,-0.051066376,-0.011918021,0.06425355,0.012081482,-0.026083618,0.0588362,0.022130929,-0.0067850025,-0.03239017,0.018884229,0.0006298321,-0.030741666,-0.024952874,0.009701696,0.036852203,-0.015893854,0.006313137,0.024710005,0.011539404,0.0039455146,-0.0013186585,0.018705353,0.029369315,-0.026376292,-0.02860825,-0.0072317063,-0.020288479,-0.016414346,-0.00699562,-0.033327173,-0.003916191,0.011653664,-0.01025996,0.024037497,-0.061300255,-0.06909222,0.1162587,-0.039836004,-0.070623636,0.09550335,-0.029912138,-0.037465174,0.07112469,0.07756222,-0.020591442,0.1188068,0.044727758,-0.042831708,0.0766637,0.04385981,-0.02837823,0.01513996,-0.088071115,0.0013012947,0.08227023,-0.09426401,-0.021587491,0.054830387,-0.06650827,-0.049017098,-0.011239622,-0.039922632,0.04283418,0.017815338,-0.037788894,0.048659995,0.009857242,-0.058791626,0.02666739,0.06461478,0.052158095,0.016756045,0.081525765,0.10914858,0.064076364,0.046267245,0.06938927,0.040283184,0.033212677,0.027832203,0.005203532,0.057101186,-0.0075118714,0.05416375,0.008030276,0.044824306,0.026955422,-0.010573148,-0.03473642,-0.040544357,-0.03851245,-0.043098025,-0.051006615,-0.023799496,-0.020114653,-0.03596401,-0.020556837,0.0073532676,0.037882857,-0.024532665,-0.0124964705,0.032025848,0.015186798,0.022873156,0.01599508,-0.062698506,0.01211653,0.06662779,-0.004178242,0.00521325,0.07650475,0.046157137,0.022059184,0.042374965,0.03259367,0.016767781,-0.0076998197,0.03458603,0.028393758,0.021937363,0.036955774,0.0097430395,0.01498093,0.027667409,0.03358627,-0.017898124,-0.023036603,-0.0065187817,-0.014039322,-0.028154096,-0.04028411,-0.021533739,-0.06508146,-0.0857288,-0.007546878,-0.12573303,-0.16880691,-0.11595697,-0.07272638,-0.1463557,-0.12960745,-0.051733498,-0.03952338,0.008478052,-0.049582176,-0.081371255,-0.07546959,-0.0046751783,-0.038553093,-0.09262663,0.03118163,0.033648286,0.0015086622,0.06589652,0.007639022,0.0097685745,-0.019623967,-8.4065075e-05,0.0017813498,-0.005087818,-0.0022186218,-0.026843622,0.009522109,0.010161101,0.002228102,0.008916925,0.022532241,0.0067154574,0.0779839,0.07806636,0.052700233,0.020101348,0.03973839,0.02923251,0.018217241,0.04471992,0.0020082819,0.055677045,0.02317647,0.011293196,0.10075849,0.07024321,0.086544216,0.09065574,0.07726891,0.09674693,0.0046442016,-0.00043040558,0.010099833,0.03663998,0.025391826,0.021195777,0.025107967,0.01816593,0.013153946,-0.014522793,-0.0351311,-0.029120944,-0.022831334,-0.047160786,-0.02406302,-0.0058423458,-0.024084821,-0.020162957,-0.084188394,-0.07531173,-0.046297446,-0.0017450012,-0.040610243,-0.097498894,0.051180687,0.021008298,-0.050300706,-0.0041135107,-0.036824457,-0.027725963,0.000113742746,-0.0145256035,-0.040723816,0.010716771,-0.0041282657,-0.027497882,-0.022417778,0.014220268,0.0022368417,0.043484367,0.0050737155,0.0076848674,0.093108974,0.05127494,-0.04579417,-0.001863685,0.017491497,0.03113284,-0.016664337,0.01750825,0.022235615,-0.025754517,-0.035794858,-0.021360822,-0.021622892,0.0034963908,0.0067465887,-0.0026257986,-0.023964666,-0.021616047,0.007068477,0.0026043935,-0.011014815,-0.038325243,0.012491015,-0.0014592726,-0.0535955,-0.023815865,-0.03411615,0.0010165758,-0.005206068,-0.02035183,-0.06885216,-0.07046243,-0.055621132,-0.06815181,-0.096571624,-0.131513,-0.028366208,-0.077056535,-0.096852005,-0.036293615,-0.040486265,-0.037065312,-0.029191483,-0.04737435,-0.061182536,0.018234748,0.011481521,-0.028485488,-0.020395534,0.020777425,0.032611173,-0.017346308,0.02463317,0.05000285,-0.053657424,-0.019123575,0.028894842,-0.00078592316,0.03901543,0.0011335427,0.004112628,0.025453229,-0.0028739965,0.039676998,0.002942952,-0.0015339658,0.00077585154,0.013310186,0.019222675,-0.025648061,0.0035647429,-0.00048376812,-0.038050555,-0.0776324,-0.03233545,0.02438576,-0.010403463,-0.002864093,-0.012162136,0.0015157005,-0.009743851,-0.0033842872,-0.015561051,-0.007833305,0.044511877,0.013956257,0.034171406,0.07882896,0.07153664,0.10838556,0.07237801,0.07417205,0.111754,-0.01400613,-0.042878475,-0.03206682,0.005172614,-0.019755587,0.0017073352,-0.03622669,-0.047377553,-0.023547217,-0.03104182,-0.031173363,-0.012016216,0.00400138,0.024798073,0.009618688,0.049444553,0.07900485,0.05063692,0.023079688,0.03594959,-0.00055810274,-0.010612919,0.004608543,0.024962418,-0.0034708586,0.018451825,0.026206478,-0.022138765,-0.031845734,0.001886693,-0.039073896,-0.061696228,-0.029250331,-0.033562966,-0.04283137,-0.036879215,-0.044287644,-0.02775597,-0.0011235661,-0.06256244,-0.060218792,-0.017890036,-0.047585495,-0.020647515,0.016288497,-0.096600756,-0.10534263,0.03162543,-0.11707543,-0.034024123,0.012041869,0.0025350736,0.06349497,0.043731622,0.06836772,0.044347204,0.034139607,0.0321719,0.012957232,-0.009913621,-0.0071074935,-0.04723492,-0.07105715,0.07560851,0.0025970903,-0.021037018,0.041692212,-0.037172936,-0.030577747,0.048466057,-0.043697044,-0.040078748,-0.010861002,-0.006270125,-0.010764045,0.009029797,-0.0027538424,-0.034884427,0.009882979,-0.047565736,-0.108691074,0.038625475,0.013340381,-0.011384775,0.03301196,-0.025560737,-0.048507955,-0.048356738,-0.09137597,-0.07739232,-0.009566698,-0.014425669,-0.050737776,0.027554823,0.035880413,-0.022352071,0.013138985,0.012635304,-0.059414975,-0.023604061,-0.020463113,-0.011714051,0.006997423,-0.044142805,-0.0453415,-0.02099424,-0.048457094,-0.04181387,0.07550807,0.06791563,0.009556913,0.06638551,0.040303044,0.030368015,0.02534695,0.051980287,0.07759261,0.024941899,0.07591675,0.09809241,0.026576368,0.05013389,0.045362234,0.03349334,-0.032538887,-0.036016468,0.01668763,0.026336022,0.023180034,-0.018789973,0.007667866,0.008762926,-0.017724603,-0.039091345,-0.0064477907,-0.07047745,-0.10265342,-0.06810937,-0.05990489,-0.091957375,-0.009122879,-0.073556565,-0.068092525,0.04463852,-0.039694294,0.008434659,0.033034418,-0.028082395,0.022809861,0.041026194,-0.046346173,0.007020121,0.01712155,0.03798455,-0.009855653,0.011410026,0.036362268,0.023020828,0.03865519,0.031107824,0.066666715,0.025807636,-0.048089214,-0.05537979,-0.026748642,-0.06927164,-0.059686583,-0.03224868,-0.054918922,-0.028524816,0.0222788,-0.038027592,-0.044127464,-0.0022225769,-0.030923618,-0.02092207,-0.005550166,-0.011155893,-0.006305675,0.009033327,-0.0,0.0,0.0,0.0,-0.0,0.0,-0.0,-0.0,0.0,-0.0,-0.0,-0.0,-0.0,-0.0,-0.0,-0.0,-0.0,-0.0,-0.0,-0.0,-0.0,-0.0,0.0,0.0,-0.0,0.0,-0.0,-0.0,0.0,0.0,-0.0,0.0,0.0,-0.0,-0.0,-0.0,-0.0,-0.0,-0.0,-0.0,-0.0,-0.0,-0.0,0.0,0.0,-0.0,-0.0,-0.0,0.0,0.0,-0.0,-0.0,-0.0,-0.0,-0.0,-0.0,0.0,0.0,0.0,0.0,0.0,0.0,0.0,-0.0,-0.0,-0.0,-0.0,0.0,0.0,-0.0,0.0,-0.0,-0.0,-0.0,-0.0,-0.0,-0.0,0.0,-0.0,0.0,0.0,-0.0,0.0,-0.0,-0.0,0.0,0.0,-0.0,-0.0,0.0,-0.0,0.0,-0.0,0.0,-0.0,0.0,0.0,-0.0,-0.0,0.0,0.0,-0.0,0.0,0.0,0.0,-0.0,-0.0,0.0,0.0,-0.0,-0.0,-0.0,0.0,0.0,0.0,0.0,0.0,0.0,-0.0,0.0,0.0,-0.0,0.0,0.0,-0.0,-0.0,-0.0,-0.0,-0.0,0.0,0.0,0.0,0.0,0.0,-0.0,0.0,0.0,0.0,0.0,0.0,0.0,0.0,0.0,-0.0,-0.01569316,-0.014716313,0.0009767469,-0.0038587274,0.0026339672,0.022350352,0.0019334847,0.0144882705,0.01678598,0.0025732224,-0.029424075,-0.071887024,0.019638224,-0.0025007997,-0.114954956,0.07510443,0.03198101,-0.051648334,-0.01962759,-0.012964631,-0.009828691,-0.029945618,-0.018668575,-0.010804852,-0.00919891,-0.044253975,-0.044493712,0.019697377,0.020706737,0.013505522,-0.053517792,-0.021053089,-0.03634804,-0.05946205,-0.05495803,-0.042239588,0.04526443,0.059256975,0.043459855,-0.031485,0.005569278,-0.0055573317,-0.07557737,-0.055664297,-0.0003828304,-0.03374265,-0.017917542,-0.025134876,-0.029689256,-0.02285294,-0.048112575,-0.009189392,-0.0067971377,0.00020993972,-0.0038468207,-0.009643036,-0.0067707337,-0.0434203,-0.020257654,-0.02738622,-0.025051966,-0.03059816,-0.004645957,-0.02207223,0.009493287,0.03522512,0.014222114,0.017596686,0.016818235,0.06282561,0.08368702,0.026147654,-0.02363616,-0.08960392,-0.113926046,-0.0768716,-0.13725743,-0.1058375,-0.012951169,-0.03587906,-0.033504754,-0.014645704,-0.014734195,0.0027676115,-0.008090199,-0.0172481,-0.036181137,0.020666083,-0.030234253,-0.05818643,0.0043062386,-0.018291049,-0.0106229475,0.015109294,-0.02382321,-0.009903275,0.017850634,-0.009783051,0.011124896,-0.059954084,-0.052759826,-0.0519361,-0.057428144,-0.030566406,-0.04639547,-0.011170101,-0.021415694,-0.021499082,-0.010494769,-0.0055861496,0.0111212535,0.0019736171,-0.008947757,0.05905826,0.00775434,0.005477538,0.031228695,0.006307705,0.024281267,0.034625392,0.013295529,0.029492376,0.03885564,0.0148017425,0.05231511,0.03498881,-0.017782215,-0.02187826,0.0010017324,-0.023083812,0.0036378605,-0.015193533,-0.0060699377,0.007226905,-0.0041765897,-0.01910548,-0.022201473,-0.024697198,-0.04388405,-0.016674006,-0.025685051,-0.047863025,-0.029628944,-0.03435106,0.0,0.0,0.0,0.0,0.0,0.0,0.0,0.0,-0.0,0.0,-0.0,-0.0,0.0,-0.0,-0.0,0.0,-0.0,0.0,-0.0,-0.0,-0.0,-0.0,-0.0,-0.0,0.0,-0.0,-0.0,0.0,-0.0,-0.0,-0.0,-0.0,-0.0,-0.0,-0.0,-0.0,0.0,-0.0,0.0,0.0,-0.0,-0.0,0.0,0.0,-0.0,0.0,0.0,0.0,0.0,0.0,0.0,0.0,0.0,-0.0,0.0,0.0,0.0,-0.0,0.0,0.0,0.0,0.0,0.0,0.0,-0.0,-0.0,0.0,0.0,0.0,0.0,0.0,0.0,-0.0,-0.0,0.0,0.0,0.0,0.0,-0.0,-0.0,0.0,-0.0,-0.0,-0.0,0.0,-0.0,-0.0,-0.0,-0.0,-0.0,0.0,-0.0,0.0,0.0,0.0,0.0,0.0,0.0,0.0,0.0,-0.0,0.0,0.0,0.0,0.0,0.0,-0.0,-0.0,0.0,0.0,0.0,-0.0,0.0,-0.0,-0.0,-0.0,0.0,0.0,-0.0,0.0,0.0,0.0,-0.0,0.0,-0.0,-0.0,-0.0,-0.0,-0.0,0.0,0.0,-0.0,0.0,0.0,0.0,0.0,0.0,0.0,-0.0,-0.0,0.0,-0.0,-0.0,0.0,0.0020485849,-0.0024996377,-0.024068596,0.027336221,-0.011141771,-0.025775868,-0.008608541,-0.017948193,0.008717365,-0.023363976,-0.06570491,-0.101760454,-0.03751493,-0.0035714118,-0.11569364,-0.06135897,-0.12151249,-0.10691406,-0.065410696,-0.10173355,-0.062332157,-0.06818562,-0.058184713,-0.03197923,-0.028047241,-0.0058192215,0.01595532,0.0067465194,-0.007444626,0.010479066,-0.0071541867,-0.005032472,0.030126913,0.008473173,0.013822561,0.05741258,-0.034629565,-0.02922605,-0.0032038852,-0.038836237,-0.019944094,0.029631969,-0.0017543328,0.038636897,0.060793005,0.020578338,-0.016750567,-0.054644357,-0.0036146156,-0.020740854,-0.020102216,-0.026903851,0.025458982,0.02195777,0.011805335,0.004331031,0.008562088,0.044323277,0.018141322,-0.00053393154,0.025078118,0.009366919,-0.057054505,0.003213312,-0.008920173,-0.03597893,0.0005825978,0.008775129,-0.02099273,-0.0057350732,-0.027743228,0.004187143,0.031028109,0.010771069,-0.026307082,0.032906037,0.011391096,-0.05630589,-0.03142574,-0.005774318,-0.057961076,0.02093986,0.01793171,-0.0004742748,-0.00053614005,0.027051333,-0.030990364,-0.0124729145,-0.013794844,-0.033267025,0.018608458,0.063550025,0.017201815,0.03541965,0.012714829,-0.008653086,-0.013983581,-0.05062939,-0.053009078,0.031525455,0.030284654,0.023003312,0.009413385,-0.00066868373,-0.0077296803,-0.010622006,0.0028919834,-0.009106373,-0.011086478,0.05013734,0.018877901,0.055709917,0.07121729,0.05241862,0.08633201,0.061723314,0.019457141,-0.06363812,-0.035287168,-0.007832084,-0.04263298,-0.057045348,-0.05267608,-0.0024384004,-0.025379257,-0.027574228,0.029421201,0.02443048,0.011158652,0.043680742,-0.00020638583,-0.016940767,0.027289586,-0.034059625,-0.0045259274,-0.019736106,0.012412141,-0.010808404,0.034675825,0.03264696,-0.00030157302,0.09057363,0.04283716,-0.009758489,0.0044897906,0.022259798,0.01551928,0.058238015,0.070591,0.044328906,0.03421237,0.041130137,0.0292066,-0.002370669,-0.04482693,-0.06394416,-0.09552706,-0.04444945,-0.07604942,-0.12765138,-0.10358992,-0.009888925,-0.018230204,0.03446669,0.041331295,0.024360886,0.020234156,0.03786969,0.012761301,0.021879464,0.07292901,0.070894554,0.018208407,-0.018182244,0.043041047,-0.0255864,-0.0632734,-0.006969231,-0.046832833,-0.04193566,0.0016590031,0.03208239,0.0102629075,0.16583367,0.06672338,0.027146533,0.11217337,0.002900491,-0.06460121,-0.011012128,0.009613615,0.045610588,0.011854675,-0.043123197,-0.007631817,-0.017073182,-0.029034156,0.0033231033,-0.103485756,0.014478918,0.08455004,-0.027540118,-0.01011438,0.010725012,0.053370487,0.031617153,0.005843946,-0.015515875,-0.014927283,-0.046195798,-0.0058999234,0.011496478,0.0024675552,0.0014931338,0.003008763,-0.0205127,-0.024630079,-0.07161495,-0.045042176,-0.033011142,-0.04763797,-0.0049492437,-0.0026448914,0.013879282,0.013108505,-0.0011678397,-0.04327904,-0.08116715,-0.02205385,-0.05384449,-0.10874077,-0.09037329,-0.10174702,-0.046539277,0.007032677,0.0027501595,0.03461959,0.055679094,0.048692707,0.10753563,0.0384377,0.0710869,0.051633667,-0.012601013,0.0144078545,0.08314976,0.034174845,0.04797955,0.11178291,0.07334192,0.0813789,0.10289945,0.015130315,-0.0024277703,0.018436687,-0.008381107,0.012252575,0.05747663,-0.024663031,0.05389152,0.03823057,0.045161307,0.01383198,-0.009062067,-0.0085801855,-0.008263674,-0.012082048,-0.040498193,-0.042791314,-0.009753974,1.0101328e-05,-0.0381474,-0.028768705,-0.04890344,-0.0526263,0.0072677555,-0.051362574,-0.017174216,0.052356847,-0.06914243,-0.037586514,-0.090052724,-0.029823523,0.026150284,-0.01208502,-0.017285107,0.047258865,0.012976545,-0.0060940664,-0.011027997,0.006225759,-0.031078903,-0.04473559,-0.013152998,-0.040286582,-0.07093171,-0.014261315,-0.069179386,-0.20461416,-0.034306925,-0.11074213,-0.08995764,0.09011834,-0.03577886,0.10860304,0.18721308,0.03372236,0.021090442,-0.04715085,0.036345504,-0.015060838,-0.013213545,0.04566032,0.009086115,-0.020989835,0.010981624,-0.026517587,-0.038789827,0.005860335,-0.030062435,-0.028952891,-0.010993376,-0.029897317,-0.016546382,0.05034079,0.04685995,0.07433454,-0.024245212,0.00036927222,-0.0006023037,-0.04667758,-0.054128483,-0.070183314,-0.011760761,-0.03387457,0.02132834,-0.071103424,-0.038458265,0.037086297,-0.056995824,0.033575524,0.10161493,-0.03380069,-0.041676525,-0.008016758,-0.029183194,-0.027728455,0.022997526,-0.028133547,-0.0033390368,0.06396499,0.07183281,0.08668933,0.0020420654,0.07909677,0.018771335,-0.062920906,-0.027038185,-0.05926104,-0.06829132,-0.052483767,-0.05770331,0.10863811,-0.10942455,-0.019047141,0.13553062,-0.11911581,0.009421486,0.0911281,-0.011034939,-0.05054363,-0.0033857292,-0.0041362857,-0.010923504,0.0040015844,0.039484926,0.032858398,0.045954213,0.010018139,-0.0075756726,-0.008781652,0.027884845,0.0030426825,-2.3929002e-05,0.03523053,0.002006903,0.003260116,0.007493463,0.033416692,0.03856769,-0.03050528,-0.008489128,0.042075332,-0.059814386,-0.011011535,0.028017186,0.06601498,0.05300036,0.015166529,0.035088234,-0.0016886154,-0.019615682,0.038374268,0.004885608,-0.04548535,0.021630105,-0.00028486815,0.025047168,-0.012619406,0.01036452,0.069192894,0.0042884825,0.065646365,0.04091147,-0.024567293,-0.021527788,-0.033522297,-0.017026335,-0.013357645,0.039796215,0.00078130985,0.024443954,0.059513044,-0.00024190292,0.021533554,0.0580929,0.010978638,0.025821911,0.01001844,-0.0032453437,0.022351304,-0.010934328,0.019388892,-0.0130025875,-0.035361413,0.011004112,-0.04371616,-0.064803764,0.031093577,-0.015014399,-0.011188667,0.110131845,0.018304316,-0.046792403,0.053415373,-0.055246606,-0.05166546,0.03819373,-0.049237788,-0.026774995,0.019671734,-0.0021193565,0.01429054,0.0038634106,-0.015207775,0.07688555,0.014379103,-0.014629593,0.048072726,0.033589248,-0.015717918,0.029279087,0.043494627,-0.042711813,-0.005541744,0.04591659,-0.043833554,-0.03379779,0.08512235,0.056214426,-0.050227728,0.06409128,0.08919455,-0.072745,0.0050106538,0.013362802,-0.10995288,-0.10963688,-0.038188465,0.08487063,-0.055224095,-0.008366931,0.11588197,-0.048905242,-0.01435285,0.03834608,-0.0039620525,-0.032150596,0.022767413,-0.026686158,0.0014147916,0.026002016,0.015082432,0.031442083,0.02947964,-0.00863354,-0.08592567,0.058195293,-0.034003694,-0.117479146,0.12123449,-0.0120192915,-0.12294512,0.10690685,0.036076922,0.025136901,-0.021771962,-0.014743497,0.0073488127,-0.026272846,-0.042423148,0.012999094,0.034132876,-0.00632081,0.0018250038,-0.003918134,-0.023498038,0.0034087924,0.015820138,-0.024338383,-0.028795408,-0.0045875306,-0.017927885,-0.052455235,0.0040226774,-0.034683313,-0.07039568,0.011205525,-0.06828955,-0.027319483,-0.0125960745,-0.06759821,-0.06353386,-0.0042256573,-0.052836575,-0.058472686,0.051674895,-0.053548414,-0.011537663,0.10988324,-0.035864685,0.050499797,-0.033098597,0.030770283,0.07950864,-0.051611703,0.03422604,0.10631064,-0.12198081,-0.056805022,0.056481183,0.06660485,-0.027058348,0.10637731,0.0740159,-0.02130844,0.09602475,0.069768436,0.058547277,0.04967251,-0.05228527,0.10727561,0.006785343,-0.112052985,0.06730451,0.029057577,-0.06522533,0.04196533,-0.018046528,-0.07791264,0.060991477,-0.025294797,-0.054152507,0.09214744,-0.03899405,-0.02354845,-0.02900494,-0.04548437,-0.04708302,-0.023308521,-0.06872381,-0.048053764,0.008772508,-0.029750045,-0.028020976,0.010334821,-0.030793564,-0.041017335,0.12361549,0.03286996,-0.010390292,0.060624916,0.11914645,0.050513703,0.01822743,0.0550143,0.07389617,0.009137638,0.012205858,0.026670502,-0.0059717977,-0.016835159,-0.019177245,0.0012776493,0.0036587878,0.0072627855,-0.050460324,-0.03534726,-0.067779474,-0.08066145,-0.08061331,-0.08192423,0.043041494,0.052361723,0.06608637,0.092986286,0.02095991,0.0650538,0.08062688,0.0036187295,-0.022201471,-0.017405102,0.003389417,0.006363139,-0.024831735,-0.00038648827,0.009079792,-0.04014028,-0.03858947,-0.048274014,0.024834061,0.014258219,-0.042605966,-0.019352619,0.036061674,0.022492945,-0.0540412,0.0007465104,0.027618758,0.027868837,-0.005742404,-0.014454338,0.064730436,0.04846448,0.011849086,0.006442818,0.037482448,0.010299207,0.057504274,0.026637414,0.014318481,0.09496213,0.011004724,-0.02245122,0.056467377,-0.01586262,-0.055038854,0.04082741,-0.011278501,-0.030289948,0.118254736,0.07853262,0.029589312,0.08333411,0.11432336,0.043543864,-0.019801,-0.030443206,-0.033419535,0.0007135572,-0.037566394,-0.03850233,0.008469384,-0.004786585,-0.0072383475,-0.018792775,-0.010349587,-0.017454239,0.017814234,-0.0011631418,-0.009100857,0.064603865,0.02657947,0.01097011,-0.0020751292,-0.044122,-0.0509303,0.04323122,-0.00445493,-0.007096618,0.055254176,0.04774797,0.06336826,0.007070898,0.03499119,0.06761772,0.014275673,0.028538823,0.043849614,0.018791106,4.660823e-05,-0.0052824155,0.0027010832,0.01118788,-0.023739638,0.009109226,0.0042841015,-0.020764153,0.022842148,0.00021809482,-0.006233172,-0.004788921,-0.034255244,-0.025001168,0.026460864,-0.0058915312,-0.019874724,0.053040918,0.04710675,0.045319095,0.028911076,0.018680595,-0.016624281,-0.017395496,-0.031238146,-0.0082669705,-0.015621822,-0.018950995,0.011026251,0.0056805555,-0.009248361,-0.0150900055,0.009600126,-0.044789843,-0.035175756,-0.00049668236,-0.057538718,-0.066967115,0.03589322,0.08609433,0.072224505,0.07809749,0.070531435,0.044088863,0.08847154,0.08204242,0.01313112,0.034231614,0.05082391,0.02582866,0.036647774,0.054594,0.049964044,-0.0007814883,0.03184568,0.018611064,-0.015379811,-0.010627323,-0.06712064,-0.023026878,0.015968017,-0.026952753,0.008781678,0.051409233,0.015973257,0.0228267,0.02966361,0.042767245,0.024222191,-0.008269517,-0.0012939764,0.0019928305,0.008134177,-0.020012964,0.03021855,0.024497684,0.03151342,0.0826208,0.073190354,0.048068866,0.11675794,0.14464512,0.14278747,0.034146994,0.031699132,0.0028860494,0.03534197,0.026071243,0.0145069575,0.100229114,0.07059607,0.021603435,-0.023202935,-0.035191722,-0.020821344,0.010239262,-0.029074926,-0.05228675,0.031629354,-0.017190075,-0.0479993,-0.011176869,-0.055216808,0.01467071,-0.020918386,-0.004452252,0.036891032,0.0036933918,-0.0038514424,0.035209917,0.05687207,0.0055567618,-0.0052185683,0.020656265,-0.026917594,-0.015323808,0.010281795,-0.03996465,0.006528608,-0.014258722,-0.024745567,-0.050688423,-0.040518362,-0.023526054,-0.008300659,-0.02830177,4.9432492e-05,0.012946332,0.038835235,0.029053092,0.08590639,0.018919216,0.017370444,0.087470174,0.023149729,0.01829944,0.043018203,0.04766579,0.06033079,0.053031795,0.063047804,0.07245904,0.056855723,0.0031672723,0.0037585122,-0.033664614,-0.036689904,-0.0038953354,0.0137588,-0.0039408435,-0.02218011,-0.009753825,-0.0061841244,-0.058111172,-0.06471091,0.060981173,0.04336148,0.006312953,0.073942654,0.013269735,-0.026673429,0.030883772,-0.047404677,-0.0494508,0.0,-0.0,0.0,0.0,-0.0,-0.0,-0.0,-0.0,-0.0,-0.0,-0.0,-0.0,0.0,0.0,0.0,0.0,0.0,0.0,-0.0,-0.0,-0.0,-0.0,-0.0,0.0,-0.0,-0.0,-0.0,0.0,0.0,0.0,0.0,0.0,0.0,-0.0,-0.0,0.0,0.0,0.0,0.0,0.0,0.0,0.0,0.0,0.0,0.0,0.0,-0.0,0.0,-0.0,-0.0,0.0,0.0,-0.0,0.0,0.0,0.0,-0.0,0.0,0.0,0.0,-0.0,0.0,0.0,-0.0,-0.0,-0.0,-0.0,-0.0,-0.0,-0.0,-0.0,-0.0,0.0,0.0,0.0,0.0,0.0,0.0,-0.0,0.0,0.0,-0.0,-0.0,-0.0,-0.0,-0.0,-0.0,-0.0,0.0,0.0,-0.0,0.0,-0.0,0.0,0.0,0.0,-0.0,0.0,0.0,0.0,-0.0,-0.0,0.0,-0.0,0.0,0.0,0.0,0.0,-0.0,-0.0,-0.0,-0.0,-0.0,0.0,0.0,-0.0,0.0,-0.0,-0.0,-0.0,0.0,0.0,0.0,0.0,-0.0,0.0,0.0,0.0,0.0,0.0,0.0,0.0,0.0,0.0,0.0,0.0,0.0,0.0,0.0,0.0,0.0,0.0,0.0,0.0
