0.0,0.0,-0.0,-0.0,-0.0,-0.0,0.0,0.0,-0.0,-0.0,0.0,0.0,-0.0,-0.0,0.0,-0.0,-0.0,0.0,-0.0,0.0,-0.0,-0.0,-0.0,0.0,0.0,0.0,-0.0,-0.0,-0.0,0.0,-0.0,0.0,-0.0,-0.0,-0.0,-0.0,0.0,0.0,-0.0,-0.0,0.0,-0.0,-0.0,-0.0,-0.0,0.0,0.0,0.0,-0.0,0.0,-0.0,-0.0,0.0,0.0,-0.0,-0.0,0.0,-0.0,-0.0,-0.0,0.0,0.0,-0.0,-0.0,-0.0,0.0,-0.0,0.0,0.0,0.0,0.0,0.0,-0.0,-0.0,0.0,-0.0,-0.0,0.0,-0.0,-0.0,-0.0,0.0,-0.0,0.0,-0.0,-0.0,-0.0,0.0,0.0,0.0,-0.0,-0.0,-0.0,0.0,0.0,-0.0,0.0,0.0,0.0,-0.0,0.0,-0.0,0.0,-0.0,0.0,0.0,-0.0,-0.0,-0.0,-0.0,-0.0,-0.0,-0.0,0.0,0.0,0.0,0.0,-0.0,0.0,0.0,-0.0,-0.0,-0.0,-0.0,0.0,0.0,-0.0,-0.0,-0.0,-0.0,-0.0,-0.0,0.0,0.0,-0.0,0.0,-0.0,-0.0,0.0,-0.0,0.0,0.0,0.0,-0.0,-0.0,-0.0,0.0,-0.0,-0.0,0.0,0.0,-0.0,0.0,0.0,0.0,-0.0,0.0,0.0,0.0,0.0,-0.0,-0.0,0.0,-0.0,0.0,0.0,0.0,0.0,-0.0,0.0,-0.0,-0.0,0.0,-0.0,0.0,-0.0,0.0,0.0,0.0,-0.0,-0.0,-0.0,-0.0,-0.0,-0.0,-0.0,0.0,0.0,-0.0,-0.0,-0.0,-0.0,-0.0,-0.0,0.0,-0.0,-0.0,-0.0,-0.0,-0.0,0.0,0.0,-0.0,-0.0,0.0,0.0,0.0,0.0,0.0,-0.0,-0.0,0.0,0.0,0.0,-0.0,-0.0,-0.0,0.0,0.0,-0.0,0.0,-0.0,-0.0,-0.0,0.0,-0.0,-0.0,0.0,-0.0,0.0,0.0,-0.0,0.0,0.0,-0.0,-0.0,-0.0,-0.0,-0.0,-0.0,-0.0,-0.0,-0.0,-0.0,-0.0,0.0,-0.0,-0.0,-0.0,-0.0,0.0,-0.0,0.0,-0.0,-0.0,0.0,-0.0,-0.0,-0.0,-0.0,-0.0,0.0,0.0,0.0,-0.0,-0.0,-0.0,0.0,0.0,-0.0,0.0,-0.0,0.0,0.0,0.0,-0.0,-0.0,-0.0,-0.0,-0.0,-0.0,-0.0,-0.0,0.0,0.0,0.0,0.0,0.0,0.0,0.0,0.0,-0.0,-0.0,-0.0,-0.0,0.0,-0.0,-0.0,-0.0,0.0,-0.0,0.0,-0.0,0.0,-0.0,-0.0,-0.0,-0.0,-0.0,0.0,0.0,0.0,-0.0,-0.0,-0.0,-0.0,-0.0,0.0,-0.0,-0.0,0.0,-0.0,0.0,-0.0,0.0,-0.0,-0.0,0.0,0.0,0.0,0.0,-0.0,-0.0,-0.0,0.0,-0.0,0.0,0.0,0.0,0.0,-0.0,-0.0,0.0,0.0,-0.0,0.0,-0.0,0.0,-0.0,0.0,0.0,-0.0,0.0,0.0,-0.0,0.0,0.0,-0.0,0.0,-0.0,-0.0,-0.0,0.0,0.0,0.0,-0.0,-0.0,0.0,-0.0,-0.0,0.0,0.0,0.0,-0.0,0.0,0.0,-0.0,-0.0,-0.0,0.0,-0.0,-0.0,-0.0,0.0,-0.0,-0.0,0.0,0.0,-0.0,-0.0,-0.0,-0.0,-0.0,-0.0,-0.0,-0.0,-0.0,0.0,-0.0,0.0,0.0,-0.0,0.0,-0.0,-0.0,0.0,0.0,0.0,0.0,0.0,0.0,0.0,-0.0,0.0,-0.0,-0.0,0.0,-0.0,0.0,0.0,-0.0,-0.0,0.0,-0.0,0.0,0.0,0.0,0.0,-0.0,-0.0,0.0,0.0,0.0,0.0,-0.0,0.0,0.0,0.0,-0.0,-0.0,0.0,0.0,0.0,0.0,0.0,-0.0,0.0,-0.0,0.0,0.0,-0.0,-0.0,-0.0,-0.0,-0.0,-0.0,0.0,0.0,-0.0,-0.0,-0.0,0.0,0.0,0.0,-0.0,-0.0,-0.0,-0.0,0.0,-0.0,0.0,0.0,-0.0,0.0,-0.0,-0.0,0.0,-0.0,0.0,-0.0,-0.0,0.0,0.0,-0.0,0.0,0.0,0.0,0.0,-0.0,-0.0,-0.0,0.0,-0.0,-0.0,0.0,0.0,0.0,0.0,-0.0,0.0,-0.0,0.0,0.0,0.0,0.0,0.0,-0.0,0.0,0.0,0.0,-0.0,-0.0,-0.0,0.0,0.0,0.0,0.0,0.0,0.0,0.0,0.0,-0.0,0.0,0.0,0.0,0.0,0.0,0.0,0.0,0.0,0.0,-0.0,0.0,-0.0,0.0,-0.0,0.0,-0.0,-0.0,0.0,-0.0,0.0,0.0,0.0,0.0,-0.0,0.0,0.0,-0.0,-0.0,-0.0,0.0,0.0,-0.0,0.0,0.0,0.0,0.0,0.0,-0.0,-0.0,0.0,-0.0,-0.0,-0.0,0.0,0.0,0.0,-0.0,0.0,0.0,0.0,0.0,0.0,0.0,-0.0,-2.35857e-40,-1.286329e-39,1.198418e-39,2.6173e-41,4.04268e-40,-5.89147e-40,1.2805e-40,-1.6076475e-38,-2.1496039e-38,0.021216376,-0.01928144,0.018229356,-0.0067537404,-0.08529405,-0.011531982,0.02497571,-0.014419587,-0.026023975,-0.027281176,0.02659553,-0.034031384,0.025561374,0.06218634,-0.025424963,0.042689476,0.030302817,-0.010699522,0.014556712,0.04121706,-0.012329871,-0.02288018,0.0059870007,-0.07204035,-0.008376426,-0.04361062,-0.0074505946,-0.037506092,0.013970616,-0.0144352475,0.10189362,0.06310825,0.042735446,-0.034282938,-0.060332548,0.01161455,-0.04097068,-0.04981686,-0.010730181,-0.0075780335,0.009850886,-0.08126225,-0.02178398,0.040596653,-0.075076334,-0.013890721,0.057604276,-0.04556494,-0.047924083,0.04310327,-0.005654894,-0.02205581,-0.035441905,0.0012304767,-0.024131814,0.0010074598,-0.045551006,-0.00094301155,-0.02709682,-0.013494096,-0.048936754,-0.019897118,0.049557276,-0.079228014,-0.02782707,-0.052250158,0.013902246,-0.023809247,-0.03015876,0.048018817,-0.007069021,-0.044899788,-0.067653134,-0.010507626,-0.04601215,-0.061222505,-0.029383028,-0.036008086,-0.063974656,-0.020224147,-0.0030236056,-0.009192413,-0.001124937,0.031164361,-0.0636988,-0.05745684,-0.02170733,0.0020231106,-0.03558669,0.049494606,-1.241417e-39,-7.03376e-40,1.92943e-40,5.07875e-40,9.02206e-40,6.56407e-40,3.58224e-40,2.0578188e-38,-9.1507e-40,0.011197014,-0.0004732271,0.014217835,0.018765353,-0.0028130617,-0.0074993237,0.10491058,0.045505572,-0.04603984,-0.034567453,-0.037168857,-0.017298,0.016382402,0.039073054,0.005194549,0.03006567,0.022789555,0.058907084,-0.11197597,-0.029243274,-0.088629104,-0.00037071784,-0.025582815,0.0066542267,0.047802,-0.01033251,-0.022899175,-0.034349054,-0.01545065,-0.032838993,-0.020815793,-0.049243055,-0.04180221,-0.017675979,0.009497141,0.04133153,-0.0054482496,0.018853435,-0.024484849,0.004499269,0.049289398,-0.00065033324,0.027504938,0.0596825,0.021950392,0.017691376,-0.034231268,0.030676868,0.007914664,0.004278399,0.045276493,-0.04674223,-0.0027785227,-0.0023075608,-0.012013909,-0.020692883,-0.036747973,-0.04363459,-0.034518853,-0.003071518,0.0099613,0.023473542,0.019157855,-0.0077334335,-9.700198e-05,0.013471971,-0.04682104,-0.03394331,0.011554631,-0.027464302,-0.025956837,-0.0028874367,-0.04947873,-0.011804416,0.003119634,-0.047545005,0.00018714792,-0.01691704,-0.054832272,-0.0048051416,0.06451262,-0.026609382,0.043967426,-0.017884001,-5.223134e-05,-0.05295456,-0.06094801,0.009967439,-0.005430221,-0.056201432,-0.009541198,-0.039331168,-0.0025280626,0.028153125,0.02217579,0.039082322,-0.018747061,-0.012532084,0.053822435,-0.061809417,-0.07477665,-0.03799491,0.037969343,-0.052042346,0.005582137,-0.060263857,-0.06850343,-0.039567515,0.034271535,0.011515206,0.038677532,-0.027072748,0.07340342,0.013401763,0.025576986,0.010707871,0.01011064,0.059638064,0.009895428,0.073524594,-0.023487296,0.0068498803,0.11378388,0.040391102,0.085329205,0.0739943,-0.023595935,-0.034185562,0.014832612,0.07729709,-0.035131674,-0.060328525,0.024174549,-0.0005582429,-0.021747017,0.008521777,0.054751866,-0.05272432,0.058160238,0.04337764,-0.01424624,0.002748259,0.014524238,0.044131733,0.040246088,0.032667696,0.039610855,-0.03452426,-0.017596941,-0.00031419942,0.026870085,0.04114034,0.008079381,-0.04240723,0.015454894,0.0054576416,0.041783478,-0.06779068,-0.02285927,0.10347579,-0.04095509,0.052621342,0.016591564,-0.028201872,0.039536137,0.006059248,0.038149506,-0.041716207,0.011961117,-0.0036597908,-0.05358829,0.08343379,0.010412773,0.0109290965,0.08803336,-0.02276552,-0.012205541,0.0051463135,-0.019008243,0.045844536,-0.0017462025,0.027243696,0.015275254,-0.026022898,0.0057267053,0.002320318,-0.03511741,-0.04126855,0.033957575,0.0027030024,-0.033220123,-0.013702428,-0.0051510385,0.025637882,-0.017205752,0.037953164,0.05065955,0.013063351,0.055045046,0.094832204,0.02072368,0.03375006,0.11999211,-0.0028748924,-0.03242723,0.030888975,-0.016211076,0.011080719,0.0115078455,0.006707744,0.084444426,0.004221251,-0.006343712,0.12037441,0.11342056,0.015160141,0.021034615,0.08337334,-0.07433261,-0.055552155,0.008024299,-0.03861026,-0.023950737,-0.029406028,-0.046051186,-6.62835e-40,1.51079e-39,1.391324e-39,-4.98113e-40,1.531186e-39,1.9476841e-38,1.513182e-39,1.2563e-41,-3.50092e-40,-0.036148597,0.010985163,0.03048359,0.039399307,0.00963673,-0.041290138,0.066652216,0.033714224,-0.035798267,-0.0006915535,-0.0081387535,-0.035326086,-0.004583828,-0.043525565,-0.061430328,-0.0033046019,-0.043378487,-0.04039079,-0.0010005968,-0.09593591,-0.013454827,0.054324068,0.066819556,-0.024361521,-0.030955799,-0.028413843,-0.04841112,0.051954042,-0.0014350521,-0.007633552,0.002766283,0.047920223,-0.025590649,0.019544069,0.018051181,0.044039536,-0.060594577,-0.043885678,-0.007309476,-0.08113807,-0.04455361,-0.034785606,-0.050750125,0.012894415,0.04296467,0.037513595,0.04726364,0.033448275,0.012896921,-0.009887847,0.025874605,0.05235434,0.049481343,0.014578749,-0.08834451,-0.013690462,0.00048140233,-0.010296215,-0.022500215,-0.008008382,-0.038104083,-0.09817405,-0.07866988,0.021456216,0.061515298,0.008991858,-0.021034982,5.2496536e-05,-0.044190273,-0.010672839,0.01040149,-0.024638671,0.06030862,0.011773504,-0.0011768979,0.0076796534,0.013451089,-0.0006548586,-0.029323263,-0.04028798,0.025133155,-0.008818577,0.01204426,-0.026511475,-0.0050223423,0.03460756,0.028957576,-0.0017076647,0.008466309,0.008436955,-0.060071707,-0.030271806,-0.0147960875,0.0316232,0.055609338,-0.061730087,0.0029176811,0.021553617,-0.027204324,-0.059632692,-0.07155308,-0.010291835,-0.0026036815,0.009495361,0.03698395,0.030166145,0.06639537,0.041471556,-0.004948457,-0.0020895433,-0.046832517,0.0045115696,0.024919782,0.012628142,0.023779036,-0.0035307112,0.019965356,-0.071676575,-0.0058333063,0.0061468952,0.02189493,-0.036551576,-0.012531482,0.057117824,-0.028390057,0.012404754,-0.00960794,-0.08368058,0.038615648,-0.030484792,-0.022926642,0.004120098,0.028669467,0.021027306,-0.023362132,0.017216457,0.01450275,-0.051781766,-0.033140644,0.034305543,0.0216045,-0.008172573,-0.04444053,0.018142233,-0.010310574,0.024415063,-0.039039984,-0.011225338,0.0044075125,0.02414631,0.056372434,-0.0010661479,0.052805115,0.040167008,0.030313706,0.039776642,-0.004872728,0.009239953,-0.038058467,-0.06464976,-0.020144017,-0.036866937,0.019724147,-0.02085026,0.038830847,0.012846399,-0.0345906,-0.013895604,0.016160065,-0.0039771423,-0.0004519252,7.4481e-40,7.14529e-40,5.34039e-40,3.50138e-40,4.66096e-40,-1.095794e-39,-5.57818e-40,-3.1353e-40,9.96276e-40,-0.054593544,-0.035059325,0.03945057,-0.048537124,0.00087226176,-0.015069625,0.055260736,0.038104374,-0.049100682,0.0011952784,-0.029485617,0.059574064,-0.01618693,0.011666192,0.025106926,0.015659695,0.021541592,-0.022511322,0.06854919,0.090680994,0.035447527,-0.03360449,0.028147578,0.08907961,0.0018358558,0.0064770854,0.07022934,1.144114e-39,1.3216222e-38,-5.24505e-40,3.85944e-40,-2.02318e-40,1.00165e-40,-1.9341184e-38,-2.5277325e-38,-6.56584e-40,-0.028706122,-0.04560829,-0.030782402,-0.0427867,-0.007313268,0.0076137153,0.0043774345,-0.0067010717,0.087608635,-0.03356512,-0.057411894,-0.023391211,0.018757178,-0.026082274,-0.0049340967,0.02227966,-0.044708323,-0.019940777,1.074297e-39,-2.31635e-40,1.8836795e-38,6.39682e-40,-1.321074e-39,2.2073028e-38,-1.91024e-40,-1.655025e-39,-2.3997928e-38,0.00864766,-0.03982337,-0.007857111,-0.016623316,-0.015056993,0.045737628,-0.015502185,-0.04463527,-0.0019858042,-0.074441195,-0.057582475,0.04227837,-0.005661782,-0.040330093,0.0112968,0.014997097,0.015718745,0.0052884286,-0.052297406,-0.013987064,0.04330542,-0.025749585,-0.041600123,0.01191922,-0.009733316,-0.09030363,-0.05811702,-0.020454615,0.011443039,-0.0069754045,0.0245868,0.07229018,-0.007565899,0.043960247,0.11052949,0.0031755522,-0.035277523,0.009704167,-0.05567496,-0.0044809207,0.030837707,0.012442605,0.015990276,-0.03855084,0.033195958,-0.02028689,-0.0059463023,-8.327381e-05,0.022506814,0.0069856592,-0.035552397,-0.01717071,0.051495194,-0.013421883,0.11935556,0.033764407,-0.021035735,0.0371775,-0.017064843,-0.02109397,0.039298274,0.020465791,-0.028053915,-0.03410453,0.03701363,-0.009875478,-0.0043781656,0.04026387,-0.03035017,-0.04781119,0.00023583979,-0.034679975,-0.0068503753,-0.010083654,-0.004986006,-0.024959922,-0.044849522,0.011306708,-0.07754825,-0.04869578,-0.0436462,0.0013726638,0.09239055,0.057653975,-0.004486657,0.0004178902,-0.039047234,0.021452432,0.029869568,-0.054231603,1.10103e-39,1.322204e-39,1.2742e-39,1.6174063e-38,8.34716e-40,-8.60397e-40,1.859442e-38,3.35377e-40,-2.7602444e-38,0.045162413,0.06333226,0.027200114,-0.043694135,-0.019344004,0.010900405,-0.018237736,-0.0051127234,-0.034086693,0.071579926,0.045466498,0.0112549085,0.0173754,0.0033537524,0.0290495,0.014862123,0.004923633,0.05272427,0.039446477,-0.0771635,-0.09233579,0.0010030356,0.0116863735,0.042544715,0.009653654,0.021035727,-0.007579796,-0.04511457,-0.026042905,0.032081325,0.0014520319,0.012650888,-0.047136307,0.042001825,0.05336461,-0.01268067,-0.04358404,-0.0459201,0.019878594,-0.07816835,-0.06883453,0.041617345,-0.0771289,-0.029023796,-0.027385017,0.037182294,0.014829383,0.0085326135,-0.03798959,-0.024597522,-0.059373386,0.00465392,-0.017594676,-0.05048824,-0.0057213735,-0.04751436,0.0041676178,0.025229909,-0.0442037,0.012701667,0.014586682,-0.007340795,0.0055351425,-0.09103071,-0.08270771,0.037605345,-0.010505867,0.020209774,0.02023013,0.0014366929,-0.017194035,-0.070688374,-0.01810942,-0.02256148,-0.008310222,0.012163118,0.043234337,-0.021677982,0.09335483,0.14643393,0.026478807,0.010021663,0.068991795,0.014092285,-0.029776497,-0.020580674,-0.044463094,0.009886868,0.021651363,0.03275918,0.04092143,0.0074058995,-0.06983237,-0.028292453,-0.01012798,-0.0570925,-0.028455013,-0.021786314,0.003225509,0.06399158,0.007780306,0.041601375,-0.004798448,-0.023556352,-0.046382643,-0.03730805,-0.00890221,-0.01689656,-0.0190674,-0.055573866,-0.031876862,-0.006051967,-0.02385282,-0.009699298,-0.06952033,-0.02297799,-0.024123209,-0.024253137,-0.0137310205,-0.019839965,0.009988797,-0.015584196,0.008063253,0.010994961,-0.06123022,-0.024537584,0.056175172,-0.049991474,-0.011182004,-0.028979111,-0.024887603,-0.008639313,-0.07170899,-0.011005315,-0.0051959776,0.022595605,-0.016164573,0.005524028,-0.0070729735,-0.017908871,0.01590475,0.030908786,0.016618567,-0.02221349,-0.00797203,0.020323979,-0.0098054735,-0.03425228,-0.033921376,-0.036590237,-0.016770475,-0.02646255,-0.10098438,0.043456864,0.05022078,0.019866155,0.012287465,-0.00017759566,-0.03872594,-0.001250214,-0.002124761,-0.002307578,0.077371806,0.015949085,0.026296817,0.039705176,0.04791287,0.0071658385,0.023600673,0.019164195,0.019059595,0.026867108,-0.032924272,-0.04715569,0.0029220732,0.015582933,0.045435183,0.024977934,0.0058132336,0.019324744,0.0047275154,0.004992719,0.039962657,0.017038466,-0.0020695443,0.029712144,0.0269721,0.028914966,-0.047942612,0.047291525,0.024561498,0.07780739,0.04294333,-0.026673252,-0.003033496,0.0011543331,-0.033304505,-0.047859464,0.00071614515,-0.03157337,-0.044895414,0.027749399,-0.00011952024,0.0003274464,0.02216832,0.016650693,0.07592962,0.0077398587,-0.029990133,-0.019564746,-0.06521883,-0.036949214,-0.04208765,-0.07306264,0.018649947,-0.03062063,0.0016657772,0.008347287,-0.07874372,0.00043244188,0.012978999,-0.014423808,-0.01628935,-0.021268811,-0.0067698495,2.25008e-40,3.28188e-40,2.71577e-40,4.98836e-40,-6.85606e-40,1.303453e-39,-1.413603e-39,2.9153e-41,1.019471e-39,-0.049161732,0.030314779,0.040201925,-0.035567418,-0.003437856,0.006483601,-0.023465332,-0.029859027,-0.023650443,-0.005655046,-0.005882764,-0.021630498,-0.06342104,0.10411316,0.04009913,-0.06847334,0.016778613,0.004177504,0.008306815,-0.009248181,0.01347462,0.008549576,-0.0076236534,0.0084717255,-0.016766584,-0.033597026,-0.0005364907,-0.06183597,-0.019033564,-0.02555665,0.013855008,0.015148272,-0.0031583135,-0.044740867,0.021062678,-0.0131757585,0.025043646,0.048696384,-0.06536983,0.039001368,-0.02333328,-0.06300655,-0.037887692,0.000540199,0.00084697286,0.037430394,0.06536229,0.01935863,0.05358722,0.05478786,0.07568049,-0.014638488,0.005427669,0.064336315,0.02612204,-0.03311707,0.03886576,-0.036153894,-0.035304096,0.0064448314,-0.09724002,-0.018178336,0.031330287,-0.0013933275,-0.03638623,-0.050792877,-0.03661502,0.020268306,-0.023784898,-0.024327798,0.04358994,-0.016055336,-0.019245837,0.0104471585,0.0424671,-0.06574077,-0.054920293,-0.051467225,0.02509498,0.018874751,-0.025142595,-0.048619747,0.04591011,0.014737796,-0.07248502,0.019187922,-0.0549462,0.02416215,0.024283703,-0.0044791824,-0.02278539,-0.01040471,-0.008953696,0.056875955,0.03503067,0.010202287,-0.03542602,-0.05198061,0.02549548,-0.0028752265,0.047141407,0.026372313,-0.044360902,0.025085738,-0.02277629,-0.016770797,0.032309227,-0.017572388,0.0045159166,0.04275727,-0.012734877,0.0543941,0.020860657,-0.040732604,-0.016013823,-0.031212002,0.01085577,0.006388809,0.027788207,0.01983371,-0.020042794,0.025095114,-0.015070249,-0.03009452,-0.01963366,-0.07087671,-0.011235092,0.013411619,0.006906717,0.028024089,-0.014056653,0.04847526,0.06446664,0.016939336,-0.00014106857,-0.028261956,-0.012360245,0.016182715,-0.0059369355,0.006959758,0.047979243,0.045080096,0.03156273,0.005256286,-0.07499554,-0.015750043,0.05282698,0.021045607,-0.042589366,-0.008215606,-0.0035642497,-0.07443049,-0.0145061035,-0.026195157,-0.018717108,-0.013770689,0.03486956,0.101243295,0.047754753,-0.05911562,-0.0063450783,0.028377993,-0.0035685385,0.06557883,-0.0054152263,-0.033106565,0.0699541,0.04005504,-0.058558054,-0.05313901,-0.0007836742,1.341994e-39,-9.54332e-40,-6.01747e-40,-4.33087e-40,-1.43801e-40,-6.21159e-40,1.451929e-39,1.523685e-39,-1.67339e-40,0.004124285,-0.023127919,0.020330504,0.008258811,-0.06066069,0.058763206,0.013317222,-0.0043660775,0.0052406574,-0.07804457,-0.012095325,0.044304613,-0.013828516,0.03266598,-0.002727287,-0.08384163,-0.061796613,-0.036508568,-0.022643423,-0.02569018,-0.016315438,-0.0039508278,0.054958284,0.008965805,0.028143875,-0.0192626,0.013035874,-2.3702339e-38,-1.4886684e-38,-9.31673e-40,3.9992e-40,-4.64523e-40,2.5255353e-38,-2.1643279e-38,-2.061783e-38,-1.421068e-39,-0.0059144446,0.012481209,-0.025835836,-0.008743757,-0.006017495,0.005033261,0.011475173,0.0062817945,-0.043259107,-0.020157361,-0.016271342,-0.008452133,-0.0064264885,-0.060040273,-0.03957256,-0.037965402,-0.053272862,-0.004492639,1.2561511e-38,-8.58574e-40,8.77375e-40,1.2095774e-38,-4.25905e-40,-2.60272e-40,-3.40434e-40,1.2764e-41,-3.0057e-40,0.011779873,-0.012436112,-0.033262633,0.005124826,-0.017054193,-0.01927059,-0.0031407012,-0.016784575,-0.0026540325,-0.024501711,-0.0024522163,-0.025006948,-0.017729683,-0.009855011,-0.02159763,0.011578822,0.0063736546,0.045239083,-0.03207486,-0.06439472,-0.039760616,0.013242448,-0.005603624,-0.003321929,-0.008453805,0.0065608425,-0.0056747408,-0.02444821,-0.0011598462,-0.01004465,0.008056218,0.009808074,-0.025000257,0.0062136394,-0.00754687,-0.034758937,-0.027966391,-0.02356405,-0.03873074,0.003261672,0.020145949,0.010488042,0.025493784,0.020496871,0.03440757,0.013449,0.00078452576,-0.023251252,-0.0055505303,0.018445734,-0.0062803,0.0031126116,-0.009261852,-0.012990591,-0.0017624082,0.023825038,0.005221454,0.0013107598,-0.0050593396,-0.017794194,-0.00915561,-0.013396338,0.008133711,-0.005743742,-0.0051612942,0.021230862,5.774027e-05,-0.0046547973,0.019538123,-0.032268163,-0.045653556,-0.020504067,0.004423795,0.0020656185,-0.026443925,-0.009853032,-0.0052646715,-0.0137127135,0.007842464,-0.011403099,0.035936136,-0.03614644,-0.024656778,-0.009369033,-0.020561017,-0.019275937,0.01220231,-0.013149093,-0.025333978,-0.0034678,1.4751882e-38,1.4231e-40,3.84969e-40,8.6504e-41,1.55407e-40,-2.74048e-40,-2.06795e-40,3.73124e-40,1.8267e-40,0.005819269,0.018627621,0.010219695,-0.012370589,-0.01931744,0.01725444,0.0038686234,-0.01342065,0.0066213096,0.025173297,-0.033569183,0.005087702,0.008235782,-0.019675666,-0.00860828,-0.035522625,-0.029934801,-0.015791938,-0.00043456902,-0.0021133013,-0.0017188743,0.0036620225,-0.024464026,0.0048702294,0.008342845,0.002078664,-0.0083498135,-0.003394547,0.003157223,0.013262609,0.0037473317,-0.003361456,0.03334201,0.01751987,0.021981593,0.029912882,-0.00054185867,-0.01716413,0.02072008,0.027362647,0.0091312695,0.020818865,0.013695253,-0.026374266,-0.042572822,0.031060696,0.017549913,0.024121592,-0.0042635943,-0.03410615,-0.017584832,-0.039920256,-0.05387332,-0.0033880966,-0.017095761,-0.022821372,-0.009280616,0.0036936163,-0.010048067,-0.019939695,0.009183511,0.0055901557,-0.018038152,0.037728056,-0.014993239,-0.0056918017,0.026162134,-0.037666928,-0.013246423,0.016475836,-0.028941711,-0.013257739,-0.026612444,-0.009392281,-0.017681321,-0.02253224,-0.034999676,-0.026718233,-0.0081944335,-0.027349556,-0.03433363,-0.016599106,-0.021726577,0.00202238,0.002788174,0.013654701,0.035553783,-0.0002693894,0.019243049,-0.0061721965,-0.005191769,-0.018504268,0.024215572,0.0017836302,0.002819455,0.018865474,0.014203034,0.014659134,-0.007184617,-0.019647183,-0.0043483037,-0.00066347135,-0.021842612,-0.0016088859,-0.005649441,-0.017451737,0.028907107,0.029677005,0.00818573,0.031465292,0.0017897168,0.0015737942,0.053594332,0.018512275,-0.039923348,-0.01224252,-0.021432506,-0.03448901,-0.023316605,-0.02318947,0.035424106,-0.0043675005,-0.01028162,0.03725433,0.020404391,0.012395078,0.022561047,0.009739093,-0.0069849044,0.015645385,-0.0092750415,-0.025017744,-0.003585451,0.016769065,0.043226667,-0.01410962,-0.03716058,-0.017386116,-0.0050351503,-0.02967604,-0.019880166,0.0008604676,-0.0029293825,0.02202339,-0.0012395977,0.010840167,0.0052095335,-0.0073576258,-0.0004545342,-0.02483979,-0.008528796,-0.010144342,-0.022635465,-0.012909671,-0.018285489,-0.021915784,-0.036810953,0.00026867868,-0.008239666,0.025627311,0.06451972,0.032228317,0.0037136376,-0.013149696,-0.026744949,-0.00448944,-0.010578584,-0.009157588,-0.011940162,0.01741324,0.028216684,-0.0014339382,-0.01426364,0.0067352457,0.016493633,0.018866563,0.024247933,-0.002572979,0.025596047,0.007457187,-0.010781143,0.0051007816,0.0009583831,-0.007835697,-0.021511689,-0.0025167463,0.02783522,-0.02423918,0.0166165,-0.0016314434,-0.0032796236,-0.021695158,-0.019384403,-0.007101552,0.0044363146,-0.0074256803,-0.017675657,-0.016574599,0.011677926,0.02556915,0.025366165,-0.007265086,-0.021420794,-0.0104012005,0.031190772,-0.0075054746,0.0073135826,-0.0028201344,-0.006782423,0.0008817288,-0.005389857,0.0012992987,0.028506413,-0.025024906,-0.018849608,-0.009406834,-0.0007332373,-0.0026600447,-0.0147203775,-0.02877725,-0.023379624,0.00074715645,-0.0038485571,-0.014236495,0.021211425,-4.43364e-40,-7.0188e-40,-2.17372e-40,1.0239e-41,8.1501e-41,7.77275e-40,-3.55522e-40,3.67583e-40,2.86288e-40,-0.017150773,0.0012123014,0.012450313,-0.002782617,0.022482924,0.035630688,-0.02801881,0.0024280204,0.025848715,0.011297221,-0.020888824,-0.004827917,0.028053284,-0.034517117,-0.008068246,0.018963117,-0.002913773,0.0038535504,0.010813625,-0.052469537,-0.0031085827,0.0030386092,-0.034908094,-0.009947683,0.0023712483,-0.026300088,-0.019111982,0.029197989,-0.004537278,-0.031161211,-0.002802137,-0.019275306,-0.011690523,-0.03406335,-0.022510447,-0.007226024,0.042723853,-0.008285637,-0.04374042,0.00077334023,-0.002795705,-0.0066128406,-0.029238729,-0.029789157,0.008870033,0.0151022235,0.0020644362,0.036527503,-0.0075766775,-0.0040995344,0.033246715,0.024574645,0.012828405,0.015644738,-0.015760548,-0.009733925,-0.021828322,0.011877359,-0.02801727,-0.022640748,0.026575591,0.00017676638,-0.010638448,0.0095280735,0.017603653,0.016052913,0.0026250153,-0.010973926,0.0062822686,-0.010657015,-0.029525425,-0.017788267,-0.009368504,0.004412521,0.008349836,-0.0040593697,-0.005472833,0.0021326065,-0.039249685,-0.03748508,-0.025320455,0.0020958248,-0.016754203,-0.020578181,0.011210387,-0.0019515889,-0.019631332,0.00496669,0.0025050964,-0.01404074,0.024115097,0.027216237,0.026661564,-0.0004272554,-0.0052718017,-0.014703301,-0.017938208,-0.01946019,-0.027465347,0.004466577,0.013609825,0.020820275,0.009767478,-0.0036760645,-0.0051396927,0.01024754,-0.0074642133,-0.011849439,0.007435722,0.074657716,0.033844754,-0.012893773,-0.0045633498,-0.0043022684,0.009836867,0.00023451996,0.0062138615,-0.0023746847,-0.008204445,0.008768928,-0.024012504,-0.027940717,-0.02207125,-0.030567136,-0.017073201,-0.036681484,0.0146814985,0.07207129,0.04143112,0.0017526858,-0.012470321,-0.011003927,-0.02433006,-0.020008754,-0.0341451,-0.005866565,-0.0009847678,-0.016861372,0.022532923,0.008433133,-0.0064194393,0.017775236,0.025936998,0.022644322,0.024305142,-0.0012847816,-0.024366045,-0.007950446,-0.018809013,-0.033982176,0.03865092,0.018363854,-0.032479357,-0.033784386,-0.032353356,-0.04314695,-0.018509977,-0.017787334,-0.0226739,0.024282537,0.02720505,-0.01038794,0.027781945,0.0219227,0.0003157116,0.036987074,0.05369283,0.0175119,0.012636125,0.023425044,0.016100023,2.33496e-40,-8.33603e-40,-8.46296e-40,7.8123e-40,2.93246e-40,6.71274e-40,-3.64471e-40,-5.96299e-40,6.01974e-40,-0.030954164,0.02488115,-0.0048813047,-0.02225479,-0.0023247153,-0.01585428,0.0017539038,0.016272541,-0.0051372065,0.012639349,0.017772472,0.021318823,-0.04293961,-0.0126609225,0.0065489677,-0.029727373,0.017987259,0.015490934,-0.0074785776,-0.037882082,-0.002751745,0.008623868,-0.028361741,0.014882113,0.011375186,-0.020787433,-0.0015733028,-1.3181841e-38,1.1387355e-38,-5.37081e-40,-5.43869e-40,4.90893e-40,1.3455939e-38,3.28663e-40,1.4464979e-38,3.70202e-40,0.017927326,0.008633813,-0.0068323007,-0.0064186202,-0.006152503,-0.011714715,-0.01250901,-0.018751971,-0.018793562,0.00991287,0.011771614,0.00027603103,0.0064664935,-0.0048695155,-0.017856078,-0.016665556,0.014088046,0.00026299965,1.545537e-39,2.8175673e-38,1.166168e-39,6.79791e-40,-1.564837e-39,6.54699e-40,1.508686e-39,-1.05346e-39,-1.810649e-39,-0.027605668,-0.009844801,-0.011232846,-0.007857799,0.025062567,-0.031009424,0.056061655,0.061505392,0.0501774,0.020544726,0.0042965594,-0.017713383,0.025965184,-0.04228848,-0.0040889387,-0.070043065,-0.019469315,-0.008016082,-0.035771403,-0.040978376,-0.0021250893,0.010361447,-0.022448815,0.03722439,0.019177813,0.0051843524,-0.0543945,0.0150661385,0.009845153,-0.0151406005,-0.089202136,-0.0005390761,0.015114191,-0.004204768,-0.06696179,-0.09933812,0.010394778,-0.035838198,0.014142914,0.03066315,0.007950499,-0.014316375,0.0869692,0.003788035,0.038780782,-0.07665496,-0.0037766066,-0.020534,-0.003504531,-0.036420427,0.025186008,-0.0083068255,0.0053996397,-0.02560221,0.0101733245,0.07806526,-0.011310707,-0.009314463,0.008473316,-0.013268248,-0.00690861,-0.035743233,-0.04059215,0.011267803,-0.04803169,-0.13053678,0.0026672208,-0.016133146,-0.03286521,0.04521819,0.04287967,0.03456973,0.092675686,0.057865646,0.15167464,0.00931296,0.05442413,0.021919178,-0.008380503,0.011708578,-0.046082705,0.0063541997,0.03775284,0.059997242,0.0054759937,-0.030324176,0.020193659,-0.011449547,-0.03340625,-0.0831462,-2.89746e-40,1.173948e-39,1.12458e-39,-2.6473e-41,-3.2748e-41,-9.92799e-40,-1.6587e-40,-4.88942e-40,-1.621609e-39,0.019821914,0.1199702,0.059667736,0.013933869,0.1282384,0.010311042,-0.15664907,-0.030697608,-0.10348708,-0.0329375,-0.04749009,-0.06605471,-0.035301544,0.043763023,-0.024953915,-0.09717737,-0.010637507,-0.04854621,-0.03882154,-0.02568399,0.052827954,-0.0019656182,-0.056043804,-0.0534198,0.0036768073,-0.09955375,-0.08674607,0.09666642,-0.018670462,0.01160825,-0.0015462923,-0.06907767,0.0158609,-0.0018855479,-0.0010033363,0.0038859195,-0.010763481,-0.034576032,0.0483611,-0.04221415,-0.048899565,-0.018348088,0.0008660158,0.020473178,-0.043020815,-0.04715274,-0.015053135,0.017171975,-0.09382361,-0.04921361,-0.11446256,0.004076614,-0.02272179,0.0067432257,-0.06572694,0.0058657047,-0.039701093,0.037965607,0.11680815,-0.049740072,0.033472065,0.070658065,-0.012243005,0.016805558,-0.06952608,-0.02860225,0.003030899,-0.089314006,0.0016128664,-0.059633818,-0.09941927,-0.0228735,-0.018289445,-0.06258783,-0.069909744,0.121635444,0.119089425,0.0065103923,-0.005518388,0.091176786,0.013582477,-0.02161866,-0.069328874,-0.040970147,0.004462052,0.006080321,-0.015118205,-0.03488005,-0.01152258,-0.04917307,-0.029537626,-0.093603395,-0.0528387,0.015528581,-0.09741613,-0.0478277,-0.029674334,-0.019520944,-0.104101926,-0.0052330303,0.047010787,-0.04472577,0.033844233,-0.020475296,-0.060675215,-0.022951078,-0.06415112,-0.04197147,0.0073810946,-0.040827803,-0.040258426,0.054619502,-0.065374434,0.0201371,0.050855253,-0.12077576,0.021604102,0.08408176,0.009714382,-0.068776526,0.017002119,-0.019944934,-0.035889484,0.006082621,-0.059745293,-0.0082266275,0.028086165,0.01109006,0.14988191,-0.007688413,0.013010853,-0.014861123,-0.11924274,-0.023168154,-0.010475267,0.03823797,0.044643644,0.08446622,0.039132852,0.056653064,0.026819564,-0.07629035,-0.025989043,-0.07254403,-0.04579265,0.03737392,0.016786374,-0.08913519,-0.095622994,-0.045194857,-0.0008886773,-0.06471498,-0.0012337654,-0.07729579,-0.013495539,0.025820699,-0.050686818,-0.070653275,-0.055095054,-0.019914797,-0.021373758,-0.042222515,0.05748451,-0.0027372148,0.07180864,-0.026745379,-0.1377344,0.044333328,0.036440965,0.046132818,0.033947982,0.07825249,-0.066664465,-0.02314556,-0.024629178,-0.09851219,-0.06354664,-0.019435642,-0.050081678,0.0016813121,0.041062806,0.02731001,-0.04245927,0.025423665,-0.010578586,-0.05396581,0.0025508879,0.030403886,-0.001246094,0.03704133,0.081650615,0.02650378,0.026464745,0.014657695,-0.03503,-0.0037520549,-0.044682812,-0.0026110369,-0.06284393,-0.01402166,-0.018508298,-0.059382197,-0.037017398,-0.010018327,-0.05172442,-0.032448597,-0.019955521,-0.01670294,0.0008757222,-0.02007376,-0.029594589,0.039064445,-0.008209867,-0.034345534,-0.03803598,0.0058303224,-0.020291872,0.025670502,0.0016273787,0.0011982953,-0.0019295462,-0.035963234,0.11746842,0.14439029,0.08174368,5.0938e-40,4.5034e-40,-1.455592e-39,-5.47698e-40,-1.64711e-40,1.274274e-39,-9.89224e-40,-1.410166e-39,-1.25982e-40,0.0192199,-0.016145505,0.026406346,0.09413372,0.005222845,-0.028476045,0.086090244,-0.0066050407,-0.018468484,-0.004316263,-0.0445457,-0.048764948,-0.026054626,-0.053323753,-0.04196641,0.01997344,-0.0043321173,-0.043485194,-0.018750476,-0.004215719,0.0008632881,0.004193334,0.017940102,0.09754664,-0.083911054,-0.028186357,-0.078649566,-0.07718373,0.0035673645,-0.007710015,-0.058027074,0.034719452,0.010018794,-0.02588055,-0.0054745674,0.007886456,0.0115771545,0.020573406,0.023895243,0.0017775455,-0.059080873,0.07226375,-0.007875615,-0.058015805,0.049392868,-0.016453218,0.023053883,0.03643883,0.0540646,0.003930866,0.009911939,0.019413805,0.04065237,0.0760624,-0.07598236,-0.031839915,0.07879124,-0.02799579,-0.059958946,-0.056990623,-0.07098425,-0.022612896,-0.026286084,-0.114529334,-0.11288361,-0.1042022,-0.027590826,0.03396973,-0.042476505,0.0020596543,0.03503184,-0.02827424,-0.063406065,-0.074248254,-0.053942222,-0.011250144,-0.07048357,0.007519536,0.050893802,0.011999173,0.013282286,-0.013050684,-0.06823579,-0.04117787,0.07411702,-0.043099463,0.010188672,0.052853055,-0.04535822,0.020356653,-0.046829935,0.005007401,-0.0064741466,0.0054906653,-0.050460417,-0.005941691,0.0368679,0.040971734,-0.042104527,0.042772744,0.16155678,0.07444423,-0.05961899,0.08250004,0.078586124,-0.016616624,-0.016204692,0.023867333,-0.040422432,-0.047051646,-0.019147709,-0.028128125,0.008101215,-0.034738515,0.04189715,0.0660188,0.0064773895,0.030231403,0.051816005,0.08352275,-0.07208176,-0.0062189023,-0.053622294,-0.06860742,-0.033708923,-0.058025338,-0.0049449853,0.022532307,0.017546453,-0.06559928,0.02603878,0.006325019,-0.058122676,-0.01780042,0.01206865,-0.0077261124,-0.0027903807,-0.04613877,-0.0020704044,0.044721805,-0.041302677,-0.01773141,0.03664431,-0.03394361,-0.049920313,-0.0053877793,0.03579319,-0.018971283,0.007861102,0.03219252,-0.09547253,0.06489671,0.028540839,0.05514657,-0.02366225,-0.0153517295,0.015765412,-0.08158263,-0.018936897,0.027367553,-0.0054164566,0.048706394,-0.032191668,-0.04371942,-0.012809367,-0.06385736,-0.023706116,0.016054407,-0.0053921947,0.04149814,-0.0051150066,-1.367754e-39,1.202942e-39,-2.56876e-40,1.92369e-40,3.14372e-40,-1.524253e-39,9.05096e-40,-1.218139e-39,1.251382e-39,-0.002405505,-0.075219996,-0.018504767,0.060202375,0.056705564,0.0325295,0.054060467,0.012073558,0.008639339,0.03095823,-0.003249475,-0.016552858,-0.032622103,-0.061643995,0.008032235,0.07200167,-0.056344572,-0.07185938,-0.0045633717,0.01176549,0.07870901,0.0017242715,0.036832247,-0.011297276,-0.029460754,-0.021375202,-0.0044909487,-8.08908e-40,-1.333376e-39,1.68812e-40,3.57719e-40,1.074321e-39,-5.83519e-40,1.006341e-39,9.30689e-40,1.442127e-39,0.038756397,0.046981946,-0.018066414,-0.009037117,-0.028521815,-0.016175931,-0.059044022,-0.0701914,-0.039685793,0.0326431,0.015894145,0.015390914,-0.0010054992,-0.04886298,0.008089102,-0.00085198804,-0.08201198,-0.017577223,1.07973e-39,-9.03766e-40,-1.125973e-39,-1.543547e-39,-1.306655e-39,-1.57283e-40,-2.6104173e-38,-1.706525e-39,-5.57305e-40,0.06262227,-0.018121712,-0.06150731,0.0073848185,0.020852163,0.030134592,0.037960976,-0.018378686,0.0018016371,-0.019563453,-0.0234078,0.0067182486,0.019295322,-0.016680142,-0.009797684,-0.020022083,0.027387906,-0.008071674,0.000717333,-0.023297075,0.09347376,-0.056141578,-0.11629175,-0.031772103,0.03771767,-0.004134184,0.0021263412,0.044941105,0.067535564,0.022087095,0.0032083166,-0.034279615,-0.025724348,-0.04653733,-0.08213424,-0.008204779,-0.020512523,-0.0077995397,-0.0059602787,0.09314252,-0.01686326,-0.022662427,0.10443976,0.015910827,-0.04357445,0.027443634,0.04694792,0.03274441,0.02526139,0.007909098,0.037328817,0.08316645,0.020203596,-0.0542345,-0.0037656182,-0.041014154,-0.0066474844,-0.01706118,-0.080503054,0.029515306,0.03005761,-0.0016849333,-0.03035361,0.07025381,0.0070508043,-0.02601525,-0.055412244,0.006242962,-0.05949596,-0.03310646,-0.051836576,-0.04960854,0.024738764,-0.030101595,-0.05276939,0.019444522,-0.015599479,-0.038306687,0.010835426,-0.036719304,-0.0064653056,0.04414872,0.010500866,-0.020666635,-0.0065869363,-0.059505753,-0.048385657,0.036462177,-0.0022316112,-0.072246395,8.86819e-40,-1.129592e-39,-5.39427e-40,5.26514e-40,8.78201e-40,-2.469138e-38,9.72896e-40,2.5410889e-38,7.09271e-40,-0.029123846,-0.0052569346,0.054390147,-0.0068594986,-0.06423293,-0.024210185,0.053163864,-0.010695534,-0.016090747,-0.07500207,0.010418932,0.03733029,-0.022967843,-0.081420384,0.019796029,0.008982608,-0.0459182,-0.006416146,0.028331414,0.0014932717,0.004945674,-0.016050318,0.03143369,0.018509395,-0.028149243,0.04087708,0.057116956,-0.07838602,0.029965863,-0.033846397,-0.030503258,0.04187577,-0.063416734,-0.01570253,0.01734408,-0.026859619,-0.023408974,0.004671972,-0.02724116,-0.0019992152,0.015737072,-0.036030047,-0.0049761552,-0.0013891577,0.024296531,0.014175735,-0.011135784,0.074652635,-0.044302233,-0.03770874,0.042944442,-0.006363909,-0.025683887,0.03785752,-0.025207188,-0.053647116,0.004969024,-0.029131083,0.050433263,0.050304372,0.076965965,0.015055931,0.057711836,-0.02338167,-0.05718989,0.0206718,-0.038771767,-0.032863967,0.02552603,-0.030417927,-0.06039066,0.01812086,0.023729986,0.0325162,-0.007992202,-0.020309811,-0.03468415,-0.0025083644,0.00061583216,-0.029201442,-0.042385936,0.04461361,0.0045139096,0.006516813,0.027171362,-0.007989894,-0.027335139,-0.053104777,0.020029422,-0.023314618,-0.009748969,0.01825536,-0.010323439,0.048558116,0.0005763048,-0.0086968,-0.045821037,-0.09595444,0.035997834,-0.08642035,-0.099392,-0.040000696,-0.0062600663,-0.06031635,-0.0043562734,0.015301709,-0.014481003,-0.025880164,0.0052028233,0.009917487,0.0047374107,-0.029323008,0.024793005,-0.02393853,0.008959255,-0.006614807,-0.06272146,-0.0016824749,0.014494741,0.0012917158,0.01716351,0.0130996425,0.025216738,0.009286507,0.019824136,0.017774995,-0.04814488,-0.041050468,-0.07977304,-0.050429393,-0.0689405,0.017782986,0.05820805,-0.021958368,-0.013694991,-0.06470762,-0.01642093,0.009882139,0.040839333,0.022359317,-0.03320738,0.013421273,-0.0113989515,0.02296788,0.027219424,0.031019153,0.022395203,0.022127464,-0.0065951985,-0.020785643,-0.008338104,-0.0701318,-0.060710784,-0.0069310213,0.005752574,0.012579173,0.018751992,0.017818393,0.00047144384,-0.031483974,0.023544662,0.015340229,-0.033148758,-0.016430888,0.025708698,0.0052727386,0.010906494,-0.000669436,0.052071817,0.007348259,0.014038114,-0.044096697,0.014859977,-0.0035974113,-0.00047835242,-0.0009365542,0.03282832,-0.046722412,0.002871007,-0.020966705,0.0789119,0.03691212,-0.04305308,0.009423995,0.023291346,0.005797205,0.012361841,-0.0063715335,-0.035994824,0.0056677777,-0.06249068,0.035066612,0.008961543,-0.033557437,0.02789425,0.03731148,-0.0019517842,0.029264495,0.021246295,-0.010529396,0.018953672,-0.037357036,-0.051308013,-0.017902255,0.0036442415,-0.054041628,-0.060763758,-0.12873192,-0.047392372,-0.0657112,0.035402425,-0.037376393,-0.07412648,0.09033801,0.009369525,-0.06491535,0.014759651,0.011441373,-0.06855356,-0.043316517,-0.013909419,-0.030273035,-0.045083046,0.011906357,0.01726934,-1.5274e-40,4.34837e-40,-3.4274e-40,-1.064324e-39,1.54734e-40,7.59362e-40,1.435796e-39,-3.66466e-40,-7.33832e-40,0.05062794,-0.025301112,0.03863377,0.019973425,-0.0179471,-0.04765764,-0.036214907,-0.0067940764,-0.03196284,-0.05215935,-0.00012409242,-0.03490801,0.07758771,-0.025655283,-0.073276766,0.050542507,0.037378613,-0.039900575,-0.04412856,0.0056061554,-0.02301679,-0.048212443,-0.035164334,0.0010679188,0.072263464,-0.0052528586,0.023808211,-0.022562474,-0.043814074,-0.023533281,0.012572896,-0.027904997,0.0041352785,0.057627115,-0.038922265,0.034090564,0.10787003,-0.008588346,-0.04704951,0.0066232765,0.0058526048,-0.09949434,-0.03019255,-0.049998973,-0.07014715,0.06947085,-0.0056917532,-0.0323997,-0.021705551,-0.04508232,-0.020451274,-0.024164895,-0.048517063,0.012646523,0.007991776,-0.042291015,-0.11060733,0.027139632,0.030787684,-0.0773797,-0.025927015,0.06824456,-0.044046078,0.024012303,0.0037343854,-0.018906595,0.05438078,-0.011910017,-0.017490834,0.017611794,0.09794061,0.0382358,0.024268834,-0.007177196,-0.046978932,0.045668766,-0.04052481,-0.08468232,0.060711663,-0.07802777,-0.057406645,0.03998369,0.0038665216,-0.14067966,0.081174254,0.13954498,-0.033176854,-0.00011631044,0.02025223,-0.016032072,-0.025587032,-0.024411744,0.035999306,0.043146893,-0.035882484,-0.06681198,0.073951356,0.13017368,-0.009969017,0.02578776,-0.017690307,-0.024956418,-0.038555823,0.03123656,0.014418086,-0.11989791,-0.012558378,0.040834513,-0.003310853,0.022950387,-0.025993,-0.040355925,0.05015136,-0.041739143,0.027785698,0.032240253,-0.027028563,0.041722417,0.0028194913,-0.013987456,-0.009470777,0.047458444,0.019101296,0.028287558,0.008411473,-0.016005373,-0.040069308,-0.03432265,-0.02816172,-0.016368369,0.043843925,-0.011039283,0.030575123,0.06858506,-0.016783636,-0.009625589,0.01299858,-0.016633695,0.044437893,-0.034156915,-0.0870678,0.13995773,0.046971653,-0.024449404,0.014956869,0.012294815,0.0315653,-0.016084816,0.0019863958,-0.06283705,-0.05772974,-0.06762831,-0.015892532,-0.04210333,-0.025763158,0.06498365,0.03224422,-0.10367498,-0.0113790985,0.08165753,-0.015196167,-0.0826554,-0.03423919,0.010860726,-0.019864008,-0.07348757,-0.012092872,-0.039550856,-0.049704667,-0.04406131,0.0034965256,1.154618e-39,-1.310992e-39,-1.259895e-39,-3.79008e-40,-1.7624e-40,9.47624e-40,-6.72508e-40,2.80991e-40,-1.231496e-39,-0.01888592,-0.058940526,0.027794344,-0.024923397,-0.04572955,-0.020340381,0.023924178,-0.01454239,0.005792469,-0.07559407,-0.11068645,0.056807034,0.06509738,-0.027466325,-0.019340022,-0.0034903293,0.028509602,-0.024015982,-0.010696631,0.03636153,0.016718306,-0.06137819,-0.05787866,-0.015663916,0.016383085,0.0047637033,-0.048465665,-1.64155e-39,2.3896138e-38,-2.297151e-38,3.87064e-40,1.115078e-39,-3.66399e-40,6.2506e-41,-5.49329e-40,5.67297e-40,-0.02245587,-0.0036460639,0.046404634,-0.036462445,-0.025368806,0.027326303,0.019561637,-0.010274307,-0.038360585,-0.008511915,-0.006087175,-0.020360578,-0.011619949,-0.01371677,0.0179748,0.0037197226,-0.038579654,0.012484422,-2.1067436e-38,-1.7598177e-38,-4.53368e-40,1.4386599e-38,1.531252e-39,-1.579772e-39,-2.493605e-38,2.3000352e-38,-1.8999455e-38,0.016832057,0.05006927,-0.01341084,-0.008939395,-0.010708314,-0.04235184,0.005332461,-0.0327162,-0.040838208,-0.05202342,0.0034946057,-0.03875768,0.023549102,-0.026555136,-0.0366067,0.13327043,-0.0211458,-0.018347712,0.00017136954,-0.10817383,-0.05358033,0.08421655,-0.005074898,-0.016020417,-0.040494625,0.015065143,0.033584613,-0.075852916,-0.037038635,-0.027123304,-0.048195407,-0.01926019,-0.029104488,0.00093900453,-0.012598346,-0.038644556,0.0784835,0.033575267,-0.030804807,0.044429965,0.030926809,-0.013926157,-0.05207727,-0.0012611632,-0.030568909,-0.02200714,0.008475838,-0.040082224,0.0015840591,-0.037611164,-0.0070382715,-0.057477914,-0.028131139,0.0009240569,0.07742452,0.08008546,-0.008697076,0.019617623,-0.011762436,-0.021011272,-0.048159756,-0.055370633,0.009092153,-0.015693817,-0.013947438,0.03440028,0.020571437,-0.01865149,-0.040335484,-0.019009028,0.023008784,-0.0058031324,-0.0016411742,0.015528522,-0.00576219,-0.018498939,-0.033686347,-0.022191606,0.08952772,-0.067291945,-0.065109104,-0.0027668756,0.0277059,-0.018857272,-0.007223696,-0.046994437,-0.074878916,-0.008354443,0.0083140945,0.026217576,-1.256418e-39,-2.5499013e-38,1.7383257e-38,1.359054e-39,1.307744e-39,-1.154315e-39,3.3716e-40,-1.436823e-39,1.9034755e-38,0.03811193,-0.00368805,-0.035815306,0.002907986,-0.0022751326,-0.035564687,-0.04541959,-0.02043213,-0.066207364,0.054659896,0.057484042,-0.056404524,0.0011890181,-0.028959524,-0.009900037,-0.06746498,-0.08888226,-0.06676267,-0.025231611,-0.027799701,-0.0072630974,0.010037647,0.031717204,0.035804152,0.050139684,0.048280414,-0.0024439949,-0.038795117,-0.014960802,-0.009082979,-0.013918051,-0.015822524,-0.038059592,0.00980347,-0.042776987,0.0028105336,-0.0062329615,-0.028420765,-0.07147455,0.026393626,0.02509573,-0.04893961,0.0058699404,-0.012205949,0.018025534,0.035156533,0.008207664,-0.014895371,-0.041229513,-0.023458702,-0.044524107,-0.039865214,-0.030456217,-0.035690475,-0.036026992,0.008607443,0.029204076,-0.049790893,-0.017847586,-0.02040299,0.025390921,0.036573984,0.007214949,0.0852942,-0.06787508,-0.014029437,0.048327997,-0.035255916,-0.026823055,0.03979975,-0.078783914,-0.07756658,-0.0089309625,-0.0032538327,0.031796392,-0.0056768623,-0.05646466,-0.004239048,-0.010085508,-0.04220906,-0.028648509,-0.018622233,-0.014972028,0.022600371,0.048782855,0.03944729,0.019733468,0.024121266,0.0049129063,0.047156587,0.017348275,-0.058439784,-0.05746931,-0.013701182,-0.041267965,-0.028787138,0.034157153,-0.010431388,-0.020856705,0.011503504,-0.04215494,-0.05139283,-0.0025884032,0.0021899885,-0.030755365,-0.020175237,-0.05498585,0.0084894905,0.01818683,0.006716442,0.120979585,0.045951925,-0.013466459,0.010453166,0.01159363,-0.015875403,-0.06407051,0.02507982,0.01202532,-0.05662984,0.0013417955,-0.026822243,0.018599492,0.027966788,-0.02634524,0.020240905,0.008114638,0.077826455,-0.029697519,-0.053088505,0.08882164,0.08335718,-0.046426974,0.009351572,0.09695317,0.012242856,0.009660023,0.004566988,-0.021385351,0.03600074,-0.0039049124,-0.0007941983,0.009340226,0.009756188,-0.0037824481,-0.0069671306,-0.018532695,0.05433586,0.02418729,-0.01602115,-0.0353827,0.016245686,0.008879568,-0.041447897,-0.05027982,-0.030019034,-0.050820712,-0.017759262,0.009709936,-0.017389331,-0.009189299,0.020110266,0.008510954,0.016675001,-0.030135892,0.07843285,0.0035188866,-0.0064397696,0.023519836,-0.02072177,0.0017456495,0.0060319696,-0.013246122,0.04719067,0.04197833,-0.056178845,-0.055429783,0.0032414978,-0.032428976,-0.012063574,-0.039388917,0.0078116776,0.0018688383,0.03222221,-0.081596635,-0.06800059,0.045557447,-0.0018747151,0.049226873,0.01619471,-0.037737515,-0.024772836,-0.00886713,0.010621978,-0.01914596,-0.05011378,0.025366904,0.00068768504,-0.0023175452,0.05160459,0.06583445,-0.009532846,0.010426964,0.046936978,-0.0057761283,0.014225822,0.057731014,0.042988814,0.02080402,0.009657523,-0.0003590848,0.00382333,0.024055231,-0.07067832,-0.037654094,0.005397724,-0.01637569,0.007465015,-0.032707293,-0.015558276,-0.015117579,0.0017673898,0.0043847184,-0.0020300501,0.00794759,9.8802e-40,1.344553e-39,-1.023032e-39,-1.519846e-39,9.0651e-41,1.120967e-39,7.2547e-41,2.80527e-40,-1.216183e-39,0.0054994635,-0.012179047,0.03353885,-0.0062934114,0.0041269395,0.063052416,-0.012330077,0.012114906,0.025725503,-0.005918663,0.0036308349,-0.035034593,-0.020169485,0.030337319,0.029636668,0.03268411,0.013086404,0.03141878,0.026302017,0.026082482,-0.032053363,0.081170335,0.027112281,0.0066245794,0.03843351,0.02021282,-0.00084637204,0.035078913,0.013622688,0.02015812,-0.020741284,-0.030752206,-0.0155349905,-0.032544866,-0.020757334,0.014007932,-0.0056997673,-0.056671876,-0.02871864,-0.031975947,-0.040007416,-0.004168744,-0.043469306,-0.035039306,-0.029260788,0.018944638,0.032409243,-0.0030600415,0.010009981,0.023110695,0.03135662,0.0108297225,-0.0010019552,0.0146426065,-0.017053239,0.015286687,-0.05353466,0.04396071,0.022685744,0.012798993,0.054874133,0.07945493,0.08807256,-0.016889282,-0.030174917,-0.002622749,-0.02041762,-0.012384765,0.023826921,-0.005791231,0.004194382,0.022636529,0.048724484,-0.018034652,-0.072334774,0.0037839694,-0.00027660804,0.012456629,-0.05785424,-0.001903681,0.0448456,-0.031636734,-0.051448204,-0.017844794,0.0038909474,-0.0034704055,-0.011620555,-0.0008891953,0.004238249,-0.028796872,-0.009276382,0.010225376,0.042933185,-0.046531156,-0.025541998,-0.034793273,-0.018010415,-0.041859843,0.003046012,-0.027883792,-0.060387023,0.004148337,0.036079947,-0.05499233,-0.027365323,0.038956705,-0.058676403,-0.04928113,-0.061944507,-0.03759584,0.070964456,-0.04907657,0.009538276,0.015738674,0.0012569866,0.04539659,0.007695902,-0.028556477,-0.013461715,-0.017893227,-0.048609618,0.0053235465,0.077334195,-0.039061103,-0.02157758,0.044682305,0.033166416,0.055257816,0.040286865,-0.0029473002,-0.0042166472,-0.011138883,-0.047268126,-0.01694952,-0.084055305,-0.0014350354,0.0049757096,-0.009868141,0.03469513,0.0066850665,-0.0032492154,-0.030359449,-0.056939803,-0.062479027,-0.011836701,-0.010582619,0.07170414,0.008807171,-0.018709794,0.05406208,0.00895084,-0.027461221,0.024758145,-0.008814269,-0.034131378,-0.03434915,0.00618491,-0.023488618,0.0037493194,0.017742839,0.008294347,-0.030103968,-0.04948155,0.026198326,0.0059448383,0.046876356,0.0545673,0.025963252,-0.013221325,-0.028985268,0.037040766,7.17554e-40,-1.481901e-39,-1.671207e-39,5.70668e-40,7.273e-41,-1.548616e-39,-1.263858e-39,9.3241e-40,-1.65146e-40,-0.03954152,-0.007834096,0.014311401,0.07917611,-0.010538481,-0.0025960805,0.013982146,0.007975891,0.009432024,-0.0049964446,0.012314703,0.023753008,-0.040845953,0.036340307,0.04232063,0.0015127482,0.08412799,0.07221482,-0.022133999,-0.04160816,-0.060455117,0.035602532,-0.0026650026,0.020396326,0.023479838,0.020374458,0.03944263,-3.31495e-40,2.1049e-40,-1.271746e-39,-7.06742e-40,-2.36918e-40,8.02566e-40,-2.9458e-40,1.153522e-39,-9.67947e-40,-0.054860618,-0.016625466,0.0014212253,-0.07116855,0.0035565333,0.037127767,-0.06298635,0.0073505854,0.08990046,-0.008441869,0.011202964,0.02709905,-0.048189294,-0.014274529,0.0058291126,-0.06254321,-0.008899586,-0.045852166,-1.147707e-39,1.106947e-39,6.13881e-40,-1.395253e-39,1.32071e-40,-1.124688e-39,1.566673e-39,-8.41614e-40,1.70848e-40,-0.015820768,-0.008280588,0.04864488,-0.02031641,-0.059024807,-0.014832482,-0.04404912,-0.06812598,0.031547025,-0.019715015,-0.029398087,-0.033159744,-0.016228061,-0.007420965,0.023890948,-0.012573242,0.048024084,0.15360674,-0.023382181,-0.007830942,-0.10931066,-0.057521973,-0.05025218,-0.06361966,-0.005817498,-0.0113143325,-0.00095062633,0.028483305,-0.07493865,-0.02789684,0.04676553,-0.011177131,-0.039557446,-0.0021970368,0.016852362,-0.013604704,0.034743056,0.0071510263,0.016138565,0.0018047856,-0.0021005832,0.11539884,0.035985656,-0.13152905,-0.07514599,-0.0020448524,0.009635029,-0.05802373,0.02542198,0.011461237,0.05134756,0.027530398,-0.024327895,0.06939439,-0.044608526,-0.021126768,-0.07930849,-0.007938131,-0.028270056,-0.04086052,-0.029886886,-0.009856756,0.048796117,-0.025562469,-0.090305604,-0.07913034,-0.041524317,-0.037351128,-0.058414094,-0.046177443,-0.029781705,0.031366054,-0.025926718,-0.032155585,-0.03841306,-0.019255297,-0.023426555,-0.0071055316,0.02350809,0.02539863,0.10961944,-0.06957478,0.022734324,0.007618772,0.061731696,0.011995122,-0.056223694,0.08589399,0.009252604,-0.058227632,1.581158e-39,3.77741e-40,1.553526e-39,6.22877e-40,-7.23289e-40,-1.549431e-39,1.095324e-39,-4.19511e-40,-1.287315e-39,-0.027678035,0.009547505,0.03947093,0.019415637,-0.026707329,-0.035534438,-0.010513002,-0.04696048,-0.014865515,-0.10056756,0.025227003,0.039484378,-0.013697155,-0.04722227,-0.024035923,0.0051386342,-0.08518388,-0.10400241,-0.011443428,-0.0010939863,0.017134383,-0.020014018,0.008925211,0.033088967,-0.0035529602,-0.042502664,-0.002070298,0.020993043,0.09457715,0.12556474,-0.0385743,0.09967692,0.060200095,-0.025372293,0.07188002,0.025351126,0.063900545,0.008357958,0.025269553,0.05412661,0.07961578,0.025985429,-0.03467706,-0.03271053,-0.019883212,-0.04703088,-0.051301684,-0.028331397,-0.07649195,0.014489323,-0.0012389988,0.0016043953,0.040737342,0.019143041,-0.008368864,0.002063193,0.034820534,0.020802291,-0.059848934,0.0048270323,0.0180978,0.028773172,-0.02512545,0.036856882,0.03428731,0.06977458,0.0020096176,-0.01225154,0.008473674,0.0062083206,-0.05174372,-0.028039305,0.028083699,0.03032105,-0.014897429,0.026157293,-0.0044233105,0.028797805,0.03144865,-0.047217842,-0.035901606,0.006145923,-0.0014252453,-0.030090686,0.046805963,0.025649171,0.02239669,0.089724526,0.004397154,0.02708832,-0.015884304,-0.025712347,-0.09270165,0.00072011154,-0.032929923,0.006412282,0.037371248,-0.04308396,0.031103255,0.00681191,-0.043847665,-0.03553907,-0.036383223,0.017057007,0.00034377727,-0.02255294,-0.047641203,-0.10302346,0.047910325,-0.0032362645,0.05094363,-0.013678797,0.013849904,-0.010423474,-0.025965083,-0.07765765,-0.09503953,-0.017380252,0.0032498522,-0.00012923326,-0.043211956,0.00085170864,0.08161279,-0.07791313,-0.07315001,0.01614703,1.376709e-05,-0.020365065,0.049146224,0.023293238,-0.04415022,0.05959094,0.014919051,-0.08885503,0.028130442,-0.023396011,0.0046816305,-0.05015146,0.01192372,-0.0039944495,-0.06496668,-0.06972693,0.004502861,-0.023478173,0.011978619,0.045597035,0.025906041,0.025589732,0.023881137,0.044690926,-0.028169278,-0.030328894,-0.12847334,0.03479344,-0.016156351,-0.08508692,0.03516039,0.003322839,-0.12567315,0.036970805,0.101824254,-0.067154184,-0.020144528,-0.024386402,-0.03844474,-0.009276963,0.046943776,0.01172104,0.046609994,0.010571779,-0.0038492654,-0.07196708,-0.044115677,0.019719947,0.0062608025,-0.041380093,0.01801858,0.034523346,-0.05914108,-0.0008084377,-0.023581907,-0.010621705,-0.008016992,-0.0483375,0.022197627,0.028107677,0.10624835,-0.058899775,-0.008314672,0.0041692033,0.039555516,0.011817526,0.029746756,0.016795492,-0.010104965,-0.006542037,-0.01723512,-0.015665947,0.015534146,-0.0065740705,-0.018311761,0.026251182,0.040061932,-0.018491827,0.054494504,0.010972529,0.025718728,0.030188022,-0.02007665,0.009971663,-0.02654327,-0.085924625,0.015209083,-0.043915123,-0.012576334,0.04866629,4.7568363e-05,-0.001062969,-0.03963236,-0.017230649,-0.05561024,-0.03082132,0.005293295,0.010874443,-0.008832455,8.31954e-40,-3.52522e-40,-1.48587e-40,9.69205e-40,-8.3397e-41,-1.192715e-39,-1.856027e-39,5.32975e-40,1.575026e-39,-0.05741821,0.042752296,0.05530473,-0.02262334,0.027795713,0.053123277,-0.009255205,0.05857078,0.007805281,-0.1073842,0.054017782,0.08330617,-0.036255468,0.040833503,0.048556082,0.009908516,-0.06859222,-0.08331362,0.06851278,-0.016065206,-0.035260312,-0.020338329,-0.024754971,0.027648687,-0.031804588,0.024362119,-0.022343943,0.0026467212,-0.009934079,0.02767894,-0.014196132,-0.0321247,0.0063760486,-0.041136123,-0.034060653,0.00954806,0.016689856,-0.03285646,-0.052944593,-0.050824266,-0.05336501,-0.08368513,-0.0154562555,-0.031069318,-0.04276837,0.04320385,0.098081864,0.05191253,-0.010126564,0.078262754,-0.061815765,-0.020439463,-0.04525901,-0.024667786,-0.030563232,0.0009429422,0.029079266,-0.067372724,0.016186252,0.03075432,-0.05420705,-0.038236894,0.09852294,-0.03580907,-0.06176399,-0.05384577,-0.024267176,-0.025982222,-0.023349207,0.0069203307,0.062535234,0.018913178,-0.017835055,-0.014568916,0.10296818,-0.04250488,-0.010778392,0.034646694,-0.020942757,0.011145879,0.02553229,0.028995095,0.017897123,0.035286937,0.008827608,0.017981688,0.01649208,0.00026953075,-0.006018218,0.011515215,-0.0065525514,-0.046600875,-0.06196338,0.0028779358,-0.01133657,-0.05445308,-0.035744462,-0.023843301,-0.005124171,-0.071817555,0.0055872714,0.030142987,-0.074990466,-0.065288864,-0.033615068,-0.037208598,-0.019948825,-0.057096276,0.008900185,0.05275097,0.0042351517,-0.006177533,-0.008194885,-0.01289238,0.013239115,-0.0046933345,-0.029633502,0.023425728,0.009854862,0.010425336,0.01124886,-0.027533172,-0.022814032,-0.037438717,-0.0072742193,0.05485093,-0.051437482,7.2303425e-05,0.13266723,-0.01607531,-0.046576172,0.027618071,0.0204147,-0.044499762,-0.07231523,-0.05894494,0.00196867,-0.022587646,-0.02758925,-0.02402969,0.03555555,0.087668635,-0.031484094,-0.019545373,0.022105165,-0.038429372,-0.040560246,0.07017258,0.060296353,-0.03543943,0.024232438,0.0338099,-0.009255571,-0.03573873,-0.050423402,-0.08080439,0.002390113,-0.007511787,-0.018188639,0.074960314,0.043595128,0.0664279,-0.033667896,-0.027047157,0.009523376,-0.030927511,-0.036822516,0.028783673,-0.015172072,-0.03941837,0.032800388,3.46383e-40,-1.057769e-39,7.70692e-40,3.27646e-40,4.18226e-40,5.29039e-40,1.196326e-39,3.82821e-40,3.48612e-40,-0.0033787754,0.013512025,-0.05198052,0.016278757,-0.023921935,-0.02448767,0.026923792,0.049089275,-0.015687987,0.050640117,-0.052496903,-0.087763846,-0.019069217,-0.006351676,-0.02275867,-0.013068157,-0.004997313,-0.03166048,-0.02972681,-0.0151374135,0.007954091,0.013845005,0.041008703,0.042521503,-0.012473014,-0.016887546,-0.046763185,3.74046e-40,3.9731e-41,1.213143e-39,1.763873e-39,1.024377e-39,-1.421701e-39,5.5808e-41,-2.2256336e-38,-6.5634e-40,0.018306993,-0.042336162,-0.05173882,0.0115809515,-0.03573172,-0.007516873,0.05152766,-0.03492489,0.010755021,-0.0073963986,-0.08813247,-0.036720984,-0.054563392,-0.038482267,-0.043714523,-0.027665688,-0.0076266234,0.03361893,1.563657e-39,-1.61992e-40,2.02831e-40,8.11575e-40,-2.38885e-40,1.552747e-39,-1.020591e-39,1.9662879e-38,4.01153e-40,0.0012849064,-0.024028705,0.028570546,0.010662707,-0.003173068,0.099074155,-0.039703872,-0.0013482199,0.032818988,0.02414632,0.030430594,-0.028854698,-0.0115479035,0.04178681,0.028870096,-0.022756495,0.049760927,-0.009416483,-0.02704053,0.005689673,-0.003317614,-0.051406175,0.0034293064,0.027286435,-0.025759326,0.041515943,0.010899333,-0.0050175553,0.009105108,0.002453483,-0.01711978,-0.016436353,-0.0053774123,0.010104423,0.02288937,0.10198726,-0.06231784,-0.013360779,0.059151098,0.02629567,0.033018354,0.05332372,-0.0053401375,-0.04942189,-0.068945155,-0.010077392,-0.03080518,-0.056166533,0.026851594,0.012837845,0.012568097,0.019589655,0.021031171,0.0027373605,0.019297224,0.004206154,-0.044437807,-0.0147548895,-0.025816968,0.014770585,0.047682844,-0.007832448,0.050694108,-0.06456095,0.022719307,-0.01044689,-0.022758823,0.02819054,0.024683625,-0.013512063,-0.00032968263,-0.0006207841,-0.06872801,-0.029759796,-0.01860877,0.030099235,-0.057847377,-0.07295673,-0.03216951,0.060350604,0.015399702,-0.0045900582,-0.011211024,-0.006664199,0.044376794,0.028668916,0.053512845,-0.03288768,-0.038351655,-0.08304032,5.88191e-40,-1.255684e-39,-2.03988e-40,9.76139e-40,7.729e-41,-1.034852e-39,-2.413623e-38,-6.47286e-40,-6.85426e-40,0.021405682,0.026293179,-0.057045527,-3.3344924e-05,0.03241337,0.024732005,0.0081473235,0.030940685,0.0062933057,0.08226888,-0.026933486,-0.039586116,0.040126804,-0.02136586,-0.07741277,-0.023723802,-0.038436368,-0.05656338,-0.002951557,-0.02956922,-0.03641007,-0.04777331,-0.009626886,-0.024427978,-0.013248795,0.017607689,0.040485226,0.0017979741,0.055629868,0.0028588455,-0.016019413,-0.0144672375,-0.041092265,-0.018810904,0.030497558,-0.022389423,0.009612323,0.04404436,-0.018427696,0.005348219,0.0068011116,-0.021629635,0.046475034,-0.04081753,-0.046865,0.038712688,0.007530371,-0.034475304,-0.033050083,-0.0390271,-0.071403824,-0.061543714,0.052300896,-0.011912645,0.043428853,-0.030546779,-0.093367875,0.004095908,-0.030335892,-0.0840125,0.035132755,0.011887905,-0.05638939,0.022128671,-0.06417011,-0.007247493,0.07604042,-0.021117074,0.044165067,-0.007605466,-0.05228434,0.017887687,-0.052940693,-0.034517627,-0.060126793,-0.02238019,0.011241134,0.05233039,-0.084746026,-0.03642239,-0.038655203,0.01804058,0.019799924,0.009593964,-0.048298027,-0.083137386,-0.048813768,-0.02045727,-0.0032278125,0.0005060539,0.023403611,0.060149018,0.022354135,-0.025264405,-0.03635133,-0.0063789347,0.045917504,0.0051314468,0.0032116217,-0.010987207,0.03262572,0.09019016,0.008346629,-0.019571321,-0.036726255,-0.039476432,-0.015765373,-0.078889824,-0.015568417,0.031710573,0.049107797,-0.027975721,0.02598335,0.012184441,-0.044225175,0.04431514,0.013848009,-0.07320803,-0.025398178,-0.06376102,-0.042443607,-0.0040242174,-0.029605528,-6.142445e-05,0.010158633,0.00799169,0.041137062,0.08263611,0.07652381,-0.006962127,0.013144988,0.027025139,-0.06432951,-0.037569027,0.0033432248,0.015473053,-0.038502976,-0.10453475,0.013402172,0.03317879,0.003402351,0.01815793,-0.007259645,0.042721033,-0.008960398,-0.033567786,-0.00032714117,-0.030849794,0.020649916,0.021869365,-0.032220453,-0.031479303,-0.0499052,-0.028347114,-0.0060062255,-0.02991402,-0.002171551,-0.0028246748,-0.032388896,-0.04828294,-0.035481658,-0.009949277,-0.07407698,0.03883523,0.005493915,-0.04706589,0.028498475,0.005592717,0.038936432,0.020578185,-0.030857425,-0.010947453,0.045258492,-0.049461015,0.057018504,-0.0068479734,-0.08155499,0.07750628,0.016535154,-0.09676425,-0.002294591,-0.02202078,0.036827516,0.047345817,-0.0917437,-0.07944071,0.011428181,-0.042584874,-0.06753028,-0.017693728,0.01398744,-0.064576566,0.013622156,0.015353852,-0.016884323,0.07317711,-0.05188021,-0.050879374,-0.044999056,-0.040664803,0.02425039,-0.030731058,-0.0128086135,0.014637313,-0.0021530278,0.024350438,0.009093957,-0.035953905,-0.05589916,-0.030356156,-0.016552037,-0.024684021,-0.0152296815,-0.03311406,-0.043778557,-0.036310513,-0.049097624,0.012317314,0.0145879295,-0.013592187,-0.03466484,-0.011845793,-0.015653813,-0.05612558,-0.03519873,2.15665e-40,-7.06511e-40,1.324615e-39,-1.2434e-41,1.31645e-40,-1.238192e-39,1.403001e-39,-7.10437e-40,2.80763e-40,0.01733797,-0.012688001,-0.0096352855,0.034141783,0.008888643,0.040690508,0.061185855,0.043666035,-0.011692939,-0.03169721,0.008100886,0.018654438,-0.019182649,-0.03708276,-0.007925649,-0.013537912,0.029709045,-0.025016759,0.010575756,-0.030192949,-0.04086702,4.282028e-05,-0.013649377,0.003334419,-0.036398612,-0.06370647,-0.04689949,-0.01700321,-0.026020449,-0.028205847,0.058570914,0.06436571,0.0042914776,-0.0029647935,-0.004084013,-0.01559757,-0.03877046,-0.0072472603,0.008739022,-0.039324198,0.023308279,0.015184935,-0.0021490261,0.017389005,-0.015365336,0.028767124,0.053204704,0.0344536,0.027304387,-0.043385386,-0.03960429,0.0010038726,-0.005214026,0.036132425,-0.055648804,0.013017224,0.039459735,-0.013457757,-0.03417107,0.036331356,0.033921417,-0.0045992807,0.038073216,-0.013800047,-0.06271712,-0.068938576,0.017910613,0.033444542,-0.08244853,0.076725826,0.06326952,0.0013246043,-0.033710215,-0.016907178,-0.028338745,-0.006851947,0.036767207,0.0071333256,0.016332617,-0.0026285294,-0.10179634,-0.08329563,-0.023722516,-0.09118637,0.044191323,0.012511856,0.010641532,0.03473765,0.06494465,0.002494466,-0.02749243,0.012718417,0.016937686,0.05330919,-0.022963138,0.030462123,-0.011325581,0.021392493,0.052076913,0.015200616,0.068088755,-0.046542883,-0.00069865776,0.048832223,-0.0735743,-0.03198909,-0.017006917,-0.00076753576,-0.008203718,-0.0005891284,-0.022252131,-0.024425242,-0.00051097403,0.02255384,-0.025308719,0.08497365,0.08071699,-0.038213316,0.00047265127,0.03032547,-0.03231045,0.0182048,0.0031055158,-0.027045704,0.008073827,-0.01900844,0.0031662635,-0.0064445287,-0.06185469,-0.058417715,0.012470528,0.01672217,-0.025710883,-0.0049033165,0.019479252,0.06257987,0.033868603,-0.058843307,-0.0102196485,0.039203193,-0.017875705,-0.0011530455,-0.030880827,-0.007755202,0.0111302305,0.07441579,0.0677203,0.037147097,-0.022218153,0.011059979,-0.032731716,-0.02077635,-0.049956534,-0.051698454,-0.025283031,-0.04009785,-0.05930794,0.05431413,0.021910595,-0.06453262,0.07419482,0.0754937,-0.0001539617,-0.010160108,-0.01785256,-0.00603593,-0.03272514,-0.055393405,0.011800081,-0.032124124,-0.039927054,-1.41947e-40,-1.084494e-39,-6.55645e-40,8.08118e-40,-2.513e-41,-1.216717e-39,2.58003e-40,-2.74694e-40,-1.455927e-39,-0.086110815,0.030626107,0.08675638,-0.027215827,-0.015777463,0.066599414,-0.03650165,-0.019785164,-0.007624511,0.004724206,0.022612784,-0.033174656,0.002630393,0.015725212,-0.05396565,0.037602626,-0.019755192,-0.048688002,-0.013729411,-0.018500233,-0.0041130497,0.012116572,-0.010102757,0.021500928,-0.030731156,0.07880896,0.020704431,-6.8731e-41,-1.6154356e-38,1.385266e-39,2.4945402e-38,-4.6633e-40,-4.6316e-40,1.492995e-39,-6.09856e-40,-7.06032e-40,-0.013865057,-0.041480407,-0.025010997,-0.018805958,-0.00363199,-0.06214567,-0.07514602,-0.032827362,-0.0041703093,-0.03244078,-0.0032558604,0.0009728608,0.0015020306,-0.0065535647,0.021282768,-0.0070960475,0.0032204597,0.026680266,-0.0,-0.0,0.0,0.0,0.0,-0.0,-0.0,0.0,0.0,-0.0,-0.0,0.0,-0.0,-0.0,-0.0,0.0,-0.0,-0.0,0.0,0.0,-0.0,-0.0,-0.0,-0.0,0.0,-0.0,-0.0,-0.0,0.0,0.0,-0.0,-0.0,-0.0,0.0,-0.0,-0.0,-0.0,-0.0,0.0,-0.0,0.0,-0.0,-0.0,-0.0,-0.0,0.0,0.0,0.0,-0.0,-0.0,-0.0,-0.0,0.0,0.0,-0.0,-0.0,-0.0,-0.0,0.0,0.0,0.0,-0.0,-0.0,-0.0,-0.0,-0.0,-0.0,-0.0,-0.0,0.0,-0.0,0.0,-0.0,0.0,0.0,0.0,0.0,0.0,0.0,0.0,-0.0,-0.0,-0.0,-0.0,-0.0,-0.0,-0.0,-0.0,-0.0,0.0,-0.0,-0.0,0.0,0.0,-0.0,-0.0,0.0,-0.0,-0.0,-0.0,0.0,-0.0,0.0,-0.0,0.0,-0.0,0.0,0.0,0.0,0.0,0.0,-0.0,-0.0,0.0,-0.0,0.0,0.0,0.0,-0.0,0.0,0.0,-0.0,-0.0,0.0,-0.0,-0.0,-0.0,0.0,0.0,0.0,-0.0,-0.0,0.0,-0.0,0.0,-0.0,0.0,0.0,-0.0,0.0,0.0,-0.0,0.0,0.0,-0.0,0.0,0.0,-0.0,0.0,0.0,0.0,-0.0,0.0,-0.0,-0.0,0.0,0.0,0.0,0.0,-0.0,-0.0,-0.0,0.0,-0.0,-0.0,-0.0,-0.0,-0.0,-0.0,-0.0,-0.0,-0.0,0.0,0.0,-0.0,-0.0,-0.0,0.0,0.0,0.0,-0.0,-0.0,0.0,-0.0,-0.0,-0.0,0.0,0.0,0.0,-0.0,0.0,0.0,0.0,0.0,-0.0,0.0,0.0,-0.0,0.0,0.0,0.0,0.0,-0.0,0.0,-0.0,0.0,0.0,-0.0,-0.0,-0.0,0.0,-0.0,-0.0,-0.0,0.0,-0.0,-0.0,0.0,-0.0,-0.0,0.0,0.0,-0.0,-0.0,-0.0,0.0,0.0,-0.0,-0.0,-0.0,-0.0,-0.0,-0.0,-0.0,-0.0,-0.0,-0.0,-0.0,-0.0,0.0,0.0,-0.0,0.0,0.0,-0.0,0.0,-0.0,0.0,0.0,0.0,-0.0,0.0,-0.0,0.0,-0.0,-0.0,-0.0,0.0,0.0,0.0,0.0,0.0,-0.0,0.0,-0.0,-0.0,-0.0,-0.0,-0.0,0.0,0.0,-0.0,0.0,-0.0,0.0,0.0,0.0,0.0,0.0,0.0,0.0,-0.0,0.0,0.0,-0.0,0.0,0.0,0.0,-0.0,0.0,0.0,0.0,-0.0,-0.0,0.0,-0.0,0.0,0.0,-0.0,0.0,0.0,-0.0,-0.0,-0.0,-0.0,0.0,0.0,0.0,0.0,0.0,-0.0,-0.0,0.0,-0.0,-0.0,-0.0,0.0,0.0,-0.0,0.0,0.0,0.0,-0.0,-0.0,0.0,-0.0,0.0,-0.0,-0.0,-0.0,-0.0,-0.0,0.0,-0.0,-0.0,-0.0,-0.0,-0.0,-0.0,0.0,0.0,-0.0,-0.0,-0.0,-0.0,-0.0,-0.0,-0.0,0.0,0.0,-0.0,-0.0,-0.0,-0.0,-0.0,-0.0,0.0,-0.0,-0.0,-0.0,-0.0,-0.0,0.0,-0.0,-0.0,-0.0,-0.0,-0.0,0.0,-0.0,0.0,0.0,0.0,0.0,0.0,0.0,0.0,0.0,-0.0,-0.0,-0.0,-0.0,-0.0,0.0,0.0,0.0,0.0,0.0,-0.0,-0.0,0.0,0.0,-0.0,-0.0,-0.0,0.0,-0.0,0.0,0.0,0.0,-0.0,0.0,-0.0,-0.0,0.0,0.0,-0.0,-0.0,0.0,0.0,0.0,0.0,0.0,-0.0,0.0,0.0,-0.0,-0.0,-0.0,0.0,-0.0,-0.0,0.0,0.0,0.0,0.0,0.0,0.0,0.0,0.0,0.0,0.0,0.0,-0.0,-0.0,0.0,-0.0,-0.0,0.0,0.0,0.0,-0.0,0.0,-0.0,-0.0,0.0,0.0,0.0,-0.0,-0.0,-0.0,-0.0,0.0,-0.0,-0.0,0.0,0.0,0.0,0.0,-0.0,-0.0,0.0,-0.0,-0.0,0.0,-0.0,0.0,0.0,0.0,-0.0,0.0,0.0,0.0,-0.0,0.0,-0.0,-0.0,0.0,-0.0,0.0,-0.0,0.0,-0.0,0.0,-0.0,0.0,0.0,0.0,-0.0,0.0,0.0,0.0,-0.0,0.0,-0.0,-0.0,0.0,0.0,0.0,0.0,0.0,-0.0,-0.0,-0.0,0.0,0.0,0.0,0.0,0.0,-0.0,-0.0,-0.0,0.0,-0.0,-0.0,-0.0,-0.0,-0.0,0.0,-0.0,-0.0,0.0,-0.0,0.0,0.0,0.0,0.0,0.0,-0.0,-0.0,-0.0,0.0,-0.0,-0.0,-0.0,-0.0,-0.0,-0.0,-0.0,0.0,0.0,0.0,0.0,0.0,-0.0,-0.0,-0.0,-0.0,0.0,-0.0,-0.0,-0.0,-0.0,-0.0,0.0,0.0,0.0,0.0,-0.0,-0.0,0.0,0.0,-0.0,0.0,-0.0,0.0,-0.0,-0.0,-0.0,-0.0,-0.0,-0.0,-0.0,0.0,-0.0,-0.0,-1.140887e-39,-1.465503e-39,-4.91763e-40,-6.26219e-40,5.1817e-41,-6.8236e-40,-1.390213e-39,-1.32075e-39,2.6752052e-38,-0.01951015,-0.002472903,-0.012117147,-0.038289484,-0.024173556,-0.0330634,-0.025062714,0.046725165,0.022984844,0.02589738,-0.040761504,0.030083429,0.044338018,-0.034335572,-0.024994073,0.0038341724,-0.047035847,-0.030573605,-0.019633593,-0.08260197,-0.025532389,0.039764594,0.03256745,-0.014375983,0.022473296,0.020145955,0.012334982,-0.023882933,0.00513451,0.054239243,-0.059650436,-0.04514005,-0.0333131,-0.041154288,-0.013308262,-0.0009364904,0.031725664,0.020126749,0.084937535,0.019150933,0.0862828,0.05110823,-0.08408003,-0.025102422,-0.09612707,-0.035059873,0.044213664,0.0036214257,-0.011414709,0.06350031,0.018295117,-0.035354786,-0.01642072,-0.008598488,0.0378666,0.0017769439,-0.0021537722,0.02730659,-0.054400742,-0.041650716,-0.038979568,0.0085243685,-0.051021416,-0.012625416,-0.00047464969,-0.052123126,0.01575836,-0.005157752,0.026039217,-0.062702045,-0.050662458,0.029115023,0.033675764,0.026972525,-0.011716124,-0.017044665,-0.021184532,0.016020034,-0.02415532,-0.09666596,-0.05768815,0.005216169,-0.011180063,0.04212019,-0.01897833,0.052250177,-0.0057960693,-0.039018188,0.012502157,-0.03273564,5.83297e-40,6.94814e-40,-3.78813e-40,-5.50011e-40,-1.147048e-39,-1.246882e-39,9.82918e-40,-1.41099e-39,1.151806e-39,0.046141416,0.014849103,0.11442965,-0.01729887,0.012067847,-0.0012971426,-0.060264885,0.06936252,-0.024060383,-0.03659606,0.02079234,-0.075775474,-0.0009978618,0.015694309,-0.0041405284,0.012891985,-0.016253078,-0.020073919,-0.009916729,-0.046033274,0.027048023,-0.00994366,-0.007461562,0.055058096,0.014675332,0.030398488,0.002635739,-0.030742727,-0.010374164,0.049715206,-0.0010709306,-0.010308469,0.045845665,-0.049887437,0.014856627,0.04897828,-0.0004167731,-0.022078358,-0.02204061,-0.004995583,0.030719982,-0.006101555,0.0012897515,-0.05296365,-0.021213038,0.026511565,0.11870378,-0.045736533,0.04226544,0.087154806,-0.023053674,-0.054411,-0.00970414,-0.029216385,0.016868347,0.041248336,0.020940347,0.043627217,0.025572758,0.042738948,-0.0066665066,-0.033652753,-0.020907491,0.018131584,0.0022126583,-0.041998044,0.0038580976,-0.03177673,0.029268574,-0.018546954,-0.06924837,0.014892006,0.029661821,0.0031835097,-0.06284285,0.0024988104,0.010636469,-0.044308867,0.011983136,0.08362833,0.031687267,-0.05337827,-0.027925573,-0.03827859,-0.042986527,-0.051484853,-0.04180693,-0.020156702,-0.0164805,-0.03332398,-0.007845371,-0.024499318,-0.030953888,0.023472749,-0.024905074,0.048826274,-0.0048578256,-0.02051056,-0.012099291,-0.042360052,-0.009009783,-0.0015759562,-0.015634306,-0.04516014,0.015213729,-0.024442788,-0.023579009,-0.009395891,-0.057883188,-0.086935885,-0.033456657,-0.012238176,0.015955994,-0.015988247,-0.008053034,-0.06811532,0.012593593,0.021782005,-0.04368856,-0.06415503,0.037216403,0.027366001,-0.0072730454,0.03375768,-0.017168023,-0.030885542,-0.001294347,0.019924328,-0.009104282,-0.0019061484,-0.0013250321,0.028223468,-0.051023703,-0.049570955,-0.066725336,-0.03221977,-0.00991989,0.022661598,0.047170933,0.008753704,-0.011637506,-0.011001168,-0.037565533,-0.026113613,-0.006520345,-0.038024176,-0.02335838,-0.028082885,0.005372568,-0.032778513,0.0769284,0.012282737,-0.01572299,0.0361045,-0.011302158,0.0025778746,-0.027789192,-0.011394112,0.05589851,0.095281124,0.10285471,0.052938983,-0.12830989,0.0062693735,-0.028708406,-0.062378366,-9.7946846e-05,-0.055420056,-0.05851691,0.0050887247,-0.041716035,-0.026350843,-0.045166425,-0.051237326,0.0054281433,-0.048421197,-0.052446015,0.02385291,-0.009381928,0.0009600922,0.023749636,0.03494091,-0.038890455,0.038565725,0.07985938,0.01072202,-0.02028211,0.01742434,-0.031889137,0.071986996,-0.002902843,-0.014916097,0.012718455,0.017677955,-0.0043090675,-0.08159069,-0.043966345,-0.012082985,-0.042353045,0.008664788,-0.01998293,-0.009178053,-0.01842035,-0.03587788,-0.024471864,0.01836696,0.004944662,-0.037894808,-0.0076480587,-0.036690086,-0.024772637,-0.0020432312,-0.01940804,0.052316107,-0.038096596,0.011226694,0.009439131,-0.007162832,-0.057026807,-0.031088736,-0.04514791,-0.031145696,0.11148884,0.16399993,0.061936002,-4.90267e-40,-9.81158e-40,1.262871e-39,2.13894e-40,-5.25819e-40,-5.968e-40,-1.39243e-39,6.45578e-40,1.021406e-39,-0.05593495,-0.048716284,-0.00684676,-0.04181929,-0.0072831074,0.002224051,0.03913572,-0.047153663,0.054271203,0.01644788,0.0034287681,-0.03652779,0.00417749,0.060594745,0.04553369,-0.021493422,0.02204613,0.01626686,0.0032646914,0.0027495679,-0.053924453,0.035566587,0.025169816,0.009881372,0.06973669,0.0044708457,-0.013335438,-0.0065654963,0.049315467,0.0072077396,-0.009535167,-0.059242956,-0.060251955,-0.088884234,-0.12085042,-0.09522822,-0.015705118,-0.018633747,0.013613618,-0.050698318,-0.068519,-0.014617691,0.006706195,-0.006341756,0.022643851,0.04924517,0.034055706,-0.022181137,0.05681802,-0.0054405136,0.0028770366,-0.023949819,0.00039078709,0.063114226,0.01649683,-0.015126176,-0.030853115,0.049644746,-0.014464823,-0.032105807,0.07150002,-0.06775199,-0.07898659,-0.020307401,-0.04834211,-0.006608572,0.08027299,0.014897409,0.035187885,0.080763586,0.05759463,0.021134825,-0.08265321,-0.10382447,-0.019928336,-0.028461223,0.03853975,0.053434923,0.06620902,0.13921982,0.103007354,-0.006579246,-0.035189662,-0.006838968,-0.0340493,0.055728458,-0.037398487,-0.027812835,0.008905233,0.025701785,-0.019669805,-0.010802542,0.025826043,-0.0025595962,0.013619441,0.00015470886,0.020656295,-0.06802444,-0.08355737,-0.072171405,-0.054576565,0.022106582,0.016462129,-0.058228288,-0.011000827,0.104734555,-0.040637404,0.022493977,-0.02342354,0.010096244,-0.026576914,-0.046052124,-0.051613893,-0.006372127,0.0035327799,-0.08209349,-0.0480158,0.012538178,-0.030039022,-0.058377195,-0.014360129,-0.027179575,-0.0665881,0.033863816,-0.025829483,0.012237862,0.09467999,-0.01745924,-0.00088849803,0.045426972,-0.0017871339,0.00085115386,-0.008238955,0.121798515,0.027652374,0.0060358685,0.0038374858,0.033808395,-0.015844919,0.021554146,-0.01960079,-0.024541348,0.058465134,-0.0075676036,0.019822571,-0.0419018,-0.07729451,-0.006416631,0.040581428,-0.02961302,0.028521106,-0.010307677,0.031454325,-0.0071865823,0.011911168,0.0003580597,0.012927901,0.038159218,0.07373418,0.044126596,-0.017708177,0.061350033,0.046691827,-0.042165376,-0.09490104,0.025792323,-0.047570582,-0.07986977,0.030223332,0.06623767,0.005324998,-3.35879e-40,1.258686e-39,9.85746e-40,-1.0565e-39,-1.359236e-39,-1.315051e-39,3.79851e-40,1.014909e-39,8.73749e-40,-0.024208356,0.017047305,-0.020550266,-0.012152103,0.046006743,0.011256991,-0.025292495,-0.019664938,-0.018740252,-0.10289615,-0.00059154624,0.10369997,-0.005156712,0.008637196,-0.0107823815,0.0168772,-0.03928486,-0.03675508,-0.031976096,-0.06861137,0.0031292236,-0.017782249,-0.034698837,-0.042608514,0.026917383,-0.037071917,-0.043600578,8.35429e-40,-4.42925e-40,2.6546958e-38,1.40177e-40,3.82648e-40,3.83114e-40,2.693062e-38,-1.6885484e-38,5.41413e-40,-0.033773687,0.0020694716,0.022162402,-0.021436078,-0.023554757,0.044327863,-0.026779285,-0.016756315,-0.00018061728,-0.03366508,-0.050642725,-0.06653792,-0.026660938,-0.03172133,-0.053004604,0.003251668,-0.018214384,-0.02176701,-4.0044e-41,-3.62032e-40,-3.80083e-40,9.1686e-41,3.05727e-40,-4.63283e-40,3.9648e-41,-7.96078e-39,-1.82338e-40,0.0056816456,-0.001953516,0.009998193,-0.0016257468,-0.002810166,-0.0037664766,-0.0017999758,0.0019810034,0.0025084093,-0.0048879865,-0.003224868,-0.0055498458,0.0008370325,0.0031047442,-2.744986e-05,-0.0027047638,-0.010006817,-0.0040732943,0.0051320796,0.0020244385,-0.008822572,0.011127619,0.02189905,0.00485449,-0.012932116,-0.0077025993,-0.012216898,-0.020381799,-0.008778208,-0.0061555197,-0.009613258,0.00087899406,-0.0005122209,-0.013016389,-0.014788649,-0.0086695785,-0.013500595,-0.021212835,-0.010500491,-0.009325825,-0.017915137,-0.012443323,-0.012098389,-0.020814948,-0.009582132,0.00054602075,0.0028892136,0.007963726,9.65876e-05,0.006632308,0.009623112,-0.004406953,0.008035322,0.006644994,-9.2348746e-05,-0.015087723,-0.013783699,-0.0023782286,-0.0038994392,-0.01103851,-0.0067485482,-0.009443426,-0.006963277,0.0008173233,-0.0030197075,-0.011818535,0.004994354,-0.00432399,-0.0050381087,0.015153092,0.0044131335,0.00707299,0.00539436,0.00829241,0.0035473146,0.0038219918,0.003511611,0.0031252461,-0.016776644,-0.017969852,-0.002014436,-0.012224327,-0.015378992,-0.004730565,0.000285248,-0.0016007179,-0.0029024524,0.002294064,-0.012947273,-0.0084249275,-6.9252e-41,-3.2266e-41,-3.74309e-40,-8.363868e-39,-2.27715e-40,-4.21198e-40,-5.5924e-41,3.3658e-40,-1.71225e-40,-0.0185841,-0.011105855,-0.017221425,-0.013638347,-0.00390819,-0.013315635,-0.011821037,-0.008745638,-0.011950023,-0.017480826,0.0018254712,-0.0019191625,-0.015181484,-0.005438482,-0.002351441,-0.0004967532,0.0058863778,-0.0031902785,-0.0052401633,-0.0035412938,-0.0039093,-0.006525672,-0.0031984122,-0.0035016867,-0.0044754273,-0.007716523,-0.020095076,-0.006243767,-0.010237406,-0.010979266,0.0014358248,-0.007739102,-0.0026135163,0.003635838,-0.013655381,-0.0068039875,-0.003208001,0.00087484706,-0.0007151949,-0.0030981451,0.0016020921,-0.004055607,-0.0053297053,-0.00866435,-0.008428664,-0.009620838,-0.008365326,-0.005987611,0.020791674,0.011853853,0.0069705923,0.0061282,-0.004970075,-0.012147718,-0.00685254,-0.002825452,0.0013004809,0.0023552887,-0.0036566418,0.0028715348,0.00012016374,-0.007826375,0.0037156222,-0.007581153,0.0064025046,-0.0043842522,-0.0013318225,0.016636949,-0.0040718145,-0.010856217,0.00432029,-0.0019198816,-0.012456192,-0.011171158,-0.005687991,-0.00975837,0.0011349939,-0.00089941145,-0.012916607,-0.0051783915,-0.0145565,-0.0015901951,-0.014766295,-0.006661979,0.008242414,0.00043957285,0.0040964545,-0.0061137737,-0.008156219,-0.0073237494,-0.003002505,0.012793501,0.0021185132,2.4424304e-05,-0.00930984,0.0022889334,0.0060842806,0.002300736,-0.0008805025,-0.011823452,-0.016069781,-0.0084982,-0.001156482,-0.0021783304,-0.0056413896,0.008408494,0.015895633,0.004151294,0.004900724,0.0024680025,-0.0074463915,-0.0021734678,-0.0015728339,-0.0011130668,-0.002279165,-0.0013436341,-0.001200953,-0.0069925846,-0.0048138206,-0.0017501825,-0.0064267786,-0.0055475845,-0.011810488,-0.013184774,-0.005510447,-0.0070596295,-0.0012190134,0.00053978746,0.0067579583,-0.00044939687,-0.0002750727,0.00039610392,-0.010402235,0.0012767568,0.005928284,-0.016546404,-0.013170127,-0.0101715615,-0.0077778995,-0.008427117,-0.0049646064,-0.018422239,-0.019870592,-0.011296394,0.00078107015,0.0059426837,0.005093972,-0.000104060724,0.0028399036,-0.0012134875,-0.0041104998,-0.005144408,-0.011985006,0.011537196,0.0008381764,0.0024291363,-0.0041724793,-0.0096672885,-0.0067908172,0.0020444447,-0.0062602893,-0.0005492364,-0.005106884,0.011279416,-0.0004230154,-0.005044163,0.004650295,-0.014099964,-0.015974442,0.00608551,-0.013684791,0.004172417,0.0004449175,0.0023722649,-0.0048741563,-0.0059505263,-0.0005909749,-0.011396166,-0.010972043,-0.01112385,-0.016439127,-0.004093537,-0.0062529137,-0.009452102,-0.0072110496,-0.0107163405,-0.0026157568,-0.0023837045,-0.0009101761,-0.0017481467,-0.002136929,-0.0019664099,-0.005777629,-0.0082894005,-0.0063429186,0.003231835,-0.0009282387,0.0082517285,-0.008824723,-1.3093226e-05,-0.013119189,-0.00017152764,0.005295879,-0.015289733,0.0028978242,-0.0018609358,-0.009100004,-0.0038448148,-0.0007634485,-0.006525775,7.7622346e-05,0.0043795328,0.0014336248,-0.004709065,0.0041799694,0.0032363464,-0.0024807258,0.0044338014,0.0067589236,0.0023555078,0.00034525382,-0.003695776,-0.00045892975,0.00757955,0.0021722638,-5.2309e-41,1.76788e-40,1.09659e-40,-4.03495e-40,-1.47323e-40,-1.07728e-40,-5.07581e-40,2.42474e-40,6.606e-41,-0.008559031,-0.01594186,-0.020692138,0.0006340684,-0.0024238315,-0.002310339,-0.005645523,-0.0038394385,-0.006856249,-0.000735464,-0.0036288667,0.0007418103,-0.011634529,-0.012994679,-0.0016404546,-0.0014548376,-0.00936161,-0.00885875,-0.003387067,-0.0068746842,0.008163246,0.0017215508,-0.008473834,0.0066561922,-0.009747742,-0.0072344644,-0.0011455944,0.006179699,-0.0030658215,3.669641e-05,-0.002859058,-0.0031771052,-0.0046770065,-0.010547448,-0.0009076932,-0.010055262,-0.02023574,-0.008898069,0.005615931,-0.0063787,-0.008919493,0.012891872,0.0043434235,0.0044135135,0.005489127,-0.021388358,-0.010958529,-0.010207775,-0.01306952,-0.004234803,-0.005417628,-0.020687575,-0.0067579336,-0.0054218704,-0.004765485,0.0031865605,0.0051625753,-0.00890174,0.0017315509,0.009167896,-0.0066719376,0.0020987538,0.00080257544,-0.0035602157,-0.0063789845,-0.0139016695,-0.002168709,0.00051336363,-0.0063559036,-0.009357366,-0.013394387,-0.010782153,-0.0018840125,-0.0013551165,0.0062101576,-0.005026429,-0.0038390597,-0.0045626857,-0.010953908,-0.007172757,-0.012945572,0.001458724,0.004119661,-0.0029847915,-0.0035284278,0.0046676197,-0.0036508068,0.0015505676,0.012884037,0.0073314826,0.00095259334,0.012244851,0.0075165667,0.0016109343,-0.006041095,-0.00819975,-0.0053552687,-0.01909049,-0.008313538,-0.0057254722,0.0032488084,0.0044580474,-0.0008661891,0.007526992,0.0017408922,0.00631038,0.0072053103,0.006349793,0.00016738565,-0.0037028377,-0.00634788,-0.0062832097,-0.015249419,-0.012079895,-0.003102269,-0.0037103177,-0.0065050777,0.002789362,0.0074662045,0.0024550678,-0.0010482146,0.00042186293,-0.0016563585,-0.002376049,0.01069013,0.005822091,-0.011666759,-0.008640673,-0.004933705,-0.015509963,-0.003729712,-0.0036060037,-0.0020001968,-0.0039904094,0.005733832,0.0016227193,-0.005158421,0.003947224,-0.007046873,-0.006778388,-0.0021602386,-0.0009613118,0.00015700147,0.00050808577,-0.010111158,-0.01413833,-0.015729725,-0.002675295,-0.0106312735,-0.0066959313,-0.006048556,-0.0101450365,-0.013181829,-0.010014604,-0.0028998181,-0.00919042,-9.770113e-05,0.00097327924,-0.010379095,0.0041505424,-0.0053591635,-0.002471208,-0.0078043942,-0.0045824465,-0.0053466903,-0.00694962,-0.0028010441,-0.002204146,-0.0035269894,-0.0046010287,-0.0010756789,-1.265e-41,5.3293e-41,4.58432e-40,2.5902e-40,-1.26355e-40,1.43131e-40,-3.93723e-40,-8.7455e-41,1.17104e-40,0.010528358,-0.002243642,0.014072979,0.006056813,-0.003595128,0.002570037,0.0017158533,-0.0070081963,0.0016107621,-0.008353079,0.0020634746,0.002473406,-0.012680451,0.0010415453,-0.005213111,-0.012753704,0.002417135,0.0041992273,-0.00068275555,-0.0054565873,-0.00037769967,0.00014819074,-0.011309355,-0.008322654,0.006918982,0.008495365,0.009993801,-1.15596e-40,4.70684e-39,-2.5492e-41,-3.1973e-41,3.39968e-40,-1.39596e-40,-3.2533e-41,-4.181955e-39,-3.2125e-40,-0.008763736,-0.004857982,-0.014728582,-0.002243245,-0.007848501,-0.016346073,0.00048288447,-0.011098923,-0.009308362,-0.0072228126,-0.0068452395,-0.0023188978,-0.0023075116,-0.004457993,0.0054810643,0.0064904476,-0.0022034124,0.004918113,-1.06929e-39,-6.20213e-40,5.8897e-41,1.068249e-39,3.90937e-40,3.98004e-40,7.89504e-40,3.38304e-40,-1.9559702e-38,-0.0580356,0.0066595124,0.02722345,0.0027060367,0.017034223,0.00678185,-0.022602992,-0.032803472,-0.04146778,-0.026116345,-0.036985807,-0.06186887,0.013239349,0.005896724,-0.0189899,0.014318233,0.03597938,0.011755864,-0.020982817,0.013705827,-0.013883151,0.022013487,-0.013986856,0.029412303,0.057842776,0.038732737,0.02411804,-0.0012926362,-0.03657287,-0.043294884,0.0032827118,8.526788e-06,-0.022030955,0.017267989,0.0047891093,-0.013714613,0.004209508,0.044244803,-0.028089931,-0.0016855493,-0.009712954,0.018899001,-0.009249706,-0.023515834,-0.020845367,-0.011405173,-0.02800756,0.022929328,0.013998938,0.04286744,0.018489392,-0.037178066,-0.018346408,-0.040548928,0.041761514,0.052427247,0.0041983873,-0.0093099335,0.03213138,-0.005702128,-0.0294979,-0.016181331,-0.04262902,-0.008075533,-0.0047806236,-0.055880897,-0.008685908,-0.014364499,-0.05409527,-0.026332242,-0.0339048,-0.057004754,0.012592323,0.014927584,0.023205066,-0.05590284,-0.008409082,-0.07389921,-0.07708163,-0.023694098,-0.049187645,0.003838023,-0.013433727,-0.012988915,0.011237949,-0.048182104,-0.026048359,0.0059234845,-0.036634937,-0.02007042,6.70266e-40,9.98907e-40,-5.44952e-40,-3.4782e-40,-1.81882e-40,-1.3999e-40,9.16473e-40,6.00997e-40,4.27276e-40,0.01781731,0.06626498,0.078707285,-0.017772732,0.0005619771,-0.0047473353,-0.028085748,-0.05267667,-0.056253415,-0.008299129,0.028532077,-0.0117062535,0.020583231,-0.005599337,0.0043738694,-0.0136340605,-0.033813283,0.0012929854,-0.035197273,-7.548968e-06,-0.012092927,-0.043300983,0.020796489,0.0006338414,-0.051398303,-0.00077276444,-0.017523784,-0.022074819,0.02192601,-0.03664183,0.010245998,-0.0017789407,0.008051101,-0.03648915,-0.05849393,-0.050550763,-0.057090014,-0.030006323,-0.00708455,-0.018190607,-0.011940654,-0.008914262,0.0027160754,0.008210223,-0.02809762,-0.009376734,-0.024449144,-0.0029930673,-0.003469056,-0.036081467,-0.045620814,0.00871763,-0.014718826,-0.04178148,-0.0050718454,0.037679687,-0.012793522,-0.03067843,0.0041661654,-0.023601927,-0.05444743,-0.030671598,0.01053202,0.024201956,-0.009817003,-0.023051022,0.01326166,-0.023375278,0.0008073042,-0.02517728,1.34530455e-05,-0.000457831,0.015587272,-0.01417131,-0.006959134,0.0066969916,0.04432445,0.005124568,-0.014811901,0.08393114,-0.011948409,-0.04419111,0.054687116,0.023890635,-0.03384074,-0.010673513,-0.026714735,0.017948486,0.021579439,-0.016935714,0.0062013804,-0.006252096,-0.026914772,0.0019352636,-0.012231413,0.0025795691,0.005381599,0.016499609,0.023003472,-0.006325178,-0.057450045,-0.052353833,0.018150024,-0.02078751,-0.016650256,-0.019221088,-0.0052720835,-0.01276507,-0.011180174,-0.02331146,0.0010884436,-0.026424471,-0.047740847,-0.045669504,-0.021643968,-0.041054305,-0.026490577,0.085738584,0.046906874,-0.09572666,0.05051099,0.026285738,-0.065070786,-0.0010599336,-0.026421763,-0.047549866,0.08261144,0.023133524,-0.0014843479,0.032408245,-0.0024499726,-0.019363558,-0.00042434948,0.017549165,0.019214395,-0.005191087,-0.02307179,0.014838714,0.0022502623,-0.00030306142,0.006160608,-0.025978215,-0.01422741,-0.048897844,-0.013799852,-0.014954878,-0.012141345,-0.024926018,-0.01324569,0.021355307,0.038023863,-0.026082803,0.037814066,0.031470876,0.007526136,0.047567427,-0.017822009,-0.04539365,-0.0420539,0.010791825,-0.012255242,0.045290142,-0.04213353,-0.014697043,-0.011674309,0.016688064,0.04469671,0.021208504,0.00525718,0.010758719,0.01262111,-0.025267337,-0.013329572,-0.0063171545,0.014099836,-0.010189788,-0.03489782,-0.016618475,-0.028417079,-0.011284671,-0.00689753,-0.007922657,0.033696275,0.0076310853,0.018858738,0.07542889,-0.011619717,0.0021366582,-0.0077300807,-0.019518783,-0.010709053,-0.008651358,0.029653408,-0.0048298845,0.06125408,0.003988003,-0.01343516,0.031761747,0.04392754,0.08753987,0.061719485,-0.049153395,-0.0020872967,-0.062803105,-0.003006193,-0.020652702,-0.014184639,-0.042139497,-0.03491092,-0.029398644,-0.014134774,-0.030320786,-0.048938286,-0.014809528,-0.012308269,-0.0027208112,0.014960863,0.011448873,0.006441561,0.018677829,0.0742224,-0.014096697,0.014443088,0.022013959,0.008989312,-1.344357e-39,4.79089e-40,-5.6863e-40,4.33035e-40,9.92911e-40,-2.2542e-40,7.5482e-40,-2.01435e-40,1.34399e-39,-0.0042384868,-0.027971137,-0.009099514,-0.0101219155,-0.039595697,-0.021103643,-0.009721514,-0.039767336,-0.0155744525,-0.029226542,-0.03398824,-0.03926398,-0.035048246,-0.054363176,-0.019504664,-0.016843243,0.029194463,0.07132419,-0.029760674,-0.011672228,-0.043500263,-0.031177761,-0.01143034,-0.017946603,-0.0122362925,-0.03435493,0.003407831,-0.046024125,-0.021201482,-0.0049624015,-0.039863657,0.016667368,0.06813231,-0.009554024,0.03177607,0.03530069,-0.006617795,0.042978913,0.0048035774,0.007943358,-0.010278453,-0.028123226,-0.017403252,-0.02066658,-0.033326313,0.0038807287,0.005030695,-0.01670141,-0.025780607,-0.016188955,-0.051790614,0.045977797,0.027978953,-0.04422878,-0.018007282,-0.007982841,-0.03315726,-0.02048346,-0.010506044,-0.0173181,-0.047967367,-0.059052266,-0.046416007,0.008365333,-0.023844391,0.005866704,-0.009106504,-0.004855465,-0.022855815,-0.024081104,-0.010511433,0.0026310992,-0.008080801,-0.02950685,-0.086686656,-0.0029347348,-0.010183958,-0.022233594,0.021470327,0.038251203,0.048249338,0.018571718,0.037481453,0.057732344,-0.055435672,0.025533918,-0.016944753,-0.033378,0.015941696,-0.009670279,0.01284363,-0.006617903,0.006177198,0.018755786,0.009700131,-0.037640955,0.031414494,-0.0009762538,-0.000642478,0.015694184,0.04939199,0.049115527,-0.03356224,-0.019338327,0.00931669,-0.020255096,-0.0049945125,0.030047659,-0.03200591,-0.06247724,-0.040270682,0.0012017621,0.09345501,0.058765657,0.006024756,0.13853034,0.100336425,0.024789553,0.019319022,0.038742784,0.01243618,-0.0007223039,0.017582757,0.029511845,-0.011556793,-0.02932973,0.03415901,-0.0011896938,0.038496803,0.0057471856,0.0046031056,0.019102423,-0.002095248,0.006461967,0.011761213,0.0070671462,0.020684868,-0.0031629675,-0.031013222,-0.02154744,-0.012259395,0.01514409,0.0022709966,-0.01876656,-0.067113645,-0.0004489532,-0.013450113,-0.02717208,-0.03719342,0.034516435,-0.0013652478,-0.01742652,-0.032473683,0.0007065086,0.013162015,-0.0383032,-0.006390592,-0.039572205,-0.034546837,-0.004020251,-0.014203907,0.01028756,-0.012643894,-0.015637705,-0.0552472,-0.006274773,-0.0018149245,-0.013942056,0.014429537,-0.038888127,-0.037071854,6.24165e-40,-7.73863e-40,1.073666e-39,-1.78982e-40,-7.1026e-41,2.52869e-40,-1.083034e-39,-2.42306e-40,8.70747e-40,0.031940658,-0.026759753,-0.06257551,-0.033956748,-0.04780835,-0.032627158,-0.040989887,-0.053760104,-0.0032375406,-0.016383795,0.0061466573,-0.03169026,0.0011617268,-0.015137181,-0.0241833,-0.00017217691,-0.014172287,-0.0053296443,-0.005648332,-0.060423806,-0.072884195,-0.020572212,-0.069150604,-0.03485118,-0.0023575295,-0.018706232,-0.006312752,6.0111e-40,-2.90321e-40,1.11207e-40,-8.74639e-40,-3.332e-41,2.43867e-40,1.44894e-40,1.270863e-39,-3.35028e-40,-0.037769016,-0.056139205,-0.033756718,-0.016079212,-0.044124622,-0.0074680205,0.0025644174,0.014281272,0.005955835,0.02405866,-0.00500809,0.0018148798,-0.0009780269,-0.0014414203,-0.0032506902,-0.05516703,0.021537343,0.004646282,3.3159e-40,-2.023341e-38,-9.99639e-40,1.102233e-39,1.44657e-40,4.98544e-40,1.2801806e-38,2.1535352e-38,1.6938956e-38,0.019060768,-0.018081238,0.0021812373,0.015631862,0.009413301,0.051839918,0.04719578,0.014683107,-0.017524475,-0.028037442,0.01279874,-0.01078328,0.022129312,0.02397323,0.016696025,0.039878704,-0.015137035,0.0007491867,0.02131459,0.009562014,-0.012785073,0.032374334,-0.0021321045,0.010427463,0.023362475,-0.055801366,-0.02367971,0.027056914,0.012844369,-0.005564431,-0.01712499,0.0338078,0.045348663,0.005865059,0.0067358385,0.04583708,-0.018649697,0.0031274909,0.0090526985,-0.021610709,-0.0012505231,0.031203998,-0.013743637,0.017579185,0.011088233,-0.011258359,0.01736403,-0.044030897,-0.016537534,-0.010884007,-0.025724322,0.003844795,-0.04874421,-0.033598993,-0.02331127,0.028827643,0.05388485,-0.020539206,0.0177934,0.028400235,-0.026821831,-0.032774445,-0.016272726,-0.019186579,0.023622967,0.05808342,-0.031625986,0.0055719214,-0.0238983,-0.03006066,0.017475115,0.008011667,-0.012468145,-0.014987545,0.0011323899,-0.004347502,0.016221972,-0.026776409,0.024376854,0.021549195,-0.005735951,-0.037360843,-0.05940903,-0.0076464145,-0.00313352,-0.01737116,0.024085436,-0.0016622413,-0.036898445,-0.004977437,5.27394e-40,9.04593e-40,-1.013035e-39,-1.8652e-40,1.89063e-40,-2.17047e-40,-4.87108e-40,-1.9794596e-38,-2.16548e-40,0.028001988,0.06325489,0.07832119,0.018028265,-0.06018708,0.017748455,-0.054216206,-0.07288829,-0.07603501,-0.024749657,-0.020726604,-0.07032076,-0.010645278,-0.03815803,-0.05343309,-0.03437247,-0.043052826,-0.02438,-0.025412222,0.029394647,0.04034931,-0.037715044,0.010728133,-0.018922735,-0.021268677,-0.01598246,-0.038758416,-0.014797244,-0.024397634,-0.024512582,0.03315212,0.011236737,0.026989466,0.030330293,0.03751129,0.012774414,-0.028907396,0.042476155,-0.008329467,0.04102488,0.009274371,0.013879795,-0.011321404,0.008797623,-0.0003536752,-0.030623438,0.025534105,-0.01526298,0.005394077,-0.018599475,-0.021382783,0.063524,0.027404532,0.05322311,-0.043266185,0.009040243,0.0312481,-0.03017189,-0.013786195,-0.015023763,0.076655045,-0.011901516,-0.0243341,-0.011077842,-0.017684016,-0.017687896,-0.0070394157,-0.029789967,-0.037281938,0.040016454,0.013955156,0.02884117,-0.06947271,-0.03764084,-0.00043700452,-0.010526656,0.00012445371,0.01190643,0.010460505,0.009807908,0.02167455,-0.028599966,-0.0066771703,0.012702678,-0.026252082,-0.031219073,-0.018002955,0.011403789,0.018908706,0.08498451,0.022948502,-0.028143367,0.010037459,0.0082568005,-0.040378466,0.023664756,0.017890943,-0.01687238,0.005920213,-0.012898028,-0.019830234,0.0033844707,0.04616595,0.018763334,-0.004079849,0.01427388,-0.022306722,-0.04872787,0.0052807257,-0.016552687,0.012615327,-0.025950374,-0.07258434,-0.06920789,-0.047812894,0.0032416782,-0.00077438465,0.04022925,0.07085084,-0.03944127,0.04159039,0.052299883,-0.10127534,0.0006644141,-0.023605142,-0.045592204,0.03407278,0.003490833,-0.02999385,0.024726076,-0.01478308,0.018961374,-0.029551212,-0.041367177,0.04065919,0.03823512,0.020746084,-0.0038206086,0.024723042,-0.0045002345,0.011162642,-0.032912906,-0.008239359,-0.03475248,0.0030643651,-0.0455499,-0.010398336,0.0704101,0.031819627,0.09987634,0.04421958,0.030690929,0.028797096,0.01810611,0.025139775,0.025975896,0.0085152,0.010459003,-0.04910085,-0.017308101,-0.06628934,-0.019598829,0.0003867534,-0.007852985,-0.010145556,-0.034566298,-0.00778315,0.0054646437,0.048885413,-0.04001581,-0.03647863,-0.06318092,-0.0069509596,0.02291626,0.026753949,0.015180404,-0.014375637,0.02228026,-0.008331505,-0.016681492,-0.013837206,0.017565755,0.044593345,-0.0030395007,-0.01013585,0.036132477,-0.021433312,-0.046500105,-0.015366363,-0.0022636328,-0.059144765,-0.05308779,0.018691132,-0.0019628133,-0.009107656,0.0024314683,0.03211639,0.034068905,-0.028358955,-0.011311883,-0.025354218,-0.004664685,-0.011013471,-0.04202836,0.033279918,0.029926075,-0.0137861045,-0.0066638244,-0.0018740923,0.06070002,0.0008979804,-0.034396477,-0.0065850955,-0.0444614,-0.045331117,-0.056367096,-0.018284438,-0.021236362,-0.03870383,-0.024349548,-0.025382621,-0.03599647,-0.033651814,-0.0695991,-0.04869764,2.00795e-40,-3.20303e-40,6.57219e-40,-7.92406e-40,4.54985e-40,-1.094507e-39,-7.4702e-41,-1.27199e-40,-9.0229e-40,-0.02526308,-0.014305725,-0.0064854645,-0.039473027,-0.01634393,-0.008203826,0.007285749,-0.029852515,-0.00094665965,-0.031460453,-0.029060282,0.023649916,-0.052558325,0.01665871,0.07689635,-0.054174304,0.02261863,0.07243129,-0.015010202,-0.02289851,0.013858288,-0.048696738,-0.018641677,0.0026953043,-0.013931575,0.0020618886,-0.029648868,-0.02729786,-0.010827637,0.0047296085,-0.092010334,-0.032479357,-0.0085997125,-0.05375416,0.021477254,0.034665983,0.00819843,0.043573286,0.010797092,-0.029336886,0.0022018317,-0.04028904,-0.04027924,-0.0034285022,-0.045766354,-0.0012520315,-0.021957215,0.02431973,0.006996019,0.005722183,-0.013794857,0.01688016,0.05355825,0.024526292,0.012550777,0.00074086053,-0.046929307,0.016704308,0.022821909,-0.00062222267,-0.03363215,0.0028966027,0.02799562,-0.0025881333,0.007197286,0.016680053,-0.031724792,-0.015467438,-0.011672463,-0.05049175,-0.019745998,-0.038655575,-0.043582417,-0.07001305,-0.035159614,0.052631907,0.014639323,-0.01217232,0.04016173,-0.008284529,-0.051104624,0.0042636623,-0.009367974,0.051326353,-0.017996885,0.015699208,0.023158345,0.007951237,0.0018362722,-0.021437202,-0.007097716,-0.012108258,-0.031069778,0.044281334,-0.0123655675,-0.02368232,0.060750727,0.023720076,0.061089538,-0.0118995,0.073792644,0.0571632,-0.012260551,0.012122475,0.05516284,-0.028825428,-0.046771716,-0.023729814,-0.019208653,-8.7949215e-05,-0.004590866,-0.026083361,0.02305289,0.0027614885,-0.041605502,0.07805294,0.08380694,0.032152556,-0.008686785,0.031657286,-0.0053774305,-0.020631598,0.018096955,0.0035665047,0.0040677264,-0.035954613,-0.021352371,-0.008495052,0.050414193,-0.03720524,-0.0011814793,0.019894006,-0.044781785,-0.01872482,-0.022771442,-0.029077606,-0.0023280757,0.04378144,-0.012459999,-0.025130183,0.048323594,-0.036971673,-0.03613936,0.014129197,0.005048582,-0.038356908,7.9592755e-05,0.01682143,-0.0028867372,0.008815065,0.01636082,-0.0058410573,-0.0586127,0.039048534,0.06511494,0.030843098,0.024679497,0.023328664,0.015129266,-0.005368631,0.009704323,0.0043094154,0.016191578,0.0038145469,0.012501513,0.009508956,0.032481328,0.010758184,-0.011069931,-0.0014605402,-0.017431384,1.8661e-40,-6.0849e-40,7.48062e-40,1.122315e-39,4.4822e-40,-5.63371e-40,-7.28724e-40,-2.40302e-40,1.373858e-39,0.03966453,-0.03881147,-0.030310659,0.028658077,-0.06230072,-0.05460744,0.024211591,0.011776323,0.034098294,-0.055907063,0.0058733514,-0.008242834,-0.014785304,-0.011464974,-0.022627749,-0.044809368,0.001322323,0.031032644,0.019223297,-0.045932423,-0.0065762727,-0.019440833,-0.02398348,-0.004842975,-0.032814108,-0.023910686,-0.034685466,-1.049574e-39,-1.32591e-39,-4.54482e-40,-7.54116e-40,-5.17401e-40,7.63081e-40,-7.2067e-41,1.80845e-40,9.72203e-40,0.0040259226,-0.025916826,-0.024165694,-0.005439267,-0.0104797045,0.007317527,0.007294454,-0.01958967,-0.04081496,-0.005457707,-0.04487016,-0.036278293,0.0066783293,-0.009949563,-0.028614676,0.019973762,-0.0041438937,-0.0063044443,-7.48101e-40,-7.47268e-40,6.55502e-40,9.03151e-40,7.006e-42,5.46508e-40,-1.2025677e-38,-3.2054e-40,-1.4612782e-38,0.01619135,0.036690313,-0.022559777,0.011085501,-0.008299345,-0.0044108503,-0.00989234,-0.014628867,-0.03479034,-0.054545674,-0.07154045,-0.03686594,0.00749728,0.01504339,0.0514631,-0.0025394491,0.01073868,-0.009482458,0.012791208,0.017068349,-0.0015013689,-0.049286697,-0.05017064,-0.05269428,-0.014893075,0.017998481,0.008430809,0.0136887,0.03056063,0.042045373,0.0097794,0.0099115465,-0.012501039,0.026975373,-0.004296938,-0.014816754,0.009102536,-0.016754387,-0.01675098,0.010468911,0.037198316,0.004508765,0.010469988,0.06762686,0.039178282,0.006832341,0.011342583,0.00883583,-0.02390258,-0.052012835,-0.017012376,0.0044907546,-0.052653316,-0.0360084,-0.04115563,-0.030452956,-0.001894514,-0.025646593,-0.0061227647,0.041110788,0.022171928,0.073802166,0.025359903,0.0021113309,-0.0013920041,-0.012152669,-0.019764964,-0.005220924,0.0016509064,-0.019817164,-0.05051722,-0.04369719,-0.019535888,0.0021461213,-0.004840805,-0.017526528,-0.017553734,-0.004881159,-0.019571703,-0.029427964,0.011508472,-0.033550374,-0.023779083,-0.057535443,0.016984446,0.006890747,0.0024299675,0.019011555,-0.011874596,-0.003711766,7.31786e-40,3.44222e-40,-6.26166e-40,1.6242868e-38,4.56438e-40,-6.43375e-40,1.1652595e-38,2.80938e-40,-7.59163e-40,0.069312684,0.03679917,0.015497964,-0.021112874,-0.022156212,-0.04037469,-0.025691528,0.013593901,-0.015781712,-0.0062460983,0.020442301,-0.034878302,-0.00015321093,-0.02169316,-0.034713995,0.0111086415,-0.06265526,-0.010000891,-0.0028466312,-0.0062679676,-0.015845526,-0.0015230763,0.0048108376,0.0065923985,0.04922249,0.028614255,0.036852084,-0.005316039,-0.003352859,-0.026993861,-0.03884393,0.014222024,-0.03978519,-0.0024565752,0.03251588,0.03927263,-0.020457663,-0.0055115516,-0.008413512,-0.04927374,-0.03537606,-0.04423125,-0.039180696,-0.001113952,-0.013047209,-0.043317318,-0.040258113,-0.024982266,-0.02971216,-0.034484636,-0.012978594,-0.0023482265,-0.018946838,-0.013080647,0.0121949045,-0.012808092,-0.0325709,-0.019389816,-0.0066395886,-0.0030108981,-0.039271384,-0.007660339,0.0053322245,-0.031029742,-0.014000845,0.0031613207,0.021770705,0.013652516,0.030839883,0.016349193,-0.0048172576,0.016987668,0.016818937,0.008107463,-0.013862169,0.019285304,0.010197917,-0.0064880843,0.0097693,0.0017663229,7.8379344e-05,-0.0054875216,-0.04009435,0.0073137064,0.01563789,-0.0059294743,0.0064518848,0.0013046793,-0.004784026,0.009856856,-0.027304392,-0.037764575,0.01127187,-0.01937823,-0.034760863,-0.03190459,0.010413712,0.025045086,0.016153067,0.02124403,-0.0012260934,0.0011200223,0.036976594,0.062585354,0.05988241,-0.0061295186,0.04012061,0.0072809034,-0.026894458,-0.025740901,0.01039178,-0.016061451,0.011700095,-0.001831355,-0.00029982527,0.0014578935,-0.026022876,0.0072247325,-0.025532823,-0.045137193,0.015830547,-0.013149975,-0.041276157,-0.0143467095,0.02321429,0.0008784379,-0.020981755,-0.012170264,-0.00058633846,0.025797535,0.008473375,-0.013865851,0.020635074,-0.024927104,0.0041297213,-0.013049127,-0.02807254,-0.031179428,-0.002887198,0.01528553,-0.022296784,-0.026141264,-0.013120133,-0.033094622,0.014964577,0.0054747663,0.0141504,-0.0067664622,-0.03907665,-0.0026812842,-0.012393771,-0.01587014,-0.014300162,-0.037297856,-0.014356164,-0.0031904075,-0.014285957,0.019083444,0.036048,0.015177967,0.00038336523,-0.027424827,-0.038795196,-0.027791899,-0.0082994765,0.038066998,0.026633674,0.0010706063,0.012379149,0.024597883,0.003384123,-0.01988606,-0.023290528,-0.042805616,0.011071876,0.022239432,0.029255271,0.01855475,0.029453866,0.04198876,-0.054805275,-0.034733705,-0.05238461,-0.0461083,-0.009067442,-0.02312839,0.035430502,0.013955096,-0.010535929,0.022247711,0.036454495,0.036943264,0.006002049,0.03721511,0.013603949,-0.03923806,-0.019957343,-0.005053503,0.0021100692,0.00741041,0.0031935023,0.01569318,0.0274493,0.00024482672,0.033247776,-0.009447306,-0.031805642,-0.030390715,-0.05352945,-0.006063891,-0.005605955,-0.025319273,-0.010965524,-0.018899323,0.00065341213,-0.020090345,-0.051691934,-0.055350557,-0.016356153,0.02028139,-0.00045088894,0.0015150483,-0.029792774,-0.013653803,-0.042342424,3.64206e-40,-7.51645e-40,-7.05869e-40,7.6935e-41,7.86e-41,-9.66218e-40,-6.68453e-40,5.19411e-40,-9.04614e-40,-0.0469628,-0.024259277,-0.023246972,-0.008966834,0.014511446,0.0015828325,-0.012896247,0.017018335,0.014727441,0.008017602,-0.0051789577,-0.02610949,-0.009501881,-0.0077832947,-0.05750621,-0.008127051,0.022459043,-0.014890918,-0.0022370587,-0.022544157,-0.0018031507,0.0063847336,-0.053650055,0.011405342,0.010027101,-0.03845666,0.010817942,0.006825545,-0.013353476,0.0074979155,0.0009278805,-0.014804095,0.02649807,-0.008580098,-0.0068045435,0.014525148,0.030297102,0.0025201503,-0.018209958,0.03931094,-0.0038748768,-0.05756271,-0.027694995,-0.009559653,-0.03268845,-0.005160896,-0.0073937257,-0.031990074,0.027498024,-0.0020152587,-0.022516746,0.02469261,0.003705946,0.0035570748,-0.0020489923,-0.014266616,-0.033222735,-0.008631217,0.005646879,-0.024519773,0.025239317,-0.01230973,-0.058679227,0.036978066,0.022019021,0.037891276,-0.00784336,0.0030090567,-0.016450912,-0.020114657,-0.053163525,-0.033095397,-0.022872388,-0.008023693,0.014544231,-0.003820731,-0.013265155,-0.010249362,-0.0372924,-0.023045378,-0.005506049,0.017161487,-0.004585321,0.015107371,0.032778885,-0.0006873748,0.036158662,-0.014318824,0.003705996,0.021722887,-0.01978846,0.008456759,-0.020660592,-0.0030649288,-0.011633898,-0.009666077,0.0071904548,0.011377376,0.009059761,0.014298259,0.00973566,0.010804646,-0.013037575,-0.0184027,-0.0020582366,0.036106747,0.022612361,-0.033093028,-0.03108841,0.011386532,-0.028020035,0.033979855,0.03426429,0.016678747,0.011345358,-0.0006704464,-0.00044373833,0.025972152,0.040629428,0.027766699,-0.010225634,0.010200508,0.024217982,-0.045383744,-0.024735618,-0.003159617,0.029371435,0.013596737,0.011775076,-0.006575312,-0.028835323,-0.05450198,-0.026539972,-0.021113152,-0.029649315,0.012243898,0.019557925,0.003403838,0.05148115,-0.00032798038,-0.011949745,-0.011025413,0.0041618687,-0.0029740806,0.006766174,0.0144411735,0.0064405,0.00089676824,0.010034675,-0.016587421,0.0051659285,0.0018974745,-0.0168918,-0.031099541,-0.013686426,-0.0065308055,-0.042795237,-0.033634882,-0.03815741,-0.00015065282,-0.024757998,-0.025634868,0.026297558,0.045970816,-0.0036479398,-0.008304168,0.0075523895,-0.010807889,-0.018115418,0.013180881,0.031524226,5.85088e-40,8.60184e-40,1.154701e-39,-1.77996e-40,1.73575e-40,-2.89704e-40,-4.24366e-40,4.6505e-41,1.006385e-39,-0.012790686,0.03024175,0.02888988,-0.020752486,0.000752637,-0.01706356,-0.015346788,0.010713441,-0.039276004,-0.023035927,-0.0077831494,0.0007999292,0.015903067,0.031150183,0.011158889,0.0059463005,0.017096287,-0.007999745,0.029077703,0.023795351,0.035490114,-0.0034437203,-0.027926726,0.0024207872,-0.06193277,-0.03012039,-0.017943662,-1.005436e-39,7.29412e-40,2.6511e-41,-6.49925e-40,4.44852e-40,9.05794e-40,8.17885e-40,1.40753e-40,-2.98869e-40,-0.0074227597,0.008923719,0.014062753,-0.008022714,-0.02095983,-0.008991242,-0.021127377,-0.035994675,-0.016102415,-0.028066318,-0.051689573,-0.051014736,-0.03394452,-0.05369603,-0.03622315,0.0028647154,-0.02679875,-0.03485149,0.0,0.0,-0.0,0.0,0.0,0.0,0.0,0.0,0.0,0.0,0.0,0.0,0.0,-0.0,0.0,-0.0,-0.0,-0.0,0.0,-0.0,0.0,-0.0,-0.0,-0.0,0.0,0.0,-0.0,-0.0,-0.0,-0.0,0.0,0.0,-0.0,0.0,0.0,0.0,-0.0,0.0,0.0,-0.0,0.0,-0.0,-0.0,-0.0,-0.0,-0.0,0.0,0.0,-0.0,-0.0,-0.0,-0.0,0.0,0.0,0.0,-0.0,-0.0,0.0,-0.0,0.0,0.0,0.0,-0.0,-0.0,-0.0,-0.0,0.0,0.0,-0.0,-0.0,-0.0,-0.0,0.0,0.0,0.0,0.0,-0.0,-0.0,-0.0,-0.0,0.0,0.0,0.0,-0.0,-0.0,-0.0,0.0,0.0,0.0,-0.0,-0.0,-0.0,0.0,-0.0,-0.0,-0.0,-0.0,0.0,0.0,-0.0,0.0,0.0,0.0,0.0,0.0,0.0,0.0,-0.0,0.0,0.0,-0.0,0.0,0.0,0.0,0.0,0.0,-0.0,-0.0,-0.0,0.0,-0.0,-0.0,0.0,0.0,-0.0,-0.0,-0.0,0.0,-0.0,0.0,-0.0,-0.0,-0.0,-0.0,-0.0,-0.0,0.0,-0.0,-0.0,0.0,0.0,0.0,0.0,0.0,0.0,-0.0,0.0,0.0,-0.0,-0.0,-0.0,0.0,-0.0,-0.0,-0.0,-0.0,0.0,-0.0,0.0,0.0,0.0,-0.0,-0.0,-0.0,-0.0,-0.0,-0.0,0.0,-0.0,0.0,0.0,-0.0,-0.0,0.0,-0.0,-0.0,-0.0,0.0,-0.0,0.0,-0.0,0.0,-0.0,0.0,0.0,0.0,0.0,0.0,0.0,0.0,0.0,0.0,-0.0,-0.0,-0.0,0.0,-0.0,0.0,-0.0,0.0,0.0,-0.0,0.0,0.0,-0.0,0.0,0.0,0.0,0.0,-0.0,0.0,0.0,0.0,-0.0,-0.0,0.0,-0.0,-0.0,-0.0,-0.0,-0.0,-0.0,0.0,-0.0,-0.0,-0.0,0.0,