-1.784978e-39,-0.008314178,0.0041523054,0.31000498,0.1919885,0.92846924,-0.42198858,-0.91682166,0.014705498,0.12339649,-0.70136166,-3.625001e-39,-0.16076228,0.18980968,-0.62461454,0.059674088,-0.0386985,0.10140206,0.10951402,0.2057149,1.4773328,0.08709669,-1.6554017,0.016074812,0.5861917,-0.8162802,0.26547146,-0.88882405,-0.08842261,-1.7527117,0.76856416,0.5238945,-1.1960077,0.7048883,0.48202088,0.6713636,0.42208344,-1.948434e-39,0.7809434,-1.0645629,-0.18135342,0.017007453,0.56447,-1.3316869,-0.14822401,-0.018715069,-0.31176364,0.074864924,0.4795319,-0.024192346,-0.22549555,0.055109467,-0.0014956685,-0.8240935,0.8740266,0.13899209,0.44348645,-1.91281e-39,0.1319329,-0.1797928,0.75171584,-2.528454e-39,-0.024431873,0.017794492,8.58421e-40,-0.010963389,0.025265586,-0.35979438,0.2648944,1.0301347,-0.3281565,1.4278638,0.13053727,0.7857349,-0.5525012,-2.511203e-39,-1.4405646,-0.078793645,0.44834518,0.23354454,0.016097607,-0.18965654,-0.01545395,-0.03807711,-1.0151066,0.021215966,0.14151889,0.15017408,0.42130724,0.82125956,0.26780978,-0.77797663,-0.110960804,0.93657976,0.6494182,0.9356703,1.0412998,0.4943117,0.62778443,0.043581277,-0.81048554,-2.256306e-39,-1.5125359,-1.478733,-0.067709416,-0.09004973,0.33452407,-0.7384258,0.04940148,0.02217147,0.5657844,0.09828843,-0.29185215,0.09132041,-1.1765925,-0.09510066,0.04554499,0.62867194,0.14147359,-0.00033740158,0.42727655,-1.007597e-39,-0.02453812,-0.69540775,-1.0421314,3.146258e-39,0.021754667,0.010331799,3.31665e-40,-0.07451669,0.03692479,0.222659,0.05384945,0.46603832,-0.99957097,-1.2705504,0.059195567,-0.49206805,1.2863841,-2.576738e-39,0.51219976,0.15701155,-0.6785033,-1.2918617,-0.10074303,0.09296823,0.016040688,0.20842813,-1.7441618,0.4743434,0.86048186,0.05695621,1.1304631,-0.9011675,0.24033414,0.87068653,-0.31220886,0.68732893,-0.8056111,-0.92972994,-0.9024155,0.6889998,-0.7384072,0.37591487,-0.3702724,-1.5191e-40,0.59852976,-1.2218895,0.0042602704,0.13009085,-0.24833386,0.338041,-0.101786144,0.069525525,-0.8895386,0.0547507,-0.83838195,-0.023323087,0.8256826,0.0038344678,0.0061835353,0.53113097,0.75479954,0.16272178,0.60823435,1.883604e-39,0.018349772,0.59875804,0.5098149,6.84131e-40,-0.028088657,0.030652616,6.80648e-40,0.05682689,-0.055230144,-0.21718387,0.203306,-1.5561222,0.736324,-0.9955943,-0.066856764,-0.0020139518,-0.93121815,2.466836e-39,0.6670848,0.52429295,0.43704918,0.25160283,0.048747763,0.371582,0.009680096,0.14885314,0.40927014,0.9530963,0.038558464,-0.03271326,0.3749737,-0.6954666,-1.095762,1.2170066,0.23545842,0.4566636,0.39071292,0.54231334,0.86056286,-0.9762503,0.2727467,0.41853508,-1.0166003,-3.329388e-39,0.25381425,-0.51152617,0.3446419,0.029075552,-1.6427535,0.465124,0.033776715,-0.042330552,0.38751888,-0.11325196,0.26596838,-0.07942888,-1.4107655,-0.1813962,-0.023108955,0.43015602,-0.90257424,0.049405333,-0.46266156,3.443981e-39,0.17761822,0.09140287,0.7416133,2.583162e-39,0.04782108,0.03303326,1.313706e-39,0.064155795,0.020954592,0.013070932,-0.121510796,-1.5393136,-0.9970017,0.34592435,-0.07443662,-0.32260177,-1.095271,2.365034e-39,0.7454881,-0.3882,0.6233325,-0.1667345,-0.08135887,0.43679756,-0.0021054484,0.10707578,0.7887813,0.20431064,0.62579936,0.048763487,-0.9264577,1.1816884,-0.6992569,0.45403597,-0.050754856,0.118539065,1.3653473,-0.58057636,-1.5853418,0.37646785,-0.7619347,-1.5236914,0.6496447,-1.228855e-39,0.5909309,0.7198028,-0.009784211,-0.030383348,-0.30804226,0.57562953,0.04467653,0.020066714,-0.72042704,0.13556874,-0.5523658,-0.060110006,0.5549205,0.24618062,-0.038888305,-0.59520644,0.79627967,-0.094838694,0.6332894,-3.867622e-39,-0.09959354,0.5240044,-1.3687723,3.860283e-39,-0.011518084,-0.040052935,-5.72983e-40,-0.0029690175,-0.0047928994,-0.1692087,-0.25367004,-1.414187,-1.7161274,0.8189375,0.058038544,-0.60419035,0.82406557,-1.372917e-39,0.7760444,0.21010712,0.5088736,0.49080938,-0.020340934,-0.49462456,-0.014388776,-0.410807,0.5897218,0.4817836,0.0061975336,-0.02817596,-0.6686427,-0.49572268,0.51014274,-1.3480167,0.7982546,0.61023325,-1.9164748,0.24403325,0.8309408,-1.3055514,-0.7396631,0.1858576,0.1290243,-2.503473e-39,0.032471865,0.92017347,0.099558964,-0.14245427,0.71005976,0.49930888,-0.019065939,-0.010219719,0.8229277,-0.003447058,0.7426921,0.03103939,-0.8618764,0.0028028546,-0.10399948,0.30079708,0.8654728,-0.10720203,-0.70531166,3.29577e-40,-0.13415945,0.28366002,0.5408193,-2.492086e-39,-0.023132728,-0.09876998,-1.894508e-39,0.08431859,-0.080354854,-0.021230474,-0.08148467,0.8507123,1.1637708,0.71928996,-0.08249029,-0.17881507,0.25978407,-2.674237e-39,0.39936477,-0.2273545,-0.6975463,0.5594375,0.019828474,0.4392817,0.081682764,-0.1288395,-1.1454856,0.6453644,0.39049682,-0.058818813,0.2260778,-0.48177618,-0.04735419,-0.028213134,-0.17504248,-1.8061281,0.7652621,-1.1854415,0.98926497,-1.1385121,-1.2034826,0.6010132,-0.56532854,2.72461e-39,0.5744136,0.4350728,-0.13551253,0.07962197,0.45074353,0.74641275,0.16397585,0.037341435,-0.55538225,0.08001121,0.28462434,0.01753631,0.70393795,-0.13526957,0.046923574,0.40710825,-0.8507021,-0.10623212,-0.44912338,-1.03807e-40,-0.061022684,-1.0748826,-1.265548,-1.036119e-39,0.029495323,-0.027559642,1.64503e-40,0.008687718,0.01890424,-0.18946207,0.07031316,-1.0244452,1.5304234,1.08408,0.02155097,0.6610754,0.92610145,-1.971446e-39,0.74910194,-0.20486628,-0.39908785,0.23999317,0.07036942,-0.40275565,-0.06383584,-0.0023249106,1.1646998,-1.3078533,0.0962245,-0.026048584,-0.065391816,1.0246228,0.52618223,-0.8718061,0.031950552,0.64162767,-1.0548849,-0.78049535,-1.2680026,0.16690806,0.3490718,0.6778486,0.4641041,-7.38788e-40,-1.4714774,-0.1395214,-0.085033596,0.04302875,-0.66658634,0.18452252,0.006339089,-0.024364267,0.43675354,-0.1487983,-0.9258153,0.025352111,1.1070186,0.28624997,-0.0071473033,-0.9298104,-0.712459,-0.0053891367,-0.3942219,-1.38271e-39,7.644176e-05,0.29636785,0.31842586,7.35699e-40,0.03407049,0.087405406,-5.53765e-40,-0.06711474,-0.09391687,0.4841119,-0.16730188,0.9687818,0.49964562,-0.3231599,-0.010715023,-0.7174944,0.6901413,1.646643e-39,-1.4514737,0.19185458,-0.6089067,-0.71115404,0.040381547,-0.033871267,-0.021671051,0.06937419,-1.107684,-0.6995661,-0.4929679,-0.070652895,-0.6207628,-0.4736666,-0.60541236,0.9264031,-0.0023963389,-0.8711203,0.5798108,0.46849525,-0.8109376,0.81969476,0.7837462,-0.89134073,0.95163983,-3.045927e-39,-1.0057741,1.136109,0.021151396,-0.0050671487,0.39348274,-0.3468329,-0.049040265,-0.011177518,0.8697508,-0.15064424,1.1185875,0.01626641,-0.7123724,-0.17618035,0.069876865,0.7405168,-0.42148376,0.036307022,-0.50341666,-7.17815e-40,0.071749195,0.84571385,-0.33855408,1.88126e-39,-0.018990621,0.0026079805,-3.088767e-39,-0.055552617,0.10689764,-0.010637548,-0.19234443,0.8860182,0.3056538,-0.9207817,-0.060841825,0.7420958,-0.6696879,2.937364e-39,-1.7882277,-0.23318793,0.7522065,0.28585708,0.010990169,-0.21803841,-0.12015567,-0.20067371,0.01039876,-0.9531424,-0.067433916,-0.0666968,-0.64210486,0.7865047,0.5271469,0.29595184,-0.15511896,0.354958,-1.0821066,0.47072107,1.5149204,-0.12730278,0.81158715,-0.80555505,-0.0047346107,1.64273e-40,0.73555404,0.9354175,0.019010983,-0.051952295,0.28594923,-0.70046383,-0.009970746,-0.06643452,-0.83289945,-0.029868266,-0.58934146,-0.02280518,1.0762588,0.049494136,-0.02675372,-0.94324887,-0.6681987,-0.046802476,0.28503364,3.473453e-39,-0.06688976,-0.9407615,0.8191787,-2.82094e-39,-0.0423721,-0.04381055
