0.047078405,0.024095044,0.04564003,0.011841273,0.05101426,0.021451887,-0.036929317,0.11170467,-0.0055628656,0.005863419,-0.06420423,-0.028003784,-0.036289793,-0.11493019,-0.1290993,-0.08777414,-0.015456362,-0.090939134,-0.021888183,0.016528806,-0.016327253,0.06395532,0.11439801,0.024877336,0.052080378,0.16763441,-0.0077179903,0.019605849,-0.035068702,-0.0050678533,-0.023028456,-0.081683114,-0.055404916,0.002527223,0.068914555,0.052176476,-0.024373585,-0.07174965,-0.037556283,-0.0038719145,-0.036071103,-0.034511525,0.057889983,0.15086482,0.08972652,-0.002389137,-0.06296152,-0.027933909,-0.039875884,-0.08172134,-0.07468312,0.046188265,0.10972567,0.071115844,0.014010222,0.183067,-0.12835531,0.22561531,0.18023525,-0.0146149555,-0.036090568,0.11488205,-0.0848858,-0.112052016,-0.120032355,0.039788015,-0.1342573,-0.40222874,-0.03902242,-0.035605796,-0.053704057,0.03449795,-0.012032329,0.016171925,0.059092436,0.004968209,-0.1571238,0.065055,0.057079416,0.039970633,0.035492238,0.13064149,-0.13453832,0.114267424,-0.013496692,-0.38080505,0.07888054,0.12177866,-0.012774982,0.17373005,0.08639147,-0.078602724,0.1574526,-0.09097529,-0.3233954,-0.03398578,0.10859834,0.051624347,0.039331805,0.029621774,-0.13311544,0.06303716,-0.07872844,-0.2516267,-0.16039394,-0.02913151,-0.0005981031,-0.07020834,-0.06444181,-0.049827304,-0.023978764,-0.05803711,-0.03133077,-0.027560068,-0.025715517,-0.021104306,-0.011703422,-0.014296982,-0.015683426,-0.010974075,-0.0063091205,0.0037663965,-0.012338827,0.0074015665,-0.0024114081,-0.0027808507,0.03614467,0.0255087,0.0096783945,0.04136097,0.043730747,0.012362494,0.03518404,0.017330732,0.0101722935,-0.05070253,-0.34362403,-0.2623266,0.08153891,0.49877915,-0.023403231,0.06459645,0.34113488,0.050530057,-0.08860524,-0.18127587,0.036866255,-0.114406936,0.15588869,0.062461603,0.05200652,-0.105690956,-0.012476811,0.14916542,0.14019567,0.20888674,-0.13616273,-0.0071491743,0.043188203,-0.05594494,-0.23005852,-0.12383256,0.023382533,-0.008215968,0.060256682,-0.12096205,-0.17266431,-0.2258187,0.09612954,-0.14976281,-0.117136374,-0.17739639,0.031643506,-0.0019718616,-0.04571785,0.60399073,0.41721737,-0.098507,0.17856383,0.22469603,0.17720674,-0.069974236,-0.081056416,0.085918054,-0.035593454,-0.18455373,-0.0096266195,-0.22020125,-0.16137446,0.025776753,0.029479047,0.024647415,-0.21386294,0.13764763,0.05437493,-0.045412455,-0.03013386,-0.032661907,-0.085995086,0.03148343,0.016114306,-0.22041889,0.2268254,0.105962425,0.0036460836,0.036576815,-0.049658325,-0.102300696,-0.04971703,-0.031919923,-0.23166561,0.17558055,0.12306064,-0.0017505384,0.10778466,0.031478275,0.08089753,0.12142433,0.054014318,0.054440517,0.04512168,0.02416826,0.0017111648,-0.044520892,-0.06136626,-0.003221182,0.02758258,-0.008921103,-0.050944667,-0.05625856,-0.03990533,-0.013516538,-0.048421454,-0.06266452,0.022382291,0.07953553,0.028832365,-0.0294693,0.0011674729,-0.011882019,-0.024005493,-0.024583505,-0.044126824,-0.018610898,-0.029155862,0.028011326,0.008315524,0.050049864,0.077860065,-0.08783986,-0.05041403,0.05354495,0.003965472,-0.0010449098,0.043007135,-0.020482326,0.008328458,0.055052027,-0.12691765,-0.09622991,0.018002871,-0.004007552,-0.008134936,0.0070251385,0.035030555,0.057530835,0.05656855,-0.06565126,-0.033388875,0.00060408056,0.27182767,0.092576325,-0.28061807,0.6661846,0.06816099,-0.6195118,0.16410795,-0.07832942,-0.3659197,-0.068473466,0.068892576,0.13489026,-0.050175663,0.1542052,0.24200836,-0.38780442,-0.059940252,0.11455502,-0.34952557,-0.19399206,0.07368286,-0.2618085,-0.047465626,0.3258831,-0.021041889,0.16480458,0.24952027,-0.041332502,-0.053486716,-0.016411763,-0.037318505,-0.029861145,0.030783627,0.02873348,0.02601856,0.06943549,-0.07826966,-0.06688972,0.035678215,-0.11527499,-0.08126405,0.036872905,-0.025046967,-0.0047280015,0.080011606,0.006604162,0.0036578071,0.06003742,-0.070226274,-0.04857523,0.0338248,-0.016978046,0.0036266227,0.066076964,-0.036332786,0.008592003,-0.03797527,0.0033588437,0.037191782,0.013667716,-0.044665348,-0.009885006,-0.007264599,-0.0010694677,0.06906637,0.036207013,0.058790453,0.100214064,0.08166385,-0.0012214573,0.048468973,0.03622662,-0.011279461,0.033309624,-0.023465918,0.023827031,0.03463455,-0.010184752,-0.024786549,-0.025635885,-0.02880635,-0.035160195,0.10774497,-0.10494881,0.24993186,-0.6125222,0.06826577,0.043239776,0.22578312,0.147715,0.023031509,0.1519741,0.18139917,0.29097024,-0.6286843,0.23058826,-0.15299815,-0.023584828,-0.12404606,-0.13611428,0.069900274,-0.10741077,0.17282681,-0.17658316,0.07143459,0.09693773,0.028081609,-0.0156657,0.33169323,0.3115051,0.057522047,0.03899162,0.19777134,-0.1770085,0.02490075,-0.39368194,-0.33701706,-0.29153046,-0.113573104,0.37748992,-0.7698658,0.105864435,0.4660381,-0.3476062,0.045480732,0.450785,0.19062924,-0.48535764,-0.4552062,0.41803336,0.1297904,-0.35147503,0.43834868,0.2209292,-0.06208944,0.034970585,-0.055471797,-0.0019795948,-0.021772156,-0.1483937,-0.108032,0.05567332,-0.13925995,-0.07943946,0.0064121555,0.0071888887,0.007676979,0.013368005,0.066222936,0.0385845,0.016918646,-0.049611643,-0.005152774,-0.058291983,0.06172303,0.010636212,0.0067492765,0.24030183,0.14840002,-0.07935654,0.05636641,0.03693155
