0.017188465,-0.1519125,0.0358309,0.0076577766,-0.12839669,0.035131425,0.04197615,0.08585489,-0.06259794,0.0416687,0.0873564,-0.066531494,0.0038943489,0.043069795,-0.047042068,-0.0047299173,-0.04711556,-0.0217237,-0.013120621,-0.070610374,-0.014389315,0.1126316,0.12206905,0.035492953,0.057685677,0.014210551,0.002427213,0.06379471,-0.11076807,-0.079346895,0.044280194,-0.045183096,0.11029978,0.0009614516,0.08615816,-0.034460206,0.0060670977,-0.11737853,-0.005947857,0.023950862,-0.09938272,-0.017405309,0.04179335,0.002256166,0.0065639783,0.035470717,0.011809872,-0.03291893,-0.0024397643,-0.0055994964,-0.039470356,-0.030241195,0.0043991804,-0.027965676,-0.025141839,-0.039608955,0.0018475937,0.01362835,-0.058623474,-0.039763413,0.030800615,-0.05421361,-0.024996368,-0.0052339756,0.15777494,0.096358344,-0.0024226126,0.021376187,-0.042908713,-0.018697463,-0.024026632,0.010242479,-0.15422063,-0.033326607,-0.095344625,-0.08674086,-0.08084776,-0.07863592,0.03199963,0.023588764,-0.030776551,0.008380203,-0.05199773,0.040605072,0.065666854,-0.0690573,0.003510227,-0.00867386,-0.037918527,-0.045229405,-0.083088815,0.07857795,-0.046483286,-0.06937925,0.016654836,-0.03872828,-0.007690112,-0.004956498,-0.028130868,0.0038751853,0.09990243,-0.053511124,0.054905538,0.034254827,-0.024716938,-0.14007574,-0.11985488,-0.10240843,-0.011344391,0.15041591,-0.04145512,-0.05341343,-0.019713825,-0.10470121,-0.014418289,-0.02653707,0.015591614,-0.033381186,0.0030711424,-0.01953896,-0.06488664,0.10015953,0.15938382,-0.011542557,-0.027708504,0.11547176,0.0029220858,0.10012083,0.006789291,-0.062348746,0.017286122,0.014791521,-0.08161579,-0.065227464,-0.07200425,0.07157656,0.05898373,-0.014905382,-0.004245967,-0.053079,0.03786913,0.043711647,0.045684703,0.08457683,-0.087614566,-0.099992685,0.0070190383,-0.017844545,-0.01689421,-0.018294912,-0.07460496,0.013838741,-0.02902944,0.008307754,-0.07592422,0.040641095,0.002159239,-0.1161734,-0.051564235,-0.04324127,0.038790267,-0.012045779,-0.0036801347,0.025149528,0.00022233145,-0.026273504,0.020000096,-0.048107333,0.0031965915,-0.031109408,-0.037584215,-0.059830688,0.0034567716,-0.023703186,-0.027740495,0.04336431,-0.064060286,0.033454992,-0.01885821,-0.026002096,-0.03718672,-0.069841474,0.042648014,-0.050674327,-0.042870704,0.059124373,-0.035811048,0.027746636,0.13014299,-0.054474667,0.002646627,0.004188118,-0.017837584,0.013054731,0.070452996,-0.02822172,-0.03991005,0.022755919,-0.046758957,-0.03977657,-0.019976744,-0.08845548,-0.044312388,-0.052193493,-0.008523398,0.036829036,-0.016062176,-0.073705465,-0.097235836,-0.029679425,-0.06863615,0.038346007,-0.039659757,-0.019068586,0.14765625,0.01520794,-0.03822791,0.011973232,0.05139323,0.13694958,-0.10782018,0.08107397,-0.025999073,-0.00416405,0.0028621482,-0.05542411,0.07834875,-0.02158926,-0.017657954,0.17491291,0.044736404,-0.028286904,-0.01665203,-0.03803868,-0.010426021,0.05974146,-0.056777757,0.17423292,0.09598903,-0.049115248,0.101890385,-0.07877229,-0.012186398,0.06720664,-0.10976679,-0.010294657,-0.06603817,-0.089688405,0.059483353,-0.035704847,0.022613887,0.09583059,-0.020848192,0.07652643,-0.09263512,-0.0875874,0.036094643,-0.059961263,-0.050061055,-0.0065651583,-0.02478082,-0.070534244,0.022870682,0.00255882,-0.001334185,0.05574226,0.0014175968,-0.036461376,0.117421255,0.010629147,-0.018905163,0.055478923,0.0039429152,-0.06879684,0.07332932,0.07214911,-0.04114072,-0.010505262,-0.0682871,0.0042996365,-0.0054058833,0.059162427,0.02091746,-0.02632495,0.024165012,0.053680938,-0.0017756518,-0.00022039274,0.07812169,-0.048958857,0.005811921,0.032517146,-0.02487018,-0.048518986,-0.06731353,-0.03197389,-0.05364311,0.010132551,-0.059685934,-0.011581711,-0.009185758,0.08411425,0.006583969,-0.020863535,0.011608481,-0.030014971,0.024310524,-0.035579596,-0.016524589,0.01641513,-0.0543574,-0.019112322,-0.025235428,-0.051378906,-0.036539223,-0.030884571,-0.050959967,-0.026469,0.069536515,0.012465022,0.064182736,0.076358825,-0.029773442,0.04439023,0.037074704,-0.07009101,-0.09455491,0.024630496,0.023584984,0.022670394,-0.005189565,-0.012656944,-0.089652106,-0.036167983,-0.029381374,-0.021214943,-0.011726275,-0.029004833,-0.036178507,-0.0015267193,-0.029421957,-0.021782033,-0.0025535906,0.030338848,-0.012351852,-0.009590364,0.062328927,-0.026391773,-0.04051411,0.04913817,0.02284589,-0.04413869,0.16699861,-0.008666208,-0.061513837,0.13090274,-0.038956147,-0.102455884,0.026081378,0.033840407,0.028919524,-0.003554348,0.024339154,-0.02023901,-0.0371919,-0.034424793,-0.004702122,0.02055615,-0.017316371,0.05873184,0.003079156,0.01465547,0.00419183,-0.032048088,0.0028790196,0.02032107,0.04580603,-0.045327824,-0.04364409,0.024740627,-0.03895253,-0.04090723,0.071773924,0.08778789,-0.07027306,-0.0054729255,-0.032123014,0.0038100025,-0.09038692,-0.08036016,0.06119977,0.11770582,0.07519336,-0.021937946,0.005246841,0.095984176,-0.006752832,0.10865461,0.058629867,-0.059808437,0.0759695,-0.056729995,0.017923702,-0.009966033,0.02879592,-0.033245537,-0.055855483,0.035398573,0.0016936584,-0.037777826,0.010411482,0.0026667346,-0.009718407,-0.066850565,-0.08193786,-0.040834267,-0.12269433,0.0039819335,0.06218472,-0.010618516,-0.020756118,0.0036487516,-0.0143764755,-0.021122158,-0.00338087,0.011264207,0.020784441,0.119045824,0.048606332,0.009603666,0.04838083,-0.016914545,-0.023350233,0.01627033,-0.014498112,0.0011152528,-0.093707636,0.008667501,-0.035193227,-0.11736825,-0.06715604,0.09855975,-0.008691051,-0.06253308,0.0976002,0.0049251756,-0.06539991,0.06028159,-0.047094222,0.0031549374,0.05854756,0.03749346,-0.04499677,-0.060158648,0.0034982723,-0.07327128,-0.032537222,0.11180242,0.03311197,-0.00996862,-0.023138123,0.03150812,0.014004583,-0.056523677,0.064574726,0.04720443,-0.0059940396,-0.011639461,-0.007672735,-0.004857032,0.039792437,0.056745112,0.07238726,-0.009609439,0.001555091,-0.019725384,0.030473795,-0.061017193,0.010730852,-0.039869707,-0.033418737,-0.047943786,0.01414894,-0.08014406,-0.0013304465,0.0036787658,-0.0059228297,-0.013955061,0.01916253,-0.0007690285,0.03928934,0.05338657,0.02566335,0.08098459,0.09237742,0.038236737,0.0017341838,0.028532602,0.047518462,-0.10360486,-0.022748297,0.008870809,0.043303378,0.02451678,-0.018809054,-0.020022843,-0.004659401,0.09193872,0.017502887,-0.009493738,0.06054189,-0.027752047,0.07964391,0.038723256,0.007993761,0.064715564,-0.062294975,0.015568368,0.055759836,-0.045010936,-0.08393442,-0.059654083,0.091391966,0.05253768,0.016284432,0.06643798,0.013129276,-0.029074475,0.015418425,-0.03983403,-0.03733829,0.04610884,0.04461873,-0.07315078,0.0048018037,-0.021902412,-0.018205246,0.03569624,0.087837115,-0.031552304,-0.027239397,0.023183225,-0.006397374,0.017466044,0.033592775,-0.0072825453,-0.020571662,-0.016085355,-0.041499585,-0.06205851,0.0197562,0.0011020021,-0.018882012,0.041494276,0.04698303,-0.0138272,-0.031183211,-0.03140319,-0.010861879,-0.037489194,0.037343074,-0.0045918208,-0.0050956216,0.07351201,0.021659974,0.027594248,0.018830324,0.02356315,0.062220223,-0.08723309,-0.017411094,0.034469627,-0.02918734,-0.03584825,-0.06021613,-0.042892516,-0.0022851077,-0.024320658,-0.06766133,0.027675746,0.030310443,0.0762913,0.008286891,0.024181934,0.06312933,0.031886525,0.0350022,-0.0028939908,-0.019674174,-0.051803973,-0.057363354,0.013602828,-0.08828252,-0.04991139,-0.004146156,0.019691208,0.029225621,0.033927392,-0.041317433,-0.015894493,0.039877836,-0.045774333,-0.065555006,0.064987816,-0.050001852,0.024133597,0.012672398,-0.03384519,0.0055026333,-0.016584132,-0.103364445,-0.07201493,-0.088039316,0.0916578,-0.028296104,-0.06271401,0.054100335,0.010531729,-0.06151695,-0.05754591,-0.012763943,-0.023244148,0.0010636606,-0.024180766,-0.033920195,-0.00327958,-0.0033564237,-0.022760954,0.005386367,-0.0075217965,0.009132831,-0.083242655,-0.05770225,0.054923084,0.043738484,-0.00936554,-0.023201553,0.014652618,0.03796058,-0.09092904,0.07892856,0.09826958,-0.113818064,0.014862545,-0.021902902,-0.12552461,-0.016712584,0.037468366,-0.024610778,-0.038921874,-0.040380027,0.025770403,0.019013962,0.0067048026,-0.004924717,-0.03634829,0.009245936,0.008956367,-0.023671806,-0.022484925,0.028708586,-0.041157983,-0.045919172,0.038390215,0.0075220615,-0.038589977,-0.030043883,-0.048889413,0.039371487,0.01063042,0.022402177,-0.043507975,0.059758015,0.06693278,0.00042385492,0.01300993,0.07552728,0.19278184,-0.045210194,0.044246413,0.09396138,-0.05945858,-0.01956967,0.015927915,-0.0110440785,0.0040613147,-0.025508864,0.031323787,-0.050616276,-0.069794156,0.06428587,0.016221764,0.027292617,-0.03958152,-0.051493686,-0.0009890903,-0.012969212,0.0034082115,0.014814427,0.012959747,0.007705382,-0.025769874,0.19634022,0.017089263,-0.0063298536,0.0097244,-0.06987128,-0.019649094,-0.00092810666,-0.109434165,-0.058832526,-0.002353776,-0.08319717,-0.03648131,-0.050355013,0.0017293334,-0.09285099,-0.036123388,0.041927863,-0.026171574,0.0068997005,-0.05521323,0.047069952,-0.04023617,-0.19094118,-0.00080273824,0.084688164,0.024312887,0.07643636,-0.0016810982,-0.059954263,-0.062328056,0.002206959,-0.07195652,0.014860536,0.07389675,-0.07245092,0.01331772,-0.0187912,-0.022749314,-0.07447758,-0.048270456,0.002593457,-0.04622914,-0.07801669,0.054578044,0.014536713,-0.012738618,-0.047627993,0.010713472,0.021717018,0.0036795298,0.030036502,0.052300874,0.014499893,-0.02907329,0.031109607,0.05756115,-0.0046806303,-0.0049637775,0.018743528,0.015781123,-0.0006293057,0.03777874,0.032713514,-0.015587555,-0.005518853,-0.021511663,0.022123612,0.023474982,-0.012945431,0.017563758,-0.016620345,0.0050533735,-0.018565848,-0.022573676,0.017041963,-0.06876272,-0.09168448,-0.018621339,0.020250186,-0.05612682,-0.04738312,-0.07735593,0.12417011,0.08639687,-0.11783084,0.04614726,0.14992765,0.0554131,-0.07912081,-0.041153457,0.006003574,0.02292912,-0.0031731357,0.048248533,0.0060329204,-0.049792774,-0.0151334675,0.029168135,0.0034089917,0.025750987,0.059282858,0.025200663,-6.126901e-05,-0.053269617,-0.027763275,0.03696086,-0.041985802,0.0415844,-0.084751494,-0.040214654,0.039551698,-0.029746775,0.006446197,-0.0124771455,0.027944494,-0.006048443,-0.0433549,0.07286657,0.040334925,-0.021865454,-0.044501655,0.01649657,-0.030241515,-0.06722932,0.06662406,0.0014038035,-0.024200557,-0.0074097835,0.044348527,0.007442991,-0.056582175,-0.11491601,-0.007713747,0.03497724,-0.04957846,-0.00506482,-0.038272947,0.013239551,0.013650791,0.0010867257,0.0049877516,-0.026176928,0.009042687,0.0026632564,0.04550969,0.07561632,0.01258495,-0.021788038,-0.0445553,-0.026535721,0.0061512287,-0.06013598,-0.08754653,-0.043124884,-0.02230853,-0.032182977,0.0672049,0.00054611766,-0.006187376,0.079051726,0.039894637,-0.028887402,0.0,-0.0,-0.0,-0.0,0.0,-0.0,0.0,0.0,-0.0,-0.0,0.0,0.0,0.0,-0.0,-0.0,-0.0,-0.0,-0.0,-0.0,0.0,-0.0,0.0,0.0,0.0,-0.0,0.0,0.0,-0.0,0.0,-0.0,-0.0,0.0,0.0,0.0,0.0,0.0,-0.0,0.0,0.0,-0.0,0.0,-0.0,-0.0,-0.0,-0.0,0.0,0.0,0.0,-0.0,0.0,0.0,0.0,0.0,0.0,0.0,-0.0,-0.0,0.0,0.0,-0.0,-0.0,0.0,0.0,0.0,0.0,-0.0,0.0,0.0,0.0,0.0,0.0,0.0,0.0,0.0,-0.0,-0.0,-0.0,-0.0,-0.0,-0.0,-0.0,-0.0,0.0,0.0,0.0,-0.0,0.0,0.0,0.0,0.0,-0.0,-0.0,0.0,0.0,-0.0,0.0,-0.0,-0.0,0.0,0.0,-0.0,-0.0,0.0,-0.0,-0.0,-0.0,-0.0,-0.0,-0.0,0.0,0.0,0.0,-0.0,-0.0,0.0,0.0,0.0,-0.0,-0.0,-0.0,-0.0,0.0,-0.0,-0.0,0.0,-0.0,0.0,-0.0,0.0,-0.0,-0.0,-0.0,-0.0,-0.0,0.0,-0.0,0.0,0.0,0.0,-0.0,-0.0,0.0,0.0,-0.0,-0.0,-0.0,-0.0,0.0,0.0,-0.0,-0.0,-0.0,-0.0,0.0,0.0,0.0,-0.0,0.0,0.0,-0.0,-0.0,0.0,-0.0,-0.0,-0.0,-0.0,-0.0,-0.0,-0.0,-0.0,-0.0,-0.0,-0.0,0.0,0.0,-0.0,-0.0,0.0,-0.0,0.0,0.0,-0.0,0.0,-0.0,0.0,0.0,0.0,0.0,0.0,0.0,0.0,-0.0,0.0,-0.0,-0.0,0.0,-0.0,-0.0,-0.0,-0.0,-0.0,-0.0,-0.0,-0.0,-0.0,-0.0,-0.0,-0.0,-0.0,-0.0,-0.0,-0.0,0.0,0.0,-0.0,-0.0,-0.0,0.0,-0.0,0.0,0.0,0.0,0.0,-0.0,0.0,-0.0,0.0,-0.0,0.0,-0.0,0.0,0.0,0.0,0.0,-0.0,-0.0,0.0,0.0,-0.0,-0.0,-0.0,-0.0,-0.0,-0.0,-0.0,-0.0,-0.0,0.0,0.0,0.0,0.0,0.0,-0.0,0.0,0.0,0.0,0.0,0.0,-0.0,0.0,-0.0,0.0,-0.0,-0.0,-0.0,-0.0,-0.0,-0.0,-0.0,-0.0,-0.0,-0.0,-0.0,-0.0,-0.0,-0.0,-0.0,-0.0,-0.0,-0.0,0.0,-0.0,-0.0,-0.0,-0.0,-0.0,0.0,-0.0,-0.02357914,0.052446462,0.018444024,-0.08795524,-0.014995886,0.014223642,-0.029720463,-0.01479166,0.009438366,-0.0031034916,0.046079356,0.044092678,0.043078195,0.08132408,0.04917228,0.013656149,0.008583535,-0.017287556,-0.025469434,0.1272629,0.06064422,0.037171647,0.14788458,0.10190264,-0.0036992023,0.03346032,0.03542817,0.007071692,0.04563358,0.04886601,-0.0007420903,-0.017577158,0.0066699595,0.031370245,-0.058386594,-0.056491237,-0.0166201,0.054192793,0.012100459,0.012883159,-0.055630565,0.023510145,-0.024958285,-0.027531756,0.039736155,-0.015732666,-0.007755977,0.0053843367,-0.0028301177,0.0037479154,0.0033824618,0.015590162,0.009710732,-0.0050320877,0.025121529,0.028843641,-0.03724529,0.054963894,0.05379452,-0.036983676,-0.010247146,0.0041472143,-0.0010248303,0.083352864,0.07003578,0.049718324,0.049070936,-0.0052102236,-0.01998889,-0.017759975,-0.048125643,-0.054538295,0.022716839,-0.006075149,0.010479443,0.028350573,0.013126739,0.023606049,0.064159684,0.09079975,0.081300005,-0.00024920233,0.09279854,0.031083563,-0.0005873207,0.07168562,0.06343036,-0.05376288,-0.013220418,0.01269561,0.056835383,-0.0027359128,0.008261598,-0.008478107,0.00563682,0.088643946,0.02760124,0.0023079838,0.036318183,-0.07027571,-0.070124544,-0.06047063,0.05270077,0.09752095,0.10368898,0.0073587047,0.06891824,0.05328104,0.0072022136,0.01692143,0.0377095,-0.0037418578,0.055523247,-0.001222785,0.03176089,0.049828354,0.023677686,0.032878507,-0.03591116,-0.03192358,0.037316825,0.043362115,-0.03242679,0.035042588,0.028205356,-0.028572412,-0.011252823,-0.0025712994,0.0020589428,0.011546874,-0.043724865,-0.08576019,0.05991098,-0.034360345,-0.06692686,-0.010196651,-0.082146354,-0.009750635,0.030780742,0.01781669,-0.021052804,0.010076371,0.0053581637,0.07398798,-0.013542823,-0.109794326,-0.08998402,0.035200216,-0.07311078,0.026517248,0.03932238,0.06613182,0.07615343,0.05846989,0.027209464,0.04918611,-0.018615069,-0.08855997,0.054310422,-0.06399498,-0.06639376,0.06902966,-0.024202274,-0.0032537342,-0.015461401,-0.034222715,-0.14279543,-0.10586635,0.07724625,-0.020584177,-0.00046997852,0.028442644,0.0059120343,-0.023523234,0.014632053,-0.038058624,-0.023675026,0.07115273,-0.045175046,-0.02695779,0.028496519,0.007049819,0.07435105,-0.007607402,-0.021472799,0.03564872,0.012236915,0.0550601,0.05526441,0.030476503,0.04822116,-0.014120559,-0.040761862,0.034680046,0.011395267,0.039579146,0.04098495,-0.05968819,-0.059566975,0.024429804,-0.04733741,-0.090590104,0.013047505,-0.014896467,0.0013294142,0.046851628,0.015249991,0.0038294236,0.018473407,-0.039662663,0.029127944,0.065450944,-0.009064354,-0.021798188,-0.0019903646,-0.024727885,-0.036063194,-0.029678702,5.728406e-05,-0.05026268,0.0055839904,0.016410097,0.008794717,-0.037298147,0.088619635,0.010429,-0.054562073,0.007296966,0.034339238,-0.0212131,-0.010355777,0.016527392,0.008084663,0.0062076044,0.0006377856,0.054653633,0.05665044,-0.044272553,0.058519576,-0.0050772442,0.00046066527,0.008751364,0.060807966,0.02742735,-0.03601417,0.039717052,-0.00025963978,0.01600202,-0.048041433,0.02977516,0.0676543,-0.007920228,0.011589194,-0.010518559,0.073205434,-0.023642674,0.071962476,-0.017101161,0.003813974,0.0831659,0.015271938,-0.019872792,0.07845097,0.043887835,-0.032916002,-0.07555053,-0.05103804,0.029912284,-0.0142154945,-0.004735802,-0.014272351,-0.03969633,-0.016618561,0.040878516,0.022017691,-0.022677798,0.03561235,0.024542004,-0.009328643,-0.009968674,-0.052636165,-0.021056984,-0.049298882,-0.07279736,-0.042184465,0.03176403,-0.022455813,-0.06339626,-0.062098794,-0.03025335,-0.0034193383,0.0076829093,0.04308029,0.03274581,0.050963596,0.07024227,0.024349952,-0.0458728,-0.05448291,-0.00020894974,-0.02450369,0.025189804,0.09256089,-0.02906637,0.09328867,0.13648947,0.02966947,0.019879477,-0.009349224,0.02821342,0.026477287,0.008177285,-0.005676823,0.009660498,-0.010174149,-0.04502847,0.036366835,0.072322674,0.0038200973,0.02056413,0.002352555,-0.005830117,0.012723264,-0.013715888,-0.10312471,-0.103642054,-0.05939713,-0.03658854,-0.028054228,0.0016246015,0.14171919,0.1538382,0.0031400973,0.027391018,0.019697824,0.011647804,0.018592384,0.005210141,-0.010488297,-0.018776102,-0.027699018,-0.036890432,0.009860146,0.0084123835,0.07699901,-0.015721379,-0.010617695,0.031533048,0.0266866,0.024055844,-0.026107596,-0.028101033,-0.017957475,-0.037911043,0.033921905,0.02658482,0.016511267,-0.027875874,0.03595276,0.061078444,0.05614888,0.04641982,0.044682484,0.022526862,0.018958654,0.008932479,0.03933705,0.0010947904,-0.021109529,0.05477437,0.0631488,-0.013195026,0.04771087,0.025895042,-0.04049627,-0.055588506,-0.023776375,-0.018582284,-0.022091037,-0.02441451,0.025170071,-0.043527223,0.004664674,0.053722475,-0.005606131,0.021468138,0.08556369,-0.011326882,0.0021807961,-0.019709393,0.027004419,0.0122279,0.008566823,0.017589781,0.013872005,0.023306385,0.023959463,-0.030223096,-0.003613379,-0.033958644,-0.026226606,-0.026568122,-0.010941084,-0.004859302,0.076518856,-0.009507384,0.046125088,0.025488291,-0.0260094,-0.008429571,-0.018812131,0.014622484,0.034082144,0.013709377,0.016548607,0.012732202,0.012950043,-0.06689139,-0.046387743,-0.024110481,-0.06914254,-0.0638583,-0.03631485,0.019561447,0.029085224,0.069711536,0.052063327,-0.010546379,0.027991852,0.012895754,-0.04057919,0.035930254,0.06697622,-0.016537234,-0.071520254,-0.056089923,-0.055092078,-0.062298685,-0.054182667,-0.09301315,-0.069401085,0.0005044525,0.017859148,0.005583968,0.017408125,0.020003946,-0.00066561723,-0.04125721,-0.004274637,0.004300716,-0.088365115,-0.036785815,-0.022935774,-0.077960394,0.0072353776,-0.008450548,0.00016117094,0.023763817,0.009493636,0.043882888,0.057694416,0.03306736,0.0005406722,-0.002941405,-0.0077857045,-0.039936636,-0.008738929,0.012009821,-0.019232022,-0.014830408,-0.0073568253,-0.003783895,-0.035132445,-0.01338025,-0.06820759,-0.011674517,0.028775629,0.038288724,0.024596794,0.014510552,0.04513493,0.03222432,0.001074105,0.028075319,0.032698195,-0.0044396864,-0.024794117,-0.0457977,-0.024774924,0.05143956,0.01575555,-0.026072646,0.08805724,0.034015592,-0.01420562,0.05485794,0.08545579,-0.008682622,0.038462166,0.008407725,-0.07260872,-0.03634048,-0.04498187,-0.049396124,-0.034422267,-0.058954395,0.008469792,0.03458607,0.06180245,0.050638948,0.052202642,0.043951493,-0.020268863,0.048162844,-0.017267475,-0.0013687591,0.019635074,0.011450176,0.00036940747,0.011800056,-0.06592139,-0.009709511,0.0029267343,-0.030908784,0.07583443,-0.06193669,-0.03272194,0.029731778,-0.034920774,-0.04411993,-0.0776048,0.060179975,0.03278883,0.017095977,0.051406734,0.0017065636,-0.0074175242,-0.020215789,-0.05753838,-0.035286885,-0.02318426,-0.009496839,-0.057853732,-0.04142627,-0.00014062697,-0.051475924,-0.008099582,-0.017701227,0.026986932,-0.009142831,0.035288814,-0.022113236,-0.025611803,0.019254489,-0.07179861,-0.023714462,0.030177576,0.0036465395,0.0056947516,0.006454112,0.0039909906,-0.021162622,-0.007719204,0.021753404,-0.039658006,0.0051299296,0.06821651,-0.0050719148,-0.04850577,-0.04146098,-0.034807157,-0.042788394,-0.025613954,-0.06805681,-0.01793566,0.021179438,0.01998625,0.02481453,-0.011875905,-0.009862452,-0.017660642,-0.071916826,-0.018555375,-0.036340293,-0.022008548,0.013784054,-0.010649354,-0.0035823884,0.00017680587,0.023532055,0.0361606,-0.012748363,0.010101478,-0.046530604,-0.038262554,-0.02490216,-0.013946668,-0.04633009,-0.01682509,-0.014994162,0.015226182,0.0048552,-0.019668901,-0.018326258,0.01879356,-0.032734834,-0.009582556,0.015283806,-0.031619802,0.021346807,-0.010767037,-0.012507915,0.0067745033,-0.0308911,-0.011546968,-0.054440275,0.006362178,0.052256495,-0.020494703,0.0236886,0.031010075,-0.014891912,-0.0077323257,0.008051497,-0.012451329,-0.00236039,-0.0005352666,0.0038470747,0.014727295,0.024326932,0.0034931952,-0.009047407,-0.05645666,-0.0025331979,-0.010886241,-0.015016189,-0.010152433,-0.027261488,0.0025819778,-0.04477639,-0.018227462,0.058441855,0.014164554,0.06752075,0.09159054,-0.027225308,-0.00014252865,-0.07546975,0.019668464,0.00933786,0.08902375,-0.05230123,-0.013307635,0.05297624,0.0071769943,0.0068746815,0.047708884,0.06390536,-0.005833494,-0.07399069,0.02412912,-0.031887617,-0.010921306,-0.0033898568,0.028787414,0.048715655,-0.006062386,-0.0092648305,-0.023938283,-0.06259494,-0.031930856,0.01653164,-0.04114403,-0.040339604,0.0011046394,-0.0733902,-0.004873718,-0.019451614,0.04030108,0.035588365,-0.049385335,0.024952818,-0.0008712612,-0.036227804,0.009674773,-0.009924168,-0.0044188397,0.022283832,-0.0051041963,-0.0027595684,-0.009278795,0.005068472,0.012436272,0.0051036584,-0.014159612,0.00082986924,-0.032816965,-0.016563252,0.012167983,0.0016642103,0.022354366,-0.018864848,0.0011061776,0.024553739,0.023291355,-0.008092095,0.027476985,0.049372796,0.009371322,0.007901761,0.017670538,-0.0039341333,-0.024085779,-0.02318676,0.01106979,-0.0016902334,0.016811823,0.0020135213,-0.0043407455,0.039819937,-0.0047713662,-0.013288119,0.02612415,-0.035021406,-0.01356735,0.0059176586,-0.0047365096,0.01700218,0.046572354,-0.04613265,0.031314593,0.0002265832,0.048502546,0.12816142,0.044116285,0.04886849,0.06620979,0.048406955,-0.07239749,-0.0020388267,0.10832953,-0.008385931,0.03816789,0.06927126,-0.045719184,-0.04119868,-0.053017404,-0.01249391,-0.067580245,-0.05022716,-0.10043539,-0.08069431,-0.06543516,-0.083934404,-0.024212046,-0.034184765,0.026229223,-0.0023142213,-0.017263966,0.036305018,0.020517768,0.02433189,-0.008194768,-0.008575877,0.009196376,0.023028161,0.06511592,0.037889387,-0.020247381,-0.005644292,-0.04888127,-0.02084838,0.040164057,0.01647199,-0.038926624,-0.01663902,-0.001509588,-0.060192756,-0.015919799,-0.016246198,-0.038468797,0.020158252,-0.006478363,0.005697922,0.03476292,-0.028189471,0.00096458493,0.024594089,0.017927855,-0.012375114,-0.0006895928,0.005435135,-0.06755942,0.035772625,0.06043107,0.07416545,0.10952625,0.0005430679,0.030822497,-0.031782802,-0.030769309,-0.023349745,-0.013611222,-0.068838246,-0.01456919,-0.013058673,0.0058458396,0.019418053,-0.0013164917,-0.04399702,0.0088002365,0.007992682,0.050517492,0.039734818,0.015123206,0.0012400617,0.0048855473,0.0047696815,0.029015934,0.017453419,-0.04564879,-0.041429576,0.008461162,-0.026856627,-0.0041490747,-0.016924696,-0.006098523,-0.012997948,-0.036355305,-0.057923198,-0.038904354,-0.043504246,-0.022386828,0.022933148,-0.0027663275,0.0041835015,-0.018540855,0.0200104,0.008720909,-0.003527382,-0.006043343,0.041690223,0.061148982,-0.022851856,-0.014005469,-0.033912204,-0.017973658,0.005152484,-0.020746168,0.020720059,-0.012651971,0.0026339649,0.036616955,-0.0029480858,0.047546547,-0.010460486,-0.02670201,-0.026819328,0.010916067,-0.011541956,-0.013883189,0.0021955452,-0.024010954,0.0033797815,0.0,-0.0,-0.0,0.0,0.0,-0.0,0.0,0.0,0.0,0.0,0.0,0.0,0.0,0.0,0.0,0.0,0.0,0.0,0.0,0.0,-0.0,-0.0,-0.0,-0.0,-0.0,-0.0,-0.0,0.0,-0.0,-0.0,-0.0,-0.0,-0.0,-0.0,-0.0,-0.0,0.0,0.0,0.0,0.0,0.0,0.0,-0.0,-0.0,-0.0,-0.0,-0.0,-0.0,-0.0,-0.0,-0.0,-0.0,-0.0,0.0,0.0,0.0,-0.0,-0.0,-0.0,0.0,-0.0,-0.0,-0.0,-0.0,-0.0,-0.0,-0.0,-0.0,-0.0,-0.0,-0.0,-0.0,0.0,0.0,0.0,0.0,0.0,0.0,0.0,0.0,0.0,0.0,0.0,0.0,0.0,0.0,0.0,0.0,0.0,0.0,-0.0,0.0,0.0,0.0,-0.0,-0.0,0.0,-0.0,-0.0,-0.0,-0.0,-0.0,0.0,0.0,-0.0,0.0,-0.0,-0.0,0.0,0.0,0.0,0.0,0.0,0.0,0.0,0.0,0.0,0.0,0.0,0.0,-0.0,-0.0,-0.0,0.0,-0.0,-0.0,-0.0,-0.0,-0.0,0.0,-0.0,0.0,-0.0,-0.0,0.0,0.0,0.0,0.0,0.0,0.0,0.0,-0.0,0.0,-0.0,0.0,0.0,-0.0,0.0,0.0,-0.0,-0.0,0.0,-0.0,-0.0,0.0,0.0,-0.0,-0.0,0.0,-0.0,-0.0,-0.0,0.0,0.0,-0.0,-0.0,-0.0,-0.0,-0.0,-0.0,-0.0,0.0,0.0,-0.0,0.0,0.0,-0.0,-0.0,-0.0,-0.0,0.0,-0.0,0.0,-0.0,0.0,0.0,0.0,-0.0,0.0,-0.0,-0.0,-0.0,-0.0,-0.0,-0.0,0.0,0.0,-0.0,-0.0,-0.0,-0.0,0.0,0.0,0.0,0.0,0.0,0.0,-0.0,-0.0,-0.0,-0.0,-0.0,-0.0,-0.0,-0.0,-0.0,-0.0,-0.0,0.0,-0.0,-0.0,0.0,0.0,-0.0,0.0,0.0,-0.0,0.0,0.0,0.0,-0.0,0.0,-0.0,0.0,0.0,0.0,0.0,0.0,-0.0,-0.0,0.0,0.0,0.0,-0.0,0.0,-0.0,-0.0,-0.0,-0.0,-0.0,0.0,-0.0,-0.0,-0.0,0.0,-0.0,0.0,0.0,-0.0,-0.0,0.0,-0.0,0.0,-0.0,-0.0,-0.0,0.0,-0.0,0.0,-0.0,-0.0,-0.0,0.0,0.0,0.0,0.0,0.0,0.0,0.0,-0.0,-0.0,0.0,-0.0,-0.0,-0.0,0.0,-0.0,0.0,-0.003393248,0.01859042,0.0027815963,0.03822885,-0.00047683806,-0.010208565,0.029844299,-0.025395036,-0.04912611,0.017489295,-0.019363347,-0.016268028,-0.0196321,-0.039135803,-0.021665383,0.012974299,0.00942312,-0.0079213455,0.023006685,-0.00598548,0.0064115264,0.002444737,0.009518507,0.012972241,-0.0066180006,-0.0067123207,0.011064333,-0.0022540546,0.005077087,0.024015615,0.03455542,-0.0010925931,-0.021815289,0.014812277,-0.020339891,-0.044169523,0.05175137,0.0068053836,-0.049173772,0.06684953,0.028633902,-0.0311586,0.033563364,-0.027353127,-0.058021773,-0.029953524,0.013170591,0.058265023,-0.033147488,0.0075999675,0.043767508,-0.051220793,-0.011621799,0.016509848,0.03903676,-0.012288201,-0.02538491,0.01971112,-0.014232405,-0.009324277,-0.043621942,-0.0027832487,-0.0032501346,-0.012004556,-0.00043451056,0.03781534,-0.07123161,-0.015560218,0.05368846,-0.04707349,-0.005698759,0.069289155,-0.043332353,-0.010680357,0.009320665,-0.035496786,0.0045688953,0.03324198,-0.0164813,0.0077632493,0.03630885,0.008201156,0.0009934884,-0.004305064,0.01002857,0.01096053,-0.00937432,0.017097905,0.002523211,-0.022271678,-0.017840147,-0.0067679863,0.027374486,-0.033842172,-0.01432858,0.0025096182,0.032022167,0.008141404,0.0057510687,0.073390745,-0.039043985,-0.05265435,0.07273182,-0.004721034,-0.022146609,0.045254543,0.011354918,-0.010246325,-0.013263265,-0.0011951975,-0.0497376,0.0052725137,0.01131779,-0.021727484,-0.00084817014,0.016266884,-0.011784575,-0.026593668,-0.016220719,-0.00096263207,0.032302577,-0.0127552,-0.017695643,0.059720732,0.03326093,-0.015564195,0.021946345,-0.019624528,0.015357637,0.0070793107,0.014267771,-0.007703361,0.0056025153,0.004133493,-0.015209987,-0.024132859,-0.009019592,0.009659551,-0.013386074,-0.0408821,0.01983701,-0.0059740013,0.0020052623,0.02251167,-0.00805712,0.018055886,-0.015954612,-0.021006707,0.012765252,0.01007083,-0.010896368,-0.010217042,0.008860271,0.033027675,0.037382446,0.0232708,0.022503834,-0.00025042432,-0.03578805,0.011594608,-0.029966205,-0.023654034,-0.06955429,-0.01424472,0.0071254233,-0.03406288,0.043449458,0.07816231,-0.00657798,0.041937407,0.05377745,-0.013009549,-0.017439935,-0.0057883137,0.01337325,0.013837819,-0.004899155,0.0066085337,-0.000107944776,-0.03908067,0.012920871,-0.00092817587,-0.021714795,0.026367413,-0.008210737,-0.02793309,-0.0055749607,-0.02452862,-0.041220516,-0.018547157,0.013062603,0.036817297,-0.023485783,0.016244533,0.044079512,-0.037062194,-0.037365727,0.030053519,-0.03979505,-0.010926668,0.031209746,-0.030454582,0.012808373,0.026078632,0.006175863,0.030152952,0.018759472,0.009640117,-0.0021354295,0.018204095,-0.0045993337,0.01659812,0.0012539668,-0.011989946,0.016710408,0.046167687,0.0027504845,-0.054512065,0.016345125,0.016138686,-0.028359158,0.01402487,-0.013551627,-0.05645795,0.009750996,0.008975411,-0.01842081,-0.055455096,-0.0014587588,0.0031548818,0.01887232,-0.011460875,-0.0024281798,0.0011667899,0.026146507,0.025254535,0.013660169,0.0068191686,-0.009558758,-0.02228527,0.0046577808,-0.016011927,-0.023818506,-0.000866607,-0.05837023,-0.050488915,0.04123079,0.01973161,-0.023828436,0.017516688,0.022748083,-0.009835898,0.031740014,0.01944885,0.03794867,0.015010765,-0.0052830474,0.027892288,-0.026816733,0.011349018,0.020207828,-0.0230431,0.022388376,0.0718476,-0.0641079,0.010609137,0.05713808,-0.04815688,-0.01831674,-0.0178964,-0.007096471,0.008950812,-0.03374785,0.00044295707,-0.002161886,-0.00945796,-0.025920315,0.011015998,0.010839165,-0.004940613,0.0141175855,-0.016053379,0.011012968,0.0023337107,-0.005871646,0.02056431,-0.0072348714,0.020357208,-0.008646798,0.030158095,0.012523903,-0.03414221,0.021588683,0.010210213,-0.034493204,-0.033665493,0.015125498,0.0010604499,0.030487897,0.050904516,-0.028528884,-0.006216342,0.022862218,-0.0048403307,-0.02775899,0.0013689441,0.026128886,0.028998578,-0.016555788,-0.0027111291,0.032372877,0.019608527,-0.02266158,-0.022681745,-0.0014218995,0.029135467,0.03109644,-0.055783335,-0.07056018,-0.018243406,0.045242954,0.007483714,0.022941021,0.1323524,-0.01479979,0.05505832,0.079063214,-0.034290478,-0.10032325,0.042034265,0.0064793914,-0.04918693,-0.00036211958,-0.01926749,-0.044193976,0.0021988484,0.029691309,-0.02519608,-0.015584304,-0.015572812,-0.021235999,0.015458014,-0.00028417207,-0.041361716,-0.0804357,-0.024908442,0.014815894,-0.03249865,-0.0042976206,0.03672259,-0.07105038,-0.0028486617,-0.06359571,0.037048467,0.12877452,0.02805746,-0.09109519,0.03417722,0.06365276,-0.04157385,-0.055318456,0.0026251834,0.04410247,-0.007698884,-0.047804628,-0.009533092,0.033882447,-0.04217337,-0.0008006609,-0.023385111,-0.061757546,-0.03488125,0.07276971,0.042070255,-0.07138079,-0.000863675,0.01119378,-0.02935169,-0.031497546,0.05466599,0.013991295,-0.021919096,0.0015060726,0.10470002,-0.0214122,-0.024556514,-0.013186692,0.034494773,0.0739764,-0.0741949,-0.04364546,0.027564134,0.00777673,-0.047581375,-0.014603746,0.004412421,-0.021844836,-0.006194095,-0.0074408427,-0.000496779,0.03925524,-0.015084933,-0.036687385,0.020432947,0.05867711,0.03987533,0.051431812,0.015705911,-0.01085882,-0.0025490632,0.0057951366,-0.0032755306,-0.063049994,-0.0685655,-0.03849033,0.00333645,-0.029316077,0.030168632,0.01693133,-0.028001437,-0.0012777472,0.048671916,0.007297665,-0.020710763,0.0046815397,0.021212628,0.023802456,-0.02690082,-0.028902862,0.022082845,-0.019866034,-0.008542833,-0.041372202,0.023753842,0.017006477,-0.0121828,0.029792322,-0.0011790881,-0.0386924,-0.024891948,0.024337372,-0.06417301,-0.08046915,-0.008804193,0.0127432365,-0.055578273,-0.069900036,0.016863128,0.10187852,0.07955504,-0.068368,-0.038337503,-0.010063055,0.038335502,-0.0242825,-0.048680026,0.009566434,0.031750605,0.012688089,0.07536771,0.09994007,0.020237742,0.026074924,0.1388793,-0.01663773,-0.13901472,-0.15195878,-0.118671045,0.055513658,-0.030639548,-0.013528256,0.029385503,-0.0034818545,-0.021314103,0.027536795,0.017067978,0.0097094895,-0.04913242,-0.04434891,-0.040594604,-0.010360162,-0.05406699,-0.026998335,0.05280625,0.008708746,0.020907288,-0.006085686,-0.031131553,0.0304267,0.037532452,-0.031154271,0.0037088583,0.006806821,-0.020896588,-0.041463677,-0.037566066,-0.04075185,0.04695985,0.02742842,-0.06331116,-0.035288732,0.024259184,0.027966715,-0.0036460995,-0.00609596,-0.06796556,-0.08790902,-0.05292612,-0.02446277,-0.02409266,0.07125532,0.10467632,-0.006960691,-0.041635267,-0.035099473,0.06043416,0.005858531,0.027793882,-0.013209713,-0.022710765,-0.0076330993,-0.02681749,-0.033209335,0.046350386,0.04079001,-0.0022630068,-0.031220816,-0.009745254,0.05668234,-0.0017080891,-0.016726274,0.014970531,0.11448297,0.027623931,0.010768307,-0.022822522,-0.042142842,-0.01954222,-0.0812174,-0.085983425,-0.007590502,0.007513489,0.024201782,-0.012538092,0.0045788274,0.043122914,0.042164564,0.007814701,0.013148805,-0.028491177,-0.024125809,0.0599998,-0.002006097,-0.0326126,-0.08798139,0.018658,0.0658245,-0.035174526,-0.03405972,-0.03062777,-0.044452336,0.0013076438,-0.035704017,-0.017762994,0.016364813,0.026395487,0.0026078774,-0.039249975,0.046388287,-0.025072403,-0.0036760364,-0.0037294698,-0.027109908,-0.05251587,-0.007978176,0.016592188,-0.03382873,-0.044597168,-0.007045074,-0.008369405,-0.008661483,-0.01233454,0.01013137,-0.058529165,-0.032788295,0.006524882,0.010445917,0.0204097,0.015349234,0.041633967,0.011130487,0.0078725945,0.008181829,-0.0019594936,-0.016713193,-0.012040797,-0.018195746,-0.00650244,-0.02192857,-0.008669966,0.011930968,-0.023200614,0.043640506,-0.032390483,-0.016254416,-0.0033727684,0.010011024,0.0024708102,-0.028595813,-0.002639853,0.023876123,-0.032452278,0.01678796,0.04953656,0.025446717,0.033041738,0.016763512,0.025791585,0.026001384,0.02046535,0.015492422,-0.026183711,-0.033870462,-0.023722578,0.008880695,-0.0050117667,0.019624632,0.014497734,0.011252523,0.028962785,0.014400207,0.041905556,-0.023818929,-0.009940178,0.007050667,-0.024271486,-0.040271472,-0.010276497,0.017636145,0.012777491,0.06296522,0.034245875,-0.016089197,-0.027994113,-0.017541813,-0.010140029,-0.021864152,-0.040049125,0.02561151,0.03210111,-0.0011268016,0.005749854,-0.015308302,-0.0036519787,0.011656986,-0.011470821,-0.006140959,-0.03275385,0.021577671,-0.02661418,-0.009014876,0.013612817,0.018323898,0.055121675,0.026836997,0.009941973,0.021072343,-0.040271807,-0.02523478,0.024689496,0.015113761,-0.024399573,-0.0032482229,0.03757753,0.071566045,-0.018713344,-0.045482136,-0.026229523,0.005489877,0.013648179,0.010636855,-0.041606408,0.03816079,0.065152094,0.042658415,0.018840326,-0.0033670894,0.027451357,0.018863343,-0.03735124,0.026163846,0.014072557,0.026848216,0.03240816,-0.012803057,-0.004760236,0.04441213,0.02789655,0.03185645,0.009625072,-0.0235611,0.028526666,0.018803645,-0.0006792121,-0.01944388,0.002800921,0.024413304,0.013674274,-0.004441844,0.0067025074,0.00274648,-0.03149599,-0.03956855,-0.045819182,-0.0015415093,-0.008228972,-0.03371076,0.05791032,0.008003393,-0.03257292,-0.029174468,-0.02558849,-0.0127699915,0.053257376,0.004489331,-0.012537472,0.052504163,0.02899943,0.0052168267,-0.072974935,-0.005509208,0.017078884,-0.053694826,-0.045950636,0.0066565294,0.012499607,0.029716399,0.08555911,0.09473315,0.060570326,-0.008556557,-0.029000232,-0.04241697,-0.03000997,-0.025750188,-0.05775658,-0.032480244,0.060694333,0.037347488,-0.050964072,0.025317773,0.07290158,0.020607688,-0.011557087,-0.009826594,-0.07824197,-0.018671373,0.008691984,-0.016592145,-0.029314537,-0.039946087,-0.03344694,0.017231654,-0.022051705,-0.031441025,0.013678131,-0.0059619406,0.009512523,0.021610497,0.022887912,0.014441892,-0.035034005,-0.025554342,-0.0012532407,-0.02364844,-0.013568136,0.010684546,-0.04053508,-0.015847012,0.027198112,0.0025444692,0.0007113146,-0.016867524,0.028778447,0.015803464,-0.033787306,0.0070200777,0.027580332,0.047315527,0.043058086,0.06497416,0.059988286,0.024791855,0.018419445,-0.012806058,-0.026705822,-0.019199485,-0.047280535,0.007176889,0.03155759,-0.021480234,0.057380527,0.06353198,0.04060857,0.065874174,0.046855297,0.028198775,-0.021640418,-0.013446756,0.0043935003,-0.0037017015,-0.016558642,-0.03273779,0.07118541,0.0057364595,-0.013277962,0.003753377,-0.022190062,0.03295888,0.033445135,0.038287148,0.027738167,0.06992119,0.07941016,0.08368044,0.02263175,0.03661017,0.07262366,0.031941414,0.029919524,-0.032020375,0.041813,0.013637769,-0.00423201,0.0463526,0.032554917,-0.028670207,0.030387213,0.014727049,-0.016388273,-0.053338163,-0.029714853,-0.01092444,-0.0010150648,0.0058215247,0.008428369,-0.022191698,-0.035965208,-0.018033115,0.040284205,0.006279575,-0.037146073,-0.015215935,0.00863096,-0.054518245,0.019840823,0.024901463,-0.020974604,-0.014979783,0.025385752,0.001724251,-0.038459834,-0.0051055043,-0.025799006,0.0,-0.0,-0.0,0.0,0.0,-0.0,0.0,0.0,0.0,-0.0,-0.0,-0.0,0.0,-0.0,-0.0,0.0,-0.0,-0.0,0.0,0.0,0.0,0.0,0.0,0.0,0.0,0.0,0.0,-0.0,0.0,0.0,-0.0,0.0,-0.0,0.0,0.0,0.0,0.0,0.0,0.0,0.0,0.0,0.0,0.0,0.0,0.0,0.0,-0.0,0.0,-0.0,-0.0,0.0,0.0,0.0,0.0,-0.0,-0.0,-0.0,-0.0,0.0,-0.0,0.0,0.0,0.0,-0.0,-0.0,-0.0,-0.0,-0.0,-0.0,-0.0,-0.0,-0.0,0.0,0.0,0.0,-0.0,-0.0,0.0,-0.0,-0.0,-0.0,0.0,0.0,-0.0,0.0,0.0,0.0,0.0,0.0,0.0,0.0,0.0,-0.0,0.0,-0.0,-0.0,-0.0,0.0,-0.0,0.0,0.0,0.0,0.0,0.0,-0.0,0.0,0.0,-0.0,0.0,0.0,0.0,0.0,0.0,0.0,0.0,0.0,-0.0,-0.0,-0.0,-0.0,0.0,-0.0,-0.0,-0.0,-0.0,-0.0,-0.0,-0.0,-0.0,-0.0,-0.0,0.0,0.0,-0.0,-0.0,-0.0,-0.0,-0.0,-0.0,-0.0,-0.0,-0.0,-0.0,-0.0,0.0,-0.0,-0.0,0.0,-0.0,-0.0,0.0,0.0,0.0,-0.0,-0.0,-0.0,-0.0,0.0,0.0,0.0,0.0,0.0,0.0,0.0,0.0,0.0,0.0,0.0,0.0,0.0,0.0,-0.0,-0.0,-0.0,-0.0,-0.0,-0.0,-0.0,-0.0,-0.0,0.0,0.0,-0.0,0.0,0.0,-0.0,-0.0,0.0,0.0,-0.0,-0.0,-0.0,-0.0,-0.0,-0.0,-0.0,-0.0,-0.0,-0.0,-0.0,-0.0,-0.0,-0.0,0.0,0.0,0.0,0.0,0.0,0.0,-0.0,0.0,0.0,-0.0,0.0,0.0,-0.0,0.0,-0.0,0.0,-0.0,-0.0,0.0,-0.0,-0.0,0.0,-0.0,-0.0,0.0,0.0,-0.0,-0.0,0.0,-0.0,0.0,-0.0,-0.0,-0.0,-0.0,-0.0,-0.0,-0.0,-0.0,-0.0,0.0,0.0,-0.0,-0.0,0.0,0.0,0.0,0.0,0.0,0.0,0.0,0.0,0.0,0.0,0.0,0.0,0.0,-0.0,0.0,0.0,-0.0,0.0,0.0,-0.0,0.0,-0.0,-0.0,0.0,0.0,-0.0,-0.0,-0.0,-0.0,0.0,-0.0,0.0,0.0,-0.0,0.0,-0.0,-0.0,0.0,-0.0,-0.0,-0.0,-0.037157435,0.013375542,0.021827597,-0.042279236,0.018573454,0.02532982,-0.00023910525,0.007763609,-0.012262786,0.015185086,0.069253065,0.039104257,-0.020536216,0.017661713,0.068025105,0.029847419,-0.0058727604,-0.029287599,-0.01730308,-0.02191539,0.031912424,0.0038346453,0.0056365333,0.032629937,0.019585192,0.041415393,-0.0064550005,0.03547597,0.038257975,-0.025127683,0.02706586,-0.019387836,-0.06522942,0.04290957,-0.0058019464,-0.01641902,0.066269465,-0.004869232,-0.08610355,0.092364125,0.0011658513,-0.06811894,0.06498568,0.015187303,-0.0014715372,-0.024658397,-0.022936683,-0.00018968285,-0.0080279205,-0.025022415,-0.01579206,-0.023239227,-0.028298408,-0.014977482,0.017418446,-0.01806221,-0.016514413,-0.001798291,-0.011406093,-0.026206492,0.031591736,-0.006302914,-0.056704644,-0.014624042,-0.023821535,0.002919599,0.054936405,-0.02009298,-0.027899629,0.03583321,0.024640044,0.003462881,0.014833026,0.033162903,0.018852344,-0.0042097517,-0.025934223,0.0036041746,-0.02244234,-0.046164665,-0.030733362,-0.014302798,0.00022580812,-0.07081383,0.051039204,0.05641328,-0.03009163,0.019267969,0.07061732,0.0028096687,-0.07230829,-0.036545847,0.028629897,-0.013845485,-0.026216201,-0.040972218,-0.010874257,-0.009672869,-0.06658481,-0.085111864,0.03896708,0.12725435,-0.06111143,0.020574741,0.09984518,-0.07641833,-0.08451164,0.00986129,0.016350457,-0.016538547,0.025143763,-0.021854501,-0.020830357,0.03896876,-0.04565524,-0.021198003,-0.006051481,-0.024329755,0.006880082,0.035077177,-0.015651109,0.012778092,0.0002484225,-0.013541649,-0.008011739,0.013984725,-0.02084905,0.03943692,0.0641459,-0.033520665,-0.00029602385,0.059955675,-0.0169498,0.0035508499,0.024590023,-0.0219056,0.0014889858,-0.012525623,-0.054070644,0.010508574,0.076554224,-0.04462812,-0.041532476,-0.030782212,-0.044999417,-0.052552957,0.042437423,-0.0743759,0.028149769,0.08372288,-0.09470029,-0.008905149,0.035694234,0.011992345,-0.052461438,-0.056688033,0.062282033,-0.07555546,-0.07530537,0.02342812,0.020028507,0.015969498,-0.011414591,-0.017474499,0.030225335,0.0013064854,0.0012798238,0.06462393,0.01792193,-0.05869778,-0.043217387,-0.02973918,-0.057294562,-0.05806166,0.01527758,0.09211338,-0.044954956,-0.03268377,0.05833505,-0.021050425,0.06277253,0.029505115,-0.011660845,0.037931602,-0.008479066,-0.0052110706,0.0070750476,0.046710785,-0.024563277,-0.032653075,-0.044378217,-0.0019978858,0.025255684,-0.046729367,-0.0027130442,0.013202614,-0.023032406,-0.037313662,-0.03648633,-0.011272349,0.028989917,-0.011046886,-0.005857357,-0.006021877,0.0028722468,-0.006629477,-0.033123948,0.072170064,0.0053840657,-0.086536884,0.063215144,0.043741673,-0.051403504,0.002407783,0.044909112,-0.059157923,0.03073888,0.053833812,-0.012869472,0.013966918,-0.011983181,-0.031874593,0.019224625,0.03705889,0.026658148,0.009554162,-0.033279657,0.019834746,0.017413711,-0.027160065,-0.005383407,0.019054465,-0.025191374,-0.01234701,-0.037658516,0.0037964212,0.06697044,-0.039125163,-0.015889168,0.019453937,0.00644906,-0.0051606973,-0.03683528,0.022533067,0.01136609,-0.05966751,0.039545827,0.04906425,0.03938426,-0.012599336,0.061597846,0.06774195,0.0044745333,-0.041231584,-0.032440066,-0.060187396,-0.028239174,0.044413257,-0.011983686,-0.0061171646,0.070443295,-0.044893008,-0.016657878,0.017113654,0.0023313384,-0.026157213,-0.022600867,0.003855383,0.0015989114,0.01124799,-0.052306198,-0.061055355,-0.022546938,-0.1076371,-0.04815817,0.040100623,-0.027789019,-0.004050042,-0.022150675,-0.05877251,-0.046389278,-0.03465568,-0.03798229,-0.015543307,0.016672846,-0.025577955,-6.150686e-05,-0.005776561,-0.0,-0.0,-0.0,-0.0,-0.0,-0.0,-0.0,-0.0,-0.0,0.0,0.0,0.0,0.0,0.0,0.0,-0.0,-0.0,-0.0,0.0,-0.0,0.0,0.0,0.0,0.0,0.0,0.0,0.0,-0.0,-0.0,-0.0,0.0,-0.0,0.0,0.0,0.0,0.0,-0.0,0.0,0.0,0.0,0.0,-0.0,0.0,0.0,-0.0,-0.0,-0.0,-0.0,-0.0,-0.0,-0.0,-0.0,-0.0,-0.0,-0.0,-0.0,0.0,-0.0,0.0,0.0,-0.0,0.0,0.0,0.0,0.0,-0.0,-0.0,-0.0,-0.0,-0.0,-0.0,-0.0,-0.0,-0.0,0.0,-0.0,-0.0,-0.0,-0.0,-0.0,-0.0,0.0,0.0,0.0,0.0,0.0,0.0,0.0,0.0,0.0,0.0,0.0,-0.0,0.0,0.0,0.0,0.0,0.0,0.0,0.0,0.0,0.0,0.0,0.0,0.0,0.0,0.0,0.0,0.0,0.0,0.0,0.0,0.0,0.0,-0.0,-0.0,0.0,0.0,0.0,0.0,-0.0,0.0,0.0,-0.0,-0.0,0.0,0.0,0.0,0.0,0.0,0.0,0.0,0.0,0.0,0.0,0.0,0.0,0.0,0.0,0.0,0.0,0.0,0.0,0.0,0.0,0.0,-0.0,-0.0,-0.0,-0.0,-0.0,-0.0,-0.0,0.0,0.0,0.0,0.0,0.0,0.0,0.0,0.0,0.0,-0.0,0.0,0.0,-0.0,-0.0,-0.0,-0.0,-0.0,-0.0,0.0,0.0,0.0,-0.0,-0.0,-0.0,-0.0,-0.0,-0.0,0.0,0.0,0.0,0.0,0.0,0.0,0.0,0.0,-0.0,0.0,-0.0,-0.0,0.0,-0.0,-0.0,-0.0,-0.0,-0.0,-0.0,-0.0,-0.0,-0.0,-0.0,-0.0,-0.0,-0.0,-0.0,0.0,-0.0,-0.0,-0.0,-0.0,-0.0,-0.0,-0.0,-0.0,0.0,0.0,0.0,0.0,0.0,0.0,0.0,0.0,0.0,0.0,0.0,0.0,-0.0,0.0,0.0,-0.0,-0.0,-0.0,-0.0,0.0,0.0,0.0,-0.0,-0.0,-0.0,-0.0,-0.0,0.0,0.0,-0.0,-0.0,-0.0,-0.0,-0.0,-0.0,-0.0,0.0,-0.0,-0.0,0.0,0.0,-0.0,0.0,0.0,0.0,0.0,0.0,0.0,-0.0,-0.0,-0.0,-0.0,-0.0,-0.0,0.0,0.0,0.0,0.0,0.0,0.0,-0.0,-0.0,0.0,-0.0,-0.0,-0.0,-0.0,-0.0,0.0,0.0,-0.0,0.0,-0.0061688945,0.012421785,-0.024549218,0.03180431,0.10763139,0.056575887,-0.04278519,-0.032532074,-0.057277393,0.053957008,0.07913614,0.06736782,0.028426869,0.025215324,0.06575199,0.08919114,0.012868361,0.029138759,-0.0049352325,0.027995523,0.011866281,0.018715216,0.014514486,-0.0030249495,0.04118531,-0.012647082,-0.0052160416,0.012835776,0.022890447,-0.025999855,0.03487903,0.07832936,0.027434386,0.051115233,0.050817702,-0.0057914644,0.03997193,0.055478193,0.018213367,0.043628294,0.124553286,0.0125861075,-0.00077354437,0.020954488,0.04514008,0.05048733,0.014536938,0.0049769124,0.014076936,-0.005423097,-0.018360877,0.00972378,-0.013414799,-0.018600285,0.036254995,-0.016340757,-0.005533847,0.06923717,-0.024137266,0.010897629,-0.009591506,-0.023809383,0.02586298,-0.013842467,-0.042912025,0.018310122,-0.021505337,-0.027509777,-0.009707795,-0.007857005,-0.005871607,0.059592232,-0.02176853,-0.019290091,0.0095022805,-0.03099271,-0.009155853,-0.014487838,0.0059582484,0.0005032691,-0.017354572,-0.011671625,0.03945568,0.017890517,-0.021785082,0.049198117,-0.021065367,-0.07429293,-0.027500862,-0.033776566,0.012257874,-0.0060415263,-0.0060746805,0.025337424,-0.005244562,-0.0028467374,0.023977734,0.02474528,-0.051346134,-0.041169718,-0.08979229,0.018981142,-0.008556666,-0.13302948,0.07587759,-0.023389436,-0.012877812,0.046486083,0.028737798,-0.02762284,0.022981988,0.008841061,-0.051886115,0.0409639,0.0007999536,-0.016225113,0.045053676,-0.0046258024,0.019639548,0.018933946,0.009469824,-0.009999496,0.029092932,0.041951545,-0.005346502,-0.030578243,-0.0007370814,0.032560434,0.051877994,-0.04516472,0.04368497,0.008856814,-0.05211393,-0.01924024,0.07485396,-0.0025338456,-0.011106168,-0.00023951747,0.039793454,-0.0020719012,0.060675602,-0.01395132,-0.007371304,0.008419952,-0.007962333,0.041851126,0.033686645,-0.0105824005,0.07747902,-0.030207591,0.003266312,0.004631409,-0.04846968,0.086192325,0.025445316,-0.052465342,0.028306054,0.024658551,-0.039730143,-0.036614697,-0.027215675,-0.04812341,0.06683778,0.025051683,0.009730458,0.04258546,0.056828115,0.07208764,0.0067719254,-0.010695039,0.07577712,0.006093139,-0.010087032,0.029036595,0.028092649,-0.012112857,-0.031058878,-0.009719005,-0.044838987,-0.09856043,0.038860485,-0.007022199,0.043310344,0.0037030086,0.016509483,0.06470221,-0.11876973,-0.06662368,-0.0039739376,-0.038451828,-0.035271082,-0.05000753,-0.025809431,-0.012029722,-0.046459526,-0.022019645,-0.04868396,-0.08548192,-0.04152438,-0.02523404,-0.052852124,-0.04220107,-0.029812898,-0.03256176,0.01347824,-0.0012455371,0.011783218,0.003672329,-0.05259624,-0.03415381,-0.003902355,-0.037890486,-0.017473236,-0.0014873191,0.031412434,0.03351798,0.013368704,-0.009226953,0.004383351,0.015034476,0.038324963,0.00071838824,-0.027246306,0.034432355,0.03777986,0.021196436,0.07011908,0.0861422,0.01369946,0.0167908,-0.01687502,-0.012829748,-0.07019128,-0.025735091,-0.078447394,-0.028939862,-0.04711873,-0.07760584,-0.059835434,-0.06442632,0.0044100266,-0.030718375,-0.018721102,-0.052210417,0.051803805,0.07159962,-0.01121856,-0.011777246,0.04142696,-0.015914783,-0.016286997,0.038374223,-0.032600284,-0.016347598,0.015815811,-0.016511234,-0.041048754,-0.03122972,0.011308432,-0.0067541855,0.012122376,0.025774647,0.046382923,0.0045359135,0.007088298,0.06345221,0.0031977363,0.033652898,0.032203086,0.033495132,0.05950898,0.028638976,-0.04946041,0.0076190433,0.009141987,-0.034514528,-0.013984156,-0.03818939,-0.04804427,0.098259814,0.0743024,-0.031512797,0.07170097,0.014873385,-0.03688246,0.08874171,-0.022460977,-0.01650917,-0.035700206,-0.049564216,-0.04309107,0.014673372,0.01822602,0.006164134,0.015502732,0.07512891,0.08939742,-0.0038906494,0.049246274,0.0128744915,-0.014182504,0.052559048,0.017350866,-0.048403695,0.00095562596,0.01029795,0.008841072,-0.024268206,0.018552244,-0.0376714,-0.024472091,0.026544767,-0.0035865316,-0.035206243,0.002629519,-0.057383362,-0.06358741,-0.02463394,0.045383044,0.02511737,0.07317784,0.019300465,0.003922556,0.010035417,-0.027206382,-0.04775087,-0.055782516,0.060522184,0.049525175,-0.021334553,0.038578518,0.020545518,-0.047360256,0.0029777742,-0.029472165,-0.040187538,-0.02036621,-0.048179723,-0.05575184,0.02718586,-0.0030072366,0.009849382,-0.024323862,-0.014165191,0.067480884,0.068812,0.0419024,0.060343977,-0.0016510024,-0.014436694,-0.019555226,0.020989047,0.06748434,-0.030863428,-0.061231047,-0.0027898857,-0.015594934,0.028833633,0.040933486,0.08444616,0.068488576,0.048247546,0.0026897094,0.037621044,0.022952586,-0.001512216,-0.0047003496,-0.0014357278,-0.008417652,-0.04871819,-0.08603804,-0.07390883,-0.0031844694,-0.043951802,-0.013384058,0.04776597,0.026537582,0.052971132,-0.0014252524,-0.050269097,-0.054416426,-0.061335247,-0.049214013,-0.04637634,-0.06538672,-0.07441924,-0.06444553,0.0036264125,-0.116826646,-0.04544374,0.043689143,-0.036002092,0.03456172,0.064230815,0.022751495,0.039539598,-0.023816513,0.04482699,0.007147471,-0.019495524,0.011176636,-0.024550587,-0.031496365,-0.06280952,-0.06608714,0.0533051,0.024601346,-0.03095266,-0.008284269,-0.03285082,-0.030211315,-0.009258839,-0.0051041404,-0.040575203,-0.060578007,-0.08542028,0.019435916,0.040711362,0.030531598,0.031386115,0.015044676,-0.0015502464,-0.031583227,-0.02462861,-0.0021157977,0.0105712,0.0010971138,-0.0061179455,0.029698914,0.015672559,0.06845544,0.015333363,-0.06635344,-0.03302895,-0.041678134,-0.05578241,-0.0019277693,-0.02903556,0.018916767,0.042756237,0.0042530433,-0.03338617,-0.02265826,-0.041125014,0.014256859,0.0036759903,0.022551848,-0.014539738,0.012351329,0.011933225,0.05053847,0.019623023,-0.0319591,-0.044542838,-0.04660354,-0.03032777,-0.076972924,-0.056031503,-0.053043917,-0.06078144,-0.010137476,-0.006794466,-0.0057926686,-0.08116203,0.010698988,0.097992346,0.052432567,0.015256261,-0.0121847885,0.0283868,0.024564892,-0.004393161,0.015830211,-0.033555403,0.01700265,-0.00669441,-0.037018087,0.021034237,0.0018964838,0.0088994475,0.0018040787,-0.011686496,0.0014001147,-0.012676371,0.011201205,0.036431327,0.033239514,0.03389728,0.0326128,0.03123399,0.047417648,0.02360338,0.014327936,0.047308158,0.021171587,-0.018920526,-0.033500604,-0.040481627,0.033847637,0.019397646,-0.020383155,-0.0674098,-0.031758774,-0.05087796,-0.0071130893,-0.07314628,-0.09540562,-0.04076024,-0.06832088,-0.010103957,0.0056292186,0.011674043,-0.008030172,-0.018505268,0.02631469,-0.0022765056,-0.018569153,0.051013388,0.083653875,0.004706162,-0.0069098314,0.006611252,0.037015043,-0.02797297,0.030719109,0.07027989,0.040896613,0.023691013,-0.011910688,0.013376241,-0.050284605,0.051405884,-0.023989936,-0.047985684,0.06363447,0.024464386,-0.0028565624,-0.0028650428,0.035130646,-0.013062567,-0.023716815,0.06955515,-0.0069657457,0.0032356745,0.011777721,-0.006801632,-0.02314216,-0.028004505,0.013167464,0.035004716,0.030854642,-0.017998004,-0.010106022,-0.016265707,-0.010073951,-0.009956967,-0.022725722,0.018085044,-0.04150266,-0.0015089165,-0.0013392679,0.0048437873,0.07759895,0.07710218,-0.061242126,0.008247057,0.03170613,0.06757848,0.003737155,-0.02790603,0.036717664,-0.016011722,-0.030731615,-0.032275688,-0.020678567,-0.0051400894,-0.0055839885,0.051450066,0.023312898,-0.010395076,0.03352481,0.031036392,0.018551268,0.06586473,0.11904766,0.005357503,0.014694799,-0.004282393,-0.01220596,0.014418356,-0.013801514,0.07426548,0.08336712,-0.009198923,0.007125157,0.02545999,-0.0027274762,0.005175362,-0.012973395,-0.022043703,0.025490506,-0.018053126,-0.01146543,0.0051476173,0.03676212,0.025773041,0.020617746,-0.037026886,-0.025786206,0.07280341,0.055424057,0.07879303,0.03491675,-0.041560557,-0.0630544,-0.060948454,-0.081954435,-0.10496978,-0.07376077,0.0013996727,-0.047313385,-0.0030225364,-0.011563221,0.0015173167,-0.021158533,-0.021380417,-0.008760901,-0.039678775,-0.019468077,-0.010040889,-0.006801547,-0.02606045,-0.037767053,0.04344319,0.011562498,-0.015622355,0.11479641,0.07315993,0.031431645,0.053226624,0.013757695,-0.00419127,-0.0044115223,0.008967442,0.04391434,0.022070961,0.024698019,0.04516652,0.02509248,-0.055863075,-0.066010185,-0.025448427,-0.04835598,-0.027545258,-0.067221604,0.0029571643,-0.009494153,0.056351233,0.0744953,0.07863984,0.044363055,-0.02999082,-0.012899941,-0.0040871007,-0.06652063,-0.03423809,-0.0009802678,0.017171027,0.06219918,-0.029954992,0.049279924,0.08297756,0.020148559,0.0705124,0.068296954,-0.08095927,-0.071606755,0.0028611715,-0.029675776,-0.0033978114,0.0036166273,-0.008036664,-0.037574135,-0.002104209,0.007206839,-0.010596762,0.012592487,-0.056838773,-0.057058193,-0.065618105,-0.04948119,-0.014065727,-0.014077908,0.03394443,-0.0050703553,0.04776663,-0.036929384,0.042761933,0.06821053,-0.026856763,-0.001412628,0.026404297,-0.024113728,0.0029605783,-0.027535597,-0.008429268,0.05371963,-0.04788754,0.053185303,0.062287312,-0.0377379,0.015120433,-0.023843396,-0.022147255,0.04151098,-0.05745885,-0.021590611,-0.016942158,-0.035377797,-0.08453852,-0.05284239,-0.031872384,-0.040058233,0.018393317,0.0021531256,-0.02289652,0.040372238,0.021524385,0.01530398,0.07454359,0.0012829569,-0.02824291,0.08697404,-0.010369551,-0.1271371,-0.0006420006,-0.06251343,-0.064791694,-0.0007861964,0.008689919,0.0044638887,0.033441663,0.094405875,0.030399077,0.009420001,0.0057274564,-0.03159552,-0.05339879,-0.050523918,0.023917593,-0.030134598,0.02196712,0.044848032,-0.053247247,0.02949507,0.036873557,0.020974135,-0.009974141,-0.0037549236,-0.014441731,-0.022510413,-0.021031134,0.015859485,-0.037587438,-0.030482203,0.011493792,0.0152245,0.025952045,0.018185727,0.053954896,0.0055184267,0.025515273,0.02693119,0.07145278,-0.04183612,-0.0029667343,0.0032800685,-0.058078058,0.039424587,0.029201914,-0.054433644,0.0178599,-0.030421378,0.02049185,0.023636857,0.06851675,-0.020233031,0.031613797,0.05922462,-0.06982917,0.062397394,0.04583716,-0.058687974,-0.03423927,-0.047807917,0.06167634,0.03838706,0.037813153,0.022847967,0.006362325,0.08378724,0.0048556025,-0.019933276,0.011198146,0.007432708,0.03417212,0.072781585,0.012049408,-0.04231434,0.0030060261,-0.025670437,-0.014958391,-0.039352763,0.08194472,0.091923594,-0.025200069,0.13376904,-0.00029934235,-0.019427521,0.044911668,-0.02066019,0.011645048,-0.0009943598,-0.039304428,-0.028780326,-0.05188453,0.033837777,0.010826977,-0.027831577,-0.049899302,-0.028658597,-0.033377837,-0.016360061,0.0068003885,-0.062161513,0.009382025,-0.050385196,-0.011966734,0.06729111,0.014261047,-0.07030301,-0.02878762,-0.0170831,-0.05857509,0.011056084,0.0074395277,-0.0073555373,-0.047079563,-0.03732735,0.029000562,0.028620597,0.006201281,-0.046502948,-0.016123641,-0.005239414,-0.088043205,-0.09862189,-0.048544064,-0.04136766,-0.011176964,-0.012863599,0.024254479,0.092505485,0.05290025,-0.0004738202,-0.03219361,-0.01117089,0.067417316,0.040736534,0.0022911092,0.0048846942,-0.048298914,-0.020442206,-0.014323421,-0.004100601,-0.05786038,-0.013007707,-0.015197879,0.014692688,-0.039707772,-0.031869013,-0.016447207,0.005297234,-0.009151733,-0.02135925,0.05123103,0.03312603,0.020484243,-0.004302586,-0.019916397,0.062329367,0.069875576,0.024543712,0.045501005,0.05822156,0.077774025,-0.016985964,-0.010574662,-0.037811168,-0.09793897,0.005439869,0.025807686,0.02654253,0.05630389,0.08001861,-0.020542184,-0.0013408713,-0.07015985,0.001451921,-0.0043281484,-0.0012401756,-0.0043961364,-0.003349979,-0.016994499,-0.027243802,-0.0009152598,-0.027667586,-0.0038754523,0.03285946,-0.011568352,-0.050094433,-0.06323812,-0.07728117,-0.054366693,-0.02249043,0.049384963,0.08769398,2.8499351e-05,-0.008706306,0.018254895,-0.0021046768,-0.03548621,-0.045925044,0.017991314,0.011152997,0.031262312,-0.035423607,-0.02198396,0.0172336,-0.022166777,-0.019521827,-0.03677236,-0.038861655,-0.018247899,0.0113154845,0.049421858,0.0055680075,0.06544967,0.0056466884,-0.0085090455,-0.011720725,-0.047904026,-0.0850944,-0.003983247,0.0005427157,0.059946284,0.040745866,-0.05270492,-0.010254462,-0.020185173,-0.020906776,-0.028599385,-0.040956147,-0.06884712,-0.018874701,-0.020244518,0.017583085,-0.028622927,0.082038224,0.0058587417,0.03816404,-0.006928737,-0.012068709,0.021069981,0.0022495787,0.016046224,-0.027656747,0.008332784,-0.03232988,0.01112321,0.049869176,-0.026870437,0.026065765,0.016558573,-0.040716488,0.025079384,-0.024799582,0.05392525,0.03287993,-0.06106782,-0.027420603,-0.026290985,-0.00503425,0.06960275,0.030829944,0.011696635,0.044929165,0.04442567,0.0015525667,-0.028250195,-0.009256462,-0.011761906,-0.050285134,-0.024986368,0.028054439,0.0576127,0.06718863,0.015466785,-0.0023385128,0.05338025,0.049474113,-0.02558678,0.04264026,-0.0283106,-0.08308855,-0.012837326,0.017274044,-0.017727394,0.010952363,0.07490924,-0.06256327,-0.03255578,0.044316407,-0.06283902,-0.041261736,0.065014645,0.0044350047,0.016810834,-0.011616934,-0.0031750468,0.0011622666,-0.045548696,0.052991394,0.0023678555,0.027707176,0.015063586,0.040721327,-0.008515603,0.005530924,0.009861098,-0.042986855,0.020060213,-0.06463716,-0.08168981,-0.03512119,-0.014403274,-0.022584278,0.015733551,0.021849658,0.004937767,-0.0033407456,0.0137816435,-0.018016767,-0.018583663,-0.013570268,-0.01981701,0.001283516,0.020133793,-0.03588041,0.006099519,-0.0065050214,-0.028690131,-0.022981847,-0.02455606,-0.043787558,0.009168459,0.012076046,-0.07574404,0.01806066,-0.00023100141,-0.008698862,0.038484205,0.05153727,0.07220631,-0.029519578,-0.03848125,0.02119526,-0.010364821,-0.021839628,-0.012000088,0.04229399,-0.04742524,0.007887539,0.0014418222,-0.05696632,0.022159414,-0.025089426,0.029857246,0.025826553,-0.01456708,0.013497622,-0.08829105,-0.008152772,-0.044966083,-0.055103544,-0.034061197,-0.018931897,0.023531238,-0.009694057,-0.075806424,-0.064060554,-0.049781397,-0.073482186,-0.0059092795,-0.09752833,0.010723185,0.074473925,-0.009127342,0.02496129,0.014145453,-0.018449157,0.048256468,0.027489215,-0.020098476,-0.012152242,-0.013075093,-0.018745163,-0.016482374,0.043771703,-0.025526773,-0.014801836,0.024333864,0.06356836,0.08736572,-0.008179095,0.009885124,-0.011146833,-0.016460937,0.018990258,0.0024860112,-0.055512734,0.089514084,0.008053314,-0.05204878,-0.044357244,0.013889047,0.0004970442,-0.008827622,0.0073830322,0.0009718151,-0.026376741,0.048667178,0.025660766,0.005748806,0.014820906,-0.010475018,0.014282769,-0.013397892,-0.014181461,0.041563153,0.017733956,0.047231067,0.046969913,-0.09226163,-0.06526591,-0.036125492,-0.03748258,-0.047683597,0.034314547,-0.03361112,-0.062378068,-0.018465642,0.011472432,-0.033960775,-0.008127763,0.015626907,0.009147659,-0.0034263846,-0.021561058,0.006828771,-0.002585005,0.034184325,-0.008327952,-0.0067608077,0.110712476,0.07972805,0.0060581327,0.007767773,-0.05064873,-0.041956715,-0.007373275,0.015088154,0.0007648666,0.013418406,0.12037298,0.045139704,-0.069507085,-0.05289552,-0.02834327,0.04781728,0.02730578,-0.09422344,0.050620597,0.11714051,-0.04857291,-0.030671623,0.011378307,-0.008566441,-0.017595945,-0.013171295,0.025684066,-0.01823661,-0.02279305,0.042796075,-0.02831637,-0.008725431,0.029035002,-0.003574981,0.013048149,0.011784241,-0.001565397,-0.039086733,-0.0021315925,0.018735113,-0.068834536,-0.044834442,0.09085776,0.07426979,0.031774756,0.001417172,0.11988536,0.0550298,0.012072451,0.013252261,-0.059973776,-0.057160452,-0.027863322,-0.039419115,-0.008061239,-0.038776603,-0.037128106,0.035529476,0.07853365,-0.034543842,0.008272868,-0.04793372,-0.024536,0.030324249,0.07374977,0.062108256,-0.028083006,-0.08609003,-0.05047838,-0.07183781,0.004940431,0.013601456,-0.032093592,-0.067006186,0.054348554,0.039508577,0.04466102,-0.050434075,0.0533062,0.051236138,-0.09389629,0.10782211,0.09972201,-0.12610802,-0.03324855,0.04686892,-0.04850573,-0.028940886,-0.03662437,0.0027719457,-0.069101624,-0.08407448,-0.022549095,-0.04766952,-0.10805832,0.002303124,-0.013588958,0.07563857,0.121916905,0.1049287,-0.026659174,-0.038943548,0.054530352,-0.018442957,0.03734732,-0.0058098477,0.0010494291,-0.028564472,-0.023738407,0.005109691,-0.019477343,-0.04333857,-0.05209302,0.046331663,-0.047753833,-0.035499807,0.019203676,0.08502258,0.105615035,-0.061860565,0.018503314,0.058272697,0.034212288,-0.020176932,-0.080516666,0.005453911,-0.04386791,-0.0460664,-0.0025032212,-0.036791127,-0.014269168,-0.038138434,0.027028974,-0.026921954,0.015408546,-0.024939625,0.01170637,0.10081067,-0.053008635,-0.0055462294,-0.013495221,-0.08948546,-0.05477825,0.030718664,-0.048006393,-0.040568512,-0.053293407,-0.0006624807,0.033093836,0.020646526,-0.045646388,-0.010268709,0.0042435373,0.034003027,-0.06970154,-0.09079998,0.04057556,0.016444016,0.028021501,-0.035854694,-0.004393421,-0.031020263,0.003473551,0.05031692,-0.035550244,-0.0777476,-0.048330683,0.00011079627,0.0020209698,-0.012913729,-0.029911693,-0.042261172,-0.00018637256,0.036369503,0.037498813,-0.050819162,0.011744338,-0.030545576,-0.052736863,0.004467411,-0.032891583,-0.030450324,0.010044062,-0.0026061214,0.0071165254,-0.006023448,-0.00036088307,-0.04456214,0.01722957,0.005213208,-0.061207235,0.014838685,0.07530357,0.09136585,-0.010831018,-0.010683395,0.027609566,-0.08754791,-0.018544888,-0.0073991227,0.028257836,-0.032492757,0.041242648,-0.032500047,-0.04129851,0.013929122,-0.06706663,-0.07599191,0.008181147,-0.07190141,0.003508765,0.0071242657,-0.0014981456,-0.0026131438,-0.086731724,0.04204198,0.006097715,0.025281515,-0.01767334,-0.003096321,0.02724867,-0.03014049,-0.023561172,-0.023012003,0.0053160177,-0.06419039,-0.07155938,0.05489182,0.010050654,0.009287154,-0.046596657,-0.06096084,0.04833069,0.036930725,-0.045719035,-0.031398043,0.002241277,-0.023221867,0.009931973,-0.021009576,-0.033888824,0.020348987,0.0026134427,-0.041612145,-0.02574911,0.030495962,0.0051501594,-0.024788972,0.01018512,-0.008476762,-0.0172431,-0.023136467,-0.035951547,0.005312729,-0.03215133,0.04023696,0.03440772,0.014896807,0.02850865,0.040600907,0.031126792,0.04445444,0.0135386735,-0.03753607,0.006255302,0.009000956,-0.030301357,-0.03068451,-0.04066344,0.013451983,0.069686085,0.08744843,-0.041855205,-0.0019696997,0.003117113,-0.054266572,-0.007096289,-0.021822095,-0.017001646,-0.013390151,-0.0124236755,0.036845837,0.02825262,-0.014042175,0.005150934,0.039927635,-0.03424995,0.016470922,-0.0073836218,0.025071397,-0.012092901,-0.01996104,0.038779322,0.0539259,-0.059563927,0.08983208,0.007700087,-0.05021206,0.0379557,-0.011874225,-0.046833493,-0.0033852984,0.01555445,0.027766388,-0.069989935,0.034617644,-0.019597707,-0.05282442,0.033957914,-0.034468472,-0.07014811,-0.029161911,0.00977667,0.03988014,-0.0018185627,0.038726024,0.05073955,-0.04318776,-0.01985889,0.010751967,0.012636104,0.06905549,-0.053716358,0.007879559,0.024595212,-0.084195964,-0.009199786,-0.01965125,-0.08898973,0.010943505,0.07061673,-0.073512636,-0.011402633,0.12503915,-0.07068103,0.025103718,0.054427344,-0.10325071,-0.003399061,0.033341285,-0.0365528,-0.020572165,-0.016726939,-0.06394865,0.017456314,0.02937881,-0.0026114974,0.01526825,-0.003735138,0.011443552,-0.0021023357,-0.004926193,0.0006275547,0.0054543605,0.029582864,-0.04627233,-0.058542553,0.001266896,0.060281135,-0.024639951,-0.051833965,-0.025330452,0.102565,0.021751838,-0.0007693347,0.09086625,-0.0923159,0.0046356027,0.08534335,-0.10472041,0.0015376186,0.059529454,-0.11619073,0.0113657275,0.015189761,0.0013744427,0.014780635,-0.00806599,0.009101144,0.013562145,0.00040199177,-0.019424152,-0.030297266,0.011332667,0.009438597,-0.010603026,-0.039173387,-0.017163102,0.01276664,0.0064168354,0.012463445,-0.024815029,0.09039539,0.062558785,-0.0019611444,-0.048570145,-0.050858513,-0.048676364,-0.02522777,-0.029302033,-0.036079925,0.029675988,-0.047470238,-0.0192249,0.056338493,-0.024138842,0.038780257,-0.000821159,-0.021214297,-0.010458815,0.014331067,0.028871099,0.0014831553,-0.01513838,-0.032772884,0.04522853,-0.0525448,0.042213682,0.034558624,0.115098275,0.0894224,0.03156275,-0.02408503,-0.047379836,-0.09803729,-0.009679933,-0.105730854,-0.02151438,0.038980838,0.054023772,-0.12525974,0.026704371,0.06724724,-0.062589996,-0.062434692,-0.01213281,0.008808736,-0.050052263,-0.027776515,-0.080005094,0.0205539,-0.0040631886,-0.07715735,-0.00087228307,0.11560617,-0.034495175,-0.0042427983,0.04770057,0.04650197,-0.02450895,0.021569977,0.017616926,0.000286693,0.0007345978,-0.06039306,-0.0067720674,-0.03486563,-0.015121746,0.063632585,-0.0028910968,0.011597539,-0.01779743,-0.09344469,-0.038478218,-0.022972727,-0.014604661,-0.013619343,-0.02830079,-0.03761007,-0.021427507,-0.04009617,-0.017352585,0.055166174,0.016577996,0.07691189,-0.09240068,-0.015604685,0.04903334,-0.1169276,0.05700633,0.069475204,-0.04952188,0.055463545,-0.015584376,0.0032824727,-0.03093251,-0.05356329,-0.045980506,-0.019425444,-0.027489759,-0.012281622,-0.014929896,-0.0011084927,-0.0436756,-0.051237904,-0.06657459,-0.045213535,0.05824587,-0.022458171,0.021793881,-0.04926543,-0.039842326,0.03773495,-0.023933714,0.03299975,0.032829925,0.012683089,-0.019677907,-0.0019784868,0.007563421,0.029959025,-0.024700535,-0.066592805,-0.020068811,-0.02498536,-0.06404268,0.024378104,-0.05145543,0.061640915,0.028798774,0.063386306,0.023266401,-0.0074552107,0.0067546,0.041215666,0.018694792,0.02515596,-0.051611856,0.011579243,-0.05474014,-0.026138654,0.042200126,-0.054197434,-0.0041088047,0.03474913,0.030210225,-0.010874394,0.03486407,-0.026387125,0.025727939,-0.013671518,-0.030692685,0.02965591,0.034114692,0.041687302,0.0010826469,0.008465825,0.08136522,-0.002774748,-0.012760263,0.008704573,0.0641151,0.0217898,-0.021374453,0.046982225,-0.040708434,-0.03415552,0.004300446,-0.0050965487,-0.025213692,0.021168847,0.045243878,-0.0031614315,-0.04221048,-0.023701258,-0.02568218,-0.06323483,0.0054197353,-0.06534398,-0.014959547,-0.010789742,-0.04187765,0.013069652,0.049073093,0.0310564,-0.017478528,0.032682706,0.04101554,-0.0020121,0.04537895,0.013143361,-0.030888977,-0.0007676725,-0.006117355,-0.025691181,-0.031790137,-0.05462416,0.013375087,0.0065756575,-0.043738734,-0.02560164,-0.036125503,-0.05372848,0.108933285,-0.037304856,-0.07823508,0.048212975,0.0585465,-0.049017306,-0.025695179,-0.010099361,0.034073137,-0.011523825,-0.036383413,0.008909444,0.013863581,-0.049477,0.01038328,-0.039921682,-0.023973633,-0.011634641,0.005742875,0.04559671,0.0419617,0.0487242,-0.007680022,0.019694619,-0.008541555,-0.055313684,0.0813938,0.024343759,-0.1100015,0.025673995,-0.003113237,-0.014021185,0.015904821,0.023676045,0.016847357,0.051637627,0.007231584,-0.0074672224,0.008163661,0.006451841,-0.011557414,-0.0058006034,-0.06947359,0.03496906,0.10262207,-0.027063893,-0.06551585,0.060560636,-0.03180252,-0.015211081,0.012707111,0.049758106,0.11749278,-0.0043223873,-0.021166202,0.07108782,0.025025737,-0.035959292,-0.018802952,0.11384965,0.03468636,0.056485042,-0.067593314,-0.00018089727,0.105143525,-0.018084396,0.022556338,-0.001862624,0.0045893593,-0.027915055,-0.04014105,0.045819145,-0.0039429027,-0.06789568,0.008906903,0.042951655,-0.025339527,-0.021883845,-0.009473228,0.029186688,-0.042430595,0.03411059,0.03875299,-0.041804858,0.018350925,-0.034363683,-0.011692325,-0.015016044,-0.019670658,-0.030144865,-0.024540372,0.022177769,0.06937555,-0.054493424,-0.028030172,0.01442198,0.001330657,-0.014106608,-0.048834186,-0.019938326,0.009669972,0.0043386207,-0.09386839,-0.038514335,0.0060444647,-0.039573442,0.0046402,-0.0072689634,-0.036855813,-0.0042592776,-0.09019135,-0.01481664,0.00090563786,-0.033864044,-0.074031904,0.034758434,0.081871726,0.010647487,-0.03854884,-0.015316621,0.00036396284,-0.013391466,0.008047502,-0.0070104776,-0.026359793,-0.018119432,-0.054570146,-0.08264774,-0.017840981,-0.039199065,-0.07870936,-0.03442203,0.045646165,-0.07442802,-0.079327695,0.025729042,0.1173125,-0.070886165,-0.047291044,0.014353744,-0.038317908,-0.06552541,-0.088726126,-0.013837288,0.02003033,-0.09128161,-0.020204704,-0.0055317963,-0.005216583,-0.02254907,0.014798485,-0.014428848,0.019122895,-0.0024466568,-0.027349275,0.007979411,-0.023965256,0.02862199,-0.0045222216,0.031319316,0.018985873,0.0041711433,0.013292332,0.02453869,0.02274647,-0.04919642,-0.00017714631,0.023096306,-0.06691847,0.06318725,0.05982277,-0.03380515,-0.073297165,0.04805266,-0.01715274,-0.092561394,0.015726987,0.07523685,-0.022049598,-0.024373291,0.03181828,-0.021638248,-0.024317509,-0.026458167,0.012856473,-0.043366924,-0.031844147,-0.043691605,-0.019910537,0.053918377,0.01713832,0.012880789,0.01502359,0.028747955,-0.068216026,-0.024894454,-0.06901936,-0.05779702,-0.046727255,0.00097313715,-0.0046861637,-0.031349473,0.01889128,0.00038245972,-0.046840657,0.0485582,-0.031159168,-0.044058446,0.016421556,0.041686695,-0.024127426,0.009466215,0.05946607,0.06579885,-0.0783872,-0.04870628,0.079293616,-0.008160789,-0.074227355,-0.03536754,0.027362017,0.02194853,0.0014646323,0.026582235,0.058355577,-0.018650124,-0.05805108,-0.001070246,0.018612593,-0.03160965,-0.029105542,0.037459772,0.03655354,-0.023163,-0.025400354,-0.015361123,-0.0066349558,-0.062003825,-0.028234445,0.014737314,-0.0020376616,0.03776482,-0.0621028,0.020813022,0.055780128,0.08668223,0.01629728,0.15453918,0.113223314,0.0131639205,0.034281068,-0.016116796,-0.013824507,-0.0059509003,-0.03302376,0.013039723,-0.041970372,-0.054968096,-0.02475197,0.009420548,-0.011986765,-0.035867568,-0.053641982,0.021715673,-0.014857658,-0.009834958,0.027020065,-0.008747068,0.023940409,0.010655441,-0.019576574,0.0057242294,0.03553119,0.0035090346,-0.0073054866,0.0015000491,-0.0007629694,0.026068132,-0.02080827,-0.0021571314,0.06333151,0.0043079187,0.031861685,0.083248116,0.028280985,0.046181034,0.05376845,-0.009885922,-0.04067571,0.05902284,-0.021779286,-0.04322502,0.06513148,-0.05668514,-0.011500392,-0.009183488,-0.010347627,-0.004593393,-1.8200146e-05,-0.004191862,0.00075363996,0.005844696,0.009468476,-0.038360197,-0.026520817,0.01706516,-0.032976504,-0.0074722944,0.052724812,-0.04761869,-0.026235458,0.014296369,-0.039874785,-0.029969512,-0.05596298,-0.03679324,-0.040227417,-0.050654523,-0.022376083,-0.029530553,-0.093121216,0.010656079,-0.008714131,-0.038841113,-0.005910703,-0.017515033,-0.020511141,0.018292086,0.012946621,-0.0007251587,0.022070862,0.045388967,0.03894014,0.019199839,0.041970447,0.011511007,-0.004984765,0.031644892,0.010705293,0.03217871,0.016333178,-0.07863607,0.020314258,0.00010165216,-0.042048424,0.013853393,0.015194406,0.03389221,0.046156503,0.0011827046,0.02102038,0.05025266,0.014875762,0.0317183,0.057789367,0.021794923,0.006307692,0.0012838353,0.013609025,0.03924033,0.047726713,-0.022069259,-0.011352603,0.028696105,0.008825916,-0.019857068,0.012323638,-0.023145376,0.051104378,0.04025611,0.019969651,-0.013785455,-0.0051360573,0.035028677,-0.021210039,-0.010507535,0.03776717,0.026110347,-0.0136647625,0.023318833,-0.011878382,0.024899153,0.008483171,-0.030822981,-0.0007240125,-0.024152974,-0.03794496,0.002203535,-0.029139353,-0.021290796,0.019163249,-0.0006082242,-0.010884924,0.04650814,0.0443348,0.042381864,-0.029855711,-0.03498877,-0.032736175,-0.0014893567,-0.0821306,0.04237999,-0.066911146,-0.004289559,0.04464924,-0.09424523,-0.02320054,0.021267816,-0.04166008,0.009970835,0.016262572,0.022471607,-0.007934447,-0.024406984,0.009493182,-0.030258931,-0.00918987,-0.010599048,-0.028644301,-0.04145235,0.082609974,0.010606939,0.006059988,0.015126073,0.0059144306,-0.02908859,-0.018988464,0.019850237,-0.045853134,-0.002412075,-0.0025526963,-0.029017458,0.05407713,0.014673873,0.000106625994,0.07480297,0.027088491,0.003114919,0.0031796193,0.014419096,0.034095366,-0.025322523,-0.022750037,0.019760512,-0.05153796,-0.02090552,0.0062090186,-0.0094739655,0.009552267,0.00033427955,-0.004619195,0.028234132,-0.0020971764,-0.0140053015,0.0068201898,-0.027664531,-0.0077562495,0.037323818,0.011728637,-0.021399112,0.04030278,0.010729827,-0.020758964,-0.0038447892,-0.049039103,-0.0041774996,0.0072612967,0.035664264,-0.020921998,0.0430368,0.071985886,-0.061654773,-0.015075364,-0.012107374,0.034798592,0.02160421,0.012957777,-0.006276081,-0.039953567,-0.04113604,0.033410385,0.010562408,-0.02452362,0.011912491,0.0038947721,-0.06294039,-0.022272535,0.008861668,0.03353388,-0.033089887,0.000671906,0.007858881,0.010947814,-0.009846696,-0.025099443,0.008510792,-0.008500216,-0.020824976,-0.014896098,-0.020990947,0.012135338,0.014354258,-0.020242173,-0.04715309,0.0222508,-0.01116251,-0.04224794,0.020878617,0.0006482814,-0.011553261,-0.0016004703,-0.01622259,-0.0029607299,0.018374667,0.005470651,0.008830812,0.034248672,0.008026,-0.0127778,0.044443876,0.008378574,-0.055043977,0.062027518,0.008140778,-0.015542675,0.020352582,-0.019839814,-0.021011826,0.048206244,-0.004593246,-0.030339533,0.01855562,-0.025580622,-0.008783512,0.01998563,0.0026179943,0.03814174,0.0070927297,0.031614825,-0.031852677,-0.033471238,-0.04673193,-0.052784383,-0.011031773,0.0243852,-0.015196241,-0.0034457904,0.0218279,0.009506024,0.013881152,0.020596795,0.009777785,0.016214803,-0.049050428,0.0026963048,0.017387653,0.03612952,0.022137472,0.0004154087,0.052633565,0.05310367,-0.019570788,-0.03652391,0.04094574,0.041108917,0.076197445,0.03859337,-0.017652629,-0.024411285,-0.025536546,0.0060008364,-0.0027845022,-0.038252085,-0.037331074,-0.0013276968,0.03062888,-0.023378646,-0.0952434,0.0022705407,0.10028849,0.10942684,0.092446,-0.0011500757,-0.009473196,-0.019067476,-0.02445897,-0.020104392,-0.036332775,0.0027447701,0.012772993,-0.008548892,0.006493178,0.0014584581,-0.036877394,0.016535323,0.039644267,-0.036729075,-0.052996356,0.05269662,0.016458765,0.024439802,0.024803441,-0.021771843,0.00088728673,0.040268134,-0.0017682231,-0.03621331,0.0047155656,-0.0029271208,0.04143621,0.016263258,-0.007272866,-0.03545556,-0.027511405,-0.031214539,-0.032892607,-0.0035532601,0.011740426,0.054170314,0.1415186,0.0668692,-0.0822635,-0.09075633,-0.026589062,-0.048648432,-0.043766946,0.0061653163,0.032908577,0.045083217,0.02233678,0.04042067,0.0710269,0.04010914,0.0090414565,-0.007218027,0.011420724,-0.008917686,-0.051095683,0.0034879297,-0.04022607,-0.028913263,0.0031641682,0.015901608,-0.04970801,0.0075797024,-0.0029991502,0.00029405914,-0.061132938,0.029877953,0.092487,0.03173437,-0.010655092,0.005793685,0.035303142,0.057983708,-0.008340763,-0.018168047,0.029985478,0.0676998,0.011358259,-0.02834767,-0.014819366,-0.012501644,-0.019944925,0.063481756,0.094771475,0.012323719,0.0040312107,-0.01287774,0.06034868,0.09361761,0.040212452,-0.00898841,-0.018231792,-0.012746166,0.015031544,0.027284225,0.0024226708,-0.031130992,-0.0095427,-0.0038055433,-0.027962519,-0.01634446,-0.02944689,0.009026633,0.0904908,0.006945149,-0.0047771456,0.033848755,0.021794263,-0.049639676,0.046317756,-0.002273197,0.025826126,0.0070994743,-0.051589794,0.08402858,0.061415967,0.0074578132,-0.057772677,-0.011764289,-0.026976854,-0.016137974,0.011736795,-0.042753287,-0.0381081,-0.004432809,-0.009098115,0.03775483,-0.028373642,-0.028077252,-0.024158178,0.04059835,0.0061919363,-0.02297938,-0.019908438,4.678601e-05,0.009738617,0.034534555,-0.01452429,0.0014500226,-0.012275915,-0.008489156,-0.04331835,-0.019043263,0.017467814,0.024758173,0.014093396,-0.02714977,-0.023184914,-0.017513542,-0.030611021,0.016322784,0.004571903,-0.0138843125,-0.031862434,-0.08496657,-0.05848835,-0.018776614,-0.053856652,-0.021014635,0.05942822,0.03915294,0.029258613,0.0060495413,0.028834492,0.0046828566,0.022074865,-0.026144367,0.019520815,0.019195208,0.0002809599,-0.0006569213,-0.028707504,-0.03725137,-0.00565799,0.008707258,0.024905998,0.030662324,0.015329646,0.058663663,0.0006263842,-0.12913954,-0.06572654,-0.05199192,-0.028917624,0.014359847,-0.028622689,0.04765969,0.08730159,0.06887791,-0.017384691,-0.0051395744,-0.027899439,0.020874443,-0.013582464,-0.031762198,0.041671015,-0.0041378336,-0.00044710538,0.00521063,-0.008962826,-0.014078884,0.010220171,-0.044688076,-0.044155363,-0.015170281,0.028882151,0.003711726,0.026488608,-0.020721117,0.0075953114,0.058851827,0.11513369,0.0798378,0.02472171,0.055324215,0.11090536,0.033790626,0.04413551,-0.023367636,0.040905554,0.057369802,0.03267034,0.0287399,0.011908971,-0.015059656,-0.049099986,-0.049854267,-0.016219288,-0.043028116,0.010739676,-0.026018249,0.002209761,0.005111953,-0.04781882,0.024017097,0.050515536,-0.01445075,-0.020755243,-0.0083083855,-0.059565753,0.033761665,-0.018995855,-0.053664144,0.012013514,-0.031052671,-0.05118503,0.016056282,0.004690998,0.019124353,-0.02239148,-0.020205114,0.004785103,-0.03880861,0.011380112,0.02923769,-0.02818649,-0.02050624,-0.010440279,-0.007242935,-0.04025758,0.0041829213,0.011683238,0.041254263,0.031233292,6.835844e-05,0.0005735412,0.029233702,-0.010425564,0.01283664,0.041097995,-0.010000636,0.017310034,0.0131626995,-0.016403453,-0.022221945,0.01608946,-0.014932186,0.010558783,-0.02941326,-0.015722169,-0.048090756,-0.052713655,0.047363363,-0.00067782996,-0.045989763,0.058718134,0.057845164,0.028051801,-0.007194183,-0.010181818,-8.797069e-06,-0.010182665,-0.016697217,0.006128191,0.01335691,-0.0028458543,0.023377594,-0.03808604,-0.025536254,0.011677817,-0.01122442,0.0040284065,0.00655359,0.012786906,-0.000999708,-0.02174358,0.01802034,-0.013061462,-0.022447348,0.08274591,0.08081593,0.064367145,0.010970737,0.03203602,0.035275318,0.033568468,0.015714975,-0.025062643,0.020264708,0.017985657,0.013047552,0.03235086,0.014969373,0.00517554,-0.030422466,0.009470877,0.03531042,-0.023679476,-0.0159993,-0.012913819,0.014988597,-0.0012292874,-0.01623291,0.015539127,-0.031604927,-0.027963549,0.083601415,-0.0014489321,-0.0032303855,0.020677827,-0.0027430134,-0.0061275917,-0.02576445,-0.0047325967,-0.030213488,0.024123231,-0.026129939,-0.030519774,-0.0014070468,0.009696818,-0.019979568,0.0016906168,0.009625784,0.023477152,-0.036479622,-0.0040789396,-0.029746344,0.008951894,-0.012722756,-0.039836932,0.02876256,0.0180106,-0.021139441,0.007301589,0.040566724,0.036317997,0.044359084,0.04305372,0.06304612,-0.0038411608,0.024296518,-0.046359576,-0.019942956,0.029829588,-0.052069236,-0.041019987,0.017450199,-0.014617862,-0.022113996,-0.015028296,0.015651863,0.013313609,0.01666864,-0.0022813377,0.018833913,-0.021127114,-0.014385068,0.018106423,0.07410066,-0.0056979186,-0.073746465,0.039993193,0.009030774,-0.060468808,-0.035795018,0.010447555,-0.0230974,-0.008908048,-0.046269357,-0.042208437,-0.023803832,-0.021216812,-0.009224016,0.017431734,0.014182787,-0.036573455,-0.010167427,-0.014395609,-0.07926172,-0.01609131,0.018590694,-0.047209065,-0.06475771,-0.031062407,0.018220514,0.081267916,0.016039034,-0.06311174,0.093840994,0.13920827,-0.097840294,-0.038462903,0.05504923,0.015571137,-0.007932484,-0.035382524,0.028074104,0.011349082,-0.05124486,0.09052949,0.061370466,-0.015672237,0.046529412,0.022390516,-0.010685863,0.008202834,0.014046186,-0.012830834,-0.059301957,-0.02873964,-0.003805121,-0.014129728,-0.041668113,-0.047828183,0.029600848,0.043107927,0.013326958,-0.026313184,-0.004763853,-0.020577155,-0.011289816,-0.030010957,-0.053402152,0.021633761,-0.013998563,-0.024112212,0.00027007988,-0.009325535,0.024705643,-0.037961606,-0.031242954,-0.06400204,-0.040982857,-0.04272602,-0.04674709,0.009108433,-0.005203925,0.009746294,-0.03524549,-0.028488927,-0.011445629,-0.03243581,0.008005238,0.030628964,-0.06784595,-0.010308018,0.03924945,-0.037880473,-0.033153333,-0.0056985044,-0.030078782,-0.02904089,-0.022382319,-0.038616605,-0.05092258,-0.07068486,-0.011612521,-0.017712925,-0.019959094,-0.010011098,-0.004803937,0.00071827986,-0.036325052,-0.0021997744,0.061722882,0.04906079,0.016144553,-0.031267326,0.032071345,0.057014406,0.036081288,0.041266188,-0.014970345,0.01260362,-0.0033311388,0.026483119,-0.008455931,-0.015710684,-0.00405553,0.029572185,-0.029388469,-0.05568141,-0.01400587,0.02851575,-0.00044300625,-0.026256839,0.001601896,0.0014624723,-0.009068959,0.017545277,-0.015999245,-0.01700906,-0.014385539,0.004713936,-0.011691834,-0.00066315464,0.010819743,-0.0034732313,-0.016093085,0.0065332795,0.0151038,0.025293782,-0.0061492524,0.013387642,-0.019854646,-0.021545876,-0.013894901,-0.01574108,0.037155967,-0.012551675,-0.03490237,-0.02826615,0.056629315,-0.056824386,-0.020476978,0.028166423,0.007086577,-0.013408151,-0.0045557013,-0.022702718,0.00944165,0.008014729,1.9601128e-05,0.058204114,-0.0018911063,0.039427318,0.0368177,-0.0031297798,-0.0015634174,0.022441763,-0.03199663,-0.016887248,-0.058286186,-0.018869167,0.007828634,-0.010693071,0.043355305,-0.004720269,-0.039026164,0.09982805,-0.008153603,-0.044314038,0.00075095904,0.0008225252,-0.00034457442,-0.056586683,0.019751387,-0.005231852,-0.03286385,0.04323054,0.008014022,-0.038884398,0.02659633,0.026232798,-0.033200186,-0.013477871,-0.03363328,-0.053127706,-0.024243081,-0.016519679,-0.016585823,0.021279113,0.04845864,0.0022917832,0.02538465,0.04742132,-0.007992427,-0.0007882806,0.08428448,-0.06379915,-0.006448708,0.010416567,-0.050309908,-0.021273706,-0.0009253145,0.024482962,0.029647768,0.014333017,-0.009534341,0.022641238,0.019345159,-0.015868671,-0.0025629753,0.020156993,0.077236325,-0.021850863,0.03842835,0.059942007,0.048642084,0.06115229,0.022103874,-0.050218146,-0.028921468,0.034199152,-0.06523588,-0.0049122176,0.117854565,-0.013861899,-0.08741066,0.023629762,-0.01985963,-0.010129262,-0.038119376,-0.0049964064,-0.0070749265,0.057020355,-0.012511325,-0.054177385,0.06536299,-0.040896457,0.021005856,-0.018393127,-0.030188652,0.022530882,0.035118237,0.0070512695,-0.03023176,0.00021245313,-0.041065056,0.015191276,0.0038266445,-0.00559061,-0.0019040501,0.1604487,-0.002941717,-0.0023351577,0.04466557,0.010199423,0.014333883,0.019751888,0.0031870338,0.022798868,0.008609324,-0.042736437,-0.0133345565,-0.026570302,0.020096974,-0.049512465,0.063657396,0.02240261,-0.07340278,0.027433049,-0.00880896,-0.07722868,-0.019084085,-0.011004128,-0.048535977,0.02589513,0.011481991,0.016518395,-0.01724659,-0.007143385,0.0025873045,0.02293927,-0.07410175,0.07093189,0.04238295,-0.0535253,0.024434354,-0.06540694,-0.04358698,0.037677582,-0.030630954,0.044250064,0.015434196,0.002607996,0.07204924,-0.00989224,-0.036938548,-0.006485667,-0.05772584,-0.055445395,-0.08712354,-0.029473593,-0.06693383,-0.030893316,0.008672495,0.13219613,0.008864906,0.006884274,0.11497765,-0.002284074,-0.040808577,-0.022263791,-0.062326975,-0.03234667,0.0038836554,-0.0364688,0.033473328,0.03385209,0.0567223,-0.011433834,-0.047946367,-0.0061277477,-0.015738586,-0.04153738,-0.022526005,-0.00084651844,-0.053708944,0.043862373,-0.017555067,0.010316714,0.053216625,0.010580939,-0.030539116,-0.011645075,-0.023746181,-0.042136796,-0.035502337,-0.008701846,0.059126925,-0.0066650216,0.021523537,-0.010017949,0.0020061103,0.067279086,-0.011079599,0.05094029,0.041472327,0.01796577,0.057209514,-0.05688081,-0.038960412,0.039541088,-0.0269064,-0.0027675116,-0.014008204,-0.05613649,-0.0037706462,-0.01759675,0.07067578,0.056819245,-0.06498539,0.031197626,0.07300132,-0.014152784,0.049728975,0.03710504,0.022541473,0.01719115,-0.043261115,0.039420914,0.0105003575,-0.027443618,0.02636662,-0.061076336,-0.06591329,0.015003333,-0.06731995,-0.04952723,-0.0026911858,-0.010385787,-0.008756798,0.0009463268,0.0046106535,-0.0033615888,0.011748747,-0.02201534,0.00097257906,0.034412008,-0.0049195085,-0.04619257,0.025098016,-0.032779947,0.001624422,0.02925247,0.014493517,-0.04679648,0.038750757,0.036643684,-0.027726287,-0.0067667235,-0.013383405,-0.010549796,-0.0019967167,0.0021053553,0.014633082,0.053944137,0.004816109,-0.010045669,0.027142398,-0.016041718,0.024646495,-0.028826125,-0.054124273,0.035117082,-0.02677294,-0.037062626,0.023040552,-0.00019321921,0.012842249,0.002023851,0.028349282,0.01613165,-0.0024300017,-0.050308786,-0.08620245,-0.032473654,0.02355936,0.02469259,0.0072094547,-0.049519386,-0.059462488,-0.017759413,-0.023260681,-0.045492154,-0.0014766563,0.0005384183,-0.008252944,0.005345142,-0.03826907,-0.041047703,0.00096012163,0.014048536,0.028869791,0.032252792,-0.004550608,-0.007416561,-0.052595746,0.012351867,0.025137307,0.016672451,-0.026439045,-0.06348933,-0.0166404,-0.08243177,-0.07293164,-0.038621396,0.022991521,0.023602884,0.028206607,0.08627727,0.06627626,0.045885053,0.011323038,0.0043017757,-0.018587714,0.0030550654,-0.018824453,-0.038133144,-0.008980541,-0.020125557,-0.03641214,0.0075897663,-0.023308929,-0.011291126,-0.026212074,-0.03313014,-0.03692526,0.02922316,0.016480975,-0.071578,-0.044720847,-0.022307951,0.002343196,-0.029725881,-0.06285685,-0.025603442,0.019216811,0.03696749,0.020563858,0.009847326,0.027580505,6.968761e-05,-0.02803301,-0.06411852,-0.057689756,-0.0031851546,-0.011797352,-0.016926993,-0.045266833,-0.076868124,-0.028358916,0.04311735,0.0036351995,0.04375403,0.039511573,-0.0009095096,0.02987497,-0.012426675,-0.0072573796,0.028954742,-0.009954517,0.020613365,-0.02252815,-0.07625074,-0.04134992,-0.020201711,0.039286576,0.12725244,0.09861731,0.0013050113,-0.006554533,0.029049639,-0.08316338,-0.08356474,-0.036096912,0.025015913,-0.029638648,-0.036787894,0.013020714,-0.058829963,-0.027566656,0.020836174,-0.0005631057,0.07242988,-0.02367025,0.029554227,0.0066609653,-0.055249017,-0.009421103,-0.005279965,0.03145854,-0.00457228,0.05686836,-0.02044538,-0.007975904,0.020891806,-0.01752816,0.032803323,0.052376784,-0.024016386,0.008566985,-0.0010109986,0.029623345,0.024230637,0.009784468,-0.04249155,0.05797857,0.007351147,0.021902587,0.054881383,0.01731331,-0.03081852,-0.0013510863,0.057770554,0.018075513,0.054538608,0.098449476,-0.09014019,-0.08979388,-0.032069836,0.0049648504,-0.04396753,-0.050507426,0.040347647,0.0071230717,0.015068067,-0.012035634,0.015725518,0.027406998,0.06940573,0.0090076,0.035958495,-0.026703417,-0.076590195,-0.109865956,0.057548396,0.007096407,-0.04076718,-0.004777099,-0.0413537,0.03821435,-0.022370312,-0.03126114,-0.0008961786,0.04186901,0.0064223465,0.0046127294,-0.051496796,-0.039606273,-0.031886954,0.04509339,0.0041430425,0.029332409,0.053420104,-0.0028399108,0.00059732475,-0.09232322,-0.03756856,-0.024633327,-0.046594847,0.0114656035,0.036521327,0.03441511,0.051725067,0.07132552,-0.031331364,0.023180421,0.02799618,-0.058062904,0.007965129,-0.0019241349,-0.014669051,-0.02847055,-0.04773499,0.040734377,-0.06484523,-0.04431507,0.06425314,0.022700075,0.018971298,0.049551748,-0.015120829,0.014888827,0.03152221,0.02647254,0.0025404224,0.03461539,0.013534593,-0.023370963,0.02021531,-0.0014744417,-0.03264654,0.021381846,-0.043794677,0.00047279912,-0.0106126275,0.013385955,0.022746366,0.036249235,-0.026207935,-0.09193188,0.020935325,0.06729184,0.048977867,-0.015364101,-0.054371715,-0.0455646,-0.019833222,0.021656223,-0.035520405,0.040568445,-0.0064473,-0.037472714,0.02864496,-0.031355042,0.010295343,0.05213902,-0.027120791,-0.020055143,0.071216345,0.018776465,-0.018772924,0.006692072,0.001952204,-0.006571686,-0.029105881,-0.0008507146,-0.07474151,0.045695342,0.009662595,0.032057203,0.014799445,-0.008036014,0.028074019,-0.03180004,-0.046932314,-0.04531525,0.023712143,0.030444765,0.033363592,0.0062992685,-0.012588012,0.032045458,0.0137386285,-0.011759606,-0.0003050921,0.041717853,0.008149689,-0.0029042005,0.024042893,-0.028153028,0.010349923,0.03078146,-0.008120979,-0.018303927,-0.07096122,-0.021723416,-0.008861584,0.033001296,0.039660722,-0.014899589,0.038409647,0.007103874,-0.046420444,0.007324221,0.0035397436,0.018454153,-0.03328421,-0.009338437,-0.026413627,-0.022339623,-0.0530853,-0.024870625,-0.00628549,0.008581113,0.026187554,-0.0066450117,-0.012534045,0.008081267,-0.002485667,-0.027650671,-0.0064952364,-0.040637262,0.0069247014,-0.03647295,-0.024701549,-0.025030984,-0.026155317,0.04779628,0.010205255,-0.006850199,0.07592554,-0.033818714,-0.057074767,0.04362831,-0.05574657,0.046059754,0.005645759,0.0011101419,0.023286747,-0.026178632,-0.02332716,0.03331147,-0.024108734,-0.028925372,0.051419795,-0.026233256,-0.022388475,0.04420539,0.009122593,0.10341663,0.025719127,-0.0623384,-0.019402238,-0.03973997,-0.13732684,-0.05925536,0.057455953,0.037072077,-0.0759543,-0.032771803,-0.022184094,-0.0715997,0.11447166,0.028014803,0.09053675,0.04671978,-0.058627144,-0.05596367,-0.0101827085,-0.07751423,-0.04144467,7.973121e-05,0.021698862,0.018465286,-0.011413058,-0.0124434745,-0.056809433,-0.022472087,-0.067945,-0.055325504,0.10624556,-0.10415672,0.00012125977,0.045213923,-0.0024364775,-0.01381177,0.012736401,0.00038600454,-0.007471549,-0.026689652,-0.024590861,0.006057346,-0.0038732067,0.012880732,0.061826594,-0.121281765,0.15178095,0.16850285,-0.16932094,0.004447367,-0.064522006,-0.1569461,0.00064192305,-0.036285225,0.051725086,-0.012840611,0.05274367,0.015925191,-0.028571103,-0.003509849,-0.0239872,0.011005813,-0.00926996,0.05434074,0.01515599,0.002158239,0.00475813,0.0019439482,0.0430898,0.0901048,-0.02692653,0.033653848,0.031133968,-0.071369044,0.0035198678,0.020858834,0.011211237,0.041962925,-0.032412127,-0.031700958,0.018155068,-0.076565966,0.004283468,-0.010511792,-0.07809507,0.012426663,0.027656285,-0.0017041411,0.033444226,-0.01881501,-0.023093255,-0.04020097,-0.012504847,0.06439636,0.028288722,-0.039728858,-0.07461549,0.024614377,-0.03670946,-0.03909275,0.047656957,-0.013704317,0.0941798,-0.05601214,-0.036864094,0.052470546,-0.021810524,-0.080174886,0.06394667,-0.012286282,-0.029103925,0.04888914,-0.065527745,-0.05222516,-0.030323315,0.058817487,-0.08349255,0.0061426577,0.016809253,-0.07786819,0.07779842,-0.052044544,0.018682895,0.14086781,-0.034559984,-0.046844497,-0.0171216,-0.058455233,-0.021859217,0.028087612,-0.11583479,-0.022484092,-0.08222009,-0.025393544,-0.0058488953,-0.017456125,0.021256356,0.049272582,0.02518266,0.033901453,0.045832448,0.07036921,0.016111718,-0.018539784,0.0052868114,0.00837406,0.008239334,0.03829437,-0.023994613,-0.025086232,-0.06728618,-0.024142597,-0.02804234,0.04101285,-0.036070604,-0.010614831,0.09168787,-0.00017566384,0.03299153,0.018380921,-0.03064784,0.04837434,0.0301263,0.0065839076,0.06290594,-0.03815557,0.00020606651,0.02663187,0.084157884,0.001036436,0.00839381,0.015145962,-0.060578246,-0.008705811,0.006132762,0.034341007,0.059301913,0.044070814,-0.012434347,0.05108093,0.00071765267,0.066320986,0.028964674,0.011350306,-0.056647845,-0.047036134,-0.0026488965,-0.0068983166,0.048198458,0.025123587,-0.07839861,0.019906001,0.070136264,-0.03834443,0.014141482,0.032975726,0.008559811,-0.048374422,0.028927505,-0.0012028066,0.022242034,0.008113233,0.02410815,-0.01873003,-0.03050442,-0.015218536,-0.055294003,0.009148703,-0.0465634,-0.0417536,0.04262762,-0.042371824,0.0071279537,0.045986693,-0.06946698,-0.009033331,0.082105875,-0.00809444,0.04244759,0.064025804,-0.0020187902,-0.020339584,-0.024456954,-0.0029182949,-0.011575677,-0.0102169495,0.03821874,0.06679051,-0.0035455984,0.0023549518,-0.009097808,-0.047093943,0.024439218,-0.0030826996,0.008026518,0.030644037,-0.002331444,-0.02724646,0.0256746,0.0009680293,-0.033224173,-0.030697662,-0.017368084,0.048302956,0.032953687,0.018742053,0.019397378,-0.011604385,-0.027531411,0.040751487,-0.03319509,0.05476286,0.04349491,-0.03049602,0.06797817,0.031216715,-0.0106718,0.009453301,0.0333315,-0.04678803,0.114627086,0.018376872,0.003958706,0.11448478,0.020846397,0.014966372,0.0042643496,-0.035696615,-0.05082891,-0.036185633,-0.0655438,-0.011672059,0.07559515,0.042992666,0.013372181,0.056756508,0.03174407,0.0026371186,0.01301563,0.010883411,-0.036316402,-0.0063554198,-0.002322754,-0.022813514,-0.005746007,-0.02133668,-0.035755653,-0.03392041,0.026693357,-0.046973377,0.0056881025,0.021722417,0.04394666,0.010986202,0.027632535,-0.027452428,-0.0856144,-0.042278018,0.028440868,-0.106190436,-0.041199856,0.0330762,-0.037825648,0.036200233,0.060559798,0.044886827,0.021965276,0.0016811056,-0.02003703,-0.027336642,0.020504605,0.017527698,-0.01923833,-0.011212014,0.0004826221,0.009680918,-0.00045994346,-0.0015421167,0.13324262,0.010995185,0.05329701,0.09232723,-0.081986114,0.015044726,0.012954825,-0.007157166,0.0315459,-0.020721164,-0.024887796,-0.052928735,0.007376473,0.013122518,0.05910502,0.020116154,0.008370135,0.044439152,-0.026321769,-0.020926353,-0.053710118,-0.06824323,0.040701333,0.0202467,0.0437637,0.053259823,-0.02904882,-0.029082917,-0.056754366,-0.09331387,-0.10513419,-0.026160449,0.016188119,0.028258283,-0.020733051,0.0044368305,0.016161293,0.027091164,0.029534578,0.0974816,-0.0053823018,0.027129253,-0.0413365,0.033929184,0.0736609,-0.040593415,0.0076295272,0.063380815,-0.011072785,-0.020929897,-0.0634876,-0.041214228,0.044209626,0.06252777,0.057217207,-0.005176316,0.06035578,-0.01968487,0.028380916,0.0061144037,-0.024642177,0.017971395,-0.015935287,-0.013614212,0.01996276,-0.015192518,-0.058485337,0.019597076,-0.0015878925,-0.07408553,0.044223435,0.04655885,-0.011837061,0.029181117,0.051799193,-0.06306634,0.071894854,-0.0361415,0.009173706,0.055106502,-0.07388453,-0.010927605,0.035785016,0.06616255,0.028005166,-0.030825313,-0.044056945,0.08423633,-0.07392274,-0.027194662,0.083942376,-0.06484115,0.034029957,0.07130096,-0.013805409,-0.035556737,-0.074930266,0.04737301,0.0004279724,-0.073913634,0.07766722,-0.004692949,-0.030601848,0.017767364,-0.052735083,-0.02711463,-0.011570006,-0.06462516,-0.012961813,0.024455618,-0.035206594,-0.062632725,0.0071115075,0.01909549,-0.0024515432,0.033863086,0.051548608,-0.0049613477,0.055719905,0.03440257,-0.0026176188,0.041359954,0.022348521,-0.01845202,0.021182088,0.00710489,-0.02699154,-0.013169624,-0.0073647597,-0.031074818,0.014194357,-0.020921862,0.04727799,0.05650843,0.025298463,0.008305135,0.019837637,0.010841057,0.021474715,-0.038746,-0.028116202,-0.00690503,-0.0318958,0.06915334,0.06960596,0.01783631,0.08112473,0.0200685,0.020259257,-0.0254113,-0.103814356,0.012346831,-0.013689007,-0.06562332,0.00535474,0.027238756,0.038884558,-0.06907897,0.031880133,0.06371678,-0.036181435,0.0088862665,0.036921326,-0.031025922,-0.051367376,-0.044051897,-0.023924248,-0.08987289,0.02779347,0.04636637,-0.046097238,0.019176163,0.046479337,-0.040239237,0.007744997,-0.03175708,-0.036195416,-0.014773735,-0.0065049715,-0.050431836,-0.023575164,0.06379176,-0.027148897,-0.051838376,-0.01998613,-0.009327015,-0.016324108,0.05323462,-0.007095651,0.011835774,0.06769611,-0.0035113494,-0.01643188,-0.050701074,0.011529643,0.02825828,-0.074717216,0.022937113,0.060091473,-0.023929432,0.037047006,-0.013471074,0.0050483053,0.029121606,-0.0044777314,-0.0267662,-0.045875028,-0.06546985,-0.011375158,-0.04125365,0.010942412,-0.025995713,-0.020408431,-0.032419458,-0.017111382,0.016543949,-0.051014267,-0.044513512,-0.0037831264,-0.034703605,-0.019711696,0.008459644,-0.01318559,0.017777966,0.009360698,-0.01865131,0.05812754,0.033991165,0.025256481,-0.015616522,0.02564609,0.0788851,-0.017621912,0.0365627,0.042918418,-0.02304797,-0.03993983,-0.047528494,0.032710735,0.0012160599,-0.017802637,0.061971154,0.06791212,0.024190823,-0.035446897,-0.013086513,-0.058795717,0.006661142,0.0019232704,-0.060068373,-0.018653799,-0.012300976,-0.06212031,0.013230765,0.023850936,-0.02030984,-0.008469045,0.007434356,0.027135717,0.009836801,0.019170152,0.0649502,0.0066293897,-0.042661116,-0.03678236,-0.033959974,-0.021099964,-0.07549161,0.025580414,0.07174268,-0.04245855,-0.06201731,-0.019885778,-0.053409792,0.00014574078,0.0010616953,0.0117675485,-0.002878025,0.00988219,-0.011655972,-0.021285582,-0.0010571947,-0.013528996,0.042312857,0.035453513,0.010991402,-0.011636978,0.031873297,-0.017767692,-0.06893424,-0.07617005,-0.07941097,0.015379144,0.09711268,0.042828053,-0.015574957,-0.010239874,-0.017377453,0.056981705,0.055494178,-0.017907219,-0.029804118,-0.04668813,-0.030281987,0.020481117,-0.011018733,0.017491844,0.06558889,0.0743367,0.043705907,0.016878737,0.012906058,-0.040595155,-0.015949849,-0.01958525,-0.00042395294,0.02588096,-0.0013194471,-0.013685307,-0.009353731,0.011984209,0.0068175294,0.013926126,-0.06847144,-0.06317004,0.016222725,0.04000476,0.06899596,-0.006128245,0.030856235,0.029233111,-0.0123299565,-0.03959719,-0.017249778,0.027469823,-0.01474014,0.037341706,0.017184988,0.0021065949,-0.023669625,0.021053055,-0.047084253,-0.01292385,-0.017743671,-0.026719024,-0.022246735,0.014243342,0.01267341,0.013270782,0.03359712,0.03330118,-0.011350383,-0.023226246,-0.057512656,-0.03148417,0.063160256,0.033837147,0.036464408,-0.012809726,-0.0060266163,0.06287013,-0.019003542,-0.05605611,-0.031871147,-0.04341133,-0.0072827167,-0.0747146,-0.03222723,-0.019047132,-0.057102457,0.026156565,0.003915576,-0.036247335,0.034343828,0.079708934,0.0042330646,0.01788138,0.030529037,-0.07613066,-0.025727298,0.023035439,0.009940721,0.006439259,0.0031218461,0.04430301,0.002436947,0.04142033,0.07153296,-0.039881356,-0.042439874,-0.024066363,-0.021651281,-0.007922276,-0.06587128,0.012620374,0.024508713,-0.010894619,0.0021266309,-0.004948273,0.002302018,-0.049287066,-0.043339673,-0.0374543,-0.028835686,-0.032203775,-0.04698702,0.019510325,0.06490869,0.05168959,-0.0013886645,-0.039217465,0.025434157,0.012170106,-0.010849222,-0.035974324,0.017438315,0.011424837,-0.01984449,-0.03425697,-0.031021817,-0.04163247,-0.056226213,-0.05204763,0.0055880416,-0.004763308,0.048523113,-0.04280746,-0.0036761195,0.032232925,0.04329852,-0.017888919,0.014338067,-0.02362875,-0.031002004,-0.01931829,-0.03616573,0.0042699804,-0.008008868,-0.048141655,0.016222063,-0.034760624,-0.043887872,0.08644899,0.055267796,0.07713541,0.050557174,-0.012131601,-0.0039045014,0.09801415,0.006011242,-0.04227416,0.04334454,0.02519806,-0.020506697,-0.021961072,0.004521457,0.02465478,-0.07286829,-0.07295281,-0.024035415,0.0144321835,0.0005795462,0.005064322,-0.002029001,-0.00075306924,-0.020683736,0.059308924,0.07755411,0.017504014,-0.01139551,-0.0036297191,0.006073937,-0.093366906,-0.012187315,-0.016223196,-0.05982273,-0.03438853,0.0005610054,0.008383372,0.008342001,0.009435702,-0.007879974,-0.0780642,-0.054995492,-0.021763943,-0.03367806,0.00470399,-0.016017549,-0.023075217,0.033912055,0.0035404223,0.05054953,-0.017877525,-0.026665468,-0.023901267,-0.003957594,-0.027252546,0.013474986,0.0070561757,0.0035232836,-0.011646878,-0.01737016,0.003793245,-0.033762313,-0.0085226735,-0.044781644,-0.025962388,-0.00594291,0.031817958,0.030349327,-0.020935882,-0.008520339,-0.020893151,-0.035242658,-0.031186916,0.0035332823,-0.006459235,-0.0121655585,0.01636793,0.0024622532,-0.047204472,0.007817239,-0.019472683,-0.052292276,0.009129852,-0.029151531,-0.053365316,0.022670815,0.067048736,-0.14449142,-0.03596586,0.1231238,-0.115527205,-0.0009985395,0.15266703,-0.0023907458,-0.031159919,-0.033264276,-0.00270306,-0.030883854,-0.027719123,-0.0052296063,-0.020867754,-0.0014074434,-0.04687955,-0.010040422,-0.032580595,0.01982049,0.055802036,-0.009772415,0.02322074,0.04688854,-0.020538867,-0.010501475,-0.021703409,-0.0009000947,0.030568222,-0.054890323,-0.028385716,0.074377045,-0.04055011,-0.02523741,-0.016863635,-0.010225768,0.0065895114,0.018597253,-0.020709986,-0.009357868,-0.03365986,-0.04747954,-0.025196232,0.0078112963,0.0025681169,-0.0016550196,0.008733527,0.03721743,0.030459385,0.00018937864,-0.004364455,0.009908301,-0.019622182,0.008151681,0.028350763,0.0170933,0.023644349,0.031960074,-0.013482651,0.036331557,0.045083165,0.025991358,0.030292785,-0.035349116,0.043623634,0.060554314,-0.061162665,-0.016279586,-0.008515498,-0.08249944,0.03430127,0.03315577,0.002348184,0.017756034,0.041747276,0.008890754,-0.013013294,0.034304336,0.004226212,0.009461149,0.014963501,-0.018677995,0.06269964,0.07309226,0.005132031,-0.046547577,0.010388314,-0.0060264813,-0.03141036,-0.028006807,0.017164169,0.037760403,-0.008521492,0.01923241,0.05581997,0.049474146,-0.050410345,-0.0063912347,0.019724777,-0.03861309,0.036681518,0.0011199608,-0.009126678,0.063950844,0.0016764952,-0.04058698,0.028790804,-0.03212071,-0.10603404,0.09922583,0.027949968,-0.14087409,0.040277842,-0.04658191,-0.094682425,-0.076823205,-0.08309286,-0.04735115,-0.015844218,-0.006766495,0.078324825,0.014856989,0.056001052,0.046083957,0.053267952,0.049123958,-0.027228132,0.022281568,0.0029906926,0.026202254,-0.02744226,-0.009163361,0.016013648,-0.027234273,-0.0064985505,0.0103430925,0.036963195,-0.008901628,0.0023066385,-0.052131865,-0.0071391654,0.008457228,0.016100017,-0.011712899,-0.026066286,-0.017075464,0.0037942189,0.010597102,0.006270404,-0.0037886468,-0.03816577,-0.01565926,0.0046457318,0.012553585,-0.0050515975,0.001351612,0.021270929,-0.013518972,-0.025776442,-0.045957737,-0.007073577,0.01298735,-0.027664216,0.022280267,-0.005085453,-0.030654464,0.045217767,0.0446068,0.048160195,-0.10075824,-0.023327718,0.042782955,-0.12683918,0.02103825,0.076991685,-0.07669986,0.03221782,0.092477635,0.044066902,-0.030658701,0.05228713,-0.05261806,0.014428145,0.033149365,0.016659081,-0.026624117,0.011524077,-0.013661214,0.018148543,0.052221257,0.015520835,-0.04342626,0.056552235,-0.035997994,-0.03453469,-0.0091888625,-0.05911247,0.021878067,0.005322487,-0.013049485,0.048453655,0.018687844,0.01877939,-0.0041440064,-0.02299574,0.010834733,0.0018597413,0.026762739,-0.0067402036,-0.00013297756,-0.018232089,0.018313047,0.073886216,0.007712444,0.042316087,0.04936212,0.06286522,0.0069757956,-0.007984099,-0.031485528,-0.015423975,-0.017251177,-0.06846286,-0.033249933,0.005625154,-0.030572895,-0.0055100685,-0.021154243,-0.037674986,0.032080047,-0.06272268,0.003108399,-0.031186735,0.03713644,0.055216644,0.025602886,0.052484438,0.037447277,0.035392813,-0.0040157777,-0.013823138,0.0114789205,0.027403673,-0.036180347,0.057516836,0.003296673,-0.021755412,0.032677703,0.012413234,0.034670226,0.048936106,0.028040802,0.0015980102,0.0007659326,-0.031852674,-0.015317732,-0.020952722,-0.086699896,-0.04457274,-0.006749336,-0.018721245,0.007150879,0.0002773796,-0.015357035,-2.5154326e-05,0.008118717,0.0013938391,0.026317874,-0.03065794,0.0023350504,-0.021934686,0.003920124,-0.022247607,0.01858688,-0.021574203,-0.021901919,0.005065181,0.016582116,0.00566052,0.004974838,-0.023303464,0.020003367,0.025179442,0.013716837,-0.0014574267,-0.016544621,-0.07807127,-0.03288934,0.001523513,-0.022016397,0.0018880179,0.022159997,0.051229164,0.03626238,0.064573415,-0.020280395,-0.019966383,-0.02300956,-0.025390811,-0.004977025,0.020489002,0.008479705,0.022834502,0.013449617,-0.011999767,-0.0012320104,0.06149695,-0.025918255,-0.023387732,-0.005162158,0.023014894,0.027259566,0.02626348,-1.669523e-05,-0.00016996921,-0.05621026,-0.01038209,0.06897997,0.038653567,-0.026639547,0.037478253,0.01933978,-0.020368092,-0.0018911347,-0.013259878,-0.020232804,-0.00017598037,-0.029406747,0.012146801,0.0234261,0.005415608,-0.027999135,-0.017234994,0.021841172,-0.0040228283,-0.03476996,0.031528722,0.038984343,0.028135356,0.10287536,0.047922328,0.023261,-0.027052855,0.032846894,0.03614151,-0.00414733,0.022535788,0.023389535,-0.026501954,-0.03636756,-0.05912601,0.012477368,0.0643841,-9.407431e-05,-0.030252894,0.015414901,0.018702433,0.03435073,-0.028405795,-0.0136613,0.051201046,-0.002430135,-0.02525281,-0.03966843,0.0273093,0.030747402,-0.018066442,0.10498551,0.022728236,-0.006359637,0.004460338,0.00726342,0.03715355,-0.018918421,-0.035768874,-0.011426184,-0.058226615,-0.03342775,0.025786486,-0.01704022,-0.03131767,0.0057071014,-0.0069019487,-0.050738484,0.012184795,0.014720986,0.025252817,0.044253323,-0.05594758,-0.019811379,0.0018271195,0.03240778,0.0523768,0.008647387,-0.057102945,-0.025739836,-0.032831095,0.0024225898,0.032026928,0.02382943,0.008221472,0.014443485,-0.0001543734,-0.0324691,-0.049724225,-0.06651623,0.09744593,0.023024704,-0.039462835,0.03508997,0.016971212,-0.032992184,-0.001378595,-0.020290934,0.013395856,-0.008614374,-0.011019348,0.02442543,-0.019964619,-0.018429322,0.056341045,0.029007882,-0.041169144,-0.04248487,0.00536743,-0.008176068,0.06890161,-0.05789757,-0.024589503,0.068504475,-0.0011966632,0.0031972192,-0.03671378,0.008930973,-0.041998044,-0.03622959,0.05569753,0.019955168,-0.03204278,