0.12768446,0.2559893,0.0141065335,-0.019096356,0.027357299,-0.11532401,0.034156207,-0.1544832,0.2143031,-2.347848e-39,-2.38813e-39,-3.917588e-39,-2.446534e-39,-3.713133e-39,1.242352e-39,3.96461e-40,-2.786293e-39,3.273851e-39,-0.13751201,-0.13414334,-0.08428845,-0.073118195,0.012200175,0.030099725,-0.13223168,0.08980569,0.0060669505,-0.15867376,-0.076848894,-0.08477895,-0.17827699,-0.18710513,-0.17889376,-0.08627163,-0.03566979,-0.033514164,-0.008299133,-0.01998939,-0.14068857,-0.18873534,-0.15013097,-0.045248125,-0.01343831,-0.025993833,0.11797819,1.910959e-39,-6.79453e-40,9.74148e-40,2.024225e-39,-9.91606e-40,2.79925e-40,-3.17179e-39,1.734646e-39,-2.254595e-39,-0.11661386,-0.010677496,-0.08081667,-0.050621282,0.040377814,0.03964362,0.08293701,0.058305405,0.11556886,0.05522249,0.016304407,0.0038987403,-0.026119638,-0.019137872,-0.11220036,0.15304467,-0.01639358,-0.2891719,0.20083375,-0.035296984,-0.021753335,0.021228261,0.07010546,0.028490469,-0.025617354,-0.052188538,-0.052618705,-1.192163e-39,1.881798e-39,-3.640886e-39,2.308667e-39,-3.424021e-39,5.70771e-40,-2.829453e-39,1.118488e-39,-1.845524e-39,0.07879331,-0.09258325,0.008673159,0.114154845,0.04847853,-0.2307034,0.021397926,-0.037565973,-0.051009033,-0.18140973,-0.06981292,-0.15243287,-0.1277957,-0.06285854,0.100810744,0.25510618,-0.054407995,0.0048753195,-0.19196141,0.0017431049,-0.10052867,-0.15420744,-0.08432705,0.0694247,0.1484428,-0.09715499,0.022902004,0.062465265,0.11236464,0.04260469,-0.018123485,0.03825389,0.03952051,0.03563142,-0.0075241993,0.028742826,0.04237757,0.017582893,0.047420863,-0.14098027,-0.15454067,-0.1446612,0.0070487717,0.22242533,0.08510834,-1.05083e-40,1.133998e-39,-1.756015e-39,-3.34349e-39,-2.166067e-39,1.443721e-39,-2.96913e-40,4.208998e-39,-3.808415e-39,0.03283635,0.012405088,-0.083055496,0.053769458,0.13531889,0.12949924,-0.097383134,0.04868922,0.15716971,2.132412e-39,9.4285e-41,2.3151e-41,1.98163e-39,9.94514e-40,-9.7989e-40,1.399066e-39,-1.99595e-39,2.84377e-40,-0.031184943,-0.06859748,-0.058198895,-0.11871377,-0.19898224,-0.08134174,0.010891274,0.0017063908,0.037867483,-0.1434377,-0.0716353,0.06482288,-0.16408657,-0.13940479,-0.07079201,0.077748105,0.050944105,-0.0016594691,0.22569044,0.12492125,-0.055130832,0.075237766,0.052840095,-0.05187337,0.019246757,0.0025698692,-0.03625693,1.756036e-39,-7.39007e-40,3.2572e-41,6.63027e-40,-1.18436e-40,2.576793e-39,-9.28575e-40,1.61808e-39,1.540739e-39,0.033909913,0.0071500354,0.07908133,0.0014539106,0.008134402,-0.055323936,-0.093363866,-0.09234256,-0.046157394,-0.06298189,-0.09451036,-0.09769995,-0.06943856,-0.19919126,-0.24872671,0.034231704,-0.13816021,-0.28651908,0.03161622,0.0570571,0.13386008,-0.02485112,0.07885543,0.22082543,-0.09182664,0.023693323,0.12388768,8.78386e-40,-3.025139e-39,2.66324e-40,2.26533e-40,-9.45343e-40,1.279408e-39,4.50461e-40,7.85299e-40,-1.153005e-39,0.09623046,0.27177382,0.19314103,0.07809921,0.48885956,0.41606644,0.073450975,0.36718124,0.31611598,0.06930415,0.3006336,0.23942275,0.16535608,0.49380288,0.6092981,0.26156923,0.25230384,0.18758576,-0.06981922,-0.05626293,0.009864396,-0.07078256,0.02812256,0.08408133,-0.051006924,-0.017334372,0.0488663,0.11220313,0.095447466,0.08257514,0.22226405,0.16575454,0.14134131,0.18315578,0.1416791,0.06441474,-0.11120803,0.07601709,0.18341081,-0.18654326,-0.08917422,0.03482942,0.021310924,0.13092291,0.094918035,4.6231e-40,1.386337e-39,9.76349e-40,2.09301e-39,3.347981e-39,1.357585e-39,1.63702e-40,2.551043e-39,-2.286042e-39,-0.20854452,-0.29592323,-0.04246463,-0.22542568,-0.6671411,-0.5181135,-0.35485125,-0.5940776,-0.48998493,-2.470883e-39,-2.965171e-39,3.296399e-39,2.743992e-39,7.8507e-40,-8.25802e-40,5.78977e-40,-4.6562e-41,-8.16035e-40,0.20705639,0.25254714,0.092024915,-0.0019553995,-0.22983508,-0.15563169,-0.116630346,-0.11385619,-0.0077414266,0.02367204,-0.017331699,-0.06941183,0.05824165,0.11533303,-0.05731485,-0.06050258,0.104002416,-0.122736,0.080383494,0.1789488,0.09498311,-0.028340595,0.15440275,0.1667039,0.049406853,0.27459672,0.27210695,2.257582e-39,-3.389185e-39,-1.11252e-39,-5.17752e-40,4.227356e-39,5.85695e-40,-1.451926e-39,-1.67122e-39,3.328793e-39,-0.14037909,-0.0425223,-0.07573772,-0.047170416,0.06003413,0.22053933,0.031615306,0.1018345,0.06318382,0.15341379,-0.065860085,-0.1940951,0.12650701,-0.31806427,-0.099694744,-0.038256668,-0.25673756,-0.01270209,-0.012774845,-0.0048998836,0.056010786,0.09767908,0.13239464,0.17978708,0.0032563626,0.026915437,0.10722609,-2.959541e-39,-1.30125e-39,-2.578452e-39,-2.000718e-39,3.200263e-39,-2.011102e-39,-5.4345e-41,9.63618e-40,4.189728e-39,0.07944933,0.057967953,0.11057854,-0.041379265,0.12764016,0.33778104,0.04290533,-0.017570315,-0.015109125,-0.1286234,-0.1094688,0.01905203,0.11995963,0.50861377,0.22520564,0.061068237,0.3078705,0.14806917,-0.15296924,-0.026885338,-0.17867778,-0.060908176,-0.029664073,-0.10108244,-0.0904229,-0.11087496,-0.11793572,-0.09847236,-0.14299238,-0.16648617,0.061158236,0.090768464,-0.021512358,0.21687405,0.2197288,0.024697814,-0.43427384,-0.47390568,-0.3205003,-0.34106648,-0.5021861,-0.54319215,-0.16693936,-0.35998502,-0.32804838,-2.845687e-39,-2.453954e-39,2.23353e-40,2.601055e-39,-1.333186e-39,1.095203e-39,-2.14528e-40,3.390296e-39,1.332797e-39,0.05910805,0.064711675,-0.011975569,-0.102156274,-0.08764253,-0.007826351,-0.03193351,0.059019882,0.017863935,9.55747e-40,2.683439e-39,-2.19243e-39,1.531452e-39,1.689766e-39,-4.58013e-40,-7.39652e-40,9.6192e-41,1.037017e-39,-0.14242178,-0.20146684,-0.07046248,-0.10212594,-0.22921254,-0.11777234,-0.078547806,-0.15408674,-0.073401615,0.017266914,0.10557259,0.062206298,0.062362462,0.131326,0.036275137,0.12722161,0.17935191,0.12291233,0.02997917,0.023826994,0.033444107,0.07068578,0.06438336,0.05911546,0.007135113,0.053475957,0.09045724,-2.671784e-39,1.040513e-39,7.24247e-40,9.83431e-40,-4.43212e-40,2.142201e-39,1.959528e-39,-3.24464e-40,1.394539e-39,0.09512036,0.07531678,0.07556738,0.12730026,0.055290934,0.06617671,-0.0030589132,-0.060347885,-0.07588786,0.014164107,0.006350955,-0.00036700035,-0.09208745,-0.09248253,-0.13277656,-0.08403091,-0.11345176,-0.1648017,0.012770734,0.12821144,0.02530055,-0.0074265227,0.08216704,0.036725413,0.04012835,0.09983245,0.028961074,-2.547506e-39,-5.96302e-40,-8.11835e-40,-2.42247e-40,-1.363121e-39,9.1828e-40,-9.63454e-40,-4.23795e-40,1.490075e-39,0.00985475,0.057755735,0.009525862,-0.00997204,0.036122948,0.010334742,0.033233583,0.013247402,-0.0027795727,-0.008535996,0.010576637,0.10545052,-0.060861498,-0.027443657,0.008000608,-0.08338614,-0.096577235,-0.015392013,0.14296207,0.08485087,0.10072654,0.027166508,0.024478372,0.09294788,-0.07983608,0.0056537865,-0.02085877,0.12473668,0.11633051,0.09178634,0.08476345,0.11122417,0.112195715,0.012043361,0.029224355,0.05302553,0.016770313,0.081189275,0.17268452,0.012792517,0.15917699,0.10776061,-0.045716044,0.03594743,0.07320637,7.92507e-40,9.61376e-40,-8.72227e-40,1.53221e-39,-1.441652e-39,-8.19554e-40,-1.987886e-39,-1.569561e-39,-2.2989e-40,0.030885343,0.06096584,-0.008637377,0.07629223,0.09461975,0.060535286,0.049200542,0.079945885,0.09325053,1.441902e-39,1.38321e-39,1.788428e-39,-1.805178e-39,-1.277637e-39,-1.602772e-39,-6.3877e-40,-3.97303e-40,-1.516464e-39,0.009901767,0.038404565,-0.024894184,-0.0657508,-0.04394412,-0.0466936,-0.016702356,-0.024363544,-0.029874593,0.01162294,-0.04871536,-0.00287743,0.064628705,-0.03804883,-0.042444915,0.03177983,0.024782732,-0.022587309,-0.03338265,-0.08048664,-0.11185685,-0.10568631,-0.21107507,-0.20647591,-0.04073874,-0.11036553,-0.12906797,1.563318e-39,1.626354e-39,-1.21678e-40,-1.66407e-39,-1.610972e-39,-1.097737e-39,5.227e-41,-5.51121e-40,8.69733e-40,-0.22090773,-0.2783969,-0.10806665,-0.32303354,-0.49926865,-0.40238774,-0.28677636,-0.445121,-0.22612219,-0.048583906,-0.046145335,-0.059489883,-0.0639601,-0.0767081,-0.111377545,-0.1193253,-0.060216032,-0.08906813,-0.024931356,-0.061528582,0.044517912,0.09662044,-0.00092582864,0.05536551,0.10343947,0.014717909,0.024369469,-1.3368e-39,-1.9678e-39,-2.68895e-40,-1.852133e-39,6.15047e-40,1.552897e-39,-8.69923e-40,-9.4861e-41,1.335e-40,-0.02710041,-0.041805826,-0.116897844,-0.04751392,-0.1427063,-0.1985329,-0.08335414,-0.16129231,-0.0436417,0.06101139,-0.009159707,-0.09590428,0.0058349324,-0.10402188,-0.07600041,0.0455727,-0.050134964,-0.07275932,-0.17433003,-0.32776034,-0.15178697,-0.2851023,-0.39823812,-0.348868,-0.1785987,-0.30247,-0.19756919,-0.09974357,-0.13801068,-0.08138953,-0.10616259,-0.13106035,-0.10351504,0.009654967,-0.07152709,-0.05457829,-0.024719287,0.026242903,-0.09496477,0.0073672053,-0.051963944,-0.021972528,-0.011145806,-0.02298524,0.014029584,-1.808364e-39,9.84268e-40,-1.221052e-39,2.535282e-39,-4.3086e-40,2.67728e-40,7.73347e-40,2.602175e-39,-2.54503e-39,0.0013943482,-0.00013214101,-0.0012072731,0.00024121848,-2.7086991e-05,0.0006986326,-0.00032961613,-8.190357e-06,-0.0012600446,-4.4448e-41,1.98654e-40,2.4635e-41,-1.36058e-40,4.7821e-41,-2.56901e-40,1.69023e-40,-3.7287e-41,9.3164e-41,0.0006736742,0.00030517828,0.0017281218,-0.00054540555,6.563129e-06,-0.0011793693,7.940348e-05,-0.0011654927,0.0005630562,0.0009809599,-9.045064e-05,0.0012822751,-0.00077278336,-0.001774175,-0.00014459185,0.0001176648,-0.0014130343,0.0006930267,-0.00029653418,-0.00050708896,-0.00048230425,-0.00023156214,-5.715469e-05,0.00015863721,-0.0003044075,0.00012211771,0.00010703742,6.2487e-41,8.5967e-41,3.2395e-41,-1.17747e-40,-9.6982e-41,6.8285e-41,-4.378e-42,-2.25298e-40,-1.41856e-40,-0.00020222094,-0.001979527,-0.00060363306,0.0004964393,-0.0008432178,-0.00014615602,0.0011418534,-0.0003473411,0.0006450683,-0.0006269901,-0.0013539627,-0.0002553249,-0.0014655822,-0.00071347016,-0.00025227835,-0.0013140512,-0.00090266694,-0.00048415837,0.0015435856,0.0011574595,0.00088054955,-0.0001004116,-0.0004315351,0.0001443186,-7.638645e-05,0.00055700383,0.0003176049,-9.246e-41,2.1799e-41,1.90295e-40,2.6092e-41,3.4045e-41,1.2362e-40,1.39e-41,4.3646e-41,-9.7008e-41,0.00034812454,0.00014945085,-0.00036761322,0.0009269047,0.0012251463,-0.0001293788,0.0005149073,0.00056718255,-0.00083868724,0.00024337732,-0.00054431264,0.000389909,0.00044593096,0.00018316403,0.0016531784,0.00020574378,-0.00013973242,0.00056160445,-0.0021042696,-0.00065552286,-0.00092352886,-0.0014904273,-0.00015849776,0.00024152361,-0.00089166686,3.4835368e-05,0.00012041386,-6.091129e-05,0.0005132058,6.471867e-05,5.8578615e-05,0.0006078031,0.0002473234,0.0004843812,0.0010893896,0.00050542306,0.0013454868,0.0019629672,0.0027255483,-0.0021346211,-0.002121917,-0.0027028483,-0.0011768419,-0.0010262885,-0.0002242945,-3.15334e-40,-1.28147e-40,2.5911e-40,-3.425e-41,-3.01508e-40,2.47796e-40,2.53067e-40,-1.65031e-40,6.1228e-41,-0.014070567,0.0716531,0.082483746,-0.009662486,0.030031996,0.06837139,0.0030355903,-0.018608833,-0.012176752,6.67252e-40,-4.7514e-41,-1.015496e-39,1.59601e-40,7.1255e-41,2.78927e-40,-1.2757e-41,-6.46895e-40,-1.081999e-39,-0.0084143495,-0.035984814,-0.02727377,-0.050294954,-0.051995136,-0.009845528,-0.017773472,-0.010448609,-0.008413681,-0.006239822,0.018598378,-0.0029079015,0.02122107,0.027994622,0.031652205,-0.0049464535,0.00949775,-0.009284826,-0.038080864,-0.046252165,0.0115704,-0.046901867,-0.06028592,-0.021509243,-0.04611375,-0.07126662,-0.045253158,1.645426e-39,3.1687e-40,-1.618e-42,1.16844e-39,-1.4336e-40,1.013477e-39,-1.01139e-39,5.51739e-40,1.146425e-39,-0.014442873,-0.008353676,-0.00738655,-0.080275916,-0.07233239,-0.05460793,-0.029439254,-0.013122978,-0.037353393,0.007138401,0.0002748529,-1.2775839e-05,0.0603295,0.037628166,0.03611697,0.078813516,0.05104858,0.060119066,0.04750906,0.049566545,0.024645854,0.043095317,0.0679425,0.07672311,0.0049316688,0.011780578,0.03301573,6.7446e-40,5.5036e-40,4.8207e-40,-9.59028e-40,5.3874e-41,-7.06397e-40,4.77478e-40,-8.14821e-40,-8.6741e-40,-0.0047138585,0.004310558,-0.020237632,0.01274995,-0.025457319,-0.01619643,-0.03693985,-0.038600326,-0.042526517,0.015040389,0.015677152,0.064209215,-0.040726457,-0.020643296,0.039388716,-0.022873167,-0.056792688,0.007401741,-0.03016412,0.015302288,0.013933315,-0.024323978,-0.057612315,-0.06499033,-0.0247639,-0.0565067,-0.04430874,0.056363385,0.040601734,0.05112991,0.012105423,-0.007447307,0.0039042318,-0.034166716,-0.05064737,-0.04947676,0.019293921,0.035340242,0.0067602,0.032960728,0.059448153,0.051706225,-0.0362374,0.024805006,0.075532496,6.71378e-40,4.5993e-41,-5.22637e-40,9.20177e-40,8.758e-40,-1.393922e-39,1.132881e-39,-9.8473e-40,-1.10522e-40,-0.086056255,0.052553248,-0.019552296,0.11907371,-0.023994898,0.09062953,-0.059765756,0.044323742,0.2027214,-2.42357e-40,-3.81638e-40,-1.591118e-39,-1.37369e-39,-2.672858e-39,-8.80541e-40,-1.234835e-39,2.210066e-39,9.16969e-40,-0.096157864,-0.040721647,0.13448413,-0.09901674,0.028427316,0.095567696,0.10724841,-0.019682262,-0.02526689,-0.051317837,-0.21950124,0.013886061,-0.05137754,-0.23856115,-0.008738256,-0.070817,-0.25110573,-0.019711224,-0.058966648,0.0888971,0.10622754,-0.15840325,0.027453596,0.06718041,-0.024841867,0.0562432,0.04624198,4.6049e-40,1.015455e-39,-3.3941e-41,-7.0488e-41,7.45934e-40,-1.6706e-40,-1.03557e-39,-2.257942e-39,5.2901e-40,-0.12275196,-0.013755964,0.15650405,-0.235261,-0.017154686,0.010774586,-0.112366565,-0.07995743,-0.041500222,-0.006167579,-0.092417605,-0.06833305,-0.045372646,-0.084448464,0.014293651,-0.091009624,-0.048061624,0.10168072,0.020744706,-0.014997863,-0.078513555,-0.011425596,-0.006296802,0.010676123,-0.0638391,-0.0010239698,0.0065948954,-2.433494e-39,6.4053e-41,-6.26554e-40,-1.345884e-39,-3.82071e-40,2.30718e-39,-4.84855e-40,-1.277235e-39,-1.797475e-39,-0.049932502,0.08557424,0.109964475,0.026816567,0.071355514,0.08401091,0.17189063,0.05180404,0.12541437,0.08570061,-0.026539406,-0.07367683,0.09260427,0.044424865,0.031370252,0.024539422,-0.046426687,0.042709786,-0.03285391,-0.13224448,0.032040436,0.06570773,-0.2379451,0.022636844,0.004733071,-0.04882626,-0.15727414,-0.07496708,-0.038105175,-0.03885598,-0.039693616,-0.0025344265,-0.049216207,0.051571738,0.06820716,-0.017148077,0.041616786,-0.09350002,-0.12319872,-0.07887596,0.012067148,0.048835058,-0.05419196,0.018767666,-0.060834736,1.089526e-39,-8.7194e-41,-1.561915e-39,1.897427e-39,2.212477e-39,2.62138e-39,-2.018349e-39,1.810189e-39,-1.20074e-40,-0.07565273,-0.10905982,0.12849304,0.14095978,0.22195129,0.15991688,0.014655626,0.17935848,0.13521059,9.74e-43,8.22716e-40,2.035539e-39,1.15424e-40,-2.0377e-39,-1.86206e-40,-7.06556e-40,3.17517e-40,4.35162e-40,0.116752654,0.1835984,0.05959998,0.14355585,0.100551106,-0.050089095,0.0540516,-0.01736083,-0.01620672,0.090659775,0.028767433,0.085521765,0.024832036,-0.04974846,0.04325565,-0.07427273,-0.11321367,0.017346164,0.034666337,0.043589048,0.06332388,-0.030570006,-0.037406065,-0.031403936,0.01862862,-0.0009035814,0.014426078,1.30336e-40,2.0994e-41,1.230434e-39,-4.87671e-40,-5.3335e-41,1.43126e-39,1.433952e-39,4.14402e-40,-7.35757e-40,-0.034277003,-0.03879575,-0.21707548,0.009489101,-0.05217212,-0.01427021,0.030413782,-0.017721752,0.057036027,-0.02123591,-0.006037759,-0.046583395,-0.08498095,-0.015856719,-0.055045668,-0.037464697,-0.015233676,-0.05608388,0.2221991,0.2270476,0.10941049,0.047776055,0.025159368,-0.0002793007,0.037250355,0.0010612812,-0.010307012,-1.167844e-39,-5.786e-41,-1.277183e-39,-8.56039e-40,1.384012e-39,4.5533e-40,2.71489e-40,-4.7182e-40,8.82919e-40,-0.063301906,0.03319019,0.03151883,-0.10550412,-0.12991077,0.0770417,0.024968265,0.064554445,0.015308391,-0.018633394,-0.10043096,0.004773614,0.031275127,0.06095598,0.08248315,0.031753477,0.1168871,0.15641598,-0.102049746,-0.092390686,-0.10936592,0.015120857,0.05005014,-0.038945556,0.06429454,0.048716728,0.024225207,0.014007406,0.060985908,0.10228586,0.02612753,0.03075542,0.0360298,0.04869725,0.06563641,0.042225394,0.03374951,0.07738472,0.04782762,0.026627956,0.16400456,0.1205812,-0.042429157,-0.030890709,0.003780736,4.08135e-40,1.478467e-39,-1.471505e-39,-7.59926e-40,-9.05645e-40,-4.29585e-40,7.92612e-40,1.121957e-39,6.06715e-40,0.25024706,0.51053166,0.17114978,0.114382066,-0.28222242,0.14134446,0.09648066,0.21271783,0.0035939405,1.251323e-39,7.63362e-40,2.33728e-40,8.52942e-40,2.934441e-39,4.494955e-39,2.14964e-39,-1.110235e-39,3.397803e-39,-0.35203138,-0.25325486,0.041179255,-0.083562225,-0.40466198,-0.41066897,0.0058523295,-0.7221835,-0.62030286,0.009374562,-0.014730914,0.15822007,0.0032482727,-0.061454456,0.10403107,-0.04843825,-0.1651863,-0.10878615,-0.11656142,0.009606602,-0.13242887,-0.110984474,-0.10971853,-0.13698865,-0.008363084,-0.015899943,-0.06919442,1.968097e-39,2.288674e-39,4.356637e-39,2.190968e-39,3.206849e-39,-6.28508e-40,-3.291588e-39,-2.780444e-39,1.16637e-40,-0.18086022,-0.10670155,-0.1787773,-0.026379863,-0.0482148,-0.18465109,0.17874235,0.1828847,0.101042256,-0.08568522,-0.049569212,0.1761661,-0.31520107,-0.2975251,-0.010030541,-0.24410713,-0.19665903,-0.20524512,-0.07836786,-0.15241532,-0.015749067,0.0029778865,0.00850358,0.035605043,-0.18032362,-0.2768042,-0.12774281,1.184896e-39,-1.071287e-39,-2.378745e-39,2.111694e-39,2.77822e-39,-6.96646e-40,3.283928e-39,-2.700662e-39,-7.25165e-40,0.010830546,0.12536022,0.08487014,-0.05661631,0.059349436,0.39495885,-0.016319329,-0.13974911,0.07085218,0.0058405385,-0.09345055,0.0948768,-0.079293855,-0.14040847,-0.09217554,-0.1796006,-0.0075702164,0.15694693,-0.0010732877,0.00821638,-0.07254517,-0.11260342,-0.17659995,-0.009302007,-0.023410643,0.015611827,-0.106697574,-0.12007005,-0.16649163,-0.109485276,-0.16460814,-0.228212,-0.19549112,-0.061645176,-0.14971972,-0.13059428,0.035287138,-0.23840016,0.17408068,0.16894081,0.022302853,0.2327352,0.19916879,-0.46474144,-0.057964776,-1.41965e-39,4.2011e-40,1.646269e-39,2.759422e-39,-1.939782e-39,7.77429e-40,1.652442e-39,7.03841e-40,2.52657e-40,-0.00035767094,-0.00012156307,-0.0021159863,-0.0019428746,-0.0007765477,0.001969767,0.0008023812,-0.0016893903,-0.0016089631,-1.76423e-40,-2.13677e-40,-2.83392e-40,-1.8677e-40,3.8432e-41,-4.8609e-40,-1.70024e-40,5.7684e-41,1.61278e-40,-0.0019478285,0.00036231556,0.001039328,0.00053904264,0.0013512677,-0.0039624036,0.0002519394,-0.0023519474,-0.00043407132,0.0031405876,0.001292107,0.0006198502,0.002766239,0.00033019995,-0.00016589294,0.0036156124,0.002192822,0.0025619734,-0.0013565823,0.0013475867,-0.00084017206,-0.0011290343,0.00029143534,0.00042487934,-0.00043427775,0.00030467304,0.0014864152,-3.89666e-40,-1.58527e-40,-3.8165e-40,9.8839e-41,3.62e-40,-3.74256e-40,-1.44067e-40,-3.18246e-40,-1.18003e-40,0.0020253733,-0.0025548695,-0.001631806,0.001350589,-0.0026984033,-0.0012379616,0.0019556491,-0.0024473576,0.00040970647,0.0013312097,-0.00094171666,-0.0007861101,0.0016801342,0.0004397296,0.00035967035,0.0019399682,0.0006899713,0.0019003076,7.9933336e-05,0.0023991351,0.0023402045,-0.0014565607,0.00038481856,0.00035960818,-0.00065069896,0.0008204764,0.002129303,-2.40054e-40,6.3554e-41,1.93495e-40,5.9234e-41,2.28346e-40,1.19192e-40,-9.8315e-41,8.5727e-41,1.17563e-40,0.0014847114,0.0013998381,0.00042735098,0.0020424009,-0.00037057252,-0.0005400898,-4.160384e-05,-0.00065356144,0.00017257755,0.0018591612,0.0017976696,0.0014793396,0.0005694568,-0.0015572117,-0.00048762118,-0.0005294739,0.000423413,-0.00082326564,0.0015107184,0.00040517477,0.0008719819,-0.000112993774,0.0009969247,0.0017660642,-0.0010331229,0.0021643133,0.0013563156,-0.00074789283,-0.0005001367,-0.00064569974,0.00016414443,7.361472e-05,0.0004055404,-0.00011974874,0.00040017295,0.00034704155,0.00069147703,0.0017368811,0.0010968406,-0.0027185231,-0.0034403743,-0.004633795,-0.001962099,-0.0002683247,0.0017505276,-2.83944e-40,3.3526e-41,7.3656e-41,3.71815e-40,1.00023e-40,-1.20345e-40,4.06786e-40,-2.39857e-40,4.52664e-40,-0.01919338,-0.046335332,-0.0293991,-0.0119443815,0.008726811,-0.009750196,0.03759227,-0.035863273,-0.022504868,-5.2889e-41,-8.116e-41,1.35482e-39,-1.0263e-40,3.8041e-41,1.083829e-39,-9.4612e-40,-5.11234e-40,-9.7738e-41,0.020798698,0.011376222,0.045135695,0.020572454,0.056159288,0.06037299,-0.010730595,0.0026327863,-0.0018727705,-0.04775209,-0.0692405,-0.04735231,-0.03805492,-0.05832299,-0.028506083,0.016607922,0.0040545794,0.028401077,-0.0033572863,0.012575138,0.028452246,0.012906727,0.028308647,0.030274326,0.03275425,0.032313365,0.032988474,-1.05516e-39,-1.457734e-39,-7.1654e-41,-8.99502e-40,-1.28477e-39,-3.62093e-40,-1.42601e-39,4.27344e-40,6.75448e-40,-0.050071288,-0.0267237,-0.009212635,-0.02783408,-0.006917412,0.024518644,0.027271388,0.010406097,0.061311796,-0.03749943,0.02461655,0.043484107,-0.0149417315,0.02438528,0.059547875,-0.0023884862,0.009348719,0.010420658,0.052949257,0.050354064,0.043625563,0.09414069,0.09286702,0.062697046,0.096307635,0.07316625,0.08633187,1.531984e-39,8.02255e-40,9.40083e-40,4.26796e-40,-5.88744e-40,-5.39962e-40,-9.1884e-40,-1.007475e-39,1.495206e-39,0.0025248756,0.0102226455,0.0030537331,-0.021508886,-0.020781487,-0.0138103375,-0.045782138,-0.041136466,0.0005202868,0.026549947,-0.0032787125,-0.032515634,0.002708345,0.03005616,-0.0027033405,-0.009035486,-0.019517895,0.00023022071,-0.038312994,-0.062610656,-0.071695305,-0.01663889,-0.016991677,-0.049445387,-0.020741148,-0.018399179,-0.02539841,-0.038366243,-0.028002677,-0.032373033,0.012872891,0.006948481,0.006154999,0.024166692,0.03705609,0.018757692,-0.010853272,0.0033686515,0.016013036,0.012942529,0.031467605,0.016663132,0.020415448,0.023199713,0.07175972,-1.621349e-39,-1.138313e-39,-5.9337e-41,1.266524e-39,-2.43261e-40,-1.399616e-39,1.462661e-39,8.54666e-40,-5.72472e-40,0.045065664,0.0065575074,-0.00667777,0.020458661,0.003290693,0.06385168,0.047654066,0.050457697,0.018079495,-1.921687e-39,3.855e-42,-1.37292e-40,-5.00639e-40,-9.78971e-40,-1.156224e-39,-6.09266e-40,-1.905853e-39,-4.40619e-40,0.0417292,0.12272332,0.063824944,0.15046206,0.23040284,0.044941366,0.103226736,0.12611094,0.038461182,0.07134008,-0.0217809,-0.08659794,-0.021593574,-0.09964724,-0.110605665,-0.02937052,-0.08462979,-0.09715559,-0.0023622385,0.03779148,-0.036836423,0.063001186,0.10695782,0.04604857,0.087467134,0.118059546,0.09184018,4.23294e-40,1.280365e-39,-3.22722e-40,-1.965004e-39,-2.03278e-39,-4.71381e-40,3.34547e-40,-7.84894e-40,1.580717e-39,-0.021851847,0.03210654,0.0009530109,-0.028553983,0.09134612,-0.02142233,-0.061118893,-0.0056777894,-0.053324778,0.043991767,0.027304972,0.056946773,-0.037361987,-0.036632586,0.05020875,-0.08564441,-0.11182307,-0.021640934,0.020289592,0.033559766,0.049736343,0.0036935075,0.006153628,-0.018161187,-0.020169543,-0.07464849,-0.08907053,4.52936e-40,1.269216e-39,-4.09539e-40,2.151011e-39,-4.67274e-40,7.14872e-40,9.31601e-40,-2.70954e-40,1.747142e-39,0.062590964,0.046455987,0.032496728,-0.004792159,-0.032191932,0.022762256,-0.061116852,-0.083037846,0.010402102,0.045779265,0.01472021,-0.044869274,0.043612313,-0.023234494,-0.113851726,-0.016875185,-0.0053417655,-0.04069941,-0.09547388,-0.060697675,-0.0032413309,-0.08501963,-0.0746978,-0.050580963,-0.049762327,-0.08455801,-0.025812889,-0.015473579,-0.033709846,-0.045988385,0.03469196,0.052037876,0.03173871,0.07043095,0.097124286,0.091759436,-0.036989965,-0.048786532,-0.050041437,-0.10783132,-0.1625615,-0.19392812,-0.097928315,-0.1344955,-0.12976521,8.72356e-40,1.672964e-39,7.43879e-40,-1.070679e-39,1.155323e-39,-7.5736e-40,1.615413e-39,1.199149e-39,5.93006e-40,-0.026578248,-0.35864982,-0.059807833,-0.34677908,0.1112589,0.017127462,-0.14997649,-0.30768082,0.21107921,-2.43626e-39,-2.616883e-39,-2.997143e-39,9.54721e-40,3.124133e-39,-3.210037e-39,-4.337644e-39,3.889964e-39,2.541581e-39,-0.11912999,0.2721893,-0.058774028,-0.16976155,-0.23190744,0.5000471,-0.20131156,0.08828018,0.28443757,-0.24538937,-0.40026402,-0.137399,-0.12217679,-0.19581766,-0.134029,0.01571293,-0.04303981,-0.14141172,0.3381846,0.13635585,-0.17972459,0.24542324,-0.010414254,-0.1287113,0.17538372,-0.059385475,-0.0983497,-5.077057e-39,-5.374e-40,2.241069e-39,1.343715e-39,1.42586e-40,-3.395234e-39,3.192134e-39,2.407868e-39,1.298248e-39,0.15349843,-0.54393345,0.11467519,0.12517469,-0.37870714,0.28876576,-0.04595146,-0.054284446,-0.09027907,0.1933288,0.28840506,0.06638872,0.056475375,0.5735483,0.18801096,-0.23067707,-0.01794839,0.25841966,-0.19590746,-0.06566966,-0.040874057,-0.13696861,-0.38239017,-0.13376874,-0.21933512,-0.5297844,-0.3796722,3.813265e-39,4.03493e-40,1.622153e-39,1.77448e-39,2.8916e-41,-2.438086e-39,4.502839e-39,2.777141e-39,1.518042e-39,-0.14312758,-0.015142096,0.2627228,-0.1840123,0.11369497,-0.12581128,0.038497515,0.3343891,0.0021579072,-0.035771057,0.09453725,0.17819032,-0.19402753,0.060855553,0.10700935,0.0570872,0.15779199,-0.11246865,-0.17329855,0.29630575,-0.050963,-0.46444973,-0.054627016,-0.38399488,-0.16641188,-0.26920736,-0.22672234,0.10085715,-0.11926784,-0.14415115,0.08717488,0.041772444,0.13398944,-0.0008976692,0.03196854,0.13135062,-0.13371132,0.09766551,0.49639577,-0.17996211,0.24077925,0.12633462,-0.23514588,0.61355317,0.24093705,3.51261e-39,-3.765615e-39,-2.542346e-39,-3.453451e-39,-2.378746e-39,4.972908e-39,-3.661705e-39,-5.025159e-39,-3.33317e-40,-0.09544914,0.21780905,0.12129586,0.3253454,-0.14101233,0.10122884,0.2703635,0.27538875,-0.012373172,2.540558e-39,-2.462817e-39,-3.591878e-39,-4.62186e-40,5.53788e-40,-1.47104e-39,4.86789e-39,2.633571e-39,-3.748068e-39,0.06774111,0.16127741,0.0070209266,0.15125242,0.33463362,0.08177948,0.123993404,0.2666808,0.15343148,0.045208618,-0.11483074,-0.0016229388,-0.08000713,-0.06801699,0.036314547,-0.15959312,-0.07732378,0.012324597,0.17576207,0.13023026,0.10786112,0.13817546,0.12659332,0.27691576,0.11104851,0.18900153,0.20482354,-1.522493e-39,2.232619e-39,2.011109e-39,1.22839e-40,7.40721e-40,-1.137043e-39,3.146156e-39,1.539307e-39,2.479626e-39,-0.15748951,-0.07140112,0.036667295,-0.07936684,0.06528089,0.044497203,-0.051884986,0.08236839,0.08799652,0.013800056,-0.06476435,-0.09092988,0.12905143,0.10024141,-0.05218116,-0.043118276,0.049915005,-0.008984049,-0.14699572,-0.17324117,-0.20566061,-0.06307671,0.02189669,-0.1740309,-0.049453836,-0.25446603,-0.205808,4.159481e-39,1.664566e-39,-2.378498e-39,-2.459692e-39,3.566862e-39,-2.771621e-39,2.006672e-39,2.224432e-39,1.685957e-39,-0.031273372,0.15091686,-0.0044071944,0.046257664,0.21453436,0.1891767,0.22009064,0.103089355,0.16868895,0.028806254,-0.14435603,0.08144437,0.0033428778,0.21589968,0.0084893005,-0.070727095,0.07623498,0.004740715,-0.031295914,-0.30783018,0.2101493,0.15082239,-0.450409,0.24693793,-0.075495765,-0.19660182,-0.10874454,0.17481984,0.16726226,0.04779088,0.23005365,0.21603355,0.09871763,0.074340135,0.039692827,-0.0966018,0.3027844,0.11880666,0.060382564,0.39154387,0.43211207,0.044951342,0.30051878,0.25688025,-0.12733012,3.806198e-39,2.660858e-39,-1.375311e-39,-3.144114e-39,-3.83591e-40,6.16455e-40,-2.712925e-39,2.766106e-39,2.942088e-39,-1.9631963e-05,-4.565012e-05,-3.2259137e-05,6.908621e-05,2.538715e-05,-8.4533596e-05,-8.339041e-05,2.8925637e-05,4.9336835e-05,-6.332e-42,-3.41681e-40,-1.1576e-41,3.00975e-40,-7.647e-42,3.0659e-40,-1.67e-43,3.94953e-40,-3.0783e-40,3.919411e-05,-1.0386746e-05,-1.0203707e-05,-3.6743837e-05,0.00012298566,-3.904717e-06,2.1479524e-05,-0.0001066196,-0.00011218657,-3.054731e-05,4.6182107e-05,2.5737552e-06,-2.3630548e-05,4.190628e-05,-1.0590182e-05,-2.3618168e-05,3.768491e-05,-3.2817272e-05,-2.863516e-05,-4.761218e-05,-9.266319e-06,-2.4299015e-05,-3.3375112e-05,-3.319221e-05,-3.504763e-05,-2.3403256e-05,6.2540894e-06,-1.955e-42,2.524e-42,1.4992e-41,-1.6881e-41,-8.258e-42,2.7e-43,1.9074e-41,5.689e-42,-6.974e-42,-6.505143e-05,3.981584e-05,-5.1260897e-05,-8.585384e-05,0.00011032175,-7.489792e-05,-2.3620358e-05,8.855859e-05,-7.236452e-05,-2.7283302e-05,-6.0879796e-05,-1.0476424e-05,-1.3112436e-05,-6.546889e-05,4.631585e-06,-6.050736e-05,-4.3879838e-05,1.6421314e-05,2.8364379e-05,-8.980159e-06,4.039979e-05,4.0853636e-05,8.5534e-06,-1.0755297e-05,5.4237542e-05,2.2426233e-05,5.7563404e-05,3.91056e-40,-2.77952e-40,-2.68024e-40,-1.3112e-41,-3.824e-42,-4.19727e-40,-4.08169e-40,-4.10918e-40,2.36489e-40,7.516624e-07,7.665981e-06,1.3908403e-05,1.8389952e-05,5.747126e-07,-1.7279608e-05,8.722301e-06,4.9840937e-06,3.7134454e-05,5.4263077e-05,-1.7098426e-05,-6.1504164e-05,-3.4916e-05,2.7749924e-05,-7.5984164e-05,-4.133949e-05,-7.8489335e-05,-8.054752e-06,2.4237917e-05,-7.666662e-05,-1.4726336e-05,9.3542e-05,-1.1211479e-05,1.1843453e-05,4.482097e-05,-5.0544286e-06,-5.9167073e-06,5.352826e-06,-1.0187788e-05,3.104701e-06,-6.1789237e-06,-6.233134e-06,-1.5713815e-06,4.229903e-06,-1.0294231e-05,4.51644e-06,-7.4539616e-06,-5.3861577e-06,-6.153186e-05,-5.3739655e-05,-4.0314526e-06,-5.9982227e-05,8.8898174e-05,3.53857e-05,-7.0315604e-05,1.1273e-41,-3.82923e-40,-2.51666e-40,-2.34967e-40,2.414e-42,-1.64196e-40,-1.2913e-40,2.75124e-40,2.09245e-40
