0.016128026,0.059700582,0.04411076,0.091338575,-0.02376117,0.048529457,-0.037151493,-0.026404493,-0.011983617,-0.016786404,-0.05521646,0.17687006,0.14670156,0.16539589,-0.06048818,-0.17518684,-0.19452126,-0.027929224,0.0038624008,0.0235463,-0.20874716,0.03175758,-0.0029781873,0.05829556,-0.13041946,-0.067909844,0.00610126,-0.27181873,0.022916632,-0.10313352,-0.2241034,-0.006540433,0.09351834,-0.086146966,-0.007957921,-0.10208952,0.120990485,-0.11897885,0.013488783,-0.057097726,0.07177777,-0.011064983,0.10039969,0.034239154,0.0068655317,-0.057337403,0.06393309,-0.078484684,-0.004535417,-0.10912884,-0.1994699,-0.023609545,0.13203175,-0.027994165,-0.10085943,0.035799414,0.12767853,0.1255698,0.16641578,-0.14012381,0.14174536,-0.11320045,-0.07138576,0.051429786,-0.017624525,0.058717906,0.046801608,-0.015952507,0.00818385,0.10920204,0.053401735,-0.01705721,0.08296639,-0.02799552,-0.23474856,0.055780847,0.03742975,-0.15007408,0.12343462,0.0016310107,0.10314219,0.024462111,-0.026845839,-0.10372609,0.044048972,-0.067627855,0.020010069,0.06733211,-0.017705536,0.13441496,-0.19283609,-0.040432762,0.02891554,-0.047537208,0.12636209,-0.008883958,-0.008128985,0.05083926,0.07367142,-0.0067725563,-0.07652319,-0.07583604,0.12406231,0.10406791,-0.13479169,0.15551949,0.023023035,-0.027478738,-0.095355384,-0.13851334,-0.13570908,-0.21014775,-0.1358769,-0.17053849,-0.114983276,-0.061627753,-0.079041235,-3.226e-40,-1.314897e-39,-2.016533e-39,1.118388e-39,1.42257e-39,-2.172001e-39,2.889e-40,-3.02803e-39,-2.925781e-39,0.032161485,-0.030859005,-0.2271952,-0.026401432,-0.008538615,0.10951545,0.112552874,-0.009469233,-0.1413251,0.021858823,-0.042199776,-0.2052576,-0.011167811,-0.07828817,-0.08127945,0.013330615,0.09937072,0.041413292,0.16954896,0.19116695,0.13808322,0.21567689,0.17857093,0.04178854,0.13379669,0.14254406,-0.00823213,0.046741255,-0.20010376,-0.18543959,0.33169204,0.15922984,-0.15349679,-0.06435473,-0.0055261683,-0.09649148,0.09993032,0.2114605,0.11155986,0.09065404,0.15792167,0.17700979,0.0620008,0.05949314,0.044499192,-0.072835974,-0.10740664,-0.0200683,0.091503635,0.05825051,0.06600813,-0.0819271,0.03575461,0.031423364,0.039795186,0.10567803,0.013280916,0.107171625,0.24308667,0.10096091,0.06816782,0.06997866,0.13582951,0.073693804,0.10942045,0.0035503693,0.050105724,0.039565492,-0.11962209,0.11907871,0.10333887,-0.043495975,-0.0051527848,0.016470136,0.053156458,-0.023896718,-0.070157945,-0.05384231,-0.021090075,-0.09636205,-0.13304628,0.07610862,0.08397289,0.009542153,0.024759889,-0.011327738,0.004595636,0.09620901,0.09262367,-0.0021284053,0.12344038,0.111786135,0.096643075,0.16333047,0.32035404,0.29936072,-0.07323717,0.28609195,0.20617433,-0.062585555,-0.06959968,0.03703339,-0.08788375,-0.023322113,0.0040046405,-0.17469148,-0.15961623,-0.07697587,0.10431657,-0.054615296,-0.040536117,-0.08392974,-0.14986639,-0.06192631,-0.1596096,-0.20578727,-0.24648714,-0.101514764,-0.0820893,0.028130926,-0.14839457,-0.29368034,-0.19467671,-0.13587089,-0.25148976,-0.061834387,-0.104336314,0.055004943,-0.0063551567,-0.053576536,-0.015950277,-0.050285578,-0.030173963,-0.12429602,-0.06346809,-5.40531e-40,-6.3316e-41,1.102791e-39,1.64874e-40,9.2458e-41,4.64103e-40,-1.000842e-39,-2.9347e-41,2.557133e-39,-0.032150015,-0.010534898,0.014969209,0.060527485,-0.010142017,0.039951894,-0.060822666,-0.24493763,-0.3084052,0.05761427,0.15539958,0.18400398,0.20034708,0.21420895,0.16101596,0.008683887,0.21890242,0.04420005,0.03950236,-0.010719445,-0.03587731,-0.014927917,0.015085141,-0.057626266,-0.038957965,-0.024543531,-0.057059135,0.0071617058,0.032534678,-0.011424448,0.028595649,-0.032006178,0.011995298,0.016706357,-0.031226141,0.043112513,0.044242468,-0.00086907984,-0.037856936,-0.008598166,0.097818315,0.02883583,0.023953242,0.027335148,0.07812414,-0.06346455,-0.07322086,-0.12888536,-0.007714032,-0.042795062,-0.03265876,-0.016680917,0.026581874,0.045926664,-0.052233312,-0.019470038,0.054386824,-0.035984896,0.06449244,0.03177521,-0.013960916,-0.006369412,0.018781297,-0.035271227,-0.0009673748,0.1359835,-0.0030615854,0.019422077,0.077628486,0.04336669,-0.08228358,0.0391641,-0.019821499,-0.04020335,0.102744184,-0.0083619,0.03552039,0.089823306,0.02439558,-0.043510746,-0.03150829,0.04498546,0.06857829,0.03439977,0.051380165,0.010519561,0.0127794,0.0426146,0.009405455,-0.036400355,0.024252158,-0.013319465,0.012734701,0.0028935731,0.047574546,0.06372401,0.045096904,-0.02412295,0.021933958,-0.011221409,-0.007929125,-0.018230315,-0.014060732,-0.060794722,-0.033132352,-0.005951508,-0.073994294,-0.01376216,-0.0049276054,0.0097902445,0.0024207735,-0.003940722,-0.009988564,0.0032332845,-0.01456149,0.018495003,0.06555019,-0.007633019,0.005219143,-0.043726966,-0.024163565,0.0036019194,0.015137405,0.0050398423,0.031384394,0.0044722254,-0.06690278,-0.0817733,-0.033079553,-0.035483938,-0.06441413,-0.03075543,-0.02830169,-0.028400384,-0.0062997662,2.271236e-39,1.51832e-39,1.769278e-39,2.391008e-39,1.91607e-39,1.097617e-39,1.637812e-39,1.150529e-39,2.092761e-39,0.04956803,-0.018151382,-0.00575162,0.04262084,0.059800766,-0.02080142,0.0853092,0.023323422,0.00678178,0.08231683,0.036788773,0.023995066,0.0497528,0.050861716,-0.007058777,0.022365237,0.026448084,-0.05229003,-0.0031271994,0.0133555075,0.0071333773,0.012339542,0.03543284,-0.021166451,0.0010920325,-0.006961781,0.012003845,0.0021418124,-0.040118262,-0.023532044,-0.07272708,-0.05718556,0.06850237,-0.025220798,-0.0037844437,-0.022416573,-0.15280846,-0.21526594,-0.012549437,-0.12708291,-0.15530856,-0.0986325,-0.18891811,-0.18556604,-0.073090866,-0.037389155,-0.02678019,0.014681152,0.00908395,0.031543095,-0.028169498,0.036014844,0.05393842,0.02417695,-0.21156883,-0.1835002,-0.048897237,-0.21618989,-0.27758434,-0.25209618,-0.08166046,-0.3063403,-0.2962109,-0.09539363,0.01430852,0.11938532,-0.0082940655,0.013113513,-0.005424913,0.026315127,-0.033247896,-0.0780088,0.04855551,-0.07831745,0.044343475,0.018728592,-0.047351953,-0.06368288,0.035404135,0.105813175,-0.010081882,0.04150575,0.023084676,-0.0010314174,0.0435833,-0.051165383,-0.09734395,0.020190172,-0.08955856,-0.1520407,-0.00840441,-0.0077946475,0.120350696,0.043810982,0.06316122,0.0416907,0.025764272,0.07390769,0.009061485,-0.05784402,0.034530938,-0.0019488432,-0.018748607,0.030832201,-0.05938412,0.039868042,0.07396257,0.049888257,-0.014283001,-0.05582874,-0.16333735,-0.014376196,0.011080108,-0.012044964,0.043298863,0.025934445,-0.0006858045,0.10963846,0.070431985,0.074332766,-0.020169187,-0.11352635,-0.022093186,0.007011826,-0.072946385,-0.08612917,-0.11641064,-0.008625968,0.053209823,-0.11499585,-0.023890378,0.022505661,-0.17614195,-0.10846089,-0.061172597,1.923753e-39,-9.6862e-41,-3.55825e-40,1.276439e-39,-5.68828e-40,-1.842961e-39,-1.70622e-40,1.07215e-39,2.389214e-39,-0.11249352,0.03896691,0.042022362,-0.019470258,-0.027471554,-0.053876814,-0.063462205,0.051827293,0.095447205,0.055996545,0.09936922,-0.079074495,-0.0023862184,0.022692585,-0.065170564,0.07333476,0.003427925,0.026529288,-0.026889376,0.019631127,-0.036269084,-0.02841547,0.034170527,-0.0113677215,0.056438006,0.03683459,0.041199602,-0.07893898,-0.007506836,0.034817714,-0.023158217,0.04555169,0.04356277,-0.05580962,0.084737174,0.0022307371,-0.083813295,-0.054174803,-0.003037023,-0.10979213,-0.13595054,-0.13145275,-0.08401087,-0.11357606,-0.15125667,0.010813647,-0.002755729,0.041107472,0.07963853,0.09288172,0.075460486,0.078870095,0.13602227,0.06565391,0.05458447,0.15646522,0.11642537,0.14618881,0.16116665,0.108894795,0.10541577,0.12049924,0.039789308,-0.05261026,-0.09711852,-0.12539795,-0.077761486,-0.23208936,-0.14487943,-0.08128611,-0.17496282,-0.11041408,-0.044392284,-0.061863866,-0.0416986,-0.018237574,0.011050953,0.052737184,-0.056590986,0.07129307,0.06698013,-0.02271095,-0.034870706,-0.027344719,-0.06649874,-0.1341596,-0.10053501,-0.095643304,-0.056177128,-0.014462766,-0.021898894,-0.10758824,-0.15789637,0.030898634,-0.06612065,-0.123959884,0.015930269,-0.06078644,-0.07443036,-0.036199998,-0.11888042,-0.10139568,-0.14398624,-0.23137438,-0.26091257,-0.22197755,-0.23185007,-0.23332939,0.0030671468,-0.038324166,0.03320023,-0.0010892677,-0.005492789,0.043441586,-0.004455007,0.026795998,0.025700975,-0.022608338,-0.039791692,-0.09231776,0.009438929,-0.044062607,-0.079859786,-0.07867819,-0.075039856,-0.035761405,0.011558693,0.050513215,0.031857934,0.009178278,-0.011869278,-0.08798825,0.053081278,0.014871532,-0.06666125,9.98477e-40,-1.78266e-40,-7.06259e-40,8.23987e-40,9.62249e-40,-8.17988e-40,2.251396e-39,1.944089e-39,2.5084e-40,0.08394147,0.1353854,0.0637988,-0.004893015,-0.018692125,-0.11452914,-0.054323338,-0.08767901,-0.17575294,-0.01093316,-0.116195954,-0.1020815,-0.07631557,-0.19842368,-0.113862276,-0.05781664,-0.19068134,-0.19803214,-0.06660075,-0.06788021,-0.035905637,-0.04618921,-0.017075164,0.014117572,-0.0035414514,0.016131649,0.07511807,0.028704215,0.0008070737,-0.013984915,-0.0110676475,0.009929027,0.052927613,0.03759649,0.045819927,0.026906155,0.025145104,0.022345437,-0.015054721,-0.024501886,-0.045567513,-0.06851121,-0.031487938,-0.067185186,-0.04979239,0.007192285,0.004397214,0.043834686,-0.0057434477,-0.07900327,-0.016888775,-0.07026617,-0.12432767,-0.07770638,0.0040432145,-0.038985826,-0.03466711,-0.07708821,-0.09610006,0.000985462,0.035807665,-0.018304283,-0.06650074,0.010904439,-0.046544578,-0.08411816,-0.030585553,-0.03798081,0.02914548,-0.023967342,-0.0022964189,0.067883015,-0.009047099,-0.003601675,0.008992773,0.031970374,0.0070175054,0.01796777,0.033551052,0.033308152,0.022011982,-0.057834797,-0.014342671,0.03967525,-0.004860566,0.04800337,0.019851813,0.01256667,0.08909707,0.059945516,-0.0017464213,0.04982917,0.054658905,0.023675751,0.08045843,0.098389514,-0.027853355,0.05418658,0.101646125,-0.0189143,0.03035897,0.06153595,0.042842254,0.010037142,0.020867035,-0.002631918,-0.009260007,-0.019247038,-0.046233386,-0.02994087,0.0008259209,-0.039927237,-0.0629856,-0.06101333,0.0008561467,-0.079964586,-5.4466327e-05,0.032070305,-0.052273624,-0.031249246,-0.0764812,-0.12416371,-0.04500591,-0.025619134,-0.010835446,-0.06628777,0.0067048143,-0.033364356,0.003930897,-0.002073643,-0.03362263,-0.03510273,-0.05494925,-0.030904563,-0.03040124,-1.54442e-39,1.95914e-40,1.08491e-40,-2.56536e-40,1.34536e-39,2.63799e-40,4.33455e-40,7.6624e-40,-1.117733e-39,-0.06874412,-0.020603448,-0.012302209,-0.06855795,-0.10314473,-0.108919255,0.005511143,-0.079478584,-0.09088364,-0.041223217,0.029041322,-0.006887339,-0.040028412,-0.007832296,0.052867044,0.074738696,-0.0032688424,0.08651914,0.011216768,0.033734817,0.014075749,0.011749378,0.029923154,0.003987498,0.04608222,0.033884108,0.024526983,0.0016191709,0.009390304,-0.02063401,-0.020266788,-0.010535416,-0.007375109,0.007886257,-0.020855235,0.008694715,-0.008275816,-0.013281032,0.040706415,-0.004254865,-0.013899676,0.022502623,-0.023861377,-0.0009874814,0.013312785,0.018263934,0.018830426,0.016565708,0.03499862,0.03880263,0.02984146,0.06825854,0.06618021,0.03741612,-0.0058988333,-0.003148072,0.05506452,0.0003311182,-0.01879382,0.05379534,-0.0058110803,-0.019212322,0.009604219,-0.016291758,-0.014128218,0.06542414,-0.01592568,-0.013482343,0.042895775,-0.021803204,-0.026580373,0.039232843,-0.033272732,-0.014512732,-0.002560699,-0.062179014,-0.0759144,-0.047052942,-0.046629313,-0.029019907,-0.020449929,-0.009090373,-0.05287141,-0.03754988,-0.026810367,-0.07489686,-0.07351651,-0.05130011,-0.08182242,-0.069041215,-0.021396585,0.019387264,-0.005229324,-0.005718843,0.044204988,0.022560727,0.028324574,0.033110972,0.016517173,0.04018135,0.0068738367,-0.019797517,0.020215832,-0.059097525,-0.056882594,-0.014296853,-0.06547639,-0.037807856,0.04092153,0.03341008,0.006988854,0.030831788,0.03089875,0.03126021,0.023609532,0.013701748,-0.0015102045,0.016292704,0.022998419,0.05289123,0.01799031,0.035070717,0.09118746,-0.04622821,0.006902286,0.06970841,0.030830482,0.09022409,0.08190322,0.08151244,0.117536336,0.09685496,0.043547228,0.07538256,0.08830374,-2.65637e-40,5.89692e-40,-7.5049e-40,-2.1515e-40,-4.64201e-40,-1.92928e-40,6.2963e-41,-4.74547e-40,-2.42039e-40,0.044045813,0.022462804,0.013579681,-0.0041869804,-0.025540307,-0.019349836,-0.009894101,-0.025341697,-0.007213818,-0.070510685,-0.04688028,0.021147396,-0.038765475,-0.008703698,0.02440996,-0.0050405296,-0.0043987706,-0.0017169262,-0.05653094,-0.09232875,-0.051828697,-0.09583097,-0.13718487,-0.037547905,-0.072210595,-0.06403823,-0.043518234,-0.030175738,0.055890597,-0.061779533,-0.023739178,-0.025376305,0.046179775,0.02723476,0.11779187,0.11458412,-0.053541824,0.13441063,0.2348526,0.10515349,0.1462288,0.074607015,0.14064024,0.08909778,-0.14907587,-0.10115034,-0.12303102,0.16958266,-0.09731564,0.029309047,0.22854668,-0.03731744,0.047237895,0.12570448,-0.04422766,0.025307857,-0.12810217,-0.0026836612,0.14214571,0.05006981,-0.03890105,0.06427085,0.059708446,-0.031074267,0.017267255,-0.0007607319,-0.26899812,-0.06691257,0.031029977,-0.15323468,-0.17062059,-0.13949053,0.050460614,0.08925486,0.008736732,0.2009511,0.17265718,0.027018951,0.04129793,0.07725797,0.10676806,-0.0492194,-0.07770497,-0.0062903976,0.16675833,0.086297005,0.2363336,0.103718705,0.108076245,0.096505664,-0.09358003,0.07512832,-0.12654522,0.05337931,0.035038885,-0.019381335,0.03843516,0.02377067,0.09257496,0.022556841,0.09801473,0.008549561,-0.038638722,0.03118053,-0.03910036,-0.0661655,-0.03781679,-0.023803813,-0.044765536,-0.043407,-0.008762253,-0.027377192,-0.0118579725,0.029307868,-0.022047594,0.12118496,-0.015196556,-0.14155649,0.0008554347,0.1393546,0.036810122,-0.18520229,0.24312514,-0.16453147,-0.08623622,0.086683355,-0.10800515,-0.070196964,-0.033004727,-0.12088781,0.059199076,0.10541133,-0.0056366264,-0.116073065,-0.03853157,-1.531078e-39,-1.7001e-40,1.002307e-39,-8.62505e-40,-6.55903e-40,-1.170398e-39,-1.670297e-39,-2.557566e-39,3.69958e-40,0.07992898,0.034064192,0.057938065,0.032501705,-0.11573346,-0.00566745,0.052726597,-0.07654446,-0.058338,-0.016656926,0.009423097,0.022023637,-0.0661972,-0.0007887406,-0.0268973,0.019382305,0.026458254,-0.004500048,-0.1320186,-0.104391985,-0.07229252,-0.1094012,-0.023710595,0.021412164,0.033955313,0.025401643,0.018730812,-0.06738696,0.036948428,-0.05393546,0.05784234,-0.13769148,-0.1142405,0.13767363,0.10385039,0.07552747,0.07239386,-0.0449637,-0.082249105,0.04728586,0.04811583,-0.07553933,0.034752056,-0.022968253,0.04623679,0.07236636,0.020386528,-0.02921415,-0.117565334,0.00868669,-0.06265986,0.08849842,0.012229566,0.020152742,0.056603763,0.017959895,0.11083394,0.07727535,0.10376793,0.014600203,-0.017365558,-0.06434836,0.014481265,-0.16158065,-0.22933193,-0.091290854,-0.13504909,-0.111840636,-0.059267264,0.026270475,0.05369732,0.033458587,-0.0056274496,0.05592252,0.06455888,0.07548552,0.07523301,0.014848481,0.012777176,0.07471476,0.038641155,-0.05719503,-0.047933187,-0.096518755,0.03303932,0.020621108,0.0395236,0.028699119,0.069253005,-0.004372605,0.0015533229,0.00923928,0.21618454,0.033357494,-0.019582044,0.07287745,-0.122012824,-0.010636191,-0.00058682996,-0.077915184,-0.019672995,-0.06181588,-0.041681156,0.00975127,-0.04635496,0.03743885,0.026007652,0.030851899,0.060284246,0.009596372,-0.045975007,0.040723737,-0.062161762,-0.15913354,0.053739663,0.05202221,-0.065452665,-0.008959306,0.02400364,-0.11306746,0.109134555,0.019311743,-0.00069083564,0.027154936,0.06131334,-0.09539599,0.009051393,0.017530257,-0.014098948,-0.04793456,-0.036948636,-0.053875968,-0.08757717,-0.10565311,-0.07411132,-1.10226e-39,4.84136e-40,-7.7313e-40,7.62797e-40,2.00363e-39,1.36271e-39,1.588113e-39,1.833685e-39,2.110507e-39,-0.046471465,-0.113526955,-0.11804735,-0.10794193,-0.03667872,-0.0035640346,-0.027565215,0.057460632,0.12546745,-0.09700612,-0.102388866,-0.040925767,-0.09517007,-0.0021719,0.07712454,-0.05588808,-0.08571071,-0.07410489,-0.16693625,-0.1600485,0.03473383,-0.03749969,-0.08320714,-0.10637277,0.0038281793,-0.001480537,-0.15917733,0.08163576,0.21734433,0.027084248,-0.22818004,-0.35353032,0.16663653,0.11259075,0.15679678,0.14575182,-0.03937173,0.015788173,0.08381179,0.057730064,0.05692679,0.17802233,-0.021226253,-0.010929984,0.003673859,0.100619264,-0.022992669,0.045166235,0.15128599,-0.12370445,-0.20184936,0.15550432,0.035850022,0.07462217,-0.05431354,0.28611484,0.008737876,-0.20491779,0.072973505,-0.017754816,-0.21264908,0.002686932,-0.04472335,0.07343548,-0.12430417,0.017096106,0.04619566,0.18209161,0.039395347,-0.195112,0.023676217,0.13718686,0.053688746,0.15451306,-0.074176975,0.057358507,-0.11676422,0.0016803924,-0.06935323,0.118899494,-0.08710812,0.19640546,0.02774543,0.060402393,0.013464034,0.103341535,0.04217948,-0.047545165,-0.08190134,0.09805269,-0.0013627907,-0.041712146,-0.043157715,0.04455927,0.06798474,0.26438394,-0.043785565,-0.03215157,-0.03878614,-0.065140836,0.10185076,0.0023042248,0.026188703,0.03145465,0.06578532,0.2535964,0.17805423,0.19866657,-0.038266174,-0.04838466,-0.0035416046,-0.1657854,-0.17411101,-0.1913082,-0.1725568,-0.23458578,-0.20185995,-0.30182073,-0.40121156,-0.09007921,-0.48502675,-0.53495455,-0.25950828,-0.23923637,-0.35346696,-0.16810317,0.019145112,-0.036836967,0.041219026,0.05777166,-0.04174503,-0.045543563,0.047589965,0.07468492,0.024372797,-4.21398e-40,2.165638e-39,8.66094e-40,-5.84909e-40,2.933068e-39,-3.020165e-39,-5.61495e-40,6.39369e-40,-1.358916e-39,-0.15426095,0.08918585,-0.06696593,0.06849952,-0.05436065,-0.37070858,0.20069285,0.17918484,0.3772429,-0.032051824,0.04990101,0.25423247,0.08371665,0.18047161,0.276014,0.0613635,0.1225368,0.17270407,0.07827263,-0.073680125,-0.101328,-0.050743025,-0.05852653,-0.13656345,-0.062227882,-0.016310262,-0.044989023,-0.025074312,-0.11055279,-0.017452324,-0.111991845,0.05435973,0.005071122,-0.18919994,-0.112720735,-0.05552336,-0.074958056,0.1288364,0.005201256,-0.06299081,0.13384417,-0.048811607,0.15216647,-0.028992333,-0.13789226,-0.05589878,-0.0269566,0.0020805094,-0.06562384,-0.16507475,-0.05268241,-0.03308305,-0.15070303,-0.014567831,0.087219335,0.15421191,0.07916938,0.044232804,0.27863067,0.040123004,0.07457441,0.1803471,0.06395698,0.049717393,-0.19756949,-0.0021856907,-0.14009006,-0.042558193,-0.100842975,-0.12340513,-0.046971023,0.0073418794,-0.051650316,-0.043625228,-0.19802874,-0.15735577,-0.0918292,0.049672917,0.015925936,-0.007297787,0.15141755,0.040617518,-0.19788912,-0.11786406,0.029848294,-0.06282038,-0.09394059,0.047896724,0.05289229,0.04283742,0.09264095,0.119359285,0.0051657455,0.0696511,0.06417868,0.009815918,-0.06151133,-0.12702967,-0.024447143,0.072375044,0.12090933,0.15158238,-0.04149073,0.006326605,0.16632555,-0.10710373,0.014095208,-0.053653594,0.023918485,0.11085645,0.0430285,0.018368457,0.013439007,0.09794037,-0.15340003,-0.102575004,0.075568795,-0.091482095,-0.11080166,-0.01681996,-0.07360991,0.16315937,-0.09854711,0.016858935,0.061575357,-0.0038439436,-0.007196069,-0.091393925,-0.07161239,0.047062382,-0.065594554,-0.13671409,-0.05363331,-0.07962161,-0.09510779,3.3856e-40,6.0052e-40,1.566841e-39,-2.49504e-40,3.332188e-39,1.753928e-39,4.32498e-40,1.805199e-39,1.627764e-39,0.032403976,-0.01760067,0.10751161,-0.109063044,-0.01644615,0.028247837,-0.033338904,0.102466166,0.15292239,0.23433839,0.29751867,-0.043010388,-0.050582502,0.1521724,-0.12318535,-0.19740237,0.09858793,0.034046695,0.000112235495,0.00019150703,0.00018610599,0.00020632848,0.00015977047,0.00013015006,0.0002588968,0.0002562565,0.00011850194,-0.0004508861,-0.0003089264,-0.00039951212,-1.521072e-05,-0.00015331598,3.7320042e-05,-0.00023655873,-8.8485875e-05,-0.00011693379,-0.00014010175,-0.00080224883,0.0001154561,-0.00050427904,-0.00015584304,5.626422e-05,0.0005725018,8.736997e-05,-0.0005104248,-0.00015459601,-9.1967956e-07,-7.6436605e-05,-1.3729603e-05,-4.129618e-05,-0.00024024263,-0.00023178117,-5.908154e-05,-0.00019699021,5.142335e-05,0.00036322145,0.00051964854,-0.00022430855,4.7504673e-05,2.9312561e-05,-0.000381639,-0.0007297237,-0.00021976954,-0.0005156613,-0.00025831463,0.00059281714,-0.0003244503,-0.0003048885,0.0007222657,-1.1707668e-05,-0.00071037014,0.0006296179,-0.00035575358,-8.0752514e-05,-6.707927e-05,-6.534891e-05,-0.00029227702,0.00029214044,6.152766e-05,-4.132656e-05,0.0004458694,-1.8380346e-06,-0.0004677952,7.179404e-05,0.00022697818,-0.0004290365,3.587905e-05,0.00025413878,-0.000364249,0.00010551425,-1.9821862e-05,-0.00020581257,-0.00029185764,9.167648e-05,-6.269403e-05,-0.00017758048,6.444814e-05,-6.412769e-05,-0.00027656267,-0.00032068786,3.8850678e-05,-0.000544885,-2.1410553e-05,0.00023676468,-7.2765295e-05,-0.00032141895,0.00028651993,-3.2336466e-05,-0.00040696,-6.308589e-05,-4.0105526e-05,-9.586698e-05,0.00025493535,0.00014615951,-0.00010857091,9.1116126e-05,0.00016272538,0.00060328585,0.0005249506,0.00017220886,8.962814e-05,-0.0002113881,-0.00046090974,1.49520765e-05,-0.0006133659,0.00026325855,-0.00018678738,-0.0001334136,-9.105025e-05,-0.00019451533,-0.00022111104,-0.00026322366,-9.313191e-05,-0.0002006311,-0.000338075,-4.8188e-41,-2.4349e-41,7.08e-43,-3.736e-42,-8.1955e-41,-6.6997e-41,-3.2765e-41,7.482e-42,-6.795e-42,-0.00022322989,-0.00042452384,-1.7720555e-07,0.0002908619,-0.00023952856,0.00024686113,0.00029486537,-7.60234e-05,0.00022458863,-5.0165894e-05,0.00040201255,0.00039727354,1.4637369e-05,0.00013607126,0.0002497571,-0.000103409606,0.00016356356,-6.904669e-05,-0.014524688,0.03404371,0.02482582,-0.023520133,0.0011299413,0.027279895,-0.030032532,0.06030947,0.026103392,-0.07940078,-0.08939359,0.00013314694,0.018595975,0.01293717,0.13018382,0.07210945,0.10267729,0.070340335,0.04808633,0.22385113,0.22067903,0.14526908,0.44971308,0.338594,0.0016255832,0.19848436,0.2074067,0.017583033,-0.0153488275,-0.0028207435,0.051527787,-0.10566118,-0.089966305,0.053681344,-0.07899146,-0.04142655,0.018715676,0.092245914,0.1737359,0.03812674,0.23069865,0.21560523,0.043413863,0.026336186,0.051384736,0.08306986,0.051302467,-0.026783554,0.009426381,-0.05775561,-0.10536059,-0.12608773,-0.16702248,-0.19893144,-0.018640663,-0.052303415,0.029776776,-0.004861635,-0.11409456,0.060341027,0.03328201,-0.034424074,0.019574827,0.017062318,0.008128379,0.011971446,0.020454163,0.081674494,0.0726115,-0.058145843,0.116474874,0.07274698,0.06680951,-0.1405606,-0.060745537,0.08329775,-0.013218752,-0.04881601,-0.017422069,0.00838141,-0.105043374,0.07038823,0.05491936,0.06626426,0.061158136,0.026460709,0.12103754,-0.099083655,-0.007624026,0.055151965,-0.084238574,-0.029118111,-0.057058632,-0.035219137,-0.012705122,0.00041320454,-0.09334879,-0.054207157,-0.0011942077,0.03803944,0.07446522,0.09563824,-0.063457645,0.021194737,-0.0018605008,-0.06633836,-0.118164845,-0.10238027,0.0331726,0.07688457,0.088922694,-0.066612236,-0.05452879,-0.029826298,-0.054782856,-0.051896807,0.0053299186,2.098732e-39,-1.523604e-39,-2.244402e-39,2.415911e-39,3.62027e-40,-2.06766e-40,2.600217e-39,-9.79035e-40,-5.24701e-40,0.0016283654,-0.020874195,0.013854653,-0.072961405,0.0023521082,-0.041147426,-0.08978338,0.07256402,0.03582688,0.07379467,-0.048728105,-0.16116916,0.024848996,-0.06611642,-0.13351543,-0.035943232,-0.0576851,0.011653236,0.10249106,0.25370577,-0.23401089,0.025949,0.14596692,-0.15657873,0.073839225,-0.16294077,-0.21377,-0.044777565,-0.21710335,-0.07675779,0.47646192,0.26669285,-0.005935825,-0.27479258,-0.14664157,0.09771694,-0.34253797,-0.26103696,-0.26084393,-0.26856974,-0.4393765,-0.15719788,-0.12070143,-0.17531417,-0.22987759,-0.06853713,0.09314668,-0.062464133,-0.14983386,-0.3215964,0.012877465,0.10626634,0.08405122,-0.1769664,-0.20421158,0.06480421,0.01293531,-0.09892087,0.014738847,-0.12729023,-0.022247083,-0.037020236,-0.22489588,-0.49816653,-0.17740507,0.14331387,-0.048403837,-0.31267402,-0.4063616,0.11232582,-0.0056131105,-0.2949024,0.015865138,0.19996576,-0.012929399,-0.65972257,0.6273575,0.29303563,-0.40287733,0.13963787,0.09435086,0.17922093,0.2469352,-0.13661702,0.24421482,0.5514666,0.112739906,0.039934166,0.2727822,0.026449285,0.20591196,-0.09564033,0.04325781,0.21057011,0.3418918,0.15178663,-0.04761042,0.060775608,-0.24240516,-0.10816453,0.17776515,0.20913726,-0.14222401,0.62999505,0.16380979,0.00026403466,0.1831045,0.077589415,0.06036108,-0.21345669,-0.35079297,-0.31956753,0.043144025,-0.0047374535,-0.5229506,0.36602843,-0.022288732,-0.045093257,0.16292675,-0.13005939,0.40285003,0.2319834,0.112248845,0.24637768,0.10986178,0.10287257,0.02991185,-0.07304967,0.041274257,-0.013480413,-0.36743525,-0.11784086,0.10591157,0.07704169,-0.14566168,-3.075934e-39,-3.694015e-39,-4.072304e-39,-2.364995e-39,-1.473349e-39,-2.445996e-39,-2.063688e-39,-2.048087e-39,-1.505161e-39,-0.20533198,0.033053104,0.027506087,-0.27080742,0.081343874,0.008670994,-0.079905786,-0.1335518,-0.42459607,-0.19608738,-0.01944258,0.27217284,-0.036700834,-0.08976298,0.1863016,0.14744005,0.0903803,-0.0077021043,-0.10068673,-0.1560574,-0.20154098,-0.040663917,-0.074749,-0.017146932,-0.03211098,-0.066070594,-0.011627868,0.0821893,0.1979979,-0.053395685,-0.11803997,0.030356957,0.111003,0.13737935,0.0921698,0.10086656,0.013539156,-0.29209352,-0.13313232,-0.19834219,-0.10616527,-0.30482462,-0.18404098,-0.32972175,-0.17411658,0.041624587,-0.038523167,-0.08854383,0.09215365,0.1863651,0.012961331,0.29822293,-0.10643291,0.084934086,0.058642372,-0.022840269,0.10541085,0.11118171,0.021597238,0.20509595,0.0451751,0.054320805,0.080233105,0.038076747,0.202639,-0.023861151,-0.062371474,0.12321664,0.19611491,-0.12213149,-0.02549166,-0.12730816,-0.03152013,-0.03363934,-0.008026904,0.3489104,-0.2850199,0.012042073,0.14890134,-0.070813894,0.048398342,-0.09332662,0.006341115,0.054592025,0.20603418,0.13725851,0.2041952,0.026945608,0.094978444,0.07737609,-0.024557196,0.0792439,0.10761912,0.08020894,-0.1388043,-0.094000235,0.12624559,0.004630611,0.03202985,0.04504092,-0.06883968,-0.11829657,0.031354465,-0.011129617,-0.0027980842,-0.107469775,-0.093689196,0.02868626,0.026337367,0.059242666,0.002408431,0.040771868,0.08869529,-0.033815835,0.23212147,-0.011990108,-0.02100615,0.15375312,0.12757084,-0.13907927,0.09774207,-0.06460001,-0.060274243,-0.06464158,0.05498428,0.031983953,0.07902704,0.05007579,-0.043883663,0.1701428,0.21164444,0.08431347,0.08515123,-0.084338166,-0.059177887,4.76151e-40,-2.17917e-40,-3.358477e-39,-1.600078e-39,2.200819e-39,2.83303e-40,-2.66805e-39,9.55583e-40,-4.87694e-40,0.1335089,0.06112876,0.030488927,0.060710907,0.05828969,0.012594508,-0.055257652,-0.0120180985,0.15439083,-0.03879656,-0.096312255,-0.13411899,0.11152605,0.11603081,-0.01721868,0.14692578,-0.043071125,-0.061505444,0.012166424,0.0130732795,0.009495705,0.004036189,0.0003487642,0.005729457,0.027974619,0.012529084,0.022464653,0.013004369,0.016129326,-0.0056948126,0.032156605,0.021990944,0.00492935,0.036412507,0.0130456025,0.01837159,0.00784859,0.0038727273,0.022173828,0.0042113485,0.020994497,0.021370152,0.006597402,0.0084081115,-0.005375283,-0.0016355298,0.0029912335,0.0057874303,0.0005190184,0.014491748,0.0029311772,-0.004606767,-0.00010616416,0.016866764,-0.011342366,-0.016201455,-0.0019232394,-0.019818546,0.0013980028,0.012515063,0.001882623,-0.012647788,-0.008798288,-0.010804939,-0.03314565,-0.021182923,-0.025021892,-0.029202616,-0.0054333596,0.00874572,-0.011961491,-8.131376e-05,0.0020745806,0.0018174415,0.006426248,-0.0064278324,-0.005910656,-0.0049703587,-0.015122649,-0.02136443,-0.017589614,0.011549259,0.010814445,-0.0008735557,0.011597973,0.015280991,-0.0016782357,-0.013590559,0.0020198892,0.0042877803,-0.007207061,0.018249432,0.026834657,-0.0016679136,0.00582083,0.024477987,-0.00012530248,0.0061109066,-0.0026590964,-0.0038609784,0.00406056,0.0009787052,-0.033105,-0.017047754,-0.0030379554,-0.024792027,-0.019691207,0.0019763021,-0.0009618006,-0.0032449136,-0.013361937,-0.003741589,-0.015123087,-0.03055966,-0.010775404,-0.03013703,-0.011175014,0.00212777,-0.0239338,-0.01666398,-0.009700826,0.0019757873,0.008898561,-0.0033506718,-0.012754719,0.009828229,-0.010790025,-0.0010872879,0.002984933,0.011284087,0.025275687,0.021465655,0.031917978,0.03382546,0.044923395,-5.9919e-40,1.29637e-40,-5.65226e-40,-5.38456e-40,5.68734e-40,-5.52756e-40,2.00058e-40,-2.35513e-40,-4.55889e-40,-0.013844863,0.013754647,0.009802188,-0.011321414,0.0017611714,-0.013030291,0.008869003,0.0065791835,0.010469253,-0.0064792987,-0.0045166407,-0.018540224,0.001360265,0.026757257,-0.0040391595,-0.0064258156,0.0075977026,-0.016813878
