0.018169504,0.06802452,0.04563652,0.018015144,0.013463617,0.007971265,0.035417557,0.013897376,-0.00089466997,-0.061305452,-0.05751314,-0.028909992,-0.04097288,-0.032545686,-0.010071737,-0.017003946,-0.025971515,-0.0006071197,-0.0063752215,-0.021344757,-0.023452636,0.014056858,0.020481752,0.009125607,0.0613887,0.05323738,0.020157237,-0.03901933,0.0082580205,0.005188121,-0.04104262,-0.010980037,-0.0192376,0.008751043,-0.024034953,-0.021202845,-0.02655389,-0.043554995,-0.034542404,-0.0138609195,-0.0023157238,0.023165772,0.054858953,0.028740123,0.030322848,-0.008099386,0.0070313476,0.009640341,-0.038836114,-0.023694213,-0.027165933,-0.021310583,-0.012175857,-0.02930572,-0.0049856864,-0.037777122,-0.073156394,0.0013598712,-0.024200749,-0.034923185,0.057920218,0.04770184,0.009329472,-0.029112782,0.01475919,0.03671066,-0.025987327,0.03569321,0.055923507,-0.062746935,-0.039559625,0.005123324,0.0077596395,0.008275599,0.010391309,0.020454489,0.00365114,-0.011661174,0.0037213978,0.0029090466,-0.03539334,0.050274473,0.04279996,0.020003688,0.024151307,0.03074961,0.054830246,-0.021802653,-0.07034636,-0.0556188,-0.049482394,-0.03638724,-0.011564272,0.0038586063,0.010179325,0.003712069,0.03794129,0.019389687,0.026908735,-0.0039468934,-0.0034990709,-0.00790535,-0.022917448,-0.021936228,-0.055128027,-0.024334773,-0.035208937,-0.04389831,-0.01836191,-0.028689729,-0.026893832,0.0040052277,0.018819258,-0.019903671,-0.02433664,-0.026011296,-0.01639864,-0.000724761,0.03974625,0.0015407624,-0.0025521512,0.014021176,0.00158947,0.0031542012,0.028688187,0.0073255464,0.0044053327,0.01508846,-0.019288173,0.039015245,0.05608528,0.03511263,0.066333346,0.066061385,0.028099211,-0.0046269004,-0.013906253,0.00046123413,-0.009182525,-0.007996175,-0.020143447,0.014420684,0.017221844,0.0031474228,-0.0008002738,0.012046973,-0.013685366,0.016005583,-0.014209537,0.01772507,0.027261302,0.007536726,0.031905293,-0.031198561,-0.015880985,-0.035682265,-0.014234848,-0.02888234,-0.04063725,0.011195971,-0.020996572,-0.02717895,0.011730886,0.029149042,0.012056745,0.017117599,0.052257527,0.013434696,-0.009304072,-0.011006803,-0.025480404,0.025601823,0.033502154,0.03448617,0.013853478,0.017086739,-0.006109412,-0.030320445,-0.03922008,0.0011618839,0.0153365135,0.00770353,-0.027939752,-0.04010898,-0.022755228,-0.025080793,-0.047170915,-0.05139557,-0.018181946,0.017487844,0.0114880465,0.020380886,0.017270777,0.007681512,0.019409103,0.022203712,0.022889659,0.0059853788,-2.643225e-05,0.007179063,-0.013727053,0.054414086,0.032359846,-0.013050453,0.08485868,0.063312605,0.019435765,-0.016713027,-0.034804415,-0.023040792,0.012061922,-0.011854171,0.006300171,0.0020929573,0.055879675,0.041002616,0.027587414,0.028539965,0.032378115,0.027791219,0.0027076325,-0.02849611,0.009148318,-0.031211438,-0.058232594,-0.009775852,-0.014985291,0.024729012,-0.021488898,0.035511207,0.047911003,0.020646837,0.05464036,0.050776318,0.030631023,0.0103451535,0.022832109,0.027555503,0.017068436,-0.019895831,0.0401107,0.0150260655,-0.028622521,0.013377082,-0.008500476,0.0051157097,0.0072613326,-0.013273578,0.0036043983,0.0063515482,-0.025325455,-0.017057603,-0.01801069,-0.036384605,-0.014056617,0.024903078,0.019644808,-0.018755956,0.024053294,0.02099773,-0.006823822,0.016629819,0.014162052,0.008587952,-0.0021108275,-0.011404092,0.009065661,-0.0006051954,0.005089913,-0.0098524885,0.037925623,0.06006648,0.02116071,-0.0082111675,0.030376326,0.015406552,0.003902392,0.023342961,-0.020938983,-0.009140982,-0.026548114,-0.041109096,-0.010984389,-0.008602186,0.006189506,0.03844466,0.009743058,0.01668395,0.0,0.0,0.0,-0.0,0.0,-0.0,0.0,0.0,0.0,0.0,0.0,-0.0,0.0,-0.0,-0.0,0.0,0.0,0.0,-0.0,-0.0,0.0,0.0,0.0,0.0,0.0,-0.0,0.0,0.0,0.0,0.0,0.0,0.0,-0.0,-0.0,0.0,-0.0,-0.0,-0.0,-0.0,-0.0,0.0,-0.0,-0.0,-0.0,-0.0,0.0,0.0,0.0,-0.0,-0.0,0.0,0.0,-0.0,-0.0,-0.0,0.0,-0.0,0.0,-0.0,-0.0,0.0,0.0,0.0,0.0,-0.0,0.0,0.0,-0.0,-0.0,0.0,-0.0,-0.0,-0.0,-0.0,0.0,-0.0,0.0,0.0,0.0,-0.0,-0.0,-0.0,-0.0,-0.0,-0.0,-0.0,-0.0,-0.0,-0.0,-0.0,0.0,-0.0,-0.0,0.0,0.0,0.0,0.0,-0.0,0.0,0.0,0.0,0.0,0.0,0.0,0.0,-0.0,-0.0,-0.0,0.0,0.0,-0.0,-0.0,-0.0,-0.0,-0.0,-0.0,-0.0,0.0,0.0,-0.0,0.0,-0.0,0.0,-0.0,-0.0,-0.0,-0.0,-0.0,-0.0,0.0,0.0,0.0,-0.0,-0.0,-0.0,0.0,-0.0,0.0,0.0,0.0,0.0,0.0,0.0,-0.0,0.0,-0.0,-0.0,0.0,0.0,-0.0,-0.0,0.0,0.0,-0.0,-0.0,0.0,-0.0,0.0,-0.0,-0.0,-0.0,-0.0,0.0,0.0,0.0,0.0,0.0,0.0,0.0,0.0,0.0,0.0,0.0,0.0,0.0,0.0,0.0,-0.0,0.0,0.0,-0.0,0.0,0.0,0.0,0.0,0.0,0.0,-0.0,0.0,-0.0,0.0,-0.0,-0.0,-0.0,0.0,-0.0,-0.0,-0.0,-0.0,0.0,-0.0,-0.0,-0.0,-0.0,-0.0,-0.0,-0.0,-0.0,-0.0,-0.0,-0.0,-0.0,-0.0,-0.0,-0.0,-0.0,0.0,-0.0,0.0,0.0,-0.0,0.0,0.0,-0.0,0.0,0.0,0.0,0.0,0.0,0.0,0.0,-0.0,0.0,0.0,0.0,0.0,0.0,0.0,0.0,0.0,-0.0,-0.0,-0.0,0.0,-0.0,-0.0,0.0,0.0,-0.0,-0.0,0.0,-0.0,0.0,-0.0,0.0,-0.0,-0.0,0.0,-0.0,0.0,0.0,-0.0,-0.0,-0.0,-0.0,-0.0,-0.0,-0.0,-0.0,-0.0,-0.0,-0.0,0.0,-0.0,0.0,0.0,0.0,0.0,-0.0,0.0,-0.0,-0.0,-0.0,-0.0,-0.0,-0.0,-0.0,0.0,0.023151478,-0.00070327206,0.0016121559,-0.045007206,-0.025097491,-0.013172278,-0.050595976,-0.030067623,-0.0076876953,-0.036058467,-0.021047052,-0.017865082,-0.0041740313,0.04109702,-0.0066831573,-0.0028105609,0.035499744,0.01861009,0.02297489,-0.011114586,-0.013390846,0.03572989,0.007899614,-0.013872386,0.02924042,0.018255202,0.028485648,-0.0008809484,0.012013117,0.025139535,-0.0034976208,-0.012716691,0.019533956,-0.0054936484,0.02085236,0.04001899,-0.07566618,-0.045477953,0.0071246237,0.029845042,0.070299156,0.074678555,0.11796735,0.1422343,0.094707154,-0.010878675,-0.017900923,-0.026258104,-0.034533665,-0.027546605,-0.019529773,-0.041520268,-0.030814175,-0.0077817137,0.024566906,-0.020519245,-0.044309814,0.015985379,-0.0009879691,-0.009562233,-0.027985573,0.0074878377,0.019986259,-0.021024726,-0.006720918,0.002453997,0.025450064,0.026792273,0.035518814,0.046702866,0.04708123,-0.020377554,-0.022450333,-0.012666184,0.010631894,-0.025270386,-0.013346761,-0.019314796,0.028926292,0.005766495,0.0027545833,0.036734406,-0.040212445,-0.06377234,-0.052000728,-0.083871715,-0.063599445,-0.073688395,-0.02231528,0.0020274946,-0.004023532,-0.018754195,-0.031839214,-0.013843642,-0.03965946,-0.04694854,-0.031649675,-0.05203142,-0.035610367,0.010010727,0.0008820723,0.0027075426,0.038441546,0.029585533,0.028555913,0.042300805,0.043778732,0.016227603,0.015730467,0.008661674,0.011262742,-0.03287478,-0.036245152,-0.033983804,-0.019595383,-0.02738367,-0.016120933,-0.0018541145,-0.009793653,-0.0064208442,0.010714537,-0.00044134568,-0.023514943,-0.006647156,-0.003859758,0.0059151505,-0.0109875845,-0.01120608,-0.016997648,0.0017426736,-0.009815919,-0.02380723,-0.020146266,-0.013716711,-0.019842423,-0.0045299763,-0.019086896,0.007916408,-0.019747112,-0.028012136,0.0042153806,-0.00673189,-0.028365625,0.0021833647,0.012153126,-0.007066524,-0.017028993,-0.02261209,-0.023448236,-0.03675943,-0.015768813,-0.06286068,-0.027874373,-0.020258654,0.02297374,0.054070003,-0.032476094,0.014332467,0.039347067,0.006545051,-0.007963058,-0.021009885,-0.01984451,0.00065785553,-0.015351146,0.010195281,0.014121807,-0.023105405,-0.006652469,-0.031790525,-0.052195482,0.013615816,0.004258199,-0.0043164548,0.04053853,-0.027198022,-0.022046702,0.050018746,-0.005309168,-0.017560847,0.008688511,0.011833466,0.039804257,0.030680109,0.011697724,0.020936139,0.017948339,0.030958114,0.011513069,0.011543347,0.02238254,0.011417407,0.0029283979,0.0018720035,0.016339,-0.031263754,0.01748447,0.030674778,0.039659116,-0.004033352,0.0038499965,0.002491234,-0.046764344,-0.06336531,-0.0942874,-0.0929445,-0.07908279,-0.045420837,-0.05644247,-0.06353431,-0.039216712,-0.050098803,-0.050463293,-0.05081867,-0.053365093,-0.021899687,0.009342996,0.035083596,0.05216281,0.013845468,-0.0028987424,0.02008786,-0.0019624422,-0.030134914,-0.0031193076,-0.0017513745,-0.010428135,-0.041801505,0.024348345,0.02384514,0.040183295,0.023862254,0.026280235,0.0079304725,-0.020764902,0.03947248,0.040615298,0.030980617,0.03494013,0.0373256,0.07481191,0.052248973,0.0054983418,0.027745537,0.015152435,-0.010727212,0.03648494,-0.00970993,-0.03245781,-0.040127307,-0.035588004,-0.023984892,0.015713485,0.01941205,0.010290286,0.02665611,0.0037732446,0.008364549,0.022138264,-0.00080716447,0.004990648,0.008175091,-0.009740622,-0.018392766,-0.012769443,-0.0072019277,5.490967e-05,-0.012083355,0.004738441,0.06307792,-0.036669023,-0.082210496,-0.058248084,-0.010049131,-0.0255982,-0.037011415,0.002555529,0.0046194685,0.029350705,-0.0026879362,-0.019469254,-0.030906262,0.007264594,-0.029326428,-0.043477323,0.018938504,-0.0047624204,-0.00083044596,0.054727342,0.028276796,-0.0035629433,0.061393894,0.03697263,0.010309463,0.04910283,0.05084851,0.0026425482,0.00033668784,0.0214151,-0.0170081,-0.0011083,0.008242952,0.0115652755,-0.005145403,0.00010094782,-0.0030825073,0.041217826,0.041957676,0.02793282,0.036930714,0.023323845,0.028931655,-0.013506929,-0.029544622,-0.0052034613,-0.008249385,0.027454102,0.06144307,-0.01966391,-0.022007253,0.0068861227,-0.05567737,-0.0648474,-0.050462767,-0.0008066412,0.052517034,0.056926467,-0.017445445,0.051932212,0.061200198,-0.04091946,0.015823476,0.04013072,-0.028995628,-0.06971993,-0.053169347,0.011692171,-0.03235175,-0.032104656,0.0078491755,-0.02011633,-0.015884167,0.006008143,-0.00034634225,-0.002536059,-0.029894961,-0.031811524,-0.018409574,-0.008972689,-0.031178886,-0.017508505,-0.01767078,-0.02177319,0.00078589143,0.010399223,0.0015162136,0.0129774,0.058753386,0.045485076,0.030141419,-0.03207994,0.0005391368,0.059815396,-0.024945788,-0.015731376,0.03772501,-0.0420839,-0.016904276,0.01055186,0.0026521205,-0.016097292,-0.04186693,0.00862573,0.0043795933,-0.03669697,0.0040779896,0.004674534,-0.00045328125,-0.021928942,-0.084053025,-0.056464653,-0.04720006,-0.056647718,-0.053375885,-0.013594446,-0.057642657,-0.031802654,-0.059844926,-0.0006849412,0.071130775,-0.06180844,-0.015735712,0.049871054,-0.052262258,-0.062080998,-0.009373032,-0.0035400141,-0.017489983,-0.010928247,0.013377849,-0.016782833,-0.027027585,-0.031837966,-0.021213908,-0.013591755,0.03086633,0.070742,0.03431464,0.055169523,0.088736966,0.0755529,0.033111993,0.06942698,0.08344642,-0.0062868977,0.007050012,-0.014808977,-0.0015916263,-0.0041616606,-0.02011433,0.008564249,0.00071764336,-0.00318124,0.03422682,-0.00083937234,-0.019257732,0.019449286,-0.020520011,-0.011192113,0.0017196934,0.020076634,0.026302123,-0.012507628,0.0155718075,0.012415656,-0.0013157288,0.02778934,0.018568397,0.013150588,0.026891213,0.05391851,-0.015543442,-0.023328122,-0.014444861,-0.014946488,-0.034943994,-0.03663383,-0.0061600492,-0.016221238,-0.04776323,0.005611771,-0.001347353,-0.024332635,0.008814723,-0.0077450597,0.013273807,0.017297141,0.02559245,0.018146766,0.037932254,0.07764025,0.014050935,0.075591564,0.1030774,0.07572007,0.07007082,0.12895784,0.09049341,0.013212464,0.009900246,-0.014055147,0.0054062726,0.015442428,0.0050881905,-0.023603981,0.018932052,0.0144367935,-0.00348907,0.01940062,0.014849072,-0.0027984937,0.004263965,-0.008390234,0.01360944,0.0058771716,0.001991477,-0.02039562,0.022170743,0.025372157,0.014338905,0.03643105,0.015922153,0.024444735,0.005729992,0.01602127,-0.0138526205,-0.015658671,-0.014478269,0.012456223,0.021323914,0.018114677,0.06286382,0.09831649,0.07502373,-0.019349415,-0.005129757,-0.011246939,-0.019949023,-0.007548578,-0.017877584,-0.036188684,-0.021757403,-0.0068806615,-0.036379736,0.003934491,0.0068818377,-0.04763889,-0.010576669,0.009132122,-0.046221785,-0.037079077,0.011617927,-0.021678198,0.0066186287,0.022494493,-0.01784923,-0.008437285,-0.017819827,-0.011504518,-0.018719908,-0.016856924,-0.0003716351,0.031839985,0.016090859,-0.013565973,0.023736596,0.033056434,-0.0017774223,-0.015804883,0.02933399,-0.03655535,-0.03752607,-0.036204927,-0.033584148,-0.032926504,-0.053433903,-0.030536467,-0.042668175,-0.013185392,-0.0051099886,-0.0035715885,0.018968297,-0.012343003,-0.038432274,-0.02835904,-0.039632674,-0.03909628,-0.017350152,0.00093649846,0.008482957,0.012964584,-0.0040661315,0.0013308126,0.00029703157,0.019217003,0.018291203,-0.00583696,0.00018318686,-0.0003111981,-0.04687514,-0.054189917,-0.002584406,-0.008885261,-0.058120597,-0.036832556,-0.024018241,-0.0053466717,-0.02045153,-0.031227525,-0.009089738,-0.00059460104,0.002074124,-0.011976802,-0.0068000816,0.004977308,0.007923731,-0.010672978,-0.01855992,0.004106565,-0.006916864,-0.004451563,-0.0067204395,-0.0134111615,0.0010064701,-0.0010398849,0.0005676189,0.0055016438,-0.031787246,-0.016502654,-0.003310856,-0.01902426,-0.013222135,-0.0011541996,0.010914368,-0.001909769,-0.0010896887,0.023105234,0.021745577,0.003376982,0.028559443,0.03646714,0.0021410456,0.006477438,-0.021637179,-0.022585433,-0.0014065215,-0.028481683,-0.047947496,0.008636768,-0.027506525,-0.03358013,-0.034215737,-0.0150414705,-0.020083934,-0.01918003,-0.0072803292,-0.02725902,-0.024512887,-0.013681777,-0.03710207,-0.007094651,-0.022320371,-0.014408661,-0.023672529,-0.014214145,-0.0017601728,-0.053682975,-0.022763994,0.0014478309,0.024369448,0.015704365,0.013191118,0.022361169,0.0024865398,0.016916813,-0.011745457,-0.006941898,0.007969563,-0.030874236,-0.02087315,0.0056824614,-0.054886494,-0.038602747,0.0049748016,-0.057459682,-0.03974561,0.0055912174,-0.0036117062,-0.006196552,-0.0064198677,0.0009801083,-0.022070214,-0.014062469,0.004558204,-0.009381774,-0.010273739,-0.028217673,-0.007371186,0.025726704,0.014396576,0.004826875,0.030239182,0.019171769,0.0035224787,0.009714276,0.030492766,0.011922659,-0.018353472,0.04571622,-0.012917653,-0.04529213,0.039813854,-0.0017058763,-0.04263968,0.017738748,0.03238852,0.030528944,0.027163431,0.035189603,0.027025182,0.012840088,0.02750394,0.011594805,0.005013563,-0.012820819,-0.006987665,-0.0050353315,-0.008197639,0.009791729,-0.009082231,0.014543289,0.018810611,-0.031738408,-0.011104311,-0.0012884968,-0.021564467,-0.013269117,-0.0050978777,-0.012719982,-0.017126195,-0.02356277,-0.0016016649,5.8622718e-05,0.0028982155,-0.00070268335,-0.0016551809,-0.0005222281,0.00036967604,-0.003648669,-0.00016070095,-0.008823003,0.010516318,0.012070116,-0.01453259,0.009319302,0.0038836156,-0.0065085134,-0.024933357,-0.0057275635,-0.023161255,0.014247422,0.017780906,-0.007471768,-0.0048401062,0.0018028471,-0.001694692,-0.0127250245,-0.0020356847,-0.012088387,-0.01920211,0.0022412331,-0.03904534,0.0028743905,0.01146524,-0.045850344,-0.02008805,0.013422326,-0.014034559,-0.029137984,-0.039558716,-0.031271324,0.008675519,-0.00036615002,0.0088698445,0.035034202,0.038025152,0.011799236,0.00380109,-0.0003076404,-0.0017878707,0.006865748,-0.0066114715,-0.0033259282,-0.0017248408,-0.0032096086,-0.0034595206,0.015053358,0.01946015,0.006594927,0.00908325,0.017649392,0.014459099,-0.0017196727,-0.0012571098,0.0109832315,0.00046203655,-0.009508198,0.00812642,0.014044433,-0.003941501,-0.0077190464,0.0054761413,-0.0023417291,0.033582192,0.027686225,0.011801736,0.03443213,0.019507714,-0.0074101114,-0.016098274,-0.008457788,-0.005250893,-0.015873514,-0.0058448636,0.008868501,0.020823836,0.011840727,0.013100433,0.014644222,0.033562865,0.024945606,0.010894168,-0.016058857,-0.0129944235,-0.008721015,-0.007881132,-0.013434774,-0.02407581,-0.014745917,-0.009837832,0.01775327,0.0318427,0.031616572,0.03163002,0.048677456,0.052390262,0.024951225,0.036600117,0.025779018,0.01879687,0.052145876,0.052782185,0.04489653,0.06613712,0.054713577,0.025717169,0.03766875,0.040217157,0.022587925,0.012043885,-0.005394406,0.041133024,0.037937388,0.00965996,0.0250332,0.025307344,0.020098383,-0.0010562616,-0.015064164,0.0013315119,0.0064293826,0.0042050676,-0.0022935206,-0.0043420475,0.019974438,0.011116864,0.026672985,0.014508041,0.023754964,0.009582397,0.0070302826,0.029110001,0.017053694,0.018605502,0.03787418,0.06434124,0.05299717,0.012289417,0.070475,0.06512161,0.034439936,0.05118158,0.05759059,0.049326614,-0.042996064,-0.056113202,-0.078533,-0.07389375,-0.06920635,-0.10296562,0.0028219712,0.0048098485,-0.047100965,0.015547259,0.047593538,0.029545872,0.011722986,0.0353012,0.0119180735,-0.025864437,-0.013333943,-0.014553224,-0.017139973,-0.049651932,-0.06318335,-0.048558787,-0.05949306,-0.056215342,-0.064804256,-0.054733314,-0.029721789,-0.013796887,-0.01885324,-0.016405243,0.0022238477,0.018707063,0.028801076,0.004989667,0.034316182,0.03398352,-0.012643784,-0.06387225,-0.08982231,0.034863118,-0.0015184104,-0.05829975,0.0741157,0.029258247,0.0040458227,-0.055289563,-0.04650878,-0.0115606,-0.045960825,-0.0659595,-0.034211244,-0.06219184,-0.09400533,-0.055724483,0.01850891,-0.005119921,-0.018792879,0.050955072,0.01865503,-0.0067641963,0.04107737,-0.00028690448,-0.022717066,-0.002965429,-0.001305201,-0.025682067,-0.0128518045,0.009801568,-0.030345218,-0.034127183,-0.038523316,-0.028823415,0.009830223,0.010814461,0.015609325,-0.017352622,0.031733774,0.017798753,-0.013102593,0.014415024,0.006402639,0.011239277,-0.012891961,-0.01274617,0.038451478,0.022305945,0.0034226796,0.008527415,0.037147984,-0.010293632,0.03180415,0.029286452,0.031651486,0.020422423,0.024201253,0.015886314,0.009533949,0.014681698,0.036418058,-0.067692,-0.047011152,0.002750733,-0.04601695,-0.035882477,0.019740118,0.005834878,0.017739786,0.037617605,0.021142086,-0.000593272,0.0033305178,0.01627307,-0.014269728,-3.310456e-05,0.007335202,-0.0066520595,0.004723558,-0.0458753,-0.013109529,0.005032419,0.010522342,0.010403135,-0.0051512136,0.016336264,0.012092761,0.011775696,-0.02771449,-0.038780656,-0.04707914,-0.05041169,-0.04818773,-0.06308505,-0.04252553,-0.069891654,-0.048888944,-0.02145433,-0.033173192,0.0026112702,-0.019022094,-0.0114206355,-0.008316154,-0.0040381,0.008318371,0.017617498,0.017419409,-0.003234528,-0.0032444056,0.031176994,0.016012287,-0.012101413,0.03894343,0.011479968,-0.020312296,-0.04397215,-0.03810425,-0.044425808,-0.027077343,-0.009099701,-0.013502938,0.017174179,0.039488588,0.027391948,0.03532869,0.042730726,0.042666487,0.028239151,0.04944229,0.038168576,-0.010425247,-0.011424949,-0.015636193,-0.03218207,-0.04877844,-0.05183891,0.03187576,0.0042507895,-0.02407689,0.025532825,0.028734855,-0.0023278694,-0.019758366,0.022468053,0.0666563,-0.02017599,-0.0019912142,0.025219647,-0.027271567,-0.025647987,-0.01767125,-0.024884287,-0.02629309,-0.032085035,-0.036338996,-0.011980349,-0.017276997,-0.0061198976,-0.017287357,-0.013700411,0.027529635,0.011526745,-0.0069691134,0.00031560572,0.004941238,0.0035745022,0.013666572,-0.025205418,-0.033836603,-0.040170807,-0.021778962,0.011062251,-0.012958633,0.012708955,0.035831243,0.037175674,0.060198653,0.045204945,-0.009549207,-0.0037711274,0.017168066,0.018237691,-0.00617698,-0.011648551,-0.018452998,-0.012338922,0.004524017,-0.01169702,-0.013085229,-0.03071743,-0.024709256,0.0075925672,-0.03532671,0.00064557017,-0.003987422,-0.011018785,0.0022578542,-0.0064136665,0.021448042,0.0052567488,0.008852946,0.041029476,-0.012001752,-0.0020029675,0.02049187,0.0021273058,-0.02776756,-0.030957907,-0.0072631217,-0.04016828,-0.03317724,-0.009622148,-0.046569653,-0.030464908,-0.015436791,-0.0131462775,0.02482083,-0.009357085,-0.0032666712,0.010255697,-0.04503424,-0.017353866,0.03509592,0.012664728,0.011248103,0.0028634781,0.023542654,0.0069539743,-0.007904861,0.019096192,0.005561872,-0.004722887,-0.0663407,-0.06679949,-0.07698576,-0.0103770355,-0.0026170106,-0.024850061,0.019671686,0.019371174,0.012995108,-0.028942158,-0.05594213,-0.037186757,-0.038248215,-0.052199073,-0.026905654,-0.035784166,-0.034684684,-0.005012461,0.04074815,0.029882524,0.0344361,-0.0052196593,-0.02157642,0.026384685,-0.064023115,-0.06139912,-0.018272838,-0.03548728,-0.022553992,-0.033537805,-0.069719575,-0.06163988,-0.044090394,-0.02211175,-0.020272145,-0.05951219,0.007510436,-0.007481288,0.016171575,-0.028525744,-0.040554695,-0.0069377813,-0.039104097,-0.04263349,-0.03595641,0.042059463,0.02578536,-0.0013398753,0.049391538,0.019216094,0.0037838842,0.043100823,0.015928702,-0.009506831,0.018815763,0.01682856,0.01629219,-0.0052152597,0.0032466017,0.019682745,-0.017765328,-0.0048165983,-0.0004613887,0.022031795,-0.010813358,-0.008153647,0.019334132,-0.009821713,-0.019575195,0.026163377,-0.0011235722,-0.0027750242,-0.0010238504,-0.005891816,-0.009865468,-0.02865155,-0.0070414986,-0.029362477,-0.013430718,-0.0115484875,-0.02873896,-0.054587994,-0.07257916,-0.06824932,-0.07854685,-0.09762666,-0.0964535,-0.055284172,-0.070633315,-0.05780207,0.018862374,0.01322353,0.019852512,0.012473609,0.018261166,0.030477395,-0.0105006695,0.037390865,0.038279068,0.0012928112,-0.030820603,-0.021735298,-0.015486677,-0.025258746,0.010513731,0.00044808924,-0.016017081,-0.003952488,0.031130336,-5.589332e-06,0.017094942,-0.0015604205,-0.02942982,-0.005405998,-0.03189928,-0.002226919,-0.00034406252,0.035499405,0.038042773,0.033968452,0.046773065,0.06319356,0.029034771,0.039067797,0.051319383,0.04649495,-0.004607846,0.03250598,0.03050087,0.016238151,0.022239957,0.030380882,0.036845047,0.045661364,0.029615972,0.0047635846,0.006066113,0.012820081,-0.0059499573,0.022596236,0.017545935,0.04828921,0.034258183,0.015246396,0.02528427,0.0511654,0.038977735,0.01272914,0.048886336,0.058804933,0.0013004898,0.06604637,0.061901312,-0.01539421,-0.02068982,0.007635112,-0.0008115205,0.003634863,-0.00998876,-0.010554808,-0.025576474,-0.01123158,-0.024944773,-0.00041708618,-0.02673472,-0.041414324,-0.038406204,-0.04902773,-0.015358184,-0.043440066,-0.034578864,-0.013019916,-0.032515604,0.0096962415,-0.03220314,-0.033370014,-0.000281382,-0.009334307,-0.030676676,-0.028610393,-0.021554463,-0.030745493,-0.021827383,0.001822129,0.008959655,-0.019048555,-0.0030729668,-0.0040046973,-0.008583949,-0.020216448,-0.03548214,0.005446265,0.0020975927,-0.025452685,-0.0068106176,0.0043979133,0.0026693698,0.0036844767,-0.030773496,-0.030116968,-0.002354072,-0.016843706,0.008237086,-0.018793384,-0.0155264605,-0.028072074,-0.029104386,-0.01803675,-0.009800124,-0.026453758,0.009995587,-0.015568612,-0.016697908,0.012841867,-0.004032692,-0.015399113,0.007932503,0.062553145,0.065517746,0.0032729807,0.051158283,0.04797004,0.01592884,0.056139495,0.036674052,-0.020155257,-0.022804817,-0.0019818533,-0.020091783,-0.031149764,-0.045679837,0.0046290946,-0.004998802,-0.0078097065,0.055219244,0.021574182,-0.01832827,0.012396649,-0.001995897,-0.008904605,-0.021229535,-0.02400051,0.0035598713,-0.0145054115,-0.0170947,-0.028591009,-0.0059149577,-0.024066357,-0.045847252,-0.021132918,-0.012822438,-0.021698803,-0.012888007,0.00332461,-0.00740682,-0.03364231,-0.0023274918,-0.018039597,-0.01219023,-0.008672559,-0.01878757,0.0014312639,-0.0020040516,-0.016022043,0.015198556,-0.017654872,-0.010398731,0.015750794,-0.019219253,-0.025852868,-0.00078167964,-0.0011468293,0.008390656,-0.030319488,0.0121157365,0.035176236,-0.012056491,0.02545854,0.024960946,-0.010143242,0.0029431912,-0.009877734,-0.0032797426,-0.0077321557,-0.009004266,-0.012368371,-0.007049155,-0.012055325,-0.013071524,0.01978972,0.01600715,0.036667734,0.029653603,0.036171846,0.018401496,0.025681203,0.012167365,-0.005290507,-0.027237678,0.0005443306,-0.019427469,-0.037436627,-0.033071116,-0.010117398,-0.036162876,-0.037950974,-0.031186229,0.010779076,-0.0070876926,-0.013135975,0.025212925,-0.006611911,-0.013913642,-0.004764155,-0.008312789,0.011610955,0.009052318,0.0258107,0.016024241,0.020222222,0.01856731,-0.02608005,-0.0138860755,0.00676672,-0.018200386,-0.04557965,-0.029193342,-0.022173677,-0.028805217,-0.024665063,-0.0104597155,-0.015741356,0.008910571,0.0066262763,-0.0076787183,-0.04126601,-0.0026558794,-0.0020690972,-0.023779744,0.023958808,0.010073576,-0.0043283827,0.02363232,0.030246375,0.017193807,0.038260017,0.03264124,0.029626166,-0.006582429,0.022446614,0.057395138,-0.020921428,-0.03326584,-0.056146517,-0.042724837,-0.027625578,-0.026454967,-0.02649104,-0.036045033,-0.019084865,-0.049282063,-0.064578876,-0.015374762,0.0105319815,0.010698261,0.019441256,0.07503702,0.060489416,0.033349,-0.05206091,0.025046056,0.037889432,-0.056928035,-0.0135450065,0.05525942,-0.07832953,-0.037071824,0.020013452,0.023060001,0.04573835,0.04126384,0.009056479,0.033712175,0.046572402,-0.011944564,-0.017379828,-0.013072431,-0.030325765,-0.030968029,-0.045853667,-0.0032920984,-0.029157048,-0.056383878,0.0446318,0.00510058,-0.013968453,0.014202703,0.047222733,0.044336386,0.026949018,0.070895284,0.07420648,0.04392819,0.07362145,0.04059994,0.016922908,0.021006461,-0.0020073124,0.029023014,0.019576123,0.014194447,0.03596304,0.014118971,-0.00823924,-0.01989734,-0.0058746175,-0.00037290508,0.006192091,-4.3873246e-05,-0.004558052,0.036465466,0.025326695,0.0028220997,-0.009955747,-0.020477088,-0.027018774,-0.0006229271,0.011973295,-0.02052297,0.048045542,0.021792203,0.013791693,-0.0030517364,0.01725902,-0.022046184,-0.011295986,0.0028585459,0.027542451,-0.023451895,-0.0012818205,0.010783408,0.015092104,1.6762058e-05,-0.022736333,0.037604816,0.017363822,0.006779266,0.00814307,0.049877815,-0.01679646,0.033703487,0.017021284,0.028748749,0.033751957,0.045674156,0.025645277,0.033379022,0.026533509,0.009283567,-0.059262987,-0.12761103,-0.10947593,-0.011558467,-0.09887075,-0.064704105,0.0635161,0.0057888404,-0.04237642,0.0024743294,0.011556674,0.031256612,-0.039862618,-0.0034459569,-0.0004971136,-0.070033595,-0.035022434,-0.024479121,0.078103535,0.13826339,0.08188129,0.053314496,0.12618946,0.08969065,0.008770294,0.03610967,0.014878377,-0.006128052,-0.025431955,-0.03367495,-0.016250532,-0.017011825,-0.048073165,0.008300532,-0.0032809572,-0.007160423,-0.023147106,-0.010735065,0.008916228,-0.02597976,-0.0062498404,0.004745915,-0.010274292,-0.023526408,-0.015507734,-0.041253723,-0.030564541,-0.030364735,-0.040761888,-0.033554446,-0.045552257,-0.016058289,-0.03881787,-0.052255366,0.033093367,0.004964781,-0.009749239,0.03319955,0.0032369692,0.003068073,0.0065128263,0.027720312,0.028106123,-0.045954756,-0.034451544,0.015702408,-0.026583279,-0.014470107,-0.0026345325,-0.008451442,0.009821361,0.022121405,-0.040398255,-0.02697552,0.009285071,-0.038765274,-0.022132538,0.011606553,-0.004138872,-0.008572113,-0.0015529018,-0.04196321,-0.02794033,-0.012185253,-0.015287181,-0.02567574,-0.04809287,-0.027091539,-0.05204733,-0.061131824,0.022953311,-0.024449378,-0.021921303,0.016549636,-0.006584651,-0.022989983,-0.049826678,-0.027320627,-0.006749939,0.058902893,0.08895182,0.07786736,0.06645925,0.058156285,0.041767098,0.009331112,0.04239052,0.032420453,-0.0037213347,0.024510374,0.034584396,0.0013373418,0.00029103438,0.006566505,-0.010348566,-0.016610106,-0.01106582,0.05304945,0.013657888,-0.06382812,0.013889323,0.007089583,-0.053447183,0.00076575123,0.0058386633,-0.009740114,0.030309921,0.030395687,0.018940356,0.06466504,0.043471925,0.012545446,0.012039723,0.005659887,-0.047607828,-0.0014325894,0.013576253,0.02921927,0.0059332214,0.022237483,0.032192882,0.0036417765,0.012887888,0.0037258791,0.006156419,-0.0148800565,0.010217159,-0.029112158,-0.020120908,0.008065379,-0.008560409,-0.025057036,-0.012899813,0.013464346,-0.010535841,-0.018552395,0.012984136,0.015654458,0.016928658,-0.009797001,0.032229174,0.035040084,-0.0015794868,-0.016394893,-0.022152888,0.00878105,0.0014429583,-0.002519512,0.0027145061,0.01596842,0.014962044,-0.010160753,-0.0034385389,0.0127197495,-0.0323005,-0.028895114,-0.017048819,-0.051746476,-0.05974003,-0.02533582,-0.004795979,-0.012413713,-0.018504813,-0.0035353883,-0.03395593,-0.03585521,0.0057696234,-0.028016444,-0.04086381,-0.021934735,-0.010884066,0.014995773,0.0097113475,0.020048983,0.052207984,0.039033644,0.067095995,0.035490133,0.025508972,0.014632114,-0.005273567,0.057183817,0.02953494,-0.031052483,0.042356934,0.014472399,-0.030543609,-0.016431762,-0.026220147,-0.04174912,-0.0038336327,0.0018442965,-0.025045909,0.014281903,0.011177076,-0.018269492,0.016922792,0.02236905,0.02387808,0.0150196655,0.03978739,0.051445466,0.03350761,0.052005205,0.041038144,0.017913982,0.043067027,0.019458931,0.015216274,0.042750895,0.04185295,-0.01578816,0.013340454,0.01755617,-0.0032257999,-0.00058494124,0.026178353,-0.011532895,0.016119502,0.00798489,-0.048271894,0.009928989,0.010839573,0.0023540386,-0.005620317,0.00731242,-0.023583844,-0.007886306,-0.017268281,-0.010825379,-0.0093978895,-0.01942672,0.028315352,0.05715596,0.061835878,0.046801366,0.05154213,0.0591798,0.0063825496,0.010341631,0.01753229,0.006817619,-0.0070465747,-0.0007645396,-0.03798129,0.0014650353,0.022457091,-0.041008223,-0.0041105016,-0.008062994,0.021278437,0.020871956,0.016202733,0.032180827,0.023023123,-0.0012168968,0.023594955,0.009232931,-0.013525759,-0.011941151,0.023114612,0.038840417,0.001483299,0.011719005,0.029767023,0.009773948,0.0013978373,-0.006358,-0.0056347735,-0.042200014,-0.0064080814,-0.020353114,-0.042208135,-0.0072516724,-0.019422425,-0.014518239,0.016036043,-0.0020563817,-0.014942434,-0.023157151,0.020406898,-0.0212525,-0.04023553,0.03120021,-0.009086186,-0.032323524,-0.030022873,-0.022382718,0.006287845,-0.0007872636,0.0043432945,0.028879402,0.027272684,0.01404732,0.008140735,-0.04390329,-0.044944584,-0.0032583098,-0.043646537,-0.022726335,0.016696895,-0.016055312,0.021793112,0.033642035,0.014926138,0.007157725,0.0139114065,0.0005826217,-0.0050703366,-0.01337124,-0.028055277,-0.018524664,-0.032137703,0.017618591,0.02294586,0.015122266,0.029527435,0.0230842,0.031921327,-0.01170893,0.025876451,0.028098667,0.073865905,0.061886616,0.016662782,0.05786657,0.06334246,0.050952587,0.016349541,0.053235732,0.013290339,0.0073769796,9.460675e-05,-0.0049559837,-0.007976076,-0.014173186,-0.002210804,-0.0119027505,0.0105160605,0.028353523,-0.013501405,0.033774596,0.024800641,-0.010360525,0.025881767,0.05136594,-0.016636241,-0.009581937,0.03445549,-0.012387151,-0.020757437,-0.013809509,0.006292882,-0.016458811,-0.031641368,0.0038606466,-0.000395321,-0.01608552,-0.028810807,-0.03680238,-0.043137148,-0.033726715,-0.04111437,-0.037717246,-0.030837493,-0.028840566,-0.0077962303,0.03715894,0.038380116,0.038044367,0.0370807,0.053491168,0.07871461,0.03697567,0.062126726,0.049088463,0.017699039,0.01597562,0.002930358,-0.0128820455,0.009755628,0.026896384,-0.01829221,0.020987628,0.041080758,-0.015637446,-0.0043932553,-0.019695893,0.018294599,-0.0063538915,-0.027679337,0.042697623,-0.012676926,-0.03037494,-0.083459266,-0.04552787,0.017785776,-0.08833833,-0.0417631,0.005303479,-0.056015175,-0.036464322,-0.015004849,0.02984582,0.020278232,0.0060218764,-0.0010854271,0.015836976,0.0065392233,-0.011725368,-0.032396104,-0.02114554,0.046275444,0.040498458,0.028471723,0.04893987,0.04290459,0.050931707,0.0013212935,-0.0058064405,0.0071691456,-0.0037942394,0.0008869681,-0.008746996,-0.0223861,0.0005734559,0.007967296,-0.014233753,-0.02540466,-0.035151448,-0.012108343,0.026409067,0.031950448,-0.02580228,0.021845505,0.04607721,-0.055307813,-0.0096226325,0.018916821,0.047192,0.027387213,-0.011260448,0.011442,-0.008764987,-0.018392175,0.022656271,0.010749566,-0.04135143,-0.03588768,-0.03180884,0.035256054,-0.0069027757,-0.0052349316,0.04719427,-0.05769789,-0.04257339,-0.0059039984,0.007572294,0.0067470707,-0.02416601,0.036371652,0.049933597,0.0015360665,0.07172291,0.055822566,0.05304766,0.0136128655,0.021427004,0.0346899,-0.0058394116,-0.03634335,0.027569614,-0.037829738,-0.06964491,-0.036774598,0.018555574,0.01814314,0.010257639,-0.018210499,-0.04872289,-0.018747881,-0.005784486,-0.011097735,0.001420928,0.00088927586,0.03319264,0.023585219,0.025849668,0.049492653,0.055518597,0.025543507,0.053419597,0.05276244,0.018671494,0.020091437,0.022940848,0.030896496,0.013067245,0.008733691,0.024072466,0.0020212508,0.007539073,0.123352185,0.09112321,0.026589228,0.041492704,-0.026153985,-0.035040274,-0.046347056,-0.10642315,-0.08136688,-0.005743261,-0.0054111835,-0.033502843,-0.005513838,-0.00012586461,-0.029568626,-0.003179076,-0.0096393945,-0.0113509875,-0.0054445933,-0.004892778,-0.008692885,-0.0026535003,0.010644922,0.006079542,-0.01954748,0.016900187,0.015420458,-0.07270118,-0.09974536,-0.07936065,-0.06545322,-0.07404707,-0.060049973,-0.022122763,-0.012153672,0.00091040623,-0.027240383,-0.022683859,-0.0016971796,-0.019632803,0.010356472,-0.0012017336,0.024082249,0.039413635,-0.01635892,0.050409954,0.060630552,0.011532692,0.015235449,0.027698694,0.01114216,-0.036939938,-0.011904582,-0.0016244857,-0.058516458,-0.08888457,-0.07650949,-0.016317574,-0.028540568,-0.03943896,0.026884468,0.018784361,0.008269557,0.01829377,-0.017191561,-0.01476916,0.015953703,0.0060703894,0.0087183425,0.034017287,0.07145435,0.05002072,-0.031072978,-0.036808096,-0.029284706,0.03799284,0.0059495033,0.035033822,0.0575533,0.0896953,0.07447871,-0.021446547,0.014187959,0.0027371116,0.019049283,0.045399867,0.047546223,0.042816192,0.09377703,0.093132876,0.00847114,0.021239458,0.0315402,0.009934764,0.019046936,0.04799042,-0.01849376,-0.010140767,-0.010146054,-0.013709482,-0.005803306,-0.011092968,-0.035835095,-0.052135374,-0.025367135,-0.058132652,-0.06547541,-0.048698913,0.025667492,0.009547207,-0.0009328612,-0.025706733,-0.011957636,-0.009620629,-0.002233318,-0.023205092,-0.020915702,-0.05127842,-0.05264703,-0.029950615,-0.034416836,-0.012501126,-0.011954231,0.03367456,0.026574278,-0.010575647,-0.0174393,-0.06249599,-0.04923749,-0.00831747,-0.039855983,-0.049813513,0.021634975,-0.015085978,-0.027934305,0.0072179725,0.02146343,0.0071301335,0.0063394327,-0.015733436,0.003536523,-0.0137714045,0.004420096,-0.00028115764,-0.016854918,-0.0378535,-0.034561012,0.009743327,-0.004235372,-0.033436947,0.008311956,-0.0037956033,0.013451884,-0.015879493,-0.01514627,-0.0091956025,0.019806838,0.025386237,0.015997555,0.020551149,0.018561473,0.012117317,0.045557193,0.06738622,0.033819385,0.04721473,0.057987556,0.036366235,0.012120527,0.03032387,0.025370838,0.02338656,0.080058604,0.11394025,0.034232188,0.014962537,0.04614177,0.009003026,0.008849901,0.015061809,-0.029995533,0.0027925577,0.03260295,0.010715205,0.026218947,0.039892457,0.045268007,0.011654641,0.008454814,-0.0,-0.0,-0.0,-0.0,-0.0,-0.0,-0.0,-0.0,-0.0,0.0,-0.0,-0.0,-0.0,0.0,0.0,0.0,0.0,0.0,0.0,0.0,0.0,0.0,0.0,-0.0,-0.0,-0.0,0.0,-0.0,-0.0,0.0,-0.0,0.0,-0.0,0.0,-0.0,-0.0,0.0,0.0,0.0,0.0,0.0,-0.0,0.0,0.0,0.0,0.0,0.0,0.0,0.0,0.0,0.0,0.0,-0.0,0.0,-0.0,-0.0,-0.0,-0.0,0.0,-0.0,-0.0,0.0,-0.0,0.0,-0.0,0.0,-0.0,-0.0,-0.0,-0.0,-0.0,-0.0,-0.0,-0.0,-0.0,-0.0,-0.0,0.0,-0.0,-0.0,0.0,0.0,0.0,0.0,0.0,0.0,0.0,-0.0,-0.0,0.0,-0.0,-0.0,0.0,-0.0,-0.0,-0.0,-0.0,-0.0,-0.0,-0.0,-0.0,-0.0,0.0,-0.0,0.0,0.0,-0.0,-0.0,-0.0,-0.0,-0.0,-0.0,0.0,-0.0,-0.0,-0.0,-0.0,-0.0,0.0,-0.0,0.0,0.0,0.0,0.0,0.0,0.0,-0.0,0.0,-0.0,0.0,0.0,-0.0,0.0,0.0,0.0,-0.0,-0.0,0.0,-0.0,0.0,-0.0,0.0,0.0,0.0,-0.0,0.0,0.0,0.0,0.0,0.0,0.0,0.0,0.0,0.0,0.0,0.0,0.0,0.0,-0.0,0.0,0.0,0.0,-0.0,-0.0,-0.0,-0.0,-0.0,-0.0,-0.0,-0.0,0.0,-0.0,-0.0,-0.0,0.0,0.0,-0.0,0.0,0.0,-0.0,-0.0,0.0,0.0,-0.0,0.0,0.0,0.0,0.0,-0.0,0.0,-0.0,0.0,-0.0,0.0,-0.0,-0.0,0.0,0.0,0.0,-0.0,-0.0,0.0,-0.0,-0.0,-0.0,-0.0,-0.0,-0.0,-0.0,-0.0,-0.0,-0.0,-0.0,0.0,-0.0,0.0,-0.0,0.0,0.0,0.0,0.0,-0.0,0.0,-0.0,-0.0,0.0,-0.0,-0.0,-0.0,-0.0,-0.0,-0.0,-0.0,-0.0,0.0,0.0,-0.0,0.0,0.0,-0.0,-0.0,-0.0,-0.0,-0.0,-0.0,0.0,-0.0,0.0,0.0,0.0,0.0,-0.0,0.0,-0.0,0.0,-0.0,0.0,-0.0,0.0,-0.0,0.0,0.0,-0.0,0.0,-0.0,-0.0,-0.0,0.0,0.0,-0.0,-0.0,0.0,0.0,-0.0,-0.0,0.0,-0.0,0.0,-0.0,-0.0,-0.0,-0.0,-0.0,0.0,-0.0,-0.0,0.0,0.0,0.015936157,-0.02449643,-0.047188275,0.0027576566,-0.013530815,-0.04265319,0.007071166,-0.009134125,-0.017272899,0.03985726,0.07347307,0.04366577,0.011104434,0.008714956,0.02281354,-0.03901157,0.0011079919,0.018057544,0.0151802385,0.009762137,-0.025159035,0.0044021173,-0.024078086,-0.007684966,-0.0138270855,-0.054031443,-0.05436114,-0.023717556,-0.005213135,0.010533926,-0.011099839,0.005134596,0.022812197,-0.014368546,-0.042378493,-0.012112572,-0.06401462,-0.05191789,-0.05223731,-0.04811573,-0.042565107,-0.05563576,-0.015829394,-0.04599117,-0.029416729,-0.004264461,-0.0011597867,0.00528037,0.00058633654,0.00034097943,-0.0036061027,-0.024889098,0.0005299537,-0.0057217213,-0.036606975,-0.026562518,-0.029977007,-0.014441313,0.02266921,0.025400477,0.0031535665,0.025758207,0.041005354,-0.016978985,-0.03791224,-0.043738745,0.0035037494,0.0039735003,-0.01295933,0.008968587,0.02911016,0.032838635,0.0059601916,0.000258328,0.024468794,0.028373022,0.025946852,0.024932882,0.040532425,0.07136859,0.04452924,-0.007244262,-0.033546064,-0.049770176,-0.02753727,-0.029326977,-0.028414369,-0.027106056,0.0051239105,-0.0036076326,0.0068095718,0.05799,0.04969545,0.035047036,0.041937836,0.04290213,0.0012857978,0.011598578,0.017048554,0.021695951,0.03471838,-0.009114317,0.07206612,0.045259744,0.03577254,0.008574589,0.016394464,5.9356353e-05,-0.036780726,-0.074827105,-0.044957932,-0.049842592,-0.027813748,-0.038470056,-0.029210176,-0.01812048,0.008450944,0.007166631,0.009344218,-0.028506238,0.023270091,0.03629593,0.0016781482,0.014241148,0.01852742,0.030518938,-0.04655118,-0.011929473,-0.0052397586,-0.017407522,-0.040859405,-0.018843714,-0.007305333,-0.030582482,-0.04002642,-0.026578855,-0.014196157,0.013752942,-0.015849454,-0.011421199,0.025757307,0.04072987,0.04725407,0.031525183,-0.034000482,-0.012101326,-0.022800911,-0.012967357,-0.017196406,-0.045852438,0.013473895,-0.014411702,-0.038568053,0.017483369,0.047093675,0.012928043,-0.015044219,-0.0091286,-0.008761261,-0.04047837,-0.03625875,-0.043356467,-0.0374147,-0.05672364,-0.059563432,-0.013120861,-0.0071270103,-0.0038949882,0.033325076,0.061673816,0.07490362,0.04996927,0.00032237105,-0.042262908,-0.007413451,-0.023937749,-0.026275061,-0.01704767,-0.011657631,0.00050819083,-0.014862882,-0.019903768,-0.007798248,0.01030824,0.0015499012,0.020047052,0.05727419,0.030669212,0.023226088,-0.04943289,0.013430101,0.029927172,0.007961315,0.005056862,0.05085731,0.04196235,0.030883104,0.054615535,-0.032270476,-0.036880355,-0.00970417,-0.02177284,-0.042410985,-0.031214535,0.006724489,-0.03222514,-8.39956e-05,-0.011501772,-0.02949215,-0.04811911,-0.006452894,-0.0016395355,-0.043801513,-0.028462345,-0.034499824,-0.054500885,0.03092918,0.017714592,-0.008725955,0.012742047,0.032701537,0.041216787,-0.019669078,-0.014225303,-0.011999531,0.0124805905,0.012926869,0.042793125,-0.0006219208,0.017406669,0.0026236668,-0.013423643,0.010023744,-0.019747688,0.01974529,0.009441444,0.0020386016,0.025725426,0.026808016,0.021883106,0.0029198357,0.020259144,0.03431644,0.010605176,0.031128384,0.027274314,-0.012534624,0.0051887007,-0.0204341,-0.017621707,-0.014686339,-0.038497616,0.014039309,-0.0059016873,-0.0082253255,0.003659975,0.011475544,0.029160554,0.03138751,0.049984746,0.021411156,0.023636129,0.011791887,-0.01008035,0.022088634,0.022945406,0.015259194,0.010008266,0.025268793,-0.0056852545,-0.051241044,-0.051824838,-0.027235242,-0.035131454,-0.013081899,0.0056739356,0.041907884,0.017596615,0.030420545,0.01846493,0.0054119923,0.020546459,0.018188719,0.02253593,0.022522762,0.0042718626,0.03525397,0.042236693,0.03972676,0.025882445,0.03966573,0.0057504005,-0.009619391,0.0155485505,0.0014932572,0.012700715,0.026461959,-0.012935527,0.002616728,-0.013326303,-0.0020762484,0.0111842835,0.004393329,0.013329398,0.004946889,0.028440628,0.011959854,0.008812241,0.011713993,0.009027984,-0.0044719214,-0.009152061,0.01968446,0.028807618,0.014487254,-0.008987121,0.000642462,0.020037474,-0.005514908,-0.008274014,0.00907602,0.028233685,0.045415334,-0.012929285,-0.01798957,-0.043627165,-0.05072901,0.027088994,-0.004589966,-0.02646018,0.05710111,0.067662515,0.0155658135,-0.030483197,-0.0420087,-0.034310307,-0.006078479,-0.02393072,-0.03833676,0.016836973,0.009817838,-0.0024554187,-0.028979143,-0.03272694,-0.011378823,-0.02044452,-0.03206967,-0.044206824,0.002414895,-0.010373499,-0.03210618,0.05251587,0.04433863,0.012236969,0.004977957,0.04157126,0.003521232,-0.034994297,-0.011768134,-0.023545872,0.007866251,0.0049133305,0.008428239,0.012740691,-0.0108090695,-0.015283485,0.0009020082,-0.0108793145,-0.021931458,0.017909179,0.03970702,0.07023951,-0.0037318543,-0.017828453,0.03276681,-0.005738962,-0.04083594,-0.025040006,-0.004230071,-0.028408589,0.01572908,-0.016696243,-0.03815915,0.0091687115,0.0035173187,-0.014224593,-0.017335072,-0.017575258,-0.08507228,-0.047905456,-0.048894208,-0.052955363,-0.04755896,-0.01653961,-0.028297413,-0.043147452,-0.0019099948,-0.0038192063,-0.018292125,-0.012499088,-0.01658438,-0.0084102405,0.008243379,0.0048311967,-0.0060997913,-0.021623552,-0.012585138,-0.030470647,-0.009409386,-0.0031790438,0.008272378,-0.035011183,-0.029150458,-0.011271546,0.004336172,-0.011225888,0.0101345675,-0.015424491,-0.055456128,-0.04055333,-0.018718733,-0.0663714,-0.049682956,-0.021075023,-0.0035308925,-0.023203645,-0.033214066,-0.03827246,-0.029391754,-0.013344778,-0.03645852,-0.019198015,-0.0418753,-0.022084314,-0.038747557,-0.0038250538,-0.027373375,-0.012840755,0.013603934,0.04559016,0.045060564,0.0006330767,-0.032330163,-0.022486104,0.030760463,0.0058428594,-0.018713573,0.051327057,0.02505826,0.009449689,0.006273302,0.002037121,-0.014254076,-0.011430475,0.010016222,0.005410016,-0.008391776,-0.030381432,-0.007728927,-0.020182772,-0.021831239,-0.026342219,0.001718975,0.03987369,0.028185345,0.009107647,0.06633085,0.05495134,-0.023707986,-0.036355402,-0.006904633,-0.016129417,-0.020821443,-0.0016773508,-0.008657237,-0.032902766,-0.027006738,-0.015918799,0.0131471725,0.03591299,-0.011908717,0.014072025,0.021468718,0.011170838,-0.0035992886,-0.007145902,0.027530335,-0.008354283,0.0037047442,0.017747777,-0.035515662,-0.003940819,0.00022943022,-0.040046226,-0.035297863,0.012247105,0.0032734121,0.01454836,-0.0022540449,-0.0033657323,0.0020354341,-0.035595495,-0.037822884,-0.041007426,-0.03280316,-0.024901995,0.0023122772,0.010979851,0.010725695,0.018068813,0.014520257,0.0038506615,0.0015263304,0.06885408,0.10322525,0.05979852,0.12367349,0.15213129,0.13834496,0.121635854,0.16705033,0.13081455,0.0011470399,0.003165933,-0.002471806,0.011849862,0.015458147,0.009692243,0.024613986,-0.0056390055,-0.005583478,-0.0023481802,0.006331387,-0.040026017,-0.03361488,-0.03544063,-0.025998475,-0.035676125,-0.0433206,0.0026267765,0.028967816,0.031525757,0.008240301,0.037385833,0.05015225,0.018655714,0.034607664,0.013013071,0.0021878248,-0.006850639,0.01799282,-0.00827663,-0.012353508,0.006195457,0.0042952057,-0.005626665,-0.012691832,-0.011333671,0.006369249,-0.018467994,-0.019119035,-0.017020896,-0.051823664,-0.012652099,-0.016683703,-0.028583048,-0.019648861,-0.016142633,0.017189564,-0.0017675267,-0.027955512,0.010775931,0.04042495,0.022494916,0.0052042343,0.036416307,-0.025867313,-0.050930846,-0.0071007265,-0.039309576,-0.043356758,-0.010283283,0.009792448,-0.026949503,-0.032368038,-0.059844304,-0.06826742,-0.04377816,-0.08785469,-0.056397885,-0.04396285,-0.057583045,-0.036853857,-0.01794299,-0.017819552,0.006212121,-0.010044744,0.02924382,0.032010242,0.0028113024,0.07468995,0.067878895,0.01737116,0.031582218,0.023873234,0.020688767,0.016323743,-0.00032562384,0.043355666,0.042869985,0.012006255,0.014905257,-0.022957388,-0.019114664,-0.049910165,-0.010321467,0.0008386877,-0.035850264,-0.014499962,-0.0041755238,-0.0236199,-0.029694345,-0.02063754,-0.002665493,0.010175518,-0.007282581,0.018786877,0.036999993,0.013064499,0.03687502,-0.06327297,-0.027883591,0.016511442,-0.0786139,-0.020591427,-0.0059243143,-0.016633255,0.0050818995,0.019643322,0.03235044,0.06181524,0.04347711,0.049098004,0.046454128,0.04177788,-0.0053676665,-0.024121007,-0.0041216547,0.013466636,0.0052098176,-0.009732955,0.038326725,0.028202109,0.017991183,0.08160127,0.07156132,0.025099866,0.010558221,0.003731404,-0.019634392,0.035443816,0.052332398,0.025689373,0.032524485,0.02845224,-0.005683026,0.045041464,0.082951605,0.033567596,0.10578151,0.05620694,0.05561103,0.09549115,0.0992954,0.041204486,-0.0025313878,-0.018247474,-0.04354185,-0.016129415,-0.0149642015,-0.041250516,0.012310172,-0.013125769,-0.0450367,0.010929283,0.0063240356,0.018667404,-0.014071105,0.011188469,0.012518821,-0.045463625,-0.037781883,-0.009833943,0.017207935,-0.010691491,-0.045582343,0.011616619,0.0050266422,0.0016744583,0.009610829,0.031038674,0.0051492252,-0.04425681,-0.041362274,-0.059387468,0.036262844,0.019468363,0.018727703,0.040076938,0.047009096,0.050988857,-0.005315773,0.028636236,0.015334051,0.12299412,0.12902372,0.070939325,0.108779244,0.11336888,0.10317058,-0.0073333858,0.00036791293,0.006623986,0.023474596,0.043790527,0.05923953,0.029570188,0.045562517,0.054357495,-0.06440672,-0.024029812,-0.021365363,-0.039376456,0.009511915,-0.0036972594,-0.012767061,-0.002484705,-0.002119789,-0.0013720623,-0.012610921,0.005136395,-0.005479633,-0.008412661,-0.029729972,-0.016519945,-0.017141603,-0.051953394,0.002481869,-0.054759115,-0.03829769,-0.0006345491,-0.03587721,-0.04927524,-0.035757005,-0.06738514,-0.023705231,0.014089269,0.051226296,0.0020915368,0.054011475,0.04238709,0.004768023,0.0654581,0.05007606,0.018322084,-0.017254695,-0.014558122,0.0062593385,0.039503213,0.022770178,0.0117589375,0.010755029,0.030094689,-0.0062352046,-0.0048587527,0.018512728,0.004115819,-0.0026019234,-0.009849088,-0.021843158,0.024162242,-0.001539443,-0.0588288,0.036513038,0.030047795,0.018755037,0.003188988,-0.008338647,0.025860392,0.0016202113,0.020846091,0.027121183,-0.015809773,-0.047507796,-0.011898777,-0.05171354,-0.05735636,-0.04701243,-0.036511615,0.0035613333,-0.021577537,0.025829976,0.011134666,0.006072689,0.01939977,-0.0027561216,-0.0027106754,0.045585115,0.022449067,0.014395867,-0.008541578,-0.006292015,0.02706795,-0.019383494,-0.009537602,0.013298042,0.011516769,0.008964322,-0.045991022,-0.034438774,-0.022816388,-0.021064984,-0.044122547,-0.052839227,-0.036059916,-0.019156199,-0.046484742,-0.040970653,0.009037551,-0.0096796565,-0.030032698,-0.00015229167,-0.044259183,-0.07276609,-0.006009517,-0.045038898,-0.057948098,-0.027454218,-0.019278975,0.020888604,-0.027906526,-0.004241923,-0.015170673,0.014257378,-0.016548684,0.013092299,-0.017802544,-0.021255648,-0.021253904,0.021433314,0.021931017,0.011996192,0.03525395,0.04150306,0.05310987,-0.018869698,0.026648879,0.037365388,0.017992709,0.06042985,0.0830789,0.017763184,0.07353591,0.07494606,-0.02100748,0.042654,0.07244896,0.031881254,0.047899976,0.035427943,0.020107273,0.030800074,0.028836645,-0.0057614436,-0.024928525,-0.024215711,-0.0025581266,-0.009655207,0.024629878,0.026192477,0.0092617525,0.01417,0.015493309,0.016542742,0.003997705,0.0067946655,-0.018424498,-0.014527221,-0.021718882,-0.053562313,-0.044030707,0.039020147,0.05473445,0.003075798,0.0015296829,-0.004672246,0.0154798925,-0.03317803,-0.0373411,0.014911622,0.06544062,0.04957349,0.019435497,0.048079822,0.04779402,0.021558959,0.005173462,-0.0044015427,-0.033024646,-0.025776228,-0.042746086,-0.05007833,0.00043600975,-0.02096573,-0.01771338,-0.012020852,-0.004223534,-0.0011638253,-0.04423474,0.012657075,0.01999577,-0.03225498,0.009214085,0.023040755,0.011489447,0.0059331167,-0.002670195,-0.06790441,-0.02266781,-0.014002382,-0.04318995,-0.029005226,-0.015776725,-0.0056440476,0.014657448,-0.005656106,0.030691393,-0.00311782,-0.033262808,0.028684989,-0.007228497,-0.012382003,-0.010532502,-0.04015173,-0.03801758,0.025836928,0.031453613,-0.0018532888,-0.01276112,-0.025177373,-0.04146895,-0.04099376,-0.04382528,-0.030619077,-0.055026706,-0.049825307,-0.018758232,-0.034095347,-0.02107544,-0.02463742,-0.014924387,-0.0426918,-0.05115264,0.03606379,0.055363383,0.007068729,0.061856136,0.05143661,-0.002731174,0.026184198,0.01994234,-0.033360958,-0.010006343,-0.01594822,-0.023267845,-0.022526754,-0.010971945,-0.019991763,-0.0052060722,-0.021190586,-0.02700508,-0.004234743,0.0011384893,0.0004426858,-0.02817004,-0.014530244,-0.0017072584,-0.05254374,-0.015122155,-0.026950406,-0.00920502,-0.021694971,-0.04110697,-0.046516873,-0.023618514,-0.019230913,-0.038841568,-0.061281737,-0.016490906,0.001334669,0.021128256,0.05507002,0.0018525376,0.030186476,0.019398421,0.036156632,0.00851564,-0.016662551,-0.048388917,-0.057429425,-0.027619373,-0.053283203,-0.03908233,-0.03163109,-0.010078205,-0.0021621257,-0.013598686,0.007772751,0.04751825,0.059891693,0.031947326,0.11055694,0.09879193,0.08477784,0.10454384,0.069094285,-0.017174045,-0.022926288,-0.02744156,0.030029124,0.011442278,0.023531985,0.06987128,0.076944314,0.085774206,-0.034002397,-0.034085378,0.0014383292,-0.023576472,-0.016507005,-0.04909819,-0.048961706,-0.029668882,-0.057949763,0.0110858185,0.0067353346,-0.021395056,0.01227869,-0.0009028608,-0.011043211,-0.0013508189,0.0048074964,-0.016652403,0.024147956,0.049787894,0.04105424,0.028375212,0.04899936,0.04641469,0.04204895,0.02919518,0.04500577,-0.07355938,-0.036981072,0.0023875071,-0.05750249,-0.009858405,0.017023664,-0.014409726,-0.014810654,0.010497837,-0.033914983,-0.040838048,0.005267754,-0.018211849,0.016293459,0.056690283,0.014120853,0.028463606,0.04347318,0.0067372457,0.023470407,0.0035586224,0.018735908,0.044823736,0.013470942,0.010234827,0.0024420768,-0.009610652,-0.0027051796,-0.011200167,0.01455651,0.0056420383,0.013210266,0.0019638874,0.044679556,0.038423643,0.0022280768,0.021356037,0.017355153,0.029521152,-0.0051230458,0.035363786,0.026000232,-0.0068562757,0.025178472,0.032502457,-0.026869154,-0.024049543,-0.024720922,-0.011393444,-0.016703343,-0.0011205471,0.0034288708,0.026966492,0.046460092,-0.01819494,-0.006015367,-0.020234842,-0.0054219333,-0.015297274,-0.020595985,0.007178522,0.0010830734,0.012396224,-0.012392488,-0.0048532486,-0.0020187788,-0.05473353,-0.044246096,-0.014875612,-0.032250907,-0.043439683,-0.026345909,0.029498253,0.0039192555,0.032950424,0.022240119,0.030284207,0.052623596,0.038489815,0.03970601,0.039429545,0.0051524667,0.00893889,0.031459156,0.040125817,0.021474168,0.00966923,0.052757528,0.021409674,-0.020621171,-0.02933402,0.033822898,0.07239543,0.0063265837,0.03680155,0.04996075,0.03538614,0.049123317,0.01807269,0.0094814105,-0.0020919193,0.014366204,-0.0362598,-0.021932788,-0.018161627,-0.05457559,-0.0176905,-0.020309044,0.03746566,0.009331817,-0.0011629821,0.013761383,-0.027976621,-0.011366553,0.013173873,0.010456893,-0.004192842,-0.0135704875,-0.008197273,-0.030607453,0.0055745514,0.004358432,-0.034325395,0.005928821,0.0054076044,0.0004245786,0.0035620912,0.043394055,0.06831308,0.022249188,0.051886592,0.040750124,0.017537348,0.07809362,0.049962293,-0.012567862,0.0022298517,-0.012537038,-0.021380508,-0.015371533,-0.032845538,-0.0064349584,-0.006187725,-0.040621582,-0.02626696,0.022096543,0.047630496,0.018255439,0.04401262,0.06349793,0.04653145,0.055763677,0.042518057,-0.037267942,-0.034832045,-0.04108145,-0.054021597,-0.030891398,-0.04993413,-0.030793795,-0.030714164,-0.03398393,0.029261364,-0.001739231,-0.023562659,0.025378382,0.0009993901,-0.023212941,-0.012054663,-0.0027267826,-0.040097844,0.025151234,-0.0019347438,-0.003791503,0.052038703,0.05545366,-0.0029118108,0.07230745,0.07718105,0.012499582,0.0045837276,-0.020596506,-0.02312424,0.002091639,0.0050103096,-0.009388993,0.010311411,0.033973705,0.015152819,-0.029587595,-0.05143652,-0.055443,-0.04084062,-0.056587894,-0.070803195,-0.02388586,-0.034983598,-0.036856886,-0.021076128,-0.04275051,-0.037228893,-0.021652209,-0.043590378,-0.027355783,0.024498273,0.0019297112,-0.024833264,0.01012976,0.012811149,-0.034617115,-0.00897583,-0.014563459,-0.06267059,0.0022233352,-0.020521883,-0.052296285,0.04379882,0.023108274,-0.031273432,0.033547275,0.024301298,-0.014929457,0.023569528,0.04540718,0.013043427,-0.022065304,0.008697233,-0.004277595,-0.021021124,-0.015447375,-0.026782764,-0.009624878,0.002128179,-0.002646593,0.00847203,-0.01355953,-0.02866505,0.00721953,-0.017569087,-0.0465266,0.0068206056,-0.006088544,-0.014520051,0.009678207,0.0492188,0.013651301,0.04694114,0.060983084,0.04122729,0.026167845,0.032934174,0.024423534,-0.0073666065,-0.020680523,-0.016887013,-0.013110099,-0.034610264,-0.043601036,-0.012479063,-0.020536896,-0.039121434,0.033922147,0.0077840206,-0.0019610352,0.034605544,0.015348266,0.02137347,0.02334048,0.04118139,0.019805266,0.006242814,0.0106558995,0.0057541295,-0.001825251,0.0123098595,0.01682895,-0.012981852,0.013916334,0.043671746,-0.003488865,0.0066503156,0.008623544,0.009835567,0.0026295695,0.013472379,0.0148595,0.0026701791,-0.019245869,-0.013771908,-0.0026023304,0.008791146,-0.029794956,-0.0015123901,0.021145415,-0.017919486,0.015841534,0.025265152,-0.017092891,0.019828279,0.06531654,-0.009058333,-0.0012088005,0.037907507,0.020827122,0.03635186,0.01860134,0.04130931,0.022575578,-0.002077977,0.020613397,0.014277914,-9.367498e-05,0.005171932,0.026981581,0.0062038535,-0.03736093,-0.014488488,-0.020956613,-0.024250418,0.007177624,-0.003825732,-0.024767218,-0.0047842595,0.007559284,0.011260072,0.0089467075,-0.010330046,0.008013938,-0.00033159723,-0.010823301,-0.009092735,-0.00022848281,0.018471338,0.020645307,0.015954698,0.010279137,0.025655666,-0.0031414367,-0.00497272,0.019539755,0.01662999,-0.0050601508,-0.021683201,-0.053351857,-0.018351344,-0.03599672,-0.038751066,-0.004391991,-0.02033684,-0.0021890323,0.030694999,-0.0027738933,0.011961892,0.0017903835,-0.03700843,-0.0060384804,0.008736577,-0.025895372,-0.009381969,0.045157123,-0.030987563,0.0009900612,0.010141701,-0.05155183,-0.02563115,-0.03777275,-0.056407824,-0.07529736,-0.0847284,-0.0017530619,0.040234957,0.040317405,0.042477842,0.05683043,0.02709103,0.057961535,0.08261673,0.07392519,0.079287305,0.08332921,0.055088986,0.060701992,0.0688764,0.038877014,0.028053796,0.04632844,0.047875106,-0.0011238022,0.0130037945,0.016037924,-0.007438251,-0.022362335,-0.024492165,0.009306663,-0.017871428,-0.045863915,0.004464418,0.01768597,-0.012638538,0.042611565,0.013167951,-0.0020709243,0.014472361,0.0073224735,-0.008569916,-0.03312393,0.004019367,0.048001852,0.005423621,0.010847535,0.009491737,-0.020490414,-0.020826375,-0.012885699,-0.00335214,-0.02933771,-0.00012937286,-0.014530166,-0.023809694,0.015368693,0.004346042,0.0015351892,-0.0067535923,-0.01583899,-0.016617993,-0.010973921,-0.032401714,-0.0088712815,0.011560397,-0.0061513907,0.019160625,0.0020715042,-0.005940771,0.004373546,-0.02064921,-0.011038621,-0.008437974,-0.046714153,-0.018526105,-0.015790058,-0.014719761,0.035731263,0.030157616,0.025834564,0.032283224,0.02183193,0.018269435,-0.0020324176,0.0053985533,0.010286284,0.034328736,0.04301379,0.014069938,0.033831917,0.032199677,0.029178036,-0.013197639,-0.007884314,0.013102877,-0.009648287,0.016433273,0.015427914,-0.011658254,-0.009919383,0.03926807,0.0059638578,0.0043789423,0.031259097,0.0054216934,0.021738598,0.013147201,0.06340505,0.06947441,0.022702968,0.051637165,0.06362434,0.013292943,0.067382224,0.06243012,0.041920554,0.08825974,0.049745284,0.031451553,0.075229056,0.056408342,0.03680854,0.012532082,0.03284187,0.029533647,0.05368024,0.08197762,0.046792764,0.037404966,0.07063041,0.038743034,-0.021470098,-0.05151908,-0.047041137,-0.020014733,-0.034675907,-0.038626138,0.022064932,0.0029539177,0.0010960047,-0.0478473,-0.048383124,-0.060016785,-0.041357957,-0.062260896,-0.040755305,-0.025922146,-0.056060657,-0.044610307,-0.01857177,-0.011025182,0.023105588,-0.039232444,0.022660071,0.01649827,-0.05940195,-0.043306064,-0.013114876,0.036664624,0.0384691,-0.0034803504,0.012330542,0.02175986,0.04844056,-0.034809228,-0.023563009,-0.00074702577,-0.0030453112,-0.00340039,0.008895589,-0.016459195,-0.012825911,0.02146114,-0.017300593,-0.007573174,0.04944504,-0.0044208365,0.01179666,0.01173567,-0.02691334,-0.033941098,-0.015610404,-0.07393105,-0.020535745,-0.031642687,-0.042260665,-0.042561937,-0.010991775,-0.04908974,-0.030284116,0.05312429,-0.022203047,-0.025837282,0.022782246,-0.060272742,0.013962413,0.053287763,-0.027735716,0.0050557395,0.02970346,-0.004875517,0.021058448,-0.0023263572,-0.004772204,0.026691893,0.0058685127,0.0042267907,0.010007293,0.0091755735,-0.024513472,-0.04329255,-0.026007136,0.022182943,-0.014479368,-0.047946826,0.039251257,0.0024970684,-0.034744836,0.017394464,0.012179709,-0.03304867,-0.049513027,-0.06855026,-0.06485966,-0.049609642,-0.056848545,-0.04004951,-0.03554529,-0.05903562,-0.032910865,0.00704198,-0.026531747,-0.023868766,0.07862737,0.026930287,0.009232687,0.06354957,0.055193774,0.017915353,0.0048990827,-0.023398126,-0.0017856297,0.005613708,-0.0064935964,-0.034284744,0.0044204,-0.015959425,-0.017227834,-0.028447432,0.006043546,-0.02404674,-0.027031466,-0.024326375,-0.007227306,-0.038574778,-0.024724588,-0.018677823,-0.014634301,-0.031198755,-0.031839386,-0.017717613,-0.026575822,-0.024582481,-0.0049036173,-0.029443031,-0.03785396,-0.020198004,-0.0017005939,-0.030991469,-0.0019167486,0.02544657,-0.02735534,0.048544534,0.011749478,-0.021719601,0.0008134472,-0.0130049065,-0.032275625,0.012016469,-0.054694857,-0.08982079,0.02607422,-0.034611437,-0.07265442,0.019621536,-0.0032110957,0.01687809,-0.010255245,-0.032944098,-0.022491122,-0.02140475,-0.031652205,-0.029607525,-0.009782906,-0.027537068,-0.007793008,0.037885018,-0.01659322,-0.010821923,0.071861275,0.02793533,-0.025421843,0.039844945,0.04378696,0.016386826,0.045433424,0.0011913368,-0.0152708115,0.047090005,-0.009550917,-0.039604917,0.01332378,0.0136192115,1.6664955e-05,0.021683268,0.016062425,0.02201929,-0.0033234297,0.017009655,0.0029416198,0.0018194938,0.013067409,0.026928516,-0.0059168227,-0.019831846,0.0028055515,-0.0097688,0.0014334606,-0.011578554,0.019547423,0.010144745,0.0035459178,0.013569,0.0061237495,-0.028066823,-0.01926733,-0.021013103,-0.016362116,0.007892971,-0.0013020312,-0.0010237857,0.0014078625,-0.012814318,-0.029057551,-0.025008284,-0.022230593,-0.024974238,-0.03315114,-0.04358148,-0.02194126,-0.008624568,-0.016015079,0.004235438,-0.02023694,-0.01936623,-0.0156170055,-0.013337056,-0.048075184,-0.06718155,0.004693674,-0.03605596,-0.008936203,0.039779767,0.0061406232,0.0357834,-0.0344001,-0.028398452,0.025193121,-0.047970984,-0.0044045825,0.024437238,-0.020584695,0.016013283,0.050840296,-0.007296544,-0.005587628,0.010643176,-0.015062157,-0.01288264,0.006111262,0.0065910933,0.00711397,0.026485382,0.0038760758,-0.017173408,-0.025396217,0.002085594,-0.060595103,-0.056339715,-0.027680935,-0.04782132,-0.06989232,0.00943571,-0.005879863,0.014977732,0.015950285,-0.006856622,-0.017827023,-0.0057590264,-0.013035099,-0.009903371,-0.08301342,-0.052535333,-0.010780318,-0.05728991,-0.025797242,0.010074762,-0.030409,0.014503774,0.030157818,-0.018646263,-0.049870927,-0.05688868,-0.010212252,-0.02479666,-0.03863208,-0.014643069,-0.018311415,-0.01979871,0.007180398,-0.010983815,0.025102293,-0.005489338,-0.018089926,0.026753215,0.0059751547,-0.011241167,0.016893564,-0.015706511,0.01586004,0.022556376,-0.020293232,0.016008263,0.03599088,0.016665583,0.021449039,0.035725757,-0.009387078,-0.033297054,-0.024735833,-0.010050078,-0.00439212,-0.020584412,0.006454161,2.8783505e-05,-0.0049300757,0.004630609,-0.0017245376,-0.0054396326,0.01584268,-0.016052768,0.004120782,-0.00091147254,-0.004544886,0.0060096397,0.001225652,0.04040713,0.018077683,0.015296357,0.040989753,-0.00900391,0.022507356,0.013883978,-0.034250934,-0.00068296667,-0.01619022,-0.021581903,-0.04228111,-0.043837644,-0.030439934,-0.0030643083,0.004313476,-0.0071648937,0.024650296,-0.008962525,-0.019920262,-0.0175156,-0.025004933,-0.042845834,-0.025199452,-0.042110287,-0.035188723,-0.017851567,-0.006705397,-0.04560746,0.01994315,0.0095554,-0.019429862,0.009115082,-0.010725891,-0.003074734,-0.028272899,-0.03694189,-0.016591197,-0.044677805,-0.033151083,-0.008813211,-0.022087824,-0.010120016,-0.0046073957,0.02272377,0.01319757,-0.0057905586,0.004337995,-0.0033196504,-0.021397509,-0.004515581,-0.021683507,-0.030424487,-0.021726463,-0.024800783,0.005213014,-0.048259683,-0.03250987,0.04025479,-0.0150217395,0.00906911,0.05731238,-0.011365958,0.030331794,0.06427915,0.030750917,0.055032805,0.086969845,0.028035417,0.045368444,0.011919171,0.009875618,0.021312969,0.010356955,0.017517302,0.050386064,0.039431076,0.031028967,0.050507016,0.008971579,-0.046802152,-0.041543014,-0.028987644,-0.04335398,-0.0178054,-0.03972784,-0.015636794,-0.032905854,-0.034982197,0.029776312,0.037502468,0.036595814,0.03757733,0.04825704,0.08104725,0.06509476,0.040492103,0.03872673,-0.013561827,-0.019754896,-0.031045293,-0.020110192,-0.02362499,-0.0071628215,-0.03650013,-0.021936227,0.013352085,0.042675793,0.05023216,0.025880212,0.05237429,0.06270282,0.020633344,0.021913704,0.007005172,0.012042199,0.014736549,0.02365827,0.01207416,0.016865786,0.03934797,0.057807345,0.01887927,0.071150854,0.07939596,-0.029537251,-0.01544116,0.016333006,-0.016186899,0.010491055,0.012464277,-0.013876156,-0.021492256,-0.010394523,0.059899133,0.0829957,0.034739275,0.0100320475,0.024384897,0.024643837,0.002063819,0.022029832,0.033164963,0.091528386,0.105775595,0.038993016,0.11935382,0.12961176,0.091961026,0.07035809,0.117478676,0.055073753,0.017935252,0.03940662,0.02602032,0.0067150756,0.023962302,0.013814684,0.011776532,0.026133003,-0.017426502,-0.022846194,-0.016140722,0.015938425,-0.04447319,-0.0054418435,-0.001288551,-0.04393574,-0.043668594,-0.0159409,0.010828819,0.039210524,-0.036816023,0.030607847,0.0125500895,0.021034887,0.018095417,0.028351102,0.030696725,-0.03152284,-0.03043509,-0.030840827,-0.046704672,-0.038468093,-0.048444033,-0.03671401,-0.027943466,-0.033408575,0.02408124,0.011923946,0.015876064,-0.002714625,0.013085793,-0.0152027225,-0.03217691,0.0010566679,-0.013742659,0.012976647,0.022061197,0.0076490142,-0.016722765,-0.036638424,-0.025426973,-0.032597553,-0.02521512,-0.011447435,-0.025342884,-0.02070501,-0.034608662,-0.025073016,-0.04192958,-0.039809592,-0.0094120875,-0.03244416,-0.04850694,0.008952404,0.0029584935,0.0045081764,0.026433092,0.006739163,-0.047454428,-0.0040022293,-0.01462033,-0.057820126,-0.02329746,-0.014177382,0.000534546,-0.0042695925,0.018746305,0.018934928,0.02723659,0.029015606,0.006581843,-0.018131305,-0.02755557,-0.025316136,-0.035850815,-0.029961538,-0.03512332,-0.033690743,-0.025082512,-0.014011807,0.025888102,0.04098791,0.012810073,0.055615302,0.07726712,0.0652524,0.03968877,0.045278747,0.052869156,-0.022092596,0.01256096,0.004424393,-0.042179525,0.010844621,-0.012307634,-0.014140688,-0.013725199,-0.012123578,-0.066929,-0.08251053,-0.05563356,-0.07500374,-0.059674706,-0.022106078,-0.042197894,-0.05994032,-0.042607024,0.012320527,0.048112586,0.029540945,0.061914634,0.059196528,0.037112683,0.054185577,0.06424255,0.05006757,0.002801062,-0.0002488061,0.030668734,-0.025139099,0.0041452143,-0.008048497,-0.03663323,-0.029032849,-0.012541379,0.011145915,0.013663036,0.016591962,-0.014003531,-0.006859398,0.017316636,-0.03245552,-0.024495028,-0.018779363,0.06387751,0.06333572,0.046779204,0.030854667,0.03361803,0.023329461,0.009151395,-0.00013019316,-0.010547624,0.0023759033,0.010287904,0.04868706,-0.02345348,0.024256837,0.07452695,-0.016275495,0.008182176,0.040048014,-0.05393035,0.004407078,0.009918649,-0.030259905,-0.00035385232,-0.009527337,-0.012031027,-0.015338349,-0.009168446,0.015884427,0.017098952,-0.0077562993,0.013294282,0.01800218,-0.020686049,0.018829746,0.016611042,0.00025739777,-0.068345815,-0.06147442,-0.042646654,-0.039637547,-0.044194836,-0.023314076,0.0059174565,-0.052789774,-0.06865259,0.038278658,0.054643694,0.022723407,0.024181506,0.015666733,-0.012400476,-0.024413887,-0.034523934,-0.025493225,-0.03556152,-0.03769759,-0.016532235,-0.014006001,0.0032625357,-0.009276127,0.023669546,0.029978778,0.017886521,0.018880062,0.0048241406,0.025773097,0.024970079,-0.0002814106,0.016666017,-0.008078107,0.00123714,-0.017240837,-0.058597434,-0.053096186,-0.023147661,-0.04103646,-0.033003345,-0.031979676,-0.020797828,-0.017549533,-0.03250383,-0.03859934,-0.046462312,-0.026414191,-0.044228405,-0.013308891,-0.020327268,-0.03477943,-0.010319423,-0.017991597,-0.046362035,-0.023263853,-0.02248929,-0.040824044,-0.02281203,-0.020014592,-0.039118484,-0.036966477,-0.0033666883,0.009624664,0.014538967,0.017601933,0.036827013,0.028997973,-0.030081864,0.010047816,0.0008416126,-0.032998893,0.032563783,0.033791177,0.02015835,0.04591963,0.068053484,0.0084876865,0.042344954,0.026246473,-0.00877631,-0.0031066488,0.016322438,0.037520614,-0.019862339,-0.0073385416,0.015838133,-0.013262959,-0.021021964,0.002436169,0.007357847,0.01318099,-0.017014297,-0.023626985,0.016447883,0.0030709773,-0.030938726,0.025770737,0.0465486,0.0093291905,-0.023067372,-0.038224522,-0.018859686,-0.029287975,-1.2039044e-06,-0.019259464,-0.011511808,0.0065172026,-0.02889805,-0.016639734,-0.028464925,-0.026382498,0.012309401,-0.00276133,-0.017835405,0.010583998,-0.0046965918,0.005160387,0.011535098,-0.008726177,-0.016748967,-0.0034085629,-0.001712325,0.0077188606,-0.0057412502,0.001529102,0.0118194185,0.001302199,-0.012300366,0.043391805,0.0011231037,0.023028048,0.061954416,0.069379404,0.022524565,-0.026822606,-0.030912185,-0.037456263,-0.022598356,-0.019938963,-0.018659381,-0.027408164,-0.022536127,-0.01684508,0.011608336,-0.005410578,-0.030312106,-0.0001686409,-0.0129625695,-0.06036137,-0.08554814,-0.07442977,-0.05550969,0.02167672,0.027668556,0.008223473,-0.015534348,-0.004214479,0.006310782,0.008008677,0.0010763896,0.020876208,0.08121264,0.05106087,0.03853497,0.065727726,0.04742072,0.03190593,0.027888652,0.014821555,-0.03370364,0.019268734,0.008503382,0.011526661,0.015340425,-0.0025509365,0.0058115213,0.018236583,0.056216832,0.038516175,0.01929581,0.026162848,0.0073946784,-0.010070179,0.036613517,-0.002674555,-0.018435817,0.018045533,-0.0011585733,-0.061895814,-0.049471125,-0.053218964,0.010980815,0.0033570477,0.01794877,0.07077699,0.05834442,0.041087475,0.041980933,0.094252236,0.063874364,0.12137163,0.11386464,0.09383718,0.08894188,0.11409526,0.06264931,0.0035633603,-0.008751093,0.00091883965,0.0010929109,-0.019643964,-0.017496018,-0.010200972,-0.016657146,-0.021061426,0.020649444,0.02807508,0.00091592624,0.030724967,0.018596664,0.00520971,-0.003942728,0.015878018,0.008083304,0.019196473,0.028984634,0.034869708,0.020169107,0.012250124,0.031237118,-0.013731895,0.030122176,0.027358763,-0.037233014,-0.02951921,-0.00047502565,-0.044739354,-0.027390718,-0.009031339,-0.043411374,-0.04201645,-0.006314846,-0.015450749,-0.012577081,-0.013654165,-0.06430257,-0.047912963,-0.03896269,-0.057512734,-0.047704846,-0.012004283,-0.036779713,-0.04226235,0.00424938,-0.014583572,0.014078304,0.009934584,-0.001722939,0.050531656,0.043241423,-0.039881416,-0.042575702,-0.057661753,-0.048050612,-0.063266285,-0.08318252,-0.045948815,-0.05083996,-0.058574006,0.011776222,-0.009122639,-0.020300703,0.028680485,0.01604829,0.00047726973,-0.003658424,0.014427953,0.0250795,-0.020773629,-0.018565523,0.0063125063,0.01862673,0.034356955,0.020384941,0.024897354,0.0057526603,-0.007863618,0.030232074,0.045728154,0.03524461,0.05959213,0.06564615,0.050793502,0.0018253427,0.0025345434,0.0080187,0.022110105,-0.004699627,-0.0031511395,-0.041050132,0.00089253805,-0.012256895,-0.07520179,-0.08917166,-0.035456367,0.014411886,-0.025703274,-0.0419864,-0.05150301,-0.018223139,-0.05331828,-0.052706026,-0.073119394,-0.066034876,0.037714094,0.07544755,0.038918458,0.05021787,0.085762404,0.104540035,0.03246901,0.08319319,0.065145455,0.02757267,0.020147873,0.01401625,0.044381272,0.016359238,-0.010471884,0.010539383,-0.017406497,-0.030088373,0.017703174,-0.002481021,0.010057654,-0.0059270617,-0.012972522,0.0008082496,-0.03368388,-0.012722943,0.0025099062,0.012830981,0.012348188,0.02743339,0.04157404,0.04340258,0.03949927,-0.014366846,0.03371248,0.02502359,0.005329123,0.04116893,0.05762707,0.028108861,0.035998173,0.03728836,0.016928779,0.0042738724,-0.022468127,-0.017268686,-0.02253727,-0.0006845017,-0.016519656,-0.0034229106,-0.008572862,0.0038263244,0.00894923,-0.014646054,-0.018262202,-0.04124544,-0.021620031,-0.014398386,-0.009872793,-0.011270875,-3.865359e-05,-0.013528906,-0.006867703,-0.025397582,-0.014444889,0.007211243,-0.047180798,-0.017993953,-0.019570058,-0.05567152,-0.04147425,-0.046775553,0.048351966,0.05772446,0.033969767,0.03664076,0.04903222,0.05875109,-0.0038290834,0.029025488,0.039458953,-0.024718834,-0.016128032,-0.007247113,0.023746787,0.009305089,0.016794736,0.049669594,0.049967322,0.017836584,-0.014612262,-0.019191569,-0.030749165,0.010284906,0.006092023,-0.010246464,0.0067962958,0.027865946,0.01613452,0.027329266,0.021346921,-0.013215504,0.024878768,-0.0017350626,0.026453385,0.015382755,0.0091441665,0.022544242,0.01437952,-0.005377059,-0.01030869,0.013175206,-0.013062473,-0.015316903,-0.0016601084,-0.040918283,-0.019104145,-0.047246277,-0.03950755,-0.023152841,-0.055510912,-0.034453973,-0.039208446,-0.04464519,-0.036919594,-0.029115044,-0.0021121877,0.02672511,0.018657172,-0.041645184,-0.016084157,0.01474825,-0.062217623,-0.04211975,0.009056062,-0.0051091244,0.011611168,0.025336374,-0.004401881,0.0053238557,0.018065993,0.0026273774,0.03245782,0.04616569,0.0017332656,-0.02082975,-0.027649986,-0.0032745278,-0.023627685,-0.03398966,-0.0025955027,-0.013372882,0.012755066,0.0066255177,-0.0061473963,0.00997628,0.0020792503,-0.0028598201,0.014577065,0.0063736853,0.029854642,0.03236162,-0.004108638,-0.0070914915,-0.02859858,0.03671236,0.031954326,0.004659524,0.034117695,0.057791017,0.05087709,-0.045515116,-0.03711522,-0.028367165,-0.040534683,-0.039773453,-0.009828226,-0.028786344,-0.026823713,0.005350038,-0.037078004,-0.010836621,0.016806614,-0.018889785,-0.02188925,0.011966862,-0.017407592,-0.015156891,-0.010559344,0.010078637,0.009376535,-0.013727508,0.06658588,0.05677559,0.026991593,0.06119386,0.093169354,0.07531572,-0.016807329,-0.022411613,-0.030814158,-0.013579038,-0.014059589,-0.00744126,-0.005342697,-0.022587229,0.0053988458,-0.02435213,-0.044824734,-0.009075991,-0.057809185,-0.044883933,-0.054836426,-0.06630107,-0.092562996,-0.0747033,0.0041533546,0.03335856,-0.009624738,-0.00090210134,0.004074268,0.017287573,-0.015094413,0.025391623,0.04882107,-0.019849237,-0.002648707,0.007420791,-0.026083516,-0.0025862188,0.004981769,-0.014801466,-0.024939561,-0.016265504,0.0033182558,0.009029821,0.031662498,-0.007027503,-0.0034055263,-0.0004485979,0.016272627,0.0007597325,-0.0106289,-0.07480466,-0.044467863,-0.023298109,-0.06034572,-0.058708712,-0.013515578,0.0034357978,0.001435457,0.0050307387,0.023195999,0.02063049,0.03222757,-0.0003090101,0.00928369,0.018833064,-0.013059806,0.00544977,-0.00033358572,-0.024270456,-0.008087575,0.008644585,-0.040272027,-0.020771336,-0.008893658,-0.029573059,-0.035271395,-0.05043558,-0.0064286347,0.007732888,-0.013173869,0.011801075,-0.00045239486,-0.0015013767,0.022723006,0.037652664,0.023156611,-0.009400754,-0.008577656,-0.017257245,0.0012789544,0.018595088,-0.008085083,0.0060996236,0.008642715,0.0075132647,0.0047288337,0.029215544,0.041099884,0.020437745,0.02170119,0.032571677,0.002035269,0.022215877,0.050483815,0.0024764603,0.024084134,0.0056145107,0.037300944,0.03123881,0.034578133,0.022043314,0.03814811,0.022191277,0.008343645,0.028995216,0.00612649,-0.019511113,0.018431917,0.02199358,-0.026043069,0.0019812842,0.005023067,-0.012223187,-0.0025525754,0.0011379805,-0.045445338,-0.03668629,-0.008765351,-0.032086324,-0.030955562,-0.03507261,-0.0025084894,-0.0063884025,0.015621782,0.008463106,-0.010040524,0.017807804,0.009601651,-0.003182283,-0.01884897,-0.010617816,-0.0013765007,-0.015243565,0.006025439,-0.008290911,-0.008459123,-0.00852768,-0.0029732466,0.0016904952,0.005669174,-0.007719377,-0.037758943,0.008782637,-0.0050167968,-0.0043736417,-0.030529898,-0.038625866,-0.011513391,-0.039986543,-0.034223676,-0.02216653,-0.09156041,-0.061129484,-0.057516895,-0.05003982,-0.036115557,-0.016810946,-0.00038332352,-0.02633885,-0.01736972,-0.017885696,-0.017114362,-0.021856416,-0.016863318,0.010747125,-0.00618772,-0.04259483,-0.041586775,0.0072586914,-0.04764234,-0.02202381,-0.028131422,-0.040486682,-0.018721165,-0.015928745,-0.0011073272,0.011637629,0.010852268,-0.011201728,-0.0061243842,0.0014117591,0.018684477,-0.0290322,0.01800136,-0.035233974,-0.02874916,0.02076446,-0.023212288,-0.009624602,-0.04081488,-0.050720118,-0.04857745,-0.045354918,0.0070374734,-0.008706392,-0.017213002,-0.008355638,-0.034151744,-0.024136022,0.02450236,0.017253524,0.025460048,0.034340836,0.024860699,0.0079790335,0.02680895,0.031917367,-0.0040657436,0.013502557,0.0460249,0.038652003,-0.013447908,-0.00030182104,-0.008083073,0.01585301,0.018211503,0.025048602,0.026788026,0.06570473,0.0559632,-0.03254835,-0.025094632,-0.016619937,-0.008703689,0.012767867,0.021350214,-0.007796288,0.0076642036,-0.002585166,-0.037819695,-0.0488437,-0.05843017,-0.037752297,-0.058102198,-0.052638285,-0.018126816,-0.024408802,-0.041375957,-0.00448684,-0.020276934,-0.011960067,0.00638333,-0.0028541079,-0.017620035,0.011162551,0.00021953104,0.00076882966,-0.018056061,-0.0057768123,0.014371814,-0.0293128,-0.024916526,-0.009518924,-0.035559393,-0.05566571,-0.03707084,-0.017326841,-0.04457728,-0.02713458,-0.006046604,0.016606508,0.015626524,0.0024827155,0.009690217,0.017617807,0.032149043,-0.0034523965,-0.02461763,0.061468504,0.017739432,-0.028870486,0.022648448,0.010377722,-0.0060910936,-0.02924128,0.010008926,0.013468274,-0.004693668,0.013716602,0.016798109,0.002188909,0.0008318776,0.022694927,0.062263075,0.073103674,0.07483173,0.08054164,0.099494554,0.08929594,0.069376364,0.08286521,0.050289642,-0.030047344,-0.007249156,-0.008059592,-0.0283215,-0.043765385,-0.01966331,-0.0363747,-0.03352223,-0.0048860405,-0.019896077,-0.002911375,0.008746301,0.0034386688,-0.024693474,-0.019190876,0.018555604,-0.0071067144,-0.058484823,-0.035132013,-0.0701694,-0.04749014,-0.06267422,-0.049467932,-0.046097938,-0.021785263,-0.026102338,-0.02730334,-0.027781501,-0.050159637,-0.02524963,-0.03612928,-0.02351819,-0.027140576,-0.020225856,-0.0039415485,-0.0016832501,0.068193406,0.06794757,0.037179053,0.040603235,0.05400136,0.045289963,0.042628344,0.05911781,0.06395916,0.002494754,0.008278846,0.022975234,0.011477536,0.013202288,0.0063410085,0.034292612,0.053346753,0.0016011049,0.011209638,0.008128475,0.01766975,-0.005866782,-0.0068430444,-0.010188554,-0.027131045,-0.019438073,-0.023967586,4.1197927e-05,-0.02567605,-0.01260261,0.022386495,0.015233931,0.005807597,0.06476276,0.066218354,0.02433702,0.0065103606,-0.028023925,-0.031119637,0.026198793,0.0063827294,-0.008620511,-0.0051997304,-0.028522395,0.0007038893,0.0054498264,-0.008179041,0.0068587144,-0.011105279,0.017413506,0.0029500006,-0.01667548,-0.012210287,-0.013977675,-0.014736715,-0.0071574105,0.026218452,-0.052177496,-0.040126223,0.013340961,9.931416e-05,-0.009377703,-0.0050794296,0.029472392,0.04144362,0.035421174,0.05324405,0.05194404,0.035453696,0.045630954,0.06568064,0.049842685,0.017752333,0.024070742,0.029983701,0.0039470415,0.01821384,0.046505876,-0.023357969,0.030451687,0.037145335,0.026436387,-0.023306675,-0.011779684,0.0006241327,0.040845506,0.04825376,0.011576551,0.046652947,0.0420473,0.027264627,0.07748513,0.06717356,0.04695164,0.048653536,0.02489318,0.031071255,0.02543171,-0.014270925,-0.016946847,-0.0471355,-0.055924468,0.020231074,-0.027306337,-0.021854714,0.013861586,-0.03181165,-0.0060866997,0.0054435907,0.00043932832,0.024265299,-0.008295554,-0.010764225,-0.0077950023,-0.01679908,-0.014259504,-0.021576263,0.03616541,0.038903534,0.004179672,0.037037894,0.044504426,0.010150992,0.016800335,0.037385944,0.012053332,-0.030109942,-0.01751544,0.007809544,-0.008428448,-0.0009180089,0.008336899,0.030481555,0.034873456,0.0016985008,0.01691553,0.033739794,0.05477784,0.020298071,0.042753838,0.049940236,0.008705684,0.043345902,0.02500137,-0.009906012,0.003931828,-0.0042075813,-0.02553961,0.011161469,-0.014317457,-0.013172279,-0.01896934,-0.013064785,-0.021310618,-0.047282457,-0.028755117,-0.040252883,-0.052141,-0.04460445,-0.011566187,-0.044482943,-0.033100072,0.016257098,0.01628822,-0.0022602528,0.010951997,0.0018264075,0.0005712212,0.012822595,0.0118152285,-0.0048840735,0.005904552,0.0067317197,-0.014529897,-0.008088043,-0.0037650783,-0.007933136,-0.01693433,-0.048626456,-0.035850428,0.027080853,0.0029598277,0.011962041,-0.023962677,-0.02663089,-0.012163615,-0.033740405,-0.04732317,-0.024441604,-0.018195422,-0.049981654,-0.017132511,-0.0012941854,-0.0020058472,0.007049506,0.026557587,0.040571805,0.012732515,-0.02145166,-0.058068708,-0.02578467,-0.0316309,-0.04471095,-0.016240649,-0.03330637,-0.01905147,-0.019443663,-0.010096868,0.0054422985,0.0053180023,-0.033059794,-0.0281527,-0.02551029,-0.044976946,-0.05515421,-0.010489059,0.0024076912,0.03248386,0.023399297,0.013703095,0.026581425,0.037319146,0.0023937137,0.0111025795,0.016319636,-0.025601074,-0.003047694,0.009490812,-0.038342416,-0.017819338,-0.02537968,-0.047264803,-0.023894023,-0.018556539,0.035050165,0.05017742,0.05313557,0.04850081,0.055883355,0.05862361,0.023726977,0.07053609,0.03756442,-0.016020674,-0.017544078,-0.01027512,0.0059723295,-0.029001057,-0.030300546,0.012969383,-0.007165148,-0.012994686,0.023590049,0.029891672,-0.011837103,0.013698952,0.03199501,-0.005669032,0.027522357,0.031209854,0.02190493,-0.041616585,-0.04150923,-0.011486124,-0.017642723,-0.0061505395,-0.019184625,0.036799565,0.03695122,-0.00038203865,-0.028553724,-0.003961583,-0.0021676787,-0.026395027,-0.016277205,-0.017224936,0.0011309546,-0.029586665,-0.012806057,-0.031222876,-0.040657144,-0.01902347,-0.03278503,-0.023265308,-0.016071223,0.0020629356,-0.0028392698,0.0036176452,0.019335242,0.009540814,-0.014018496,0.035994153,0.027471414,0.01602611,0.039553367,0.051249057,0.016486455,-0.005672701,-0.01603497,-0.012171036,-0.00868768,-0.013363638,0.012425154,-0.012154189,-0.011810564,0.0053773997,-0.024044199,-0.029374212,-0.028472597,-0.024108019,-0.005476354,-0.018670935,-0.008017925,-0.018321762,-0.020360893,0.011241372,0.014756149,0.016395057,-0.00092928,-0.014764329,0.0005496779,-0.0005593681,-0.015818786,-0.0033011138,0.021587266,-0.0066122627,-0.030761072,0.0043446,-0.012347475,-0.043849394,-0.008936632,-0.02022066,-0.007705694,-0.006772099,0.0117652705,0.011334626,-0.02624568,-0.020273931,0.00053882884,-0.0029908374,-0.008285767,-0.014081623,-0.017203473,-0.026077332,-0.025321895,-0.053551182,-0.02982028,-0.042090613,-0.043497626,-0.01878391,-0.0008935584,-0.011458943,-0.04063014,-0.007063936,-0.023573793,-0.012285739,-0.007781105,-0.055405565,-0.01703423,0.006054043,0.0072967727,0.021566553,0.0154689355,0.0154823605,0.033122063,0.014878264,0.014249558,0.0383244,0.01615014,-0.03921791,-0.045997437,-0.02301034,-0.041522752,-0.07038553,-0.026342062,-0.028198982,-0.021251183,-0.0047881426,0.012492985,0.04334439,0.07317622,-0.0017649055,0.018923527,0.03717614,0.014687273,0.022924934,0.008901894,0.008479747,0.07346766,0.07932589,0.020621829,0.049500823,0.048996255,0.009807579,0.03661513,0.03802964,-0.05506086,-0.04900409,0.022919923,-0.06363433,-0.048526276,-0.022140097,-0.015782434,-0.011359363,-0.014302463,0.027792629,0.02999692,0.03578475,-0.021781668,0.041678227,0.060972836,-0.032610327,0.014853206,0.017206168,0.005545949,0.015086251,-0.026953906,-0.014251405,0.018793365,-0.025794216,-0.020860635,-0.008678994,-0.014193993,-0.0055297106,-0.03944236,-0.029797291,-0.01003091,-0.04629715,-0.0520819,-0.015499328,-0.007384797,-0.021679953,-0.026682148,-0.0015179798,-0.057458077,-0.022093471,0.006799,-0.05101055,-0.018237203,-0.023779802,-0.032013923,-0.022973265,-0.04086959,-0.05362747,0.016137134,0.018928679,-0.021665884,0.053974617,0.05313832,0.012744836,0.016513946,0.047077335,0.048112355,0.03294305,0.052716758,0.050648823,-0.015328423,0.023698596,0.02873012,-0.017706422,0.0063634957,-0.04326851,0.011313153,0.026747912,-0.0066879764,0.08553469,0.08268775,0.082687706,-0.046299048,-0.026884131,-0.014268059,-0.04847621,-0.0027211364,0.02754902,-0.02364548,-0.026933419,0.0010109508,0.054937143,0.029701492,-0.009840436,0.03284677,0.061154258,-0.009598394,0.013726693,0.06342899,0.03648787,-0.024382055,-0.046984866,-0.026615933,-0.009630788,-0.011867527,-0.0037836998,-0.02179308,-0.01490721,0.020915981,-0.063567154,-0.016367635,-0.043786567,-0.033163484,-0.036073443,-0.07028447,-0.009931047,0.0017658807,-0.0022591113,0.02317827,-0.015904088,-0.0014317051,-0.0023600091,0.005928761,0.006211067,0.007948573,-0.0114980675,0.0006127451,0.07408948,0.108192585,0.07113574,0.06685247,0.084292546,0.104763925,-0.005125492,0.02008534,0.040468454,-0.0027839546,0.016857002,-0.0023055775,-0.008346316,0.0043562176,0.0047190622,0.012836091,0.021025589,0.028173514,0.017462855,0.029598143,0.018958908,-0.010622644,0.05067426,0.085949525,-0.024157245,0.013630467,0.06988074,0.012636095,0.08384316,0.055676125,-0.0021311538,0.022987274,0.0576517,-0.0025983849,0.008901019,0.060089763,-0.04091629,-0.0054464,-0.007063941,-0.043400507,-0.016096743,-0.0056300475,-0.030614393,-0.033030856,-0.051369682,-0.07687054,0.011169329,0.07135599,-0.10917981,-0.027900726,0.045704838,-0.053544596,0.017472284,0.05317565,-0.064031035,-0.018920572,0.028923819,-0.04743753,-0.04228115,-0.009835847,-0.02642172,-0.01804248,-0.017706873,0.00798454,0.01546175,0.0132233305,0.01975461,0.012132571,0.00734517,-0.034626942,-0.035911433,-0.019663457,0.016585631,-0.006374515,0.013204505,-0.0024241994,0.015002745,-0.0019272396,0.0026967914,0.018393204,0.004619483,0.00050580705,0.003105187,-0.003159803,-0.040513005,-0.02452023,0.018488787,-0.04006657,-0.0064453487,0.032354362,0.009689704,-0.029226204,-0.0397483,0.036931496,-0.025042238,-0.059998605,0.043828115,-0.0125820115,-0.03224293,0.012732019,0.04455961,0.023406798,-0.0004299273,0.06590564,0.07303032,0.0012921777,0.048539452,0.11007078,-0.012065953,-0.002661754,-0.018180612,-0.008352049,-0.011435197,-0.023776561,-0.025155265,-0.0019444056,-0.018153485,0.058201626,0.026538787,-0.0026439622,-0.00949495,-0.004244113,0.005290855,-0.03488535,-0.0029159002,-0.036923684,0.027532376,0.05576629,0.01085161,0.013161424,0.028721917,0.012279447,0.022422215,0.00085622445,0.021232836,0.008007897,0.037651524,-0.0049955267,-0.01151509,0.023688322,0.011679117,-0.041771136,-0.04368954,-0.021040421,0.0023981654,0.033099912,0.042220373,-0.04115888,-0.0067700576,-0.0027194724,-0.009956837,-0.04148527,-0.031897996,-0.07087803,-0.042211577,-0.01424311,-0.06291568,-0.035685625,-0.028992262,-0.04812055,-0.012625277,0.0062800446,-0.029460354,0.02499826,0.07647317,-0.04173745,-0.016247451,-0.008955839,-0.033235177,-0.041357763,-0.041847225,-0.0,-0.0,0.0,0.0,-0.0,-0.0,0.0,-0.0,-0.0,0.0,0.0,0.0,0.0,0.0,0.0,0.0,0.0,-0.0,0.0,-0.0,-0.0,0.0,0.0,-0.0,0.0,0.0,-0.0,-0.0,0.0,0.0,0.0,0.0,0.0,0.0,0.0,0.0,0.0,0.0,0.0,0.0,0.0,0.0,0.0,0.0,0.0,-0.0,0.0,-0.0,0.0,0.0,0.0,-0.0,-0.0,0.0,0.0,-0.0,-0.0,0.0,0.0,-0.0,0.0,0.0,0.0,0.0,-0.0,0.0,-0.0,0.0,-0.0,-0.0,-0.0,-0.0,0.0,-0.0,-0.0,-0.0,-0.0,-0.0,-0.0,-0.0,0.0,-0.0,-0.0,-0.0,0.0,0.0,0.0,-0.0,-0.0,-0.0,0.0,0.0,0.0,0.0,0.0,0.0,0.0,0.0,0.0,-0.0,-0.0,-0.0,0.0,0.0,-0.0,0.0,0.0,0.0,0.0,0.0,0.0,0.0,0.0,-0.0,-0.0,-0.0,-0.0,0.0,0.0,-0.0,0.0,-0.0,0.0,-0.0,0.0,0.0,-0.0,-0.0,0.0,0.0,-0.0,-0.0,0.0,-0.0,-0.0,-0.0,-0.0,-0.0,0.0,0.0,-0.0,0.0,0.0,0.0,0.0,0.0,-0.0,0.0,0.0,-0.0,0.0,0.0,-0.0,0.0,0.0,-0.0,-0.0,0.0,-0.0,0.0,0.0,-0.0,-0.0,-0.0,-0.0,-0.0,-0.0,-0.0,0.0,0.0,0.0,-0.0,-0.0,0.0,-0.0,0.0,0.0,-0.0,-0.0,0.0,0.0,0.0,0.0,0.0,0.0,0.0,0.0,0.0,0.0,-0.0,0.0,-0.0,0.0,0.0,0.0,-0.0,-0.0,-0.0,0.0,0.0,0.0,0.0,0.0,0.0,0.0,0.0,0.0,-0.0,-0.0,-0.0,-0.0,0.0,0.0,-0.0,0.0,-0.0,-0.0,0.0,-0.0,-0.0,-0.0,-0.0,0.0,-0.0,-0.0,-0.0,-0.0,-0.0,0.0,-0.0,0.0,0.0,0.0,0.0,-0.0,0.0,-0.0,0.0,-0.0,-0.0,0.0,-0.0,-0.0,-0.0,0.0,0.0,0.0,0.0,0.0,0.0,0.0,0.0,0.0,-0.0,0.0,0.0,0.0,0.0,0.0,0.0,0.0,0.0,-0.0,0.0,0.0,-0.0,-0.0,0.0,-0.0,-0.0,-0.0,0.0,0.0,0.0,0.0,0.0,0.0,0.0,-0.0,0.0,0.0,0.0,0.0,0.0,0.0,-0.0,0.0,0.0,0.0,-0.0,-0.0,0.0,-0.0,-0.0,-0.0,-0.0,-0.0,-0.0,-0.0,0.0,0.0,0.0,-0.0,-0.0,0.0,-0.0,0.0,-0.0,-0.0,-0.0,0.0,0.0,0.0,-0.0,0.0,-0.0,-0.0,-0.0,-0.0,0.0,-0.0,-0.0,-0.0,0.0,-0.0,-0.0,-0.0,-0.0,-0.0,-0.0,-0.0,0.0,0.0,-0.0,-0.0,-0.0,0.0,0.0,0.0,0.0,0.0,0.0,-0.0,-0.0,0.0,-0.0,0.0,0.0,-0.0,-0.0,0.0,0.0,-0.0,-0.0,0.0,-0.0,-0.0,-0.0,-0.0,-0.0,0.0,0.0,0.0,0.0,0.0,-0.0,-0.0,-0.0,-0.0,-0.0,0.0,-0.0,-0.0,0.0,-0.0,-0.0,-0.0,-0.0,-0.0,0.0,-0.0,0.0,0.0,0.0,0.0,0.0,0.0,0.0,0.0,0.0,0.0,0.0,0.0,0.0,0.0,0.0,-0.0,0.0,-0.0,-0.0,-0.0,0.0,0.0,0.0,0.0,-0.0,-0.0,-0.0,0.0,-0.0,0.0,0.0,-0.0,-0.0,-0.0,0.0,0.0,-0.0,-0.0,-0.0,-0.0,0.0,-0.0,0.0,0.0,-0.0,-0.0,0.0,0.0,0.0,0.0,0.0,-0.0,-0.0,0.0,-0.0,0.0,-0.0,-0.0,-0.0,-0.0,-0.0,0.0,0.0,0.0,0.0,-0.0,-0.0,-0.0,-0.0,-0.0,-0.0,-0.0,0.0,-0.0,0.0,-0.0,-0.0,-0.0,0.0,0.0,0.0,0.0,-0.0,-0.0,-0.0,0.0,0.0,0.0,-0.0,-0.0,0.0,0.0,-0.0,0.0,-0.0,-0.0,0.0,-0.0,0.0,0.0,-0.0,-0.0,-0.0,-0.0,-0.0,-0.0,-0.0,0.0,-0.0,0.0,-0.0,0.0,-0.0,-0.0,0.0,0.0,0.0,0.0,0.0,0.0,0.0,0.0,0.0,0.0,0.0,0.0,-0.0,0.0,-0.0,0.0,0.0,0.0,-0.0,0.0,0.0,-0.0,-0.0,-0.0,-0.0,0.0,0.0,-0.0,-0.0,0.0,0.0,0.0,0.0,0.0,0.0,-0.0,0.0,0.0,0.0,0.0,0.0,-0.0,0.0,0.0,-0.0,0.0,0.0,0.0,0.0,0.0,0.0,0.0,0.0,0.0,-0.0,0.0,-0.0,-0.0,0.0,0.0,-0.0,0.0,0.0,-0.0,0.0,0.0,-0.0,-0.0,-0.0,-0.0,-0.0,-0.0,-0.0,-0.0,0.0,-0.0,-0.0,-0.0,0.0,-0.0,-0.0,0.00077123835,-0.0051851626,0.019147793,-0.020004299,-0.023040518,0.0036103257,-0.012153584,-0.030086357,-0.03155726,-0.014806446,-0.015735121,-0.022149839,-0.006917098,-0.0040157484,-0.0105194505,0.016507821,-0.003075774,-0.002744191,0.04014382,0.009261063,0.0010236832,0.028871143,0.0242347,0.016774107,-0.011074846,0.0057038055,0.033882175,-0.025294637,-0.027203057,-0.011772563,-0.013844343,-0.024321044,-0.0048846384,-0.02796139,-0.020298429,-0.017618906,-0.01913577,-0.032968186,-0.04029168,0.0148442425,-0.010735427,-0.020488478,0.013675795,0.0006341473,-0.027419444,0.0047643944,-0.016359113,-0.020852972,-0.002705196,-0.016340807,-0.03227936,-0.011971812,-0.019817088,-0.04612506,-0.023825368,-0.048897,-0.03067919,-0.021913791,-0.019727543,0.00049696595,-0.018490901,-0.009034292,0.0030520216,-0.02526,-0.021996912,-0.009201834,-0.02540945,-0.033701357,-0.05236877,-0.019078145,-0.044070728,-0.07390187,-0.004685989,-0.00943634,-0.0207478,-0.0008470444,-0.01896608,-0.0323732,0.0196847,0.0179421,0.008542558,-0.0070896097,-0.0015519314,0.027284183,-0.012438744,-0.008129134,0.015578766,0.017298544,0.001617995,0.0101617025,0.0362842,0.019051136,-0.014137427,0.02458769,0.00118357,-0.0041904678,0.02346631,-0.00040667062,-0.0037038133,0.023960708,0.0069901966,-0.029001424,0.060686976,0.044630982,0.0069368,0.040103067,0.05019471,0.016425187,0.015841195,-0.0047992165,-0.0029015206,0.008071626,-0.004145772,-0.012199624,0.0051368466,-0.015853204,-0.00010684568,-0.0073648174,-0.0011932169,-0.00086161995,0.013451542,0.01106892,0.015407203,0.004612627,0.006148774,0.025187574,0.026748333,0.013614693,0.0114435945,-0.008265686,-0.013761012,0.00862988,-0.010724797,-0.016300796,-0.011599995,-0.0043572965,-0.0062197438,0.005512308,-0.018812912,-0.01896913,-0.00394433,-0.02507661,-0.015975371,-0.007874697,-0.020425223,-0.034674067,-0.030506136,-0.007011523,-0.048126414,-0.05539941,0.00407445,-0.019873543,-0.022774354,-0.0018156514,0.020553445,0.0079727555,-0.035149857,-0.008209908,0.0045594634,-0.046661764,-0.03494555,-0.00093237165,0.028242864,0.0059760544,-0.009422839,-0.010940584,-0.030518748,-0.03727554,-0.009210148,-0.01783669,-0.0009902088,0.00236738,-0.0027279095,0.010964655,-0.0053853686,0.008017292,0.013538498,0.0052298284,0.013096447,0.0145353405,0.0122113675,0.010531176,-0.008124423,0.043460377,0.027670743,0.0070154397,0.065828875,0.06048852,0.04352511,-0.020008177,0.0040302114,0.04247352,0.016788946,0.009180762,0.029381188,-0.00879792,-0.0047662733,-0.00037322682,-0.015532114,-0.053461418,-0.03489377,-0.012090609,-0.03632509,-0.033360034,0.005032349,-0.030162416,-0.013687137,0.03419879,0.054005284,0.027162746,0.06724383,0.07041481,0.08066622,0.01996907,0.067523174,0.052112617,0.013594274,0.02510726,-0.0015572245,0.00090543233,0.022069952,0.011255063,0.011360483,0.01900877,0.008512913,0.0067953705,-0.026610103,-0.035084143,0.010009385,-0.012663922,-0.035985213,0.0015197294,0.003909511,-0.007335173,0.0030181569,-0.023913778,-0.047873225,-0.011994299,-0.010295207,-0.032354373,-0.028417466,-0.043652453,-0.03130828,-0.025699062,-0.01992985,-0.011365375,-0.036404666,-0.014522279,-0.028415287,-0.023435133,-0.03648202,-0.015300571,0.02036336,0.04169508,0.012264768,0.0021318113,0.02280668,0.018889144,-0.0021295713,-0.011590529,0.0028070463,0.002704425,0.026613332,0.019481199,0.01208537,0.022515327,0.03198,0.008768854,0.00978661,0.014713857,0.011971316,0.015525075,0.006276849,0.017270345,-0.0003179982,0.0034402637,0.01261334,0.007756422,-0.012598238,0.013377136,-0.015203185,-0.029311076,0.00288486,-0.014914015,-0.029780649,0.028349077,0.010174793,0.005550574,-0.051465124,-0.03676065,-0.025066467,0.00078831834,0.025320822,-0.0067820437,-0.032484822,0.0021699788,-0.022086015,-0.00024802593,0.034347963,0.03382486,-0.02154213,0.015978226,0.044788416,-0.017283984,0.0005608597,0.021281527,0.02492675,0.025159083,-0.019915987,0.050555356,0.0005397433,-0.033829235,0.04191113,-0.0011171431,-0.030485388,-0.034747176,-0.012218172,-0.0076238243,-0.021289542,-0.0015333134,0.0004576416,0.001332103,0.02919334,0.013867075,-0.017383007,0.021044848,0.023826936,-0.008263726,0.006701534,0.012954309,-0.007430471,0.011005235,0.02689093,0.020455137,-0.0312875,-0.02252289,-0.008887654,-0.054244574,-0.04126345,-0.040407225,-0.06969835,-0.051857937,0.0036655976,-0.009858626,-0.031293795,0.025095835,0.03242432,0.0022931634,0.022834146,0.035817146,0.006796797,-0.021084389,-0.008259679,0.027710231,-0.029600417,-0.036182925,0.017621962,-0.053272493,-0.049915962,-0.024398379,-0.018235141,-0.00501579,-0.007171766,0.035678264,0.031385522,0.030188277,0.0002459644,0.008929411,0.0041770595,-0.048341785,-0.032837063,-0.040111937,-0.027385069,-0.022675866,-0.046752907,-0.020575859,-0.03125956,-0.040784806,-0.023145663,-0.024931759,-0.018758457,-0.0022202297,0.016056694,0.015579388,0.03220702,0.029047439,0.0021100799,-0.005795747,0.006198955,0.029143605,-0.029635113,-0.000462857,-0.0031378083,-0.0016738622,-0.0009962084,-0.021668782,0.015592468,0.027479278,0.018246857,0.007082014,0.020003855,-0.0037100518,0.0196349,-0.0077863117,-0.010597843,-0.021475134,-0.03128884,-0.027356822,0.038276654,0.032362565,-0.004152956,0.045039788,0.037771247,0.012340786,0.017217321,0.006170521,0.010619412,-0.019176729,0.0009087663,-0.0069363094,-0.048421085,-0.043267306,-0.03337967,0.022438731,0.061487686,0.040899094,0.004779393,0.027106471,0.05481916,-0.0103859985,0.0098013235,0.051491998,0.024588263,0.032342397,-0.0036359301,0.015776198,0.0069790944,-0.01818693,-0.014022246,-0.041346557,-0.037819736,0.031940702,0.012266269,-0.013600659,-0.010687903,-0.015489912,-0.040517,-0.022391979,-0.032713782,-0.028251924,0.006794457,0.012844003,0.012444923,-0.005233902,0.002158193,0.00018385002,-0.027976343,-0.0068227113,-0.001032071,-0.004346717,0.024868138,0.049704205,-0.0308682,0.014231043,0.046136875,-0.039642625,0.009692553,0.045819595,-0.0064769234,-0.025287263,-0.0205663,0.024973253,-0.0030409885,0.021327056,0.04387829,0.054474402,0.037503276,-0.025485953,-0.029439481,0.01167851,-0.017792584,-0.0128395045,-0.008292045,-0.034427863,-0.024999995,0.002920921,0.013893971,0.025266912,0.021453371,0.0375342,0.019871201,0.025357474,0.04117817,0.026049566,0.0207409,-0.00023554607,0.0011596375,-0.0007825673,-0.030739265,-0.022296818,-0.0051541366,0.0011062488,-0.035473444,-0.021068182,0.016221002,0.010748896,0.01725184,-0.008156365,-0.012958432,-0.028890416,-0.015798468,-0.027332904,-0.035806295,0.009930676,-0.01438835,0.010365072,0.012358405,-0.0034078152,0.02220198,-0.021789469,-0.00035563819,0.01913977,-0.018117798,-0.038611848,-0.031614445,0.004362345,-0.024841933,-0.049699046,0.00822988,0.0076389727,-0.017620146,0.06783948,0.07557986,0.033216037,0.088109486,0.09672804,0.08705795,0.096214406,0.11058263,0.057862878,-0.025554689,0.0016585812,0.010635893,-0.03342856,-0.00045442078,0.012798395,0.0067799445,0.03168528,0.008806173,-0.03351576,-0.0312782,0.016931362,-0.017563261,-0.008668664,0.0029549997,-0.030345216,0.011334315,0.014525911,-0.023487208,-0.026998026,-0.06287203,-0.059483644,-0.04889286,-0.077025615,-0.03147294,-0.03627793,-0.06427462,-0.049752302,-0.019889167,0.009312285,-0.012417601,0.0018154924,0.0096410075,0.020922793,0.02939197,0.018684877,0.00852413,-0.026599294,-0.033989068,0.0014122243,-0.014029943,-0.016160313,-0.0065409667,-0.028391084,-0.023706751,-0.009646627,-0.031329535,-0.011437659,0.0103786215,-0.046105996,-0.026532147,-0.0106354235,0.0070435107,0.007112789,-0.00659098,-0.011013181,-0.02250158,-0.016236683,0.003779228,0.0025720168,0.017852671,0.020770878,0.03844195,-0.017089842,-0.009399411,0.011280047,-0.016749265,-0.0043054437,0.019790791,-0.0102414,0.011656636,0.0051076505,0.094587214,0.094960205,0.04749418,0.07075385,0.05102503,0.044025186,0.018248864,0.013614847,-0.007608309,-0.014519747,-0.0329924,-0.042871803,-0.0047046095,-0.010831219,-0.024263272,-0.030427795,-0.036240477,-0.035109766,-0.032455266,-0.030824427,-0.03197272,-0.018609343,-0.007837054,-0.018370274,-0.03096921,-0.018261839,-0.025250653,0.019551206,0.028067565,0.0012848254,0.057398263,0.044831812,-0.0062171225,0.028111275,0.024096979,-0.015238434,-0.014153457,-0.020991523,-0.050726857,-0.034098756,-0.037094504,-0.03211193,-0.0011190486,-0.029395208,-0.00815924,0.0056008,-0.0015553675,0.013616212,0.03721242,0.023425883,0.009399435,0.022346705,0.032027666,0.028459238,0.010217537,0.0054059015,-0.017116822,0.041269932,0.014788468,0.0010174357,0.0358046,0.044604324,0.02659658,-0.05430309,-0.06232484,-0.033486765,-0.025578866,-0.04444691,-0.016026286,0.019155208,0.008031726,0.02814296,-0.010707219,-0.0234345,-0.0037441887,-0.011847138,-0.0007012619,0.0059593986,-0.0016768035,0.002216624,-0.0009439688,0.039867777,-0.006411959,-0.0058287294,-0.021347187,-0.033716757,-0.02347049,-0.04737213,-0.034256388,-0.027699593,-0.041118737,-0.04419291,0.007481545,-0.035963643,-0.03180754,0.00026782288,0.0044835433,0.008477551,0.0048812707,0.027141279,0.016477076,0.027470142,0.025059456,0.028719809,0.019699717,0.029949853,0.0361047,0.016943337,0.0069659688,-0.0037967623,-0.00043786078,-0.013070868,0.0070796786,0.035652485,0.002049412,0.013910524,0.0038275775,0.018084016,0.040743414,0.08800415,-0.0133571755,0.0273846,0.054459266,-0.03666328,-0.024334358,-0.020583909,0.005887957,-0.007171037,-0.0017060942,0.0031347435,3.2796524e-05,-0.018468043,0.026209403,0.00871795,-0.018710243,0.02061365,0.014459373,0.02506484,0.0047048484,-0.008079465,0.002827185,-0.003119017,-0.006202599,-0.0020229833,-0.0029900342,0.007202826,-0.0056630727,0.014933343,0.019351948,0.010702335,0.017103458,0.032765772,0.0104585225,-0.006847736,-0.007868865,0.012240604,-0.017802646,-0.022195812,-0.017675592,-0.005443557,-0.0039500953,0.017490763,0.03105559,0.023802808,0.03121055,0.025075383,0.022531351,0.032948732,0.031275228,0.05037207,0.03398476,-0.0261167,-0.00927438,0.002860221,-0.022725794,0.011501512,0.0142525,-0.0059703244,0.008982821,0.020378778,-0.047495414,-0.018805584,-0.0023231579,-0.032364607,-0.020829806,0.0007808529,-0.019261708,-0.025083004,0.017751858,0.019239923,-0.033480037,-0.016006364,0.02575302,0.002483036,0.00395513,0.04488126,0.053265583,-0.0005080454,-0.010755268,-0.01032417,-0.009760936,-0.005895276,-0.018931322,-0.0019444579,0.03363776,0.013956625,0.009846107,0.023193441,0.01599771,-0.008605161,0.0077454178,0.0006437958,-0.021918107,0.013425253,0.0068858634,-0.017428255,0.00685099,0.0049238284,-0.013091116,-0.00970649,-0.024386644,-0.016716544,0.002985638,-0.019016117,-0.013546728,0.002391579,0.003917187,0.01348814,0.038543317,0.059710123,0.054845456,0.04496573,0.06370977,0.027964229,0.019004382,0.0076835314,0.004654504,-0.018190749,-0.034811445,-0.03163872,-0.034428596,-0.04278797,-0.041941077,-0.031337686,-0.035340168,-0.030386128,-0.03762296,-0.021491854,-0.028481036,-0.026602793,-0.01741988,-0.008492709,0.0,0.0,0.0,0.0,0.0,-0.0,0.0,0.0,-0.0,0.0,-0.0,-0.0,0.0,0.0,0.0,0.0,0.0,0.0,0.0,-0.0,0.0,-0.0,-0.0,-0.0,0.0,0.0,0.0,0.0,-0.0,0.0,0.0,-0.0,-0.0,-0.0,0.0,-0.0,-0.0,-0.0,-0.0,-0.0,-0.0,-0.0,-0.0,-0.0,0.0,-0.0,-0.0,-0.0,-0.0,-0.0,0.0,0.0,-0.0,-0.0,0.0,-0.0,0.0,0.0,-0.0,0.0,0.0,0.0,-0.0,0.0,0.0,-0.0,0.0,0.0,0.0,-0.0,0.0,-0.0,-0.0,-0.0,-0.0,-0.0,0.0,-0.0,-0.0,0.0,-0.0,-0.0,-0.0,-0.0,0.0,0.0,-0.0,0.0,0.0,-0.0,-0.0,0.0,0.0,-0.0,0.0,-0.0,-0.0,-0.0,-0.0,0.0,0.0,0.0,-0.0,-0.0,-0.0,-0.0,-0.0,0.0,0.0,0.0,0.0,-0.0,-0.0,-0.0,-0.0,0.0,0.0,0.0,-0.0,-0.0,-0.0,0.0,0.0,-0.0,-0.0,0.0,0.0,-0.0,0.0,-0.0,0.0,0.0,0.0,-0.0,-0.0,-0.0,-0.0,-0.0,-0.0,-0.0,-0.0,-0.0,-0.0,-0.0,-0.0,0.0,-0.0,0.0,-0.0,-0.0,0.0,-0.0,-0.0,-0.0,0.0,0.0,0.0,-0.0,-0.0,0.0,0.0,-0.0,0.0,-0.0,-0.0,-0.0,-0.0,-0.0,0.0,0.0,0.0,0.0,-0.0,-0.0,0.0,0.0,0.0,-0.0,0.0,-0.0,0.0,-0.0,0.0,0.0,-0.0,0.0,0.0,-0.0,0.0,-0.0,0.0,-0.0,0.0,-0.0,0.0,-0.0,-0.0,0.0,0.0,-0.0,-0.0,-0.0,-0.0,0.0,0.0,0.0,0.0,-0.0,0.0,-0.0,0.0,-0.0,0.0,0.0,0.0,0.0,-0.0,-0.0,0.0,-0.0,0.0,-0.0,0.0,0.0,0.0,-0.0,-0.0,0.0,0.0,0.0,0.0,0.0,-0.0,-0.0,-0.0,-0.0,-0.0,-0.0,-0.0,0.0,0.0,-0.0,-0.0,0.0,0.0,0.0,-0.0,0.0,0.0,-0.0,0.0,-0.0,0.0,0.0,0.0,-0.0,0.0,-0.0,0.0,0.0,-0.0,-0.0,0.0,-0.0,-0.0,-0.0,-0.0,-0.0,-0.0,0.0,-0.0,-0.0,0.0,0.0,-0.0,-0.0,0.0,0.0,0.0,0.0,-0.0,-0.0,-0.0,0.0,0.0,0.0,-0.0,0.0,-0.0133482255,0.01686873,0.0124247465,0.0112323295,0.034358174,0.0457834,-0.03486035,0.022053659,0.03444079,-0.008692402,-0.022190008,-0.052003395,-0.012442395,-0.064126,-0.06488414,-0.00973567,-0.03006882,-0.03284111,-0.017444909,-0.01912873,-0.021028448,0.0045312075,0.003431397,-0.01404657,0.045702178,0.051489387,0.028769499,-0.00812445,-0.023170698,-0.020304473,-0.013548378,-0.032542817,-0.024559293,-0.013076629,-0.0068878424,-0.012242919,-0.008224994,-0.055067025,-0.062014107,0.0052367267,0.01091615,-0.019798404,0.035119336,0.07508991,0.053648666,-0.008569454,-0.00058300054,0.013003162,-0.0055221654,0.004963299,0.023478124,-0.020358196,0.0018086976,0.015340717,-0.019840699,0.03933871,0.022728654,-0.0133718625,0.0099590095,-0.013257949,-0.009633922,-0.027139546,-0.053982083,-0.059258994,-0.085631065,-0.08913594,-0.0438988,-0.022965798,-0.030050507,0.012684702,0.018985912,0.036662612,0.0003487265,0.012873271,-0.0005407459,0.030940507,0.03480108,0.015275114,0.023826063,0.013241325,-0.027962156,1.674084e-05,0.012509773,0.0010958336,-0.005625216,-0.042132854,-0.03664991,-0.013066715,-0.059021637,-0.05590761,0.07301067,0.07201219,0.04010601,0.09808386,0.08668865,0.062463798,0.018799085,0.061149877,0.050818413,-0.043593056,-0.06129819,-0.05552961,0.0021729947,0.0025573862,0.019022357,0.01803519,0.060489237,0.054791763,0.018988786,0.032057352,0.050404545,0.01679014,0.059346914,0.038685083,-0.012189063,0.03122875,0.030633073,0.07937739,0.06939954,0.00036826325,0.1023414,0.06753468,0.009437285,0.026535565,0.020296939,0.016051086,0.01762763,0.021619292,0.012782167,0.042690802,0.006142787,0.022486141,0.013988393,-0.017186005,-0.02970369,0.025832335,-0.025283232,-0.031589273,-0.010229423,-0.0015685535,-0.010730787,-0.018391086,-0.01488422,-0.041143373,0.0045892852,-0.020709096,-0.037105817,0.017565738,0.012936568,0.014240076,0.008673157,0.045129023,0.025780994,0.004739034,0.049427237,0.08939542,0.024264244,-0.001965691,0.0156163955,-0.0040183435,-0.010556043,-0.01889326,0.04132023,0.038068797,0.03802557,0.028822273,0.019837882,0.05229163,-0.02246924,0.0042373776,0.028770132,0.04883993,-0.0004912459,-0.0028596388,0.043985207,-0.034773145,-0.050749376,-0.028650912,-0.03259191,-0.029587502,-0.036010917,-0.011688499,-0.013195576,-0.030601077,-0.0011820288,-0.020134943,-0.017944943,-0.017173361,-0.036279574,-0.053313136,-0.039914966,-0.02856262,-0.05149637,-0.029197998,-0.009862808,-0.009815898,-0.011827436,-0.012040036,0.036928922,0.028640576,0.010290975,0.019911412,0.045646273,0.036923807,-0.007993757,-0.0023357577,-0.015781024,-0.023953399,0.0028029485,-0.003687615,0.008437095,0.01229594,0.049965568,0.048602093,0.0921527,0.10245722,-0.007574976,-0.0074388348,0.012867221,-0.020174844,-0.014856318,0.015383988,0.0039767725,-0.00786537,0.021084497,-0.01591125,-0.025523629,-0.03281084,0.007267839,-0.05516381,-0.05601052,0.0130787585,-0.012424631,-0.0112280715,0.04764904,0.0797997,0.043497395,0.021193046,0.063520096,0.08251937,0.023644466,0.059610765,0.10057426,0.036161266,0.04621583,0.021626247,0.07067822,0.09517648,0.026156522,0.038945105,0.02904104,-0.011561544,-0.050735425,-0.014392957,0.0038212738,-0.044301905,0.017122788,0.033067953,-0.024415066,0.039035965,0.03723517,0.019019347,0.012650735,-0.036465023,-0.0042320443,0.0016642075,-0.02533555,-0.011924206,-0.0035287545,-0.03594932,-0.05212504,-0.051777493,-0.05055686,-0.0142633505,-0.03063271,-0.04152151,0.019192027,-0.02052716,-0.044648223,-0.0015038125,-0.0433972,-0.04213784,0.026041266,-0.028695302,-0.07359884,0.053457584,-0.018649349,-0.08117188,-0.0,-0.0,-0.0,0.0,0.0,0.0,0.0,0.0,-0.0,-0.0,0.0,0.0,0.0,0.0,0.0,0.0,0.0,0.0,-0.0,-0.0,0.0,-0.0,-0.0,0.0,-0.0,-0.0,-0.0,0.0,0.0,-0.0,-0.0,-0.0,0.0,0.0,0.0,-0.0,-0.0,-0.0,-0.0,-0.0,-0.0,-0.0,-0.0,-0.0,-0.0,0.0,0.0,0.0,0.0,0.0,0.0,0.0,0.0,0.0,-0.0,-0.0,-0.0,-0.0,0.0,0.0,-0.0,-0.0,-0.0,-0.0,0.0,0.0,-0.0,0.0,0.0,-0.0,0.0,0.0,0.0,