0.013469219,0.03959796,-0.011621986,0.043651868,0.07202069,0.008081579,0.022367882,0.065409526,0.028381042,-0.119959064,-0.023920665,0.05454327,-0.08166044,-0.021041041,0.022633638,0.10872783,0.073141046,0.016068388,-0.00063707854,-0.08766342,-0.0810378,-0.009664647,-0.03753001,-0.09131302,-0.04654134,-0.025607117,-0.053156428,0.0046495474,-0.14947608,-0.21591485,0.13266604,-0.08669931,-0.15257452,0.14088058,-0.08861,-0.15564352,-0.039490417,0.01101301,-0.0014142599,-0.07979898,-0.04901082,-0.040665444,-0.10666471,-0.08339588,-0.08013334,0.024636751,0.012440616,-0.18025665,0.20707469,0.0807531,-0.1254028,0.05336553,0.087765284,-0.059362758,-0.022530487,-0.06797097,0.03591009,0.03338283,-0.11945134,-0.02004565,0.16361097,-0.032789074,-0.081122935,-0.14306505,0.0039298953,-0.016641239,-0.071190745,-0.027875504,-0.025930805,-0.16211998,-0.094242886,-0.12652291,-0.018833064,0.045939106,0.048834905,-0.0639237,0.024053466,0.08233411,-0.067232616,-0.017214749,0.050781224,-0.101497315,-0.021610273,0.0015939443,-0.08794778,-0.017273948,0.051742423,-0.06872115,-0.06333292,-0.03692803,0.019891344,0.21789335,0.036020588,0.09927373,0.24013671,0.0036587853,0.025074897,0.07942533,0.0019942485,0.028374301,0.15523921,0.11211572,0.04238885,0.11207737,0.09536019,0.06266232,0.10349527,0.097584695,0.060303774,0.0015506188,0.0094223665,0.0694544,0.004271038,0.0023474593,0.086810865,0.037116595,-0.01036039,-0.086468935,-0.03703468,0.015017762,-0.19042547,0.08191678,0.14872624,-0.19682953,-0.0077982014,-0.09204284,-0.10227145,-0.070811875,0.14988774,-0.12546939,-0.0977647,0.07127161,-0.12409623,-0.10092119,-0.026560439,-0.11811343,0.0407376,0.0055054147,-0.12546246,0.019485405,0.05953224,-0.1560433,-0.046301752,0.020451745,0.066642374,0.07758445,0.106520355,0.043377966,0.012266396,0.113489136,-0.11387076,-0.12115318,0.009308308,0.0144937085,-0.09619092,-0.012984956,0.09730325,-0.04108362,-0.031904697,0.09058316,0.03048433,-0.044744954,-0.015474026,0.0978879,0.07535084,-0.26712707,0.022232186,0.1880969,-0.23059158,-0.09956772,-0.04764164,0.110590905,0.089755975,0.004224457,-0.029485002,-0.006437728,-0.073554024,0.13538292,-0.004150778,-0.07047847,-0.088710375,-0.078198284,-0.086966805,0.008283907,-0.011327489,-0.06754993,0.009273758,0.0104617905,-0.019765282,-0.052062456,-0.010329806,0.14379133,-0.14290544,-0.20647092,0.15392755,-0.114907585,-0.32058468,-0.1350353,-0.24635947,-0.49500257,-0.4208095,0.08894047,-0.13863361,-0.24214147,0.5232764,0.35044456,0.21293154,0.17498422,-0.01601981,0.003597559,0.063167,-0.12927502,-0.09884177,0.066711836,-0.07128699,0.0036620707,-0.0701415,0.018420754,0.1357327,-0.013755849,-0.057118215,-0.053708136,-0.058689643,-0.14437142,-0.1315108,-0.092023484,-0.04360675,0.084671006,-0.043498438,-0.1331289,-0.033132732,-0.07558186,-0.21247518,-0.17777227,-0.07267842,-0.18031782,0.28774932,-0.08812156,-0.36070824,0.0012740181,-0.017016161,-0.122697935,-0.12129345,-0.16471948,-0.064813636,0.03467016,-0.06376361,-0.09151081,-0.010793121,0.0015554337,-0.0705969,-0.036059555,0.0017547975,0.09239897,0.07721467,-0.011396262,0.1297596,0.121902496,0.02982161,0.1678642,0.16819835,0.044277545,-0.1204347,0.19716078,-0.08816516,-0.10403032,0.0060835457,0.11441955,-0.044990666,-0.15805785,-0.041719176,-0.28845835,0.14266776,0.0063135806,-0.24432245,0.22662143,-0.05883737,-0.17562534,0.14044088,-0.13777438,-0.20075873,-0.13287416,0.013133091,-0.060256317,-0.10830757,0.09657945,0.13000214,0.11406647,-0.15510102,0.099707894,-0.037428655,-0.14969178,0.046799637,-0.022351788,-0.01700672,-0.041432112,0.022831691,0.110204265,0.25362745,-0.04729443,-0.024343042,0.08249046,0.06471688,-0.06411176,0.035985913,0.117807016,0.09670194,0.13842869,-0.015822485,0.030369075,-0.05427271,0.08005434,0.0060898107,0.02289691,-0.02520019,0.016212981,-0.0057745967,-0.021710189,-0.1667048,-0.07094551,-0.013511714,-0.12720415,-0.16676229,0.055387072,0.021526707,0.051266655,0.052623156,0.027171955,0.102654375,0.0204349,-0.0007717037,0.041269157,0.009865563,-0.09759693,-0.044590212,0.07036459,0.03218629,0.36052394,-0.18624286,0.002840202,-0.122436754,-0.019649288,-0.015664892,-0.07746311,-0.040593293,-0.042252004,0.23561752,-0.084713206,-0.052334506,0.048155848,-0.0654244,-0.02821681,0.009904344,-0.22528942,0.1514542,0.40421665,-0.49019733,0.0620247,-0.059260923,-0.1500101,0.0037089773,-0.15886737,0.027054155,0.044987556,0.010405513,0.098934874,-0.0764705,0.11203322,0.06570544,-0.041906103,-0.16681816,-0.12752812,0.08000099,0.0834796,-0.02593346,0.014722828,-0.06739055,0.007926419,-0.040080577,0.033352334,-0.08511953,0.052793384,0.06443243,0.09844238,-0.05354819,-0.07386941,-0.022555672,-0.060391456,0.015089173,0.08509001,-0.07117911,0.14575233,0.11687637,-0.005997598,0.16220857,0.05355947,0.015804425,0.031683765,-0.038147807,0.10154651,0.25691187,0.021114003,0.10475268,0.17431009,-0.016329605,0.008125917,-0.07910138,-0.07285092,0.27138054,-0.45893103,0.20853883,-0.011924977,-0.017181966,-0.026867438,0.032546785,-0.006983326,-0.0045626713,0.035634167,0.04904963,-0.043873176,0.069124,-0.03888066,0.028122319,0.034135655,0.080411166,0.10816904,-0.020188143,0.08505951,-0.044426695,0.04292532,0.049537044,0.012547167,-0.0,0.0,0.0,0.0,0.0,0.0,0.0,0.0,-0.0,-0.0,0.0,0.0,-0.0,-0.0,-0.0,0.0,0.0,0.0,-0.0,-0.0,0.0,-0.0,0.0,0.0,-0.0,0.0,0.0,0.0,-0.0,0.0,-0.0,-0.0,-0.0,0.0,-0.0,0.0,0.0,-0.0,-0.0,-0.0,-0.0,-0.0,0.0,0.0,-0.0,0.0,0.0,0.0,0.0,0.0,0.0,0.0,0.0,0.0,-0.0,-0.0,-0.0,-0.0,-0.0,-0.0,-0.0,-0.0,-0.0,-0.0,0.0,0.0,-0.0,0.0,0.0,-0.0,-0.0,0.0,0.0,0.0,0.0,-0.0,-0.0,0.0,-0.0,-0.0,0.0,-0.0,-0.0,-0.0,-0.0,-0.0,-0.0,0.0,-0.0,-0.0,-0.0,-0.0,0.0,0.0,0.0,0.0,0.0,-0.0,0.0,-0.0,-0.0,0.0,-0.0,-0.0,0.0,0.0,-0.0,0.0,0.0,0.0,0.0,0.0,0.0,0.0,-0.0,-0.0,-0.0,0.0,0.0,-0.0,-0.0,-0.0,-0.0,-0.0,0.0,-0.0,-0.0,-0.0,-0.0,-0.0,0.0,-0.0,-0.0,-0.0,-0.0,-0.0,-0.0,-0.0,-0.0,-0.0,0.0,0.0,-0.0,0.0,-0.07479587,-0.17024986,-0.10449172,0.0034839562,-0.013995854,-0.040849272,0.10217447,0.2406596,0.05380092,0.08940607,0.23339076,0.28273794,-0.22657996,-0.24625058,-0.16879795,-0.09342047,-0.05644635,-0.28716147,-0.1729842,-0.41755503,-0.31182405,0.12111794,0.082635865,-0.04278818,0.08932411,0.370592,0.21097401,-0.15581036,-0.26387003,0.15037607,-0.089298055,-0.008608168,-0.042255044,0.06744975,0.14263554,0.061637737,0.08657404,0.11801849,0.14140072,0.07101013,0.078276,0.099773355,0.07342378,0.06061913,0.06981006,-0.1387453,-0.6270343,-0.065455094,0.2412528,0.14248268,-0.14174584,0.08438044,0.5668774,0.33087614,0.30065885,0.3088514,0.25634477,-0.23993513,-0.16006044,0.19224302,-0.4227976,-0.4576985,-0.10295355,0.118230715,0.17610317,0.09843669,0.0014612171,-0.14448489,-0.08109327,0.036429223,-0.09120428,-0.082295276,-0.12198332,-0.11177971,-0.24736023,-0.01434518,-0.099955305,-0.22875652,-0.031812154,-0.04515226,-0.10109784,-0.14756124,-0.014389651,-0.03475181,-0.103288785,0.14117028,0.11968324,0.21325871,0.09746968,-0.14880313,0.27387542,-0.036439918,-0.2421651,-0.039421845,0.0047433903,0.037919,-0.2132988,0.17018853,0.21918657,0.07018323,-0.014764631,-0.110436216,-0.11413363,-0.068406336,-0.1145604,0.001581876,0.11313629,0.18345605,-0.10346988,-0.14921314,-0.13435496,-0.0769351,-0.060344722,0.037346233,0.16235383,0.21629936,0.1713598,0.019105,0.089958854,-0.027270118,0.21355855,0.25745535,0.033716794,-0.27442542,-0.20255497,-0.0038042262,0.24511895,0.17473307,-0.28273475,-0.2966378,-0.22029315,-0.07958107,-0.035240028,0.07044711,0.28247067,0.28730938,0.22186257,0.018303648,-0.07596276,-0.035117745,0.10011199,-0.49408942,-0.4520059,-0.120041154,-0.017534979,-0.013659628,-0.0778793,0.058495022,0.06256566,-0.006938494,0.075823836,0.070313185,0.014952966,0.10487627,0.022519419,-0.0357267,-0.075118214,-0.06850693,-0.04460471,-0.09888061,-0.030095156,0.028618664,-0.001435814,-0.014691441,0.06518548,-0.074731655,-0.02767725,0.09254535,-0.019672243,-0.0064695836,0.060599074,0.040319897,0.024299968,0.039975684,-0.13112484,-0.051007748,0.15312354,-0.021914441,-0.056463223,0.06300593,-0.017638877,0.0031303281,0.016614854,-0.027449017,0.0031451287,0.008308477,-0.024263801,0.01184307,0.028269896,-0.04056078,-0.080802865,0.038933434,0.04570525,-0.04602124,-0.03385977,-0.027091062,-0.013885587,-0.047491115,0.09432614,0.013544474,-0.047438864,0.08941087,0.0052480474,-0.10732494,-0.02219088,0.0003126337,-0.029399695,0.09376161,-0.020583102,-0.062494118,-0.08595365,-0.22007933,-0.23760974,-0.04005979,-0.1307457,-0.18300341,-0.039664857,0.030094417,0.06757753,-0.057463344,-0.052445438,-0.015094596,-0.0039785705,0.013361594,-0.011391982,-0.13273059,-0.12125432,-0.024411462,-0.07221721,-0.16164316,-0.13680594,0.054731503,-0.06257508,-0.028020794,-0.029334454,-0.011804683,0.021362087,0.14878465,-0.0018334426,-0.06739323,-0.08256852,-0.022006916,-0.0054801935,0.009631046,-0.029272847,0.016589692,-0.080736026,-0.09955945,-0.0009836362,-0.056175496,-0.056864623,0.04819031,-0.023377754,-0.046635542,-0.06923697,0.04342531,-0.003303921,-0.046676766,0.05421896,0.029092293,-0.015323476,-0.057232697,-0.051005777,0.029159972,-0.042368982,-0.008093492,0.05153351,0.022707433,-0.017955434,0.0058908975,0.033851784,-0.010970769,-0.05959761,-0.051973507,0.023500713,0.04179582,-0.08060036,0.026793813,0.05407654,0.042886723,-0.021080472,-0.06672469,0.09568678,-0.027161617,-0.1417712,0.11617164,0.026228461,-0.060176652,-0.3076659,-0.10725351,-0.20194599,-0.18971007,-0.041779842,-0.026205754,0.119681925,0.10137465,0.19245884,-0.11957301,0.09646394,0.14573897,-0.023357375,-0.016094483,0.085266784,-0.07923433,-0.01852816,-0.08096045,-0.11206159,-0.013579765,0.041848633,0.031112604,-0.2801301,-0.105861366,-0.013042811,0.066941485,0.068869196,0.060771305,0.07977585,0.11307005,0.107375525,-0.17912169,-0.06685422,-0.06616312,-0.061115913,0.0040017674,-0.036936384,-0.029779032,-0.06379018,-0.06967822,0.008101776,-0.023288889,0.07069955,0.077615626,0.0060200887,0.09039332,-0.1724894,-0.06787754,-0.15082245,0.048447162,0.11399373,0.19422105,-0.032073572,0.044960156,0.1966921,0.19930464,0.102143556,-0.1622591,0.18007027,-0.068181306,-0.2563111,-0.205724,-0.1878936,0.043841638,-0.12602147,0.025638552,-0.12579349,0.13474509,-0.023431268,-0.005538437,-0.040990196,-0.028466888,-0.09496093,-0.031390548,0.020700807,0.0055365157,0.0058480646,0.039404158,0.050052635,0.032603353,-0.040748615,0.107226536,0.07651961,-0.07000356,-0.08257636,-0.055987693,-0.006822975,-0.005719321,0.005371796,0.027647993,0.034822013,0.041370083,-0.08740685,0.016478231,-0.11948088,-0.09932048,0.20534204,0.017547343,-0.16647005,0.07502199,-0.0040312666,0.06640165,-0.010161429,-0.04322628,-0.10646687,0.0448635,0.09496053,-0.05143985,0.091189496,-0.048875544,-0.07782685,-0.081262626,-0.055504505,-0.15796725,-0.03996965,-0.014960857,-0.029487275,-0.28263637,0.039117202,-0.042182356,0.2961703,-0.2744366,0.20803978,-0.09169163,0.0261821,-0.021482186,0.21055374,-0.05520034,-0.15490714,0.1611816,0.10644972,-0.09370226,0.030360535,-0.09495082,-0.06144141,0.124694794,0.08473979,-0.085058555,0.025905652,0.11581899,-0.08947222,0.074111395,0.069992244,-0.099700496,-0.0051298435,-0.055747703,-0.04906094,0.03476855,-0.030856967,-0.070638016,0.03692944,0.060326207,-0.040691894,0.2966766,0.06567819,-0.11454016,0.11941734,-0.09303033,-0.078599215,-0.017361807,0.017626952,-0.091913804,-0.27272356,-0.22164139,0.10193011,-0.10456661,-0.09691385,0.3244564,-0.05019997,-0.03173898,0.2545039,-0.25755423,-0.13255015,-0.009993741,-0.12563546,0.014493639,0.15085928,-0.09806342,-0.1071867,0.022051914,-0.08950124,-0.04126951,-0.03971767,-0.04427315,-0.0023697016,-0.021919653,-0.046731096,-0.039859336,-0.087149486,-0.03381612,-0.14238004,0.16903056,-0.082448974,-0.1921369,0.19294223,0.13969426,-0.13611887,0.12873742,-0.196212,-0.040455412,0.13185506,-0.19947383,0.03827283,0.2552618,-0.18853213,0.09816182,0.10692101,0.08006519,0.12597463,-0.13449225,0.058986954,-0.08520132,-0.03642981,-0.13066135,-0.16951686,0.04777878,-0.0787583,-0.16413434,-0.12204445,-0.025261408,-0.08977568,0.00096067326,-0.01988038,-0.039749015,0.024917973,0.10458191,0.062475313,-0.004301447,0.16040598,0.11176208,0.079282425,0.1536716,0.026462443,-0.06720568,0.21383257,-0.056861777,-0.16794981,-0.120798334,-0.48147085,-0.29825503,-0.22487205,-0.37222013,-0.061168447,-0.07871886,-0.25666985,-0.089890085,-0.019509545,-0.14128149,0.051978596,0.068945654,0.07090003,0.04748954,-0.069903255,-0.03623121,-0.0068191863,-0.09244627,-0.054386146,-0.059006482,-0.044948634,-0.013207941,-0.04009799,0.08368822,-0.01218446,-0.022257164,0.16068827,0.12151861,-0.057710934,0.101468116,-0.12531957,-0.12568754,0.042868644,0.0660056,0.07452509,-0.016507985,-0.11163219,0.05395074,-0.07410075,0.036526367,0.16971686,0.26847023,0.04593703,-0.19394532,0.16448382,-0.079493485,-0.2079523,-0.0022387237,-0.098795146,-0.12042591,-0.12308462,-0.21344501,-0.15059912,-0.13528113,-0.17840819,-0.10604002,-0.043816734,-1.5265103e-05,0.08514402,0.010246545,0.04965768,-0.0006698245,0.045775346,0.13129221,0.08455448,-0.019815821,0.06182658,-0.06945684,-0.015581285,-0.07835479,-0.11816177,-0.0755084,-0.15416634,-0.12908918,0.10292094,0.066309415,0.0073150955,0.050074182,0.03920229,-0.039625224,-0.039826766,-0.085493155,-0.040590364,0.024761079,0.030124571,0.15685582,-0.08937669,-0.079234175,-0.06625295,-0.1510454,-0.13264,-0.10424503,-0.10958471,-0.10597262,-0.07768632,0.16824742,0.19356161,-0.029244242,-0.06727281,0.062309317,0.045535382,-0.23933107,-0.2394676,-0.14146744,0.05800446,0.16021869,0.16730464,-0.12603375,-0.13848516,-0.09170491,-0.1752313,-0.19922346,-0.053375885,0.02214722,-0.04100524,-0.05025954,-0.079100735,-0.082985565,0.013600084,0.028727142,-0.01658277,0.05792178,-0.008023058,-0.0236619,-0.11746072,0.01524781,0.010046754,-0.06987343,-0.056169327,-0.01729345,-0.038547847,-0.011378172,-0.034673557,-0.09466366,-0.024326123,-0.0041803177,-0.004865989,-0.0010267773,0.028485427,0.08133222,-0.17183635,-0.12291156,-0.105822384,-0.38113016,0.0022727407,0.15707225,-0.09476846,0.23616615,0.11612072,0.091048636,0.018701755,-0.010345373,0.0193398,-0.14207767,-0.06669994,0.041034628,-0.064878374,-0.022284836,-0.0422066,-9.7976066e-05,0.024939256,-0.06558375,-0.022983894,-0.012559986,-0.042003155,-0.008362834,-0.014370174,-0.027011288,0.048000634,-0.11985095,0.05594635,0.024248354,0.08306267,-0.06529086,-0.07578699,-0.013303643,-0.05322485,-0.2773343,-0.19513409,0.11344685,-0.11494704,-0.10941005,0.09425396,0.12365624,0.18859501,-0.09769749,-0.07289784,-0.07352277,-0.07224228,-0.067911796,-0.00035349905,0.043465327,0.04331915,0.10033919,-0.026829625,-0.054717794,-0.093584776,0.06573835,0.042910773,0.03187364,0.11888617,0.019398412,0.06622206,0.17519888,0.16284816,0.044592217,-0.018897349,0.06217914,0.02977565,-0.071632035,-0.030287744,0.019952416,0.04575473,0.2551559,0.16327643,-0.048476294,-0.06194462,-0.069071405,-0.058712967,-0.13648231,-0.12537955,-0.0020376511,0.2485392,0.1622379,-0.10605017,-0.0143849,-0.12822141,-0.07525222,-0.11522601,-0.21410502,-0.23443173,-0.16935967,-0.12569845,-0.12091256,-0.027033841,0.007819425,-0.042341247,0.04508937,0.06158418,-0.12099326,-0.15450871,-0.0665859,-0.27806062,-0.41032565,-0.26121256,0.061454948,-0.024007972,0.01483366,0.08915176,-0.042181335,-0.1520178,0.09045184,-0.029410146,-0.06553022,-0.09171186,-0.082079776,-0.078995325,-0.12595478,0.24320464,0.02297081,0.044789724,0.21483216,0.036968872,0.04214232,0.038190726,-0.05634765,-0.125906,0.02658059,-0.044377096,-0.023729881,0.030156117,-0.021264546,0.02963343,0.10241623,0.076224476,0.023186386,-0.008236125,-0.11020629,0.0028951594,0.030101346,-0.020963548,0.0014303696,0.02547329,-0.00991887,-0.18951342,0.19532062,0.32510772,0.22539218,0.16222608,-0.11038743,0.08823845,-0.0824981,-0.14819464,0.04606676,0.037665714,0.07652399,0.020236326,-0.05079669,-0.07312231,-0.041258026,-0.07498835,-0.08512049,0.08624824,0.12132232,0.11814202,0.102701694,0.09058217,0.0795691,0.085500956,0.047456194,0.063797966,-0.04747079,-0.07106413,-0.03880954,-0.08063057,0.14953116,0.11580321,0.054369308,0.14269403,0.020727508,-1.982508e-06,0.117774844,0.061807375,0.17105137,0.2566058,0.17370598,-0.19993131,-0.1331402,-0.048805702,-0.20546636,-0.047651693,-0.16882595,0.045286644,0.16121742,-0.03515241,-0.03349942,0.06735986,-0.011540547,0.024759153,-0.063775584,-0.11890187,-0.030758223,-0.094329886,-0.15707651,-0.038850423,-0.049777932,-0.052877974,-0.15863763,-0.22803225,-0.117639326,-0.14630117,0.046630163,0.09857259,-0.096948646,0.04542525,0.09137941,-0.0010778703,-0.047699206,-0.02239736,-0.03372416,0.11926332,0.03236302,0.025481652,-0.02377759,0.027982054,-0.06354621,0.013274819,-0.13479875,-0.17820607,0.039460488,0.13995156,-0.07226813,0.041129977,0.033986274,0.00016479674,-0.004985557,-0.034190588,-0.04396266,-0.048700817,-0.046072684,-0.0038985694,0.026792701,0.031230384,0.0005799764,0.046535067,0.04630698,0.012740178,-0.1419887,-0.121826835,0.015627606,0.14512448,0.08209217,-0.017683605,-0.01478708,-0.08326907,-0.052995164,-0.10036204,-0.03930984,-0.069075726,0.103090726,0.08982265,0.08911051,0.023235131,-0.002642386,-0.038208634,-0.2901015,-0.09456408,0.015047832,0.021619985,-0.0376307,-0.16016245,-0.009679517,0.014166954,-0.0942419,-0.048088532,0.019012429,-0.12989241,-0.13960002,-0.06268185,0.018317219,-0.07483886,0.11465048,0.031805128,-0.2198993,-0.1529468,0.04543653,-0.06302389,-0.09870426,-0.039046593,0.024421215,0.08868843,0.06731665,-0.022171991,-0.15980108,0.0008547696,0.13547595,0.13136669,-0.10986041,0.004908094,0.043492228,-0.13966443,-0.050991464,0.07045187,0.008615313,0.0026970883,0.15516275,-0.014572089,-0.0048848535,-0.015510289,-0.012401055,-0.038775627,-0.042912398,-0.052276973,-0.012513174,-0.00242094,0.09053317,-0.19172549,-0.12993884,-0.0740246,0.27170405,0.034058947,-0.020956399,-0.1381529,-0.043516647,-0.014661519,0.015837507,0.056778014,0.007779367,0.08062506,0.028349891,0.10676905,0.08063249,-0.14540355,0.030061567,0.10483356,0.060065318,-0.027911587,-0.047472462,-0.00914356,-0.035927895,0.042092662,0.05615574,-0.008427606,-0.041819677,-0.06355231,0.012606298,0.012903602,-0.021927599,-0.023127353,-0.017834347,-0.0008503171,0.10417115,0.018561374,-0.06846695,0.101368874,0.10120276,0.09926481,-0.01803009,0.0073275226,0.04526704,-0.050828945,-0.070418335,-0.08834749,0.00056047377,-0.032238834,-0.07599279,-0.009851668,0.005458579,-0.026230948,0.03364965,0.053784493,-0.07230675,0.04144601,-0.0013474125,-0.104664885,-0.04335963,0.05237724,0.018511605,-0.054156587,-0.0387666,-0.049701147,-0.0057032453,-0.002422663,-0.0048147244,0.041914534,0.025878334,0.017488567,0.011095026,-0.050753552,-0.019813776,0.18989329,0.1334003,0.114705175,0.16358013,0.12703182,0.13759798,-0.1195464,-0.13874538,-0.08068605,0.017516064,0.029174957,0.04998122,0.07581028,0.11117935,0.075373836,-0.14613661,-0.027872331,0.09746349,-0.047369115,0.015293451,0.0642034,-0.05464218,0.020263756,0.10138746,-0.016707188,0.019390289,0.023133043,-0.015257827,0.032561798,-0.008683249,-0.022275526,-0.010870323,-0.050447673,0.047557168,0.057166208,0.003130572,-0.005098599,0.014410652,-0.0144115975,-0.059999246,-0.03042879,-0.05045334,0.07386172,-0.034054928,-0.06867708,0.019215785,-0.015548361,-0.06345199,-0.078028545,-0.0859978,-0.08086996,0.015335706,0.044975,-0.044337243,0.009626666,0.022548256,-0.052976795,-0.01804479,0.006281202,-0.08461211,-0.01963804,-0.044798404,0.0025934866,-0.039703533,-0.041355826,0.003380833,-0.034449156,-0.0116825765,0.045779157,0.030487483,0.034426294,-0.07292509,-0.1314608,-0.034821585,-0.09183721,0.016244464,0.0024550545,-0.039871946,-0.07044057,0.004513395,0.050325923,0.021977283,0.049328763,0.04198954,-0.088871025,-0.053364534,-0.10589039,0.0046901037,-0.005972023,-0.049092077,0.06718491,0.027206289,-0.048319776,0.08981014,0.064022355,-0.0078469915,-0.24711199,-0.19704525,0.02908118,-0.39067882,-0.2496492,0.05147166,-0.23464787,0.041980546,0.24139623,0.2666377,0.055079844,0.15624975,0.17469586,0.054708075,0.039671198,0.058938347,-0.050641645,-0.13043392,-0.03545798,0.015559313,-0.048158158,-0.16097826,-0.21161148,-0.0789659,-0.056807615,-0.10732884,0.04737753,-0.08223925,0.018230649,-0.07420216,0.1228024,0.1420332,-0.17979401,0.2998686,0.15385336,-0.22060405,-0.08492303,-0.04955731,0.005211786,-0.11549597,-0.0025360046,0.13147944,-0.12660685,-0.02296331,0.12771505,0.005540951,-0.1314216,0.12697077,-0.1795475,-0.1919802,0.08070242,-0.09677357,-0.33575004,0.04354269,0.16029695,-0.035181567,-0.32157567,0.33864653,0.07065991,-0.48697338,0.053117886,-0.24972852,-0.5376914,0.021275144,-0.016898202,0.061978213,-0.030397423,0.0039070053,0.18193689,0.14181322,-0.08465463,-0.008724713,0.10851782,0.0018338136,0.04278588,0.078895114,-0.05633031,-0.110997446,-0.0989095,-0.06932108,-0.019282134,-0.006830667,0.062137228,-0.0810472,0.049668033,0.03626585,-0.12276512,-0.05310023,-0.15873805,-0.042648904,-0.1395474,-0.32430115,-0.1486957,0.049684998,-0.0003984928,-0.0744122,0.2524735,0.2610896,0.02607994,-0.029824765,-0.11933438,-0.19655056,-0.0999343,0.009740264,-0.09875176,-0.081884414,-0.012143614,-0.13968734,0.083736315,0.0926747,0.09501272,-0.058167692,0.025752714,0.055474583,-0.06057757,0.0005900498,0.07035097,-0.04377334,-0.035905287,0.07374019,0.05804477,-0.20869724,0.12242012,0.12269439,0.039257582,0.09322759,0.15635426,-0.054550853,0.03794995,0.18204303,-0.46897957,-0.3055553,0.23950085,-0.43123138,-0.3352873,-0.12521464,-0.060212914,0.12608981,-0.30605692,-0.13329269,0.047794033,-0.015084687,0.07968946,0.21033604,0.14307123,0.08498994,0.058526292,0.013996084,-0.14806093,-0.035479855,-0.083028115,-0.1582659,-0.14652412,-0.030190693,-0.16990209,-0.21665756,-0.093999185,-0.22329341,-0.046430457,0.14242297,-0.025102798,-0.06647131,0.01656894,-0.0067236335,0.08721438,0.009415055,0.018493855,0.05500802,0.047620915,0.02746949,-0.054939497,-0.06193946,-0.24757703,-0.03559994,-0.01883993,0.033301078,0.029362762,0.023035383,0.16099083,0.042035636,0.04663099,0.020159446,0.039975096,0.05193084,0.03506065,0.05571165,0.034983054,0.037697747,0.052690145,0.058525518,0.032959413,0.06527053,0.09191353,-0.08589331,-0.024425352,-0.02365395,-0.22317168,0.08322414,-0.047484316,-0.046000797,0.042771753,0.012585786,-0.015108658,-0.063319355,-0.054365423,-0.008998839,0.10020567,0.00196927,-0.01641521,-0.019818693,0.025485987,-0.17663048,-0.05751832,-0.06781962,-0.15692534,0.20314592,-0.01954513,-0.0026351756,-0.10766913,0.009295305,-0.022331152,-0.12591039,0.009364099,-0.007152062,-0.058935516,-0.076658174,-0.019425249,0.013065595,-0.0073445225,0.115769744,0.068523094,-0.055527557,0.088469274,0.052282963,-0.10668267,-0.027060026,-0.0365587,0.034557812,-0.009556159,0.019009871,0.093077235,-0.13163932,-0.08667942,-0.053395443,-0.052456297,-0.09147349,-0.061651222,0.053435836,0.07261969,-0.092124246,0.07842801,0.15168783,0.0142067615,0.0017491648,-0.00051753514,0.015257195,0.009330022,0.0062653353,0.028380679,0.023090875,0.049859114,0.01213654,-0.010097206,-0.09773601,-0.057102058,0.008365403,-0.030390566,-0.07001149,0.18097742,-0.3770401,0.041439,-0.07044776,0.13687794,0.032583963,-0.02142553,-0.052025177,-0.02940528,0.050771523,0.09968013,0.17664209,0.10324523,0.1508217,0.04463558,-0.031930573,-0.009668344,-0.1179032,-0.12106022,-0.008832211,-0.07452996,0.15264876,0.04908161,-0.085641876,0.07027044,0.0519781,-0.028020827,-0.056224804,-0.052206386,-0.030169075,0.14105883,-0.08637034,-0.34064406,-0.23593986,-0.1342729,-0.06498512,-0.15529682,-0.14581311,0.011603474,-0.0021563526,-0.061442874,-0.057905413,-0.05818615,0.053734094,0.06373151,0.061775602,0.013365365,-0.01519062,-0.026193248,0.016022803,0.06522439,-0.049047664,0.021277025,0.012949991,-0.064146236,0.015802218,-0.05171586,-0.07774881,-0.082776755,-0.037582476,-0.051422894,-0.09373844,-0.029815018,-0.034002,-0.048386138,-0.15099642,-0.012227107,0.07585797,0.054458465,0.23689014,-0.09278992,-0.12598078,-0.19686374,-0.011667389,0.06487368,0.03598035,0.02122213,0.098244034,0.17330717,-0.039753914,-0.19076614,-0.09669936,0.027796654,-0.004831486,0.057646427,0.06862015,0.12591715,0.15163136,-0.24514133,-0.034570415,-0.06875063,-0.084529996,-0.038477585,-0.021767166,-0.033473045,-0.074000016,-0.02291753,-0.035805102,0.0027393186,0.07643544,-0.036251735,-0.09651241,-0.17282736,-0.088508636,0.17485711,0.10351095,0.084090196,0.09259226,-0.067520805,0.058866657,0.01796066,0.02079351,-0.09384503,0.073445864,0.16780809,0.13430579,-0.19811195,-0.19146496,0.06147969,-0.04420322,-0.083112136,-0.07024016,-0.041797638,-0.024312343,0.039902374,0.005542235,0.025426548,0.09688806,-0.0037199915,-0.05468019,-0.053032927,0.06251427,0.08754044,-0.012463613,0.019401481,0.022551605,-0.07210419,-0.0091215195,-0.0176341,0.07703355,0.022669896,-0.2002711,0.22744645,0.15881565,0.02597535,-0.089558296,0.0028688177,-0.028805625,-0.0022270484,0.009671223,-0.013490119,-0.03486957,-0.11820821,-0.14897497,0.07708457,-0.04637198,-0.036445204,-0.069442876,0.09902847,0.119725525,-0.08758511,-0.023808531,0.015261855,-0.08226549,-0.007786724,-0.022630176,-0.0047915177,0.030033058,-0.106772915,0.04031905,0.00399978,-0.11247823,-0.009297877,-0.13216478,0.025621256,0.062858015,0.04849446,-0.095573,0.05317647,-0.0042500393,-0.008120288,-0.043620877,0.031617038,0.0050083045,0.014049511,0.27503338,0.14807624,0.01906089,0.21430975,0.1665149,0.009246287,-0.27362788,-0.42919812,-0.14236878,0.24966171,0.38001922,-0.056591723,0.082959615,0.14903569,-0.036846347,0.18840238,0.16641879,0.120226815,0.13069561,0.074741006,0.037284475,0.031154176,-0.0048936717,0.0029565454,-0.095286846,-0.14999531,-0.011028474,0.026563691,-0.067471236,-0.1885199,0.17118718,0.104189835,-0.04163035,-0.0010229019,0.00039596818,-0.08418471,0.11263082,0.11153077,-0.08595602,0.0130727235,0.0722476,-0.059743863,0.008983828,-0.1608613,-0.15973246,-0.122236915,-0.12130292,0.0051466944,-0.125721,-0.153571,0.019391334,-0.0005188388,0.05492794,0.09677401,-0.07858311,-0.1109559,-0.035284802,-0.031171553,-0.1453214,-0.09845889,-0.035979778,0.04354667,0.091987014,-0.068446,-0.076116025,0.01387802,-0.10749874,-0.05368436,-0.019081034,0.064625576,0.070919044,-0.049684614,0.0021120207,-0.030871863,0.009300644,0.07863893,0.1898997,0.007128705,0.045361716,-0.005402902,0.018208424,0.014561201,0.15301293,0.1647842,-0.045850396,0.06807571,0.1516254,0.018946245,0.026258623,0.013676983,-0.009688794,0.008762354,0.012071199,-0.0174786,-0.005267414,-0.0036287666,-0.1441858,-0.14790879,-0.16011558,0.17044963,0.043493573,-0.18572035,0.033024285,-0.030964563,-0.08300298,0.06596483,0.010896019,-0.06516696,0.24242637,0.078299224,-0.095042795,0.16464083,-0.021034984,-0.1322628,0.13349289,0.06414725,0.13432507,0.07966014,0.043336257,0.08083545,-0.011971312,0.031549636,0.10005782
