-0.0,0.0,0.0,-0.0,0.0,0.0,0.0,0.0,-0.0,0.0,0.0,-0.0,0.0,-0.0,0.0,0.0,0.0,-0.0,0.0,0.0,-0.0,0.0,-0.0,-0.0,0.0,-0.0,-0.0,-0.0,-0.0,0.0,0.0,-0.0,0.005414594,-0.022759413,0.023737632,-0.051702183,0.06312862,-0.06124506,-0.02888203,0.037777815,-0.043158613,-0.0025877324,-0.015216481,-0.022871122,0.03775005,-0.036090788,0.039974708,0.003628647,0.03077717,-0.0020693047,-0.01877266,-0.036845785,0.013499766,0.011112081,0.100972466,0.073022895,0.02459525,-0.038430892,0.018511869,0.04373959,0.028800197,-0.0087998975,-0.06663612,-0.025546037,-0.13683935,0.0336564,0.035151422,0.044373468,0.378254,-0.16719435,-0.09924408,0.08474244,0.17007227,0.2504175,-0.037066456,0.3668862,0.052225053,0.12076291,0.019391935,-0.023263162,-0.18547626,-0.030471133,-0.01941859,-0.043779552,0.08002695,-0.035004005,-0.16400377,-0.21549058,-0.0203921,0.00978801,0.04047474,-0.05197155,-0.024440115,0.17841421,0.30173957,0.1363352,0.1859152,-0.02595718,-0.017099636,-0.13768712,-0.10457053,0.08832469,-0.095317565,0.21342187,-0.10622922,0.28952932,-0.0019138021,-0.022005258,0.024211997,0.059989013,0.0099799065,-0.089310974,0.08477287,0.099314116,-0.06802245,0.009648814,-0.027037907,0.011405359,-0.16302575,-0.029794179,-0.059208214,0.016520172,-0.10718275,0.06421871,-0.17963931,-0.20726596,0.11494974,-0.041308645,-0.13805328,-0.07216836,-0.008718836,-0.09229478,-0.11189923,0.041837044,0.020087454,-0.07683878,0.1163003,-0.027427737,0.11663982,-0.113707684,-0.072377294,0.07861706,-0.049150314,0.06201931,0.28577414,-0.050571296,0.20963773,0.08505663,-0.022302318,0.092125475,0.042569347,-0.13233407,-0.06705784,0.019944143,0.12205444,-0.0025560611,0.025000727,-0.031933468,0.0994097,-0.09882621,-0.010573111,0.019501504,-0.006624205,-0.066143185,-0.09472045,-0.24612325,0.016871298,0.13854732,-0.15924963,-0.16455777,0.031034024,0.05249222,-0.023727803,-0.022162175,0.14469267,0.07890145,0.023507541,-0.08084782,0.013843358,-0.0038593137,0.04896137,0.032398105,0.05049892,-0.05539259,0.0029495482,-0.006193996,-0.016109895,-0.05241206,0.047999162,0.026705448,-0.079908185,0.024201574,-0.14981483,-0.12328302,-0.05080145,-0.046816785,0.18587473,0.041176155,-0.18332668,0.026760755,-0.07272277,-0.10462548,0.1517091,0.050710604,-0.02553075,0.09259326,-0.017685493,-0.009201921,-0.10664045,0.09136717,-0.07459029,-0.049442884,-0.016880786,-0.05891102,-0.016724512,0.07273791,-0.028602222,-0.052102905,0.12332696,-0.048627257,0.08944932,-0.034522425,-0.0187212,0.09639308,-0.025950432,0.076997496,-0.013772794,0.07560219,0.20731317,-0.121633664,-0.1519221,-0.012482064,0.21722242,-0.019934626,0.023082174,-0.058573253,-0.05372331,0.060447372,-0.03824966,0.033436943,-0.13378374,0.21190722,-0.1374746,-0.06669077,-0.005994892,-0.05986118,-0.11780993,-0.039992407,-0.070485264,-0.15952939,-0.10877502,-0.08378618,0.08555034,0.083167695,0.09255977,-0.07120349,0.15722519,-0.00797046,0.010025702,-0.07721756,-0.03790283,-0.13660918,0.074101865,0.11411022,-0.020805793,-3.716944e-05,-0.0042277216,0.19006334,-0.017120158,0.07778039,-0.07948605,-0.020651989,-0.031945854,-0.090111874,-0.06895807,-0.024206085,-0.06829143,0.024713626,0.027579313,-0.045802854,0.07184476,0.12684457,0.02236473,-0.046466418,-0.051536,0.06660654,-0.0010494231,0.043953568,-0.032558855,0.03488421,0.1799742,0.03508655,-0.06402384,0.011594063,-0.072744645,0.016849045,0.25520355,0.08287557,-0.077508934,-0.00027696503,-0.053941835,0.014056488,-0.010575899,0.06602152,0.019962218,0.018931646,0.020751042,0.01636347,0.12847967,0.008329518,-0.16250224,-0.036221284,-0.038828436,-0.001705379,-0.049766637,0.023617273,0.018989837,0.17012273,0.088426575,-0.042308297,0.07744298,0.12805626,-0.058232684,0.0035183947,0.17832494,-0.19778492,-0.07591912,0.034727763,0.08506145,0.02881417,0.019621387,-0.015108975,0.100851275,0.07414431,0.11942637,-0.034574565,0.1754606,-0.11746612,0.004729262,0.011155494,-0.019330874,0.029857293,0.023750257,-0.03342261,-0.016270448,0.099572584,-0.13015892,-0.07664482,-0.06930128,0.083964765,0.16852075,-0.007815351,0.0,0.0,-0.0,0.0,-0.0,0.0,-0.0,0.0,-0.0,0.0,0.0,0.0,-0.0,-0.0,0.0,-0.0,0.0,-0.0,-0.0,-0.0,-0.0,0.0,0.0,-0.0,0.0,0.0,0.0,-0.0,-0.0,-0.0,-0.0,0.0,0.14035659,0.018993156,0.03005177,0.010444003,0.2994579,-0.17567231,-0.01704397,-0.10509911,-0.11410123,-0.07870501,-0.0020621736,-0.049392782,0.10087668,-0.013696469,0.028855015,0.061630737,-0.027104804,-0.05912509,-0.027146889,-0.054429397,0.11140315,-0.0890713,0.121866,0.014601006,-0.079361245,0.10933101,0.06500121,0.0026468972,-0.0049822377,-0.07734407,-0.03562643,0.020863427,0.05040539,0.05902889,0.02614248,0.027806083,-0.0048097568,0.07865397,0.016717484,-0.12310877,0.023211498,0.06517993,-0.08115158,-0.1968432,0.08719604,0.0005654125,-0.019623362,-0.023101585,-0.027886279,0.1685502,-0.18631655,0.09723896,0.09678771,-0.08571478,-0.07060432,-0.28268793,-0.09045547,-0.08207893,0.009015499,0.07348669,-0.034477126,0.06057341,-0.09848999,0.10853961,-0.019938132,0.0013577306,0.026354535,0.06938664,0.06361432,-0.17865668,-0.068504006,-0.0024531884,0.0082480665,0.08809601,0.00050619873,0.041997008,-0.04483906,-0.06821951,-0.02570824,-0.041062105,-0.025750889,-0.060022544,-0.10537503,0.0014568047,0.013072631,-0.041851055,0.019884422,-0.0020284178,-0.023555046,-0.04179256,-0.03854373,-0.07093914,0.08109849,0.0040269806,-0.01953652,-0.111953326,0.1268463,-0.0701918,0.016954621,-0.020109538,0.008493573,-0.071563244,-0.15101157,-0.07730594,-0.16682257,0.13772987,0.009161215,-0.0010932424,0.05537187,-0.03806661,-0.08754146,-0.005031297,0.023272226,0.07811588,0.03383182,-0.120725736,0.05464778,-0.011215705,-0.023810301,-0.015650732,-0.046475597,-0.06934176,-0.13062668,0.062823996,-0.005406163,-0.044562757,0.025288833,-0.15687528,0.07084561,-0.03544145,0.057141747,0.0006469983,0.095893055,0.022094939,-0.06596063,-0.07259143,-0.10340007,-0.05913984,0.036205683,0.12488198,-0.019434875,-0.04690141,0.024626985,-0.012793554,-0.0028681238,-0.006393344,0.105159596,0.0061928616,0.00046363086,0.010420132,0.08674541,-0.016711961,-0.09619686,0.035441577,-0.056099497,-0.10669622,0.05159246,-0.012879532,0.07201827,0.08826054,0.101513535,0.0071811727,-0.15648106,-0.049682137,-0.010380048,-0.23697326,0.09725367,0.085944876,-0.031733356,-0.13273206,-0.014634697,-0.0074443067,0.12853019,-0.03566639,-0.045526505,0.0059938906,-0.039685104,0.03199316,-0.12534896,0.019378714,-0.28077728,-0.006393309,-0.060543895,-0.020552699,-0.06959599,-0.004092309,0.015316026,-0.041591384,0.0057789963,-0.2114729,-0.14756002,-0.105857745,-0.046238814,-0.0645385,-0.0569672,-0.067184456,0.043001015,-0.036388725,0.08513436,-0.009414142,-0.012397019,-0.03912055,-0.00039229475,-0.12238895,-0.0040777405,0.13897905,0.032759365,0.02363969,0.037044983,-0.005731531,-0.041267976,0.01478825,-0.058186207,-0.045750007,0.037883483,0.053840805,0.02093178,-0.005799558,-0.024472,0.053523168,0.060698085,-0.05493287,-0.0051083444,-0.0919646,-0.052496452,0.05305952,0.09874579,0.08077033,-0.07613956,-0.027790349,-0.049279954,0.019452263,-0.021730937,-0.012735977,-0.06766247,-0.093710855,-0.10743619,-0.14389569,-0.08185891,-0.038197074,-0.030825283,0.053975727,0.07641804,0.033163514,-0.107717685,0.04359768,-0.0046149585,0.031954415,-0.04131294,-0.03866097,-0.016081715,0.07084477,-0.08431464,-0.03616448,0.053363755,0.030949699,-0.14858404,0.02746189,-0.13693962,0.16376308,-0.007309085,-0.2249399,-0.0048417435,-0.026031008,-0.09317415,-0.11121836,0.010240037,0.004127156,-0.10513679,0.08296327,-0.19603767,-0.001308404,0.032379653,-0.05082538,-0.0083998805,-0.11098501,0.08348273,-0.010075564,0.17107333,0.03145649,-0.0037088895,-0.0081539545,0.12734294,-0.09752133,0.012715353,0.036475264,-0.03670776,0.05152072,-0.061542764,0.06086755,-0.097046606,0.019777052,-0.106904596,-0.23414296,-0.0023379389,-0.1592094,0.17626743,-0.033348024,0.113777116,-0.20824881,0.050815742,-0.013632569,0.15117188,-0.06368378,-0.2330936,0.251679,-0.15426151,0.16346283,0.08628639,-0.09634954,0.031827834,0.1975533,-0.06802134,-0.013471173,0.03286949,-0.0020348583,0.042044714,0.066812746,-0.015878782,-0.10309347,-0.10687501,-0.2096859,0.02716884,0.012057511,0.016057335,-0.40940413,0.127404,-0.24581723,-0.0009245336,0.08092831,-0.07703937,0.15202235,0.20477,-0.13137926,0.03560948,-0.027893592,-0.17883831,-0.26394695,-0.015302841,-0.12868808,0.04748859,-0.10124084,-0.1546082,0.29689875,-0.04107473,0.05692688,-0.10014691,-0.068402186,-0.033188663,0.13681847,0.039151043,0.17920913,-0.07372567,0.013625947,0.25146753,-0.02135152,0.11510709,0.20137125,-0.043500923,-0.03882821,0.23674141,-0.052548606,0.04687314,0.064251155,-0.025893599,-0.12350724,0.11379369,-0.069236,-0.14061336,-0.008164222,-0.032421876,0.16193354,0.021621617,0.015601079,-0.06467206,-0.08319964,0.18091042,0.072460346,0.0431587,-0.024568632,0.021270553,0.07773696,-0.022729298,-0.1416886,-0.10483595,0.11516304,-0.11086593,-0.020097174,-0.3521999,0.047304876,-0.18188486,-0.17660809,-0.30225545,0.15718548,-0.067082874,-0.091753155,-0.18237174,0.013355642,-0.12662031,0.013407279,0.12710094,0.3126561,0.18862118,0.38314235,0.1628365,-0.05792684,0.15437777,0.07713406,0.056228362,0.0284982,-0.08318121,-0.027005833,-0.08235898,-0.0721055,-0.032533627,0.014513806,0.009539078,-0.04902484,0.021739926,-0.050525,0.19263023,0.016913066,0.02132305,-0.18581627,0.11250319,-0.06527913,-0.007479775,-0.1950204,-0.044991404,0.0690741,-0.10245267,-0.08190635,-0.024905708,0.080702655,-0.0941361,-0.011854835,-0.018392142,0.025829954,0.18232474,-0.0066404077,0.045621637,0.042530354,0.01887365,-0.021181751,0.15299052,-0.051686298,-0.115173794,0.026699718,0.019911408,-0.039835125,0.061004292,0.05888744,0.028824009,0.079143904,0.12532094,-0.072401114,-0.055782236,0.016971994,-0.06867097,-0.00129704,0.04762293,0.03849815,0.07299015,-0.027410131,-0.060431637,0.044237655,-0.012323256,-0.04320621,0.09743991,-0.06252078,-0.021320537,-0.082426794,-0.04385535,-0.031229973,-0.0065287333,-0.055646893,0.03758463,0.007946286,0.07876863,0.08185163,0.2617227,-0.030235384,0.20481765,-0.031198187,0.06568119,0.050075803,0.23208363,0.1939011,-0.2125949,-0.15157107,-0.12734811,-0.023745682,-0.13296868,-0.11157824,-0.12610446,-0.1902542,0.018248165,-0.22572789,0.011735712,-0.13484217,0.04841096,-0.054306943,0.13354893,0.3371295,0.072781414,-0.06973495,-0.09003247,0.21644887,-0.18592767,-0.11000774,0.29651213,-0.13684255,0.31902048,-0.040088218,-0.18719967,-0.030645015,0.08144468,-0.26438767,-0.10317826,-0.1588904,-0.107296124,0.035737485,0.0012754862,-0.12887506,-0.013769886,-0.0129846,-0.12500294,0.15312916,0.17493924,0.035173256,0.05013835,-0.04376489,-0.044451334,-0.18831494,-0.011568022,-0.006902963,0.12127643,0.028886156,-0.020087212,-0.04501228,0.012247364,-0.09210708,0.05142473,0.012645816,-0.027029786,-0.063895606,0.11284139,0.09596361,0.08689259,-0.12487837,0.04275762,-0.05122251,0.106962085,-0.022671413,0.021751288,-0.014207567,0.009413145,0.0012807633,0.005124565,-0.10462926,0.050974023,0.016030263,-0.034566212,0.14724527,0.016689543,0.0013628461,-0.017730245,-0.038010135,-0.04922553,0.14296088,-0.037504498,0.013978581,-0.012601563,-0.07183956,-0.0053337524,0.09204704,-0.038548153,-0.04027746,0.03136354,-0.008646395,-0.101396464,-0.115983054,-0.055215754,0.031053092,0.029778609,0.04072199,0.10666661,0.12761095,0.04405751,-0.027357953,-0.029744275,-0.06377771,-0.035775833,-0.016860742,-0.018517384,0.022307044,-0.014784508,-0.023256129,0.003863344,-0.027461313,0.121488705,-0.08242929,-0.0128864795,-0.022100197,-0.01330154,-0.039659735,-0.009039434,0.0019280552,0.016412402,0.04312129,0.10732442,-0.07343096,-0.17245178,-0.20934819,0.094744876,-0.013686943,0.056384403,0.10774712,0.12996049,-0.06594655,-0.045195427,-0.010965574,0.15646197,-0.02880819,-0.04775229,-0.048214566,-0.057830278,0.08549904,-0.022760605,-0.018795466,0.1093717,-0.04746161,-0.032104407,-0.0264841,-0.10304289,0.068239935,0.04756782,0.07466198,-0.0005442976,-0.043205213,-0.053808752,-0.044296045,0.04056421,-0.03977423,0.0077414573,-0.08297791,-0.15042117,0.11582613,-0.044034414,0.20018147,0.00017060027,0.15808396,0.096704245,-0.034562673,0.00042730523,0.031486094,-0.053532064,0.0043423474,-0.059867583,-0.06923532,-0.036389574,-0.097183175,-0.03652102,-0.11268819,-0.06664598,0.17066504,0.109569035,0.058827385,0.02059971,0.036851276,-0.014233916,-0.07628931,-0.15912919,0.037620347,-0.07836036,-0.069789484,-0.1567204,0.016970681,0.124975525,0.19881287,-0.06633396,0.092421554,0.08454329,0.20856906,-0.07886872,0.02528121,-0.05509462,-0.018671831,0.25079617,0.16065145,0.20554377,0.06269271,0.12462023,-0.12085875,-0.009584045,-0.44488886,0.04087475,0.13202663,-0.15846811,0.05974513,-0.055961154,-0.13571088,-0.11850169,0.21733998,-0.011438171,0.04466129,0.12175896,0.007240702,-0.049285077,-0.32063463,0.037706558,0.04284419,0.12694268,-0.04252448,0.07435736,0.09166823,-0.024674892,-0.01201431,0.03709805,-0.0023115787,0.10885931,-0.17214726,-0.13361743,-0.16293535,0.06849868,0.03148048,0.118489884,-0.07746115,-0.07177785,-0.04355792,0.09950266,0.034707937,0.111698985,-0.033418566,0.011144587,0.04956117,0.007227025,0.013958766,0.011892635,-0.008171642,0.012356266,0.014096828,0.0034678343,-0.0064896476,-0.004623958,-0.0028332653,0.0024815653,0.012494603,0.004967903,0.01577616,-0.007872587,0.00013155234,-0.014976021,0.008573661,-0.010811527,-0.0031674344,-0.009962714,-0.00024866726,0.0008292147,0.015183303,-0.0011875822,0.017349478,0.010526548,0.0062683253,0.020952504,-0.0036536157,-0.00065442704,-0.0075225695,-0.0545537,-0.046971604,0.024831573,0.05695689,-0.068488926,-0.14189905,-0.014986664,0.02554158,-0.014074833,0.086358994,0.07696087,-0.020550493,0.028705379,0.022262359,0.000581831,0.04137248,0.009688446,-0.008040225,-0.06826019,-0.0666354,-0.04802048,-0.024242671,0.18139023,-0.048370965,0.025611116,-0.028232407,-0.008223115,0.01048581,-0.116653584,-0.09953401,-0.071177125,-0.019794272,0.0,-0.0,-0.0,0.0,0.0,0.0,0.0,0.0,0.0,0.0,0.0,-0.0,-0.0,0.0,0.0,-0.0,0.0,0.0,0.0,0.0,0.0,-0.0,0.0,-0.0,0.0,-0.0,0.0,0.0,0.0,-0.0,0.0,-0.0,0.009647818,0.034297608,-0.0026156309,0.019110356,0.019888649,-0.017422099,0.02276865,-0.009042671,-0.005459701,0.056000996,-0.022683676,-0.019561874,-0.032883514,0.036049545,0.011425228,-0.040130943,-0.011265613,-0.031646322,-0.020303566,0.019875433,-0.02839102,0.021000294,0.004149406,0.032875586,-0.017003616,-0.011772119,-0.025766952,0.009667105,0.030677551,-0.03029752,0.01933068,-0.04426407,0.33872524,0.0024853225,-0.09785363,0.19104251,0.018009761,-0.15550387,-0.051091153,0.007196198,-0.1266989,0.0115924515,-0.00030454324,-0.12582651,-0.07093747,-0.10601063,-0.075919785,-0.0852542,-0.103477634,-0.13165335,-0.15324354,-0.061020657,-0.1259794,0.055627495,-0.019662246,-0.0517986,0.0432047,-0.059133478,-0.07260817,0.0124024525,0.028620753,-0.038828198,0.03855284,0.048536416,0.049826078,0.004949925,0.032987148,-0.0026017446,0.07587954,-0.19209719,0.19640324,-0.05654168,-0.047505945,-0.002191536,0.01757793,0.013355273,-0.0037694294,0.042587694,0.015321747,-0.05608084,-0.06789683,-0.032259073,0.103850886,0.0023977968,0.133359,-0.10004817,0.032193065,0.050588693,-0.088529415,0.005066806,0.041147593,-0.038261935,0.034022048,-0.12258895,-0.09957429,0.230155,0.107456945,0.04215759,-0.01973558,-0.012940932,0.04178542,0.039746948,-0.2539343,-0.12054277,0.076738544,0.11093961,0.065799534,-0.12722906,0.06366546,0.05653146,-0.012854369,-0.034613967,0.04134321,0.059426222,-0.051602036,-0.044153646,-0.056987647,0.10061901,0.13734618,-0.013674545,0.06529018,-0.058893636,-0.020597337,0.04022217,0.106402084,0.009076464,0.035144694,-0.11771565,0.14525425,0.019734133,-0.034386877,-0.079328634,-0.071407855,-0.012592547,-0.011476105,0.10532775,0.023812676,0.04437997,0.0195804,0.05630214,-0.044855155,-0.056357183,0.029268814,0.040455367,0.056672763,0.077205375,0.066768505,-0.041148644,-0.017753717,0.0023882834,0.004681092,-0.11308484,0.042840976,-0.021480013,0.009900156,0.06196985,-0.018355848,-0.024994811,-0.027343966,0.088144146,0.105481885,-0.033919495,0.0082685305,0.026227089,-0.05454051,-0.052283376,0.020007866,-0.03049609,-0.054933086,-0.022263968,-0.0013414607,-0.061154693,-0.0020548627,-0.034329742,0.024101432,0.047484994,0.044521265,0.13569425,-0.083502516,0.030962428,-0.015736444,-0.02796574,-0.042914826,0.08826014,-0.009130085,0.0016518466,0.015680669,0.009599892,-0.02525877,-0.09113887,0.031355362,-0.08245675,0.038474467,0.013333923,-0.025550388,0.040036485,0.07576457,-0.069265895,-0.12393892,-0.0095484005,-0.04411373,0.022769893,-0.093244076,0.062586546,0.0012590074,-0.03819166,0.04892095,0.006719801,-0.007918414,-0.026357768,-0.025434902,0.04475766,-0.021651844,0.019100461,-0.02387892,0.029095802,0.0017292019,-0.06030908,0.025107823,0.042761873,-0.032372627,0.04284253,-0.06424622,-0.0926439,-0.00462972,0.16496274,-0.0118232,-0.036132623,0.06362111,-0.22212924,0.01826809,0.05479884,0.007045866,-0.056010492,-0.018996032,-0.06766483,0.012842647,-0.04878167,-0.06923633,0.12528805,-0.103484415,-0.115473226,0.19669016,-0.0571712,0.027508633,-0.0125856865,-0.01820129,-0.00250597,0.07324642,0.047747754,-0.06954066,-0.060856108,-0.03373497,-0.18815435,0.043113936,-0.046575677,0.056238227,0.04675823,-0.0064576413,0.034831498,-1.5893305e-05,-0.035076875,0.0030850999,-0.0055693737,-0.10298891,-0.073605806,-0.02092339,-0.0060377675,-0.00070866005,-0.015002364,0.025077049,-0.021942427,-0.006015531,-0.0065234024,-0.009172493,0.025629334,0.008487394,0.0541802,-0.013684222,0.0027127382,0.029041741,-0.0074835424,-0.02842829,0.024552403,0.05604259,0.007546646,-0.037481204,-0.016611965,-0.055812094,-0.0189911,0.007830305,0.0052651954,-0.04221098,0.029159399,0.19081499,0.027931724,0.045600615,-0.18502209,0.092373624,0.113685034,-0.102960646,-0.08505168,0.14371416,0.15217838,0.0037527557,-0.046016943,-0.11213377,-0.052598193,0.11062323,-0.018634247,-0.100732066,0.37669712,-0.09695953,0.02683633,-0.012840833,-0.049527876,-0.062950306,-0.13946323,-0.16225837,0.1503137,-0.12643605,0.04303184,-0.16372326,-0.14424439,-0.123092376,-0.3181703,0.16124006,-0.027711587,0.047109492,-0.087323986,0.038495734,0.012641599,-0.012493376,0.112161994,-0.052228626,0.07325983,-0.07029403,0.112240486,0.026532806,-0.023108507,0.24852331,-0.1329884,0.11516803,-0.14005584,-0.05147053,-0.0074743275,0.08688264,0.05514947,0.10386597,-0.08235823,-0.036143143,0.13274813,-0.15096988,0.0051484075,-0.08635133,-0.022000259,0.006367398,0.016444072,-0.06870676,0.05434589,0.052386362,-0.06982014,0.015791018,-0.031593777,-0.055078197,-0.011350659,0.041787058,0.008638442,0.0077943527,-0.12748075,0.0123331165,0.09949623,0.04074152,-0.031310108,0.029664783,-0.022293847,-0.018086359,0.046094544,-0.07893968,0.07086792,0.001755726,0.04278691,-0.032855697,0.014070225,-0.19629498,0.15372427,0.04110855,0.09096786,0.031452246,-0.011049531,-0.07874657,-0.08859439,-0.09585971,0.04131611,-0.040482413,-0.046317324,0.06685502,0.09174632,-0.02712671,0.01557719,0.05719245,0.103596285,-0.0041074944,-0.097396985,-0.09043011,-0.083583,0.018765088,0.036143105,-0.0650386,0.13497838,0.10602134,0.057129137,0.14888994,0.06681501,0.027060566,-0.014937975,0.2843495,0.029080104,0.0037931276,0.02722431,-0.20890424,0.116570175,0.15740502,0.026455624,0.051007546,-0.023030145,0.04891773,-0.2850668,0.0468413,0.0398496,0.08280518,-0.052626505,0.050041255,-0.12649955,-0.045431446,0.012805235,0.109249495,0.1527346,-0.1097647,0.2752841,-0.026072595,-0.024111673,0.020208597,0.11581073,0.02196693,0.026189651,-0.043755554,0.109372154,-0.28663576,0.10116721,-0.054092802,-0.09037255,-0.066868134,0.104219526,0.23350874,0.082956254,-0.043346908,-0.15996328,-0.07686091,0.0031503541,-0.020488668,-0.15877996,-0.15706322,-0.028976282,-0.091695376,0.087051414,0.13049336,0.26437333,0.13172218,0.058758575,0.08165556,-0.033543874,-0.11061555,-0.05522618,-0.015703445,-0.013869336,0.055504058,0.098520145,-0.19816439,-0.03331174,-0.023206448,-0.00019737118,0.012347034,-0.031921506,0.047757953,-0.00095393,0.17488879,-0.07377857,-0.057739176,0.052659184,0.017826164,0.032285683,-0.038701132,-0.046892904,0.025213312,-0.02062969,0.036250975,-0.021454493,-0.041687805,0.06805613,0.10587547,0.120539434,0.0531228,0.09332955,0.020007456,-0.042378638,-0.100466564,-0.01777594,-0.035570223,0.036159363,-0.033196315,0.008477404,-0.12062045,-0.08928866,-0.07572999,0.02037982,-0.024080908,0.00065607624,-0.1302235,0.046471413,-0.028485931,0.008013681,-0.0060629463,-0.045484934,0.06304774,0.06409947,0.016969092,-0.009144705,-0.082156226,0.040628497,-0.0034796088,-0.044753864,-0.10735841,0.012083071,-0.13636011,0.023247866,0.03679343,-0.070598714,-0.10205168,0.10883581,-0.122052856,0.065696,0.21531382,0.1970165,-0.16105469,0.22354195,-0.055800512,-0.052222464,0.06721817,-0.022124201,0.16068219,0.20147198,0.24575362,-0.2585806,0.013147899,-0.11423122,-0.07736842,-0.032991726,-0.055112716,-0.014222547,-0.077631935,-0.099554256,0.23310108,0.069054924,-0.06336647,0.12854576,0.045901824,0.07003408,-0.05314114,-0.023031326,0.09510631,-0.09132096,0.097409315,0.093630634,-0.08398873,0.05983876,-0.00045881883,-0.00024694903,-0.00045321163,0.000586194,-0.0012106244,-0.002208542,-0.0014264114,0.0012210043,-1.299323e-06,0.0004809298,-0.00049859297,-0.000663027,0.0004636045,-0.00073278695,0.0004235561,-0.00017892427,0.0006911401,7.846394e-06,0.0003024071,0.0005037502,0.00055644836,0.00033626799,-0.00084392953,-0.0013162723,-0.00062040024,-0.00017920067,0.0007220992,-0.00059174397,3.438699e-05,-0.00089669396,7.5691496e-05,4.376341e-05,-0.0,0.0,-0.0,-0.0,-0.0,0.0,0.0,-0.0,0.0,0.0,0.0,0.0,0.0,-0.0,-0.0,-0.0,-0.0,0.0,0.0,-0.0,-0.0,-0.0,-0.0,0.0,-0.0,-0.0,-0.0,0.0,-0.0,-0.0,-0.0,0.0,0.19960009,-0.11927684,0.021167785,-0.18604673,0.054909155,0.06069633,0.058089755,-0.041092187,-0.05145386,0.014623848,0.08851,0.16809604,-0.113589264,-0.060602006,-0.21223041,-0.046415683,-0.01820702,0.046985388,0.35495004,0.15319584,0.16573918,-0.01581849,-0.15283632,-0.17829911,-0.019876942,0.018801618,-0.058393322,0.07315946,-0.032582145,0.27869132,-0.10392678,0.04452939,0.09447973,-0.01941151,-0.04480913,0.017721856,-0.11114984,-0.017061414,0.0033569925,0.14930929,0.19027677,0.20466344,-0.009674246,-0.13176706,-0.03797216,-0.042983554,-0.025994329,0.025926366,-0.044438224,-0.12109693,-0.041948374,-0.0067483843,0.010141002,-0.051622435,-0.05301679,0.053028412,0.009411471,-0.046452586,-0.085741505,0.0250437,-0.035545535,0.00084827014,0.036019117,-0.14911692,0.055077024,-0.040879894,-0.09410346,0.036365595,-0.27844754,-0.22462584,0.113741085,-0.13562348,-0.17763771,0.030435024,0.0042178417,-0.110638246,0.10900552,-0.0368851,0.16303372,-0.117011346,-0.10091934,0.06581953,0.034338932,0.08694714,-0.11423948,0.024271246,0.11163554,-0.113770224,0.09405282,-0.021978425,-0.01694735,0.04054135,0.05376845,-0.018694635,-0.1214598,-0.015717376,0.0,0.0,-0.0,-0.0,-0.0,0.0,-0.0,0.0,0.0,-0.0,-0.0,-0.0,-0.0,-0.0,0.0,0.0,-0.0,-0.0,0.0,0.0,-0.0,0.0,-0.0,0.0,-0.0,-0.0,-0.0,0.0,-0.0,0.0,-0.0,-0.0,0.031769212,-0.045035034,0.074655324,0.03979806,0.13227843,0.028447567,-0.13712186,0.15523636,-0.025921246,-0.05341394,0.07092701,0.008708434,-0.079961754,-0.029089702,-0.03332821,-0.044105366,-0.0012544172,-0.024018932,-0.017539239,-0.011869947,-0.14146899,0.08363469,-0.083647,-0.012917464,-0.079346076,0.04037995,-0.007555119,0.02726599,-0.045561627,-0.058900144,0.005148604,-0.039761562,-0.21335816,0.005116977,-0.10114523,-0.0052540894,0.070714526,0.0055178255,-0.15730555,-0.104765914,-0.066005446,0.10468013,-0.057831924,0.14526199,0.03607043,0.020217046,-0.14528513,-0.073554195,0.080543496,0.0223657,-0.04272611,0.033925775,-0.023766445,-0.00985285,0.12500496,-0.046141833,0.031500887,-0.016017335,0.021038083,0.017193591,0.020359207,0.052525975,0.080588765,-0.037809025
