0.15138355,0.32767954,0.47892475,0.3993495,-0.28622797,-0.24499989,-0.84335816,-0.035167404,-0.029775176,-0.076487124,-0.10456495,-0.9644812,-0.14662589,0.068952404,0.20388605,0.38638937,0.22941324,0.27709833,-0.10411624,-0.0013665792,0.34645844,0.05313159,-0.04070485,-0.183538,-0.116621055
0.088398114,-0.13608027,-0.23157924,-0.16093627,-0.029062795,-0.108265184,-0.1710548,0.059283808,0.2596515,0.32638508,-0.12558459,0.079271816,0.32439598,0.32344902,0.036086496,0.17107004,0.27406463,0.13690837,-0.096230075,-0.24907085,-0.03276807,-0.08527875,-0.16247535,-0.12029254,-0.089303456
-0.031016815,0.097242504,0.16176495,0.1459267,0.24447845,-0.12650064,-0.17573707,0.036151133,0.13066162,0.09775439,-0.378723,-0.48403096,-0.51091623,-0.38897663,-0.26515347,0.04378748,-0.08172017,-0.26564693,-0.23866147,-0.25698772,0.113376826,0.1514539,0.25499502,0.18766111,0.13632257
0.008575987,0.00021322891,-0.06909967,0.034663588,0.104109876,-0.05676165,-0.0052351113,-0.18422602,-0.23091935,-0.15076861,0.055966057,0.20813274,0.049296603,-0.095478885,-0.13071547,0.16387908,0.30429778,0.32384747,0.20797007,-0.031258997,-0.12023594,-0.12694849,0.099887125,0.124508604,0.0641845
0.074038714,0.08473798,0.1231039,-0.053533763,-0.047911163,-0.12934858,0.0067530167,0.25689226,-0.0017229167,-0.16436556,-0.1377755,0.097001374,0.2589085,-0.0092589855,-0.117956154,-0.14351389,0.020218072,0.17201029,0.097880214,-0.083952725,-0.04507286,0.009545195,0.09486345,-0.03221937,-0.11314728
0.16686778,0.06334641,0.10059756,0.27749804,0.105190866,-0.042267524,-0.119838566,-0.07769983,0.10344245,0.06318083,-0.04126964,-0.101831205,-0.06347417,0.026737329,0.011708588,-0.0704767,-0.08036063,0.022388367,0.10105338,-0.31011304,0.012144422,-0.06885676,0.15569006,-0.02057309,-0.35743332
