0.15432262,0.09829682,-0.23717044,-0.5236205,-0.30137384,0.07782613,-0.85172945,-0.9034038,0.21094352,-0.08717943,-0.5418125,-0.53731966,0.37408796,0.4836097,-0.11488381,-0.39487246,0.11883501,0.21613175,0.21559282,-0.12993832,-0.13637598,0.33057308,0.21314497,0.22992025,0.15325242,0.5038744,0.18878746,-0.51007056,0.23774841,-0.50980353,0.31718978,-0.607953,-0.7602034,0.04666107,0.519005,-1.0217618,-0.84279245,-0.1965875,-0.17326806,0.17673932,-0.0008432319,0.19562683,0.3534533,-0.26276648,0.4253783,0.6632853,0.42206848,0.43561932,0.27051005,-0.12897694,-0.010159921,-0.051902458,-0.026939597,0.32528055,-0.28810862,-0.07240596,-0.33042225,0.15774211,-0.03013136,-0.6507371,-0.14104176,0.24086347,0.18404588,-0.51552314,-0.5358502,0.32371813,0.2982295,-0.3379869,-0.67526925,-0.5984154,0.2864815,-0.3000065,-0.7380424,-0.65306294,-0.38588595,-0.012355542,0.19262056,-0.16965452,-0.25035518,-0.19177698,-0.1366403,-1.1135924,-1.2052367,-1.0390685,-0.51921505,-0.2850192,-1.2508404,-1.4328258,-1.1321926,-0.19934551,-0.20716566,-0.49083143,-0.6154463,0.2403183,0.23894759,0.24179588,0.02949711,0.290557,0.38278723,0.2513036,0.1182,-0.24826032,-0.09090941,0.04663415,-0.08911521,0.10574674,0.40664202,0.35109833,0.058066048,0.021126026,0.22982658,0.19813466,-0.2387636,-0.16386576,-0.06913185,0.016440159,-0.36205387,-0.0033469012,-0.09184107,0.010427937,-0.1905929,0.41129318,0.26475248,0.3021805,0.1178951,-0.3353268,-0.026764143,-0.00973941,0.16738178,-0.26275754,0.0019845075,0.7727445,0.21955976,-0.21901374,-0.13598438,0.30852005,-0.64985025,-0.752151,0.5853442,0.29009816,-0.807115,-0.95275253,-0.28103235,-0.0863823,-0.01925956,-0.26436368,-0.1682667,-0.09809656,0.14134645,0.009948751,0.29617417,-0.15371205,0.09405452,0.03139644,0.07795955,0.36202073,0.15152897,0.10021975,0.08641801,-0.03794105,-0.19578084,-0.11286056,-0.25945297,0.3595572,0.08620906,-0.45336196,-1.4424728,-1.56066,-0.38092446,0.17758445,-0.27054238,-0.2534486,-1.3228167,-1.3115189,0.2382895,-0.0111464625,0.26830295,0.019200657,-0.08976979,-0.37075487,-0.0714531,-0.2886965,0.19825171,-0.2129805,0.16971639,-0.2359059,-0.43118152,-0.9970203,-1.2220039,0.64261,-0.23184179,-0.2258959,-0.15611935,-1.1619966,-0.022210758,0.2380421,0.25422835,0.32525873,0.18284364,-0.020028852,-0.14806132,0.22564623,0.018488437,-0.32627052,-0.22580457,-0.009760678,-0.19150849,-0.43899667,-0.26058704,-0.049127508,-0.96654904,-1.3758692,-0.7408324,-0.08618771,0.18240109,-1.1041478,-1.3793756,-1.8436308,-0.9115216,0.21193221,-0.32540882,0.36954707,-0.14030156,-0.42758274,0.028909907,-0.19823,0.08013854,0.06074257,-0.32240137,-0.31874123,-0.097880214,0.29903147,0.18481861,-0.20289333,-0.20820497,0.12646799,0.3604529,0.4062974,0.43741867,0.002285429,0.010112238,0.07692615,0.15441976,0.4698543,0.13156623,-0.12590984,-0.17243792,-0.1370923,0.13680495,0.13548267,-0.14943716,-0.07248879,-0.03643331,0.01936395,0.21442553,-0.44353968,-1.7447041,-0.99661744,-0.0022260163,0.5522101,0.17503144,-0.19756486,-2.4692907,-2.0189555,0.15496527,0.23888303,0.28623903,0.15490246,-0.55732447,-0.6507346,0.46301046,0.33709997,0.41167486,0.35877952,-0.43830717,0.4282488,0.44355223,0.16207649,0.22946763,0.4487485,0.52706295,0.2255057,0.075830854,0.05770098,0.1975409,0.21488768,-0.051425528,-0.051018313,-0.2362407,-0.13761993,0.12977296,-0.10746563,-0.036800075,0.096130036,-0.3193974,-0.15145005,-0.39019665,0.054607317,0.075896814,0.222031,-0.20949256,-0.50464696,-0.0010480052,0.5231181,0.5181502,0.14587386,0.3896146,-0.06936219,-1.1110429,-0.054048635,0.16464204,-0.05432858,-0.004738141,-0.62844,-0.27783373,-0.387227,-0.6024617,-0.35045043,-0.16139969,-0.23919994,0.09867138,0.2346506,-0.029835599,0.062584385,-0.18916646,-0.40364537,0.08578532,0.3967819,-0.4154778,-0.9343295,-0.40945724,-0.1458017,0.34807643,0.8709398,-0.59272087,0.002144121,-0.7723739,-0.053557716,0.26335296,0.12713866,-0.17846967,-0.6875667,-0.46036643,-0.2653172,0.017619332,0.24190629,0.28291348,0.26456442,-0.061754033,0.15038909,-0.3388788,-0.08583627,-0.2913662,-0.59842545,-0.0476182,0.35042858,-0.15854594,-0.22806598,-0.6785016,-0.27013162,-0.24068092,-0.13122167,0.43032873,0.06026802,-0.3271672,0.0499008,0.21154784,0.3299374,0.51327884,-0.20410764,0.4798562,-0.013372291,0.04606033,0.23763746,-0.029073091,0.32900327,0.0792351,-0.060159016,0.30949253,0.2666465,0.37660056,0.736951,-0.26338264,0.18650596,0.2653008,0.28358227,0.9186711,0.2950128,-0.31593263,0.03563966,-0.2670543,-0.34040102,-0.4165432,-0.2930751,-0.14305788,0.009502818,-0.6034584,-1.0203825,-0.60032517,-0.21164814,0.081428826,0.1565305,0.2087609,-0.61207825,-1.2007492,0.023033135,0.023844061,0.75967413,0.69624805,-0.3553537,-0.38721693,-0.6277525,-0.22334881,0.43261927,0.027937768,0.41118497,0.23191072,-0.5946545,-0.26375663,0.10128539,0.03235093,0.11155367,0.05302671,-0.31969655,0.29579136,0.32658145,-0.1842114,-0.17039378,0.029028773,0.4932695,0.29014206,-0.1071229,-0.67083675,-0.60818493,-0.45920214,0.08501303,-0.017554367,-0.5488782,-0.8269964,-0.4467614,0.14327833,0.36779815,0.036307417,-0.5176473,-0.31776083,-0.3053959,0.11448996,0.07736306,0.07684139,-0.23470002,0.0680696,0.02007307,0.120571226,0.3358536,0.4523135,-0.49541962,-0.1391922,-0.011571747,0.2886676,-0.33380216,-0.41369528,-0.72005033,-0.8585328,-0.42040253,0.20342885,0.44545874,0.32795933,-0.14115198,0.22834443,0.21380194,0.2816496,0.21077837,0.08398529,0.47100934,-0.18618746,-0.24348179,-0.6084564,0.11859109,0.3123926,0.22333339,0.119050734,-0.33721215,-0.28524512,0.21222457,0.0011348338,0.2784211,-0.30310822,-0.878697,-0.37453043,-0.045597564,0.30763376,-1.0546855,0.2953246,0.40413463,0.61341095,0.28035203,-0.28825024,0.28965577,0.3726877,0.067089304,-0.51884913,-0.04513706,0.43303654,0.26051745,-0.28138167,-0.45243844,-0.8166026,0.20394269,0.09501728,-0.15079917,-0.4218717,-1.1636983,0.12670788,0.1725792,0.1080908,-0.20772436,-0.5008047,0.3537836,0.39093357,-0.43705952,-0.38666785,-0.42635334,0.40369016,0.0012116226,-0.2550718,-0.031342097,-0.005592141,0.10195065,-0.19018246,-0.22444364,0.19212745,0.3658434,0.6519809,0.073037446,-0.2566,0.061583117,0.14489986,0.06316418,-0.5054774,-1.249083,-0.15069954,-0.40286517,-0.303687,-0.70296466,-1.2977862,-0.25569665,-0.0993658,-0.12328486,-0.82437867,-0.6646649,-0.21092312,-1.560388,-0.4346848,0.3886076,0.13420579,0.049324274,-0.15245579,-0.21766788,0.38970673,0.46036512,0.16240436,0.12365941,0.0392285,0.19596408,-0.014389362,0.26518273,-0.12536126,-0.15760936,-0.7346971,-0.8159636,0.27452186,0.15300757,-0.63093835,-1.1966861,-0.5983842,-0.35465816,-0.36393842,-0.6216277,-0.85473114,-0.7884261,-0.15965027,-0.051236887,-0.013638224,-0.18006128,-0.3390321,-0.11682743,0.05577547,0.055759057,-0.022093534,-0.53230584,0.4821717,0.31086704,-0.20173016,-1.1660794,-0.75922793,0.52404016,0.41000032,-0.084623724,0.013353671,0.073099114,-0.12850145,-0.6730608,-0.35503972,-0.100928135,0.07915874,0.16885827,0.4334107,0.51834935,-0.012506249,-0.41917777,0.36907336,0.36611328,-0.14774899,-0.25444335,-0.09619659,-0.46508247,0.1938127,0.2678497,0.10122849,-0.1199399,0.42593998,0.31336358,0.20704441,0.06957886,-0.22699907,-0.9853798,-0.7255591,0.05912885,0.40024826,0.54517746,-0.74132705,0.09886346,0.22575457,-0.40513912,-0.14870831,0.12656347,-0.48323208,-0.22265156,-0.1445737,-0.1376261,-0.18711047,-0.18527538,0.09044759,0.38419613,-0.05754667,0.07678453,-0.2533242,-0.018003209,0.17303829,0.542247,-0.25112492,-0.13457774,-0.05529953,-0.54150933,-0.07495491,0.47521928,0.21708994,-0.15894258,-0.26785234,-0.006071776,0.23671772,0.015124538,-0.23286566,0.20652069,0.1606694,-0.11518552,-0.14464311,0.11900673,0.32283306,-0.34369957,-0.03496823,-0.088985,0.13058157,0.1397587,-0.44832015,-1.0387505,-1.1026001,-0.5296526,0.1682114,-0.17008875,-0.31916884,0.4454736,0.4111999,-0.7929875,-0.076198705,0.121413946,0.5343634,0.1765894,-1.6097822,-0.27953058,0.043396406,0.40822774,-0.5931306,-0.9219838,0.005499185,-0.059104156,-0.046059944,-0.11079693,-0.36192504,0.15926023,0.105050154,0.29582235,0.48490736,0.53778195,0.34257817,0.1405477,0.007197274,0.059095375,-0.021811383,0.048878953,-0.7145773,-0.9081187,-0.083529554,0.077242374,-0.060026214,-0.08208059,-0.20241117,-0.29594636,-0.18664177,-0.22979996,0.06922609,-0.4196086,-0.5792579,-0.52072626,0.10329807,1.1343071,0.43724698,-0.8057117,-0.99767435,-0.27764744,-0.35543197,-0.36995226,0.1942858,-1.2875819,-1.0151808,-0.30328858,0.13534428,-0.49229467,-0.8940165,-0.38719994,0.27802536,-0.47912207,-0.26717514,0.11466851,0.14327203,0.07559552,0.37325138,0.2627656,-0.018804887,-0.08149613,-0.7025229,-0.1923936,0.048402455,-0.049526386,0.2102036,0.013258669,-0.03475133,-0.16115929,-0.24806806,0.28783798,0.29338744,0.08259589,-0.18860282,-0.1907705,-0.13590308,0.091465846,0.33705926,0.4058559,0.21338192,-0.15484063,-0.9304014,-0.7417682,-0.41864163,-0.63214505,-0.53803945,-0.83097625,-0.04519043,0.54771024,0.21980564,0.16389777,0.06191361,0.42198506,-0.2168499,-0.72302103,-0.6838404,0.18023196,0.38973883,0.69617975,0.17990224,0.3716815,-0.54788584,-1.1010342,-0.6677044,-0.08174132,0.08559843,0.022749951,0.35434753,0.11815394,-0.32848564,-0.08538457,-0.086616635,0.0021692854,0.08973376,0.23848397,-0.17502715,-0.16818771,0.031470813,0.18207085,-0.009756157,0.10977964,-0.1840408,-0.044777863,-0.13019155,-0.058982145,-0.09338744,-0.8218217,-0.098679096,-0.075245604,0.0071902317,-0.20720279,-1.293547,-0.7893617,-0.61549765,-0.1753516,-0.265747,0.09409332,-0.13084999,-0.1678166,-0.38323247,-0.39716923,-0.18743393,-0.4214939,-0.47933468,-0.51648086,-0.45712295,0.122191384,0.0049405918,-0.37329733,-0.38125986,0.009362893,0.3104296,0.45199418,0.245723,0.10437309,0.27289993,0.1309632,0.09244062,-0.0004484039,-0.3066973,0.19032615,0.065973274,0.0029683993,0.07694811,-0.12708811,0.01595338,0.018885195,-0.0071888324,-0.31969646,-0.23745532,0.0063381195,-0.27245474,0.15054259,0.37828434,0.5468261,0.37725356,-0.3140926,-1.0948014,-1.1153715,-0.91296625,-0.47077367,0.48516002,0.5259726,0.35717383,0.05447276,0.34796968,-0.13030604,0.13434996,-0.056298632,-0.013471739,0.22037135,-0.17989191,-0.012300275,0.24735105,0.3190004,0.4403421,0.024331,-0.27629632,-0.13279095,-0.13040254,0.079386,0.35452655,0.21496922,0.24250348,0.27993682,0.43797848,0.012388046,0.13313939,0.1736164,0.27451298,-0.029606907,0.019440426,-0.40576142,-0.72143114,0.02700395,-0.17434138,-0.11222887,-0.94848806,-0.62685126,0.50074905,0.26072446,-0.104858674,-1.1541089,-0.9024167,0.0923086,-0.053248502,-0.31581366,-0.19615647,-0.6872108,-0.41001645,0.28589532,-0.06698378,0.06653717,0.31429523,0.2763456,0.35891673,0.08102947,-0.014358779,-0.33445767,-0.60428274,0.12020561,-0.017776472,0.1699147,-0.0851742,-0.17273071,0.24786688,-0.039720733,0.27761707,0.36787796,0.3046111,0.39772913,-0.0038169723,-0.21289475,0.28301767,0.17486578,0.18500736,-0.07338994,-0.6278234,0.04796276,0.0034186658,0.32590458,0.21492693,0.25005183,-0.013965209,-0.08460423,0.06910047,-0.16616926,0.3515279,0.35641986,-0.08056759,-0.18610282,-0.021471756,0.525202,0.2483556,0.10553431,-0.4041727,-0.07108724,0.012019825,-0.001563937,-0.16196889,0.105828404,-0.127022,-0.080189,0.22789691,-0.19536161,-0.24752203,0.24817067,0.35253534,0.14264417,0.18039468,0.16287233,0.17758864,-0.13295852,-1.6057305,-0.63564765,7.057873e-05,0.09844918,0.20730442,-1.7599702,-0.17293464,0.027955042,0.37122235,0.5304531,0.13067557,-0.121155225,-0.41973323,0.26485008,0.6814109,0.5268563,-1.3795245,-0.8193387,-0.15287276,0.22257955,0.38065046,0.1618948,-0.1649103,-0.5866099,0.22212207,0.2858124,0.3449928,0.04348542,-0.5527727,-0.30671528,-0.0129555,-0.2994132,-0.19389138,-0.1416929,-0.4289846,0.43156236,0.254647,-0.17949377,-0.027312893,-0.076014005,0.685025,0.5856146,-0.15753795,0.085515335,0.08118475,0.30344313,0.39297876,0.15359947,-0.19306864,0.053746328,0.37890986,-0.010470181,-0.045940798,-0.008143197,-0.93356967,-1.5964506,-0.24354328,0.37224063,-0.19731851,-0.8154631,-2.1542683,-0.68893415,-0.14350972,-0.07847402,-0.6400434,-0.6905047,-0.38450614,0.4893861,0.28449076,-0.1405149,-0.35415268,-0.23813388,0.15551768,-0.0041057584,-0.13910702,-0.12893696,0.14488854,0.041251283,0.0011730536,0.6141856,0.5588858,0.44237372,0.19013226,-0.7517076,-0.9561488,-0.5245212,-0.5412844,-0.9419277,-0.04642013,-0.13826932,0.19252123,0.31497294,0.35927194,0.3193739,0.07517255,-0.10704111,0.10928893,0.48278162,-0.07125681,-0.17006908,-0.0057526967,0.06706892,0.30701438,-0.12280457,-0.49208707,-0.53277457,-0.791566,-0.7439199,-0.53472555,-0.1732387,-0.3179413,-0.10265313,0.08310822,-0.052490383,0.3272762,0.65384907,0.2431381,0.210378,0.10732039,0.11973297,0.21490759,0.1282479,0.44530693,-0.021830866,0.08875736,-0.101682685,0.13204922,0.30936083,-0.09792019,-0.33162385,-0.6068547,-0.36587703,-0.57158583,-0.53551954,-0.9250616,-0.69119513,-0.5535265,-0.19909202,-0.11588974,-0.02447166,0.037729613,0.24877183,-0.19810882,-0.015615658,-0.049685594,-0.43942627,-0.66899157,-0.45730817,0.16790861,0.07074645,0.1928191,0.021876654,0.17919892,0.23604949,0.26881602,0.26640096,0.2915916,0.62703097,0.049987357,-0.10694107,-0.19101565,0.041087363,0.40592635,-0.38689023,-0.32123098,-0.5379947,-0.33600584,0.042807665,-0.35916388,-0.14418525,-0.10675238,0.14728965,0.08986373,-0.08057447,-0.021110818,-0.5119259,-0.5284123,-0.5651405,-0.24127905,-0.19710828,0.09755567,-0.112032115,-0.29658747,0.15753654,0.494224,0.48836666,0.37350395,0.18241602,0.1420137,-0.053512778,-0.05971465,0.11346806,0.15529235,-0.19722833,-0.11707989,0.004965453,0.11382322,-0.4143905,-0.036785822,-0.23737487,-0.6209832,0.05058151,0.5247998,0.072019234,0.12987152,0.36730036,0.48866457,0.58853364,0.49374974,0.4681653,0.4901733,0.30383116,0.18061785,-0.48162636,-0.8140554,-0.69836444,-0.2902133,0.3034538,-0.14034279,-0.35293427,-0.35470566,0.27807388,0.46039307,-0.61913335,-0.21585472,-0.11553678,-0.0012490326,-0.8651903,-0.18829823,0.09820452,0.24729405,-1.1800282,-2.6408613,0.08178641,0.35632864,-0.12153922,-1.3140752,-0.8110117,-0.605986,-0.84394526,-0.5444323,-0.17150226,-0.086397655,-0.4539838,0.345656,0.4244128,-0.62251496,-0.29297987,-0.19796981,0.28918928,0.21841806,-0.6682889,-0.69810337,-0.63181245,0.21800284,-0.45235085,-1.3035326,-0.102132894,-0.17670003,0.24674346,-0.8448209,-0.6980388,0.22124735,0.40580863,0.23032862,-0.41181862,0.20142685,0.054554805,-0.2986514,-0.06646425,0.24937353,-0.3788445,-0.8511347,0.051529437,0.31599972,0.42461345,-0.09118612,-0.26681447,-0.10487012,0.70283455,0.4829732,-0.6937875,0.4367671,0.034499582,0.33592665,-1.6054194,0.022013009,0.3938455,0.0993545,-0.22779058,-1.2118673,0.32463363,0.4016375,0.10126339,-0.29878414,-0.005856822,0.4056046,0.4776756,-0.12627769,-0.4704458,-0.24508655,0.1436454,0.1739195,-0.30525008,-0.20253296,-0.019581908,-0.27680895,-0.2878504,-0.19452283,0.12790178,0.12837213,-0.12688574,-0.24403875,-0.2950177,0.3502169,0.23437561,-0.22785027,-0.3276701,0.2173501,0.43320104,0.09872796,-0.8229282,-0.9171558,-0.012130418,0.41224915,-0.27217838,-0.88221246,-0.096154995,-0.023068177,0.1395733,-1.207581,-0.1862564,0.44838583,-0.34189042,-0.4484442,-0.25840822,0.28368852,0.3495603,-0.2026135,0.101809144,0.24616621,0.19561397,-0.02842848,0.17506969,0.036206864,0.13245605,0.00398008,0.30068848,-0.6387693,0.042838544,-0.41851202,-0.284506,0.30616173,-0.009032169,-0.15213585,-0.05006745,0.35054356,0.46916908,0.056053035,-0.0062080976,0.32037285,0.23687358,-0.14045641,-0.05040129,0.016428519,0.27925196,-0.07989759,-0.30497688,0.07281941,0.048163585,-0.34211752,-0.23620157,-0.80874527,0.2365245,-0.13727415,-0.8413245,-0.36759564,0.33831125,0.25851107,0.25618652,0.0419596,-0.34360018,-0.57893795,-0.010472289,0.13473977,0.26588532,0.50763714,0.17389365,-0.78436583,-0.663536,-0.2148556,0.3713512,0.5773412,-0.06662865,-0.032002404,0.13386947,0.31897575,-0.09439265,0.12686329,0.6387635,0.06174844,0.050228562,-0.6964381,0.18279757,-0.1230202,-0.20261419,0.26205522,0.42351186,-0.2633482,-0.5152485,0.1032576,-0.032734375,0.35904366,-0.57843125,-0.14083596,0.15838706,-0.5682371,-1.2367469,-0.10183698,-0.31924134,-0.042116296,-0.0664506,-0.44315046,-0.10736924,-0.31578034,0.2424688,0.19867294,-0.024891077,-0.13377595,0.038120404,-0.010831976,0.06018732,0.085587375,-0.25019345,-0.17199504,0.18975672,0.17906879,-0.12980966,0.057136636,-0.41217756,-0.073978804,0.1402163,-0.052777994,-0.37174913,0.042597543,-0.14629537,-0.51508635,0.05914203,-0.3220751,0.11530718,-0.23872021,-0.5450298,-0.2523511,0.0025960437,0.4245668,0.27479908,-0.2858606,-0.93920124,0.07393042,0.5873237,0.52705383,0.49138558,-0.49168852,-0.00030318255,0.044466108,0.2707261,0.26675883,0.3271308,-0.2699742,-0.284496,0.036028285,0.38053358,0.054241683,-0.2001847,-0.07548075,-0.18474115,0.050452646,-0.07919015,0.33745882,0.17157851,0.0028438095,0.33414862,0.09183027,-0.30683982,-0.20659585,-0.89782125,-0.9475111,-0.06976646,-0.06739255,-0.16496357,0.13790618,0.13759005,-0.92987806,0.30084693,0.038070466,0.011306742,0.0757776,-0.2541295,-0.21996874,-0.51576585,-0.5317885,-0.38822943,-0.2330981,0.21034528,-0.19733986,-1.0725604,-1.5215447,-0.51979804,0.21081856,0.4548088,0.0034330087,-0.8150678,0.05306948,0.25407976,0.18434201,0.17152688,0.2081234,0.35113946,-0.51126564,-0.13351828,-0.32730532,0.0122056985,-0.048461404,0.28029686,-0.4108459,-1.1570443,-0.7455094,-0.33717892,0.5193237,0.8106335,0.58735126,0.07455799,-0.1491817,-0.31804028,0.08359938,0.34710702,0.16996126,-0.17586549,-0.031044574,-0.3642089,-0.42133462,-0.1261762,0.23441045,-0.24160428,-0.40312383,0.18652064,0.28021714,0.23563062,-0.04664853,0.13595892,0.04409802,-0.059005413,-0.22053298,-0.46383208,-0.85301876,0.29740214,0.4273234,0.22785176,0.27121124,0.3855816,-0.09981405,-0.13082702,-0.026043084,-0.027752448,0.06288733,-0.35895115,-0.11663603,-0.19217639,0.3650632,0.109566264,0.30086243,0.2548134,0.07370653,0.12443917,-0.17787634,-0.6068064,0.019946415,-0.11594563,0.24689347,0.2264383,-0.15104043,-0.13195255,-0.07041591,0.12877421,0.14132953,-0.050876983,-0.0010493217,-0.011072956,0.04864182,-0.07566861,0.21185394,0.41288993,0.20880972,0.08443652,0.2560975,-0.019953901,-0.035263095,-0.09714405,-0.5407711,-0.4754258,-1.2263749,-0.33335647,-0.18533729,-0.20113677,-0.510206,-0.72982484,-0.76437026,-0.08009373,-0.15456037,0.20830324,0.0034389284,-0.009897978,-0.17164144,-0.42089438,-0.115264155,-0.1507139,-0.052869312,-0.042282216,-0.08028834,-0.40583515,-0.7182249,-0.30228415,-0.004402567,0.20640403,0.4872017,0.5861681,0.43482718,0.33146992,-0.017471211,0.18681309,0.35976294,0.12702732,-0.20849983,-0.3111447,-0.35062486,-0.57547665,-0.28419837,-0.363165,-0.30354765,0.124010265,-0.101819515,-0.30561104,-0.017907582,-0.16317366,-0.26511914,-0.021134486,-0.073949866,-0.076235235,-0.2253453,0.15631387,0.34611097,-0.06569818,-0.020031523,-0.06556216,0.14328827,0.20316862,0.4086526,-0.10981269,-0.7164242,0.069964,0.66363925,0.18625033,0.0475623,-0.16619134,-0.17642818,-0.47579256,-0.38602883,-0.22351955,0.049630597,-0.0004554969,-0.035012666,-0.22349477,-0.374873,0.034110144,-0.2339416,-0.32697594,-0.59704834,-0.7425774,-0.6702678,-0.754822,-0.904901,-0.5685184,0.23237479,0.037828527,0.04693185,0.037610438,0.29907086,0.33836907,0.39201385,0.48578247,0.11981385,-0.22374249,-0.06804657,-0.114563845,0.055375222,0.23994464,0.41607445,0.6084201,0.20460834,-0.112889245,0.278753,-0.076940894,-0.33409593,0.19462678,0.037344474,-0.26403683,-0.2568976,0.2766422,-0.542239,-0.20258348,0.16358896,-0.076175295,0.14094596,0.0010854076,-0.53942597,-0.09553162,-0.25373223,-0.5632501,-0.16247112,-0.30184036,-0.14186308,0.21276419,0.18684965,-0.058524966,-0.07667105,-0.045300663,-0.18564361,0.20042938,-0.014848732,-0.070384525,-0.1303223,0.2274676,0.40053412,0.2663866,0.13282716,0.12986615,0.08792623,-0.13946266,-0.14745425,-0.050135046,-0.54229057,-0.27057213,-0.65820086,-0.2976468,-0.42067286,-0.3267746,0.09646737,0.017798407,-0.18712433,-0.28175572,-0.37346542,0.067445636,0.18897808,0.0065110167,-0.12218916,-0.31663543,-0.006999511,0.064312585,0.16132137,-0.40918058,-0.6471579,-0.29047158,-0.09384324,0.09087839,-0.07103626,0.16824809,0.28044012,0.2768945,0.13976192,0.42407367,0.451335,0.073718645,0.052465588,-0.40722844,-0.013592993,-0.100079544,0.10889897,0.14713153,0.30592144,0.14769438,-0.023266047,0.14760417,0.035813972,0.42655775,0.41399506,-0.12134129,-0.7484579,-0.4795808,-0.55114293,-1.5509802,-0.5910375,-0.3919783,-0.36570847,0.25863132,0.2106122,0.07392277,-0.29593167,-0.04745217,-0.043505073,-0.11053799,-0.052356437,-0.0488224,0.3201022,-0.11358049,-0.0757861,-0.6625504,-0.6452893,-0.40426573,-0.5199423,0.20245099,0.3036937,0.16287649,0.16331913,-0.35323265,0.27410638,0.30448616,0.07566547,0.101931855,0.20400932,0.094902806,0.3046663,-0.03556536,0.0532456,0.8323541,0.052113708,-0.54487485,-0.4367939,-0.3503828,0.25715023,-0.46631435,-0.7997124,-0.8878808,-0.8949794,-0.81138545,-0.44736826,-0.5975254,-1.103582,0.26351604,-0.059644233,0.35482338,-0.026080567,0.17474538,-0.34054375,0.15224457,0.52500206,-0.78710544,-0.05890473,0.420744,0.426828,0.29278743,-1.7189093,0.21298629,0.26390553,-0.3323449,0.1912018,-1.2243528,-0.30074233,-0.04598962,-0.3972525,0.35220945,-0.6911402,-0.090246074,-0.16743016,-0.4208494,-0.0249431,-0.015481991,0.624131,0.37594208,0.46004474,0.26790917,-0.6772269,0.34875554,0.12418237,0.1886941,0.022506775,-1.2704225,0.2020316,-0.23784804,0.03187374,0.12487801,-0.88754874,-0.21237698,-0.18080154,-0.33619025,-0.20673992,-0.47148347,0.3012666,-0.011973642,-0.026822835,0.06506291,0.51519036,0.19256616,-0.47708443,-0.36211333,-0.48875377,-0.11462848,0.19778977,0.08141996,-0.0025682887,-0.2712917,0.042580027,0.22141658,0.028439257,0.26541167,0.09471912,0.22255476,-0.045882616,-0.24086985,0.51105857,0.1463535,-0.09359568,-0.23031025,-0.12082611,0.17789713,-0.25625613,-0.5211652,-0.3363842,-0.35742852,0.04241218,-0.109338924,-1.4404427,-1.1729947,-0.51739043,-0.92909217,-0.15587927,-0.8679879,-1.1685157,-0.50644445,-0.90545374,-0.5895109,-0.6346513,0.14056855,0.3244648,-0.0039016106,0.05860502,0.3783467,0.28303328,-0.21463504,0.3387555,0.65714353,0.6552239,0.28815585,0.024789048,-0.48320448,-0.36582345,-0.23076448,-0.031878505,-0.22557001,0.03698515,0.25983205,0.0643922,-0.05381362,0.25641248,0.3551353,-0.06827915,-0.046689134,0.09456853,0.012011343,0.03201114,0.42403924,0.43816265,0.5179594,-0.16986367,0.04379237,-0.045389332,-0.13737144,-0.7132223,-0.74449676,0.11886701,-0.51251876,0.11453627,0.32879338,0.063357785,-0.42892832,-0.6834327,0.08848129,0.5613005,0.14882207,-0.12167985,-0.003537846,-0.019877298,0.42620447,0.25515527,0.08312804,-0.13608459,-0.3022043,-0.13390806,0.40970513,0.36472127,0.18383086,-0.011237209,-0.07354628,-0.12151968,-0.107983395,-0.59247655,-0.3909861,-0.8501747,0.5577893,-0.57600576,-0.2770307,0.3623059,0.07341913,0.8045398,-0.2473128,0.2261911,0.58293605,0.23917742,0.3061257,-0.28203732,0.50089025,0.321856,-0.093022,-0.3298157,-0.6252352,0.49551943,0.13983753,-0.45206198,-0.027492572,0.19877553,0.13237028,0.20110574,-0.49122703,-0.35130754,0.53735584,0.33928263,0.30323377,-0.6829374,-0.55891085,0.15558456,0.065483764,-0.01898793,-0.59570646,-0.016586393,-0.17968681,0.05349463,-0.13912031,-0.21205778,0.13740133,0.09761976,0.28182608,0.06141224,-0.31376415,-0.10474958,-0.05802033,-0.9447546,-0.9303725,-0.5066338,-0.077846296,-0.043063916,-0.999592,-0.5303108,-0.28644457,0.25667632,0.07201515,-0.50735503,-0.7457753,0.38885078,0.12358181,0.12331415,0.046105377,-1.2833873,0.13330404,0.22522995,0.4160997,0.21012019,-0.7673258,0.15941875,0.5486427,0.15818451,0.40180528,0.46782953,0.1146737,0.19658233,0.5034171,0.14673154,-0.5356115,-0.44382083,-0.14877474,-0.7495339,-0.651276,-0.69273627,0.024654955,0.3369234,-0.9618902,0.1891478,-0.0043230522,0.0029986466,-0.17044456,-0.99595815,0.1441819,0.12559174,-0.23320948,-0.060830567,0.31173646,0.08168382,-0.15230569,-0.08373348,0.05542955,-0.057714112,-0.71132135,-1.0789214,-0.20318376,0.1669882,-0.8486632,-1.5659535,-0.9952184,-0.22478731,0.21938983,0.1592032,-0.72494566,-0.89064413,-0.42412853,0.016998367,-0.3919777,-0.4975744,0.24174736,0.1932298,0.37507388,-1.0754519,-0.27823287,-0.11807087,-0.1727174,-0.15603234,-0.3123628,-0.04026205,0.25267366,-0.040105745,0.4004503,-0.17935835,-0.5118459,-0.9781122,-0.70452803,-0.44663227,0.117389105,0.060400505,0.13991253,-0.04060645,0.16916487,0.43637142,0.34749123,0.28302854,0.15855965,0.043547653,-0.5011744,-0.16994873,0.32558203,-0.34004188,-0.46994993,-0.17899995,0.18992768,-0.090866335,-0.44026545,0.101145245,-0.45979068,0.19872952,0.27468747,-0.13023905,-0.2254384,0.013401197,0.35980535,-0.11210036,0.04953696,0.17689803,-0.36039424,0.2573716,-0.39132786,-0.48397925,0.30804032,-0.3446986,0.33989722,0.26248023,-0.18994877,0.6365776,-0.376256,0.27625412,-0.053689275,-0.17149064,0.41046715,-0.24754651,0.16482985,-0.19871375,-0.71677196,0.23692177,-0.23843402,0.41900617,-0.35358384,-0.34803882,-0.034483176,-0.33970267,0.19875807,-0.28775895,-0.015228389,-0.4390066,0.08740004,-0.20234376,-0.15658319,-0.048984647,0.08650405,-0.54118234,-0.9220418,-0.42770073,0.071483694,0.06880626,-0.4727987,-0.65038466,-0.2907157,0.22185776,0.24844836,-0.10331646,-0.63252485,-0.9863412,-0.13348453,-0.34584844,0.17385714,-0.16132629,-0.48573261,-0.19099364,-0.06528322,0.10555784,-0.17999513,-0.31091577,-0.27280596,-0.21139188,0.25804034,0.3679846,0.34246314,-0.4030356,-0.42923206,-0.4491885,0.14258672,0.39675978,0.21713354,-0.07805381,-0.28928813,-0.25790715,0.477384,0.5585364,-0.105588876,-0.52668625,-0.23913753,0.077059,-0.12870942,-0.27151036,-0.31368625,-0.7075833,-0.3665539,-0.028127596,-0.03385524,0.24737597,0.078270994,-0.22735722,0.04978243,0.29388857,0.22106484,-0.8491374,-0.6716757,-0.097440615,-0.36675203,-0.961191,-0.6348797,-0.4950367,0.0032150939,-0.44955063,0.19647916,0.10219261,0.11290557,0.2601464,0.35038048,0.44139567,-0.22753221,0.04095687,-0.2638043,-0.8017024,0.16472739,-0.068421505,0.2235173,-0.062472787,-0.63490766,0.25382876,0.13806887,-0.26020864,-0.3786048,-0.38172013,0.39882267,0.30290633,-0.56764394,-0.2897703,-0.03036515,0.35476184,-0.39949438,-0.9334333,0.1477607,0.21705736,-0.055479694,0.3752158,-1.1090757,-0.0415031,0.028000917,-0.06339075,0.14413245,-0.9675971,-0.07494402,0.4424396,0.06572762,-0.05515165,-0.8708205,-0.11709922,0.53025794,0.14947325,-0.32968646,-0.70726156,0.33056012,0.23625451,0.17457697,-0.0004442098,-0.27854204,0.03810788,-0.19872606,-0.04788321,-0.28256795,-0.76582277,0.24476469,0.034844577,-0.054820534,0.05904251,-0.94703966,0.05001071,0.4351537,0.1722145,0.054444794,-0.8308342,0.2878603,0.43747482,0.22490618,-0.25933412,-0.7412736,0.26063654,0.28796312,-0.14463966,-1.1656642,-0.12937061,0.19150536,0.02470583,-0.20997028,-0.08843256,0.20904838,0.16349038,-0.17722486,-0.27822548,-0.26798552,0.40452927,0.12722875,-0.16528489,-0.25117636,-0.46582055,0.5368812,-0.047366086,-0.28764647,0.14882438,-0.14389056,0.24985157,0.06169416,-0.6316674,-0.012181783,0.1402763,0.04148968,0.07912339,-0.660212,0.4195695,0.009263198,-0.58332026,-0.07617315,0.54079294,0.44453257,0.36855647,-0.31965572,-0.26911265,0.24155821,0.39650932,0.25004485,-0.4060276,-0.14287026,-0.042505346,0.16854821,-0.15107234,-0.49792448,-0.1635829,-0.064596236,-0.8754056,0.02433917,0.2653323,-0.022098524,0.058467053,0.20640215,-0.184062,-0.19985661,0.15189777,-0.092546396,-0.00620061,-0.20073476,0.04166236,-0.0478798,-0.497881,0.10858049,0.037996333,0.3129602,-0.42779264,-0.51356167,0.047898374,0.15729243,0.2230044,-0.5797413,-0.41729838,0.26061013,0.4062434,-0.081851676,-0.7112288,-0.114935696
