0.004044126,-0.045391504,0.20980047,0.2931671,0.15080146,-0.0049828906,0.303871,0.15485944,0.55058557,0.2992912,-0.053411506,-0.04071843,-0.024215333,-0.1132327,0.36058986,-0.026731702,-0.34589794,-0.4166754,-0.8189351,-0.1515446,0.068321444,0.1774966,-0.09251344,-0.35803923,-0.020397576,-0.017119166,0.030144105,-0.103552334,0.12199986,0.15863961,-0.3280633,-0.015469896,-0.09648018,-0.02190831,-0.31757432,0.40992916,0.6170454,0.4298157,0.24635655,-0.70875454,-0.5282772,0.107160695,0.23106211,0.36906365,-0.5236721,-0.81549513,-0.20579314,0.2392143,0.12600759,-0.04941079,-0.2108141,-0.09697489,0.13641271,0.08326904,0.09284993,-0.21096449,-0.08625358,0.2208921,0.30754584,0.01897409,-0.24225289,-0.15345384,0.08651563,0.43949232,-0.042523537,-0.16615847,0.066845894,0.2650119,0.18157037,-0.19401297,0.0700751,0.069073476,0.12545799,-0.01025279,-0.35008496,-0.03808998,-0.2096241,-0.10468337,0.06697561,0.3556932,-0.13516143,-0.112736836,-0.33325535,-0.47296232,0.234241,-0.09673777,-0.102821074,0.07634785,-0.57029855,-0.17362128,-0.119224206,-0.25195777,-0.045448754,-0.08309865,-0.33102816,0.21897045,-0.09735336,-0.017790785,0.020975959,-0.38041857,0.068836376,-0.07711559,-0.418296,-0.25384185,0.0021727285,-0.0755061,0.07951482,-0.43401986,-0.3859057,-0.4744937,0.14497678,0.5362572,0.13020615,0.1995738,-0.0848997,-0.10860086,0.34062082,0.2608087,0.5036893,0.16755462,-0.32373723,0.120575234,0.11046759,0.4094454,-0.108057044,0.4824774,0.34175017,0.28084168,0.2579634,0.114421904,-0.10259655,-0.04302542,-0.00925003,0.004388906,-0.21773106,-0.52875024,-0.4238964,-0.30535197,-0.5830329,-0.4438315,-0.18279903,-0.59877306,-0.76137906,-0.380263,0.0016160988,-0.20907362,0.119039066,0.18848924,0.48761138,0.36626226
