-0.71639675,-0.40511167,-0.26405013,0.22967781,-0.23122096,0.021850144,0.05699615,0.3381049,0.52451605,-0.10664327,-0.113625824,0.57965744,-0.4769143,0.46347412,0.12152813,-0.57858646,0.35335594,0.24854654,0.09939247,-0.112294406,0.22092953,-0.07312372,-0.3263333,-0.4943617,-0.387908,0.21464747,0.24401207,-0.1513218,0.0952608,0.10291078,0.7306304,0.34762603,0.87212664,0.4558655,-0.09374545,0.07416685,0.5796508,-0.12568766,-0.15023434,-0.54466254,0.43359292,-0.03287407,-0.19389188,-0.16791596,-0.13041566,0.025602415,-0.31803682,-0.7876456,-0.33403796,-0.01091711,-0.11270782,0.57494414,0.09071689,-0.2024917,0.4820272,-0.32034782,0.12043813,0.33764094,0.14038162,-0.060238875,0.5339132,0.056346837,-0.7359249,0.32466498,0.8144172,-0.3444372,-0.20425208,-0.98408496,-0.39652345,0.066880815,-0.6246402,-1.1228794,-0.010633339,0.011379379,-0.39166668,0.16008437,0.48335925,-0.17461617,-0.005151974,-0.66374755,-0.07539698,-0.7877708,0.046215624,-0.32693222,0.19219673,-0.35137033,0.34009764,0.29764318,0.075698726,0.23396477,-0.042559315,-0.034335576,0.09957159,-0.48972437,-0.025442747,0.26683873,-0.035658173,0.29639667,0.4962234,0.21339878,0.1442715,-0.28934208,0.34430647,-0.30034226,-0.13326995,-0.2494172,0.09786961,-0.7239083,0.29685217,-0.33031803,0.13655502,-0.66112846,-0.5282364,-0.5373716,-0.30277514,0.11287374,-0.37029544,-0.395542,0.30367362,0.09543597,0.025103284,-0.1220963,0.12297028,0.060717482,0.28957722,0.1541217,0.0062299487,0.60726994,-0.11087298,0.6062428,0.26995713,0.31476673,0.004307537,0.10107997,-0.116148524,-0.024532495,0.35856068,-0.44119287,0.10911475,-0.075777926,-0.23987357,0.109540865,0.099540286,0.084261045,-0.010941507,-0.16617145,-0.50665414,-0.6073039,-0.14608337,-0.089160636,0.19955033,0.32707766,-0.040467624,-0.1862478,0.03153128,0.40400872,0.36862636,0.3746748,-0.68563473,0.22605814,-0.8239695,-0.8810288,-1.2297544,-0.27976,-0.16118287,-0.2248735,-0.16637583,0.24258354,0.31475875,0.2315845,-0.03185889,0.6574001,-0.116843045,0.00079738174,0.1740639,-0.14788853,-0.7477405,-0.6132804,-0.6597084,-0.17727363,0.0037074075,-0.14284484,0.4049326,0.5487934,0.024796732,0.044756453,0.26074246,0.5169381,-0.42766643,0.060246855,-0.11765159,-0.36821908,-0.26164845,-0.031945534,0.44214922,0.34303907,0.0017516151,-0.069127455,0.11082431,-0.20601514,-0.263896,0.23922792,-0.5249291,0.027544526,0.11708983,0.3030368,0.22170158,0.16741048,-0.24015436,-0.21174897,0.2771155,-0.32829538,-0.2852119,-0.5260408,0.010874905,0.06261927,-0.117110394,0.03364198,-0.017372115,0.123860486,-0.34097812,0.31796294,0.35688066,-0.17312416,0.31802714,-0.25020579,-0.28975213,-0.5953618,-0.241298,0.26888517,0.20822908,0.0042552403,0.53047293,0.30889475,-0.051896304,0.03523197,-0.16502471,0.098023094,-0.046567746,-0.2376026,0.45551607,0.4751949,0.39195004,0.03085376,-0.4732137,0.3554775,-0.4593638,0.015441111,0.12585042,0.37363133,0.028987212,0.13098244,0.2352634,-0.02546691,-0.3569511,0.35877684,0.42340398,0.07968817,-0.26234555,0.28500295,0.45505393,-0.3770619,-0.34823674,-0.5260849,0.29234627,-0.09898487,-0.89900655,-0.21040514,0.25856546,-0.9493723,-0.7370349,-0.71887213,0.08221783,-0.05998279,0.63756657,0.18040809,-0.16405462,0.08978974,0.14191417,-0.62313783,0.40885976,0.33745477,-0.44214416,-0.18603738,0.0078066145,0.2906266,0.54619247,-0.14078712,0.69958663,-0.0074984664,-0.21774666,0.21499424,0.3893903,-0.21325806,0.022587916,-0.47969803,0.22081201,-0.42295462,-0.26407328,-0.89135647,0.16568364,-0.04777656,-0.11032176,0.054238074,-0.15072508,0.27044746,-0.21071273,0.1066237,0.10744881,-0.30075258,-0.14802325,-0.08232252,-0.53580326,-0.2962009,0.36192217,0.674253,-0.8181449,0.088818505,0.24893023,-0.029720856,-0.060802322,0.028829409,0.15418115,-0.5097563,-0.39823395,0.058438662,-0.11195558,-0.15738301,0.043694627,0.45664626,0.023981817,-0.34809545,0.012852127,-0.20589544,0.11407509,0.59743947,-0.47205466,-0.60936075,-0.07750131,0.16803724,-0.1740121,0.05774317,-0.4226172,-1.2205552,-0.22827044,0.36641473,-0.15385243,-0.52279896,0.71760875,0.2965403,-0.53844756,-0.5171523,0.2864863,0.23531929,0.4136618,0.050417885,-0.088229574,-0.023880893,-0.18700367,0.22786424,0.10529783,0.1792401,0.48071703,0.5259271,-0.14078128,-0.77738327,0.059105072,0.64862174,-0.64757854,-0.4363593,-0.22372322,-0.20917946,-0.10941811,0.21459615,-0.27784607,-0.89214224,0.32803082,0.15498596,-0.35423636,-0.31405145,0.5618264,0.23333368,-0.2962237,-0.7210884,0.09580773,0.27184838,0.2201268,0.29102072,0.17281677,0.033575553,0.06007431,0.013199122,-0.19112307,-0.28055844,0.17649414,-0.018599033,-0.12355067,-0.060235687,-0.56803215,-0.5876929,-0.13502008,-0.06568665,-0.22178154,-0.33587214,0.2600782,0.13156949,-0.12508246,0.52966666,0.01740034,-0.038878147,-0.019012254,-0.22608449,-0.2236322,0.2697691,0.23664404,0.73218006,-0.10135801,-0.05920154,-0.15153344,-0.4023712,-0.18279867,0.016660845,-0.48456454,-0.4794972,-0.15189439,0.061391182,-0.23440376,-0.6626084,0.55578303,0.46008,-0.14852661,0.33182442,0.24083501,0.043760978,0.3301646,-1.0622013,0.15059705,0.41621196,0.02498643,-0.7171317,0.60884213,0.44186592,0.27623084,-0.7395851,0.23551951,0.09799985,0.033128172,-0.22410838,0.11392414,-0.42079094,-0.4586726,-0.09019587,-0.16195433,0.039748084,0.18663025,-0.92509055,0.2056759,0.16300952,-0.22324364,0.29154938,-0.10070046,-0.060945924,0.19257297,-1.3135067,-0.66611654,0.0783618,0.3497296,0.4063851,0.1225038,-0.13907227,-0.14875665,0.032133624,-0.052256018,-0.5141061,0.39370695,-0.096578695,0.34029558,-0.55497426,0.19099393,0.37481487,0.5017554,0.40150297,0.1132071,-0.4408603,0.16073331,-0.1692287,0.11295968,-0.18274596,0.028424244,0.19195117,-0.27612466,-0.23784734,0.19827923,-0.42475584,0.4645226,0.080387,0.42944726,0.40688568,0.06168403,0.15897536,0.0636998,-0.0998551,-0.17533886,0.24465856,-0.4076346,-0.07791235,0.4197392,-0.37987044,-0.5636746,0.42849374,1.0714601,0.07368977,-0.591539,0.19201988,-0.26985392,-0.6159064,-0.25440568,-0.39458928,-0.009665902,-0.5027199,0.20429313,0.53068876,0.19241513,-0.034105755,0.15905404,-0.22515917,-0.21312857,0.08323573,0.15424311,0.5583423,-0.03198847,0.61686367,-0.37011594,0.23795749,-0.12154746,0.5759338,-0.8877212,-0.26193598,-0.3133646,-0.10760892,-0.10059393,0.23866366,-0.15364152,-0.02554713,-0.03943931,0.11997594,-0.2626267,-0.19667329,0.4191049,-0.11656523,0.2476428,-0.08311125,0.27001897,0.032450233,0.22007486,0.3316411,-0.8905646,-0.033393808,-0.109162375,-0.48498037,0.45447692,0.27767086,-0.29186234,-0.493088,-0.40592375,-0.36652544,-0.12724225,-0.41621715,0.35279974,-0.38238132,-0.11239127,0.12609082,-0.03413305,-0.11506858,-0.5628466,-0.07231618,0.15453771,0.504786,0.22981803,0.17077152,-0.20724954,-0.7386771,-0.4959071,-0.59037465,-0.12472031,-0.015709618,0.09659479,0.14404105,-0.08900162,0.2128733,0.11194522,-0.6308387,0.34623984,0.048782587,0.19660382,0.073086984,0.20373353,0.12641485,0.027457573,0.27788958,-0.18591231,-0.46469757,-0.39458716,-0.07090602,-0.008914562,0.07229858,-0.02235356,0.3309821,-0.11500414,-0.77854866,-0.18215749,-0.44949484,-0.3810409,0.17171133,0.031576876,-0.5505308,-0.0628483,0.3157485,0.02282306,-0.12235127,0.15019801,-0.09500874,0.5019202,0.20331983,-0.14570841,-0.61023694,-0.086378306,-0.15433542,0.5470649,0.27061185,0.3055582,0.09082077,-0.6000833,-0.4700572,0.038936373,0.23502079,-0.28081632,-0.31673568,0.35079524,0.98637813,-0.2255871,-0.13611531,-0.14907512,0.6312342,0.33696234,0.26530305,0.35007998,-0.21410637,-0.117790096,-0.23212355,-0.26615357,-0.112229414,0.90583396,-0.09637908,-0.32478338,-0.14079554,0.09505112,-0.07369066,0.08376444,-0.02869937,-0.34490436,-0.23733276,0.35787284,-0.22483695,-0.070634454,0.119269356,0.17608725,0.051425956,-0.13435724,-0.16880392,0.5321975,0.07130768,0.0038369459,0.25012612,0.23855919,-0.17275836,-0.5140723,-1.0678372,-0.43801555,-0.20966743,-0.08850536,0.0045502204,0.0037003802,0.321278,-0.42627838,-0.031945474,0.45997384,0.40289336,-0.26479974,0.2292971,0.17647113,-0.029746687,-0.014573595,-0.2616181,0.10604941,0.12213181,0.44222072,-0.0118355425,-0.16751064,0.38665193,0.22529154,-0.03724218,-0.15765107,-0.072978824,-0.11759117,-0.045044918,0.13496168,0.24916373,0.4656072,0.40522745,0.22615077,0.47339624,-0.058576383,0.036717262,0.30016637,-0.105353296,0.6033365,0.16682678,-0.32440403,0.27713454,0.23597498,-0.041601986,-0.42282555,0.2680755,-0.12033871,0.02354644,-0.6796926,-0.06321288,-0.27506316,0.03394376,0.33156785,-0.15399063,0.4136635,0.37585923,-0.117607296,-0.13966507,-0.45710576,0.27888843,-0.44896448,-0.53377306,-0.5439483,-0.2839716,-0.19255339,0.76112723,-0.6477208,0.17832674,0.33154234,0.098907016,-0.20042102,-0.15022536,0.22745067,0.108561434,-0.45845357,0.2997287,0.40057856,0.30593687,-0.15844527,-0.22775032,-0.18697649,-0.020133039,0.09521574,0.47114617,-1.0991048,0.3093778,0.24015886,0.37471405,-1.0003551,0.1189216,0.5338333,-0.2383107,-0.51987696,-0.6383294,0.54645807,-0.19538355,-0.30085456,-0.50619626,0.47946638,0.25689942,-0.18454492,0.87732774,-0.26958162,0.26661232,0.19681409,0.4441143,-0.2902364,0.4219196,0.65121824,0.48791403,-0.22220372,0.36866108,0.39174804,0.0018850646,-0.68707174,-0.08714841,0.2835179,-0.0058357147,-0.21384129,0.12273188,0.28191724,0.4394495,0.5547046,1.4751171e-06,0.19431053,0.05965025,0.20351048,0.62842375,0.4818794,0.24321924,-0.34444183,0.037404116,0.22862111,-0.30665675,-0.47835928,-1.0816404,-0.50059396,-0.57318777,-0.1353351,-0.30865347,-0.6055587,-0.23612407,0.40610927,0.15591387,-0.03748055,0.1537315,-0.019305795,-0.3509576,0.24484456,0.73810375,0.15598279,-0.32205838,-0.012450833,-0.03209853,0.11763677,0.21122384,0.016655888,0.4655112,0.1592863,-0.08652804,-0.20462674,0.44183475,0.038319737,-0.2961613,-0.062995784,-0.44391805,-0.032474466,-0.096704416,-0.19922471,-0.36404526,-0.03898802,0.091716625,0.04374363,-0.107175246,0.013533563,-0.3341435,-0.20921709,0.38396177,-0.65927637,-0.22937234,0.56859714,0.30479953,-0.14616002,0.109789476,0.14597441,0.46083552,-0.28861684,0.041301847,-0.6048345,0.10187078,-0.085572846,-0.14211012,0.3334765,-0.16652995,0.4157342,-0.21463235,0.050206628,-0.028507078,0.3860143,0.700292,0.014732332,-0.6117508,0.33478564,0.08902995,0.019055597,-0.16149575,-0.14051348,-0.6599354,-0.1521485,-0.1535347,-0.5529238,-0.024494698,-0.007676084,0.40039816,-0.42674702,0.4068551,0.461684,0.7195224,-0.35078558,-0.6538344,-1.1120147,-0.9204351,-0.24137272,0.21588357,0.4464298,0.13447586,0.75889987,0.13144521,0.6457395,-0.27815264,-0.4528672,-0.17178881,-0.47480905,-0.3343746,-0.33480996,0.48114178,0.2515645,0.70899093,-0.2636499,0.17063043,0.33981588,0.13468778,-0.32191142,-0.35678795,0.2339345,0.26789528,0.40394977,-0.17464602,-0.360568,0.3734551,0.10612362,0.12175008,-0.08491013,-0.1092161,0.21305582,0.092853226,-0.17477247,-0.0789472,-0.18583664,-0.07850823,-0.120912984,0.2800475,0.14081167,-0.15507199,-0.14938164,0.59952974,0.08621866,-0.19192834,-0.47716656,0.086872555,0.057206273,-0.46368334,-0.17758912,0.31239492,0.10479138,0.027230065,0.13430417,0.2746058,-0.09609462,0.41292208,0.26871648,0.068177894,0.054812595,-0.49773684,0.13596404,-0.1487082,-0.072901,0.086619265,-0.3682784,0.20648018,0.36781517,0.030425306,0.1024143,0.369489,0.5970313,0.32966495,0.076970324,0.16146028,0.046928518,-0.293445,-0.89224565,-0.7252956,0.42351034,-0.009263879,0.029426135,-1.0421277,0.4836382,0.118854776,-0.27299938,-0.6241258,0.03398171,0.30135506,-0.19545144,-0.6013323,0.23505986,0.24904302,0.16884522,0.20001572,-0.06272717,-0.07910926,-0.025306933,0.0875763,0.10569515,-0.13709638,-0.23918653,0.08710129,0.13659647,0.4245236,-0.38937014,0.1332121,-0.35472256,-0.34392473,-0.40228733,-0.1947365,0.18432088,0.09882295,0.03452586,0.2517022,0.17782183,-0.2716456,-0.28409213,-0.41494712,0.18590985,-1.2184728,-1.5878258,-0.5736411,0.61930114,0.29201594,-0.08788439,-0.6785192,0.28203964,-0.20469934,0.22641635,-0.22996283,-0.030119095,0.08207963,-0.13402665,-0.41541162,-0.17041807,-0.6395246,0.028478438,0.22085014,-0.43047792,-0.23288952,0.36329812,0.5052959,-0.7595752,-0.014672144,0.06331867,0.11241284,0.25385514,-0.1749566,0.32248875,-0.034801424,0.28854886,-0.04174766,-0.0114862025,0.19879304,-0.56071484,0.37548378,0.079209216,-0.2959864,-0.7152842,0.4923185,0.20323803,0.27751046,-0.3919172,-0.09481622,0.086005904,0.1416524,0.112718746,0.20113558,0.074024014,0.82068604,0.21355192,-0.19897597,-0.40743956,-0.7835777,0.010287324,0.258532,0.25480998,-0.626073,-0.759141,-0.034658987,-0.3991148,0.26637325,-0.5339519,-0.1266039,-0.1104263,0.25586823,-0.11926077,0.5468107,0.3931401,0.20854378,-0.16158813,0.21943188,0.19108817,0.4072574,-0.72725433,0.5085702,0.398838,0.19568634,-0.45542103,-0.37772718,-0.27037135,0.31665078,0.03034802,0.101583794,-0.3674446,-0.3128664,-0.30492663,-0.25371104,-0.16592456,0.15791765,0.00054836564,0.42986232,0.21486098,0.09823263,-0.11876433,0.09264032,0.11060404,-0.10971595,-0.11146081,-0.33005786,0.048198126,0.01050519,0.17369403,0.14530312,-0.09782162,-0.23571968,0.019151604,0.24116541,-0.7050918,0.0532441,-0.15815586,0.18720354,0.19980462,0.005074569,0.10202556,0.12437064,-0.07648202,-0.12391935,-0.12528697,-0.17287818,-0.007756291,-0.28454727,-0.30737042,0.120738864,0.14991942,-0.23102637,0.59390914,0.39604777,0.69706345,0.9676644,0.017725676,-0.38407513,-0.67443687,-1.0740585,-0.40227965,0.13363944,-0.7490854,-0.1416898,-0.4511172,-0.6834334,0.4896191,0.24160254,-0.43050033,-0.08239106,0.23795557,-0.17060207,-0.5613849,0.29760846,0.24084432,0.1292409,0.41154188,-0.69137317,0.12589598,0.22771865,0.37860313,0.53102887,-0.2549583,0.10619252,0.039294448,-0.10358618,-0.26192278,-0.072506495,0.5551936,0.26593748,0.0157387,-0.5409843,0.3010729,-0.13720213,-0.077635646,-0.28001937,0.054725405,0.051266816,-0.9538717,-0.5433077,0.12460415,0.010867116,0.034414265,0.13656029,-0.010040407,-0.12908708,-0.4414127,-0.047660876,-0.21219401,0.4895541,-0.2606446,-0.12017444,-0.5615808,-0.18221743,0.052279867,-0.26689747,-0.062503085,-0.19415374,-0.035438463,0.20507662,0.12951314,0.07461654,-0.22091955,-0.5460678,-0.8939754,0.05255255,-0.99261427,-0.49017385,-0.30081484,-0.055363603,-0.07282363,-0.2341157,0.21187672,0.5242777,0.6719203,0.75404507,0.1648712,-0.3823442,-0.045525737,-0.31897074,0.3767396,0.12063325,-0.21204694,-0.4828066,-0.049097266,-0.317701,0.15979692,0.27825066,-0.2190926,-0.22058794,-0.18861516,-0.1725924,-0.6026235,-0.15883407,0.24435405,0.09780932,0.43789056,-0.9974911,-0.054562338,0.3039043,0.62546843,-0.15441905,-0.25314024,-0.13537297,0.3764893,0.11599041,0.068113916,-0.054587692,-0.28030843,-0.43778458,0.054313116,-0.8218517,0.4473044,-0.72944325,0.08178799,0.5379696,0.68914366,-0.29784808,0.03264153,0.10041216,0.1385262,-0.06471112,-0.7322163,-0.13214384,-0.19853291,0.15950795,-0.2561567,-0.38048428,0.41837713,-0.28087378,-0.027052024,0.53366137,0.7225346,-0.119289026,-0.065012805,-0.21200761,0.103162155,-0.14288369,-0.49090838,-0.68521667,0.41710392,-0.35817903,-0.22501549,-0.08579632,-0.122231975,0.21953548,-0.3456726,-0.4684475,-0.7978566,-0.36990222,-0.25083077,-0.15350014,0.046864334,-0.06554565,0.09583475,0.029980604,-0.29370072,0.09363089,0.034795728,0.01696573,0.04084394,0.74269843,0.09976504,0.07791876,-0.28845674,0.95106107,-0.09918211,-0.21175292,-0.93270975,-0.07614777,0.14183335,0.05747952,0.061439104,-0.5676296,-0.2769533,0.1045412,0.046314143,0.26993048,0.12688051,0.19522205,-0.28327283,0.4684486,0.07829234,-0.34724256,-0.104249775,-0.17298579,-0.18591599,0.1843779,-0.10098501,0.53728306,0.01370728,0.18158548,-0.14805448,-0.03507983,-0.2203484,-0.010338887,0.13930148,0.39491877,0.3011357,-0.19616969,0.10300037,0.08690327,0.1707735,0.03409601,0.0999572,0.10275443,-0.2580483,-0.15349892,-0.32658377,-0.312362,-0.045003235,0.077522054,-0.39191514,0.018456342,0.1590495,0.26913682,0.4312531,0.11511341,-0.06780032,0.008026165,-0.27622744,0.50764185,0.36860302,0.05637648,-0.30242488,0.035993993,0.124996446,0.033426687,0.42611262,-0.19942231,0.019403623,0.1353898,0.18629089,-0.086450964,0.052349254,0.22939987,-0.24559352,-0.06562006,-0.049519725,0.25204122,0.2848407,-0.34197533,0.08425064,0.069715835,0.19835417,-0.023689836,0.15154411,0.40446225,-0.65020776,-0.10376268,0.07923491,0.29678062,-0.3541707,0.36248285,-0.43641672,-0.15887463,-0.06756175,-0.67268115,-0.67414045,-0.33991987,0.111861534,-0.5789437,-0.42016098,-0.40062252,0.1131618,0.010714613,-0.33591953,-0.1575543,0.083737575,-0.24981476,-0.07144814,0.015450093,0.072454974,-0.05505326,0.062031604,-0.021630524,-0.4692906,-0.1291098,0.14340477,0.73322225,0.10905794,-0.12588692,0.089072585,0.5339017,-0.20793726,-0.35512725,-0.10004339,0.064715035,0.13360292,-0.22341448,-0.51418006,0.4881804,0.43393543,0.17028956,0.06062859,0.5530708,-0.0569017,0.17838317,-0.15708305,0.33775198,-0.21629815,-0.20873998,-0.29316247,-0.19898489,0.39413586,0.12165044,0.5010857,0.21533836,0.09509485,0.0024107138,-0.0038180985,-0.2128726,0.3028577,0.033954524,-0.052340448,0.14204028,-0.11492244,-0.18237385,-0.16819608,-0.273392,0.29296598,0.060486082,0.07072076,-0.29963118,0.3699462,-0.22306694,-0.23801114,-0.23240152,-0.0055237124,0.191176,-0.18030846,-0.7717728,-0.16975172,0.4821955,0.75245947,-0.11150446,-0.16439416,-0.0938016,-0.45821738,-0.46412233,0.38997206,0.14740819,0.50172216,0.4093933,0.57772,0.07445659,0.119706474,-0.38918206,0.0015134256,-0.30565262,-0.19081178,0.13642667,0.24965262,0.16799594,0.043262854,0.28076407,-0.5985628,-0.7903243,0.021250341,0.21580563,-0.03887081,-0.09036739,-0.02015776,0.16503833,0.3137434,0.27533695,-0.018213823,-0.0253899,-0.16739435,0.12555632,-0.29824206,-0.111971214,-0.02713596,0.184291,-0.8777923,-0.44959247,0.024023302,-0.023214888,-0.08139342,-0.2092135,-0.4063094,-0.19210474,0.11524041,0.44391102,0.101404436,-0.28427985,-0.009755325,-0.47664332,-0.09126176,-0.5976906,-0.010255543,0.04333698,-0.57940686,-0.092923515,0.01207608,0.39440674,-0.33270097,0.23019876,-0.5757783,-0.13742778,-0.31800163,0.32277605,-0.040522423,0.5104089,0.014627864,0.4823261,0.24629492,0.029118083,0.039235014,0.182526,-0.11305918,0.33879519,-0.023896387,-0.19508317,-0.3935028,-0.5250258,0.55791694,-0.37537545,0.18703972,0.18543957,0.46502906,0.30199352,0.006076976,0.24379005,0.24266689,0.4114975,-0.3731805,-0.6130898,0.107031085,0.05376366,0.025207467,-0.33665502,-0.4268353,-0.4765834,-0.010771497,0.4059323,0.23477593,-0.14667225,0.20292443,-0.07239168,-0.12734033,0.08676369,-0.14504404,0.049161647,-0.11242249,-0.27557415,-0.009687705,-0.6204956,0.065862186,-0.025287174,0.12079732,-0.21796273,-0.045806203,0.078536846,-0.0887977,0.6106264,0.5159608,0.20205823,-0.2878314,-0.3664832,-0.26055112,-0.1374769,-0.46892947,0.036540825,-0.044324584,-0.027336169,0.23885295,0.23087947,-0.39775962,-0.1446353,-0.24212383,-0.08869385,-0.4682765,-0.35137066,0.24653098,-0.0118200155,0.0932348,-0.12077766,-0.2788296,0.12727976,0.19217402,0.18670423,-0.21848832,0.49078548,0.14042191,0.26994568,-0.34693158,0.40483245,-0.07134518,-0.108549945,-0.24657695,-1.0512972,-0.3174463,-0.33944163,-0.15566243,0.10691629,0.15534082,0.12781501,0.3197617,0.3289531,-0.401966,-0.03823244,0.11303792,-0.41004977,-0.2461968,0.090855874,0.34376785,0.47425312,-0.2725734,0.30838004,0.14202482,-0.10807823,-0.3842836,-0.15033823,-0.11526468,-1.0367242,-0.7233692,-0.2669177,-0.22039664,0.42254695,-0.46392515,-0.75078124,0.1642505,0.15707575,0.0017610188,0.11074496,-0.38349438,-0.04459176,-0.46643186,-0.08225644,-0.017583132,-0.16829439,0.35307103,0.10610147,0.046014167,0.0015676807,0.2195495,0.1515166,-0.32444832,-0.7854318,-0.16943203,-0.5331245,-0.98066676,-0.12822925,0.12758249,-0.69384605,0.008007663,0.07412964,-0.07898817,-0.40972283,-0.21469127,-0.48077977,-0.07607791,-0.0008729981,-0.099523015,-0.25536066,-0.026763737,0.059455864,0.13769828,-0.16003825,0.050776854,0.11689597,-0.5793913,0.12213308,0.21514574,-0.06360819,0.22654414,0.5290566,-0.3746665,-0.104505144,0.041967183,-0.36830994,-0.17264478,0.4255243,-0.019277979,0.046752416,-0.38733354,-0.1578366,-0.071563244,0.4117166,-0.38694596,-0.18178204,-0.30364704,-0.4329103,0.35832682,0.005370732,-0.06777906,0.35498688,0.30186257,0.09152169,0.2348371,0.5404323,-0.018999249,-0.14593433,-0.057916928,0.26062047,-0.08912092,-0.27146956,-0.06547634,0.19192526,-0.089858204,0.019857813,0.07398706,-0.14636858,0.0070648617,-0.26502186,0.08038014,0.20220618,0.07088682,-0.41025254,-0.1295534,0.122936316,0.59409654,-0.032960672,-0.35507464,-0.12920602,0.093954325,0.21786618,-0.13062139,-0.72662944,-0.09616048,-0.2636141,-0.29909348,-0.5327173,-0.3560691,-0.10852473,-0.52453864,-0.1836562,0.26847643,-0.4547462,-0.02310257,0.2911348,0.17522332,-0.83067256,-0.5861073,-0.43928,0.098622315,-0.031815592,-0.08866805,0.010639578,0.03842605,-0.004156734,0.4362563,0.30014893,-0.6432535,-0.029249713,0.1497748,-0.40280372,-0.40808812,-0.5202977,0.34866095,-0.41047683,0.2016219,-0.0070219343,-0.32368055,0.2590816,0.18573044,-0.17722632,-0.74282265,-0.19563676,0.51352674,0.2610851,-0.2533894,0.25832325,0.35826582,-0.42297518,0.051259737,-0.2709516,-0.4526372,-0.09023479,0.3637137,0.2470285,-0.77716595,-0.18144023,0.20191482,0.05737698,-1.2941922,-1.1138254,0.27463353,0.00033853587,-0.009486728,0.25679225,0.32626653,0.49627236,0.2283223,-0.017255496,0.15415853,-0.7959472,-0.6303286,-0.13948996,-0.121021666,-0.5323172,-0.21984243,0.32230884,-0.04999965,-0.3700291,-0.22209013,0.3924823,0.19974828,-0.05524264,-0.07524527,0.06869727,-0.1672941,0.07871145,-0.27100512,0.3420973,0.31041062,-0.35132718,-0.25096047,-0.29577705,0.17547667,0.14746836,-1.0604422,-0.4925967,0.22092046,0.11953284,-0.08346942,0.15246257,-0.0029014368,-0.51237106,0.015771259,-0.5221692,0.045380186,0.2672953,0.29358646,0.2454565,0.24093238,0.12290071,0.1157388,0.42304423,0.007899589,-1.0347809,-0.17523822,-0.14026327,-0.01374619,-0.2505314,-0.17066087,0.0860341,0.2836052,-0.2485472,-0.73476595,0.055874955,0.17592794,-0.16232306,-0.06945179,-0.6206093,-0.4862125,-0.0068129874,0.1089301,0.3407464,-0.3752809,-0.15480152,-0.010075569,-0.10530194,-0.54480493,-0.092877164,-0.017639482,0.3091266,0.04848606,-0.4063742,0.853268,0.5781059,0.046512872,-1.3441277,0.11393413,-0.0026578682,0.2213733,-0.17847922,0.49810916,-0.24459477,0.07501044,0.024295287,-0.090639524,-0.087945364,-0.15936461,-0.060908407,0.35056043,0.12749478,0.07246513,0.19198182,0.27313367,0.012154811,0.17554148,-0.19601,-0.42002475,-0.015578982,-0.28859106,-0.45214728,0.22686133,0.035829406,-0.2157435,0.0150860865,-0.31716523,0.106168225,-1.0531607,-0.5964367,0.12439861,0.42389145,0.13157059,-0.47828776,0.041799013,-0.36761454,-0.14933473,-0.19846445,-0.06868898,-0.15736483,-0.41993538,-0.44820803,-0.022439927,-0.028370103,-0.24235766,-0.5238667,0.4438675,0.17409824,-0.23371018,-0.36576068,-0.34023565,0.27941445,0.122116655,0.2156919,-0.12530243,0.17036052,-0.22736679,-0.2540989,-0.35850483,-0.006661183,-0.013843882,0.099981174,0.24189207,-0.17349319,-0.16710243,-0.022515086,-0.14640844,0.21352276,-0.26833043,-0.17056064,-0.106317155,-0.37897137,-0.44831994,-0.09408058,0.24238561,0.16151153,-0.1880277,0.15898803,0.4934517,-0.36199245,0.27234998,-0.20140651,0.13495284,-0.37326154,0.08562762,0.39546114,-0.32294774,-0.6413833,0.37566677,0.27503598,-0.5715764,-1.2148044,-0.27691117,-0.30175677,0.025060523,0.17617835,0.46689987,0.42295283,-0.45456314,-0.48447856,-0.069500625,-0.3315677,-0.035694994,-0.6044424,-0.09848364,-0.2463045,0.24718583,-0.28996783,-0.14070539,-0.3868558,-0.14809145,-0.29334268,0.16219953,0.06451762,-0.10383692,-0.17292301,-0.47645882,0.36024776,-0.0015935992,-0.18243472,-0.3239634,0.26009652,-0.60891247,0.1930031,0.06820127,0.65109754,-0.3168991,-0.06010996,-0.041182127,-1.0739148,0.11273573,0.17637877,-0.28516126,-1.0427396,0.20062268,0.14181805,-0.29712057,0.26138064,-0.21023048,-0.099188216,0.44615072,-0.25205743,-0.7166562,-0.35902727,0.059776857,0.5278816,-1.0334768,-0.082261294,0.15132518,0.17200401,-0.32172373,-0.17551647,-0.063958235,-0.02149822,-0.10220209,0.064743154,0.14743,-0.9098978,-1.0493755,-0.32039955,0.1484166,0.45659322,-0.2726585,-1.0532613,0.22988471,0.33352074,-0.3584987,-0.42974976,-0.21853463,0.28888947,-0.15544651,0.38940102,0.042406924,-0.056492627,0.4619373,0.009480977,-0.15721336,-0.6034358,-0.17042117,-0.36817217,0.03492898,-0.23409414,0.436476,-0.34267595,-0.10022795,-0.08622613,-0.23263516,0.48907357,0.28878543,0.23278424,0.21007714,-0.77720267,0.38453242,0.75710404,-0.70213217,-1.550224,-0.7117756,0.5952431,0.40206522,-0.37228912,-0.05259236,0.12368953,-0.017281275,0.10338247,-0.3501295,0.30705732,-0.68509835,-0.41896632,-0.102421276,0.6742642,-0.7404923,-0.238282,-0.21184209,0.099510804,-0.31253543,-0.15474351,0.14279214,0.19725883,-0.10436679,-0.068740204,-0.024443528,0.24689971,0.057012822,-0.08822095,-0.27874517,-0.06689088,0.16115011,0.03609009,-1.1929173,-0.13498648,0.1559721,0.28735915,0.045066822,0.080866195,0.061246935,0.20052543,-0.10915013,-0.20088941,-0.14802082,-0.122609206,0.06630838,0.15423724,0.031417586,0.19918615,0.029958008,0.3995211,-0.39979792,-0.18573889,-0.004677708,0.23170784,-0.73930514,-0.45645148,-0.62191606,-0.5010366,0.40182942,0.3097759,-0.08086453,-0.474817,0.5430238,-0.36746103,0.07087145,-0.73499376,-0.19214635,0.61259675,0.030954469,-0.39849672,-0.07655904,-0.2534865,-0.807718,0.083750196,-0.1531719,-0.457742,-0.1317107,0.3036791,-0.93516815,-0.66562617,-0.35127556,-0.16938598,-0.14215247,-0.13261032,0.3631574,0.3466363,0.054787233,0.22483186,-0.053044084,0.21203338,-1.5430025,-0.50421625,0.1750421,0.12974147,-0.34196037,-0.6406435,0.1034488,0.3628633,-0.124398954,-0.26294932,0.28974995,0.13913237,-0.13532172,-0.115811355,0.42337215,0.19696482,0.10404942,-0.24310808,-0.55329406,-0.7882544,0.11814868,0.21165204,-0.4645167,-0.53048366,-0.12311869,-0.87685186,-0.51422125,0.031389464,-0.23844908,0.39420548,0.12559418,0.06599821,-0.09074331,0.17810942,0.16374104,0.40143013,-0.11463982,0.48421425,0.24642394,0.39189994,0.27971402,0.27651018,0.17929687,-0.20878771,0.049995597,-0.18955395,-0.4694802,-0.48891455,0.5248931,0.38069633,0.14947616,-0.16532023,0.22670704,0.24778828,-0.01253975,-0.60707915,0.42253977,0.13109624,0.16647807,-0.57571715,0.043342642,-0.4266399,-0.16055161,0.032173794,-0.076104306,0.38013822,-0.18250647,0.034137044,0.17827982,0.17781411,-0.30273205,-0.25839317,-0.6511475,0.096937805,0.2412763,-0.3224709,-0.18300922,0.06842311,0.1703987,-0.2908402,0.5907327,0.014450886,-0.43890512,-0.53351057,-0.094189875,-0.6579821,0.5044559,-0.19241576,-0.016990732,-0.033608258,0.39449188,0.19784051,-0.13697669,-1.4678073,-0.24577942,0.15617822,0.43014625,-0.07658509,-0.011297984,-0.048449747,0.3948772,-0.14102629,0.37248912,0.27590144,-0.059973028,0.35951176,0.055154096,-0.3284579,-0.119146965,-0.21400854,0.051377255,0.041030142,-1.0341341,-0.41418827,-0.12057347,0.21538174,0.28888768,-0.2652747,-1.0108434,-0.4214204,0.3780389,-0.04365014,-0.5161571,-0.03802363,-0.03748397,-0.033521798,0.4329323,-0.40034556,-0.5767164,0.056934018,-0.12119195,0.077522635,0.44727692,0.38802308,-0.03381641,0.1926458,0.11385826,0.5770233,0.082998484,-0.041652177,-0.18068983,-0.34277627,-0.28035945,0.44207278,-0.5139045,-0.5176604,0.27164024,-0.48184574,-0.117613636,-0.21238309,0.5365867,-0.029880311,0.0035991962,0.41904387,-0.34299558,-0.10799527,0.24341173,-0.07023704,0.04944481,0.12031333,-0.84049,-0.020883538,-0.024351176,-0.32338125,-0.12554924,0.21897352,-0.16803724,0.38722992,0.3536864,0.055822,-0.2735945,0.3325573,-0.4973689,0.24175003,0.29700908,0.05747958,-1.1110057,0.9029555,-0.0406209,0.22757304,0.54107606,0.51505995,-0.31341618,-0.09010115,0.024588438,-0.0052739247,0.2907311,0.0022167498,-0.5715636,0.1954576,-0.07120317,-0.7520412,0.26649377,-0.41549036,-0.7513138,0.26348555,0.3518039,0.1276775,0.12335899,-0.13862167,-0.20810315,0.2777872,-0.43781248,-0.23579459,0.41093865,0.036896378,-0.0047040344,-0.25686127,0.20608903,0.2304396,-0.15626253,-0.027079817,-0.6453689,0.23108715,0.12672682,-0.13208647,0.038798023,-0.201177,0.1529432,0.17090386,-0.25215912,0.34720585,0.20818697,-0.49004605,-0.00030420953,0.020135751,-0.04286512,-0.46968308,-0.7822483,-0.63034385,0.35457167,-0.0028393804,-2.043678,-0.5799339,-0.12792848,0.7493873,-0.54807687,-0.11741213,-0.058443334,0.5474224,-1.3178767,0.17238045,-0.007103583,-0.000738921,0.7763391,-0.018413609,-0.005179446,0.46581143,0.1393744,-0.12803254,-0.027920641,-0.32876384,-0.18425143,0.42628595,-0.046189226,0.50078315,-0.3189818,0.32001558,-0.17421676,-0.10910057,0.04052576,0.16704458,-0.1553789,-0.17475523,0.83225584,0.23999147,0.2325875,-0.23690587,0.22229649,0.15172389,-0.2228031,-0.45049083,-0.28927958,-0.33835444,-0.112348825,0.051769737,-0.63958514,0.029458022,0.02128187,0.066802286,-0.22343366,-0.2045999,-0.5034041,-0.9095218,-0.62845945,-0.08965552,0.28624767,0.26819283,0.116112046,-0.10337125,-0.14249201,-0.32771486,-0.9640011,0.05633933,0.037803024,-0.3989503,-0.34169987,-0.02358611,-0.61904466,1.022606,-0.32344735,-0.12946916,-0.1566035,-0.12214753,-0.2559003,-0.58301294,0.45801884,0.15125708,0.20302442,-0.05090078,-0.29649624,-0.06062716,-0.18498138,-0.052821778,0.03351174,0.45276827,0.22547632,0.37105355,0.14350358,-0.40838307,-0.7438504,-0.5310189,0.31738412,-0.13133848,1.0203215,-0.24660544,-0.47914422,0.08170681,0.46505213,-0.28056034,-0.9802687,-0.10208826,-0.15993518,0.34419644,0.0181186,-0.045643874,-0.31602654,-0.6390231,0.24975194,-0.3533116,-0.35471836,-0.42371014,-0.22530259,0.3671054,0.40395224,-0.087971,0.29738945,0.1506206,-0.024295207,-0.06541419,0.14847931,0.11847098,-0.15612757,-0.18845682,-0.123083144,0.13847674,-0.030935502,0.22961232,-0.46412155,-1.0753919,-0.16767651,-0.48838967,-1.3117992,-0.30385762,-0.04386236,-0.072467685,-0.26777324,-0.26458648,0.50634253,0.110155985,-0.071923524,0.25949225,-0.13615912,-0.016947081,0.23247051,0.38452238,-0.3141703,0.015358068,0.30445588,0.39493498,-0.6283067,0.40543646,0.21977463,0.01002409,0.2163964,-0.5540052,-0.89675957,-1.203503,0.6542671,0.07255422,-0.32563213,-0.52664566,0.0108379,0.37979245,0.26053414,-0.0081670275,0.059898295,-0.5560486,-0.02523259,0.037487842,-0.379843,-0.001064277,-0.5440462,0.43997034,0.12094069,0.186282,-1.0533651,-0.28202477,-0.4908257,0.38667566,-0.48000264,-0.22378984,-0.43412596,0.21450517,0.07622566,0.042158853,-0.36292908,-0.64323795,-0.25386584,-0.822516,-0.6124525,0.42506307,0.18172418,-1.0011744,-0.26345906,-0.30210966,-0.12348386,0.06322589,0.1848964,0.06238514,-0.102215365,0.17954996,-0.09901897,0.27071953,0.725622,0.19222578,-0.14097838,0.030045072,0.0649,0.397802,-0.073409796,-0.05293249,0.3491288,-0.37482718,0.12826765,-0.044620723,0.33477306,0.4057407,0.25087965,0.07384382,-0.013705766,-0.60723585,0.35216066,0.045305368,0.122804835,-0.26577985,-0.4904043,-0.50520754,0.56599367,-0.19759282,-0.55662775,0.14484891,-0.17797032,-0.019736057,-0.48343483,0.04416466,0.2152538,0.5362262,-0.09078809,-0.0034958173,0.25210473,-0.113007054,0.18160345,0.2282208,0.3266045,-0.030014861,0.30343845,0.10235211,0.3422145,0.25871485,0.33785567,-0.4352116,-0.4358037,-0.2982981,-0.09368766,-1.0958703,0.31185687,-1.1011354,0.0060684644,-0.774302,0.66098464,-0.5702069,0.3914009,0.042014927,0.16688417,-0.28460974,0.0029885997,0.34070346,0.12343575,0.4408222,-0.19281532,-0.11473225,-0.110909805,0.48958656,0.08188468,0.075844884,-0.080061264,0.1335287,0.09019166,-0.14657758,0.35574374,0.28490272,-0.4855869,0.092558526,0.060470387,0.4064123,-0.28718743,-0.089753,-0.24824564,0.3437655,0.25543618,-0.08992522,-0.10715171,-0.277242,-0.032298293,0.381888,0.23468962,0.42265645,-0.122890934,-0.47551012,0.08783549,0.3105808,0.601727,-0.16714591,-0.24834009,-0.99841344,0.40479466,0.4749271,0.26728937,0.24099316,0.19076696,0.14688484,-0.017955126,-0.063214175,-0.27329883,0.25687948,-0.17735212,0.13022928,0.036819153,0.32272527,0.25619105,-0.2819812,-0.50564396,-0.17762312,-0.36618108,-0.19357422,0.15016623,0.52375615,0.13249415,-0.80548966,0.5320432,0.036942728,0.6229735,-0.09322552,0.24803244,-0.3442883,-0.013314594,-0.743858,-0.08296516,-0.9734465,-0.07096898,-0.73232305,-0.20930795,-0.55388784,0.020886239,-1.0223767,-0.3006302,0.285092,0.32591614,-0.34691775,0.53034055,0.18862015,0.22262079,-0.10698181,0.3658541,-0.004058971,0.03332878,-0.029130248,-0.14736663,-0.02464226,0.32057503,0.15567073,0.41944173,0.120749064,-0.7757313,-0.27880698,-0.08573017,0.05299474,-0.91716516,0.31766587,-0.28917155,0.38459736,-0.5253985,0.053814244,0.22088729,0.37348187,0.03618713,-0.36147287,-0.2962629,-0.10024568,0.09200814,-0.13596606,-0.07521536,0.1816248,0.29666543,-0.3194937,0.16841027,0.23042634,0.08628608,0.21133485,0.17647944,-0.46016723,-0.5086225,0.22237758,-0.05557438,0.37863445,0.1102623,0.4477659,-0.21328525,-0.6451959,0.20791268,0.3095515,-0.26396817,-0.065556355,-0.27573577,0.099508576,0.09022742,-0.034275617,0.13599724,-0.17212164,0.016583487,0.29737067,0.27151406,-0.8903645,-0.35836127,0.22678721,0.48174375,0.16564901,-0.22374406,-0.04841596,-0.021804832,0.27900767,-0.7278717,-0.79385966,-0.065438114,-0.32252097,0.5658454,-0.6495605,-0.8359809,-0.8827344,0.22309649,0.110399954,0.06007114,-0.10409807,0.29293406,-0.5683679,0.11995295,0.35069528,0.3438909,-0.6484108,-0.14829777,0.3831752,0.5755784,0.44347563,0.20603321,0.17702802,0.20726795,-0.080945626,0.062407598,-0.27020606,-0.62317747,-0.17343287,0.29356012,0.21375939,-0.010617967,0.09259676,0.073944576,0.23674409,-0.07154544,-0.35907686,-0.14615546,-0.07975023,-0.1907548,-0.3264109,-0.30441496,0.114426345,-1.1311498,-0.34171554,-0.5675686,-0.7362229,0.025121018,0.07755867,-0.15627187,0.04808371,-0.56072724,-0.029495152,-0.14996864,-0.071687266,-0.5073867,0.11267003,-0.14646956,0.43254384,0.40176332,0.42568368,-0.23654954,0.16430895,0.6721617,0.082786195,-0.14586642,0.62792903,0.3638862,-0.49575418,-0.33684626,-0.14876068,-0.15720063,-0.0049754316,-0.0829305,-0.23737924,-0.34722868,-0.030276071,0.07761753,0.11285851,-1.1494286,0.13988669,-0.19683293,0.3629643,0.0076337997,0.14938292,-0.66106117,0.32692605,0.14045826,0.1919215,0.1327541,0.098321356,0.3640994,-0.2933045,0.20651627,-0.82314,-0.6558351,-0.28141108,-0.390873,-0.05399655,-0.29634172,-0.40101248,-0.51157916,-0.39719138,-0.04385327,0.44230035,0.19049048,0.13229774,-0.55798227,-0.13964896,0.016047638,-0.046858832,0.025445282,0.2127671,0.043693163,0.51664466,0.26788175,-0.06722154,-0.37255427,-0.25282216,-0.118993945,0.0035017058,0.09464359,-0.12681958,-1.0349401,-0.2277121,-0.105204076,0.36331668,0.20425174,-0.071211204,0.06445475,-0.02503873,-0.2396078,0.29665124,0.043962643,0.48798183,0.2291011,-0.09545385,0.38452172,-0.042854607,-0.31948107,-0.0723692,-0.02065417,0.012806122,0.37063283,0.1005992,-0.1257848,0.032512996,-0.1721259,-0.23919615,-0.3577769,0.18205304,0.34988925,-0.011057174,-0.28588852,0.5337551,0.3117032,-0.40612838,0.011432787,0.54293656,-0.5581093,-0.11603316,-0.17590855,-0.717124,-0.31142226,-0.6566481,-0.7204242,0.47620273,-0.4661899,0.25498483,0.1935124,-0.4147885,0.31078875,0.4142842,0.3657316,-0.66994405,0.32460684,0.287395,-0.07431477,0.26745617,0.11438505,0.20424908,0.14253132,0.024400827,-0.40669194,0.046160247,0.2861767,0.23253828,-0.36939505,-0.0723089,0.37464616,0.27022502,0.21995354,-0.18903074,-0.286265,0.5264946,-0.30146703,-0.25687367,-0.037710894,0.271909,0.036976047,-0.27244997,0.18329886,0.004606112,0.48053092,-0.67146236,-0.017842703,-0.15634724,0.29490042,-1.3103417,-0.157414,-0.1035423,0.5159189,0.053059198,0.1265058,-0.5344652,0.12399208,0.48050472,-0.51445824,0.4599625,-0.9801975,-0.014855178,0.35717338,0.39699045,0.2661239,0.3328712,0.07452792,0.47646937,0.107117236,1.3056773,0.4384346,0.27056944,0.043895096,0.19912435,0.08330733,-0.6400435,-0.0012877315,-0.082265094,-0.5534288,-0.09249568,-0.33203173,0.23008688,-0.4147211,-0.11547976,0.12253447,0.24806643,-0.1603431,-0.11048762,0.022516178,-0.17402367,0.31098536,0.40667877,0.46190482,0.4498799,-0.081879824,-0.465064,0.2730675,-0.25506145,0.02214888,0.3457881,-0.18638323,0.2990205,-0.303835,0.14613041,0.29875982,0.5208871,0.20535623,-0.54583895,-0.23051684,-0.31855714,-0.0006963148,0.6393499,0.60956407,0.43677703,0.17278889,0.054913275,0.15933995,0.44456428,-0.14117019,-0.42609304,0.1811353,-0.23034352,0.084538065,0.20021935,-0.12180483,-0.14776203,-0.6192467,-0.5335755,-0.0816956,-0.5936867,0.24961686,-0.034576107,-0.8940426,-0.5359285,-0.10463138,-0.6185139,0.21182504,-0.4044953,-0.24918793,-0.5179184,0.26132053,-0.18675345,-0.57899445,0.32988977,-0.3946212,0.10044916,0.20262837,-0.19009182,-0.23816393,0.24068323,-0.018859148,-0.34778202,-0.17158552,0.0038065398,0.111081354,-0.102538206,-0.50456816,-0.118355066,0.40294006,-0.04895317,-0.16074298,0.26307973,0.3233318,0.5957297,0.48033825,-0.11006311,-0.023980139,0.087786265,-1.0266064,-0.20069891,-0.21636686,-0.6068406,0.07314815,0.15499136,-0.16865246,0.28852838,-0.30206114,-0.16535327,0.30708617,1.1217617,0.0016868517,0.21556607,0.03660377,-0.064566106,0.29372805,0.088045195,-0.029057238,0.11859881,0.16344002,0.33531913,0.096184924,0.05022597,0.3526047,0.44658285,-0.3765081,-0.68654126,-0.38787937,0.16826628,0.13875362,-0.41756737,0.08786458,-0.114400856,0.13914606,-0.22771437,-0.4798339,0.03817533,-0.022907875,-0.2068901,0.10729811,0.26968968,0.48738673,0.18348803,-0.008506981,-0.22658558,-0.1837107,-0.26512307,-0.08087595,0.1818191,0.06386738,0.16272274,-0.58230776,-0.7150308,-0.77417964,0.0037755875,-0.22201042,-0.27107343,-0.43965593,0.10324626,0.46838036,0.29398417,-0.06666126,-0.2372791,0.19839638,-1.059641,-0.7321255,0.019738236,0.51827824,0.0047920584,-0.5174906,-0.24174735,0.33824706,0.37025404,0.27287003,0.33815548,-0.3089936,0.28695014,0.6374553,-0.020137498,-0.020506717,-0.2829262,-0.28522682,0.008712826,0.40463802,0.54192334,-0.3031946,0.10393996,-0.18271792,0.06965611,-0.19905001,-0.4390612,0.21857792,-0.1807938,-0.1698112,-0.43513668,0.82552093,0.26332518,0.1560976,-0.36331114,0.2730364,0.46016842,0.15002003,0.049867895,-0.2839521,0.44731382,0.24035788,0.12047321,0.5586828,0.23513691,0.1509885,0.05135711,-0.5633519,-0.33279917,-0.34601235,-0.23767637,-0.62030816,-0.35841155,0.3505608,-0.04345817,-1.0129137,0.18006596,0.24117136,0.6402235,-0.10794999,-0.20349666,0.6538465,0.124353826,0.27792367,0.1409724,0.63700736,-0.3124659,0.34795895,0.10223292,-0.13584231,-0.56553406,0.4183161,0.3064364,-0.011596871,-0.15158361,0.13640518,-0.5636062,-0.11442656,0.18304314,0.23582177,0.2241902,0.35306045,0.40218687,-0.168603,-0.7067952,-0.55613536,-0.28032368,-0.1835362,0.029679274,0.39822555,0.39116764,0.06250802,-0.096710466,-0.43017474,-0.5005294,0.112596415,-0.12286888,0.10860061,0.017640462,0.411974,0.026053097,0.36750618,-0.10437987,-0.1174058,-0.3457597,-0.56634086,-0.28288785,0.4767676,0.5210865,0.19857085,0.20034216,-0.14590779,0.22328617,-0.087752886,-0.30763495,-0.034769047,-0.23538655,0.109139256,0.36070567,0.02875131,0.2649126,-0.22653371,-0.74762565,-0.29140288,0.080413625,0.45969415,0.29377905,0.23456028,-0.11847748,-0.8023913,-0.11041167,-1.1914905,-0.48021182,0.0029461654,0.77766275,0.24599008,0.34773815,-0.12001674,0.33500457,0.28445366,0.06150103,0.40954164,0.21990488,0.023137935,0.344816,0.4833074,0.1426864,-0.04940376,0.15311141,-0.21739635,0.0016397523,0.5149703,0.06794173,-0.08605856,-0.7752986,-0.38405195,-0.13339975,-0.7160576,-0.66071606,-0.2113419,0.39572936,0.34266028,-0.5859639,0.10727677,0.5423034,-0.085677445,-0.28967056,0.44749942,0.2812163,0.32420054,0.26883483,-1.0435024,-0.8179099,0.07592179,0.6305562,0.0125627555,0.20219904,-0.24697101,0.035300475,0.20420672,-0.2876477,-0.3221028,-0.63961166,0.49701744,-0.19582132,-0.75802475,-0.44290888,0.11390999,0.23053923,-0.37422556,-0.46143442,-0.4382363,0.12654234,-0.0035774913,-0.051470887,0.04318583,0.33912072,0.55116194,-0.16194503,0.2787594,-0.021240719,-0.010749,0.041679736,-0.77354676,-0.8131519,0.11976089,0.5057124,-0.3116758,0.243777,-1.1128647,-0.3527405,-0.41705713,-0.095671676,-0.57219636,-0.31009585,-0.03898054,-0.12261166,0.32125902,0.097816825,-0.66206425,-0.26785427,0.028604094,0.31635755,-0.25595763,0.3037919,0.14902163,0.33710405,0.28423485,0.09866238,-0.18474074,0.2849042,0.23930064,-0.16932343,0.14234202,-0.118607275,0.5103806,-0.001973397,-0.28524128,-0.45458272,0.15134495,-0.5020443,0.29733357,0.43966937,0.044802256,0.026651338,-0.370169,0.27447116,0.47335926,0.08320483,0.2317768,0.2088416,-0.041008323,0.097210646,-0.03451615,0.09590668,-0.44107398,-0.2656549,-0.12558573,-0.20495227,-0.4112594,-0.4050407,0.1154862,0.6078776,0.31697762,0.1787808,-0.019124193,0.13609089,-0.17902072,-0.39927083,-0.36795247,-0.48658827,-0.36405048,-0.37553808,-0.284188,-0.15928182,-0.34997395,-0.19457453,0.19796331,-0.10901333,0.41545504,-0.6628736,-0.059533924,0.1777713,-0.30517796,-1.554125,-0.21593472,0.40458253,0.120775595,0.14078765,-0.0678545,0.26029852,0.10427858,-0.30523682,-0.06904692,-0.1611705,-0.014945318,-0.14111309,-0.2245672,-0.47933814,0.50096536,-0.03009277,0.19125444,0.008796873,-0.07016837,-0.6335648,0.096904024,0.3666638,0.69135475,0.0035264525,-0.5381672,-0.07083953,0.23653957,-0.05660683,-0.11565405,-0.3061545,0.07976248,-0.09549896,0.32527256,0.8385706,-0.24671076,-0.58191943,-0.71204215,-0.035022344,0.111071326,-0.08356462,0.30875435,0.19441517,-0.4152185,-0.22740208,-0.39731672,0.098457344,0.51385266,0.096281916,-0.4717361,-0.5637076,-0.45704782,-0.3949821,0.3453081,0.092390165,-0.63745993,0.04130028,-0.031727243,0.27504724,-0.39152417,-0.62095916,0.06168296,0.4096622,-0.27000168,-0.5490784,-0.06912241,0.34039423,0.44146487,-0.059536837,-0.74611706,-0.17701595,0.19206154,0.14277177,-0.042918034,-0.13190757,0.2051605,0.12844755,0.13142546,0.03882735,-1.8607599,-0.032765646,0.24673814,-0.029721832,-0.7406484,-0.25952527,0.24113806,-0.21352589,-0.46875015,-0.5884836,0.15393251,-0.038384195,0.5779845,0.39840835,0.21272163,0.28817296,-0.28829098,-0.664911,-0.570713,-1.0444549,-0.9393648,-0.20766795,-0.21721688,-0.3345548,-1.5267092,-0.0564215,-0.29704985,-0.29217374,0.16552319,0.16045572,0.075437196,0.33449054,-0.5199098,0.8327187,0.07881562,0.2564034,-0.21414492,-0.37284863,-0.38090724,0.10753813,-1.027815,-0.5964304,0.16721007,-0.09393386,-0.42934668,-1.2119689,-0.3371483,0.086651415,0.49117795,0.6756061,-0.52416927,-0.16295694,-0.0635068,-0.023349935,-0.06035881,-0.26556948,0.2922644,0.2069131,-0.34262735,-0.4071925,-0.15116198,0.22178465,-0.00052104663,-0.13763934,0.2740954,-0.27029952,-0.30282608,-1.1414503,0.017942851,-0.21130078,-0.059689265,-0.026705554,0.004385647,0.6295307,-0.24553744,0.100026466,0.43291596,0.2093577,0.3946194,0.4469991,-0.05354676,-0.6186279,-0.116524726,-0.3833785,0.1927708,0.023633424,-0.7701359,-0.31943348,0.29239693,0.29130432,0.11637637,0.4762197,0.46611813,0.17419536,0.01533067,0.84570175,-0.35614827,-0.03381539,0.21193323,-0.10225637,0.21690999,-0.2808726,0.2904635,0.22093362,0.005747322,0.023960607,0.33893093,-0.26923436,0.62178457,0.17279375,0.33071256,-0.02721011,0.3753253,0.25995082,-0.24651794,-0.14341117,-0.056584906,0.116500966,-0.3765303,-0.23973174,-0.14130175,0.0039598756,-0.18336976,-0.30959508,-0.047772206,-0.25025383,-0.18979107,0.29394382,0.056401487,0.229797,0.0077715046,-0.041016597,-0.6935027,0.2199562,0.2527017,-1.2100631,-0.08856273,0.10967535,-0.1311892,-0.7508531,0.069263555,-0.25279903,0.09478641,0.20609741,0.021779368,-0.31026793,-0.08988504,0.037860643,-0.6036008,0.31730515,0.4667314,0.047172066,-0.07241171,-0.15646271,-0.18566154,-0.26834372,-0.7478411,0.2765182,-0.098287806,0.03485355,-0.38607576,-1.6229053,-0.5567,-0.35675368,0.08589202,-0.35666862,-0.87908125,0.12377823,-0.2513903,-0.6472679,0.5201353,0.28154242,0.22651242,0.24945861,0.5118463,0.28498122,0.42851895,0.4071803,-1.0536764,-0.6979105,0.13375805,-0.3925871,0.26387617,0.04073506,-1.4078368,-0.43842903,0.004946347,-0.11545701,-0.6178863,-0.2639911,-0.1682845,-0.14160052,-1.0722426,-0.21667291,0.15372382,-0.19534445,0.16586965,0.27238688,-0.33227083,0.08006638,-0.08271832,-0.05374871,-0.19525571,-0.013339665,0.34083277,0.23340733,-0.3556061,-0.091051094,-0.4492304,0.15693195,0.17130889,-0.045390185,-0.23294951,-0.5330728,-0.3141052,0.28352857,0.091264546,-0.16630834,0.25358713,-0.04040035,0.0763265,0.11063285,-0.41882548,-0.0652645,-0.35421285,-0.8417126,-0.054630868,-0.60390776,0.09056294,0.013805559,-0.3266014,-0.24081774,-0.1381249,0.03531752,0.24650237,-0.31716412,-0.70272744,-0.41334733,-0.8518877,0.3195981,0.26607645,0.5364612,0.22765073,0.1761899,0.12793897,0.5439813,0.18301119,0.29299694,-0.2649248,-0.18830486,0.03906708,-0.025756933,0.28917617,-0.014292172,0.22316524,-0.08106105,-0.07478632,0.2910757,0.17214586,-0.14918566,0.033454165,0.39281866,0.29482198,0.14568712,0.03281162,0.33125237,0.2300814,-0.41278368,-0.6186593,0.102891766,-0.007227094,-0.28805435,-0.23954977,0.471437,-0.55901027,0.039778803,-0.13556434,-0.20248091,0.12312419,-0.2348346,-0.15664937,-0.17314847,-0.14011598,0.57662404,-0.0838351,-0.09948242,-0.14060628,0.258937,-0.0031762996,0.033893596,-0.16124293,-0.07376726,0.08473513,-0.3673285,-0.14916739,-0.31231585,0.19728775,-0.049773052,-0.07025292,-0.40236425,-0.051086392,-0.14575303,-0.21221578,-0.65709716,0.54138327,0.35535964,-0.1589674,0.125517,-0.35655007,-0.37243763,-0.30677342,0.14365834,-0.27544796,0.1226355,0.44453388,0.07613329,-0.046526156,0.14158992,0.23725626,-0.19200489,-1.1791855,-0.21063577,-0.21119268,-0.2928032,-0.36938137,-0.08787788,-0.20837513,-0.89775515,0.31742242,0.40726873,-0.024577372,-0.5758422,0.19082244,-0.09452728,-0.06015207,-0.5745766,0.14221758,0.121067874,0.05468136,0.04983521,0.14387622,0.12487469,0.575126,0.26138955,0.07706055,-0.011822712,-0.29700878,0.15301493,0.087414995,0.43983763,0.31140396,0.09233431,-0.26145023,-0.35141557,-0.06365269,-0.18077022,0.1314338,-0.025249653,-0.19983688,0.03693664,0.007681542,0.024807272,0.042683415,0.37267804,-0.72653395,-0.44271466,0.16848502,-0.21397151,-0.067323424,0.351816,0.11915858,-0.099122204,-0.48497537,0.13479948,0.09358618,0.044407997,0.449823,0.4234314,-0.404824,-0.158782,0.22691248,-0.08865539,-0.018896317,0.15600492,0.009222206,-0.4187774,-0.34632608,-0.5589617,0.062007207,0.4866483,0.46449363,0.45433787,0.092321806,0.20085862,-0.056024157,0.028307352,-0.086600855,0.11106298,0.034122076,-0.25100565,0.14865626,0.2585009,0.32624045,0.5863261,0.1002076,-0.035933565,-0.25290507,-0.006188741,0.13117617,0.4018277,0.028422829,-0.15644145,0.20494759,0.21198371,-0.25170627,0.19833297,-0.08603005,-0.11241194,0.15380827,0.088839,0.13200605,0.14320193,0.095663555,0.13438341,-0.25729793,-0.33424225,0.27594817,0.44605726,-0.5846394,0.12094695,-0.4651937,0.33022258,-0.20752382,-1.000371,-0.48773876,-0.3819127,-0.6238493,-0.4072952,-0.10651535,-0.13522525,0.43296802,0.13088651,0.19824968,0.2727145,-0.28570578,-0.116429694,-0.39886647,-0.9683131,0.5971063,0.34560236,0.26962975,-0.06262237,-0.38613096,-0.1999667,0.21280941,-0.13768376,-0.11477436,0.27882105,-0.015718205,-0.2370453,0.32698023,0.11446174,-0.42716032,-0.48112845,-0.26115316,-0.059088703,-0.44940037,-0.28189087,-0.10231989,-0.0896821,-0.11099511,0.49884805,0.20013365,-0.6779638,-1.3411039,0.33600348,0.13625656,-0.34722432,-0.58546484,-0.4283239,-0.077707835,-0.05633013,-0.05058713,-0.08350947,-0.064696394,-0.06131755,-0.055403434,-0.09905215,-0.0017733335,-0.0496297,-0.10984379,0.015674988,-0.009993939,-0.014481092,-0.027325628,-0.0126145175,-0.0646889,-0.06259579,-0.06011673,0.0054644123,-0.038717795,-0.015171943,0.043884825,0.042541075,0.0060502067,-0.024701396,-0.05657722,0.047374845,-0.08943943,-0.08053297,0.022246895,-0.04792043,-0.0041171047,-0.044214685,-0.041011695,-0.136114,0.02651716,-0.016625576,-0.09500384,-0.09598923,0.029925449,0.026294772,-0.0062533794,-0.063796595,-0.028660167,-0.026990019,-0.06521801,0.051128868,-0.04945048,-0.09320869,-0.014689085,0.06775217,-0.036151797,0.061065383,-0.004951469,-0.018810166,0.028061233,0.010339623,0.041054368,0.050828952,-0.006978181,-0.053112157,0.011108936,0.025340121,0.00065939815,-0.04712099,-0.070197456,-0.0022571282,0.011444106,-0.024197554,0.014207327,-0.028036235,-0.0635072,-0.06462294,-0.088385366,-0.030726064,-0.04918928,0.0012814465,-0.029239943,-0.006413245,0.0199201,0.06724758,0.030285258,-0.045082554,-0.060197648,0.0028714438,-0.008050796,-0.053499583,-0.017210742,-0.03507623,-0.068699114,-0.04505471,-0.05427516,-0.06717277,0.025680143,-0.03539377,-0.048032925,-0.0958714,-0.010286422,-0.04868847,-0.101583555,-0.051002357,-0.047018275,0.00025619232,0.0417746,0.052607894,-0.028903428,0.015357233,0.009646377,-0.012307925,0.04351711,-0.09275893,-0.053011075,0.034603417,0.012125687,0.012917007,0.0062395073,-0.022163788,0.078854136,-0.00956754,-0.041536234,-0.093920946,-0.030347377,-0.11946756,-0.03878289,-0.063637875,0.0045620003,0.04641816,-0.0898588,0.073249854,0.014083926,-0.07707819,0.04323193,0.026913993,0.019269075,0.006486268,-0.018481962,0.006302238,0.057941467,-0.012767114,-0.05278807,-0.06469772,0.059535105,0.0018744161,-0.01052853,-0.010850136,-0.008901984,0.046325065,-0.07283607,-0.0411535,-0.09297629,0.042905476,-0.055870105,0.018814692,-0.027212111,0.08209911,0.021320252,-0.051670305,-0.06806115,0.006209308,0.06763663,-0.07423902,-0.053747386,-0.0060394215,-0.039963216,-0.021533007,-0.023152472,-0.028537728,0.03039225,-0.08888113,-0.04364004,0.011743785,-0.06597867,-0.0838637,0.01121853,-0.00524353,-0.011140866,-0.030601194,-0.0002850195,-0.013458978,0.010817749,0.0041212607,-0.017406236,0.05314726,0.013069439,0.022686448,-0.00610989,-0.022453679,0.0051367222,-0.08357204,0.038964417,-0.07762208,-0.034382798,-0.05266272,-0.017108347,-0.074748404,0.039224938,-0.05150756,-0.022861509,0.012743732,-0.043405224,-0.016176542,-0.07956593,0.015550222,-0.07635528,0.014254938,0.046485584,-0.067797475,-0.051068086,-0.024020405,0.02258493,0.02120454,-0.070440635,-0.021834277,-0.023516316,-0.02888761,-0.05371719,-0.04847931,-0.07253359,-0.018469132,-0.008811119,-0.058363646,-0.024570437,-0.07905014,-0.020983426,0.031112006,-0.012286575,0.016883831,-0.015614528,-0.032510273,-0.053142216,-0.013709906,0.06949478,0.017237123,-0.04392526,-0.014397105,-0.047314465,-0.008821212,-0.05899903,-0.04582601,0.030783577,0.028776914,-0.028266624,0.03200656,-5.6402074e-05,-0.011100552,-0.012135433,0.005804553,-5.4538494e-05,-0.03547803,0.05938171,-0.0684197,-0.039792083,0.038391706,0.020515133,0.028642893,-0.057505973,0.027292509,-0.052875265,0.0023098907,-0.052705433,-0.019274918,-0.06988682,-0.051073045,-0.05126086,-0.0070402743,0.021013413,0.020622686,-0.046102747,-0.071459055,-0.050295606,-0.02734061,0.031982977,0.035277653,-0.056922026,-0.046022862,0.051061094,-0.03898154,-0.012230849,-0.062522486,0.048286173,0.0034546736,-0.008676156,-0.054453466,-0.042408977,-0.03653219,-0.008985767,0.012533527,-0.007560515,0.030352833,0.039241403,-0.01621134,-0.050609414,-0.041703135,-0.0012249917,0.0182703,-0.05677335,-0.062904164,-0.069143504,-0.010689689,-0.005759334,0.041390378,0.02712532,-0.048430037,-0.09008884,-0.072562166,-0.06304806,-0.063638754,-0.04698124,0.039199084,-0.03158996,-0.049543038,-0.024525488,0.01766839,-0.064061195,-0.005748415,-0.032078434,-0.018693397,0.051509377,0.02651563,0.022928957,-0.06391406,-0.031157631,-0.016056763,-0.051916916,-0.035547283,-0.02137671,-0.054916725,-0.03824374,-0.08012637,-0.0097492235,-0.017965524,0.03762053,0.0053548752,-0.029389255,-0.05813212,-0.038159817,0.05579134,-0.019295491,0.049637437,-0.023678338,-0.06287768,0.010266733,-0.0697134,0.010267534,0.0045035006,-0.091894805,-0.01239522,-0.08785371,-0.068719484,0.008543013,0.011497731,0.03723504,0.009240606,0.01967518,-0.03605467,-0.081163555,0.010204607,-0.019870171,-0.03883326,-0.04509208,-0.014390913,0.029815342,0.02778013,-0.06440244,-0.024870085,0.041008994,0.010545584,0.03665947,0.013212994,-0.015934126,0.026993139,-0.06795716,0.009581466,-0.066443846,-0.04736647,-0.009535354,-0.032851603,-0.023065401,-0.0027201476,0.0059540123,-0.0026658252,0.0153583195,0.015219439,-0.018730596,-0.08065884,0.024518855,0.037858713,-0.01889111,0.02190314,0.042382173,-0.0382789,-0.06153592,-0.00244918,-0.06708501,-0.052855182,-0.03661335,-0.059510604,0.0008115953,-0.057865627,-0.01695887,-0.040447574,-0.0029500301,-0.05001238,-0.039708853,-0.061997518,-0.022847261,-0.063696265,0.019955175,-0.032870978,0.012281093,-0.05177261,-0.06110399,-0.009463724,-0.03811763,-0.08013624,0.009703258,-0.045380972,0.05226485,0.036085546,-0.016488131,0.01669033,-0.017114328,0.005116987,-0.016191121,-0.049153876,-0.057046898,-0.051643305,-0.0695854,0.02544241,-0.024888268,0.029567948,-0.0021669676,-0.010525378,-0.05497251,0.0005560519,0.012628087,0.0121110175,0.014694272,-0.037690323,0.0076548476,0.00030183402,-0.017654523,-0.045356117,-0.030324515,-0.009651028,-0.06902621,-0.022613095,-0.06733715,0.043132424,0.008005328,-0.055691812,-0.020632025,-0.053797632,0.045086868,-0.027125904,0.037325323,0.030789794,0.04552965,0.0051789205,-0.052458793,-0.005164149,-0.033256054,-0.046067823,-0.04877746,-0.06469274,0.0023349628,-0.033975586,-0.035580672,-0.04114627,-0.004321443,-0.03795905,0.011674924,0.02712399,-0.056033745,-0.06922702,0.021734817,-0.042283278,0.03073693,-0.077471174,-0.06732345,-0.08919084,-0.061781492,0.045368515,-0.08736791,-0.07523554,0.0256144,-0.0024626802,0.022970824,0.0035109348,-0.043934487,-0.06547965,-0.006833311,-0.009095835,-0.025481267,0.03978719,0.020714791,-0.0069507924,-0.036940902,-0.04247407,-0.05212892,-0.058121648,-0.047480013,-0.005555995,0.037344903,-0.07960291,-0.045994934,-0.030507132,-0.06733813,-0.053936604,-0.004014966,-0.06884047,0.008099019,-0.017624332,0.039042696,0.036500238,-0.026249994,0.030563602,0.01842836,-0.048965074,-0.015888473,0.023270087,-0.027947878,0.03444192,-0.01757124,0.04017513,-0.044859182,-0.028443035,-0.0072969142,-0.019034004,-0.00066300674,-0.017985683,0.042253174,-0.04030687,-0.04855359,0.031517416,-0.060269024,-0.0058977096,-0.009691137,-0.06050904,0.013774276,-0.05250196,-0.048824284,-0.016499968,-0.059376527,-0.04662259,-0.041092373,0.021543715,-0.015444073,0.00026700317,-0.056830462,-0.0017324102,-0.062001474,-0.004906714,0.033627592,0.024307918,-0.02234948,0.028949779,-0.01704474,-0.017881194,0.014829791,0.029151214,-0.07919038,0.031423893,-0.018884778,-0.019934164,0.01110266,-0.0024231481,-0.051603913,0.02093026,0.03421489,0.04273789,0.022936035,-0.025730854,0.011540286,0.03533091,-0.0049666846,-0.0028818299,-0.06061392,-0.04947214,-0.03215703,0.030382695,-0.050247293,-0.041939326,-0.049259685,-0.045036968,0.014652924,0.029930525,-0.06285852,-0.027549459,-0.01894915,-0.015097836,-0.014228464,-0.019776752,0.0041868617,-0.072537,0.038240697,-0.06849703,-0.07465509,0.013854613,0.022579946,-0.047607385,0.013845252,-0.03444905,0.015672822,0.006746793,-0.082841516,-0.04915513,0.0026916577,-0.015549665,-0.042965963,0.02059238,-0.02083945,-0.058711346,-0.037722547,0.012654511,-0.08236247,-0.07055734,0.01895579,-0.047899995,-0.0053818887,0.005915111,-0.01210006,-0.0036355425,-0.10044933,-0.0054371236,-0.038039062,0.021440618,0.03609449,0.009232192,-0.042050224,0.023168879,-0.059967835,0.024820115,0.0007470269,-0.043922126,0.03509456,-0.020794932,-0.043233942,0.0046355617,-0.046546042,0.03513111,-0.04049438,0.029586304,0.007898647,-0.041248802,0.00235328,-0.031397738,0.013682615,-0.0032030907,0.008799608,-0.012207171,0.022364011,0.024515476,0.034417268,-0.06507418,0.009110113,-0.02103474,-0.030758506,-0.02262631,-0.022756767,-0.03660421,-0.025421947,0.015229699,0.018200902,-0.02711798,-0.050016142,-0.060155217,-0.0014288565,0.03812294,0.02185153,0.022682613,0.023537273,0.038948648,-0.019020325,-0.08099213,-0.018943692,0.032427788,-0.033477522,0.046728075,-0.039168432,0.01081923,-0.029504916,-0.05183202,-0.0814489,-0.05146072,0.026162552,0.029121926,-0.03595931,0.016342118,-0.06168376,-0.07121578,0.038143326,-0.06353378,-0.069245026,-0.02576626,-0.031557906,-0.0081235105,0.010855192,-0.012545314,-0.07127975,-1.8765284e-05,-0.07536565,0.030936105,-0.064155385,-0.0124961715,0.03161873,-0.004204507,0.040074106,-0.037676007,-0.028979179,0.029726336,-0.055110615,-0.003563833,0.0065439176,-0.0116728265,-0.053774443,-0.03056894,0.0026593828,0.031210093,-0.08174376,0.03178299,0.0037326918,0.02295982,-0.01033413,-0.012222517,-0.012270905,0.019793432,0.017166782,-0.025018124,0.03071285,-0.040296968,-0.0438774,0.024938397,-0.035724953,-0.033174466,-0.027381415,-0.052937802,0.0027839334,-0.0055005965,0.025554946,0.047270168,-0.027835311,-0.07654437,-0.018782677,-0.0705462,-0.054589193,0.0135952765,0.034761872,-0.033434916,0.014393216,-0.06269866,-0.029614491,0.021219509,-0.05703259,-0.05683723,0.0010820891,-0.08025635,0.029441196,-0.024668459,-0.05378429,0.004018501,0.020488154,-0.02392297,-0.06256644,0.012245748,-0.094129935,-0.017900174,-0.07857331,-0.031422358,-0.026186448,0.018745817,-0.10085634,-0.0016303536,-0.09217774,0.043202724,-0.012281569,-0.047598764,-0.028700419,-0.008963938,-0.096890666,-0.07088632,-0.0077464553,-0.101938866,0.02891939,0.016936092,-0.03762645,-0.06637185,-0.036473326,-0.010852922,-0.016028048,-0.076966345,-0.040566616,0.02935651,-0.09730344,-0.0413297,0.0006661249,-0.023265027,-0.032188352,-0.006234499,-0.04012194,-0.07709908,-0.07953241,-0.021894543,0.016169993,-0.047629967,-0.035472296,-0.07678094,-0.028372463,-0.07505401,0.011697727,-0.0145370485,-0.08657066,0.035078123,0.0071879546,0.041130584,-0.00979429,0.040776465,0.029004455,-0.038079362,0.017904049,0.008086064,0.006450749,-0.07113916,0.007034809,-0.043100934,-0.026642643,-0.043632332,-0.060853694,0.0026634086,-0.09555215,0.04314334,0.046839423,-0.004188965,-0.025609627,0.026851788,-0.0464204,-0.097326316,-0.018765507,0.048523564,-0.037418798,0.05533017,0.027119141,0.024725676,-0.001772101,0.014721434,-0.09495971,-0.034714103,-0.07823151,0.006407793,-0.11067858,-0.0424708,-0.061492402,0.01596498,-0.094704695,-0.048343617,-0.0027381014,-0.07370401,-0.005668107,-0.055909786,-0.005032793,0.011118618,-0.097597234,-0.10272919,-0.037399027,-0.0059296745,-0.074001245,-0.004619043,-0.008638674,-0.035556868,-0.031584684,-0.014444278,-0.001392836,-0.07957388,0.033032153,-0.008453921,0.013310121,0.016006086,0.016887093,0.00013910973,0.0062152497,0.061563708,-0.05346189,-0.06533283,0.05353392,-0.00684768,-0.08522797,-0.05037603,0.0103517845,0.025163857,-0.022089824,-0.05984465,-0.061722632,-0.09685024,0.036078855,-0.044923395,-0.01058442,-0.03271178,0.0356957,-0.04442562,-0.04405536,-0.058626078,-0.054771453,-0.024475366,0.039400823,-0.0041846666,0.018570578,0.035099227,-0.05681956,0.038580492,0.0018665603,-0.08597424,-0.02348681,0.037570674,-0.10998444,0.0013699713,0.0034531222,-0.062488556,-0.045055825,-0.024494935,-0.05393664,-0.005214291,-0.08045015,0.013115324,-0.023322692,-0.058237944,-0.009977494,-0.016619466,-0.09297668,-0.091125235,-0.06783699,-0.056008354,0.019408846,-0.08342298,-0.030467194,0.0218615,-0.062459763,-0.063028894,-0.0699031,-0.035445865,0.009006956,0.008341743,-0.03372727,0.010706479,0.031384125,0.025159473,-0.072175,-0.07776384,0.006627875,-0.061741643,-0.0015993081,-0.022516955,-0.020440603,0.028024817,-0.045922123,-0.024854654,-0.00428616,-0.07782267,-0.027296891,0.009459967,-0.028698782,-0.006739861,-0.059904628,-0.016618099,0.011831617,-0.06251381,0.034858223,0.038351562,-0.019194173,-0.09865697,0.011200324,-0.048109155,0.03828601,-0.062895074,-0.04551238,0.027382866,0.048642293,-0.07094464,-0.05680767,0.052274615,0.0022337364,-0.050392985,-0.0785609,0.029938761,-0.06944237,0.022892863,-0.037718493,-0.050666846,-0.038297385,0.04223528,-0.06283841,0.04044647,-0.049560014,-0.08652979,-0.091139615,-0.059068944,-0.01417776,-0.04986739,-0.08473,-0.020220198,-0.0062289205,-0.015979642,-0.06892794,0.0030244421,-0.030401874,-0.009187499,-0.048491847,-0.053381525,-0.08813291,-0.0052168523,0.049153842,-0.089926146,-0.0045478726,-0.07439735,0.002188376,-0.051323768,-0.007854631,-0.0002300851,-0.10763666,-0.017614448,-0.051068954,0.010000309,0.032752573,-0.017496174,-0.027281001,-0.00065505714,-0.03337017,-0.020019013,-0.010401673,-0.054439332,-5.0086743e-05,-0.035150047,-0.018553436,-0.07576659,-0.042828135,-0.090902,-0.033015434,0.019479351,0.0012968689,-0.0362418,-0.01532324,-0.030853724,-0.077261984,-0.010389317,-0.01969837,0.012578088,0.010517736,-0.050263457,-0.02821813,0.036449797,-0.05482637,-0.03681271,-0.034286715,-0.013143033,0.032808803,-0.037928693,-0.0650258,0.033687614,-0.013619711,0.024853334,-0.074800625,-0.05360315,-0.06707976,0.006895776,-0.03137495,-0.016812015,-0.04904013,-0.03448412,-0.06598252,-0.0438687,-0.010345364,0.011274881,-0.08219981,-0.074809246,-0.051630896,-0.04953689,-0.05317245,-0.001605255,-0.053246938,0.017051741,-0.0043019643,0.021318376,-0.07708848,-0.00776713,0.00268261,-0.05376886,0.03231611,0.061540335,-0.060739577,-0.0050498927,-0.08595879,-0.06100159,-0.034083117,0.046276685,-0.05618612,0.0054218005,-0.022771895,-0.064715415,-0.023210637,-0.05993232,0.028794046,-0.055742063,-0.019803613,0.0028495754,0.024739558,-0.030092565,0.01637103,0.006250461,0.028601715,-0.06129743,-0.0073234793,-0.012921841,-0.03160817,-0.059558693,0.0001916407,-0.047516458,-0.04376501,0.015036598,-0.046867236,-0.08677736,0.05525125,0.0166367,-0.046029013,0.01977336,-0.033507925,0.0024526278,-0.084569976,-0.022198148,0.011791913,-0.07916411,-0.03609422,-0.0817091,0.01233639,-0.01990494,0.0053277463,-0.00486321,0.03461314,-0.065531574,0.018598164,-0.016608613,-0.035357427,0.014722188,-0.05310788,0.01567881,-0.090308666,-0.048219588,-0.030147096,-0.023736065,0.007749915,-0.057581566,0.005723004,-0.04632208,-0.05043375,-0.0031313656,0.00280267,0.008009754,0.01923776,0.024272826,-0.040320568,-0.09237184,-0.017149134,0.042683583,-0.011669036,-0.0528423,0.06070488,-0.036551878,0.022187706,0.012910547,-0.005273846,-0.05615085,0.0019206516,0.028216083,0.010640977,-0.020758785,0.0065503716,-0.051713943,0.0123874685,0.033132344,0.03322795,-0.071522474,-0.03449997,-0.08385168,-0.06595995,0.008364318,-0.083784126,-0.046057813,0.012548362,0.019680118,-0.056720573,0.05006904,-0.0042745695,-0.030445423,-0.078439735,-0.040355116,0.01757874,0.018527798,-0.010282995,-0.04199881,-0.061625652,0.031008871,-0.052823,-0.033148997,-0.07085499,-0.043647397,0.04477507,-0.05670338,-0.061933465,0.036202777,0.019767331,0.0014768376,0.029414393,-0.027662426,-0.07856685,-0.0817967,0.037619572,0.03696619,-0.03565974,-0.068453334,-0.036243007,-0.057863444,-0.01662599,-0.028003484,-0.07529445,-0.0013202501,0.028812565,0.023420995,0.041670516,-0.0043103253,0.0031294632,-0.029671535,-0.03246404,-0.08550528,0.0020356805,0.0052207373,-0.08584843,-0.068000674,0.033136815,-0.032249767,-0.00038322303,0.014051591,0.029468067,0.02207525,-0.059202973,-0.025413686,-0.042373944,-0.017557636,-0.00049539993,-0.06405531,-0.030684017,-0.0018940711,-0.07345743,-0.08508523,-0.07396531,-0.026830433,-0.029083291,-0.07757879,-0.07974339,-0.07862814,0.0061176745,-0.06959264,0.042386033,-0.0811141,0.038023323,-0.07645173,-0.05502254,-0.0007965902,-0.056632146,-0.0039095622,-0.049457315,0.006271009,0.040022045,0.012274669,-0.083312385,-0.058217913,-0.021968737,-0.076712504,-0.021666082,-0.049516704,-0.0199,-0.0009317317,0.018597439,-0.04190988,-0.02440437,0.045907114,-0.051774714,-0.049204227,-0.006576407,0.005098647,-0.03390486,0.02627712,0.04018762,-0.022815254,-0.00083987135,-0.07394458,0.028327689,-0.007073701,-0.048136875,0.005874944,0.018309996,-0.049815238,-0.066045426,0.05160092,0.040470507,0.0059520784,-0.039481293,-0.0581585,0.0059152963,-0.040212367,0.012698074,-0.016735692,0.054540485,-0.002969741,-0.041168366,-0.047736112,0.00046630503,0.042035624,-0.025509816,0.0027980825,-0.010298405,-0.019669835,0.03694638,0.020378487,-0.042156346,-0.028868394,-0.05936273,-0.060272,-0.06666549,0.028185809,0.028509652,0.014952485,0.0006354039,0.052916482,-0.009819831,-0.031234749,0.008270322,0.04510075,-0.047301505,0.046750266,0.035668172,0.002305662,0.0044360803,0.0561726,-0.044082746,0.0508191,-0.06087401,-0.0043406975,-0.031441655,-0.07453339,0.02761072,-0.014321631,-0.03740104,-0.002916236,0.039200418,-0.035108544,-0.016122404,0.006495347,-0.004715241,-0.06797635,0.046101224,-0.012805047,-0.020915447,-0.034009937,-0.06106294,-0.03668804,-0.019642765,-0.033438116,0.04194199,-0.057056513,-0.05244738,-0.025750913,0.04549584,-0.030317245,-0.057693064,-0.05529169,0.002323435,-0.006739617,0.028958268,-0.057946406,0.028454687,-0.013554755,-0.04840307,-0.05708282,0.044363614,-0.039554384,-0.03874544,-0.005024994,-0.01699708,0.010592174,0.0063603753,-0.0058091753,-0.03242325,-0.046613093,-0.040993776,-0.019620799,-0.050225932,-0.052925367,0.0037422907,-0.052236784,-0.0016810286,-0.028112257,0.003021347,-0.046512827,-0.045829147,0.03408754,-0.041139014,-0.0009859531,0.0125354165,0.026527073,0.023181424,-0.029560545,0.056946475,-0.0155021325,-0.04131086,-0.012298256,-0.0147439195,-0.024084626,0.028793715,0.027012907,-0.0566807,-0.03900841,0.035364084,-0.024099914,-0.067780145,-0.028593205,0.014143278,0.010631791,-0.019857883,-0.056457955,-0.035639696,-0.053444967,-0.007907122,0.030412,-0.008564166,0.035376787,0.008624115,0.017908504,0.008946323,-0.04693572,-0.034568757,-0.031897247,0.008715166,0.0064010215,-0.0018828629,-0.03279358,0.0017783139,-0.004478035,-0.044726707,0.04117685,0.0046956805,-0.019751804,-0.04626152,-0.018230407,0.0188904,-0.045788184,-0.022677807,0.013880849,-0.009464805,-0.008592116,-0.030725421,0.014555775,-0.060968474,-0.029487018,0.03262967,-0.062888496,0.0008612007,-0.053316217,-0.03488459,0.023710564,0.03589773,-0.06538125,0.041125655,0.02206438,0.022564266,-0.05801784,-0.014872961,-0.054951463,-0.012370705,0.015450795,-0.03883145,0.047824923,-0.06619601,0.04174117,-0.052578423,-0.02078323,-0.04620552,-0.0031523774,0.010526217,-0.045343224,-0.02502893,-0.05122662,-0.06426277,-0.005366841,-0.05127444,0.018533427,-1.464638e-06,-0.0336865,0.04338842,-0.044121068,0.032637734,0.018736916,-0.038539637,0.054493777,0.005519138,-0.038709454,0.03295642,0.0069849985,-0.032733735,-0.06282103,0.022962958,-0.037139356,0.0022184094,-0.05305425,-0.045970216,-0.025743848,0.017208265,-0.0073248055,-0.017708445,-0.06189522,-0.04787551,0.02082971,-0.008507369,-0.04005016,-0.044680417,-0.0075137913,-0.007238326,-0.034386434,-0.0042441622,-0.026218874,-0.026623229,-0.04459272,-0.026057877,0.008695247,-0.0063229073,-0.00011387827,0.03424012,0.011174982,0.0048833694,0.043156646,0.25747445,0.56099796,0.11637384,-0.27888095,0.08651303,0.22342785,-0.07337089,0.19559614,-0.38352156,-0.55943006,-0.2554656,-0.032183893,-0.085557535,0.035844535,-0.06843019,-0.3661938,-0.19012871,0.021623276,-0.23090929,-0.1816382,0.40994862,0.17053762,-0.30507776,0.12355289,0.34071228,-0.17396067,-0.62829083,-0.24177434,-0.26903936,-0.20106803,0.37020513,-0.46640795,-0.8423267,-0.12236023,0.19381796,-0.22546026,-0.13230488,-0.36679125,-0.07234962,-0.20372984,0.0920137,0.43964553,0.590526,-0.0748059,-0.054971103,0.0019366388,0.18357919,-0.2576957,-0.098180994,0.29163635,-0.213996,-0.35722193,-0.45616058,-0.28304017,0.082102746,0.34911865,-0.037734065,0.28788015,-0.18332814,0.31826037,0.075200714,0.48959664,-0.44402006,-0.6376674,-0.050967153,-0.4550034,-0.24807172,-0.09237977,0.12426272,-0.38133183,0.35599592,0.06381602,-0.15895548,0.15609583,0.7344412,0.11579367,-0.46935636,0.6207269,-0.43199536,-0.15449694,-0.22517371,0.39325652,-0.24280997,-0.26186875,0.19826402,0.31904364,0.075427376,-0.13790248,0.078125685,0.47636735,0.11670347,-0.06023244,0.06597905,-0.18080507,0.8630686,0.15479958,0.19119243,0.12458549,0.6851604,-0.30489215,0.23056157,0.13778445,0.14038213,-0.00025745228,0.12900892,-0.22712983,-0.030920254,-0.5752072,0.14580792,-0.58659554,-0.15740962,0.08413655,0.4067653,0.48144472,-0.34818587,0.28137657,0.12154797,0.6270275,-0.12729022,0.13998519,0.36711934,-0.15493624,-0.41108146,0.11837701,0.012591813,-0.13377687,0.39403418,0.50075555,-0.101413935,-1.0271536,0.35328406,-0.022248695,-0.1866036,-0.8352337,-0.28696215,0.2588067,-0.110617235,-0.26622295,-0.45873418,-0.68786234,0.07484565,0.10727853,-0.24513698,-0.5553943,-0.09168687,-0.0054858695,-0.11267198,-0.13370629,0.22266032,-0.08436714,0.07167025,0.2487208,-0.07762036,0.15814063,0.33656883,0.27264857,0.59046495,0.04869218,-0.63199675,-0.25951788,-0.25340238,0.266245,-0.18009,-0.20310436,0.253217,0.5292509,-0.071660735,-0.3039755,0.09039152,-0.0259085,0.122618005,0.036881533,0.022058418,-0.12552182,-0.4279568,-0.02298884,-0.14090684,0.17417969,0.26217455,0.36978045,0.10200819,-0.76123494,-0.09623306,-0.10479642,0.09053263,-0.22258286,0.06018111,0.4278907,0.03261793,-0.09724682,0.16978095,0.40209806,0.23358844,0.13454393,-0.035281483,0.27373472,-0.06389547,0.12269844,0.091762684,0.38003305,-0.2151316,-0.24905397,-0.0018140015,-0.053319927,-0.2137868,-0.44754663,0.7883681,0.5501054,0.40406582,0.05870738,0.47138333,-0.010874681,0.30882257,0.33305508,0.08548302,-0.31535143,0.06512599,0.010496031,0.06640452,0.19868477,-0.1269635,-0.12185247,-0.5229111,-0.32796457,-0.44523183,-0.31051746,0.42044136,-0.28064853,-0.1373671,-0.27076387,0.57114226,-0.26355818,0.59266925,0.10274641,0.11807022,0.2633736,0.16198787,-0.110241614,0.05266408,0.26147947,-0.37587157,-1.1968338,-0.42946258,0.4195167,-0.523374,-0.8205758,0.1233227,0.20361923,0.4030643,0.3250007,-0.3174804,-0.23759751,-0.06787387,-0.17993185,0.11864985,0.2647489,0.2864921,-0.4403346,-0.009247296,0.33252442,-0.043029785,0.0368609,-0.13598539,-0.12249222,0.12686262,-0.7173403,-0.41046238,-0.13780263,-1.0669216,0.03743722,-0.05700282,-0.115315676,-0.2849665,-0.1744028,0.08938424,0.16724223,0.16757447,0.21275575,0.22135326,0.07206994,0.6015567,1.2457495,0.1187139,-0.015068688,0.19855945,-0.04583668,-0.09689331,-0.43976828,-0.3199459,-0.056819998,-0.29782873,-0.23227343,-0.03338534,-0.11046863,-0.5615025,0.56022775,-0.117062755,0.45835066,-0.13031714,0.7932425,0.8779639,1.0737225,0.36509013,-0.38730288,-0.23288946,0.50344044,-0.07440705,-0.25675163,0.25014454,-0.15423909,0.12286343,-0.6073061,-1.051452,0.07010274,-0.32677224,0.19506453,0.3797532,0.44494194,-0.018774962,-0.14221285,-0.1852162,-0.21726473,0.13593261,-0.12676077,-0.30843875,-0.14333779,-0.31719863,-0.20105629,-0.2870974,0.02531185,-0.044566393,-0.5617732,0.12010676,0.6704645,0.10207751,-0.19896393,0.50728583,-0.0038260343,0.015211162,-0.035810523,-0.1310679,0.2866907,0.085333936,-0.23735015,0.3421101,0.24138324,-0.1085582,0.10260469,0.07657758,-0.009313483,0.07450953,-0.0030112285,-0.6405749,-0.13902959,-0.19983232,-0.33757234,-0.11053129,0.08784586,-0.21132693,-0.0013629628,0.39558935,-0.5591111,0.121029854,-0.1267889,0.04257949,-0.78683263,-0.0792316,-0.102255285,0.112626806,-0.14624617,0.024031065,0.036463678,0.12303049,0.18809807,-0.078135066,-0.23522656,0.17665124,0.29909903,0.3412963,-0.0005234353,-0.029020352,0.13781469,-0.4682149,-0.3778244,-0.051005904,0.16999403,-0.12769991,0.08807105,0.10968673,0.062860616,0.44501683,-0.17624645,-0.09391825,-0.5265338,-0.12763077,-0.0022099388,-0.18830907,-0.3975045,0.4151741,0.3039915,0.16886973,-0.13684046,-0.2611726,0.047501415,-0.032686748,0.19306761,-0.048656177,0.1723407,0.25153542,0.7089422,-0.17672203,0.22948124,0.20635149,-0.18348259,0.53064704,0.33595374,0.34058228,0.34054205,-0.055694543,-0.22456549,0.11093857,0.058808558,0.1705096,-0.0919506,0.15657896,0.3453755,-0.32972017,-0.17527416,0.23864517,0.18151596,0.3892389,0.3447578,0.2670872,-0.28731006,0.32727513,0.16061638,0.026308546,-0.3326135,0.031945694,0.012377217,-0.9384954,-1.2557958,-0.42777804,-0.40741974,0.1894497,0.8573521,-0.5134587,-0.08804047,0.22368854,0.25477326,-0.106678486,0.58280575,0.06372767,0.59693575,-0.20440741,-0.1757339,-0.24028228,0.3943668,0.01951395,0.22100271,0.03898116,-0.4741351,-0.15708555,0.17503382,-0.036082853,-0.61299086,-0.4701948,-0.045454293,-0.42451188,-0.58146954,-0.19119924,-0.23901768,-0.35003927,-0.544763,-0.26118913,-0.70317525,-0.21557367,-0.8502852,-0.18110128,0.21755601,0.03165397,0.06298565,-0.23869033,-0.30689886,-0.382553,-0.18191537,-0.07379459,0.03598894,0.48427713,-0.04644067,0.41845256,0.23613416,0.05023028,0.516841,-0.18247636,-0.15257715,-0.12838984,-0.26123738,-0.6342478,-0.15779132,0.15035434,-0.07327895,-0.12984617,0.044762116,-1.2755061,-0.66196704,0.13243023,0.011993939,-0.39609975,-0.061396603,-0.30572113,-0.5595984,-0.73767424,-0.5968591,-0.068125024,0.16177419,0.52129847,0.055653583,-0.59763205,-0.35637262,-0.056957368,-0.60557204,0.43116456,0.22893026,-0.090924986,0.14059944,0.52315843,0.7516054,0.5103753,-0.04955615,0.22903429,-0.07784004,-0.10188572,0.3410974,0.18213798,0.48023054,0.11996023,0.07609012,0.3132969,0.06695368,-0.120327815,0.20605895,0.3642573,0.31690598,0.07447339,0.17264742,-0.13936871,0.16917448,-0.3165844,-0.5375318,-0.56354123,0.18117827,-0.03280347,0.061049283,0.35004637,0.10546986,0.5135479,-0.009775831,-0.42545992,-0.09618993,0.14703657,-0.020479815,-0.4228835,0.43896917,0.03968743,0.570719,-0.11735642,0.028647916,-0.12371727,0.055546768,0.18115184,0.15208565,-0.03494624,0.31537288,0.20328963,0.07052393,-0.05896503,0.15370458,0.23064762,0.30737948,-0.26775005,0.10786184,-0.39279208,-0.68305594,0.19944577,-0.083362594,0.06918644,-0.9309783,-0.47799742,-0.36347803,0.025465641,0.46069315,-0.14230831,-0.34471336,-0.0102224015,0.06267291,0.22516912,0.20436992,0.010509452,-0.059735637,0.07508977,0.018366622,-0.030817289,-0.019487735,-0.09262417,0.06854778,-0.7997897,-0.428487,-0.6975454,-0.32632592,-0.56838936,-0.24182081,-0.10243539,-0.44823954,-0.30054146,-0.033038944,-0.05020057,-0.19845097,-0.5434463,-1.0940638,-0.37841094,-0.45297384,0.7029306,0.44440913,0.14882725,0.08325411,-0.21621089,-0.23811077,-0.0743444,0.32990944,0.24596955,0.54025805,0.34349403,0.01482845,0.25636786,-0.27761644,0.039722923,-0.5671209,-1.0728552,-0.34329382,0.55040264,0.34865603,0.78991485,-0.011092087,0.016940137,-0.29564556,-0.061914034,-0.57239205,-0.28623676,-0.28886288,0.27373374,0.5605184,0.08833942,0.42586538,-0.32710606,-0.20616643,0.5424678,0.3559849,0.23136362,0.12918028,0.18488663,-0.17002214,-0.4902478,0.29463598,-0.2776502,0.37886187,-0.519117,-0.57096744,-0.0039515416,0.11019762,0.16458815,-0.12263485,-0.3183767,-0.3076192,0.3400182,-0.052168753,0.45873126,0.1760221,-0.10985366,0.33656204,-0.15135773,-0.00020473894,0.03727278,-0.090194836,0.17412429,-0.04438475,-0.14714475,-0.018367102,0.048780404,-0.05303674,0.4908712,0.6538275,0.31199735,0.20614964,0.012497011,0.41451105,-0.49072918,0.06523113,0.60561925,-0.046758607,-0.26321456,-0.07125965,0.12209207,-0.24928598,0.2755918,0.3166101,0.02059694,0.23419914,0.002720633,0.48666576,0.76453835,0.13001046,0.15796846,-0.22343428,0.015531063,0.021241214,0.10264137,0.007611743,-0.2536797,-0.77722925,-0.5485958,-0.08863891,-0.8100588,-0.11022148,-0.12367348,0.04723321,0.33512512,0.10209569,-0.4242101,-0.11885375,-0.6421073,-0.15294975,-0.80159944,-0.40048766,0.10295241,0.1681718,-0.32945916,0.2771845,-0.25666243,0.17188029,0.307101,0.27296084,-0.07376678,0.21735035,0.26384866,0.092726976,-0.18120475,-0.38349876,-0.52550447,-0.14354612,-0.69669,-0.34905136,-0.049082093,0.1486452,-0.43999663,-0.43135327,0.23453932,-0.28587258,-0.17129405,-0.6613213,-0.26597226,-0.44985005,-0.12803361,-0.06996755,-0.14030062,0.18566392,-0.5967673,-0.22715472,0.22596222,-0.010667799,0.59221226,0.09196923,-0.25851607,-0.211626,-0.2273949,-0.47263142,0.12176853,-0.1077041,-0.14857699,0.37478384,0.1922496,0.38622707,0.27338836,0.27773434,0.021701273,-0.16299535,0.102732986,-0.12296084,-0.008213447,-0.13843325,0.31651527,-0.33685094,-0.34909132,-0.66379243,-0.18185689,-0.3513734,0.35041213,0.31892177,-0.7962885,-0.76260203,0.20162408,0.34394825,-0.9310771,0.1334851,0.19989857,-0.09996691,-0.34657538,-0.20940854,-0.12194496,-0.2820384,-0.01942874,0.06263779,-0.5153583,-0.7473286,-0.49746373,-0.3653298,-0.0008573756,-0.32417184,0.08561015,0.3779059,-0.17153767,0.60516673,-0.7167074,0.7417588,0.315995,0.4124959,0.04611513,0.07091116,0.02423333,-0.39314705,-0.07311953,0.1375579,0.3540597,0.25272048,0.13837166,0.45930538,0.27558294,-0.1211522,0.054523148,-0.15513128,0.044536754,0.14988993,0.26930466,0.07567768,-0.21584909,-0.9561452,-0.07910729,-0.052952264,-0.17077671,0.015874524,-0.13628419,-0.15737084,-0.051451918,-0.3575065,0.2611007,0.24979043,-0.7969486,0.04429594,-0.12969159,0.21080188,0.15703629,0.4312712,-1.0231546,-0.61843216,0.3898524,-0.17859425,0.33074832,-0.11148447,0.079550326,-0.29344916,0.19413683,0.5668013,0.11971896,-1.4147025,0.33865526,-0.69435436,-1.009145,-0.20105341,0.13423806,0.26509404,0.3624305,-0.47551087,-0.37796167,0.01834502,0.4648642,0.32643884,0.1039859,0.3041602,-0.14490567,-0.7707474,0.32346112,-0.23196071,-0.10178773,-0.15337808,-0.11571125,-0.5068054,-1.1562804,-0.7569252,0.22260728,-0.25050816,-0.14879417,0.07813305,0.1448107,-0.14364259,0.20613952,0.08970425,-0.006726168,0.2208927,0.21562769,0.3513372,-0.028973712,-0.19948545,-0.042968355,0.39096132,0.042338192,0.6068545,0.018324647,-0.56614655,0.10218091,0.17835389,-1.0256073,-0.20702673,0.04592047,-0.5833439,-0.27897918,-0.46875298,-0.107884414,-0.21558791,-0.052313957,0.22498731,-0.21656138,0.082386956,-0.050932083,-0.082849056,-0.017712306,-0.23085667,-0.85103744,-0.7017495,0.21520165,0.18592983,-0.28721997,-0.40875685,-0.5324069,-0.42655724,-0.32422718,-0.12208468,-0.49384102,0.33519235,0.11208459,0.6163747,-0.050331164,0.20656706,0.44739047,0.21751721,0.44786936,0.28861845,-0.2439167,-0.36310297,0.3302109,-0.24568145,-0.14484528,-1.535306,-0.3719515,-0.741752,0.03769846,-0.64096427,0.05983915,-0.2799407,0.70636594,-0.23147118,0.34587532,0.6378194,0.20347242,0.5996861,-0.5100757,-0.33537945,0.02076728,0.45034066,-0.09698267,-0.23197438,-0.1278103,0.2991626,0.16100146,0.11106516,0.26421535,0.13352138,-0.116240084,-0.3550229,-0.35532248,-0.02247259,-0.5733418,-0.96742,-0.13268259,0.23344406,0.08803815,-0.1171508,-0.29894936,-0.45277116,0.12628728,-0.1089791,-0.37709343,-0.30452713,0.35733736,-0.68392044,-0.83118874,-0.89689535,-0.39454803,0.2086207,-0.41814527,-0.1607123,-0.13316457,0.33419994,-0.6930503,0.46926448,0.16612515,0.37872824,-0.01116695,0.61709166,-0.23539536,-0.08594668,-0.26225883,-0.09017287,-0.14317752,-0.05117409,0.0010213563,-0.113335446,0.38939908,0.13898312,-0.0881186,-0.28570032,0.23248354,0.37546468,0.22867154,-0.23493797,0.020438246,-0.30227014,0.12850457,-0.2904418,-0.039764367,-0.007509965,-0.39250624,0.43835416,-0.8085905,-0.8054733,-0.014165397,0.58538264,-0.4196713,-0.49051934,0.030445812,-0.2639374,0.19902855,0.023394734,-0.22441421,-0.73126954,-1.1881876,-0.33721098,0.4043004,-0.019328129,0.1544854,-0.014670239,0.049697045,0.27009156,-0.63719946,-0.37612638,0.026237195,-0.026202254,-0.024078626,-0.13093917,-0.07203953,0.06718488,0.21811871,0.420517,0.35550806,-0.017641742,-0.25974658,-0.61090124,0.08204108,-0.32211304,0.40814996,0.11104084,-0.22937186,-0.4476118,-0.6051777,0.30623433,0.3436995,0.030415608,0.22338808,-1.149246,-0.17666496,0.20989272,-0.9688164,-1.5211836,-0.72875804,-0.33947322,0.25678265,0.0434536,0.12244369,0.41639224,0.26359746,0.484752,0.30514577,0.1729135,-0.9986321,-0.3624286,-0.07327761,0.50756186,-1.1684524,-0.920398,-0.42862937,0.1423262,-0.0076069017,-0.47943142,0.26824072,0.012406087,0.11099188,0.091600716,-0.096260175,0.2039985,-0.539677,-0.24056962,-0.48792544,0.01810588,-0.28171209,-0.16595899,-0.24027571,0.08330044,0.4629959,0.26654723,-0.08834074,0.019493647,-0.13983536,0.13875344,0.014206828,0.37247434,-0.15752241,-0.14224324,-0.16440602,0.32275242,-0.9111749,-0.11474998,0.19446415,0.51297367,-0.6862448,-0.3803913,0.20677125,0.022321435,-0.057349328,-0.26171753,-0.3118789,-0.41934088,0.50498194,0.014881659,0.52801394,-0.036724694,0.85266435,0.13064156,0.16728497,-0.31157875,0.3300112,0.11692248,-0.54302806,0.064833485,-0.10065522,-0.09325829,0.2528401,-0.09136394,-1.6287131,0.060286008,-0.0621492,0.08501011,-1.3118442,-0.4861234,0.0693396,0.17465083,-0.14768422,-0.5697515,0.4200541,-0.042926356,0.07631475,0.052271146,-0.25714427,0.2082412,-1.6096989,-0.31883353,0.006977431,-0.22007181,-0.888679,-0.72109216,0.5315678,0.052529182,-0.14460568,-0.17999,0.16613014,0.21570209,0.57402074,0.0017352642,0.34897587,0.41130432,-0.49702373,-0.46068275,-0.56327796,-0.32803255,-0.002187888,-0.09316602,-0.4970789,-0.58646923,0.10131716,0.26038176,-0.21136951,0.22195013,-0.02538335,0.023828132,-0.08105828,-0.009040958,0.29873252,0.2783836,0.47006553,0.5197484,0.026941119,-0.35981712,0.32146466,0.049276613,-0.05978916,0.1941488,-0.16372414,-0.16822249,-0.117193215,-0.20329054,-0.6342776,-0.19132574,1.0899286,0.21975528,0.20789097,0.22762272,0.29703936,-0.10182728,0.07575072,-0.15653814,0.35657072,0.113675475,-0.34767318,-0.21814865,0.067800336,0.025481604,0.64461815,0.8747227,-0.33807752,-0.19470534,-0.10155926,0.10904639,-0.12357709,-0.2823338,0.45497528,0.28451276,0.17511657,0.24015902,0.19945472,0.17677176,0.17808513,-0.06769289,0.08998526,0.04081207,0.49062982,0.30876076,0.01678217,-0.4801071,-0.11297213,-0.18061677,-0.15697291,-0.40981874,-0.0335557,0.21204609,-0.4835998,0.59857094,0.06203786,0.91823053,-0.18458188,0.32450593,0.49899206,-0.13392775,-0.20326492,0.16340236,0.05734783,-0.06617065,0.08449199,-0.15631653,-0.5648124,-0.27710703,-0.881878,-0.22793369,-0.33734643,-0.40499833,0.50686413,0.13430704,0.45145386,-0.25713107,0.06957129,-0.49145237,0.56673205,-0.48258027,-0.03763744,0.071713,-1.0143056,0.2360559,0.2570636,0.16691631,0.12064549,-0.2661113,-0.1610681,-0.86120075,-0.123155065,-0.48923257,-0.09020761,-0.037904017,0.12825227,-0.07655834,-0.22463441,-0.59208566,0.20525321,-0.25204307,0.174597,0.20871721,0.4630761,-0.30729198,0.53471625,-0.05663272,-0.13667747,0.28214213,0.07229706,-0.64280564,-0.085692905,0.032970868,0.16910319,-0.1516221,-0.4134677,-0.4745598,-0.37189105,-0.10116747,0.1966772,-0.37731797,0.15966578,0.11041894,-0.36103898,0.03210585,0.11762821,-0.6614801,-0.08973371,0.043791834,0.32185814,-0.2788764,-0.4828502,-0.8424366,0.04887511,0.29446125,-0.19130768,-0.3117401,-0.31772655,0.049320463,0.17094263,0.08613678,0.14880961,-0.009077888,0.217411,0.35467678,0.08652207,-0.003582384,0.17383868,-0.06251582,-0.03678873,-0.26276556,-0.42634192,0.10122327,-0.2970332,-0.34847623,-0.069442905,0.075967334,-0.5355286,-0.35560408,-0.3392838,0.012791368,-0.06635279,-0.0857278,-0.11545667,-0.15042394,-0.007957662,0.6432428,-0.19799472,0.019242067,-0.56703997,0.3898745,0.45554128,0.79456127,0.008680541,-0.30744427,0.38537374,0.29898068,0.33587685,-0.047381256,0.41244256,0.30131707,0.17148991,0.0529936,-0.22390269,-0.495684,-0.29105398,-0.6380437,-0.5779687,0.016378362,-0.25278768,0.42082086,-0.36185408,-1.8980031,-0.80848426,0.2819809,-0.76587117,0.40634218,-1.0694395,0.08366662,0.3099266,-0.25307986,0.23596029,-0.12647012,-0.4029702,-0.4525966,-0.3717242,-0.30772,0.17359135,0.18338853,0.08080126,-0.23912202,-0.51151377,-0.26877305,-0.06523144,-0.07388665,0.23200479,0.23956172,-0.18057878,-0.22921759,0.23905699,0.12880202,0.28916797,0.21024168,0.147024,0.1739253,0.04787049,-0.17449255,0.05991873,-0.037428025,-0.1697806,-0.1935216,-0.43446508,0.0982271,0.039526936,0.22473107,0.67767495,0.2616278,0.35469085,0.15593053,-0.26097915,0.28395098,0.18438908,-0.34952244,-0.2963041,-0.28957814,0.32516238,0.10508902,-0.83400863,-0.11743532,0.072473586,0.101946935,-0.053788442,-0.5847302,-0.60193104,-0.20586827,0.1664664,-0.09557593,-0.07461557,0.34273553,-0.754195,0.0789944,-0.038512543,0.06844567,-0.50200754,0.11900426,0.014841561,0.31286895,0.2186573,0.7219114,0.05602703,0.18851528,0.14325659,-0.41512692,0.08200653,0.6302119,-0.4774325,-0.13501401,-0.77830136,0.4867503,-0.21709463,0.10178597,-0.74129105,0.058592632,-0.22314444,0.14084737,0.12863731,-0.050695337,0.39097822,0.50382733,-0.14776595,0.27985126,0.11766435,-0.11239147,-0.5349026,-0.0067362394,-0.22217916,0.2891085,-0.4820198,-0.18860592,-0.027633144,0.23556879,0.109304346,0.06273575,-0.12661,-0.24716401,-0.08959625,0.040833775,-0.28470558,-0.16384673,0.11068222,0.26409316,-0.43812382,0.4559512,0.19375077,0.23825303,-0.021708786,-0.05855823,-0.04705081,-0.07626699,0.03091704,-0.07272412,-0.055196177,0.010273295,-0.08663444,-0.054688018,-0.023941847,-0.070132755,0.013867225,0.037868734,-0.057760924,-0.009997986,0.049928956,0.026336601,-0.06810556,-0.061278485,-0.04929662,-0.035379916,-0.049141854,-0.0263005,-0.061582197,0.029839035,-0.009298439,-0.026203902,-0.014486498,-0.08902343,-0.086206004,0.01835348,0.0017510655,-0.0787722,-0.03262585,-0.02559755,-0.034764204,0.012882528,-0.057415247,-0.023236731,-0.035813946,-0.052787725,0.035642065,-0.051150154,0.018715588,0.016697465,-0.062183373,-0.08747472,-0.05369941,-0.05008859,-0.058589675,-0.025922239,-0.010358327,-0.030604303,-0.0075381002,0.019891549,-0.018867873,-0.041172843,0.014437109,-0.09224571,0.023442008,0.020471264,-0.053704374,0.03488091,-0.01311392,0.04708268,-0.007425886,-0.06367181,-0.04059296,0.014672321,-0.05709556,-0.015679928,-0.0035300797,-0.023049105,-0.064429216,-0.032069415,-0.04031081,-0.010033981,0.013910544,0.022159604,0.0029478834,0.053051513,-0.049320366,-0.09636121,-0.04698992,0.011412185,-0.007874013,-0.0033411693,0.021454975,-0.08093523,-0.056084547,-0.039193284,0.009179852,-0.037936337,-0.08071092,0.014767571,-0.04439757,-0.050620027,-0.044294104,0.018187577,-0.013627795,0.049629208,-0.043741047,0.022452435,-0.08492288,0.0072665103,-0.054079153,0.028022295,0.035889305,0.0374052,-0.023700632,0.0072421767,-0.049056146,-0.044653937,0.00956489,-0.06697014,-0.06774303,-0.03374011,0.001496166,0.015117394,-0.02553532,-0.04920592,-0.058867518,0.056364276,-0.038541462,0.022302028,-0.08036386,-0.046937533,-0.00645618,-0.089366235,0.04712582,-0.07246161,-0.06805042,0.01791596,-0.059382804,-0.0699541,0.023180969,-0.0032600646,-0.0897827,0.009862609,-0.077437125,0.00356364,-0.052138492,-0.021209449,-0.069152035,-0.0880388,-0.026351463,-0.06543267,-0.041132085,-0.01320422,-0.04042772,0.026953926,-0.044529013,0.015435591,0.024751728,-0.058292016,-0.046915624,-0.03439161,0.0030324373,0.0045598564,-0.014084326,-0.050897162,-0.023446152,0.03178357,-0.029684553,-0.08034626,-0.014547544,-0.014788204,-0.038842794,-0.059435472,-0.05366435,-0.014479937,-0.03513112,-0.0698516,-0.050975353,-0.036595795,-0.06627184,-0.03260516,0.01584733,0.004947512,0.026594264,-0.07656526,-0.067666925,0.0020864536,-0.061878487,0.047027085,-0.048251487,0.0013563259,-0.016455231,0.017074836,-0.0963181,-0.097618274,0.007702172,-0.05957508,-0.066915914,-0.06657581,-0.0194697,-0.020885022,-0.008908124,-0.04834459,0.039741483,-0.0544603,-0.063554086,-0.067312576,-0.02694989,-0.016270626,-0.02107469,0.0070795924,0.0020339412,-0.02803419,0.015550951,-0.010342047,0.03802995,-0.020390444,-0.0035441134,-0.04472746,0.023234079,0.0046470053,-0.032288525,-0.021787146,-0.051364716,-0.052921236,0.046145067,-0.01261339,-0.07652524,-0.09999095,-0.04937873,-0.057573296,-0.08716988,0.01861705,-0.08400546,0.013612993,-0.037750922,-0.0715971,-0.06321145,0.026091758,0.019699953,0.040375344,-0.0066306484,-0.09375825,0.027029341,-0.07551592,-0.02656966,0.022499017,0.03348052,-0.01381779,-0.09615844,0.04114616,0.013272591,-0.09561619,0.028548116,0.03303144,-0.05119407,-0.044848952,-0.06324152,-0.04461138,-0.46674773,-0.41234323,0.15885088,-0.013683895,0.24102889,0.5242398,-0.14793535,0.12966259,0.1700726,-0.44762653,-0.3306188,0.0252201,0.21253273,0.12938234,0.23688792,-0.75761193,-0.5917068,-0.16038494,0.28326496,-0.058021516,-0.07664786,-0.86701894,-0.74351484,-0.22241221,0.0036752822,-0.14092167,-0.826979,-0.30640665,0.081920266,-0.09285305,0.02128511,0.09485698,-0.045459345,-0.20109312,-0.3742226,0.16791867,-0.47378087,0.3451828,0.5192518,-0.27278775,0.29893282,-0.24395797,-0.023283672,-0.86849374,0.86847264,0.24566774,-0.2053173,0.6132619,0.3895631,0.021724727,0.1424168,0.5108079,-0.2742711,-0.6766839,0.025829615,0.07200887,-0.23108754,-0.05241763,0.3013554,-0.11339298,0.5794789,-0.44577467,-0.37541008,0.15346158,-0.10084902,-0.689576,-0.9555126,-0.38635916,0.09157194,0.520153,0.21653299,-0.4322062,-0.17789108,0.5916951,-0.19035642,-0.54432404,0.24950585,-0.11546706,0.48938537,0.14624244,-0.81123483,-0.78396386,-0.71219075,-0.42117232,-0.7858838,0.3367816,-0.07815825,0.009545869,0.008232106,0.33974656,0.09153126,0.90409154,0.04907796,-0.026512835,-0.28923273,0.15262741,-0.6921116,-0.40740648,0.026565453,0.045969374,0.38892227,0.3658476,0.42569715,-0.42945868,-0.07275656,0.13255003,-0.08409388,-0.15756565,-0.29890805,-0.19805966,-0.13216376,-0.7210294,0.2465831,0.21695979,-0.23362409,-0.5952594,-0.8824328,-0.1691526,0.056734458,0.111711614,0.08584465,-0.17528501,0.30657488,0.458335,-0.04110639,-0.12330886,-0.42774767,-0.3887918,0.36709672,-0.057193723,0.09635862,0.018697983,0.1638413,0.12707913,0.34223837,-0.0805337,-0.9522763,-0.1966451,-0.3406878,0.3762174,-0.1561285,0.48051468,-0.017005272,0.30902234,-1.3980507,-0.25077266,-0.16524343,0.6656244,0.3649998,0.35563722,-0.21713161,-0.21870224,0.37017626,0.4026442,0.19820929,-0.17632173,-0.5080003,-0.079178415,-0.08950286,0.65639347,-0.49332908,-0.30800483,-0.37262186,0.27757245,-0.20978847,-0.045957986,-0.2768152,-0.015290793,0.49874717,0.29705334,0.55544627,0.29800916,0.029208591,-0.00028321336,-0.23372994,-0.19046104,-0.15882017,-0.12798649,0.19399403,-0.016120648,-0.22446072,0.01739178,-0.15693013,-0.2710213,-0.22589792,0.08068822,-0.025409836,-0.5021599,0.24268009,0.09092811,-0.24497192,0.27426913,0.65731126,0.107649036,0.062320586,-0.20546833,0.2625539,0.16123894,0.53097427,-0.06575365,-0.020639377,-0.16490375,-0.9499838,0.20585431,-0.33474922,-0.6789791,-0.1459501,0.18734863,-0.8276301,0.2457976,0.5853148,0.06441811,0.08099588,0.07568717,0.03965871,-0.22917865,0.020352377,-0.15220061,-0.20945413,0.6050317,-0.21464014,-0.18860507,0.12452549,0.13895905,-0.15435289,-0.24617158,-0.06352286,-0.20328099,-0.0659359,-0.5347272,0.28456074,-0.15914673,0.42385274,0.419695,-0.057618298,0.17236541,-0.6922506,0.011270807,-0.4126659,-0.2035175,0.011855757,-0.18422952,-0.032228883,0.03519395,-0.09181648,-0.038295932,-0.18449248,-0.02183344,0.035179026,0.1908701,-0.28878072,-0.282317,-0.06087227,-0.1914031,0.81588143,0.084899634,0.16264668,-0.021280946,0.34758633,0.25806415,-0.22389598,0.17272893,-0.09159902,0.30717364,-0.09743718,-0.13524584,-0.6009515,-0.23035008,-0.09859084,-0.0449208,-0.16178769,0.10250459,0.35247806,-0.33099455,-0.42005396,-0.55819595,0.2777957,-0.6907337,-0.07818566,-0.017837323,-0.1307358,0.21582875,0.5099984,0.34126312,-0.61301607,-0.5345329,-0.35294405,-0.23032098,0.32692835,-0.2773114,-0.38755652,-0.057082754,-0.10686502,0.066713855,-0.27751765,-0.6385295,-0.0412592,0.2846969,0.23621449,0.46585986,0.3603307,0.5543481,0.12964244,0.18314867,-0.4941905,-0.33973166,0.18461385,0.31109673,0.53930056,0.6604688,-0.4152127,-0.32249904,0.034910914,0.046798117,-0.27171552,-0.6095538,-0.04323355,-0.0059313714,-0.3547348,0.17845765,0.09930221,0.004199692,-0.15180165,-0.2577274,0.16792956,0.20917007,0.11542861,-0.26484552,-0.71653914,-0.054054685,0.56717837,0.16050474,0.42409965,0.202682,0.10078583,0.29370892,0.4377741,-0.29893792,0.27880186,0.33276755,0.36114028,0.11345119,0.23434916,-0.056329697,-0.21616362,0.19747707,0.16443303,-0.14890288,0.16691992,0.13796946,0.23544103,-0.17411962,0.26908344,0.14553136,0.018358264,0.562702,-0.19619994,0.11201873,0.20810886,-0.19218811,-0.2948471,-0.005024611,0.25918895,0.05671513,0.18457656,-0.13165525,-1.0708276,-0.43719542,-0.107420616,0.37215,0.33698443,0.08559068,-0.044109557,-0.0047700894,-0.22796951,0.5213271,0.387528,-0.00025998845,-0.17050377,0.17627023,0.0061901216,-0.079101086,-0.45422497,0.062767126,-0.3321724,-0.46465394,-0.24568567,0.24689737,-0.42584878,-0.604045,-0.57958865,-1.0628381,-1.1451615,0.28884917,-0.69488525,-0.37170103,-0.5371703,-0.2213929,0.17838556,0.52951205,-0.25401998,-0.99284256,-0.1648046,0.05955104,-0.22058447,-0.31695363,-0.12359799,0.10208104,-0.10847512,-0.03958097,0.122046776,-0.08532958,0.4512921,-0.1629373,-0.38854393,-0.3960752,0.61733705,0.13769487,0.38118628,0.2545417,-0.13524881,-0.36085862,0.38828975,0.5295379,0.0031113012,-0.10658065,-0.058617607,-0.20377138,0.26806432,0.20393834,-0.15104882,-0.6153863,-0.12045519,0.39498976,-0.08798618,0.15028663,0.23546213,0.09506178,-0.12456454,-0.22795485,-0.16005133,-0.2617328,0.06707622,-0.076669864,0.07103801,0.24057005,0.07530061,-0.020292602,-0.2826469,-0.47690442,-0.25287378,0.3459123,0.17980485,0.2231499,-0.78963244,-0.10800859,-0.23720786,-0.35750604,-0.33881152,-0.6984246,-0.37556282,0.09428249,0.48874235,-0.4003303,0.43818396,0.6195854,0.03952058,0.023313833,-0.44172573,0.20260692,-0.03702726,0.20261514,-0.7183177,0.13464428,0.20398313,-0.26146024,-0.08595756,-0.056476127,-0.55972433,0.010060485,-0.55287194,-0.11970173,-0.353546,-0.18856022,-0.12577811,-0.038525093,-0.42534488,0.09384002,0.4239398,0.34619632,-0.0065401727,0.27396232,-0.06290272,0.3218767,0.28353912,0.06986818,-0.2696612,0.13357641,-0.5238976,-0.34161347,0.2947019,0.20733914,-0.59978634,-1.216833,0.21299604,-0.20366201,0.2841957,-0.18007855,0.1131209,-0.4143648,0.32631052,0.317262,-0.0011310882,0.32120204,0.07787104,0.32930085,0.2692783,0.056996092,-0.9383393,0.0537688,-0.27578342,-0.15899873,-0.31710267,0.31295213,-0.17819211,0.11220302,-0.17858022,0.14162709,-0.5606862,0.019277234,0.3305217,0.08605105,-0.115903676,0.25119004,0.5523994,-0.54637957,-0.066043526,0.17914848,-0.09349283,0.009689906,-0.086277,-0.054075185,-0.15207148,0.089785226,0.0056149443,0.28787968,-0.07973192,-0.12903589,-0.16067682,-0.31177115,-0.06871694,-0.10076196,0.16382644,0.11197648,-0.0982838,0.032294385,-0.13684799,0.68645287,0.09052685,0.23846021,0.23241088,0.2707322,0.07020968,0.19124743,0.27082315,0.06740807,-0.31548062,-0.47938004,0.37987462,-0.311176,-0.05460856,0.30932313,0.07041376,0.13316992,0.08710637,-0.023172587,-0.078046545,0.09467401,0.030722799,-0.32291654,-0.049246613,-0.15174793,0.33232906,0.54167074,0.5216722,-0.024032228,-0.9006053,-0.711111,0.1710075,-0.122861266,-0.053685065,0.048253108,0.19049929,-0.7997266,0.054204173,0.040181506,-0.11712882,-0.15481243,0.3918216,-0.22552678,0.091437876,-0.06619228,0.23359607,0.008076555,-0.92273,-0.9865292,-0.2088001,-0.022839805,0.10701304,0.13585497,-0.24925268,0.119812876,-0.09964262,-0.048941553,-0.1251058,0.13540992,-0.23343611,-0.20815298,0.18188728,0.64126617,0.23044267,0.33257687,0.45445937,0.12277772,-0.097682886,-0.1195862,-0.7895331,-0.61393446,-0.61744094,-0.28912908,-0.13842195,-0.70980513,0.041588143,-0.47481224,-0.93289226,-0.10524416,-0.5929198,0.068825096,-0.067808695,0.74759245,0.06320731,-0.41549236,-0.27326688,-0.37160686,0.20867863,0.37519398,0.1561491,0.032492954,0.13536038,0.28839576,0.16471116,0.15158704,0.1919509,0.46510383,-0.19636565,0.16115423,-0.40345114,0.20186175,0.26129362,0.8445323,-0.011691483,-1.244866,0.15650955,0.22354147,-0.24929075,-0.7377946,0.05705198,-0.6675221,-0.052855022,0.32820123,-0.43706384,0.25148064,0.66390926,0.12311145,0.15257134,0.44628248,-0.2648072,-0.6951673,-0.1443484,-0.16917008,-0.6557818,-1.2600124,-0.5105924,-0.047031738,-0.6588545,-0.43042412,-0.47873256,0.11921033,0.29644814,0.32084328,0.026017124,-0.40104368,0.37494838,-1.4897654,-0.34125057,-0.16986957,-0.534769,-1.1619692,-1.3652626,-0.18176463,-0.53813195,-0.10877108,0.5400685,0.42954957,-0.2978291,0.7243177,0.041618302,-0.48579603,0.34667414,0.33362272,0.34457237,0.30239102,-0.16586785,0.09524144,-0.046160925,0.06633431,-0.20644982,0.46447554,0.20062238,-0.4404748,-0.10069096,0.5222953,0.46296924,0.15723212,0.3811873,0.62633514,0.38146114,-0.036072016,0.3445995,0.48369968,-0.4637629,-0.07741525,0.12745275,-0.21878514,0.078641854,0.20557582,-0.20892231,0.18259129,0.19451809,0.32660505,-0.46185198,-0.32504213,0.15981553,0.027561614,0.32409796,0.0073128515,-0.46358046,0.05150856,-0.3335978,0.07100363,-0.060295444,0.37384015,0.12488928,-0.4397895,-0.13731098,0.28957662,0.17871721,-0.112602025,0.23127826,0.029218635,0.3993779,0.53606874,-0.03596941,-0.47614738,0.7830801,0.014338958,-0.09715355,-0.20024027,-0.6460606,-0.17492302,-0.00244165,0.5644901,-0.07118491,0.04796421,0.036060065,0.09910656,0.46088058,-0.067396656,0.26788035,-0.33377483,-0.15242146,0.4942348,-0.30922565,-0.80882627,-0.18112472,-0.23487711,0.3880859,0.39205214,-0.20046915,-0.15479346,-0.10301531,-0.21696775,-0.62068707,0.016224666,-0.06922289,-0.5044381,0.0853225,0.5877273,0.42896247,-0.09911211,0.18535958,0.16424912,0.22992752,-0.06758107,-0.10608674,0.020600304,0.06768249,-0.43957084,0.37060392,0.3999499,0.07952108,-0.295276,-0.3810953,-0.5409766,0.103926085,-0.06481698,0.13638455,-0.084763795,0.03799054,-0.15319183,0.59542716,-0.84688735,0.027358418,-0.31867006,-0.5574521,0.16524985,-0.3588724,-0.3933787,0.3547576,-0.27847862,-0.19466154,0.13622794,0.24296702,0.13133349,-0.15615611,0.15736642,-0.22026868,0.27537638,0.28188232,-0.046589423,0.15829505,0.84171414,-0.134154,0.044308398,0.43829697,0.17832103,0.5273889,0.21071424,0.114828,0.13248631,-0.18987529,-0.30039418,0.021584675,-0.18216775,-0.6624035,-0.77695316,-0.33459052,-0.2065947,-0.19426262,-0.18638518,0.115044996,-0.107497305,-0.025392892,0.04351637,-0.5704532,0.17120016,0.37177083,0.08417179,-0.28977275,-0.22789477,-0.16758907,0.1655853,0.44789526,0.1886734,0.69245785,0.10141881,0.061991237,-0.69330215,0.27702162,0.6685896,-0.01553394,-0.19373643,0.053933203,-0.09220043,0.013556789,0.4543282,-0.19631846,-0.43306842,-0.3657006,-0.50717264,-0.54552865,0.2540649,-0.11719482,-0.12784712,-0.42376578,0.007500379,0.30322915,0.07764514,-0.10076448,0.06533776,-0.21606806,0.12540638,-0.19317266,0.15448794,-0.012161087,0.0072468845,-0.15143989,-0.06664925,-0.018198539,0.55841106,-0.5827273,-0.7598689,-0.08431712,-0.15501085,-0.7813838,-0.61785966,-0.058890622,0.4402393,-0.19366762,0.32546794,0.028237483,-0.24483292,0.3064326,0.19999014,-0.26133347,0.37805927,0.5677078,0.8852318,-0.1895991,-0.1029899,-0.028049268,-0.11236826,-0.03049966,0.07475372,-0.5319661,-0.6164716,-0.018429896,0.15356934,-0.14750467,0.13372445,0.3726624,-0.076652505,-0.05102303,0.31460047,-0.27335197,-0.03508119,0.20426314,-0.011838683,0.29118568,0.30182692,0.12909502,-0.2445754,0.338525,0.4377138,-0.2212004,-0.51510334,0.3086567,-0.57471013,-0.5004202,-0.23450796,0.12588294,-0.119375266,0.09402481,-0.21738625,-0.048774507,-0.08187038,-0.14785203,-0.23118469,0.06387582,-0.37022382,-0.2803423,-0.26183873,-0.14723535,0.8039056,0.054021876,-0.29288247,-0.64532465,-0.06908663,-0.46753275,0.28587157,-0.11771448,-0.30563912,0.16568181,0.5726183,0.5064155,0.24613236,0.17602335,0.10242223,0.23963933,0.014780678,0.49623156,0.08604389,-0.04002568,-0.19769952,-0.45379147,-0.018951025,-0.060721982,-0.4595838,-0.096598715,-0.14221908,0.09607323,-0.41064742,0.43341315,0.4585915,-0.42994678,-0.3678994,0.28206095,0.4781127,0.15878265,-0.17315139,0.24925323,-0.032667577,0.08900623,0.09588557,-0.20001225,-0.05692445,0.40660074,-0.0944687,-0.23436356,0.0592506,-0.08479374,0.47345948,-0.09856779,0.13114363,0.4333175,-0.3144771,-0.44181833,0.07245767,-0.093337394,-0.39025348,-0.12673377,-0.14895773,-0.08783503,-0.35006544,0.082202345,0.03313637,-0.80088544,-0.1377183,-0.054407626,0.1756359,-0.5522496,0.12060364,-0.037061524,-0.04789361,0.04425926,0.46346954,-0.20130962,-0.2509858,0.07944935,0.44226143,0.1908284,-0.46632406,0.41888082,0.41852087,-0.7754432,-0.60525846,0.27505946,-0.16475223,0.29876086,0.30687907,0.7605425,-0.37423208,-0.48694125,-0.053508148,0.0759968,0.055091348,-0.33942512,0.080196574,0.3876873,0.4558692,-0.4651078,-0.199942,-0.13291891,-0.37709105,-0.28184855,0.55380917,-0.0036647916,-0.5080073,-0.12363545,0.070065215,0.48211017,-0.0055744336,0.13119364,0.24250793,-0.56494606,0.10469221,0.021183591,0.5434987,-0.22973312,0.26981282,-0.26398715,-0.6568639,0.35084337,-0.031290703,0.2601413,0.31296876,0.45548472,0.22725675,-0.39070567,0.4430102,0.025056964,0.33834532,0.059906185,-0.41421893,0.060967542,0.03132661,-0.083842106,0.2382514,-0.18884206,0.31966123,0.0769579,-0.11197286,0.13782127,0.18855065,-0.42337093,0.022131272,-0.6275536,-0.6228072,-0.16632466,0.51885885,0.38556105,0.14979787,-0.2485237,0.14715825,0.20010443,-0.1571874,0.34348676,0.117431566,0.011671013,-0.20166129,0.06594574,-0.17928296,-0.6867999,-0.2647693,0.64727575,-0.50747377,0.27901012,-0.00019458792,0.2901461,0.015381261,-0.24130656,-0.12078539,0.290261,0.5861141,-0.4629025,0.072519735,-0.2951935,-0.18673775,-0.43284112,-0.5816999,0.027889129,0.17028199,-0.87403554,1.1358621,-0.17656171,-0.23923717,-0.7875715,-0.09373144,-0.1699697,0.109292366,-0.17455599,-0.10552975,-0.40257466,-0.1364932,-0.42002842,0.021452727,0.15126269,0.20431545,0.40037465,-0.30310893,0.53787285,0.43342763,-0.15387073,