-0.45433313,-0.8273028,1.5118954,0.112625286,1.1984484,-0.10772866,-0.28072605,-0.7410754,-0.8010118,0.09408415,-2.925408,-1.5503732,-0.39473563,0.72248,0.2995212,0.7537777,0.19842295,-0.91246796,0.19106835,-0.46282512,-0.31300724,1.3132645,0.06709762,-0.4098261,-1.7750313,-1.2248421,-0.08660343,-0.21851549,-1.5999978,-1.1959338,-1.6673822,0.73286486,-0.8994914,-1.7664037,-1.2710544,-0.8972641,-1.2919745,-0.6905905,0.050942183,-0.4805576,-1.2375386,-0.76784796,0.23158956,0.56915176,0.21317121,-1.1169807,-0.9597918,-0.031118661,-0.73641324,-0.4842996,-0.7540406,-0.6415001,-0.7485997,-0.84125453,-3.0353353,-1.1572026,-0.8393692,-1.7894193,-1.3936937,-1.7050765,0.37475199,-1.2757384,-0.9910644,-0.43805465,-0.38112983,0.17468339,0.53373176,0.2483719,-1.5421437,-1.4964812,1.686525,-0.76318836,-1.7567645,-2.4231558,-1.4820623,0.94674605,-1.9629434,-0.30298382,-0.86433566,-2.5894723,-0.8146667,-1.9556742,-3.302782,-1.1931338,-0.2770265,-1.1865973,-0.48950124,-0.31055737,0.118981525,-0.5024462,-0.039767534,-2.051352,-0.28344378,-1.0757189,-0.7934906,-0.39427668,-0.12813458,-0.4310394,-1.215764,-1.3290453,-1.4260563,-0.30101794,0.839936,-0.49990237,-1.7925271,-0.8708967,0.4390197,-2.064446,-0.9463802,0.22387798,-0.13210846,0.046375126,-3.164851,-0.9158195,-0.699181,1.4016633,-1.3679149,-0.8762424,0.14923656,-1.6891685
