0.1839569,-0.014865439,-0.29033637,-0.27336708,-0.23061714,-0.006930763,-0.27302685,-0.031150892,-0.33330932,0.17226309,-0.29410294,-0.18830733,-0.17626038,-0.059189033,-0.052084405,-0.45275787,-0.053674053,-0.064745195,-0.011482085,-0.08206953,-0.067262374,-0.048794437,-0.19739267,0.05046929,-0.24053025,0.08562187,-0.22729068,-0.09027457,0.020297024,0.13477688,0.14956722,-0.02819469,-0.1611325,-0.06932896,0.02903674,-0.13732497,-0.19877067,0.22608341,-0.008439823,-0.13040982,-0.028110145,0.19945493,-0.12122933,-0.0690676,-0.23810975,-0.29907632,-0.18195218,-0.20649949,-0.06416632,0.06725538,0.10644999,-0.3455784,0.15396619,-0.12461852,0.30068108,0.13868651,-0.28247687,-0.0427095,-0.07814463,-0.15820071,0.066978686,-0.05434995,-0.25190613,0.01553943,-0.084752165,0.48439303,-0.20771237,-0.31391943,-0.12822565,0.044702027,0.13772473,-0.08064527,0.08230303,-0.1229087,-0.08157284,-0.23868284,0.08612242,-0.04427282,-0.14771968,-0.16374595,-0.12117638,-0.2503052,-0.027402768,-0.10807154,-0.37342584,0.19154012,0.07242748,-0.19642171,-0.21935804,0.11176236,-0.2873949,-0.16366214,0.07624008,-0.024000261,-0.058625672,-0.2976996,-0.19023077,0.22179507,-0.07910966,0.3683894,0.012395695,0.008098226,-0.22029935,-0.009390586,0.010664064,0.10264613,-0.2749757,0.082105584,-0.046701275,-0.020070627,-0.11736672,-0.025542855,0.27296785,-0.060459156,-0.2889087,-0.08312055,-0.2582199,-0.19847898,-0.14769891,-0.1155703
