-0.12657063,0.20371354,-0.64286715,-0.47383016,0.22473116,-0.12280937,-0.6282314,-0.17936438,0.1455998,0.1703033,-0.21755746,-0.6284071,-0.04465818,0.0062167933,0.052874632,-0.49836877,-0.050408997,-0.011122104,-0.08175987,-0.053505648,-0.017467467,-0.06824077,0.118094146,-0.31429413,0.15278685,0.17919119,0.326323,-0.038099844,-0.09560678,0.3029039,-0.20268233,-0.5523806,-0.042892743,-0.083376,-0.012550761,-0.23540717,-0.45924053,0.31104553,0.011949762,0.39194313,-0.15318483,0.036402658,0.20130858,0.050131418,0.09458855,-0.106853195,-0.011796708,-0.13653532,0.04896833,-0.34647664,0.2240893,-0.43937182,-0.2988799,0.22722948,0.3020114,0.39636746,-0.012165907,-0.09924654,0.06905611,-0.13090342,0.02593474,0.31125772,0.003383444,0.22626977,0.053266987,0.4089571,-0.3726492,-0.09735653,0.15467174,0.1103738,-0.14351489,-0.40227902,-0.27786356,0.21021126,0.09845433,-0.1085823,0.2738358,-0.04547578,-0.095898494,-0.04644473,0.15948595,0.07677879,-0.00932279,0.09863517,-0.40968612,0.037477,-0.2332529,0.2953568,-0.80955803,-0.45197865,-0.4659041,-0.061362527,0.31209227,-0.3585127,-0.4629035,-0.08068218,0.16602877,0.56997454,0.09607654,0.26502183,0.107628934,-0.329187,0.17459004,0.19966282,-0.2811375,-0.092071794,-0.035395417,0.14470458,-0.02347206,-0.28457028,0.022098409,0.0127383815,0.19307217,-0.018186904,-0.6749603,-0.44809186,-0.088590786,0.26035362,-0.30396527,-0.8129617,-0.7140132,-0.07715608,-0.3039117,-0.30761346,-0.18916816,-0.1092481,-0.08289565,-0.26150122,-0.09739424,-0.37771595,-0.021618376,-0.25249532,0.15948027,-0.19915351,0.097292475,0.18614295,-0.043476474,-0.014915695,-0.06584542,0.07248465,-0.0015061497,0.039484996,-0.12510644,-0.045552306,-0.1352205,-0.14338672,0.36698574,0.14352547,-0.022417877,-0.45308763,-0.019069836,0.042447414,-0.7554004,-0.10461844,0.058375314,-0.033841632,0.07867534,-0.018337458,-0.06427151,0.063824706,0.08881736,0.056878775,-0.12042506,-0.0075223213,-0.088059545,-0.15372677,-0.12770414,0.26776916,0.078778826,-0.13344659,0.03829234,0.21555752,-0.022886112,0.3331914,-0.34704039,-0.23882805,-0.36388588,-0.062189505,-0.17285092,-0.16099055,-0.36361504,0.605956,-0.08541893,0.14226317,-0.049832664,0.15793288,-0.5559047,0.20146953,-0.23179719,0.028685417,-0.5503331,-0.44777122,0.121745214,-0.21846761,0.1714348,0.266468,-0.31312194,-0.07100771,-0.12612338,-0.10941503,-0.04748043,0.013889665,0.084837995,0.28552237,0.071891055,-0.2208069,0.054496553,-0.2797686,0.2825408,-0.015124092,-0.49495244,0.21748376,-0.14217257,-0.054046713,-0.1611608,0.13676672,-0.22070806,0.060714144,-0.050072107,-0.19509622,-0.7454995,-0.4681635,-0.07519218,0.14636362,-0.27896664,-0.0009664377,-0.45968682,0.0012964681,-0.08990042,-0.6093874,-0.00089923164,-0.30117005,-0.06980878,-0.03394898,0.52693313,0.2516145,0.24850528,-0.3504248,-0.43935063,-0.45492357,0.3587601,-0.08347138,-0.12892237,0.15061843,-0.031550642,0.1899473,-0.05607916,0.4157133,0.046628512,-0.37561217,0.11070112,0.34844312,0.2990647,0.43936387,-0.2252692,0.26945373,-0.05925635,-0.052314177,-0.07977996,0.013140853,-0.051966272,0.051332105,-0.48380706,-0.03425934,0.39878693,0.3638401,-0.3828007,0.00016551,0.048655808,-0.7235554,0.17568392,-0.002570825,-0.025823848,-0.57992715,-0.38061124,0.25701177,-0.1980619,-0.35741097,-0.042853814,0.047642726,-0.43356726,0.048439503,0.21384333,-0.90707135,-1.2061956,-0.092985615,-0.21706274,-0.2197934,0.013123143,0.060889933,0.08907034,0.33962536,0.1280284,0.19581297,0.0363003,0.046876486,0.1712438,0.009613918,0.43596584,-0.03469309,-0.57084215,0.07964013,0.22879897,-0.55877924,-0.033227917,-0.0088833785,0.2899344,0.2629872,0.4696,0.09944848,-0.33352238,0.09332131,0.33054847,0.18165673,-0.019129442,-0.0641663,0.11144545,-0.025968274,-0.1553573,-0.051502924,0.0036084114,0.1016727,0.07610312,-0.0035702116,0.3435673,0.2716977,-0.39538294,0.2592177,0.28515163,-0.3310963,-0.13558786,0.06889652,0.45182317,0.23379956,0.10945676,-0.2221214,-0.26629928,-0.0065374277,0.38666412,-0.14208563,-0.021059528,-0.14399283,-0.7537776,-0.74371886,-0.347443,0.30404434,-0.04208867,-0.14521982,-0.05597746,0.24284565,0.43152207,-0.12183857,-0.16063227,-0.064129084,0.3804859,0.42119065,-0.25187558,0.0491994,0.7487189,0.15600142,0.32780784,0.19010997,-0.22624032,-1.1241403,0.29005393,-0.07058713,0.26012284,0.21301822,-0.2214547,0.2546106,-0.016014118,-0.2984206,-1.0410244,0.25277472,0.48559842,-0.53847617,0.043716133,0.00274347,0.056246083,-0.060756877,-0.057855744,0.08347833,0.07385853,-0.4188318,-0.32864764,0.3122077,0.54525733,0.42874396,-0.008880019,0.38100684,0.09065051,-1.0867486,0.3039796,-0.06513943,0.4045258,0.17896979,0.2471615,0.22356427,-0.017664926,0.39894456,-0.2559825,0.011707151,-0.07005337,-0.11481147,0.24833027,0.042370886,0.02313634,0.102571584,-0.03285442,-0.7742623,0.012334397,-0.2625676,-0.009614281,0.05950152,-0.5170479,0.15379146,-0.5223239,-0.028239494,0.7279606,0.41047218,0.4967303,0.05718707,-0.09609162,0.35887256,0.048675638,-0.000168495,-0.42625386,-0.49858767,-0.080755115,0.39715382,0.080180354,0.3476931,-0.3059684,0.3278282,0.13062243,0.045278776,0.007696267,0.019443953,0.07744548,0.50246376,0.048842568,0.3202254,0.047399204,0.30786112,-0.4888671,-0.7823813,-0.21748668,-0.003780257,-0.84977126,-0.4472134,-0.31580287,0.030624587,-0.060568742,-0.81391495,0.36204296,0.20429133,0.46070337,0.08416535,-0.29821262,-0.045007173,0.16358621,0.28748196,0.2543809,0.13426659,-0.022254104,0.0098308185,0.24598745,-0.81643903,-0.0110353725,0.16140918,-0.030180931,-0.3017045,0.31900448,-0.0044297474,-0.44498688,-0.35111633,-0.21621506,-0.38072234,0.1693306,-0.93459743,-0.5001766,-0.593566,-0.39303777,0.23678058,0.30985987,-0.52476513,-0.06470553,-0.73333645,-0.31396094,-0.23881732,-0.3306729,0.47117788,0.16856627,-0.028152937,0.13484128,0.022923803,-0.10199572,0.027298028,0.023224473,-0.04903495,-0.0011700258,-0.06340944,-0.48201606,0.30532625,-0.19839855,0.061121624,-0.37807494,-0.1489137,-0.0729893,0.17987522,0.022467105,0.3088308,-0.38051242,0.13606748,-0.68616295,0.12972724,-0.13168345,-0.15376858,-0.030331256,0.38171393,-0.24189393,-0.17749445,-0.0032020956,0.6094209,-0.35250363,-0.35310388,0.044069227,0.27198216,-0.025537802,-0.2687508,0.23510374,-0.20655032,0.054863818,0.14314313,-0.1789793,-0.19278207,-0.22672392,-0.067482755,-0.23981443,-0.35751215,-0.07921331,-0.2377553,0.4093966,0.19703609,-0.0388018,0.31730285,-0.46994445,0.1814498,-0.07350375,0.09537473,0.43356746,0.19707057,-0.2224071,-0.35739905,-0.09228275,0.034814823,-0.14242424,-0.091984764,-0.0063626557,-0.3621552,-0.3628553,0.1982133,-0.0107697025,0.13751276,-0.19713418,0.32695687,0.07437052,0.10548321,-0.4885474,0.35337126,0.2668985,-0.0512102,0.327839,0.28222355,-0.04757686,-0.0633201,-0.03607728,-0.14286067,0.16074787,0.07677867,-0.6525377,-0.2991269,-0.29215214,-0.34554347,0.46333405,-0.112908624,-0.24305953,0.012863699,-0.012067023,0.118893795,0.19076131,0.20852616,0.2097361,0.052288003,-0.005032627,0.17680873,-0.011924114,-0.11133216,-0.13891295,-0.22638504,-0.052655417,0.26218703,-0.058324415,-0.20028794,0.013721136,-0.12662095,-0.10559018,0.0024839593,0.3327655,-0.371811,0.20688498,-0.074502185,0.10848435,-0.009882352,-0.08288793,-0.29037467,0.09848958,-0.078989334,-0.028891437,-0.03466119,-0.06689118,0.05405737,0.050641313,-0.12614895,0.3652601,-0.61426723,-0.07397832,-0.50879467,-0.04635909,-0.91096056,-0.13728781,0.20185988,0.10120926,0.1589094,-0.34545276,0.09604742,-0.46650988,-0.40686613,0.03405219,-0.19348778,-0.20208581,0.049287606,-1.1429037,-0.44227642,-0.109004214,-0.6706622,0.06515349,0.115934,0.04092595,-0.13073102,-0.47484142,-0.053981073,-0.05171149,0.4532894,0.24807382,-0.07722687,0.24366547,-0.055925243,-0.6886851,-0.37464765,-0.4891835,-0.054129254,-0.02568635,0.46095675,0.04370402,-0.037485607,0.3857566,-0.58375996,-0.18055643,0.36221856,-0.3543748,-0.39905468,0.5281199,-0.25120816,0.19263746,-0.4277733,-0.17722449,0.026003273,-0.5437765,0.038210727,-0.4083558,-0.065554485,-0.0055253305,-0.39922455,0.859281,-0.023717817,-0.29111227,-0.1651781,0.28429475,0.02804465,-0.16274594,0.22878575,-0.3692094,0.25265318,-0.13709603,0.18418914,0.009901262,-0.17885198,0.05473988,0.09634678,0.089131065,-0.12860134,0.20657618,0.13577276,-0.3608112,-0.12827465,-0.15273891,-0.13292648,-0.08908856,-0.195989,-0.20237069,0.15108196,0.18446438,0.015997116,0.57046884,0.12300732,0.46199542,0.14891629,-0.58020175,-0.21030833,-0.3088427,-0.10363874,0.18941894,-0.1647364,0.2680931,0.035973705,-0.14086072,0.049756836,0.05029412,0.2963001,-0.4192881,-0.2693678,-0.39366615,-0.6719949,-0.044020697,0.23838864,0.018607588,0.06636013,0.036047697,-0.07904808,0.03406814,0.00879455,0.022306502,0.2027156,0.25031197,-0.13779685,-0.344681,-0.12584904,0.017193971,0.31405026,0.028107282,-0.18900008,-0.10315867,0.047570594,-0.7136119,0.07098291,0.35052162,-0.05635059,0.07590342,0.35371053,0.29655394,0.25943148,0.5038014,0.3880253,-0.018505337,-0.06516594,0.14657445,-0.44527093,0.011419819,0.29456255,0.14014006,0.034942053,0.19624832,-0.3113398,-0.1642785,0.0676877,0.10885948,0.019162852,-0.088392444,-0.056088638,0.2928707,-0.032734144,-0.18265422,-0.20257889,-0.024113495,-0.5479885,-0.40227637,-0.019618522,0.066640355,0.15245627,-0.09013956,-0.38236344,0.08087631,-0.096113734,0.11482691,-0.0053113713,-0.32805198,-0.056629777,0.14497901,-0.07585062,-0.18262962,0.403386,-0.07305299,0.07981367,-0.023009473,-0.506462,-0.593077,-0.2678402,-0.37238047,0.38864806,-0.048250988,-0.23311387,-0.009447298,-0.3471752,-0.58898747,-0.32760057,0.0022946286,-0.013305032,-0.066016436,-0.37381345,-0.6227011,-0.28561908,0.18076216,0.2596784,0.138709,-0.21695311,0.07278787,-0.035542052,-0.0068580178,0.23480225,-0.36484903,0.30825666,-0.23869228,0.012368449,-0.077562556,0.20284563,0.4068831,-0.78682303,-0.113000885,0.0053923796,0.44168183,-0.24511653,0.103609875,0.018267047,-0.37575823,0.1630953,-0.0342569,0.2960465,0.46290252,0.12837198,0.45299235,-0.065142676,0.3216429,-0.48585656,-0.27598408,0.18973097,0.05532529,-0.04814211,0.071641445,0.013848308,0.051602997,0.00030099045,0.33594847,-0.08469838,-0.5823853,-0.49460292,0.08210605,-0.4224586,-0.007836485,0.26359645,0.09960563,-0.16076808,-0.14436395,-0.05223986,0.064775854,-0.14141625,-0.613169,-0.051798016,0.017627105,0.13497266,-0.5510005,-0.3081075,-0.98516023,0.20654024,-0.40206194,-0.56362367,-0.3820043,-0.23833811,-0.041121762,-0.064097986,0.17411199,-0.4708783,0.13347946,0.3031688,0.09985279,-0.15436985,0.24920048,3.9329e-05,-0.8851595,-0.14499943,0.17097376,-0.22392648,0.038885504,0.56510055,-0.051168326,0.18492156,-0.01310395,0.116466105,-0.096837774,0.32751527,0.31660488,-0.23000337,0.2419218,-0.46350473,-0.16482212,-0.54368615,-0.12033353,0.0012081284,-0.15430163,-0.26352078,-0.40100107,-0.011822754,-0.063117325,-0.8246219,0.6244325,-0.41519138,0.030914025,-0.35594824,0.3986955,0.12206285,-0.22908705,-0.024447264,-0.19162138,-0.05358697,0.18554604,0.5448136,-0.029698376,-0.07027533,-0.1891462,0.032641158,0.10000114,-0.36814168,0.16183904,0.00500647,-0.030203631,0.32443625,0.10075908,0.20662738,0.02670813,-0.046869095,0.37297624,0.56119907,0.24091797,0.011350844,0.363334,0.27200893,0.61281866,-0.5759651,-0.38394755,-0.32079655,0.062145114,-0.0058823614,-0.09123859,0.055993408,-0.009416344,-0.029813608,-0.15070026,-0.085783586,0.020077618,-0.10863658,-0.09172818,-0.026090996,-0.1403372,-0.055459704,0.040082373,-0.03128851,0.069053754,0.064048685,-0.0820158,0.069922976,-0.007984669,-0.080447614,-0.1396357,0.048318442,-0.029022668,-0.0799711,-0.06831586,-0.22614191,0.0016388915,-0.06935827,-0.12671211,0.051403325,-0.01508418,-0.100694336,-0.0637139,0.016994307,0.065898165,0.026976874,0.02696807,-0.02471727,-0.05299595,0.0071774977,-0.14894627,0.050943907,0.031687975,-0.022747077,-0.07409596,-0.006850425,0.06541794,-0.09583953,-0.050839163,0.032009635,0.00649924,-0.2099851,-0.047439083,-0.025361026,-0.08687136,0.08314353,0.06957338,-0.1061334,-0.017050339,0.123495966,0.0039430717,-0.07857942,-0.06307161,-0.032198817,-0.24157962,-0.13257086,-0.122780256,-0.17885332,0.0040677814,0.00847318,-0.104317814,-0.23020963,0.045841265,-0.072892636,-0.10384392,0.079178095,-0.069570236,-0.007387525,0.018888848,0.1147192,-0.027763553,0.14720827,-0.06701531,-0.0022437386,0.019489413,0.05594701,-0.02526094,-0.06371577,-0.11717758,0.008746354,-0.11854613,-0.10491219,-0.018305598,-0.12422784,-0.07292508,0.050341908,-0.106077805,0.09246078,-0.033540804,-0.014499199,-0.12803221,0.03966186,-0.022185547,0.0016335499,0.0140529275,-0.17003743,-0.013500065,-0.11260056,-0.14574412,-0.04911144,-0.08099929,-0.034305837,-0.027849782,-0.07925671,-0.18885122,-0.051257994,-0.04816817,-0.104328655,0.11806425,-0.050847936,-0.047762144,-0.18500462,0.043308716,0.25607285,-0.23762828,-0.10938921,-0.16123745,0.49942854,-0.5556299,0.38561732,0.43118343,-0.38680732,-0.31052125,-0.34030965,-0.07535128,0.0694088,0.074932165,0.037309863,-0.08854385,-0.013170659,0.32560334,0.08075979,-0.74123716,-0.28227875,-0.6017394,-0.3290984,-0.018151281,0.7590864,0.11724743,-0.15191786,0.13698742,-0.06578711,-0.76351815,-0.526957,-0.17106046,0.55549806,-0.031511668,0.1791451,0.25495958,0.21240029,-0.14053172,0.78357,-0.36799425,-0.280353,0.15242144,-0.14549701,0.04291892,0.13289925,0.03012354,-0.41290194,-0.09849577,-0.22767664,0.38160226,0.029660625,-0.13135931,0.07444729,-0.80719215,-0.45125479,0.046349462,-0.008035549,-0.5832222,0.18062961,-0.0639393,0.16589911,-0.3636526,-0.109408475,0.17473763,0.43546623,0.40800783,-0.3368112,0.2859102,-0.40364859,0.097082354,0.087197,0.33045608,0.07983828,-0.19811185,-0.85379314,-0.071561955,-0.41445294,-0.029780712,0.08871007,-0.4612529,0.016213194,0.4198728,-0.0020414935,-0.7306956,0.29964024,-0.42580205,-0.8333225,0.12837967,-0.055024862,-0.3338902,-0.17049439,0.06775725,0.5098753,-0.03325714,0.34378237,0.23820272,-0.27155343,0.109034956,0.15012594,0.21314882,0.31076512,-0.35527584,0.45429134,-0.10085366,0.16353707,-0.5066661,0.078765325,0.045176443,-0.04646021,-0.4723354,0.42862916,-0.01580024,-0.4774799,-0.25090846,-0.12875664,-0.1238319,0.17525123,0.32036784,-0.042409584,-0.17998444,-0.09078455,-0.17283753,-0.40300164,-0.25882557,-0.22898526,0.17850362,-0.36426196,0.08392712,-0.17214637,-0.25136957,0.10325093,-0.014451898,0.06980753,0.021490768,0.024767881,-0.026545588,-0.044216134,-0.41332185,-0.09406454,0.108989336,-0.34267706,-0.13840477,-0.47845533,-0.08816214,-0.2193496,-0.7482562,0.4452964,0.10501925,0.08838884,0.25210077,-0.11141858,0.12458649,0.13273957,-0.04722723,0.017529441,0.054260045,-0.19626917,-0.2824131,0.039857708,-0.025351483,-0.03743072,-0.09934448,0.36344832,0.012694354,-0.046652462,-0.04954286,0.28383487,-0.022869768,0.018366857,0.17130433,-0.09321874,0.22080748,0.06165869,-0.15237732,0.28005096,-0.1153882,-0.52320397,-0.017313782,0.1056442,-0.0855359,-0.07333313,0.7221606,-0.62817675,-0.8417003,-0.48215824,-0.13029195,-0.19130392,0.2893121,-0.21104597,-0.15506639,-0.27118754,-0.2561418,-0.0398134,-0.21432845,-0.55571806,-0.07685566,-0.0187058,-0.08713613,-0.39454582,0.04152796,0.24660188,0.16654277,-0.202341,0.26761323,0.29673567,0.35113713,0.44986436,-0.4699655,-0.19972031,0.013788707,-0.15863264,-0.32213914,-0.45350325,0.113847084,0.30568528,0.06564247,0.01627418,0.017866185,0.13899125,-0.019196305,0.2865374,0.58312887,-0.38560775,-0.0553577,0.28129515,-0.6546558,0.48174337,-0.29701945,0.07450135,0.3467087,-0.15386277,-0.20538837,-0.80216813,0.119226776,-0.2250274,0.35137606,-0.19283679,-0.16954926,0.122019805,0.111063674,-0.1056345,-0.7975196,-0.33816877,-0.42957386,0.089099236,0.12651926,0.15893894,0.3622707,-0.13038315,0.08210554,0.12464503,0.11221646,-0.02861564,0.06684847,-0.044474438,-0.06253099,-0.054746788,-0.19303252,-0.32676187,-0.04284917,-0.29261667,0.088585466,0.29960737,0.05153289,0.026299529,-0.1455279,-0.2969019,0.17404218,-0.32702118,0.35267556,0.120742895,-0.51682544,-0.045862634,-0.04060959,0.09436259,-0.3814547,-0.40800145,0.06397417,0.030212328,-0.085342266,0.14534649,-0.12796763,-0.77236897,0.020108782,0.07681781,-0.68815345,-0.02593343,-0.07372724,-0.27852455,0.2224497,0.3843804,0.26065373,0.010301838,-0.2073112,0.1727939,0.25257564,0.46199614,-0.34029117,0.07394819,0.01375465,0.014472452,0.024445847,-0.015627777,0.03473841,-0.3823317,0.2778509,-0.05026086,-0.88521236,-0.08431236,-0.026814569,-0.057051193,0.23197044,-0.005664862,-0.07427952,-0.10450945,-0.37910426,-0.3304058,0.022706274,0.31075364,0.056351904,0.24906059,-0.15025592,-0.018360604,0.08892346,-0.5563871,-0.4376384,-0.31559527,0.12462416,-0.49478734,0.47889963,-0.35541606,-0.20643854,0.46329147,-0.29699236,-0.59061885,0.26487076,0.12246145,0.01604594,-0.3037011,0.036132913,-0.7111478,0.15482841,-0.38341817,-0.015362136,-0.4447266,0.13973655,-0.6433968,-0.27726588,-0.03844236,0.62204003,-0.030078886,-0.26602387,0.35523495,0.15809423,-0.08048875,0.38571393,0.23479721,-0.0125559205,-0.38775703,-1.0828465,0.005234931,0.19697005,0.06840297,0.2203005,-0.22508489,0.0027533118,0.024232518,0.3907116,-0.011698795,-0.5511529,-0.37971842,0.07869914,-0.04867382,-0.09071093,0.0068842415,0.035186358,-0.071169935,0.50534195,-0.5342846,-0.4271767,-0.14890994,-0.02355526,-0.029681122,0.06533637,0.1727845,0.21589147,-0.021224106,0.48288327,0.005103515,-0.06448756,-0.3672352,0.10459284,-0.033020824,0.010607923,-0.15801905,0.09028145,-0.34469602,-0.2566224,-0.5769406,-0.14861587,-0.16924353,0.06378366,0.39117298,-0.06303019,-0.48486045,-0.32849365,-0.033926565,-0.9228328,0.12078214,0.08934086,0.051101856,-0.30172014,-0.0075487844,-0.20569661,0.28263474,0.32718506,0.12545638,-0.41501072,0.39835575,-0.011453404,0.018491577,-0.3279501,-0.3909937,-0.39038056,0.40855372,0.02926239,-0.33203793,0.34270716,-0.32534957,-0.3086547,0.0048485766,0.4501869,-0.026282798,-0.118757494,0.1808609,-0.22503482,0.35440275,0.06326315,-0.45353505,0.27588978,-0.6183185,0.10120566,-0.31790477,0.2743492,-0.029029442,-0.009977862,-0.0007063077,-0.65084875,-0.28357905,0.2954848,0.45710492,0.122168526,-0.13556191,-0.21122338,0.045148533,0.5235837,0.41267252,0.40447384,-0.08191338,-0.039685898,0.35935548,0.119576715,-0.40270185,-0.028159237,-0.4138029,-0.15717737,0.3677731,-0.53926075,0.0026474418,0.23789607,0.030568797,0.34022215,-0.15658836,-0.11967345,-0.123356715,-0.09949869,-0.41345277,-0.1414982,-0.22322665,0.14475101,0.1677521,0.35809773,-0.18468592,-0.13533522,0.12037475,0.7254772,0.059328847,-0.079896316,0.21320206,-0.01350845,0.1623416,0.02051471,0.090318985,0.012951305,-0.024095617,0.020769017,-0.08053166,0.22182588,0.15882273,0.0348039,-0.20421599,0.31022197,0.3034927,0.08490351,-0.081648245,0.20094623,0.02525619,-0.64741063,-0.30352846,-0.7321271,-0.13495539,-0.019474763,-0.6464549,-0.0152702965,0.08851461,0.5060143,0.14811338,-1.0991603,-0.5618655,0.6978259,-0.111899115,0.1051219,0.40849078,-0.0649158,-0.027327986,-0.21561682,0.5834074,-0.02184448,0.16228205,-0.23361397,-0.5776244,0.1909282,-0.07258565,0.39706993,0.24534777,0.13008162,-0.18711124,0.65750235,-0.8782796,-0.032935195,-0.1310435,0.09380253,-0.04637628,-0.84354454,0.09161108,-0.06616801,0.55443454,-0.22813818,-0.06681006,0.052889947,0.33313316,-0.3330533,0.019483231,-0.005289424,0.12498873,-0.4252486,0.1628548,0.09816236,-0.05031745,0.10523845,-0.26409477,-0.33967665,-0.9320908,0.3547042,-0.14602399,-0.29414764,0.55604833,-0.5041722,0.039079253,-0.7230194,-0.2979488,-0.34240305,-0.13019572,-0.51357836,-0.039886497,-0.279112,-0.47501448,0.20535447,-0.3153049,0.09771431,0.3096659,0.036627974,0.08608373,0.03225528,-0.25569963,-0.6690298,0.13904926,0.07973569,0.055547543,0.38484925,0.16863564,-0.17884667,-0.38271263,0.29706523,-0.4751545,0.17572556,-0.08469366,0.53403676,0.05929241,-0.29620907,-0.43025887,0.24087024,0.19767614,-0.02672097,-0.7336504,0.27776238,-0.20668529,-0.0011614346,-0.08403635,-1.0071534,-0.029719671,0.048525672,-0.032991175,-0.045764863,0.0026766767,-0.06705211,-0.043502145,0.26591998,0.010833279,-0.033522088,-0.03025184,-0.0070146876,0.1840241,-0.049886163,-0.16052796,0.006859648,-0.37571573,0.45279425,-0.49424213,-0.09478592,-0.03401292,0.19578958,-0.05762513,0.005893542,0.2744261,-0.046365384,-0.031577736,0.27484652,-0.66997546,0.01771636,-0.63581514,0.26351878,0.31771904,-0.08260351,-0.24370222,0.18918663,0.07391565,0.15440932,0.45041814,-0.3178678,-0.31943598,-0.6074379,-0.07474354,-0.4954566,0.26869437,-0.28036255,-0.12864569,0.23953544,0.23071189,-0.037126258,0.07622128,0.07718815,0.038938504,0.27586928,0.12299883,-0.5600042,-0.63044846,0.59916174,-0.36249986,-0.3096608,0.05389269,-0.007062056,0.046846014,-0.5051622,0.40316862,0.11418761,0.15532126,0.027721677,0.24143979,0.07160241,-0.6753908,-0.102930576,-0.5150623,-0.14061701,0.088008985,0.76339525,-0.1828714,-0.17227104,-0.23417936,0.26863727,0.30896,-0.3443115,0.66953075,0.059365373,0.5056439,-0.09835531,-0.586418,0.5088415,-0.27428004,0.20013452,0.2654496,-0.2759634,0.06050893,-0.049951933,0.20399024,-0.053107694,0.4385186,0.058621347,-0.033482373,-0.42962652,0.2024349,0.27088895,-0.22474533,-0.22909006,0.36733332,-0.35634142,0.0061480943,-0.20294131,-0.016496832,0.054481834,0.13507135,-0.05707373,-0.030154273,-0.44376495,-0.16775723,-0.32544464,0.39169344,-0.028774751,-0.17100962,-0.69515955,0.4049293,-0.05531056,0.09222846,0.01633878,-0.048579328,-0.08056955,-0.0038990285,-0.32202688,-0.6771808,0.07122358,0.5005241,-0.11047847,-0.054480337,0.04800424,0.060907725,-0.98018795,0.10844229,0.13069837,-0.27995616,0.21462768,-0.0143743,0.25500846,0.22318056,0.008428389,-0.014026687,-0.16966365,-0.11490004,-0.17118236,0.60812944,0.43630946,-0.01700906,0.25813496,0.0044866037,0.10485441,-0.59603363,-0.008628662,0.31522247,0.42629606,0.035482492,0.14931081,0.49858326,-0.6091925,0.007630153,0.03858513,-0.6215406,0.17467986,-0.1992084,0.5196451,-0.17241503,-0.05791519,-0.046255372,-0.1567263,-0.09611388,0.41874287,-0.120562844,-0.3671052,0.37259158,0.46515828,0.19779862,-0.11785597,0.342444,0.1347116,-0.057805415,-0.22285184,-0.013253793,0.22333707,-0.12086092,-0.0008017947,0.26311147,0.106935084,0.023106959,0.29768065,0.22720411,-0.26811317,0.2593156,0.55450904,0.07939199,0.40554333,0.35841176,-0.15654123,-0.53335893,-0.10083792,0.19385466,-0.22896741,-0.1946132,-0.598862,-0.06539311,-0.17981519,-0.025557788,0.19412749,-1.2132909,-0.16355948,-0.23329172,-0.012748966,0.6811181,-0.22703986,0.8357001,0.21606952,-0.03357613,-0.49004903,-0.20667325,0.039825447,0.198319,-0.09774046,0.4055187,-0.9242337,-0.14062093,-0.023012664,-0.1337321,0.25183386,-0.10718646,-0.14522535,0.18442965,0.24019544,0.08052534,0.24269539,0.2747785,-0.070711695,-0.2667297,0.009823884,0.089808606,0.01813516,0.042483453,-0.06922682,0.042859256,-0.02031854,0.010180584,-0.46998742,-0.17338535,-0.0696513,0.33601522,-0.31922725,-0.023986368,0.0026470576,0.25672337,-0.68453085,0.1556575,0.07380434,0.04688708,0.15327933,0.0973206,0.08989234,0.15017101,0.06222905,0.1624192,-0.45305562,-0.39695624,0.08186962,0.483875,0.02523899,-0.5755162,-0.18920477,-0.17220363,0.021534394,-0.0040545375,-0.053575642,-0.70870256,-0.41482356,-0.14590125,-0.08776868,0.13968407,-0.04373782,-0.029335197,0.5320332,-0.40988562,0.18322758,-0.40381226,0.05687701,-0.42459902,0.017240413,-0.41844487,-0.3107029,0.254698,-0.08672632,-0.7754661,-0.21575922,0.076786496,-0.2425304,-0.27123877,-0.14269057,-0.11177732,0.21753637,-0.056975543,-0.27408713,0.40437615,-0.414773,-0.3020747,-0.07604549,0.31861308,0.16920337,0.19973044,-0.36691314,0.35862482,0.38902608,0.4112371,-0.34222296,-0.72222525,0.18293442,-0.2751553,0.16569793,-0.55663127,0.37410286,-0.028190563,-0.4901547,-0.4202098,-0.2419289,0.08991156,-0.47967115,-0.03046281,-0.07909517,-0.8679929,0.18017916,0.062055517,0.011459857,-0.025114117,0.23490371,-0.08006449,0.06322718,-0.055589214,0.43326283,0.29829976,-0.4888233,0.107196726,-0.2454152,0.29003894,0.103004195,0.25346792,-0.28493908,-0.16106479,-0.84589416,0.1871616,-0.6115605,0.49773166,-0.25425705,0.24655588,0.27336302,0.15717566,0.10472489,0.16460621,-0.51461166,-0.24834777,-0.049291063,-0.056862127,0.094705544,-0.043812767,0.03577952,-0.04832219,0.06659701,-0.3216277,-0.13985072,0.27245262,0.15271026,0.09094137,0.032647934,0.019063506,-0.40768832,0.12168644,0.2672678,-0.27653873,0.13098797,-0.87286353,-0.6981659,0.15765181,-0.03974759,0.27204195,0.07855772,-0.21614468,0.039752107,-0.5790964,0.34542218,-0.16617715,-0.037580576,-0.040330008,-0.114568174,-0.4849208,0.36668074,0.123152144,-0.19058932,0.43747208,0.23702992,0.32386893,-0.11480218,-0.06793563,-0.1371435,-0.24791895,0.10903227,0.2101334,-0.23689783,-0.01633404,0.059600387,0.095818445,0.044806108,-0.2623027,-0.15217023,0.05845758,0.12746063,-0.53795975,0.32983905,-0.7105262,-0.4333799,-0.6982426,0.036722217,0.03214111,-0.6706935,-0.16381158,0.14390478,-0.18739668,-0.038397036,-0.85039186,0.20191795,0.12941626,0.32085437,-0.4075106,0.19872889,0.10390417,0.05783976,-0.26742545,-0.53560436,-0.31509778,0.08861546,0.0057088844,-0.49165422,0.17997678,0.21841292,-0.11107644,0.32903713,0.7563797,0.120307036,0.18573235,-0.15895717,-0.2863298,0.06739425,-0.2085115,-0.037374448,0.30601603,0.007238937,0.28011987,-0.31103426,0.053502873,-0.46315068,-0.6725564,0.18887885,-0.09453986,0.0217826,0.3200451,0.09513621,0.028509244,0.34908044,0.055766933,-0.42190453,0.25391674,-0.2829972,-0.07829489,-0.6556909,0.06304125,0.22816686,0.23457238,0.20475194,-0.12105608,-0.048103403,0.029758627,0.031016786,0.024085196,0.009680655,0.060080335,-0.048751462,-0.031498555,-0.12269435,0.042378288,-0.0009469791,-0.3668039,-0.3069452,-0.22507502,-0.03741146,0.32608503,0.11025518,0.1207296,0.61946577,-0.47493696,0.08669579,0.025551692,-0.24302453,0.21749316,0.07295619,0.13358362,-0.4204384,-0.14623111,0.4018507,0.34149766,-0.2751963,-0.61360914,-0.14458889,-0.46480975,-0.020258754,-0.061920073,-0.551754,-0.5082818,-0.7601624,-0.18791695,0.4769217,0.31163868,-0.25778624,0.017251438,0.05368387,-0.008129684,-0.013332421,-0.06084062,-0.16517939,0.07272549,0.019838437,0.061660722,-0.24891281,0.21191078,0.13508716,-0.08586146,0.2858746,-0.21924007,-0.3831655,-0.037210725,0.035030063,-0.44488174,0.2776873,0.018421609,0.03943428,-0.033973023,-0.24700716,-0.7099967,-0.044947926,-0.10834465,-0.285164,0.13930508,-0.36339518,-0.22584407,0.3149699,-0.024042616,0.2663764,-0.08066893,-0.10294985,0.37320223,0.18483275,-0.65001744,0.010268455,0.25239083,-0.19892173,-0.24546999,0.25272635,0.105844684,-0.18786831,-0.43515843,-0.6380982,-0.16269056,0.28659353,-0.05714192,-0.10879914,-0.068101354,0.30247298,0.44851673,-0.21705423,0.017314658,0.43271518,-0.118559346,0.11589748,-0.11806527,0.124631695,0.25161168,-0.2296219,-0.44777754,0.38509226,-0.18884833,-0.340171,0.13963525,-0.15904392,0.22931331,-0.10543951,-0.27877882,0.29110673,-0.5038662,-0.07627855,-0.31457463,0.24759439,0.49156576,0.05474594,0.05668463,-0.07068741,0.092498474,-0.03731845,-0.0077913976,-0.03696279,0.37549525,-0.3617273,-0.031845268,0.15843043,0.34056523,-0.0775958,-0.5891669,0.116989285,0.15758184,0.09170817,-0.5967011,-0.2795301,0.27935705,-0.0971728,-0.76282835,0.038451605,-0.054818183,-0.07324132,0.00062828476,-0.08637906,-0.38520542,0.1618291,0.22654334,0.08926538,0.28025427,0.07811112,0.13026252,-0.21650693,0.093528606,0.17213184,-0.28684285,0.023904745,-1.0481126,0.6920876,0.029400649,-0.09223383,0.19429278,-0.3142745,-0.23693986,-0.023739077,-0.35987455,-0.024703378,-0.16596536,0.027450658,0.06485318,-0.2228709,0.0016013619,-0.366732,0.018646153,-0.6636182,-0.48225856,0.18329726,0.21646273,-0.30934906,-0.051456504,0.22917737,0.31808895,-0.055255335,-0.16309786,0.08113891,0.16318889,-0.36566353,-0.002340449,-0.26677203,0.025654178,-0.29916796,-0.2076245,-0.4697469,-0.0614634,0.2310577,-0.31049865,-0.30338475,0.34132192,-0.33771765,0.21708995,-0.096013054,-0.026991336,0.036899015,0.10812513,0.015791917,-0.020002512,-0.06332634,-0.057733882,-0.0075328816,0.088264346,0.06658266,-0.50477374,-0.801373,0.26110488,0.0076797307,0.0006666313,0.32915974,0.04591268,-0.30603418,0.07578916,0.15314442,-0.27157226,-0.09535311,0.114444695,0.113958836,-0.0024150112,-0.33348712,0.12593207,0.15501991,0.048491515,0.04405839,-0.16961534,0.09692325,-0.033206034,-0.14101695,-0.042946883,-0.18314539,-0.25725856,-0.057126842,-0.022686126,-0.053026054,0.03128706,-0.03241977,-0.031116989,0.057713956,-0.121385805,0.25717232,-0.15951058,0.101269476,0.01624753,0.036726713,0.22965653,-0.4792986,-0.20461263,-0.1799257,0.16283666,0.05435061,-0.14972419,-0.12338662,0.025915781,-0.06640022,-0.019073674,0.25564122,-0.042320684,0.012410986,0.010349532,-0.24355708,0.03663319,0.41088387,0.09778116,-0.061337028,-0.30026633,0.22564916,0.20125347,-0.018305685,-0.101388186,-0.21286355,0.3132468,0.22417873,0.05766298,-0.11951441,-0.462957,0.21120669,-0.051633384,-0.07094976,-0.10423815,0.028376326,0.09262941,-0.022181595,-0.19666564,-0.0222186,0.24246983,0.20869236,-0.18289292,-0.12525956,-0.04060526,-0.36141002,-0.07966922,0.058722604,-0.0039090854,-0.14802206,-0.06677179,-0.039015952,0.13171048,-0.02056812,-0.05883439,0.17962974,-0.20445555,0.2707173,0.15468681,-0.08111641,-0.22010832,-0.18257341,-0.48477694,-0.052978642,-0.20621306,0.15579438,0.060646646,-0.025114732,0.34711978,0.0343822,0.09801308,0.18320367,0.3037984,0.0748165,0.09183389,-0.025809731,-0.041938376,0.10854207,-0.28475726,0.036848407,-0.28165057,-0.095478,-0.11454205,0.108317286,-0.003121851,-0.20820785,-0.1651848,-0.4207976,-0.1850114,-0.28194666,-0.06051674,-0.17252842,0.2359916,-0.122674465,0.1011532,0.5213431,-0.297348,-0.3386912,0.06944666,0.23002237,0.24040493,-0.19192939,-0.25772125,-0.11176418,0.05064095,0.43966797,0.020122662,0.099329405,-0.011923963,-0.074811466,0.08766737,0.0032029464,-0.01944876,-0.48893517,-0.53655154,-0.005813112,-0.6183287,0.019394126,0.18109508,0.019991659,0.055819727,-0.517057,-0.022104966,0.079901665,0.5740662,0.015679164,0.4220618,-0.06874106,-0.21498139,-0.024562797,0.038337547,-0.7935511,0.21415605,0.14751565,-0.2765273,0.29492664,-0.0007601914,-0.1861723,-0.6254241,-0.036788236,-0.21956053,-0.021993952,-0.59102225,-0.05102384,-0.11771645,0.14171469,0.7259407,0.031149313,-0.05601521,0.5746998,0.13576916,-0.087142766,0.34443602,0.033571426,-0.33338907,-0.076439604,0.3360773,-0.32533062,0.27708954,0.2149116,-0.40015545,0.25690863,0.17288987,-0.58526176,0.10445032,-0.11799283,-0.029873777,0.054008275,-0.017880002,0.12647046,0.23091486,-0.29746816,0.22151664,-0.035306804,0.60356754,-0.4177801,-0.16654068,-0.2170433,0.12658821,0.21770507,-0.5909589,-0.052582063,-0.52657,-0.110807635,-0.22827579,0.4204108,-0.25724432,0.22237487,0.2365393,-0.68139875,-0.6948645,-0.48185298,-0.5414009,-0.5512201,-0.51747257,-0.5594095,-0.64100194,-0.05161731,-0.47494164,0.028733086,0.020843646,-0.019167757,-0.19343641,-0.02021797,-0.058998823,0.11930001,-0.10890761,-0.34844434,0.45568353,-0.39674047,0.14467713,0.15632373,-0.13000183,0.014750789,0.6115521,-0.7438422,0.28212,-0.29709664,0.2218747,-0.5375422,-0.24443533,-0.19842027,0.238082,0.055226196,0.04693948,-0.34030256,-0.009599477,0.042060267,0.10522502,0.049479146,-0.052034073,-0.09514324,-0.09049866,-0.31801677,-0.26528963,0.42319652,0.07920356,-0.9083011,-0.25790077,-0.05595691,-0.10608841,0.059714988,0.36544904,-0.03894816,0.09125649,-0.049693134,0.14180246,0.08645637,0.32195526,0.011908273,0.21140851,-0.081990495,-0.111966774,0.17747313,0.47149923,-0.18482035,0.0059526167,-0.00651027,-0.17527148,-0.09866333,0.11997289,0.11342914,0.37086052,-0.04665693,-0.39435387,-0.24691346,0.05830489,0.08845948,-0.0028637804,-0.1588886,-0.3015802,-0.5760367,-0.042975157,-0.09084611,-0.41176304,0.022895165,-0.24362859,0.2804068,0.42228684,0.60031533,-0.1314186,-0.073568486,-0.32713088,0.4173868,-0.01744941,-0.10727146,0.3032834,-0.049092326,0.022425573,-0.14303961,-0.53784406,0.11738618,-0.64578557,-0.07994677,0.027141592,0.31812197,-0.049341407,0.111769386,0.07906245,0.55497,-0.20138055,0.119621135,0.080774136,-0.3014247,-0.036248263,-0.019651644,-0.28050628,-0.0042696265,0.060269676,0.27983397,0.08970007,0.24413441,-0.17014799,0.0113999685,-0.19968839,0.53086025,0.19804303,0.15538155,0.083844945,-0.004405667,-0.084814034,0.12746689,0.44417638,-0.33666888,0.08499051,0.3915795,-0.401877,0.14524539,-0.2589784,-0.017598985,0.31245393,0.011585712,-0.6625603,0.29677194,0.64101225,0.17651151,0.39998877,0.25393674,-0.48187366,0.117435664,-0.5127138,-0.1837323,0.3912827,0.5544064,-0.24604568,0.10143693,0.39415842,-0.031589545,0.01516972,0.08086279,0.08901669,0.03403609,0.015545425,-0.5773001,0.118054256,0.18812309,-0.9289844,-0.21044408,-0.64052534,-0.04291215,-0.60017264,-0.6425719,0.24709223,0.41826278,-0.22357711,-0.6675645,-0.27314848,-0.6399504,-0.27699187,-0.020140653,-0.36767367,-0.664696,-0.12316374,0.34002694,-0.38831806,0.18953228,0.32564342,-0.27502573,-0.6466472,0.006427297,0.23969649,-0.80079025,0.3031942,-0.6685982,-0.2812524,0.28622538,-0.17066112,0.27614257,-0.0117852185,-0.24253514,-1.1080724,-0.56998074,-0.51746076,-0.49961784,0.11299459,-0.0683557,0.24375291,0.05578657,0.22214317,0.44822097,-0.9755113,0.023485426,0.067034274,-0.4127019,-0.8207961,-0.025775153,-0.3958166,0.32000208,-0.06734457,0.20618549,0.33555675,-0.43305665,-0.69302183,-0.0057601593,-0.24777704,-0.007862557,0.047279634,-0.062103774,-0.07254516,0.10738147,-0.6392253,0.5697339,-0.56107354,0.16561772,0.1115554,0.37136397,0.20792764,0.151855,0.5649375,0.1731688,-0.68829906,-0.04209597,-0.26456288,-0.3977372,-1.0627823,-0.18724154,-0.28282547,0.061475556,-0.007574427,0.016410656,-0.9298426,-0.23633048,-0.123338714,-0.52293867,0.04628783,-0.17842048,0.05313053,0.051015988,0.12596716,0.37651116,0.270912,0.092990525,0.36345458,-0.19221638,0.21324663,-0.6069749,0.04149076,-0.54549724,0.063743144,-0.35299078,-0.29795432,0.16561556,-0.50477755,-0.023127288,-0.14791623,0.11987734,-0.10029087,-0.047888983,0.016294958,-0.016544597,0.0025055907,-0.02056269,-0.07189983,-0.37562898,-0.14128444,0.27022108,0.41325518,-0.78641737,0.21590872,-0.053843975,-0.58818644,-0.29145914,-0.071313486,-0.081696,-0.19405392,-0.3189472,0.38170904,-0.4914131,-0.51729727,0.07596873,0.2590833,-0.1071883,0.3142566,-0.5192614,0.072588176,0.40767503,-0.47060293,-0.013241484,-0.41326848,0.025645971,-0.10196047,-0.6104457,0.056076635,-0.3518695,0.17323205,0.014241041,0.35891348,0.52494395,-0.039591305,0.5269315,0.22131094,-0.08445758,0.22173616,0.038824413,-0.17988066,0.07455274,0.28854853,0.10166047,0.27130988,0.120343454,0.09765592,0.42416987,-0.19301803,0.02719298,-0.12178403,-0.13105012,0.054944426,-0.21983922,0.028773515,0.08381382,-0.18978634,-0.6837384,-0.3058622,0.059959996,0.48923856,0.33296016,0.26160157,-0.6351376,0.27446422,0.44641015,-0.6350027,-0.046199657,-0.13233338,0.0019645982,0.27608594,0.17984535,-0.08009856,-0.63991565,-0.43278077,-0.13058636,0.15084822,-0.13195145,-0.20985277,0.06361146,-0.18274154,-0.92959064,0.27698737,-0.2707934,-0.2826849,-0.0018337712,-0.5798347,0.16985582,0.1982493,0.10841508,0.0054415697,0.62202144,0.07360338,-0.10357829,-0.18093802,-0.37153772,-0.38928264,-0.26001686,-0.23242849,-0.14868835,-0.40065113,0.058105912,0.032954875,0.0125512015,0.063456945,-0.32736427,-0.18433471,0.1211325,-0.5427066,-0.24948989,-0.12775248,0.13371381,-0.018604895,-0.08021497,-0.058951713,0.018404791,0.016703108,-0.030010784,-0.01442472,-0.11118147,0.09070869,-0.084563754,0.33947787,-0.22166303,-0.042510454,-0.082447425,0.17180611,-0.23121195,0.058484126,-0.02280743,0.29706877,0.26335493,-0.30035347,0.05144653,0.11241509,0.0064731548,0.5060323,-0.20989862,0.06399836,-0.020990975,-0.19702615,0.1111838,0.11178907,0.017934043,-0.3027016,-0.013150809,-0.53374964,-0.027460797,-0.15070216,-0.048848953,-0.28095257,-0.1619306,0.21881452,-0.09400289,0.08891966,-0.036969412,-0.012025367,-0.06927746,0.15689662,-0.06722958,0.12865497,0.018320866,0.20822722,0.19874457,-0.40647468,-0.10991097,0.119273946,-0.2147494,0.013914454,0.032239806,0.0184989,-0.168938,-0.03589623,-0.06618186,0.059224203,-0.1425942,0.021796664,0.2178726,-0.09741161,0.051882308,0.28206843,-0.019188272,-0.24622816,-0.29530847,-0.057447363,-0.18132754,-0.11339359,0.108243324,0.020853737,-0.091705196,-0.12662277,-0.36245227,-0.2878012,-0.13305488,-0.11155924,-0.18794389,-0.299453,-0.41751212,-0.20614162,-0.28228563,0.27992296,-0.008666818,-0.23794697,-0.04019591,0.30468237,-0.034019474,0.08516123,-0.011755907,0.034130085,0.007821847,0.08306046,-0.31829044,0.12745859,-0.2005868,-0.071131855,-0.0952953,-0.5235913,0.5399251,0.15164989,-0.14088953,0.13692781,-0.33680514,0.4005791,-0.2543619,-0.14481404,0.16421878,0.023796983,0.09983251,0.19822691,-0.25502405,0.15446968,-0.50306886,0.2562499,0.041499812,-0.011795471,-0.07651971,0.074751906,-0.07438656,-0.02754556,-0.2370323,-0.16605555,0.10351545,-0.503218,0.44869795,-0.2568153,-0.037355978,0.24756087,-0.3541533,-0.52022386,0.07472735,-0.668919,0.24819992,0.24104886,0.05674925,0.2511525,-0.035483174,-0.35711855,0.25306103,-0.44558245,-0.58749163,0.25324684,-0.34977797,-0.010418441,-0.14525157,-0.051257484,0.007109132,-0.5504988,0.0992501,-0.19881202,-0.74292654,-0.0011864979,0.11818787,-0.377458,0.70618427,0.038432628,-0.14901772,-0.10338376,0.32852986,0.3809864,-0.35492563,-0.18191633,0.027048385,0.16526616,-0.52368677,0.6306631,-0.2569655,-0.024807213,0.30211255,0.4789468,-0.74368656,-0.23722053,-0.61162484,-0.6235801,0.11201425,-0.033994224,0.5174148,0.2656827,-0.63415027,0.41160625,-0.09026873,-0.16429617,-0.058148514,-0.028644182,0.019945497,0.034119617,0.007075286,-0.15168017,-0.24017884,-0.50961727,-0.58947974,-0.2105373,0.19385631,0.44847238,-0.101014055,-0.09226455,0.11319366,0.12204986,0.69269896,0.70345086,-0.093086764,0.08686593,-0.6644978,0.14219059,0.27726412,-0.7741025,0.046064265,0.07308612,0.3560037,-0.64119726,-0.2425598,-0.015483736,-0.15656996,0.07563758,-0.263791,0.051204048,-0.07607017,-0.2836105,-0.04133228,-0.52543455,-0.32574508,-0.15594116,0.025019893,0.17179926,0.2202148,0.2265728,-0.2779611,0.23612991,-0.2655945,-0.047965467,-0.3265478,-0.17964898,-0.26871943,0.19804674,0.037408777,-0.07361867,-0.09621968,0.0567657,-0.06996878,-0.06520041,0.29138583,0.2675111,-0.22423637,-0.17079349,-0.14037886,-0.23083553,-0.0015158325,0.18482968,0.08716162,-0.17332493,-0.19632562,0.07089688,-0.8543063,0.26654452,-0.11424525,0.15161057,0.022106241,0.16637187,0.3564388,0.30223805,0.1557109,0.8541557,-0.5103793,-0.51008236,0.057074655,-0.1635055,0.00424072,0.27921817,0.15582323,0.21658465,0.011501992,0.08067481,0.03230019,-0.32208866,0.15884916,0.06309171,-0.57740784,-0.09127812,-0.006586027,0.32638627,-0.3919303,0.47244895,-0.07733673,0.13597773,-0.53378206,0.118810505,-0.008128284,0.076088764,-0.1963375,0.44161764,-0.22474496,0.2184501,0.2963427,0.022389978,-0.20245516,0.004207868,0.2276791,-0.15206444,-0.16832116,0.17270063,0.0005942584,0.2280322,-0.09973412,0.13475177,0.08591709,0.008374761,-0.7133345,0.5136419,-0.18577346,-0.3064138,0.20220295,0.25518,-0.55755216,0.2792531,0.23867308,0.07354936,0.19761549,0.34668657,-0.373736,-0.61780053,-0.15163374,-0.20023914,0.36996585,0.31369698,-0.8536252,0.42972693,-0.036625456,0.10134946,-0.3718184,0.5004131,0.38447547,0.029811278,-0.08681182,0.19400151,0.22922596,-0.19299583,0.070475176,-0.038278166,-0.683274,-0.38265768,-0.08810328,0.31102094,-0.039755978,-0.5476313,0.2231805,-0.5941833,-0.16039632,-0.5455621,0.42691815,0.025384832,-0.51411676,0.5729739,-0.14298807,0.26058537,-0.013184174,-0.027210657,0.03951121,-0.07739873,0.035400968,0.029173877,-0.075482644,0.25392267,0.07860477,0.25949448,-0.077513926,-0.4323288,-0.08534816,-0.46836337,-0.16255058,0.23345876,-0.38687116,0.28570697,0.067292325,0.16070315,0.030706208,-0.14671417,0.019064246,0.041912403,-0.477565,0.31323785,0.25179592,0.5576295,-0.08994497,0.035773292,-0.032240942,0.17587328,-0.012220451,-0.38507268,-0.568175,-0.41301364,-0.050978426,-0.1458964,-0.21306393,-0.27615753,-0.43886307,0.019210568,0.17161275,0.025157843,0.07178604,-0.7113542,0.19128726,-0.48058394,0.021014238,-0.6680094,-0.111505486,0.45037133,0.046289824,-0.26625597,0.060387526,-0.026844248,0.38093394,-0.055631436,0.2554564,-0.303181,-0.0887813,-0.024168117,-0.0154971015,-0.34388566,-0.116929516,-0.10627104,-0.048644036,0.08590726,0.6986823,-0.29686627,-0.18618152,0.1879542,0.28646454,-0.01657612,0.1662928,0.08926306,0.30997288,-0.6492518,-0.34423485,-0.2666585,-0.36027983,-0.5301033,-0.4108157,-0.20628327,-0.5378191,-0.26103625,-0.1065715,-0.1536406,-0.21618438,-0.45319918,0.44393092,-0.28479588,0.06244882,0.04251138,-0.5085685,0.26268366,-0.017554373,0.014701706,0.17273797,0.29104325,-0.30717,0.033143036,-0.4104519,0.10658523,-0.00011389998,0.2896492,-0.27755475,0.09918226,-0.38881835,-0.09402652,0.125255,-0.03922219,0.07152737,0.14771347,0.0055944934,0.12673646,0.27583522,-0.06657721,-0.23674841,-0.5712746,-0.04287594,0.0026785291,0.08623099,0.04655451,-0.01229112,0.029066073,0.14410831,-0.6306418,-0.1661092,-0.40679953,0.21847212,-0.08233689,-0.0062946854,-0.18461141,0.039101996,0.17046738,0.22016855,-0.24705942,0.08101733,-0.25503856,-0.48929197,0.09321266,0.08596714,-0.2096896,0.06074765,-0.13424715,0.18235649,-0.042432826,-0.13547486,0.22893205,0.48582488,0.0150344055,-0.06401653,-0.5392389,-0.3052563,0.14936951,-0.39282173,0.52630275,0.22883756,0.19672053,-0.34568304,-0.07671369,-0.48585033,-0.21337526,-0.03241393,-0.07756615,0.0064804135,0.15411076,0.019997703,0.029276703,-0.40002742,0.016100861,-0.0049587,0.29934412,0.18815073,-0.065311335,0.26604512,-0.05188368,-0.6427001,-0.48503062,-0.0946427,-0.008311638,-0.58283424,-0.0988095,-0.19258316,-0.12385318,-0.027140934,-0.13753676,0.52668995,-0.13103294,-0.21458252,-0.29620522,0.22039579,-0.12834282,-0.43738025,0.50565666,-0.5170574,0.139071,-0.08643759,0.18753138,-0.114589654,0.30431134,-0.104844205,-0.61907125,0.16325523,0.56301016,0.2467022,-0.07062078,-0.49161267,0.17762028,0.25580838,0.007465696,-0.025138197,-0.47341082,0.09673412,-0.18173063,-0.9347112,-0.011940826,0.27504072,0.22557351,0.15701963,-0.16038717,0.03756562,-0.12967476,0.2538702,-0.24127787,0.084010765,0.23319212,-0.03653208,-0.22545575,0.19442542,-0.18881384,0.1549691,0.26903558,0.15963438,0.2670406,-0.06312773,-0.21303096,-0.35400477,0.053170796,0.08746971,0.05637046,-0.01098046,0.055425726,0.07183937,-0.088385575,0.2572397,0.019331949,-0.40254277,-0.19767995,0.15977578,-0.35893825,0.04248402,-0.2946125,0.10189795,-0.059604913,-0.008802955,0.085940756,0.026274208,0.22902323,-0.1913466,-0.09436795,0.012959978,0.14772098,-0.14249091,0.227576,0.013733435,0.42215475,0.012562106,0.111526854,0.16476262,-0.094858415,-0.07378104,0.32896566,0.14099663,-0.2885568,0.022416936,-0.02584587,0.2624738,0.11024442,0.2948471,0.07147746,-0.33979458,-0.100436,0.21090776,-0.018551487,-0.17953706,-0.054973315,0.06485141,-0.0029884381,0.14344665,-0.18527883,-0.19768351,0.44979048,-0.4439594,0.0602569,0.11316738,-0.11276684,-0.3286262,-0.022952927,-0.35745227,-0.071860835,-0.48619267,-0.2796029,-0.0093415035,-0.16834827,0.03671228,-0.21881017,0.031321887,0.11640115,-0.047439493,-0.36876163,-0.3988651,0.2229932,0.04513081,-0.7232642,-0.07644243,0.05744044,0.030351447,0.11350663,0.14937852,-0.028365562,-0.13186705,0.09634923,-0.15579067,-0.15636306,-0.048495904,-0.2064375,0.08967879,0.20828669,-0.19732836,-0.104383826,-0.023347996,-0.0604461,0.12947653,0.21758819,-0.0010275239,-0.043533713,0.13744135,-0.07737866,0.018299745,0.070455894,-0.426498,-0.10707632,0.22134115,-0.3616057,0.54038334,-0.3734107,0.03258909,0.17883283,0.47432655,-0.18269192,0.25776622,-0.21980642,0.04970461,0.27624524,-0.39524776,-0.117106,-0.04048324,0.48415416,-0.028875645,0.016115846,-0.044274677,-0.002830587,0.059865855,0.038688514,0.20170285,-0.15741271,-0.4195605,-0.23908614,0.29089823,-0.6035627,0.054699443,-0.24680462,0.0054773805,-0.21025957,-0.061939362,0.63437235,-0.25733367,0.253349,-0.66356254,-0.21360414,-0.04422193,-0.7881952,-0.1433911,0.03486103,-0.44372055,-0.027728079,-0.6464002,-0.7049998,0.27000213,-0.4952164,-0.03528783,0.26003668,-0.6857261,-0.1560959,-0.32503182,0.24098888,0.24951695,-0.28366727,0.52680004,-0.07396202,-1.035417,-0.69611883,-0.12300221,0.42203507,-0.05719879,0.48074752,0.0601918,-0.46547347,0.025580078,-0.29628497,-0.17151345,0.05898845,-0.23699415,0.14313447,-0.46255302,-0.2780697,0.029585605,-0.75994366,-0.50237113,0.07687717,-0.356837,-0.13119033,0.19063257,-0.24547993,-0.055033498,-0.33283862,-0.08711014,-0.103635296,-0.53140235,-0.3922903,0.015370599,0.1283239,-0.27621436,-0.42183614,0.18297383,0.38957226,0.40235862,0.2666458,0.37573394,-0.3241347,0.29005188,-0.049016993,0.32326993,-0.476508,0.09244689,-0.22110611,0.15162338,0.13395895,0.25185344,0.17251284,0.09162522,0.29363388,0.22175172,-0.26081976,0.13778386,-0.027630344,-0.04324036,0.2612036,0.41959745,-0.07176133,-0.78242886,-0.014829882,-0.020531274,-0.23614201,0.31957227,-0.12628296,-0.24365515,0.37510487,-0.15624078,0.21034358,-0.4187558,-0.6182549,-0.82779586,-0.06003764,0.30418992,-0.5102738,-0.012173746,0.13053367,0.05931138,0.023749819,0.07098171,0.020548673,-0.025825737,0.084695086,-0.4979553,-0.9076903,0.08994593,-0.52717906,-0.318484,0.055955805,-0.026953368,-0.53745055,-0.51451826,0.11550323,-0.28965873,0.30156943,0.26057744,-0.40096715,-0.041616086,-0.011502383,-0.046487395,-0.15206842,0.12059063,-0.12803642,0.20214693,-0.29011708,-0.0067527643,0.21374078,0.22240235,0.22186685,0.022498913,0.18113074,0.090312466,0.22486699,-0.050631635,-0.1702876,-0.24346326,-0.32260236,0.14815803,0.0541132,0.16931097,0.13623762,-0.46451816,-0.10785187,0.16540015,-0.15197891,-0.08537041,-0.49331087,0.06936399,0.1966484,0.20252453,-0.42562672,-0.049935162,-0.031318445,-0.03309774,0.4125135,-0.39970642,-0.3545408,0.20161633,-0.049439378,-0.15168749,0.2580677,0.38016656,0.14902523,0.044267874,-0.297894,0.69581443,0.10868355,0.028128104,-0.30893543,0.32986698,-0.60805845,0.56919956,0.4792261,-0.46430293,0.19917123,0.23956606,-0.23246923,-0.16489382,-1.0985079,0.2064762,-0.24193573,-0.08838413,-0.37822464,0.19317883,-0.14069982,0.20199236,-0.24627697,0.32136005,-0.23369148,-0.050201405,-0.08206674,0.10071983,-0.21539703,-0.5246236,-0.09988385,0.24324887,-1.1863533,-0.0865625,0.055109188,-0.08443507,-0.078207605,-0.01617209,-0.33615208,-0.5680301,0.16418763,-0.040834427,-0.14453211,-0.16121928,-0.11738851,-0.6297244,-0.08939701,-0.17462677,-0.10588249,-0.25256953,0.30082873,0.0076257847,-0.20692559,-0.030026162,-0.052715164,0.006244388,0.022640985,-0.059532724,0.026277488,0.020401312,-0.28755894,-0.12936738,-0.40454608,0.025726508,0.33229578,-0.11226306,0.029596511,-0.37613684,-0.5133311,0.061755624,-0.12385528,-0.351903,-0.22920665,0.07987525,0.60261047,0.0393855,0.17440891,0.11759669,0.2560496,-0.15719742,0.6377969,-0.1965442,-0.8979697,0.06799709,0.42504156,0.041992184,-0.26981497,0.13627923,-0.0010693897,0.16883826,0.06842541,0.1931083,0.49209502,-0.19194353,0.01754858,0.12104811,-0.018285405,0.21823622,0.45310685,0.028255954,-0.27062857,0.008763207,0.042876635,-0.42848817,-0.15848969,0.039814003,-0.060780585,0.59634966,-0.036527585,-0.2526642,-0.17411292,-0.051486842,0.09539309,0.06804779,0.05862455,-0.15247513,-0.5018317,-0.3060532,-0.05639668,-0.05788162,0.08442025,0.2923534,0.117571875,0.25524017,-0.20497023,-0.51897967,-0.009998048,-0.3459604,-0.129853,-0.17640889,0.44222283,0.16170229,-0.0029168662,0.13265151,-0.032446947,-0.33571073,0.06567548,0.042923734,0.027327556,-0.5408769,-0.19756211,0.116107956,-0.07911626,-0.107791714,0.081098646,-0.044046357,0.021989733,-0.15186682,-0.024392644,-0.15947293,-0.0088029355,-0.5773706,0.38717425,-0.4116281,-0.0020138659,0.0888391,-0.16902559,0.39585757,0.18130054,-0.30917796,0.027338317,0.24903663,-0.17586644,0.15233892,-0.5058454,0.021617774,-0.074328125,0.06806388,0.10346753,-0.41471678,0.6685516,-0.30106074,-0.2110909,0.08594399,-0.058781072,-0.044155627,-0.022025723,0.09002581,-0.058027137,0.24770924,-0.06379238,-0.47185317,-0.10957437,0.041507058,-0.063443035,-0.056817636,-0.11932485,0.024603538,0.35275763,0.33478203,-0.08920812,-0.38251287,-0.20232692,-0.055455208,-0.00021864264,-0.07010584,0.35882,0.42159292,-0.5325054,-1.243031,0.080135934,0.09234344,-0.23820285,0.12018014,0.27347863,0.027642997,-1.2749496,-0.063801296,-0.7111356,-0.49629572,0.07556357,0.3091566,0.017925628,-0.04111367,-0.0322299,0.76055247,0.15295415,-0.3636433,-0.26818484,0.22524852,-0.26810926,-0.04155921,-0.05501323,0.03454766,0.24168602,-0.07803298,0.3438715,-0.09638628,0.35948035,-0.513737,0.45076662,0.07865839,-0.4585481,-0.73944736,0.018965688,0.095636204,-0.12256236,-0.6988718,-0.18444464,0.0064922613,0.21365242,-0.462293,-0.8221888,0.46637252,-0.06007342,0.049436573,0.35810682,0.21869212,0.48622736,0.09446658,-0.4899761,-0.23106897,-0.28444797,-0.37520966,0.2195509,-0.3041575,-0.03419247,0.042252705,0.9449174,0.1852443,0.11398765,0.08226583,-0.44862187,-0.25119463,0.0022814553,0.014852607,-0.23935254,0.080982864,-0.25915444,-0.21946934,0.039703622,-0.1039405,-0.058939554,-0.3044762,0.25263575,-0.5895575,0.4793058,0.26508388,-0.5324097,-0.16088143,-0.20199053,0.0537694,-0.104186095,0.3218487,0.30457473,-0.49317566,-0.016442627,-0.18828934,-0.16633928,-0.49355593,0.15388697,0.1034556,0.16442905,-0.09097142,0.061343856,0.073224165,0.04266977,0.057122134,-0.025568143,0.112936445,-0.09401369,0.2962015,0.40844923,0.07829291,0.07201298,0.044267662,0.11299757,-0.15241002,-0.37480605,0.258286,-0.4374873,-0.14740796,0.48312944,0.08719899,-0.55658394,0.041457657,-0.04007012,0.034465738,0.037723962,-0.2965412,-0.118545905,-0.2609094,-0.20420834,-0.023043254,0.050030977,0.07005563,0.11415801,-0.14091267,-0.3037229,-0.070387095,-0.26314178,-0.30431104,-0.33449107,-0.046243608,-0.06382599,0.047987044,0.4314548,0.13707124,0.28993228,0.030415507,0.05177562,0.05582097,-0.37884662,0.14364631,-0.31959012,-0.31975427,0.2926352,-0.7230251,0.21539292,0.03645292,-0.025014738,-0.10929845,-0.16183622,-0.12166349,-0.056955066,-0.20806251,0.2777537,-0.015573531,0.018511364,-0.09882654,0.36812437,-0.2101888,-0.22545275,-0.09403545,-0.039552793,-0.3009223,-0.17757986,0.12478369,0.04407003,-0.41175327,-0.28756586,-0.15064518,-0.028799292,-0.18689764,-0.29984152,-0.30395934,0.011441246,-0.67748415,-0.47700587,-0.1474776,0.18163116,0.058968626,-0.2147561,-0.4590886,-0.27034914,0.09787348,-0.007578406,0.061879512,0.031034973,-0.30180106,-0.0075403787,-0.39745203,-0.16196439,-0.023742372,-0.228863,0.18842588,-0.57100683,0.4259371,-0.78835607,0.13654645,-0.1402406,0.077422,-0.21743603,-0.10616759,-0.05620801,0.4028976,0.1220886,-0.14770098,-0.1274135,-0.33952087,-0.68065983,-0.25221154,0.18396436,-0.084245406,0.036185812,0.033647023,-0.02731512,0.10755878,-0.0446062,0.10400357,0.26669377,-0.49800116,-0.44139174,-0.07302775,-0.03304495,0.10022429,0.1183653,0.2295507,-0.22581269,-0.18016638,-0.22331347,-1.126532,0.06797559,-0.037392523,0.1760332,-0.07994089,-0.19377047,0.09782336,0.26815233,-0.23180392,0.4068661,0.3392569,-0.30667427,-0.06471537,0.0081207855,-0.005796388,-0.015976932,0.021414766,-0.29041582,0.1372536,0.08602688,0.20321868,0.44970673,-0.06484088,0.036719434,-0.74965686,-0.13167387,0.20088033,0.16597041,-0.6144764,0.0792968,0.059756078,-0.8323434,-0.53873783,0.1315774,-0.07392707,0.021012269,-0.13206276,-0.025520593,-0.16944893,-0.12618968,0.029779473,0.034562014,-0.007941944,-0.07801579,0.115445614,-0.032859687,-0.5108544,0.13707691,-0.026407337,-0.29132128,-0.08090037,-0.10355269,0.0775889,-0.06124182,0.05305496,0.11932923,-0.42441455,-0.648843,0.11521124,-0.27583677,0.053656407,0.23699495,-0.03953722,0.2232803,-0.6094637,0.24263163,0.26268673,-0.27394104,0.20318387,0.18296055,-0.1024997,0.7365873,-0.3186639,0.1831411,-0.0019102518,-0.055025347,-0.51066834,-0.22193319,0.091437414,0.051198665,0.049539723,0.26299968,0.29363412,-0.58590883,-0.28251106,-0.29062912,0.4173908,0.1695728,-0.21911404,-0.11540903,-0.16628556,0.31433827,0.053680755,0.12303588,0.15709539,0.010024408,0.60479695,-0.52232575,0.006430226,-0.18563768,-0.058185793,0.1642477,0.043472067,-0.08587126,-0.028745266,-0.019471299,0.070763,-0.029203052,0.18126702,0.3177159,-0.16346416,0.13061221,-0.08675606,0.09496594,-0.008213763,-0.054305397,-0.20205982,-0.04517071,0.04935755,-0.5305534,-0.00486696,0.09019916,-0.07294786,-0.28396773,0.0068494636,-0.12998365,0.095447496,-0.44114113,-0.27660376,-1.0890008,0.040202413,0.29519904,0.20482433,-0.12457792,-0.09412661,-0.31802464,-0.03646169,-0.079749756,-0.3570244,0.17408684,-0.03539081,-0.31413633,0.6238251,-0.06446324,-0.28532037,0.066862985,0.5646811,0.5603805,0.057303563,-0.17640647,-0.043470934,-0.0408756,-0.27653435,-0.24002072,-0.23647936,0.64617425,-0.08857527,-0.11082122,0.4343645,-0.24505095,-0.08502004,0.07689076,-0.013109741,-0.0343394,0.06437682,0.24231106,-0.57785237,-0.31670284,0.020639263,0.16456732,0.1444588,-0.26814935,0.18285865,-0.44685897,0.029342772,0.079736754,-0.11635607,0.31619546,-0.47580075,0.10963294,0.29145536,0.43151823,-0.43811625,0.1772818,-0.2218117,0.08962763,0.2082994,-0.15189616,0.055274278,0.019845104,-0.66175646,0.01674858,-0.21594702,-0.23966205,-0.0021987085,-0.24355875,0.19743837,0.69265527,-0.12324571,0.06996348,-0.26660237,-0.19810614,0.15599436,-0.022284336,-0.055118717,0.0054450436,0.010108952,0.16200085,-0.18320303,-0.5326919,-0.52659,-0.27488917,-0.052227437,0.12804082,-0.20767091,-0.13948748,-0.266565,-0.6578063,-0.0015424873,-0.08812835,0.08869337,-0.23827578,0.10486992,0.018186135,0.038990512,0.044886652,0.035373893,0.0018197316,-0.13535358,-1.0009925,-0.54036856,-0.092730194,0.4916792,0.061030403,-0.015180628,-0.0017008525,-0.21660534,-0.2815256,-0.04912481,0.5150761,0.36193383,-0.20083973,0.06962686,-0.06306334,0.0341733,0.04721964,0.61804813,-0.8462567,-0.036359992,-0.08845762,-0.07401832,0.32520244,0.12275344,-0.008429147,-0.0075475937,0.03209603,-0.052587673,0.100862205,0.14547633,0.15848619,0.37889227,0.20921624,0.0095375,-0.09113814,-0.5539742,0.0073870397,0.12837991,0.32673568,0.030705923,0.27805334,-0.06060013,-0.12472458,-0.43113646,-0.2852854,0.3681108,-0.15560296,0.4511921,-0.31344923,-0.6974207,0.41321808,-0.48132387,-0.23797448,-0.4334884,0.06439432,-0.2882636,-0.4461774,0.50575626,-0.22855794,-0.035880573,-0.10787396,0.16632025,-0.23526621,0.2505529,-0.39306805,0.34127653,0.0061687226,-0.123017415,0.2985241,-0.18918613,-0.21099511,0.21942179,-0.20337707,0.10187827,-0.44192147,0.26343745,-0.33651787,0.15945303,0.44211945,-0.0573489,0.22480752,0.39010146,-0.5883592,0.3330409,-0.34648502,-0.088584565,-0.009770325,-0.19841707,-0.59547347,-0.25732097,-0.0259908,0.008036076,-0.357536,0.034582235,-0.0949488,-0.059083425,-0.2597634,-0.20523094,-0.59930694,-0.60067785,-0.11115681,-0.30861932,0.15589221,-0.45020324,-0.021168502,-0.69601345,0.24125552,-0.19306245,0.04780055,-0.16238092,0.6577375,-0.36020225,-0.6498597,-0.017700706,0.044040725,-0.03592492,-0.08844214,0.03083224,-0.0011628695,0.097469635,-0.75259584,-0.18846321,0.1402547,-0.1884383,0.061392345,-0.07156972,0.2923649,0.031190956,-0.23303795,-0.20502803,-0.10587434,-0.21699469,0.17636345,0.0013780199,0.23071843,0.061720643,-0.39610618,0.03376422,-0.026977686,-0.035109237,0.4660573,-0.14883961,-0.15277533,0.24629177,0.30574992,-0.08151409,0.051856905,0.41656262,-0.12455674,0.13350463,-0.28353837,-0.3388378,0.08525073,0.10588453,0.034404352,-0.009079378,-0.17272304,0.65717924,0.6425241,-0.13072865,0.0978331,-0.071919404,0.36394173,0.08521888,-0.06229716,-0.030310735,0.13470386,0.3469304,0.023307787,-0.11708106,0.22052029,0.17090131,0.056671157,0.33775395,-0.058133576,0.058702756,-0.35002503,0.4781595,-0.4294131,-0.007378588,-0.08267779,-0.017231759,0.1500457,0.12804484,0.14503838,-0.710453,-0.063414514,-0.5466892,-0.093488894,0.41734228,0.38488576,-0.13098751,0.08218006,-0.09576196,0.12176826,0.015666252,0.30973384,-0.09234494,-0.025781466,-0.33052328,0.51675224,0.14572221,0.30644947,-0.41536835,-0.036339667,-0.014098238,-0.05610118,0.09745524,0.067569725,0.4227437,0.03798547,-0.80237204,0.44901228,-0.5744437,0.18245085,0.16121387,-0.65108913,-0.26379701,0.053146683,0.39676926,-0.016546732,-0.08948215,0.09932626,-0.020737514,-0.34417373,0.09994055,-0.30965614,0.44685668,-0.4732917,-0.06978142,-0.5215192,0.035399295,0.19047812,0.0049168356,-0.05943469,0.056842625,0.06278124,-0.06353482,0.03250734,0.033152565,0.12950082,-0.07981549,-0.30484396,-0.30862266,0.092067406,0.08686022,-0.5345772,0.26232132,0.02106267,-0.11259477,-0.17724015,0.041524976,0.4998909,0.5841275,-0.848374,-0.026689459,-0.19533335,0.28108212,0.20460233,-0.06487722,-0.4542119,0.514171,0.32488385,0.19760391,0.38064516,-0.0029802464,0.15126672,-0.26351944,0.6393842,-0.13768448,0.16135073,-0.16875495,-0.29963243,-0.11374214,-0.0046641733,0.0020009654,-0.018718595,-0.019177588,0.014940758,0.12555578,-0.5456637,0.030786604,-1.1896592,-0.53119045,0.47315398,-0.25988477,0.05521934,-0.6593028,-0.32166573,-0.52448034,0.042848583,0.509682,0.3099672,0.17484699,0.054721367,0.39149532,-0.037108973,-0.066821195,-0.02518022,0.024639253,0.029226623,0.51737565,-0.5864474,-0.22348045,-0.44697008,-0.48456234,-0.37945083,0.19184256,-0.25925773,-0.51470023,-0.49279416,-0.44182456,0.21544875,-0.31593844,-0.027487721,-0.5141503,0.45699197,-0.12401965,-0.019678114,0.046584196,0.26968318,-0.36892387,0.21342571,0.08114434,0.03839694,-0.03335723,0.13649532,-0.36132032,0.14376923,0.10295636,0.08821828,0.16751023,-0.06848474,0.03421423,-0.5902058,0.122149654,-0.51507497,0.0057540555,-0.2510601,0.44765654,-0.30914322,-0.1848639,0.25218827,0.13203083,0.40294987,-0.033218153,-0.33617505,0.09303656,-0.059184108,-0.3464245,0.17627214,0.119195536,0.45508432,0.044967543,0.09901342,0.041805856,0.1032364,0.010510998,0.047540113,0.16654302,0.36819696,0.6041559,0.02057405,-0.107375965,0.004913236,0.07644603,-0.4569941,0.03614239,-0.43274823,-0.5432466,-0.6925814,-0.046239708,-0.44311175,0.3512273,-0.37094986,-0.06956551,0.018592294,0.4030564,0.1320879,-0.08976648,-0.44186658,0.42821592,-0.048699073,0.3251305,0.22821766,-0.041764308,0.09876763,0.31926933,0.27123246,-0.15268774,-0.32491237,-0.55658805,-0.45330226,0.064606465,-0.01587926,0.37062177,0.68041325,-0.2849161,0.121713184,0.08656134,-0.41515797,-0.071563035,0.19898322,-0.047440562,-0.016224304,-0.4320147,0.16167003,-0.1440636,0.36752534,0.31426406,-0.18347397,0.03156165,-0.19121411,-0.14942807,0.089232974,0.29503337,0.15402406,0.015828947,0.34282097,-0.0016432713,-0.2830046,0.6714676,0.08537339,-0.24128576,-0.43580976,0.30563077,-0.25724673,-0.14566348,0.1674568,-0.29469386,0.0072312425,-0.17411341,-0.007912787,-0.4103758,-0.3969827,0.4958686,-0.2709362,-0.24052738,-0.21075721,0.58797556,0.24529758,0.17112316,0.03833167,0.35324094,-0.25220424,-0.0051033334,-0.11297941,-0.3803396,0.039576307,0.15038481,0.022743857,0.08742682,-0.68685395,-0.2690332,-0.4879148,0.41250354,-0.19936967,0.093604244,0.041609086,0.587083,-0.21658204,0.0101067545,-0.08066659,0.035908345,-0.43266085,-0.1082051,-0.18103573,-0.12635761,0.2926798,-0.3286397,0.008525863,-0.010026259,0.14817692,-0.03559748,0.027635729,0.03788741,-0.06863136,-0.03134228,0.032458454,0.015110062,-0.28296962,-0.008911648,-0.016504223,0.19917472,-0.2145323,0.029098753,-0.43158478,0.038100928,-0.70526415,0.4591277,-0.48777026,-0.5042021,0.44313505,-0.46065485,-0.55320156,-0.038116183,-0.27692407,-0.6156595,-0.1827587,0.12539308,0.17331399,-0.83483034,0.56062704,0.030819595,-0.39907935,-0.055885274,0.27449667,-0.55080634,-0.37465426,-0.3199552,-0.094767414,0.33331054,-0.531291,0.5963058,-0.10834074,-0.0043401294,-0.08417259,-0.64644784,0.4258237,0.02575185,-0.2510568,0.051686317,-0.17455801,0.014145249,-0.16730809,0.12065275,-0.88817656,0.052018162,-0.19602677,-0.6186308,-0.38234064,0.4125632,0.29947013,0.15527932,-0.010058813,0.369539,0.16045214,-0.42302686,-0.36728835,-0.08293848,0.53274834,-0.2790995,0.23469019,0.34459853,0.21692567,0.21829173,-0.13763572,-0.31238902,-0.4640581,0.23481253,-0.005114695,0.028235499,0.08925521,-0.3343919,0.4733666,0.010680859,-0.2770118,-0.22891086,0.14341915,-0.15429404,-0.45192847,-0.39438254,0.09700326,0.10480431,0.12392305,0.04005678,-0.42915058,0.3535167,-0.2901368,-0.20543091,-0.052798748,-0.40138865,-0.32516673,0.38662213,0.3192082,-0.23681994,-0.01515099,0.04911166,-0.4426158,0.5162585,0.22509988,0.07739654,0.24424149,-0.25276276,-0.50410956,0.063659355,-0.76922226,0.1190888,0.34380466,-0.16223283,0.24976267,0.02355096,0.28672317,-0.08956942,0.024597194,0.00418753,-0.002634698,-0.06963249,0.0012384421,-0.2971322,-0.03139778,0.1362649,-0.17512476,-0.29915875,-0.4119086,-0.08938055,-0.1487786,-0.19829138,-0.55716574,0.27552894,-0.11494487,0.3979142,0.19538043,-0.3637856,-0.013931801,-0.047447924,0.5355342,-0.13555568,0.038810745,-0.14803174,-0.19036788,-0.2930641,-0.15579802,-0.0047047124,-0.5706063,0.043570887,0.0014439244,-0.39219648,-0.9566827,-0.48539686,-0.43110633,0.103928104,0.06674883,-0.029422475,-0.07410661,-0.19358549,-0.09718846,-0.32029176,0.37293825,-0.36464384,-0.42084566,0.006833064,0.25804588,-0.012868234,0.24666955,0.06908091,-0.3375799,0.37895766,0.2830476,-0.43945563,-0.18181457,-0.084807284,-0.0071770446,-0.17008005,0.082715146,0.0397757,-0.18940699,0.08545451,-0.32114077,-0.062309437,0.27321726,0.43836787,0.08183657,-0.42924774,-0.07213002,0.12767006,0.0351111,-0.020226078,-0.3355366,-0.15816315,0.21283579,0.25961807,-0.44483197,-0.26456612,0.17688419,0.035269737,-0.41829422,0.067209944,-0.08874448,-0.55803764,-0.108128704,-0.51544935,0.009991585,0.29672226,-0.03981225,0.079039134,-0.3745854,0.20504048,-0.037784252,-0.67390674,0.07542045,-0.41993615,-0.17631523,-0.09654201,0.06688622,0.1749958,0.213819,0.1563292,-0.026051912,-0.06527581,0.1792336,0.17850819,-0.15523994,0.1628642,-0.32828686,0.024391308,-0.050358344,0.5973936,0.014018808,0.16708076,0.3109797,0.081101336,0.1175554,0.054080367,0.060582053,0.025172222,0.01377928,0.011840042,0.056567624,0.0757521,0.017404629,0.05011952,-0.0632266,-0.22746755,-0.16050199,-0.049304146,-0.505252,-0.2299447,-0.1836393,0.49417037,-0.22355853,-0.08996437,-0.41620648,0.004226448,-0.6046201,0.065865204,-0.06640701,-0.056638878,-0.06265873,0.20802167,-0.16647005,-0.020123892,0.10187989,0.08021798,0.168417,-0.039829362,-0.6619391,-0.6250398,-0.28650635,-0.29697278,0.28586218,0.029998098,-0.00393898,-0.32800892,0.0028966605,-0.24376813,0.09225212,0.12194503,0.082560256,0.07486724,-0.33367822,0.0010746528,0.11716702,-0.09242852,0.034720935,-0.064253554,0.45827907,-0.1538115,-0.17420414,0.56210756,-0.123069964,0.09447494,0.24715804,-0.048343778,0.0005446417,-0.33524758,0.090268664,-0.14591584,0.27508512,-0.053998783,-0.061579023,0.045058176,-0.45545647,-0.32000002,-0.03767809,-0.1167179,-0.24248683,0.15152034,0.43523017,-0.38028136,0.042836107,-0.028545858,-0.22081698,-0.41713136,0.38831156,-0.46430272,-0.23705074,0.23777835,-0.19972706,0.13797887,-0.41854995,-0.44338572,-0.40492126,0.50847995,0.10086759,-0.029273298,-0.18229578,0.075106986,0.41880527,-0.6749891,0.003802273,-0.038002025,0.21844491,-0.18559496,0.1792581,0.02183717,0.25005734,0.08126493,0.34145153,-0.16461541,0.025199465,-0.8318138,-0.015006673,-0.6177546,0.17312036,-0.40806568,-0.12876788,-0.042942096,0.12804228,0.011952565,0.027052589,-0.103896104,-0.16105983,0.016323473,0.027600061,-0.034696598,-0.027997889,-0.07819936,-0.08414352,-0.15938586,-0.28805998,0.35244238,0.37562066,0.098224014,-0.040001415,-0.0014290595,-0.17129384,-0.28101578,-0.39471638,0.5278484,-0.08089335,0.47559878,-0.92525923,-0.215775,0.16184928,0.027714038,0.096393324,-0.13605724,-0.25746104,0.16570504,-0.30063385,0.25313994,0.39653018,-0.21796983,-0.19557606,-0.045879822,-0.3196362,0.025719225,0.16995612,0.004796468,0.62023133,0.04928168,0.34155974,-0.13878319,-0.044187244,-0.17078896,-0.13891247,-0.30905193,-0.075841956,0.07022501,-0.06284181,0.006300099,-0.08085461,0.09358398,-0.052490953,-0.06170338,0.20525953,0.21668595,-0.7022582,0.59002185,-0.24847807,-0.7695398,-0.22644964,0.17097142,0.059746664,-0.29599804,0.004641814,0.48746753,-0.25245306,0.060062237,-0.17032024,-0.08721842,0.22464593,-0.106921844,-0.37607807,0.056684457,-0.20646533,0.36636245,-0.2747964,0.06448417,-0.39643127,0.37259322,-0.21969141,-0.15331493,0.024412494,0.50661755,-0.23177813,0.100565605,0.26231113,-0.22789747,0.15776177,-0.07268993,-0.33685604,0.38801798,-0.4034735,-0.05031515,0.40313065,0.24855034,0.76748174,0.16238,0.07816084,-0.43693927,-0.6791568,0.075307086,0.12048314,0.17889428,0.40172842,0.18865627,0.053534638,0.11053468,0.06192873,0.7249149,-0.3302228,-0.057920586,-0.106627144,-0.35727525,0.26158208,-0.16136315,-0.022935616,-0.31899238,0.038006384,-0.32611316,0.44163132,-0.0036364445,0.077478565,0.027375288,-0.072796054,0.06701046,-0.03538844,-0.65366805,-0.48056006,0.22511677,0.06521372,0.24007909,-0.057001498,0.015715552,0.31103414,-0.16185696,-0.15058284,0.38183713,-0.104173,-0.18064779,0.22656214,-0.5078543,-0.18322875,-0.039291866,-0.6184885,-0.46703416,-0.5998712,0.29886872,-0.27332467,-0.8675337,-0.17940122,0.045838077,-0.34168407,-0.020879243,-0.3090975,0.22036508,-0.11205423,0.2663831,0.31345847,-0.6357236,0.35737976,-0.5652023,0.08692308,-0.13729405,-0.08216242,0.0759877,-0.17167576,-0.37961572,0.20042768,0.0575879,-0.050081566,0.098731734,-0.060215067,0.4289698,-0.34881905,-0.4855685,-0.09346582,-0.046616185,-0.0580922,-0.3053525,-0.23509094,-0.1606898,-0.05952653,-0.19370323,0.05371231,-0.084391095,0.338095,-0.045795124,-0.08730186,0.17594403,-0.1848829,0.014363879,0.124702044,-0.03714501,-0.45214677,0.19635816,0.06535612,0.60304433,-0.23979712,-0.2301922,-0.48562518,0.018846853,-0.0772867,-0.13858129,-0.47779408,-0.2559548,-0.25076032,-0.19819659,-0.6025583,-0.42152914,0.13313095,0.067361884,-0.14391235,0.0009870193,-0.11400269,0.009650008,0.26952153,0.038561556,-0.049012817,-0.41291153,-0.70014447,-0.33453852,0.19710718,0.16622657,-0.04382829,-0.08220344,-0.29389393,-0.40333602,-0.0058769872,0.30759954,-0.10892907,-0.36892223,0.33430246,-0.7336368,0.07067756,-0.31513873,0.10225991,-0.20531172,0.48665038,0.29158807,-0.19377063,0.07608467,0.041619506,-0.0320213,0.056553554,-0.008268827,-0.034902222,-0.31231716,-0.09363196,0.30119696,0.6988825,-0.26951545,0.25680807,-0.062110953,0.28175256,-0.08005838,-0.63958454,0.56498826,-0.5758597,-0.13960892,0.3794162,-0.030249294,-0.4284966,-0.00044978943,0.5960446,0.03303087,0.21661678,-0.12180091,0.28414932,-0.120401464,-0.2348518,0.053449146,0.24321496,0.018197414,-0.12209534,-0.14343376,-0.40842378,0.2191048,0.16076829,-0.8087594,0.25890896,-0.6305587,-0.03911858,0.022260353,-0.1515498,0.0687387,0.32470036,-0.21558376,0.42357367,0.042343136,0.10874251,0.04504491,-0.29344565,-0.19401138,-0.37897727,-0.2755582,0.19421986,0.27003458,0.39629132,0.4078433,0.011437889,0.5180562,-0.062445443,0.2723551,0.30178484,0.017249009,-0.20112573,-0.068052515,-0.35534993,-0.0683516,0.2578715,-0.20049518,0.10361554,-0.5460506,-0.22346218,0.20290251,0.27176455,0.45549756,0.5977741,0.30013922,-0.42745596,-0.39284623,-0.4539443,-0.11471747,-0.05222664,-0.6688372,-0.041474048,-0.112121716,-0.2117215,-0.11332167,0.126923,-0.5195923,-0.2810936,-0.045834854,0.29369336,0.107651435,-0.30901176,0.12240843,0.034479667,-0.3987328,-0.16235144,-0.4964601,-0.20133185,0.42875102,-0.3230234,0.07464934,0.24847004,-0.18089166,0.06480679,-0.28180245,0.35133576,-0.21521667,-0.28120875,0.18237345,-0.12624301,-0.3867044,-0.15743954,-0.07298324,-0.16027525,-0.25365368,0.37037048,0.039113488,-0.060172852,-0.06552888,-0.08358892,0.0076492885,-0.07361038,-0.6313054,-0.25644442,0.26665044,-0.11768302,0.13151594,-0.3702414,-0.048242636,-0.3086295,-0.48484492,0.07035971,0.008962047,-0.13213621,0.32985333,-0.20337237,0.121183164,0.17296325,0.027424559,0.17263484,0.048032638,0.13908018,-0.039963633,0.035138175,-0.32046676,-0.11595551,0.209888,0.16261138,0.02654438,-0.011158102,0.021028707,0.20876375,0.08007188,0.110520564,-0.5611116,0.28739807,0.1282396,0.020561172,-0.3440852,0.05739428,-0.035018962,-0.37325877,0.10439043,-0.8281123,0.016864143,-0.22556695,0.03661081,-0.06916441,0.1852715,0.25572184,0.3608066,0.093067795,0.25659153,-0.07515606,-0.5665403,-0.24050663,0.26112184,-0.07648601,-0.34004173,-0.31579363,-0.23389164,-0.09267445,0.06663082,-0.056924064,0.4620922,0.03188145,-0.23662099,-0.20089373,-0.08773797,-0.14815487,-0.23612094,-0.13095443,-0.24622978,-0.33894593,-0.16996075,-0.114921495,-0.3690678,-0.35214382,-0.1668233,0.11958528,0.05831221,0.10988247,0.42025003,0.039654326,-0.26706618,-0.7064399,-0.025419986,-0.32783428,0.006004955,-0.043871444,-0.07368455,-0.0715514,-0.9422664,-0.011959244,0.03330318,-0.57797015,-0.2979694,-0.0002039925,-0.33210272,-0.04933403,0.17492825,0.33307475,0.33219147,0.06792651,-0.4222544,-0.3388342,-0.21638104,0.4758086,-0.44612676,-0.13174787,0.41249618,0.16349459,0.24267805,0.02589063,-0.44040236,-0.47600403,-0.042211838,-0.07232166,0.0117788585,-0.066697344,-0.020644646,0.00028465842,-0.103892736,0.033177756,0.12654077,0.29422987,-0.30562526,-0.5350009,0.018348604,-0.2429096,-0.14549397,-0.001090629,0.19168776,-0.4845251,-0.035034154,0.022780193,-0.34328082,-0.026268309,0.08926483,-0.095812954,-0.31512874,-0.25307733,-0.041073047,-0.87250245,-0.45144773,-1.0273635,0.18933776,-0.22857256,0.03589546,-0.38056713,0.013674087,0.30405852,0.088494435,0.21803637,0.08624358,-0.24536054,0.01345254,-0.04485292,-0.37808588,0.08133178,-0.47925308,-0.08922077,-0.30412477,-0.08300267,0.012544742,0.09690539,0.12307007,-0.21198064,0.13576095,-0.052923772,-0.42896083,-0.7128024,0.4875923,-0.8131789,-0.28432408,-0.2862305,0.075948425,0.044357967,-0.07782418,-0.3541393,0.29683983,-0.2324289,-0.05033935,-0.6709208,0.22897036,0.19742414,-0.49353728,-0.6751933,0.6023317,-0.3362036,0.57646215,0.15668666,-0.5725213,-0.07509361,0.2275527,-0.07830132,-0.34478465,0.37843654,-0.029916676,-0.04929632,0.21221007,0.08737117,0.38223016,-0.13173114,-0.6569905,0.15205723,0.114013396,-0.043973807,-0.0068442114,0.27278545,0.35987028,0.54244053,-0.2160841,-0.034317695,0.5049068,-0.24706037,0.021258892,-0.102168486,-0.05300134,0.112418264,-0.48803616,0.034686405,-0.11526789,0.37216735,0.42388868,-0.67682534,-0.26122302,0.15311,-0.040503066,-0.10240196,-0.0888067,-0.5810605,-0.5303219,-0.081304885,0.43538043,0.1556607,0.12563278,-0.06891346,0.06085368,0.042198386,-0.06034813,0.05348372,-0.17565134,0.028796196,0.13904417,0.4377043,0.14008363,-0.068796135,-0.07268976,-0.015002537,-0.25878796,-0.7050049,0.2056202,-0.10044288,0.35109454,0.09881056,-0.22978532,0.110157944,-0.073614836,0.3809339,-0.22723782,0.23295607,0.12542252,-0.05203704,0.2476245,0.35512322,0.09828587,-0.10765235,0.098672,-0.77241576,-0.04207788,-0.5846102,0.31779957,-0.04212035,-0.6081239,0.24435133,-0.99426347,0.05051049,-0.14134336,0.2184036,0.16385514,0.29298773,0.31436446,0.045589387,0.027725391,0.18152586,-0.74504185,0.25700477,0.6916481,0.109204695,-0.10180916,-0.18573679,-0.15236671,0.4356892,0.0646945,0.22850321,-0.45790914,-0.048778944,-0.22144833,0.4092723,0.15490325,-0.011804546,-0.037449095,0.06934179,-0.1447287,-0.7681277,-0.24323496,0.11863832,0.26204255,0.052006997,-0.34876415,0.42224294,0.2549609,-0.73679626,0.37111187,-0.6916818,0.22042574,0.09368752,-0.43125215,-0.5290656,-0.97800237,-0.38779852,-0.14019315,0.23037253,-0.17423277,-1.1099607,-0.007829018,-0.14794374,0.09387054,0.249668,0.11714,0.19806483,-0.0020989042,-0.017002497,-0.18579479,0.031355627,0.28678617,0.021051768,0.28099272,-0.5859782,0.12509984,-0.31891653,0.01660737,0.079053484,0.3353005,-0.0172377,-0.050155573,-0.6308547,0.25213704,0.04509699,0.15762527,-0.06861161,0.078020096,-0.19706947,0.19601393,0.25229383,-0.038789704,-0.07192011,-0.016688695,-0.033095967,0.002926958,-0.054522708,-0.43003598,-0.14933826,-0.37777236,-0.25389075,0.35212052,-0.54307693,-0.021910286,-0.2126534,-0.40818784,0.20401356,0.091867074,-0.11249602,-0.14419428,0.19292049,-0.027397245,-0.23685841,-0.06958432,-0.09812381,-0.33181894,-0.47720993,-0.19608259,0.157314,-0.19485578,-0.116655596,-0.18333702,-0.24371144,-0.054989792,-0.06376119,-0.5742328,0.0140469065,0.02562343,-0.052672107,0.032810215,-0.4942553,-0.33450857,-0.00028502027,0.5665816,-0.27056104,-0.18550926,0.14640829,-0.13857669,-0.6526567,-0.019146636,-0.3940865,-0.05739084,0.12692703,0.14277427,-0.5514339,-0.11588346,0.25677246,-0.7002163,-0.15220968,-0.02948512,-0.022215,-0.39756587,0.055434726,0.16708662,0.09207253,-0.70111656,-0.07282956,-0.079759195,0.37670198,-0.26495504,-0.12242358,-0.26010388,0.20251714,0.06438482,0.028654879,0.05112158,-0.09250636,-0.4510289,0.07596556,0.34806764,0.24503157,0.07566741,-0.14070703,0.07497367,-0.28215325,-0.15758966,0.14174147,-0.16715467,-0.9298114,-0.07256201,-0.3477558,0.1659019,0.0018119065,0.018631803,-0.3098356,0.24977554,-0.44064325,-0.124403864,0.056086164,0.24245203,0.12298606,-0.15133806,0.27273154,0.11446784,0.59431535,0.13621472,0.0027801075,-0.061551735,-0.20264542,0.07712103,0.2664547,0.31381378,-0.5633128,0.29787296,0.010612428,0.5627594,0.10495639,0.00030867112,-0.18689099,-0.73592716,-0.13760108,0.10795081,0.0039149965,-0.049174804,-0.071324416,-0.024284806,0.059788756,0.057071783,-0.25453383,-0.33722365,0.119289264,-0.13188075,-0.48433197,0.03558954,-0.46907705,-0.24089243,0.36206335,0.083804876,0.09031051,-1.0125276,0.1070489,0.13638146,-0.03412597,-0.017396277,-0.26859286,-0.18056487,-0.046154633,-0.42640325,-0.28251836,-0.47117576,-0.6353529,-0.21543665,-0.28011274,-0.046841364,-0.3833235,-0.23861775,-0.2933446,0.25258535,0.29928294,0.052000396,-0.007908277,0.26340878,0.011763018,-0.1252295,0.21659566,-0.35960153,0.060654838,0.097859986,-0.04264539,-0.021508314,-0.26382166,-0.28990033,0.002748475,-0.16299541,0.52565163,-0.040001336,-0.113508254,0.27116534,-0.27690434,-0.042528156,-0.0436309,-0.5490107,-0.011729629,-0.00061024143,-0.068883814,-0.47183862,-0.079021074,-0.0603334,0.25183535,0.3519642,-0.84017074,-0.660723,0.06920634,-0.61814183,0.29700065,0.23197645,0.063588895,-0.34023103,-0.022058865,-0.23865935,0.12875238,0.2333745,-0.0047184555,-0.2737033,0.058550455,0.08396235,-0.2149078,-0.030902805,-0.34994218,-0.13475925,-0.07556611,-0.36056495,-0.03746042,0.08251805,0.25587362,-0.53624856,0.01838248,0.36290407,0.042576093,-0.11854779,0.16246442,0.13159476,-0.15952541,-0.11026409,-0.06664412,0.14040308,-0.22300065,-0.3772351,-0.0040160613,-0.20272008,-0.10458314,-0.0055913418,-0.09405759,-0.2581724,0.42878136,-0.09215348,0.051494475,-0.7637189,0.25780463,0.17630458,0.23480846,0.015557994,-0.06804648,0.047086805,0.054251935,-0.03142253,-0.043812364,-0.41671252,0.12433671,0.4041196,0.559064,-0.28515586,-0.4070758,0.0037942554,-0.036439527,-0.48608878,-0.086900905,0.016791755,-0.086432435,0.15943642,0.16209604,0.02533561,-0.6438635,0.057031393,0.21647486,-0.29446512,-0.289407,-0.27505115,0.19332111,-0.06734865,-0.0973757,-0.09882421,-0.015323623,0.071867116,-0.8381472,-0.3931669,0.01781934,-0.074785635,-0.24962346,-0.033789515,0.22677907,0.09603982,0.025322627,-0.021476023,-0.06828748,-0.032680295,-0.024053346,0.9969232,-0.13625592,0.0905737,-0.17358024,0.4445189,0.19952664,0.038115684,-0.30860448,-0.22635823,0.08757144,0.21575771,0.08339162,-0.19029115,-0.4503408,-0.36391175,0.05951169,-0.5919006,0.10045586,-0.24378674,-0.6684246,0.025755579,0.2914841,-0.17391321,0.06600917,0.061980262,0.10870678,0.012015381,0.44982138,0.5755345,-0.20140529,-0.04218104,-0.3118665,0.22696277,-0.4135724,-0.10394791,-0.14428358,0.049291644,-0.47816196,0.28524697,-0.19042337,0.29058266,-0.7957499,-0.058412433,-0.60204655,-0.12149118,-0.33183852,0.08110349,0.13560551,-0.39522976,0.13698295,-0.29103366,0.036324505,-0.06644022,0.11357668,-0.010833567,0.07331458,-0.3599761,0.05780119,0.2578296,-0.09637151,0.30941477,0.12760806,-0.26583415,0.30090243,-0.30518678,-0.17369595,-0.27689695,-0.37414703,-1.1679084,-0.30096012,0.24714193,-0.0042994316,-0.1195091,-0.23555468,-0.029061722,0.011934373,-0.028699316,-0.03697421,-0.0035432999,0.06190212,-0.18346749,-0.5936469,0.26675034,-0.54558116,-0.11828891,-0.41112724,-0.06384548,-0.04068157,-1.1642193,0.23418882,-0.2999027,0.24431297,0.30798545,-0.42401597,0.35137078,0.11367969,0.039120622,0.16087909,0.46270645,-0.47744575,0.23779704,-0.4427884,-0.5620478,0.30533224,0.3114896,0.25045544,-0.07866823,0.3808692,-0.20782259,0.34104016,-0.57148653,-0.1557679,0.038698234,-0.21407105,0.70134574,0.043832287,0.19505517,-0.26863483,0.19568403,-0.49194774,0.17345363,-0.7471467,-0.06817974,-0.31522548,0.2995323,0.018716877,-0.050626043,0.2920038,0.26355052,0.33039677,-0.21848956,-0.0022788376,-0.18438947,0.021980014,0.08784079,0.029747112,-0.15143721,-0.23387969,0.21925046,0.068757564,0.032695167,0.010648855,0.43952024,0.12629867,0.8707779,-0.12653142,0.31638435,-0.67653096,-0.16553521,-0.033867277,-0.19672129,-0.11673464,0.41602585,0.0054465337,-0.6627943,-0.9238441,0.32396373,-0.52012956,0.3860949,0.8012025,0.60141927,0.02699728,0.14243926,-0.76509154,0.49216503,-0.025667321,0.0040647616,-0.38901487,0.10757509,-0.51698464,-0.4127164,-0.07423899,0.30453697,-0.8227162,-0.41396868,-0.00830658,-0.1160418,0.26110238,0.32817173,-0.2915647,-0.27049297,0.16258194,0.39536673,0.56011736,0.17807421,-0.14455228,-0.19369198,0.26058498,0.13705611,-0.044725314,-0.15654632,-0.028031535,-0.10475214,0.07343008,0.025459405,0.04538269,0.038581897,-0.015667832,-0.08130065,-0.050022166,0.14313774,0.14332083,-0.20032176,-0.26559874,-0.20289543,-0.1275367,-0.05600289,-0.034056257,0.16615433,0.2713566,-0.24548656,0.34483078,-0.7760741,0.0025153975,0.1942856,0.34789908,-0.054621495,-0.0062703225,0.34146035,0.11318175,-0.5701923,0.62099457,0.3151677,-0.03452736,0.2921253,0.07515447,0.020055693,-0.062103834,0.05969252,0.15665302,0.31622833,-0.5115495,0.5228575,0.30214712,-0.73326683,0.007907929,-0.057833288,-0.20979726,0.15278311,-0.27684897,0.23582685,-0.3141376,0.10222371,-0.31193224,-0.58714217,0.09408741,0.20215006,0.5188409,-0.01580705,-0.13899267,0.094327636,-0.2584533,0.1524428,-0.044436775,-0.2010044,0.041507844,0.07585533,-0.17182533,-0.39843044,0.3247029,-0.024116276,0.18473278,-0.5877069,-0.51043683,-0.22922394,0.12670828,-0.9427841,-0.12102891,0.030706037,-0.22448663,-0.038854875,-0.20800865,-0.83690166,-0.1722816,-0.38751152,0.2919642,-0.6321636,0.64051586,0.023787709,-0.20995525,-0.02185713,0.11692547,-0.009682713,0.31835347,-0.13115875,0.43132386,-0.0028903547,0.24130133,-0.3178496,-0.0155690955,-0.09343789,0.066340186,-0.44626567,0.2294061,-0.22036648,-0.2906616,0.051357932,0.18621096,-0.55772096,-0.6528025,0.07620027,-0.3810467,-0.009879112,-0.2025621,-0.05586688,0.31777763,-0.31096908,-0.18385775,0.14105223,-0.21528694,-0.026012434,-0.0036616356,0.14097431,0.50243646,0.009467489,-0.018945193,0.022053905,0.03803774,0.06661806,-0.028421104,-0.11700521,0.20726919,0.4933992,0.22549124,-0.12209771,0.30666468,0.041294042,0.016605878,0.06855278,-0.08333469,-0.4608688,-0.15463871,0.05201005,0.28070158,0.15223083,-0.07759393,-0.013277811,0.27537814,0.10967175,0.33278707,0.26245314,-0.09966028,0.54588705,-0.09610784,0.33230376,0.27709717,0.098714456,0.23763318,0.08420301,0.046653755,-0.054819457,0.0153366905,-0.52717835,-0.18959993,-0.1504853,-0.041263968,0.20190537,0.40451318,0.25482103,0.39918932,-0.2178055,-0.05242398,-0.043690123,-0.11375963,-0.16434342,0.13117355,-0.1670567,0.08862407,-0.023095155,0.2803471,-0.26902664,0.048946835,0.13440263,0.3228007,0.21838911,0.020080974,0.07100655,0.4001702,0.046701174,0.114480816,-0.068296395,-0.051845662,0.1806953,-0.101405196,-0.11137944,0.077072084,-0.734371,-0.35829553,0.3925864,0.04395578,-0.102093756,0.23109783,-0.032878395,0.22596888,0.0071588317,-0.23020697,0.45363295,0.37218082,-0.8771394,-0.48730212,0.26976824,0.54421794,0.122850485,0.22366913,-0.07802928,0.27689636,0.10560941,-0.393264,0.08222663,-0.08110814,0.08251453,0.06728014,-0.010167151,-0.901067,-0.15876262,-0.471171,0.07543463,-0.63646376,0.29817533,-0.92580503,0.1719566,0.17213972,0.18057463,-0.17859668,0.15816501,-0.36293197,-0.4065095,-0.8479269,0.040534645,0.32310432,0.11560615,-0.5607592,0.36324415,-0.30578223,0.07282144,0.05764922,0.047965597,0.023755169,0.107676975,-0.08606786,-0.36380932,-0.25250754,0.13620788,-0.7837132,-0.19686979,-0.50067735,-0.079421036,-0.045612343,-0.09973151,0.29129407,-0.18342951,-0.124754325,-0.08371979,0.50615317,0.028697334,-0.24389689,0.056867246,0.09250991,-0.24431236,-0.28309524,-0.12818006,-0.67742664,-0.16984256,0.26476416,0.11575638,0.09433129,0.0768457,-0.18968469,-0.7463805,-0.10633177,-0.4656498,-0.026290936,0.25065732,0.09859543,0.05864506,-0.02152915,0.24832347,-0.43294114,-0.1539637,0.19728969,-0.03180286,0.12136474,0.03134419,-0.20293297,0.0630337,0.0915561,0.36266243,0.07975589,-0.16220991,0.04637736,0.39142495,0.08031939,-0.36184117,-0.38231075,0.24118958,-0.06862555,0.17287098,-0.32663232,-0.15298057,-0.10666596,0.024847887,-0.10571936,0.455894,-0.024901852,-0.50730026,-0.46935108,0.2516315,-0.029053655,-0.075748645,-0.45347476,-0.53899723,-0.091092855,-0.048693508,0.021041123,0.11556076,-0.21233177,-0.17120108,0.20819068,-0.09802504,-0.077500254,0.2674262,-0.69284713,-0.09343761,-0.13241069,0.081741,-0.08500664,-0.0024466177,-0.5980539,0.08164135,0.11444597,-0.21365541,-0.02033273,-0.03888088,0.11196896,0.43131557,-0.07154711,-0.49851462,0.41447914,0.38826588,-0.3893723,-0.25500828,0.064493045,0.1274462,0.42664608,-0.17397459,-0.083763905,-0.33962741,0.063103095,-0.45494226,-0.35104015,0.12651376,0.16414337,-0.4231015,0.207023,0.05544598,-0.008377719,-0.00048544302,-0.10209642,0.042850558,-0.088457875,-0.4479198,-0.23205596,-0.0001117709,0.18873003,-0.6721817,-0.296683,-0.0066727074,0.013266027,0.109901406,0.1257043,-0.33890182,-0.20681237,-0.72179276,0.13756357,-0.3344005,-0.067430295,-0.06420212,-0.04328663,-0.026738837,-0.12582852,-0.15657121,0.041017175,-0.45494372,-0.20774539,-0.09094768,-0.028147552,0.027217375,-0.07417218,-0.014795809,-0.038244296,0.35165247,-0.56133825,-0.07244226,0.19434935,-0.066373944,0.0047220197,-0.18930851,-0.5172315,-0.41030583,0.5602481,-0.05911255,-0.66140175,0.0747047,-0.12129553,0.017047098,-0.14867768,0.19442491,0.16780347,-0.030555146,-0.25305673,0.004922997,-0.045720503,0.108345695,-0.099651664,0.10392115,0.1247102,0.11453467,0.012054998,-0.1298848,-0.20771764,0.09415104,-0.19543082,0.266154,-0.028683085,0.04651966,0.12071808,-0.54445505,0.1911486,-0.12212624,-0.13396837,0.18389966,0.041513145,0.06357736,0.07689133,0.26883122,0.047120333,0.15573059,0.28629014,-0.09290594,-0.2868168,-0.5428354,0.2555415,-0.27217588,0.13316868,-0.4204048,0.64818776,-0.066377565,-0.0548231,0.14297123,0.14606534,0.13409598,-0.054372683,-0.24868852,-0.1876946,0.036047384,-0.47754756,-0.05556135,-0.22031672,0.06035465,0.12285709,-0.34809726,-0.47402433,-0.24919935,-0.4492442,0.04626028,-0.11469686,0.049803264,-0.18882942,-0.0028471989,0.37812388,0.30824563,0.52149785,-0.50167745,-0.5228231,-0.04157342,-0.072327286,-0.050134167,0.037287332,-0.100284584,0.05760828,0.07718437,-0.40920138,0.25695235,-0.581087,-0.4454541,0.022339188,0.038541183,-0.5631626,0.17560703,0.3190205,-0.033949964,0.4082965,0.13624763,0.26047456,0.36190516,0.36454603,-0.083468385,-0.02796356,0.16025482,-0.34511894,-0.5011466,-0.268153,0.1092362,0.04187054,-0.066514544,0.14098807,-0.0024377562,-0.61296713,0.07527033,0.6593052,-0.2582845,0.5331611,0.3489034,0.34641436,0.60151523,-0.0740168,0.3050074,0.03290301,0.4411026,0.099088825,0.17718208,0.106211476,0.063597314,-0.17539705,0.2657938,-0.8137079,-0.6756973,0.23981081,0.0054811686,-0.3801402,0.27911076,0.06479197,-0.03024317,-0.6645851,0.09967418,-0.0068884627,-0.39711624,-0.24148738,-0.2373528,-0.13803355,0.06499321,-0.91848254,0.41878194,-0.11503311,0.012086677,-0.43485743,-0.18928471,-0.18544881,0.078519255,0.003880976,0.080789804,0.63340414,0.24523394,0.40605065,-0.35200635,-0.4307083,0.30741566,0.11962588,0.28239238,0.12499156,-0.0068747485,0.18166815,-0.35066187,0.033060893,-0.11263213,-0.23943147,0.0026163252,0.12259766,0.0053253933,0.27482492,-0.44067147,0.031249318,0.274565,-0.46541318,-0.20826195,0.124406025,0.1844743,-0.39462963,0.21127066,-0.5085303,-0.3979877,0.07729047,0.02999325,0.07208169,0.28014138,-0.12206172,0.51837134,-0.3492113,-0.096056364,-0.10083984,-0.08851876,0.29599628,-0.42838642,-0.036502205,0.04471328,0.053562045,8.650466e-05,-0.00072784047,0.04216492,-0.08740047,0.2462627,0.16288069,-0.26829115,0.14967604,0.50246686,-0.8848436,0.089081556,-0.5901786,-0.11875304,0.62654585,0.02852632,0.504332,-1.2937781,0.2642597,0.22993702,-0.8545751,-0.078141145,-0.37206915,-0.54759973,-0.28924623,-0.5100711,-0.36300904,-0.16746618,-0.6498201,-0.1871484,0.12369903,-0.078133844,-0.4614637,-0.3423078,0.18383028,0.33864063,0.5430284,0.04956812,-0.049897544,-0.27072275,-0.060106408,0.38516217,-1.0172604,-0.6320527,0.044637837,0.23743331,-0.19029075,-0.040976398,-0.8943749,0.35243464,0.22013643,0.33346543,-0.061518554,-0.26583183,-0.20853102,0.46234462,0.06500622,-0.06946038,-0.22559528,-0.76199,-0.048544254,-0.28588703,-0.29720095,-0.6810829,0.2712396,0.07019388,0.10426594,-0.23097266,-0.23755871,-0.83643204,-0.044863354,-0.58148617,0.39016014,-0.11276594,-0.2907222,-0.12735152,-0.37359774,0.40090552,0.15532872,0.07973707,0.01698421,-0.09559768,0.0903967,-0.26816547,-0.06717891,0.12401909,-1.1336942,0.34365797,-0.40878424,-0.10723491,0.039065156,0.059601933,0.28865635,-0.4788662,-0.10105615,0.06348096,-0.052053887,-0.4292688,0.5067561,0.24243017,0.33986503,-0.46477243,0.3148065,-0.27742174,-0.44673395,0.39565668,-0.39417416,-0.5654687,0.5094556,-0.22385179,-0.12549938,-0.3467494,-0.27644613,-0.15817754,-0.33348468,0.03161348,-0.32780915,-0.72680944,0.19930601,0.05253867,0.051972535,0.02907403,0.08424422,0.017216066,-0.08464699,-0.12180988,-0.046086393,-0.34518048,0.06883164,-0.4798619,-0.7007077,0.012025789,0.34015808,0.12397202,0.12843625,0.26462194,-0.37441945,-0.70223874,-0.11807606,0.36390615,-0.26654622,0.027007146,-0.0035020206,-0.27328423,-0.012237222,-0.079064526,0.24345265,-0.17804542,0.06007241,0.10863934,0.2049867,-0.0058047995,-0.11442287,-0.06546903,-0.13914816,-0.61133736,-0.8650552,0.015553931,0.41198623,0.22286312,-0.06476156,-0.31935814,0.0030913842,0.3767183,-0.47861552,-0.018038264,-0.120599814,-0.0076983217,0.04319611,-0.5679075,0.007784278,0.5577489,0.07198617,0.4166855,0.19045798,0.076484084,-0.9624501,0.19284247,-0.11707184,0.2992923,-0.08668908,0.30675098,-0.60209,-0.12050546,-0.03699151,-0.027497351,-0.18683265,-0.53856224,-0.11699277,0.5303286,0.5655229,-0.07569037,0.105319396,-0.062372576,-0.76014584,-0.1308441,-0.69135714,-0.8023213,0.35437626,-0.043387078,0.4625258,-0.5460429,0.32936954,0.2383451,0.25547662,-0.2859898,-0.008024063,0.16722633,0.21918987,0.23530695,-0.09516375,-0.034287803,0.21909744,-0.34582007,0.33513612,-0.06278171,-0.08717991,-0.411891,0.17691663,0.0057547744,-0.11301798,0.29300582,-0.370787,0.050167788,0.31472686,-0.55929047,-0.3356416,0.26482946,0.16000994,-0.48551548,0.21857952,-0.31321666,0.45539808,-0.12883,-0.102097176,0.049957205,-0.10070547,0.1516599,-0.39194936,0.03834365,-0.062744,0.020456498,0.007865995,-0.057321243,-0.07525272,-0.021867855,-0.16930021,-0.8123235,0.099917,0.09809707,-0.1458537,0.026614241,0.24303795,-0.14215538,-0.52041346,0.1264858,0.14703037,0.23989454,-0.4455229,-0.5395602,0.37668097,0.05697137,0.050231792,-0.46079573,0.25692013,0.36530516,-0.13462768,0.17419901,0.04515988,0.07096706,-0.44474113,-0.003664124,-0.23685619,0.043333933,-0.27001655,-0.23524652,0.0672318,0.36684743,0.5647703,-0.4547903,-0.04813572,0.073384106,-0.19441725,0.38770103,0.31983897,-0.28791785,0.10627944,0.011999878,0.54826343,-0.42238554,0.044928662,-0.03787082,0.20611717,0.16514832,-0.7028587,0.30347085,-0.008371781,0.22853914,0.22813241,0.33230034,-0.037660357,0.1272997,-0.14796071,0.124928296,-0.5249029,0.028052341,-0.06632814,-0.2475987,-0.047348455,0.09474343,-0.15474671,-0.37348846,-0.04819405,-0.6302076,0.2574315,0.1959053,-0.3060384,-0.056941442,-0.16117743,0.17737289,0.33522367,-0.49432018,0.6021696,0.032978293,0.28772897,0.02468949,0.10214048,-0.24815334,0.25507724,-0.1647087,0.13475397,-0.016714215,-0.11230281,-0.2117632,-0.07137255,0.05626923,-0.023414541,-0.4520902,0.17100084,0.1809307,0.19915906,-0.67210615,-0.23817296,-0.19201131,0.047587097,-0.25781912,0.16686462,0.5160997,-0.12063248,-0.4423863,-0.100898564,-0.75967276,-0.054539464,0.23630525,0.36255544,0.4936259,-0.46300483,0.1914223,0.18781784,-0.052273396,0.04109623,0.0145278135,0.07206634,-0.05626681,-0.06949916,-0.48689497,0.43106666,-0.3314901,-0.40370974,-0.7897754,-0.16407739,0.092181705,0.0421499,0.30792186,0.41033527,0.18643141,-0.31501067,-0.31776312,-0.03150826,-0.37082195,-0.15200123,0.07167826,0.11185793,-0.22245952,-0.15530895,0.29545635,0.52979666,-0.5026021,-0.16033608,-0.30650884,0.032852124,0.09932596,0.054007687,0.1643088,-0.5349115,0.20125486,-0.27027583,-0.22674349,0.02380916,-0.45382297,0.10157487,-0.44987375,-0.23401833,-0.28390992,0.1016576,-0.51205194,-0.0101785995,-0.048873108,0.20394461,0.1338393,0.109164834,0.18378443,-0.040084057,0.011852751,-0.12593053,-0.075503975,-0.26687992,0.114096224,-0.09414268,0.030512882,-0.05520253,0.4322982,-0.05503858,0.19059226,-0.18072483,-0.09975129,0.5038667,-0.017566754,0.16070232,-0.26570347,-0.08195192,-0.0962521,0.25222254,0.13810802,-0.72352415,0.49877572,0.04822842,-0.31860682,-0.4308654,0.13579692,0.44749856,-0.27424985,-0.23104748,-0.15171437,-0.26738083,-0.14790806,-0.2610099,-0.0036098128,0.23069082,-0.5162558,0.11484548,0.0125055965,0.05584451,-0.19546829,-0.12893851,0.24515517,-0.010931084,0.29349706,0.41861558,-0.011821252,-0.11715454,-0.0138575705,-0.13176174,-0.7790933,-0.23004147,0.10204801,0.02958224,0.38249207,-0.27812114,-0.47049308,0.278396,-0.10228578,0.028627796,-0.10731739,0.13028799,-0.0013092927,0.30412024,0.42572698,-0.36104217,-0.020223055,-0.065800615,0.042487446,0.05437039,0.042420957,-0.047733903,-0.27742648,-0.1696544,0.47121543,0.28959006,0.12035454,0.24851644,0.0888251,-0.111571625,-0.018845217,-0.42703727,0.3626037,-0.09600373,-0.12312301,0.20246851,0.013329377,-0.040911485,-0.051226318,-0.018776916,0.060464136,0.1735243,-0.130231,-0.12295663,-0.18287744,-0.018658087,0.045492098,-0.34805146,-0.050815497,0.1640343,0.08880311,-0.5449875,0.31436658,-0.028243072,0.32994643,0.25990322,-0.08467862,0.029740117,-0.07700374,0.32879433,-0.036518034,0.25165868,-0.1832135,0.50460744,-0.0013982012,0.47491392,-0.14899138,0.081376515,0.01491682,-0.41403913,0.39128855,0.120447084,-0.18931556,0.16875665,-0.025683725,-0.16310455,-0.026226964,-0.027112687,0.0635988,-0.21937734,-0.26953557,0.115235366,0.006447668,-0.23417522,-0.082632326,0.654955,0.013254745,0.5228639,-0.53747666,-0.14296365,0.33491963,0.27636582,0.59139764,0.10745184,-0.18234764,-0.68389505,0.5826902,0.69477797,-0.011873246,0.21885271,-0.71221584,-0.58058786,-0.57375944,0.05339341,0.2300572,0.41084215,-0.27115074,0.20197153,0.07367041,-0.42422467,0.1995556,0.0010751389,0.3370282,-0.014194097,-0.08253811,-0.01224226,-0.013821279,0.09093019,0.17283943,-0.7179223,-0.19168366,-0.022275638,-0.1150601,0.19674507,0.35628796,-0.06072704,0.32817683,0.123978645,-0.14266875,0.34438822,-0.25410363,-0.06750223,-0.39444715,-0.16718748,0.25486794,0.40231666,-0.0700943,0.02447696,0.051326726,0.08538968,-0.051067624,0.046069477,-0.19147266,-0.3403866,0.36457974,0.47297168,0.27831668,-0.1238351,-0.03124908,-0.48129115,-0.124783285,-0.17166139,0.45469347,-0.007846843,-0.09821439,-0.065552235,-0.3079681,-0.07078412,0.012244939,-0.0693073,-0.21634498,0.18142748,0.20116732,0.07766714,-0.14026979,0.28197223,0.14912719,-0.25033635,0.07255695,-0.17180064,0.054170325,0.012312976,0.32160425,-0.19317442,0.23996148,0.2730458,0.0076844404,0.0049628695,0.05806542,-0.4268512,-0.5690532,0.2519909,-0.3528551,0.16777538,0.038131706,0.22068803,0.0495406,0.076817945,0.008325333,-0.46739948,-0.19182822,-0.3778076,0.6909942,-0.15829983,-0.11115222,0.057529617,-0.0374327,-0.050245564,-0.09863497,0.10447366,0.27023426,0.010865005,-0.0051831524,0.28332242,0.20527361,-0.2863897,0.08543949,-0.17127374,-0.13836643,0.20591673,-0.32069096,0.02753552,0.0914671,0.52565426,0.028888369,-0.36136565,0.4664632,0.38517368,-0.27652413,-0.022673458,-0.23972635,-0.22692063,-0.48943254,-0.20624542,-0.44518176,0.33820772,-0.2116025,0.22399251,0.0013323489,-0.11646848,0.1902022,0.4291318,0.13528612,0.03986166,-0.27253357,0.036502317,0.36713457,-0.7402894,0.17113733,-0.34795257,0.38449728,-0.14738463,-0.25765747,0.1828609,-0.19926113,0.50059384,-0.2681609,-0.31972438,-0.35469812,-0.36228478,0.24105057,0.116509065,0.21165551,0.19901793,-0.3117098,-0.15681264,-0.0025052927,0.071734086,-0.04184234,-0.10944171,-0.05207312,-0.05672812,-0.21332282,-0.07434713,0.25167465,0.06584131,-0.8102965,0.07590091,-0.010228351,-0.033583168,0.33417094,0.41009068,0.13946326,-0.81512946,-0.47891843,0.24393524,-0.22817802,-0.33603257,0.046838745,0.031302635,-0.44341952,0.0948644,-0.24218404,0.28909385,0.12871006,-0.14956638,0.23262931,0.19338052,-0.037061714,-0.3139838,-0.06013833,-0.18235935,0.116678044,0.004066294,-0.259878,0.061684713,-0.1817916,0.0978268,-0.10547387,-0.2932798,-0.8105022,0.082640775,-0.089828186,-0.35878646,-0.009472098,0.16424192,0.024352191,0.124178104,0.4757773,0.14631201,-0.052777246,-0.15413208,0.28416693,-1.1056565,-0.12559585,0.03974147,0.24307027,0.042701155,0.5103195,-0.34496307,0.24466303,-0.53534544,-0.030073255,-0.3630456,-0.020717949,0.13381946,-0.22047429,0.016207533,-0.38570338,0.19205157,0.4979483,-0.16300339,0.1705697,0.020799786,-0.058429796,0.032945108,-0.05772576,0.30690745,0.02054904,0.32204854,0.13788526,-0.18501295,-0.53869486,0.10174984,0.2251737,0.048991363,-0.30071548,0.18486312,-0.10183565,0.25117216,0.056458853,0.5483433,0.3249751,0.009067042,-0.08801964,0.24942544,0.1825238,-0.1355459,0.1987539,-0.0044165035,-0.8539809,-0.376948,-0.1624665,-0.11239836,-0.24755776,-0.031513114,-0.43792734,0.09388325,0.16049652,-0.2269104,-0.40105236,-0.041340712,0.22978094,-0.35609728,-0.1255222,0.09746284,-0.047286116,-0.029453015,0.069064125,0.0015624545,-0.03251906,-0.060637124,-0.69241595,-0.7757146,0.23154742,0.22032875,-0.06860474,-0.31004474,0.08833998,0.09496181,-0.2383646,0.2838141,-0.3905336,-0.04353182,0.1040955,-0.122720264,0.3485444,-0.054743174,0.050160263,-0.36595437,-0.6949038,-0.049421977,0.10777214,-0.0777431,0.3022957,-0.004710188,0.15295008,0.20597787,0.030194413,0.04704427,-0.037546914,0.30957097,-0.42439052,0.102108106,-0.28811532,0.03629632,-0.59406304,0.086686045,-0.8673601,-0.078011535,-0.03558175,0.0018585314,0.33952293,-0.35430223,-0.08130878,-0.6096357,-0.025916783,-0.23462775,0.4219817,-0.20259051,-0.11256426,-0.2217215,0.27597,0.044573203,-0.3515277,0.05579744,0.07549153,-0.07228989,0.16854261,-0.13168061,0.12129394,-0.010494687,0.04849789,-0.2127823,0.49304062,-0.23767267,-0.6458687,-0.049933914,0.15941866,-0.04903625,-0.37251765,-0.08608292,-0.253802,-0.07838225,-0.20934302,-0.3968925,-0.03777457,0.031017829,-0.1197498,0.232754,-0.5879799,0.29060006,-0.14094734,0.37651286,-0.20654407,-0.49988532,-0.024760125,-0.0030250633,0.019968703,0.1694988,-0.53145325,0.33521673,-0.15238965,-0.022846574,0.14760391,-0.05838957,-0.21447644,0.13753116,0.014604392,0.15198052,0.06051667,-0.024905622,-0.47353446,0.38619575,0.28480333,0.13330841,-0.24198176,-0.4174688,-0.59359443,0.39543608,-0.21040285,0.03218358,0.33558807,0.056624774,-0.76635873,-0.23997438,0.09686395,0.09760417,0.01569066,0.06849701,0.012586862,0.026820337,0.0048368275,-0.007525309,-0.47009248,0.04666948,-0.71717507,-0.26664484,-0.02887968,0.30601233,-0.17965968,-0.054398976,-0.118132606,0.16790354,-1.0034845,-0.14401154,0.14559235,0.28896677,-0.031178897,0.06392587,0.19631197,0.032594174,-0.18909767,0.6553103,0.11484972,-0.49036753,0.07310657,0.22833596,0.032201383,-0.27106267,0.25855732,-0.6407246,-0.0153658725,-0.21421853,0.45750353,0.26597795,0.024287648,-0.029550891,-0.055549983,-0.2819954,0.30726138,-0.1304819,-0.1998912,-0.15836774,0.08017832,0.33289656,-0.509868,-0.15420283,0.26228538,-0.21869567,0.30814597,0.05504419,0.00034064267,-0.18945026,0.12602851,0.047373936,0.09859091,-0.026504401,-0.12156243,-0.7153939,-0.4152029,-0.44820416,0.022777598,-0.030225668,-0.15559089,0.14827204,0.30054352,0.12478589,-0.5828618,0.26484612,0.19948716,-0.55833477,0.024746379,-0.0036582057,-0.20649257,-0.03792479,0.09299027,0.3379928,-0.08377276,0.28345728,0.076701604,0.7886183,0.17055686,-0.27575442,0.30530366,0.08754188,-0.38605046,0.25185898,-0.036963604,-0.21769644,-0.057951674,0.2343603,0.1169393,-0.049585547,-0.53350383,0.031028114,-0.33039778,0.2589446,-0.3840144,0.2415638,-0.059460558,-0.21014324,0.031372033,0.06800286,0.013643139,-0.109924555,0.3311507,-0.36171165,0.07058541,-0.20954077,0.24078311,-0.8354393,-0.1753991,-0.040035512,-0.3415668,-0.14235254,0.0072530895,0.08769949,0.06367894,0.02516438,0.08780391,-0.031962313,0.20183256,0.014793141,0.25507575,-0.17064,0.044773407,0.09250385,-0.051763557,-0.50913435,0.33463502,0.39250004,-0.78925186,0.20324482,0.038962062,0.11064962,0.6736537,-0.045910474,0.07768658,0.48673356,0.5498474,0.14367966,0.06012711,-0.73957485,0.4516007,0.33743602,-0.05861753,0.5278844,-0.06686799,0.11775015,0.19387782,0.5256469,0.018390138,-0.15580566,-0.15422928,-0.4808714,-0.42768088,-0.00048355205,-0.019194966,0.21561229,-0.10364582,-0.050150648,0.1461211,-0.38456964,0.03504096,-0.6782037,-0.055477645,-0.038627192,-0.468275,0.4566589,-0.5874858,-0.11896686,0.058136344,0.2700343,0.41808698,0.27955332,0.3242181,0.0070250547,0.06718408,0.22788642,-0.06306882,0.42362145,0.020831188,0.5006458,0.49986508,-0.43481502,0.345587,-0.17166376,0.14786778,0.054289468,0.4319075,0.03946239,-0.70773834,-0.5980814,-0.37449202,0.048287164,-0.33071005,-0.1451683,-0.63624585,0.1808566,-0.0587249,0.07251651,0.5841002,0.26478195,0.36188728,-0.118226685,0.5441438,0.20541373,0.068121895,-0.09797558,-0.41152304,0.009970646,-0.262472,-0.027893726,0.5042991,-0.7199823,0.16752836,-0.4784657,-0.03372064,0.24221803,-0.30321154,-0.04814161,-0.03645982,-0.62286276,-0.3365509,-0.089509875,0.33234945,-0.10865366,0.037422806,-0.518221,-1.1080279,-0.30244797,0.112970866,-0.5200741,0.022656042,-0.025340864,0.0021919329,0.012390162,0.049202077,0.0650018,-0.01742738,-0.09007802,-0.04502146,-0.15192224,-0.21231878,-0.45645255,0.01372277,-0.47858617,-0.055346187,-0.12450548,-0.097636946,-0.034309603,-0.46846658,0.21748497,0.044596475,0.07791279,0.14191931,0.27043357,0.017559096,-0.18461514,0.118065275,-0.104578964,0.15589844,0.46442473,-0.45450348,-0.22101349,0.10259259,0.18880723,-0.066954955,0.20623061,-0.033831395,0.03551143,-0.039042372,0.13409506,0.1741563,-0.17443642,0.008899301,0.08400572,-0.48647535,-0.19850776,-0.023411551,0.4601427,0.1614234,0.16465458,0.062425267,-0.20538063,0.34618738,-0.39945072,-0.28333354,-0.1382703,-0.09611132,0.37279132,-0.19919777,0.14846556,-0.3919631,-0.24025485,-0.2987897,0.016640704,-0.23664983,-0.61844796,-0.08163034,0.33444905,0.0073146913,-0.3141087,0.40249062,0.17534842,0.3888347,0.07265612,-0.09555337,0.17990279,0.116906404,0.48094076,0.057557713,0.29799873,-0.017624995,0.061728343,0.1690548,-1.2094833,0.11688954,0.1316503,-0.75684345,-0.21776468,-0.17751664,0.059880428,0.507947,-0.12446059,0.048816875,0.11898622,-0.04196862,0.19936784,-0.25202495,-0.0411587,-0.3495212,0.027347934,-0.10076592,-0.5392233,0.29280373,-0.8016902,-0.40300313,0.13383585,-0.36596704,-0.4639046,0.1580079,-0.56650066,-0.058282122,-0.20126383,-0.12511438,0.5049496,-0.7461882,-0.9478922,-0.22328287,-0.33493254,-0.20652302,0.5096167,0.13538907,0.41471425,0.015691983,0.019244311,0.06837055,0.03889482,0.029468397,-0.0154361725,-0.46965587,0.36736426,0.3521103,0.41082063,-1.1183656,-0.07708397,0.028113768,-0.8878239,0.25097224,-0.2625824,-0.49165097,-0.41725954,0.027869081,0.42935726,-0.51281756,-0.36102304,0.033029836,0.045525458,-0.13984436,-0.030312678,0.1829908,-0.09525972,-0.5966084,-0.50578576,-0.20494261,-0.29118454,-0.041282434,0.3250161,0.6769311,0.3797011,-0.17993,-0.4538271,-0.64256734,-0.42452013,0.050688967,0.008070022,-0.116264045,0.23652752,-0.12791242,0.3433601,0.2526707,-0.68624014,-0.0128480205,0.044214394,0.41767582,-0.390153,-0.120809555,-0.5354677,-0.051988985,0.23693198,-0.2050108,0.059294537,0.04100978,-0.665141,-0.38248196,0.0066644615,0.24889041,0.11129892,0.47251755,0.20881763,0.03736781,-1.046846,0.6053627,0.39197332,0.14362785,-0.061885457,-0.13008699,-0.36305115,-0.15012138,0.09928476,0.46569985,0.5517348,-0.06849776,-0.08007683,0.14298002,-0.85924214,0.2819017,0.17910136,-0.3497539,-0.24517836,-0.595908,0.86025816,-0.009054088,0.2797323,0.18005754,0.026292333,0.02949868,-0.46864858,-0.065826125,-0.011607702,