-0.42643636,-0.97270566,0.015733076,-0.7548103,0.12224398,-0.030016609,-0.33101505,-0.5531209,0.00498122,-0.55356604,-0.006163262,-0.3718098,-0.27754405,0.24728774,-0.16789442,0.11848061,0.07445717,-0.0914694,-0.5483708,-0.40506124,-0.26706657,0.10517606,-0.3643154,-0.5158914,-0.15799348,-0.31954923,0.107571304,-0.124335974,0.1851478,-0.54824376,-0.3066108,-0.31565788,-0.55477303,-0.029483985,0.17996861,-0.041306745,-0.76737744,-0.5094924,-0.28914312,-0.45038512,-0.20802863,-0.1507379,-0.31309694,-0.2648099,0.11374039,-0.44122252,0.03192143,-0.07557229,-0.3986609,-0.8477654,-0.042916674,0.13355175,0.18487167,0.2659813,-0.5280697,0.2407441,-0.6238764,-0.33384812,-0.7451122,0.16144559,0.38628575,-0.21381672,-0.65675056,-0.3151676,-0.47371855,-0.84113187,0.021385709,-0.27601492,-0.036489286,-0.17503586,-0.35157153,-0.81019014,-0.11941999,0.24691896,-0.90597785,-0.6275778,-0.3467549,-0.11626773,0.3762398,-0.007113608,0.10057141,-0.35014188,-1.2919103,0.020538688,-0.119551696,-0.18598658,-0.03622044,-0.8007376,-0.7226234,0.19781306,-0.67917687,0.003673971,-0.14019884,-0.022195566,0.19081229,-0.12891385,0.13083611,0.21831404,0.12465043,0.09701074,-0.7478089,0.15741844,0.028280592,-0.10266615,-0.30513546,-0.17855766,-0.012200587,-0.25593758,0.24314094,-0.511086,-0.8798435,-0.5490551,-0.86632824,-0.0421017,-0.28918892,-0.53200394,-0.33036366,-0.5646524,-0.36661136,-1.0762131,-0.26714137,0.05644943,-0.58687633,-0.49918962,-0.29760376,0.009036196,-0.25655997,-0.358112,0.043009482,0.18518728,0.28653774,0.14651,-0.20294334,0.16670543,-0.6776073,-0.5091786,0.1861804,-0.29017898,-0.54184914,-0.35519502,-0.49064013,0.26599792,0.058637425,0.113646194,-0.2123985,-0.57071406,-0.1126084,0.06986616,-0.27637184,0.21825767,0.17123659,-0.068531714,0.007156694,-0.6861134,-0.37409663,-0.061923068,-0.7464336,-0.1462454,-0.7773141,-0.5125913,-0.67204803,-1.121777,-0.10356664,-0.20172885,-0.5568336,-0.08151108,0.1288137,-0.40166232,0.25089142,0.22659783,0.10698008,-0.51063627,-0.110582024,-0.25833482,-0.59129417,-0.24332233,0.11482756,-0.090717554,-0.2517138,0.13424878,-0.20911881,-0.3819097,-0.61188865,-0.28378758,0.10651212,-0.49531043,0.114992805,0.019630065,-0.5347398,0.17422704,0.031858366,0.37488577,0.05669717,-0.3928514,0.18745938,-0.5018636,0.0062992647,-0.5113714,-0.22621474,-0.012232572,0.13003476,-0.19760029,-0.6177001,-0.008247787,-0.60561365,0.10148552,-0.62073374,-0.47555727,-0.46385187,-0.365637,0.28262568,0.14611648,0.14484224,-0.2519588,0.23225269,-0.65883595,-0.109703474,0.10250971,-0.40019017,0.013464784,-0.506766,-0.17792837,0.13070668,-0.6617568,-0.4696493,0.11080983,-0.20839036,-0.5150375,-0.49655795,-0.053979836,-0.24654144,0.19043583,-0.076853536,-0.10058176,0.0014536508,-0.19914463,-0.046626326,-0.048766542,-0.25414252,-0.38646734,-0.16344725,-0.13652672,-0.061649263,-0.61337924,-0.36208487,0.07910789,0.24899377,-0.03663325,-0.7178521,-0.610891,-0.6097572,0.19226067,-0.20769988,0.06926175,0.15179995,-0.11602074,0.118755564,-0.15392953,-0.10988363,-0.5443647,-0.08844158,-0.5336078,-0.6861545,-0.19355519,-0.48856983,-0.038149983,-0.5066617,-0.4371735,-0.69336057,-1.2242043,-0.92376536,0.020703645,-0.23567568,-0.31081262,-0.1595644,-0.12581202,-0.1888286,-0.6800457,-0.034506783,0.01821726,0.08680446,-0.6081155,-0.56634295,-0.25919223,-0.19796535,-0.07175632,-0.21563227,0.11307375,-0.5383993,-0.33027524,-0.20284715,0.12791419,-0.47756767,0.14758171,-0.0042120796,-0.31205523,-0.49885422,-0.580085,0.13613024,0.17818221,-0.6836145,-0.5606639,-0.14163302,-0.109248064,-0.2930236,-0.47272775,-0.23564474,-0.51225066,0.14703764,-0.47758994,-0.15026923,0.4143348,-0.12969665,-0.43398649,-0.32238021,0.120879635,0.09634036,-0.012030647,0.027482616,-0.57233614,-0.1542738,-0.48953712,-0.07643775,0.35605082,-0.16606717,-0.13606441,-0.6386859,-0.5376498,-0.024412494,-0.7167224,-0.5234802,0.26127124,-0.541877,-0.5235266,-0.13672222,-0.016904455,0.105746195,-0.60657936,-0.7659695,0.17209072,-1.7612277,0.08939332,-0.873522,-0.13725638,-0.03509433,0.0760561,-0.39202982,0.13339497,-0.0050011002,-0.6571709,-0.5774284,-0.7137724,-0.41398513,0.06924059,0.07854823,-0.6254326,0.03814539,-0.20542896,-0.30123535,-0.31533134,-0.32365254,-0.22468732,0.22265664,-0.8476147,-0.5391248,-0.03225316,-0.36459026,-0.25126323,-0.42735007,0.10042624,0.19576631,-0.67466474,-0.06710653,-0.032659784,0.13276353,-0.025679657,0.20564991,-0.35704356,-0.20234273,-0.34987628,0.1728484,0.06655782,-0.8063845,-0.437082,0.040303674,-0.20531736,-0.54866207,-0.051194068,-0.5054102,-0.69938165,0.16816428,0.11200501,-0.69131035,-0.47828695,-0.66764796,-0.019531768,-0.2590058,-0.5034309,0.11502921,-0.5081951,-0.30495942,-0.5554977,-0.7263324,-0.027278926,0.0052670166,-0.19996993,-0.650741,0.09678938,0.07120577,-0.5963209,-0.8937562,-0.039023805,-0.65305185,-0.07892273,-0.4583846,-0.373005,0.026872376,-0.11892703,-0.53561616,-0.7787918,-0.31050217,0.0029966438,-0.3081933,0.18499997,-0.32706082,-0.012094481,0.012571053,-0.14399852,-0.12529452,-0.19082104,-0.5048865,-0.86089385,0.10800732,0.1763968,0.15048318,-0.3614978,-0.7856774,-0.6432193,-1.3045377,0.02065418,-0.4991601,-0.45839933,-0.87433445,0.19686829,-0.84140325,-0.37190166,0.07434306,-0.035001684,-0.18351687,-0.6606638,-0.40378895,-0.7594782,-0.74105895,-0.5963559,0.15411082,0.111150354,0.06777225,0.18495983,-0.6458381,-0.18198968,0.22452788,0.13050476,-0.033036582,-0.5366268,-0.07086693,-0.7247172,-0.38765675,0.0116942935,-0.5795799,-0.4889728,0.056807805,-0.26283005,0.13025808,0.03692019,-0.48570615,0.069952555,0.08692819,-0.33760348,-0.09037191,-0.18160866,-0.6782073,-0.100321524,-0.20781644,-0.20853513,-0.36651096,-0.14630064,-0.009799062,-0.381425,-0.25634384,0.16058609,-0.25422925,-0.4276379,0.18113197,0.19286506,-0.74653417,-0.6745854,-0.38535663,-0.06828946,-0.1853464,-0.10321829,-0.53364956,-0.036056817,-0.3163993,-0.15683597,-0.9727103,0.032854497,-0.40156585,-0.2590184,-0.06272501,0.15782343,0.098227546,0.16356237,-0.0247889,-0.09328817,-0.66109234,-0.30483416,0.07033063,-0.03456277,0.022940917,-0.6011544,-0.36058053,-0.4651851,-0.13524003,0.031998787,-0.16771719,-0.57613486,-0.31767708,0.032513402,-0.17626104,-0.35154167,-0.21591616,-0.0034113259,-0.74811155,-0.12380208,0.052986976,0.37559715,-0.34361055,-0.146262,-0.48937958,-0.27509722,0.112093285,-0.1410971,0.11527783,-0.1883984,0.029682875,-0.584905,0.24087915,-0.33846316,-0.3592321,-0.382875,0.05303712,-0.5476123,-0.5106967,-0.33406308,0.08493602,-0.026784128,0.15824644,-0.45270765,-0.8995888,-0.08688993,-0.5470977,0.0029387877,-0.28743812,0.030542096,0.2553801,-0.5898366,-0.5934082,-0.1682915,0.05420133,0.03383571,-0.5324161,-0.52972287,-0.51922184,-0.15307358,0.32561064,-1.1767244,-0.5135919,-0.32526338,-0.01983856,-0.6888126,-0.57589394,-0.37497297,-0.34018794,-1.0417565,0.0559425,-0.22455312,-0.9318118,-0.08374813,-0.1701423,-0.8028298,-0.09670003,-0.38685936,-0.33147,-0.52256024,-0.6353805,-0.7209973,-0.29979515,-0.24643049,0.15982254,-0.032315675,-0.5137064,-0.20426089,-0.30857706,0.12217287,-0.023378994,-0.27504975,-0.09972658,-0.63740075,-0.21609107,-0.39894953,0.087901615,-0.2790565,-0.741426,-0.24162422,-0.48514137,-0.5725523,-0.05689114,-0.44048014,-0.56144416,0.13096455,0.16376679,0.10247464,-0.50394315,-0.9041195,-0.20518954,-0.6810156,0.026652565,-0.29161242,0.21391653,0.07722723,-0.5727336,0.09601835,-0.14250273,-0.043013025,0.14331922,-0.62817585,-0.07780608,-0.080904074,0.10689713,-0.44788647,-1.0649682,-0.33891255,0.3258115,-0.34599048,-0.13340242,-0.49867648,-0.33748534,0.09783203,-0.5148618,-0.32123846,-0.4547237,-0.50714594,-0.353386,-0.3592621,-0.17086178,-0.056065515,-0.44485432,0.21366501,0.1639856,-0.12776625,-0.7208063,0.20958872,0.34003115,0.09585068,-0.72750646,0.14301236,-0.3390528,-0.0048030666,0.04939168,-0.0719367,0.2056228,0.013663841,0.05020123,-0.4945696,-0.2568728,-0.85570073,0.22544895,-0.31886634,0.08558299,0.06181137,-0.058638927,0.30259457,-0.493378,-0.11510258,0.028923653,-0.8313008,-0.18950063,0.03533385,0.019458702,-0.22747314,-0.106476896,-0.35796183,-0.18472637,-0.30707884,-0.06881179,-0.70210385,-0.41124362,-0.085890196,-0.30473614,0.06250656,-0.33800513,-0.6092268,0.054337174,-0.4667354,-0.32063589,0.08058492,-0.50363094,-0.12578818,0.12218735,0.067582004,-0.41853592,0.11260552,-0.15685774,-0.61938894,-0.57280004,0.018059658,-0.6126875,-0.6441045,-0.44516382,-0.053326305,-0.21835685,-0.28734735,-0.22746347,-0.07753808,-0.17799586,-0.61753213,-0.19009247,0.1019988,-0.1212296,-0.17715481,0.15987334,-0.5709091,-0.7305734,0.3030284,0.07419664,0.066083126,0.13144124,0.052223407,0.12473956,-0.15617499,0.15131862,-0.39616725,0.033310905,-0.63535315,0.21167411,-0.7357617,0.03741841,-0.32207605,0.20153421,-0.40987557,-0.39096943,-0.6715512,-0.3683922,-0.04261652,-0.27624655,0.21923614,0.053384073,-0.04330492,-0.56770027,0.16335894,-0.4692241,-0.71989614,-0.13129956,-0.86191845,-0.08869196,-0.26376823,-0.7372211,0.044941057,-0.5432214,-0.22254838,-0.008213525,0.11837338,-0.01974149,-0.06743313,-0.12503661,-0.20456174,-0.05651657,0.16004467,-0.6737398,-0.0077809375,0.14641523,-0.07113301,-0.5112407,-0.45115733,-0.29713446,-0.04053006,-0.68583673,-0.6961166,-0.31080604,0.07262504,-0.15311295,0.018076042,-0.17927659,-0.15098318,0.1401545,-0.04631365,-0.30785027,-0.109975226,-0.66942096,-0.3436577,0.27515548,0.057603672,-0.022185592,0.03357611,-0.5075828,-0.439705,0.1919659,-0.15282016,-0.6457784,-0.2765471,-0.37073192,-0.07179258,-0.06205856,-0.7030415,-0.296027,-0.6493644,-0.11565153,-0.3751633,0.04906367,-0.117994644,0.07629463,-0.0061186925,-0.6099841,-0.66343474,-0.018672783,-0.29733974,-0.15521452,-0.7287782,0.1947269,0.1158941,0.10986712,0.24913342,-0.41777682,0.10009258,-0.074856244,-0.34110478,0.109663196,-0.18705732,-0.04243688,-0.40350056
