-0.4365514,0.13587394,0.18722199,0.08878711,-0.199037,0.1186685,-0.415894,0.09879347,0.0025562248,0.057552494,-0.050644394,0.10185457,0.00856245,-0.12521128,0.02739158,0.039065182,-0.03019739,-0.23579459,0.008974066,0.1545195,-0.06245991,-0.1129932,-0.05039238,-0.3210021,0.054737285,0.25874257,-0.22758448,-0.17010596,-0.26802534,0.27164745,0.3892585,0.3932331,-0.12748177,0.007483217,0.011922417,-0.44163206,-0.047859017,-0.22720401,0.047499347,0.40869853,-0.108781196,-0.054366354,-0.042651232,0.13132545,-0.048927203,0.15127051,0.026102679,-0.031586092,-0.16511872,0.3304051,-0.13532639,-0.06567631,0.10022161,0.1928004,-0.009389773,0.13822412,-0.067383215,-0.20851736,-0.15290876,0.11818241,-0.1872209,-0.12919636,-0.0007985835,0.17331004,0.05827217,-0.30366424,0.07080268,-0.20290425,0.17028308,0.036535844,0.34919932,-0.41235533,0.026927773,-0.021394085,-0.09053841,0.1673731,0.17459568,-0.14555903,-0.048414018,-0.13107726,0.0505531,-0.13155724,0.14357455,-0.052246556,-0.21905783,-0.07517108,-0.05888093,-0.40289006,0.05072179,0.031394638,0.20420942,0.13027655,0.21986267,0.016931092,0.10853942,-0.0682029,0.07447908,-0.13759997,-0.008531075,-0.17139578,0.25973508,-0.42793277,0.11290572,0.29829502,0.06413074,0.08205128,-0.18811768,-0.16038229,0.00051502185,-0.028381322,-0.22705139,-0.023430858,0.26633078,0.12828636,-0.0992979,-0.18258569,0.0059840367,-0.0022362522,0.066590555,-0.113883376,0.08423499,0.11334772,-0.015824247,0.24301536,0.2620472,-0.058611993,-0.07710575,-0.07356142,-0.14945363,-0.10121962,-0.15192777,-0.14829195,-0.061504524,0.06956345,0.12755883,-0.07252117,-0.09437348,-0.04951301,0.015655033,-0.11077576,0.23336098,0.022828704,-0.05361774,0.16045232,0.07421588,-0.19760102,-0.030323407,0.38544112,0.08810593,0.033663746,-0.026914557,0.24203168,0.070466466,-0.065393336,-0.054705307,-0.04346923,0.09495,0.1078506,0.0923885,0.32223773,0.19749238,0.16294244,0.3109677,-0.044567075,0.28635085,0.057736386,0.28922674,0.20911802,-0.0033373614,-0.0030174046,0.12611768,-0.20596054,-0.049005922,-0.12827182,0.04729921,0.29741627,0.06726032,0.09651098,-0.08880694,-0.061915986,0.10072759,0.20106792,0.2067002,-0.12751813,0.18888494,0.14547905,-0.1312311,-0.15004066,0.22717272,0.10151932,-0.05397409,0.078991495,0.26099077,0.15964842,0.23176813,0.050059043,-0.008042931,-0.035187546,0.026353272,0.1913752,0.046002362,0.20785542,0.16191946,0.07029189,0.1389302,0.16102882,0.40980548,-0.22351134,-0.46015635,0.28858927,0.066678226,0.19647637,-0.05288917,-0.58378595,0.11455,0.19507703,-0.20291725,-0.32411,-0.1358975,-0.2825309,0.033521213,-0.44592518,0.09740993,-0.06869305,-0.17695925,-0.08491935,-0.08439594,-0.37439206,-0.03698057,0.19853005,0.17569767,-0.22378822,0.063623205,0.058706287,0.061947387,0.06955171,-0.2510756,0.19505464,0.20278567,-0.0029959022,0.15721002,0.42567804,-0.28303057,0.00269369,0.09226215,0.13913105,0.041905265,0.0057648,0.19666372,-0.19719766,0.12853359,-0.09200534,0.17853016,0.16225724,0.22461589,0.007068214
-0.11360908,-0.09414137,-0.32170233,-0.0048316405,-0.08460575,-0.07244936,-0.09177499,-0.092522874,-0.16480273,0.00079675554,0.057816025,0.13716903,0.18086168,-0.04018466,0.352136,0.38351727,0.15408584,-0.073830724,0.12965623,-0.16878839,-0.12403515,0.040795155,-0.28297624,-0.047646604,0.05939409,-0.41335815,0.03535275,0.13831267,0.068955846,0.25312242,0.22389956,0.15857206,-0.05370069,-0.12915845,-0.14494054,-0.10813748,0.22272575,0.06663946,-0.13837789,-0.079371214,-0.0034582703,-0.23128076,-0.14506355,0.027683696,-0.011976116,-0.0077498616,0.074238025,-0.12479785,0.01720058,0.19142954,0.025739484,0.24579456,-0.03762075,-0.35131446,-0.010404143,0.09408271,-0.3071727,0.024462733,-0.12282041,0.033178613,0.12531243,0.18572654,0.2452481,0.14934671,-0.19671045,-0.06978792,-0.09298466,0.11810123,0.08870501,-0.3637016,0.24402289,-0.013109977,0.2958151,0.2749523,0.33820188,0.29064256,-0.1800065,0.108925395,-0.1722125,0.12665372,0.062479526,0.04858081,0.14693293,-0.060098268,-0.0067896633,0.16129094,-0.013666912,-0.03353167,0.0017771939,0.17283516,0.10087584,0.010232224,-0.2182406,-0.09348672,0.015569279,-0.18275294,-0.18988517,0.06542553,0.20992891,-0.038033605,0.11860926,0.123082384,0.0661942,-0.03394905,0.14356649,-0.15787864,-0.017410465,-0.109503694,-0.17657267,-0.016944744,-0.19783488,0.030765556,0.14983872,-0.037809677,-0.10332932,0.2555507,-0.13727392,0.02634721,0.14017645,0.12524973,0.18942265,0.24724132,-0.033574276,0.30442402,0.077910416,0.08600283,-0.16135336,-0.066677,0.12904921,0.01979551,0.16645537,-0.11462094,0.013507978,0.005028614,-0.10728868,-0.068194576,0.22754116,-0.018083345,-0.13180998,0.101792604,-0.10366109,0.01199158,0.0415316,-0.30957538,0.064523175,-0.07353894,0.1042963,-0.42790163,-0.103033096,-0.11932745,-0.02108316,-0.1420627,-0.12572913,0.074266344,0.06448935,-0.13962232,0.012075045,0.065905645,-0.15776272,0.059473567,0.24276067,0.03986487,-0.00038782798,0.1592589,0.19536467,0.073875025,-0.005823101,-0.10921271,-0.09101886,0.10808803,0.0985571,-0.04430607,-0.008089821,0.053836066,0.10381824,0.02063554,-0.14268638,-0.023768166,-0.0025457486,-0.064432666,0.05324512,-0.15414055,-0.019118726,0.12044555,0.10150885,0.07343098,0.15202844,0.11239108,-0.06036224,0.19717425,0.35120803,0.2151284,0.20626754,0.16274971,0.004922866,0.052520074,0.26815942,0.020631565,0.15313332,0.07083915,-0.06733332,0.19067161,0.05438251,-0.071133144,-0.15137206,-0.098589934,0.005534989,-0.03260964,0.054426473,-0.02099663,-0.03890285,0.069166705,-0.07163174,-0.10511282,0.07046764,-0.09093899,-0.10351651,-0.055951368,-0.0058458135,-0.18752997,0.12530753,-0.14482428,-0.102269806,0.026697623,0.00637055,-0.05513329,-0.15349734,0.08460472,0.04712632,0.06280417,0.15101862,0.116630435,-0.035485376,0.03298696,-0.3618134,0.03739776,-0.12020662,-0.028445955,-0.089620225,0.020611221,-0.17518619,-0.10581438,0.10315278,-0.06564486,0.24969347,-0.21688652,-0.0014831669,-0.0051424745,0.15225542,0.2144634,0.3571516,0.008930836,-0.029465014,0.18635924,0.22663172,0.21438512
0.09356839,0.058290914,0.08577302,-0.28432247,0.16237126,0.09692275,-0.24430315,-0.13575277,-0.21641311,-0.13236387,-0.13428561,0.08095672,0.00963383,0.16813591,0.006269911,0.041413374,-0.15367159,0.046203997,-0.06383206,0.07182759,0.20116794,-0.06209105,-0.044310648,0.14750038,0.12898752,0.062276796,-0.00811387,0.05470331,0.07556355,-0.05279967,-0.10471271,0.14944544,0.17046331,-0.005117432,0.0975756,-0.03467282,0.120954126,-0.07955979,-0.09644325,-0.06816656,0.0076809973,-0.03525657,0.090408124,0.07966993,-0.038296092,-0.016421776,-0.051012136,-0.14788166,0.10192891,0.129067,0.055310342,0.07880849,-0.10250008,-0.115761854,-0.039447296,0.11621697,-0.018032031,-0.10286458,-0.3650074,-0.16296439,-0.24894266,-0.11284043,-0.22066136,0.11226989,0.0029508995,-0.111128815,0.035794783,-0.107582435,-0.3460968,-0.14520505,0.004037301,-0.04440816,-0.18166654,-0.14039643,-0.11748026,-0.19099014,-0.13683917,-0.11728921,0.16605482,0.03517816,-0.07928665,0.030779619,0.08034159,0.021096058,0.17002794,-0.008995546,0.085250326,-0.07968078,-0.06524818,-0.0037326887,0.23472723,0.036143046,-0.03871242,0.15203205,0.18325,-0.11798917,0.08370068,0.1618944,-0.02860196,-0.116525665,-0.029655788,-0.090034164,-0.19468385,-0.09732638,-0.095064364,-0.062393058,-0.0630835,-0.052034367,-0.024169674,-0.0772129,-0.18186954,0.111784294,-0.0039865053,0.03790346,0.1360667,-0.112723716,-0.3873172,-0.082463875,-0.10937328,0.008356772,-0.24891366,-0.0665749,0.01418103,0.07176776,-0.016709128,-0.27079138,-0.15769078,0.07062715,-0.009192079,-0.011000012,-0.12375474,0.026380008,0.15365729,-0.088390715,-0.098418154,-0.049083117,-0.1700242,-0.13617298,0.039633237,-0.1446595,-0.18211952,-0.021667827,0.096632116,0.14858155,0.26185277,-0.022712437,-0.03981148,-0.16067103,0.1523686,0.100060515,-0.048851103,-0.3266205,0.050602697,0.107388705,0.08315321,-0.06264131,-0.010031265,0.048884314,0.09357263,0.1462367,-0.07413776,0.024711676,-0.04864892,0.014289756,0.0077912025,-0.1091975,-0.14774832,-0.088865936,-0.08993791,0.029998582,-0.2120574,0.064021245,-0.09699711,0.016683333,-0.081593074,0.10735642,0.11844291,-0.1388152,0.022905804,0.0068322443,-0.17458117,-0.012824429,0.10522385,-0.031675387,0.006631881,-0.15210617,0.070599765,-0.020480713,-0.07505585,-0.10960501,0.026287898,0.09725813,-0.20011044,-0.05439827,0.03371938,0.061403412,0.050459262,-0.024502266,-0.17114723,-0.059354413,0.0342099,-0.12355213,-0.01571296,0.011974232,-0.0005248898,0.100293145,0.06941498,-0.13959582,0.047913037,-0.069515474,-0.06274637,0.04974623,-0.016547235,0.055807624,-0.07641877,-0.20973526,0.05311574,-0.026154436,-0.07710344,-0.10704581,0.048524763,-0.18607531,-0.067353,-0.0420265,-0.14527279,-0.027938314,0.047392126,-0.056426305,-0.038613282,-0.20080936,0.0025161463,0.045947004,0.34633368,0.06305793,-0.067399256,-0.06900021,0.09773582,-0.21198109,-0.30669585,-0.07025205,0.13472342,0.0009218184,0.069244675,0.0037672445,-0.07837722,-0.106284134,0.00199033,-0.061443992,-0.2793297,-0.25310162,-0.14552967,-0.037329067,0.11881929,-0.08583705,0.19856651,0.042156883
0.029321443,0.074325114,-0.047176633,-0.12183574,0.006541941,-0.037696436,-0.012416854,-0.08583558,0.1755153,-0.20532602,-0.24312747,-0.062005937,-0.03806253,0.11226531,0.10940366,-0.14179061,0.07793363,-0.12103261,0.1078204,-0.0015556752,0.08254222,-0.12079782,-0.121540256,-0.08146314,0.057719328,0.15842962,0.13732441,-0.15910634,0.17919096,0.2670044,-0.10485365,-0.28479928,0.12745677,-0.04769398,-0.05211894,0.35149375,0.03996023,-0.064206086,0.15028794,0.19517599,0.14628066,0.10165317,0.20483364,0.08789976,-0.40990362,-0.17170376,0.10344008,0.42086297,0.101884015,-0.17491135,0.08599756,0.05036937,-0.16470963,0.03645088,-0.08484072,0.09043595,-0.20852442,-0.15034802,-0.039700408,-0.11907789,0.20873527,0.08600108,-0.27177987,0.07117457,0.00058760797,-0.03792571,-0.13278267,-0.22782166,-0.1035238,-0.01078627,-0.097639024,-0.22366841,0.08980387,-0.13153866,0.042991534,0.09796852,0.19861019,0.056829903,-0.12839471,0.2680178,0.059138704,-0.4176664,0.1359579,-0.23809479,-0.19316491,0.007831246,-0.23282318,0.033393413,0.25094593,-0.020961324,-0.1143009,0.10077256,-0.29003897,-0.36236447,0.0773492,-0.17120232,0.20603998,-0.064848274,0.0017420623,0.0046656765,-0.06751677,-0.0028854792,-0.06649772,0.15805285,0.09431824,-0.048985094,-0.14962973,0.17260292,0.3267205,-0.035034213,-0.42562672,-0.15424995,-0.10692012,0.13717589,-0.17775428,0.15806699,-0.06679055,0.024088005,0.09008308,-0.22610033,-0.39490297,0.18307582,0.01945129,0.029384552,0.34784722,0.05981946,-0.001065247,0.46655163,0.14201161,0.070536815,0.3861914,-0.035081785,-0.30765396,0.1435769,0.25217956,0.23901196,-0.08423844,-0.071258165,0.36243895,0.50603545,-0.37698522,-0.47556776,-0.26489082,-0.45207727,0.11988276,0.20183961,-0.26472723,-0.5491077,-0.14376618,0.2044889,-0.05566657,-0.062558115,-0.0038627572,0.009901721,-0.07610221,0.20058028,-0.1553891,-0.1364541,-0.06920861,-0.14592187,0.23641124,-0.005164963,-0.038152557,-0.06812972,0.05011976,-0.03955182,0.21089429,-0.17548278,0.09656344,0.1610421,0.26951292,-0.051991113,-0.11190716,0.030369846,-0.019415595,-0.09579863,0.24879698,0.21250884,-0.1346362,0.0013204066,0.18337893,0.033560485,0.027769942,-0.067881145,0.02971925,0.0666329,-0.44568828,-0.19016398,0.5305863,-0.17263925,-0.093134925,-0.18863416,-0.12673292,0.064621806,0.012122925,0.29056478,-0.088653736,0.07068562,-0.3287165,-0.18753818,0.14784324,0.3321245,0.08758784,0.1314745,-0.06023318,-0.034235016,-0.008595257,0.18836305,0.12627016,0.07662592,0.15638475,0.301666,0.019612025,0.06030159,0.13366903,-0.17241764,-0.090360716,-0.38284206,0.10267162,0.019582974,-0.041061483,0.17599462,-0.011781744,0.27121395,0.19941598,-0.07669739,-0.07207088,-0.24941045,-0.022986297,-0.24143225,0.0007743527,0.050958987,-0.10214666,0.14186105,-0.020758936,0.28675312,0.20804736,-0.062748596,0.20925862,-0.09294406,0.29952967,0.07372113,-0.22523536,0.23550485,0.063987024,-0.14111033,-0.1033377,0.22699612,-0.3556506,-0.60397774,-0.046499945,-0.12707631,0.24518755,-0.09191354,-0.3149763,-0.4150501
0.10087358,0.0008768126,0.093902886,0.11046639,-0.014588975,0.077943854,-0.107847676,0.13825688,-0.029214973,-0.11637622,-0.14255852,0.026314681,0.06625402,-0.054314043,0.055499986,-0.042540725,0.023169167,0.09639651,0.1777896,-0.014876793,0.006696571,-0.024288358,0.084619045,-0.05204481,-0.008201436,-0.09136393,-0.18193433,-0.05069477,-0.04958439,-0.21106663,-0.08297121,-0.061118726,0.07334135,0.08935874,-0.18949078,-0.006535737,0.04594396,-0.0713476,0.02054575,0.06642987,-0.059185546,0.05326834,-0.01568566,0.061681617,0.0024308914,0.11168159,0.086711295,-0.04844018,0.030070078,0.03415642,0.11598624,0.050393485,0.093006596,0.07017458,-0.044653278,-0.19415376,0.03731553,0.1785727,0.023050064,0.053655125,-0.2131409,0.21567796,0.061840333,-0.008171449,0.038722426,-0.17504479,-0.03486707,-0.03515633,-0.02791386,-0.062515244,-0.07596962,-0.008425355,0.023320949,0.018187903,0.023135703,-0.08049571,0.05190836,0.120538615,0.081905656,0.04554115,-0.022385908,0.01337006,-0.11243141,-0.00021354324,0.029368177,0.10201802,-0.15716885,-0.18668263,0.024594331,0.041922662,-0.16427925,0.012009431,0.057197776,-0.014094583,-0.010118324,0.015708528,0.05704216,0.052575897,0.03851913,0.011101168,0.0031559775,0.065933466,0.016059818,-0.05613588,-0.11162435,0.19847137,0.08805509,-0.076008365,-0.08369123,-0.032035317,-0.08312283,-0.049940743,-0.018713742,-0.00478877,0.085196115,-0.017400099,0.025382128,0.11223759,0.17508541,-0.1868035,0.05424283,-0.013268265,-0.040511828,-0.06665887,0.064323455,0.061965875,0.13946074,-0.040121414,-0.019233627,0.20961572,6.919316e-05,-0.094904624,0.06794941,0.07579681,-0.019112462,-0.2083121,0.0908848,0.02936365,0.102691606,-0.027794342,-0.02968924,-0.009049654,-0.022068368,0.16962864,0.17529726,-0.24144182,-0.021781264,-0.052180473,0.070676476,-0.28850806,-0.0068975724,0.04661763,0.021188922,-0.25280488,-0.0419723,-0.058633056,-0.07892512,0.00801368,-0.076574996,-0.07064661,-0.13975202,-0.040475085,-0.09852726,-0.114169,-0.26365516,-0.00767819,-0.026617503,0.0532043,0.0026781873,0.011793217,-0.1106454,-0.062967114,-0.062440835,-0.1683011,-0.2058908,-0.005527566,0.014653776,-0.005769523,0.054653425,0.0045196884,-0.0593142,-0.08351854,-0.090135686,0.010000811,-0.10643142,-0.08511793,0.020382019,-0.33243644,-0.50221676,-0.14267758,0.021443056,-0.08305587,-0.08008616,-0.118147716,-0.016402727,-0.17755227,0.020182421,-0.094105795,-0.02091016,-0.22491628,-0.15190627,-0.33212972,-0.026596716,-0.03234041,-0.009974714,-0.0943192,0.07087759,0.0934471,0.005484711,-0.045944702,0.05360642,0.12471368,-0.033597704,0.015497378,0.067876376,0.09536164,-0.027026739,0.23954214,0.05468778,-0.154762,0.061790828,0.25172696,0.0529327,0.07213105,-0.07687489,-0.07185813,-0.09218158,0.02525349,-0.076892376,0.08472283,-0.031233104,0.0394939,0.16855395,0.029581966,-0.18802997,-0.1886641,0.11015515,-0.021160863,-0.13638705,0.07516311,0.029836537,0.031082409,-0.034716945,-0.057736263,-0.08502903,-0.047724657,-0.065589756,-0.06268061,-0.124990456,-0.04412366,-0.08103609,-0.17252305,-0.060749277,0.08349261,-0.12421666,-0.19674477
0.043417994,0.0003682091,0.053756714,0.07440557,0.027920239,-0.062191945,-0.07337059,0.04063549,0.0752848,0.039555434,-0.022501163,-0.07183298,0.092290156,-0.01712821,-0.02845489,-0.08792246,-0.06718459,-0.019296631,0.004269181,0.10186841,0.04221512,0.113479786,0.005494372,0.022647051,-0.16225463,0.015085564,-0.04107369,-0.09177711,0.021063717,-0.03533374,-0.022180287,-0.0068284203,-0.050027043,0.020889493,-0.022470774,0.03456206,-0.1479428,0.032237653,0.17101862,-0.0066590775,0.06791546,0.12294384,-0.06579387,0.053934507,0.10281618,0.10932337,0.12467405,-0.08225224,0.12774524,-0.00711986,0.062204845,0.08727469,0.050693892,0.1128948,-0.03632497,-0.14177735,0.007453854,0.04662746,0.07875711,0.107344486,-0.15554619,0.036820017,0.065989494,-0.019681381,-0.05914781,-0.109797835,-0.124682084,-0.095224805,-0.044541866,0.10934983,-0.020883294,0.09442013,0.013160628,0.083555445,-0.014471242,-0.04100934,0.038549695,0.17263122,-0.035449803,-0.028830975,0.0088623855,-0.02245506,-0.08705459,-0.015653776,-0.0082562845,0.001627964,-0.08248997,-0.16915034,-0.12234639,-0.07343156,-0.09030632,-0.022502322,0.15054338,0.1693895,-0.015789548,0.017662741,-0.07767279,-0.0021807,-0.029800864,-0.049447324,-0.1460913,0.09674103,-0.108114064,0.047539927,0.081551224,0.12220859,0.096958525,-0.04095911,-0.15411425,0.03799134,0.01291524,-0.086203605,0.032723702,0.04521892,0.021603523,-0.019431531,-0.0042481367,0.018221993,0.0070853475,0.022268645,0.14015166,0.021776505,0.030038796,0.010587086,-0.120558076,0.022910327,0.11419134,0.009994295,0.012449224,0.20553887,-0.07672723,-0.0026420746,0.09603829,0.06774667,0.10264667,-0.033412017,0.027314717,-0.009693885,0.054697417,0.060161598,0.03730197,0.08775349,-0.04603892,0.08939331,-0.06887987,0.03700579,-0.09222415,0.0024076903,-0.25856283,0.039914634,-0.0606769,0.05302568,-0.08797391,0.023567716,-0.13659161,-0.04705332,0.06856677,0.14275575,-0.12840015,-0.046242207,-0.10107604,0.04747719,-0.088030405,0.012392678,0.043544486,-0.030007439,-0.004906276,0.004472962,0.09220041,0.038184423,0.017420847,-0.0040468657,-0.1504606,-0.03196606,-0.087192126,-0.15218414,0.016972989,0.026028661,0.10492749,0.12138553,-0.044357345,0.09621029,0.09620509,-0.0124597205,-0.018707573,-0.0980715,0.036232892,-0.04142587,-0.13345544,-0.055590056,-0.041721046,0.080635875,0.05220232,0.042108115,0.025525887,-0.03888532,0.07165046,-0.05326419,-0.08084394,-0.055851065,-0.08570039,-0.29962432,-0.054230403,-0.057895876,0.07285566,-0.15593575,-0.048343383,0.07377139,-0.060336143,-0.12250731,-0.09321919,-0.037843853,-0.27206567,0.09708769,0.040733334,0.051971067,-0.09761802,0.14279607,-0.027657568,0.062358476,0.12082756,0.07084196,0.06438533,-0.10436316,-0.0028321235,-0.050512593,0.07256245,0.12111326,0.032160632,0.0074475715,0.018062655,-0.016026387,0.11242945,0.1483379,-0.000717969,0.1353451,-0.11745052,-0.14455329,-0.16425641,-0.06673968,-0.042777203,0.027966123,-0.01899462,0.041725144,-0.044150937,-0.015826754,0.038134605,-0.017773265,0.08126918,0.040458545,-0.061920494,-0.0638854,0.010034956,0.11016892,-0.18278553,-0.10172386
0.061984137,0.15821064,0.23180436,0.21988228,-0.043273754,0.13000818,0.08323698,-0.046358485,-0.028407436,0.15182334,0.0059452555,0.09568979,0.04728539,0.080299966,0.010403921,0.03496656,0.021138486,0.33292028,-0.21258156,0.2962457,0.098460875,0.21200092,-0.20719077,-0.08852006,0.27335212,-0.08559882,-0.27709767,-0.08250392,-0.14085357,0.009516568,-0.04774164,0.056597672,-0.09009908,0.09939734,0.046462264,0.077898234,0.16168804,0.28104067,-0.15852672,0.17199005,0.05501921,0.04559538,0.028754937,0.18599759,0.19818535,0.2180616,0.22536063,-0.17622137,-0.07899927,-0.14827433,-0.08344831,-0.18817014,0.07272452,-0.085255824,0.1514714,0.100818194,0.26360017,0.024757102,-0.03905391,-0.008822609,-0.3966281,-0.12664457,-0.2774485,0.3025626,0.101358704,0.009949193,-0.02235617,0.101398006,-0.11172139,-0.10886235,0.10834845,0.01882336,-0.03559952,0.014872395,-0.118554674,0.10121922,0.09041531,-0.17943539,-0.13209975,0.023425525,0.018426897,-0.011527734,0.07806092,-0.003140919,-0.11523152,-0.0181131,0.019946888,-0.045546535,-0.0029382885,-0.30935612,0.0824512,0.16816273,0.045136057,0.05354753,0.09138663,-0.006362118,0.050168734,-0.0409122,-0.020947613,-0.07782967,-0.02233796,-0.0024679932,-0.017471554,-0.104566924,0.05901339,0.24404277,-0.0830432,-0.28172305,-0.08301482,-0.11744115,-0.14488678,-0.17556472,-0.044623625,-0.049685083,0.011682627,0.088179536,-0.057356786,-0.06665712,0.1789918,-0.073265284,0.05886789,-0.11443622,-0.024390997,0.017843483,0.17893483,-0.16161059,-0.09145529,-0.14432083,0.22112902,0.20989132,-0.14950617,0.11344665,0.098633915,0.08993313,0.0016226559,-0.0030755282,0.09109684,0.05724206,0.07130967,0.118797354,0.10002417,0.05985586,-0.09060179,-0.1073606,0.0016876954,0.32516137,0.05759718,0.281376,-0.015171577,-0.11986139,0.27846953,-0.11644976,-0.15751123,0.0126074925,-0.10924946,0.061861508,-0.16482574,0.08428995,-0.05404148,0.117293954,0.013614002,0.056412376,0.11810632,0.017364888,0.14896105,0.07352345,-0.07964263,0.11029511,0.03733222,0.19354449,-0.13414851,-0.23803768,0.029031511,0.13778357,0.028050076,-0.026334003,0.07898066,-0.0692998,0.035232134,-0.22340679,-0.022359475,0.06829025,-0.012307689,-0.2262984,-0.1095321,0.012290287,-0.16732524,-0.106186785,0.11569194,-0.1382173,-0.46177858,-0.23913085,-0.003299871,0.045237638,-0.11984188,0.06305358,0.1805638,0.21972129,-0.17731543,-0.10652213,-0.12670529,-0.24842069,-0.06442008,-0.060672253,-0.089113586,-0.28172237,0.13126567,-0.003705246,-0.20511718,-0.11237101,0.080257155,-0.08132313,0.17105603,0.052413482,0.058540173,-0.025438283,0.11978396,0.19828631,-0.03705673,0.36138207,0.06805152,-0.08314059,-0.39755672,-0.027567634,0.0044115023,0.063505106,0.043045435,0.011591566,0.18799306,0.10337172,-0.042246066,0.004759083,0.18253952,-0.072851695,0.010004038,0.087570675,0.1377554,0.13887486,0.1690065,0.07624745,-0.025860906,0.07317142,0.2939764,-0.16554753,-0.04612462,0.007127097,0.2131982,-0.26857603,-0.011088686,-0.17438044,-0.23975004,-0.15346979,0.23080301,-0.03976778,0.08213977,0.2232039
0.3729607,0.19647689,0.136299,0.060608763,0.10257589,0.15591538,0.07470445,0.40016654,0.09701293,0.13474908,0.14121379,0.057714973,0.020691147,-0.28397462,0.09616804,-0.12876636,-0.06425979,0.22947596,-0.062083744,0.12619153,-0.16448241,-0.3137976,-0.04659491,0.21198928,-0.0035248967,0.1264818,0.00038736203,0.1346616,-0.009293013,0.11218068,0.09639439,0.12011324,-0.19076428,-0.24212171,-0.10585286,-0.025106952,-0.1311877,0.019896066,0.024367848,0.19307536,-0.023339408,-0.21891028,-0.2926902,-0.0016467327,-0.13634759,-0.05684817,0.08733891,0.028611504,0.031954695,0.04059982,0.3992313,0.0070126387,0.14138414,0.39168712,-0.091597304,-0.05433431,0.20364276,-0.20151204,-0.08734181,0.121246465,0.2916602,-0.0533703,-0.110562325,-0.09460095,-0.22623359,-0.030423053,-0.08013931,0.08993866,0.07884214,0.22361751,0.15480565,-0.042308696,-0.0036867978,0.2527961,0.033315834,-0.014219681,-0.18526709,0.12682962,-0.12825882,-0.14901201,0.12997934,0.007940792,0.07827443,-0.21387564,0.13123709,0.12510979,0.05901933,0.031308994,0.029356295,0.15225622,0.15719016,-0.010402164,-0.006801566,0.17777425,0.041726977,-0.092174925,0.117338255,0.45463136,-0.11907531,-0.21361116,0.15781732,0.19837715,-0.16103111,-0.122939594,0.24842796,0.055271942,0.05100337,-0.077857465,0.23397173,0.19694321,-0.010904576,-0.14315015,-0.04830608,0.07732865,0.36260614,0.06777467,0.29628596,0.026966963,-0.04592328,0.08072963,0.3218445,0.08978895,0.10429723,-0.030920861,-0.06593619,0.041364618,0.067387514,-0.13823828,0.17168012,-0.123171896,0.014560753,0.2473104,0.19409148,0.05849412,0.11662158,0.10391606,0.15558538,0.010928663,-0.17864317,-0.24250042,-0.042591766,0.052683093,-0.17217754,0.14541674,0.038421005,0.1386445,-0.005072598,-0.00923405,0.011363792,-0.079148136,-0.15747328,0.070024796,0.06643905,0.23950969,0.14074798,0.16297427,0.12272624,0.2854936,-0.01359619,0.11333288,-0.25665137,-0.03535176,-0.28264713,-0.053009637,-0.007856126,-0.24636324,-0.49715754,-0.057296336,0.09513183,0.17990154,0.01601534,0.16494973,0.05064121,-0.024418443,0.07959747,0.269532,-0.094930984,-0.0643777,0.10472393,-0.034396417,-0.15625745,-0.095272504,-0.16309677,-0.07174238,-0.039933678,-0.24551913,-0.014413378,-0.1496941,0.18259622,0.24002594,0.3344789,0.31608498,-0.21364233,-0.0637916,0.050064288,-0.17087682,-0.22602019,-0.11952415,0.17411864,0.084946685,0.111227795,-0.098556474,-0.095478125,-0.26309654,0.01537557,0.026551517,0.2880722,0.046996716,0.19294225,0.23856676,0.37016532,0.12963223,0.035436668,0.025790097,0.030075809,0.23365477,0.05699622,0.23796986,-0.20137884,0.1465111,-0.07679746,-0.28445652,-0.08166437,-0.030231962,-0.036006097,-0.062047813,-0.1610284,-0.057839084,-0.5368379,-0.21583022,-0.22863428,0.15718536,-0.13154727,-0.023354378,-0.08481147,0.08999531,0.004213381,0.089860715,0.0130597465,0.13392587,0.38171393,-0.02035428,-0.09965057,-0.4009914,0.10140987,-0.017198836,-0.311177,-0.3529927,-0.17439821,0.23381683,0.23849908,-0.043297827,-0.081823364,0.09898546,0.0042792284,-0.041675713
0.13551036,0.047382902,0.24455248,0.40809986,0.08785031,-0.21694237,-0.23198432,0.28593123,-0.040384725,-0.23363596,-0.13076708,0.097160086,0.08638546,-0.231127,-0.21733771,0.25371927,-0.12888065,-0.19162469,0.014762495,-0.25813293,-0.124226905,-0.026424797,-0.050565425,-0.05321307,0.12309951,0.14057347,0.048071142,0.16961434,-0.33964744,0.07797477,0.11133521,0.057923213,0.053394098,0.2330983,0.120435715,0.29507843,0.40386838,-0.0031096574,-0.03481957,-0.11657949,0.06218667,0.21024051,-0.055106144,0.16609353,0.38951868,0.17392147,0.4801225,0.36625046,-0.041022025,-0.39196387,-0.3034322,-0.3775255,-0.030180294,0.03553717,0.031210402,-0.1501131,0.14472798,0.12277364,0.18648358,-0.019065253,-0.06141868,0.14143792,0.20937227,-0.22305943,0.1623968,0.19687739,0.015432376,-0.2326478,-0.19053909,0.11072241,-0.076336846,0.35687768,-0.03648984,-0.24156764,-0.050754383,0.0994272,0.17219569,-0.025372235,0.02414533,0.16511047,-0.11072696,-0.26431382,0.0044303173,0.2765304,-0.045535624,0.09902068,-0.016238844,-0.10147695,0.15100646,0.043663546,-0.17021722,0.082214765,0.17608798,-0.047632158,-0.39974406,0.043994263,-0.050974008,0.023787713,-0.08590418,0.1949534,0.048119176,-0.087056644,0.025011385,-0.0037232782,-0.08651226,0.19195363,0.14972262,-0.122661114,0.31292778,0.31518424,0.3189496,0.35964945,-0.1658805,-0.17309153,-0.15842728,-0.39233202,-0.023155086,0.1291983,0.23903373,0.009812849,0.11787021,-0.103487045,0.121301815,-0.026907293,0.03707987,0.072291,-0.12998925,0.031259906,-0.28106096,0.37340054,0.5448878,0.13674013,0.18818761,0.11299844,-0.21066885,0.30834883,0.16295083,0.030122753,0.12440051,-0.001341322,0.08539686,-0.07872336,0.06593743,-0.03623137,0.13287272,-0.40571895,0.09680434,0.19658837,0.43991044,-0.068178535,0.22313578,0.31765595,0.11671266,-0.022638274,-0.15718512,-0.00096585817,0.17597897,-0.3333179,-0.06461151,-0.27750817,0.21493016,0.39167076,0.14859697,0.25067425,0.07566095,0.10152301,0.05855277,0.15325905,0.23435673,0.1750004,-0.005956577,0.18379161,0.08835959,-0.106524386,-0.17235272,0.14752308,-0.32948434,-0.1333435,-0.16071127,-0.10938932,0.10372667,0.26929042,-0.40504113,0.058403123,0.114817396,0.20025624,0.10889989,-0.024502022,-0.035600334,0.22960867,0.13872962,0.020594,-0.045342274,-0.040664826,0.28033212,-0.20198105,0.13722473,0.11735859,-0.26333213,-0.1304083,0.047106683,-0.20175064,-0.55871964,-0.31035808,-0.27093458,-0.27749184,-0.3850347,-0.57008034,0.3422115,0.31438184,-0.012906666,-0.21536964,-0.12047827,-0.131308,0.08194092,0.008834478,-0.19825733,0.15612152,-0.23976672,0.008557513,-0.09395359,-0.038587295,0.22309259,0.14719957,-0.120687835,0.023775723,-0.0057345075,0.044255577,-0.275342,-0.13510732,0.033049703,0.29246852,-0.2378586,0.045557026,0.13680503,0.045913912,0.052252833,0.034575354,0.13812667,-0.10691609,-0.23208162,0.05795213,-0.13571292,0.22635296,-0.21114816,0.027805487,-0.08892782,0.08605351,0.098109856,-0.13260463,-0.010107727,-0.07985911,-0.17860518,-0.1453167,-0.10643869,0.090298444
-0.079674,-0.090507,-0.033344645,-0.76421463,0.49340597,0.24998489,-0.044848245,-0.079563916,-0.05955786,0.123166874,0.37001058,-0.30256256,-0.28944054,-0.14286238,0.3825728,0.31608284,0.3298815,-0.18635048,-0.11401349,-0.2623815,-0.17097563,0.32030797,0.06622334,-0.14265245,-0.05358692,0.033621244,-0.0018002343,0.13185747,-0.0067616855,0.01959355,-0.21268457,0.28939506,0.2101919,-0.28173888,0.10467308,-0.3169016,0.031076225,0.113097996,-0.11433181,-0.32625398,0.008839908,-0.18940675,0.21889958,-0.1830129,-0.059489302,-0.31888825,-0.520421,0.12508175,0.041107055,0.17246406,-0.2598289,-0.06139463,-0.04482086,-0.30702892,0.25415424,0.09093531,0.24756907,-0.1722247,0.18861401,0.074614234,0.35553846,0.087448865,-0.10109395,-0.23781835,0.20236939,-0.21958752,0.11508372,0.20456082,-0.19507743,0.37248072,0.67976105,-0.026228603,0.2044442,-0.09042747,0.031045858,0.09352059,0.04387096,0.00979933,0.052471105,0.08265779,0.12900616,0.3200715,-0.39969543,-0.43989614,0.10883689,0.05829727,0.116001286,-0.03501867,-0.20671077,0.052999493,0.037015114,0.0057823025,-0.085377455,-0.1405713,0.061920203,-0.057892364,-0.039789926,-0.1950548,0.011596723,0.15046425,-0.26802245,-0.51617146,0.23958105,0.09443801,-0.12087417,0.11140228,0.26842076,0.019460093,0.10017479,-0.10115397,0.10004752,-0.16260746,0.4778632,0.49656907,0.2562639,-0.14888439,-0.122779444,0.19908853,-0.111236066,0.076570064,-0.08903254,0.04656929,0.32858276,0.16291448,0.008760682,0.4791555,-0.092781976,-0.14967483,-0.032133445,-0.22994582,0.113376215,0.29683125,0.06670297,-0.17503713,-0.25881532,-0.43729925,0.08852424,0.07458482,-0.47087687,-0.3411914,0.1069357,-0.3720476,-0.43844426,-0.35812867,-0.12532279,-0.25524718,-0.22421491,-0.011291399,-0.3992286,0.11430849,-0.33130282,0.024923168,0.1109939,0.09318022,0.07661461,-0.008355333,-0.07150826,-0.2990307,0.49657214,0.3582037,-0.16229196,-0.07152406,0.32625586,0.31358016,-0.004663628,-0.0257292,0.010250177,0.081611015,0.12924914,0.113622814,0.16059974,-0.05812494,-0.028775327,-0.09906261,-0.04630431,-0.014631487,-0.15960066,-0.32830402,0.0071215043,-0.02904175,0.07314993,0.06624989,0.21338923,-0.2383961,0.12553802,-0.31528878,0.12162537,0.22966678,0.1884475,-0.23670502,-0.48487514,0.17541575,0.06800598,0.17577511,0.19621979,0.43244752,-0.17519659,-0.036460523,0.3480886,0.43837458,0.023328993,0.22592291,-0.0108144265,0.059174143,0.13081035,0.084989086,-0.08323639,-0.30641475,-0.03969068,-0.60004705,-0.22639117,-0.25033346,-0.14706229,-0.066237174,-0.045124415,-0.011219569,0.013633788,-0.045525152,0.09842875,-0.0579852,0.03921715,0.10672223,0.13544656,0.13530369,-0.101402126,0.116542265,0.46627513,0.28744444,-0.28338206,0.20168574,-0.0011043545,-0.17171638,-0.27875987,-0.13340315,-0.1997492,-0.028166266,0.065858096,0.08177037,-0.49094167,-0.31575167,-0.034070373,-0.099780336,-0.4155079,-0.35835987,0.33149633,0.35998437,0.33670408,-0.19382371,0.1768753,-0.23117943,0.17721489,0.14458683,0.110277876,-0.029288365,0.18393925,0.021152206
0.08944356,0.3184577,0.060231574,0.30358517,-0.022696305,0.045493506,0.06807095,0.27649513,-0.03526588,0.20231095,0.32263854,-0.2351171,0.03724802,-0.40754473,-0.033187687,0.24989964,-0.1421278,0.58553255,0.19748437,-0.0369409,-0.045096643,-0.116585314,-0.08241471,0.25961524,-0.20310386,-0.09755785,-0.057007957,0.19108434,0.19091178,0.26209173,0.39223015,0.2804057,0.111725606,-0.14476812,-0.045546375,-0.23662673,-0.010292637,-0.12841628,-0.29405415,-0.21420011,0.059354402,0.01400763,0.55255944,0.25467792,-0.18439522,-0.07667444,0.046316367,-0.09620853,-0.06385722,-0.1751327,0.037664194,0.018625908,0.011609629,0.1009608,0.25182697,0.119376875,-0.046183117,-0.31135884,-0.062235337,-0.008263637,0.40271425,0.17488281,0.3497566,0.466976,-0.08211643,0.048058294,0.37263805,0.06679006,0.066443294,-0.1606995,-0.110748366,0.012956969,0.5002854,0.13912377,-0.10839021,-0.17244573,0.075118035,0.13978823,0.39108488,-0.084737524,0.21203093,0.11453963,0.2080092,0.00021814216,-0.0387418,-0.33329597,0.01592174,-0.30363643,-0.13749428,-0.2458927,0.11962122,-0.11340123,-0.2760198,-0.41269326,-0.06274591,0.016956523,-0.046572357,0.32944417,0.027842792,0.044175647,0.45782706,-0.039823234,0.24964768,0.32527262,0.29249933,0.09968627,0.28821048,0.017462702,-0.41887218,-0.14125018,0.18094197,0.08803341,-0.044542883,-0.22593907,0.0016040223,0.29428536,0.15110731,0.06431489,0.24154958,0.12834193,0.18343648,-0.19792688,-0.20286848,0.25503424,-0.19142088,0.3461171,-0.1180857,-0.09059984,0.06480212,-0.38526246,0.061791185,-0.31137905,0.13654058,0.08409738,0.08389921,0.10239799,-0.42721635,-0.02490745,0.11934404,-0.22128935,0.09703057,-0.04267112,0.13755946,-0.28281972,0.089509785,-0.21197376,0.086685844,0.061078507,-0.066172965,-0.16126373,-0.022955086,-0.040071342,0.27475974,-0.1578785,-0.1600799,-0.43956223,0.10102569,-0.4421395,-0.22998999,-0.09082447,-0.13221084,-0.3215296,-0.3094983,0.1032713,0.33783314,-0.12834127,-0.08979317,0.16819368,0.039388213,0.19734861,0.1749593,0.06525725,0.118291155,0.42673767,0.2035688,0.07870853,-0.030860245,0.14278083,0.28765374,-0.10605947,-0.03185341,0.10950947,-0.18138358,0.009657382,0.01564625,-0.341762,0.28090408,0.03955369,0.39171794,0.045284957,0.48360255,0.011413486,-0.133802,-0.18263157,0.009040825,0.027604507,-0.2558421,-0.07535438,0.34587833,0.022210978,0.15181923,0.36384812,0.0063251304,-0.12221363,0.25184423,0.50431234,-0.2346833,-0.44892818,0.31264657,-0.02100173,0.20373036,-0.0922851,-0.021661656,0.039178587,-0.23582126,0.019213714,0.3695776,-0.0938293,0.030011592,0.19436593,-0.025027672,-0.41845527,0.0015266947,-0.006697329,-0.4358416,0.11978974,0.20267293,0.037347134,0.33122107,0.16080178,-0.012492685,-0.05091847,0.09353586,-0.35606492,0.08379363,-0.15009119,-0.25816667,0.2463381,0.35161284,-0.2550201,0.100712106,0.28860134,-0.104856685,0.18722604,0.16503106,-0.066064395,0.358592,0.091759,0.110013165,-0.13738023,-0.12907587,-0.4369133,-0.16193865,-0.084165715,0.5761877,0.31219155
0.30062023,0.27983242,-0.1801525,-0.13009785,-0.11852047,-0.08759646,0.12854774,0.2716723,-0.05901891,0.16606492,0.0057875994,-0.04908217,-0.19452871,-0.1450889,0.18934493,0.35639435,0.13916895,-0.15664898,-0.013252966,0.0125219505,0.0019833795,-0.1869266,-0.080591775,0.04316893,-0.17411445,-0.0015245596,0.12666775,0.28756136,0.24642627,0.01056877,-0.09746802,0.012897355,-0.1708163,-0.19330357,-0.20764095,0.292933,-0.0029921148,-0.054143388,0.18521991,-0.11649854,0.046721473,0.0060892124,0.022861911,0.031547133,0.007351148,-0.035995003,-0.041700125,-0.32607016,0.09872241,0.09676732,0.08023421,-0.28918308,0.030170983,-0.3044346,0.22035111,-0.17354798,0.03647183,0.07616344,0.17986162,-0.04053912,0.17851758,-0.0988946,-0.35985735,-0.3351426,-0.17104211,0.23193403,0.43736058,0.21921265,0.08737047,0.31759882,-0.30608276,-0.08707766,0.08799343,-0.093106166,0.24127899,0.08131016,0.03178484,0.22280832,0.06597538,0.072769,0.036535062,-0.085007004,-0.051195942,0.085158184,-0.05249732,-0.12807654,-0.105859876,0.046839267,0.08329071,-0.09619166,0.17410526,-0.10582781,-0.012100686,-0.14400928,0.0771676,-0.21761394,0.15405595,-0.01829884,0.014913294,-0.18372451,-0.24386668,0.12844175,0.1151464,0.12394113,0.15037918,0.08091711,0.2391944,0.315958,-0.33149445,0.2758645,0.22152478,0.1446748,-0.24544914,-0.074921176,-0.044282928,-0.10814947,0.2812343,0.3633273,0.0030779473,0.020313246,-0.32353142,-0.013380049,-0.06643824,-0.06338865,0.12274166,0.048526116,0.031069264,0.21428335,0.060434118,0.3741287,0.1256779,-0.14150472,0.14185996,0.08838476,0.026832454,-0.17540742,0.15230854,0.12128333,0.09454764,-0.21210931,0.1436088,0.1830326,0.04156585,-0.45375282,-0.48136717,-0.078094706,0.21678406,0.11495294,-0.17340706,0.01546741,-0.22300223,-0.11928556,0.0532619,0.004691978,-0.0758978,-0.068252206,0.36326852,0.07259862,-0.20901103,-0.2267868,0.09014814,0.050414078,-0.3109862,0.048143554,0.1714733,-0.21159902,-0.101790406,-0.17951366,0.1222336,0.15865193,-0.09460976,-0.14432316,-0.23859918,0.08676442,-0.06962263,-0.015348652,0.010140548,0.13163683,0.0012817364,-0.1296086,0.12351695,0.13191105,0.08001108,0.124204285,0.057553787,-0.12366546,0.030365078,0.10783031,0.27456963,-0.015798897,0.15972908,0.0377111,-0.08017955,-0.2619023,0.10546909,-0.18560849,0.06966037,-0.017000293,0.007547982,0.22217458,-0.18217242,0.14699562,0.12811828,-0.011050062,0.13817719,0.050910566,-0.33805552,0.08010213,0.18901189,0.10032686,0.096212044,0.0044891043,0.13365626,0.24994111,-0.062150102,0.042720195,0.15651152,0.107095346,-0.2821567,0.07824798,0.0069284705,0.14839202,0.25931823,0.001035537,0.14368029,0.183768,0.038090963,0.12138656,0.18412514,0.112969086,0.20407817,0.024960728,-0.3448189,-0.19835751,-0.10501996,-0.2115602,0.0515755,0.05867701,-0.05335137,-0.24346444,-0.12790012,0.24354959,-0.42666918,-0.295539,-0.14780422,0.12715815,-0.04865639,0.024840344,0.12239856,0.18878433,0.1382299,0.22461909,-0.04836921,-0.21693982,-0.013210891,0.28479216
0.13021249,-0.13952991,-0.18226075,-0.2909916,0.30500767,0.12036471,0.30222592,0.23349784,-0.06337026,-0.34634,0.06767957,0.41009733,-0.17893289,0.0052014976,0.36295068,0.26377666,-0.14549363,-0.34937477,-0.14021938,-0.029636022,-0.20010045,0.26607838,0.21602702,-0.17526104,0.056265227,0.14890328,0.003408427,-0.30796587,-0.14480495,0.048521776,0.074412934,0.13146244,0.3982547,0.33219033,-0.025399065,-0.38174325,0.3738607,0.28409863,-0.32026014,-0.24798536,0.21004684,0.04139177,0.3053347,0.07625631,0.06716422,0.07792853,0.12792239,0.18945602,-0.03219599,0.2526098,-0.37268162,-0.11141108,-0.8901219,-0.4083246,-0.15263996,0.26151335,0.29115075,-0.2712109,0.2990006,0.31307504,-0.09749555,-0.078175016,0.33133388,0.006938001,0.09578209,-0.44534487,0.049019225,0.17915018,-0.18176144,-0.29254392,0.1509459,-0.12954219,-0.06880209,-0.09802545,-0.0423345,-0.20698902,-0.25624242,-0.0487138,0.12278952,-0.29325953,0.14651056,-0.0073892386,-0.25249302,-0.103274554,0.5021004,-0.0333623,-0.062971115,0.19700246,0.069224924,-0.20315112,-0.21994899,0.016550403,-0.13626915,-0.16541643,-0.23640926,-0.17464724,-0.29980668,-0.24764518,0.26955464,0.15236495,-0.34427136,0.25258285,0.195386,0.02743407,-0.37697193,-0.0014288293,-0.031775646,-0.053183842,-0.006650825,0.1350509,0.12517151,0.12470496,0.286661,-0.05139859,0.15188675,-0.18149814,-0.48285633,-0.028580338,0.24178785,0.18168043,-0.066096075,-0.10459949,0.13784593,-0.043629073,-0.17541537,0.16769232,-0.27248657,-0.29096398,-0.21072476,0.037230674,-0.17224228,-0.47100446,0.2417866,-0.16656163,-0.2121231,-0.037819184,0.31567052,-0.34203103,-0.056058537,-0.013399932,-0.17461772,-0.08076118,0.1052876,0.1363764,-0.022991126,-0.33858243,0.080599554,-0.5866563,-0.19044036,0.20928068,-0.030214135,-0.057061218,0.08248363,0.5254482,0.012239944,0.14544255,0.015058964,0.33401057,0.058120638,0.11235272,-0.13297908,-0.004364951,-0.08500618,-0.21148966,-0.3958876,0.47414255,0.09502045,0.29761636,-0.28563973,0.14826274,0.20862505,0.23715925,0.24199113,0.112853974,0.07967381,0.18779904,-0.60705626,0.092919044,0.2656205,-0.030659543,-0.21029645,-0.524244,0.13238718,-0.038999878,0.22315703,-0.25264192,-0.31959242,0.13402262,0.1292448,-0.02250227,-0.12087771,0.2208938,0.089564405,0.07417622,-0.17702238,-0.14546481,0.1292894,-0.02546136,-0.11548338,-0.016693316,-0.061053988,-0.11065114,-0.17783667,-0.31118134,0.08637161,0.1707358,0.2845617,-0.16606341,0.077747956,-0.47167695,-0.13287152,-0.505465,0.11829765,-0.024699012,0.42195293,0.03681736,0.18618274,0.19900228,0.017634666,0.3501128,-0.11480756,0.23936811,0.0702685,-0.08274328,0.07066672,0.22472528,0.4491477,0.31654474,-0.014800905,0.26176852,0.0017964328,0.007338333,0.030969366,-0.08961407,-0.17426264,-0.17383648,0.12767157,-0.23106417,-0.03630921,-0.3615259,-0.5959618,-0.417648,0.1920391,0.009851228,0.21040548,0.09979914,0.3746857,-0.04983983,0.29835975,-0.13695288,-0.08253761,0.1635813,0.15836178,0.07955909,-0.04233465,0.020328581
0.26934463,0.09134113,0.027174938,0.13423781,0.047036964,-0.03336211,0.0651985,0.08374444,0.072966196,0.11313483,0.12336053,-0.05143531,0.17162742,0.13590707,-0.054456584,-0.21272933,-0.17049077,0.016378675,-0.08468101,0.061912965,-0.04018931,-0.048618603,-0.1755405,-0.19345519,0.07035622,-0.12937915,-0.22304736,-0.16544646,-0.00718386,-0.21927834,-0.12168276,0.24125457,0.033000793,0.09599674,-0.06764179,0.075564995,-0.054089632,0.008574224,0.0042096907,-0.02532234,0.048997264,-0.053706076,-0.021698812,0.019447958,-0.08321803,0.13377246,0.2084728,0.21394159,-0.3610143,-0.06745238,-0.06754461,-0.0028174752,-0.024414891,0.13386013,-0.07073822,-0.024803368,0.36772314,0.21983749,0.011799567,0.20528734,-0.14483191,-0.19632922,-0.3356038,-0.2495339,0.24535358,0.07153405,0.100899264,0.1266117,-0.027501838,-0.033246934,-0.05373345,-0.008797265,-0.26481405,0.163161,-0.11620083,-0.11840981,-0.0145087605,-0.28962398,-0.18695982,-0.3020068,-0.121514425,-0.12817726,0.023342412,0.151076,-0.112396196,-0.2946388,-0.077411026,-0.025739504,-0.14896804,-0.3217915,0.11501323,0.25983703,-0.13939485,-0.041911166,0.08557566,0.080690436,0.23793343,-0.017962052,-0.116402335,-0.12532562,-0.09822862,-0.3363827,-0.033001564,-0.061771415,-0.05748005,0.034100227,0.15365644,-0.15774973,0.37523383,0.072274595,-0.14663093,-0.035810303,-0.03546169,-0.107433364,0.094183244,0.21997966,-0.109895214,0.08296642,0.2970399,-0.014235801,-0.10064897,0.21764907,0.06164342,0.0021278698,0.011333463,-0.24616677,-0.0835611,0.0661123,-0.045799423,-0.017363206,-0.0325506,-0.027946142,-0.15519859,0.0010161437,-0.032405067,0.040077277,0.09421984,-0.06681892,0.038931403,0.15330875,-0.057463035,0.1176814,0.030908069,0.048710626,-0.029915707,0.37731057,0.02227734,-0.22404996,-0.0042868694,0.032308064,0.09637089,-0.28694242,-0.0005796929,0.04877153,0.14978278,-0.13455203,-0.28283027,0.21781579,0.10836607,-0.0064918376,-0.06474596,-0.113953836,-0.12532412,-0.108812265,-0.0061256904,0.1422506,0.048464473,0.03995099,0.07959148,0.026249489,-0.14497375,0.02214573,0.06829159,-0.24850534,-0.024446623,0.21307857,0.04971579,-0.078768834,-0.14545333,-0.11462112,0.08653041,-0.024804031,-0.04211207,-0.06292434,0.0027492307,0.06853457,0.070697226,-0.08973923,0.06327798,-0.025221694,-0.19931571,-0.053979572,-0.08000263,0.005371763,0.0036134096,-0.04407974,0.1291343,0.045866176,-0.1277769,-0.08469695,-0.007987417,-0.25065574,-0.08800335,-0.30317575,0.014124293,-0.30726346,-0.012949773,0.05662688,-0.051170845,0.38685316,0.057610188,0.14020203,0.19633035,-0.1280436,-0.074450344,-0.009758062,-0.041506536,0.20224693,-0.25237358,-0.030438079,0.035936806,-0.021624332,-0.17517355,-0.10865877,0.056389347,-0.052984186,0.0036731155,-0.07206634,0.0141706215,0.0074757864,0.07372136,0.04908152,0.06139301,-0.14844549,0.11854069,0.2645512,0.11380857,-0.0047719213,0.11465624,-0.14037417,0.074610956,-0.11347249,-0.034158457,-0.04176237,-0.22561005,-0.058973033,0.033729114,0.13719164,0.05869114,-0.17837471,-0.1080427,-0.076273106,0.2015815,-0.11416115,-0.0017608539,0.1090496
0.1552857,0.18228948,0.25957474,-0.033345696,-0.025306642,0.03868809,-0.26446941,-0.0016162787,0.18479687,0.13548702,0.041030165,-0.038309608,0.10552668,0.011000541,-0.0565511,-0.07035322,-0.05931012,0.014458488,0.14625221,0.11683212,0.16271667,-0.046489887,0.13522385,-0.18813242,-0.040004898,0.07361422,-0.002108575,-0.0058465907,-0.015120693,0.033656515,0.18174858,0.04781296,-0.10366873,-0.018304886,-0.034849618,-0.0286776,-0.01255908,0.011096964,-0.11835807,-0.009702009,-0.002360885,0.056495946,-0.051555052,0.052062377,0.015667038,0.1274795,0.07303974,0.18861315,0.03241865,-0.1047355,-0.0817251,-0.06678156,-0.09505441,0.093945965,0.035264555,-0.12222694,-0.071896724,0.1074508,0.051337387,-0.14323287,0.071780086,0.10635811,-0.168563,-0.28302345,-0.1707981,-0.046976253,0.0007340519,-0.07937592,0.06668889,0.10138184,-0.00899153,-0.05613348,-0.18955718,-0.0977742,-0.16544978,-0.19590104,0.078153335,-0.06941534,-0.039246414,-0.19787031,-0.08764068,-0.13669431,0.26175144,0.0974256,-0.10376946,-0.33590648,-0.2399953,0.0073227375,0.10626241,-0.06987081,0.10388541,0.10478328,0.0018800658,-0.17606494,-0.030564373,-0.082356974,-0.02671619,0.1374693,0.14917643,0.15984538,-0.04400664,0.07832159,0.15968348,0.021346534,0.066122785,0.18354318,0.13992593,0.03360333,0.06595701,0.11212869,-0.09255836,-0.093345575,0.12954421,0.11552153,-0.20645702,-0.026890913,-0.068692766,-0.046066206,-0.029518945,-0.15113616,-0.0047974694,0.15049137,-0.17168552,-0.17396487,-0.034335736,0.0181686,0.10119461,-0.08191692,-0.17548048,-0.04788797,0.14764175,0.02643086,-0.13706684,-0.009630035,0.1318827,-0.015333644,0.17612004,0.15381981,-0.09028884,-0.019592278,0.011592956,-0.20037031,-0.14458752,0.009932764,0.005498638,0.11886509,0.1556627,0.180224,-0.02362968,0.11763615,0.0010492199,-0.09791409,-0.0031051508,0.05701698,-0.018414386,-0.16201612,-0.12069453,0.069705285,0.16600925,0.09619801,-0.003490421,0.3075471,0.118607484,-0.02851,0.06626905,-0.0042325603,-0.019144222,-0.1411441,-0.034374908,0.046279967,-0.13473244,-0.20700154,0.07460643,-0.11859117,-0.24047528,0.023965407,0.124428384,-0.16471231,-0.091908544,-0.15577275,-0.08302861,0.09685828,0.07406593,-0.033348273,-0.1254293,0.038828086,0.039938375,-0.013180201,-0.13018987,0.09746037,0.07510197,0.013099287,-0.10340171,-0.060114063,-0.10439301,-0.3132407,-0.10635586,-0.12596443,-0.12148788,-0.08678763,0.13280456,-0.15686795,-0.0013295269,0.16585112,-0.020929433,0.14466098,0.12939613,-0.0035363527,0.32067794,0.2846401,0.11362891,-0.13329794,-0.16146328,0.010343869,-0.060031556,0.042449992,0.109049186,0.12147044,0.10608023,-0.012319447,-0.061256185,-0.19775937,0.04331853,0.038424317,-0.096238,-0.15120666,-0.27105764,0.088777415,-0.16799589,-0.1165295,-0.15884604,-0.09844465,0.2847367,0.102512725,0.080083594,0.015875302,-0.06226335,-0.02249658,0.035513986,-0.17125832,0.19367719,0.17054428,0.1369373,0.10271723,0.14588706,-0.08800948,-0.09231057,-0.07448316,-0.15953083,-0.04259245,0.012531464,0.034284927,0.029338405,0.04726667,-0.113470465,-0.10497055
0.07451938,0.012143735,0.15677345,0.29088977,0.06715254,0.039176617,0.088970594,-0.10274747,0.1601911,0.19903949,-0.0013541913,-0.11279884,0.19809431,-0.39489686,-0.26492646,-0.26244232,0.17647949,0.2463345,0.06020146,0.085358374,-0.16420157,-0.17613377,-0.09857578,0.115919225,0.0012623131,0.06785879,0.24431534,0.18777621,-0.03435685,0.059322484,0.004816792,-0.31256926,-0.029052861,-0.08185857,-0.20056969,-0.103115365,-0.17794812,0.045539286,-0.26211166,-0.12589216,0.022155216,-0.18727225,-0.3314229,-0.025047181,-0.122953944,-0.1025244,0.06488407,0.015878145,-0.27197248,-0.2737693,-0.039941862,-0.18794963,0.027360378,0.14373551,-0.12182594,-0.29138708,-0.07943603,-0.01964268,0.22042969,-0.2821786,-0.093323246,-0.12469803,0.012826012,-0.051180076,-0.0142598525,0.32329357,-0.16560045,0.32750133,0.12315806,0.17467584,-0.057173386,-0.0055104876,-0.16993666,0.24239378,0.11685986,-0.027210128,-0.15102868,0.1856807,0.1702354,0.08129584,-0.37784964,-0.29380313,0.0011573401,-0.013895887,-0.088820904,0.20270811,-0.13773131,-0.06602768,0.03149759,0.06000444,0.029335035,0.07943818,0.033413824,0.078785904,-0.28684786,-0.37694156,0.011875053,0.25320032,0.18173039,0.102645166,0.088629864,0.103523836,-0.056273792,-0.37463656,0.110358626,0.059170906,0.11897359,0.123692736,-0.2256638,0.24573712,0.2360353,0.10027233,-0.14523956,-0.09914306,0.052652784,-0.05040705,0.25297374,-0.010925983,0.109878294,-0.07236344,0.08416742,-0.003259792,0.11561642,-0.16390452,-0.07299705,0.015962701,0.17329079,0.11742828,-0.06873822,-0.15684433,-0.1497396,0.15449369,-0.10882015,0.12978911,0.016198995,0.010874531,0.027902462,-0.024654957,-0.15211168,-0.2372865,0.015358364,-0.06536609,-0.019114183,-0.07219076,-0.14884722,0.0691263,0.0997769,0.27288967,0.039673064,0.17925668,0.12563705,0.1438769,0.040741935,-0.045254417,-0.08928182,0.042353086,0.049526904,-0.14262389,-0.14984392,-0.16376624,0.14563905,0.17135961,-0.038835637,0.20354778,0.08355918,-0.046660483,-0.53174675,0.09285387,-0.063709386,0.114276834,-0.10500791,0.25107974,0.02621758,-0.0008758575,0.05045658,0.20956495,-0.062846474,0.094814755,-0.09724354,-0.0406925,-0.047718015,-0.21169178,-0.032836147,0.06311118,-0.06455698,-0.019605055,0.2718405,0.038343795,0.100911744,0.20405649,-0.001719549,-0.20443462,0.016450133,0.00953616,-0.20270157,-0.34963936,-0.10310274,-0.19968717,0.09492115,-0.19361693,0.04433429,0.12243131,-0.11755309,-0.21040908,-0.17556529,-0.14138487,-0.17761132,0.12204619,0.043097895,0.23000728,0.015191631,-0.04619511,-0.055582378,0.009357668,-0.23353508,0.1936905,-0.024051419,-0.010438353,-0.07460266,-0.06626033,0.0013179522,0.016809888,-0.035696264,0.13107578,0.039093647,0.00048819027,-0.2948206,-0.08868345,-0.021531384,-0.004968795,-0.14539665,0.041621614,0.14441629,0.1446358,-0.018623546,-0.14945276,0.087112084,0.1057175,-0.039312895,-0.113495655,0.26446584,0.1128947,0.26214468,-0.18452543,-0.048219837,-0.27518034,-0.20292716,-0.41953975,-0.0967324,0.13257816,-0.1033949,0.009239217,-0.07554595,0.026182748,-0.15524903,-0.16488354
-0.18776104,-0.13099982,0.030239616,-0.08169241,-0.039344918,0.05225234,-0.035625517,-0.08279155,0.12457422,-0.011791549,-0.0066058207,0.0067096767,-0.020005807,-0.06441883,-0.18053304,-0.04223839,0.0012405216,0.15529136,0.055196837,0.03752424,-0.16737016,-0.071530856,-0.11134732,0.082696006,-0.057180963,-0.039183047,-0.0010568174,0.16933781,0.08030939,0.11019081,-0.03463446,-0.07481183,-0.081934914,-0.06109275,-0.098969676,0.09459881,-0.21346493,-0.13697141,-0.27204436,-0.12713231,-0.048383314,0.0075925263,0.049185153,0.037624616,0.049722966,0.14634876,-0.051549617,-0.06784872,0.017855387,-0.10353302,-0.08217272,-0.24375722,0.044036146,0.04583169,0.04325517,0.0431748,-0.056164175,0.063541785,0.041374855,0.14966495,0.12077643,0.15144889,0.1081079,-0.1146744,0.2004552,-0.025338702,0.14259534,-0.056692995,0.119250596,0.024447335,0.11160438,-0.05300701,-0.16170733,-0.09387728,0.052244276,-0.039214615,-0.036855727,0.028715156,-0.04358427,0.111014426,-0.14313923,0.013843714,0.073199525,-0.056445576,-0.100637056,0.072998725,0.08291446,-0.10203312,-0.07460061,0.019385828,0.06600565,-0.13441853,0.007668808,0.06934869,-0.010140762,-0.17767051,0.15680414,-0.040466398,0.060386613,-0.019716507,-0.002602014,0.17078662,-0.11768254,-0.11327249,-0.26473796,-0.16666855,-0.13260856,-0.03274481,-0.03753907,0.12779339,0.10060761,0.3296481,0.030345816,0.066558264,-0.0051467023,0.1527247,0.18095043,0.081774116,0.0738067,0.16848509,-0.028087135,-0.015289567,0.07200999,-0.057706267,-0.29589292,-0.24781764,-0.04292055,0.10453249,-0.1451758,-0.29565808,0.018834852,0.04290493,-0.2433841,-0.056318834,-0.07203828,-0.054272212,-0.043527033,-0.085608885,0.061464272,0.04676298,7.337677e-05,0.043360822,0.11273393,0.009059143,-0.2773207,-0.14220421,-0.018057564,0.122632965,-0.07406915,-0.0066187065,-0.060364887,0.028861042,0.0250168,0.3200091,-0.085771754,0.1836929,-0.0801558,0.16670792,-0.22883068,-0.1618321,-0.025143547,0.11861632,-0.00030897907,0.06440055,-0.21806096,-0.06567878,-0.070189126,-0.22727165,-0.1046211,-0.16962668,-0.08637246,-0.15715332,0.10874095,-0.09411257,0.070269495,0.09686318,-0.17279305,0.06475187,0.062814906,-0.008958047,0.10121313,-0.06244388,0.109113075,0.082103,0.08351738,-0.22517864,0.21365783,0.113572195,0.06027599,0.06563798,0.1308029,-0.07351938,-0.001547456,-0.059396844,0.12505005,0.009952962,-0.11790845,-0.16068767,0.1359979,0.2604857,0.12135792,0.10460484,0.06418362,-0.0037575627,-0.08051349,0.00071220705,-0.081239395,0.18556668,-0.09511578,0.042061493,-0.1355353,-0.023133928,0.1105909,-0.3048328,-0.14603475,-0.03271346,-0.2848817,-0.007908066,-0.08811362,-0.19355878,-0.2171252,0.06333571,0.06897847,-0.004665012,0.10173464,0.17689675,0.0059933723,0.06494143,-0.28637567,-0.0020390165,-0.07153856,0.03497135,-0.44214344,0.078333035,-0.012636589,-0.03349856,-0.1738019,-0.05697246,0.0552481,0.11180744,0.043521702,0.10189197,0.15660486,0.04967985,0.078448884,0.081546105,0.2369942,0.05335447,0.09328779,0.11456617,0.14452998,-0.0025607557,-0.063909106,0.13241741,-0.022121105,-0.042783335
0.29297665,0.28530392,0.068262264,-0.057488203,0.19228216,-0.105573975,0.20293798,-0.014228989,0.0015034876,-0.037376225,-0.26983145,0.12578084,-0.1922588,-0.25806776,-0.10929475,0.16327041,-0.25940925,-0.09218117,0.06494254,0.07881109,-0.054474253,0.054786738,-0.09498436,0.16313995,-0.08612847,0.016478017,0.054427408,-0.17699458,0.12960301,-0.01487933,-0.11165051,-0.2455735,-0.37903905,0.101579495,0.019361401,0.18101722,0.089909166,0.014212416,-0.024594069,0.25630465,-0.07558855,0.0010491116,-0.10470183,0.13572182,-0.020753346,-0.03618775,-0.14855382,0.060189884,0.29043368,0.2267624,0.15992078,0.011782917,-0.0941759,0.051004715,0.022145823,-0.24065422,-0.24829367,-0.023457518,0.050519288,-0.04766114,0.08142666,-0.0030758702,0.087499894,-0.14967687,-0.10728341,-0.13545372,-0.049064226,0.22459584,0.10080213,0.09742676,-0.11690644,-0.021601535,-0.0871048,-0.097821936,0.19315113,0.05972282,-0.037385765,-0.07324474,0.046443477,0.18410388,0.052850436,0.042367037,0.12344751,-0.10144041,-0.3606524,0.033313584,-0.004257315,0.13144211,0.31681818,0.010431052,-0.094529174,0.12698907,-0.022907268,-0.16390231,-0.07891327,-0.05681968,0.07928895,0.009540738,-0.031218326,-0.14982603,-0.06759576,0.25045916,-0.083019994,0.033600025,-0.2639011,0.120376304,0.024267768,0.21065155,-0.047089163,0.07595592,0.15883519,-0.039938565,0.009326839,0.02041214,-0.0023822614,0.19181338,0.22871897,-0.12883689,-0.24022241,-0.17339572,-0.11164719,-0.19455396,0.14270918,0.007498286,0.017491473,-0.013727893,0.08218209,0.14759149,-0.11715196,0.05172911,0.2303999,0.14495814,0.17618401,0.102395765,0.2061689,0.046057686,0.21790542,0.052643195,-0.07767512,-0.04174753,-0.05580911,0.12429145,-0.036661983,0.030588547,-0.006845153,0.18896694,0.15198854,0.0581811,0.033547416,0.09603593,-0.0096514635,-0.055133656,0.012549053,0.07605673,0.061709136,-0.088575706,0.32880968,-0.11778771,-0.023934823,-0.21287093,-0.06110826,0.06902095,-0.09612824,-0.11083694,-0.015847245,-0.09774628,-0.21530287,-0.34061053,0.02885215,-0.025328493,0.07915064,0.08923597,0.13856323,-0.089676306,-0.017883448,-0.12623176,0.013256714,0.022036204,-0.09261796,-0.07810645,0.0499795,0.10435777,0.17981422,-0.201437,0.08704143,-0.057451867,-0.016052315,-0.08144828,-0.024405917,0.03254965,-0.10972369,0.017609036,-0.22397861,-0.07687394,0.01663773,0.115337536,-0.09142353,-0.061307933,0.06367914,0.014063469,0.10488341,0.00032041423,-0.14023061,-0.15171762,-0.08709309,0.09470618,0.015382874,0.20345224,0.31877166,0.18155056,0.12965979,-0.006488839,-0.04008445,-0.023494394,-0.20971,0.07248691,-0.020258753,0.11457942,-0.014284049,-0.020891327,0.07689913,0.12760428,0.2736042,-0.018131584,-0.03493615,0.05394772,-0.26740876,-0.26786163,-0.088200025,-0.12589449,0.007293263,0.24445783,-0.024593504,0.13406087,-0.027453443,-0.039353438,0.025980212,-0.014831053,-0.05997438,0.023746256,0.17156832,0.0330357,-0.104242645,-0.07335072,-0.097253524,-0.07166278,0.05692128,0.04168292,-0.08700109,-0.016942963,-0.17050847,0.15881927,-0.043146387,0.094791904,-0.18609478,0.13838392
-0.13830115,0.1044522,-0.0045981323,-0.110804856,0.1375696,0.061567675,0.025565147,-0.1297974,-0.029262206,0.12375226,0.102202974,-0.111930534,0.07871907,-0.023332855,-0.07858912,-0.023771636,0.028482081,0.12637244,0.039905433,-0.21600814,-0.20261656,-0.12545958,-0.15757352,0.0932888,-0.027921608,-0.12161674,-0.17472434,0.08287971,-0.09180194,0.038361162,-0.034364022,-0.022539912,-0.20163822,-0.074738815,-0.14345093,-0.08457038,0.031838685,-0.16703473,-0.18358204,-0.366603,-0.1896832,-0.1111186,0.072895385,0.013387846,-0.19669938,-0.14506344,-0.12008681,-0.15182965,-0.04495085,-0.1519684,-0.030283883,0.0352898,0.06245141,-0.17509095,-0.071697704,-0.07328307,-0.37554893,-0.10125835,-0.14908235,-0.15593854,0.19912326,-0.048964206,0.20595264,-0.05997527,-0.00022889838,0.13302387,0.048402112,0.08768134,0.018359642,0.10390455,0.15517202,-0.13868393,0.13109183,-0.114141576,0.13252015,0.13832417,0.0067775687,0.037502017,0.20269871,0.14011726,-0.19869283,0.20728984,0.29280424,0.360817,0.09407257,0.09171954,-0.041849647,0.041069884,-0.08721789,-0.059948396,0.052243765,-0.30183718,-0.05483621,-0.15432802,-0.011633262,-0.1688489,0.032548342,-0.070937105,-0.13795787,-0.114010535,0.050857894,-0.23636274,-0.03911196,-0.011270634,-0.00056649826,-0.12939379,0.17230025,0.26863462,-0.015919957,0.10157609,-0.08504049,0.2552736,-0.10203226,-0.29580858,0.013519248,0.20869817,0.17263213,0.28478757,0.02798002,-0.060325213,-0.31739452,0.07904763,0.20136836,-0.2002035,0.13088287,-0.07937195,0.07056029,-0.018104453,-0.09737337,0.053978737,0.039736155,-0.28313968,0.23232353,0.05682851,-0.34289712,-0.083099164,0.0065178364,-0.03401435,-0.0931335,-0.10254038,-0.14719757,-0.0025946836,-0.0034577458,-0.14289337,0.03016376,0.060385615,0.08201759,0.18816775,0.17322335,0.045182228,0.14511393,0.1863946,0.18574189,0.1885415,0.20029806,0.2871652,-0.00015323405,0.06305078,0.12798929,-0.0018306198,-0.02865744,-0.23851949,0.18046725,0.028934259,0.04399426,0.011649126,-0.08913158,-0.066364065,-0.16849904,-0.13804047,0.068442,0.11110797,0.15844578,0.019343816,-0.03639549,0.16725929,0.17677909,-0.13690281,0.0058880006,0.020772869,0.23991577,0.024597257,-0.039812613,0.25099257,-0.16769099,-0.20459606,-0.13912211,0.05329553,-0.059850443,-0.31062937,0.07860732,-0.15090524,-0.006847971,-0.22089292,0.020821325,0.011792465,-0.10822323,-0.011865393,0.07283297,-0.41909203,0.048602764,0.007836613,-0.2582497,-0.08801855,0.010510575,-0.07253533,-0.0024533127,-0.19067824,0.08893414,0.110791184,0.07555458,-0.063114576,0.079940096,-0.11715796,-0.07863852,-0.13203922,-0.08425087,0.39549538,-0.033779163,-0.027467623,0.050407216,-0.20666286,-0.10190224,-0.048573356,-0.011906259,-0.025802862,-0.12855394,-0.0039053964,0.01888857,0.028102603,0.1320129,0.023201518,-0.16036822,-0.08827343,0.14326279,-0.15655215,0.20893519,-0.061651245,-0.15434793,-0.23433863,0.15538597,-0.07005741,-0.060793925,-0.09424927,0.45891038,-0.05475449,0.036784466,0.0637714,0.12040843,0.14294082,0.15329042,-0.075369366,-0.20314535,0.077992424,0.015423121,0.06785955
0.10602208,0.11689464,0.0093407,0.14972869,-0.0059548654,0.10394058,0.059777614,0.083711654,0.17901891,0.23141119,0.046858832,-0.10945833,0.2170776,-0.027393486,-0.18032403,-0.16165543,-0.107589126,-0.05729105,0.019530479,0.08082116,-0.059449524,0.03737632,0.010509804,-0.12285001,0.116305135,-0.032662462,-0.13918857,-0.16612762,-0.16715237,-0.04686511,-0.010918856,-0.103104234,0.0064852703,0.023898253,-0.200653,-0.14406307,-0.11256891,-0.08809753,-0.13095026,-0.027936324,0.01153801,-0.08921401,-0.009388871,0.066311896,0.06648781,0.06309308,0.09929359,-0.17846444,-0.0011218546,0.07319795,0.07887485,0.059003673,0.07975834,0.10766235,0.114876874,0.0010345795,0.020982405,0.041941203,-0.0053030006,0.20745108,-0.035976235,0.16366076,-0.16458838,-0.1969517,0.10750765,0.04257238,0.1258267,0.20404232,0.04404068,-0.009836655,-0.12737602,0.011471726,-0.06282673,0.16262801,0.0438718,0.026562734,-0.023619177,0.1037174,-0.018545609,-0.16132215,-0.24017295,-0.005541935,0.06398614,0.12952183,0.05013695,0.034839842,-0.15804017,-0.101843275,-0.091653176,-0.13375567,0.12109005,-0.028076114,0.062270768,-0.016627695,0.16199352,0.14353031,0.09715731,0.00591944,0.1814397,0.057431735,-0.13012081,0.029979441,0.06520083,0.06732429,0.0103672305,-0.027532326,0.21840876,-0.059452925,0.030133951,0.14902659,0.091736495,-0.26828197,-0.06937901,0.069344945,0.10002986,0.26723477,-0.004673167,0.11762525,0.21673977,0.0082783615,0.09353991,0.08102807,0.10192786,-0.059777543,-0.09989716,0.10527092,0.20698468,0.119714275,0.010429627,0.047972977,-0.04630634,0.15416339,-0.07680132,-0.055953037,0.12982325,0.19848047,-0.037051875,0.013711916,0.012364869,0.019652141,-0.00549096,0.019690527,0.061731923,0.07386453,0.114127964,0.08170882,0.10105513,-0.032225378,0.031605244,0.16927147,-0.02710374,0.1556718,-0.03071607,-0.0017046077,0.033403415,0.070005745,-0.14137843,0.10967223,0.008238792,-0.09716557,0.007007823,-0.10377578,-0.028676586,-0.10765703,-0.14338075,0.08735295,-0.08811258,-0.18157804,0.10284414,0.096599095,-0.08737852,-0.28638855,-0.05312958,-0.19298832,-0.17225085,-0.22151488,-0.035492674,-0.04430968,-0.06270133,-0.19298072,-0.16061632,-0.20918813,0.048679717,0.0056746514,-0.027288498,0.009095656,0.13471124,-0.029870665,-0.10262608,0.20696099,-0.06907163,-0.002606461,0.086764604,-0.054209154,-0.11738528,-0.09646229,0.13718203,0.015549669,0.07894953,-0.019206034,-0.031375166,-0.09399195,-0.004597407,0.10676026,0.049506273,-0.035627168,-0.047560375,0.26768872,0.12815477,0.1532742,0.08047063,-0.033559136,0.038553867,-0.08447881,0.052402325,0.2640243,0.07189928,0.16221586,-0.17535658,0.21672264,0.16658567,-0.0799769,0.049064446,-0.009385912,-0.1015899,-0.09952508,-0.20834973,-0.16750972,0.026090894,0.2603081,0.075320035,-0.0036043313,0.05900924,-0.021819556,-0.03305938,0.12452301,0.0144848935,-0.021157203,-0.10763177,0.0003813154,0.07895346,0.09972148,0.104370415,-0.10432386,0.03253879,-0.005571422,-0.03880161,-0.12437661,0.04251832,-0.2131761,-0.06927549,-0.09225322,-0.13550298,0.033909515,-0.085654125,-0.03575052
-0.09879688,0.08102153,0.1965661,0.056681447,0.04549219,0.15511948,0.10899842,-0.03469459,-0.0364095,-0.06269761,-0.041901078,0.029677993,0.14435878,0.21338886,0.09150397,0.092477925,-0.01278469,-0.054188002,-0.006489257,-0.059827883,-0.052266292,-0.107377715,-0.048514348,0.09302597,0.29714346,0.1856584,-0.02795993,-0.1024658,0.09998564,0.16734146,-0.026273232,-0.030845147,-0.031748448,0.32444695,0.03887378,-0.05522535,0.011327608,0.04152446,0.12323831,-0.019630143,-0.025019882,0.06304742,-0.12907512,-0.0021072014,-0.07932735,-0.096434735,0.1860707,-0.18112779,0.026815038,0.10593501,-0.07759636,0.037635304,-0.2322417,-0.30238816,-0.12249373,0.107254945,-0.09677073,-0.00037122503,-0.13324277,0.004497564,-0.1442751,-0.0716302,-0.002466693,0.050131805,0.37964678,0.19901775,-0.043648127,0.3006633,-0.18672964,-0.6234617,-0.048810016,0.31244978,-0.3305157,0.15257959,-0.10730976,0.053949933,-0.011718462,-0.16405423,0.080925815,-0.00040911164,-0.10595658,0.14273101,-0.103230156,-0.03176307,0.15112236,-0.002342262,0.21102569,0.13692062,-0.16793843,0.19679813,0.043011736,-0.101701505,-0.2559205,0.098345906,-0.069706365,0.017527735,0.15041645,-0.27793017,-0.123081826,-0.07235254,0.18994947,-0.25694728,-0.079464674,-0.11833773,0.06587748,0.053618066,0.3042925,-0.069797195,0.22839142,0.23063202,0.047045574,0.024654418,0.12485957,0.1810807,0.19775616,0.06211619,-0.03886592,-0.027966727,0.056595594,0.22516876,0.06294863,-0.2026565,-0.12340401,0.079331174,-0.08508663,-0.22191541,-0.27766827,-0.08832678,-0.078358,0.103773795,0.0044084126,0.24221043,-0.0022904517,0.021677393,0.14606352,-0.18368457,0.028745554,0.023163754,-0.06322661,0.0075317053,-0.2511039,-0.16184396,0.053551193,-0.04505934,-0.18349446,-0.066777185,-0.23329967,-0.020586224,-0.006104551,-0.07507894,0.0835758,-0.004634789,-0.06433831,0.0029886502,0.11185015,0.107296325,-0.3279167,-0.02635073,0.024163587,0.24403797,0.13063356,-0.05192546,-0.008111631,-0.15152447,-0.25596523,0.051412933,0.027311668,0.006309238,-0.09370479,-0.0051973397,0.12741098,-3.8804625e-05,0.1429017,-0.120881654,-0.06444462,0.060484454,0.03722054,-0.068789974,0.03198344,-0.092465825,0.12906113,-0.010491131,0.011135098,-0.0431416,0.2449142,-0.20146088,0.043715913,0.018056704,0.030118644,0.014413626,0.19048202,0.17003345,0.042781018,0.13353059,0.15907414,0.13895148,0.04433494,0.022779306,-0.15051721,-0.064894386,-0.014533976,-0.0908791,-0.1559878,-0.097164676,-0.18692847,0.0028161514,0.10734584,-0.26245093,-0.08195757,-0.078196906,-0.12744868,0.052640323,-0.03399027,-0.18239848,-0.0044102976,0.061776865,0.31791902,0.0114027085,-0.1269732,0.22479752,0.07285937,-0.116593674,-0.07642535,0.116746955,-0.45360076,-0.17418505,-0.020535884,-0.13753106,-0.07809793,0.04506163,0.19455531,0.10045748,0.23698524,-0.07519087,-0.22498749,-0.13613087,0.19744946,0.04398165,-0.1776697,-0.17495543,0.09532362,-0.12964293,-0.01161932,-0.09030612,0.044386674,-0.12510702,0.020765822,-0.08165394,0.21189488,-0.13195188,0.018651262,-0.010333626,0.104387775,-0.024072044,0.178316,0.2308437
0.013608443,0.0836598,0.06665577,-0.24694137,0.13591953,0.10787218,-0.16259483,-0.057687625,0.17297496,-0.03459132,-0.13535582,-0.20223564,-0.018768013,-0.13398263,0.046921026,-0.07505058,0.0363073,0.043944027,-0.0376416,-0.0012351956,0.05129146,-0.10430264,0.0011235382,0.3547675,0.23031594,0.05633333,-0.1698403,-0.11239381,-0.018268073,-0.19243395,-0.10665597,-0.16172776,-0.094470926,-0.17232715,-0.18082976,0.10001373,0.043136407,-0.16911535,-0.14869735,-0.0077856136,0.085125014,-0.050861258,-0.1203396,0.10931399,-0.277627,-0.064133115,0.10257273,-0.041681007,0.065937065,-0.06112682,0.054437168,-0.061444256,0.075966,-0.0034714062,-0.16095968,0.014566919,-0.47247055,-0.16548058,-0.26917157,0.027400969,0.10891262,0.11174422,-0.09621862,0.041220516,-0.13255484,-0.07396967,-0.12952416,-0.09690568,-0.03424546,0.17244133,0.064002536,-0.09198253,-0.009329374,0.058251213,0.1950604,0.031859756,0.028814988,0.02805855,-0.038971577,0.08089241,-0.32209122,-0.21666959,0.023526805,0.19937177,0.033244494,-0.03931181,0.10657522,0.009155247,0.17051643,-0.31604782,-0.06534219,-0.26346102,-0.17563288,-0.10325713,0.01028967,-0.025825322,-0.013306768,-0.053422485,0.03760087,-0.015663564,0.0287169,0.07023806,0.15983592,0.043512158,-0.1000016,-0.009650496,0.038441055,0.20002566,0.18074928,-0.045575533,-0.12399143,-0.05373828,-0.011830505,-0.100581676,0.054989163,-0.117187,-0.15624754,0.06577915,-0.011343383,-0.13775201,0.032643043,0.003630087,0.19061138,-0.054778602,0.08377073,0.024105689,0.1501388,0.12434553,0.06685697,-0.08726906,0.003626056,0.055042524,0.14816332,0.08070945,0.016798764,-0.018730517,0.13060887,0.046927888,-0.18065125,0.0037293136,-0.13164066,-0.042290438,0.109533064,-0.04598975,0.028865557,0.14028539,0.068408124,0.13151921,0.00310625,0.03223248,-0.039574474,0.08687958,0.11989238,0.12369074,0.07708412,0.083684035,0.12592258,0.097224645,0.15663974,0.07295455,0.036361724,-0.12631375,-0.13001136,0.048261955,-0.13317174,-0.09816089,0.043144207,-0.12806822,0.01931737,0.030377937,0.016105603,-0.062989876,-0.14379771,-0.07281184,-0.35800487,-0.19878426,-0.15633138,-0.10415479,-0.017300794,0.014573521,-0.080071524,-0.20624708,-0.023232851,-0.10216514,-0.38610885,-0.33507422,-0.21092029,-0.12516685,0.11849268,-0.039525274,-0.082922086,-0.20506008,-0.12728517,-0.094048895,-0.11974637,-0.12855984,-0.18588732,-0.18138896,-0.009791848,-0.12677255,0.03614645,0.038956698,-0.20610486,-0.12819986,0.029323,0.041955028,0.0704047,0.17984554,-0.024904914,-0.028454311,0.045171544,0.101934716,-0.07069579,-0.043065783,0.022176536,0.015655525,0.102690026,0.05396504,0.17906222,-0.06487806,0.014908691,0.08658402,-0.06404118,-0.13107602,-0.0037971328,-0.21098132,-0.2284261,0.011615657,0.08236303,0.021912519,-0.104363985,-0.118633874,0.13470073,-0.027922727,-0.069905065,-0.28658992,0.17031877,0.07787001,-0.10251615,0.116536245,0.1664196,-0.06274714,-0.051153485,-0.14189062,0.08303174,-0.15515654,0.029253433,0.07478133,-0.16759562,-0.300211,-0.06235794,-0.19097805,0.02210316,-0.11754763,-0.049686596,-0.12533695
-0.23738144,-0.2008572,0.17426817,0.7552806,-0.1347562,0.03879355,-0.37961003,0.37681198,-0.1674653,-0.12387601,-0.43972802,0.2443106,-0.11103601,-0.21004435,-0.38308248,0.0077062757,-0.06252622,-0.1784414,0.31283996,-0.1307225,-0.43596628,-0.027263852,0.46536246,0.049020145,0.29284468,-0.16114213,0.097957544,-0.047516372,0.15139624,0.06951558,0.09694311,-0.38952747,-0.03392269,0.15432718,0.042577896,-0.08296099,0.035372052,0.12285126,0.2174262,0.0634802,-0.21137995,-0.043806035,0.0010857685,0.03877775,-0.18983091,0.14566562,-0.14762524,0.040396404,-0.07571853,-0.13503207,-0.18240073,-0.38558957,0.011234577,-0.17456219,0.17652376,-0.3981148,-0.08533471,0.06988213,0.3308202,0.11567469,-0.12414353,0.024818609,0.2453387,-0.14298593,-0.060896344,0.0629557,-0.022592798,-0.21647951,-0.18372709,0.019562699,-0.27224222,-0.026923887,-0.13784261,0.23476905,0.06116344,0.47335982,-0.20548414,0.31116298,0.28777236,0.0013452339,-0.4529035,-0.36888143,-0.19915433,-0.2451914,0.04923145,0.05842659,-0.1001178,0.08758751,-0.015443459,0.14377046,-0.5040215,-0.03636823,-0.3880817,-0.032403205,-0.17681538,0.033408288,-0.21940193,0.10261251,0.1527435,0.22004399,0.07971977,0.18693429,-0.15688398,-0.115386024,-0.025669828,0.082225725,0.21202716,-0.12687255,-0.18316129,0.17428188,0.08821416,0.0073897727,0.1315237,-0.019306896,-0.20399477,-0.30795455,-0.18651909,-0.20639856,-0.18388018,-0.5346365,0.14366762,-0.31525242,0.07594042,-0.022018543,-0.19529171,0.17995228,0.06644979,0.08046008,-0.3071845,-0.35553557,-0.24245252,-0.016927272,-0.061206996,-0.180608,0.56192696,0.0023462295,0.21866614,-0.07220649,0.008730286,-0.10540831,-0.14865667,0.0010313651,0.068668164,0.037082512,-0.11581291,-0.32777733,0.49203265,0.4971524,0.1342536,0.04500945,0.51080847,0.34133115,0.20760581,0.15626092,-0.20552984,0.093612105,0.27395752,0.14036492,-0.3152741,-0.26836967,0.08438086,0.35950282,0.056624368,0.5094383,-0.1950719,0.16680843,-0.039707612,0.10352451,0.16951837,0.120163046,-0.16832307,0.15826629,0.5741996,-0.24597095,0.066240355,0.2489918,0.14943738,0.08213081,0.21427743,-0.050443534,0.22910598,-0.027505914,-0.018942593,0.03016296,0.12069493,-0.0516131,0.061694294,-0.3059917,0.15660848,0.25958672,0.16237713,-0.25793865,-0.30658615,-0.06060066,-0.40841356,-0.79872787,0.119797215,0.20033781,0.14868876,-0.1914297,0.09541491,0.074477874,0.16474403,-0.11380264,-0.029034046,-0.11678273,-0.11116638,0.08611128,0.040878557,0.013365192,-0.16660488,0.68084973,0.19001271,0.038273416,-0.038592037,0.30508432,-0.15527388,0.5179672,-0.17048474,-0.16972245,-0.2450077,0.23032238,0.065816626,0.27842137,0.2824127,0.057477765,-0.019674566,0.085453205,0.075821646,-0.053296722,-0.2808013,-0.4935255,0.12722355,-0.13363668,-0.081749775,0.10556067,0.22135529,-0.005072257,-0.0022820265,0.19962771,-0.056085426,0.45243445,0.41678432,0.13179578,-0.1849211,-0.1538717,-0.15969254,-0.30955306,0.18263368,0.18383685,-0.011107499,-0.15217578,0.14107066,0.03625987,-0.32028025,-0.33424452
0.103527,-0.04259581,0.04891268,0.11469116,-0.07968683,-0.124679364,0.027233832,0.18449347,-0.053931274,-0.3861638,0.34004322,0.14935066,-0.162391,-0.023345944,-0.022380948,-0.15671156,-0.17004648,0.36218724,-0.06505496,0.15603387,-0.18114556,-0.080419436,0.14557518,-0.09662547,-0.22008924,-0.2906274,-0.17878415,-0.016502025,0.03149922,-0.22717065,-0.015448971,-0.07284752,0.0030978462,0.19836645,-0.06185306,-0.0071506244,0.0075402097,0.038522985,0.02928559,-0.10291698,0.25877026,-0.10311834,-0.03892263,-0.12763913,-0.059362467,-0.017012564,-0.15336335,0.06676916,0.27782685,0.14125554,0.15077081,0.11195381,0.23540676,-0.1959623,-0.46589553,-0.30606294,0.12782413,0.18010344,0.033015467,0.19759062,0.13945168,0.3422292,0.0026590407,-0.07232696,-0.121362254,0.04960934,0.10830016,0.16730744,0.20448025,0.2307963,0.3542757,0.16953862,-0.013211958,0.40887538,0.06604905,0.18763857,-0.03260408,-0.009591489,0.06903678,0.23530726,-0.09050422,-0.035074756,-0.089642935,-0.21328759,-0.10691694,-0.03637139,-0.027843507,-0.17955963,-0.31466943,0.019023381,-0.22277014,-0.34792042,0.20741688,0.14422351,-0.110783145,-0.028930629,0.0019835436,0.078442246,0.0873925,0.06196433,0.049285445,0.20036717,0.020360468,0.18139015,0.1435316,0.19282869,-0.022148337,0.0030142341,-0.04058991,-0.21546803,-0.384018,-0.0058177533,0.16227561,0.02360018,0.105860054,-0.27713415,0.0031072064,0.16599543,0.17442197,-0.056124758,0.21998787,0.1063433,0.14766215,0.100442,0.017157968,0.22777934,0.27108228,0.015680648,-0.15814602,0.14685826,-0.10894383,-0.14740406,0.14638947,0.17276552,-0.12105421,-0.38040107,0.17889693,0.002340401,0.1632249,0.11111711,-0.037503947,-0.027439475,0.23311092,0.45414308,-0.048713826,0.016085742,-0.11143906,-0.09612298,-0.051134266,-0.10492223,0.23178115,0.1724053,-0.040176716,-0.25441593,0.043224573,-0.010120379,0.076825246,0.16424201,0.11071641,0.06916764,-0.31147256,0.11365425,0.0011772694,0.078546345,0.0016845167,0.17474446,-0.049540415,0.1323959,0.07472377,0.042166885,-0.19615424,-0.06422235,-0.13348505,-0.064111255,-0.4756725,-0.28268307,-0.10222462,-0.11990863,-0.13719638,0.07775641,0.13422914,0.0654212,-0.12866563,-0.21285807,-0.065411,0.014171602,-0.22471544,-0.1428901,-0.33100545,0.08193254,-0.1586557,0.14663564,0.07472313,0.10308703,-0.05115511,-0.067015685,0.14772594,-0.07930214,-0.08476705,-0.19557618,0.037102204,-0.16322806,0.15259308,0.17864764,-0.029170811,0.013574573,0.2431656,0.1343898,0.20329787,0.14387298,0.10337269,-0.037294146,-0.15355207,0.045158833,0.22496232,0.07303534,-0.09912978,0.16806182,0.26808465,-0.21819419,0.0076668225,0.21812591,0.15524054,0.025678188,-0.17960554,-0.105515465,0.0057214946,0.16767043,0.15578075,0.22172235,-0.0012429077,0.09879758,0.21124956,0.010716144,-0.30980304,-0.419726,0.1254838,0.07259481,-0.3294562,-0.25079727,-0.10218359,-0.16523793,0.11380235,-0.046010155,-0.043308534,0.31208476,0.24897063,0.10866864,0.0057863146,0.31294826,0.12564634,-0.20054477,-0.20529898,0.0503481,-0.16016348,-0.32924712
-0.020439813,-0.07327505,-0.35610005,-0.04281201,-0.055370945,-0.21968473,0.09594481,-0.07461364,-0.112466335,-0.14555284,-0.27845317,0.17703396,0.0072003216,0.10126038,-0.01937024,0.2916293,-0.18150775,-0.19693902,0.11186756,0.29067805,-0.12640677,0.14123522,0.017937198,0.2263596,0.2184049,-0.019514058,0.106506094,-0.015928632,-0.104776986,0.16716225,0.08501299,0.018335396,0.101918615,0.28264564,0.1528637,0.016254531,0.20020135,-0.104927,0.20762604,0.09554062,0.16068392,0.08101829,-0.05129769,-0.219639,0.07693549,-0.053006425,-0.10014796,-0.1386034,-0.026171785,-0.09359533,-0.01138952,0.35648277,-0.10646034,0.008381788,0.0006676601,-0.06353702,0.16249366,-0.2186991,0.17137444,0.11902934,-0.17507568,0.0385966,-0.11766908,0.060767848,0.119666435,-0.09347427,-0.1908695,-0.37584943,-0.11272716,-0.3947784,0.13592272,-0.034972034,0.09386851,0.21128267,0.084008105,0.06459392,-0.049077433,0.22002639,-0.10210313,0.21262264,-0.021271303,0.036728878,-0.07336218,-0.12790096,0.19449574,-0.011378403,0.04942436,-0.078687206,0.11092543,0.12097826,0.13971964,0.18342721,0.101469405,0.07802966,-0.12680604,-0.16321881,-0.13735904,-0.06483515,-0.039893396,0.11036888,-0.21560988,-0.305182,-0.06584032,0.072369166,-0.13066229,-0.048586324,-0.04700637,0.21722808,0.029602567,0.116230875,-0.0066302884,-0.090402335,-0.041923355,0.010746308,-0.17619143,-0.24945466,-0.21171829,0.054953843,0.054856047,0.29446873,-0.016116178,0.009465916,-0.04552127,0.08241679,0.116727896,0.3062956,0.040570565,-0.049016777,0.12576815,0.057507437,0.007996043,0.05902527,-0.0721376,-0.08285651,0.21030541,0.027017549,0.15757605,0.12561984,0.032302324,-0.17946272,0.029308306,0.01967319,-0.14827894,-0.2007889,-0.3252715,0.041160908,-0.13554929,-0.25521925,0.018540755,-0.1430066,-0.016179131,0.004079592,0.034637053,-0.26577947,0.06186075,0.14032018,-0.00030254625,0.010771626,0.071949065,0.3778804,0.035123862,0.06358335,0.053980626,0.34244394,0.18109755,0.26929545,0.1961067,0.2810286,-0.095989965,0.16405714,0.041860763,0.0786348,0.012057549,0.12682086,0.13001956,-0.00312925,-0.12320618,-0.1372472,0.20534632,0.2300581,-0.021744048,-0.09822478,0.042356882,0.07755004,0.15292689,0.22602719,-0.07385865,0.00042057104,0.052960563,-0.045283396,-0.234463,0.29771423,0.17705894,0.09873802,-0.019054309,0.03144708,0.24911904,0.062252466,0.0733853,0.096170895,-0.07074624,0.096762456,0.18064614,0.09366918,-0.020988908,0.06529143,-0.05894394,-0.123746194,0.048688676,-0.054199625,-0.23846146,0.06090123,0.17893617,-0.009078834,0.3383122,-0.14581895,-0.3432272,0.021336561,0.103982925,0.09093821,0.20988561,0.2629316,0.030053798,-0.032503482,-0.011728856,0.22774105,0.19496961,0.088394314,-0.38480875,0.06638551,0.043160066,0.08146653,-0.06605608,0.05018591,-0.12360872,-0.09707288,0.18504992,0.024990775,0.022161532,0.093195334,-0.34322825,-0.39966476,0.16288918,0.16161811,0.1798216,-0.01666946,-0.09665924,-0.09183231,0.198541,0.12426686,0.13339837,0.16749752,0.03728854,0.1815283,0.055202436,-0.021606745
0.04045915,0.07621253,0.059375286,-0.21114023,0.15078963,-0.075128436,-0.0019449552,-0.27473515,0.12948324,0.09847451,0.26062313,-0.2994877,0.15735558,0.15881498,-0.25976786,0.0579846,0.003985566,-0.02749119,0.018547466,0.18277676,-0.24405782,-0.14211558,0.12842782,0.06527663,-0.14573129,-0.16518454,0.14284426,0.17107128,-0.13207906,-0.06185131,0.15666741,0.17981885,-0.016763972,0.07750681,0.14971109,0.057717063,-0.22514401,-0.30824822,-0.24196191,-0.1551848,-0.19773862,-0.09208469,0.33038825,0.09439428,0.13327375,0.24597444,0.1782746,0.0009957035,0.2549888,-0.0377022,-0.16736004,0.12467468,0.12962295,0.154087,0.1360391,0.11047199,0.14838608,0.1796376,0.050639577,0.015266599,-0.22673273,-0.21107404,-0.19828138,-0.07810944,0.14700161,0.09674547,0.1968034,0.033730622,0.13900779,-0.022538353,0.109675884,0.16548368,-0.06258257,0.110055946,0.13012694,-0.047735788,0.10341762,-0.07500452,-0.059563756,-0.07797781,-0.08827407,-0.11400658,0.0093156155,0.11513447,0.026117144,-0.26905918,0.11217507,-0.0969254,-0.12930161,-0.04863886,0.12062778,0.14139406,0.24292104,0.11228415,0.08478993,0.07622175,0.23710753,0.136765,0.14764866,0.042275373,-0.12414088,-0.037892837,-0.043195505,0.036982417,-0.30217496,0.13138814,0.18019135,-0.006658748,0.13108419,-0.17954315,-0.10119052,-0.053045087,0.32563347,0.17764872,-0.019898092,0.084980905,-0.018676395,0.13057452,0.0062663145,0.24057224,0.018042687,0.13859619,0.16959396,0.16421641,-0.1690664,0.19211796,0.12778543,0.15758441,0.12322099,-0.08839747,-0.17240445,0.20255487,-0.28551504,-0.030493928,-0.043010574,-0.15113786,-0.07543812,-0.12798965,-0.070537545,-0.16155353,0.08540136,-0.07523165,0.16448633,0.06980316,-0.11671685,0.058053512,-0.08712906,-0.13027363,-0.050016966,0.16908194,0.010868059,-0.15675846,0.14101516,0.059260014,-0.009751512,-0.22299808,-0.009692407,0.25503263,0.13214597,-0.23630388,-0.08730913,0.059688464,0.048103847,-0.0003696526,-0.24608472,0.15970273,-0.09463887,0.047058128,0.025336001,-0.092592426,-0.18360487,-0.08585146,-0.11182273,-0.26999956,-0.20746848,-0.04666656,0.24989516,-0.06839097,0.05432903,0.014126582,0.012761169,0.09384008,0.14272787,0.12373982,0.0080948295,0.065974794,0.28142014,0.11733094,-0.20873289,0.09190699,-0.0022821904,0.3324521,0.14037077,0.08742802,0.15186194,0.20915838,0.14981507,0.06916471,0.03262759,0.16299413,-0.16203344,-0.048962712,0.08600463,0.07807214,0.11064433,-0.095425986,0.071207784,0.19965295,0.08999151,0.066246524,0.06667126,-0.19749056,-0.20891458,0.2571697,-0.25334057,-0.013648857,-0.18484816,0.08993,0.09639243,-0.076299846,-0.046134543,0.08037518,-0.1629593,0.19836138,-0.20242882,-0.017859248,0.06530755,0.081611566,-0.12426166,0.015554407,-0.09218441,0.055549633,-0.08148138,0.033401947,-0.112228595,0.08679664,0.028708065,-0.18444197,-0.07404494,-0.06786382,0.23591484,0.17065354,-0.026225373,-0.11649697,-0.03243857,-0.109607965,0.13686292,-0.05425338,-0.06601485,0.070717216,0.060687516,-0.040299032,-0.11120581,0.18427874,-0.014509994,-0.01054736
0.08102271,0.01098547,-0.028782751,-0.052350886,0.04718903,-0.027230589,0.021128703,-0.02393431,0.097305626,-0.07647695,-0.025295578,0.089265704,0.10952566,-0.02244935,0.11617537,0.0019170386,0.018392023,0.047194358,0.0069719986,-0.023250109,-0.025007403,0.022999175,-0.039413225,-0.025338285,0.00663823,-0.0034990073,-0.034407992,0.12161932,-0.13560374,-0.0022520286,-0.0037838933,0.08452706,-0.06924038,0.056499444,-0.018592518,-0.041773863,-0.08486051,-0.13322,0.0499171,0.046833895,0.12395475,-0.072603986,0.058473594,0.002600353,0.07689281,0.028620128,-0.12742122,-0.15290995,-0.2825056,-0.12934278,-0.14844207,-0.056423694,0.21908922,0.14674862,0.018590638,-0.043291092,0.06159617,-0.0043686046,-0.044380665,-0.05779862,-0.10517334,0.020341188,-0.13982268,0.09059601,0.06968242,0.116285615,-0.05336885,0.036373727,0.016255448,-0.036890645,-0.0077587445,0.0343828,-0.08774752,-0.0011103983,-0.079928406,0.071440674,-0.006507467,-0.12181433,-0.020461569,-0.06072487,-0.09653006,-0.11293768,-0.03453362,0.07632546,-0.038074426,-0.058566507,0.029968984,0.052555077,-0.09973124,-0.14392202,0.13630435,0.007909742,0.17769939,0.061517786,0.05602455,-0.044906035,0.10887246,-0.11999354,0.1215088,-0.08802617,-0.06323856,9.4135794e-05,0.021401264,0.027155902,0.060718033,0.08469717,-0.10419519,0.054718442,0.011712781,-0.034212507,0.13681121,0.006902628,-0.048698448,-0.1004197,-0.09040923,0.003669743,-0.0024512722,0.060805883,0.03375088,0.078483544,-0.03480192,-0.0012207001,0.07128983,0.101377934,0.06812187,-0.10848164,0.07683646,0.060631897,-0.08611342,-0.043971006,0.0024623787,0.12050067,0.10160643,-0.010138804,0.0034974706,0.025651084,-0.0059799263,-0.04362452,0.008347054,0.030618517,0.05871851,-0.05247254,-0.060546033,0.047287438,-0.0645565,0.16995178,0.011215891,-0.0036611892,-0.0062738354,0.063283384,0.045684043,-0.06635337,0.024020188,0.027910091,-0.025104316,-0.09535524,0.0007939541,0.046768066,0.0236935,-0.05524079,0.020280939,0.19033866,0.070452765,-0.08186776,-0.13330454,0.14757554,0.10635829,0.04292452,-0.038953405,-0.1044919,-0.048311424,0.061265614,-0.12776464,-0.087582104,-0.030861208,0.017566077,-0.16041195,-0.038687218,0.057514537,-0.105563454,0.14441179,0.048716,-0.15932913,-0.025370901,0.012705178,0.06937482,0.061271597,-0.063019834,0.05187901,-0.087685704,-0.004983787,-0.13102265,0.059121624,-0.0035814813,-0.08683838,0.026749803,0.083712175,-0.076898724,-0.14396343,0.009722858,-0.10771064,-0.090757616,0.14766775,-0.08525813,-0.056344572,-0.11171142,0.18733062,-0.060874023,-0.08147091,-0.06633454,-0.021636095,-0.02952057,-0.0074423063,-0.06646631,-0.07439558,-0.059867,0.054641113,-0.05079651,-0.14023872,0.031364374,-0.024590934,0.04696277,-0.2622351,-0.011402455,-0.1382756,0.098094456,-0.019328559,-0.14388451,0.028032681,-0.026392078,-0.038228642,0.02428162,0.07189352,-0.013497628,0.089086555,0.20621453,-0.044992156,0.037705734,0.024059642,-0.00862021,0.041797824,0.0130325025,0.092120655,0.006782722,0.0034967894,0.0978527,0.062748596,0.041983303,-0.079809844,-0.18016589,0.07439037,-0.00018839864,0.07717976,0.046654698,0.1746508,0.034599762
-0.05380055,0.012722723,0.07728958,0.25233796,-0.11249294,0.019307245,-0.004231318,0.28911102,0.07159387,-0.19771227,-0.21691063,0.00536784,-0.14318919,-0.18188444,-0.17730081,0.066851914,-0.08667083,0.15670486,-0.05214914,0.018177431,-0.20056988,-0.3818002,0.057512242,-0.08609316,-0.13341692,-0.21452938,-0.02748098,0.13436106,-0.007863453,0.39848882,0.103538565,-0.08045081,-0.02519892,-0.023149835,0.13286355,0.03622115,0.10895919,-0.2166071,0.178495,0.16707972,0.16253825,-0.024877897,-0.16079257,0.036427777,0.17836015,-2.0567735e-05,0.026090572,0.2165194,0.16771299,-0.058889117,0.10201365,-0.20747906,-0.012583754,-0.07957507,-0.07373101,-0.0960162,0.034188204,0.0814736,0.115912855,-0.011748624,-0.14613949,0.21784212,0.0940216,-0.15089886,-0.11239111,0.08508473,0.06987394,0.08052564,-0.04506645,0.12230496,-0.09170462,0.10101922,-0.17622441,0.03528524,-0.072082184,0.10031203,0.12370381,-0.086331844,0.013564205,0.19478612,-0.040420428,-0.11323773,-0.13453694,-0.142302,-0.06907514,0.15493926,-0.11470474,-0.19046648,0.2640679,0.0881981,0.010670982,-0.24934918,0.22947071,0.08277816,-0.14299724,-0.04928154,-0.17755806,-0.17136711,0.16737634,0.12969767,-0.02979936,0.1756703,0.033510067,-0.29780042,-0.1418101,-0.005662795,-0.115347445,-0.036391478,-0.08084858,0.114711195,0.19325517,0.041529063,-0.030047212,0.22386737,0.18056062,-0.14772579,0.08079739,0.22445902,0.15438919,0.07380401,0.062272403,0.04452683,0.03184169,-0.06028216,-0.09191241,0.14090143,0.10260062,-0.047697045,-0.08915991,-0.13826121,0.039649602,-0.13981533,-0.009411932,0.07263484,-0.028490203,-0.0068102404,0.33692515,0.05993181,-0.0025064081,-0.040412616,0.21582952,0.03828361,0.099307746,0.21650714,-0.2574945,-0.36518726,-0.3003319,-0.06519345,0.09198612,0.021758312,0.105685376,0.09709996,0.077276096,-0.102075525,-0.006994996,0.069321,0.21929725,-0.025132632,0.0054914686,0.11846837,-0.19497894,0.10180635,0.25641063,0.2179137,0.048589446,0.35488087,0.07605633,0.075053796,-0.022973755,-0.04300085,0.14300123,0.060111377,-0.04867909,-0.20105438,-0.04733993,-0.0006512599,-0.18566945,-0.038417425,0.078550346,0.03382619,0.328638,0.025092425,-0.20310497,0.048156157,0.006240661,-0.07935726,0.18694912,-0.21124177,-0.028238488,0.26316378,0.1869139,-0.11490022,0.10347181,0.08606974,-0.085219786,-0.08223248,-0.037018433,-0.040837754,0.043331455,0.097604506,0.08019099,-0.0008935074,-0.16495347,-0.17128211,-0.08922764,0.029880667,-0.077099174,-0.020016357,0.0015553434,0.08741781,-0.13495564,-0.18251213,0.037104033,0.20540608,0.20715295,-0.030837292,-0.052191425,-0.032281976,0.11955467,0.14414436,-0.087189004,-0.10684168,0.19876605,0.115799025,-0.056075204,0.08135865,0.20212872,0.11553285,-0.16978082,-0.13409773,-0.076592475,-0.095569156,-0.17311293,-0.07243084,-0.023499839,-0.36772284,-0.07175185,0.012880654,0.0060602096,-0.16842435,-0.16070211,-0.11706226,0.1882751,0.09641626,0.018507525,0.103779174,0.015488372,-0.10363198,-0.13155708,0.03740807,0.11715795,-0.0593756,-0.06383847,0.24037094,0.063841425,-0.124978215
-0.013262756,-0.048414305,0.072202235,-0.042510774,0.10125081,-0.041588936,-0.03918868,0.031898245,0.11937229,0.09099306,-0.3162822,0.09530842,0.19867514,0.10936598,-0.26843306,-0.2569978,0.111037366,0.14128563,0.10441353,0.03431765,0.09826205,0.028594427,0.009644128,-0.10232087,-0.09018471,-0.26494882,0.083548754,0.06738812,0.0080478005,-0.0681831,-0.011066111,0.21178685,0.09264055,0.0645288,-0.044789147,-0.066299014,0.21852681,0.24882929,-0.18635869,-0.12708835,0.17879002,0.2813846,0.058567766,0.10450183,0.2122674,0.105400756,-0.13308689,0.29512942,-0.04128416,-0.008521214,-0.048260845,0.10524577,0.03521884,0.18958803,0.18552585,0.031106075,0.12858103,0.15991832,0.05528789,0.060782462,-0.39433986,-0.14368756,0.122507215,-0.0052273558,-0.18706697,-0.0017148352,0.026049884,-0.13467234,-0.006403495,0.011851278,-0.04313494,-0.08869564,0.15838747,-0.010801146,-0.07429771,-0.22120714,0.05668618,0.12753619,0.13526662,-0.26254094,-0.11575015,-0.057905324,0.080280654,-0.07171972,-0.113655515,-0.12932006,-0.16986693,0.07154747,0.11091298,0.09872779,0.11437619,0.23160364,0.14120689,0.21087316,0.13060102,0.1588583,0.06999157,0.09821368,0.10666317,0.18616448,-0.038300164,-0.041038446,0.09143812,0.3239501,0.4069681,0.3474127,0.17740953,-0.2240347,0.16427983,-0.056947026,-0.01723542,-0.05467254,0.0866782,-0.2754397,-0.14805938,-0.13164212,-0.17783736,-0.15045802,-0.15185484,0.06639223,-0.13384293,0.026702704,-0.06410676,0.19167052,-0.00081619853,-0.019058404,0.021496918,-0.16650783,0.16053863,0.3418719,-0.26334494,0.076487675,0.34378684,0.12051127,0.11212912,-0.04988321,0.3266434,0.21753871,0.015013066,-0.0060786163,0.06274228,0.017269896,-0.008980098,0.14547664,0.07951896,0.050578766,0.019891242,0.15797661,0.16837692,0.1766206,-0.07159771,0.11068806,0.22671169,-0.00051074056,-0.010357768,0.075260304,0.19433865,0.15184823,0.14134037,0.25828972,0.11939923,0.27393726,0.046444084,0.17985396,0.04726511,0.03280994,0.08035946,-0.15778473,0.035187732,-0.014807802,-0.05089389,-0.28591257,-0.028981311,-0.07343087,-0.056303933,0.06374632,0.10812746,-0.032985143,0.07361974,0.03156614,0.13648494,0.18859111,-0.013488877,-0.12538008,0.019173505,-0.19000444,0.02903289,0.05265406,-0.20498836,-0.19217974,0.28506505,0.117584914,0.20361233,-0.0027463257,0.0060209767,-0.12327586,0.15052646,-0.23923118,0.044220824,0.17486387,-0.13537554,-0.3264896,0.03991675,0.2847639,0.108226,-0.0005677477,0.027852912,-0.08686965,-0.12335481,0.08059775,-0.002618156,-0.10200509,0.15785463,0.23083773,-0.19281776,0.07512951,0.031875577,0.10170073,0.03601186,0.058720592,0.24217345,0.10458702,0.15352315,-0.11523949,-0.18270263,0.035183974,-0.0023817301,-0.17984788,-0.038220428,-0.20348075,-0.24819124,-0.22935745,0.12133808,0.25976923,0.26413333,0.21690875,0.15084617,0.1537957,-0.17698073,0.15145786,0.004560446,0.2601757,0.12409322,0.13517116,0.19998027,0.06255819,-0.22349338,-0.027392143,0.1252613,0.04490187,-0.016421504,-0.07794066,-0.16202772,0.031833317,0.015456185,-0.24195004
-0.022504611,-0.05557956,-0.01139396,0.01697339,0.095186226,-0.023607446,0.018939337,-0.045074757,0.062392123,0.2288469,-0.006611863,0.2387455,-0.054216713,0.12811251,0.2596954,0.20735744,-0.089274935,-0.050926913,-0.08313292,-0.31322035,-0.066658154,-0.0832387,-0.045080412,0.0004909416,0.02293376,-0.0064046187,-0.026246792,-0.2753191,0.008363673,0.13148962,-0.041831255,0.18878837,-0.26766437,0.057241436,-0.31400406,0.062308416,-0.08892431,0.21934226,-0.022377316,-0.058094833,-0.025100823,0.0013492325,-0.34656805,-0.22195148,-0.2705861,-0.08455194,-0.1953796,-0.2138392,-0.0963949,0.0267688,-0.0012142345,0.0032459695,0.029495463,0.06847812,-0.007260465,-0.079813495,0.36949408,0.007970932,0.059948526,0.039951995,0.25265136,-0.028478578,-0.0073030526,-0.07721947,-0.19094883,-0.05185284,0.11809041,0.08143369,0.18805122,0.11818416,0.17046559,0.025108676,0.09027074,0.39263433,0.08498166,0.05023197,0.19034149,0.035724908,0.064411804,-0.024804026,-0.0035149327,-0.12795617,-0.21517394,-0.11556216,0.024820434,0.2528809,-0.086679816,0.20792945,-0.115081415,0.1751851,0.053609982,0.03269647,-0.24761814,0.15717104,0.20805486,0.11805114,0.06893951,0.089765094,0.008890926,0.16608231,-0.018274464,0.17529346,0.08743998,0.02950251,0.18897244,-0.034001995,0.015837112,-0.23328333,0.27863532,0.038087964,-0.10877691,0.04485812,0.028765418,-0.015488002,-0.19172351,-0.12133154,0.21471445,0.01229684,0.16226879,-0.1258318,0.070945226,0.18232016,0.09283937,0.10569418,0.06841455,0.061427116,0.0099122785,-0.0044808113,0.07443249,-0.20112588,-0.02362756,0.071269706,-0.060000956,-0.10970394,-0.09532717,-0.031100046,0.11929726,0.14268148,-0.09759468,0.0051683257,-0.17881146,-0.12977009,-0.21752453,-0.26563993,-0.16435812,0.14106655,0.28166083,0.15696596,0.15369791,0.05506273,0.29977697,0.028628316,0.10771349,0.18421815,0.21463403,0.006050473,-0.1768004,0.08534474,0.16610259,0.06501142,0.02446986,-0.095847584,0.012328268,0.18379904,-0.053326868,-0.01928543,0.007873365,0.16071624,0.18159336,-0.03969976,-0.19843446,0.047061313,0.25667298,-0.108661756,-0.00092939526,0.083926044,-0.21362084,-0.036574952,-0.051225893,0.09836116,0.24697621,0.0944409,-0.20210482,-0.15810537,-0.095553406,0.059306648,-0.17798533,-0.015950838,-0.06384638,0.090856686,-0.15009421,0.04253479,0.031807117,-0.011756985,0.26049376,-0.13604183,-0.19074953,-0.37513602,-0.016027637,0.060722087,0.10761202,0.09459515,0.05352531,-0.10501149,0.06582436,0.05741546,0.11606964,-0.085496604,-0.19923913,0.07538112,0.07323354,0.15853426,0.17212906,-0.14529975,0.35330495,0.032675907,-0.08518825,0.020966807,-0.031810895,-0.031215683,-0.055662334,-0.14477947,-0.06433439,-0.0347616,0.28460395,0.21192946,0.007121436,0.1397138,-0.05358317,0.007880328,0.21766213,0.07557564,-0.033681694,-0.29547828,0.31882545,0.12180896,0.10550083,0.077735774,0.22038133,0.15136886,0.05545384,-0.15450294,-0.058775228,-0.032380577,0.036389552,0.22504796,-0.12407106,-0.04327589,0.07392708,0.34314704,0.12814954,-0.05530369,-0.0050427313,-0.08334475,0.10273188,0.10795327
0.026488993,-0.06106202,0.083714716,-0.103070214,-0.06909488,-0.047998402,-0.040186618,-0.054719344,-0.044223957,0.10738036,0.17368136,0.042828087,0.038318895,-0.037666205,0.00051319296,-0.059638016,0.1138539,0.17291462,0.09237786,0.09873953,-0.0036751933,0.09083884,0.23390996,0.11238854,-0.07689682,-0.0401971,0.36055052,-0.026361294,0.124403425,0.098630615,0.13062096,-0.023324685,-0.13125183,-0.28244752,0.06967193,-0.23643097,-0.11419533,0.08448555,-0.051942054,-0.12141644,-0.129054,-0.056003597,0.15299864,0.10074142,0.025855543,-0.06388633,-0.2722637,-0.05059673,0.13847426,0.05232019,-0.045835968,-0.01852089,0.10102287,0.15986039,0.12605244,-0.02718213,0.038971968,0.26361674,-0.112242505,0.17216201,0.033689328,-0.12344597,-0.05296761,-0.03737291,0.067919664,0.11149126,0.121380955,0.07246035,-0.012010461,0.12381876,0.10159966,-0.07687778,0.34656128,0.27447137,-0.032351214,0.06343499,0.06916795,0.2023566,0.14186507,0.12942664,-0.29194447,-0.3859746,-0.08837192,-0.18252048,0.08319521,-0.09496212,-0.08881261,0.064277746,-0.14145043,-0.092003435,0.14478728,0.02237861,-0.17661904,-0.17293754,0.04594484,0.030120403,0.0935654,0.37337005,0.22581144,-0.08855883,0.19455823,-0.008972435,-0.039755806,-0.046198122,0.0914902,0.07181067,0.010535906,0.13536777,-0.039010435,0.0050564315,0.048369434,0.07754769,0.1450749,0.07889108,0.0008534344,-0.0149546955,-0.023040423,0.12076393,-0.029773826,-0.113298886,0.14367555,0.10347325,0.029042771,0.15483129,0.059156924,0.07054689,0.12949951,0.03537816,-0.13654418,-0.30486712,0.10113213,0.14911054,-0.0032276092,-0.25602886,-0.049569156,0.12145751,-0.33441508,-0.16118827,-0.00092786097,0.08194553,-0.17151797,-0.18280102,0.016825793,0.036405943,-0.1261808,0.12848225,0.3203476,-0.03991274,-0.04290062,0.18496716,0.2583164,-0.08975552,-0.10754308,0.048310902,-0.036026224,-0.013791563,0.11639483,0.023604404,-0.04081634,0.06659474,0.048221905,0.3327466,0.0011794611,-0.2714211,0.16620047,-0.114890896,-0.029844346,-0.21455218,0.05852152,0.27400947,0.06076534,-0.070810184,-0.168873,0.02869694,0.001366765,-0.12071475,0.3007647,0.20693798,-0.04088495,-0.11286664,-0.18111925,0.051241428,0.11070937,0.024786294,0.010476775,0.037819494,0.12790872,0.018757962,-0.030848835,0.032041684,0.01929322,-0.029128712,0.03468478,-0.15982246,-0.0671595,0.11076575,0.0070657376,0.0816725,-0.037549768,-0.10344988,-0.2543557,-0.22397713,0.022274897,-0.039487727,0.08696871,-0.037863817,-0.034050707,-0.10590614,0.009750808,0.04037468,0.139782,-0.19081716,-0.13655905,0.15630305,-0.06783158,0.04489955,-0.08200714,0.006441571,-0.15208717,-0.003771844,-0.07917963,0.15091556,-0.0060059316,-0.114250205,0.20562755,0.098462574,-0.15421656,-0.18793239,0.115701824,0.002318092,0.15440606,-0.03832827,-0.062385388,-0.090097986,0.0911571,0.11945543,0.050479133,0.055570155,0.14161883,0.07999971,0.025434164,0.39432323,0.21471442,0.008863025,-0.011484229,-0.076359235,-0.0856185,-0.08918272,0.10406333,0.11846389,0.04823441,0.09243659,0.033468995,-0.14599143,0.0017283246,0.0717613
0.013877375,-0.022318047,-0.015169796,0.05506601,-0.0050288877,-0.04679858,0.17907742,-0.10360787,-0.04539455,-0.18522134,0.19446625,0.10200452,-0.09206209,-0.21571553,0.2793421,-0.0041363626,0.28104347,-0.13767555,0.018462624,-0.12143207,-0.02765549,0.16240244,-0.12913935,-0.29068744,0.15773201,0.08268977,-0.15532754,-0.25654903,0.2801775,0.13734911,-0.123691946,-0.40280998,0.06691919,0.05018063,-0.17028627,0.17581466,0.16250613,-0.08026491,-0.2520701,-0.12270114,-0.2164254,-0.11610979,-0.041267257,-0.10500877,-0.1860135,-0.07717433,-0.120710455,0.059409622,-0.015037865,0.010869199,-0.056713905,-0.0115140695,0.03979234,-0.14985499,-0.022818295,0.25000492,-0.003518134,-0.13515542,-0.15277635,-0.00976492,0.012802213,-0.28309456,0.09986325,-0.10631298,0.24780694,0.21583456,-0.05848975,0.08779654,0.24259166,0.011211965,0.16658859,0.22718057,0.045375336,-0.036317304,0.43897098,0.09993357,-0.12042433,0.0020072684,0.14320974,-0.15731613,-0.16124327,0.008675344,-0.10040863,0.22695635,-0.022782067,-0.054877173,-0.18617147,0.2868602,0.13928783,-0.2736719,-0.12879321,-0.015949829,-0.0838406,-0.11158377,-0.06684812,-0.06004021,0.048240256,0.030061776,0.097279906,0.2521845,0.11251731,-0.08253368,0.00993849,-0.012102434,-0.0027681133,-0.25269946,-0.31156403,0.0090258485,0.58857673,-0.16563652,-0.35629922,-0.25260535,0.07559664,-0.14534412,0.2838942,0.30211186,0.06934427,0.025347074,0.13983859,0.121316575,0.16480301,-0.06409674,-0.17362691,0.34172043,0.00020498445,-0.0540195,-0.022453412,0.4969163,-0.2641456,0.19441374,0.031572845,0.016445192,0.13552083,0.036490574,0.043844216,0.3963666,0.027624883,0.103152305,0.24086067,0.15855803,-0.09160241,-0.091005936,0.04013556,-0.26139015,0.15410544,-0.11684971,-0.0798706,-0.31281108,-0.3120119,-0.13053353,0.06667357,-0.374153,-0.1902383,-0.020934623,0.12662278,-0.13675474,-0.08822213,-0.11098908,0.03642513,-0.23330337,0.06656042,-0.0076320986,-0.006799055,-0.1209963,0.039162114,-0.10931676,0.13389641,-0.54857796,0.08423226,-0.15662135,-0.28738755,-0.38351268,-0.21526231,-0.053487726,-0.40910178,-0.468414,-0.07370608,-0.045566354,-0.06583926,-0.19042778,-0.15549247,-0.17901506,-0.07398462,-0.026029535,0.008643554,0.13687238,-0.47889584,-0.08463947,0.29439548,-0.028285222,-0.29186583,-0.2436847,-0.23713666,-0.2594794,-0.2623323,0.22270122,0.23480217,-0.0070806537,0.005811933,0.14914031,-0.083104834,-0.17330167,0.061523836,0.43376976,0.21105723,-0.24359502,0.33103395,0.27297106,0.22266468,-0.00016047864,-0.21516874,0.26634422,-0.16596334,0.07616956,0.17307402,-0.14331537,-0.051264293,0.0107397735,0.093134075,0.103911325,-0.087525524,0.34389475,0.05671891,-0.114609666,0.06771579,-0.04782239,-0.061922193,-0.087752655,0.037402477,0.18699014,-0.3153759,0.0012914813,-0.11326202,-0.01947942,-0.14382201,0.3946511,0.184206,0.05690838,-0.2895285,-0.14649664,-0.2274315,0.11130019,0.091743775,0.017058006,0.1724275,0.15838331,-0.031396702,0.052108206,-0.19100507,0.21100135,-0.38882843,-0.18158062,0.101458594,0.53696465,-0.26271862,-0.22813582
-0.10051304,-0.050632678,0.12313199,0.09430612,-0.04990901,0.07478916,-0.12192884,-0.043845635,0.152168,0.12352666,-0.024405703,-0.21451823,0.11728713,-0.34226236,-0.15178718,-0.030206826,-0.071210325,0.16421334,0.15848137,0.10283551,-0.30300513,0.007912066,0.077886105,0.008040625,0.14519578,0.0069575594,0.05838611,-0.029447686,0.20348561,0.12737842,0.3188716,0.11150341,6.867242e-05,0.11360598,-0.31880662,-0.036448695,-0.20601024,-0.4101658,-0.27574745,0.16255933,-0.2619889,0.022573203,-0.021745369,0.018313441,0.070885286,-0.06329621,0.027616547,-0.16805941,-0.14361167,-0.1455083,-0.19243221,-0.10151692,-0.048345406,0.13469538,0.11308737,0.071641214,0.03271125,-0.18177897,0.10944198,-0.23868032,0.29616234,-0.02533535,0.0043404475,-0.054502677,0.23348136,0.03628,-0.11264669,0.08623462,0.017063042,0.18619488,0.11804307,0.008216292,-0.011119586,0.02875462,-0.100246415,0.13174568,0.040871248,0.15755752,-0.028907215,0.0147605855,-0.25215665,-0.13848525,0.09176128,0.008190267,-0.061957486,0.06870796,-0.09884731,-0.033048566,-0.22067751,0.108895876,-0.057039812,0.019262696,-0.089167096,-0.023331042,-0.00881506,-0.06191744,0.2910911,0.36384577,-0.0009947261,0.027725933,0.081090845,-0.060438026,0.01832358,-0.20316367,-0.15851481,-0.04917185,0.14966805,0.059783116,0.06216692,0.2460656,-0.025781495,0.07885835,0.04872368,-0.06853288,-0.1415285,0.19793437,0.40125632,0.1364006,0.21160103,0.021737952,0.16484042,-0.08504909,-0.013237148,0.12616538,-0.021746831,0.08152142,0.06925996,-0.030621272,-0.14837626,-0.46558818,-0.058975965,-0.123180725,-0.41737267,-0.21077918,0.06768038,0.24686353,-0.29327106,-0.019413128,-0.21136299,-0.053048544,-0.0011074066,0.111606285,0.039853107,-0.19842002,-0.42472234,-0.054339316,0.10354369,0.28845719,-0.12021642,0.1920285,0.29972672,0.25196508,0.069002464,-0.09892815,0.12115107,0.09808013,0.15764505,-0.016224666,0.048720896,0.15609612,0.125049,-0.0023548955,0.0837883,-0.21785149,0.38817942,0.27771258,0.07047643,-0.26962185,0.16659172,0.15238823,0.025594288,-0.018042097,-0.079118274,0.014457864,0.0022129,0.14220971,-0.00035684372,-0.010365785,0.05819931,-0.12771818,-0.3447164,-0.0324239,0.17712517,0.20651676,0.15368427,-0.056669366,0.155739,0.108424805,0.35481438,0.07528429,0.17051576,0.14573516,-0.20406288,-0.17681114,-0.08526103,0.14972925,0.10008707,0.1387639,0.16557059,-0.045717724,-0.18176928,-0.044505242,0.1417196,0.030092176,0.06315832,0.07440586,-0.013985872,0.03768381,0.0510929,0.20227265,-0.12692274,0.091277346,0.15454462,-0.17230533,-0.13893597,-0.14850584,-0.054692898,-0.078347094,0.053317573,0.09381677,0.070992045,-0.09484647,-0.24097997,0.10290087,0.17865866,0.01662317,-0.08153079,-0.4398902,0.060587283,0.18263392,-0.042798568,0.13676642,-0.1544881,-0.099905744,-0.058956772,0.31539905,0.108015686,0.00028815807,-0.06881323,-0.29589903,-0.035774395,0.23507978,0.124457054,0.07033867,0.09559858,-0.023830874,0.2586384,0.01626814,0.041820515,-0.05223513,-0.17519565,-0.21284229,-0.107477956,0.1447701,0.115536354,0.0018504428
